// Neural Network File Format by Kyle Julian, Stanford 2016
3,13,2,50,
13,50,50,2,
0,
29,0,0,94,126,0,0,71,0,0,0,0,0,
77,1,3,200,594,1,2,202,1,6.2,2,4,3,
0,0,0,0,0,0,0,0,0,0,0,0,0,0,
1,1,1,1,1,1,1,1,1,1,1,1,1,1,
-3.65219e-01,1.37197e-01,-5.38024e-04,8.68343e-02,1.71921e-03,2.07079e-02,3.61379e-02,3.85010e-01,-1.85617e-01,-1.95767e-01,-8.56923e-02,3.40115e-01,-1.51923e-01,
9.64657e-02,-3.40831e-01,3.31199e-02,-1.14623e-01,-1.65718e-01,2.34313e-01,-1.29644e-01,3.70195e-01,-4.10460e-01,6.15986e-02,1.79472e-03,2.44053e-01,-2.67941e-01,
1.27487e-01,1.56965e-01,7.49187e-02,-9.38803e-02,1.32450e-02,-1.14760e-01,3.91287e-01,1.67983e-01,1.53899e-01,1.58528e-01,-7.78705e-02,1.97206e-01,-1.31001e-01,
-2.30528e-01,-2.66627e-01,2.91454e-01,1.30241e-01,2.26485e-02,-2.39407e-02,2.11773e-01,-1.99414e-01,-2.70287e-01,-1.05071e-01,2.88828e-01,1.82392e-01,2.44359e-01,
3.35216e-26,-2.31307e-14,-9.13346e-25,-7.17314e-39,1.50079e-23,6.31675e-31,2.98510e-27,-4.15036e-15,-8.56607e-26,3.60514e-35,8.54857e-39,-4.73314e-30,-1.32478e-20,
2.22529e-01,1.03715e-01,-2.19540e-01,6.28158e-02,6.93097e-02,1.77790e-01,-1.85253e-01,1.47111e-02,-6.32403e-02,3.28396e-01,8.33971e-02,3.63710e-01,-2.07774e-01,
1.64124e-02,-6.10070e-02,1.26681e-01,-2.32209e-02,-6.41770e-02,-1.94519e-01,-2.32427e-02,3.67926e-02,-2.49118e-01,-4.16456e-01,5.64242e-02,-1.77487e-01,2.23976e-01,
1.78681e-01,1.58855e-02,3.55588e-01,6.25956e-02,1.37220e-02,-1.22318e-01,1.23116e-01,2.99512e-01,-3.27011e-02,-3.39239e-01,-7.83865e-02,1.83251e-01,-3.60820e-02,
-1.54981e-01,-1.77224e-01,-1.20875e-01,-7.52202e-02,2.02626e-01,-1.27073e-01,3.08131e-01,1.87104e-01,-2.85696e-01,2.23968e-01,1.45179e-01,-3.82011e-01,-3.51404e-01,
-2.31910e-01,-2.58558e-02,-1.49223e-01,3.19561e-01,1.27849e-01,-2.00060e-01,-2.16048e-01,-3.83661e-02,1.27313e-01,-5.25016e-03,4.25539e-03,2.69249e-01,3.57166e-01,
5.59185e-02,1.18504e-01,-2.66756e-01,-2.52269e-01,3.15851e-01,-1.12877e-01,3.20228e-01,-3.80193e-02,-1.53076e-01,-2.21953e-01,-1.40885e-01,1.92936e-01,-2.49650e-02,
2.41574e-01,-3.57995e-02,-3.48525e-01,3.40551e-01,1.25394e-01,-1.22042e-02,-4.80534e-01,8.84455e-03,6.66833e-03,-1.20718e-01,1.79913e-01,4.83318e-02,5.83019e-02,
-8.96404e-27,1.61790e-18,-5.43076e-11,-3.07777e-31,8.35883e-30,-1.90197e-29,5.30446e-14,-8.67945e-33,1.27106e-23,1.04138e-34,-6.23459e-31,-2.74403e-36,4.72020e-38,
-1.13912e-01,-2.09646e-02,-1.53641e-01,-1.62066e-01,-2.31932e-01,3.32811e-02,-1.68598e-01,-3.52874e-03,5.76940e-02,1.16308e-01,-3.50758e-03,2.98433e-01,2.96328e-01,
-2.65063e-01,-1.84686e-01,8.58694e-02,3.84813e-02,-1.01147e-02,-5.27677e-02,3.54493e-01,-9.13204e-02,2.19491e-01,3.92226e-01,-1.15850e-01,8.21218e-02,9.15747e-02,
1.93427e-01,-2.39464e-01,-2.23876e-01,6.03530e-02,-7.96104e-02,5.12307e-02,2.32872e-02,1.74367e-01,2.83846e-01,-2.56758e-01,2.94452e-01,-3.49947e-01,-1.38541e-01,
2.06532e-01,1.37768e-02,-1.31098e-01,-2.20679e-01,-1.43160e-01,1.01563e-01,1.45852e-01,2.69366e-01,-5.54674e-02,-1.54209e-01,1.34155e-01,-1.65636e-01,-1.25344e-01,
-4.12535e-03,-1.85703e-01,-1.59706e-01,-2.05288e-01,3.24039e-03,1.75057e-01,1.42664e-01,7.46828e-02,5.19961e-02,-4.04673e-01,2.38957e-01,2.16273e-01,8.21384e-02,
-1.22059e-01,2.76908e-01,7.14672e-02,1.60283e-01,1.56216e-01,-9.57355e-02,2.66842e-01,-6.23561e-03,2.23770e-01,-1.20137e-01,2.22797e-02,1.84859e-01,2.76304e-01,
-1.90398e-01,1.23730e-01,-1.65983e-01,-6.22055e-02,1.70965e-01,2.38907e-01,-4.18136e-02,-1.04925e-01,2.07931e-01,-1.48534e-01,-3.05210e-01,3.90853e-01,-3.26063e-01,
-4.78207e-02,2.60309e-02,-8.14428e-02,8.98099e-03,2.06180e-01,3.01248e-01,-2.48513e-01,2.18531e-01,2.12683e-01,3.49006e-01,-7.41416e-02,2.94754e-01,4.01046e-02,
-1.05437e-02,-2.40677e-01,-2.26623e-01,3.37420e-01,2.73270e-01,7.36016e-02,-2.33082e-01,3.84836e-01,9.98640e-02,3.41493e-01,2.32190e-01,1.19830e-01,3.24108e-01,
-1.55543e-01,2.40240e-01,3.39912e-01,9.40633e-02,2.89449e-01,-4.76399e-02,1.95339e-01,4.20169e-02,1.58482e-01,-3.67491e-01,4.55998e-02,-8.08644e-02,-7.29542e-02,
-1.09516e-01,-1.99637e-01,-2.56192e-02,-1.30120e-01,-6.53428e-02,2.29395e-01,-1.23768e-01,2.70849e-01,-1.30523e-01,2.60544e-02,3.63792e-01,-2.56978e-01,1.93287e-01,
1.45726e-01,1.92924e-01,-8.97527e-02,7.30599e-02,2.18010e-01,-1.92066e-01,-1.95521e-01,-1.68948e-01,-3.58491e-01,2.34447e-01,2.28105e-01,-1.27609e-01,1.56729e-01,
-8.36231e-02,1.90495e-01,5.18650e-01,-1.30728e-01,6.13404e-04,2.12397e-02,3.16619e-01,-1.80904e-01,1.19978e-01,8.97509e-02,1.99375e-01,-3.11613e-01,6.56646e-02,
8.25166e-02,1.26348e-01,4.17716e-02,1.69441e-01,1.10269e-01,-2.71619e-01,-8.81235e-02,-9.18088e-02,-2.59670e-02,-1.90253e-01,3.11177e-02,-9.05179e-02,3.77150e-01,
3.36057e-01,-1.48644e-01,1.37726e-01,-8.60102e-02,1.64382e-01,2.59697e-01,-2.79799e-01,-2.02474e-01,5.69040e-02,-5.07728e-02,2.43061e-02,2.38745e-01,3.96838e-01,
-1.00429e-01,2.12871e-01,-2.78117e-01,-2.43264e-01,1.72517e-01,2.15797e-01,1.60970e-02,-9.75884e-02,2.42255e-01,-4.15478e-02,1.27786e-01,2.90555e-01,3.12111e-01,
-2.80138e-01,-2.76323e-01,2.02145e-01,2.51207e-01,8.04525e-02,-1.92866e-01,-2.44268e-02,4.80535e-02,2.26155e-01,-2.22994e-01,2.80298e-01,2.54081e-01,-2.33453e-01,
-2.20713e-01,-1.90788e-01,2.00203e-01,2.40763e-01,5.52968e-02,2.09444e-01,-4.65991e-01,5.04149e-02,8.59854e-02,2.02862e-01,1.58306e-01,-6.95556e-01,-1.24677e-02,
-1.60799e-01,8.07977e-02,-1.82771e-02,-2.47850e-01,-2.05638e-01,1.62761e-01,-5.64569e-02,2.35235e-01,3.38075e-01,-1.67426e-01,3.40458e-01,-4.09785e-01,9.64236e-02,
1.36408e-01,2.00986e-01,8.29545e-02,1.84208e-01,-1.31545e-01,-3.11620e-01,1.30772e-01,1.45985e-01,-2.18389e-01,2.56808e-01,-5.43102e-02,1.53782e-01,7.15908e-02,
2.12397e-01,-2.27849e-01,-3.29647e-01,1.41414e-01,1.86321e-01,1.88402e-01,-3.11746e-01,2.49955e-01,2.40143e-01,-1.77017e-01,-1.03913e-01,2.10111e-01,1.12473e-01,
8.79681e-02,-1.81715e-01,1.25247e-01,-2.77192e-01,1.60329e-01,2.58593e-01,1.21413e-01,2.44574e-01,-1.59014e-01,-1.19917e-01,2.59148e-01,1.95106e-01,6.71538e-02,
-1.91365e-07,-6.29466e-08,-2.10630e-08,-3.14881e-08,-2.79301e-09,-4.87190e-08,-3.96484e-08,-7.47531e-08,4.89689e-10,-3.85120e-09,1.93616e-08,1.68123e-09,-4.19030e-07,
1.84879e-01,-9.97047e-02,1.54662e-01,2.91161e-02,2.04282e-02,-4.41331e-02,5.05200e-02,2.96433e-01,2.18703e-01,1.42682e-01,7.25866e-02,-2.24468e-01,-1.06666e-01,
1.45796e-01,-1.39992e-03,1.81787e-01,2.20678e-01,1.20443e-01,6.53248e-02,2.92364e-01,-2.26193e-01,2.47288e-01,1.92564e-01,-2.55972e-02,1.35616e-01,5.61092e-02,
-1.65752e-01,6.95035e-02,-2.02534e-01,-1.83006e-02,1.50021e-01,-1.49626e-01,2.77267e-01,-1.32256e-01,3.82276e-02,2.39741e-01,-9.66249e-02,-1.90695e-01,3.74685e-01,
-2.41230e-01,-8.53361e-02,2.70728e-01,-1.21246e-02,-2.11593e-01,-3.28577e-01,-4.02078e-01,3.06381e-01,2.63396e-01,2.16036e-01,1.14654e-01,-4.53691e-01,4.35291e-03,
-7.45837e-24,5.46940e-35,-2.22267e-23,-3.53604e-24,4.12148e-22,-1.45144e-20,-4.41608e-11,-6.65448e-24,-1.25145e-13,2.51174e-38,-1.12711e-24,6.35777e-32,-1.66810e-11,
1.65489e-01,2.11084e-01,-8.21060e-02,1.19776e-01,2.38482e-01,-3.08475e-01,-1.57265e-01,1.32235e-01,1.91097e-01,1.62408e-01,-1.43650e-01,1.67647e-01,2.25329e-01,
1.37399e-01,-1.30477e-01,-3.26241e-01,2.25941e-02,1.14329e-01,3.65572e-01,-1.45532e-01,3.98251e-02,2.19299e-01,1.42799e-02,-2.75682e-01,1.61551e-01,-4.51569e-02,
-2.74321e-02,-1.63385e-02,6.26871e-03,-2.14117e-03,-2.12319e-02,3.12597e-02,-1.02022e-02,-1.30625e-02,2.93291e-02,1.07296e-02,-3.44320e-02,-3.23239e-02,-1.77209e-02,
-1.89583e-01,2.29805e-01,-7.17766e-02,5.37343e-02,-1.66732e-01,1.22826e-02,1.51070e-01,3.33824e-01,-6.47610e-02,3.01776e-02,2.23238e-01,6.24454e-02,-2.29710e-01,
-1.02140e-29,1.80981e-23,1.41408e-34,-3.74506e-36,1.48406e-30,-2.42918e-37,1.01268e-36,-2.70270e-11,5.41144e-38,-1.68615e-12,-7.16438e-14,1.83072e-20,-2.39786e-38,
2.77470e-02,-1.27534e-01,3.59619e-01,4.20487e-02,1.92235e-01,-1.84572e-01,-7.45333e-02,8.45528e-02,-1.00686e-01,-2.54236e-01,2.57833e-01,-1.45446e-01,2.21327e-01,
-2.21278e-01,-1.98755e-01,-2.57378e-01,2.63456e-01,1.84789e-01,2.05908e-02,2.53277e-01,3.29885e-01,-5.03093e-01,1.08266e-01,2.33958e-01,4.02542e-02,1.40506e-01,
1.64766e-01,-3.68379e-01,1.86717e-01,-1.67091e-01,1.09652e-01,-1.02097e-01,1.71722e-01,-3.98661e-02,-3.15908e-01,2.72661e-01,-3.47566e-01,1.92643e-01,3.02952e-01,
-2.04598e-01,-1.03217e-02,1.16364e-01,1.97510e-01,2.57482e-01,1.62480e-01,4.78348e-02,4.74449e-02,1.48651e-01,2.75975e-01,-1.25144e-01,1.57655e-01,2.70208e-01,
-7.70053e-02,
8.16410e-02,
-1.73175e-01,
1.61895e-01,
-2.39907e-28,
-1.19574e-01,
-3.99296e-02,
-1.14000e-01,
2.66332e-01,
4.62170e-02,
9.61918e-02,
-4.87273e-02,
-3.08425e-11,
1.07737e-01,
-9.03716e-02,
2.15266e-01,
7.41057e-02,
1.88363e-01,
-1.81558e-01,
1.22952e-01,
2.41615e-02,
2.07685e-01,
-1.11934e-01,
-1.42558e-01,
-3.64801e-02,
-1.98935e-02,
-2.08969e-01,
-2.68078e-01,
5.80016e-02,
-1.04184e-01,
1.36520e-01,
-1.30312e-01,
-2.64370e-01,
-1.04868e-01,
-2.14495e-01,
-4.73809e-07,
2.90593e-01,
-2.25069e-01,
-1.58878e-01,
-8.99184e-02,
2.76471e-24,
-2.71602e-01,
-2.91018e-02,
-1.62998e-02,
1.79643e-03,
1.44326e-27,
2.54796e-01,
-1.24048e-01,
6.33094e-02,
-1.05416e-01,
-3.42377e-01,2.09214e-01,1.18337e-01,4.66466e-02,2.54953e-38,8.57286e-02,1.70104e-01,-1.24445e-01,-1.33725e-01,1.51064e-01,-2.63879e-01,1.26744e-01,-5.89896e-39,1.89784e-01,5.33310e-01,-1.24122e-02,-1.79144e-02,3.81642e-02,3.12559e-02,3.89964e-01,-1.02459e-01,5.71035e-02,-8.29578e-02,6.15617e-02,5.51851e-03,1.67799e-01,2.16434e-01,-1.76066e-01,9.15614e-02,-5.29839e-01,-2.23738e-01,-1.39639e-01,1.30014e-01,1.32687e-01,-9.54549e-02,1.39057e-08,1.27822e-02,7.57401e-02,2.97302e-01,-1.85545e-01,3.57775e-39,1.53622e-01,5.19142e-01,1.10220e-02,-1.94633e-02,1.75362e-39,5.89785e-02,9.10085e-03,-2.65696e-01,1.39267e-01,
2.56424e-01,-2.78690e-01,4.72250e-03,1.53724e-01,-1.73617e-37,-1.75589e-01,1.53988e-02,4.51107e-02,2.37135e-01,-1.05334e-02,2.59157e-01,-8.98187e-02,1.62068e-38,-7.25525e-02,-3.75641e-01,1.82228e-01,2.07101e-01,1.73405e-01,-1.42770e-01,-3.27613e-01,1.48159e-02,9.78628e-02,1.60178e-01,1.13450e-01,-1.04240e-01,-4.79819e-02,-2.25021e-01,5.50201e-02,-3.60633e-02,4.57239e-01,1.99567e-01,2.71143e-01,-1.88869e-01,-1.64197e-01,1.26631e-01,-6.25723e-08,1.41822e-01,7.66303e-02,-3.47686e-02,2.53506e-01,2.85668e-24,9.27364e-02,-3.12505e-01,-1.02954e-02,-5.37627e-02,2.49349e-38,-2.01511e-02,1.55825e-01,2.21175e-01,4.14186e-02,
3.21974e-01,-3.12190e-01,9.60807e-02,1.14832e-02,1.92441e-35,-9.22989e-02,-1.66391e-01,1.69749e-01,2.77127e-01,3.44020e-02,9.22736e-02,-9.47913e-02,-2.33027e-39,-1.56634e-01,-5.52917e-01,4.07354e-02,1.43467e-01,1.24601e-01,1.18197e-01,-4.37141e-01,-9.29165e-02,1.32499e-01,1.28060e-01,1.31820e-01,-6.83515e-02,1.07225e-01,-1.89038e-01,2.71011e-01,-1.33616e-01,5.09009e-01,2.98114e-01,6.09056e-02,-7.70853e-02,-2.96954e-01,1.34740e-01,6.81737e-09,6.50443e-02,-8.78891e-02,-1.80203e-01,2.63790e-01,1.29078e-23,8.76982e-02,-5.20227e-01,-1.06406e-02,-5.06437e-02,1.35007e-39,-8.31845e-02,1.46329e-01,4.24437e-01,1.00832e-01,
2.79600e-01,-2.86472e-01,3.71488e-02,-1.15627e-01,-2.37206e-32,-2.11122e-02,-2.45403e-03,1.88504e-01,1.63993e-01,-2.40957e-02,1.77779e-01,-1.53642e-01,3.98240e-39,8.34262e-02,-3.95922e-01,2.53869e-01,4.99254e-02,1.65763e-02,-9.45176e-02,-3.96470e-01,9.76803e-02,7.39463e-02,1.40181e-01,1.75714e-01,-1.19772e-01,6.84651e-02,6.71618e-03,1.27763e-01,-1.13130e-01,6.19489e-01,1.17357e-01,1.25722e-01,-1.76803e-01,-2.29392e-01,7.34483e-02,5.10396e-09,4.41757e-02,8.88482e-02,-1.50696e-01,2.98375e-01,-1.14648e-24,5.97030e-03,-5.27970e-01,-9.99540e-03,-4.89711e-02,-9.97901e-37,1.42216e-02,5.79867e-02,2.26848e-01,-6.02969e-02,
-3.39372e-01,3.42174e-01,-9.07985e-02,1.26835e-01,-6.42690e-34,-4.58250e-03,1.70418e-01,3.12452e-02,-2.42570e-01,1.07621e-01,-4.29986e-02,2.00642e-01,6.06999e-39,1.17184e-01,6.15880e-01,-1.83449e-01,-1.26712e-02,-1.21123e-01,8.81637e-03,4.92194e-01,3.41781e-02,4.63236e-02,1.62396e-02,3.35196e-02,8.22490e-03,3.44233e-02,6.16319e-02,-1.02834e-01,-4.09623e-02,-4.49537e-01,-1.81429e-01,-1.43653e-01,2.01615e-01,2.85891e-01,4.88021e-02,2.42999e-08,-2.89510e-02,1.11213e-01,8.07921e-02,-3.43889e-01,2.07290e-38,5.32307e-02,5.05665e-01,9.14667e-03,1.05829e-01,2.10620e-38,-1.58671e-02,1.64874e-02,-1.95933e-01,3.27818e-02,
4.87456e-01,-2.69587e-01,-9.76933e-02,3.71411e-02,1.46736e-33,-5.74202e-02,-1.55376e-01,7.99229e-02,2.00495e-01,-6.28525e-02,1.15839e-01,-7.60165e-02,-9.76047e-38,-5.72281e-02,-5.09044e-01,9.32547e-02,1.35859e-01,4.96223e-02,-1.07431e-01,-3.62101e-01,1.46496e-01,-4.45989e-02,7.03683e-02,1.27993e-01,2.38079e-03,1.21153e-01,-2.65932e-01,3.10211e-01,-1.53103e-01,6.72838e-01,3.86624e-01,1.63599e-01,-9.82999e-02,-3.90290e-01,1.79146e-01,-2.19503e-08,1.87846e-01,-1.41607e-01,-1.79837e-01,3.56554e-01,2.92696e-23,8.98939e-03,-3.67839e-01,-7.35875e-03,1.22635e-02,-2.08674e-38,-9.52635e-02,1.95706e-01,4.18172e-01,-1.28205e-01,
-4.73390e-01,2.23884e-01,1.12163e-01,1.54546e-01,2.86924e-31,4.77497e-02,1.91438e-01,-1.43581e-01,-4.25266e-01,6.13023e-03,-9.30764e-02,1.88950e-01,-5.90327e-31,1.58436e-01,5.88311e-01,-9.16772e-02,-8.93165e-02,-3.65323e-02,1.40627e-01,3.87543e-01,-1.02602e-01,-8.30076e-02,1.03966e-01,-1.26779e-01,-6.14115e-02,1.68560e-01,1.80612e-01,-2.58186e-01,7.01606e-02,-5.50841e-01,-1.55488e-01,-2.57454e-01,5.03657e-02,2.02293e-01,-2.85339e-02,-9.58051e-10,9.28816e-02,1.17253e-01,9.55628e-02,-3.76650e-01,-1.13342e-38,1.61172e-01,5.84490e-01,1.37526e-02,1.83071e-02,-3.86398e-38,-4.29305e-03,-2.91107e-02,-2.11871e-01,1.61201e-01,
-4.76435e-01,3.26670e-01,7.91461e-02,1.36574e-01,-1.76787e-38,2.17206e-01,6.04508e-02,-1.78348e-02,-2.58581e-01,8.52790e-02,-1.23790e-01,2.21700e-01,3.10601e-32,1.88909e-01,5.32216e-01,-9.84905e-02,-6.98240e-02,-9.37109e-02,-9.44989e-02,4.70300e-01,-5.67429e-02,-6.99068e-02,5.29740e-02,-5.78834e-02,2.16265e-01,5.38185e-02,6.93788e-02,-1.48713e-01,1.55945e-02,-6.03866e-01,-2.16380e-01,-6.83618e-02,8.88310e-02,2.93917e-01,1.01280e-01,-7.23677e-10,-4.50902e-02,1.04674e-01,2.03249e-01,-2.88217e-01,2.30294e-35,1.32028e-01,5.35495e-01,1.12740e-02,6.05491e-02,-2.46024e-39,1.53320e-01,4.14302e-02,-3.40922e-01,7.52380e-02,
-9.95186e-07,4.16815e-10,-1.90575e-04,-4.92194e-04,7.02703e-39,-5.42449e-05,-9.92969e-06,-9.11398e-04,-2.05215e-06,-9.13570e-04,-2.96757e-05,1.23889e-04,-6.98278e-34,-5.24625e-05,-3.97696e-15,-1.63581e-04,-5.69892e-04,-1.84962e-03,-7.52116e-03,-2.41799e-20,-1.67499e-03,-5.33324e-03,-1.92523e-03,1.09963e-04,-6.02157e-04,-4.00276e-03,-2.97658e-04,-6.68501e-05,-5.13005e-03,5.11589e-21,1.33793e-05,3.17954e-04,-1.24775e-04,-3.95038e-06,-2.50134e-04,-5.18088e-36,-7.20328e-03,-3.26090e-04,-3.85549e-04,2.36978e-06,-8.69156e-35,-5.20746e-04,1.25350e-15,1.19428e-30,-1.41518e-03,6.98884e-39,-7.03780e-03,-3.58674e-04,-6.44795e-09,-8.76474e-04,
3.21386e-01,-1.90142e-01,-3.04431e-02,2.31745e-02,5.44206e-35,-1.42292e-01,-1.04133e-01,2.76377e-02,1.77863e-01,-4.07854e-02,9.26386e-02,-6.94806e-02,-5.97153e-34,-1.14704e-01,-4.96910e-01,1.39764e-01,8.94237e-02,1.08045e-01,1.12551e-01,-4.25003e-01,4.66800e-02,1.50931e-01,7.88198e-02,1.82693e-01,-1.02902e-01,5.30052e-02,-1.95895e-01,1.34674e-01,-4.70200e-02,5.99313e-01,2.38284e-01,1.74153e-01,-1.40262e-01,-1.48905e-01,1.53782e-01,1.62820e-09,9.96523e-02,-3.92858e-02,-1.30420e-01,2.86079e-01,-1.47350e-23,4.89772e-02,-4.47199e-01,-1.06065e-02,2.10457e-02,2.06439e-32,-2.88770e-02,1.58169e-01,3.53258e-01,-6.49520e-02,
-3.20005e-01,2.39917e-01,6.15485e-04,1.35386e-01,1.10171e-34,2.30927e-01,1.07965e-01,6.79655e-02,-4.14157e-01,-4.52545e-02,-2.40796e-01,-8.09827e-03,-2.10863e-38,7.74829e-03,6.82327e-01,-1.63329e-01,3.94457e-02,-5.90493e-02,5.75581e-02,4.97006e-01,6.53192e-02,6.36457e-02,-9.21470e-02,-1.40694e-02,-3.59194e-02,1.70661e-01,1.08436e-01,-3.50471e-01,-2.52794e-02,-4.21517e-01,-3.54078e-01,-2.74443e-01,-4.83238e-02,2.36395e-01,-1.42165e-01,-2.66251e-09,1.47206e-02,1.96919e-01,1.11853e-01,-4.36532e-01,2.96833e-39,-1.30994e-02,5.53189e-01,1.13097e-02,6.51321e-02,8.73598e-39,9.89199e-02,-1.23119e-01,-3.06616e-01,1.55345e-01,
-4.12620e-01,3.36567e-01,2.32599e-02,3.60339e-02,-3.28365e-38,1.93747e-01,1.52091e-01,-1.36776e-02,-2.14720e-01,1.81640e-01,-7.01708e-02,3.91850e-02,3.02157e-38,-1.01160e-02,5.58351e-01,-1.70648e-01,8.21396e-02,5.53327e-02,-4.56905e-02,3.82306e-01,-6.77412e-02,-1.09782e-02,-1.77582e-04,9.60929e-02,2.16060e-01,3.64206e-02,6.22621e-02,-6.65504e-02,6.40891e-02,-5.19213e-01,-1.28125e-01,-3.98992e-02,2.05212e-01,2.44582e-01,-2.16097e-02,-1.09982e-08,-1.10190e-01,4.02768e-02,2.10696e-01,-2.57201e-01,4.94115e-38,1.50373e-01,4.57891e-01,1.23650e-02,-7.26692e-02,1.14825e-38,1.45904e-01,1.11489e-01,-2.92207e-01,7.67360e-02,
-3.61731e-01,2.68952e-01,6.66539e-03,-1.13127e-01,-3.29252e-38,1.67583e-01,1.10645e-02,-2.34838e-01,-5.49298e-02,1.88778e-01,-5.21947e-03,7.75590e-02,-7.54934e-37,2.05895e-01,5.97877e-01,-7.92415e-02,-3.65314e-02,4.13718e-02,2.11568e-02,3.69114e-01,1.94261e-01,1.86609e-01,-2.49713e-01,7.18865e-02,-8.70240e-02,-1.92813e-01,5.34725e-02,-7.81336e-04,-7.28884e-03,-4.82306e-01,-1.03240e-01,5.70298e-02,-2.19663e-02,2.10470e-01,-1.72012e-01,2.39120e-08,1.50384e-02,-2.33507e-02,7.71447e-02,-1.26285e-01,2.84181e-37,8.07919e-03,6.09450e-01,6.19143e-03,1.15526e-01,3.88857e-38,-1.60130e-01,1.64143e-01,-3.57468e-01,1.74996e-01,
-3.37684e-01,1.31411e-01,-3.67725e-02,1.21215e-01,-1.36442e-39,2.57789e-01,2.66236e-02,-1.56038e-01,-3.50137e-01,1.00963e-01,-1.34069e-01,2.08287e-01,-2.53060e-36,-2.24458e-02,6.21579e-01,-1.12867e-01,-1.28576e-01,-1.33384e-01,1.03462e-01,3.59395e-01,2.27905e-02,-1.00488e-01,1.17315e-01,-1.81256e-01,8.44608e-02,7.53978e-02,1.12058e-01,-2.29216e-01,3.22193e-02,-3.43729e-01,-8.55337e-02,-1.02792e-02,3.55828e-02,2.55608e-01,2.93446e-02,-1.41848e-08,5.08534e-02,1.54815e-01,3.33535e-01,-3.37166e-01,1.46476e-31,-4.42948e-02,5.48397e-01,1.54844e-02,1.00445e-01,1.29145e-35,-3.78608e-02,-4.57662e-02,-2.00678e-01,-5.21202e-03,
6.08360e-15,4.70650e-36,1.36537e-08,1.10050e-06,-1.07471e-37,-1.19838e-10,-3.06539e-06,2.34994e-05,1.10856e-06,-2.57051e-07,-7.96892e-10,-2.44727e-07,2.91403e-38,6.74476e-09,-5.82171e-34,-7.95567e-07,5.99510e-07,2.94151e-08,-1.11514e-04,-1.17893e-31,-8.71457e-05,-3.61549e-04,-1.01168e-04,-9.80672e-08,-8.20108e-05,-2.63100e-04,-4.28788e-09,-1.87011e-10,-5.63233e-05,6.29100e-34,-7.96351e-09,-2.10721e-07,-1.06611e-09,-5.33604e-16,2.07750e-05,1.92608e-38,-1.71514e-04,-1.76127e-07,-2.01114e-07,1.14539e-12,-1.56330e-38,-7.16796e-07,1.99115e-32,-7.16487e-39,1.00467e-05,1.32814e-30,-3.52492e-05,1.47507e-08,2.21323e-15,-1.58494e-06,
3.71527e-01,-1.55365e-01,1.80532e-03,3.57881e-02,8.90693e-33,-1.47375e-01,-4.95625e-03,8.76562e-02,1.62268e-01,-1.00914e-01,2.67380e-01,-1.59292e-01,-3.58400e-38,1.02307e-01,-4.61428e-01,2.13259e-01,2.01156e-01,9.97603e-02,7.65574e-02,-4.20249e-01,3.42874e-02,-8.25911e-02,-3.72441e-02,1.02643e-01,4.08030e-02,9.66226e-02,-6.98832e-02,2.07918e-01,-7.10600e-02,4.79175e-01,2.50068e-01,8.25654e-02,-5.44394e-02,-1.17641e-01,2.02482e-01,4.04628e-09,1.63935e-01,7.24578e-02,-1.45794e-01,2.65171e-01,3.62384e-24,4.31169e-02,-4.96516e-01,-1.03125e-02,1.22904e-01,-4.89406e-34,1.17519e-01,9.79939e-02,2.69453e-01,1.17724e-01,
-4.29489e-01,3.36559e-01,1.93808e-02,1.18338e-01,-2.43417e-35,1.35584e-01,1.73235e-01,8.37573e-02,-2.05813e-01,7.42229e-02,-1.62393e-01,1.23540e-01,-1.25867e-38,3.25722e-02,6.97297e-01,-7.65227e-02,3.33714e-02,-3.76346e-03,1.73407e-02,5.33124e-01,-1.99322e-02,1.90435e-02,3.62763e-02,-1.92578e-03,9.89436e-02,5.24398e-02,1.22076e-01,-2.19854e-01,-3.00106e-03,-6.73903e-01,-1.91955e-01,-8.84792e-02,8.80053e-02,3.18883e-01,8.15042e-03,-2.67872e-08,4.04470e-02,3.47415e-02,1.89724e-01,-2.73755e-01,1.27111e-37,-1.37833e-02,6.41460e-01,1.06721e-02,9.07053e-02,-8.38906e-39,5.72595e-02,9.88980e-03,-3.33912e-01,-1.71880e-02,
-3.57769e-01,2.86409e-01,2.67804e-02,8.19647e-02,2.14039e-38,1.40102e-01,1.22957e-01,2.40269e-02,-2.44374e-01,1.10712e-01,-1.77058e-01,2.57536e-01,6.82069e-31,1.39874e-01,5.63679e-01,-1.45700e-01,-1.18061e-02,-9.44711e-02,-6.66592e-02,4.30070e-01,-1.02884e-01,1.08941e-01,-4.35324e-02,5.40490e-04,6.64617e-02,1.83434e-02,1.81604e-01,-9.58161e-02,5.65562e-02,-5.27635e-01,-1.94150e-01,-1.63269e-01,5.03107e-02,2.26125e-01,-1.02327e-01,-1.93045e-08,4.63905e-02,4.18185e-02,7.18998e-02,-2.23481e-01,-2.02121e-38,-1.25625e-02,5.15885e-01,1.08551e-02,5.76671e-02,-7.33178e-37,-6.10554e-02,9.31745e-02,-2.14904e-01,8.91783e-02,
3.95210e-01,-2.27660e-01,-4.91092e-02,2.51286e-03,1.44754e-34,-7.70583e-02,2.54306e-02,1.96169e-01,3.62725e-01,5.84407e-02,8.96274e-02,-1.71009e-01,4.16936e-39,9.25215e-03,-4.79489e-01,1.59479e-01,1.44674e-02,9.03921e-02,-3.30753e-02,-4.20289e-01,7.00431e-02,1.18133e-01,5.94832e-02,8.92322e-02,-1.18002e-01,-2.37221e-02,-3.39902e-02,1.38368e-01,-6.33529e-02,6.02205e-01,1.83036e-01,1.73216e-01,-7.05268e-02,-2.48776e-01,1.52274e-01,-1.36146e-09,1.39792e-03,1.98729e-03,-3.45306e-02,3.37980e-01,-1.12204e-23,-3.61789e-02,-3.79885e-01,-1.05739e-02,-1.44938e-02,-9.09716e-33,8.47079e-02,1.02497e-01,3.51164e-01,-5.14693e-03,
-8.63784e-06,-3.46846e-34,-1.02962e-04,-6.53260e-04,-4.86782e-38,-1.21039e-03,-1.29603e-03,1.57274e-03,5.26073e-04,-1.60313e-03,1.31377e-05,-8.80982e-04,6.28543e-38,-7.02077e-04,1.44528e-21,-3.49088e-03,3.34571e-03,-4.77174e-05,-2.27317e-03,-7.70926e-34,-5.40970e-03,-1.59013e-03,-1.82746e-03,-1.23556e-03,-8.45808e-04,-8.28311e-04,3.57262e-04,-6.90287e-05,-5.63307e-03,1.64515e-31,-8.33455e-04,-4.68881e-04,3.31037e-04,-2.32595e-05,-1.67384e-03,-1.05657e-34,-6.97902e-03,-1.00921e-04,6.43247e-04,-1.40114e-05,1.33962e-37,-5.64394e-03,1.18603e-34,-6.09980e-40,-2.99686e-03,-2.23705e-35,4.82363e-04,-3.38016e-04,-7.35668e-07,-1.57035e-03,
-3.08292e-01,2.69935e-01,-9.42099e-02,3.75553e-02,4.53740e-37,1.63584e-01,-4.48217e-02,8.52801e-02,-1.67229e-01,1.26314e-01,-1.84032e-01,2.07330e-01,2.95789e-39,1.40219e-01,5.63291e-01,6.08273e-02,-1.62552e-01,-1.03055e-01,-9.40418e-02,5.06504e-01,1.53844e-01,-5.35401e-03,4.92655e-02,2.33421e-02,5.57266e-02,1.12404e-02,2.25958e-01,-2.17542e-01,5.20965e-03,-4.31348e-01,-1.38665e-01,-1.38704e-01,1.25442e-01,2.62387e-01,-2.17815e-02,7.14762e-09,-2.15572e-02,4.15249e-02,2.98185e-01,-3.29791e-01,5.69845e-39,-5.39629e-02,5.00602e-01,1.05409e-02,1.23592e-01,5.12720e-37,-9.58532e-02,8.58093e-02,-1.72295e-01,1.65529e-01,
4.78675e-01,-2.92389e-01,1.12197e-01,-7.55771e-02,-2.57878e-39,-3.07556e-02,-1.33559e-01,5.12322e-02,3.63291e-01,4.40487e-02,7.69715e-02,-2.17750e-01,3.58729e-38,-1.10369e-01,-4.48221e-01,1.81138e-01,5.93067e-02,1.74327e-01,1.26837e-01,-4.73327e-01,-4.39826e-02,-1.14070e-03,1.51720e-01,-3.41807e-02,9.62980e-02,5.44517e-02,-7.82972e-02,2.31085e-01,-3.44860e-02,4.23743e-01,1.65250e-01,1.12163e-01,-7.53502e-02,-1.93330e-01,1.12934e-01,9.47721e-09,-4.65768e-02,1.81050e-02,-2.74980e-01,3.74673e-01,-1.44589e-25,1.08256e-01,-2.99791e-01,-1.00220e-02,1.29353e-01,2.96378e-39,9.29334e-02,1.86676e-01,3.25068e-01,-5.05628e-02,
4.26598e-01,-1.44806e-01,8.61094e-02,-6.81690e-02,-8.07089e-38,-9.50012e-02,-7.06310e-02,-8.44713e-02,2.09374e-01,-9.10859e-02,2.50156e-01,2.06929e-02,8.23728e-38,9.76860e-02,-4.50745e-01,8.77702e-02,-9.94487e-04,3.15045e-02,-1.00048e-01,-5.25175e-01,7.36965e-02,-4.45267e-02,1.69126e-01,1.55948e-01,-1.86014e-01,-5.97944e-02,-8.39804e-02,2.67672e-01,1.17384e-01,5.76883e-01,1.48417e-01,2.31325e-01,-2.01993e-01,-1.97079e-01,-3.63172e-02,2.06567e-08,-6.39768e-02,1.46458e-02,-8.27471e-02,2.88651e-01,1.19923e-23,-7.56725e-02,-4.92917e-01,-1.68521e-02,1.51410e-01,-2.15424e-39,1.48097e-01,1.92026e-01,1.87968e-01,-9.60191e-02,
2.83160e-01,-2.54542e-01,-8.62440e-02,7.40327e-02,-1.03413e-38,-8.88526e-03,-1.46067e-01,1.56917e-01,3.25623e-01,-3.73705e-02,2.00663e-02,-1.02982e-01,1.15925e-38,-5.19898e-02,-4.01344e-01,1.13838e-01,1.79852e-01,-7.07273e-02,-1.32791e-01,-4.05774e-01,-2.23170e-02,1.19230e-01,7.98678e-03,1.37941e-01,-1.22022e-01,9.34127e-02,-2.40191e-01,1.13068e-01,-1.49282e-01,5.21558e-01,2.73508e-01,2.01268e-01,-4.06094e-02,-3.93118e-01,1.78074e-01,1.10355e-09,1.05455e-01,-7.36625e-02,-2.86822e-01,2.66439e-01,-1.23178e-23,-2.17167e-01,-3.60873e-01,-8.28107e-03,1.16635e-01,5.78795e-32,1.66138e-01,-1.58834e-02,2.63858e-01,4.78828e-02,
3.78473e-01,-2.15283e-01,5.83472e-02,1.42827e-01,-1.07957e-34,-2.40045e-01,4.61245e-02,7.81361e-02,2.97982e-01,-1.65056e-01,2.22533e-01,-1.41764e-01,-5.57351e-39,1.28589e-02,-4.42775e-01,1.65547e-01,4.99952e-03,1.86981e-01,-8.83666e-02,-4.50922e-01,-1.13297e-01,1.40802e-01,-2.57156e-02,1.86084e-01,5.48095e-02,1.02587e-01,-1.92817e-01,1.85351e-01,7.65054e-02,4.22345e-01,3.49537e-01,1.65933e-01,7.60732e-03,-2.05109e-01,1.57543e-01,-2.48991e-08,9.14439e-02,8.81579e-02,-2.91092e-01,3.02098e-01,-1.09381e-23,3.59485e-02,-4.35892e-01,-1.10335e-02,-1.16745e-02,5.84692e-38,1.31714e-01,7.28024e-02,3.33617e-01,7.84754e-02,
-4.83967e-01,6.81159e-02,1.50030e-01,2.65774e-01,3.23935e-35,-1.14346e-01,8.64598e-02,1.86157e-01,-1.37331e-01,-2.04809e-01,6.49770e-03,-6.85104e-02,-1.08268e-39,-1.23120e-01,5.54810e-01,-5.44614e-01,1.35526e-02,-2.71408e-01,6.15218e-02,3.18537e-01,-1.21207e-01,-3.69306e-02,2.85121e-01,-4.54566e-01,6.90479e-02,3.01118e-01,1.25341e-02,-4.00650e-01,-3.57997e-02,-2.38854e-01,-2.06392e-01,-2.75807e-01,6.79841e-02,-1.39968e-01,-5.85585e-02,1.28533e-08,-3.00939e-02,1.67452e-01,3.53126e-01,-1.48944e-01,3.52230e-32,-6.09232e-02,-1.84524e-01,1.75254e-02,1.60304e-02,-9.07966e-33,1.98693e-01,-3.43227e-01,-1.48712e-01,4.83726e-02,
4.05693e-01,-2.40490e-01,-9.37318e-02,-1.11912e-02,3.89681e-38,-9.30615e-02,3.69161e-02,8.71530e-02,4.51597e-01,-2.08518e-01,3.82198e-02,-6.32936e-02,-1.77265e-35,-2.89218e-01,-3.26542e-01,-1.44840e-03,2.71088e-01,-9.91528e-02,-8.35424e-03,-4.28266e-01,-6.28992e-02,1.27859e-01,-6.64540e-02,2.34824e-01,-1.02283e-01,-5.23192e-02,-3.16797e-01,2.44817e-01,-4.32705e-03,6.70599e-01,1.53751e-01,1.14688e-01,-2.34360e-01,-2.60125e-01,1.28442e-01,1.72914e-08,1.66120e-01,-1.75402e-01,-2.51771e-01,3.51181e-01,1.45416e-23,-1.42501e-01,-3.30030e-01,-1.07835e-02,1.22108e-01,6.12469e-36,-5.72319e-02,8.92457e-02,2.46423e-01,1.66238e-03,
3.91790e-01,-1.58615e-01,-1.18249e-01,-7.56252e-02,-7.79987e-33,-1.54176e-01,7.16645e-02,2.84902e-02,1.29789e-01,8.92355e-03,1.54367e-01,-9.38210e-02,-3.65262e-32,1.14708e-02,-3.88636e-01,-2.88164e-02,1.00107e-01,1.59838e-01,-7.21957e-02,-3.80011e-01,1.13304e-01,-5.35702e-02,1.39260e-01,1.12884e-01,9.06550e-02,1.24583e-01,-8.05654e-02,1.96362e-01,8.09161e-02,4.04208e-01,2.14001e-01,1.76476e-01,-1.54739e-01,-1.23261e-01,5.61271e-03,-4.89905e-08,6.16484e-02,-7.58091e-02,-7.21651e-02,2.69750e-01,-7.09376e-24,2.02753e-02,-4.45762e-01,-7.91989e-03,8.01257e-02,8.31583e-38,9.49548e-02,1.33794e-01,3.43639e-01,-5.27724e-04,
-4.61498e-01,3.00162e-01,3.57499e-02,1.55860e-01,6.82179e-31,1.11985e-01,8.81326e-02,1.33706e-01,-3.29362e-01,6.58432e-02,-8.93788e-02,2.00625e-01,-9.72863e-38,3.03820e-02,5.02246e-01,-1.22471e-01,-1.11114e-01,-4.42171e-02,8.92407e-02,5.16964e-01,-1.02136e-01,-8.08377e-02,-1.00355e-01,-4.95663e-02,1.52963e-01,-3.24108e-02,1.90906e-01,-1.41500e-01,1.14395e-01,-5.82775e-01,-1.29356e-01,-1.77917e-02,-5.44373e-02,1.80759e-01,8.18139e-02,-1.93467e-08,-6.75360e-02,1.00797e-01,8.26698e-02,-2.74956e-01,2.83241e-38,4.78405e-02,4.48968e-01,1.13832e-02,1.48392e-01,-1.29296e-38,1.03033e-01,5.59956e-03,-2.17418e-01,6.35802e-03,
3.12263e-01,-3.13171e-01,-1.66882e-01,1.03363e-01,7.83476e-39,-5.11421e-03,7.39866e-02,1.28550e-01,3.42096e-01,-1.80337e-01,1.02234e-01,-2.58395e-02,4.09712e-35,-5.74359e-02,-4.69685e-01,1.09056e-01,1.75274e-01,-4.21988e-02,-1.81539e-01,-3.54597e-01,2.53661e-02,-8.03361e-02,1.48180e-01,4.87063e-02,8.95546e-02,3.22236e-02,-3.37242e-01,2.87638e-01,7.12989e-03,5.47775e-01,3.92830e-01,2.75789e-01,4.35419e-02,-4.06549e-01,1.99128e-01,1.94460e-08,1.46268e-01,-3.44408e-02,-3.12030e-01,4.02074e-01,-2.38073e-24,2.75823e-02,-3.01067e-01,-7.94475e-03,1.12549e-01,-8.53920e-38,-5.20377e-02,5.44015e-02,4.09903e-01,-1.43902e-01,
4.37009e-01,-2.44198e-01,-2.07757e-03,1.37372e-01,3.21938e-39,-1.39294e-01,2.97313e-02,-8.56696e-03,2.79583e-01,-1.19490e-01,2.62648e-01,-7.19451e-03,1.44745e-34,5.27416e-02,-4.37105e-01,9.13043e-02,-1.55287e-02,-2.44325e-02,6.88625e-04,-3.70847e-01,7.88510e-02,1.06742e-01,1.39151e-01,-1.31325e-02,-8.50074e-03,1.22811e-01,-1.02856e-01,1.63757e-01,9.95557e-02,4.05239e-01,2.08899e-01,2.10133e-01,4.25665e-02,-2.46556e-01,1.32059e-01,8.98400e-09,1.54419e-01,-1.14822e-01,-1.39922e-01,3.52787e-01,2.56151e-24,-9.68554e-02,-4.04383e-01,-7.90698e-03,-1.11874e-02,9.16177e-39,1.58906e-01,1.52321e-01,2.04329e-01,5.25183e-02,
-2.88677e-01,2.04285e-01,-6.97566e-02,1.59254e-01,-5.59787e-35,2.34200e-01,1.41570e-01,-6.56576e-02,-2.27737e-01,1.44056e-01,-1.70921e-01,1.23133e-01,1.69659e-38,-2.73474e-02,4.69838e-01,6.15057e-02,-1.48194e-02,1.94647e-02,1.54984e-01,3.52644e-01,1.07832e-01,6.95722e-02,-4.36086e-02,-5.23417e-02,-1.40526e-02,-1.16431e-01,5.33354e-02,-9.97913e-02,4.08494e-02,-4.50851e-01,-2.10622e-01,-6.03016e-02,1.79030e-01,3.15488e-01,-5.76032e-02,1.50672e-08,-4.98245e-03,1.86377e-01,1.82351e-01,-3.11494e-01,1.37179e-35,8.34229e-02,4.87039e-01,1.14576e-02,-7.26381e-03,1.92169e-38,-3.70082e-02,-1.43864e-01,-1.94777e-01,1.01435e-02,
-2.79486e-01,3.22172e-01,4.64976e-02,1.10729e-01,1.62417e-31,1.18087e-01,-7.03045e-03,7.30927e-02,-1.99520e-01,1.72865e-01,-2.44548e-01,1.39099e-01,-2.60429e-36,5.16673e-02,5.76797e-01,5.03741e-02,-3.86689e-02,-4.16237e-02,1.27601e-01,3.69491e-01,-7.80331e-02,9.11136e-02,7.43246e-02,1.85626e-02,4.87833e-02,6.94730e-02,2.56643e-01,-2.40506e-01,1.58748e-01,-4.75976e-01,-5.95034e-02,-5.22867e-02,2.04263e-01,3.01338e-01,-1.06455e-01,-1.60087e-08,7.26022e-03,3.06087e-03,2.17782e-01,-3.91485e-01,1.05420e-38,8.28490e-02,4.47311e-01,1.09322e-02,6.86440e-02,-7.67627e-37,-7.81741e-02,-4.66995e-02,-1.40263e-01,2.11515e-03,
4.52886e-01,-1.78555e-01,-1.69554e-02,-9.43973e-02,-8.40895e-35,-1.57064e-01,-1.05973e-01,-2.57421e-02,3.10369e-01,2.52913e-02,2.42626e-01,4.26115e-02,-1.78978e-39,-9.77933e-02,-3.91575e-01,3.10326e-02,1.15110e-01,1.06773e-01,4.84979e-02,-3.59706e-01,1.69298e-02,1.15104e-02,1.36568e-01,1.49217e-01,-1.22632e-01,-5.36266e-02,-1.72486e-01,1.45515e-01,-5.47942e-03,4.60610e-01,3.32479e-01,1.41371e-01,-1.96882e-03,-3.27989e-01,6.31130e-02,-1.06890e-08,1.70607e-01,3.95194e-02,-1.79322e-01,3.95473e-01,6.51725e-24,4.52716e-02,-4.30299e-01,-1.03921e-02,-9.82210e-03,-8.88291e-33,1.69129e-01,1.28437e-01,3.93977e-01,-8.83258e-02,
-4.51391e-19,8.05403e-26,-1.68358e-13,3.02390e-19,-1.52804e-37,-1.08615e-06,-5.32133e-20,-2.92514e-19,-1.93388e-35,-8.53778e-07,-7.92139e-19,1.54479e-06,6.05857e-34,-1.75354e-06,1.55451e-30,1.72888e-05,-1.63993e-20,-1.19962e-08,-2.12358e-05,-2.68257e-19,-1.00857e-04,2.55023e-05,-1.78307e-19,-3.19914e-19,-5.70741e-05,-3.54945e-08,3.08409e-22,4.34966e-19,1.43105e-03,6.47563e-39,-7.32612e-12,1.49124e-19,-9.67786e-31,1.55908e-19,-1.12124e-18,2.03351e-38,-1.20398e-04,2.40756e-19,1.07800e-20,1.08366e-29,-5.89359e-38,-3.00856e-06,9.25926e-21,1.53909e-38,-1.78202e-09,3.42575e-38,-2.05975e-10,2.31418e-19,2.75434e-38,-1.44965e-07,
-2.89417e-01,3.11808e-01,-8.97084e-02,-9.87279e-02,4.26318e-39,1.87616e-01,1.90197e-01,-8.60841e-04,-2.16163e-01,1.34395e-01,-2.63420e-01,1.60101e-01,-1.82827e-30,1.53996e-02,4.73670e-01,-1.16731e-01,-4.93092e-02,-7.41121e-02,-3.01986e-02,4.34672e-01,1.25215e-01,1.23456e-01,-7.83238e-03,-8.57243e-02,1.22257e-01,-5.36575e-02,2.51151e-01,-1.30086e-01,-2.31257e-02,-3.97406e-01,-9.01676e-02,-2.43522e-01,6.75139e-02,2.58788e-01,-6.84155e-02,-1.37015e-08,-1.38219e-02,1.77161e-01,5.64864e-02,-3.48338e-01,6.26507e-32,1.12273e-02,3.99902e-01,1.47302e-02,8.02323e-02,2.87080e-36,3.84381e-02,3.55031e-02,-3.42043e-01,9.04018e-02,
-3.93734e-01,2.16167e-01,1.38451e-01,-2.63008e-02,-6.05001e-38,1.00815e-01,2.69934e-02,-2.13607e-02,-2.09216e-01,8.24365e-03,-1.22984e-01,2.59994e-01,-7.87939e-39,7.13650e-02,5.21001e-01,4.19972e-02,1.00071e-01,7.03861e-02,1.37703e-01,3.61720e-01,6.15728e-02,1.13898e-01,-2.93884e-02,-6.62146e-02,-1.43928e-02,8.87625e-02,2.09951e-01,-2.65428e-01,4.53858e-03,-5.18878e-01,-1.40281e-01,-2.04787e-01,1.83769e-02,3.52875e-01,-4.10635e-02,-1.28576e-08,3.60979e-02,-5.99068e-02,2.85751e-01,-2.81792e-01,5.41021e-36,2.99445e-02,4.11777e-01,1.18469e-02,5.76222e-02,-1.98940e-37,8.41852e-03,-7.93554e-02,-3.03797e-01,-4.36207e-02,
-3.65885e-01,2.64879e-01,2.75336e-02,-3.05516e-04,3.93385e-35,2.78546e-01,1.81819e-01,-1.10072e-01,-1.40336e-01,-2.61751e-02,-2.31776e-01,6.82808e-02,-1.35491e-37,2.21484e-01,4.33183e-01,-1.19488e-01,3.28355e-02,6.46065e-02,3.77856e-02,3.56279e-01,-4.50217e-02,8.77436e-02,-4.77005e-02,1.59933e-02,2.21447e-01,1.10577e-01,2.54266e-01,-1.66330e-01,1.39897e-01,-5.45918e-01,-2.58924e-01,-4.20087e-02,1.36219e-01,1.95913e-01,-1.51023e-01,3.54092e-09,1.37053e-01,3.80842e-02,2.22121e-01,-2.54341e-01,-1.01024e-36,2.47113e-02,5.70163e-01,1.09153e-02,-7.83081e-02,-9.88668e-35,-9.51378e-02,2.95075e-03,-1.84370e-01,-6.04578e-02,
-1.45832e-34,5.73010e-38,-1.00895e-32,-4.84650e-36,-3.06495e-37,-1.10017e-38,6.59469e-35,-4.28338e-31,-1.01669e-33,-1.59209e-34,-4.00543e-35,4.87220e-39,-3.14574e-34,-9.62535e-33,-5.42197e-34,1.10229e-38,1.99211e-34,1.00774e-37,-4.11164e-32,4.53279e-38,1.72457e-28,-5.02297e-27,1.34687e-32,1.11803e-33,-2.38254e-34,1.66730e-32,-6.88139e-35,6.40428e-37,7.61162e-34,7.29606e-38,-1.46652e-34,-5.40470e-37,-9.48030e-34,5.02248e-32,-1.89054e-34,-8.77319e-39,-2.29968e-26,-1.86005e-31,-4.65384e-34,-2.02471e-37,-5.30714e-36,-7.54036e-34,3.13902e-37,3.94611e-38,-9.65099e-33,-1.01907e-37,-1.43546e-30,3.74280e-34,-6.90098e-33,1.37592e-28,
-2.54677e-01,2.90462e-01,5.14564e-02,1.10098e-01,-3.61619e-34,2.10641e-01,1.57461e-01,-5.96240e-02,-1.18537e-01,4.14590e-02,-3.95114e-02,2.19806e-01,-1.24281e-39,3.03158e-02,3.61206e-01,-8.24074e-02,-3.91495e-03,-3.40355e-02,1.88058e-01,3.88788e-01,5.92614e-02,1.01004e-01,3.95404e-02,-2.46948e-02,1.14670e-01,2.14820e-02,1.06706e-01,2.26528e-03,3.02464e-02,-4.74220e-01,-1.75682e-01,-1.34823e-01,-1.86794e-03,2.60615e-01,-8.06416e-03,1.99011e-08,1.98051e-02,1.86010e-01,1.28820e-01,-2.47654e-01,5.07892e-39,1.10331e-01,3.64718e-01,1.18533e-02,-1.57605e-02,5.38703e-38,-8.39711e-02,-4.02531e-02,-2.18559e-01,8.56009e-02,
-4.41148e-01,2.97307e-01,1.41236e-02,1.18786e-01,-3.68098e-39,1.41492e-01,1.65704e-01,5.50306e-02,-1.94829e-01,1.09754e-01,-1.16920e-01,1.81580e-01,3.65520e-32,-6.21577e-04,6.10005e-01,-6.47472e-02,1.91640e-02,-1.42748e-03,2.17744e-02,4.65274e-01,-6.78690e-04,4.79442e-02,4.09876e-02,2.97987e-02,1.30181e-01,5.67895e-02,1.48025e-01,-2.10436e-01,-4.45500e-02,-6.00458e-01,-2.14695e-01,-1.15966e-01,1.19180e-01,2.93249e-01,-3.31384e-02,-6.84048e-09,-7.45165e-03,-3.58277e-02,1.15806e-01,-2.61827e-01,2.13041e-37,5.02057e-02,5.13329e-01,1.09538e-02,3.59354e-02,1.17901e-38,-1.71363e-03,-3.51612e-02,-2.53712e-01,2.59367e-02,
-3.04349e-01,2.40073e-01,5.57993e-02,9.09141e-02,9.18830e-36,6.99923e-02,1.28417e-02,-1.12340e-01,-1.80982e-01,4.48643e-03,-5.00273e-02,9.80336e-02,-3.73969e-37,-5.29712e-02,3.21650e-01,-1.87432e-01,-7.28396e-02,-6.19226e-02,1.01058e-01,3.50810e-01,5.36605e-02,8.62331e-02,-1.23082e-01,-1.34677e-01,5.22032e-02,3.79449e-02,9.07310e-02,-1.48614e-01,1.47815e-01,-3.09801e-01,-7.74577e-02,-1.09355e-01,1.17481e-01,1.24988e-01,-9.83380e-02,-1.58305e-08,9.02956e-02,-2.48083e-02,2.90661e-01,-3.47323e-01,8.81723e-33,8.85963e-02,3.58304e-01,9.60234e-03,-8.36935e-02,1.24781e-38,6.89915e-02,-4.32873e-03,-1.93138e-01,-1.72443e-02,
-4.03107e-01,3.15419e-01,1.25727e-01,3.51191e-02,1.18370e-36,2.39198e-01,1.28744e-01,8.65462e-02,-2.49678e-01,2.58754e-03,1.72843e-02,2.22179e-01,1.47763e-38,1.69315e-01,5.21402e-01,-1.20744e-01,-3.63318e-02,-5.15846e-02,5.11843e-02,3.65641e-01,3.96194e-02,1.48288e-01,7.89994e-02,1.31620e-02,2.03307e-01,1.50585e-01,2.15225e-02,-5.69507e-02,-1.87082e-02,-5.12174e-01,-2.56951e-01,-1.53323e-01,1.33403e-02,2.34803e-01,6.02610e-02,2.89209e-08,-4.48589e-02,1.09088e-01,1.06576e-01,-2.98363e-01,1.25135e-36,2.47108e-02,3.64350e-01,1.16634e-02,-7.93172e-03,-4.75468e-39,7.35307e-02,-1.12465e-01,-2.92277e-01,1.28335e-01,
4.58558e-01,-1.29168e-01,3.35943e-02,1.51955e-01,-4.99458e-38,5.48906e-02,-7.65556e-02,1.89658e-01,4.00253e-01,-1.37235e-01,8.64871e-02,-1.52813e-01,6.48202e-33,2.56858e-02,-3.96937e-01,2.19393e-01,8.20500e-02,-7.37550e-02,-3.86234e-02,-3.93505e-01,1.29887e-01,9.49209e-02,-7.07823e-02,1.14539e-01,-1.19857e-01,-1.06547e-02,-2.38659e-01,6.17698e-02,-1.37506e-01,4.72063e-01,1.75613e-01,8.11548e-02,-6.06048e-02,-3.58326e-01,-1.31493e-02,-3.49179e-09,6.94291e-02,-1.07722e-01,-2.56322e-01,1.80988e-01,7.15292e-24,-3.08488e-02,-4.00657e-01,-8.24374e-03,-1.01649e-01,-1.34040e-31,1.21874e-01,7.03865e-02,3.53149e-01,-5.72027e-02,
-3.06862e-01,1.58021e-01,-3.07257e-02,4.47079e-02,-1.73141e-32,1.85989e-01,1.77643e-01,-1.49863e-01,-3.05336e-01,2.03294e-02,-2.66934e-01,2.56010e-01,-2.29985e-33,3.18998e-02,4.96212e-01,5.80009e-02,-8.89367e-02,-1.20810e-01,1.03389e-01,4.71305e-01,-2.30168e-02,1.17687e-01,9.63427e-04,-4.67004e-02,-7.77911e-02,-1.04221e-01,6.77180e-02,-6.95960e-02,1.32045e-01,-5.21615e-01,-2.05426e-01,-2.19334e-01,1.68314e-01,1.94941e-01,-1.85492e-01,2.73313e-09,1.25624e-01,1.40971e-01,2.12800e-01,-1.84257e-01,-5.74041e-34,1.23307e-02,4.21370e-01,1.41444e-02,1.18257e-01,-4.79064e-31,1.03515e-01,-4.26861e-02,-2.68699e-01,9.95939e-02,
2.93601e-01,-2.37705e-01,1.67475e-01,8.15381e-02,3.46944e-37,-1.94884e-01,-4.92988e-03,2.06158e-01,2.07167e-01,1.01419e-01,8.68657e-02,3.79678e-02,-6.45392e-39,-6.71271e-02,-4.49853e-01,1.12526e-01,-4.45158e-02,4.46927e-02,1.32598e-01,-4.47035e-01,-1.29571e-02,9.83581e-02,1.39697e-01,-3.68676e-02,1.67267e-02,-6.49543e-02,-2.25016e-01,2.89322e-01,-3.12035e-02,5.87337e-01,2.23747e-01,1.10089e-01,-2.79510e-02,-1.25897e-01,1.90645e-01,4.60998e-09,6.27557e-02,-3.62744e-02,-2.17804e-01,3.38426e-01,7.63202e-23,-1.14120e-01,-4.29607e-01,-9.19903e-03,1.11481e-01,-3.74725e-38,4.87958e-02,1.89766e-01,3.97077e-01,-1.16973e-01,
5.05109e-01,-3.07798e-01,6.64668e-02,-7.54512e-02,-3.32148e-38,-1.27988e-01,-8.27785e-02,1.84587e-01,3.25325e-01,2.90490e-02,2.11385e-01,-1.45164e-01,-7.37250e-38,1.17049e-01,-5.16331e-01,7.93047e-02,8.95613e-03,1.00409e-01,-2.82057e-02,-4.63988e-01,2.68718e-02,-5.75345e-05,1.40216e-01,1.35186e-01,-1.30844e-01,-8.00574e-02,-1.20282e-01,2.78303e-01,2.69266e-02,6.50317e-01,3.19919e-01,1.54226e-01,4.26401e-02,-1.26655e-01,5.67425e-02,2.38990e-08,1.68973e-01,-2.28545e-02,-7.61055e-02,3.55415e-01,-9.70713e-24,1.71559e-01,-5.27341e-01,-1.08526e-02,1.51058e-02,2.27267e-38,-2.50577e-02,6.49030e-03,4.18711e-01,6.34779e-02,
-2.63240e-01,2.87065e-01,1.37039e-01,-3.13679e-02,1.86553e-37,1.61236e-01,1.88887e-01,-7.48303e-02,-2.92111e-01,1.85703e-01,-1.60060e-01,1.92517e-01,2.08910e-36,-1.93428e-02,4.63068e-01,-1.34265e-01,-1.46951e-01,-1.11107e-01,1.55434e-01,5.28927e-01,1.07694e-01,1.86512e-01,-1.15130e-01,7.50193e-02,-1.40414e-02,-1.23413e-02,1.78741e-01,-1.69203e-01,-9.33632e-02,-4.00331e-01,-4.55419e-02,-2.33366e-01,1.31231e-02,1.98678e-01,-1.27472e-01,-7.29064e-09,-1.09726e-01,-7.13303e-03,2.32249e-01,-3.01641e-01,3.59930e-38,1.59801e-01,5.07620e-01,1.27343e-02,9.25831e-02,-1.54213e-33,9.33616e-02,1.10203e-01,-1.50753e-01,-4.82751e-03,
-3.31333e-01,2.97781e-01,-1.98056e-02,-1.71660e-01,-9.10115e-33,1.48353e-01,-7.41592e-02,-7.19998e-02,-1.35753e-01,1.58455e-01,-1.81436e-01,7.02321e-02,-9.96160e-38,1.39335e-01,6.43166e-01,-7.75642e-02,1.45126e-01,1.68425e-01,-1.38553e-01,5.71363e-01,1.98999e-01,1.97076e-01,-2.87472e-01,-3.84375e-02,7.86173e-03,-1.55046e-01,-3.36254e-02,-1.73194e-01,7.39220e-02,-6.77005e-01,-1.66739e-01,-4.64234e-02,-6.34598e-02,3.39158e-01,4.22970e-02,-3.41990e-08,6.52631e-02,1.04239e-01,1.08451e-01,-4.62810e-02,9.59911e-39,1.62256e-01,4.84519e-01,1.11462e-02,1.68254e-01,8.12707e-36,-9.20215e-03,-2.75558e-02,-2.53424e-01,4.30422e-02,
-3.97987e-01,2.57972e-01,-1.42736e-01,-2.71263e-02,-3.60070e-36,1.13346e-02,6.38192e-02,-6.40357e-02,-2.12112e-01,2.23478e-01,-9.84889e-02,2.79916e-01,-5.70253e-32,6.16920e-02,6.39672e-01,-9.70052e-03,-1.36396e-01,-3.81900e-02,8.72224e-02,4.44991e-01,4.38182e-02,1.71856e-01,-1.42886e-01,1.54951e-01,1.38963e-03,-2.62120e-02,1.44634e-01,-1.02240e-01,6.38300e-02,-7.05274e-01,-9.00439e-02,-8.85303e-02,6.84917e-02,3.71363e-01,-2.55574e-01,2.03966e-08,-6.27750e-02,-8.32112e-04,2.08489e-01,-2.11559e-01,1.14066e-34,1.18554e-01,4.62599e-01,1.78166e-02,-4.19889e-02,9.88957e-35,8.38750e-03,1.81455e-01,-3.19781e-01,4.58386e-02,
-4.57608e-02,
1.41359e-01,
1.61905e-01,
1.83154e-01,
8.02445e-02,
1.28286e-01,
7.16332e-02,
6.06830e-02,
-1.09791e-02,
8.80832e-02,
8.66370e-02,
1.35208e-02,
1.15726e-01,
9.27717e-02,
-2.73093e-04,
2.19202e-02,
-4.43085e-02,
5.74801e-02,
1.00461e-01,
-1.38672e-03,
4.57928e-02,
1.00653e-01,
1.19188e-01,
9.97766e-02,
1.26106e-01,
4.59096e-02,
1.44551e-01,
1.75577e-01,
1.02348e-01,
1.40150e-01,
-2.83514e-02,
-3.30250e-03,
-5.98674e-02,
1.25475e-01,
-2.98965e-03,
3.91531e-02,
-2.29426e-02,
6.06005e-02,
-3.96300e-18,
-1.62193e-02,
1.48099e-03,
8.09810e-02,
-7.98012e-02,
3.26802e-02,
-9.56222e-02,
5.32039e-02,
-9.62917e-03,
-1.30333e-03,
-4.18392e-02,
-3.82418e-02,
1.83943e-01,-2.85455e-01,-3.18312e-01,-1.33941e-01,2.44230e-01,-3.80506e-01,1.39366e-01,1.87676e-01,-2.32638e-02,-2.30827e-01,2.63546e-01,3.27939e-01,3.75021e-01,2.29244e-01,1.90569e-03,-2.83257e-01,3.31868e-01,3.12718e-01,-1.28828e-01,7.12049e-03,2.71822e-01,-2.59924e-01,-2.43958e-01,-2.93249e-01,-1.68771e-01,5.83096e-01,-2.48398e-01,-1.87713e-01,2.21080e-01,-3.32576e-01,-1.57014e-01,2.63945e-01,2.77929e-01,-3.54374e-01,3.19518e-08,2.03705e-01,3.18081e-01,1.39853e-01,1.76854e-32,2.75150e-01,2.30387e-01,1.48532e-01,3.07609e-01,-3.61765e-01,3.04159e-01,-9.39082e-02,-3.23122e-01,3.43892e-01,3.96368e-01,3.73680e-01,
-2.34226e-01,2.89408e-01,1.86723e-01,3.00388e-01,-1.62618e-01,1.26065e-01,-3.54533e-01,-3.49840e-01,2.37992e-02,1.71631e-01,-3.12479e-01,-2.37742e-01,-3.78553e-01,-3.21212e-01,-2.90380e-04,7.85203e-02,-3.16167e-01,-2.11686e-01,2.77846e-01,-7.53988e-03,-2.22989e-01,1.88273e-01,3.49017e-01,1.39356e-01,2.15106e-01,-5.49450e-01,3.65948e-01,5.99418e-02,-2.25490e-01,8.71904e-02,8.11562e-02,-2.30689e-01,-1.89362e-01,2.11526e-01,1.47841e-06,-2.67030e-01,-1.78087e-01,-2.99419e-01,-7.50858e-35,-2.11097e-01,-3.12438e-01,-1.80823e-01,-2.93106e-01,3.18642e-01,-3.41170e-01,2.61272e-01,3.07207e-01,-2.29684e-01,-2.90234e-01,-2.56795e-01,
7.20699e-02,
1.04159e-01,
