// Neural Network File Format by Kyle Julian, Stanford 2016
2,13,2,50,
13,50,2,
0,
29,0,0,94,126,0,0,71,0,0,0,0,0,
77,1,3,200,594,1,2,202,1,6.2,2,4,3,
0,0,0,0,0,0,0,0,0,0,0,0,0,0,
1,1,1,1,1,1,1,1,1,1,1,1,1,1,
1.15961e-01,1.71767e-01,-8.15231e-02,1.50633e-01,-5.50946e-02,1.19479e-02,2.18546e-01,-2.58880e-01,3.54518e-02,1.01978e-01,-1.60998e-01,2.10022e-01,1.03848e-01,
1.75521e-01,-4.94737e-01,1.71618e-01,-2.23379e-01,1.94832e-01,-1.04651e-01,-1.25841e-01,-6.67441e-03,-3.28907e-01,-2.01018e-01,-4.99117e-02,6.25589e-03,-2.45517e-01,
7.54493e-40,-1.15157e-12,6.06872e-13,-1.75198e-23,5.09695e-32,4.85671e-15,-4.34169e-29,-7.03013e-12,-7.53809e-37,-1.15089e-18,1.32239e-18,1.86135e-30,1.00932e-32,
-2.61941e-01,-2.49870e-01,2.55259e-01,-1.79359e-01,8.60174e-02,-1.99319e-01,4.12301e-02,2.13570e-01,-5.16933e-01,-3.02945e-01,-6.55502e-02,-3.63214e-01,6.01361e-02,
1.24957e-02,-3.07277e-01,-2.22711e-02,1.28052e-01,-2.77369e-02,1.89149e-01,2.11289e-02,4.34274e-03,-2.64302e-01,3.76684e-02,-5.45940e-02,-1.41818e-01,-3.78928e-01,
1.02648e-01,3.11715e-01,-9.31629e-02,7.35305e-03,2.19272e-01,-2.13683e-01,-1.69320e-01,-8.49060e-02,4.95680e-01,2.24919e-01,-1.53971e-01,-3.79525e-02,2.95884e-01,
1.27286e-01,-3.22732e-01,4.58023e-01,-1.75557e-01,1.68771e-01,1.96349e-01,2.18002e-01,2.12450e-01,-1.70722e-01,-3.75220e-01,1.01058e-01,-2.15408e-01,-3.58698e-01,
2.24911e-01,1.83227e-01,-2.91701e-01,2.23461e-02,-7.18052e-02,2.40532e-02,-1.37040e-01,1.23745e-01,4.98135e-01,2.98623e-01,-3.76391e-01,2.25134e-01,7.27697e-02,
1.93429e-01,-4.33165e-01,1.65406e-01,2.55107e-01,-1.87012e-01,7.58078e-02,-3.07765e-02,2.14327e-01,-6.38428e-02,-3.98654e-01,1.73406e-01,2.61109e-02,-1.66046e-01,
5.80780e-02,5.20810e-01,-5.65803e-02,2.12402e-01,6.23277e-02,-1.32356e-01,-6.22691e-02,-8.45739e-02,2.33179e-01,-6.70574e-03,-5.94833e-02,3.64702e-01,-1.39147e-01,
-1.67506e-16,-1.90321e-17,-8.81540e-12,-3.98481e-16,-2.02596e-09,1.44402e-38,-4.41666e-18,-4.90361e-11,-1.24866e-38,1.56837e-18,-1.02110e-17,-7.05414e-18,-1.19811e-17,
-2.74073e-02,-1.59847e-03,-2.19219e-03,-1.83521e-02,-1.97597e-02,-6.32672e-05,-6.04190e-05,-2.72002e-03,-5.79614e-04,-3.11976e-03,1.16604e-03,-1.15245e-03,1.49159e-02,
-5.61330e-02,4.70505e-01,-3.67409e-01,-1.81383e-01,1.62401e-01,9.59687e-02,1.34957e-02,5.30535e-03,3.56518e-01,-1.87949e-02,5.55781e-02,-8.41506e-02,2.52540e-01,
-2.68222e-02,-2.38141e-03,1.79784e-03,-5.36374e-02,-5.20883e-02,1.03588e-05,-7.56699e-03,7.98553e-02,1.34635e-04,-8.53100e-04,-1.61440e-03,-7.79868e-03,-7.46142e-03,
-2.43221e-01,-4.80386e-01,1.54976e-01,1.82057e-01,-4.38560e-06,1.16843e-01,-1.76927e-01,1.05294e-01,-5.07714e-01,-6.34160e-02,-9.87302e-02,-9.12537e-02,-7.89874e-02,
2.19169e-01,4.98903e-01,-5.18995e-01,9.50258e-02,2.12786e-01,-1.87851e-01,-2.85721e-01,-9.36018e-02,1.13068e-02,2.96346e-01,-2.32844e-01,3.76337e-01,5.30649e-02,
-2.05552e-03,-8.78007e-02,7.08654e-02,-7.52610e-04,-2.85510e-05,9.54765e-03,1.13583e-02,8.10826e-05,-7.26240e-02,-4.96768e-02,2.67917e-02,-5.27465e-02,-3.62069e-02,
1.67524e-01,-4.58866e-01,4.39497e-01,2.23468e-01,1.15972e-01,-1.90147e-01,-1.30194e-01,-2.34029e-01,-5.37998e-01,-1.73450e-01,1.96217e-01,-2.22482e-01,-6.10202e-02,
1.50997e-03,-4.60814e-04,9.92963e-05,3.86315e-02,-5.05592e-02,-7.71095e-07,5.54494e-09,-1.57577e-02,7.04343e-04,-4.37134e-03,-5.30682e-04,-1.43195e-06,-2.81585e-03,
7.76651e-02,-7.63003e-02,3.71119e-01,2.03077e-01,-1.47983e-01,-2.00510e-01,1.82859e-01,2.34835e-01,-4.22111e-01,-1.78056e-01,1.04968e-01,-1.26889e-01,1.01328e-01,
-9.47809e-40,2.18422e-18,-6.68070e-33,-3.08166e-35,-1.35365e-12,-1.70688e-23,1.37406e-38,4.49891e-20,-1.25310e-35,-3.47353e-34,2.03377e-34,6.34662e-39,1.56966e-38,
-9.66987e-02,-3.69992e-01,1.97509e-01,3.53769e-02,-6.60508e-02,1.18404e-01,2.10380e-01,1.17974e-01,-3.17954e-01,-3.35002e-01,2.12812e-01,-2.24524e-01,-1.80641e-01,
-2.93741e-05,-2.28104e-16,5.07006e-15,-9.24606e-04,-3.49329e-03,-1.34639e-15,4.44252e-16,-1.07877e-03,1.16906e-16,1.51444e-15,2.20306e-15,-3.22438e-09,-1.15371e-15,
1.80342e-02,-4.58391e-01,3.98177e-01,1.22469e-01,1.37019e-01,-1.24087e-01,3.71228e-02,-2.57634e-01,-2.71506e-01,-1.26766e-01,-4.94610e-03,-3.51056e-01,2.98327e-02,
2.90847e-01,-6.04827e-01,2.57088e-01,-1.35767e-01,8.80500e-02,-4.03103e-01,3.50301e-03,-1.80007e-01,-2.88960e-01,-3.17082e-01,-1.07688e-01,-1.53499e-01,1.92114e-01,
2.25965e-02,3.62381e-01,-2.84105e-01,-1.06523e-01,6.73328e-02,-4.72053e-02,9.40955e-03,2.17844e-02,1.29143e-01,4.99738e-01,6.11274e-02,4.13673e-01,9.19265e-02,
-2.20794e-02,-5.46274e-04,-1.65033e-03,-2.43506e-02,-2.49279e-02,-3.20458e-11,4.35336e-19,-2.40399e-02,-1.53603e-04,-9.15337e-04,-2.32742e-04,-1.45730e-13,-4.85386e-03,
-5.01636e-05,4.35492e-01,-3.39696e-02,3.15300e-01,-1.52151e-01,-1.85556e-01,-2.65611e-01,9.14693e-02,2.92483e-01,3.89037e-02,9.41055e-04,1.30440e-01,4.40234e-01,
-2.04967e-12,-6.05020e-14,2.18502e-13,2.63834e-12,-6.59441e-05,-9.44016e-15,-4.73319e-14,-3.72345e-12,-2.20674e-13,-5.98267e-13,-1.91488e-13,-1.38456e-15,-2.24386e-14,
-1.33605e-01,2.15171e-01,1.86644e-01,1.84292e-01,3.44178e-02,1.52574e-01,1.34571e-01,-3.05351e-01,-2.64328e-01,-2.27803e-01,-1.19737e-01,3.16062e-01,-3.14150e-01,
-2.10873e-01,8.36452e-02,-2.21605e-01,6.97563e-02,2.30871e-01,-6.43177e-02,-5.05443e-02,2.64022e-01,2.08878e-01,3.48397e-01,-2.64514e-01,4.31785e-01,2.36348e-01,
2.93777e-01,1.44829e-01,-4.24945e-01,2.30507e-01,-4.83678e-02,8.93573e-02,-3.42244e-02,-1.37454e-01,4.92948e-01,2.95837e-01,1.64718e-01,2.64634e-01,3.29430e-02,
-2.37266e-02,-1.13207e-03,-1.50425e-02,-2.43121e-02,-2.44445e-02,5.31602e-06,-4.79470e-03,-2.40962e-02,1.18903e-19,-2.76502e-04,-5.24829e-03,-5.77256e-03,-2.29311e-03,
-5.99943e-02,2.64842e-01,-4.41562e-01,4.61309e-02,2.63527e-01,-1.81798e-01,-3.16862e-01,-4.59015e-03,2.10743e-01,1.63543e-01,-2.78998e-01,7.99464e-03,3.44537e-01,
4.40214e-02,8.21361e-02,-5.13085e-01,1.76184e-01,6.52382e-02,-2.14446e-01,-1.23738e-01,5.44820e-02,3.28486e-01,3.79730e-01,1.20559e-01,1.95316e-01,-1.23798e-01,
9.16750e-02,5.03860e-01,-1.99217e-01,1.88146e-01,2.32980e-01,1.39240e-01,-2.70634e-01,6.54261e-02,2.87045e-01,2.19748e-02,-2.03640e-01,1.42197e-01,-1.95393e-02,
2.05320e-01,-3.41774e-01,3.10644e-02,-1.69508e-03,2.45798e-01,4.54344e-02,-8.57742e-02,2.03770e-01,-2.98425e-02,-3.30889e-01,2.69322e-01,-1.40623e-01,-3.40826e-01,
2.36483e-01,1.70295e-01,-3.14118e-01,7.35951e-02,6.03437e-02,-2.39692e-01,-1.82057e-01,4.65124e-02,2.55339e-02,1.13468e-01,-2.82374e-01,7.59576e-02,2.53409e-01,
2.59767e-01,-4.55065e-01,9.35943e-02,-1.68890e-01,2.21319e-01,-2.54238e-01,1.78487e-01,-1.79558e-01,-5.23625e-01,-4.21427e-01,-6.63849e-02,-2.14955e-01,-3.42880e-01,
-1.63978e-01,2.76685e-02,-2.74616e-01,2.29473e-01,-3.02046e-02,6.54954e-02,-1.65510e-01,-1.29775e-01,2.83344e-01,2.50819e-01,-2.52893e-01,-1.34234e-01,-1.66866e-01,
-1.33893e-01,-2.70679e-01,5.02004e-01,2.28247e-02,9.93365e-02,1.50671e-01,1.95954e-01,4.14024e-02,-4.40125e-01,-2.47206e-01,2.29891e-01,-2.92454e-01,-2.66106e-01,
1.90685e-01,-4.15269e-01,9.94173e-02,1.27279e-01,1.90397e-01,-5.08721e-02,5.88260e-02,1.19061e-01,-5.04826e-01,-1.36066e-01,3.34988e-01,-4.74850e-01,-3.35218e-02,
1.53698e-39,7.17043e-34,1.25619e-32,1.07196e-26,-8.15594e-37,-7.18278e-37,9.06275e-19,-1.43260e-15,-1.95160e-37,-4.13503e-13,-5.59582e-34,-1.36809e-38,2.59548e-37,
-2.69009e-01,-4.13880e-01,3.24198e-01,1.49009e-01,8.82991e-02,-1.35768e-01,-1.33673e-01,-1.20100e-01,-3.69022e-01,-3.08689e-01,-9.50790e-02,-2.00350e-01,-5.68778e-02,
-4.50733e-02,4.74687e-01,-7.42872e-02,2.68166e-01,6.93417e-02,-9.88104e-02,-3.17822e-01,1.97112e-02,1.64656e-01,-3.30067e-02,-2.91410e-01,4.77293e-02,-1.06672e-01,
-3.39944e-01,-7.46795e-02,3.22224e-01,7.11902e-02,1.73143e-01,8.37920e-02,1.79482e-01,2.03439e-02,-3.89050e-01,-1.04297e-03,-4.76623e-03,4.11479e-02,-3.89340e-01,
2.62933e-02,2.42401e-01,-8.31334e-02,2.65061e-01,-2.18831e-01,-2.88189e-01,-9.34668e-02,6.36701e-02,2.42817e-01,2.74239e-01,2.52872e-01,2.70511e-01,2.72426e-01,
-2.75558e-02,-9.37017e-03,-3.88056e-02,-2.29127e-02,-3.62565e-02,-2.96737e-02,-7.48991e-03,-2.01120e-02,3.13353e-03,-3.54195e-02,-1.81225e-02,-1.63142e-02,-1.25488e-02,
2.42726e-01,-9.09633e-02,1.46467e-01,1.34213e-01,-4.97493e-02,1.17104e-01,-1.94588e-01,8.93399e-02,-3.80722e-01,3.21166e-03,3.55979e-01,-4.19672e-01,-3.09514e-01,
4.11200e-02,-2.14631e-01,-9.90783e-02,-2.18515e-01,3.07763e-02,3.98045e-02,1.57912e-01,1.19222e-01,-1.09370e-01,-2.13762e-01,-2.33214e-01,-2.11183e-01,-1.57873e-01,
3.09106e-02,
-2.15684e-01,
1.59915e-20,
1.53894e-01,
2.54344e-01,
3.54611e-02,
-2.27526e-01,
2.03047e-01,
2.45535e-01,
-2.75791e-01,
2.10815e-15,
5.79441e-03,
1.01808e-01,
-1.07066e-02,
-4.91413e-02,
5.68238e-02,
-3.59167e-05,
-1.54629e-01,
7.04445e-04,
-1.97555e-01,
1.63476e-36,
2.13839e-01,
6.54922e-16,
2.52625e-02,
-1.14425e-01,
3.93652e-02,
-6.17032e-05,
2.77293e-01,
-9.85213e-15,
-1.23299e-03,
-1.99825e-01,
-2.26227e-01,
-1.07247e-03,
-1.70224e-01,
1.60373e-01,
1.65636e-01,
-6.27106e-02,
2.16902e-01,
-2.03072e-01,
2.55138e-01,
-6.11843e-03,
8.50233e-02,
5.44164e-23,
-1.57666e-01,
-5.24433e-02,
-1.42080e-01,
1.58584e-01,
-1.86338e-02,
1.23564e-01,
7.49861e-02,
1.99634e-01,5.64094e-02,-5.90531e-38,-7.03419e-02,-7.14016e-02,1.05819e-01,9.13522e-04,6.06781e-02,-8.66473e-02,-7.72909e-02,-5.58133e-19,7.55573e-03,2.87387e-02,3.19152e-04,-9.54896e-03,-2.00892e-02,-3.04504e-05,-1.46137e-01,8.32135e-04,-5.14689e-02,-1.98179e-39,-8.38575e-02,2.53571e-02,-4.50950e-02,-1.03231e-01,1.18582e-01,-2.03629e-02,1.18868e-02,4.47534e-13,-2.30175e-02,8.02962e-03,6.49797e-02,1.15214e-11,9.54118e-02,1.34980e-01,1.09858e-01,-1.11558e-01,1.54813e-02,-1.09596e-01,6.33985e-02,-1.21861e-01,-5.90812e-02,8.55407e-38,3.77492e-03,1.28043e-01,-1.29133e-01,8.10612e-02,3.19473e-03,-9.42487e-02,2.36642e-02,
-2.57123e-01,1.20785e-01,-1.92039e-34,-5.77944e-02,1.34553e-02,2.52270e-02,9.00037e-02,-9.59457e-02,1.00779e-01,-1.10156e-01,-4.37113e-20,-1.33512e-02,-3.84373e-02,-2.08990e-03,1.06475e-01,-6.43392e-02,1.56341e-03,-7.11063e-02,-8.32128e-04,3.59597e-02,-7.51445e-38,4.14050e-02,-2.53657e-02,-6.53797e-03,5.80854e-02,2.08841e-02,2.05967e-02,-1.67421e-01,1.58646e-13,-1.95846e-01,-5.60056e-02,-1.74088e-02,-7.98728e-12,-5.86218e-02,1.09725e-01,6.29054e-02,-8.76803e-02,-9.78559e-02,2.67541e-02,9.34693e-02,9.30345e-02,8.43304e-02,-1.98352e-39,1.89537e-01,-4.05518e-03,-1.19439e-01,-2.57111e-02,-3.19437e-03,1.02620e-01,1.07042e-01,
-7.01940e-02,
-1.43648e-01,
