// Neural Network File Format by Kyle Julian, Stanford 2016
10,13,1,50,
13,50,50,50,50,50,50,50,50,50,1,
0,
0,0,0,0,0,0,0,0,0,0,0,0,0,
1,1,1,1,1,1,1,1,1,1,1,1,1,
0,0,0,0,0,0,0,0,0,0,0,0,0,0,
1,1,1,1,1,1,1,1,1,1,1,1,1,1,
2.75370e-01,-8.93275e-02,-6.59583e-02,-2.76322e-01,-2.65279e-01,3.79134e-02,2.28351e-01,6.58188e-02,9.49252e-02,4.16555e-01,2.83551e-01,-2.02978e-02,7.79981e-02,
-7.10848e-02,-8.31371e-02,-9.59117e-02,-2.48693e-02,-3.37635e-01,2.52236e-01,1.79052e-01,2.26141e-01,2.15116e-02,-2.71829e-01,2.09175e-01,2.80128e-01,7.74906e-02,
2.96418e-01,-2.50240e-01,-1.43573e-01,1.11292e-01,-2.26808e-01,-1.78015e-01,1.92215e-01,-8.71469e-02,-3.49793e-01,2.84945e-01,1.46705e-01,-2.45882e-01,1.23540e-01,
-2.58806e-01,-3.95620e-02,1.50175e-01,-1.79112e-03,-2.10913e-01,1.84580e-01,-5.89175e-02,-3.79481e-02,2.81864e-01,-2.04406e-01,-6.50247e-03,2.66957e-01,8.79626e-02,
-1.68398e-01,-2.31488e-01,-5.53847e-03,4.00118e-01,1.51396e-01,-1.34475e-01,-9.27052e-02,-2.30071e-01,1.31130e-01,2.64456e-01,2.17698e-01,1.62127e-01,1.94717e-01,
2.78885e-01,2.77658e-01,1.26612e-01,2.65040e-01,9.07071e-02,-1.00743e-01,1.56139e-01,-2.69023e-01,-3.36083e-02,2.64759e-01,-2.11466e-01,1.06974e-01,-2.13205e-01,
2.82412e-01,1.15140e-01,1.36851e-01,-1.02019e-01,-3.02216e-02,-3.23951e-01,1.92050e-02,2.75126e-02,4.81402e-02,-1.06510e-01,-2.67224e-01,3.51382e-01,-7.35775e-02,
4.85774e-02,-3.10566e-01,-2.38735e-01,-1.25175e-01,2.47116e-01,1.82232e-01,-1.77759e-01,3.86904e-02,1.14956e-01,-3.73115e-01,1.83830e-01,-5.26675e-01,-1.37713e-01,
2.51375e-01,-3.12772e-02,-1.43590e-01,2.00377e-01,4.14499e-02,5.55504e-02,3.26598e-01,-6.45569e-03,-3.14700e-01,-2.49705e-01,-1.10824e-01,-2.97538e-02,-4.98013e-02,
3.59210e-05,-9.23303e-02,2.89558e-01,-2.91802e-01,1.11807e-01,1.48638e-01,1.74221e-01,8.63845e-03,3.85048e-02,1.22273e-01,-3.01823e-01,9.42160e-02,1.58722e-01,
-2.02793e-01,1.25587e-01,-2.51261e-02,-6.13099e-02,-6.90468e-02,-8.04400e-03,-1.53422e-01,-1.53957e-01,2.58773e-01,-3.31894e-01,-1.94112e-01,1.51992e-01,-1.98245e-01,
2.01900e-01,-2.72977e-01,-3.01413e-01,-4.68548e-02,-1.33225e-01,2.44612e-01,2.88813e-01,-7.05375e-02,1.28638e-01,-1.99219e-02,8.42655e-02,1.27942e-01,-1.96318e-01,
-1.37534e-01,-9.21336e-03,9.40904e-02,1.72456e-01,-2.83984e-01,-1.68992e-01,2.81560e-01,-3.03288e-02,-1.97740e-01,-5.75005e-02,3.24026e-01,1.73961e-01,-2.33306e-01,
-3.71845e-08,-1.10832e-30,-1.76125e-08,-5.29583e-10,-2.98911e-19,-5.65960e-23,4.27492e-29,3.04733e-37,-4.31634e-37,3.31491e-37,-1.33368e-23,-5.99043e-37,8.13410e-38,
3.26287e-01,6.56935e-02,-1.90672e-01,-6.94609e-02,5.09241e-02,-5.98276e-02,-3.11338e-01,-1.35644e-01,-1.87726e-01,7.28203e-02,5.52141e-02,1.42798e-02,2.61298e-02,
-7.40662e-02,2.68519e-01,2.21490e-02,1.44801e-01,1.96909e-01,-2.18519e-01,1.69671e-01,8.12185e-02,-1.84812e-01,-1.77823e-01,-1.63138e-01,2.10077e-01,2.05206e-01,
1.05554e-01,-7.68452e-02,1.30637e-01,-2.07631e-01,2.68591e-01,2.99463e-02,-2.21171e-01,2.55881e-01,-9.06439e-02,8.74356e-02,-3.59629e-01,-3.85651e-01,-4.37829e-02,
1.62068e-01,-2.56520e-01,1.26275e-01,2.40441e-01,-2.29555e-01,2.39609e-01,1.47478e-01,3.30383e-02,-2.93120e-01,-2.22525e-01,1.50739e-01,2.77396e-01,9.13351e-03,
-2.36537e-01,6.59775e-03,-1.90549e-01,1.88504e-01,-1.50162e-01,2.53311e-01,-5.67661e-02,2.30534e-01,-1.70652e-02,1.86871e-01,2.69203e-01,-3.48650e-01,-1.20483e-01,
2.21923e-01,1.42010e-01,3.65901e-01,7.63022e-02,2.73136e-01,5.11401e-02,1.23967e-01,-2.22169e-01,-2.10829e-01,1.80218e-02,2.84939e-01,-2.79679e-02,7.06542e-02,
-8.54792e-02,2.50121e-01,1.85182e-01,1.59357e-01,2.35112e-01,1.41035e-03,-4.57952e-03,1.61655e-01,1.96685e-01,3.49411e-01,-2.38991e-01,1.10698e-01,1.74297e-01,
2.86520e-01,-3.89047e-01,-1.86742e-01,-3.38804e-01,-8.17657e-02,-1.48550e-01,8.19486e-03,-1.90085e-01,-2.38268e-01,3.74341e-01,2.78887e-01,-1.64190e-01,1.12399e-01,
1.82155e-01,-1.19120e-01,2.74935e-02,-1.08994e-01,2.25968e-01,-5.03169e-02,1.04882e-01,1.14979e-01,2.36934e-02,-7.64724e-02,-1.20882e-01,4.25009e-01,1.10610e-01,
-3.53840e-02,1.79634e-02,-3.13715e-01,5.50501e-02,-2.33654e-02,-8.96535e-02,-3.43442e-01,2.93477e-01,2.71800e-01,5.60287e-02,-1.81444e-01,1.70769e-01,1.53971e-01,
2.84933e-01,1.88877e-01,-3.76790e-01,2.36087e-01,-1.47948e-01,-1.83116e-01,4.72645e-02,1.70846e-01,9.12438e-02,4.01694e-02,-2.62459e-01,-1.31596e-01,-1.34615e-01,
5.40584e-03,-7.71628e-02,1.25129e-02,-2.02035e-02,-6.36433e-03,1.39715e-02,-8.17318e-02,-5.58529e-02,-7.76771e-03,2.33221e-02,-7.93361e-03,-3.24087e-02,-2.33263e-02,
-1.42711e-03,8.90362e-02,-2.08920e-01,-5.90937e-02,1.55725e-01,-1.10884e-01,1.03836e-01,1.42061e-02,3.36275e-02,-2.09900e-02,-3.81222e-02,-1.50248e-01,-1.22924e-01,
-2.83310e-01,-1.38302e-01,-9.76452e-02,3.54404e-01,-8.74358e-02,-5.14960e-02,-6.35287e-02,1.58599e-01,3.04706e-01,3.77407e-01,9.90742e-02,3.64045e-01,-2.45437e-01,
-3.42242e-01,2.47529e-01,2.39046e-01,2.77761e-02,2.54576e-01,-2.12311e-01,-1.73950e-01,1.84471e-01,4.42927e-02,-2.87090e-01,2.20540e-02,-2.27432e-01,2.09729e-01,
-1.57612e-01,2.68148e-01,-2.18906e-01,-1.22066e-01,-2.92821e-01,2.78512e-01,1.08371e-01,-3.09249e-01,-1.81397e-01,1.50158e-01,4.45058e-02,1.21838e-01,2.39246e-01,
-2.20722e-01,1.65052e-01,1.16390e-01,-1.24893e-01,9.84434e-02,2.25122e-01,6.38570e-02,1.64383e-01,2.49971e-01,-1.89753e-01,-1.36675e-01,-2.92951e-01,1.99863e-01,
2.78122e-01,1.91528e-01,-7.96607e-02,2.28657e-01,-1.99605e-01,-1.53482e-01,2.03717e-01,1.95010e-01,1.25636e-01,3.47569e-01,-2.03345e-01,-2.21232e-02,-1.41974e-01,
-1.27463e-01,3.08413e-01,-3.95621e-02,-1.16068e-01,2.54947e-01,2.93063e-01,-2.70651e-01,1.77127e-01,-2.68638e-01,3.71728e-02,-7.86563e-03,-7.87898e-02,-2.70389e-01,
-1.33909e-01,2.90326e-02,-2.63896e-01,2.68828e-01,-1.78774e-01,-1.36893e-01,8.57612e-02,3.03612e-01,2.46117e-01,2.17419e-01,-2.24750e-01,3.98686e-01,2.66860e-03,
-1.60881e-01,1.31341e-01,2.40601e-01,2.13995e-02,-1.09601e-01,-1.54265e-01,-1.63428e-01,9.60790e-02,1.94799e-01,-2.88078e-01,1.97399e-01,-3.04112e-01,8.82471e-03,
-6.97532e-02,-3.34788e-01,1.33438e-01,2.81566e-01,1.53105e-01,-1.68032e-01,-4.53811e-01,-1.67276e-01,1.08859e-01,8.13885e-02,-1.36145e-01,-2.36857e-01,1.14531e-01,
2.43077e-01,-2.04332e-01,2.30553e-01,-9.93216e-02,-2.57641e-01,2.50151e-01,-2.03774e-01,3.93065e-01,-1.64019e-01,-5.39017e-02,3.69675e-02,1.66751e-01,-2.31188e-01,
2.11291e-02,2.04997e-01,-2.45288e-01,-1.55353e-01,1.34209e-01,-2.31542e-01,5.92586e-02,-7.63226e-03,7.40126e-03,-1.95936e-01,3.19888e-01,9.62844e-02,-2.27787e-01,
1.49382e-01,2.25208e-01,1.58731e-01,1.19669e-01,-4.21296e-02,-1.80258e-02,-2.83494e-01,2.88406e-01,2.09676e-01,1.02383e-02,-9.58874e-02,-3.13600e-01,-1.54187e-01,
1.77560e-01,1.80012e-01,-3.60469e-02,2.46599e-01,2.99810e-01,2.67913e-01,-7.21315e-02,1.74650e-01,-3.75466e-01,1.70501e-01,-1.08345e-01,7.84093e-02,-3.71065e-01,
2.91056e-01,1.79639e-01,3.20565e-02,-1.58980e-01,-3.18410e-01,2.29874e-02,-1.85170e-01,1.17748e-02,4.45553e-02,3.65429e-01,1.03600e-01,3.66688e-01,-1.15586e-01,
-6.39783e-02,4.26297e-02,9.53556e-02,1.07758e-02,1.31503e-01,9.96026e-02,-2.52439e-01,2.17498e-01,-1.48829e-01,4.04389e-03,-3.77782e-01,1.37055e-01,-2.01739e-01,
2.50425e-01,5.94626e-02,2.99225e-01,-3.17155e-01,-1.26349e-01,2.53774e-01,-2.32066e-01,-1.70665e-02,1.90139e-01,1.51395e-01,-1.57655e-01,-3.05797e-01,-2.57850e-01,
2.01592e-01,-2.62558e-01,5.46980e-02,-1.65778e-01,3.41784e-02,-2.23809e-01,1.74127e-01,-1.56151e-01,2.01955e-01,-2.83312e-01,4.89755e-02,1.11091e-01,6.06395e-02,
-1.48191e-01,2.06253e-01,-2.45631e-01,2.27345e-01,9.08583e-02,1.46591e-01,7.83552e-02,-3.07234e-01,1.48104e-01,-1.33034e-01,1.87092e-01,-7.36343e-02,3.22380e-01,
-9.94542e-02,-1.00559e-01,-2.86481e-01,2.52880e-01,1.67527e-01,6.50673e-02,-3.72381e-01,2.04767e-01,-1.23444e-01,1.84645e-01,-1.05749e-01,2.90905e-01,-9.21642e-02,
-1.40719e-01,1.89889e-01,1.88177e-01,1.10428e-01,-2.48532e-01,-2.90746e-02,6.78883e-02,-1.15241e-01,9.01440e-02,-2.45179e-02,1.70304e-01,-1.84970e-01,-1.20513e-01,
2.37938e-01,-2.75099e-01,-1.96738e-01,-2.38023e-01,-8.85617e-02,1.84719e-01,2.03452e-01,2.13936e-01,-2.67996e-01,-2.36056e-01,2.88786e-01,8.52190e-02,1.50368e-01,
6.43757e-02,-2.33930e-01,1.19857e-01,3.07440e-01,-2.27125e-01,3.81685e-02,1.53958e-01,2.16792e-02,-7.42197e-02,8.75349e-02,-4.34669e-02,-2.72708e-01,-1.42247e-01,
-2.68423e-02,-1.02662e-01,-1.13156e-02,7.88368e-02,1.14609e-01,-8.13888e-02,-7.65380e-02,-3.29906e-01,3.08239e-01,-2.46070e-01,-4.76845e-02,-2.44141e-01,1.74660e-01,
4.57902e-03,
-2.82976e-02,
3.33907e-03,
-9.99845e-03,
-1.48344e-02,
2.15955e-02,
-3.73989e-02,
-7.84475e-03,
-1.28797e-02,
-2.26752e-02,
-3.88791e-02,
-9.95230e-03,
2.14556e-02,
-3.45906e-37,
2.60393e-02,
-2.49105e-02,
5.64546e-02,
-8.31747e-03,
-5.44059e-03,
-3.26438e-02,
-5.56657e-02,
2.94365e-03,
-7.46199e-03,
1.92617e-02,
-1.50540e-02,
-7.88342e-03,
3.32420e-02,
2.59474e-02,
1.51087e-02,
-5.70305e-03,
-3.45141e-03,
-2.72870e-03,
6.07459e-02,
-4.16871e-03,
5.46544e-02,
6.50074e-02,
5.86290e-02,
5.25674e-04,
3.25989e-02,
8.00755e-03,
-1.99690e-02,
1.25662e-03,
3.63694e-02,
5.40552e-02,
-3.39515e-02,
4.92986e-03,
-4.31856e-02,
3.51341e-03,
5.10324e-02,
-1.13204e-02,
-1.07680e-01,-9.54739e-02,-3.64595e-02,-1.12768e-15,-1.68105e-01,-3.37649e-09,-1.02200e-01,-1.22840e-35,-5.98097e-02,-8.39553e-02,-1.61661e-35,7.91166e-38,-7.29671e-37,-3.72139e-12,-6.30373e-02,-2.14902e-01,-1.04935e-01,-1.91169e-01,-3.26008e-02,8.46395e-02,1.70083e-01,6.35775e-02,1.45951e-01,-3.78944e-03,-5.33086e-27,-5.59786e-34,-8.51015e-06,-1.14838e-12,-6.77350e-02,6.49017e-19,9.92621e-02,1.61173e-03,-8.59509e-06,-1.23581e-13,-4.68262e-02,-5.45933e-02,-1.87253e-02,-4.24066e-02,-1.05410e-01,-6.86105e-02,-7.22921e-02,-9.46499e-03,4.16079e-35,-3.03961e-02,-1.28492e-01,-1.25131e-03,1.56879e-17,1.83606e-01,1.94759e-31,-1.11004e-01,
2.19021e-01,2.02977e-01,9.95817e-02,-2.00779e-01,2.15503e-02,1.13618e-01,-2.21552e-01,-1.78376e-01,5.26665e-02,9.20114e-02,-9.91348e-02,1.63069e-01,-2.49690e-01,-8.90414e-30,3.96309e-02,-3.72322e-02,-3.22252e-01,-3.05504e-01,-1.66080e-01,-1.62085e-01,1.80781e-01,1.27310e-01,1.75658e-03,1.15942e-01,-1.54632e-02,1.09452e-02,-1.23883e-01,2.02865e-01,-1.73532e-01,3.07605e-01,4.90588e-02,-8.63761e-02,2.66814e-03,7.74959e-02,-1.68226e-02,-2.57479e-01,-6.11933e-02,-2.34258e-01,1.23836e-01,-1.31260e-01,2.57330e-01,-2.76648e-02,-1.56332e-02,-7.01426e-02,1.49537e-02,-1.91800e-01,1.47915e-01,-1.01712e-01,-6.12396e-02,7.09697e-02,
1.79425e-02,2.25101e-01,1.44850e-01,-2.23938e-02,1.85655e-01,-2.82718e-01,-3.18514e-01,-1.74347e-02,-1.22558e-01,-9.73349e-02,-1.32898e-02,2.61215e-01,6.33704e-02,1.48015e-24,1.08099e-01,1.76264e-02,-1.70568e-01,9.67303e-02,8.03263e-02,2.29522e-02,1.57596e-01,-8.72171e-02,-1.52727e-02,1.81182e-01,6.37722e-02,-1.65067e-02,-4.95399e-02,-2.23372e-01,-1.94643e-01,1.83828e-01,8.96636e-02,-2.11746e-01,9.05273e-03,-4.98394e-02,-2.65685e-02,7.79731e-02,1.33715e-01,8.89161e-02,6.95870e-02,-2.21416e-01,-1.88007e-01,1.32988e-01,5.31714e-02,-2.43757e-01,9.30354e-04,1.60701e-01,-1.92215e-01,2.58503e-01,3.07325e-01,3.87230e-02,
-2.27102e-01,-1.35881e-01,1.08712e-01,2.89248e-02,-6.57233e-02,1.43150e-01,6.86389e-02,-2.60959e-01,-3.21384e-01,1.41949e-02,-2.43441e-02,4.01652e-01,-2.03733e-01,5.30778e-38,-3.71433e-01,-9.15041e-02,9.43456e-02,-2.70267e-01,-1.69902e-01,-2.45425e-01,2.56149e-01,-1.70267e-01,-2.26875e-02,2.18796e-01,2.35586e-01,-3.00567e-03,8.69549e-02,1.00487e-01,-2.56289e-01,-1.11995e-01,9.85915e-02,2.19803e-01,4.81592e-02,2.31727e-01,-2.01372e-01,-1.80854e-04,1.74180e-01,-2.16454e-01,-1.22538e-01,-9.34327e-02,3.92446e-02,3.65500e-01,1.93401e-01,1.33113e-01,7.35025e-02,-2.15558e-01,1.19303e-01,-1.76974e-02,4.55532e-02,1.66855e-01,
1.74836e-01,-1.87808e-01,-1.70639e-01,-1.58442e-01,-1.56863e-01,-2.72912e-01,1.23267e-01,1.59431e-01,1.96429e-01,5.94583e-02,-9.17204e-02,1.18692e-01,1.23645e-01,1.63826e-31,-1.23203e-01,1.78109e-01,2.54544e-01,3.94308e-02,5.13664e-02,1.70356e-01,-8.24955e-02,-7.64759e-02,2.06507e-01,-3.96813e-01,1.75234e-02,3.07674e-02,5.74754e-02,2.63277e-01,7.20406e-02,-7.76308e-02,-1.10083e-01,-2.38250e-01,1.58219e-01,-5.42477e-02,-1.63852e-01,-4.06895e-02,1.54563e-01,-6.36400e-02,-4.88378e-02,-2.02044e-01,7.79091e-02,-2.09161e-02,2.55151e-01,1.33270e-01,8.18752e-02,-1.85438e-01,-2.42393e-01,1.16775e-01,3.20239e-01,5.64007e-02,
5.15259e-02,-3.07804e-03,-2.39296e-01,-2.04769e-01,-1.34539e-01,4.12510e-02,-2.90484e-02,-1.47243e-01,6.68394e-02,-2.37684e-02,-1.75460e-01,-1.73138e-01,1.90350e-01,-4.01228e-32,-2.94770e-01,2.04626e-01,3.49596e-01,-4.44399e-02,6.43344e-02,-7.35364e-02,-1.85229e-01,6.62192e-02,-1.42080e-01,6.24842e-02,-1.29342e-01,1.89690e-02,1.06209e-01,2.87562e-01,7.08433e-02,-1.68120e-01,-9.49444e-02,-3.93187e-02,9.15654e-02,-1.45563e-01,1.63545e-01,1.37335e-01,1.69454e-01,1.41331e-01,1.89115e-01,-2.66052e-02,-6.12549e-02,1.86443e-01,1.56929e-02,1.49460e-01,-2.64077e-01,1.91307e-01,4.33933e-02,1.92443e-01,5.08509e-01,1.14177e-01,
-8.56248e-03,-2.09571e-01,-4.34371e-02,-2.18210e-01,2.97313e-01,-2.02526e-01,-1.32776e-01,6.05377e-03,1.63956e-01,8.08582e-02,3.64808e-02,-3.89921e-02,-2.37889e-01,4.44227e-30,8.45135e-02,1.71651e-01,-2.30766e-02,6.21700e-03,6.17597e-02,-1.45241e-02,2.18410e-01,-8.82413e-02,-1.69706e-01,-1.60054e-01,3.11616e-02,-2.16376e-02,-8.55766e-02,3.26677e-02,-1.16745e-01,1.95584e-02,1.31534e-01,-7.00538e-02,8.96837e-02,1.63892e-01,7.03327e-02,1.50681e-01,-6.15802e-02,1.65467e-02,-7.22928e-02,-1.42080e-02,-2.19530e-01,-1.01737e-01,9.21559e-02,-3.11134e-01,2.00918e-01,-7.30477e-02,1.03629e-02,1.53983e-01,-1.89040e-01,-1.96288e-01,
5.17803e-02,1.14888e-01,-1.06037e-01,1.03240e-01,1.11083e-01,-4.40922e-02,3.34938e-02,-5.34368e-02,1.30863e-02,-9.85160e-02,-1.14609e-20,1.46632e-01,-3.38109e-01,-3.51494e-37,-2.05033e-01,-2.36136e-01,5.11011e-02,1.54713e-01,6.82980e-02,2.81796e-02,-7.36214e-02,-7.93710e-03,1.49522e-01,5.96434e-04,-1.25938e-01,-2.88735e-02,-1.40713e-02,2.28962e-01,-1.42279e-01,5.10646e-02,-1.45626e-01,2.02623e-01,-1.25170e-01,1.61786e-02,-1.45116e-01,1.00940e-01,2.65863e-01,-3.41618e-01,-2.27555e-01,1.67570e-01,1.54468e-01,1.42173e-01,-1.29330e-02,9.50415e-05,-1.86397e-01,1.92169e-01,-1.46068e-01,-1.73683e-01,1.46724e-01,-5.15766e-02,
2.39049e-01,-1.53289e-01,-1.54485e-01,1.59997e-01,7.14181e-03,8.57409e-03,-1.26545e-01,-2.06817e-01,-2.51023e-01,-1.78961e-01,1.22255e-02,2.49424e-01,2.76110e-02,1.05539e-37,4.13057e-02,-2.40026e-01,-4.12161e-02,-1.82258e-01,-8.83027e-02,3.61391e-02,9.24516e-02,-3.76554e-01,1.44639e-01,2.55927e-01,1.87542e-01,-2.68808e-03,-1.42098e-01,-1.94937e-02,-1.39755e-01,-3.96439e-02,-7.15993e-02,2.00980e-01,3.99636e-01,-1.19803e-01,-2.55335e-01,3.27120e-02,2.53474e-01,2.66975e-02,-1.85855e-01,2.23623e-01,2.78936e-01,-9.24547e-03,-5.62393e-02,2.00591e-01,-1.53926e-03,3.44598e-01,-1.39470e-01,-7.32478e-02,1.61280e-01,1.25852e-01,
1.34798e-01,-1.10564e-01,3.22705e-02,-1.29341e-01,-1.88984e-02,-2.35880e-01,-3.12689e-02,2.72752e-01,1.24273e-01,4.73813e-02,8.37702e-02,-2.47164e-01,1.11394e-01,-4.11168e-26,-2.65334e-01,1.01015e-01,4.59388e-02,2.58016e-01,1.94169e-01,2.33888e-01,1.16132e-01,2.35059e-01,-6.62769e-02,7.66287e-02,1.89839e-01,1.99461e-02,8.14978e-02,-1.08708e-01,-1.72786e-01,8.42602e-02,1.51404e-01,-4.13450e-02,-3.22518e-01,2.87913e-02,2.34461e-01,1.46707e-01,-3.79387e-02,2.30345e-01,2.33755e-02,6.09696e-02,1.02591e-01,1.21657e-01,1.52993e-01,-2.27726e-01,5.44872e-02,-1.90995e-01,2.01958e-01,-1.97817e-01,-4.92639e-02,1.88346e-01,
-1.41054e-02,-4.80280e-02,6.99239e-02,4.31321e-02,-1.00980e-01,-1.79495e-02,-9.81726e-03,3.49686e-02,-1.19707e-02,-3.33825e-02,2.33022e-29,4.12713e-02,-1.89042e-02,-1.65278e-34,-9.98918e-02,-4.80671e-02,-3.68017e-02,5.90050e-02,-2.63968e-02,-4.52326e-02,2.72300e-03,4.77007e-02,-1.73215e-02,-1.14507e-01,-2.02587e-02,4.53080e-15,4.15585e-02,3.45761e-03,-3.37274e-02,-9.43164e-02,-1.13708e-01,1.32294e-01,-2.96948e-02,5.67445e-03,-1.59526e-01,1.57282e-01,1.53371e-01,1.25846e-01,-1.64039e-02,-2.19323e-03,-6.56832e-02,2.36057e-02,-7.32767e-02,9.46473e-02,-1.32643e-01,-1.50051e-01,5.66765e-02,3.53794e-04,4.51826e-01,4.04449e-02,
2.44034e-01,-1.15348e-01,-1.63333e-01,-1.78313e-01,1.93207e-01,-1.25422e-02,-1.53968e-01,-6.66856e-02,-2.28593e-01,-2.27955e-01,-3.53689e-02,-2.15279e-01,-2.40508e-01,-1.33039e-14,-6.88358e-02,1.29224e-01,7.51373e-02,2.69132e-02,-2.23888e-01,-2.14663e-01,-1.73158e-02,1.83764e-01,-4.25787e-02,2.32008e-01,-2.40948e-01,-5.96075e-02,-1.45269e-01,-1.64862e-01,-3.12358e-02,7.07741e-02,1.40452e-01,1.22061e-01,-2.21543e-01,-1.76596e-01,-2.64525e-02,-2.64216e-03,2.72725e-01,1.93522e-01,1.73739e-01,-1.19909e-01,2.24475e-01,-1.61102e-01,-1.42308e-01,-2.75309e-01,2.10763e-01,-1.50561e-01,1.70786e-01,2.54319e-02,-2.27415e-01,-2.64855e-01,
-6.91498e-02,-7.37007e-03,-3.65191e-28,-9.37963e-03,-5.73938e-02,1.85105e-02,-1.87589e-02,-2.57417e-35,-1.99470e-12,1.97138e-14,-5.31824e-36,1.42781e-22,9.28920e-38,-5.93777e-37,-2.83135e-02,-1.98572e-02,2.37905e-17,-6.16254e-31,-1.61563e-02,8.85735e-02,-6.90094e-02,3.33625e-37,2.43597e-02,1.23203e-01,-1.98129e-02,-1.81007e-24,3.77655e-32,6.60589e-02,-5.61956e-02,-1.42745e-02,2.25021e-02,6.94246e-02,2.52720e-11,-9.26925e-02,-7.69763e-03,2.20829e-20,2.60712e-20,-1.52619e-02,-1.43952e-01,1.99865e-37,-2.68167e-02,3.95618e-37,2.33183e-33,-6.14642e-02,-8.44605e-03,-4.95717e-37,3.66391e-03,-4.42732e-12,5.85497e-18,1.03853e-01,
1.91247e-01,6.87719e-02,1.29659e-01,-1.12770e-01,-2.29247e-01,1.46415e-01,-3.17898e-02,8.38307e-02,1.94327e-01,3.20202e-02,5.66613e-29,-1.37330e-01,2.98590e-01,2.47480e-37,1.03940e-01,1.45365e-01,7.73362e-02,1.08213e-01,-1.59145e-01,-2.22557e-01,1.11946e-01,1.34730e-03,-2.27247e-01,2.59395e-02,2.36279e-01,4.19373e-03,-1.78745e-02,-7.45294e-02,-8.22897e-02,2.11755e-01,-6.50597e-02,-5.68381e-02,1.06873e-01,-1.82194e-01,1.82304e-01,-1.53612e-01,4.70809e-02,-3.05618e-01,-6.03380e-02,2.04137e-01,-3.41712e-02,-8.36482e-02,1.85534e-01,2.72419e-01,-2.75596e-01,-1.97886e-02,-1.13770e-01,2.12447e-01,2.15859e-01,1.87994e-01,
-1.00414e-01,1.02409e-02,-3.40640e-02,-2.64625e-01,7.80046e-02,-1.89108e-02,6.00615e-02,-7.18043e-02,2.23038e-02,6.65276e-02,-1.13585e-01,-8.98168e-02,-1.34329e-01,-4.91689e-37,1.60153e-01,-1.12952e-01,3.37571e-02,1.20197e-01,-1.84312e-01,1.56511e-01,-5.42717e-02,-3.35628e-01,2.39749e-01,2.41137e-01,-1.98482e-01,-1.19828e-02,-1.41244e-01,-1.13702e-02,-9.50784e-02,2.61572e-01,-7.99226e-02,1.53993e-01,-1.42078e-01,1.00165e-01,2.12955e-01,-1.56120e-01,6.98338e-02,-3.35370e-02,-2.08775e-01,1.32314e-01,5.58546e-03,-3.14091e-01,-2.62790e-01,-2.54521e-01,1.31399e-01,3.95691e-02,1.82077e-01,1.14906e-01,-1.64221e-01,-1.45562e-01,
-1.68540e-01,1.74626e-01,1.55100e-01,1.48734e-01,9.41427e-02,2.15632e-01,1.18061e-01,-3.56508e-01,-5.23901e-02,3.88187e-02,-1.34335e-01,4.31776e-02,-1.68089e-01,3.49916e-37,7.68934e-03,-8.47681e-02,-2.85562e-01,1.06559e-01,-2.34293e-02,-2.94136e-01,9.39195e-02,3.66132e-02,-1.14761e-01,1.36360e-01,-2.46585e-01,5.08751e-03,-5.62283e-02,3.05529e-01,-2.53405e-01,-2.65010e-01,2.32528e-01,1.78512e-01,1.07268e-01,-9.29972e-02,-2.13450e-01,-1.55064e-01,1.59544e-01,-2.52560e-01,-1.91864e-01,-7.51214e-02,4.27904e-02,9.99290e-02,-8.10452e-02,-2.83518e-01,2.14801e-01,3.03158e-01,1.46836e-01,1.12045e-01,1.08525e-02,2.76916e-03,
4.15948e-02,2.54573e-02,-1.32189e-02,-8.14876e-02,5.62608e-02,-4.57432e-02,8.41220e-02,2.78471e-02,1.13468e-02,1.19223e-01,-5.99986e-17,4.24347e-02,2.15534e-20,8.62551e-38,-4.02291e-02,5.49802e-02,3.56367e-38,-8.88004e-02,-6.23798e-02,-9.03680e-02,-1.60381e-02,1.34724e-01,8.81600e-04,7.21478e-02,-1.78710e-02,2.01643e-25,1.12145e-29,8.27132e-02,-4.11734e-02,-5.47930e-03,-1.12480e-01,-2.01087e-01,4.87764e-11,-1.60169e-02,4.03549e-02,-7.79972e-03,-2.60097e-03,-9.44988e-02,-1.15935e-01,-6.25675e-02,4.62011e-02,-9.47610e-17,-7.41161e-03,6.32567e-03,2.60606e-02,-3.76415e-02,6.56933e-02,-8.81214e-02,2.30192e-37,-2.20902e-02,
-2.22910e-02,-2.04885e-02,-9.32836e-03,-1.85772e-02,-2.04040e-02,-1.97972e-02,-1.68927e-02,-6.16901e-19,-4.44680e-03,1.57961e-10,-2.84866e-17,-2.86345e-20,-1.39823e-02,-1.57859e-37,-2.06015e-02,-2.12410e-02,1.83076e-07,-3.39472e-03,-2.10056e-02,-2.26537e-02,-2.25294e-02,-1.90403e-20,-1.55636e-02,-2.23609e-02,-2.07037e-02,2.90348e-37,-1.04540e-02,-1.79582e-02,-2.34718e-02,-1.84302e-02,-2.30403e-02,-2.19680e-02,-1.99201e-02,-1.95336e-02,-2.44981e-02,1.40635e-07,3.55240e-08,-2.27663e-02,-2.39705e-02,-1.60981e-02,-2.11330e-02,1.15520e-08,-2.94267e-03,-1.80948e-02,-2.26838e-02,-8.96721e-20,-2.20174e-02,-1.94629e-02,5.85793e-13,-1.85423e-02,
-1.54363e-01,-8.04398e-02,-1.77299e-01,-1.19325e-01,-9.67896e-02,5.50465e-02,5.69893e-02,1.63673e-01,1.50935e-01,2.22415e-02,-5.67774e-29,-1.06052e-01,-1.50816e-01,7.21019e-30,-1.06754e-01,-1.95671e-01,-1.40798e-13,1.77815e-01,-1.08656e-03,4.16023e-02,1.79122e-01,-9.26456e-02,1.96519e-02,7.07223e-30,-3.42656e-29,-7.69436e-12,1.68882e-37,-2.23333e-37,-1.29352e-01,-1.58663e-11,-4.49144e-02,-1.24181e-01,-2.55637e-20,-3.51847e-37,4.36515e-02,-2.85345e-11,-2.21600e-02,1.03136e-01,-1.37915e-01,-1.87227e-01,-4.15263e-02,-2.36457e-16,1.39033e-01,1.54183e-36,-6.53332e-02,-2.62584e-34,1.94765e-01,5.98008e-03,-1.83410e-24,8.39055e-38,
-1.97000e-01,-2.47043e-01,1.64334e-01,5.59012e-02,1.20186e-01,-2.56585e-01,1.03863e-01,-1.83200e-01,1.80783e-01,1.46357e-01,2.01883e-01,-4.64459e-02,-1.09272e-01,5.00329e-15,2.05126e-01,-2.62527e-01,2.23592e-01,1.71381e-02,1.32139e-02,1.95534e-01,1.82406e-01,-1.58417e-01,-1.92528e-01,-3.53622e-01,1.35388e-01,3.63505e-02,1.06529e-01,-1.00775e-01,9.23104e-02,-2.61334e-01,-9.22000e-03,1.41314e-01,1.60023e-01,-1.25691e-01,-5.38234e-02,1.30417e-01,9.26509e-02,-7.31116e-02,-5.34012e-02,7.21221e-02,-2.29387e-01,2.61489e-01,-8.91688e-02,-6.52855e-02,7.52525e-02,-5.79769e-02,1.19484e-01,7.48965e-02,3.36098e-01,-1.47273e-01,
4.03485e-02,5.04089e-03,-2.90878e-02,1.96836e-01,-2.37553e-01,-2.44513e-01,2.60024e-01,6.45823e-02,-3.05007e-01,1.67645e-01,-8.64307e-02,4.66379e-02,-1.92253e-01,3.12072e-23,-9.51811e-02,8.68121e-02,1.85250e-01,2.34333e-01,2.19972e-02,2.17623e-01,1.70787e-01,1.36239e-01,-1.02415e-01,-4.30992e-01,-1.56289e-01,5.76765e-02,1.17466e-01,2.87036e-02,-9.76763e-02,1.98195e-01,2.18510e-01,-2.24154e-01,-1.52062e-01,-1.43505e-01,-2.54483e-01,1.39001e-05,-7.31098e-02,5.88482e-02,-2.50191e-01,-1.13571e-01,1.44425e-01,1.48862e-01,1.39967e-01,9.16332e-02,-2.97523e-02,-3.18329e-01,-1.42828e-01,2.48169e-01,-7.40755e-02,1.06491e-01,
2.07969e-01,1.90516e-02,-2.81220e-04,2.04556e-01,-1.66888e-01,4.34456e-02,6.87659e-02,6.03662e-02,9.39265e-02,1.31612e-01,-2.14236e-02,1.55079e-01,-8.56990e-02,3.70580e-14,-1.83255e-01,1.59810e-01,3.94805e-02,3.11235e-02,9.44995e-02,8.90656e-03,3.96612e-02,-7.11024e-02,6.61978e-02,-8.37334e-02,-2.51985e-01,-1.10706e-03,1.38133e-02,1.84023e-01,2.48372e-01,2.65595e-02,2.84014e-01,-9.77519e-02,-4.71624e-02,-6.54579e-02,-6.82649e-02,2.36232e-01,-2.63179e-01,-1.06526e-01,-2.86510e-01,-3.22468e-01,-2.42680e-01,-1.77623e-01,-1.19580e-01,1.01170e-01,7.96739e-02,-1.45965e-01,-2.01025e-01,8.50326e-02,4.81168e-02,-1.22851e-01,
-1.28814e-01,6.84146e-02,2.05550e-01,1.28449e-01,1.91163e-01,-3.03155e-01,-1.30348e-01,1.67402e-01,1.81302e-01,-1.91730e-01,-2.37314e-01,6.31828e-02,1.16977e-01,-3.90681e-37,-1.71991e-01,-2.17795e-03,-2.05272e-01,1.68707e-01,2.77992e-01,1.90737e-01,-2.01881e-01,2.99295e-01,-2.30326e-01,-5.56724e-02,1.21322e-01,-9.65544e-04,-3.12567e-02,2.24000e-01,8.98403e-02,-9.69956e-02,-1.92517e-01,-1.98860e-01,2.59179e-02,-6.77463e-02,7.25492e-02,2.17949e-01,-1.83653e-02,1.12201e-01,2.30557e-01,2.00858e-01,-9.71255e-02,-1.11460e-02,4.79505e-03,1.43488e-01,-9.10125e-02,-1.99395e-01,-1.54418e-01,1.14676e-01,7.41242e-02,-1.02468e-01,
-8.89380e-02,-8.20101e-02,-2.34573e-01,2.11410e-02,1.74091e-01,-2.33282e-02,-2.58089e-01,-5.80524e-02,2.09937e-01,2.56124e-01,1.49916e-12,2.61009e-01,-7.70692e-02,8.20252e-13,-2.79156e-01,1.60171e-01,-4.96334e-02,-6.76532e-03,3.01399e-01,2.23150e-01,-1.04391e-01,2.76768e-02,-1.62559e-01,-7.18600e-02,-1.11786e-01,1.90830e-02,3.15947e-02,2.01920e-01,-2.69150e-01,1.81060e-01,-2.77903e-01,-1.39540e-02,-2.12540e-02,-1.81141e-02,-2.54410e-01,-1.39951e-01,5.67189e-02,-2.31423e-01,-1.27558e-01,-2.69595e-02,-2.06260e-02,-8.28935e-02,1.93329e-01,-2.41096e-01,-5.83198e-02,2.74578e-01,-3.88287e-02,-6.14219e-02,-1.39458e-02,7.73741e-02,
-1.36909e-01,-7.48360e-03,-1.49261e-01,-5.22815e-02,3.78014e-02,2.60685e-01,-1.39137e-01,-2.70880e-01,-2.18907e-01,-2.17938e-01,1.29610e-02,1.82163e-01,6.18112e-02,-2.48500e-25,3.34007e-02,-1.98168e-01,4.60005e-02,9.93253e-02,-1.30627e-01,2.57987e-01,-7.03713e-02,-2.53126e-01,1.03080e-01,5.70085e-02,-2.32005e-01,-7.35056e-03,5.33740e-03,-5.37010e-02,-1.34405e-02,-9.71294e-02,-8.50690e-03,-2.25118e-01,-1.98308e-01,-8.47828e-02,2.01456e-01,-6.63294e-02,1.21543e-01,-1.38794e-01,2.10994e-01,-1.39578e-01,2.28053e-01,-4.01953e-02,-9.33311e-02,2.94159e-01,-1.41184e-01,1.15413e-01,2.48794e-01,1.56046e-01,2.52635e-01,-1.32860e-01,
-1.66909e-01,7.95075e-02,1.41503e-02,2.13897e-02,-2.77490e-02,-2.24723e-01,-1.21264e-01,1.68137e-01,-1.81769e-01,1.25196e-01,-1.38671e-14,1.50938e-01,2.04580e-01,8.65040e-12,3.34530e-02,-2.18380e-02,-1.32877e-01,-4.96705e-02,2.14839e-01,5.08359e-02,-1.67893e-01,-6.11409e-02,1.33036e-01,-7.56726e-03,-1.18092e-01,2.77126e-02,-2.27061e-02,4.13584e-01,1.32951e-01,-5.78310e-02,6.90591e-03,-1.59627e-01,9.50934e-02,1.02649e-01,-3.25043e-02,3.05008e-01,8.35987e-02,-3.61343e-02,-1.19606e-01,-7.16938e-02,1.71007e-01,-1.01864e-01,5.85990e-02,5.58585e-02,-2.08812e-01,-1.55227e-01,-2.66740e-02,-6.64378e-02,3.35630e-01,1.88968e-01,
5.71255e-02,4.00495e-02,-2.20951e-01,-1.35906e-01,-1.41833e-01,-1.92285e-01,-3.09207e-01,2.72436e-01,-1.99410e-01,-4.71147e-02,-1.13173e-01,1.51792e-01,-5.60507e-02,3.64518e-37,-8.27143e-02,-6.54688e-02,1.29770e-02,-4.75603e-03,4.59725e-02,-4.00733e-02,-1.44727e-01,2.14146e-01,-1.44728e-01,-2.49769e-01,7.51152e-02,2.13821e-02,1.94775e-01,2.54794e-01,1.98351e-01,1.28296e-01,2.02537e-01,1.12539e-01,2.86132e-01,-2.61293e-01,1.99154e-01,2.72843e-01,2.09281e-01,5.83863e-02,1.93857e-01,5.81413e-02,3.63450e-02,-9.63484e-02,-2.15848e-02,-3.62705e-02,-2.26416e-01,-4.42433e-02,2.14636e-01,-9.98887e-02,-3.52675e-02,1.77262e-01,
1.26055e-01,8.44416e-02,-9.10583e-02,1.57464e-01,-2.94690e-01,-1.21817e-01,-1.45887e-01,-3.76146e-03,-1.56735e-02,1.51919e-01,2.81019e-03,1.12475e-01,-1.33461e-01,-1.63278e-29,-1.98614e-01,9.18188e-02,1.38712e-01,-1.33524e-01,-1.83813e-01,-2.07963e-01,6.61578e-02,1.92604e-01,-3.22393e-03,-7.20421e-02,-3.01286e-01,3.96376e-02,-1.07578e-01,-2.16710e-01,2.43493e-01,-2.57708e-01,-2.47493e-01,-1.35903e-01,1.20248e-01,-3.33256e-01,2.23767e-01,2.78137e-01,1.92349e-01,7.70148e-02,8.26110e-02,-8.52950e-02,1.52045e-01,-6.91785e-02,9.01540e-02,2.05687e-01,-2.08597e-01,5.92419e-03,8.31407e-03,-2.79370e-01,-1.34632e-02,2.36775e-01,
-2.31407e-01,2.42436e-01,1.50447e-01,8.82264e-02,1.62781e-01,-9.55145e-02,-7.41133e-02,-1.55773e-02,2.35179e-01,-2.25067e-01,1.85435e-01,-3.79563e-02,-1.21608e-01,2.83425e-11,1.30792e-01,-1.67274e-01,-2.22244e-01,2.51263e-01,2.86572e-01,-1.10536e-01,-1.04013e-01,2.51089e-01,6.69778e-02,1.88090e-01,-1.37995e-01,-7.94455e-03,-1.15966e-01,-2.91107e-01,1.63348e-01,5.50905e-03,-1.43943e-01,-2.91609e-01,-1.56427e-01,2.29498e-02,-3.33993e-02,2.43237e-02,6.34115e-02,5.95155e-02,-8.53314e-02,-7.75645e-02,1.27762e-01,-1.64945e-01,-1.17935e-02,-2.80361e-01,2.46667e-01,-2.52920e-01,-2.32313e-01,2.78698e-01,-2.98868e-01,1.16835e-01,
-8.70598e-02,-5.41970e-02,2.31166e-01,3.07087e-01,-1.27430e-01,-3.06193e-01,-6.17919e-02,-1.53400e-01,-1.23603e-01,-7.07897e-02,8.56875e-02,-1.65494e-01,1.29503e-01,1.68025e-34,-1.26818e-01,-2.73208e-01,2.61464e-02,1.55718e-01,-2.76287e-02,2.28776e-01,-3.41012e-02,4.65933e-03,1.78354e-01,7.22199e-02,-2.94594e-01,-8.43388e-03,-6.11846e-02,-1.10410e-01,-9.58483e-02,1.36605e-01,9.41575e-02,-1.39413e-01,-7.36182e-02,-1.37245e-01,2.44393e-01,-6.93694e-04,1.60541e-01,1.94544e-01,-3.60483e-02,1.12114e-01,-1.81972e-01,-2.58766e-02,1.36007e-01,-5.97083e-02,1.27468e-02,-9.28266e-03,-1.02030e-01,-6.52799e-02,2.28601e-01,1.51927e-01,
-1.96143e-01,-1.55158e-01,-8.61925e-03,1.04958e-01,-1.17415e-01,-5.11738e-02,5.54464e-02,-2.97664e-02,6.70803e-02,-4.06507e-02,2.42875e-13,3.18232e-01,-1.34900e-01,-6.16522e-37,8.84611e-02,1.70831e-01,-2.38874e-01,-1.88224e-01,2.02254e-01,9.95754e-02,1.95603e-02,-1.19897e-01,2.33461e-01,-1.29258e-01,1.39792e-01,6.50803e-37,8.62530e-02,1.24125e-01,-2.20537e-01,6.87920e-02,-5.08893e-02,-3.81343e-02,1.32454e-01,7.57852e-02,-1.39591e-01,-9.00417e-02,-2.66565e-04,1.73873e-01,8.42386e-02,1.91888e-01,5.79344e-03,-3.33836e-01,8.35812e-02,-1.38119e-01,1.34855e-03,2.13023e-01,-7.26843e-02,-2.63805e-01,-4.92009e-02,-1.15966e-01,
1.49428e-01,2.26905e-01,2.14712e-01,-1.93278e-01,2.41893e-02,-2.15773e-01,2.03956e-01,-1.40980e-01,-1.28903e-01,1.54291e-01,1.94783e-01,-1.94727e-01,-1.70550e-01,-4.31487e-34,-1.64065e-01,5.86582e-02,9.87439e-02,1.88269e-02,1.46661e-01,-1.18686e-01,-1.43401e-01,2.53363e-01,3.26727e-03,-1.93998e-01,1.61358e-01,2.22396e-02,1.13586e-01,-9.95316e-02,1.74312e-01,-7.95068e-04,-1.37750e-01,-4.37740e-02,-1.78776e-01,-4.58877e-02,2.18408e-01,2.04146e-01,1.46422e-01,2.23283e-01,-9.43675e-03,1.26653e-01,-1.43424e-02,2.98460e-01,2.65053e-01,1.55451e-01,4.95177e-02,-2.86592e-01,-5.03109e-02,1.64197e-01,9.95186e-02,1.93893e-01,
1.04648e-01,2.35771e-01,2.69015e-01,2.21181e-01,1.95667e-01,2.05369e-01,1.35043e-02,-9.09851e-02,-6.59821e-02,-2.41645e-01,1.21941e-01,2.12537e-01,1.11245e-01,-2.68076e-31,2.70818e-02,-1.07174e-01,3.58579e-01,5.80732e-02,-1.03523e-01,-1.53098e-02,2.08511e-01,2.71068e-01,-9.90018e-02,-3.67611e-01,5.76063e-02,4.70184e-02,6.69891e-02,-2.53257e-01,1.49020e-01,2.19960e-01,-7.67914e-02,-7.85074e-02,-1.93858e-01,-2.29927e-01,-9.98372e-02,3.74940e-02,-5.54310e-02,1.64249e-02,-1.85154e-01,-1.71663e-01,1.76892e-01,2.15675e-01,2.08633e-01,3.20756e-01,-1.51630e-01,1.96344e-02,4.56053e-02,-1.74122e-01,2.79015e-01,1.34857e-01,
1.91352e-01,1.17564e-01,-1.24633e-01,1.81926e-01,1.02277e-01,-1.78291e-01,-1.37181e-01,-4.87715e-02,-1.28031e-01,6.08000e-02,-4.84144e-02,2.06415e-01,-2.68617e-01,-2.95981e-37,2.06799e-01,2.46730e-01,-8.04259e-02,-2.39115e-01,-2.72086e-01,2.62756e-01,2.75188e-02,-2.93912e-01,-1.53649e-01,-1.02884e-01,1.29663e-01,1.73345e-02,-1.16558e-01,-3.70806e-02,-1.95147e-01,1.73915e-01,-1.85291e-01,7.29937e-02,5.09365e-02,-2.00751e-02,1.98078e-01,-2.58065e-01,-1.93235e-01,-2.04697e-01,4.38001e-02,-2.45250e-01,-1.66039e-01,-2.44497e-01,-5.44967e-02,-2.46462e-01,5.27648e-02,6.67575e-02,1.70732e-01,-1.34611e-01,-5.37751e-02,1.49289e-01,
2.05040e-01,-1.52045e-01,1.69721e-01,8.99211e-02,4.70133e-03,1.11476e-01,-1.07065e-01,3.55656e-02,-1.30233e-01,-1.67719e-01,-1.20765e-01,1.15127e-02,3.27360e-03,7.11480e-38,-2.11500e-01,-9.48142e-02,2.43246e-02,-1.22184e-01,8.73706e-02,-1.76394e-01,-2.71011e-01,-1.26219e-02,1.69546e-01,1.33489e-01,-1.41481e-01,2.89820e-02,-3.48961e-02,-9.01647e-02,9.31651e-02,-2.94848e-01,-7.64050e-02,-1.52261e-01,-2.78646e-02,-1.23535e-01,5.43157e-02,-1.05695e-01,2.27564e-01,-1.75091e-01,-2.28099e-01,-2.94248e-01,1.54189e-01,-1.89588e-02,-1.02426e-01,-4.22212e-02,1.38628e-01,-2.46993e-01,1.54095e-01,1.59322e-01,2.92134e-01,-5.55290e-02,
7.16078e-02,-1.10534e-01,-2.50215e-01,-1.92402e-01,-2.12444e-01,-4.48285e-02,-8.09693e-02,1.19032e-01,-2.34508e-01,-2.21023e-01,2.04117e-01,1.10236e-01,9.42900e-02,-1.33769e-24,1.66836e-01,1.92729e-01,-1.56562e-01,7.98276e-02,2.45547e-02,7.48877e-02,1.53057e-01,-2.03543e-01,-1.64801e-01,1.44717e-01,7.94396e-02,-8.41627e-03,-1.50927e-01,-1.90283e-01,-2.07204e-01,6.37899e-02,2.34002e-01,1.75788e-01,-1.57476e-01,-1.27626e-01,1.63724e-01,-1.05482e-02,-1.54201e-01,-2.76273e-01,-2.16472e-01,-2.39546e-01,1.17030e-01,-3.45174e-01,-1.55605e-01,1.10189e-01,2.00896e-01,1.16409e-01,2.11895e-01,-2.23618e-02,-1.59385e-01,1.74613e-01,
-2.69255e-02,5.77980e-02,3.27199e-28,-1.83542e-01,1.65376e-02,5.37543e-14,-8.38625e-16,-2.36577e-04,1.71887e-22,5.75456e-02,-4.24129e-37,4.03459e-08,-3.21860e-36,-2.03383e-16,3.54550e-32,5.96330e-37,1.25774e-08,-6.29114e-02,1.70058e-01,-1.67860e-01,-3.16606e-02,-3.89472e-37,-5.03101e-02,1.36088e-02,3.26382e-24,-2.51926e-37,-2.27278e-38,2.30591e-02,-7.17710e-02,-4.06859e-03,-4.04846e-02,-6.09591e-02,2.58002e-20,-9.54303e-02,-1.23087e-02,2.07001e-04,7.92015e-27,5.84330e-27,3.54920e-02,-1.02675e-01,-3.41041e-04,3.56604e-32,-2.79293e-03,2.54329e-33,1.07945e-01,-1.65200e-02,1.24174e-02,-9.97415e-02,3.59233e-24,1.02148e-01,
1.32912e-02,-1.98674e-01,-8.21434e-02,-9.71044e-02,9.58778e-02,1.82160e-02,-9.32063e-02,1.88791e-01,2.27357e-01,-1.82865e-01,-2.12003e-02,1.40890e-01,2.42355e-01,7.24717e-27,-1.07462e-01,-1.46885e-01,2.81734e-01,-6.91956e-02,-1.71215e-01,2.79743e-03,-1.05697e-01,8.67889e-02,-7.54245e-02,-1.55654e-01,-5.64857e-02,-1.36701e-02,1.33901e-01,-1.31236e-01,1.25943e-01,-4.25981e-03,2.75303e-02,-6.41793e-02,5.08101e-02,2.97808e-01,4.15535e-02,-5.16303e-03,-1.62763e-01,3.08611e-01,6.70854e-02,2.07818e-01,1.23563e-01,3.98392e-01,-9.99822e-02,2.74981e-01,1.40076e-01,-1.74937e-01,1.14048e-01,1.63667e-01,1.41024e-01,-4.69351e-02,
-1.39396e-01,1.69912e-01,2.16666e-01,9.43916e-02,-5.11408e-02,-1.66679e-01,9.53442e-02,3.59747e-01,2.48047e-01,1.61150e-01,-4.58690e-28,2.25539e-01,-2.94952e-01,-9.68293e-38,1.28467e-01,-1.83855e-01,-3.06362e-01,1.75155e-01,2.05636e-01,-1.81470e-01,-6.87158e-02,1.40806e-01,3.64473e-02,1.76458e-01,-3.00042e-01,-3.31385e-02,-6.98275e-02,-1.97871e-01,2.34407e-01,-1.40105e-02,-3.12662e-01,-6.39532e-02,-8.30790e-02,2.26790e-01,5.83481e-02,-3.17944e-01,2.05059e-01,6.83799e-02,2.54562e-03,1.97581e-01,-1.17201e-01,2.06490e-01,-1.21142e-01,-1.51921e-01,-2.62679e-01,5.98676e-02,-2.98055e-01,2.87258e-02,-1.84447e-01,9.83535e-02,
-1.02612e-01,-2.37832e-01,2.96204e-01,-5.18089e-02,-7.94414e-02,1.07918e-01,-1.45962e-01,-2.15539e-01,8.12383e-02,9.95743e-02,2.55149e-34,-2.94956e-02,1.59954e-01,-2.23073e-20,2.33037e-01,5.79948e-02,-9.97788e-02,1.66390e-01,-1.27822e-01,-4.48900e-02,3.05254e-02,-7.49533e-03,-1.63614e-01,2.91985e-02,7.11520e-02,1.04250e-03,1.80116e-01,-1.18389e-01,-4.32714e-02,1.93646e-01,-1.29680e-01,-1.40805e-01,-1.04317e-01,6.55577e-02,-1.46245e-01,6.92083e-02,1.92354e-01,1.36281e-01,-1.24532e-01,-7.30704e-02,-9.20091e-02,-4.02085e-02,-1.86725e-01,-8.16558e-03,4.23135e-02,-1.61024e-01,1.01336e-01,-1.01441e-01,7.63236e-02,2.52636e-01,
2.12879e-02,-2.48068e-01,1.53994e-01,-1.19735e-02,8.68283e-02,-1.19015e-02,-1.68162e-02,1.83785e-01,8.49134e-02,6.60550e-02,5.05847e-21,1.42818e-01,6.55264e-02,3.25287e-19,6.30348e-02,-2.28653e-01,4.83943e-05,-1.50612e-01,1.41480e-01,-1.41010e-01,-2.17886e-01,-2.23146e-01,9.35697e-02,-2.03785e-01,6.35809e-02,-1.47089e-13,8.96816e-02,-8.71104e-02,-1.07708e-01,-9.23487e-15,-1.40010e-01,-2.29354e-01,-9.45328e-14,1.49137e-01,4.46307e-02,1.63971e-02,7.45450e-02,1.12861e-01,1.10749e-01,5.72013e-03,1.47553e-01,8.28536e-14,1.06668e-02,9.73503e-02,5.58478e-03,3.85671e-03,-6.86267e-02,-4.70454e-02,6.28603e-02,3.65458e-02,
-2.53125e-02,-1.66772e-01,3.35819e-01,2.77656e-01,1.95017e-01,-1.80881e-01,-1.88084e-01,-2.91674e-01,-1.57424e-01,2.25944e-01,-1.31291e-01,2.16424e-01,1.14137e-01,-1.51946e-35,2.46605e-01,-9.80310e-02,-3.54833e-02,-1.01536e-02,2.04979e-01,8.87629e-02,-4.01523e-02,-1.21463e-03,3.91699e-02,-3.44998e-01,8.70711e-02,1.58364e-02,1.71826e-01,1.01732e-01,1.07052e-02,-4.75015e-02,1.49673e-01,-5.59770e-02,2.98185e-01,-1.95520e-01,-1.77043e-01,2.47419e-01,-4.68160e-02,-2.04197e-01,-7.39477e-02,-1.29661e-02,1.86537e-01,-6.43911e-02,2.29662e-01,5.52195e-02,1.14347e-01,1.12469e-01,-3.99406e-02,1.83348e-01,3.92400e-01,3.35419e-01,
1.22425e-01,-1.02301e-01,-4.14871e-02,9.79939e-02,-1.06218e-01,2.47980e-01,-1.05056e-01,-2.45683e-01,7.26214e-02,-2.60665e-02,-1.21796e-01,6.44696e-02,-1.32551e-01,3.95137e-15,2.44540e-01,8.68274e-02,7.62833e-02,-1.51576e-01,2.65585e-01,-1.36482e-04,-2.22760e-02,6.54944e-02,-6.11620e-02,-7.68888e-02,8.35833e-02,3.29641e-02,1.86938e-01,1.92937e-02,-1.45461e-01,1.47758e-01,1.80522e-01,3.16602e-01,-9.84388e-02,-1.55879e-01,-2.26903e-01,2.69372e-01,-2.68690e-03,-1.40069e-01,1.09852e-01,-3.29994e-02,-2.99813e-02,8.09473e-02,6.97311e-02,1.75038e-01,9.69950e-02,-2.10131e-01,5.29210e-02,9.11472e-03,-1.82478e-01,-1.44824e-01,
-7.82271e-02,-8.48702e-02,-5.10176e-02,-4.83765e-02,-3.28596e-03,1.32972e-01,-5.10232e-03,-3.06444e-02,-8.22436e-02,7.48022e-02,-1.04427e-28,-2.71633e-02,-8.91647e-02,3.45170e-32,-1.08294e-01,-3.02671e-03,1.61679e-01,-8.65261e-02,-6.97465e-02,-9.78976e-02,1.61994e-02,2.69591e-02,-4.23907e-02,-4.30102e-02,2.85791e-02,-2.58300e-08,-2.46121e-02,-8.75606e-02,8.55312e-02,-1.64778e-01,-3.23726e-02,4.92532e-02,1.15793e-01,5.76449e-02,-1.32853e-01,6.64569e-02,2.15274e-02,-6.51270e-02,-1.50191e-02,8.01688e-02,-1.78879e-02,3.08386e-01,5.04794e-02,-5.36104e-03,-9.10470e-02,-4.69158e-02,-8.56242e-03,-5.52427e-02,1.76746e-01,-7.87234e-02,
-1.35362e-01,1.88967e-02,8.06522e-02,2.23401e-01,2.47310e-02,-1.73544e-01,2.45825e-01,8.17048e-02,1.68657e-02,-7.78446e-02,1.33562e-01,1.83032e-01,6.53766e-02,-5.91814e-12,3.13983e-01,6.59418e-02,-7.86022e-02,-1.95089e-02,-2.22936e-02,2.15492e-01,1.37559e-01,-3.07439e-01,-2.39825e-01,2.39410e-02,-1.65170e-01,-2.34984e-02,-6.92334e-02,-8.82827e-02,2.04150e-01,-1.38225e-01,-1.64342e-01,-1.54542e-01,-2.59340e-01,2.44633e-01,-4.64940e-02,-3.37898e-01,1.52233e-01,1.29370e-01,-4.98426e-03,7.07137e-02,-1.76384e-01,-4.11108e-01,-3.41626e-01,-1.84110e-01,2.33810e-01,-4.21731e-02,5.22772e-02,-1.13674e-01,-7.70136e-02,1.45161e-01,
2.01221e-01,1.62041e-01,3.47680e-01,1.77224e-01,2.33697e-01,-7.18159e-02,7.86535e-02,2.09688e-01,9.76845e-02,-1.01149e-01,-1.81392e-01,-4.51301e-02,9.93282e-02,4.58302e-37,1.44132e-02,-1.16616e-01,-8.63371e-02,2.95460e-02,-1.35267e-01,1.81659e-01,-1.43264e-02,-3.88659e-02,2.17606e-02,-2.23155e-03,-1.62777e-01,2.25172e-02,1.06291e-01,1.45627e-01,1.37559e-01,1.72433e-01,3.41552e-02,1.36974e-01,-2.67762e-01,-7.94582e-02,8.47776e-03,1.89824e-01,-1.16996e-01,9.96016e-02,-2.58419e-01,-2.85588e-01,1.93812e-01,-3.64942e-02,-1.33164e-01,2.08676e-01,-6.72557e-02,-2.46307e-01,2.73739e-02,-3.51212e-02,2.90590e-01,-1.38813e-01,
-5.44037e-02,-2.01241e-01,1.15061e-01,-2.61652e-01,7.66578e-02,1.47648e-01,1.27213e-01,9.61870e-02,-1.96904e-01,2.79100e-01,1.26723e-01,1.45216e-01,8.17368e-02,-1.25721e-13,1.86732e-01,1.77686e-01,-1.50218e-01,2.17655e-03,1.17116e-01,2.29654e-01,1.23490e-02,-2.40228e-01,5.48144e-02,2.84286e-01,1.28598e-01,-1.79772e-02,-1.24053e-01,1.42871e-01,-2.02746e-01,1.35323e-01,-1.15099e-01,-1.30983e-01,-2.65814e-01,-2.20788e-01,6.65839e-02,3.44454e-02,-3.65878e-02,2.51724e-02,2.05674e-01,-1.57964e-02,8.58007e-03,-4.25771e-01,-2.82457e-01,4.71979e-02,-1.86517e-02,5.83364e-02,-6.31217e-02,-4.41014e-02,-4.41530e-02,-1.37826e-01,
1.36556e-01,-6.16844e-02,2.28401e-01,-1.03296e-01,-1.34689e-02,1.05639e-01,7.15646e-02,2.90670e-02,-3.11828e-02,3.11208e-01,1.10174e-01,-1.64565e-01,2.53062e-01,2.74142e-37,1.72256e-01,4.91722e-02,-3.59931e-02,-8.31797e-02,1.26980e-01,-2.29699e-02,6.06587e-02,-1.27940e-01,-1.27522e-01,7.86768e-02,7.76762e-02,-2.07776e-02,-1.53838e-01,-1.73295e-01,1.78699e-01,2.71933e-01,-8.16132e-02,-2.68610e-01,-3.59332e-01,1.71194e-01,1.65841e-01,6.49183e-02,-1.94037e-01,9.98439e-02,-3.78869e-02,-3.13147e-01,-1.43777e-01,-6.91534e-02,2.25831e-01,-1.97426e-01,4.69920e-02,-5.72431e-02,3.66368e-02,-6.32232e-02,-3.19602e-01,-7.99528e-03,
2.99521e-02,8.56148e-02,7.59049e-02,3.21096e-01,2.83048e-01,1.60111e-01,1.16826e-02,1.92811e-01,-1.49895e-01,9.74968e-02,1.32606e-01,-2.36984e-01,2.04127e-01,1.59094e-13,-8.46822e-02,2.38549e-01,2.72147e-01,1.18403e-01,-9.24032e-02,-2.36754e-01,-1.78117e-01,7.93124e-02,2.79545e-01,2.13474e-01,1.30276e-01,3.67490e-02,1.82434e-01,-9.83676e-02,-2.48834e-01,4.92128e-02,-1.67158e-01,-2.01148e-01,2.76959e-02,1.79880e-01,-4.80891e-02,1.03117e-01,-9.62506e-02,-2.25388e-01,-2.03232e-01,1.36007e-01,2.15244e-01,2.88180e-01,-2.97576e-02,-1.46830e-01,1.13159e-01,2.25793e-01,6.60974e-03,-1.26519e-01,7.90761e-02,2.01145e-01,
1.44224e-01,-5.12204e-02,2.10233e-01,1.70751e-01,1.03106e-01,-3.36830e-01,-1.26509e-01,-2.15875e-01,-2.38425e-01,1.45714e-01,2.40376e-02,1.81529e-01,1.56264e-01,8.12654e-17,1.28220e-02,-9.87047e-02,3.07061e-01,-1.14171e-01,2.59736e-01,7.39816e-03,4.34935e-02,2.53305e-01,1.16614e-02,-2.28810e-01,-2.22635e-01,3.05824e-02,2.99675e-02,1.47513e-01,-2.52972e-01,9.31062e-02,1.17344e-01,-1.22259e-01,1.18197e-01,-3.54014e-01,1.75009e-01,2.96248e-01,2.12747e-02,1.73853e-02,2.16873e-01,-1.56464e-01,7.07448e-02,1.39839e-02,-1.24431e-01,2.76633e-01,1.54922e-01,6.75400e-02,2.23563e-01,-1.18562e-01,3.55736e-01,1.50657e-02,
-1.64161e-02,
2.85639e-02,
-2.05458e-02,
7.00372e-03,
-3.79217e-03,
3.23058e-02,
-8.88329e-04,
1.33982e-03,
-8.37051e-03,
3.69800e-04,
-1.79455e-02,
7.95842e-03,
-8.57932e-03,
4.70303e-02,
-6.09057e-03,
-5.01153e-02,
-5.71099e-03,
-2.17036e-02,
3.98075e-03,
-3.98137e-03,
-2.09080e-02,
3.09066e-03,
2.75661e-02,
3.46454e-02,
2.10296e-02,
1.73104e-02,
1.77154e-02,
1.21747e-02,
6.82746e-03,
-4.99998e-04,
1.16623e-02,
2.76686e-02,
1.68779e-03,
8.80940e-03,
-9.21688e-03,
1.19333e-02,
-6.90522e-04,
2.11632e-02,
2.15985e-03,
-1.00329e-02,
-2.05615e-02,
3.46020e-02,
3.89119e-02,
-1.88059e-02,
-8.61561e-03,
-4.05226e-03,
1.10517e-03,
2.18889e-02,
1.39152e-02,
3.36049e-02,
-8.19665e-02,4.38525e-02,2.30272e-01,-2.73797e-02,2.02701e-01,4.47216e-02,-1.54119e-01,-1.69333e-01,1.47477e-01,-2.39425e-01,-1.05620e-01,-1.97692e-01,-1.90364e-14,-3.47205e-02,1.18715e-01,-7.92473e-02,1.09490e-02,2.46933e-02,-7.94285e-02,4.05379e-02,1.71683e-01,2.60509e-01,-5.91864e-02,-3.22376e-01,9.45833e-02,1.38973e-01,-4.33454e-02,7.49632e-02,8.23616e-02,2.30977e-01,3.35503e-01,-5.14688e-02,1.90474e-01,-6.78577e-02,-1.87405e-01,6.30810e-03,-9.22909e-05,-6.14484e-02,-3.39972e-02,8.49551e-02,-1.84165e-01,2.00228e-01,-1.98829e-01,1.44102e-03,1.15071e-01,7.16782e-02,-9.17433e-02,-2.14271e-01,3.30009e-01,1.88574e-01,
2.68816e-11,1.46919e-01,1.17134e-02,-2.22036e-01,-3.33077e-02,1.24704e-01,-3.48852e-01,2.82188e-02,3.37901e-02,-4.40222e-02,-1.52821e-04,1.75596e-01,-9.48875e-24,-6.17334e-02,1.17290e-01,-1.36686e-01,-1.74591e-12,2.39149e-02,-3.03821e-14,-2.46207e-01,-1.54835e-01,-2.60191e-01,3.37016e-02,3.80957e-02,1.08892e-02,7.14991e-02,-1.81675e-01,2.37436e-01,1.07348e-01,-1.91394e-01,2.22603e-01,9.43758e-02,-2.57835e-01,-1.09401e-01,-1.94317e-01,1.40270e-01,-1.82708e-22,2.41659e-03,-2.48598e-02,5.87063e-02,-6.18299e-02,-1.23372e-01,-2.55684e-01,-8.21358e-03,1.32915e-01,1.33845e-01,2.25262e-01,-2.34957e-01,-6.69881e-02,-5.33340e-03,
2.53814e-26,-1.19120e-01,-2.33611e-01,-1.28204e-01,-1.53305e-01,-1.47991e-01,6.91640e-02,8.51740e-02,-1.94041e-01,-1.24961e-01,1.01394e-22,-1.76535e-01,-2.06711e-30,-2.00918e-01,-3.78880e-02,1.78305e-01,-2.51881e-33,2.49507e-34,4.44708e-13,1.24089e-01,5.26362e-02,-1.21752e-01,-9.88920e-02,4.59210e-02,1.68184e-01,-2.33500e-20,-8.24806e-02,-5.58296e-13,-1.79372e-01,-1.19808e-01,-4.05224e-02,-2.75710e-01,-2.34083e-01,3.44774e-02,7.96474e-31,2.11209e-01,4.00553e-36,2.12947e-02,-5.89938e-37,-2.18749e-02,-1.17044e-25,-2.11392e-01,2.30374e-02,-1.67496e-02,1.66912e-01,-1.13596e-01,-3.54103e-02,-1.04372e-01,3.73334e-37,1.25542e-01,
1.92348e-11,4.60265e-02,1.82810e-01,-1.28674e-01,-7.16961e-02,-2.85029e-01,2.46375e-01,-4.57530e-02,9.51489e-02,4.47563e-02,-7.38669e-04,-8.97494e-03,1.19214e-05,-8.87630e-02,2.11021e-01,2.37096e-01,2.17344e-03,1.57407e-02,-3.15293e-21,-7.46883e-02,-2.14486e-01,-1.33197e-01,-2.12254e-01,1.47763e-01,-1.06857e-01,7.84944e-02,-4.76665e-02,6.02931e-02,-9.46342e-02,-2.54801e-02,1.72010e-01,-1.73796e-01,1.56714e-01,9.82400e-02,-1.95016e-01,1.43608e-01,7.14603e-08,1.21573e-02,1.56393e-01,2.66026e-01,2.66448e-02,4.06717e-02,4.72008e-02,-4.92763e-02,-1.04971e-01,-8.12684e-02,2.43645e-01,-1.90874e-01,2.06771e-02,-5.61171e-02,
2.05692e-04,-1.68163e-01,-6.98091e-02,2.34543e-02,2.65253e-01,-2.76405e-01,-2.58900e-01,8.96118e-02,-2.29298e-01,-2.14213e-01,6.80302e-02,-1.73075e-01,-6.86876e-32,1.38941e-01,1.93566e-01,-2.28727e-01,-1.25494e-07,1.79194e-02,3.16168e-03,5.12275e-02,-1.45083e-01,-1.31718e-01,3.23898e-02,9.06514e-03,1.85295e-01,3.26231e-01,-2.73369e-01,1.96290e-01,5.90802e-02,2.15435e-01,2.05310e-02,-3.68471e-02,-3.78534e-02,2.94968e-02,1.24491e-01,1.17244e-01,-1.60497e-36,-1.81386e-01,-6.98173e-02,-2.10831e-01,9.58413e-02,5.78307e-02,2.03457e-01,2.30604e-02,2.68133e-02,1.47735e-01,5.00145e-02,-9.06188e-02,3.54782e-02,1.10043e-01,
-5.01241e-03,-1.73421e-01,7.32460e-02,-2.12416e-01,-9.17735e-02,-9.81890e-02,2.57788e-01,2.19692e-01,1.70434e-02,-1.39850e-01,-7.18864e-02,-1.12474e-02,2.42296e-09,2.53784e-01,1.67961e-01,3.27294e-02,-8.58656e-04,1.71714e-02,1.38076e-02,1.57697e-01,-3.06186e-02,2.30685e-01,-3.31720e-02,-1.40972e-01,9.19718e-02,6.48819e-02,2.12468e-01,-3.37129e-01,2.78088e-01,5.69546e-02,-5.49033e-03,1.87119e-01,-7.34535e-02,-1.48230e-01,-2.30424e-01,1.93236e-01,-7.48899e-09,2.55043e-02,3.02749e-02,2.64955e-01,-1.70856e-02,-1.24994e-01,-1.31963e-01,-3.19134e-03,3.12545e-02,2.36735e-01,1.52661e-01,2.52537e-01,-2.71551e-01,-1.83911e-01,
1.68944e-09,1.87551e-01,1.74478e-01,-7.88888e-02,-3.38729e-02,-2.71567e-01,-6.95738e-02,-1.68864e-01,-2.36541e-01,-1.43005e-02,3.72805e-02,1.27111e-01,3.09264e-13,6.41740e-02,2.78492e-01,-2.44603e-01,-1.28215e-03,1.41517e-02,1.93746e-02,-8.05164e-02,2.07652e-01,-2.86208e-01,2.85316e-02,-5.52699e-02,1.14960e-01,2.46908e-01,5.20622e-02,1.36681e-01,-2.76148e-01,-9.32946e-02,3.58162e-01,4.03023e-04,-1.89294e-01,3.36911e-01,1.59171e-01,7.56548e-02,-1.91761e-08,-1.70112e-01,-1.06548e-01,1.97016e-02,-1.21594e-01,2.42002e-01,9.91150e-02,-7.02931e-02,-1.34007e-01,1.40742e-02,3.63022e-04,-1.07183e-01,2.48423e-01,2.48744e-01,
7.85347e-05,8.45056e-02,-2.74619e-01,-3.08410e-01,4.61661e-02,-7.67971e-02,-2.19283e-01,-1.58274e-01,-2.13771e-01,-5.05177e-02,7.91545e-02,-3.29836e-02,7.31864e-30,1.19396e-01,-2.09638e-02,-1.89204e-01,9.40193e-05,1.23152e-02,-3.58561e-11,-1.65775e-01,1.69591e-01,1.99892e-01,1.31758e-01,7.99840e-02,-2.09346e-01,-4.54675e-02,-2.44693e-01,6.58109e-02,5.09693e-02,-2.51920e-01,-5.91185e-02,-9.84372e-02,2.09798e-01,-7.44728e-02,-8.18627e-02,-4.82115e-02,-3.63891e-24,-1.50951e-01,1.20249e-01,-2.58735e-01,4.76368e-02,1.01620e-01,4.53728e-02,-1.98054e-02,-1.22280e-01,1.97534e-01,2.74662e-01,-8.10498e-02,1.15986e-01,-2.18592e-01,
1.23295e-11,-4.25290e-02,-2.28980e-02,-3.92888e-02,-4.04368e-02,3.96080e-04,1.20327e-02,-4.82687e-02,-4.99390e-02,-3.79168e-02,1.44854e-14,-2.83654e-02,-7.28774e-30,-4.98416e-02,-3.60836e-02,-5.11328e-02,1.88635e-22,-3.08616e-15,9.07130e-37,4.45653e-03,-3.56802e-02,5.24174e-04,-1.46770e-02,-4.00748e-02,1.92530e-03,-1.88806e-02,2.57008e-02,-5.03033e-02,-1.74675e-02,-7.33972e-03,-4.14527e-02,-3.20298e-02,-4.19660e-02,6.55504e-03,-2.14708e-02,-3.68437e-03,-3.31061e-24,-1.94038e-02,-3.02418e-02,-6.93595e-03,9.94333e-28,-4.17606e-02,-3.78340e-02,-1.61045e-02,4.21665e-02,-3.53385e-02,-3.30254e-02,2.52908e-02,-5.09618e-02,-1.27777e-02,
-2.55463e-34,9.49089e-02,9.91808e-03,7.49185e-02,-2.10134e-01,-2.54087e-01,1.40081e-01,1.24199e-01,2.39386e-01,-2.17617e-02,-3.10997e-02,-3.66211e-02,1.55562e-14,1.66548e-01,2.30472e-01,-2.81369e-02,3.83987e-03,2.17227e-02,7.32170e-37,-2.95920e-02,-1.45125e-01,3.89365e-02,-2.84603e-01,1.69706e-01,4.72447e-02,6.78411e-03,-1.43667e-01,-6.30755e-03,-4.68299e-02,-1.10422e-01,7.74615e-02,1.67558e-02,-9.01538e-02,-1.27161e-01,-9.50647e-03,4.50422e-02,1.11177e-07,6.51173e-02,7.69811e-02,2.62729e-01,5.69362e-02,1.42342e-02,8.77308e-02,-1.05679e-01,1.72850e-01,-4.72565e-02,-6.22405e-02,-8.10961e-02,1.36135e-01,2.04490e-01,
2.55601e-02,-2.51038e-01,-6.04840e-02,-9.65654e-02,-3.03063e-02,-2.59663e-01,-1.70224e-01,-1.97770e-01,-2.40624e-01,1.47212e-01,-2.46142e-03,-9.89981e-04,2.04242e-11,-2.42105e-01,9.30392e-02,-7.15308e-02,1.25333e-02,6.98557e-03,-5.84206e-02,1.95871e-01,2.35064e-01,-4.40601e-02,-1.07326e-01,9.66987e-02,1.43999e-01,1.20694e-01,-8.83671e-02,-5.40654e-02,2.30085e-01,-1.99541e-01,2.34599e-01,1.27648e-01,2.83507e-01,-1.58166e-02,-1.58851e-01,7.52205e-02,-6.95210e-02,-2.32018e-01,-1.94595e-01,-3.42638e-01,2.10979e-03,1.03041e-01,1.59454e-01,2.75220e-02,-1.33745e-01,2.47623e-01,-1.16354e-01,6.51699e-02,5.91709e-02,8.58111e-03,
1.16537e-11,1.41387e-01,1.85737e-01,1.26922e-01,1.17103e-01,-7.49952e-03,-2.71730e-01,1.46391e-01,-1.07087e-01,-1.13429e-02,-8.85635e-02,7.80349e-03,4.36136e-23,1.25386e-01,1.56353e-01,1.35980e-01,-3.18230e-03,-2.36926e-07,-2.16397e-24,-1.91045e-01,-1.34002e-01,-2.95922e-01,-2.39091e-01,1.71798e-01,2.33319e-01,-1.41034e-01,-4.26999e-02,-1.17228e-02,-1.59983e-01,2.15251e-01,1.62714e-02,6.62579e-02,1.62143e-01,-6.96946e-02,-6.70375e-02,-1.90334e-01,4.14604e-29,-2.92345e-01,9.53636e-02,-1.08581e-01,-3.01249e-02,-1.27094e-01,1.51167e-01,-2.43784e-01,-2.02620e-01,-2.26786e-01,5.86484e-02,-2.50759e-01,1.27008e-01,-1.12812e-01,
-4.67909e-03,-4.95070e-02,-1.72587e-01,3.82371e-02,2.52996e-01,-1.39614e-01,1.92801e-03,1.62182e-01,9.02705e-02,1.54632e-01,-1.99837e-02,-1.30555e-01,4.12300e-05,-1.87693e-03,-5.68157e-03,4.08552e-02,3.54810e-03,2.81854e-02,-3.81051e-02,-3.86378e-02,-2.39894e-01,2.04336e-01,1.49060e-01,1.06894e-01,2.07246e-01,-1.32113e-01,-6.90407e-02,-3.18284e-01,1.76321e-01,-1.30699e-02,8.41931e-02,-1.13296e-01,-1.85480e-01,1.73683e-01,1.66684e-01,-6.51313e-03,2.12696e-08,-1.06625e-01,1.57390e-01,6.59074e-02,-2.86996e-02,6.13668e-02,-1.34482e-01,-1.60630e-02,2.87486e-02,-1.30477e-02,9.17094e-02,1.30762e-01,-5.31251e-02,-1.68817e-01,
3.66280e-02,8.21991e-02,2.66439e-01,-2.42411e-01,1.36789e-01,7.28647e-02,7.49661e-02,1.11714e-01,2.05217e-01,1.52807e-02,-2.58866e-02,6.18847e-02,2.29281e-05,9.03968e-02,1.68037e-01,6.09153e-02,1.86006e-02,2.82045e-02,-5.76707e-02,-2.16712e-01,-1.50211e-01,2.48923e-01,-1.49467e-02,1.00620e-01,2.14941e-01,1.29346e-01,-1.60115e-01,-3.92069e-01,4.02055e-02,-1.78616e-01,-2.46368e-01,-1.81560e-01,-6.44241e-02,1.28666e-01,-2.50393e-01,-1.86749e-01,2.42647e-03,-9.33009e-03,2.86889e-01,-1.64018e-01,6.02389e-02,5.41764e-02,2.83554e-02,-3.51384e-02,2.11570e-02,1.96661e-02,2.14600e-01,1.30951e-01,-4.63082e-02,-1.27169e-01,
3.06025e-04,7.59277e-03,2.11957e-01,2.57847e-01,5.22290e-03,2.40030e-01,-1.57069e-01,2.36352e-01,1.50497e-01,-1.71743e-01,3.65342e-02,2.26037e-02,5.05838e-37,-1.96172e-01,2.16570e-01,6.03402e-02,-3.44065e-04,2.55443e-02,-1.74836e-02,8.33796e-02,-2.73223e-01,2.07631e-01,-2.08611e-01,2.38979e-01,5.75708e-02,-3.11269e-02,1.41062e-02,1.33930e-01,-1.10415e-01,1.42934e-01,-3.96420e-02,-2.16536e-01,2.44435e-01,-1.73267e-01,-2.09826e-01,-2.24203e-01,-3.76253e-03,-1.72692e-01,5.65134e-02,2.29307e-01,1.08714e-01,1.57234e-01,-2.00737e-01,-1.02986e-01,2.67342e-01,-6.32925e-02,-1.83200e-01,1.65911e-01,1.17642e-01,2.37688e-01,
-3.74987e-33,-3.03573e-01,5.24444e-02,1.43387e-02,-2.43735e-03,-1.63257e-01,2.31499e-02,-2.12733e-02,1.75313e-01,-7.88368e-02,3.91135e-02,-1.13624e-01,1.63454e-10,2.36755e-01,-4.88498e-02,-3.94760e-03,5.57472e-10,2.59642e-02,-5.00536e-03,-1.98148e-02,-1.93790e-01,1.24075e-02,2.50455e-01,-1.91753e-01,7.41293e-02,-1.01380e-01,6.63699e-03,4.79730e-02,-2.20645e-01,-2.28060e-01,2.29827e-01,7.47230e-02,-1.67022e-01,-2.12048e-01,-6.80985e-02,2.01366e-01,1.21462e-09,1.56596e-01,4.24274e-02,-2.09587e-01,-9.65825e-02,-6.84374e-02,2.28034e-03,3.72695e-02,-1.78197e-01,-2.44356e-02,1.24866e-01,-8.42788e-02,9.28373e-02,1.46236e-01,
-1.03490e-01,-5.40707e-02,1.57962e-01,1.43825e-02,-2.63709e-01,-1.11746e-01,1.37526e-01,-2.19964e-02,-6.42248e-02,-1.15982e-01,7.10436e-02,-2.51003e-01,1.12591e-24,-1.24779e-01,-5.54118e-02,-1.76939e-01,-2.55179e-06,2.66423e-02,1.21563e-02,3.18001e-01,2.91723e-02,-5.42357e-02,1.59581e-01,-1.79024e-01,3.04542e-02,1.36475e-01,-2.40761e-01,-1.62850e-01,-2.24648e-01,-1.60086e-01,-3.13130e-02,9.42690e-02,-2.93650e-03,-1.36776e-01,-2.02672e-01,-3.09433e-01,8.47536e-03,2.19127e-01,-1.59958e-01,-1.32041e-01,1.61894e-01,2.16368e-01,1.93954e-01,1.46788e-01,-1.47752e-01,-1.28271e-01,1.75024e-01,-2.77585e-02,1.04881e-01,-8.65444e-02,
-1.24526e-03,1.25994e-01,7.94069e-02,4.58240e-02,-1.40171e-01,1.05147e-01,-1.09504e-02,1.96658e-01,1.03675e-01,-9.61601e-02,-1.22973e-01,2.37160e-01,5.61800e-11,4.15670e-02,-6.15632e-02,1.59188e-01,8.19635e-04,-1.02918e-02,-4.45103e-03,-5.34499e-02,2.16865e-01,-2.29168e-02,-2.43663e-01,2.22538e-01,2.48220e-01,-6.86882e-02,-2.31163e-01,-2.16506e-01,-2.79235e-02,2.58608e-02,1.27498e-01,1.16951e-01,-2.38038e-01,2.35863e-01,-1.15611e-01,1.18752e-01,4.17934e-09,1.77498e-01,3.42498e-01,-1.11388e-01,-1.35850e-01,-1.49721e-01,-2.41762e-01,-1.19729e-01,1.52667e-01,6.25995e-02,2.48410e-01,2.32326e-01,3.43369e-02,-5.93550e-03,
-6.47422e-37,4.90949e-02,1.03946e-01,-5.68817e-02,-1.80879e-01,-4.63062e-02,3.99446e-02,-9.99413e-02,1.81348e-01,-2.88933e-01,-1.97843e-02,-1.81967e-01,2.08299e-37,-1.09902e-01,-1.81868e-01,-1.76526e-01,4.70199e-21,-1.34637e-18,-2.48592e-02,-7.11184e-02,-3.20393e-01,-1.22082e-01,9.73329e-02,4.85900e-04,3.28105e-03,1.67285e-02,1.13229e-01,-1.53599e-01,-1.02505e-01,-1.47713e-02,1.15745e-01,-2.64151e-02,1.43126e-01,5.32888e-02,8.69014e-02,1.10749e-01,2.14006e-17,2.92891e-02,4.67143e-02,2.08608e-01,-3.34320e-03,1.63337e-01,-8.64565e-02,-1.55707e-02,7.16546e-02,1.88922e-01,-2.46744e-01,4.72591e-02,2.02315e-01,-2.24275e-01,
-7.40942e-12,-1.38605e-01,-1.58428e-01,-2.01226e-01,-1.16813e-01,1.96709e-01,-1.11663e-01,2.87573e-01,3.51904e-01,-2.06597e-01,-1.31269e-01,-1.29201e-01,-2.63106e-37,-7.26175e-02,1.43842e-01,3.05751e-01,-1.13099e-02,3.30340e-02,-6.45447e-02,1.87555e-01,7.59535e-02,1.65400e-01,2.05323e-01,1.27157e-01,2.03623e-01,2.64729e-02,1.53745e-03,-1.59998e-01,-1.57909e-01,-2.29226e-02,3.22085e-02,-2.22173e-01,-2.85878e-01,1.69585e-02,-4.10118e-02,-1.35417e-01,-1.21999e-08,2.45975e-01,3.55037e-01,-1.56629e-01,2.30805e-02,-9.73186e-02,-2.66818e-01,3.18032e-02,1.77189e-01,-1.24084e-01,1.33522e-01,-7.14496e-03,5.70163e-02,1.07369e-01,
-2.43672e-20,1.64561e-01,4.33225e-02,3.21424e-03,-1.09436e-01,-3.79104e-02,-7.03162e-02,2.00766e-01,1.95845e-01,2.17367e-01,1.23449e-03,6.56840e-02,-4.39587e-04,9.94156e-02,-9.06342e-02,1.45163e-01,2.16592e-02,1.56990e-02,3.83017e-03,-2.16370e-01,-1.37614e-01,2.54278e-01,-1.10938e-01,-4.76876e-02,9.16798e-02,-2.15228e-01,-1.76090e-01,-2.22429e-01,-2.12105e-02,-3.66244e-02,-2.56272e-01,2.45744e-01,-2.15807e-01,1.70436e-02,-6.63041e-02,2.45125e-01,2.47541e-07,3.61410e-02,1.44105e-01,-3.76320e-02,-1.26623e-01,-6.48626e-04,-1.36746e-01,-1.84636e-02,-1.33238e-02,-7.45560e-02,1.24913e-01,2.66022e-01,-2.02432e-01,-2.73396e-01,
3.62388e-02,-1.07286e-01,-2.44411e-01,1.93854e-01,9.19915e-02,-9.16389e-02,5.95698e-02,-1.49548e-01,-2.20112e-01,-6.52164e-02,1.77773e-02,-9.25535e-02,1.72245e-37,-1.88913e-01,6.98904e-02,6.02818e-02,-1.28284e-37,5.15419e-04,4.08417e-06,1.11651e-01,2.55772e-02,-1.69937e-01,1.05753e-01,1.33449e-37,1.71795e-01,5.34778e-02,-2.27887e-01,1.61215e-01,-1.82806e-01,-4.01545e-02,3.55003e-02,-5.78794e-02,1.79806e-01,-2.86784e-02,2.50710e-03,-2.05820e-01,-6.51367e-35,-1.58794e-01,2.88839e-11,1.60758e-03,3.32790e-37,1.36491e-01,3.00054e-02,6.12592e-02,-1.48276e-01,-1.32195e-01,1.73029e-02,7.61504e-02,-9.57508e-03,1.05176e-01,
1.31053e-12,2.05165e-01,1.66821e-01,-1.91358e-02,-1.97013e-01,7.83600e-02,-6.25852e-02,8.72519e-02,3.71919e-01,-1.10411e-01,4.38886e-02,-2.37942e-01,6.58337e-37,2.54366e-01,1.89362e-01,9.85553e-02,4.09275e-03,1.19764e-02,2.55297e-34,3.36447e-02,-1.51710e-01,-1.05015e-01,-2.36999e-01,2.41175e-01,4.93133e-02,-7.81261e-02,2.37255e-02,1.36981e-01,2.81719e-02,-1.04220e-01,3.00817e-02,-1.78067e-01,4.89513e-02,2.09187e-02,-1.66516e-02,-1.33478e-01,5.30767e-08,-1.50431e-01,3.13886e-02,2.79946e-01,-3.64168e-02,1.64636e-01,4.08307e-02,-8.37869e-02,-1.58620e-01,-6.73489e-03,1.75675e-01,1.22180e-02,1.69247e-01,-1.06647e-02,
1.70419e-20,6.76200e-02,-3.27614e-02,8.83534e-02,-9.47121e-02,-3.09345e-02,-1.07104e-01,-7.11946e-39,-1.09291e-01,-1.69324e-02,6.58966e-26,-1.41357e-01,1.26641e-37,-2.89622e-02,-1.06658e-01,-3.80519e-02,-1.99786e-11,-1.12763e-13,6.94495e-34,-4.04337e-02,-7.30637e-03,-8.42487e-02,-2.39775e-02,-9.36978e-13,-1.53468e-02,-1.14829e-01,-2.60072e-02,-4.59980e-02,7.89354e-02,-1.64365e-02,2.67021e-37,1.16911e-01,-7.92345e-02,-2.44163e-02,-7.00779e-03,-3.80505e-02,1.39169e-12,-9.02203e-03,-9.29771e-03,-3.73714e-22,3.32768e-20,-9.88872e-02,-1.52430e-02,2.58042e-12,-4.44927e-02,-1.44665e-02,-1.54457e-02,-1.59962e-02,1.10053e-13,3.77389e-02,
-2.22988e-05,2.07638e-01,1.77150e-01,-2.76626e-01,1.98346e-01,-4.67608e-02,1.40378e-01,1.50574e-02,1.50895e-01,-1.65050e-01,-1.64495e-02,-7.45303e-02,2.23916e-24,1.44058e-01,1.75385e-01,-2.83542e-02,-9.18595e-06,7.33446e-03,-1.21040e-01,2.43827e-01,-2.05813e-01,1.99376e-01,-1.43569e-01,2.45421e-01,3.45583e-02,1.19041e-01,1.93754e-02,1.29421e-01,-6.91256e-02,2.26976e-01,5.62815e-02,1.61321e-01,-3.23638e-02,-1.06470e-02,2.50973e-01,-2.75205e-01,1.14972e-02,-1.57447e-01,6.01341e-03,2.75882e-01,-2.68442e-03,-1.31919e-01,1.03478e-01,2.24942e-02,-1.89668e-01,4.57960e-02,-2.01001e-01,-2.14218e-01,1.31594e-01,-7.29152e-02,
-2.15955e-02,-3.28665e-02,-1.22492e-01,2.14163e-01,2.52571e-01,9.22362e-02,-1.10892e-01,-3.29729e-02,-5.17131e-02,2.27747e-01,2.40653e-02,-1.67803e-01,2.23760e-06,-8.23142e-02,-5.31219e-02,-2.42407e-01,-1.60249e-04,-1.83103e-02,2.85999e-02,-1.13880e-01,5.55777e-02,1.16363e-01,1.12776e-01,-3.56099e-01,1.09077e-01,3.01674e-01,2.07145e-01,2.00975e-01,1.92638e-01,2.51217e-01,1.74843e-01,1.85080e-01,1.55584e-01,-3.96475e-02,7.07715e-02,1.79050e-01,2.83541e-02,1.76179e-01,-8.69253e-02,-2.04014e-02,-1.33046e-01,-8.73460e-02,-1.38556e-01,1.54390e-01,-2.64043e-01,-2.39214e-01,6.65485e-02,-4.15740e-02,2.03049e-01,4.23431e-02,
-1.33433e-11,-4.58491e-02,1.27301e-01,-9.91093e-03,-1.42398e-02,1.93301e-02,4.42730e-02,8.97258e-02,-5.16987e-02,-2.47993e-02,1.63090e-01,-2.52065e-02,-1.87288e-34,1.43859e-01,-7.61448e-03,7.53304e-02,-3.64446e-11,-6.90112e-31,-7.24983e-33,1.88502e-01,1.24821e-02,1.46649e-02,4.90594e-02,9.22658e-02,-2.89066e-02,3.25375e-01,-4.52837e-03,1.41044e-01,5.91410e-02,-2.77068e-02,1.26535e-01,4.85733e-03,-2.02163e-02,-3.10425e-02,1.00957e-01,-5.99572e-02,4.54243e-09,-7.53855e-03,5.72671e-02,1.60078e-01,1.04250e-37,9.25099e-03,2.99061e-02,1.10310e-01,9.04292e-03,-2.81893e-02,-3.71982e-02,-2.64556e-02,6.50919e-02,-5.56246e-03,
1.91345e-03,-2.50818e-01,-5.37760e-02,-2.08130e-01,2.09401e-01,2.36349e-01,-6.32264e-02,1.58222e-01,1.14728e-01,4.59394e-02,9.51437e-02,2.17666e-01,-4.65485e-24,1.38782e-01,-2.26097e-01,-7.85065e-02,6.26949e-03,2.16141e-02,7.62806e-02,-5.88714e-02,-2.06219e-01,7.27228e-02,-1.61545e-01,-1.52798e-01,2.45634e-01,6.24406e-02,-3.75843e-02,3.49023e-01,-5.76985e-02,-1.35291e-01,-1.17679e-01,2.49224e-01,7.73201e-02,-1.76333e-01,2.31117e-01,-2.40833e-02,-6.31458e-05,-1.90618e-01,-3.51704e-01,-2.80407e-02,2.18438e-01,-1.00500e-03,-1.62781e-01,-6.18337e-02,-1.32170e-01,8.36387e-02,-2.42641e-01,6.05389e-02,1.52636e-01,2.31234e-01,
4.32627e-21,-6.45385e-02,-1.16209e-01,1.80830e-01,4.36972e-02,2.49982e-01,-5.47460e-02,1.30144e-01,2.15759e-01,-2.25649e-02,1.87430e-01,2.30942e-01,-2.84981e-05,1.94367e-01,-1.71365e-01,-1.06900e-01,8.25968e-04,1.52436e-02,1.57421e-05,1.85531e-01,-2.36596e-01,-2.09507e-01,2.55126e-01,-6.53925e-02,-5.68686e-03,2.21086e-01,1.00810e-01,4.99505e-01,4.21429e-02,-9.37875e-02,9.03228e-02,-1.28803e-01,-1.37854e-01,-2.74948e-01,7.95214e-02,2.04741e-01,1.01326e-11,5.14710e-02,-1.15116e-01,2.82593e-01,9.80463e-02,-3.08411e-01,1.38274e-01,1.12945e-01,-2.50189e-01,1.98349e-01,8.96274e-02,-2.30835e-01,1.41840e-01,-5.42958e-02,
2.87530e-02,-2.91626e-01,1.29770e-01,-1.88785e-01,2.50427e-02,2.12380e-01,-1.90541e-01,1.88633e-01,1.10612e-01,-5.61623e-02,-9.57536e-02,-1.43883e-01,2.30448e-27,-2.20785e-02,7.98470e-02,1.21474e-01,-2.07804e-04,1.29687e-02,-5.94300e-02,-1.43928e-01,2.91354e-01,1.84459e-01,-7.42820e-02,4.91216e-02,-1.81698e-01,3.96159e-03,-5.65084e-02,9.83388e-04,-1.27579e-01,1.69608e-01,2.68932e-01,2.31518e-01,-2.54772e-02,-2.22891e-02,7.57288e-02,-2.93204e-01,6.67353e-03,-3.57036e-02,-3.28915e-01,2.02409e-02,1.63542e-01,-2.56424e-02,1.77039e-01,1.91391e-02,-8.90831e-02,3.53699e-02,1.06787e-02,-4.94261e-02,1.35238e-01,1.88882e-01,
1.30196e-11,-1.42777e-01,-1.49972e-01,-1.33710e-01,3.92360e-02,-3.01296e-01,2.22852e-01,1.36610e-01,1.83175e-01,-1.32278e-01,5.53842e-02,-1.73826e-01,2.41127e-14,1.57371e-01,-2.17131e-01,1.36134e-01,-1.37460e-07,1.91370e-02,4.90489e-03,1.07362e-01,-2.24452e-01,2.46456e-01,-5.62108e-02,1.90319e-01,-1.33683e-01,1.19868e-01,4.79576e-02,4.22028e-02,-1.08906e-01,5.51574e-02,1.02852e-01,-2.79966e-01,1.80411e-02,9.43843e-02,-1.57841e-01,1.43519e-01,3.28342e-06,-2.49439e-01,-2.32684e-01,2.67936e-01,4.63610e-02,2.46277e-01,2.25705e-01,-4.91148e-02,4.82418e-02,1.02499e-01,1.22586e-01,-2.46894e-03,-2.42697e-01,2.62864e-01,
-2.42987e-16,1.04607e-01,-2.85545e-01,6.77377e-02,1.64198e-01,9.48791e-02,-1.01979e-01,-9.26476e-02,1.47907e-01,-2.66401e-01,4.26844e-02,-1.10220e-01,-5.49328e-37,1.80216e-02,1.35246e-01,-1.76670e-01,-9.78015e-17,1.95058e-20,-1.23390e-13,-2.36458e-01,-1.20603e-01,-9.20325e-02,-8.24287e-02,3.22893e-02,2.00012e-02,-1.41024e-01,8.67730e-03,-3.47081e-02,2.06413e-02,-2.82113e-02,9.25823e-02,1.72472e-01,-7.29309e-02,-1.41732e-01,1.69630e-01,-6.01806e-03,7.33110e-27,-2.11257e-01,-1.55799e-01,1.56965e-02,-2.22790e-03,8.40487e-02,-9.60401e-02,-1.42082e-02,-1.14717e-01,-7.80146e-02,2.09868e-01,-1.18785e-01,-1.01529e-02,1.66740e-01,
1.27157e-04,8.86290e-02,2.07079e-01,-2.04768e-01,2.63654e-01,-1.02669e-01,-2.58720e-01,3.81764e-02,-1.98370e-01,-1.26720e-01,7.01285e-02,1.60475e-01,-2.97390e-27,4.10775e-03,8.42903e-02,-2.50171e-01,-3.24323e-03,-1.63051e-02,-1.15482e-01,1.45880e-02,3.39996e-01,2.14892e-01,1.47831e-01,-3.17828e-01,-4.09593e-02,2.88519e-01,2.66720e-01,-2.29735e-01,-1.40906e-02,2.31098e-01,-1.88090e-01,5.31598e-02,2.73644e-01,1.31770e-01,-1.69945e-01,-2.18001e-01,-3.92353e-03,-1.72554e-01,-5.40293e-02,-1.42638e-01,-4.41750e-02,9.65116e-02,3.14237e-02,-9.34138e-03,6.22819e-02,-1.28259e-01,-2.15947e-01,1.06977e-01,1.40468e-02,2.24042e-01,
-5.90619e-03,-3.98587e-01,2.80773e-01,1.91690e-01,1.53011e-01,2.46779e-01,2.08176e-01,-2.17230e-01,8.53065e-02,-3.50709e-02,3.22519e-02,-2.45263e-01,1.27698e-20,1.61076e-01,-1.26918e-01,7.29735e-02,7.60879e-04,2.39484e-02,-3.16811e-02,1.44936e-01,1.62350e-01,2.59569e-01,-1.44254e-01,-2.74514e-01,-1.89753e-01,1.95980e-01,2.34047e-01,2.89867e-01,1.69796e-01,1.81862e-01,-2.54156e-02,1.36282e-01,2.04495e-01,-6.78325e-02,-1.48832e-01,-3.00089e-01,-1.68258e-02,-1.72602e-01,-1.84929e-01,1.72748e-01,7.90379e-03,2.65926e-01,-1.85023e-01,2.27693e-01,2.54453e-02,-1.79296e-01,2.12027e-02,-4.00878e-02,1.00167e-01,-1.60421e-01,
-4.87235e-37,9.84698e-02,-3.30612e-02,1.14833e-01,-4.03183e-02,-1.25503e-02,-1.66938e-02,4.82739e-02,1.24252e-01,-8.07104e-03,6.37544e-03,-1.03448e-02,2.23281e-37,-1.79117e-03,-1.59106e-02,3.58545e-02,9.31182e-12,-5.14262e-37,1.62551e-34,4.33980e-02,-3.99204e-02,-3.73512e-02,-2.96236e-02,2.24954e-02,-1.74597e-02,-1.57130e-02,-8.15184e-03,1.48378e-01,-1.47109e-02,-2.70916e-02,7.46536e-02,-2.33958e-02,1.51408e-02,-8.88433e-03,-1.23819e-02,-2.89757e-03,1.11159e-08,-1.55728e-02,-1.52339e-02,-1.02038e-02,-2.17439e-13,-3.01540e-02,7.66834e-02,7.52707e-02,-5.66334e-03,-2.59213e-02,-9.69446e-03,-8.70080e-03,4.72431e-02,-2.46012e-02,
1.24347e-03,-8.36804e-02,1.08658e-01,1.30640e-01,-2.66954e-02,4.00027e-02,-4.55486e-02,2.10432e-01,1.31487e-01,1.00423e-01,-3.35119e-02,2.04853e-01,3.79057e-06,4.80887e-02,1.75224e-01,5.89752e-02,4.33097e-03,3.18568e-02,-8.84207e-03,-9.68865e-02,1.55059e-01,-1.10891e-01,1.86681e-01,-9.08945e-02,1.24560e-01,-3.11829e-01,-1.03687e-01,-3.89832e-01,1.81787e-01,1.20988e-01,-5.41676e-02,-1.49824e-01,-7.28489e-02,1.73896e-01,1.30141e-02,-2.37441e-01,-1.99769e-05,-9.28466e-02,1.96056e-01,6.81112e-02,8.96648e-02,-1.41217e-01,-5.58739e-02,-6.40513e-02,2.63066e-01,-6.94363e-02,1.37861e-01,-1.24473e-01,9.50350e-02,6.08705e-02,
-3.78012e-14,2.47438e-01,1.41639e-01,4.10809e-03,-1.56351e-02,9.40350e-02,-1.55320e-01,2.36427e-01,8.49415e-02,-9.33269e-02,1.90166e-01,-2.07465e-01,-3.72758e-37,1.68501e-02,3.04748e-02,9.33409e-02,1.28949e-03,2.34089e-02,7.88296e-28,-1.96136e-01,-1.93503e-01,-3.20200e-01,-1.82401e-01,2.00627e-01,1.09405e-01,-1.55627e-01,-1.44643e-02,-8.42318e-02,-4.03661e-03,1.58555e-01,4.32211e-02,-3.71329e-02,2.05701e-01,-1.91635e-01,2.10761e-01,5.11211e-02,8.41346e-08,-1.35499e-01,2.13982e-01,2.52874e-01,-1.20482e-02,2.46078e-01,-1.62977e-01,-3.69300e-02,2.84420e-01,-1.45489e-01,3.02826e-01,-7.46315e-02,-1.37054e-01,-9.74773e-02,
3.43247e-02,-2.53175e-02,5.04859e-02,2.48172e-01,2.22657e-01,-2.08176e-01,3.17031e-02,9.93868e-02,-1.88820e-01,-1.72486e-01,5.90889e-02,-2.82925e-02,-2.54757e-14,7.97720e-02,-1.17760e-01,7.07931e-02,-1.02894e-02,2.69355e-03,1.81805e-02,-1.56011e-01,1.79887e-01,-2.37049e-01,-2.83775e-03,-6.73203e-02,-6.66685e-02,1.02051e-01,-2.16324e-01,3.50958e-02,-1.34949e-01,-3.86428e-03,4.42611e-02,-1.05001e-01,-2.49222e-01,1.24533e-01,-4.69007e-02,1.88469e-01,2.02844e-08,1.90460e-01,1.24236e-01,1.12313e-01,4.69129e-02,1.21994e-01,7.27023e-02,-4.50416e-02,7.35135e-03,-8.65044e-02,1.19246e-02,-1.83865e-01,1.04472e-01,-1.03525e-01,
3.58862e-03,7.58276e-02,1.17246e-01,3.88765e-02,-7.98195e-02,9.82000e-03,-1.31421e-01,-1.24900e-02,2.03785e-01,2.46965e-01,1.43281e-01,1.00144e-01,-1.87444e-05,2.90094e-02,2.07831e-01,-9.54042e-02,9.26695e-06,1.21836e-02,-5.89281e-02,-1.08539e-01,-2.65073e-01,-4.46113e-02,-2.09505e-01,2.10547e-01,7.62540e-02,2.28393e-01,1.10922e-01,-9.21995e-02,-9.27517e-02,1.16648e-01,5.36514e-02,-9.77723e-02,1.64269e-01,-6.38761e-02,-1.75037e-01,-6.09425e-02,1.50443e-02,-1.97280e-02,-3.13529e-01,-3.20431e-02,2.44667e-01,9.26147e-02,1.17732e-01,8.97973e-02,3.82280e-02,1.07105e-01,1.58396e-01,7.38753e-02,-1.49084e-01,-2.09706e-01,
5.03228e-04,-5.32963e-02,6.84413e-02,1.78417e-01,1.05506e-02,9.27503e-02,-6.11364e-02,-3.73528e-02,9.43912e-02,-2.15615e-03,-7.29910e-02,1.06265e-01,-3.45575e-24,-3.12101e-02,2.52439e-02,-1.08355e-01,-8.68619e-05,-2.00486e-02,4.26124e-02,2.58483e-01,2.34097e-01,-1.86678e-01,-1.41103e-01,-1.88640e-01,5.12139e-02,-7.03638e-02,1.33104e-01,1.55571e-01,2.29112e-01,-2.24446e-02,-4.65573e-02,-1.87446e-01,1.57285e-02,-2.59459e-01,-7.83808e-02,-1.78299e-02,-2.60079e-04,-1.50085e-01,8.54603e-02,1.59622e-01,4.69289e-02,-5.08921e-02,5.05473e-02,2.37219e-01,-5.35744e-03,-1.50487e-01,-5.11002e-02,-2.56325e-01,-1.83166e-02,2.78900e-01,
1.76536e-14,-1.80085e-01,9.87281e-02,1.35998e-01,-1.39469e-01,6.29015e-02,-1.64651e-02,2.36283e-01,2.94979e-01,1.24581e-01,8.27234e-02,1.31264e-01,-1.71889e-04,9.86496e-02,2.57687e-01,1.55873e-01,-7.73574e-03,1.84480e-02,-1.01811e-01,-1.10884e-01,-2.62182e-01,-2.51427e-01,3.80257e-02,1.88587e-03,-2.25673e-01,-1.91690e-01,-2.45498e-01,1.48394e-01,8.13440e-02,1.85949e-01,1.80740e-01,-1.21276e-01,-1.82581e-02,-1.78934e-02,6.06754e-02,2.87767e-02,3.89426e-08,3.53760e-02,3.31804e-01,2.25230e-01,-1.78613e-01,2.14756e-01,1.07393e-02,-1.48242e-01,5.82285e-02,-1.75644e-01,9.17218e-02,-2.99588e-01,-8.45790e-02,7.98623e-02,
-1.98277e-02,-2.57381e-01,-2.57145e-01,-1.93829e-01,1.97755e-01,1.38904e-01,-1.39225e-01,-2.39833e-01,3.98969e-02,1.57578e-01,2.85997e-02,-1.40568e-01,3.88418e-08,2.57168e-01,-2.36703e-01,-2.03598e-01,-2.88788e-03,-2.70003e-02,-9.66711e-02,1.69338e-01,1.75586e-01,6.48264e-02,1.55756e-01,-3.37900e-01,2.10779e-01,1.03847e-01,2.43365e-01,2.12233e-01,-2.76646e-01,4.03114e-02,-7.29573e-02,4.35194e-02,9.01562e-02,-1.95018e-01,1.67443e-01,-2.27824e-01,-3.34117e-02,1.11122e-01,-3.31029e-01,4.61922e-02,-6.28246e-03,2.61101e-01,4.79913e-02,8.20935e-02,2.02359e-02,4.58994e-02,-2.10632e-01,-3.34912e-02,2.20954e-01,2.85833e-01,
-1.55848e-31,-1.86823e-01,2.67503e-01,1.49543e-01,-1.26808e-01,-1.45853e-01,-1.99505e-02,-9.01954e-03,-1.83948e-01,1.59368e-01,-8.22963e-02,1.41704e-01,-1.25610e-08,-1.72208e-02,2.02954e-01,-9.19454e-02,-3.02807e-06,2.96225e-02,-3.82157e-02,-1.25159e-01,-2.20586e-01,-7.55423e-02,1.22480e-01,-5.99679e-02,-3.52552e-02,4.09320e-02,-1.68275e-01,2.83866e-02,2.83026e-01,8.82500e-02,-1.84217e-01,1.09638e-01,-2.00645e-01,-2.32514e-01,-1.73370e-01,-6.83343e-02,2.15476e-08,4.77287e-02,-1.10496e-01,2.01434e-01,-6.92336e-02,-1.87561e-01,-1.14105e-01,7.77763e-02,6.75181e-02,1.71947e-01,-2.89638e-01,9.49143e-02,9.88135e-02,-9.86083e-02,
-9.70766e-04,-1.29264e-01,1.75004e-02,7.89946e-02,1.92478e-02,-1.47919e-01,-1.17685e-01,-1.25578e-01,-1.13272e-01,2.39109e-01,1.95783e-02,-3.29635e-02,-1.17321e-06,-1.95261e-01,-1.78729e-01,-1.76150e-01,-5.38364e-03,-2.08399e-02,-7.22307e-02,-1.91469e-01,-1.55296e-01,1.11085e-01,9.96784e-02,-1.47566e-01,-5.66356e-02,-5.72516e-02,2.38355e-01,3.83617e-01,2.00318e-01,-5.68027e-02,-1.00141e-01,1.85045e-01,2.73900e-01,-1.95743e-01,-1.10383e-01,1.20954e-01,-4.90916e-06,8.41673e-02,2.37445e-02,1.19413e-01,-1.06356e-01,-6.01555e-02,7.70000e-02,5.62035e-02,-1.26040e-01,3.51300e-02,-7.78141e-02,1.09570e-01,1.14776e-01,8.23778e-02,
1.31048e-01,-1.52584e-03,-1.51194e-01,-1.47790e-01,-6.64410e-02,1.75543e-01,-1.59841e-01,2.19324e-01,-2.75419e-01,8.62843e-02,1.56536e-01,-2.11251e-01,7.01132e-11,-2.03273e-01,3.73600e-03,-2.09666e-01,1.43774e-03,-1.16399e-02,1.65243e-01,-8.64427e-02,1.94011e-01,-8.60602e-02,2.50077e-01,3.52579e-02,7.50025e-02,1.07224e-01,1.96798e-01,2.91818e-01,1.97483e-01,1.12045e-01,6.61778e-02,1.36369e-01,2.09864e-01,3.44543e-02,2.09409e-01,9.72604e-02,4.28174e-02,-1.70227e-02,1.95463e-02,2.00267e-01,-6.80559e-03,1.97026e-01,-2.51549e-01,-1.71667e-02,-2.37159e-02,-1.39114e-01,-1.09123e-01,4.40954e-02,3.72564e-01,1.61546e-01,
1.15474e-37,1.97757e-01,-2.86848e-01,7.12373e-02,-8.54844e-02,-6.14565e-02,-2.70564e-01,-1.79178e-01,1.78835e-01,-4.25605e-02,-8.75897e-03,2.34555e-01,7.53144e-26,-1.89886e-01,-1.15752e-01,-1.72282e-01,4.76333e-37,-2.12442e-02,-6.21513e-37,-3.58664e-01,-8.47601e-02,9.66379e-03,2.00206e-01,-1.80221e-01,9.64305e-02,1.57216e-01,-5.73431e-02,3.77440e-01,-6.23230e-04,9.28917e-02,-1.01987e-01,-1.62211e-02,-1.14334e-01,-8.20757e-02,8.58735e-03,2.37405e-01,2.48998e-13,6.72661e-02,-1.45258e-01,7.36125e-02,9.76536e-02,-2.74287e-01,1.35591e-01,-1.01901e-01,-1.67433e-01,-1.67523e-01,-1.13342e-02,-4.24003e-02,1.32317e-01,-7.02748e-02,
1.88301e-37,1.05562e-01,2.49005e-01,-5.22286e-02,-1.11618e-01,-1.51657e-01,-4.94381e-02,2.46361e-01,2.42529e-01,-1.58618e-01,1.13708e-01,1.27975e-01,1.70587e-12,-5.33074e-02,-6.62555e-03,2.95170e-01,4.89706e-03,2.10268e-02,-5.20077e-12,-5.61744e-02,-1.23083e-01,1.21981e-01,-2.70707e-01,1.72576e-01,7.20139e-02,8.18976e-02,-3.98067e-03,-2.32160e-01,1.06434e-01,-1.44441e-01,1.01707e-01,-4.05865e-03,-2.69025e-02,8.26567e-02,-2.62408e-03,-4.89542e-02,1.79049e-08,-3.16357e-02,5.14732e-02,3.45846e-01,6.62348e-03,6.66373e-02,-4.10048e-02,-4.88928e-02,2.08643e-01,-1.71453e-01,1.06757e-01,1.88588e-02,-4.93761e-02,-5.94122e-02,
2.78587e-03,1.89878e-01,-1.17810e-01,1.01085e-01,-1.74519e-01,-1.28423e-01,-5.03201e-02,2.66755e-01,-3.22714e-02,-5.26995e-02,-4.92372e-02,1.17182e-01,-3.93316e-11,2.52430e-01,-1.86632e-01,-3.43114e-02,-8.45259e-04,1.57376e-02,-4.53250e-03,2.13274e-01,-2.91232e-02,-7.92477e-02,1.03256e-01,2.17312e-01,-1.32087e-02,1.64169e-01,1.87105e-01,6.57825e-02,1.43305e-02,7.24988e-02,1.67276e-01,-1.77596e-01,-1.03288e-01,1.01663e-01,1.89719e-01,1.95390e-01,5.88353e-09,-2.11641e-01,-5.63830e-02,1.03191e-01,1.53719e-01,-3.53523e-02,2.98625e-01,-1.01368e-01,6.26805e-03,1.62944e-01,1.42939e-01,-1.86897e-01,-2.75281e-01,2.16128e-01,
-9.39443e-18,2.40506e-01,1.65761e-01,2.31402e-01,-1.71651e-01,-1.54748e-01,8.45042e-02,-1.36307e-01,-1.71818e-01,-4.95781e-02,-2.56194e-02,-1.93239e-01,1.52099e-15,-1.44364e-01,-1.68401e-01,2.11756e-01,-1.13586e-03,2.06437e-02,2.08546e-02,9.23232e-04,9.85622e-02,2.43428e-01,-2.69154e-01,-1.21949e-01,1.19668e-01,-1.93882e-01,-2.31011e-01,-2.49480e-01,-1.10488e-01,-1.69441e-01,1.81531e-02,-2.04656e-01,-1.53229e-01,2.67132e-01,1.60233e-01,-8.98425e-02,1.74979e-07,-3.20255e-02,1.09885e-01,3.37383e-02,4.37469e-02,2.71789e-01,-6.56185e-02,-3.18916e-02,1.23492e-01,-5.57308e-03,-1.07046e-01,-9.44133e-02,1.90106e-02,2.12991e-01,
2.00410e-06,-2.40100e-01,7.26302e-02,-4.50273e-01,1.59192e-01,2.29395e-01,-1.09118e-01,1.40477e-01,-3.55599e-02,1.96076e-02,-1.53870e-01,4.20598e-02,4.79591e-08,2.65856e-02,1.95547e-01,-9.32183e-02,2.42608e-03,3.32934e-02,4.18746e-02,5.81432e-02,6.81671e-02,-6.30468e-02,-7.34824e-03,-5.40167e-03,2.24328e-01,-1.36504e-01,2.54555e-01,-4.55764e-01,-8.95785e-02,7.04483e-02,-5.98563e-02,-1.73620e-01,8.14887e-02,2.33313e-02,-1.30696e-02,5.85747e-02,2.29013e-36,6.04744e-02,-7.31626e-02,1.45215e-01,-6.83177e-04,-2.94066e-01,-2.63083e-01,-8.61183e-02,1.00100e-01,-2.19055e-01,2.20700e-01,-2.47238e-01,-2.30287e-01,-3.28797e-01,
1.04868e-02,
5.90715e-03,
-3.56423e-02,
3.39668e-02,
-8.51292e-04,
1.02705e-02,
1.98844e-02,
-2.91422e-02,
-3.97965e-02,
1.65212e-02,
1.99161e-02,
2.35720e-02,
1.68760e-02,
3.10981e-04,
-3.19399e-03,
1.27868e-02,
2.80738e-02,
-5.60657e-03,
-3.43241e-02,
2.03630e-02,
1.31734e-02,
-3.16323e-02,
-1.19175e-02,
-1.66570e-02,
-1.92038e-02,
9.13861e-03,
-1.21747e-02,
3.22024e-02,
5.72171e-02,
-1.48901e-02,
1.09417e-02,
-5.58849e-02,
-1.59288e-02,
1.95255e-02,
-1.89416e-02,
-2.95459e-02,
3.10851e-02,
-2.24154e-02,
1.84395e-02,
5.09225e-02,
-1.19267e-02,
2.82364e-02,
1.94102e-02,
2.20682e-02,
1.31659e-02,
-2.83525e-03,
3.63605e-02,
1.24111e-02,
2.80970e-02,
1.72093e-02,
1.01578e-01,-1.96072e-01,1.63681e-01,1.73573e-01,4.04103e-02,9.58101e-02,1.56388e-01,2.45994e-01,2.28581e-02,-6.79598e-02,-2.07125e-01,-1.17362e-01,-6.82148e-02,-3.03129e-03,1.37523e-02,-8.08065e-02,2.15082e-01,-2.28454e-01,1.67753e-02,-6.46968e-02,-1.33161e-01,-6.69315e-02,6.16639e-02,5.79633e-02,1.73881e-01,-3.37404e-03,3.73383e-02,2.13663e-01,4.58288e-02,1.20434e-01,4.75351e-02,1.93053e-01,-1.11716e-02,2.20363e-01,2.68962e-02,-8.04019e-02,1.00068e-02,-6.12336e-02,-2.69276e-02,1.70146e-01,-2.10782e-01,2.19572e-01,-4.47901e-02,1.73870e-03,5.55345e-02,1.34100e-01,-1.76600e-01,5.98810e-02,-2.45917e-01,-2.61694e-01,
1.49760e-01,-3.29107e-01,-1.34819e-01,3.97007e-03,8.14002e-02,1.32339e-01,6.97390e-02,7.38677e-02,3.49642e-02,-7.94281e-02,-1.96771e-01,-2.38535e-01,-5.08849e-02,-2.25114e-01,6.51394e-02,-5.04541e-02,2.19120e-01,-2.42339e-01,-4.43204e-02,6.35574e-02,-1.21165e-01,1.90015e-01,-3.25690e-01,5.21851e-02,1.15019e-01,2.32938e-01,-1.66956e-03,7.28638e-02,-1.68657e-02,8.19084e-02,-2.70198e-02,-9.10177e-02,-1.44703e-01,-8.17821e-02,3.32739e-02,1.66721e-01,-7.44258e-02,1.96234e-01,2.12853e-01,2.94285e-01,1.41404e-01,2.65807e-01,2.15923e-02,1.60416e-01,2.48085e-01,2.22196e-01,5.91694e-02,-3.15437e-03,-6.83453e-02,1.05032e-01,
3.66913e-02,-1.01555e-01,-9.08921e-02,-5.97970e-02,9.47633e-03,9.93991e-02,4.22637e-02,9.91209e-04,1.41495e-02,3.27599e-02,1.30648e-01,-1.89851e-01,1.86669e-01,2.14902e-01,2.52166e-01,-1.61775e-02,1.94315e-01,8.68649e-02,-1.02214e-01,1.12341e-03,-1.11071e-01,2.69602e-01,5.48212e-02,6.62963e-02,-1.51549e-01,1.02231e-01,-3.15382e-03,-3.96471e-02,7.27898e-02,3.49535e-01,-9.19063e-03,-1.35952e-01,1.74442e-01,2.89045e-01,3.63145e-04,-1.23694e-01,-2.94677e-01,1.40205e-01,-2.02821e-01,-3.00120e-03,-1.19256e-02,2.87704e-01,-2.13159e-01,-2.21349e-01,-9.89502e-02,-1.93784e-01,-3.49283e-01,-1.79787e-01,-2.50834e-01,-3.55748e-01,
-1.67058e-01,1.46732e-01,6.81373e-02,2.10994e-01,1.85892e-02,-2.88648e-01,-1.20405e-01,-1.35522e-01,-4.83558e-02,6.41529e-03,4.77607e-02,-4.68982e-02,8.19405e-02,1.00437e-03,-7.32141e-02,-1.63366e-01,-3.25644e-03,-1.93634e-01,-2.94314e-02,1.12062e-01,7.35126e-02,-7.59442e-02,-2.65073e-04,-8.23767e-38,-1.48971e-01,7.94974e-02,1.78092e-34,5.44282e-02,-1.61206e-01,7.89256e-02,-1.79436e-01,3.82683e-02,1.96765e-01,-2.35475e-01,3.40350e-24,-1.23686e-01,4.58496e-03,7.60437e-02,-9.21931e-02,-8.23164e-02,9.61333e-02,2.82264e-02,-2.32708e-01,4.55647e-02,-9.44048e-02,-1.77248e-01,2.81703e-02,-1.89279e-01,4.09892e-02,3.20784e-02,
-1.25267e-01,-4.99239e-02,1.20015e-01,1.27590e-01,-2.02436e-01,-1.82015e-01,-1.77191e-01,1.06778e-01,-3.97525e-02,6.37088e-02,1.07082e-01,1.85388e-01,-6.12003e-02,2.22308e-01,-1.04903e-01,-1.92321e-01,-3.65553e-01,1.66793e-01,-1.09573e-01,1.64965e-01,2.80032e-02,-1.04099e-01,3.65635e-01,-2.11615e-02,-4.13698e-02,2.17783e-01,-7.23462e-02,1.60238e-01,-2.62219e-01,-1.61655e-01,-4.84295e-02,1.03534e-01,4.87315e-02,-2.15339e-01,-4.46166e-02,-9.17014e-02,3.85408e-02,-6.82435e-02,2.36756e-01,-1.82203e-01,1.19368e-01,9.47689e-02,-7.59586e-02,1.81216e-02,-3.47613e-02,-8.46897e-02,2.64822e-02,2.21173e-01,1.91722e-01,-9.42767e-02,
-1.67298e-01,1.57567e-01,-1.14513e-01,1.29893e-01,1.84949e-01,2.58210e-01,-5.16615e-02,-4.95596e-02,-2.68976e-02,3.12344e-02,-1.96094e-01,-1.10236e-01,6.63090e-02,1.39254e-01,2.34528e-01,-1.92404e-01,-1.52663e-01,-1.81396e-01,-5.58854e-02,1.92372e-01,2.58776e-01,1.64340e-01,2.78585e-01,-1.32191e-02,-4.27874e-02,9.78685e-02,3.28516e-03,-1.99636e-01,1.70282e-01,-2.64575e-01,4.48085e-02,-1.63961e-01,5.82508e-02,8.51870e-02,-1.22562e-02,1.16744e-01,1.52063e-01,7.93777e-02,1.59508e-01,-2.82761e-01,2.68724e-01,-2.44331e-01,2.08734e-01,-2.80867e-02,-1.88083e-01,-1.11466e-01,2.89133e-01,6.12095e-02,3.33507e-01,2.82920e-01,
8.91359e-02,-9.24341e-03,8.11245e-02,7.29242e-02,8.46697e-02,-1.94468e-01,-1.92634e-01,3.65740e-02,7.22381e-02,-1.66915e-01,1.07286e-01,-1.12074e-01,-1.06032e-01,-1.84717e-01,-7.70339e-02,1.05773e-01,1.25755e-01,-1.36591e-01,-3.33291e-02,2.33335e-02,-2.62825e-01,1.00876e-01,-2.28093e-01,-9.39287e-02,-8.06808e-02,-1.43671e-01,1.89467e-01,1.09410e-01,1.91383e-01,-1.43175e-01,2.07036e-01,2.22023e-01,3.08974e-02,3.06104e-01,4.06999e-02,1.84972e-01,-6.03216e-02,-1.18853e-01,-1.26157e-01,9.40057e-02,-1.75130e-01,-2.35811e-02,-1.57302e-02,1.52349e-01,2.68191e-01,-1.91332e-02,-2.25378e-01,2.04449e-01,-1.91600e-02,3.02583e-02,
-5.18258e-02,-1.57998e-01,1.86051e-01,3.67223e-02,2.32541e-01,5.59444e-02,-1.20533e-01,2.70969e-01,2.69322e-02,-1.39979e-02,-1.52369e-01,-1.81512e-01,-1.79656e-01,-2.43105e-01,1.27770e-01,8.49462e-02,2.75403e-01,1.63024e-01,7.67828e-02,-1.88311e-01,-4.47790e-02,1.77844e-01,-2.47515e-01,3.17658e-02,-1.46016e-02,1.32543e-01,-3.53819e-02,9.63560e-02,-1.05116e-01,2.86490e-01,-6.88603e-02,-2.13610e-01,1.44400e-01,2.01657e-01,-1.37509e-02,2.83991e-01,-1.97544e-01,9.68251e-02,2.38536e-01,-9.63987e-02,1.73917e-01,2.09410e-02,-2.11458e-01,2.08344e-01,2.53428e-01,2.52441e-01,-2.20109e-01,-1.54729e-01,-3.62674e-01,-1.76423e-02,
7.07752e-02,-1.27611e-02,-1.39857e-02,-6.24261e-03,1.05285e-01,2.02168e-03,1.88627e-01,-1.13034e-01,1.66013e-02,5.09714e-02,-2.25099e-01,1.95106e-02,1.46992e-01,-1.97544e-01,1.46054e-01,5.59439e-02,1.22972e-03,-9.43617e-02,1.04699e-01,-2.20677e-01,-2.34141e-01,2.18248e-01,-7.21723e-02,-5.31800e-03,8.15984e-02,-4.35292e-02,1.08468e-01,8.76090e-03,1.37338e-01,-1.85529e-02,-1.10189e-01,-5.14098e-02,-1.69694e-01,-1.11506e-01,2.25645e-02,-5.45000e-02,-1.94430e-01,-2.03732e-01,5.02736e-02,-9.73576e-02,2.02895e-01,1.49019e-01,1.69194e-01,6.26498e-02,9.55133e-02,-8.64733e-02,-1.34531e-01,-1.97480e-01,-2.50153e-02,-1.72061e-01,
2.91655e-01,1.62205e-01,-1.17043e-01,-1.20859e-01,2.35312e-01,1.80493e-01,1.60481e-01,1.73764e-01,2.10177e-02,-1.03489e-01,2.13885e-01,-2.44171e-01,-2.15975e-01,7.93396e-02,2.84971e-03,2.11634e-02,2.35375e-01,-1.14276e-01,-1.36338e-01,-1.46420e-01,-1.04372e-01,2.58261e-01,-1.53975e-01,1.11734e-03,-1.16561e-01,1.85639e-01,2.38093e-02,2.25168e-01,-1.70793e-01,1.39205e-01,-1.49483e-02,2.18094e-01,1.48780e-02,2.01346e-01,1.18917e-02,2.12506e-01,-1.32606e-01,9.31428e-02,-1.05950e-01,1.13655e-01,-1.97326e-01,2.40137e-01,7.76323e-02,-1.37074e-01,8.06772e-02,-2.91548e-01,-1.53985e-01,-2.45907e-02,4.05352e-02,1.31743e-01,
9.61174e-02,-1.29029e-01,-1.12269e-01,-3.57003e-02,2.47690e-02,2.90707e-02,-9.44542e-02,-9.26044e-02,-2.16186e-02,-7.50122e-02,-4.99044e-02,2.46777e-01,-1.11661e-02,8.42464e-02,4.38910e-01,1.91558e-01,5.94977e-02,-1.47516e-01,1.11403e-01,1.32723e-01,-8.67369e-02,6.94774e-02,2.34316e-01,3.32179e-02,-1.85111e-01,1.59926e-01,6.65008e-02,-1.67714e-02,2.82615e-02,1.91591e-01,2.67693e-01,2.21349e-01,-2.54588e-01,4.32602e-02,-1.91402e-02,-1.13354e-01,2.06142e-01,6.20402e-02,8.72266e-02,-4.42121e-02,1.82991e-01,3.20640e-02,-9.77614e-02,-1.84526e-01,8.84518e-04,5.51422e-02,2.48018e-01,-1.89996e-01,-3.04360e-02,-2.00155e-01,
-1.60334e-01,3.36825e-01,-1.33486e-01,2.18021e-01,-6.97606e-02,6.80377e-02,-2.32756e-01,-9.58074e-02,-3.24873e-02,4.10943e-02,3.55213e-02,2.28754e-01,-1.65029e-01,1.52859e-01,1.74785e-01,2.64455e-02,-6.99473e-02,7.10914e-02,6.85338e-02,4.16120e-01,1.26322e-01,3.84922e-02,3.08729e-01,-3.60323e-05,2.36825e-01,-2.61301e-01,2.49451e-02,2.64092e-01,1.16962e-01,-2.78420e-01,2.34518e-01,1.42635e-02,-1.38196e-01,-2.16972e-01,4.21313e-02,1.21399e-01,3.19814e-01,1.84456e-01,3.09994e-02,-8.64428e-02,1.36805e-01,-6.39664e-02,3.23770e-01,-1.56831e-01,-3.24099e-02,1.27864e-03,6.59855e-02,-1.42701e-01,1.77988e-01,3.14851e-01,
-8.26821e-02,-2.00275e-01,1.95459e-01,-3.35222e-01,1.15319e-01,1.72269e-01,-3.56731e-01,-8.77907e-02,7.76800e-03,-1.23237e-01,-1.04577e-01,1.30510e-01,2.97043e-01,-1.04692e-01,2.63127e-01,5.47340e-02,-1.65882e-01,3.03190e-02,1.74645e-01,3.40243e-01,-6.47896e-02,1.08592e-01,1.22039e-01,-7.02665e-03,-1.11334e-01,2.84010e-01,6.58841e-03,-6.51213e-02,1.56619e-02,-1.64206e-01,5.29783e-02,-6.33221e-02,1.44391e-01,-1.78964e-01,-1.61679e-03,2.49304e-01,-1.02709e-01,-6.29082e-02,-1.90016e-01,-2.65101e-01,-2.07460e-01,-1.80252e-01,1.26754e-01,1.96450e-02,2.59665e-01,3.21878e-02,6.93513e-02,-2.55860e-01,-2.00103e-02,3.20364e-01,
2.07632e-01,-1.82478e-01,-1.52899e-01,-2.30943e-01,3.39892e-02,1.81748e-01,-6.26253e-02,9.06394e-02,-1.29295e-02,-1.42975e-01,-2.01851e-01,5.17265e-02,4.03025e-02,-1.44357e-01,2.08765e-01,-3.98817e-03,2.75389e-01,1.38184e-01,-7.36609e-02,1.08566e-02,-2.13189e-01,-1.10236e-02,-7.85459e-02,-1.31820e-03,-1.77270e-01,8.56063e-02,3.42342e-02,-1.41859e-01,3.65083e-02,-1.53382e-01,7.19895e-03,5.65410e-03,1.45139e-01,-7.19419e-02,5.33451e-02,-5.53195e-02,-1.99870e-01,1.81779e-01,1.51873e-01,1.58310e-01,-1.85023e-01,9.15452e-02,-1.93279e-01,-1.82820e-01,-6.88099e-03,-1.42377e-01,-1.11768e-01,6.07282e-02,-2.15038e-02,8.78632e-02,
-1.51136e-03,4.98181e-02,2.74039e-06,2.73323e-02,5.26192e-02,-1.77518e-02,9.18335e-03,-5.03094e-02,-8.25730e-19,-4.65402e-02,-1.18930e-02,-1.72373e-02,-2.97082e-02,-7.60658e-02,6.79512e-02,7.73121e-03,6.91933e-02,-2.00600e-02,5.49362e-02,9.56439e-03,-1.48348e-02,7.69900e-02,9.35877e-02,1.39297e-35,-9.89889e-03,-5.33541e-02,1.22881e-01,5.41237e-02,-2.45860e-02,-5.84154e-02,2.00607e-02,5.79408e-02,-2.16522e-02,1.78713e-02,1.46601e-01,-4.74887e-02,-2.58314e-02,-1.90422e-02,-3.48270e-02,1.19803e-01,-8.76261e-03,-6.28221e-03,-2.97528e-02,-2.74386e-02,-2.70612e-02,-2.07894e-03,1.04408e-02,-1.21608e-02,-1.07543e-04,-2.66192e-02,
1.20319e-01,4.35411e-01,-1.53891e-01,-1.64167e-01,3.55328e-02,-1.29620e-01,4.81351e-02,-3.33580e-01,-3.41824e-02,1.10514e-01,-1.16127e-01,1.65932e-01,6.53887e-02,-1.73179e-01,2.29840e-01,-1.63631e-01,-3.01096e-01,-1.27009e-01,1.72356e-01,2.09765e-01,4.10098e-02,-4.59744e-02,3.31398e-01,4.01662e-02,-3.34973e-02,-1.38804e-01,-2.83936e-02,8.24371e-02,1.44998e-01,1.28838e-01,7.03853e-04,2.46563e-01,-1.64052e-01,-1.76736e-01,-4.24527e-02,2.51489e-01,3.32804e-01,-1.49505e-01,2.33811e-01,-1.23771e-01,1.25722e-01,8.89969e-02,-1.01995e-01,3.65496e-02,-1.90340e-01,-2.85590e-01,2.18746e-01,6.24820e-02,1.83815e-01,3.65775e-01,
1.53511e-01,-6.57557e-02,-7.75471e-02,-1.34832e-01,-1.03897e-01,1.95616e-01,-1.46267e-01,2.26698e-01,-2.79305e-02,-2.76017e-02,2.44531e-01,-2.25092e-01,-9.20201e-02,8.36720e-02,-1.83439e-01,-1.68998e-01,-1.28515e-01,-2.02087e-01,-1.94781e-01,1.21298e-01,-1.26283e-01,-2.02116e-02,4.28250e-02,-3.29505e-03,-9.47600e-02,2.07294e-01,-8.24779e-02,1.07442e-01,-5.23875e-02,2.36786e-01,-5.63594e-03,6.51767e-02,1.94631e-01,-2.01140e-01,3.63683e-02,-1.19005e-01,8.42205e-02,-1.56791e-01,1.19396e-01,1.13484e-01,-1.02013e-01,6.91700e-02,-1.94466e-01,-2.61206e-01,-3.49935e-02,-7.96162e-02,-2.27090e-01,7.04149e-02,9.93138e-02,2.37577e-01,
-8.58331e-02,1.23589e-01,-1.57938e-01,-1.11615e-01,-1.66186e-01,-4.87411e-03,2.28581e-03,-8.50444e-02,2.03458e-02,-2.11935e-01,5.19402e-02,4.47497e-02,-9.23483e-02,-2.35538e-01,7.46552e-02,1.11232e-01,1.92987e-01,4.67943e-02,1.87866e-01,-9.45112e-02,-1.08877e-01,-1.71857e-01,-1.06262e-02,-1.06467e-01,-2.04143e-01,-3.52039e-02,1.31807e-02,2.02177e-01,2.21388e-01,1.01366e-01,1.49979e-01,-5.76491e-02,1.23470e-01,2.61188e-01,1.15256e-02,-5.14853e-03,-3.40674e-02,1.14235e-01,-1.84694e-01,2.46814e-01,1.35466e-01,1.69928e-01,9.12688e-02,1.02618e-01,4.01015e-02,2.43298e-01,6.51661e-02,1.33295e-01,-4.08512e-02,-2.44432e-01,
-1.02172e-01,1.86191e-01,4.90638e-02,2.10362e-01,1.19296e-01,-9.37362e-02,5.73139e-02,-3.43846e-02,-5.03648e-02,1.19287e-01,-4.03210e-01,3.29908e-01,-3.86375e-02,-7.88472e-02,8.30873e-02,1.63604e-02,-3.33752e-01,-7.69366e-02,2.39334e-01,-1.01483e-01,2.31086e-01,7.64572e-02,2.91729e-01,2.08406e-02,2.02777e-01,8.70022e-02,-4.97246e-02,1.01262e-01,-7.55923e-02,5.80747e-02,1.77484e-01,2.45543e-02,-1.12696e-01,-2.02603e-02,-1.51755e-03,6.70932e-02,3.54420e-01,2.10508e-01,-2.25104e-01,1.47658e-01,2.34982e-01,1.12374e-01,1.28266e-01,-2.50362e-01,-2.27897e-01,1.68840e-01,-8.79804e-02,-1.86103e-01,1.78395e-01,-5.58024e-02,
1.02798e-01,-1.21720e-01,2.86759e-02,3.11261e-02,-1.82511e-01,3.24338e-02,-7.32408e-03,-2.67485e-01,3.96475e-02,-2.91891e-02,7.79598e-02,-1.37790e-01,-1.92169e-01,2.47217e-01,-1.36250e-01,2.40132e-01,-1.56495e-01,-2.90563e-01,1.83620e-01,2.68664e-01,9.52143e-02,-2.01573e-01,1.79060e-01,1.47795e-02,-8.10517e-02,1.52539e-01,1.10970e-01,1.77632e-01,1.27839e-01,-2.10378e-02,9.42668e-02,1.23227e-01,-2.45222e-01,-1.74122e-01,-9.35064e-03,3.30230e-02,4.06036e-01,6.67040e-02,-1.32089e-02,-1.23918e-01,1.43096e-01,-2.00744e-01,1.26229e-01,3.92582e-02,2.05580e-01,-2.61877e-01,1.24903e-01,2.43880e-02,2.49988e-01,7.34324e-02,
6.79784e-02,-3.66010e-02,3.50687e-17,-3.49476e-02,8.65729e-02,-1.62251e-02,-2.29467e-02,5.08901e-02,1.88811e-04,3.00477e-02,-3.73000e-02,-1.01837e-02,-2.95962e-02,-2.97346e-02,7.63254e-02,5.36049e-03,3.07702e-02,-4.40780e-02,-7.75229e-02,1.68254e-02,-5.68502e-02,4.09201e-04,6.91651e-02,2.52368e-16,8.82350e-02,-2.70340e-02,8.33769e-02,-7.55713e-03,1.17366e-02,7.46988e-02,-1.04086e-02,-1.48522e-02,2.73756e-02,6.88576e-02,-3.68664e-02,-6.35461e-02,5.20229e-02,1.35171e-02,-4.07250e-02,3.69952e-02,2.03077e-02,-1.13226e-02,-5.13571e-03,-5.53074e-02,3.13161e-02,-4.77508e-02,-3.23833e-02,-3.86843e-02,-3.72569e-02,-5.27267e-02,
-6.13613e-02,1.97629e-01,-1.82248e-01,8.93969e-02,-1.48718e-01,1.10594e-01,-1.66761e-01,-2.47014e-01,-2.46026e-02,1.94083e-01,-1.90378e-02,5.66841e-02,-1.75347e-01,1.21356e-01,2.34190e-01,1.09180e-01,-2.11951e-01,3.70612e-02,7.09293e-02,3.13441e-01,1.54335e-02,-7.04134e-02,4.19312e-01,1.50602e-02,-6.29900e-02,-2.21230e-01,3.94681e-02,2.47690e-01,-9.98516e-03,4.04845e-02,6.39051e-02,-4.53597e-02,-3.01839e-01,9.73691e-02,7.09419e-03,5.40409e-02,3.84644e-01,1.30000e-01,1.46288e-01,5.57675e-02,-5.14813e-02,3.31296e-02,1.66168e-01,-2.22593e-01,2.01494e-02,-1.42018e-01,7.13803e-03,5.06895e-02,1.74565e-01,1.51637e-01,
-4.48450e-02,3.66461e-01,-1.27216e-01,1.34931e-01,9.17520e-02,-1.48268e-01,-5.66834e-02,-1.05411e-01,-4.51886e-02,1.72066e-01,-2.40978e-01,-5.51527e-02,2.36320e-01,3.47226e-02,1.17361e-02,1.11615e-01,-1.11922e-01,1.29082e-01,6.75080e-02,3.62330e-01,-7.93520e-02,-6.51370e-02,2.42157e-01,-3.34551e-02,2.14784e-01,-1.28271e-01,1.13629e-02,-1.51002e-01,2.00053e-02,-4.77667e-02,-6.12557e-02,1.12723e-01,-1.47518e-01,-4.35345e-03,1.58176e-02,2.80040e-01,2.73852e-01,1.20256e-01,-1.08089e-01,-2.87439e-02,2.27778e-01,-1.27830e-01,2.39676e-01,-1.29275e-01,3.84999e-02,9.49326e-02,-1.32564e-01,9.61254e-02,2.80494e-01,2.49287e-01,
2.37949e-01,5.50612e-02,-5.64864e-37,1.72996e-01,-2.29625e-02,-2.62679e-01,-4.32253e-02,4.53774e-02,-5.22953e-02,2.10647e-01,-2.28016e-01,1.66508e-01,-1.48678e-02,-2.17310e-01,2.57099e-01,-2.28113e-01,9.29342e-03,-1.26784e-01,1.51465e-01,-1.29732e-01,-5.93179e-02,-9.92062e-02,7.13803e-02,1.31757e-25,-1.36267e-01,-3.48712e-02,-8.04404e-02,1.77782e-01,-5.53901e-02,2.23306e-01,-7.86051e-02,8.20757e-02,-2.12844e-01,-8.57138e-02,7.18395e-02,1.28531e-01,1.18035e-03,3.06410e-02,-4.36928e-02,2.30432e-01,-1.36415e-01,2.34461e-02,-1.67295e-01,-2.38940e-01,-5.22856e-02,5.30980e-02,-3.25659e-02,-7.30747e-02,2.63499e-01,-8.70508e-02,
-9.67126e-03,1.60958e-01,-1.09301e-01,1.67298e-01,-5.98035e-02,-6.83700e-02,-2.97701e-01,-3.57546e-02,-1.47569e-02,1.25996e-01,7.05407e-02,-7.81515e-02,2.76974e-02,-1.78038e-01,-1.95512e-02,7.00412e-03,-4.30549e-02,-6.12795e-03,1.08206e-01,-4.60872e-02,5.44053e-03,-1.54046e-01,3.17906e-01,1.88427e-06,1.16689e-01,-1.61858e-01,4.71063e-02,3.73075e-02,7.73469e-02,-5.30818e-02,2.99029e-02,1.11162e-01,1.58801e-01,2.51672e-01,1.22427e-02,1.04671e-01,-1.28978e-01,2.38482e-01,-2.62383e-01,8.38356e-02,3.19502e-01,-1.92268e-01,2.60827e-02,-6.22887e-02,1.83860e-01,5.32349e-02,1.65823e-01,9.63461e-02,5.63460e-02,-1.27633e-01,
9.00834e-02,-5.01924e-02,-6.69312e-02,-1.11215e-01,6.48014e-02,9.47221e-02,-1.83388e-01,-2.45764e-01,-1.63687e-02,-3.95746e-02,-1.59751e-02,9.24056e-02,-6.74334e-02,-2.11201e-01,-8.78742e-02,1.04568e-01,2.17821e-01,1.76004e-01,9.51037e-02,-1.99830e-01,1.48081e-01,6.46842e-02,-7.47838e-02,-8.11071e-02,6.09585e-02,3.81851e-02,1.38669e-01,1.40765e-01,2.35536e-01,2.23185e-01,-1.36338e-01,1.11765e-01,-1.52731e-01,1.80578e-01,5.42530e-02,-1.16082e-01,-3.85489e-02,-2.57881e-02,-2.19065e-02,1.70055e-01,8.81609e-02,-1.38357e-01,7.44077e-02,-2.51467e-01,-1.17112e-01,-1.43244e-01,9.26837e-03,-9.91825e-02,2.23830e-01,-2.04056e-01,
-4.32607e-02,-1.10322e-02,-1.17996e-25,4.09388e-03,-4.78847e-02,-2.56288e-02,5.56115e-03,-2.58504e-02,7.73900e-15,-9.15849e-03,-3.14992e-02,9.07384e-03,-2.84546e-02,-2.15870e-02,2.30307e-02,-4.26677e-02,-4.43968e-02,-1.34232e-02,1.39226e-20,7.18460e-03,-4.47174e-03,-9.83564e-17,1.13781e-02,-1.31271e-25,-2.65807e-02,-1.97990e-02,-8.58931e-11,-1.03935e-02,-3.73728e-03,-2.41034e-02,1.86429e-03,-1.51680e-18,-2.20823e-02,-2.92004e-02,6.23174e-10,-2.25013e-02,3.42647e-03,-1.55479e-02,-4.84309e-03,1.35477e-02,-6.23794e-03,-1.66593e-02,-2.91220e-02,-1.25937e-02,-2.65495e-02,8.63615e-03,1.87973e-02,2.24125e-02,1.51542e-02,-7.98265e-03,
1.98136e-01,2.77128e-01,-1.69856e-01,2.57926e-01,-1.16614e-02,-1.10208e-01,1.99796e-01,-2.26873e-01,-4.06732e-02,8.70658e-02,-1.84689e-01,1.01891e-01,-7.38277e-03,-9.27625e-02,2.79091e-02,1.86723e-01,2.78239e-02,2.78170e-01,-1.92513e-01,3.15101e-01,8.31438e-02,4.93253e-02,1.83081e-01,1.61053e-02,-1.03764e-01,-2.35879e-01,-1.41668e-02,2.07341e-01,-1.44572e-01,-4.95733e-03,2.54227e-01,1.92561e-01,-2.81513e-01,5.62632e-02,-1.71504e-02,-1.20945e-01,1.11162e-01,1.47592e-01,8.13378e-02,1.50709e-01,1.76091e-01,-2.92680e-02,-1.37767e-02,8.11200e-02,-8.66731e-02,1.21788e-01,3.61074e-02,1.32828e-01,1.23518e-01,2.43491e-01,
2.12898e-01,7.56442e-02,-1.42191e-01,1.29000e-01,-9.76059e-02,-1.11401e-01,2.13725e-01,-2.76563e-03,-4.78253e-02,2.78913e-01,-2.18357e-01,3.38261e-01,-1.19980e-01,-1.48192e-01,1.36572e-03,2.01838e-01,3.01068e-02,1.29235e-01,9.60244e-02,5.03308e-02,-8.19099e-02,-3.70014e-02,2.79565e-01,-7.66007e-02,1.89161e-01,1.26884e-01,-1.39145e-02,1.10342e-01,-1.98230e-01,-1.85161e-01,-1.28415e-01,-1.76189e-02,-2.54151e-01,1.18803e-01,1.49610e-02,2.15395e-01,1.69994e-01,-1.27952e-01,1.70412e-01,9.12423e-02,-7.79585e-02,-1.75546e-01,-1.64298e-01,-2.78145e-01,-7.19720e-02,-2.89596e-03,1.42764e-01,-4.36728e-02,2.79491e-01,1.05740e-01,
1.01991e-01,2.48331e-02,-1.80634e-01,-5.27347e-02,-5.62280e-02,-2.32801e-01,1.15096e-01,2.92707e-01,1.94123e-02,-5.14790e-02,2.47736e-01,-1.66336e-01,8.61888e-02,-2.15928e-01,-1.39730e-01,9.78938e-02,4.23857e-01,5.94163e-02,8.21738e-02,1.52022e-01,-3.93257e-02,-1.19255e-01,1.82606e-01,4.58264e-02,7.74898e-03,2.34892e-01,3.52022e-02,1.95140e-01,-9.92326e-02,-2.21191e-02,3.77344e-02,7.49855e-02,-2.61523e-02,-1.38410e-01,5.20920e-03,2.19589e-01,1.95740e-01,2.58215e-02,2.56516e-01,-2.36687e-02,-5.24796e-02,2.22668e-01,-2.39322e-01,-2.37777e-01,1.21755e-01,2.20621e-01,9.14055e-02,1.85578e-01,7.69028e-02,-1.76598e-01,
-1.53051e-01,-1.87443e-01,-1.49466e-03,1.79237e-01,1.10561e-01,-1.86061e-01,-3.04872e-01,1.81338e-01,1.61902e-02,-1.76047e-01,4.40945e-02,-2.58536e-01,2.37781e-02,-1.99661e-01,9.96289e-02,2.00404e-01,-3.34068e-02,-1.30853e-01,4.25443e-02,-2.19338e-01,2.29594e-01,1.17407e-01,3.52402e-03,-2.31017e-02,7.79544e-02,-5.76232e-02,1.74425e-02,5.67102e-02,3.08588e-01,4.00856e-02,-1.69408e-01,-1.75596e-01,-2.33753e-01,1.09564e-01,1.30953e-01,-1.45970e-01,4.34438e-02,-1.94786e-01,1.91124e-01,1.43668e-01,1.83708e-01,4.48485e-02,-6.06075e-02,8.60760e-02,-3.85595e-02,9.72107e-02,-1.21549e-01,-2.04959e-01,-3.19654e-01,-2.78924e-01,
-2.82371e-01,2.41271e-20,2.29321e-01,6.49183e-03,-8.22355e-02,-1.33491e-01,1.78156e-01,5.62556e-03,4.15836e-14,-9.46765e-02,-1.56564e-01,-7.38900e-02,-3.57463e-02,-7.09954e-02,6.58021e-03,1.01338e-01,-9.23159e-02,2.47137e-02,-2.25780e-17,-2.91696e-02,-2.32947e-01,-6.40828e-02,-7.21651e-02,3.08433e-37,-1.62099e-01,1.74791e-01,-2.04978e-03,-1.63823e-01,2.53114e-02,-1.13144e-01,2.69033e-02,-2.14661e-03,1.13619e-01,-9.66264e-02,3.61788e-04,-3.75988e-02,-8.46008e-02,-2.62409e-02,-2.50405e-01,-6.40114e-02,1.34470e-01,3.71983e-02,-1.20414e-01,-1.40898e-01,-8.41380e-02,-1.35706e-01,-6.42591e-03,5.47830e-02,-4.44082e-02,-1.11005e-01,
-2.94206e-03,-1.04460e-01,-3.65042e-02,1.05595e-01,-1.22149e-01,7.57606e-02,-1.44611e-01,5.92153e-02,2.23729e-02,-1.86615e-01,-1.52458e-01,-2.28945e-01,-2.53411e-01,-2.33049e-01,-2.00964e-02,-4.90671e-02,3.95741e-01,1.64793e-01,9.70655e-03,-1.80366e-01,-2.57452e-01,-1.27747e-01,-7.28843e-03,-3.81744e-03,2.49119e-01,2.09656e-01,2.21427e-02,1.99269e-01,-1.51779e-01,2.61099e-01,1.71463e-01,-1.58748e-01,1.24862e-01,-1.05653e-01,2.30776e-02,-1.59364e-01,2.43707e-03,1.88415e-01,7.90154e-02,1.18255e-01,-3.26774e-02,5.86774e-03,5.93388e-02,1.75798e-01,2.54204e-01,-2.31090e-01,1.01268e-01,-1.59394e-01,1.60160e-01,1.19628e-01,
7.89006e-02,9.09037e-02,1.55870e-01,1.18156e-01,9.41013e-02,-6.20722e-02,-1.10487e-01,5.80849e-02,-3.91419e-03,1.28482e-01,-2.41125e-02,-2.12496e-01,1.88557e-01,-1.83399e-01,2.06149e-01,-4.99083e-02,1.63651e-01,2.16102e-01,5.25185e-02,1.08999e-01,-1.20542e-01,3.47678e-02,6.12532e-03,-2.40496e-03,-8.61368e-02,1.75161e-01,-1.22730e-02,-9.54135e-02,-2.14000e-01,5.30513e-02,-3.29906e-01,3.65712e-02,2.11004e-01,-1.64489e-01,3.38771e-03,-5.05238e-02,2.67175e-02,-1.29056e-02,1.00553e-01,-4.37764e-03,1.49946e-01,-1.16617e-02,1.33739e-01,-7.88022e-02,2.84588e-01,-2.39974e-01,-1.26469e-01,3.01929e-03,-3.57868e-01,2.51594e-02,
-8.51495e-02,-2.85194e-01,5.42440e-02,-3.61474e-02,7.81858e-03,4.10696e-02,-5.11415e-02,1.64435e-02,1.18537e-02,-2.27733e-01,-1.77132e-01,8.34393e-02,1.65932e-02,-1.58647e-01,-8.39348e-02,-1.61488e-01,2.52934e-01,-1.19750e-01,5.05379e-02,-1.03449e-01,1.18277e-01,-1.11148e-01,-2.63086e-01,-8.51079e-03,-2.99009e-03,2.20676e-01,-5.45735e-02,-1.56917e-01,2.09900e-01,9.53860e-02,-2.00941e-01,-1.35613e-01,-1.84215e-01,1.39063e-01,2.92085e-02,-1.60133e-01,7.34074e-02,-6.79548e-02,-9.21595e-03,-1.27743e-01,-4.23489e-02,1.82338e-01,-1.37451e-01,-1.92537e-02,1.08003e-01,1.19062e-01,6.30104e-02,2.19253e-01,6.44749e-02,-1.09339e-01,
9.21325e-02,3.84574e-32,1.99949e-37,1.38362e-10,-1.76054e-02,-1.71788e-01,-1.07083e-01,-4.29469e-11,1.89148e-22,-5.22274e-03,-1.28878e-01,3.01472e-03,-1.29711e-03,7.93934e-02,5.91078e-02,1.51612e-01,-1.65615e-03,-5.55235e-06,1.81523e-05,-3.69534e-06,-1.21417e-01,6.93653e-38,-6.70758e-03,4.85182e-37,-9.00534e-02,5.77759e-02,-9.23436e-03,-5.20486e-02,-6.86936e-02,-1.54997e-01,6.15251e-03,-6.39634e-12,1.95852e-01,5.20976e-02,3.95814e-06,-1.90113e-01,-9.92634e-04,-1.02960e-10,-1.38435e-01,-3.66425e-02,-9.25073e-03,-1.14117e-02,-8.42595e-03,-1.70701e-01,2.57056e-02,1.95923e-02,-3.48332e-03,1.39473e-01,-1.11247e-02,-3.91672e-04,
2.30446e-01,-3.11668e-01,1.00750e-01,-1.40036e-01,-8.67108e-02,-5.46660e-02,6.97643e-02,2.64663e-01,3.42566e-02,-1.73085e-01,-2.49634e-01,-5.91023e-02,-1.93396e-01,-1.02000e-01,3.26800e-02,2.20819e-01,3.55662e-01,5.45875e-02,-1.13173e-01,-2.51837e-01,3.55190e-02,2.01648e-01,6.92880e-02,2.59307e-02,9.61665e-02,2.08398e-01,-4.15727e-03,3.83388e-02,5.61795e-02,-9.94558e-03,8.24428e-02,-1.07102e-01,1.70365e-01,-9.71165e-02,1.27004e-02,-1.64310e-01,7.55942e-02,-1.15964e-01,1.98874e-01,-1.30148e-01,-2.40164e-01,1.30264e-01,1.48608e-01,-1.43522e-01,1.17701e-01,1.92058e-01,1.49126e-01,-1.35821e-01,-1.32811e-01,-3.98451e-02,
4.57940e-02,-1.29785e-01,4.66413e-02,-1.52984e-01,-1.97163e-01,1.54181e-01,2.36606e-03,-6.02903e-02,1.70206e-02,-1.98542e-01,1.39528e-01,-7.95022e-02,-1.48361e-01,-1.42067e-01,9.57213e-02,8.62427e-02,1.50454e-01,-6.85576e-02,2.32002e-01,-1.46977e-01,1.47427e-01,2.12436e-02,1.06028e-01,-9.44938e-02,1.42502e-01,-4.16644e-02,4.50081e-02,-2.66274e-01,1.74790e-01,-1.73184e-01,-4.15313e-02,-1.65831e-01,-1.19549e-01,1.98764e-01,1.97297e-01,1.73807e-01,-3.37611e-02,-2.19132e-01,9.82754e-02,-1.86120e-01,1.12011e-01,8.80715e-02,-3.20577e-01,-2.42837e-01,1.72421e-01,2.13114e-01,1.38118e-01,-5.29629e-02,4.54682e-02,-1.73256e-01,
1.84107e-01,-2.38512e-01,1.56297e-01,1.55688e-01,6.29427e-02,1.33345e-01,-2.01987e-01,-1.75094e-01,3.55399e-02,-9.91073e-02,-2.03047e-01,3.80231e-02,-2.40969e-01,-1.02205e-01,-7.33046e-02,2.23897e-01,3.84167e-01,-8.34025e-02,1.27334e-01,-6.41993e-02,-6.14483e-02,3.22096e-02,-2.19648e-01,6.64703e-02,1.04681e-01,8.63891e-02,-1.55800e-02,6.43092e-02,2.14734e-01,9.07594e-02,-1.95376e-01,-7.80841e-02,2.41451e-01,-1.23965e-01,2.46541e-02,-1.11933e-01,-1.02620e-01,1.72938e-02,1.96474e-01,1.21856e-01,1.10522e-01,2.25915e-01,4.32535e-02,-1.59235e-01,3.77837e-02,2.34187e-01,-1.58058e-02,2.24280e-01,8.33899e-02,-3.09158e-01,
-1.47287e-01,1.17848e-02,1.02837e-01,-1.67644e-01,-1.95853e-01,1.01898e-01,1.53027e-01,-2.82755e-01,-1.32212e-02,1.69894e-01,4.49339e-02,2.78195e-01,-1.29118e-01,2.81915e-01,-7.01681e-02,-1.26622e-01,-8.37352e-02,9.14553e-03,-1.00034e-01,1.49619e-01,-1.77426e-02,-1.28749e-01,2.29702e-01,-1.12935e-02,-1.99616e-01,-6.56602e-02,5.66820e-04,8.22316e-02,1.05672e-01,8.43508e-03,-1.07272e-01,-6.95558e-02,3.81193e-02,-1.32796e-01,-4.24077e-02,1.23723e-01,-7.95209e-03,1.36288e-01,2.65546e-01,-1.10278e-01,-2.21043e-02,-1.74277e-01,-1.12584e-01,-1.47245e-01,1.12201e-01,1.32260e-01,2.63361e-01,-1.15795e-01,2.36829e-01,2.31660e-01,
-7.23187e-02,4.88888e-02,-2.10143e-02,2.99493e-01,-1.78070e-01,1.52231e-01,6.50199e-02,8.02937e-02,-3.00909e-02,7.86607e-02,1.92438e-01,1.24266e-01,-4.35705e-02,3.14585e-02,1.43442e-01,-4.90703e-02,-1.32324e-01,8.92547e-02,-1.32294e-01,-5.84007e-02,6.52739e-02,1.79814e-01,3.75159e-01,-1.87395e-03,-2.13524e-01,-1.70985e-01,-3.88606e-02,7.07028e-02,4.16446e-02,-1.59405e-02,2.42923e-01,4.96951e-03,1.02804e-01,-2.21801e-01,1.53864e-02,-1.47075e-01,4.35012e-01,2.82344e-01,-7.42863e-02,-2.42094e-01,1.54877e-01,1.41442e-01,1.15960e-01,-2.36338e-01,-2.97449e-01,4.06944e-02,-1.40521e-01,1.80628e-01,-1.28705e-01,2.56164e-03,
5.89264e-02,-7.81321e-02,-8.73693e-02,2.72638e-01,-2.41659e-01,2.33316e-01,-7.11489e-02,-1.53709e-01,-2.02133e-02,1.14306e-01,-1.00603e-01,8.39401e-02,2.54693e-01,2.14492e-01,-1.54106e-01,6.40088e-02,-1.36410e-01,1.03127e-01,-1.32006e-01,9.24958e-02,2.30754e-01,-1.78880e-02,3.37330e-01,-3.13316e-02,-9.62739e-02,-1.64106e-01,-5.18167e-03,-1.13421e-02,-1.15720e-01,-9.84159e-02,1.22450e-01,-2.73167e-01,-4.81006e-02,-1.30548e-01,-7.18792e-03,1.36692e-01,2.34936e-01,-2.05500e-01,1.68424e-02,-1.35357e-01,7.49444e-02,2.37475e-02,2.31452e-01,-1.02131e-01,1.33567e-01,-1.37060e-01,4.14641e-02,-2.15150e-01,6.11225e-02,3.10200e-01,
-5.32273e-02,3.92309e-01,1.68256e-02,2.54360e-01,2.67843e-02,-1.37002e-01,9.15295e-02,-1.33512e-01,-3.85757e-02,-2.64760e-02,1.24051e-02,-1.66185e-01,1.20786e-02,1.66602e-01,-1.80781e-01,1.07990e-01,-2.01525e-01,1.30257e-01,-1.63718e-01,2.80093e-01,1.74649e-01,-6.13294e-03,2.57730e-01,-1.25029e-02,2.14883e-02,-2.61963e-01,3.27251e-02,-2.13345e-02,1.42266e-01,-4.30002e-02,1.04753e-01,2.26738e-01,8.88306e-02,2.11860e-01,5.16850e-02,-1.63331e-01,4.08261e-02,2.16709e-01,9.15448e-02,1.55327e-01,4.75618e-02,2.64001e-02,-5.33340e-02,8.58262e-02,3.25934e-02,-3.40529e-01,-1.65673e-01,-1.42918e-01,3.97016e-03,-5.76025e-02,
