// Neural Network File Format by Kyle Julian, Stanford 2016
2,13,1,50,
13,50,1,
0,
29,0,0,94,126,0,0,71,0,0,0,0,0,
77,1,3,200,594,1,2,202,1,6.2,2,4,3,
0,0,0,0,0,0,0,0,0,0,0,0,0,0,
1,1,1,1,1,1,1,1,1,1,1,1,1,1,
-2.39352e-19,7.69070e-22,-3.47939e-14,-4.01050e-12,-5.43467e-09,-8.15113e-20,3.45610e-17,-1.38489e-10,-9.83363e-14,6.99505e-21,1.41357e-17,-2.80889e-38,-1.04294e-21,
-3.08721e-03,-2.54477e-10,-1.24522e-05,-7.80595e-03,-1.08831e-02,-1.47151e-11,-2.13879e-06,-1.19733e-02,1.91207e-05,2.01209e-04,-6.03128e-05,-5.57864e-06,3.18457e-05,
-1.87960e-01,6.41312e-01,-1.59228e-01,-6.70908e-02,2.13182e-01,-1.30973e-01,-3.35859e-01,1.04995e-01,6.55863e-01,5.41170e-01,-2.89237e-01,1.48359e-01,-1.61141e-02,
2.56451e-03,-5.23880e-01,7.03573e-01,1.31944e-01,-2.53204e-01,4.49903e-01,1.56612e-01,1.92632e-01,-2.96841e-01,-6.25899e-02,4.10434e-02,2.71006e-01,-3.92901e-02,
1.04248e-01,-3.49239e-01,4.24631e-01,1.80893e-01,7.89833e-02,-2.04834e-01,2.04346e-01,1.21247e-01,-5.14259e-01,-1.14302e-01,3.89094e-01,-4.81319e-01,-6.59579e-02,
-1.17973e-02,-1.19752e-04,-3.75749e-26,-3.45173e-02,-3.31534e-02,-3.80615e-22,-5.40839e-05,1.93056e-02,-7.48462e-06,-8.08423e-05,-1.12947e-05,-3.33379e-29,-5.77065e-03,
-1.87788e-03,5.12582e-02,-7.76570e-02,-2.67153e-03,-1.75557e-03,-5.13700e-03,-1.96098e-02,-1.94027e-03,7.27102e-02,9.31632e-02,-2.64794e-02,5.84358e-02,4.27379e-02,
-1.11473e-02,6.69127e-01,-1.11490e-01,2.06971e-01,-6.66533e-02,-2.19467e-01,-2.96829e-01,1.23738e-01,5.07809e-01,4.47727e-01,-4.06574e-01,3.80258e-01,3.49524e-01,
-1.51303e-02,-4.76284e-04,-1.75986e-02,-2.19258e-02,-2.19439e-02,-7.69888e-06,-2.22139e-03,-2.14016e-02,1.47637e-04,-4.82838e-03,-5.00174e-03,-1.41008e-04,-6.57157e-03,
5.96520e-35,-2.52448e-38,-4.02149e-16,-7.05722e-34,2.35713e-38,-1.11585e-22,-1.71701e-23,-3.31414e-11,-5.66571e-39,1.61479e-38,-4.64380e-11,-2.21727e-11,9.39340e-12,
-1.17349e-03,2.78517e-03,-8.04203e-03,-5.98155e-03,-2.30089e-04,-2.88830e-05,-6.36185e-04,-9.79592e-03,9.84704e-04,1.09808e-02,-8.09635e-03,8.60411e-03,6.87241e-03,
-1.11616e-02,-8.42225e-29,1.26618e-06,-1.43110e-02,-1.52429e-02,-1.31965e-23,-6.03298e-34,-1.52729e-02,-7.94341e-31,2.28496e-18,-1.23542e-07,5.27802e-28,-2.17068e-07,
-1.22774e-04,8.03691e-08,6.16863e-07,1.65186e-04,-2.91944e-04,-4.65423e-12,-3.21041e-06,1.16817e-04,-9.52618e-10,-1.73013e-08,3.34894e-06,-1.36078e-05,3.38627e-06,
3.49897e-33,9.95650e-35,-2.02659e-14,-1.63027e-28,-9.47630e-13,-1.20416e-38,1.05257e-37,5.49727e-31,3.22915e-35,2.08273e-22,-9.88541e-26,-2.39685e-26,9.75304e-12,
-7.28263e-02,-1.96698e-01,5.37580e-01,9.53261e-02,1.66225e-01,9.06143e-03,-8.84566e-02,-1.34598e-01,-6.97385e-01,-4.03586e-01,2.24771e-01,-5.55250e-01,-1.15013e-01,
-2.38646e-01,3.92544e-01,-4.18155e-01,-6.81139e-02,2.77235e-01,-2.84832e-01,-1.73164e-01,2.59676e-01,2.24861e-01,3.96409e-01,-1.29207e-01,6.87189e-02,3.05384e-01,
7.84008e-18,4.33753e-16,-2.06523e-18,-9.67754e-12,-2.06697e-07,-1.33709e-20,6.55434e-20,-1.32740e-10,-1.76887e-20,-4.54830e-14,6.51231e-20,-3.11738e-19,-5.97932e-14,
-7.85960e-02,2.15083e-01,2.35901e-01,-1.92657e-01,-2.78766e-02,1.21018e-01,-1.95858e-01,1.60959e-01,1.05422e-01,2.89433e-02,8.24634e-02,-2.36513e-02,3.06585e-01,
-1.66069e-01,-1.22296e-01,5.45616e-01,5.15527e-02,-2.01123e-01,2.45335e-01,-1.23968e-01,2.40591e-01,-3.42733e-01,-3.55610e-01,-2.28192e-01,1.25278e-01,-1.20816e-01,
-9.67163e-03,-1.05226e-17,-5.83227e-05,-1.02328e-02,-1.15853e-02,-4.45215e-06,4.35056e-10,-1.17651e-02,-4.19004e-06,2.88401e-16,-6.52400e-04,-2.52016e-04,-5.81958e-04,
8.16695e-02,3.04002e-07,-1.39671e-38,-4.71263e-02,-3.84164e-02,8.58354e-21,-9.50358e-08,3.03645e-02,-1.28459e-07,-9.90373e-07,-2.45302e-06,6.61965e-06,2.39457e-03,
-2.81298e-04,2.90539e-22,4.04039e-11,-4.26095e-03,-3.98775e-13,-5.61210e-23,3.16035e-22,-7.03562e-03,3.79417e-22,-5.32760e-22,2.62441e-22,-6.05926e-23,-7.33160e-21,
-9.01229e-02,-5.40581e-01,5.01550e-01,8.13654e-02,1.35546e-01,3.44164e-02,-4.58852e-02,2.14822e-01,-6.22538e-01,-4.77645e-01,-4.75197e-02,-4.72505e-01,-3.96261e-01,
9.37282e-02,3.77668e-01,-8.79696e-02,-1.75778e-01,1.98291e-01,-3.10791e-02,1.49859e-02,-1.86292e-01,9.05699e-02,3.70205e-01,-3.17340e-01,1.96517e-01,1.88593e-01,
-9.41933e-15,-9.16816e-15,-4.36964e-11,1.96164e-13,3.50101e-14,-1.54044e-15,-4.03387e-14,-4.27526e-14,1.34152e-14,1.45291e-14,-1.99999e-15,6.37409e-16,-8.06961e-16,
2.16757e-21,-1.71663e-20,-3.45969e-32,6.10267e-34,2.61500e-38,-1.60217e-29,1.06952e-26,-4.25342e-15,-2.08390e-38,-1.09156e-20,-1.54031e-28,1.57743e-21,-4.55155e-39,
-1.33175e-37,9.35122e-37,-1.59904e-30,9.91554e-38,-2.02136e-11,-1.09004e-35,-1.41313e-32,2.27815e-38,3.91773e-37,-4.62650e-39,-6.53798e-39,4.58316e-29,-7.80271e-21,
2.29070e-02,6.39077e-01,-1.50193e-01,-3.08043e-01,1.15363e-01,2.01949e-01,-1.53358e-01,6.45156e-02,4.06525e-01,2.05657e-01,-2.01886e-01,1.20906e-01,-2.65374e-02,
3.10948e-01,6.86861e-01,-6.67981e-01,2.54110e-01,-1.81024e-02,2.33079e-01,-1.38873e-01,-2.04840e-01,3.03874e-01,5.27031e-01,-2.20357e-01,4.69941e-01,1.22001e-01,
-9.34505e-02,2.59798e-01,-5.12187e-01,1.26821e-01,1.13154e-02,9.21167e-03,6.88863e-02,1.02074e-01,7.12289e-01,2.17708e-01,8.12331e-02,2.43314e-01,4.06070e-01,
-2.10095e-02,-1.53978e-03,5.57529e-06,-2.13411e-02,-2.09606e-02,6.74848e-10,-1.27526e-06,-2.09019e-02,-2.09123e-05,-2.65617e-03,-1.10050e-03,-2.39700e-03,-1.03398e-02,
-3.22723e-02,-1.87563e-01,4.58036e-02,-1.86758e-02,2.50140e-02,-3.15759e-01,-2.22573e-01,-2.78338e-02,-1.75512e-01,-3.72395e-02,1.04923e-02,6.26383e-02,-3.20406e-01,
-1.21896e-01,5.52342e-01,-2.40060e-03,-3.03122e-01,2.42588e-01,2.55492e-01,-3.20654e-01,-6.10448e-02,3.71132e-03,-3.46467e-02,-2.37464e-01,3.87325e-01,3.03065e-02,
-1.73382e-02,-4.66635e-01,2.33659e-01,-2.61524e-01,1.09826e-01,-1.58251e-01,-8.68910e-03,-8.60849e-03,-3.78281e-01,-4.00093e-01,6.11033e-02,-4.22950e-01,-1.32247e-01,
-5.88209e-02,-2.92756e-02,3.63246e-02,-9.05401e-02,-8.19259e-02,-1.77629e-03,1.32460e-02,1.60737e-01,-4.94265e-02,-9.76604e-03,4.99084e-03,-1.41052e-02,-1.96865e-02,
-1.03167e-01,3.35785e-01,-1.83770e-01,1.08490e-01,2.27868e-01,-2.71943e-01,5.56186e-02,-1.11858e-01,7.09322e-01,3.98241e-01,5.99213e-02,2.74888e-01,1.49070e-01,
-9.70624e-02,-3.78200e-01,4.16562e-01,8.15441e-02,1.48834e-01,-1.17544e-01,3.39737e-01,7.19114e-02,-5.12789e-01,-3.97307e-01,1.58763e-01,-1.37121e-01,2.60385e-02,
-2.79631e-01,-5.58982e-01,4.38984e-01,7.87324e-02,5.08666e-02,1.87628e-01,9.36849e-02,2.29447e-01,-4.47359e-01,-3.43739e-01,3.16986e-01,-3.87612e-01,-7.11443e-02,
-2.55283e-02,-3.94205e-01,2.68884e-01,1.83474e-01,1.17995e-01,8.07740e-02,1.71521e-02,1.73376e-01,-5.12011e-01,-1.07879e-01,2.96503e-02,-1.83075e-01,5.77357e-02,
-7.81694e-03,-1.55202e-05,3.83780e-04,-1.53626e-02,-2.42593e-02,-4.71640e-06,1.08677e-07,1.01837e-02,-7.49218e-04,3.05664e-03,1.08042e-04,1.10911e-02,-2.21715e-03,
-2.02323e-02,8.93296e-10,-1.42817e-07,-2.47524e-02,-1.53432e-02,-3.15242e-20,-7.23698e-07,-2.64013e-02,1.24875e-09,-1.75322e-14,1.18165e-08,3.49926e-08,1.79371e-08,
-2.67503e-02,-1.12296e-02,-1.17108e-02,-2.83016e-02,-2.62066e-02,-1.41828e-04,-1.56330e-04,-2.74091e-02,3.69814e-08,-1.33896e-02,-9.91203e-03,-3.11600e-03,-1.76170e-02,
2.47499e-02,-6.38870e-01,4.87028e-01,-5.93900e-02,9.15784e-02,2.38851e-01,1.27006e-01,8.55122e-02,-5.93578e-01,-1.78395e-01,-7.07826e-02,-4.62583e-01,-5.69964e-03,
7.11855e-02,1.12622e-01,9.48898e-02,1.49171e-01,-1.55499e-01,8.53584e-04,1.30012e-01,-4.50247e-02,-1.14953e-01,-2.05933e-01,-8.24827e-02,-2.18877e-01,1.92544e-01,
-2.07473e-05,1.97858e-12,3.34311e-20,-1.40528e-03,-4.45002e-03,7.94806e-12,-8.54643e-21,-1.45830e-03,7.24397e-13,1.52055e-20,3.22001e-20,4.68940e-19,4.51717e-20,
-2.09698e-01,5.40420e-01,-6.42913e-01,1.16372e-01,2.21976e-01,7.55523e-02,-4.24802e-02,1.14911e-01,3.62770e-01,3.28800e-01,-1.78513e-01,5.44549e-01,2.43342e-01,
-2.59553e-14,1.62148e-31,-1.71676e-20,-1.52588e-07,-5.54165e-05,1.90886e-16,1.55849e-12,-3.56236e-06,1.15611e-15,-4.03753e-32,1.22224e-31,8.67744e-15,6.36708e-13,
2.01939e-01,-4.28161e-01,-1.46589e-01,-2.48081e-01,1.89897e-01,-3.15522e-01,-7.80678e-02,-2.26437e-01,-8.08205e-03,-2.21391e-01,-1.39061e-01,-2.32724e-01,1.01451e-01,
2.34385e-01,1.45886e-01,-9.84412e-02,1.71198e-01,-1.10015e-01,-1.31836e-01,-2.23256e-01,1.29834e-01,3.61154e-01,3.03618e-01,-3.49752e-01,6.61114e-02,-3.63673e-02,
-1.20439e-01,-2.16141e-01,6.00952e-01,-6.74523e-02,2.22405e-01,-1.56055e-01,1.18453e-01,1.90598e-01,-5.21665e-01,-2.78598e-01,-4.31856e-02,-4.28074e-01,-9.08213e-02,
9.12630e-20,
-3.57657e-06,
4.84365e-02,
-1.49948e-01,
-2.41410e-01,
4.94336e-05,
-4.43242e-03,
-8.63632e-02,
-2.48778e-03,
9.91023e-34,
-1.92520e-03,
-3.58120e-14,
6.00523e-07,
9.31069e-19,
-2.34735e-01,
-2.34614e-01,
-3.10501e-20,
1.78663e-01,
1.59813e-01,
-2.29948e-05,
1.29595e-06,
-1.77714e-21,
-9.31061e-02,
-1.31822e-01,
-1.47551e-16,
-1.00255e-34,
-2.28407e-39,
-1.76341e-01,
-1.26743e-01,
2.16961e-01,
-3.10507e-04,
1.75223e-02,
3.10382e-02,
-1.44563e-01,
8.40377e-05,
-2.57179e-01,
8.51991e-02,
-1.67100e-01,
-9.60957e-03,
-7.96563e-04,
4.87003e-20,
-8.70036e-03,
1.94669e-01,
1.65216e-01,
3.35608e-20,
-1.51432e-01,
3.60643e-24,
-2.04155e-01,
-1.30794e-01,
-1.68642e-01,
-4.08397e-22,7.81657e-04,-2.92406e-02,1.71943e-01,1.20095e-01,-9.01040e-04,-2.79072e-03,-1.51874e-01,1.65837e-02,-1.18029e-38,4.56538e-03,7.65031e-03,-3.01092e-05,-1.71551e-31,1.29977e-01,-1.16996e-01,6.41152e-03,-5.26743e-02,1.65774e-01,1.41372e-02,9.65388e-04,-1.93719e-02,1.03309e-01,-6.06816e-02,-7.04810e-10,1.66790e-34,-2.23772e-32,-2.61875e-02,-7.89599e-02,-5.32043e-02,-1.13056e-02,4.20213e-02,-2.70052e-02,1.61018e-01,-5.25457e-03,-1.44856e-01,5.47755e-02,8.55524e-02,1.12693e-01,3.65680e-04,2.31212e-02,-1.91057e-02,5.85989e-02,1.09045e-01,2.35550e-02,-1.29803e-01,-2.38339e-08,7.38428e-02,-1.08793e-01,6.56177e-02,
3.28689e-02,
