// Neural Network File Format by Kyle Julian, Stanford 2016
4,13,1,50,
13,50,50,50,1,
0,
0,0,0,0,0,0,0,0,0,0,0,0,0,
1,1,1,1,1,1,1,1,1,1,1,1,1,
0,0,0,0,0,0,0,0,0,0,0,0,0,0,
1,1,1,1,1,1,1,1,1,1,1,1,1,1,
-3.39491e-02,-8.87062e-02,1.32041e-01,7.46668e-02,-1.53393e-01,-5.47590e-02,5.83454e-03,2.02842e-01,2.67230e-01,3.00234e-01,2.33798e-01,3.47893e-02,-2.43884e-01,
-3.76660e-01,-3.24642e-01,2.48431e-01,1.45471e-01,-6.33458e-02,-1.29961e-01,-5.39323e-02,5.50849e-02,1.11947e-01,-1.89066e-01,1.45371e-01,1.40031e-01,7.20917e-02,
-2.02525e-01,-1.20158e-01,2.23625e-01,1.58066e-01,1.79417e-01,1.47473e-01,2.91913e-01,2.10104e-01,1.55136e-01,-1.70354e-01,-2.46591e-01,3.75848e-01,2.41230e-01,
-8.12238e-03,3.28142e-01,2.95286e-01,3.30898e-01,2.78551e-01,-3.35947e-01,-1.86427e-01,-2.52785e-01,-1.47020e-02,-1.12798e-01,-2.00779e-01,3.18990e-01,1.20065e-01,
2.60538e-01,1.64895e-01,-2.68415e-01,-3.22382e-01,6.84306e-02,-2.07958e-01,-4.24860e-01,-3.61180e-03,-2.98899e-01,4.51573e-01,1.28528e-01,2.53367e-01,-2.16592e-01,
3.61670e-01,-2.50623e-01,1.63853e-01,-2.24364e-01,-2.40310e-01,-3.46241e-02,8.21379e-02,-1.13741e-01,-1.71066e-02,-1.31068e-02,3.73206e-02,1.99242e-01,-2.47897e-01,
-1.88195e-02,-2.07724e-01,-9.03068e-02,-5.22884e-02,2.74991e-02,1.04637e-02,2.25944e-01,1.95137e-01,3.22344e-01,1.35395e-01,-3.77312e-01,-5.46773e-02,-1.69353e-01,
3.00701e-01,1.37170e-01,3.58780e-01,1.88450e-01,1.25403e-01,3.34210e-01,-1.87610e-01,3.22731e-01,1.49044e-01,1.07821e-01,-1.31743e-02,-1.25577e-01,-3.23080e-01,
2.43425e-01,-2.07158e-01,-3.09347e-01,-2.06802e-02,1.68701e-01,-8.58044e-02,6.35315e-02,-2.47649e-02,-1.54732e-02,3.88654e-01,-3.01265e-01,4.38829e-02,6.06195e-02,
9.25471e-03,2.35138e-01,-3.70136e-01,3.41370e-03,-1.37236e-01,-1.39351e-01,-5.95041e-02,-1.71157e-01,1.42941e-01,3.70459e-01,-1.75918e-01,-2.45601e-02,2.96442e-01,
-2.61499e-01,-2.37034e-01,-2.07468e-01,-1.84440e-02,2.99484e-01,2.45550e-01,-2.00687e-01,3.17269e-01,2.72090e-01,1.42398e-01,-1.96858e-01,9.10812e-02,1.46716e-01,
5.03172e-02,2.23445e-01,4.13654e-01,-1.56660e-01,2.66159e-01,1.01463e-01,-6.18957e-02,-2.94869e-01,-8.20586e-02,8.24264e-02,8.66424e-02,2.58809e-01,-2.07651e-01,
-8.19467e-02,1.66648e-01,2.45026e-01,-1.63708e-01,2.77990e-02,2.20307e-01,-8.59330e-02,-2.62886e-03,-1.65185e-01,2.07168e-01,2.15508e-01,-4.02292e-01,1.57312e-01,
-2.30683e-01,4.32671e-02,-4.85241e-02,2.07264e-01,-6.37082e-02,1.93761e-01,6.18911e-02,-2.22631e-01,7.17680e-04,2.80797e-01,-9.82987e-02,2.71212e-01,-2.26525e-01,
2.47395e-01,-1.03903e-01,-2.61155e-01,9.00240e-02,-7.64906e-02,3.04534e-01,1.25010e-02,3.40949e-02,1.06849e-01,2.53899e-01,-2.24564e-01,1.61124e-01,-1.87570e-01,
-3.54842e-02,4.51501e-38,-9.21806e-03,-3.77406e-03,3.17778e-02,2.62655e-37,-9.24283e-39,-1.59045e-02,-1.08766e-37,-3.13635e-03,-9.80909e-03,-1.43989e-16,-3.15671e-02,
-6.58311e-02,-7.82511e-02,2.29516e-01,-8.59746e-02,-2.44216e-01,-5.53463e-02,-1.61039e-01,2.24724e-01,2.28119e-01,8.28789e-02,-8.19675e-02,3.72931e-01,2.73676e-01,
2.20622e-01,2.53330e-01,6.94424e-03,-2.26118e-01,-2.92600e-01,-7.88232e-02,3.52703e-01,-3.24587e-01,2.85839e-01,8.34584e-02,5.17883e-02,5.15276e-02,-4.02821e-02,
-1.32950e-01,6.67902e-02,2.86553e-01,-2.66756e-01,-5.12999e-02,1.89019e-01,-2.98611e-01,3.49097e-01,3.03100e-01,-2.33444e-01,4.23514e-02,-6.16789e-01,-2.41404e-01,
-8.62839e-02,1.32786e-01,2.26581e-01,3.97269e-02,2.04339e-01,-1.21655e-03,-7.04969e-03,-3.11773e-01,1.03054e-01,2.46121e-01,-6.31962e-02,3.36081e-01,2.77714e-01,
2.05755e-01,1.97407e-01,-3.01056e-02,2.02956e-01,-3.90538e-02,-2.19415e-01,5.18511e-02,-3.35430e-02,-8.00609e-02,-2.04817e-01,3.59501e-01,1.60010e-01,-2.39876e-01,
-4.36105e-01,-9.21829e-02,1.22094e-01,4.55561e-02,2.02574e-01,-2.06467e-01,4.11747e-01,-1.75404e-01,1.21832e-01,-5.49828e-02,-1.18114e-01,-3.14255e-01,2.95217e-01,
2.18716e-01,1.96790e-01,3.45754e-01,-1.92193e-01,-9.12933e-02,-1.60430e-01,-2.50593e-01,-1.67141e-01,-1.01515e-01,-1.84266e-02,1.40483e-01,-1.94094e-01,-1.14316e-01,
-2.19175e-02,-9.34569e-02,-3.11816e-01,2.71456e-01,-2.65093e-01,9.20291e-02,-9.35885e-02,7.82983e-02,2.38247e-01,2.16681e-01,2.50451e-02,9.78246e-02,1.17879e-01,
-1.12077e-01,-3.58517e-01,-1.01664e-01,6.79624e-02,-8.09405e-02,7.44423e-02,-3.84972e-01,3.37033e-01,-3.27266e-01,-3.83454e-01,-5.78023e-03,2.82871e-01,2.70145e-02,
9.81476e-02,9.76070e-02,1.71540e-01,9.41640e-02,-1.71666e-01,1.35037e-01,1.57438e-01,2.22639e-01,2.72734e-01,2.04376e-01,-1.16127e-01,-3.95098e-01,-2.02833e-01,
-3.49241e-01,2.70360e-01,6.43775e-02,1.79879e-01,7.45625e-02,2.98363e-01,-2.77960e-02,2.90625e-01,-2.11818e-01,2.56592e-02,-2.09568e-01,-1.41760e-02,-2.50321e-01,
2.78850e-02,8.80653e-02,-5.24917e-02,-2.48204e-01,-1.51787e-01,2.49997e-01,-1.96026e-01,-1.88240e-01,1.84393e-01,1.04380e-02,-1.29502e-02,1.50743e-01,-2.98509e-01,
-4.40935e-02,-3.89345e-01,-1.22345e-01,-2.61884e-01,2.63217e-01,-1.98633e-01,3.22774e-01,5.62802e-02,8.20229e-02,-1.65781e-01,4.59636e-02,-2.67966e-02,1.29741e-01,
1.38708e-01,7.42273e-02,4.39019e-02,7.72129e-02,2.88223e-01,-8.33482e-02,-8.35419e-02,3.38554e-01,-2.55051e-01,-8.12218e-02,2.29006e-01,-2.83907e-01,-1.06953e-01,
2.94970e-02,-1.68871e-01,2.21930e-01,-2.58500e-01,-1.33422e-01,5.74862e-02,-1.82339e-01,-3.08560e-01,-1.10717e-01,1.69853e-01,2.12785e-01,4.08084e-01,2.17403e-01,
-4.22967e-37,-8.39941e-09,-3.77669e-12,-6.71707e-11,-2.95366e-37,3.04248e-14,1.95441e-37,-3.45342e-13,-8.95092e-33,-4.85147e-13,-8.84081e-11,-3.83229e-08,-2.44996e-08,
4.69462e-02,-2.96274e-01,-2.12521e-01,2.86154e-02,2.60536e-01,1.35975e-01,-7.97232e-02,4.54900e-03,-2.89386e-01,1.05124e-02,2.64645e-01,3.12853e-01,1.82132e-01,
2.63662e-01,3.21974e-02,2.74286e-01,1.56380e-02,-6.52096e-02,1.04460e-01,-5.57880e-02,2.76705e-01,-1.08644e-01,-1.99056e-01,-6.75462e-03,-9.10760e-02,-1.13416e-01,
-1.94096e-01,-6.24562e-02,3.35274e-01,-7.41443e-02,2.92743e-02,-8.35628e-02,-6.74411e-01,1.21381e-02,1.09213e-01,6.45337e-03,-3.33378e-01,2.79806e-02,1.11210e-01,
-1.33161e-01,-1.63343e-01,-2.05487e-01,-3.46690e-02,-2.75647e-01,3.56709e-03,8.20533e-02,-1.82572e-01,2.03232e-01,1.20077e-01,-6.89931e-02,2.39429e-01,1.25952e-01,
-9.59435e-02,-1.16783e-01,-4.31994e-01,2.20374e-01,2.13518e-01,1.89560e-01,1.00808e-02,-1.39530e-01,-1.37863e-01,2.33465e-01,1.09042e-02,-2.93535e-02,3.14269e-01,
2.53717e-01,-2.90367e-01,-1.34943e-01,-4.11333e-02,-3.58657e-01,1.19718e-01,-3.04712e-01,3.06432e-01,-3.56129e-01,1.76753e-01,2.65110e-01,-3.22339e-01,1.71376e-01,
2.38690e-01,5.65749e-02,1.81262e-01,4.96816e-02,4.19678e-02,-5.25002e-03,2.92093e-01,-4.10083e-02,1.95253e-01,-9.57305e-02,-9.34833e-02,1.87320e-01,2.94433e-01,
-1.65875e-01,5.99215e-02,8.36798e-03,-2.79253e-02,-1.81087e-01,-1.76961e-01,3.19343e-02,-2.13070e-01,-2.85306e-01,-3.59365e-01,-2.30074e-02,-1.71785e-01,4.10617e-01,
-7.62536e-02,-2.61122e-01,2.31864e-02,-2.25456e-01,-6.19452e-03,2.19656e-02,1.49218e-01,-2.14904e-02,2.37043e-01,-5.29280e-02,3.57504e-01,-1.05995e-01,1.96536e-01,
-3.14998e-01,-9.31534e-02,7.10813e-02,-2.67390e-01,-3.04232e-02,-1.20914e-02,2.36986e-01,1.74519e-01,-3.05778e-02,-1.98497e-01,2.16907e-01,3.66975e-01,-1.40653e-01,
-1.39649e-01,-1.82479e-01,-3.51187e-01,-1.35991e-01,-6.57883e-02,3.33945e-01,-1.99935e-02,3.57159e-01,4.21670e-02,-1.55189e-01,1.34856e-01,4.32588e-01,3.02417e-02,
1.70105e-01,-2.70475e-01,-4.11643e-01,1.21028e-01,-2.13335e-01,1.28735e-01,-2.49198e-01,3.06942e-01,1.39032e-01,-1.05371e-01,-9.83782e-02,2.64629e-01,2.56354e-01,
7.46607e-02,2.34286e-01,3.65678e-02,-2.65949e-01,6.19551e-02,-2.89806e-01,-2.10351e-01,1.19446e-01,5.15621e-02,4.00803e-02,-1.98003e-01,-5.54029e-01,4.37989e-02,
-3.05546e-02,-2.23083e-01,2.76320e-01,1.40571e-01,2.15181e-02,1.99720e-01,-2.09979e-01,-1.77082e-01,-1.69343e-01,1.33577e-01,9.49320e-02,2.64479e-01,1.98308e-01,
-2.72282e-02,1.25405e-02,-3.19547e-01,-1.61628e-01,-2.27994e-01,1.00991e-01,2.02752e-01,-1.64460e-01,5.58883e-02,3.35169e-01,-2.84467e-01,2.03674e-01,7.55039e-02,
2.74734e-01,1.71978e-01,-2.78605e-01,3.79415e-02,-2.69227e-01,2.01134e-01,3.93317e-02,-1.59370e-02,1.48765e-01,2.16938e-01,2.19700e-02,-1.70038e-01,2.46896e-02,
9.94613e-02,-2.40397e-01,-6.76899e-03,-1.41081e-01,-2.80491e-02,6.68485e-02,3.41399e-01,-1.48929e-01,-9.07925e-02,-1.90584e-03,4.45588e-02,-2.79360e-01,1.82586e-01,
2.22842e-01,-6.03817e-02,6.92119e-02,-7.00406e-02,1.38026e-01,-7.85260e-02,-2.24487e-01,-8.72628e-02,1.50662e-01,-6.64960e-02,2.44682e-01,-3.42459e-02,2.81475e-01,
3.90996e-02,
-2.76710e-03,
4.77072e-02,
-2.48869e-02,
-4.39256e-02,
9.85193e-03,
9.44357e-03,
1.61986e-02,
2.85990e-02,
-2.12430e-02,
1.86316e-02,
-1.88784e-02,
2.20642e-02,
7.34700e-02,
-9.36952e-04,
-1.19405e-02,
-1.14132e-02,
-1.50709e-02,
5.52219e-02,
-4.30566e-02,
-8.19123e-03,
-1.61332e-03,
-2.08581e-02,
-1.66783e-02,
3.27344e-02,
5.89234e-02,
-3.12107e-02,
6.62476e-02,
9.61289e-02,
8.04519e-02,
1.60159e-04,
-3.45906e-37,
-1.86754e-02,
9.12213e-02,
3.52569e-02,
-5.76258e-03,
-6.93213e-03,
3.46685e-03,
-2.06594e-02,
8.65027e-03,
7.47504e-02,
6.51291e-02,
1.41377e-02,
-1.28174e-03,
8.97265e-02,
1.20836e-02,
-3.34289e-02,
5.44064e-04,
5.05190e-02,
-1.70142e-02,
1.20595e-01,8.97748e-02,1.58281e-01,2.39537e-01,4.33234e-01,-1.72531e-01,3.17611e-01,2.42369e-01,1.70137e-01,-2.21332e-01,2.67865e-01,1.85907e-01,-5.56752e-02,4.10644e-01,2.48139e-01,-1.22662e-15,-1.64585e-01,-1.20424e-01,-2.50706e-01,-2.04978e-01,-1.48273e-01,2.37666e-01,1.18307e-01,-5.05013e-02,5.36936e-01,-1.27868e-01,-2.10501e-01,4.59308e-01,-5.49190e-02,2.48991e-01,-2.65152e-01,3.59547e-24,2.68816e-02,8.39584e-02,-1.12034e-01,2.45890e-01,-1.04434e-01,2.30649e-01,1.60707e-01,4.37194e-01,-1.43467e-01,-2.20293e-01,7.35164e-02,2.33841e-01,-3.32713e-02,9.96629e-02,5.20277e-01,-4.35319e-02,2.80323e-01,1.20479e-01,
-6.48903e-02,-2.73458e-01,9.42770e-02,2.07352e-01,2.73815e-01,-8.99840e-02,1.74738e-01,-1.07322e-01,6.36630e-02,2.21305e-01,1.54865e-01,2.79132e-01,-1.11562e-01,4.29215e-01,2.91442e-01,-2.20721e-17,1.17966e-01,1.72769e-01,-1.93579e-01,2.28039e-01,3.56193e-02,4.16987e-01,-3.71328e-02,-2.22281e-01,-1.23174e-01,1.82224e-01,-1.15952e-01,2.55388e-01,-2.38589e-01,2.07558e-01,-1.46823e-01,3.45128e-12,-4.06771e-01,-1.93554e-01,-2.87665e-01,2.95451e-01,3.85486e-01,9.51181e-02,-1.20818e-01,4.71790e-01,1.84839e-01,-2.23685e-01,2.45687e-01,-3.32980e-02,-2.11908e-02,-9.91410e-02,2.66963e-01,3.33838e-02,-2.70783e-02,3.01616e-02,
-1.62626e-01,6.39673e-02,9.34257e-02,2.30219e-01,4.70656e-01,-1.53522e-01,-1.00061e-01,1.42030e-01,-1.39380e-01,2.77897e-01,3.28075e-01,2.34878e-01,2.41877e-01,2.72157e-01,1.59390e-01,1.08240e-09,1.92140e-01,2.02556e-02,-3.84338e-01,-2.23012e-03,-2.56877e-02,2.68794e-01,2.42908e-01,-1.32758e-01,3.12068e-01,-6.40799e-02,-2.95302e-01,2.25790e-01,-1.40775e-01,7.46519e-02,-3.60284e-01,6.93981e-33,1.49521e-01,7.59210e-02,-5.43308e-01,-4.37607e-02,3.41892e-01,-4.29076e-03,2.12161e-02,5.51853e-02,-4.71850e-02,-1.45452e-01,-6.81997e-02,-1.31396e-01,-3.16026e-01,-1.53228e-02,4.23908e-01,-1.90403e-01,-2.84209e-01,1.39569e-01,
-1.04982e-01,-1.83333e-01,-6.73007e-02,-1.86548e-01,-2.66177e-01,3.56004e-01,-2.10300e-01,9.03585e-02,-6.91204e-02,2.20542e-02,-6.00195e-02,1.22837e-01,1.47817e-01,-3.87115e-01,-2.28771e-01,4.36568e-14,5.57422e-02,1.08360e-01,-3.91951e-02,5.81163e-02,-1.46642e-02,-3.67238e-01,-2.61457e-01,-1.74525e-01,-2.75037e-01,-1.92387e-01,4.07383e-02,-2.39833e-01,2.68925e-02,1.63985e-01,4.00596e-01,-1.06904e-35,2.12864e-01,5.22166e-02,2.95336e-01,-1.67678e-01,1.07575e-01,1.44534e-01,1.18055e-01,-2.67578e-01,3.51734e-02,2.64712e-01,-1.84585e-01,2.94297e-02,6.36343e-02,1.61001e-02,-1.71492e-01,2.04571e-01,3.14133e-01,-2.40688e-01,
2.81458e-02,-5.87126e-03,2.31371e-01,4.80503e-02,-2.64227e-01,1.93980e-01,1.97939e-02,-1.34475e-02,8.90175e-02,-7.11608e-02,8.88459e-02,-4.43643e-02,3.17286e-02,4.34677e-02,-1.52022e-01,5.21790e-15,7.67627e-02,1.88579e-01,3.33842e-01,-1.70971e-01,-9.05928e-02,-2.06924e-01,7.16891e-03,-5.01672e-02,-3.70732e-01,1.18941e-01,4.01818e-01,-1.43652e-01,2.64249e-01,1.64046e-01,2.79345e-01,1.02147e-22,2.22747e-01,1.01692e-01,1.00841e-01,-3.90912e-01,5.56502e-02,2.96105e-01,1.29566e-01,9.19295e-04,1.65555e-01,2.12272e-01,-2.21118e-02,6.14963e-02,2.41775e-02,4.22937e-02,-1.59181e-02,1.67203e-01,9.05442e-02,-3.21237e-02,
2.05268e-03,-2.69530e-01,-1.66116e-01,3.95566e-02,1.91366e-01,-2.82927e-01,2.68747e-01,2.40563e-01,8.91974e-02,-1.70093e-01,2.38752e-01,3.20174e-02,-9.47648e-02,2.91400e-01,2.81328e-01,-2.58483e-06,1.29701e-01,9.83451e-02,-2.67397e-01,-1.93070e-02,1.98132e-01,2.91849e-01,2.21522e-01,1.95967e-01,4.47073e-01,-1.80867e-01,-2.24539e-01,3.89665e-01,-2.44840e-01,5.94024e-02,-2.32055e-01,-4.37453e-33,-1.49683e-01,3.39976e-02,-4.96457e-01,3.87216e-01,1.00219e-01,-1.44244e-01,2.10104e-01,1.32124e-01,-1.77950e-01,-7.16243e-02,2.44463e-01,1.36540e-01,-1.18478e-02,-2.08736e-01,2.36696e-01,-8.14154e-02,1.07612e-01,1.94311e-01,
-1.63819e-02,-2.37616e-01,3.18161e-02,3.10153e-02,3.81356e-01,-2.31382e-01,2.42439e-01,1.00942e-01,-1.86457e-01,1.53397e-01,2.20969e-01,2.20073e-01,1.59820e-01,5.34796e-01,1.99649e-01,-1.76086e-11,4.08635e-02,1.18761e-01,1.87177e-02,2.28426e-01,3.68060e-02,3.64438e-01,1.00193e-01,2.54624e-02,4.36647e-01,-1.43390e-01,-2.69497e-01,3.77268e-01,-2.31625e-01,-1.22973e-01,-4.98279e-02,-1.83812e-36,-2.37189e-01,1.40424e-01,-4.46029e-01,-7.32822e-02,1.90412e-01,1.23330e-01,-8.11787e-02,3.16194e-01,-2.03988e-01,-2.67920e-01,2.09531e-01,1.82816e-01,1.48148e-02,2.32241e-02,1.75988e-01,-5.06372e-02,-1.33045e-01,2.38843e-01,
1.80631e-01,3.76365e-01,8.26601e-02,4.90414e-02,-5.56692e-01,4.34524e-01,-2.39713e-02,1.24974e-01,2.98424e-01,1.67157e-01,-2.30411e-01,-4.51823e-03,1.76689e-01,-3.45502e-02,-2.38296e-01,4.92311e-12,1.93947e-01,-2.23615e-01,1.97704e-01,-1.24720e-03,1.53041e-01,-4.96063e-01,-2.76099e-02,-1.52974e-01,-3.87012e-01,2.11396e-01,3.56565e-01,-2.90504e-01,1.65162e-01,-1.31973e-01,3.28206e-01,-6.69001e-37,-1.08201e-02,1.98649e-02,5.42939e-01,-2.01338e-01,-2.45492e-02,-6.30933e-02,-1.29199e-02,-3.05431e-01,-1.81423e-01,1.40066e-01,8.60233e-02,-1.93844e-01,-3.06490e-03,1.65674e-01,-1.93064e-01,2.21520e-01,1.74748e-01,1.23537e-01,
1.98412e-01,-1.14661e-02,-1.97255e-01,-7.15073e-02,-1.59598e-01,3.24786e-01,-7.16893e-02,1.00614e-01,5.14909e-02,-8.04877e-02,8.94762e-02,-1.49888e-01,9.63485e-02,-2.75359e-01,-2.27099e-01,3.48846e-07,-1.60288e-02,-2.57505e-01,2.28918e-01,-2.62239e-01,-3.09848e-02,-3.80813e-01,2.04193e-01,-5.13090e-02,-2.85731e-01,2.97746e-01,1.30433e-01,-2.93032e-01,3.34240e-02,1.99766e-01,-5.22089e-02,2.83878e-29,-1.06312e-01,1.28832e-01,1.78324e-01,-3.43641e-01,-1.06315e-01,3.54251e-02,-2.08297e-01,-1.58434e-01,2.49802e-01,-2.80789e-02,1.24286e-01,5.50044e-02,1.37085e-01,-1.25493e-01,-1.07701e-01,3.27871e-02,1.79300e-01,-1.37052e-02,
-1.62618e-02,4.86715e-11,-2.47622e-02,-2.55835e-02,3.96108e-11,-8.34600e-11,3.67382e-13,-2.52900e-02,1.58391e-09,-1.61115e-02,1.07046e-10,-2.34972e-02,-2.50023e-02,3.16436e-18,1.18652e-13,-1.50437e-30,-2.49052e-02,-1.14418e-02,-4.09895e-11,-2.48261e-02,-2.41613e-02,-1.97720e-11,-2.33168e-02,2.24566e-11,-1.46402e-13,-1.95581e-02,-8.45172e-12,-3.61637e-24,1.49337e-09,-2.52612e-02,-2.08498e-02,4.32195e-36,-1.18952e-02,-2.51587e-02,-1.24945e-02,7.17711e-12,-2.50606e-11,-1.92800e-02,-2.55750e-02,-2.04748e-02,-1.11372e-02,1.87065e-09,-1.71949e-12,-3.90999e-06,-2.23224e-02,-2.30602e-02,-2.69628e-14,-1.93979e-02,1.67374e-08,-2.50096e-02,
-3.44381e-02,3.22540e-01,7.39102e-02,-1.28480e-01,-2.24380e-01,2.17112e-01,2.84769e-02,5.53383e-02,-1.00601e-01,-2.19011e-02,1.92315e-02,-2.75003e-01,1.13804e-01,-1.14621e-01,-4.26797e-01,8.38118e-08,-6.20937e-02,1.61976e-01,1.32518e-01,2.72432e-01,-1.86883e-01,-2.76645e-01,1.05460e-01,-8.43746e-02,-2.50655e-01,1.22284e-01,3.27548e-02,-2.23594e-01,2.93159e-01,1.97185e-01,3.60204e-01,1.48285e-16,1.13739e-01,1.77135e-01,2.19036e-01,2.20246e-02,-1.89562e-01,-5.44801e-02,-1.31914e-01,-3.01747e-01,2.59575e-01,1.54469e-01,4.63988e-03,-1.72137e-02,7.23090e-03,1.23673e-01,-4.69727e-01,-6.45363e-02,-1.54598e-01,1.09776e-01,
2.52278e-01,-2.53603e-01,-5.72272e-03,1.23479e-01,3.22847e-01,-1.13226e-01,2.30309e-01,7.02913e-02,-7.52254e-02,1.84316e-01,2.62772e-01,1.19726e-01,8.54658e-02,3.50761e-01,2.71542e-01,4.94872e-37,-1.73894e-01,-2.18359e-01,-1.58553e-01,-3.15962e-02,1.33306e-02,2.53731e-01,1.73842e-01,2.38603e-01,4.75906e-01,1.90726e-01,-2.48689e-01,4.97781e-01,-1.29086e-01,-1.60042e-01,-3.20883e-01,-1.67929e-28,-1.79524e-01,5.71171e-02,-3.07247e-01,1.33248e-01,-9.69251e-02,1.27312e-01,1.18905e-01,4.62234e-01,-6.55716e-02,-1.45940e-01,2.57907e-01,2.93212e-01,-1.67983e-01,-9.27955e-02,1.42820e-01,4.49572e-02,6.33575e-03,1.07174e-02,
1.10276e-01,2.68741e-02,8.73326e-02,1.75241e-01,-1.71088e-01,3.23335e-01,7.87195e-02,1.14778e-01,2.24774e-01,-2.69509e-01,-1.40296e-01,1.50227e-02,7.81226e-02,1.06984e-01,-1.34524e-01,5.87402e-14,6.47347e-02,-8.16746e-02,-1.02738e-01,-8.23326e-02,-1.05270e-01,-3.40921e-01,1.31849e-01,-2.93415e-01,4.57042e-02,-3.46751e-02,8.66213e-03,-3.61032e-01,-1.15131e-01,2.03479e-01,4.02923e-01,1.65354e-11,-5.42823e-02,7.90605e-02,2.06334e-01,-2.11273e-01,-8.07560e-02,2.38217e-01,2.11773e-01,-2.21246e-01,4.05852e-02,2.65880e-01,1.21156e-01,1.08162e-01,-8.83530e-02,2.13043e-01,1.15278e-01,-9.53263e-02,2.58470e-01,-2.02844e-01,
-1.05554e-01,-9.86501e-02,-7.78989e-02,2.95639e-01,3.68097e-01,-2.88550e-01,-4.16950e-02,1.77447e-01,2.04910e-02,2.99301e-01,-5.63175e-02,-1.28256e-01,3.36197e-02,2.03947e-01,1.81733e-01,-3.46349e-10,7.39147e-02,1.46422e-01,-2.94601e-02,-4.19107e-02,2.23168e-01,3.95159e-01,1.17659e-01,-6.73786e-02,1.47159e-01,-3.15638e-02,-3.26621e-01,4.29630e-01,3.07613e-02,2.17892e-01,-9.58838e-02,1.43973e-35,-2.36881e-01,-1.50462e-01,-3.77246e-01,3.28231e-01,2.35079e-01,-1.40710e-01,7.00576e-02,3.80393e-01,-1.23727e-01,-2.16315e-01,-1.19858e-01,1.61525e-01,-1.34509e-01,1.89951e-01,-1.30466e-01,-3.99369e-02,-1.68392e-01,7.03331e-02,
3.49442e-02,2.92265e-01,2.13061e-01,1.60191e-01,-4.47502e-01,4.70097e-01,1.91418e-01,2.23613e-01,2.73393e-01,-5.56000e-02,-8.90452e-02,-2.50120e-01,-3.71953e-02,-2.96935e-01,-1.66722e-01,6.60596e-10,-1.30941e-01,8.02805e-02,3.28162e-01,-9.30457e-02,8.16335e-02,-3.96186e-01,-1.86281e-02,-1.51951e-01,-2.18172e-02,2.14590e-01,3.07325e-01,-2.26970e-01,-4.48823e-02,-1.02048e-01,1.89362e-01,1.23073e-25,1.37144e-01,1.22908e-01,2.48842e-01,-3.56769e-03,-1.40499e-01,-1.22094e-01,1.74523e-01,-3.01672e-05,1.75975e-01,1.92148e-01,1.35304e-01,-2.78626e-01,-4.60155e-02,-6.72176e-02,-3.25500e-01,-1.24820e-01,2.12695e-01,-3.66792e-02,
-2.20299e-01,1.38595e-01,-8.67381e-02,-6.07245e-02,-1.47937e-01,2.98426e-01,-2.69565e-01,-7.76299e-02,2.83922e-02,-8.07797e-04,1.02952e-01,-4.32258e-01,-2.00262e-01,-4.25061e-01,-3.83691e-01,-1.46525e-34,-6.65216e-02,2.03392e-01,-1.95206e-01,-3.44944e-01,1.73991e-01,-2.86315e-02,-6.45760e-02,1.94093e-01,1.26235e-01,2.21164e-01,-6.82071e-02,-4.18958e-01,-1.36148e-02,1.34729e-01,1.86186e-01,5.29864e-35,-1.84489e-02,1.81552e-02,1.22938e-01,4.12230e-02,1.55205e-01,2.04159e-01,-4.47006e-02,-3.87027e-01,-1.01628e-01,3.80744e-01,-4.64523e-01,-2.38312e-01,4.06985e-01,-8.98290e-02,-3.57571e-01,2.71549e-01,8.80564e-02,1.42602e-01,
1.47181e-01,9.80694e-02,1.69193e-01,-2.00610e-01,-2.25464e-01,1.21439e-01,-1.61797e-01,1.20048e-01,-1.27041e-01,1.76810e-01,1.54120e-01,1.76762e-01,-9.77229e-02,-1.71921e-01,-3.40868e-01,1.56147e-09,1.42770e-01,1.01169e-01,3.78730e-01,4.97678e-02,1.08848e-01,-4.67488e-01,-7.82821e-02,1.28558e-01,-2.27318e-01,1.29852e-01,3.53470e-01,-3.11971e-01,1.27197e-01,-2.22465e-01,5.78997e-02,-1.48248e-29,2.25772e-02,2.16076e-01,3.69092e-01,2.08348e-03,-1.88489e-01,1.16880e-01,-1.01693e-01,-2.26522e-01,2.75071e-01,3.53749e-02,-6.35458e-02,-1.71312e-01,2.16639e-01,-1.23196e-01,-1.50126e-01,-3.05305e-02,1.16163e-01,1.56138e-01,
2.19377e-02,-3.16522e-02,2.66069e-01,1.12051e-01,-7.75931e-02,3.20572e-02,2.11100e-02,-1.61012e-02,-1.25031e-01,2.80856e-02,-1.90739e-03,5.01505e-02,-1.20688e-03,-8.94065e-03,-7.16395e-02,-3.19478e-24,2.24620e-02,-1.82215e-01,-1.62600e-01,1.71428e-01,-1.44102e-01,-7.35890e-02,-1.16675e-01,-2.83941e-02,-6.03499e-02,-1.83467e-01,1.60781e-01,6.50332e-02,3.36504e-02,7.15375e-03,3.76335e-02,1.60606e-37,-5.68119e-03,-2.08601e-02,2.89735e-01,-1.36843e-01,-3.38809e-02,-7.52471e-02,-1.17513e-01,-2.09300e-01,-3.23092e-03,7.53820e-02,5.31145e-02,-3.57325e-02,1.41489e-01,-1.88625e-02,-6.35264e-02,-5.65303e-02,-1.54456e-01,-1.85855e-01,
2.13552e-01,1.30836e-37,-1.46081e-01,1.35367e-01,-3.44237e-37,-6.56279e-14,-2.51964e-02,-7.96522e-02,-1.10571e-24,-1.66396e-01,-1.20613e-12,-2.42338e-02,-3.40033e-02,3.05650e-29,-7.21078e-03,1.39742e-37,-5.39198e-02,-4.67172e-03,-5.91534e-02,-4.35572e-02,-9.13349e-03,3.09261e-35,-5.86792e-32,-1.01425e-01,1.06717e-25,1.90554e-01,-1.85821e-01,4.77126e-11,-4.68346e-37,-7.94904e-02,5.30375e-19,1.28784e-34,1.65579e-36,2.30955e-11,3.39827e-12,-2.34163e-13,1.17276e-16,-4.79159e-12,-1.00625e-01,-1.64922e-20,-1.47475e-01,-1.22333e-11,8.56016e-37,-4.15931e-24,1.28225e-01,-4.54974e-14,4.08579e-38,2.10858e-02,-3.44833e-21,6.71206e-04,
-6.68036e-02,5.00115e-02,-3.89321e-02,4.91306e-02,4.85223e-01,-2.70067e-01,-1.76168e-01,-1.12976e-02,-7.70735e-02,1.13677e-01,9.99437e-02,-7.44154e-02,-3.99458e-02,5.20775e-01,5.42384e-01,-1.96592e-07,-5.64134e-02,1.25896e-01,-2.94068e-01,1.75732e-01,1.47248e-01,2.95235e-01,5.64688e-02,-2.76226e-02,1.01301e-01,-4.30928e-02,-2.88035e-01,6.70795e-02,-2.45446e-01,1.50023e-01,-3.06963e-01,1.85184e-31,-2.47557e-01,-4.27949e-02,-8.98015e-02,2.64909e-01,1.81146e-01,2.81012e-01,1.43247e-01,4.17304e-01,-1.72600e-02,1.76135e-02,-4.75985e-02,3.28883e-01,-1.11625e-01,1.83279e-01,5.97497e-01,1.93012e-01,1.54572e-01,-1.92247e-01,
-1.08904e-01,1.40520e-01,-3.07550e-02,7.57664e-02,-8.53498e-02,4.85526e-01,2.75646e-02,1.81929e-01,6.81578e-02,-2.61095e-01,1.91832e-01,5.29295e-02,2.10500e-01,-1.04865e-01,-3.52261e-01,-1.52820e-20,-1.16284e-01,9.90207e-02,3.76917e-02,-6.53739e-02,-1.45904e-02,-2.85109e-01,1.16114e-01,1.75387e-01,-3.95665e-01,-2.53638e-02,1.82792e-01,-2.84252e-01,1.69823e-01,1.40445e-01,2.63295e-01,-5.77784e-38,1.80780e-01,-2.42765e-01,4.77029e-01,-8.98014e-02,-2.43667e-01,1.91971e-01,-2.43063e-02,-3.27625e-01,-1.42261e-01,3.35648e-01,-1.97339e-01,-2.65171e-01,-3.26820e-02,2.39279e-01,6.58488e-02,9.95602e-02,2.79873e-01,9.01028e-02,
1.14331e-01,2.07538e-01,2.61662e-01,-1.03507e-01,2.67045e-01,-3.57234e-02,2.74516e-02,2.80388e-01,3.06969e-01,1.64647e-01,9.61976e-02,2.27668e-01,1.23044e-01,5.68073e-01,3.86142e-01,1.37956e-22,9.67036e-02,-1.51762e-01,5.05891e-02,-2.37430e-01,2.12431e-01,-7.51809e-02,-3.08065e-03,-2.42850e-01,2.73493e-01,-3.63923e-02,-2.30310e-02,5.37846e-02,2.93123e-01,2.43442e-01,-1.29690e-01,-5.85415e-13,1.35996e-01,9.88109e-02,-2.87823e-01,4.39935e-02,3.68651e-01,2.85403e-01,-5.08396e-03,3.55634e-01,6.49851e-02,2.53692e-01,2.70539e-01,2.01557e-01,1.38832e-01,-8.57190e-02,2.76965e-01,2.50158e-03,2.55185e-01,6.47316e-02,
2.15856e-01,3.52941e-01,-3.57906e-01,-1.55187e-01,-4.34346e-01,1.93943e-01,2.98220e-01,-1.28655e-01,-4.11485e-01,8.18271e-03,4.19495e-02,-9.26080e-02,1.63253e-01,-2.77735e-01,-1.83896e-01,-3.47428e-29,-1.79131e-03,-1.55789e-01,3.33893e-01,-1.60775e-01,1.96087e-01,-5.49640e-01,1.69907e-01,1.51849e-01,1.20181e-01,1.82084e-01,5.25733e-02,-5.97878e-02,1.36900e-01,-1.56513e-01,3.93537e-01,-1.21868e-11,-1.23946e-01,1.74113e-01,2.75763e-01,-4.87000e-01,-4.34592e-02,-1.06920e-02,-1.47892e-01,6.03836e-02,-1.57000e-01,-2.60289e-01,-4.88946e-01,9.84355e-02,6.90993e-02,-3.65788e-02,-3.69562e-01,2.49617e-01,-4.24676e-02,2.11607e-01,
-2.42761e-01,5.88487e-02,3.16594e-02,1.63514e-01,-8.45448e-02,2.58583e-01,-4.52168e-02,1.07865e-03,-1.41086e-01,-1.68626e-01,-8.55191e-02,1.71406e-01,2.11808e-01,-2.39833e-01,-1.84036e-01,6.11371e-16,-1.33215e-01,-7.31881e-02,2.10228e-01,-1.67617e-01,-1.30531e-02,-1.23340e-01,1.58686e-01,7.39459e-02,-2.59419e-01,1.83125e-01,2.43391e-01,-1.18093e-01,2.19227e-01,1.20143e-01,1.58866e-02,-2.09934e-37,4.98353e-03,-9.26781e-02,4.07047e-01,-1.47699e-01,9.93343e-02,-8.90128e-02,1.12518e-01,-2.02342e-01,1.34775e-01,4.54752e-01,-5.39627e-02,1.70389e-01,-7.62213e-03,1.82225e-01,-1.34862e-01,-1.04190e-01,2.46075e-01,1.72508e-01,
1.24930e-01,1.48483e-01,6.46373e-02,1.54369e-01,-2.10319e-01,1.00342e-01,2.65132e-01,7.08190e-02,-4.01339e-02,-9.61809e-02,9.88973e-02,1.05492e-01,-6.04330e-02,-2.18673e-01,-3.14349e-01,-1.34829e-07,8.26851e-02,-1.11426e-01,3.21398e-01,-1.39166e-01,1.52181e-03,-3.77970e-01,2.10690e-01,-3.71497e-02,-2.94013e-01,1.20087e-01,6.53260e-02,-9.92606e-02,1.14850e-02,4.56178e-02,5.21105e-02,-2.52458e-34,8.92080e-02,1.09973e-01,3.57922e-01,2.60371e-02,4.54257e-02,1.67859e-01,-9.48059e-02,-2.10739e-01,2.34103e-02,2.49841e-01,-2.47771e-01,-1.93860e-01,2.08579e-01,-9.56115e-02,-1.18999e-01,1.66522e-02,-6.51321e-02,-2.18848e-01,
1.36199e-01,1.47595e-01,-2.35753e-01,2.02497e-01,6.91510e-02,1.21319e-32,8.59125e-02,-6.02731e-02,-1.01256e-01,2.62359e-01,-8.04956e-02,-2.81674e-01,1.04407e-01,4.00600e-03,-6.47348e-02,4.73308e-37,3.74732e-02,1.36586e-02,-2.87602e-01,-8.33112e-02,-8.96338e-02,-7.22353e-02,1.87094e-01,3.54536e-01,-1.64440e-01,-2.30467e-01,1.09808e-01,1.03130e-02,-3.04815e-01,1.63401e-01,5.16830e-02,-1.88888e-22,-2.20399e-01,-1.35385e-01,1.12264e-01,2.16630e-01,5.43787e-01,1.95750e-01,-1.77038e-01,4.34348e-01,6.70559e-02,-1.61263e-01,7.34220e-02,2.11173e-01,5.29837e-02,-1.78662e-01,1.65119e-01,-1.28719e-01,-1.06707e-01,-1.93887e-01,
1.50875e-01,5.03156e-03,3.48693e-02,1.14548e-01,-5.12961e-01,4.66874e-01,-1.83257e-01,-1.32982e-01,7.24124e-02,-6.90973e-02,-1.35932e-01,-1.33596e-01,1.91653e-01,-3.47280e-01,-3.33832e-01,1.24111e-09,2.82218e-01,2.96299e-03,2.39257e-01,-1.64291e-01,-1.26124e-01,-4.38392e-01,1.08494e-01,-8.84502e-02,-8.15954e-02,8.89944e-02,-3.13327e-02,-2.55199e-01,3.00794e-01,1.68073e-01,1.65985e-01,1.03475e-21,3.26983e-01,1.68892e-01,3.95323e-01,-7.75012e-02,-1.24853e-01,2.54840e-02,7.88137e-02,-7.62736e-02,1.29745e-01,4.38191e-01,-7.21311e-02,-5.13492e-02,2.17234e-01,9.85930e-02,-4.63664e-01,2.11955e-01,-2.06166e-01,9.09680e-02,
-1.90479e-01,-1.40813e-01,1.01126e-02,-2.01420e-02,3.89019e-01,3.29309e-02,2.44959e-01,5.82690e-02,3.11976e-01,-1.19942e-01,1.21810e-01,-4.39212e-02,1.87905e-01,4.80461e-01,1.97390e-01,-6.09099e-09,-2.92471e-03,1.47464e-01,-2.99362e-01,3.81561e-02,1.03144e-01,2.95999e-01,-6.76808e-03,2.83483e-01,1.62951e-01,1.40093e-01,-1.94548e-01,4.07813e-01,-3.25871e-01,-7.58966e-02,-3.60161e-01,3.72510e-18,-2.67089e-01,-1.65461e-01,-8.05061e-02,9.12280e-02,-8.46928e-02,1.17452e-01,2.34417e-01,4.44868e-01,1.35662e-01,8.78814e-02,-1.62320e-02,-1.57518e-01,-8.50649e-03,9.77999e-02,9.15494e-02,-1.01928e-01,-1.00297e-01,8.82490e-02,
-1.01000e-02,-2.53253e-01,3.53928e-03,-1.45837e-01,5.73825e-01,1.62621e-01,-1.17655e-01,-2.17066e-01,3.65117e-01,3.54504e-01,-4.49516e-02,1.72531e-01,1.84516e-01,4.04474e-01,5.51147e-01,-3.37480e-33,2.52514e-01,-2.26717e-01,-6.92756e-02,2.57852e-01,-8.60710e-02,4.23576e-01,-1.19893e-01,2.86057e-01,4.59822e-02,-1.62973e-01,-1.44458e-01,4.88938e-01,-4.03005e-01,2.14295e-01,-3.55010e-01,1.78024e-12,-3.39950e-01,7.51000e-03,-2.98322e-01,1.54389e-01,3.34479e-01,-2.19532e-01,-5.07051e-02,3.13084e-01,-1.59036e-01,-8.20351e-02,2.85541e-01,1.82513e-02,1.01393e-03,-4.32007e-01,3.70384e-01,2.02310e-01,1.60429e-01,1.39730e-01,
-4.33003e-02,2.07088e-01,2.61773e-02,-2.38889e-01,-1.87109e-01,5.00981e-01,-4.38043e-02,2.71366e-01,3.10504e-01,-2.65443e-01,-3.30872e-02,-2.61189e-01,6.97729e-02,-3.52221e-01,-4.49519e-02,2.88280e-08,-1.75640e-01,1.08892e-01,3.72027e-01,-2.86263e-01,-5.60051e-02,-2.32253e-01,9.44249e-02,-2.19706e-01,-3.26285e-01,-1.42006e-01,-5.14075e-02,-1.68197e-01,2.17959e-01,-6.30119e-02,2.99960e-01,1.61398e-38,1.22010e-01,2.18463e-02,1.68553e-01,-1.38795e-01,-1.37212e-01,1.91791e-01,9.96025e-02,-1.97783e-01,2.20978e-01,-6.94484e-02,1.04655e-01,-9.52480e-02,7.81921e-02,8.63987e-02,-2.91023e-01,-8.98625e-02,1.10349e-01,-5.50761e-02,
3.64256e-02,-2.54118e-02,4.83981e-02,8.57596e-02,-1.97466e-01,4.44005e-01,-3.41221e-02,-7.89432e-02,2.01048e-01,-2.05503e-01,9.71845e-02,-1.74426e-01,-2.45383e-01,1.02892e-01,-1.39648e-02,-2.63786e-11,4.25808e-02,3.16945e-01,1.92950e-01,-3.91785e-02,1.11234e-02,-4.20782e-01,-2.29377e-01,1.28831e-01,-3.55138e-01,-1.24115e-01,-3.75158e-03,-1.85698e-01,-5.16141e-02,1.55953e-01,9.67181e-02,-4.93596e-37,1.10100e-01,1.04817e-01,3.68407e-01,-2.88376e-01,3.75199e-02,1.86664e-01,-8.01790e-02,-3.77430e-01,2.70483e-01,2.37510e-01,-4.15853e-01,-1.20589e-01,9.24958e-02,-1.16675e-01,-8.44633e-02,2.78520e-01,4.72209e-02,1.07914e-01,
5.87889e-02,-1.33514e-01,-7.40726e-02,2.76115e-02,-2.07323e-02,2.02773e-20,6.99667e-14,-1.62912e-03,-1.54345e-01,-2.01940e-01,-3.65371e-03,-2.36892e-01,-2.17189e-04,9.51029e-27,1.87394e-01,5.73854e-28,-2.37180e-01,-1.82431e-01,-2.35728e-01,-4.16018e-02,-7.88335e-02,2.86983e-17,8.76265e-02,-7.46597e-02,-1.35050e-36,1.16033e-01,1.03829e-01,1.54474e-25,-4.68016e-02,-2.48882e-01,-8.24117e-02,5.73609e-37,-2.28310e-01,1.53877e-01,-1.75046e-01,-1.85259e-18,6.07499e-02,2.15003e-01,8.58665e-02,4.78080e-17,-2.65378e-02,-4.85601e-02,-4.27921e-02,-9.47450e-02,1.81170e-01,2.04984e-01,-2.01451e-33,-1.44634e-01,1.02391e-01,-1.53870e-01,
3.87244e-02,-1.08182e-02,1.07699e-01,1.08932e-01,3.69880e-01,3.27490e-02,-8.10960e-02,1.78462e-01,6.22325e-02,-1.77096e-01,1.49455e-02,1.98791e-01,2.18157e-01,2.80290e-01,5.93374e-02,3.79561e-07,1.36721e-01,-1.92497e-01,-3.12937e-01,1.20660e-01,1.25118e-01,1.92750e-01,1.74139e-01,-7.21873e-02,3.87014e-01,1.74256e-01,-3.42527e-01,3.52439e-01,-5.21620e-02,-1.56032e-01,-1.30531e-01,-5.27912e-33,-1.83569e-01,-8.94292e-02,-1.70837e-01,1.05633e-01,1.73891e-01,-1.60774e-01,-3.43888e-02,4.87558e-01,-2.85972e-01,-1.14449e-02,1.05018e-01,2.95119e-01,3.48366e-02,-1.28861e-01,1.59461e-01,-1.90340e-02,2.41080e-02,-5.19290e-02,
-2.26991e-02,3.07298e-01,8.86992e-02,-2.69119e-01,-4.51041e-01,4.46386e-01,1.47823e-02,3.35868e-02,-1.71379e-02,-3.48001e-02,3.18074e-02,1.36184e-01,2.26684e-01,-1.76049e-01,-2.42681e-01,1.40491e-07,2.58980e-01,1.40705e-01,-9.89622e-03,-1.16821e-01,4.73001e-02,-3.57815e-01,3.60438e-02,3.35745e-02,-3.12318e-01,1.14970e-01,-1.83986e-02,-4.12618e-01,3.27657e-01,1.26550e-01,3.99750e-01,2.89511e-21,-1.25130e-02,1.45561e-01,1.27304e-01,-2.04117e-01,-2.44320e-01,4.67731e-02,7.52748e-02,-3.28674e-01,-6.11455e-02,1.33654e-01,-2.82739e-01,1.03525e-01,1.21385e-01,2.64592e-01,3.20069e-02,-1.91438e-01,-1.70105e-01,7.15688e-02,
5.39350e-02,-9.37320e-02,1.76673e-01,1.23777e-01,6.90255e-01,-1.46771e-02,-6.36170e-02,-8.15963e-02,-1.80501e-01,1.23048e-01,3.12914e-01,1.06505e-01,-3.28044e-02,4.39043e-01,2.20334e-01,1.78328e-32,8.93979e-03,1.25162e-02,5.63010e-02,4.66866e-02,-1.14890e-01,2.01021e-01,2.05229e-02,-6.07874e-02,2.30497e-01,1.13774e-01,-3.15741e-02,4.74282e-01,-1.19266e-01,2.78028e-01,-1.81411e-01,-5.26848e-37,-2.14367e-01,2.34378e-01,-1.72331e-01,7.29066e-02,2.93732e-02,1.05846e-01,-5.23602e-02,3.97545e-01,-2.47865e-01,-3.22708e-01,2.77653e-01,2.66231e-01,-1.02555e-01,-1.97662e-01,5.26594e-01,-5.34276e-02,2.34382e-01,-7.17670e-02,
-1.36838e-01,-1.96591e-01,6.40206e-02,2.30099e-01,1.69348e-01,-9.37996e-02,-8.34168e-02,-1.93543e-01,-6.87097e-02,2.54681e-01,3.09800e-01,1.34403e-01,-8.28512e-03,5.49800e-02,7.10184e-03,4.65162e-09,2.13476e-01,1.60619e-01,-1.20103e-01,2.16263e-02,5.33361e-02,1.92699e-01,1.15900e-01,-1.27236e-01,7.39855e-02,-5.15131e-02,-2.55537e-01,5.05125e-02,-2.14108e-01,1.72394e-01,-1.30858e-01,2.39673e-18,-2.25679e-01,-7.46103e-02,-2.79360e-01,3.15937e-01,1.17590e-02,-3.50816e-02,2.18109e-02,3.52826e-01,1.77902e-01,-2.91096e-01,-2.83196e-02,3.43714e-01,2.53330e-02,-5.09196e-02,3.28211e-01,2.95798e-02,9.50356e-02,1.03969e-01,
1.84667e-01,-2.77646e-01,7.23512e-03,-2.19380e-01,-2.76010e-01,-1.67918e-01,3.16511e-01,1.59849e-01,2.83931e-02,2.17343e-01,3.99642e-02,4.04372e-02,-2.42221e-01,3.65191e-01,2.30963e-01,-8.68353e-33,-1.66663e-01,1.07343e-01,-1.67584e-02,-9.11044e-02,-4.89196e-02,8.51298e-02,-2.67476e-01,-2.90682e-01,2.94921e-01,1.57952e-01,-2.68514e-02,2.01175e-01,2.01241e-02,-7.14770e-03,1.33018e-01,3.81536e-17,-7.27122e-02,2.61312e-01,-4.73398e-02,1.01840e-01,-3.11760e-01,2.69828e-01,-2.00836e-01,-1.66999e-01,-2.14665e-01,-3.40885e-01,3.44885e-01,3.07026e-01,-5.51039e-01,1.40837e-01,1.26990e-01,-5.34768e-03,1.97225e-01,-2.20255e-01,
2.47626e-01,-5.27107e-01,-2.00912e-02,3.63874e-03,4.95469e-01,-2.38615e-01,2.33799e-01,2.06239e-01,3.35107e-01,-8.32537e-02,3.40859e-02,3.11400e-01,1.00314e-01,5.78033e-01,4.13034e-01,-2.12915e-37,-1.41962e-02,-4.47865e-04,-2.06086e-01,-2.30651e-03,1.82895e-01,2.58742e-01,2.92520e-01,7.02189e-02,7.33308e-02,4.79889e-02,-4.18819e-01,4.25909e-01,2.02344e-01,-1.25675e-01,-5.76462e-02,-3.58328e-37,-5.92025e-01,2.36240e-01,-4.20502e-01,3.42529e-01,9.92187e-02,-2.47760e-01,-1.63356e-02,5.55918e-02,-1.43730e-01,-8.78899e-02,1.21854e-01,2.15818e-01,-5.00366e-02,-1.95173e-01,7.18805e-01,-2.60703e-01,3.69519e-01,-8.92427e-02,
-1.55272e-01,1.90119e-01,1.07026e-02,-1.96669e-01,-1.80183e-01,2.50901e-01,-4.29141e-01,2.16658e-01,2.37838e-01,-4.41418e-01,-4.92330e-02,-2.35662e-01,2.88869e-01,-1.46428e-01,-3.07504e-01,1.30142e-07,3.26031e-02,-2.24352e-01,1.00824e-01,-2.83205e-01,1.01596e-01,2.09798e-02,-1.03525e-01,-7.28397e-02,-4.07427e-01,1.03185e-02,4.07097e-01,-2.94091e-01,3.25195e-01,5.46282e-04,2.69901e-01,-1.13895e-37,9.69829e-03,-1.73876e-01,-8.43392e-02,-1.82439e-01,-2.05054e-01,1.18887e-01,-8.98136e-02,1.71906e-02,3.01644e-01,2.94613e-01,-9.35153e-02,-7.35319e-02,-1.36997e-02,2.22106e-01,-5.87845e-02,2.27375e-01,1.27671e-01,-9.96308e-02,
1.50855e-16,-6.90382e-18,2.28847e-17,-4.30962e-16,1.73983e-16,-1.37492e-32,-1.77214e-13,1.31859e-15,-4.00533e-37,-2.15118e-15,7.18725e-24,7.38379e-16,-1.84090e-16,-3.26629e-16,3.97177e-14,1.42370e-36,1.11542e-17,-1.57267e-17,9.37829e-24,-4.29132e-14,4.94659e-16,-4.54642e-24,-2.09637e-24,-4.71017e-16,2.27769e-37,1.78558e-16,6.30811e-17,1.35709e-16,-8.07961e-14,-3.28045e-16,-1.76075e-16,-1.42445e-16,-1.24406e-16,-2.13093e-16,1.08865e-35,-1.73841e-37,2.83263e-16,-2.20162e-13,-4.53170e-16,-6.56560e-37,-2.32649e-23,-8.13583e-15,1.69838e-16,-3.13303e-15,-2.44809e-18,-1.07904e-16,-1.57254e-13,-1.84583e-17,-7.62075e-24,1.95848e-16,
-1.87289e-01,3.12670e-02,2.43780e-02,2.67843e-01,1.57201e-01,-5.56233e-02,1.03166e-01,-4.76900e-02,1.56737e-01,1.33346e-01,-6.98172e-03,1.25198e-01,5.79208e-04,5.11653e-02,1.54726e-01,-1.79530e-08,-2.53433e-01,1.27170e-02,3.56046e-02,1.86105e-01,2.88358e-02,3.42525e-01,-4.79187e-02,7.99236e-02,-5.85371e-02,1.34507e-01,1.02256e-01,1.58188e-01,8.36886e-02,1.69326e-02,-9.74750e-02,9.65222e-38,-2.74273e-01,-1.01762e-01,-5.08726e-02,1.98488e-01,1.91569e-01,-3.26657e-02,-1.11570e-01,2.77519e-01,-1.12431e-01,-4.12841e-01,1.82372e-01,7.29496e-02,-2.38838e-01,3.66698e-02,4.34187e-01,2.42529e-01,-1.52662e-01,1.50131e-01,
5.67072e-03,-2.90827e-01,2.10429e-01,6.81665e-02,5.46016e-01,-2.63592e-02,-1.26570e-01,1.83857e-01,2.59777e-01,2.42209e-01,3.10755e-01,9.48610e-02,-1.48203e-01,3.97386e-01,4.84176e-01,3.92564e-11,1.90524e-01,-9.40475e-03,-3.10697e-01,1.81632e-01,-9.96015e-03,3.40469e-01,-1.19029e-01,-1.51149e-01,3.46753e-01,1.53485e-01,9.40086e-02,7.84539e-02,-3.11815e-01,-1.45084e-01,-1.54968e-01,-2.63137e-33,7.74383e-02,1.88369e-01,-3.42385e-01,3.71150e-01,1.04729e-01,2.28901e-01,1.87607e-01,2.28625e-01,1.40509e-01,-1.20173e-02,1.73715e-01,-1.54147e-01,-2.43003e-01,-2.41404e-01,2.90781e-01,1.70931e-01,-1.21950e-01,3.37202e-02,
2.04287e-01,-3.93193e-02,1.22501e-01,1.61161e-01,1.31056e-01,-2.30577e-01,7.63392e-02,-4.13031e-02,2.26649e-01,2.81812e-01,-9.63722e-02,1.20013e-01,-2.03487e-02,2.69082e-01,9.99138e-02,-4.50478e-10,6.52802e-02,1.27991e-01,-2.81993e-02,2.16735e-01,-1.81970e-01,1.49244e-01,-1.31280e-01,1.80417e-01,5.99276e-02,1.68760e-01,1.91748e-01,1.52948e-01,-3.49285e-02,-5.46236e-03,-1.34882e-01,5.11925e-37,-2.90186e-03,-2.63306e-01,-4.48832e-02,-1.46871e-01,8.25721e-02,1.47249e-01,2.41222e-01,2.63026e-02,-4.52501e-02,-7.60039e-02,1.57009e-01,1.18752e-01,1.86905e-01,-1.90525e-01,9.77910e-02,-1.70203e-01,1.29042e-01,5.18233e-02,
-8.40914e-02,7.31991e-02,1.84229e-01,-2.87449e-01,-2.62674e-01,2.54042e-01,-1.97026e-01,1.95061e-01,6.61876e-02,-1.92345e-01,-1.32192e-01,-2.05644e-01,1.68268e-01,-3.96736e-02,-4.29298e-01,2.66552e-14,6.36958e-02,1.33126e-01,2.23396e-01,2.02740e-01,1.42580e-02,-3.31684e-01,-8.84997e-02,-1.53702e-01,-2.75088e-01,6.51547e-02,-1.00096e-02,-3.79399e-01,1.81935e-01,-1.50936e-01,9.06128e-02,3.52144e-29,2.03446e-01,6.72135e-02,9.06825e-02,-2.90218e-01,5.19729e-03,1.64260e-01,-5.78377e-02,-3.46437e-01,9.69010e-02,-6.34417e-02,-2.26121e-01,-9.78890e-03,3.11738e-01,1.05003e-01,-3.88284e-01,2.09325e-01,2.28819e-01,-1.71072e-01,
-1.35177e-01,3.11562e-01,-1.71210e-01,-1.57669e-01,2.18023e-01,3.32547e-02,-6.79007e-02,-3.03641e-01,8.42091e-02,-3.41296e-01,1.48392e-01,-3.44236e-02,1.58215e-01,1.20409e-01,-1.66417e-01,1.51129e-35,8.73460e-02,1.75165e-01,-7.82592e-02,-1.48151e-01,-2.39790e-01,1.20340e-01,-3.16162e-01,-8.70741e-02,1.22851e-01,-2.37132e-01,2.00447e-02,-1.74588e-37,2.85261e-01,2.01754e-01,1.48818e-01,-1.60587e-18,-1.10201e-01,-9.87449e-02,-1.74895e-01,-7.61948e-02,-3.42942e-02,-1.34380e-01,1.53738e-01,1.11464e-01,8.07815e-02,4.48284e-01,8.97226e-02,-1.34883e-01,1.37013e-01,-7.28506e-03,-7.55784e-02,-1.31599e-01,-1.39709e-01,1.94666e-01,
4.64279e-02,-3.55232e-01,4.11070e-03,3.25630e-02,3.30910e-01,-9.59008e-02,1.63533e-01,2.15462e-01,2.30856e-02,-7.64422e-02,3.36833e-01,-1.96109e-01,-1.46675e-01,2.55670e-01,3.03569e-01,-1.94442e-11,2.20640e-01,-1.61661e-01,4.90391e-02,-2.00627e-01,4.42489e-02,1.71176e-01,-3.22373e-01,1.73066e-01,4.24904e-01,-2.09062e-01,8.60693e-02,5.38026e-01,-1.17017e-01,6.58948e-02,-4.05695e-02,2.02585e-15,5.76372e-02,-2.10393e-01,-2.91361e-01,1.34536e-01,1.03552e-01,2.76127e-01,-3.23463e-02,2.00511e-01,-5.43104e-02,-2.61432e-01,3.80988e-01,3.54370e-01,-3.00310e-01,-1.43466e-01,4.03391e-01,1.04882e-01,-2.05665e-01,1.03727e-01,
2.38990e-01,4.83347e-01,2.96334e-01,2.27185e-01,3.79451e-02,3.76952e-01,-1.78036e-01,-1.75959e-01,2.02636e-01,-2.96638e-01,3.02417e-01,7.25580e-02,-3.01145e-01,-1.41795e-01,-2.45152e-01,1.02934e-07,1.05910e-01,-3.99565e-01,3.53867e-02,3.29146e-01,-1.74706e-01,-3.31781e-01,-4.75442e-01,-7.00191e-02,-2.35223e-01,8.14891e-02,1.90787e-01,1.36053e-01,3.34381e-01,2.39101e-02,2.09969e-01,1.75686e-14,2.88313e-02,-1.19172e-01,4.41594e-01,-2.37789e-01,3.15521e-01,7.98142e-02,-7.35318e-02,-1.94674e-01,-5.95760e-02,3.53527e-01,1.94003e-01,-9.06083e-02,1.36780e-01,-6.38468e-02,-2.56250e-01,-2.38270e-01,-1.97083e-02,-1.50709e-01,
-1.96279e-01,-2.54822e-01,1.08045e-01,-1.08776e-02,4.61622e-02,-2.38464e-01,-1.82275e-01,1.61115e-01,-8.87751e-01,-2.17350e-01,5.17024e-02,-1.32663e-01,-7.39815e-02,-1.34925e-01,1.79804e-01,3.17802e-21,2.23431e-01,-2.06882e-01,8.83941e-02,-3.07622e-01,1.06972e-01,-4.89041e-01,-6.52288e-01,-2.93579e-01,1.05338e-01,-4.22279e-01,-1.76646e-01,-2.17235e-01,4.26863e-02,1.15695e-01,-7.99887e-02,2.31392e-33,2.34532e-01,2.29742e-01,-1.19504e-01,-1.25311e-01,9.27295e-03,2.87410e-01,-1.74288e-01,-4.56334e-01,1.39164e-01,-2.72675e-01,1.66751e-01,-3.34457e-02,-5.81688e-01,-1.70403e-01,1.53024e-02,-2.93247e-01,-1.16588e-01,-1.25158e-01,
2.69164e-01,1.54837e-01,-2.14221e-01,-7.01258e-02,-4.79389e-01,2.79434e-01,1.91303e-01,-1.46632e-01,-6.43282e-02,1.68397e-01,-1.58031e-01,1.52321e-01,1.23218e-01,-4.09754e-01,-1.49398e-02,-8.25611e-10,6.51932e-02,9.88733e-02,1.66192e-02,1.32993e-01,-6.17165e-02,-4.91351e-01,-5.82744e-02,1.37604e-01,-6.54999e-02,1.30192e-01,3.92192e-01,-2.43476e-01,1.40705e-01,2.07510e-01,1.88433e-01,-7.84780e-34,-7.77782e-02,1.57566e-01,4.72987e-01,-3.95936e-02,9.25226e-02,-1.69733e-01,4.31257e-02,-4.22873e-01,2.20948e-01,8.37770e-02,-1.31759e-01,-7.27432e-02,1.14249e-01,3.37596e-01,1.10638e-01,1.00158e-01,1.51941e-01,2.97826e-03,
1.66102e-01,-3.86742e-02,-1.79033e-01,-1.38621e-01,1.65464e-01,-3.07652e-01,1.30977e-01,1.95845e-01,3.57567e-02,2.12030e-01,3.43266e-01,-1.11617e-01,1.62450e-01,2.11250e-01,3.33646e-01,-2.52660e-12,6.18558e-02,6.58892e-03,-3.02687e-01,-4.24137e-03,1.92744e-01,3.18469e-01,2.10121e-01,-1.29778e-01,1.34302e-01,-1.86976e-01,6.39705e-02,3.12629e-01,-1.43355e-01,-2.44515e-01,-2.34279e-01,2.64145e-11,8.01212e-02,-2.59852e-01,-1.85941e-01,3.27293e-01,1.91312e-01,1.98059e-02,1.78092e-01,1.18454e-01,-3.72134e-02,-4.42214e-01,2.52081e-01,-9.94957e-02,1.22135e-01,-1.70606e-01,3.15841e-02,2.38373e-01,-1.73087e-01,-1.63379e-02,
-6.41075e-03,
-4.57270e-02,
-4.73570e-02,
6.60580e-02,
1.19898e-01,
2.00889e-02,
2.07656e-03,
9.15055e-02,
7.57969e-02,
-2.61570e-02,
1.20063e-01,
3.05126e-04,
8.85184e-02,
-3.24280e-03,
7.95460e-02,
7.69932e-02,
9.98968e-02,
3.94500e-02,
-1.47970e-03,
2.57954e-02,
4.64544e-02,
9.73535e-02,
2.22764e-02,
4.23894e-02,
5.44894e-02,
-5.70687e-04,
8.41172e-02,
-5.73140e-02,
2.48757e-02,
9.56767e-02,
6.24003e-02,
-5.07436e-03,
-1.33287e-02,
6.09057e-02,
-3.89335e-02,
1.23339e-02,
1.06769e-02,
-1.61277e-02,
8.33244e-02,
1.32994e-15,
-7.67259e-03,
-2.84667e-02,
-1.85220e-02,
6.43506e-02,
2.23644e-02,
-2.83964e-03,
8.64982e-02,
-3.51507e-02,
1.09237e-01,
-3.45003e-02,
-1.28432e-01,3.55356e-02,-1.09022e-01,2.12200e-02,4.05920e-02,-2.82323e-01,-1.08545e-01,2.68635e-01,2.04538e-01,-8.97928e-04,3.75172e-03,-2.91635e-01,2.65976e-01,-2.20182e-01,1.22776e-01,3.70554e-01,2.52789e-01,-5.65088e-03,1.95889e-02,-2.00795e-01,5.82298e-02,1.36990e-01,2.22840e-01,2.59644e-01,-6.59125e-02,2.66360e-03,-9.81438e-02,-7.03152e-02,-4.63372e-01,3.65626e-01,3.12948e-01,-7.64823e-02,-3.31548e-01,3.02937e-01,-2.44727e-01,-3.04709e-01,-4.83106e-01,-2.11098e-01,3.98426e-01,-1.23798e-23,-2.00054e-01,7.63845e-02,4.25083e-02,2.43906e-01,1.15799e-02,7.37682e-02,3.08132e-01,-1.04190e-01,2.52234e-01,-2.62970e-01,
1.38141e-01,9.85928e-02,1.35019e-01,-3.76592e-03,5.97470e-03,1.06104e-01,8.87632e-02,-7.21531e-02,-5.26991e-02,9.68399e-05,-2.32995e-02,1.68555e-01,4.67151e-02,5.15472e-02,-6.45275e-02,-3.49531e-01,-4.99073e-02,-1.13821e-01,-1.69845e-35,8.33995e-02,-3.84930e-02,6.91941e-02,-2.49599e-01,1.92128e-02,-2.61314e-02,4.83641e-01,-2.60410e-02,5.00572e-02,4.08490e-01,-1.41046e-01,-9.01010e-02,1.96568e-31,1.64469e-01,-1.36638e-02,2.36317e-01,5.03355e-02,3.85992e-01,5.51160e-01,-3.18682e-01,-1.34733e-18,9.93062e-03,3.59254e-02,-3.43830e-02,-7.65003e-02,-3.31818e-01,3.29909e-01,-3.75832e-01,1.95013e-01,-6.20325e-02,9.94313e-03,
3.21692e-01,1.31425e-01,-9.76633e-02,3.85756e-02,2.05304e-01,2.97631e-01,-1.28274e-01,1.63149e-01,-1.22204e-01,5.17064e-05,1.16448e-01,4.07504e-01,-1.52637e-01,1.79112e-01,-7.21372e-02,-3.37074e-01,3.41047e-02,-1.12040e-01,8.76856e-04,5.74653e-02,-4.40224e-03,-7.29176e-02,-4.57784e-01,1.42203e-02,-3.36043e-01,3.10389e-01,2.13954e-02,-1.88447e-01,2.06873e-01,-3.41374e-01,-3.90106e-01,1.62460e-01,1.56966e-01,-8.19169e-02,6.17639e-02,-3.77235e-02,5.85885e-01,3.08849e-01,-4.13253e-01,2.57279e-18,-1.77842e-01,2.76150e-01,-2.57644e-01,-1.95171e-01,-3.00726e-01,3.20555e-01,-3.83100e-01,1.73126e-01,2.58440e-02,2.03215e-01,
3.92486e-02,-7.11509e-02,-1.69950e-01,6.16506e-02,-9.92655e-02,-3.25494e-01,1.45524e-01,1.62181e-01,-4.80257e-02,-1.73795e-04,2.72259e-01,1.01963e-01,-1.67279e-01,-1.52844e-01,-2.26776e-02,3.26505e-01,2.27451e-01,-4.32264e-02,-3.13563e-02,-4.67498e-02,1.19522e-01,1.25184e-01,8.63842e-02,1.42170e-01,2.08981e-01,8.98410e-02,1.93274e-01,-5.33658e-02,-4.28761e-01,2.36005e-01,2.18944e-01,-3.29871e-02,-3.49320e-01,2.87485e-01,-1.70841e-02,-9.85913e-02,-1.64380e-01,-4.05202e-01,2.43611e-01,-8.94111e-24,-6.02202e-02,2.70003e-02,2.30101e-01,-1.65474e-01,4.16290e-01,-1.19961e-01,1.60693e-01,-1.46280e-01,3.03898e-01,1.32353e-01,
3.17980e-01,1.45045e-01,3.28326e-01,-9.92661e-02,4.77468e-02,1.69627e-01,-9.94200e-02,2.81170e-02,-2.13426e-01,3.17545e-04,-1.25490e-01,1.86688e-01,-4.28939e-02,1.32532e-01,1.21921e-01,-5.87219e-01,2.86560e-02,-1.11045e-01,-6.38054e-37,2.55545e-01,6.36983e-02,8.66310e-04,-8.65009e-02,-1.64028e-01,-1.91486e-01,3.13323e-01,-1.06439e-01,2.25942e-01,3.56694e-01,-2.65627e-01,-7.58042e-02,-8.66558e-35,7.47078e-02,-2.36622e-02,7.39642e-02,1.01755e-01,4.01117e-01,4.99801e-01,-9.13015e-02,2.78329e-15,6.92215e-02,-5.15771e-02,1.19553e-01,-1.24939e-01,-3.17440e-01,7.72598e-02,-5.01930e-01,-1.95779e-01,-4.63757e-02,-8.94104e-03,
6.31985e-02,9.60549e-02,4.28583e-03,-6.00355e-02,-2.14416e-01,-3.52201e-02,-2.58109e-02,-4.44177e-02,-3.11880e-01,2.33440e-04,-1.48347e-01,3.87403e-01,9.32069e-03,-1.14997e-01,2.11443e-01,-1.97659e-01,6.97864e-02,-9.15656e-02,-5.28539e-13,3.40302e-01,4.66896e-02,2.05095e-01,-3.11342e-01,1.74860e-01,-2.16708e-02,4.57295e-01,5.13310e-02,-8.88093e-02,6.73431e-01,-2.10032e-01,-1.86766e-01,3.58718e-02,4.37924e-01,1.06567e-01,3.78089e-01,-5.99325e-02,4.51206e-01,5.75413e-01,-1.69817e-01,2.00333e-18,-9.70461e-02,-7.48821e-02,-2.60559e-01,-2.42264e-01,-1.21979e-01,4.55719e-01,-3.96949e-01,2.94481e-01,-2.84834e-02,2.62873e-01,
3.49172e-24,-2.29634e-35,-1.09016e-25,-1.12527e-38,-2.10908e-24,2.97757e-28,1.14501e-37,-1.08333e-35,3.40977e-27,-9.94819e-24,2.81238e-13,6.22224e-37,6.02267e-25,-4.63357e-37,1.04556e-30,-3.06010e-11,-5.54516e-12,-5.71874e-28,1.44592e-11,6.01037e-37,-6.57242e-24,-2.79464e-26,-6.12612e-37,-5.72885e-28,-3.01031e-37,-1.31360e-25,-5.44016e-37,3.67010e-37,-5.62314e-23,1.80705e-37,-1.50011e-37,1.88510e-30,-6.69933e-37,1.31880e-25,-9.10753e-35,-1.03462e-35,6.60206e-27,-5.69556e-35,3.01047e-37,-4.75025e-37,-1.43266e-11,4.94046e-29,-4.29286e-23,-1.57946e-37,1.20085e-24,3.32453e-38,-6.59178e-38,3.08395e-37,-7.69486e-19,1.17581e-37,
-1.67385e-01,6.79731e-02,-9.96526e-02,-1.35297e-01,1.39466e-01,-9.26350e-02,2.79127e-01,7.79729e-02,-2.73169e-01,3.70059e-05,-7.91695e-02,3.61389e-01,-1.83386e-01,1.17625e-01,1.33378e-02,-2.15135e-01,-2.48761e-01,-9.51607e-02,6.55727e-02,2.86190e-01,1.51636e-01,-2.41299e-02,-3.16243e-01,-1.11522e-01,-2.80927e-01,1.88556e-01,-2.26076e-01,-1.19826e-01,2.50730e-01,7.16157e-02,-1.04295e-01,5.88465e-02,1.41804e-01,1.52528e-01,3.23060e-01,7.51957e-02,2.73893e-01,3.19123e-01,-6.22162e-02,-2.73912e-12,2.37532e-01,1.70469e-01,-1.04702e-03,1.38007e-01,-1.90518e-01,1.61285e-01,-1.66894e-01,3.49752e-02,4.88272e-02,2.98223e-01,
-1.13170e-02,-2.54747e-01,-2.10940e-01,2.28733e-01,2.70693e-01,-1.36065e-01,-7.18738e-02,-5.51168e-02,3.74529e-01,-6.05814e-04,2.63061e-01,-3.23968e-01,-1.64115e-01,-2.53991e-01,1.83945e-02,4.01569e-01,-1.36034e-01,1.39345e-01,-7.01920e-13,4.13746e-02,1.26972e-01,4.47389e-02,4.80272e-01,-1.47544e-02,-6.27667e-03,-9.57524e-02,1.31355e-01,3.91228e-02,-3.68206e-01,4.20496e-01,7.63599e-02,1.10285e-01,-7.43022e-02,3.20460e-01,-1.28147e-01,1.63873e-02,-1.70476e-01,-3.60112e-01,2.24125e-01,7.23992e-24,-2.53932e-01,7.92163e-02,-9.62567e-02,2.70507e-01,-1.45847e-03,6.47190e-02,1.98232e-01,-1.14829e-01,8.87592e-02,-1.65121e-01,
-2.66295e-01,-3.39164e-01,-2.99462e-01,-9.35352e-02,1.89754e-01,-2.12929e-01,3.45127e-02,2.17050e-01,1.05607e-01,-3.96551e-05,-8.55747e-02,9.74869e-02,2.69493e-01,7.93540e-02,-1.52857e-01,1.01728e-01,1.04351e-01,2.04850e-01,4.08750e-02,-2.09586e-02,1.57456e-01,-2.05251e-02,5.12168e-02,8.75361e-02,3.03091e-01,-2.96084e-01,2.66336e-01,-2.01992e-02,-5.59003e-01,1.01890e-01,2.88547e-01,1.92496e-02,-2.54559e-01,-4.52712e-03,1.44568e-01,-3.36048e-01,-2.03269e-01,-4.89414e-01,3.60597e-01,-3.35824e-23,-3.19636e-02,-9.81080e-02,1.03754e-01,2.16489e-02,1.85618e-01,-2.62382e-01,3.73843e-01,2.34034e-02,2.99612e-01,-5.45422e-02,
1.27518e-01,2.19597e-01,5.37148e-02,-1.55803e-01,-2.32567e-02,2.56323e-01,3.38005e-01,1.37193e-01,-2.69721e-01,1.55283e-04,-3.03389e-01,-1.76389e-02,2.15430e-01,-1.51801e-02,-1.85056e-01,-2.32641e-01,-1.42965e-01,2.01521e-02,1.06431e-01,-5.58605e-02,-1.28209e-01,2.74373e-01,-3.67315e-01,7.95172e-02,-1.65914e-01,3.26849e-01,-1.34922e-02,-1.84534e-01,5.11194e-01,-2.51797e-01,-8.32425e-02,-3.66817e-02,2.75710e-01,-2.23292e-01,-4.08174e-02,9.68625e-02,4.90686e-01,3.54959e-01,-2.90496e-01,-2.86886e-15,2.36347e-02,2.67888e-01,-8.30638e-02,1.81412e-01,-1.15343e-01,1.89349e-01,-1.83113e-01,3.53219e-02,1.15670e-01,-2.10183e-02,
-1.15741e-01,-1.83417e-01,-4.88227e-02,1.34785e-01,4.73955e-02,-1.55781e-02,-2.37211e-02,5.03312e-02,-1.20748e-02,-3.38314e-04,3.61398e-02,-6.47402e-02,5.93098e-02,1.64359e-01,1.17601e-01,3.22792e-01,2.21419e-01,1.15598e-01,2.71805e-11,1.17792e-01,-1.05829e-01,-1.98288e-02,2.26326e-01,6.69649e-03,3.17188e-02,-3.90217e-01,6.17348e-02,1.31469e-01,-4.80662e-01,2.61351e-02,1.89553e-01,-2.53654e-34,-8.48605e-02,-1.13057e-01,-2.11673e-01,1.67848e-01,-2.16841e-01,-2.97523e-01,3.97384e-01,1.12177e-23,-1.29973e-01,2.04005e-01,-7.11446e-02,1.22851e-02,3.54148e-01,-3.78443e-01,4.90019e-01,-1.70627e-01,2.00722e-01,-1.30459e-01,
2.72556e-01,5.46063e-02,3.37600e-01,-7.26808e-02,1.47775e-01,3.21097e-01,-1.21290e-01,-8.88201e-02,-2.03544e-01,1.76531e-04,1.46627e-01,3.39992e-01,1.99084e-01,-6.88839e-02,-2.42873e-01,-4.18380e-01,-2.05595e-01,-1.66591e-01,-1.16051e-16,2.19537e-01,-8.68473e-02,-1.23027e-01,-1.70090e-02,3.36222e-02,-1.36285e-01,4.00250e-01,-7.25331e-02,-7.57834e-02,4.11533e-01,2.06620e-02,-1.71005e-01,-1.68373e-01,-6.12119e-02,4.76964e-03,2.29230e-01,1.92098e-01,5.01398e-01,5.86981e-01,-4.77285e-01,3.97785e-18,2.44560e-01,2.18761e-01,1.07714e-01,-2.17037e-01,-1.98046e-01,2.81214e-01,-2.53846e-01,3.76195e-01,1.93431e-01,-1.55944e-01,
-1.18498e-02,1.46202e-01,5.72891e-02,-1.19577e-01,1.60966e-02,2.40458e-01,1.80951e-02,7.15291e-02,-1.73469e-01,3.03612e-04,-2.96305e-01,2.85817e-02,2.26908e-01,-1.09615e-02,-1.05567e-02,-2.57698e-01,8.91629e-02,-2.01354e-01,6.37377e-02,1.67850e-01,1.38444e-02,2.48258e-01,-4.13743e-01,4.68023e-02,-2.22785e-01,3.34275e-01,3.78358e-02,2.00600e-01,4.06778e-01,1.65810e-03,-1.93633e-01,-1.02898e-01,1.28934e-01,-2.05940e-01,1.40293e-01,2.19709e-01,3.97837e-01,4.01923e-01,-3.35033e-01,2.75444e-18,-1.31341e-01,2.75911e-01,-2.01273e-01,-1.86288e-01,-2.52248e-01,1.15547e-01,-5.25728e-01,3.65930e-01,-8.84774e-02,2.37794e-01,
-6.66652e-02,9.68822e-02,2.34934e-03,1.44394e-01,-1.60948e-01,-2.68810e-02,-2.71854e-02,-1.74976e-01,-6.98056e-15,9.74645e-13,-2.58717e-02,-2.62401e-02,1.97940e-01,-2.75335e-02,-4.07182e-02,4.32053e-02,-7.64757e-02,-3.57676e-12,-6.27379e-30,-2.74509e-02,-1.33763e-01,-4.65248e-02,-9.10583e-17,-8.75622e-02,-2.45859e-02,-2.22816e-02,1.45268e-01,-1.61036e-01,-2.74308e-02,-7.69563e-02,2.19187e-01,-4.49135e-13,-2.52454e-02,-1.23297e-01,9.91886e-02,-2.73998e-02,8.38927e-31,-6.55069e-26,-1.18984e-01,2.73427e-37,-2.72546e-02,9.94916e-02,-1.56130e-01,6.80208e-02,1.31325e-21,-2.23420e-01,-3.37292e-26,2.11219e-01,-2.72582e-02,4.62806e-02,
2.77681e-01,-1.09807e-01,3.16023e-01,1.60134e-01,-6.61560e-02,1.94302e-01,5.01322e-02,-1.39685e-01,-1.52176e-01,4.95180e-05,1.33431e-01,2.44944e-01,6.72376e-02,1.33836e-01,-7.59365e-02,-2.44937e-01,5.37586e-03,-1.52660e-01,9.73709e-03,1.96626e-01,-2.33583e-01,1.61644e-01,-1.09838e-01,1.77930e-01,2.34991e-02,7.13621e-02,-2.29158e-01,-1.27661e-01,1.61146e-01,-3.51639e-01,-2.70989e-01,1.95546e-01,7.73866e-02,-1.96930e-01,2.09625e-01,-1.00083e-01,2.72799e-01,5.07808e-01,-4.71941e-01,1.29780e-18,2.17550e-02,2.04600e-01,2.75910e-02,-5.38129e-02,-2.67144e-01,4.73845e-02,-2.40256e-01,4.05333e-01,8.13576e-02,1.44438e-01,
2.47415e-01,2.22795e-01,4.55187e-02,1.04169e-01,1.60540e-01,2.39360e-01,2.97916e-01,-1.56943e-01,-1.70151e-01,8.57162e-05,-2.01501e-01,1.40530e-01,-1.41832e-01,1.65852e-01,1.00702e-01,-4.74303e-01,4.22303e-02,-1.81680e-01,-1.30937e-02,2.48400e-01,6.50116e-04,7.50154e-02,-3.27055e-01,-2.11675e-01,-9.21680e-02,4.74621e-02,-1.80672e-01,-1.74575e-01,1.95484e-01,-2.18700e-01,-6.11880e-02,2.03544e-01,2.79276e-01,-1.10087e-01,3.53224e-01,-7.65685e-02,4.26493e-01,5.06776e-01,-2.72382e-01,2.30622e-18,1.14538e-02,1.64271e-01,2.48577e-01,-2.26473e-01,-4.41542e-01,4.01224e-01,-2.11139e-01,4.00884e-01,1.03743e-01,1.62103e-02,
5.05083e-02,5.20699e-02,-2.09749e-01,-2.11986e-01,-1.73247e-01,-7.67449e-38,-3.26320e-02,-4.05679e-02,1.05066e-01,3.66442e-26,-2.06530e-01,-1.50125e-01,-1.31388e-03,8.97018e-35,1.78207e-01,7.12437e-02,-1.17527e-01,-3.88264e-37,-3.75976e-14,1.57960e-01,1.48128e-01,5.17259e-02,-1.56020e-01,1.76923e-01,2.22925e-02,4.83503e-02,-1.00945e-01,-1.73947e-01,-8.23321e-33,-1.45033e-01,2.31199e-01,3.52074e-12,-1.61888e-01,1.66511e-01,-1.75658e-01,-3.04132e-24,-1.21327e-01,2.64710e-11,-1.56156e-01,2.96064e-11,-2.25062e-01,-1.75024e-01,5.42948e-02,-4.84358e-02,-5.81598e-02,1.94285e-01,1.45595e-01,-1.44402e-01,9.16463e-02,-1.68710e-01,
2.98523e-02,3.12972e-02,5.83894e-02,1.46336e-01,1.61514e-01,2.25587e-01,2.18464e-01,-9.82130e-02,-1.78535e-01,5.83178e-04,3.72122e-02,3.43305e-01,7.89430e-02,8.00743e-02,-2.39911e-01,-6.96854e-02,4.93898e-03,-9.90418e-02,1.03854e-01,3.28717e-01,-2.23333e-01,3.02498e-02,-3.01042e-01,-1.23749e-01,-2.64203e-01,1.01856e-01,1.80165e-01,2.44185e-01,1.84160e-01,-1.50506e-01,-3.15604e-01,9.67014e-02,1.94955e-01,-1.04100e-01,5.62198e-03,2.48877e-02,5.46579e-01,4.50976e-01,-4.19507e-01,-3.72020e-18,2.52190e-01,3.52629e-02,1.08554e-01,-6.62422e-02,-3.32302e-01,2.84252e-01,-5.18527e-01,2.00417e-01,1.84514e-01,7.37025e-02,
-6.85077e-02,-2.46157e-01,-3.40531e-02,-9.46754e-02,-1.43039e-01,-9.19179e-02,9.82799e-02,1.03139e-01,-4.42725e-02,-1.23485e-08,2.75943e-01,1.05265e-01,6.48861e-02,1.60012e-01,9.38150e-02,9.28346e-02,1.17034e-01,1.45421e-02,-5.91610e-02,7.13646e-02,2.22449e-01,-2.19856e-02,1.24562e-01,-9.10307e-02,2.26842e-01,-3.85315e-02,2.48554e-01,6.11011e-02,-4.23470e-01,1.98072e-01,1.47536e-01,1.36012e-01,4.27312e-02,1.00528e-01,-1.88045e-01,9.11324e-02,-1.27761e-01,-2.24062e-01,2.87745e-01,-2.13702e-24,7.30934e-03,1.74916e-01,-1.63072e-01,2.12433e-01,1.98615e-01,-1.00341e-01,2.32898e-01,4.95426e-02,1.04186e-01,-2.38616e-02,
3.94043e-02,-3.19039e-01,-1.08348e-01,2.49984e-01,-7.51961e-03,-2.55506e-01,-1.72577e-01,-2.38266e-02,-8.83287e-02,-6.74787e-04,2.22663e-01,7.95632e-02,7.98943e-02,-1.01554e-01,2.90041e-01,5.16088e-01,1.99893e-01,1.21081e-01,-3.10863e-02,-2.84090e-01,1.63867e-01,-1.36778e-01,-9.59313e-03,2.20614e-01,7.98659e-02,-2.68866e-01,7.75202e-02,2.94225e-02,-2.86240e-02,-5.30738e-02,1.76213e-01,-8.48989e-02,-4.01202e-02,1.81533e-01,-1.99817e-01,1.48456e-01,-4.48558e-01,-4.29843e-01,4.39366e-01,3.54688e-12,2.32660e-01,5.68871e-02,8.72953e-02,-2.01085e-02,2.02244e-01,-2.87061e-01,6.20329e-01,-1.82330e-01,3.12163e-01,1.85285e-01,
2.95364e-01,7.33846e-03,5.23520e-02,-8.92770e-02,-2.63084e-01,1.63418e-01,3.11718e-01,-4.21201e-02,-3.72697e-02,5.51131e-06,1.19123e-01,8.67645e-02,-9.14681e-02,-4.19395e-02,-3.01866e-01,-3.23261e-01,7.00442e-02,-2.31237e-01,-7.86999e-02,-8.25057e-02,1.09877e-01,2.20186e-01,-1.24803e-01,1.41435e-01,-2.91238e-02,1.04043e-03,-2.35731e-01,3.61153e-02,5.41195e-01,-3.55533e-01,-1.38990e-01,-1.86485e-01,1.76152e-01,1.60758e-01,-1.02161e-01,2.90310e-02,1.99432e-01,6.05662e-01,-3.65419e-01,-2.76945e-18,3.31928e-02,2.55196e-01,1.78899e-01,4.95191e-03,-1.93288e-01,3.25537e-01,-5.49081e-01,3.88243e-01,1.74716e-01,1.94885e-01,
-1.55397e-01,-1.56293e-02,-1.24519e-01,9.72452e-02,2.06207e-01,-2.59264e-01,-1.79257e-01,1.40957e-01,2.74925e-01,-1.84248e-04,4.89015e-02,-5.18753e-02,1.09311e-01,9.03301e-02,-1.12020e-03,1.62056e-01,1.22686e-01,1.41986e-01,2.40022e-19,5.05969e-02,8.01946e-02,1.98215e-01,5.79917e-01,9.18384e-02,2.59229e-01,-3.85070e-01,7.81613e-03,-2.54811e-01,-5.65377e-01,4.67591e-01,6.60596e-02,2.98903e-15,-2.46527e-01,1.76585e-02,-1.05641e-01,-3.07703e-02,-3.12228e-01,-5.49246e-01,4.70225e-01,-3.39650e-22,-7.28631e-02,-1.91462e-01,4.71057e-03,8.95367e-02,2.97703e-01,6.81212e-02,5.75794e-01,-2.49615e-01,-3.05112e-02,-9.36070e-02,
4.04304e-02,6.95760e-02,3.27305e-01,-7.62859e-02,1.54627e-01,1.59991e-01,5.21013e-02,-7.05094e-02,-1.01642e-01,3.04018e-04,9.84108e-02,2.85195e-01,7.28058e-03,1.87077e-01,-2.79822e-01,-1.27236e-01,1.57822e-01,-1.09412e-01,-3.93862e-02,2.51537e-01,-2.21434e-01,2.89130e-01,-6.14649e-02,1.22012e-02,-1.94226e-01,4.36106e-01,-8.86269e-02,1.45316e-01,3.54801e-01,-2.32968e-01,-1.92341e-01,-3.95016e-31,1.81293e-01,-2.23245e-01,8.83581e-02,1.18113e-01,5.28759e-01,5.99457e-01,-3.65009e-02,-3.10520e-18,-1.42626e-02,5.82076e-02,2.65369e-02,-1.67520e-01,-2.64210e-01,1.86682e-01,-4.74343e-01,4.14335e-02,-2.23137e-01,1.93777e-02,
3.84910e-02,-2.88944e-01,3.96424e-02,1.50964e-01,-6.17371e-02,-3.02212e-01,-1.75267e-01,2.91268e-01,-3.18294e-02,-9.82739e-04,3.56352e-02,-1.99343e-01,1.65389e-01,-2.49316e-01,-4.12766e-02,4.82874e-01,1.24802e-01,3.75289e-02,3.53073e-02,-5.69633e-02,-4.07235e-02,8.12094e-02,4.18017e-03,2.88761e-01,6.58200e-02,-2.25898e-01,-1.83843e-02,-3.32029e-01,-3.23939e-01,-1.15925e-03,1.94983e-01,-7.92251e-02,-2.46133e-01,2.90958e-01,9.13365e-02,-7.01316e-02,-3.09509e-01,-2.69497e-01,2.19551e-01,-1.58460e-23,-2.42019e-02,-1.83424e-01,1.88800e-01,1.43375e-01,2.17326e-01,-2.88033e-01,3.73459e-01,-1.99159e-01,2.61372e-01,1.48264e-01,
-3.18054e-02,3.57606e-01,1.50123e-01,-1.34994e-01,1.26567e-01,2.68492e-01,7.79293e-02,4.42273e-02,-1.94783e-01,4.23379e-05,-5.01199e-02,3.25330e-01,1.51926e-01,-6.08760e-02,-2.67868e-01,-4.63327e-01,-1.79590e-01,-1.07891e-01,8.22338e-17,2.41839e-01,2.38029e-02,2.99965e-01,-3.58670e-01,-8.07334e-02,-1.24705e-01,4.10004e-01,-2.63565e-01,2.26794e-01,5.08256e-01,-4.81304e-02,-3.60765e-01,-2.47960e-10,3.59713e-02,-1.26583e-02,2.78969e-01,-8.98633e-02,4.74009e-01,5.97864e-01,-1.51424e-01,-3.33094e-18,-4.49828e-02,-1.77773e-01,7.79181e-02,1.15490e-01,-2.90642e-01,9.29800e-02,-3.05611e-01,3.78219e-01,9.64822e-02,-8.76528e-02,
-1.79065e-01,-5.84450e-02,1.66008e-01,1.44301e-01,-4.79555e-02,1.80464e-01,2.58152e-01,5.24813e-02,-3.30953e-01,9.42372e-05,-3.23824e-01,4.27902e-02,-1.29622e-01,1.67659e-01,-4.48919e-02,-3.11076e-01,2.56426e-02,7.53344e-02,1.83366e-04,2.39758e-01,-2.77559e-01,2.01524e-01,-9.97729e-02,2.19986e-01,-3.24990e-02,3.17907e-01,1.00319e-01,7.83204e-02,2.92391e-01,-2.28823e-01,1.32037e-01,-1.69704e-01,9.72187e-02,1.36530e-01,-6.68833e-04,-4.15423e-02,2.79329e-01,2.46859e-01,-2.93960e-01,8.27662e-19,2.74147e-01,8.77840e-02,1.77891e-01,-1.09532e-01,-1.38513e-01,2.53230e-01,-1.65947e-01,5.46009e-02,-4.42268e-02,5.74273e-02,
2.79415e-01,-1.19128e-02,1.48479e-01,1.93970e-02,-1.33294e-01,2.56764e-01,3.51581e-02,-4.70274e-02,-3.08846e-01,1.68447e-04,5.34110e-02,3.67467e-01,-1.66289e-01,-1.47606e-01,-1.59854e-01,-3.12409e-01,1.67894e-01,-2.43748e-01,-1.96701e-02,1.50566e-01,1.67962e-01,1.91820e-01,-3.26631e-01,7.25095e-02,5.01338e-02,1.81463e-01,-2.00308e-01,1.41026e-01,3.17286e-01,-1.68321e-01,-7.61788e-02,1.32304e-01,3.75603e-01,5.00001e-02,1.48215e-01,2.60375e-01,2.68582e-01,4.06897e-01,-4.79538e-01,-3.84402e-18,-3.08007e-02,6.10186e-02,1.08851e-01,-2.83069e-01,-3.55515e-01,3.68444e-01,-4.73316e-01,4.29371e-01,1.16535e-01,8.50452e-02,
-1.19177e-01,1.42112e-01,-1.59028e-01,-4.05378e-02,2.98748e-01,6.28833e-03,-8.77804e-02,1.42822e-01,1.58626e-01,-9.22827e-04,3.23062e-01,-3.59903e-02,-8.94608e-02,7.05748e-02,1.49640e-01,3.45675e-01,1.06212e-01,1.14376e-01,3.44711e-02,-2.16534e-01,-9.01702e-02,1.91194e-01,2.15718e-01,9.81636e-02,9.47028e-02,-2.26262e-01,1.85448e-01,-2.52223e-01,-2.39423e-01,-5.63393e-02,1.24228e-01,1.70687e-03,-2.83313e-01,-1.65688e-01,-1.59009e-01,-9.52941e-02,-1.97861e-01,-4.60835e-01,3.97289e-01,1.06977e-12,-1.07626e-01,2.13563e-02,-4.38945e-02,-8.65816e-02,5.07184e-02,-2.24654e-01,5.56093e-01,-1.37956e-01,2.33860e-01,1.71210e-01,
-1.65209e-01,1.12120e-01,-1.46720e-01,-1.64700e-01,-2.55240e-01,9.66994e-02,1.20100e-01,1.88892e-01,-4.99332e-02,-2.33799e-18,1.99111e-02,-9.29329e-02,-1.12196e-01,-8.86259e-02,8.25606e-02,4.11538e-02,-9.02414e-02,6.80587e-02,4.45735e-13,9.74468e-02,-1.37061e-01,2.26137e-02,-1.92863e-01,1.87650e-01,1.71829e-01,-2.27019e-01,-1.21748e-01,-3.92078e-02,9.50010e-02,1.00663e-04,-1.29186e-01,1.09851e-01,-4.04743e-02,-1.41176e-01,2.15405e-01,4.36828e-02,-9.00948e-02,1.52902e-01,-1.43215e-01,9.21561e-38,9.71464e-02,4.65871e-02,-4.77282e-02,-1.92030e-01,3.43469e-27,-4.47618e-02,9.82572e-02,1.37367e-14,-1.89494e-01,-2.12587e-01,
-9.10207e-02,1.07765e-02,8.86757e-02,-1.08286e-01,-1.69669e-02,2.04744e-01,1.81666e-02,3.84072e-02,-2.31465e-01,2.50243e-04,3.29822e-02,8.28995e-02,8.73266e-02,-1.45320e-01,-1.76939e-01,-3.62899e-01,-1.29252e-02,1.05469e-02,1.14955e-01,2.04775e-01,-8.56894e-03,1.84801e-01,-2.77223e-01,-2.21464e-01,-2.51087e-02,8.53925e-02,-1.72394e-01,4.92432e-03,2.31702e-01,-8.19229e-02,-7.27399e-02,-7.62242e-02,-7.32145e-02,-6.10202e-03,1.64454e-01,2.67788e-01,4.08165e-01,4.42641e-01,-3.71898e-03,1.54693e-18,1.08814e-01,2.29005e-01,1.29869e-01,5.77960e-02,1.96036e-02,3.82296e-01,-3.53175e-01,3.64914e-01,-1.00749e-01,2.82491e-01,
6.97913e-02,2.62453e-01,1.48264e-01,-3.30126e-02,-7.07424e-02,2.85687e-01,9.81517e-02,5.51001e-02,-2.61663e-01,5.22587e-06,-1.88547e-01,2.98128e-01,1.33662e-01,1.15221e-02,1.30367e-01,-4.85077e-01,-2.32763e-03,-1.09764e-01,-9.91226e-03,-3.70658e-02,3.65761e-02,-1.41525e-02,-2.96444e-01,-1.75257e-01,4.32675e-02,2.62158e-01,-7.49244e-02,-2.81259e-02,1.21619e-01,-2.15894e-01,-2.85618e-01,-1.76324e-01,3.64606e-01,-8.46802e-02,7.89692e-02,2.21798e-01,5.25958e-01,5.87128e-01,-1.30556e-01,1.30985e-18,2.78452e-01,2.60775e-01,-2.17923e-01,2.04782e-01,-1.95190e-01,2.89693e-01,-3.74742e-01,2.65919e-01,6.12384e-02,4.74782e-02,
2.49166e-01,-9.07674e-02,1.73115e-01,-1.51263e-01,-1.30785e-01,1.77161e-01,1.73944e-01,-3.29772e-02,-2.58905e-01,1.01860e-03,-2.69610e-01,1.43400e-01,2.84021e-01,4.34675e-02,1.05036e-01,-5.46671e-01,3.02445e-02,-1.13055e-01,-9.30292e-23,-3.57766e-03,-2.19484e-01,3.30828e-02,-1.30483e-01,-1.18217e-02,-3.67232e-02,4.52266e-01,2.16965e-01,9.48657e-02,2.57416e-01,-9.33282e-02,9.35770e-02,-5.28595e-37,3.44204e-01,-8.60343e-02,1.57462e-01,2.03187e-03,2.26068e-01,2.87858e-01,-1.04754e-01,-5.03159e-18,-1.20625e-01,-1.12086e-01,-2.19859e-01,-1.26244e-01,-3.46161e-01,4.40155e-01,-2.42990e-01,3.18945e-01,1.24620e-01,2.44580e-01,
1.33824e-01,-7.11710e-02,-8.40835e-03,2.61841e-01,6.25827e-02,-8.87313e-02,-3.30683e-01,7.46295e-02,6.88041e-03,-6.34712e-04,1.04555e-01,-2.21956e-01,2.50434e-01,1.20167e-02,2.94559e-01,3.66954e-01,2.64312e-01,2.00395e-01,5.06852e-02,-5.88329e-02,1.35408e-01,1.20856e-01,3.69841e-01,5.49675e-03,6.30839e-02,-2.99736e-01,2.15203e-01,-2.63014e-01,-3.63621e-01,3.13314e-01,-4.65992e-02,2.45998e-01,8.77796e-02,1.21849e-01,-1.51095e-01,-3.21146e-01,-7.55166e-02,-4.49570e-01,4.29930e-01,-3.03448e-12,-2.36394e-01,-1.78980e-02,-1.82348e-01,-3.98140e-02,3.41223e-01,-8.12689e-02,3.37692e-01,-3.11250e-01,1.24846e-01,-1.24325e-01,
-7.46114e-09,-1.34618e-19,-1.25994e-13,3.00651e-18,3.58712e-16,-2.82457e-09,1.74374e-18,-1.76828e-17,-4.33015e-18,2.21657e-15,-1.06140e-09,3.21317e-18,3.87134e-15,2.72079e-18,-4.89239e-09,7.59782e-19,6.39940e-18,-5.25312e-30,-5.94596e-13,2.23692e-18,5.84076e-18,-4.14044e-08,-1.28966e-10,-1.82698e-08,-7.71227e-09,-3.33857e-33,8.21750e-16,-1.51807e-18,-4.05647e-19,2.38674e-18,-2.28222e-18,-1.73354e-37,-4.72694e-19,4.59671e-18,-6.73959e-12,-2.15296e-10,-1.01629e-13,-1.45452e-18,7.45379e-18,-5.31310e-29,3.52858e-15,-4.43943e-18,-3.10417e-18,1.59759e-18,-7.03857e-35,-9.67562e-19,-8.15593e-19,2.22972e-19,-4.04811e-16,-2.31470e-17,
1.32849e-01,-1.34490e-01,2.37315e-01,-1.82870e-01,-1.20654e-01,2.96825e-01,1.30453e-01,-2.38205e-01,-8.00100e-02,2.98877e-06,3.36512e-02,1.10121e-01,1.09479e-01,-1.95570e-03,2.58523e-01,-4.44504e-01,-8.40491e-02,-8.54909e-02,-5.17681e-37,2.46746e-01,1.72096e-01,-8.28897e-02,-3.70046e-01,1.05509e-02,1.97853e-01,9.04769e-02,-3.12588e-02,-1.15824e-01,3.84510e-01,-3.53178e-02,-3.17977e-01,6.03899e-02,5.66834e-02,2.50137e-01,1.29445e-01,4.35803e-02,2.41016e-01,3.01356e-01,-3.28654e-01,-2.45369e-18,-1.11165e-01,1.79002e-01,4.43772e-03,-3.81428e-02,-1.58025e-01,-2.17475e-02,-3.34549e-01,1.58801e-01,-5.69080e-02,-2.52094e-01,
-1.55824e-01,1.49812e-01,4.47878e-02,-8.39320e-02,1.78706e-01,1.26226e-02,1.21941e-01,-4.30156e-02,2.19682e-01,-1.32043e-04,-8.25707e-02,-3.13795e-01,1.11742e-01,3.77814e-02,-9.22849e-02,1.61505e-01,1.63830e-01,1.72523e-01,-1.18724e-01,1.55356e-02,4.86874e-02,2.16365e-01,4.14746e-01,1.09149e-01,4.94591e-02,-3.18346e-01,-1.67976e-02,6.17879e-02,-4.86588e-01,2.98847e-01,1.22129e-01,-1.79832e-01,-3.41626e-01,2.15838e-01,-2.58223e-01,-8.33523e-03,-8.27648e-02,-2.13812e-01,3.42157e-01,-4.14068e-24,-1.84830e-01,1.76924e-01,-3.58230e-02,8.56185e-02,2.28572e-01,-1.23876e-01,4.24569e-01,5.18071e-02,4.07483e-02,-1.42984e-01,
5.30290e-02,-3.62376e-01,1.25781e-01,1.79642e-02,2.71971e-01,-2.54861e-01,-3.60529e-02,2.02867e-01,3.17766e-01,-4.18008e-04,-1.90511e-02,-1.59269e-01,-9.79554e-02,-2.68159e-01,8.03209e-02,1.14992e-01,1.26290e-01,1.28616e-01,1.17116e-01,-2.01516e-02,2.30087e-02,-8.76779e-02,3.32236e-01,-1.11358e-01,1.44894e-01,1.01080e-02,2.83057e-01,-2.83867e-01,-4.14345e-01,2.89053e-01,-1.05899e-01,-1.52787e-01,1.04869e-01,1.67652e-01,-1.60083e-01,-7.13516e-02,-1.23247e-01,-2.92513e-01,8.80826e-02,1.76136e-16,6.11876e-02,-2.27421e-01,1.79992e-01,2.63997e-01,3.92368e-01,-2.28018e-01,5.50442e-01,-2.55699e-01,2.71932e-01,-1.15747e-01,
-2.07412e-01,9.35156e-02,-1.42397e-01,2.36030e-02,-1.19262e-01,-4.47689e-02,5.53689e-02,-2.69773e-01,7.49526e-02,4.06587e-32,1.84860e-01,-7.42959e-02,3.70977e-02,4.06297e-02,1.37192e-01,-2.90453e-02,2.02432e-01,-1.18826e-06,-7.66659e-02,1.81206e-01,-2.04250e-01,1.23753e-02,6.67937e-03,-1.94841e-01,-2.39947e-01,3.43535e-38,-1.30549e-02,7.35422e-02,9.53752e-04,-3.89128e-02,-1.02996e-01,6.26132e-35,1.27279e-01,4.22254e-02,-1.42507e-01,-2.15276e-01,6.14386e-02,1.18598e-01,-1.83715e-01,1.09032e-30,-1.80091e-01,1.02525e-01,7.09914e-02,-1.85398e-01,-1.48006e-01,-8.40254e-02,-4.64095e-02,1.00246e-01,-1.18309e-01,6.86824e-02,
-1.03989e-02,-1.94836e-01,-3.05256e-01,3.21209e-01,1.65681e-01,3.86047e-02,-8.34456e-02,-1.06102e-01,1.26568e-01,-8.38809e-04,1.81685e-01,-2.63218e-01,1.59195e-01,-2.50041e-01,2.54667e-01,2.33791e-01,2.73461e-01,7.23624e-02,3.12412e-02,1.17050e-01,1.44632e-01,6.80519e-02,1.66640e-01,5.85111e-02,2.45560e-01,-1.83827e-01,-6.12636e-02,-2.87813e-01,-5.25016e-01,2.76210e-01,1.23292e-01,-2.14790e-01,-2.66850e-01,-1.06533e-01,5.14808e-02,-3.18564e-02,-3.65627e-01,-2.12554e-01,3.93813e-01,-1.15724e-22,-3.28586e-01,1.64344e-02,1.60978e-01,1.32356e-01,-3.87495e-03,-1.34180e-01,3.48600e-01,4.46199e-02,-2.37112e-02,-2.52955e-01,
2.92019e-01,-6.56896e-02,1.46196e-01,-1.71161e-01,-2.14626e-02,2.50378e-01,1.73796e-01,-1.03796e-01,-1.77137e-01,1.04524e-03,4.47454e-03,6.48980e-02,1.62768e-01,-1.33636e-01,1.68971e-01,-4.63752e-01,-1.45865e-01,-2.79749e-01,-1.07178e-12,-4.00424e-02,-2.10882e-01,1.16137e-01,-3.57294e-01,6.26942e-02,-6.24168e-02,5.48336e-03,-9.84219e-02,2.01963e-01,9.68530e-02,4.17693e-02,1.23341e-01,-1.62131e-01,2.06454e-01,1.33536e-01,5.67571e-02,1.99088e-01,1.43093e-01,6.81406e-01,-1.20406e-01,-6.92101e-18,-9.39907e-02,-1.49148e-01,2.04451e-01,1.14668e-01,-4.17637e-01,2.02010e-01,-3.79583e-01,3.37755e-01,-9.43092e-02,-6.40015e-02,
-2.52149e-01,5.81349e-02,5.29921e-02,-1.23986e-02,8.25331e-02,1.12389e-01,1.60876e-01,1.97520e-01,3.50489e-01,-4.13220e-04,2.47924e-01,-2.97328e-01,-6.14235e-02,1.60484e-01,3.16159e-01,6.36038e-02,2.30519e-01,1.14124e-01,8.94431e-02,-2.53349e-01,-1.50164e-01,2.57325e-01,2.81082e-01,-9.69078e-02,1.34364e-01,-1.18208e-01,3.04903e-01,-1.82654e-01,-1.39539e-01,2.39190e-01,2.48355e-01,-1.59250e-01,-1.96793e-01,2.18627e-01,-1.96152e-01,-1.08869e-01,-2.47641e-01,-4.42605e-01,4.02131e-01,1.18369e-23,-2.08434e-01,-2.03513e-01,-2.32262e-02,-1.43892e-02,4.58841e-01,-2.24083e-01,4.08075e-01,-3.64434e-01,1.60931e-01,1.54984e-01,
-1.87109e-01,-1.57985e-01,-1.78097e-01,-1.98496e-02,1.11889e-01,-1.82003e-01,1.40547e-01,-1.00152e-01,1.84688e-01,-7.53498e-04,1.02526e-01,-1.76312e-01,2.04122e-01,-3.51328e-01,1.19740e-01,3.96804e-01,6.90409e-02,2.73973e-01,6.93745e-29,-2.17989e-01,1.16974e-01,1.92181e-01,4.25515e-02,8.39270e-02,-1.07644e-01,-1.24629e-02,2.87790e-01,1.02219e-01,-1.31486e-01,4.01510e-01,1.96142e-01,-1.74972e-02,-3.22829e-01,2.04746e-01,-5.83894e-02,-1.94090e-01,-2.29171e-01,-1.96438e-01,9.59449e-02,1.58967e-13,-1.30774e-01,1.17963e-01,-2.47448e-01,1.10024e-01,1.08643e-01,-2.37903e-01,5.73901e-01,-3.97683e-01,-2.34724e-02,-4.97036e-03,
8.29995e-02,2.99955e-01,3.68844e-01,6.44419e-02,-1.22677e-01,-3.08328e-02,5.77322e-02,-1.28642e-01,-5.66710e-02,2.44928e-07,1.88812e-02,8.09885e-02,2.02363e-01,-8.88315e-02,-1.25392e-01,-4.77350e-01,-1.28384e-01,-1.11234e-01,-7.02715e-34,2.85744e-01,1.24057e-01,1.07454e-01,-3.90121e-01,1.51896e-01,-6.88287e-02,4.52373e-01,-1.34219e-01,2.44856e-01,1.37573e-01,-7.90096e-02,-1.59519e-01,-1.46155e-02,9.60410e-03,-3.78490e-02,9.47700e-02,1.51328e-01,3.97314e-01,2.90238e-01,-3.72634e-01,-2.94109e-15,1.17112e-01,-1.25150e-01,2.19739e-01,1.56787e-01,-3.68389e-01,4.54745e-01,-3.36295e-01,1.61347e-01,-7.32341e-02,2.50853e-01,
1.93611e-01,1.70697e-02,-1.74877e-01,1.40251e-01,2.26593e-01,-3.09658e-01,-1.71897e-01,2.68700e-01,-5.31854e-02,-2.79551e-04,1.76978e-01,-2.21125e-01,1.92793e-01,-2.90250e-01,-1.39578e-01,2.71013e-01,2.97986e-01,1.09486e-01,1.59734e-35,-8.77294e-02,-6.48784e-03,-9.72472e-02,1.41744e-01,1.64010e-03,2.97223e-01,-3.15452e-01,1.67082e-01,-1.52487e-01,-2.75803e-01,9.10029e-02,-7.54574e-02,7.52449e-02,1.69304e-01,9.21427e-02,3.33696e-02,-9.40725e-02,-3.50255e-01,-2.24896e-01,1.83716e-01,-1.71956e-23,-1.47975e-01,-9.54890e-02,1.87931e-02,2.39116e-01,1.06365e-01,-1.74579e-02,2.96709e-01,-3.81269e-01,-8.69236e-02,-2.41269e-02,
1.24724e-01,1.27127e-01,7.43863e-02,-9.59426e-04,6.13652e-03,6.44905e-02,2.31620e-01,1.61649e-02,1.01363e-01,4.22326e-04,-1.89751e-02,2.91824e-01,-8.93205e-03,-3.29298e-02,-5.14711e-03,-3.80584e-01,-4.04677e-02,-9.87325e-02,-1.26843e-25,1.07393e-01,5.31753e-02,1.13418e-01,-1.11440e-01,2.79847e-02,-6.57368e-02,4.02726e-01,-1.89232e-01,1.12337e-01,1.74099e-01,-8.94830e-02,-2.10671e-01,1.09257e-37,-2.24093e-02,8.90838e-02,9.70072e-02,-1.86945e-02,5.22482e-01,3.60808e-01,-2.80125e-01,-2.68088e-18,-2.14549e-02,-2.12463e-02,-9.76769e-02,-8.86924e-02,-3.23429e-01,1.80337e-01,-3.58476e-01,2.75600e-01,-4.79486e-03,1.45492e-02,
-2.25702e-01,-2.82222e-01,-2.92708e-01,2.30334e-01,-4.43403e-02,3.87502e-02,1.26699e-01,4.75072e-02,1.82082e-01,-1.45231e-04,1.65944e-01,-1.04458e-02,1.29047e-01,-1.64766e-01,1.39997e-01,2.88811e-01,2.65921e-01,1.45964e-01,4.28480e-13,8.29799e-02,-1.38876e-01,1.89215e-01,1.87601e-01,-1.91203e-02,2.53083e-01,-3.64312e-01,1.17063e-01,-2.92092e-01,-4.12927e-01,3.16391e-01,1.88640e-01,8.05093e-03,-8.43905e-02,2.26695e-01,-4.54087e-02,-3.29925e-02,-2.83889e-01,-3.74596e-01,3.70712e-01,-1.05733e-18,-5.40921e-02,-2.35961e-01,-2.12788e-01,5.16119e-02,2.85630e-01,6.29809e-02,4.06522e-01,-4.23152e-01,-1.62077e-02,9.70718e-02,
-5.03138e-02,1.65321e-01,5.62330e-02,1.65804e-01,-1.70462e-01,2.74254e-12,-1.60764e-01,-1.37913e-01,4.06812e-37,2.87403e-13,-1.43511e-13,2.10743e-38,-7.30361e-03,-2.41024e-12,-3.85839e-02,-6.23369e-02,-2.18663e-02,-2.45685e-28,1.48424e-12,-8.36808e-02,-1.83356e-01,-1.28713e-01,3.69391e-38,1.40320e-01,6.67841e-14,-7.74985e-23,1.29154e-01,-7.71110e-02,7.16420e-31,-7.68342e-02,-1.61233e-01,-1.75107e-28,-2.06956e-01,7.33326e-02,2.14857e-02,-5.27102e-37,6.86424e-29,-2.78376e-35,-7.48967e-02,2.29608e-11,1.78105e-01,-1.13120e-01,1.93569e-02,2.17890e-01,-3.06757e-34,1.43607e-01,2.08938e-37,-4.10307e-03,-7.43741e-02,-4.48252e-02,
1.31857e-01,1.08903e-01,1.66616e-01,-4.17495e-02,-2.85929e-03,1.54740e-01,9.12667e-02,-3.63983e-02,-4.26530e-02,1.87348e-05,-1.14148e-02,2.33278e-01,1.80470e-02,2.63010e-02,-1.82478e-02,-4.94060e-01,-7.87339e-02,-1.13906e-01,9.21914e-31,9.04567e-02,-4.53885e-02,7.27864e-02,-3.08274e-01,2.87389e-02,6.22069e-03,5.64756e-01,-1.44863e-02,8.22470e-02,4.43467e-01,-1.46017e-01,-1.19410e-01,-2.95304e-20,1.74754e-01,4.28454e-03,2.00690e-01,9.11696e-03,4.16807e-01,5.76786e-01,-3.88888e-01,-2.71181e-18,1.74473e-02,4.62180e-02,-7.86303e-02,-6.92676e-02,-3.16871e-01,2.99712e-01,-4.50311e-01,2.12830e-01,-3.43235e-02,-1.54785e-02,
-1.24973e-01,7.05921e-03,-1.10961e-01,-1.26388e-01,2.17653e-01,5.92221e-29,1.57836e-01,-1.76215e-01,3.45679e-02,3.11726e-34,2.40900e-02,1.55914e-01,-2.09675e-01,-7.48914e-02,-1.61922e-01,-1.12876e-01,-2.15775e-01,4.50319e-37,-3.59640e-37,-6.52722e-03,2.20984e-01,-6.10937e-02,6.01321e-02,-2.51110e-01,-6.78200e-02,1.86508e-01,2.36708e-02,1.84252e-01,1.30606e-02,-1.56276e-01,-1.02067e-01,-9.59034e-02,-7.35218e-02,1.94647e-01,1.02115e-01,2.95431e-20,-5.94890e-02,-9.29146e-33,-6.49890e-02,-1.89723e-12,4.67442e-03,-1.24211e-01,-5.67135e-02,7.93180e-02,-1.01239e-01,7.85172e-02,1.55222e-01,-5.88175e-03,1.81874e-01,-2.41859e-01,
5.87210e-02,
-1.65781e-02,
-1.98045e-02,
5.80344e-02,
3.27001e-02,
-2.18064e-02,
-3.45906e-37,
3.61680e-02,
8.78299e-02,
7.82809e-02,
-4.75149e-03,
8.06723e-02,
-9.04696e-03,
-1.28022e-02,
7.24554e-03,
-1.31501e-02,
1.12960e-02,
2.64881e-03,
-9.06619e-04,
4.80395e-02,
9.57547e-02,
-2.93872e-02,
1.15387e-01,
2.03161e-03,
6.76299e-02,
-9.69767e-03,
-2.04974e-02,
-7.03306e-03,
8.28666e-02,
-1.46279e-02,
1.95883e-02,
3.18157e-02,
6.00436e-03,
7.04198e-02,
-1.09509e-09,
9.93073e-03,
5.81857e-02,
9.07265e-02,
-1.67729e-02,
8.98777e-02,
-2.47292e-03,
9.79521e-02,
8.08272e-02,
1.79953e-02,
9.69271e-02,
-4.55221e-03,
6.36159e-02,
-4.48347e-04,
-1.65213e-02,
-1.00001e-02,
5.17416e-01,-3.68723e-01,-3.45648e-01,2.97553e-01,-3.68344e-01,-3.97744e-01,-3.58199e-38,-2.61650e-01,4.38318e-01,2.99505e-01,-3.23034e-01,4.21774e-01,-3.71540e-01,-4.00966e-01,1.12111e-01,-2.43039e-01,-2.71212e-01,-2.43504e-01,-4.35516e-01,1.30222e-01,5.07215e-01,-2.36118e-01,3.92095e-01,-3.62448e-01,5.32237e-01,-3.13557e-01,-3.18882e-01,-3.66077e-01,5.43159e-01,-6.76491e-02,-3.68723e-01,-1.89102e-01,-5.84804e-01,4.73258e-01,9.46408e-05,-3.06126e-01,3.46372e-01,4.30783e-01,1.64477e-01,5.17755e-01,-5.76126e-01,3.71960e-01,5.09525e-01,-1.92755e-01,3.95808e-01,-4.07489e-01,3.60854e-01,5.34734e-02,-2.80303e-01,-1.83642e-02,
4.71380e-02,
