// Neural Network File Format by Kyle Julian, Stanford 2016
2,13,1,200,
13,200,1,
0,
0,0,0,0,0,0,0,0,0,0,0,0,0,
1,1,1,1,1,1,1,1,1,1,1,1,1,
0,0,0,0,0,0,0,0,0,0,0,0,0,0,
1,1,1,1,1,1,1,1,1,1,1,1,1,1,
-3.82374e-02,1.34682e-02,-1.90844e-02,1.18760e-01,-1.49078e-01,-2.67037e-02,-1.62029e-02,-5.89733e-02,-2.24816e-02,-1.04389e-01,-1.59716e-02,9.87099e-02,-1.26281e-01,
1.57478e-01,1.46933e-01,-1.14702e-03,1.13841e-01,-3.52589e-02,-2.19156e-01,-3.33568e-02,-7.57066e-03,5.26988e-02,2.62343e-01,1.11837e-03,5.87659e-02,2.06146e-02,
-2.31603e-01,1.95179e-01,-5.33978e-02,8.28991e-02,5.47162e-02,1.56451e-01,-8.91978e-03,2.62373e-01,1.70433e-01,-2.44234e-01,-6.42367e-02,-1.41738e-01,-2.31650e-01,
1.96633e-01,1.36418e-01,-7.98691e-02,1.58925e-01,-1.14600e-01,-6.19165e-02,-6.54709e-03,-1.86395e-01,-5.28053e-02,1.38124e-01,6.13613e-02,1.46681e-01,1.93314e-01,
-2.08314e-01,-5.16927e-02,-1.26898e-01,-6.73189e-02,7.88144e-02,3.24093e-02,1.54198e-02,2.73872e-01,-6.37029e-02,2.48038e-02,2.17389e-01,-1.69731e-01,-1.47249e-01,
9.40104e-09,-1.30349e-06,-1.06653e-09,-1.51878e-09,-1.27713e-09,-2.00685e-09,4.27598e-09,-2.84260e-07,1.01664e-09,-1.71788e-10,-4.93317e-07,-2.39009e-07,-5.56185e-07,
-4.53605e-02,2.17759e-01,4.50081e-02,1.33891e-01,4.11032e-02,8.93669e-02,-9.86471e-02,-1.30570e-01,4.37851e-02,1.07366e-01,7.39349e-02,6.20813e-02,9.85699e-02,
-5.52959e-02,1.52964e-01,-8.77567e-02,2.51877e-01,1.31444e-01,-1.01886e-01,-8.19669e-02,-2.14790e-02,1.60997e-01,3.18877e-01,1.23604e-01,1.71352e-01,-2.55650e-02,
-1.72550e-02,-2.45480e-02,-1.30241e-02,-1.37018e-02,-9.47980e-03,-2.57485e-04,3.52730e-03,-1.82627e-02,2.18661e-02,-3.05794e-03,-1.75237e-02,-1.90867e-02,-1.79609e-02,
-1.69652e-01,2.72061e-02,1.79692e-01,1.22401e-01,-1.10366e-01,1.25283e-01,-3.13889e-01,1.79184e-02,2.03738e-01,-6.04761e-02,1.18257e-01,-4.01105e-01,-1.03734e-01,
5.98516e-03,-1.24001e-01,-9.20125e-04,-4.04567e-02,3.93929e-03,-3.61365e-02,8.11620e-02,2.32948e-01,1.42029e-01,2.52962e-02,-3.68566e-02,-4.68792e-01,3.71826e-02,
1.67719e-01,1.94715e-01,-2.79825e-03,7.90636e-03,-3.73624e-02,6.04667e-02,-1.04386e-02,-1.46992e-01,-6.10560e-02,2.43682e-01,-4.76089e-02,-8.58123e-02,2.34330e-01,
7.43601e-02,1.68851e-01,2.87026e-02,3.67871e-02,-8.72827e-02,1.07558e-01,1.11872e-01,-1.24794e-01,1.43758e-02,2.45912e-01,-7.41257e-02,2.04470e-01,7.73447e-02,
-9.64030e-02,-1.72960e-01,-2.60336e-02,-1.29948e-01,-5.96319e-02,-3.81101e-02,1.20669e-01,4.62744e-02,1.24235e-01,-1.70293e-01,3.12611e-01,7.98323e-02,3.56779e-02,
1.54256e-01,7.28684e-03,-3.15435e-02,-9.53696e-02,1.41080e-02,-9.21765e-02,-5.11735e-02,4.20205e-03,-1.08495e-01,2.10646e-01,2.90867e-02,1.19293e-01,2.49897e-01,
9.82746e-02,3.94946e-02,-1.06326e-01,1.86628e-01,1.19855e-01,-6.78368e-02,-1.67752e-01,-4.16008e-03,9.91652e-02,2.25323e-01,-1.12299e-01,2.04494e-01,1.82165e-01,
7.84318e-02,1.34098e-02,-1.08021e-01,-1.69668e-01,-1.32052e-01,6.96665e-02,-1.01443e-01,3.37873e-02,-7.08625e-30,4.75204e-02,-3.90146e-02,1.08627e-01,-1.58772e-01,
4.96310e-04,2.09079e-02,-7.70628e-02,1.71025e-01,2.94551e-04,-1.63611e-01,-1.16385e-01,-3.96902e-03,1.65804e-01,4.78726e-02,9.40030e-02,4.17636e-02,1.62283e-01,
-1.63093e-02,9.58828e-02,4.18956e-02,1.08763e-02,1.21934e-01,-1.66847e-02,-6.26047e-02,-5.09777e-02,5.25248e-02,3.79247e-02,6.73037e-02,-2.02722e-01,1.56301e-01,
5.13035e-02,1.90076e-01,-1.09727e-01,2.62868e-01,1.89446e-01,-8.95473e-02,-7.18080e-02,-1.28998e-01,-5.93769e-02,2.53720e-01,5.97138e-02,1.80454e-01,2.12310e-02,
7.41556e-02,-8.00821e-02,-7.66108e-03,-1.22820e-01,-2.68408e-02,-5.46886e-02,-2.86348e-02,2.80978e-01,7.03322e-02,7.60430e-02,2.17169e-01,-5.28814e-01,-2.43644e-01,
-6.61644e-02,6.00576e-02,1.77573e-01,8.93025e-02,-2.32035e-01,1.18994e-01,-2.51703e-02,1.60771e-01,1.01085e-01,-2.30189e-01,3.86354e-02,8.95626e-03,-1.28746e-01,
-1.12528e-01,-8.33423e-02,1.57208e-01,1.85544e-01,-1.12975e-02,-2.02016e-01,-2.27732e-01,1.58577e-01,2.44944e-01,-2.78677e-01,-1.22690e-01,-7.50007e-02,-1.52667e-01,
-9.46110e-02,-2.14339e-01,1.94354e-01,-1.56923e-01,-1.26871e-02,-1.02686e-01,-3.58437e-01,-3.38804e-02,2.07625e-01,1.56437e-01,6.72765e-02,-2.91919e-01,1.16638e-01,
3.39532e-02,8.72984e-02,8.31696e-02,-1.54808e-02,8.99612e-02,1.72320e-01,-7.41184e-03,1.54523e-01,5.93281e-02,9.83917e-03,9.32125e-02,4.57978e-03,-1.23530e-01,
-1.73789e-01,-1.04892e-01,-8.58561e-02,1.05815e-01,5.32171e-02,2.61221e-01,2.19471e-02,6.99592e-02,1.52706e-02,2.77007e-02,4.43438e-02,9.30492e-03,-2.07900e-01,
-1.04420e-01,-1.48603e-01,-1.21106e-01,9.98202e-02,-1.10801e-01,-1.56524e-01,7.74751e-02,6.36518e-02,7.84135e-03,7.60517e-03,-1.89004e-01,9.33746e-02,3.10884e-02,
-4.34760e-02,-3.74388e-02,1.88355e-01,-7.58015e-02,8.99538e-02,1.79129e-01,1.69353e-01,-2.53724e-02,2.81108e-02,-5.05137e-03,1.92910e-01,8.87297e-02,-1.13612e-01,
-9.35145e-02,5.57863e-02,1.88010e-01,-7.75340e-02,1.11488e-01,1.45222e-01,1.14151e-01,6.84917e-02,7.69269e-03,-3.12841e-02,-9.21000e-02,-6.42313e-02,8.07963e-02,
8.78453e-02,2.33314e-01,-1.18602e-01,-3.34959e-03,1.45968e-01,-2.54987e-02,2.82557e-02,2.69458e-02,2.82074e-02,2.53321e-01,-3.98881e-02,1.33529e-01,-7.11160e-03,
8.02838e-02,-7.60359e-02,-8.12693e-02,-1.64790e-01,5.61405e-02,1.92812e-01,8.42675e-02,1.72493e-01,1.09064e-01,-3.22203e-01,2.45203e-01,-1.36714e-01,-1.13844e-01,
3.60094e-02,-1.46755e-01,6.30191e-02,1.16614e-02,4.29667e-03,1.66904e-01,-2.61567e-03,2.29901e-01,-1.18507e-01,-5.36048e-02,5.03584e-02,6.31932e-02,-9.04627e-02,
8.55319e-02,-1.62078e-01,-6.09218e-02,-1.42552e-01,-1.05376e-01,5.04188e-02,1.32910e-01,2.40032e-01,1.51187e-01,-3.18329e-01,2.55918e-01,8.05835e-02,-1.01897e-01,
-1.04866e-01,-1.23331e-01,2.76688e-02,-1.72285e-02,6.78147e-02,1.65954e-01,-3.36488e-02,2.12700e-01,2.04245e-01,1.47738e-01,1.37995e-01,-2.11934e-01,-1.30871e-01,
-4.19890e-02,-9.11933e-02,2.10316e-01,-1.57662e-02,-6.83684e-02,2.03542e-01,-4.35163e-01,1.96978e-01,1.14643e-01,1.22220e-01,-1.85335e-01,-5.36443e-01,2.26179e-03,
-4.47360e-02,-8.65936e-02,-5.47421e-01,2.82150e-01,-4.09054e-02,1.98455e-01,-3.09225e-01,1.65807e-01,1.35592e-01,2.33347e-02,8.18625e-02,2.25533e-01,2.58207e-02,
-5.40630e-03,-8.68792e-03,4.04137e-04,-3.21300e-04,-8.67997e-04,7.50640e-08,1.36216e-04,-2.45778e-03,-1.75163e-03,-3.10785e-04,-6.44429e-03,-3.70763e-03,-2.07015e-03,
-2.54614e-02,2.96463e-02,1.21001e-01,5.10052e-02,-1.30484e-01,1.19134e-01,-5.38318e-02,1.32420e-01,9.64237e-02,-1.97386e-03,1.87948e-01,1.34356e-02,-1.82925e-01,
1.27106e-01,-2.08580e-01,-1.87968e-01,1.19249e-01,-1.00776e-01,3.28108e-01,-3.70171e-02,1.75784e-01,2.18827e-01,6.61901e-02,-2.87383e-01,2.73434e-01,-1.32653e-01,
-6.31997e-02,7.41495e-02,1.87667e-01,-6.51806e-02,-6.67334e-02,-4.44065e-02,2.09845e-01,4.28486e-02,3.70028e-03,-1.41551e-01,1.71521e-01,-2.30013e-02,1.53187e-03,
1.94778e-01,5.01009e-02,-1.73155e-02,1.91266e-01,5.64849e-02,-9.20484e-02,-2.65545e-02,-9.52479e-02,1.50521e-01,8.40956e-02,-6.60800e-02,5.55004e-02,1.67513e-01,
1.65423e-01,2.19848e-01,-5.25097e-02,1.35590e-01,1.19111e-01,-3.67541e-01,-3.51186e-02,-5.74737e-02,-1.31218e-01,8.77040e-03,-7.13921e-02,-5.91265e-02,2.48302e-01,
2.03657e-01,4.77405e-02,-8.17849e-02,2.34548e-01,9.11274e-02,-1.59035e-01,-2.62382e-01,5.01957e-02,-6.18849e-02,2.76102e-01,-1.90127e-01,1.87474e-01,2.47040e-01,
-1.05533e-01,-7.87593e-02,1.34359e-01,-1.06446e-01,1.24909e-01,9.32734e-02,1.40034e-01,1.27232e-01,-3.77337e-02,1.15915e-01,6.45470e-02,8.97747e-02,-1.54721e-01,
-7.67224e-02,3.71557e-03,-2.30095e-01,8.90706e-02,-3.19121e-02,-1.20451e-01,-1.79216e-01,1.13664e-01,3.36142e-02,2.13628e-01,-1.22370e-01,2.98704e-02,3.03493e-01,
2.06044e-01,1.35004e-01,6.98947e-02,1.10064e-01,-1.09813e-01,-1.24389e-02,-3.31171e-01,-7.30071e-02,-2.06978e-01,-2.59888e-02,8.59001e-02,1.02343e-01,1.18972e-01,
4.63869e-02,1.87079e-01,-7.99375e-02,1.25389e-01,-3.63969e-02,-2.85167e-01,-1.57074e-01,5.64138e-02,7.34758e-02,-5.06881e-02,-1.04915e-01,-2.78758e-02,2.71406e-01,
-1.27169e-01,6.03008e-02,-7.29125e-02,-1.63347e-01,3.12034e-02,-4.33947e-02,-1.67177e-01,-1.98120e-02,1.18918e-01,1.71797e-01,-9.56461e-02,-4.01247e-02,-5.31334e-03,
1.13258e-01,1.75665e-02,-4.39998e-01,2.95127e-02,3.22913e-02,1.58710e-01,-3.08967e-01,1.95521e-01,6.32297e-02,3.30845e-01,-6.42190e-03,1.95558e-01,-1.92850e-02,
1.65928e-01,8.88701e-02,-3.90582e-02,1.02824e-01,1.58302e-01,4.01776e-02,-1.45737e-02,7.45098e-02,-6.24404e-02,2.06859e-01,1.20665e-01,1.05798e-01,-1.98463e-02,
2.31884e-01,1.09087e-01,-2.47123e-01,1.15276e-01,1.72456e-01,2.28647e-01,-4.46486e-01,-6.32790e-02,-5.68148e-02,2.17557e-01,3.06923e-02,2.60336e-01,-3.14591e-01,
-3.36478e-01,2.11451e-01,5.91027e-02,5.98500e-02,-7.55099e-02,2.40100e-01,-8.24453e-02,1.53748e-01,-3.23082e-01,5.09992e-03,-1.61095e-01,2.65570e-01,-5.51766e-02,
3.90966e-03,-2.11540e-01,-4.83428e-02,1.86038e-01,-1.37972e-01,1.79346e-01,2.44170e-02,1.44023e-01,2.81982e-01,-3.14085e-03,-2.32824e-01,1.65307e-01,9.61298e-02,
8.42526e-02,6.30623e-02,1.81005e-01,2.51911e-02,-7.37506e-02,-7.23411e-02,2.22913e-01,2.30678e-01,-1.05109e-01,3.27230e-02,2.01229e-01,-4.53515e-02,-1.21731e-01,
-8.46297e-02,1.50537e-01,1.36442e-03,1.35446e-01,-4.83450e-02,1.51079e-02,6.46298e-02,-2.24465e-01,1.43797e-01,1.55124e-01,-7.65772e-02,1.62787e-02,2.13903e-01,
-1.65100e-02,-1.15604e-01,8.23916e-03,-4.36719e-02,7.57455e-02,-5.08836e-02,2.07566e-02,2.16562e-01,1.17306e-01,1.57064e-01,3.88852e-03,-4.37405e-01,2.79340e-02,
5.99444e-02,3.13775e-02,-4.35479e-01,1.18489e-01,9.72765e-02,1.77181e-01,-8.52116e-02,-7.79391e-02,1.29909e-01,3.75738e-01,6.91691e-02,7.48244e-02,2.59110e-02,
5.41691e-02,2.16337e-01,-3.49299e-02,1.14660e-02,3.38567e-02,-3.80790e-02,-3.17408e-03,-1.44869e-01,1.95111e-02,1.88122e-01,1.20989e-01,1.98908e-01,1.73087e-01,
-1.13056e-01,-9.40575e-02,6.73563e-04,1.50201e-01,2.84047e-02,2.27945e-01,3.19030e-01,-7.32002e-02,2.21413e-01,2.82817e-01,-8.35343e-02,7.09836e-02,-9.57221e-02,
8.03150e-03,-1.68276e-02,-2.71038e-02,-4.55093e-02,-4.36683e-02,-2.16160e-03,1.14130e-01,1.87849e-01,5.69534e-02,-9.46899e-02,2.62271e-04,-1.09904e-01,1.56370e-02,
-6.23146e-02,-1.70894e-01,-9.91923e-02,1.31355e-01,-2.92087e-02,2.90492e-01,1.60294e-01,7.13916e-03,3.10369e-01,3.58816e-01,-1.18505e-01,1.30799e-01,1.20563e-02,
-9.05210e-02,-1.38028e-01,1.14613e-01,-8.53176e-03,-8.82447e-02,4.57232e-03,-3.41266e-02,4.45647e-02,2.17807e-02,1.62328e-01,2.13352e-01,-1.89263e-01,-1.03554e-01,
-1.76396e-01,4.00273e-02,2.54357e-01,-1.23314e-01,-1.28870e-01,1.81500e-01,-4.39228e-01,1.93390e-01,2.35142e-01,1.04769e-02,1.12899e-02,-5.07218e-01,-1.44274e-02,
1.92214e-01,-2.79486e-02,3.51278e-02,1.09602e-01,7.20428e-02,-1.95138e-01,-2.53159e-02,-3.40036e-02,-8.47673e-02,2.39628e-02,-7.67999e-03,-4.92330e-03,2.12762e-01,
-2.65324e-02,-1.13275e-01,-4.75390e-01,2.87087e-01,1.27961e-01,1.35931e-01,-2.36843e-01,1.78456e-01,1.57938e-01,-3.02337e-02,-2.59141e-02,2.43086e-01,9.30568e-02,
9.09188e-03,9.03978e-31,-1.01996e-01,-1.40267e-01,-2.30363e-02,6.33901e-02,7.81776e-31,-1.22943e-01,-3.88077e-37,-6.05234e-37,9.89228e-02,-8.15678e-02,-3.71677e-02,
-1.34119e-01,-1.17728e-02,3.57922e-02,-3.28787e-02,-5.05666e-02,1.44801e-01,-1.10722e-02,2.43396e-01,-1.16074e-01,6.20083e-02,1.44732e-01,2.66876e-02,-7.67160e-02,
5.58319e-02,-6.81144e-03,-5.97787e-02,-1.19015e-01,6.14438e-02,-8.67314e-03,7.04522e-02,1.51141e-01,-1.38936e-02,-2.04726e-01,1.00722e-01,-9.80695e-02,-7.97610e-02,
-1.18609e-01,-7.66534e-02,-3.17881e-01,3.43272e-02,8.28646e-02,1.38730e-01,-4.69582e-02,-2.75423e-02,1.72771e-01,2.09857e-01,5.05219e-02,5.20926e-02,2.47030e-01,
-2.14870e-02,2.13433e-01,-9.11729e-02,2.50192e-01,1.54978e-01,-1.27501e-01,9.59879e-02,-1.98510e-01,5.06941e-02,1.83168e-01,6.29008e-02,-1.26346e-01,5.98614e-03,
-2.23991e-01,4.61419e-02,3.27561e-02,1.02282e-01,2.45924e-01,1.17093e-01,-2.50707e-01,1.90853e-01,-1.82821e-01,7.44220e-02,-1.60901e-01,-1.99404e-01,-2.85445e-03,
-4.67453e-02,-1.74034e-01,-1.53827e-01,1.54293e-01,3.55312e-02,3.22278e-01,1.27333e-01,-1.52787e-01,1.26566e-01,3.73340e-01,-1.71759e-01,1.01680e-01,6.63581e-03,
9.34331e-02,2.36146e-01,-1.03083e-01,2.39352e-01,6.50442e-03,-1.08296e-01,-1.29365e-01,-4.24849e-02,-6.95691e-02,1.16557e-01,-9.55285e-02,1.05715e-01,2.24732e-01,
-4.99050e-02,8.94245e-02,1.45742e-01,3.10533e-03,1.48703e-01,7.37415e-02,5.94440e-02,3.15649e-02,1.34398e-02,-4.15406e-02,2.19853e-01,-1.44362e-01,-1.56072e-01,
1.12864e-03,-1.94899e-02,2.89665e-02,-1.87031e-01,1.16916e-01,8.87277e-02,1.18525e-01,1.93925e-01,1.56838e-01,1.29146e-02,4.43708e-02,-1.14364e-02,-1.62849e-01,
-1.38772e-02,1.39309e-01,-6.88246e-02,-2.21309e-01,-2.51337e-01,1.07090e-01,1.33604e-02,5.83084e-02,1.55317e-01,-3.14564e-01,1.55594e-01,1.48399e-01,-4.45738e-02,
-1.42845e-01,-7.37070e-03,4.32922e-02,4.80825e-02,1.06846e-01,1.30352e-01,4.07417e-01,-1.51968e-01,2.13532e-01,1.51525e-01,-1.44558e-01,-5.21559e-02,1.32442e-02,
7.54077e-02,-2.04636e-01,-2.70291e-01,4.45101e-02,-1.13412e-01,2.89996e-01,-1.04083e-02,1.17885e-01,1.84164e-01,1.06458e-01,-2.72049e-01,1.07468e-01,8.06809e-02,
-1.18334e-01,1.06359e-01,-1.87720e-01,1.08873e-03,2.91635e-02,1.84833e-01,-1.19101e-01,8.59769e-02,2.17714e-01,-1.49224e-01,-2.19499e-01,2.72448e-01,-2.39750e-01,
1.38725e-01,2.02204e-01,4.54269e-02,9.88436e-02,2.08155e-01,6.09279e-02,-1.14185e-01,1.00981e-01,9.01886e-02,1.71700e-01,-1.34087e-01,-9.76337e-02,2.10007e-02,
-8.30807e-02,7.05872e-02,1.77547e-01,-4.90780e-02,-8.33901e-02,1.08786e-01,7.00391e-02,2.05693e-01,-1.44348e-01,-8.70380e-02,1.52166e-01,-4.12995e-02,5.37971e-02,
-1.61156e-01,-1.35122e-01,-4.26057e-02,5.51301e-02,1.09629e-01,2.11374e-01,1.41073e-01,3.49109e-02,-1.83242e-01,-2.42268e-01,2.39109e-01,-3.26352e-02,2.07346e-02,
6.00712e-02,1.75039e-02,-3.80111e-03,-1.08231e-01,-5.22440e-02,-6.74857e-34,-1.37077e-01,-1.08721e-01,-5.08490e-02,2.73788e-02,-8.54312e-02,1.27204e-01,-3.08799e-02,
1.20336e-01,-1.25345e-01,-8.97619e-02,3.91094e-02,1.10922e-01,4.78213e-03,-6.19676e-03,-1.18042e-01,-2.99717e-02,-2.51030e-02,-1.26273e-01,4.70978e-02,-8.46714e-02,
1.66219e-01,-7.14888e-03,-9.52357e-02,2.59724e-01,1.37017e-01,-1.74127e-01,-2.47273e-01,-3.65600e-02,8.61805e-02,-4.33185e-02,-6.89936e-02,3.96056e-02,2.74527e-01,
6.10860e-02,-4.63203e-04,3.22596e-02,-7.05466e-02,-1.90598e-01,1.41714e-01,-4.45617e-02,1.15411e-01,2.77378e-02,-1.52541e-01,1.72280e-01,-2.78498e-02,2.07257e-02,
-2.80788e-01,1.48336e-01,-7.02302e-02,-2.38543e-01,2.33640e-02,-1.26917e-02,-3.64646e-02,2.32071e-01,8.49574e-02,-1.47831e-01,-1.07363e-02,1.59910e-01,4.08149e-02,
1.97600e-01,7.67869e-02,-1.64793e-01,7.45984e-02,4.53110e-02,1.71961e-01,-2.25906e-01,3.04231e-02,8.02011e-02,4.81691e-02,-1.08824e-01,3.15336e-01,-3.79379e-01,
-1.34203e-02,1.15209e-01,1.24352e-01,-1.16605e-01,6.53149e-02,7.74397e-02,1.94607e-01,-3.05506e-02,-1.08932e-01,-7.20544e-02,1.68833e-01,3.74640e-02,-1.23022e-01,
1.76212e-01,2.46382e-01,-6.25359e-02,3.68798e-02,1.31648e-01,-2.18914e-01,3.79569e-03,-9.25146e-02,1.33206e-01,1.71458e-01,-1.65546e-01,-5.27491e-02,2.51428e-01,
-2.44256e-02,-2.57361e-01,4.39236e-02,-5.07645e-02,1.34436e-01,1.07759e-01,-1.72064e-01,2.57722e-01,-6.60615e-02,1.97326e-01,1.33562e-02,-3.59346e-01,4.44910e-02,
1.04550e-02,8.58008e-02,1.28648e-02,1.85506e-02,8.92177e-02,1.17533e-01,8.43489e-02,3.64461e-02,3.06717e-02,2.70170e-01,1.17830e-01,2.00420e-01,1.49535e-01,
7.39461e-02,-2.66163e-01,9.47910e-02,-1.75140e-01,1.01034e-01,-2.27679e-01,-1.09311e-01,6.14102e-02,1.60151e-02,9.74466e-04,8.00106e-02,-2.99590e-02,6.50833e-02,
1.41767e-01,9.87470e-02,-2.67036e-01,2.01677e-01,1.35631e-01,1.06088e-01,-1.67839e-01,-1.17230e-01,6.37758e-02,1.45496e-01,2.60236e-02,2.75546e-02,-4.04681e-02,
-1.08780e-02,-1.24571e-01,-2.60392e-01,2.19457e-01,-8.02860e-04,3.36258e-01,2.16815e-02,4.68359e-03,1.92025e-01,1.83065e-01,-6.95793e-02,2.57272e-01,-1.35106e-01,
-1.27604e-01,-9.82250e-03,-2.74491e-01,-1.84504e-01,-7.33779e-02,-5.63861e-02,4.67476e-01,2.11974e-01,-4.51312e-01,-6.00814e-02,1.57745e-03,3.54684e-01,-4.23094e-02,
7.46446e-02,2.60149e-03,1.59185e-01,7.41783e-02,4.11059e-01,1.27479e-01,-3.33654e-01,1.23674e-01,-3.39515e-01,1.44843e-01,-6.45967e-01,-3.49337e-01,-3.52244e-02,
1.58265e-01,9.71857e-02,-1.75096e-01,2.18365e-01,9.81474e-02,1.17440e-01,-7.68248e-02,-1.06671e-01,1.34592e-01,1.85076e-01,1.23924e-01,9.30097e-02,-7.96798e-02,
-7.54707e-02,6.06131e-02,2.05675e-01,-1.49934e-02,-4.24083e-02,-3.36696e-01,1.56330e-01,-1.68509e-01,-1.03542e-02,-1.07987e-01,1.73899e-02,-2.45616e-01,2.70419e-01,
1.67911e-01,1.58028e-01,-1.03603e-01,2.12340e-01,4.38141e-02,-1.46638e-01,-2.52732e-02,-1.55639e-02,2.17615e-02,1.74091e-01,-7.89870e-02,-1.32940e-01,1.45503e-01,
1.10915e-01,2.46326e-02,-3.99002e-01,5.91424e-02,1.18492e-01,3.23886e-01,-3.69541e-01,-4.48604e-03,-1.12394e-01,8.76777e-02,5.80736e-02,1.74225e-01,1.26510e-02,
-1.33684e-01,-2.15094e-01,-1.08335e-01,-4.65860e-02,9.08834e-02,1.84671e-01,9.54358e-02,1.64572e-01,-2.72262e-01,2.71640e-02,2.45500e-01,-2.63313e-01,1.98218e-02,
-5.07313e-02,-6.45285e-02,-6.00050e-02,-7.26488e-02,7.61283e-02,-6.86074e-02,-5.21816e-02,2.53957e-01,2.57273e-02,1.47649e-01,2.53461e-01,-5.43497e-01,-2.37134e-01,
2.29101e-02,1.20289e-01,-6.13175e-02,1.11688e-01,1.89787e-01,5.03347e-02,-1.43558e-01,-3.78656e-02,-1.34376e-01,3.07927e-01,2.67018e-02,-7.33118e-02,1.21453e-01,
4.91165e-02,6.63227e-03,-3.58508e-02,-1.25081e-01,-7.46034e-02,2.11739e-02,6.31959e-02,2.50614e-01,5.54406e-02,-1.79942e-01,-3.37417e-03,-2.20287e-02,-1.48496e-01,
1.51428e-02,5.44183e-02,5.00323e-02,8.93629e-02,2.99776e-02,5.88435e-02,-9.40135e-02,6.00956e-02,1.74172e-01,1.65026e-02,1.20103e-01,-6.39669e-01,-1.68250e-01,
8.50143e-02,7.78331e-02,1.17669e-01,-1.62205e-01,-1.23659e-01,2.26134e-02,2.98675e-02,2.29770e-01,-1.20331e-01,1.11356e-02,9.09472e-02,7.37267e-02,-3.86668e-02,
-8.39228e-02,-5.18766e-02,1.93087e-01,1.93496e-02,8.62122e-02,5.85067e-02,5.52410e-02,1.35596e-01,1.36777e-01,-5.57135e-02,6.25414e-02,7.66511e-04,-1.59490e-01,
-1.16195e-01,4.87778e-02,1.39842e-01,-1.07135e-01,1.41096e-02,5.32607e-02,2.29705e-01,2.74554e-01,1.97917e-02,-1.17360e-01,-7.10096e-02,-1.15605e-01,6.63833e-03,
-1.27596e-01,7.65931e-02,1.52197e-01,9.56496e-02,2.30193e-02,7.83438e-02,-2.44294e-01,1.07137e-01,1.66864e-01,-1.91117e-01,-1.34177e-01,-3.27373e-01,5.01169e-03,
7.25666e-02,-1.11364e-01,8.26175e-02,-1.24372e-01,-1.47640e-01,-2.14899e-02,-3.84930e-02,1.28317e-01,-3.33963e-02,2.56386e-03,2.06640e-01,-1.16119e-01,1.14124e-01,
-9.77691e-02,-1.88181e-01,-3.46727e-01,2.20201e-01,1.50162e-01,3.03514e-01,-2.26217e-01,7.99751e-04,-8.48742e-02,2.15764e-01,1.20281e-01,1.77689e-02,-1.73328e-01,
-6.62889e-02,-5.37730e-02,-8.74136e-24,-1.47164e-01,5.51315e-02,1.37919e-01,1.44364e-24,-1.08093e-01,5.06241e-02,-8.31103e-02,-7.33007e-02,6.99428e-27,-1.07275e-02,
-3.18249e-03,-1.77372e-01,1.68025e-01,-9.90853e-02,9.72341e-02,1.80681e-01,1.69834e-01,2.79895e-01,-2.39908e-01,2.00794e-02,1.05367e-02,1.31619e-01,-1.00877e-01,
2.86590e-02,2.93373e-02,-3.50701e-02,1.55706e-01,2.73465e-02,1.18402e-01,-1.48341e-01,2.01778e-02,1.60981e-01,1.64883e-01,-1.41078e-01,1.41495e-01,1.88533e-01,
5.46324e-02,-6.15432e-02,2.02256e-01,-1.26736e-01,1.00537e-01,2.54168e-02,4.36755e-02,7.29441e-02,-1.46363e-02,-1.58831e-01,1.66513e-01,1.18325e-01,-8.49539e-03,
3.51654e-02,1.78138e-01,1.02674e-02,6.45917e-02,8.76116e-02,1.73810e-02,-1.05663e-01,6.48633e-02,3.96206e-02,1.06885e-01,7.81492e-02,3.90397e-02,-5.67193e-02,
2.08928e-01,1.47981e-01,4.50754e-03,1.99989e-01,1.78995e-01,1.31541e-01,-1.19972e-01,1.58069e-02,4.46784e-02,1.46221e-01,-7.38200e-02,8.83430e-02,1.63010e-01,
-1.92080e-02,1.24571e-01,-3.45480e-01,1.09628e-02,-1.26451e-01,1.29010e-01,-9.94375e-02,-3.25273e-02,1.90516e-01,2.90546e-01,-1.02572e-01,6.55598e-02,1.09958e-01,
3.65928e-03,7.28032e-02,-5.36871e-02,2.19149e-01,1.49539e-01,-1.71969e-01,-1.87039e-01,-1.40704e-01,6.13308e-02,-4.40994e-02,-2.06763e-03,2.30193e-03,2.13541e-01,
9.50579e-02,-4.57744e-01,-1.87908e-01,-4.53320e-03,1.15948e-01,1.05970e-01,-7.05030e-01,2.44642e-01,-4.83121e-01,-8.72962e-01,1.68069e-01,1.29322e-01,-4.50153e-02,
8.90139e-02,5.16146e-02,-8.99970e-02,7.51888e-02,-3.41363e-02,3.50194e-02,3.11523e-02,1.50253e-01,-1.59011e-01,-3.74214e-02,-1.10730e-02,7.27661e-02,7.49032e-02,
-2.59735e-01,2.18277e-01,7.15849e-02,1.40710e-01,-2.43927e-01,2.46438e-01,-9.38011e-02,2.95191e-02,-3.48381e-01,-1.07768e-01,-2.67702e-01,3.84844e-01,6.07367e-03,
2.09971e-01,1.05356e-01,-1.45903e-01,2.06222e-01,1.40212e-01,-4.34455e-02,2.47260e-02,4.63462e-02,9.50371e-02,1.17640e-01,-2.42040e-03,-4.30716e-03,2.46472e-02,
1.51609e-01,-1.03393e-01,2.16541e-01,-6.61102e-02,-1.36281e-01,1.03325e-02,7.64656e-02,2.66654e-01,5.47563e-02,-1.66320e-01,6.51914e-02,1.62432e-02,-1.38365e-01,
1.79162e-02,6.97851e-02,2.28442e-01,4.33639e-02,6.78145e-02,5.70523e-02,1.72278e-01,-1.15991e-01,8.22323e-02,1.89724e-01,-1.52659e-01,-1.20195e-01,5.31598e-02,
-4.06642e-02,1.68875e-01,-5.74654e-02,1.86905e-01,-1.74639e-02,-9.97690e-02,-3.00466e-02,-1.85285e-01,1.23067e-01,3.29696e-01,-1.17431e-01,1.27312e-01,1.14235e-01,
-1.02059e-01,-2.61785e-01,1.56965e-01,4.81487e-03,1.44282e-01,-3.41906e-01,1.09588e-01,-7.18254e-02,9.60443e-02,-3.15955e-01,-4.91553e-02,4.38673e-01,7.76239e-02,
-2.07160e-02,3.15692e-03,-1.83760e-02,-1.48292e-02,-1.93905e-02,-7.67258e-03,-2.28933e-02,-5.44455e-03,2.23072e-02,-1.53592e-02,-4.50772e-03,-1.87204e-02,-6.49372e-04,
-6.91251e-02,1.49272e-02,8.58531e-02,9.03253e-02,1.14599e-01,-1.02500e-01,-3.21333e-02,7.24003e-02,9.35465e-02,-2.37054e-02,1.10715e-01,-9.91853e-02,5.18248e-02,
-1.43635e-01,5.30125e-02,-9.87302e-04,-5.38081e-02,-1.96424e-01,-2.42140e-02,1.75483e-01,1.50641e-01,1.71509e-01,-2.58149e-02,1.48421e-01,3.86170e-02,-1.94654e-01,
-8.86158e-02,-1.47104e-01,8.52349e-02,2.11379e-02,-1.13042e-01,-9.50548e-02,-1.82017e-01,3.07456e-02,1.74045e-01,3.53866e-02,-1.21441e-01,-2.38282e-02,-1.89005e-02,
-6.30253e-02,-2.35354e-02,-2.04800e-01,2.56152e-02,-2.84359e-02,2.08193e-01,9.39178e-02,-1.00648e-01,1.92276e-01,4.05132e-01,-3.87562e-02,8.42944e-02,4.30383e-02,
-1.52793e-01,1.77505e-01,-4.95999e-04,9.85444e-02,-7.63399e-02,3.53620e-01,-7.81435e-02,9.76580e-02,-3.60050e-01,-2.77891e-02,-2.91103e-01,-5.63380e-02,1.22282e-02,
-9.19622e-02,1.92612e-01,-6.31012e-03,1.27096e-01,1.29594e-01,-2.64468e-02,-8.15918e-02,9.54321e-03,4.23628e-02,-3.29207e-02,9.67111e-02,-1.34596e-01,1.63848e-01,
1.36581e-01,2.14143e-01,-1.24474e-01,7.73368e-02,1.84082e-02,-1.00798e-01,-1.24485e-01,-6.20231e-05,-1.43872e-02,1.59693e-02,2.46207e-02,1.60815e-01,9.51057e-02,
-9.67212e-02,-2.71411e-02,2.19612e-01,8.31931e-02,-2.97250e-01,1.68585e-01,-4.35466e-01,2.40438e-02,1.67095e-01,6.71159e-02,1.01874e-01,-4.99089e-01,4.35260e-02,
6.90969e-02,-1.43734e-01,-2.86141e-01,2.18012e-01,-3.81583e-02,3.41920e-01,-1.76513e-02,-5.12451e-02,1.55186e-01,2.41440e-01,-2.07284e-01,2.64561e-01,-1.36805e-01,
-2.58420e-02,-8.65898e-02,-3.45174e-02,-1.28183e-02,1.48832e-01,3.04583e-01,-5.59089e-02,-1.52169e-01,1.31841e-01,3.99804e-01,1.89379e-02,1.73252e-01,-3.23363e-01,
1.01738e-01,-8.28051e-02,1.61817e-01,6.28322e-02,3.65082e-02,2.62065e-02,6.72127e-02,1.63534e-01,9.12421e-02,-2.66718e-01,2.14635e-02,-7.81068e-02,-5.23574e-02,
5.16362e-02,-2.16937e-01,-7.54634e-02,6.75009e-02,4.04248e-02,-1.62842e-01,2.05957e-01,2.31296e-01,2.13827e-01,-2.76500e-02,1.91419e-01,-4.74911e-01,-1.96108e-01,
2.56939e-01,1.88833e-01,1.01878e-01,2.02775e-01,2.52158e-02,-7.20651e-02,-3.19292e-01,3.71667e-02,-2.17922e-01,-7.47476e-02,-6.09944e-02,6.56949e-02,-4.18204e-02,
-4.36020e-02,8.62300e-02,5.39659e-02,3.48571e-02,-4.87734e-02,-1.71610e-01,3.43825e-02,-2.28678e-01,3.15529e-02,1.50689e-01,-4.03587e-03,-6.41106e-02,2.59313e-01,
4.58764e-02,1.33653e-01,2.90930e-03,-1.70660e-02,1.66323e-03,1.26274e-01,1.13603e-01,-6.67242e-02,1.29814e-01,1.34186e-01,-1.37485e-01,1.18912e-01,1.47713e-01,
-6.08836e-02,-1.19248e-01,-1.15912e-01,1.98994e-01,1.09280e-01,2.71684e-01,2.08603e-01,-1.04259e-01,2.88039e-01,3.21211e-01,-1.57096e-01,1.83507e-01,-5.69611e-02,
2.16581e-02,-1.98944e-01,7.44512e-02,-1.51359e-01,-3.96192e-02,-1.43576e-01,-2.96037e-01,2.21825e-01,1.73748e-01,3.84371e-02,1.70527e-01,-3.99290e-01,-1.12254e-01,
2.52245e-01,1.83343e-01,7.21406e-03,5.23941e-03,1.78910e-02,-1.00013e-02,-1.08135e-01,3.40803e-02,4.93046e-02,-6.24974e-04,-1.20468e-01,9.45256e-02,3.25369e-02,
6.10685e-03,1.48675e-01,1.08862e-01,-3.57937e-02,1.50502e-01,2.97354e-02,2.93401e-02,-7.56612e-02,1.57977e-01,1.34647e-01,-1.00988e-01,1.69142e-01,7.37664e-02,
-8.52132e-02,-4.10684e-02,1.86604e-01,6.47300e-02,9.45797e-02,1.09494e-01,1.95838e-01,1.72699e-01,-1.02654e-01,-2.97536e-02,9.13581e-02,2.90649e-02,7.46780e-03,
-3.63842e-02,-2.00914e-01,1.59449e-01,6.38881e-02,9.64291e-02,1.69906e-01,-3.56649e-01,2.67575e-01,1.29558e-01,8.38516e-03,-4.65632e-02,-4.33298e-01,1.80953e-02,
6.61021e-02,-2.88340e-01,-3.96711e-01,-9.30684e-02,-8.67061e-02,2.20575e-01,2.26870e-01,-1.35333e-01,1.94320e-01,2.92381e-01,-1.86460e-01,-3.50017e-01,1.88247e-01,
1.10002e-01,8.39061e-02,5.03323e-02,1.72326e-01,-1.12435e-02,2.65370e-02,1.61797e-01,-6.47426e-02,3.74957e-02,1.57813e-01,-1.02639e-01,-4.69368e-02,-4.53408e-02,
-7.51321e-02,1.91496e-02,2.26455e-03,9.94164e-02,4.12940e-02,-5.25501e-02,1.40747e-01,1.71720e-01,-3.83023e-02,-1.43726e-01,1.28543e-01,1.81068e-02,-6.70914e-02,
-6.77172e-02,2.01008e-01,-3.78928e-02,2.23371e-01,-6.19322e-03,1.01833e-01,1.26146e-02,-1.30808e-01,8.78028e-02,2.55125e-01,-1.46158e-01,3.36016e-02,1.73060e-01,
1.78163e-02,-1.75738e-01,1.20996e-01,1.03595e-01,-1.21375e-01,4.94721e-02,1.65609e-01,2.65154e-01,1.02063e-01,3.86166e-02,8.03611e-02,-2.65823e-02,-1.67506e-01,
8.07278e-02,3.67374e-02,1.77956e-01,-4.72478e-02,-8.02605e-02,5.10940e-02,-4.77501e-02,7.96407e-02,1.60215e-02,-2.96662e-02,8.23249e-02,-1.18792e-01,-5.66345e-02,
1.28868e-02,2.93706e-02,1.71414e-01,7.79379e-02,5.43830e-02,-3.78170e-03,1.54848e-01,1.80908e-01,-2.13698e-02,-2.86328e-02,1.92809e-01,-8.86989e-02,-2.20300e-01,
-4.90333e-02,8.42595e-02,-7.48941e-02,-5.62702e-02,2.15967e-01,2.13662e-02,4.06398e-02,-1.53960e-01,1.05462e-01,2.93002e-01,7.90774e-02,1.20785e-01,-2.98709e-02,
-1.26802e-02,-8.31823e-02,-2.96804e-02,-4.62983e-02,9.50209e-02,1.90521e-01,2.63516e-01,3.07092e-01,-1.65006e-01,-1.73283e-01,2.39784e-02,1.28606e-01,-2.05757e-01,
1.74627e-01,1.69431e-01,-9.41478e-02,1.19557e-01,-6.88407e-02,1.12295e-01,-1.21670e-01,-1.49833e-01,2.67071e-02,5.58571e-02,-3.77679e-02,2.01586e-01,2.47181e-01,
4.35854e-02,-1.88755e-01,7.23957e-02,-1.50492e-01,-1.03218e-01,1.29089e-01,2.33562e-01,1.11508e-01,-4.17510e-02,-3.36300e-01,2.64803e-01,7.00516e-02,-2.89481e-02,
-7.48103e-03,4.22699e-02,1.24526e-01,-1.06737e-01,8.48650e-02,1.39309e-02,5.10652e-02,1.69403e-01,3.41922e-02,-1.61534e-01,-4.26988e-02,-1.82405e-02,-1.81517e-02,
1.29717e-01,-1.03075e-01,1.28755e-01,-1.52486e-01,-1.82931e-01,-5.02195e-03,8.05223e-02,-8.23454e-02,4.37260e-02,-1.85227e-01,1.97710e-01,1.64134e-01,-5.34873e-02,
-2.00416e-02,-1.64798e-02,-2.43032e-02,-2.13203e-02,-1.88582e-02,2.53869e-02,-1.48808e-02,-2.25204e-02,-1.88836e-02,-1.85576e-02,-1.96364e-02,-1.89361e-02,-2.09431e-02,
6.20128e-02,-1.13268e-01,9.32801e-02,-3.61519e-02,-1.33377e-01,3.57135e-02,-3.65523e-02,2.25210e-01,-1.47430e-04,-1.11573e-01,3.02358e-02,-1.24797e-01,9.71887e-02,
8.36448e-02,1.08279e-01,6.43333e-02,1.03785e-01,-5.37939e-03,-2.65644e-02,-1.02407e-01,-2.08420e-01,1.01382e-01,3.06707e-01,1.09209e-01,1.65527e-01,1.29868e-01,
7.15408e-02,1.01539e-01,4.77913e-02,1.64021e-01,-1.73113e-01,1.77749e-01,-2.65307e-01,1.63499e-01,1.19280e-01,1.48388e-01,-1.23899e-02,-6.09680e-01,-1.94571e-01,
-1.44317e-02,-1.24991e-01,-3.33304e-02,4.61916e-02,-1.23279e-01,8.03404e-02,-3.89163e-02,-3.03921e-02,-1.48140e-01,1.12825e-01,-2.51577e-02,-1.12205e-01,6.64481e-02,
-7.36687e-02,2.26344e-01,-3.42176e-02,1.10292e-01,-9.98795e-02,-1.01233e-01,5.87597e-02,-9.38614e-02,-3.16449e-02,7.86496e-02,1.10124e-01,1.63273e-01,2.58796e-01,
-5.28780e-02,-8.69641e-02,-1.55130e-01,1.63312e-01,-1.85805e-01,2.45101e-01,2.25048e-01,7.31258e-02,3.64790e-01,3.65839e-01,-2.40784e-01,9.77642e-02,-3.39329e-02,
-7.32948e-02,5.48286e-02,3.16749e-01,3.98823e-02,-9.31514e-03,1.27148e-01,-3.20142e-01,1.80203e-01,-1.78115e-01,2.49578e-01,-6.91078e-01,-1.55351e-01,-3.39551e-02,
3.72882e-02,-3.02603e-02,1.65937e-01,-5.65068e-02,-9.73935e-02,1.36800e-01,-4.68049e-02,2.59459e-01,7.33116e-02,-1.51564e-01,-7.07965e-02,4.90906e-02,6.17366e-04,
3.25709e-02,2.16542e-01,3.80891e-02,1.08621e-01,2.86961e-03,-3.11244e-01,-9.08484e-02,-1.49435e-01,-1.54175e-01,5.72817e-02,1.45187e-01,-5.62888e-02,-4.29056e-03,
4.41186e-02,9.89428e-02,1.58378e-01,3.94086e-02,-9.68531e-02,1.58010e-01,-1.15664e-02,1.01931e-01,-1.37989e-01,-3.44857e-02,5.64699e-02,-1.23183e-01,2.93745e-02,
-1.65380e-01,-1.07323e-01,1.68078e-01,1.48669e-01,8.33780e-02,4.58978e-02,1.38055e-01,-1.06202e-02,-1.16322e-01,-7.73808e-02,1.21656e-01,1.94408e-01,-8.50874e-02,
6.96388e-02,5.78858e-02,1.97466e-01,-1.10906e-02,1.47085e-01,-1.79159e-02,1.23094e-01,2.45944e-01,-1.24111e-01,-7.90457e-02,-1.11030e-02,-5.50978e-02,-1.22759e-01,
1.43713e-01,6.38286e-02,-2.12310e-01,2.80173e-01,1.56843e-01,-5.49193e-02,-1.11781e-01,1.12653e-02,7.53949e-02,7.61790e-02,-6.98232e-02,2.07600e-01,-3.46670e-02,
2.23524e-01,-4.05030e-01,7.96230e-02,9.85165e-02,-6.15781e-02,-1.36139e-01,2.76255e-01,-1.64076e-01,-3.13807e-01,1.90078e-01,7.31941e-02,-1.20445e-01,-2.93633e-02,
-1.04087e-01,1.17396e-01,1.98405e-01,6.88136e-02,-3.34263e-02,-4.62659e-01,-1.22642e-01,8.16693e-02,-3.59363e-01,-1.62891e-01,1.00266e-01,-2.26220e-01,1.90686e-01,
1.89516e-02,-1.74879e-01,2.37502e-01,1.26613e-01,1.33922e-01,1.88643e-01,-3.06496e-01,5.18433e-02,3.21654e-02,1.31694e-01,-3.35161e-01,-4.06358e-01,4.50775e-02,
-1.33701e-01,9.78485e-02,-2.48898e-01,2.18543e-01,-7.40550e-02,-6.98529e-02,-6.38327e-02,-1.06430e-01,1.52059e-01,1.79405e-01,-8.62127e-02,-5.95121e-02,2.95806e-01,
7.45995e-02,-7.68794e-03,1.94988e-01,-7.35046e-02,-1.44123e-01,1.13173e-01,3.07411e-02,-1.31503e-02,-9.35520e-02,5.13022e-02,1.74056e-01,-1.01556e-01,8.35148e-02,
2.33461e-01,-3.79493e-01,1.17917e-02,-1.98282e-01,1.97410e-01,-3.62061e-01,1.96128e-01,-7.05947e-02,-3.48316e-01,8.30473e-02,-1.95588e-02,2.33557e-01,1.12767e-01,
2.89294e-02,-4.72030e-01,-1.96101e-01,5.39025e-02,8.61418e-02,1.58813e-01,-4.86998e-01,2.47320e-01,-4.94076e-01,-4.97278e-01,4.58580e-02,2.93199e-01,5.43864e-02,
-1.09380e-01,-2.32081e-01,-3.73572e-02,3.19955e-02,-7.43047e-03,1.14927e-01,1.83314e-02,1.65621e-01,-1.79188e-01,4.22166e-02,2.27489e-01,-9.34055e-02,-2.73905e-02,
-1.13368e-01,-8.50955e-03,-1.06818e-01,-4.44672e-02,-1.74652e-01,1.90146e-02,8.73935e-02,-1.52788e-01,3.40389e-02,5.89942e-02,3.15461e-02,2.52331e-02,3.77089e-02,
1.07626e-01,5.33085e-02,-8.07979e-02,8.39009e-02,1.55558e-01,1.16958e-01,-1.37685e-02,-1.13473e-01,1.62713e-02,1.66101e-01,4.29735e-02,1.39454e-01,1.07474e-01,
7.65653e-02,1.69816e-01,-9.79921e-02,-1.10675e-01,-9.81230e-02,-3.97358e-01,-1.49126e-01,1.19034e-01,2.22538e-01,-2.65932e-01,-2.70343e-02,-2.80132e-01,-1.65977e-01,
1.65540e-02,-9.01300e-02,-4.36549e-01,2.07845e-01,-5.38502e-02,1.25473e-01,-1.11543e-01,1.77777e-01,1.86287e-01,3.19678e-01,-5.07790e-02,1.16106e-01,1.26361e-01,
8.32127e-02,-1.24371e-01,5.95757e-02,9.46150e-02,1.16898e-01,-3.90335e-02,-2.79735e-01,9.44783e-03,-1.79161e-01,-3.35649e-01,-8.95913e-03,8.81171e-02,1.11735e-01,
4.27024e-02,1.82351e-03,-6.92660e-02,-8.81004e-02,2.47611e-03,1.08040e-01,1.77900e-02,4.11771e-02,9.32095e-02,-1.58125e-01,2.57355e-01,-4.25757e-01,-1.75236e-01,
-2.09376e-01,-1.27753e-02,5.26625e-02,-3.05070e-02,1.10789e-01,1.91210e-01,-9.72695e-02,2.42200e-01,4.97111e-02,2.95514e-02,1.98324e-01,2.27769e-03,4.95046e-02,
9.69865e-02,4.35018e-02,-8.87108e-02,-1.44948e-02,1.54224e-01,-1.18029e-02,1.13834e-01,-1.82915e-01,1.28503e-01,1.94442e-01,1.16347e-02,4.33295e-02,2.21549e-01,
6.77697e-02,1.93724e-02,-1.11095e-01,-1.16515e-01,-1.49428e-01,1.19639e-01,2.06856e-02,-5.23214e-02,3.18354e-02,-1.42784e-01,-1.39445e-01,7.18218e-02,-1.34042e-01,
-7.04428e-02,-5.76457e-02,2.17385e-01,9.58217e-02,9.40069e-02,9.79368e-02,-4.13724e-01,1.64088e-01,1.13621e-01,8.43853e-02,-2.14991e-01,-3.07269e-01,-7.71958e-02,
1.19208e-02,1.01959e-01,5.62957e-02,2.32651e-01,4.73819e-02,9.13186e-02,5.85724e-02,-1.29106e-01,-2.20127e-02,7.23125e-03,3.62996e-02,1.55016e-01,1.66646e-01,
-1.47834e-01,-2.20037e-01,1.31940e-01,1.35991e-01,1.37312e-01,1.36976e-01,1.72314e-01,1.34378e-01,-2.13827e-01,-4.99524e-03,1.13328e-01,1.58586e-01,-8.02050e-02,
-1.04935e-01,-1.18456e-01,1.61499e-01,-4.81102e-02,1.19101e-01,-3.53791e-02,1.98712e-01,2.62588e-01,2.58467e-02,-1.04055e-01,7.79228e-02,-1.10065e-01,3.04428e-02,
1.27662e-01,2.41587e-01,5.41957e-02,-3.96722e-02,1.78333e-01,-2.24525e-01,-1.24122e-01,5.78069e-02,9.20283e-02,6.96118e-02,-1.22518e-01,-7.56416e-02,9.24793e-02,
2.18025e-01,-9.64223e-02,1.08518e-01,-5.36362e-02,5.65426e-02,-9.58365e-02,7.59739e-02,8.15808e-02,-1.14067e-01,1.22252e-01,-4.83352e-01,2.15780e-01,-1.16279e-03,
-1.31908e-02,
-5.61531e-02,
7.25942e-02,
-3.33445e-02,
1.08918e-01,
-3.10942e-06,
4.42248e-03,
-3.90533e-03,
-1.86895e-02,
6.33495e-02,
1.45125e-01,
-1.70406e-02,
1.25199e-02,
1.36815e-01,
-6.42154e-02,
-4.45103e-02,
-1.10494e-02,
-5.55265e-02,
-3.17019e-02,
2.20840e-02,
9.74912e-02,
5.50171e-02,
8.22964e-04,
8.71716e-02,
6.24665e-02,
-5.20935e-03,
-5.13046e-02,
8.66439e-02,
7.07777e-02,
4.12207e-02,
6.87725e-02,
9.21898e-02,
1.06258e-01,
1.05793e-01,
1.14931e-01,
1.02166e-02,
-6.57668e-03,
7.41883e-02,
5.20000e-02,
1.00254e-01,
-4.64970e-02,
-6.44204e-02,
-4.67736e-02,
1.17655e-01,
-1.37838e-02,
-6.23737e-02,
-4.60712e-02,
-1.78682e-02,
-6.80978e-04,
-4.61079e-02,
2.83861e-02,
-2.32557e-02,
-4.46300e-02,
7.44267e-02,
-1.67722e-02,
1.05745e-01,
4.46096e-03,
-5.04256e-02,
-1.75552e-02,
7.53884e-02,
-5.33514e-02,
1.32862e-01,
7.37287e-02,
-6.68126e-02,
-3.27321e-02,
-3.19067e-03,
9.97755e-02,
8.13495e-02,
-7.07941e-02,
-1.73852e-02,
1.07700e-02,
2.25467e-02,
2.77431e-02,
1.09297e-01,
8.54353e-02,
3.11188e-02,
-3.65095e-03,
-3.15445e-02,
-4.65012e-03,
-4.94936e-03,
6.66323e-02,
4.06740e-02,
-1.98743e-02,
-2.28611e-02,
-7.19663e-02,
7.09247e-02,
6.20555e-02,
2.71086e-02,
1.10036e-01,
-1.44702e-02,
1.11917e-01,
-4.67033e-02,
6.72204e-02,
-2.22307e-02,
-5.32899e-02,
5.34490e-02,
1.07592e-01,
-3.41157e-02,
-5.00801e-02,
-3.99003e-02,
-2.04381e-02,
9.70511e-02,
1.39854e-01,
-4.48321e-02,
1.13800e-01,
1.41511e-01,
8.88353e-02,
1.48900e-01,
1.35090e-01,
3.04540e-02,
1.14714e-01,
1.35710e-02,
-8.75802e-03,
1.07188e-01,
-4.89212e-03,
8.20887e-02,
-2.44191e-02,
-5.59811e-02,
2.88661e-02,
-8.05598e-03,
1.25172e-02,
4.47477e-02,
3.77414e-02,
-4.95429e-02,
1.27547e-01,
-4.68043e-02,
9.61034e-03,
9.78432e-02,
-5.88182e-03,
6.09804e-02,
7.80309e-02,
4.11758e-02,
2.46659e-03,
4.96895e-04,
-5.15358e-02,
2.96864e-03,
4.22438e-02,
6.01536e-02,
4.03669e-02,
7.39325e-02,
1.42382e-01,
-4.70477e-02,
-3.97114e-02,
-4.09802e-02,
-5.88555e-03,
1.05721e-01,
2.37070e-02,
-3.03730e-02,
6.78583e-02,
8.05183e-02,
-1.27350e-02,
-5.02580e-02,
7.09904e-02,
-1.24555e-02,
1.53705e-01,
8.33645e-02,
7.33401e-02,
1.79807e-02,
1.01147e-01,
1.88227e-02,
1.03872e-01,
6.81863e-02,
8.48787e-02,
-2.13128e-02,
1.09516e-01,
-3.20042e-02,
8.32659e-02,
-2.63448e-02,
-6.36129e-02,
-4.07789e-02,
2.55805e-02,
9.20186e-02,
-2.70384e-02,
7.67102e-02,
1.15315e-01,
1.04295e-01,
-7.02681e-03,
6.65159e-02,
-4.27038e-02,
8.80562e-02,
-4.46022e-02,
6.56131e-02,
7.86151e-02,
1.09797e-02,
9.58535e-02,
-2.60794e-02,
-2.69400e-02,
6.49978e-02,
-9.54603e-03,
-5.84133e-02,
1.23966e-01,
6.47599e-02,
6.28554e-03,
-2.63398e-02,
1.19498e-01,
-4.98143e-02,
1.13887e-01,
1.17510e-01,
-3.52883e-03,
4.99271e-02,
1.48373e-01,-7.21172e-02,2.48735e-01,-2.64453e-01,3.02336e-01,2.48949e-02,-7.34367e-02,-6.44372e-02,-2.19520e-02,3.49532e-01,3.36224e-01,-1.29737e-01,-1.48554e-01,2.25342e-01,-1.78061e-01,-1.82971e-01,8.44538e-02,-5.62722e-02,-3.13081e-02,-1.37166e-01,4.45033e-01,2.27744e-01,3.43634e-01,4.32721e-01,1.49626e-01,-1.38500e-01,3.09770e-02,1.21859e-01,1.39791e-01,-1.95564e-01,1.55607e-01,1.66310e-01,3.82310e-01,1.06156e-01,6.01365e-01,-6.30964e-01,-2.10360e-02,1.85769e-01,-6.54605e-01,1.91852e-01,-1.00320e-01,-2.38950e-01,-1.66618e-01,2.05425e-01,-3.33738e-01,-1.90534e-01,-2.97495e-01,1.79146e-01,-3.39404e-01,-1.56957e-01,-7.42182e-01,5.16487e-01,-3.11963e-01,2.14382e-01,-2.02251e-01,2.91431e-01,-2.39941e-01,-1.52958e-01,-5.95233e-01,1.51979e-01,-4.39108e-01,1.83391e-01,5.41642e-01,-1.69425e-01,-4.07963e-01,-1.29081e-01,2.56429e-01,1.29196e-01,-2.28073e-01,-1.67496e-01,4.26817e-01,-6.68392e-01,-1.65338e-01,9.82418e-02,1.41734e-01,2.04448e-01,-4.71125e-01,-6.21303e-01,-7.53744e-01,-1.94233e-01,1.32770e-01,1.57047e-01,1.31238e-01,6.19433e-02,-1.60582e-01,3.85561e-02,2.50158e-01,-8.43130e-01,2.28405e-01,-1.87052e-01,3.05002e-01,-1.76384e-01,2.98472e-01,-1.64319e-01,-2.14296e-01,5.26218e-01,6.67947e-01,-1.21738e-01,-4.84073e-01,-2.13676e-01,-3.10610e-01,4.02727e-01,3.93172e-01,-1.27577e-01,2.77219e-01,4.24212e-01,2.09412e-01,1.90919e-01,1.07080e-01,1.10197e-01,1.29661e-01,-4.89568e-01,4.35576e-03,3.71034e-01,-1.46541e-01,2.02615e-01,-1.32803e-01,-9.71856e-02,-3.48143e-01,-2.28532e-01,-5.10858e-01,2.89628e-02,6.56725e-01,-1.26234e-01,1.98871e-01,-2.88101e-01,-3.27987e-01,4.54100e-01,2.15228e-04,4.50610e-02,9.93390e-02,3.40931e-01,-4.24959e-01,4.32399e-01,-1.33890e-01,-1.29142e-01,3.81080e-01,-7.63903e-01,-5.23982e-01,3.44620e-02,4.03784e-01,-9.85671e-02,-3.14029e-01,-2.45697e-01,-5.18948e-01,4.12645e-01,-2.02229e-01,-9.42669e-02,6.26225e-02,1.77349e-01,-5.70054e-01,-1.76857e-01,1.62480e-01,-1.71894e-01,2.28873e-01,6.02941e-02,1.63271e-01,-8.90758e-02,2.71631e-01,-2.46427e-01,1.86364e-01,1.61298e-01,2.55106e-01,2.42433e-02,1.32844e-01,-1.06365e-01,4.80630e-01,-8.49938e-02,-5.29616e-02,-4.01536e-01,5.11908e-01,7.94248e-02,-1.52998e-01,1.48469e-01,3.03729e-01,2.16341e-01,-1.32443e-01,7.45126e-01,-2.92662e-01,4.84101e-01,-3.64585e-01,8.63994e-02,6.18888e-01,-4.42811e-01,4.04330e-01,5.74504e-02,-2.18596e-01,5.27381e-01,-2.46207e-01,-1.97607e-01,4.43252e-01,7.50322e-02,-2.29654e-01,1.23948e-01,5.99533e-01,-1.59612e-01,3.63130e-01,9.19690e-02,-2.19803e-01,5.19088e-01,
6.38076e-02,
