// Neural Network File Format by Kyle Julian, Stanford 2016
11,13,1,50,
13,50,50,50,50,50,50,50,50,50,50,1,
0,
0,0,0,0,0,0,0,0,0,0,0,0,0,
1,1,1,1,1,1,1,1,1,1,1,1,1,
0,0,0,0,0,0,0,0,0,0,0,0,0,0,
1,1,1,1,1,1,1,1,1,1,1,1,1,1,
-2.30525e-01,1.18530e-01,5.78063e-02,-2.90915e-01,-2.52753e-01,3.55018e-01,-2.38636e-01,6.47708e-02,-3.45757e-01,-1.11888e-01,2.77439e-01,-1.59512e-01,-2.20577e-02,
2.47153e-01,-1.90579e-01,3.40409e-01,1.96075e-01,-1.16050e-03,1.21925e-01,-2.38179e-01,2.76210e-01,-2.27549e-01,-1.24627e-01,-3.06404e-01,-1.16051e-02,-4.86048e-02,
-2.72594e-01,3.03400e-01,3.18150e-01,-3.52481e-01,-2.84135e-01,2.45655e-01,-1.89185e-01,-2.62895e-01,-9.23304e-02,2.68599e-01,8.34617e-02,-5.12413e-02,-2.64240e-01,
-2.80257e-01,-2.50766e-01,2.81181e-01,5.64586e-02,2.76125e-03,-2.65942e-01,-1.32524e-01,-1.37941e-02,1.70077e-01,1.12681e-01,-2.56691e-01,3.59266e-02,1.25723e-01,
-4.40439e-02,1.88690e-01,-1.29779e-01,8.78354e-02,-1.86820e-02,1.43158e-01,-1.84867e-01,-1.92702e-01,2.60433e-01,7.33876e-02,-1.24619e-01,-1.85461e-01,-1.07176e-01,
1.44586e-01,-5.03509e-02,2.57575e-01,-1.35510e-01,-2.34394e-01,-1.42595e-01,2.15662e-01,1.29131e-02,-8.77565e-02,-6.99992e-02,-2.96119e-01,8.23009e-02,-1.08373e-02,
-1.65246e-01,1.55216e-01,-1.03397e-01,1.95363e-01,9.98654e-02,1.25165e-02,3.73391e-02,2.27146e-01,-2.71822e-01,4.52063e-02,-2.88940e-01,-1.57616e-01,-2.64713e-01,
-2.63100e-01,7.43120e-02,4.71386e-02,-4.50243e-02,-2.57679e-01,2.68610e-01,-2.49798e-01,2.62581e-02,2.30678e-01,-1.56225e-01,-1.72343e-01,-1.07486e-01,1.38372e-02,
-1.09838e-01,4.63148e-02,-1.18643e-02,-2.86160e-01,-3.15372e-01,5.44146e-02,-8.50248e-02,-2.76779e-02,9.19065e-02,-6.07345e-02,1.87394e-01,-1.49830e-01,2.30692e-01,
-2.09858e-02,8.37974e-02,5.14409e-02,2.28241e-01,-9.77785e-02,-2.21028e-01,-9.34026e-02,1.58924e-01,1.03834e-01,1.99612e-01,1.82921e-01,-3.15762e-01,2.86027e-01,
-2.88112e-01,-2.42311e-01,3.39733e-02,1.43425e-01,2.98957e-01,-1.30453e-01,-1.48247e-01,1.02891e-01,1.54861e-01,2.58827e-01,3.51839e-01,-2.69339e-01,-2.47534e-01,
-2.03772e-01,-1.51252e-01,-1.20174e-01,-1.35465e-01,-1.28772e-01,6.96084e-03,-3.00192e-02,9.15064e-02,9.89473e-02,2.60441e-02,2.31387e-01,9.21374e-02,-2.78879e-01,
2.61849e-01,1.10066e-01,-3.11582e-01,2.34595e-01,3.45467e-01,2.37802e-02,-2.52244e-01,1.90399e-01,1.96769e-01,8.27640e-02,-3.07862e-01,-2.61313e-01,-2.64583e-01,
1.52643e-01,-5.65416e-03,-3.08464e-01,1.27574e-01,1.70968e-01,2.05816e-01,-3.09312e-01,2.42413e-01,-1.44923e-01,-3.10699e-01,-1.96603e-01,-6.03027e-02,1.17889e-01,
2.84283e-01,1.36701e-01,-9.97156e-02,-1.01926e-01,-2.86051e-01,-8.98168e-02,-7.91961e-02,-1.61825e-01,7.05271e-02,-1.48988e-01,-2.75299e-01,1.71141e-02,2.60974e-01,
-2.15169e-01,5.11329e-02,-2.59635e-01,3.05897e-01,-2.23269e-01,1.28796e-01,3.04746e-01,8.71342e-02,2.15260e-01,-1.51342e-01,3.00271e-02,1.42529e-01,6.06062e-03,
-1.66419e-02,1.56543e-01,-2.74590e-01,2.73249e-01,-2.47516e-02,2.02009e-01,2.38680e-01,2.86073e-01,-9.59370e-02,-6.53215e-02,-1.38259e-01,3.31465e-01,-2.63872e-01,
4.54577e-02,1.20153e-01,-8.69632e-02,-2.09235e-01,-1.98827e-01,4.65881e-02,1.74949e-01,-3.37648e-01,2.27361e-01,-4.23319e-01,1.25896e-02,-1.45871e-01,-2.54359e-02,
-3.93322e-02,3.16377e-01,-1.66688e-01,-2.24868e-01,7.45160e-02,1.30406e-02,8.42669e-02,-1.89062e-01,1.24671e-02,1.89260e-01,-1.06764e-01,3.03614e-01,-7.97798e-02,
1.21838e-01,-1.84406e-03,-1.53260e-01,1.16261e-02,-2.11059e-01,1.14599e-01,3.08153e-01,3.38694e-01,3.29279e-01,1.81209e-01,-2.23205e-01,-2.52843e-01,-1.98740e-01,
6.49461e-04,-1.08330e-01,3.76527e-02,-3.38623e-02,1.32111e-02,1.49686e-01,-1.66531e-01,6.39279e-02,-1.79236e-01,2.07997e-01,1.02230e-01,-2.12857e-02,-2.46487e-01,
-1.30554e-02,-2.97142e-02,1.63860e-01,3.27462e-02,-2.40716e-01,2.13403e-02,-1.06082e-02,-1.07536e-01,-6.84060e-04,5.86124e-03,-7.38972e-02,5.78805e-03,-4.56209e-02,
1.08763e-01,-6.29899e-02,1.70239e-01,-6.24425e-02,2.32588e-01,2.57223e-01,8.17592e-02,-3.22823e-01,7.55992e-04,-3.62489e-01,-4.33133e-02,1.84004e-01,1.84586e-01,
-1.40846e-01,-2.21676e-01,1.31269e-01,-1.77164e-02,-9.09828e-02,4.18287e-02,2.22728e-01,7.27872e-02,2.57534e-01,-3.33923e-01,1.19134e-01,2.46289e-01,-2.23469e-01,
-1.94764e-01,1.83748e-01,2.05928e-01,-3.29360e-01,-2.23047e-01,4.88993e-02,9.92275e-02,-2.69918e-01,-9.41801e-02,-3.94245e-01,-1.66244e-02,3.01986e-01,2.42779e-01,
4.72797e-02,2.86675e-01,-2.33097e-01,-1.53054e-01,-1.28415e-01,1.74940e-01,-2.52371e-01,1.62557e-01,4.80056e-02,1.31083e-01,-2.92739e-01,2.93720e-03,-2.20627e-01,
-1.72899e-01,1.03398e-01,7.58014e-02,-1.67395e-01,2.28146e-01,4.73575e-02,-3.10697e-01,1.43931e-01,-2.97601e-02,-3.39864e-01,-6.33015e-02,3.65049e-01,1.83390e-01,
-1.63158e-02,-1.61959e-02,1.94184e-37,-7.67934e-03,2.77259e-03,-2.51129e-03,-1.21726e-02,-1.00757e-02,-1.16505e-02,-3.29840e-03,-8.87241e-03,-1.32244e-09,-9.21102e-11,
2.64805e-01,1.86065e-01,6.71774e-02,2.96939e-02,-1.82328e-01,-2.22607e-01,3.17862e-01,-1.41825e-01,-1.27062e-01,1.07426e-02,1.33676e-01,8.73086e-02,-1.13916e-01,
1.91096e-01,7.47562e-02,2.70929e-03,-8.28672e-02,-1.20626e-01,-5.35972e-02,-1.07558e-01,-1.95252e-01,3.26187e-02,2.59439e-01,-4.09571e-02,1.36219e-01,-4.22799e-02,
-1.29945e-01,2.49236e-01,4.16073e-02,9.08490e-02,2.66229e-01,1.46398e-01,-1.65564e-01,-3.76065e-02,-1.30354e-01,-8.95534e-03,7.59959e-03,3.71164e-01,-1.53406e-01,
-3.47662e-02,3.17120e-01,-1.31425e-01,7.18792e-03,1.48771e-01,2.27032e-01,-7.98069e-02,1.09491e-02,-1.23212e-01,1.07745e-01,2.61957e-02,-3.82097e-02,2.95031e-01,
2.94900e-01,-1.21537e-01,-1.92296e-01,1.60374e-01,1.01149e-01,5.36443e-02,-5.10823e-02,-2.65207e-01,-8.03040e-02,2.88096e-01,-1.51916e-01,3.43543e-01,1.92863e-01,
-2.83520e-01,2.81997e-01,-2.79224e-01,-1.89619e-01,3.06763e-01,-4.20887e-02,2.36612e-01,2.60261e-01,-1.27681e-01,2.65140e-02,-1.27611e-01,-1.45093e-01,-2.60899e-01,
-4.11527e-08,-3.40375e-35,2.95158e-37,-2.62826e-12,-1.19056e-10,5.38842e-25,-5.81626e-29,4.38051e-37,9.92582e-33,-8.55291e-13,-4.31461e-32,4.76475e-35,-1.39730e-37,
3.29090e-01,7.33697e-02,8.48958e-02,1.39590e-01,1.12076e-01,-5.17115e-02,-2.72727e-01,-1.03615e-01,-3.12250e-02,-8.66112e-02,3.16162e-01,-2.11149e-02,-1.54794e-01,
-1.52140e-01,1.67034e-01,2.85526e-01,9.42419e-02,2.33736e-01,-3.12139e-02,2.23108e-01,2.29163e-01,-6.34928e-02,2.04001e-01,-1.45327e-01,1.07824e-02,-2.18561e-01,
-2.28545e-01,2.70347e-01,2.21220e-01,-1.11404e-02,-1.41168e-01,-4.97357e-02,-3.09779e-01,-2.87621e-01,3.42338e-02,-1.61721e-01,-2.33788e-02,-2.00548e-01,2.51424e-01,
2.80231e-01,1.86628e-01,-2.29417e-01,2.13385e-01,1.32754e-01,2.72277e-01,-2.17843e-01,3.28482e-01,-1.37094e-01,-1.19126e-01,-2.74696e-02,1.15207e-01,-3.18052e-01,
-9.01892e-02,-1.07062e-01,-3.36956e-01,9.82831e-02,2.86673e-01,-1.02557e-01,1.16145e-01,-1.17177e-01,9.50552e-02,2.67018e-01,1.08680e-01,4.09466e-01,1.72401e-01,
2.31638e-01,8.37769e-02,2.46293e-01,-3.18111e-01,-2.29683e-01,-2.11149e-01,3.70006e-01,8.03005e-02,2.01277e-01,2.35858e-01,1.13849e-01,7.30873e-02,-1.12077e-01,
-2.38625e-01,3.05656e-01,2.60937e-01,2.33828e-01,-1.93777e-01,-1.23131e-01,2.66773e-01,-5.85457e-02,-2.08869e-01,1.53958e-01,-1.83444e-01,2.96482e-02,-2.55435e-01,
6.09835e-02,2.88390e-01,-2.98685e-01,-2.28101e-01,-5.60814e-02,6.59967e-02,-5.36766e-02,-1.72777e-01,-4.79472e-02,4.42637e-02,-1.88492e-01,3.03298e-01,2.27643e-01,
6.97901e-02,-9.12011e-02,-1.52976e-01,2.33319e-01,-2.15139e-01,2.27578e-01,1.80045e-01,1.94536e-01,1.15816e-01,-4.67583e-02,-2.20220e-01,2.52384e-01,-2.95563e-01,
-1.00787e-01,-1.97587e-01,2.18249e-01,2.76945e-01,2.94339e-01,-2.55117e-01,1.61452e-01,2.82356e-01,-1.88291e-01,-5.36405e-02,2.03145e-01,-3.40748e-01,-2.96065e-01,
1.77376e-02,-2.41731e-01,8.59924e-02,4.99286e-02,1.15396e-02,2.24693e-01,2.44224e-01,1.64731e-01,-1.13065e-01,3.03968e-01,-2.26850e-01,-3.27363e-01,4.63600e-02,
-5.81562e-02,-2.54795e-01,-2.78420e-02,-9.09469e-02,2.63210e-01,5.79411e-02,-1.83179e-01,2.82394e-01,-2.26756e-01,-4.05787e-01,-4.25222e-02,2.01517e-01,-1.10541e-01,
1.89670e-01,1.47959e-01,-5.32331e-02,-1.39245e-01,2.19708e-01,-5.05292e-02,-3.51023e-01,-2.00907e-01,9.17649e-02,2.88525e-01,-1.68365e-01,7.66339e-02,-1.18658e-02,
1.40259e-01,1.73365e-01,3.62196e-01,-2.88390e-01,2.17867e-01,-7.37248e-02,5.63467e-02,1.24865e-03,-1.67939e-01,1.13565e-01,-1.75562e-01,-1.46765e-01,-2.83456e-01,
1.74723e-01,1.87126e-02,1.27168e-01,9.72350e-02,2.06880e-02,-1.04007e-01,2.26128e-01,-2.69897e-03,-2.76497e-01,-1.43017e-01,2.78560e-01,2.01034e-01,-1.03773e-01,
3.18073e-02,
-1.08437e-02,
4.78865e-02,
-3.71592e-03,
-1.22594e-02,
3.55048e-02,
1.55937e-02,
-4.71697e-03,
3.53207e-02,
-1.69969e-02,
4.90994e-02,
-2.71796e-02,
4.21855e-02,
-3.20442e-02,
-6.34733e-03,
7.80183e-03,
2.63981e-02,
3.28604e-04,
2.92932e-02,
1.41807e-02,
-6.35749e-03,
-1.40495e-02,
1.84833e-02,
4.91513e-02,
1.24515e-02,
2.61614e-02,
-7.71103e-04,
-1.16505e-02,
4.76892e-03,
-4.03126e-05,
1.53105e-03,
-6.77854e-03,
1.38995e-02,
1.55106e-02,
-3.45906e-37,
1.72143e-02,
2.08276e-02,
1.43926e-02,
-8.18133e-03,
-2.57558e-03,
3.09934e-03,
4.32689e-02,
2.79343e-02,
3.03475e-02,
4.67305e-02,
3.86748e-02,
1.46803e-02,
1.10325e-02,
2.94238e-02,
2.03221e-02,
5.47028e-02,7.94975e-02,-1.94962e-01,-2.06372e-02,-1.01437e-01,2.11709e-01,-5.35306e-02,-1.60246e-01,2.26817e-01,-7.39286e-03,2.23925e-01,1.52460e-01,1.55878e-01,2.39324e-01,8.17557e-02,1.43971e-02,-5.79915e-02,-3.81748e-02,-1.22941e-01,2.18788e-01,3.38222e-02,-2.98859e-03,2.89160e-01,3.02937e-01,-2.35406e-01,3.22562e-02,-1.43989e-01,-2.02480e-33,2.64170e-03,1.40741e-02,-3.00631e-02,8.44961e-02,-2.43081e-01,1.53479e-01,3.21779e-37,-1.76693e-01,2.29517e-01,-9.20201e-02,2.52702e-01,1.38146e-02,-2.50141e-01,-3.08248e-02,-2.50837e-01,-9.72890e-02,2.57969e-02,1.36554e-01,5.28284e-02,1.09754e-01,-1.17367e-01,-9.26429e-02,
6.31676e-02,-9.68408e-02,-6.93390e-02,-1.35398e-01,1.16858e-01,1.73861e-01,1.40173e-01,-3.41239e-01,6.24886e-02,2.25488e-01,-2.71789e-01,-1.00565e-01,-3.70477e-01,2.33414e-01,-5.00732e-02,1.27688e-02,-2.28684e-01,-2.59540e-01,-2.57794e-01,-3.69247e-02,-1.00452e-01,-1.43714e-02,-4.05027e-02,-4.97275e-02,3.16196e-01,-9.53268e-02,-2.13232e-01,8.63844e-38,-7.52967e-02,1.96168e-01,-8.98782e-02,4.72066e-02,7.23713e-03,-3.21492e-02,-1.42727e-37,-2.49829e-01,1.40200e-01,-1.29564e-01,-2.79710e-01,-7.54249e-02,1.43856e-01,1.90016e-01,2.47277e-01,-5.55274e-02,-2.88496e-01,-1.02172e-01,-2.01271e-01,-1.18695e-02,-1.45018e-01,9.01062e-02,
3.01090e-01,2.71560e-01,1.86314e-01,1.57865e-01,-3.15396e-02,1.36800e-01,8.64308e-02,2.00570e-01,4.99443e-02,-3.58720e-02,6.17909e-02,1.07191e-02,-2.49436e-02,-1.72860e-01,5.38014e-02,-1.92621e-01,-1.19728e-01,6.64065e-36,-3.71540e-02,-1.03362e-02,2.74780e-01,6.87225e-03,-7.66786e-02,-8.00469e-02,-2.52027e-02,1.12456e-01,1.40684e-01,3.77259e-38,-1.56836e-01,3.71153e-02,1.54519e-01,-9.69048e-03,9.02825e-03,6.56144e-02,-2.58155e-20,-4.87235e-02,7.21851e-02,2.54035e-02,-1.48872e-01,-2.12210e-01,-1.56351e-01,5.61391e-02,-1.62082e-01,5.06014e-03,-1.21457e-02,4.56983e-02,3.28548e-02,2.41538e-01,1.88085e-01,-4.35261e-02,
1.20256e-01,2.35318e-01,2.64265e-01,-2.23548e-01,1.73716e-01,-1.48445e-01,-1.23740e-01,-2.28694e-03,2.67611e-01,1.95977e-01,1.47566e-01,9.42917e-02,5.85507e-02,1.60755e-01,3.66363e-03,-9.10145e-02,4.93092e-02,5.28284e-02,6.20148e-02,2.66869e-01,-3.75715e-02,1.60912e-02,-1.10753e-01,-7.40209e-02,-4.37724e-02,-8.56487e-02,-1.85495e-01,1.81894e-24,-1.75660e-01,1.60590e-01,-1.67421e-01,-6.04508e-02,-2.72059e-01,1.47317e-01,-4.44571e-37,2.50608e-01,1.16072e-01,2.51459e-01,-2.62098e-02,-2.89535e-01,-1.56674e-01,-1.07696e-01,-3.15152e-01,1.45142e-01,1.20378e-01,-2.38793e-01,1.58321e-01,9.73715e-02,-1.51954e-02,-1.44936e-01,
-2.09539e-01,1.10784e-01,2.19457e-01,-1.17659e-01,1.24136e-01,6.17343e-02,-2.02785e-01,-2.52192e-01,-1.91289e-01,-1.32997e-01,-2.79100e-01,-7.07162e-02,-2.53887e-01,2.15804e-01,1.50382e-01,2.25018e-01,2.57761e-01,-5.83651e-02,1.46905e-01,1.35749e-01,-3.07142e-02,-1.32037e-02,-7.92974e-02,1.87677e-01,-3.72667e-01,-2.24130e-01,1.87883e-01,4.99745e-33,-1.84920e-02,3.16058e-01,-1.10118e-01,3.97248e-02,-2.36142e-02,-2.45004e-01,-5.55356e-36,-1.59840e-01,2.31250e-02,-8.05212e-02,4.00875e-02,1.85220e-01,1.51721e-01,-3.61371e-02,1.17063e-02,2.73046e-01,1.43103e-02,-5.81243e-02,-1.35774e-01,2.64215e-01,2.46723e-02,2.18109e-01,
-1.57375e-01,5.90372e-02,1.50075e-01,-6.86316e-02,2.65134e-01,-6.33043e-02,1.81053e-02,1.27962e-01,-2.94785e-01,-1.04300e-01,1.00600e-01,-7.19287e-02,1.88535e-01,2.11898e-01,2.06854e-01,-1.62790e-02,-2.33468e-02,5.74403e-02,-4.00900e-02,-1.71083e-01,-2.78520e-02,-7.68937e-03,8.22229e-02,7.47524e-02,-2.60170e-01,1.26108e-01,1.09367e-01,3.02100e-37,-1.09754e-01,2.31116e-01,-2.54700e-01,-2.19058e-01,-4.24808e-02,1.17021e-02,-5.66502e-37,2.44526e-01,-1.70772e-01,1.77358e-01,1.24450e-01,5.05494e-02,-1.04226e-01,-7.20179e-02,1.58203e-01,-2.24133e-01,-1.95635e-03,-3.59746e-01,2.19154e-01,-5.75118e-02,-7.07682e-02,1.07292e-02,
-7.82016e-02,-3.78257e-02,1.82477e-01,-4.35659e-02,1.00727e-01,8.24207e-02,-1.01349e-01,1.34745e-01,2.73871e-01,-1.24835e-01,2.98245e-01,6.01697e-02,4.19084e-02,1.27689e-01,-2.09798e-01,-1.03724e-01,-1.92814e-01,2.92691e-01,1.08057e-01,-1.57354e-01,-3.03730e-02,-6.59410e-02,-1.18495e-01,1.49519e-01,1.04172e-01,2.65696e-01,-7.94195e-02,1.40917e-37,1.36351e-01,-1.41370e-01,-2.88013e-01,-1.45578e-02,2.31866e-01,6.69112e-02,2.84987e-24,1.81133e-01,-3.69250e-02,-2.93751e-01,-2.54670e-01,3.09486e-03,1.64249e-01,-2.89157e-01,2.16062e-01,-1.65445e-01,2.50488e-01,2.45815e-01,-2.18691e-01,9.50308e-02,-2.23224e-01,1.55709e-01,
-1.14773e-01,1.32632e-01,-2.08135e-01,9.23930e-02,-6.73287e-02,-3.87855e-02,-1.39652e-01,1.62545e-01,9.14733e-02,-1.90605e-01,7.15913e-02,6.90458e-02,-1.86537e-01,1.98093e-01,1.13349e-01,1.38957e-01,1.54528e-01,9.88159e-02,9.38269e-02,-3.04816e-01,-5.96697e-02,4.41752e-02,-1.67576e-01,1.27783e-01,1.05715e-01,-2.91629e-01,9.10434e-02,-5.20522e-13,1.88836e-02,1.25634e-01,2.45759e-01,-1.52850e-01,1.38622e-02,-1.83834e-01,-2.99633e-25,1.33414e-02,2.43789e-01,-3.05226e-02,-2.20563e-01,1.01347e-01,1.79226e-01,2.34368e-01,2.11524e-02,-2.38459e-01,-2.22432e-02,-2.07256e-01,-1.85198e-01,-2.22904e-01,3.76986e-02,-1.00257e-01,
6.82101e-02,-1.32517e-01,-2.17176e-01,-1.90549e-01,-1.90314e-02,2.24328e-01,-5.56795e-02,1.89239e-01,1.47600e-01,-5.69243e-04,-1.54251e-01,2.60630e-01,1.51733e-01,2.76520e-02,-2.25325e-01,2.09702e-01,-1.57062e-01,1.24789e-01,2.06426e-01,9.82272e-02,-5.35680e-02,2.90701e-02,-1.64170e-01,2.91303e-01,1.46874e-01,-8.84969e-02,-8.90829e-02,5.39473e-11,1.57481e-01,-9.26089e-02,-1.87735e-01,1.48805e-01,-2.22614e-01,1.83078e-01,2.96200e-14,8.71896e-02,-3.22571e-02,-6.63191e-02,-1.68423e-02,-2.12904e-01,-8.94101e-02,1.87172e-01,1.44168e-01,1.33155e-01,2.12600e-01,1.63753e-01,-1.29296e-01,-1.00284e-01,-3.99034e-02,2.12920e-01,
-3.27842e-01,1.44783e-01,7.34814e-02,-1.54761e-01,-1.45756e-02,-3.26077e-01,-2.37315e-01,3.26401e-02,-4.80548e-02,4.92333e-02,-1.86305e-01,1.71007e-01,3.00126e-02,-4.86624e-02,1.78207e-01,2.20391e-01,-1.85968e-01,-3.05128e-01,3.01746e-02,-1.19638e-01,2.79039e-01,-3.02089e-02,-2.57035e-01,2.81474e-02,-2.10721e-01,-2.25525e-01,1.45700e-01,1.16524e-29,-1.21632e-01,2.76440e-01,7.87017e-03,1.61319e-01,1.42428e-02,-1.34993e-01,4.63161e-37,1.96559e-01,-1.49455e-01,1.55764e-02,1.15000e-02,2.30446e-01,-1.97946e-01,-1.79960e-01,5.17135e-02,2.43834e-01,-2.87752e-02,-1.03454e-01,3.39134e-01,-8.82258e-02,-8.40703e-02,7.68334e-03,
3.60575e-01,1.07236e-01,6.84847e-02,4.74290e-02,-2.56650e-02,1.45163e-01,1.77188e-01,1.52385e-01,1.97782e-01,9.21537e-02,1.64081e-01,1.56784e-01,1.80503e-01,2.01677e-01,-2.91551e-01,2.10208e-01,1.57235e-01,-6.01883e-02,-1.33602e-01,-1.34907e-01,6.02703e-02,-1.50472e-02,-5.27182e-02,9.13683e-02,-2.27115e-01,3.57337e-03,-1.83850e-01,2.43669e-33,-1.79274e-01,2.66461e-02,1.62996e-01,1.09198e-01,1.12929e-01,1.83649e-01,-4.16058e-12,-2.48230e-01,3.54504e-02,-8.08325e-02,-5.43329e-02,-3.90947e-02,-1.16407e-01,7.53483e-02,-5.79894e-02,1.44580e-01,7.28837e-02,1.75170e-01,-2.00558e-02,1.46486e-01,-4.33872e-02,1.60594e-01,
-1.64213e-01,-1.43443e-01,3.72309e-02,2.24257e-01,8.11060e-02,1.62682e-01,-2.32879e-01,1.97907e-01,1.24308e-01,2.36610e-01,-1.30202e-01,2.72706e-02,-3.47347e-02,2.41063e-01,-2.82436e-01,1.27367e-01,7.40128e-02,-3.74246e-01,1.55877e-01,-2.44639e-01,1.67077e-01,-6.10581e-03,1.26584e-01,1.00847e-01,4.10937e-02,-2.15036e-01,-9.26721e-02,7.42017e-24,-1.34149e-02,1.73449e-01,-2.27370e-01,4.61560e-02,-4.46651e-03,1.86548e-02,-2.80702e-37,-2.24710e-01,5.25600e-03,-1.30681e-01,-1.21347e-02,5.58796e-02,-1.88666e-01,-1.67164e-01,1.15159e-01,1.32578e-01,-1.69077e-01,-1.82422e-01,-4.15189e-01,-2.02432e-02,-3.76991e-01,1.31495e-01,
2.18465e-01,1.77775e-01,-1.48840e-01,1.86263e-01,-1.68646e-01,1.43135e-01,-1.88313e-02,6.70467e-02,7.15703e-02,8.73279e-02,2.68266e-01,-3.56514e-02,2.54362e-01,-2.41221e-02,2.33162e-01,1.14218e-02,3.26832e-03,1.65717e-01,-1.14280e-01,1.24344e-01,-2.08637e-01,-7.06535e-02,5.19888e-02,3.01338e-01,1.18176e-01,1.68664e-01,-1.04714e-02,4.78552e-33,-2.23470e-01,-1.40674e-01,1.41803e-01,-1.51573e-01,1.76743e-01,-1.49739e-01,5.74321e-13,-4.38960e-02,-7.79370e-02,1.04625e-01,1.42581e-01,8.53156e-02,1.13433e-01,-1.77754e-01,-1.09937e-01,-2.11289e-01,1.90548e-01,-2.42381e-02,-1.92790e-01,-1.61069e-01,1.41794e-01,2.06704e-02,
1.18624e-01,-1.59871e-03,2.06459e-01,-5.63786e-02,-2.77642e-01,1.66222e-01,-3.23948e-01,2.67310e-01,-5.81611e-02,-1.09336e-01,1.54205e-01,3.78768e-02,-2.87757e-01,1.91426e-01,-8.68923e-02,-5.33706e-02,-6.08965e-02,-2.30246e-01,4.01386e-03,-2.92634e-01,2.87474e-02,4.79583e-03,2.73861e-01,3.98038e-02,2.87887e-01,-2.16655e-01,1.13268e-01,-6.49262e-37,1.33462e-01,-8.06366e-02,1.37239e-01,-2.51700e-02,-7.37335e-02,1.48696e-02,2.69929e-20,-1.97592e-01,1.28745e-02,-2.74550e-01,-2.04888e-01,-7.25217e-02,2.35649e-01,-3.33117e-01,2.09418e-01,-1.39215e-01,-2.53260e-01,1.65101e-01,1.31208e-01,-1.43785e-01,-2.28574e-01,2.86559e-03,
3.68714e-02,-1.83530e-01,2.17703e-01,1.44482e-01,-1.58487e-01,-2.02074e-01,-2.50525e-01,-1.02260e-01,-1.13081e-01,5.84707e-02,1.47823e-01,1.47943e-01,-2.59645e-01,1.40051e-01,1.47237e-01,-1.75416e-01,1.17327e-02,6.87849e-02,5.21651e-02,1.42409e-01,-2.43029e-01,-1.00064e-01,-4.04357e-02,2.49398e-02,5.30484e-02,-5.73830e-02,-1.34596e-01,-1.43491e-11,-1.57902e-01,-2.14997e-01,1.09125e-01,6.65762e-02,2.33607e-01,-5.84814e-02,-1.26206e-12,-3.50807e-02,1.96858e-01,-9.84014e-02,7.02594e-02,-7.69224e-02,1.69195e-01,-1.52696e-01,-2.21107e-01,-1.96234e-01,1.11886e-01,-1.20446e-01,-1.24127e-01,6.41233e-02,1.30844e-01,9.05069e-02,
-4.38570e-02,-7.94435e-02,-3.42530e-02,-3.47094e-02,1.22440e-01,2.10129e-01,-9.15225e-02,-1.38121e-01,5.44067e-02,-1.24588e-01,1.35748e-01,-1.26439e-01,-2.62674e-01,2.51863e-02,-1.56211e-01,-1.61097e-01,2.33302e-01,1.35322e-01,7.56038e-02,1.54556e-01,1.49008e-01,-2.08771e-02,2.92597e-02,-6.56742e-02,2.57825e-02,1.17993e-01,-5.07421e-02,2.03346e-30,2.78753e-02,7.68778e-03,-2.23373e-01,-1.01537e-01,6.96905e-02,-1.85701e-01,-1.50046e-35,2.31206e-01,1.31852e-01,1.81629e-01,-8.23760e-02,-3.92492e-02,-1.58704e-01,3.75582e-02,-2.22718e-01,1.02478e-01,-6.38926e-02,5.13537e-02,3.24394e-01,-2.49842e-01,1.51956e-01,2.65461e-01,
5.58528e-02,6.13247e-03,6.12659e-02,3.97998e-02,2.54820e-01,-1.01545e-01,-3.61634e-02,-3.59026e-02,-2.68318e-02,-2.29203e-01,-4.44851e-02,5.13540e-21,2.51437e-01,7.47602e-03,9.07644e-02,-8.28082e-02,-1.09437e-01,-2.56968e-02,-6.75908e-02,-7.21727e-02,7.54346e-02,-1.35272e-02,1.26539e-01,2.17617e-01,-3.16337e-02,3.38547e-02,6.57135e-02,-7.56499e-16,-1.64545e-01,1.79190e-01,2.88105e-01,-2.57823e-01,3.38654e-01,7.41877e-02,-3.09599e-11,2.64997e-02,1.70530e-01,-2.04754e-02,7.94853e-02,6.34478e-02,-7.90744e-02,-8.79810e-02,1.90589e-01,2.52147e-01,-5.40985e-02,1.00165e-01,3.01311e-01,1.47118e-01,-2.14446e-01,-2.86292e-01,
-1.24767e-01,1.37948e-01,1.92805e-01,-2.14058e-01,-1.94062e-01,7.39865e-02,-2.36691e-01,-2.17269e-01,1.17167e-03,1.79504e-01,-7.64976e-02,1.31631e-01,1.44946e-01,5.87199e-02,-1.75037e-01,2.16246e-03,-9.78906e-03,-1.12793e-01,-2.56968e-01,4.37835e-02,-9.33781e-02,-4.44875e-02,2.03840e-01,-4.14078e-02,-2.12731e-03,1.23805e-01,-1.31732e-01,-7.36562e-13,-1.43365e-01,-9.82384e-02,1.54753e-01,-9.28669e-02,3.63605e-02,6.67771e-02,-3.54297e-35,-1.89074e-01,-7.13137e-03,7.81635e-02,1.38298e-01,-1.20455e-02,2.73625e-02,1.38266e-01,1.98350e-01,-1.27991e-01,1.36719e-01,1.58320e-01,2.69085e-01,-2.03249e-01,2.67980e-01,1.42689e-01,
1.87553e-01,2.36415e-01,-1.26555e-01,1.33766e-01,-2.06365e-01,-8.32411e-02,-6.90469e-02,2.18534e-01,1.74159e-02,-2.95277e-02,2.08024e-01,2.80670e-01,8.03151e-02,5.05843e-02,-1.10296e-02,-1.57400e-01,-1.96500e-01,-1.21026e-01,1.92644e-01,-3.87283e-02,8.17870e-02,-9.53358e-03,2.09184e-01,3.38492e-01,2.99763e-01,-3.78913e-02,-3.78428e-02,1.14601e-34,-8.48142e-02,9.88880e-03,2.46525e-01,1.29445e-01,6.28261e-02,1.09106e-01,7.84331e-34,-5.84450e-02,2.45478e-01,-2.43647e-01,1.70481e-01,1.62093e-02,-2.03432e-01,-2.32805e-01,1.47804e-01,-2.77858e-01,8.10615e-02,7.88906e-02,-2.24164e-01,-2.77044e-01,-5.81993e-04,7.54151e-02,
9.45421e-14,5.12289e-02,2.36413e-28,-9.43136e-03,-6.83732e-37,-1.78104e-23,-8.10843e-15,-1.06525e-37,2.68406e-37,-4.77250e-02,4.07949e-34,1.02412e-30,4.38838e-04,-1.94751e-03,1.05845e-03,-5.71187e-28,1.21242e-02,5.09613e-15,-4.22590e-05,-1.01451e-03,7.02890e-39,-1.48424e-35,-4.83816e-28,3.91955e-37,2.30889e-37,-7.27479e-27,-5.29799e-11,5.04434e-37,8.34047e-04,-1.63250e-05,-1.08665e-03,-4.79646e-02,7.84337e-02,-2.35959e-14,1.82633e-11,-2.05015e-02,-8.59173e-03,-5.03409e-37,-1.92797e-02,-3.78806e-02,-4.81373e-03,7.07177e-30,-2.63976e-03,-4.24449e-04,-5.98703e-37,-2.14219e-02,-3.74917e-21,-4.62575e-03,1.94009e-20,-9.68746e-04,
1.47145e-01,6.59632e-02,1.11634e-02,1.97851e-01,1.22282e-01,-1.61182e-01,2.36281e-01,2.01547e-01,3.10635e-02,-2.01700e-01,1.71638e-01,-1.41133e-01,-2.55674e-01,-4.79812e-02,-2.22305e-01,1.33331e-01,1.77344e-01,-2.46478e-01,-2.33384e-01,1.84799e-01,1.23388e-01,-4.41981e-03,-6.18216e-02,-4.73762e-02,-1.86144e-03,2.29655e-01,-1.85239e-01,5.62050e-13,-5.45557e-02,-1.34154e-01,-2.00179e-01,7.80329e-02,1.42479e-01,2.24416e-01,-5.45515e-37,-1.58538e-01,2.05278e-01,-2.31872e-02,1.39494e-01,1.99549e-01,2.78734e-02,-2.82695e-01,1.42259e-01,-2.40165e-01,-9.81539e-02,1.24985e-01,-1.70681e-02,-2.39913e-01,-2.14542e-02,2.06918e-01,
9.59494e-02,-2.75256e-01,1.00207e-01,8.01615e-03,-1.51942e-01,2.38560e-01,-1.30977e-01,6.90434e-02,4.61418e-02,9.23800e-03,-1.44933e-02,-3.83486e-27,1.10478e-02,-4.71641e-02,3.50017e-03,2.68926e-01,2.55265e-01,5.17093e-02,1.30869e-01,-2.24182e-02,1.36088e-01,-2.13900e-02,4.05183e-02,1.15331e-01,-1.26332e-01,-3.86502e-02,-2.58644e-01,2.14219e-32,-1.46685e-02,2.24917e-01,1.15528e-01,-1.30955e-01,1.90195e-01,1.82227e-01,-1.21546e-33,-1.30205e-02,1.26424e-01,-2.58328e-02,-1.94243e-01,-1.57994e-01,-1.48651e-01,1.38455e-01,1.83522e-01,2.05784e-01,-2.53490e-01,-2.04660e-02,9.16680e-08,8.73434e-02,1.49080e-01,-1.48344e-01,
-2.10649e-02,5.69921e-02,-1.54468e-01,-8.26830e-02,6.56533e-03,3.75112e-02,1.29892e-01,1.25371e-01,-2.02463e-01,-2.45880e-01,-3.77610e-01,1.93911e-01,1.69301e-01,-6.15617e-02,-1.16122e-01,-2.34989e-02,-2.47982e-01,-2.13874e-01,-1.79448e-01,-1.28176e-01,-7.41790e-02,-1.53524e-02,1.38704e-01,9.22671e-02,1.93952e-01,-5.28596e-02,1.63414e-01,1.56613e-37,1.76200e-01,1.44632e-01,2.97816e-02,8.86080e-02,-8.12518e-02,-2.43108e-01,1.11663e-30,2.53072e-01,1.43027e-01,-3.75084e-03,-4.22863e-03,3.64487e-03,-7.88394e-02,-1.58382e-01,2.57474e-01,4.04197e-03,4.22403e-02,-1.05110e-01,-3.83902e-03,2.34021e-01,1.24850e-01,-4.46720e-02,
-1.42698e-01,-1.49612e-01,9.25448e-02,-1.80722e-01,1.89194e-01,4.77800e-02,1.99620e-01,-1.58994e-01,-1.60165e-01,2.44763e-01,-2.09215e-01,-2.14689e-01,2.19366e-01,3.61516e-02,-1.85921e-02,1.91440e-01,1.18972e-01,-1.30833e-01,1.93722e-01,-1.53134e-01,-1.89761e-01,2.85565e-02,-9.38888e-02,-1.17884e-01,-1.46317e-01,1.48356e-01,4.10361e-02,-4.49951e-34,-1.04278e-01,-1.86132e-01,6.47916e-02,-4.56987e-02,-1.91453e-01,2.53746e-01,2.32855e-19,1.83873e-01,-1.70763e-01,-8.05169e-02,1.96102e-01,2.90228e-03,1.77801e-01,8.78977e-02,-4.35467e-02,2.98355e-01,1.87877e-01,-1.30863e-01,-1.42508e-01,2.35571e-01,8.75399e-02,1.08979e-01,
1.90015e-01,2.20773e-01,8.67201e-02,-5.39349e-02,2.22490e-02,3.52741e-01,1.98024e-01,8.20002e-03,-1.21469e-02,1.23229e-01,7.84777e-02,1.18196e-03,1.27750e-01,-3.36082e-02,-2.28299e-01,-1.77548e-01,-6.43561e-02,-1.98878e-01,-1.12302e-01,1.22024e-01,4.36994e-02,5.59002e-02,-2.90426e-01,8.87390e-02,9.79761e-03,3.20173e-01,-6.04635e-02,-1.29642e-14,-2.48860e-01,1.41497e-01,-1.61377e-01,-1.50793e-01,1.54158e-01,-2.25641e-01,7.25978e-28,-4.53839e-02,1.95230e-01,1.41491e-01,-1.37853e-01,-2.08293e-02,-2.19406e-01,2.34100e-01,1.69138e-01,-9.06546e-02,-6.24945e-02,-9.27261e-02,1.81320e-01,7.56192e-02,2.91913e-01,-2.04397e-01,
-1.30514e-01,3.02867e-02,7.28829e-03,1.54530e-01,-1.83306e-01,1.09213e-02,2.91916e-01,-5.72527e-02,-9.57643e-02,9.40111e-02,1.04307e-01,-1.56269e-01,-6.90262e-02,-1.10850e-01,1.56379e-01,-1.42277e-01,-8.37529e-02,2.74641e-01,-1.25831e-01,1.09548e-01,-2.78699e-01,1.26865e-02,2.19519e-01,7.47271e-03,-1.29328e-01,1.59312e-03,-1.45631e-01,-5.35331e-33,5.54899e-02,6.31131e-02,1.69401e-01,1.50740e-01,1.00019e-01,-1.65780e-01,-1.92392e-28,1.41564e-01,1.79186e-01,-2.00772e-01,4.97122e-02,-2.49474e-01,1.78840e-01,-2.77445e-02,-1.49762e-01,-3.15840e-01,2.56587e-01,1.58199e-01,-3.13007e-01,4.97287e-02,-1.04998e-01,1.11718e-01,
1.58672e-01,-3.40832e-04,-9.00218e-03,1.81486e-01,1.28231e-01,-9.15414e-02,-1.12480e-01,1.42477e-01,1.72989e-02,-2.04204e-01,9.03002e-02,6.59972e-02,1.27070e-02,-1.05038e-03,6.16090e-02,1.24971e-01,8.75153e-02,1.55617e-02,-6.22433e-03,-1.53866e-01,-1.50147e-01,-1.08668e-02,6.10178e-02,-2.25590e-01,-1.51264e-01,-4.46775e-02,1.02079e-01,-5.63985e-28,-1.53111e-01,-1.77773e-01,-1.51152e-01,-2.43980e-02,-4.69625e-02,1.30426e-02,-3.56004e-28,-1.55197e-01,-1.25522e-01,-1.74816e-01,2.15689e-01,1.22370e-01,-2.72182e-01,-7.87570e-02,-1.70843e-01,1.47972e-01,1.04205e-01,1.35765e-01,-1.10118e-01,-4.12914e-02,1.08356e-01,1.47684e-01,
7.19513e-02,1.61628e-01,2.68323e-02,1.71519e-01,-5.40180e-02,2.15194e-02,-1.92263e-01,-3.61726e-02,-1.80409e-01,1.48772e-01,-2.65837e-01,1.01771e-01,-5.05531e-02,2.10563e-01,-1.64956e-01,-1.33301e-01,-3.40417e-01,1.80120e-01,-1.25467e-01,-1.75565e-02,-2.46288e-01,-1.12931e-02,2.22608e-01,2.40344e-02,1.69074e-01,-2.75883e-01,-9.28992e-02,2.33139e-34,1.45859e-01,6.58386e-02,-2.24476e-01,-2.10721e-01,-7.19836e-02,-2.69700e-01,-5.51401e-37,-5.02907e-03,2.07890e-01,-6.52269e-03,-1.62872e-01,-2.08516e-02,1.57976e-01,1.63421e-01,-2.25475e-01,3.12324e-01,5.89939e-03,-2.88748e-01,3.20608e-02,1.00123e-01,6.66633e-02,1.08153e-02,
-1.67091e-01,-2.88868e-01,-8.97997e-02,-9.95961e-02,-9.00101e-02,2.89853e-02,2.20742e-01,-2.75445e-01,2.46709e-01,1.50950e-01,1.26434e-02,2.12895e-01,1.42556e-01,-2.20916e-01,-1.74754e-01,-1.94642e-01,6.57770e-02,2.26096e-01,1.41501e-01,-1.21849e-01,6.34450e-02,-4.69531e-04,2.23406e-01,-2.14382e-03,5.52650e-02,-1.80987e-01,-1.73985e-01,4.64454e-13,1.50356e-03,-3.51617e-01,-5.97975e-04,-4.80944e-02,1.21519e-01,2.53787e-01,-2.38460e-36,6.01065e-02,-1.32340e-01,-2.64544e-01,2.25043e-01,1.95643e-01,-9.88552e-02,1.49863e-01,5.40716e-02,-3.35516e-01,1.46703e-01,-2.20651e-01,-1.28576e-01,-1.35035e-01,-3.03265e-01,1.26545e-01,
-1.79027e-01,-1.80886e-01,5.93090e-02,-1.77687e-01,1.38504e-01,4.34286e-02,-4.91837e-02,2.22970e-01,-6.52100e-02,1.73806e-01,2.20309e-02,-1.02627e-01,-1.03024e-01,-4.36211e-02,9.27683e-02,-3.78088e-02,2.34005e-01,-3.68810e-01,1.15739e-01,-1.14885e-01,2.45701e-01,-1.38834e-02,-2.42179e-01,-1.79633e-01,-2.46721e-01,-9.91862e-02,-2.88563e-01,1.71258e-30,2.47276e-02,2.51248e-01,7.18680e-02,1.49772e-01,-4.71484e-02,-2.65881e-01,-9.55057e-33,-5.13075e-02,6.01656e-02,-2.49033e-01,2.42739e-01,-3.74411e-02,4.26869e-02,-2.58549e-02,1.19231e-01,2.30915e-01,-9.72449e-02,-1.28785e-01,-9.26895e-02,-7.26050e-02,8.41240e-02,-2.18699e-01,
2.13692e-02,1.13878e-01,-1.63566e-01,-6.57219e-02,1.81874e-01,-4.38390e-02,-4.56981e-02,2.54365e-01,7.61181e-02,8.35457e-02,2.51161e-02,-7.23362e-02,8.12625e-02,7.79833e-02,1.65117e-02,-1.63644e-01,3.45900e-02,2.99387e-01,-1.10610e-01,-4.57365e-02,1.69006e-01,-2.35904e-02,2.06024e-01,8.00442e-02,1.43716e-01,9.58815e-02,-1.19878e-01,-3.25506e-37,-1.60295e-01,-1.11290e-01,2.07616e-01,-4.15474e-02,-1.33688e-01,-1.18993e-01,9.64538e-12,-2.20581e-01,-1.00530e-01,-2.32463e-01,1.41058e-01,4.44306e-02,-2.22091e-01,3.13029e-03,1.86004e-01,2.66691e-01,1.59956e-02,1.04947e-01,2.64473e-01,1.98264e-03,7.33785e-02,-2.22419e-01,
-1.28587e-23,8.56532e-23,-6.65229e-37,2.33820e-28,-1.26909e-25,-1.56142e-11,-3.19682e-11,-3.26945e-24,1.11038e-20,-2.05196e-12,1.54822e-13,-6.48376e-37,-7.38693e-16,-5.25580e-37,-8.58923e-16,-4.39050e-15,-6.70138e-37,4.30960e-37,3.17312e-37,-9.35088e-31,-2.91899e-13,-2.67819e-19,1.10100e-28,-5.82048e-37,-2.11016e-27,2.40327e-29,3.51930e-37,-5.30804e-37,-2.42415e-27,-1.25572e-37,-1.30606e-31,2.86891e-37,3.57179e-37,-3.06951e-14,1.58526e-15,-2.64005e-37,4.15416e-32,-1.12257e-37,1.18196e-37,-3.25307e-35,-2.95742e-29,4.01538e-37,5.47453e-37,-2.48252e-11,9.24225e-38,-1.05292e-15,-5.92484e-13,1.99912e-13,-3.27965e-32,2.83334e-27,
2.97955e-37,-2.27388e-01,1.46285e-20,-1.01868e-02,1.27250e-01,-7.66152e-02,-1.22627e-01,5.26074e-02,-1.23732e-02,-1.36407e-01,-1.23236e-01,-4.36082e-03,-2.66669e-02,-1.18185e-01,5.39683e-02,3.62625e-02,6.12641e-02,4.86923e-02,-1.93314e-01,1.62297e-01,3.09465e-02,1.32812e-37,1.39925e-01,-5.39891e-02,-7.27777e-27,-1.89659e-01,-1.95959e-01,7.05942e-34,-2.15420e-01,1.66558e-01,5.47654e-02,-2.18228e-01,1.85737e-01,7.46849e-02,2.33519e-37,-1.11238e-01,1.02213e-01,-6.59982e-19,1.25876e-01,1.07619e-01,-4.31001e-02,1.62934e-01,-6.33362e-03,-2.28280e-01,2.89384e-02,-2.22376e-01,2.21038e-25,-1.27684e-01,3.91218e-02,-6.10836e-02,
5.23379e-02,1.48768e-01,3.45686e-02,1.94661e-01,6.68857e-03,7.49372e-02,5.46555e-02,8.24340e-02,6.98794e-02,-1.13058e-01,-2.35714e-01,-2.28155e-04,-1.02695e-01,9.03016e-02,-1.29369e-01,-8.66382e-02,-1.07737e-01,1.00159e-37,3.67099e-02,2.56850e-01,5.54925e-02,1.63414e-02,2.51551e-02,-1.05641e-03,6.98612e-02,4.27668e-03,1.96216e-01,-3.48112e-37,-3.25437e-02,1.55901e-38,-2.14135e-01,-5.31076e-02,1.76096e-02,1.80694e-01,3.74435e-11,-1.09382e-01,-1.37908e-01,8.46502e-04,-3.15184e-02,-1.19736e-01,-9.34139e-02,2.37070e-02,-3.02738e-03,7.31399e-03,-1.46434e-01,1.29178e-01,-2.65933e-02,-2.33715e-01,-1.13668e-01,4.44140e-02,
-2.27471e-01,-1.29192e-01,-1.76384e-01,1.45922e-01,1.25349e-01,-8.31601e-02,-1.64490e-01,1.22813e-01,-2.03491e-01,-8.29212e-02,-2.12743e-01,-8.65040e-02,8.51940e-02,2.16909e-01,1.86691e-01,-1.75515e-01,5.54016e-03,-8.99543e-02,4.01609e-02,-1.70962e-01,-3.83920e-03,-2.30702e-02,-3.64193e-02,2.80694e-02,-6.23524e-02,1.80778e-01,-1.19974e-01,-5.84519e-14,7.81697e-02,6.97262e-02,2.69850e-02,1.82393e-01,8.50157e-02,-7.18747e-02,2.45269e-32,9.55231e-03,-1.47301e-01,5.99660e-02,2.34352e-01,1.81152e-01,-1.91082e-01,-2.18872e-01,-2.12002e-01,4.44346e-02,-1.86438e-01,-3.17100e-02,-1.92171e-01,3.07670e-01,-5.83938e-02,-6.80693e-02,
-9.87877e-02,1.12729e-01,5.92670e-02,1.38913e-01,-1.44467e-01,-7.39307e-02,-2.30584e-01,1.75618e-01,-2.31107e-01,-1.46466e-02,-6.99227e-02,-1.11282e-01,-6.94773e-02,2.29129e-01,6.63247e-02,-1.81197e-01,-2.08066e-01,1.85871e-01,2.52407e-01,-1.22457e-01,2.25354e-01,-6.93773e-02,2.46008e-01,-3.15588e-01,-2.26154e-01,-6.08540e-02,-2.55491e-01,-6.06344e-31,1.82954e-01,-2.00637e-01,2.02369e-02,-2.01495e-01,-7.68649e-02,-1.15490e-01,-1.25868e-31,2.19654e-01,7.04618e-02,1.89074e-01,-6.00230e-02,1.55849e-01,2.10754e-01,1.75991e-01,2.41708e-01,1.87625e-01,-2.14823e-01,-2.37183e-01,1.69208e-01,-7.38320e-02,-5.89171e-02,9.22203e-02,
2.43422e-01,-1.66172e-01,-1.56036e-01,2.01876e-01,1.15886e-01,2.14736e-01,2.04471e-01,1.55666e-01,2.13680e-01,-2.57500e-01,2.47090e-01,-1.02527e-01,-5.37496e-02,-9.93419e-02,-2.86531e-01,2.28234e-01,1.71283e-01,8.44111e-02,-1.06787e-01,-1.88266e-02,4.26970e-03,7.02237e-02,2.40563e-01,-6.63075e-02,1.61643e-01,-1.24927e-01,1.06671e-01,1.16613e-13,1.51474e-01,1.22821e-01,2.41068e-01,-2.61987e-02,1.08257e-02,3.83965e-02,-3.85380e-15,-5.76232e-02,1.71833e-01,1.16941e-01,1.13733e-01,5.74098e-02,1.17553e-01,-2.25412e-01,8.76383e-02,-2.64821e-01,1.10550e-01,-2.18279e-01,-1.78552e-01,2.28718e-01,-6.98152e-03,-5.36059e-02,
5.38459e-02,8.20562e-03,-5.86039e-03,-3.66073e-32,3.74821e-02,9.21115e-03,-1.21248e-06,1.37403e-02,1.37236e-01,-4.27889e-02,7.57587e-03,1.50441e-36,2.28245e-02,-1.09577e-01,-4.51820e-02,-9.02169e-02,-3.51010e-02,-3.88122e-11,-1.11084e-02,-1.23333e-01,-6.07386e-38,-9.26135e-26,-1.39688e-02,3.48579e-25,7.71469e-02,-2.13710e-02,-2.06694e-02,5.93873e-16,-1.06742e-01,-2.72330e-14,-1.12257e-01,-1.92293e-02,-2.42773e-03,5.50923e-03,1.73818e-23,-2.17411e-02,5.64487e-02,-1.71214e-02,1.08831e-01,-1.04693e-01,-1.85060e-02,-1.37056e-02,1.12135e-01,7.30754e-02,1.47712e-02,-1.40884e-02,1.59329e-28,-2.66498e-02,4.06965e-04,-5.67009e-02,
-4.65641e-02,-2.34074e-01,-1.97676e-01,7.08709e-02,1.65684e-01,8.76793e-02,-2.04194e-01,2.06867e-01,2.19927e-01,-7.38326e-02,-6.14392e-04,-8.23512e-02,2.87163e-03,-1.62263e-02,-8.30664e-02,2.06109e-01,1.94017e-01,-2.43417e-01,-2.76195e-01,1.37625e-01,-4.97558e-02,-7.46408e-03,-7.64571e-02,1.79557e-01,1.79281e-01,8.42817e-02,-1.21108e-01,-1.20218e-33,7.77144e-02,-5.12812e-02,1.23187e-01,-1.57404e-01,1.36980e-01,1.30367e-01,-2.12668e-12,-2.87548e-01,-3.11614e-01,1.00575e-01,-3.62291e-02,-5.12892e-02,5.29056e-02,1.45606e-01,-1.68366e-02,9.04925e-02,5.02021e-02,4.95214e-02,-6.39593e-03,-1.98564e-01,-1.04122e-01,-2.20922e-01,
1.14750e-02,1.41093e-01,-5.04186e-02,-1.30403e-01,-1.58942e-01,6.19757e-02,1.80963e-02,2.68207e-01,1.10954e-01,2.15100e-01,-4.34383e-02,9.07047e-02,1.02261e-03,-1.71474e-01,1.70154e-01,4.32708e-02,9.87504e-02,1.85301e-01,-5.03330e-02,-1.69136e-01,3.27020e-01,-1.31918e-03,2.57888e-01,8.16168e-02,-1.45308e-01,-4.08900e-02,-1.99282e-01,-5.85649e-17,2.18418e-01,-2.25895e-02,-1.96157e-01,-9.06887e-04,6.31668e-02,9.10744e-02,2.01335e-25,-1.28680e-01,1.81635e-01,1.88128e-01,-1.09361e-01,1.25797e-01,-2.09274e-03,-1.72366e-01,1.31887e-01,1.53569e-01,7.28706e-02,2.49149e-01,8.82879e-02,-5.53011e-02,1.24560e-01,-2.38581e-01,
-2.26624e-01,2.06557e-01,-1.70608e-01,4.04344e-03,1.42497e-01,-1.02878e-01,9.99058e-02,-5.24445e-03,-3.03562e-01,4.95183e-02,-4.88025e-02,-1.83910e-01,1.28499e-01,-1.04902e-01,-3.57354e-02,1.11243e-01,9.25529e-02,-1.20148e-01,-7.52343e-02,1.77636e-02,-5.82525e-02,-2.29511e-02,2.12623e-01,-1.45792e-01,1.15909e-01,4.83078e-02,-5.49629e-02,-4.13400e-14,7.70756e-02,-7.63127e-02,2.45952e-01,1.22641e-01,1.32738e-01,2.22385e-02,-6.88120e-37,-1.19989e-01,1.74809e-01,-1.47564e-02,2.05988e-01,3.47222e-02,-2.11225e-01,1.50953e-01,7.85789e-02,1.54331e-01,1.99489e-01,-8.77425e-02,3.12210e-01,-7.79103e-02,-1.17287e-01,-1.39735e-02,
-2.93088e-02,1.72434e-01,-2.25845e-01,-5.48869e-02,1.01050e-01,-1.68758e-01,2.12775e-01,-3.03916e-02,1.25366e-01,2.85765e-02,7.22692e-02,-8.52515e-02,1.20301e-01,1.92967e-01,1.99229e-01,2.46260e-01,8.78359e-02,-4.76661e-02,-1.71988e-01,2.20620e-01,-1.54382e-01,-5.50660e-03,-1.60287e-01,3.35750e-02,-2.24908e-02,3.08005e-02,-2.35892e-02,-3.23131e-33,-2.28384e-01,-1.50156e-01,-4.80543e-02,-1.18605e-01,2.55962e-01,-2.45670e-01,-5.10280e-38,-2.48018e-01,-5.29421e-02,4.11794e-02,-1.77991e-02,1.24937e-01,1.08594e-02,3.19939e-02,-7.92430e-02,-7.10603e-02,-8.17512e-02,-4.32679e-02,-1.34237e-01,-1.85166e-01,-1.17441e-02,-2.58006e-01,
-6.05221e-02,-1.09050e-01,1.94543e-01,3.07097e-01,1.26425e-01,1.16418e-01,-6.03599e-02,-2.07771e-01,1.53194e-01,-1.55838e-01,1.65703e-01,-1.85510e-01,1.85271e-01,-1.73779e-01,3.72981e-02,1.46553e-01,6.23771e-02,-5.39951e-02,3.36721e-02,5.29263e-02,-2.47818e-02,-8.93906e-03,5.68610e-02,8.18275e-02,-3.14156e-02,1.74563e-01,-1.10007e-01,-1.06704e-33,-7.37105e-02,-5.04220e-02,5.21939e-02,1.07787e-01,3.48397e-02,2.01123e-01,-5.54432e-37,-6.98223e-02,-6.78746e-02,-2.08377e-01,-1.86652e-01,2.64347e-01,-5.81259e-02,-2.08071e-01,-1.41415e-01,-1.55803e-01,6.02240e-02,1.20077e-01,-6.75230e-02,2.09142e-01,1.51464e-01,-2.19866e-01,
-2.41692e-03,-1.02584e-01,3.98575e-02,8.98614e-02,-1.95726e-01,-3.27580e-01,1.78856e-01,-2.24996e-01,-5.65120e-02,6.48587e-02,3.70857e-02,1.88365e-01,-7.71447e-02,7.54121e-02,-1.15757e-02,2.09995e-01,-2.00524e-01,1.75006e-01,-6.82293e-02,2.64404e-01,-2.05554e-02,-9.21433e-03,9.16647e-02,-1.79594e-01,-1.95278e-01,-1.97371e-02,-2.60368e-01,-4.61073e-37,5.16499e-02,1.08431e-01,-1.89653e-01,-1.02834e-01,1.05121e-01,-1.74952e-01,-2.14956e-37,-6.34682e-02,2.07450e-01,7.42223e-03,-3.72882e-01,3.22640e-02,4.46245e-02,1.70523e-01,-1.65364e-01,3.30444e-01,-2.18279e-01,-2.27847e-01,-1.32575e-14,-1.14539e-01,-2.39610e-01,-1.16359e-01,
1.01604e-01,8.14371e-02,-6.99381e-02,8.74236e-02,-2.15929e-01,6.31758e-02,2.16180e-01,-1.34592e-01,-1.91049e-01,-1.54205e-01,-1.56803e-01,-2.03615e-01,-3.82961e-01,-3.77505e-02,1.43482e-02,-1.07058e-01,-1.49657e-01,-2.09889e-01,1.15348e-01,-2.50137e-01,6.37678e-02,-5.00528e-02,-8.46968e-02,-2.06571e-01,1.72794e-01,-1.57374e-01,1.91902e-01,8.28752e-16,3.44599e-02,-3.73467e-02,-1.06982e-01,1.66066e-01,1.63358e-01,-3.20613e-01,5.36976e-34,3.02428e-02,1.47323e-01,-4.37072e-02,-1.86902e-01,-2.72624e-01,2.21814e-01,1.05682e-02,1.46385e-01,9.21061e-03,-2.68277e-01,1.90146e-01,4.07167e-02,-1.50415e-01,-3.97249e-02,1.46896e-01,
-2.25319e-02,-2.54376e-01,1.37669e-01,2.17388e-01,-3.67139e-03,-1.79253e-01,4.19500e-37,3.98540e-02,4.81402e-02,-3.42756e-02,-1.50954e-01,-4.49313e-02,-1.23416e-01,-7.17034e-02,-2.81221e-01,-5.85305e-02,-2.23092e-01,-2.92204e-01,-3.08102e-02,-3.52230e-02,-7.58738e-02,1.74970e-02,2.53233e-01,-4.84584e-02,-6.89613e-02,-1.40155e-01,5.09209e-02,-9.51394e-15,5.80123e-03,2.41888e-01,1.08934e-01,-2.53641e-01,1.85463e-01,-6.85691e-03,-2.25388e-12,3.98442e-02,-2.23811e-01,8.52675e-02,-5.69162e-02,1.59701e-01,5.16563e-02,4.00848e-02,-3.05616e-01,7.93741e-02,-1.20613e-01,-1.01403e-01,2.67494e-01,1.54297e-01,5.04124e-02,2.20926e-01,
1.72782e-01,4.23062e-02,4.71129e-02,-1.32137e-01,-2.21964e-01,-1.66324e-01,4.88440e-02,2.27873e-01,1.35529e-01,9.91492e-02,7.18585e-02,1.91212e-01,-2.02938e-01,1.35494e-01,-5.32461e-02,-1.33779e-01,2.31599e-01,-2.42544e-01,1.22179e-01,-2.36999e-02,2.96858e-01,-1.75696e-02,-2.25173e-01,-3.16229e-01,1.56227e-01,1.79188e-01,7.20871e-02,-8.74641e-30,2.04085e-01,-7.61031e-02,1.81894e-01,2.17508e-01,1.24139e-01,-1.21193e-01,-3.65103e-16,-1.06978e-01,-7.51913e-02,1.95274e-01,8.46133e-02,1.89446e-01,8.84210e-02,-1.97187e-01,-1.42259e-01,-1.93302e-02,-1.51412e-01,-8.18198e-02,1.69440e-02,1.49564e-01,2.62916e-01,-1.67316e-01,
-7.72222e-02,-2.26457e-01,-9.30581e-02,8.89538e-02,7.30924e-03,-1.76886e-02,-8.52089e-02,1.00106e-01,-1.14543e-01,-7.96115e-02,-1.64601e-02,1.95056e-01,1.11735e-01,-9.46986e-03,-1.59716e-01,1.69440e-01,1.62062e-02,1.08259e-01,5.45633e-02,8.43078e-02,-3.13578e-02,9.35449e-03,2.01525e-01,-2.22426e-01,-1.18852e-01,-7.38146e-02,-2.24366e-01,-1.54474e-15,1.08916e-01,-1.74966e-01,1.91567e-01,2.30180e-01,9.06763e-02,-1.80811e-01,1.49623e-35,2.24459e-01,-1.17517e-01,-3.30056e-02,-2.33443e-01,3.54516e-02,-1.13652e-01,-9.45812e-03,9.40037e-02,1.09126e-01,-1.19607e-01,2.78819e-01,2.35855e-01,2.46212e-01,2.76200e-01,1.22768e-01,
2.43827e-02,-1.49273e-01,-2.26633e-01,1.31463e-01,-2.46054e-01,-1.74189e-01,-1.26093e-04,-9.13492e-02,1.66568e-01,-1.15616e-01,3.06312e-01,-2.00361e-01,-1.03027e-01,1.91307e-01,-1.38138e-03,2.06385e-01,1.35128e-01,-1.51961e-01,-5.02003e-02,8.90104e-02,1.16088e-01,1.92496e-02,-2.32380e-02,1.53026e-01,1.32232e-01,-2.95919e-01,3.94302e-03,-4.90315e-34,-1.18965e-01,-1.26539e-02,-6.44070e-02,1.69931e-01,-4.86752e-02,2.29575e-01,-1.28141e-19,1.13940e-01,2.23062e-02,6.79473e-04,2.38985e-01,-1.85615e-01,-2.33724e-01,2.82419e-03,-2.51988e-01,-2.95126e-01,2.19516e-01,-1.00412e-01,-1.22379e-01,-2.56845e-01,-2.38404e-01,1.73149e-01,
-1.36976e-01,-1.25158e-01,1.07857e-01,1.75885e-01,-1.66673e-01,-1.38690e-02,-9.35462e-02,-1.51071e-02,-5.21795e-02,1.47821e-02,3.11256e-03,1.65735e-01,1.60471e-01,-2.71326e-02,4.94742e-02,1.18273e-01,-1.82003e-01,-1.02896e-01,2.38897e-01,9.78491e-02,1.19543e-01,-9.86400e-03,1.65195e-01,1.97542e-01,-1.97096e-01,1.91982e-01,2.52373e-02,-6.14433e-20,-9.24759e-02,-1.04430e-02,-2.89111e-01,1.00629e-02,8.96412e-02,1.87675e-01,-3.35034e-37,-2.40656e-01,2.21165e-01,-2.57365e-01,-2.33741e-01,2.23437e-02,-9.91128e-02,-1.28197e-01,-1.89466e-01,2.79300e-01,1.12372e-01,1.66268e-01,-7.09449e-02,-4.77714e-02,8.60722e-02,-6.48075e-02,
1.19443e-02,
1.05465e-02,
-3.36146e-03,
1.03042e-02,
-2.72971e-03,
-3.82849e-03,
1.91720e-02,
2.48394e-02,
4.44717e-03,
6.42405e-03,
1.71825e-02,
-1.74669e-03,
-1.06997e-03,
7.91649e-03,
-2.19640e-02,
3.89146e-03,
-1.67232e-02,
7.99507e-04,
-9.52552e-03,
-8.93055e-03,
-3.13552e-03,
-1.97238e-02,
2.20627e-02,
-4.89300e-03,
3.57907e-02,
8.69511e-03,
-5.27412e-02,
1.12851e-02,
9.71183e-03,
4.06739e-03,
-1.05500e-02,
-3.45906e-37,
-1.65446e-02,
-1.50133e-02,
2.07909e-02,
1.56552e-02,
2.94462e-03,
-1.98548e-02,
-1.97359e-03,
2.51936e-02,
-1.10134e-04,
-2.41604e-02,
9.15975e-03,
9.27746e-03,
3.20549e-03,
4.15838e-02,
-1.89875e-03,
-4.78706e-03,
7.23400e-03,
-3.09687e-02,
-7.57352e-02,2.75630e-01,-1.12869e-01,-2.51803e-01,2.22949e-01,-2.17319e-02,-3.22518e-01,1.05912e-02,6.61871e-02,-4.26635e-02,5.71100e-02,1.77195e-01,-4.84902e-02,4.67518e-02,5.66748e-02,1.68573e-01,2.16575e-01,1.98287e-01,-1.35345e-01,4.38866e-04,8.35242e-02,2.20258e-02,1.03498e-01,-1.13992e-01,1.32207e-01,6.63327e-02,-8.72621e-02,-1.07921e-01,6.29415e-02,1.63553e-01,1.57633e-01,-1.71342e-36,1.69422e-02,-1.26996e-01,1.68447e-01,1.52754e-01,1.23507e-01,1.69671e-03,2.72079e-01,-2.26058e-03,2.09162e-01,2.68681e-01,1.09989e-01,2.26367e-02,-1.77980e-02,1.11454e-01,5.80675e-02,-6.41292e-02,4.26419e-02,2.29494e-01,
-1.38962e-01,9.81670e-02,-1.01941e-01,-1.31104e-01,-9.36607e-02,-1.50912e-01,2.65131e-01,-1.28498e-01,-1.56035e-01,-2.54331e-01,-1.57327e-01,-2.39551e-01,1.13744e-01,3.50714e-01,-3.73229e-03,7.14282e-02,1.08329e-01,3.49654e-02,-9.75107e-03,-3.47423e-06,2.56722e-02,-6.12770e-02,-1.23329e-01,-1.36164e-01,-1.68838e-01,8.33977e-02,-1.51485e-01,4.37320e-02,3.65488e-02,-1.49768e-01,-1.03018e-01,6.28517e-34,1.30209e-02,3.00817e-01,1.45763e-01,1.91233e-01,1.95852e-01,1.18145e-01,7.49137e-02,6.40859e-02,-2.31249e-01,-9.70280e-02,-2.62622e-02,-9.46934e-02,5.53743e-02,2.77153e-01,-1.89087e-01,8.13813e-03,-2.64282e-01,-8.40721e-02,
-2.20842e-01,2.61319e-01,-1.83940e-01,-2.42129e-02,-1.99437e-01,-1.98115e-01,-2.58406e-01,1.05119e-02,2.62616e-01,-4.82941e-02,-1.43112e-01,-8.82955e-02,-1.76280e-01,-1.81160e-01,9.09432e-03,5.83975e-02,-5.92289e-02,1.50563e-01,-4.57008e-02,4.24181e-06,6.38189e-02,1.21189e-02,-1.33577e-01,-2.17211e-01,-4.78161e-02,1.85537e-02,-5.59660e-02,2.73313e-01,-2.84260e-01,4.36573e-02,-1.89626e-01,1.72543e-37,-8.72767e-18,1.31786e-01,1.70840e-01,2.57220e-01,-2.90332e-02,-1.24069e-01,-5.41981e-02,8.27325e-02,1.28090e-01,-5.62159e-02,-1.27704e-01,4.81482e-02,2.33690e-01,-2.04415e-01,9.49290e-02,1.51302e-01,-1.82318e-01,-8.30760e-02,
-1.51501e-01,7.47601e-02,-3.89970e-02,2.07628e-01,2.52592e-01,9.98293e-02,2.21736e-02,-1.00085e-01,-1.04610e-01,2.04704e-01,2.20834e-01,-1.18161e-01,-1.38938e-01,-1.03145e-03,-5.91107e-02,1.07644e-01,2.30239e-01,2.14541e-01,6.85072e-03,-7.52969e-34,-5.57950e-02,1.44168e-01,-5.87813e-02,4.25110e-02,-1.21884e-01,-1.83525e-01,1.09244e-01,8.63912e-02,-5.82670e-02,-6.68559e-02,-9.84510e-02,6.55154e-30,-1.25305e-05,-2.25387e-02,5.28327e-03,-2.93986e-02,6.41267e-02,1.41165e-02,1.89447e-01,-1.71410e-01,9.56101e-02,-7.60413e-02,-1.07783e-01,3.32500e-02,-1.37232e-02,5.10293e-02,-3.81661e-02,-8.58792e-02,1.06472e-01,9.08390e-02,
1.07773e-01,1.69796e-01,5.50660e-02,-1.17610e-01,-4.54485e-02,-2.56640e-01,1.69794e-01,-6.88840e-02,-8.45208e-02,3.75490e-02,1.92587e-01,-6.35241e-02,1.87274e-01,2.12027e-01,-2.24746e-01,-2.26025e-01,1.33335e-01,3.72808e-02,1.89940e-01,-1.33228e-35,-1.75215e-01,1.98192e-02,-2.01864e-02,-1.46416e-01,2.59382e-01,1.44157e-01,-1.44840e-01,3.53234e-02,2.81552e-02,-2.93285e-01,2.48590e-02,-1.26916e-32,4.23204e-02,-1.14003e-02,-1.02348e-02,-1.69179e-01,-2.34274e-01,5.45191e-02,-2.04352e-01,1.98378e-01,-2.34604e-01,-1.96593e-01,-8.65058e-03,-2.52214e-01,-1.85750e-01,-2.12973e-01,-2.75298e-01,8.47566e-02,8.42888e-02,1.60055e-01,
-6.11658e-02,8.56161e-03,-5.70575e-02,-3.63279e-02,-1.83948e-02,-8.26023e-02,-3.87560e-02,1.53870e-02,7.14667e-03,-4.87669e-02,-3.93767e-02,6.37647e-03,-3.97675e-02,-3.35650e-02,1.54615e-02,3.46919e-02,6.00231e-03,-2.30267e-02,-3.38787e-02,4.75720e-36,5.97940e-02,8.62386e-02,1.29655e-03,-3.04413e-02,-3.42949e-02,1.11982e-02,2.37069e-02,7.59570e-02,-3.84637e-02,3.28158e-02,9.57618e-02,1.28759e-25,2.93885e-18,1.02624e-04,8.10346e-02,-3.40398e-02,4.18595e-03,-1.96458e-29,1.29847e-01,-3.05660e-02,-3.68070e-02,1.05491e-01,-5.76440e-04,6.88389e-02,5.98124e-03,5.95826e-02,-3.46744e-02,-2.75945e-02,-3.79197e-02,3.05924e-01,
1.88263e-01,-5.92900e-04,-1.12750e-01,1.66433e-01,-2.38903e-01,-3.66541e-02,-6.35830e-02,-7.62685e-02,1.91331e-01,-9.06272e-02,-4.55413e-02,-3.01594e-01,-1.39437e-01,-1.29537e-01,2.33199e-02,-2.15690e-01,-1.64946e-01,1.79926e-02,-2.04765e-01,3.57067e-28,1.65514e-02,-1.60353e-01,6.32206e-02,4.31684e-02,2.21116e-01,1.69895e-02,7.85493e-02,-1.82339e-01,-1.95286e-01,1.56599e-01,-2.85840e-01,-1.73673e-29,-5.14597e-02,3.53317e-02,1.68967e-01,1.42312e-01,-1.53751e-02,-2.79627e-02,-2.09045e-01,-9.17507e-02,5.12950e-02,-4.84537e-02,-6.84163e-02,-1.14513e-01,3.18195e-02,1.04191e-01,-8.93807e-02,8.00489e-02,1.82332e-01,1.29707e-01,
4.84098e-02,1.63384e-20,2.70806e-02,-5.04141e-02,-6.75126e-02,4.36053e-21,4.45895e-02,-8.96562e-04,-1.70619e-02,-7.61277e-02,-2.09590e-02,1.26278e-36,5.13481e-02,1.80293e-36,-1.40519e-02,3.47197e-03,4.10322e-28,-9.48886e-03,-6.23942e-03,7.72667e-37,-3.70276e-02,1.47981e-03,1.35633e-11,-6.40700e-02,6.07749e-02,-3.44073e-02,8.36910e-33,-3.47181e-02,-1.15413e-01,-1.38726e-02,-3.56537e-37,2.99403e-29,-6.53352e-37,7.59140e-04,6.02119e-36,-3.89046e-02,9.38507e-03,5.72281e-28,-2.63821e-02,-1.81283e-02,-8.68049e-02,-1.29769e-02,1.58551e-02,8.53320e-02,3.59889e-03,1.06568e-21,-8.05543e-02,6.33419e-02,-1.01416e-01,-1.01854e-02,
3.50007e-03,2.14853e-01,-1.66737e-01,-2.77048e-01,1.74604e-01,1.67328e-01,-2.57338e-01,-2.09248e-01,-2.11908e-02,2.95913e-01,1.99785e-01,2.22598e-01,-5.79485e-02,-5.86979e-02,1.01381e-01,-1.64476e-01,2.80165e-01,-1.14818e-01,1.80703e-01,-1.97995e-04,1.55480e-01,-8.80039e-02,2.10057e-01,-9.86996e-02,-8.39094e-03,2.07602e-01,-2.01250e-01,2.71983e-01,1.80267e-01,-1.23899e-03,1.24756e-02,-9.06607e-37,8.36608e-02,1.07823e-01,1.85878e-01,8.83239e-02,-9.75474e-02,1.62483e-01,8.44617e-02,-5.14409e-02,2.22341e-01,2.77648e-01,-1.64061e-01,1.29150e-01,-2.20409e-01,-3.04710e-01,1.30058e-01,9.29655e-02,-2.20943e-01,1.30725e-01,
1.78231e-01,-3.00371e-01,2.41959e-01,2.75360e-01,-1.15235e-01,2.17901e-01,5.11703e-02,2.66414e-01,2.36063e-01,8.96930e-02,-8.12266e-02,-1.95794e-01,1.49342e-01,1.61139e-01,1.32468e-01,1.24221e-01,-2.31349e-02,-2.13206e-01,2.00755e-01,5.62382e-03,4.58615e-03,2.56398e-02,-1.66763e-01,-2.72117e-02,1.29843e-01,1.57320e-01,1.06264e-01,-7.17513e-02,3.28714e-02,-4.68697e-02,-2.32004e-01,1.17379e-35,-2.03583e-02,4.37084e-02,-2.85746e-01,4.96788e-02,-5.69278e-02,-1.37841e-02,1.25256e-01,-1.87008e-01,5.33927e-02,5.36364e-02,-1.05146e-01,-1.93368e-02,5.09348e-02,-6.84019e-02,-6.54198e-02,-1.90443e-01,-1.03160e-01,-2.29278e-01,
8.77768e-02,2.20401e-01,-3.70269e-02,-7.40653e-02,2.30195e-01,-1.11129e-01,8.88471e-02,-1.41219e-01,-1.61036e-01,-8.53919e-02,-2.13975e-02,-1.34316e-01,3.06806e-02,-3.73063e-02,-1.11200e-01,4.50355e-02,2.20496e-01,1.42644e-01,3.02099e-02,9.89606e-05,-7.86911e-02,1.39834e-01,-1.64374e-01,-2.30788e-01,2.03980e-01,-1.89584e-01,2.59066e-01,-1.32991e-01,-6.78410e-02,7.96550e-02,-1.50040e-01,2.10350e-33,-7.45201e-03,-1.91369e-01,1.20640e-01,7.39803e-02,2.11578e-01,-2.66049e-07,-1.25393e-01,1.26772e-02,1.42669e-01,1.26188e-01,-1.32676e-01,-3.69702e-02,1.97951e-02,-1.60635e-02,-2.59208e-01,1.76880e-02,1.23995e-01,2.42778e-01,
-7.50228e-02,-4.50035e-02,1.35701e-01,1.53077e-03,-3.42358e-01,1.39172e-01,-1.06295e-01,1.51324e-01,1.73612e-01,1.65780e-01,-1.62455e-01,-8.22199e-02,2.06252e-01,2.72882e-01,-2.98765e-02,2.25550e-01,-1.23239e-01,9.83618e-02,1.22754e-02,3.24981e-37,1.23547e-01,5.84528e-02,1.93746e-01,3.73610e-02,-1.02494e-01,-2.08229e-01,9.89715e-02,-3.29442e-01,5.94458e-02,-2.99543e-02,4.15963e-02,-4.53181e-16,-1.79826e-02,-2.34112e-02,2.28282e-01,1.49107e-02,-2.29217e-03,-3.30223e-02,-2.51184e-01,-2.33565e-01,-2.37415e-02,1.50626e-01,9.08986e-02,-9.15499e-02,2.37097e-02,3.06975e-03,-8.62877e-02,-7.66742e-02,2.08324e-01,-2.35886e-02,
1.72720e-01,-2.35303e-01,1.42415e-01,6.08451e-02,9.02379e-02,-2.27382e-01,1.04061e-01,1.60744e-01,2.18664e-01,-2.86238e-01,2.67231e-01,-1.12744e-01,-1.17600e-01,-2.65318e-01,1.39340e-01,-2.53478e-01,-2.07600e-01,-2.18298e-01,-2.29673e-01,4.60036e-37,2.12278e-01,-1.44596e-01,-3.13784e-01,4.04901e-02,3.00642e-01,7.36572e-02,-1.77446e-01,-4.22153e-02,-6.01729e-02,1.47761e-01,-3.53782e-02,5.06690e-37,-1.97944e-01,2.80626e-01,1.25782e-01,-7.97661e-02,1.38666e-01,-4.15791e-02,-1.32479e-01,5.05519e-02,1.43657e-02,-1.15430e-01,1.91606e-01,-3.29426e-01,-2.98068e-01,2.09191e-01,-2.17063e-01,-1.42661e-01,2.57225e-01,1.40767e-01,
2.17856e-02,8.29413e-02,1.68416e-02,2.68054e-02,2.09509e-01,-1.52353e-01,-4.77754e-02,-1.29758e-01,7.27484e-02,1.13831e-01,9.98486e-03,-1.19561e-01,-1.91540e-01,1.95122e-01,1.98749e-01,-3.50473e-02,5.66505e-02,-1.87041e-01,1.66990e-01,-1.16810e-37,-8.11303e-03,1.04410e-01,1.91250e-01,-2.30634e-01,-1.33455e-01,-7.38712e-02,9.67961e-02,6.94520e-02,-9.13279e-02,-6.73034e-02,1.90784e-02,-5.74179e-28,4.84989e-03,7.27201e-02,5.46637e-02,1.51475e-01,1.24203e-01,-1.25518e-02,9.13558e-02,-5.65393e-02,-1.71411e-01,1.84615e-01,8.38819e-02,6.23123e-02,-1.82896e-01,3.48518e-01,1.39624e-03,-1.61895e-01,-8.41380e-02,2.54853e-01,
-4.45315e-02,-7.98571e-02,-1.36027e-02,-1.97785e-02,-1.89124e-01,8.05013e-02,2.00957e-01,-4.97745e-03,9.47771e-03,1.15643e-01,-6.53902e-02,1.30231e-02,-9.37216e-02,-1.79519e-02,-2.35161e-01,2.86785e-01,-3.67075e-02,-2.41130e-01,1.62394e-01,-1.17739e-17,2.26146e-01,2.90443e-02,2.67208e-01,-1.98703e-01,1.07237e-01,2.22612e-01,-1.60615e-01,-3.49359e-02,-1.51517e-01,1.65531e-02,1.51810e-01,-9.02289e-19,7.52663e-34,-1.85792e-01,-1.42453e-02,-1.13129e-01,-2.74934e-02,6.54409e-36,-7.73203e-02,-1.48111e-02,-1.51584e-01,1.47339e-01,-9.86134e-02,1.52589e-01,-1.33668e-01,1.14159e-01,-2.08449e-01,-3.67951e-02,-3.99004e-02,6.61522e-04,
-3.52097e-02,-7.01562e-02,1.78693e-01,-3.67126e-02,1.94313e-01,3.88448e-02,6.04058e-02,1.99652e-01,-1.25071e-01,-2.76291e-01,8.29472e-02,1.44394e-01,9.41131e-02,1.28974e-01,6.84799e-02,-1.63214e-01,4.62141e-02,-1.11591e-01,1.01545e-01,-1.96408e-05,-7.38029e-03,-5.73159e-02,-2.56973e-01,1.55701e-01,1.10285e-01,-8.93411e-02,-2.10741e-01,-8.52380e-02,-1.81862e-01,1.18634e-01,8.15850e-02,5.27726e-37,-1.59476e-02,-1.61922e-01,-1.81666e-01,1.16151e-01,2.32672e-01,-2.41755e-02,-1.73499e-01,3.18608e-02,1.39522e-01,9.79518e-02,-3.38313e-02,-3.33160e-01,-1.31748e-01,-2.74684e-02,-7.22811e-02,-2.20601e-01,6.06544e-02,4.27928e-02,
1.54692e-01,-2.46390e-01,2.26163e-01,8.90527e-02,5.07380e-02,-1.38518e-01,1.59833e-01,-1.79808e-01,5.83381e-02,-2.52109e-01,-5.04401e-02,-1.58730e-03,-1.60625e-01,-5.18232e-02,1.91157e-01,5.62710e-02,-9.19985e-02,1.00465e-01,2.82790e-02,-4.41625e-08,1.68161e-01,-2.56682e-01,-2.14220e-02,-2.48261e-01,-7.68096e-02,7.62155e-03,-3.38219e-02,-7.35354e-02,1.26025e-01,3.16576e-02,6.01047e-02,-4.69545e-37,-1.09982e-01,-1.32412e-01,-1.31251e-01,-1.48074e-01,1.99553e-01,-1.73667e-01,-3.33123e-03,1.81413e-01,1.51470e-01,-1.96599e-01,-1.98104e-02,9.85153e-02,-2.17308e-02,-2.05350e-02,5.65162e-02,-2.19188e-01,-1.10880e-01,1.38198e-01,
7.63332e-02,2.33745e-01,-8.74851e-02,-3.00460e-01,2.24383e-01,-9.53324e-03,-9.58140e-02,-7.85257e-02,-1.99716e-01,1.97658e-01,2.14835e-02,-4.49878e-02,1.97634e-01,-2.56334e-01,6.43553e-02,-1.56777e-01,3.08040e-01,-2.74774e-01,-1.52261e-01,6.82296e-04,9.44361e-02,1.24108e-01,1.17195e-02,1.23683e-01,1.33612e-01,-4.00530e-02,-6.71290e-02,2.28422e-01,1.09913e-01,1.77899e-01,1.83084e-01,9.17342e-31,-7.33655e-02,8.52075e-04,3.39706e-01,-1.78163e-02,2.02422e-01,-3.24044e-02,3.25420e-02,-1.33741e-01,-1.29201e-01,4.15347e-02,-1.14840e-01,1.87649e-01,-2.58661e-03,4.50155e-02,1.24684e-02,-2.62882e-02,-1.45541e-01,1.93316e-01,
9.04873e-02,-8.52564e-02,8.95038e-02,2.08589e-01,-1.91448e-01,7.80299e-03,9.04995e-02,-1.13797e-01,-1.43880e-02,-2.77464e-01,-1.05600e-01,-2.54635e-01,1.24224e-01,1.92375e-01,-2.14309e-01,-7.91272e-03,-2.41975e-01,7.45559e-02,-1.64041e-01,1.40232e-37,-1.75141e-01,-4.14176e-02,1.00343e-01,6.39790e-02,8.12517e-02,-5.57482e-02,-1.06947e-01,1.55774e-01,1.53205e-01,2.53795e-02,1.32933e-01,6.12661e-37,-3.47362e-02,2.40371e-01,-1.93597e-01,-2.64995e-02,2.36886e-01,-1.34797e-01,-1.23691e-01,-1.01458e-01,-7.49428e-02,-4.56950e-02,7.59176e-02,-1.69586e-01,1.05383e-01,-1.35696e-01,1.16614e-01,1.36936e-01,1.93063e-01,-1.71785e-01,
1.21826e-01,1.46631e-02,-7.74625e-02,-2.32834e-01,-4.88815e-02,-2.22843e-01,-7.25499e-02,2.83264e-01,2.74883e-02,1.11234e-01,2.31016e-01,-1.24706e-01,-4.56892e-02,4.27085e-02,1.23477e-01,-1.93961e-01,2.39363e-01,-1.36160e-01,-9.05918e-02,2.40696e-13,4.33396e-02,-1.81314e-01,-1.03963e-01,5.29304e-02,-1.85225e-01,3.04987e-02,-1.07248e-01,-1.24419e-01,1.41841e-02,-9.62385e-02,2.22671e-01,-2.50169e-32,2.44609e-01,1.27178e-02,-1.00287e-01,-1.97807e-01,-1.99842e-01,2.37454e-06,2.12219e-01,-5.77189e-03,-1.22413e-01,3.12532e-01,2.39867e-01,1.74210e-01,-4.00145e-02,1.01781e-01,-7.14014e-02,1.83098e-01,-3.42024e-01,1.09540e-01,
-3.10622e-01,-3.00461e-01,-6.67449e-02,-2.66432e-01,1.83162e-01,3.48773e-02,1.52011e-01,-2.98651e-01,-1.97751e-01,-2.49061e-01,-1.20542e-01,-1.11723e-01,8.56890e-02,9.48015e-02,6.99963e-02,2.90556e-02,-1.07013e-01,-3.56452e-02,-1.05617e-01,3.90733e-04,2.13634e-01,-1.70638e-02,-2.75137e-01,-4.47001e-02,-4.11721e-01,-8.81093e-02,-1.06938e-01,-1.26371e-01,1.19990e-01,-1.19116e-01,-6.32501e-02,3.24009e-31,5.10283e-02,3.60742e-03,-1.59064e-01,1.24113e-01,-2.08199e-01,1.70534e-22,-2.18155e-01,6.29512e-02,4.13977e-02,5.30481e-02,4.86382e-02,-9.77278e-02,-1.82757e-01,4.47292e-01,5.59541e-02,1.70504e-01,1.45851e-01,-2.33021e-01,
-2.34113e-02,1.61329e-01,-2.89852e-01,-1.26600e-01,1.29510e-01,1.20561e-01,-1.93877e-01,2.12143e-01,-1.37462e-02,7.11245e-02,-1.14555e-01,7.71771e-02,2.03350e-01,-2.73158e-01,-2.00525e-01,-3.90379e-02,6.57728e-02,1.38481e-01,1.23764e-01,2.35208e-11,2.41155e-01,3.34732e-01,1.70641e-02,-2.59499e-02,-7.65965e-02,-1.55227e-01,9.61310e-02,1.21180e-01,-1.17779e-03,4.60819e-02,-1.19176e-01,-2.92964e-20,1.76981e-01,-8.45910e-03,2.11082e-01,-1.33996e-01,-2.70751e-02,3.09323e-02,-1.18789e-01,8.96646e-02,-2.00504e-01,-2.82579e-02,6.42982e-02,3.06154e-01,-4.90130e-03,-1.26086e-01,9.40972e-02,-1.78807e-01,1.85434e-01,2.09446e-01,
-5.42293e-02,8.84454e-02,-1.16017e-01,-2.67681e-01,2.44188e-01,-1.04358e-01,-2.58990e-01,-8.82269e-02,1.77572e-01,2.38327e-01,2.14207e-01,-3.49557e-02,-1.07563e-01,-1.36915e-01,2.06326e-01,-1.59621e-01,-1.78328e-03,-2.43949e-01,-4.58857e-02,9.05534e-06,-2.14513e-01,7.24401e-02,6.00432e-02,-8.41737e-02,3.53910e-02,-7.70295e-02,7.96207e-02,-1.72914e-01,5.75355e-02,1.36211e-01,-5.50046e-02,3.18589e-29,8.44632e-02,4.15329e-02,-4.09491e-02,1.18276e-01,7.88187e-02,-6.64004e-02,2.43750e-01,3.12164e-02,-2.20577e-01,2.37640e-02,-1.32112e-01,2.80217e-02,1.64639e-01,-2.89834e-01,2.57747e-01,-4.16863e-04,-2.97272e-02,-2.93005e-02,
4.01934e-02,1.11668e-01,-2.84205e-02,-1.57968e-01,1.47294e-01,4.34265e-02,-1.71708e-01,1.10881e-01,-1.74158e-01,4.90428e-03,-9.13161e-02,1.97355e-01,-1.83677e-01,2.26221e-01,-2.10271e-01,8.08809e-02,2.74476e-01,1.30531e-01,-1.66820e-01,5.35405e-06,1.97359e-01,2.12261e-01,-2.62825e-02,1.00312e-01,-1.10364e-01,1.04610e-01,3.69448e-02,2.22348e-01,-1.36109e-01,1.32058e-01,4.10311e-02,6.52326e-17,-1.69269e-01,-9.63613e-02,3.52023e-01,-2.25759e-01,-1.04077e-01,1.40280e-07,-5.90200e-02,-1.09288e-01,8.70116e-02,-5.40395e-02,-2.57180e-01,-1.41348e-01,-1.48432e-01,-1.29902e-01,-3.52863e-02,4.84426e-02,-2.10552e-02,-4.73652e-02,
8.97442e-02,-2.00574e-01,-1.15254e-02,2.65018e-01,3.08045e-02,3.83533e-02,2.65952e-01,-7.86655e-03,-1.97655e-01,3.04471e-02,6.15601e-02,1.08856e-01,1.32650e-01,3.84673e-02,-1.85695e-01,-4.41862e-03,7.81858e-02,1.50143e-01,-1.51791e-01,5.20969e-37,-4.77998e-02,1.12560e-01,7.77113e-03,2.29492e-01,9.76005e-02,1.53015e-01,1.33222e-02,-1.15290e-01,-1.11427e-01,5.54240e-02,1.62534e-01,1.41200e-11,1.95057e-02,-8.36630e-02,-2.71632e-01,-3.05352e-02,2.07243e-01,-2.35864e-03,-1.06385e-01,2.23759e-01,-2.61024e-01,1.05374e-02,-2.37656e-01,-6.01037e-02,-1.29974e-01,-1.59529e-02,-1.43665e-01,-1.38792e-01,-1.79824e-01,-2.65446e-01,
4.06594e-02,-7.76905e-02,-2.10981e-01,-2.69375e-01,2.89658e-02,1.19959e-01,-1.79914e-01,-1.37748e-01,1.86055e-02,2.10202e-01,1.55241e-01,1.01129e-01,1.80493e-02,1.23674e-01,2.05339e-01,1.13877e-01,2.51039e-01,1.66085e-01,-1.15459e-01,7.55014e-04,-7.80434e-02,1.08958e-01,1.90425e-01,1.89616e-01,8.20260e-02,-2.07906e-01,7.53449e-02,4.44198e-02,-1.58840e-01,1.38387e-01,-1.26379e-01,1.42752e-37,-1.09458e-01,1.73711e-02,1.93167e-01,-5.96027e-02,1.05901e-01,1.10293e-01,-1.10193e-01,1.34210e-01,-8.46507e-02,9.89267e-02,4.84545e-02,-1.83962e-02,1.89556e-01,1.16671e-01,2.27322e-01,4.55899e-03,-1.77953e-01,8.75719e-02,
2.55325e-01,1.20664e-02,-2.13194e-01,-9.65728e-02,2.66899e-01,4.68961e-02,-3.31337e-01,1.92171e-01,-5.28728e-02,2.93228e-01,1.61796e-01,7.52733e-02,-4.46217e-02,-1.28332e-01,-9.67646e-02,9.42327e-02,7.78733e-03,5.33840e-02,2.32707e-01,1.06787e-03,-1.86022e-02,3.19983e-01,-2.00017e-01,1.24722e-01,2.61337e-02,-1.90963e-01,-7.60230e-02,-4.88266e-02,-9.36778e-03,1.44743e-02,1.99883e-01,-1.68127e-33,-1.99717e-01,-2.62646e-02,-1.23812e-01,-1.17421e-01,-2.01542e-01,-5.91466e-02,1.50166e-01,-1.27582e-01,-4.17241e-02,1.14917e-01,2.14237e-03,1.83569e-01,5.01263e-02,2.18359e-01,1.46649e-01,7.13758e-02,-8.81362e-02,1.16027e-01,
1.61996e-01,3.52669e-02,-5.37359e-03,5.83664e-02,1.71398e-01,-4.65562e-02,-1.10991e-01,1.84139e-01,2.22742e-01,-7.46240e-02,-1.60350e-01,3.58687e-02,-2.53902e-02,3.87333e-02,-1.96123e-01,-5.30991e-02,8.17934e-02,1.65888e-01,-1.21665e-01,-2.49976e-20,3.15913e-01,1.59496e-01,4.78610e-02,4.28434e-02,3.51454e-02,-2.34621e-01,-5.00867e-03,1.48473e-01,8.14574e-02,3.03140e-02,5.74813e-02,-4.61406e-18,-1.22214e-01,7.11730e-03,6.06649e-02,6.43101e-03,-1.41405e-01,-2.49079e-36,1.54623e-01,-3.46793e-02,-2.03453e-01,-9.43294e-02,-1.29856e-01,1.53969e-01,8.57131e-02,6.05006e-02,-2.23768e-01,1.74558e-01,-6.48090e-02,2.38114e-01,
-1.20520e-01,7.66361e-02,2.89610e-01,-3.48409e-02,5.35249e-02,-1.58463e-01,-8.45712e-02,-4.70022e-02,-5.61940e-02,-3.07752e-01,-5.40227e-02,6.10209e-02,2.59793e-01,1.33813e-01,-2.10599e-01,2.06943e-01,4.00244e-02,2.34151e-01,4.64630e-02,2.45441e-16,-6.67867e-02,-1.31028e-01,2.10396e-01,9.02245e-02,-1.28155e-01,1.59413e-01,1.37421e-01,1.91976e-01,-1.30856e-01,-3.77955e-02,1.88663e-01,-5.46572e-37,1.72685e-01,5.99736e-02,-1.34896e-01,-1.61204e-05,1.91683e-01,-1.42869e-01,2.07219e-01,-1.67710e-01,1.25515e-01,1.58802e-01,-1.25758e-02,-1.98283e-01,-4.23270e-02,1.70807e-01,1.57315e-01,2.19063e-01,-1.86729e-01,-1.58258e-01,
8.57721e-02,-5.15835e-02,-5.54503e-02,1.61384e-01,-1.59652e-03,-1.14990e-01,-1.32667e-02,9.18769e-02,1.57295e-01,2.81603e-02,-2.08723e-01,6.95926e-02,3.11029e-02,2.65214e-01,-1.69433e-01,-2.49795e-02,-3.24977e-02,-2.33697e-01,2.16804e-02,-4.01222e-31,1.90294e-01,2.19014e-02,-1.43727e-01,-1.84461e-01,-1.15599e-01,1.07524e-01,1.46469e-01,-1.65592e-01,-2.33657e-02,-2.84523e-01,2.39971e-01,-1.11320e-17,-2.58874e-02,1.02139e-01,-1.51632e-01,-5.80702e-02,2.47280e-01,1.57839e-01,-8.88013e-02,5.15847e-02,1.29688e-01,-7.07356e-02,-2.73062e-01,-2.39369e-01,-1.59404e-01,-1.54514e-01,-2.03441e-01,-1.13723e-01,7.42551e-02,9.34473e-02,
4.35192e-03,7.49763e-02,2.29448e-01,9.39259e-02,-2.75147e-01,-1.90492e-01,-6.15842e-02,2.12578e-01,-1.70392e-01,-2.34343e-01,2.15128e-01,6.85479e-02,1.80453e-01,2.72868e-01,4.11201e-02,6.11965e-02,4.78627e-03,1.53881e-01,1.51476e-01,-3.65050e-37,-9.42046e-02,-1.75667e-01,1.07999e-01,5.71086e-02,6.54125e-02,5.45320e-02,-6.86517e-03,1.33790e-01,2.83203e-01,-9.19357e-02,-9.48120e-02,2.55893e-34,-1.72503e-02,-4.02173e-02,1.96000e-01,-7.17917e-04,1.49335e-01,1.70449e-01,1.36911e-01,-2.33426e-01,1.35728e-01,-1.83442e-01,1.74860e-01,-2.42532e-01,-9.72373e-02,1.27588e-01,-2.22870e-01,-7.85427e-03,-1.01995e-01,7.11354e-02,
-1.43225e-01,3.61351e-01,-4.44513e-02,-1.66299e-01,-1.85875e-01,1.49308e-01,-2.76476e-01,2.27050e-01,-1.82847e-01,7.78254e-02,-7.43126e-02,-1.49217e-01,2.24447e-01,-2.22520e-01,5.95497e-02,2.04905e-01,2.93631e-03,-6.37340e-02,1.91367e-01,-3.26509e-03,1.52705e-01,2.33820e-01,1.23741e-01,1.30936e-01,4.44987e-02,-3.30429e-02,8.97783e-02,1.07325e-01,-2.48424e-01,2.73483e-01,1.29350e-01,-1.83890e-37,-1.44811e-01,-2.38465e-02,-7.36389e-02,1.17414e-01,-3.82111e-02,-1.49037e-01,5.02444e-03,6.79777e-02,1.79895e-01,-1.47256e-01,2.40380e-01,-1.56011e-02,-1.90825e-01,1.46986e-01,-1.86205e-01,1.06215e-01,-2.34491e-01,4.64019e-02,
-1.83365e-01,-1.63689e-01,1.77866e-01,-7.62031e-02,-3.95067e-02,-6.94403e-02,-2.34650e-01,4.95664e-03,-1.49760e-01,-2.92053e-01,-2.32230e-01,-9.61339e-02,2.09749e-01,-3.09057e-02,-1.46818e-01,-1.38747e-01,9.01417e-02,6.32818e-02,2.02263e-01,-2.10185e-05,-8.75190e-03,5.34774e-02,-5.95522e-03,-5.45359e-02,9.68317e-02,-1.57038e-02,1.89638e-01,1.14739e-01,1.36590e-01,4.36967e-02,-2.12729e-01,-1.57832e-14,1.87521e-08,-1.51390e-01,2.58849e-02,-1.58629e-02,1.94856e-01,4.23513e-05,-1.66460e-01,-1.71357e-01,1.66354e-02,5.44791e-02,4.28203e-02,2.44972e-02,7.26390e-02,1.30170e-01,8.94371e-02,-2.11740e-01,-6.64660e-02,1.71593e-01,
1.00388e-01,-2.52157e-01,-2.57389e-01,-2.14893e-03,9.16442e-02,1.84124e-01,3.10918e-02,-2.58431e-01,-2.45560e-01,2.68276e-01,1.27567e-01,2.58243e-01,-1.76452e-01,-5.94586e-02,1.30356e-01,8.30145e-02,3.62361e-02,1.74086e-01,-1.68916e-01,6.94960e-04,5.48811e-03,2.66073e-01,6.76376e-02,2.84017e-02,-1.85676e-01,-1.47243e-01,1.59193e-01,2.56948e-01,-1.51603e-01,1.25795e-01,-1.08033e-02,-2.52152e-37,-8.97834e-02,-2.15647e-01,-1.50876e-01,1.26107e-01,-3.72110e-02,-5.06804e-02,-1.92912e-01,-1.31852e-01,1.91184e-01,-1.98551e-01,1.60529e-01,2.86624e-01,-1.56145e-01,-8.30713e-02,1.53322e-01,2.28021e-01,1.81935e-02,1.70928e-01,
-1.42240e-01,-3.50632e-02,1.73441e-01,1.31830e-01,-2.62708e-01,-2.56242e-01,4.52839e-02,-2.23792e-01,-4.73259e-02,-5.03507e-02,1.92885e-01,-3.01740e-01,-1.07853e-01,-6.27429e-02,-8.71010e-02,-3.26123e-02,7.46223e-02,-9.91999e-02,5.04474e-02,-3.00469e-04,2.82932e-01,-9.92597e-02,-3.01817e-01,1.13967e-01,-4.51866e-02,1.96902e-01,-1.16900e-01,3.40469e-02,2.29304e-01,-9.20794e-02,9.05488e-02,1.37403e-28,-2.34238e-01,1.30418e-01,1.41437e-01,-2.25364e-01,5.13680e-02,1.35096e-02,9.45342e-02,1.89392e-01,-1.58836e-01,-1.52376e-01,-3.13392e-01,-1.51410e-01,-2.30183e-02,2.57674e-01,-1.90310e-01,-2.00132e-02,-1.53514e-01,2.26138e-01,
-3.21989e-02,1.07185e-01,9.37723e-02,1.70524e-01,1.34168e-01,-7.90084e-03,1.19950e-02,1.74060e-01,-1.49620e-01,-1.08091e-03,2.27221e-01,3.60235e-02,1.67366e-01,2.03355e-01,-1.33591e-01,6.06035e-03,-3.61217e-02,1.05240e-01,-3.66484e-02,-1.06088e-11,-6.03672e-02,-4.12833e-02,3.63850e-04,-1.85213e-01,4.25291e-02,1.61523e-01,-3.56888e-02,-2.86768e-03,1.04390e-01,3.73725e-02,9.78330e-03,-1.10199e-16,1.90949e-03,2.51712e-01,8.10996e-03,1.20866e-01,1.37911e-01,-4.03032e-12,-1.48963e-01,-1.32134e-01,-1.88149e-01,2.37555e-02,1.02391e-01,-1.48800e-01,-2.46572e-01,1.17868e-01,-1.24360e-01,-1.05835e-01,-1.36633e-01,6.22664e-02,
4.86207e-02,-1.96891e-01,-2.16215e-01,-1.48585e-01,1.40739e-01,9.71395e-04,-1.63434e-01,7.88123e-02,1.03197e-01,9.23551e-02,2.50094e-01,3.32171e-02,4.02707e-02,7.41208e-02,1.73342e-01,5.11538e-02,3.59807e-01,4.85233e-02,1.21299e-01,1.41126e-03,2.28321e-01,3.43938e-01,2.39094e-01,-1.20219e-01,1.57161e-01,-9.14404e-02,1.76042e-01,1.20498e-01,-2.43249e-01,-2.14038e-02,2.15729e-01,3.17737e-24,-9.03628e-02,1.78560e-01,2.13575e-01,-2.96473e-01,1.17028e-01,-7.85258e-02,-1.44335e-01,1.12104e-01,-1.67030e-01,4.85675e-02,7.09709e-02,2.84978e-01,2.52403e-01,-2.03296e-01,-1.42012e-01,1.52455e-02,2.06804e-01,2.21585e-01,
5.12105e-02,-1.78241e-01,-9.55876e-02,1.60479e-02,7.01774e-02,3.11493e-01,2.31842e-01,-1.35445e-01,8.32550e-02,8.54332e-02,-6.98666e-02,-1.07772e-01,3.02683e-02,-7.85912e-02,1.12416e-01,-1.38222e-01,-2.68298e-01,-2.83028e-01,-9.14302e-03,-8.81125e-07,1.53846e-01,-1.88500e-03,-1.48713e-01,-3.00048e-02,1.32477e-01,1.41002e-01,-1.80259e-01,1.33562e-01,1.25048e-02,-1.94734e-01,-5.98321e-04,-2.36991e-24,-1.75824e-01,-1.08945e-04,4.16045e-02,2.07065e-01,-1.18913e-01,-5.04691e-02,-1.96315e-01,1.64784e-01,2.04854e-02,-2.34724e-01,-1.54884e-02,-2.84803e-01,1.70859e-01,-3.07527e-01,-1.36096e-01,-8.34834e-02,2.72935e-01,-3.54452e-02,
2.96942e-02,-6.37701e-02,-2.59366e-01,1.52172e-01,2.16734e-01,-2.42597e-01,-2.66150e-01,-8.39502e-02,1.29799e-01,7.37886e-03,-1.85200e-01,1.37123e-01,2.35217e-01,-1.85964e-01,-1.36624e-01,-3.30494e-02,2.95624e-01,-6.50460e-02,-7.07846e-02,5.08183e-04,4.54536e-02,-1.49266e-01,9.33190e-02,1.19085e-01,-2.16427e-01,1.73617e-01,2.44157e-02,2.63525e-01,-3.74806e-02,2.26106e-01,1.24852e-01,-3.96298e-12,-2.10318e-01,-2.47551e-01,1.83556e-01,2.20743e-01,1.89893e-01,4.22061e-02,1.29533e-01,9.97018e-02,-1.50257e-02,2.43842e-01,-1.38241e-01,-9.09661e-02,-1.79117e-02,-9.80182e-02,-1.62741e-01,1.36119e-01,-4.56484e-02,-1.63333e-01,
-2.75108e-02,-1.76142e-01,-2.02642e-01,3.12316e-02,-1.62305e-01,-2.08342e-01,-1.23950e-01,-2.75976e-02,2.06866e-01,3.11718e-02,-2.92885e-01,2.60063e-01,-9.92552e-02,-1.24762e-01,-1.41935e-01,-1.37923e-01,-1.27637e-01,-2.34840e-02,1.85431e-01,-2.82355e-38,-2.57240e-01,-1.99624e-01,2.71106e-01,-7.54069e-02,-1.74779e-02,2.55738e-01,-3.31236e-02,2.67849e-01,-1.88667e-02,1.14805e-01,-1.94761e-01,1.53771e-11,-1.76970e-14,-5.33647e-02,-8.51649e-02,-1.23054e-02,-7.87550e-03,1.09023e-02,-1.51266e-01,1.00034e-01,-1.88682e-01,5.17036e-02,-3.37749e-02,-3.51076e-02,1.40054e-01,3.19392e-03,-2.18094e-01,-1.32310e-02,-4.73132e-03,1.08328e-01,
1.84290e-01,1.44875e-01,2.78274e-01,-4.44143e-02,-2.93720e-03,2.27763e-02,2.47766e-01,2.07304e-01,9.11666e-02,-2.76870e-01,-1.61843e-01,-4.70106e-02,6.71203e-02,2.92824e-01,-2.02490e-01,1.47929e-01,1.02643e-01,-8.54732e-02,-9.17652e-02,1.73711e-09,2.65624e-02,-2.77776e-01,-2.36457e-01,-5.60618e-02,2.49343e-01,2.18728e-01,2.14816e-01,1.07046e-01,-2.06242e-01,3.26350e-02,-1.25532e-01,-1.03254e-36,1.68447e-01,1.98962e-01,-3.26014e-01,-2.08933e-01,1.93169e-01,6.26665e-02,1.13058e-01,1.88425e-01,-1.68670e-01,1.70729e-01,1.22981e-01,-1.10892e-01,-1.25315e-01,1.80753e-01,1.94894e-01,-1.34444e-02,7.23526e-02,-1.76373e-01,
-7.26015e-02,7.68214e-02,-3.26029e-01,6.16175e-02,-2.83112e-02,3.59508e-03,1.92073e-01,1.59188e-01,-2.14727e-01,1.69565e-01,-2.03965e-01,9.96261e-02,-6.97649e-02,-3.24669e-01,-1.91743e-01,1.73686e-01,2.88230e-01,6.23197e-02,1.39758e-01,-2.50928e-07,-1.55823e-01,-5.73758e-02,3.49735e-02,-6.23367e-02,-1.12788e-01,1.44922e-01,2.71481e-01,1.83324e-01,-1.97371e-01,2.16676e-01,-8.89988e-02,-1.06079e-20,1.20013e-01,1.09771e-01,7.38826e-02,-1.69662e-01,2.03675e-01,1.02796e-01,7.24400e-02,1.17649e-01,2.00522e-01,2.45810e-01,-8.51715e-02,3.07942e-01,-7.03086e-02,5.77096e-03,-1.19078e-02,-3.09263e-02,-1.58266e-01,-1.22498e-01,
1.74317e-01,9.40037e-02,1.55511e-01,2.19161e-01,7.46271e-02,-2.09789e-02,2.07000e-01,-4.51700e-02,-1.21032e-01,-1.14271e-01,4.95013e-02,-8.63946e-02,1.06185e-01,2.18715e-01,2.38780e-02,-2.67144e-01,-2.04997e-01,-7.80357e-02,-5.73276e-02,2.55034e-09,5.75736e-02,-2.56252e-02,3.99339e-02,-3.24180e-02,-2.18481e-02,-2.60512e-02,1.84991e-01,1.18671e-02,-9.56032e-02,7.82101e-02,1.29745e-01,-4.46681e-37,-6.14968e-02,-7.97852e-02,1.45578e-01,4.00261e-02,1.79787e-01,2.70567e-02,1.37017e-01,1.29020e-01,1.23349e-01,1.88827e-01,-1.28848e-02,-1.29304e-01,4.06145e-02,1.14887e-01,-1.55297e-01,-1.56488e-01,-1.59724e-01,-2.59324e-02,
6.04077e-02,-1.89170e-01,1.05640e-01,-2.19932e-01,1.94533e-01,-3.02804e-03,2.11185e-01,6.55090e-02,-1.80242e-01,-1.83417e-01,6.67774e-02,2.43521e-02,-1.59180e-01,1.45393e-01,1.36697e-01,-1.21099e-01,-3.42938e-02,-1.07280e-01,2.58760e-01,-1.93310e-37,8.44059e-02,5.84417e-02,3.23800e-03,-1.75407e-01,-1.18909e-01,-6.17637e-02,5.29275e-02,-2.05477e-01,2.59506e-01,-1.24103e-01,3.82308e-02,8.36147e-21,6.65569e-02,1.39192e-01,-7.50317e-02,-1.25103e-01,1.00027e-01,-1.25280e-02,-1.43885e-02,-5.91624e-02,3.37604e-02,1.38764e-01,-3.22641e-01,4.22823e-02,1.86292e-01,2.30630e-01,3.85241e-02,-1.04106e-01,3.54590e-02,-4.72590e-02,
-1.92769e-01,1.86863e-01,2.74231e-02,6.79034e-02,-7.20198e-02,2.07975e-02,1.98350e-01,9.75023e-02,-9.94900e-02,-1.66946e-01,-2.55010e-01,-1.96871e-01,7.29892e-02,1.59748e-01,-2.10418e-02,-2.33269e-02,-2.39121e-01,-2.33918e-01,-1.86397e-01,-4.62939e-06,-2.64536e-01,-2.51545e-02,6.13170e-03,8.09952e-02,1.29385e-01,-2.08990e-01,9.63753e-02,1.87095e-01,-1.69809e-01,-2.78688e-01,-4.82586e-02,-2.06544e-36,4.68471e-12,1.23037e-01,-1.89245e-01,1.94344e-01,-1.20321e-01,-4.58388e-02,-4.03268e-02,2.05512e-01,1.33229e-01,-2.32830e-01,4.57315e-02,3.63004e-02,1.22834e-01,2.66104e-01,3.84028e-02,1.44841e-01,-3.51643e-01,-3.99020e-02,
1.64342e-02,-2.28204e-02,-1.59456e-02,-3.04574e-02,1.22181e-02,-2.81855e-02,-8.93620e-03,-5.33498e-03,-3.57500e-02,-1.05605e-02,-8.79878e-03,-3.21395e-03,-4.72749e-02,3.14538e-02,1.04795e-02,-3.10834e-02,5.77513e-03,4.00493e-03,-4.72113e-02,-1.27479e-17,3.15462e-02,2.16284e-03,-2.77036e-02,-1.96403e-02,-1.83683e-02,-1.71170e-02,1.56707e-02,-5.77417e-02,3.43467e-02,4.84755e-03,6.50151e-03,2.91558e-14,2.12454e-37,1.65061e-02,3.61051e-02,-1.69689e-02,-1.32005e-03,-1.18719e-14,7.03265e-03,-7.57851e-03,-1.47303e-02,-6.13001e-03,1.67820e-02,-2.05544e-02,-1.67276e-02,1.06717e-02,-6.61613e-03,-2.14278e-02,-1.72171e-02,-1.41818e-02,
1.46205e-01,6.93220e-02,2.79903e-01,-6.33839e-02,1.82092e-01,1.68099e-01,1.27267e-01,1.70734e-03,-1.06181e-01,-1.44604e-01,1.55414e-01,1.95023e-01,5.95679e-02,-2.29284e-02,-9.37531e-02,-1.79403e-01,7.70612e-03,4.30161e-03,2.35647e-01,2.71252e-36,-1.48383e-01,2.31901e-01,2.12229e-01,-7.59256e-02,2.50075e-01,1.94641e-01,-1.14647e-01,-2.94963e-01,-1.71420e-01,-4.54401e-02,-1.88694e-01,-1.95167e-30,3.95046e-02,-1.49890e-01,-1.59016e-01,-2.10627e-01,-9.35372e-02,-1.55464e-02,2.24735e-01,-1.22239e-01,-4.83104e-02,-8.61201e-02,-1.15972e-01,-1.92789e-02,2.45783e-02,2.28569e-01,-1.69726e-01,9.31453e-02,1.16418e-01,-1.19081e-02,
-1.80615e-01,1.41386e-01,1.28820e-01,-2.80769e-01,-1.09210e-01,-1.10433e-02,2.22883e-01,-2.79680e-02,1.83596e-01,-2.42625e-01,5.14310e-02,9.92060e-02,2.49866e-01,5.97302e-02,-1.97336e-01,9.07509e-02,2.62010e-01,2.26437e-01,-7.46345e-02,7.64938e-05,9.06399e-02,-4.67965e-02,-1.01816e-01,1.85284e-01,1.05374e-02,-2.10051e-01,9.08131e-02,-2.27037e-01,1.61185e-01,-2.60452e-01,-9.31943e-02,1.25195e-11,-1.14211e-01,2.89193e-01,1.47358e-01,-1.85201e-01,-1.80633e-01,-5.36658e-02,2.10561e-01,6.58850e-02,9.56602e-02,3.94270e-02,1.13023e-01,-1.86362e-01,-2.66636e-01,-6.88556e-02,-4.67445e-02,-1.75960e-01,-7.66437e-02,1.39112e-01,
-5.65631e-03,-1.96551e-02,2.14200e-01,5.02100e-02,2.84967e-02,1.14269e-02,-1.10572e-02,1.18678e-02,-9.38879e-02,-6.68264e-02,-3.17356e-03,4.09331e-03,-1.16539e-02,9.21503e-02,1.88158e-02,-5.46426e-03,1.13445e-01,2.53921e-03,1.14459e-01,-8.81040e-38,-1.72739e-04,-1.62711e-02,2.74415e-03,-4.57409e-02,1.91614e-02,-2.71204e-03,-6.65826e-02,3.71820e-02,-5.63710e-03,-4.14279e-02,-1.93230e-02,1.78209e-13,1.10590e-11,3.09485e-02,2.22509e-02,4.29581e-02,-4.34734e-03,-8.06984e-38,9.97059e-02,-1.55311e-01,-1.21625e-01,8.76627e-02,1.85603e-01,3.61843e-02,3.41581e-02,2.21194e-02,-3.44651e-02,-1.01195e-01,1.46329e-02,4.64679e-02,
9.81155e-02,-7.40373e-02,2.81262e-01,-1.87034e-01,-4.04134e-03,4.50324e-02,-2.08827e-01,-3.48344e-02,3.15657e-02,-1.04333e-01,-1.46512e-02,1.64273e-01,-2.12408e-01,1.06546e-01,-1.88349e-01,5.66832e-02,2.30730e-01,-1.20181e-01,2.29840e-01,-4.14071e-03,3.08957e-01,-1.67156e-02,2.14313e-01,2.20768e-01,1.19573e-01,-1.13912e-01,-6.43972e-02,-1.72246e-02,-6.21316e-02,-1.75862e-01,-6.88334e-02,4.54568e-12,-5.73074e-02,6.61143e-02,3.51240e-01,-4.01652e-02,-1.27793e-01,-9.37727e-02,1.50963e-01,3.22946e-02,1.96676e-01,7.72606e-02,2.22163e-03,-5.68880e-02,-4.00224e-02,1.58022e-01,1.25934e-01,-9.94007e-02,1.70822e-01,1.08788e-01,
3.36491e-03,
5.93177e-03,
2.38470e-02,
1.09366e-02,
4.25678e-03,
-3.18660e-02,
8.71868e-03,
-1.41454e-02,
3.43137e-06,
1.86489e-02,
-3.72759e-02,
-1.50284e-02,
2.79698e-02,
-1.81750e-02,
3.97857e-03,
2.52971e-02,
1.38897e-02,
-1.53147e-02,
3.86257e-03,
1.28363e-04,
4.14880e-02,
-1.91478e-03,
2.34785e-04,
-1.54192e-02,
1.45408e-02,
4.94354e-03,
1.83068e-02,
-1.04402e-03,
1.61551e-02,
8.21364e-03,
1.38012e-02,
9.01004e-03,
1.77693e-02,
-3.19646e-03,
4.11619e-02,
1.38927e-02,
2.03944e-02,
-2.80041e-02,
8.28048e-03,
-6.00997e-03,
1.08597e-02,
-2.03624e-03,
2.93477e-02,
5.35019e-02,
3.82770e-02,
-8.96090e-03,
1.43464e-02,
1.49662e-02,
-2.54483e-02,
1.76117e-02,
-7.04993e-02,-1.93950e-01,2.33807e-01,3.68358e-02,-2.15674e-01,-2.84109e-03,-1.64044e-01,5.72035e-02,-7.53900e-02,-2.13847e-01,4.58615e-04,1.23363e-01,-4.18893e-03,-1.01420e-01,-1.80577e-02,1.32231e-02,1.03959e-01,-9.58365e-02,-2.87010e-01,7.75566e-02,-1.94233e-01,2.65138e-01,-6.03372e-02,-1.20644e-01,-8.03021e-02,6.34866e-02,8.07190e-02,2.77338e-01,9.12983e-02,1.18289e-02,-2.81649e-01,2.27897e-01,-1.51389e-01,2.29568e-01,-2.43433e-01,1.68939e-02,-8.27895e-02,-1.06399e-02,2.29304e-01,-2.91441e-02,-9.41387e-02,1.74994e-01,1.28109e-01,1.63512e-01,-2.10182e-01,1.93182e-02,8.51721e-02,-2.12142e-01,-2.50079e-03,2.15961e-01,
2.17231e-01,4.79647e-02,-3.46777e-02,-8.54787e-03,-2.76717e-01,8.16942e-02,1.25326e-02,1.43618e-36,-2.17866e-01,1.37399e-01,-1.05412e-02,1.52756e-01,2.55318e-02,4.35177e-02,3.27035e-02,-1.41171e-01,-2.27917e-02,-5.70974e-02,-2.44456e-01,3.51394e-02,8.31023e-02,-2.25203e-01,1.11279e-01,-7.54897e-03,-5.36807e-02,-5.94881e-02,1.13732e-02,-1.53370e-02,-9.75429e-02,1.49373e-01,1.19787e-01,1.67839e-02,-1.77229e-02,2.19522e-01,-1.15543e-01,7.74521e-02,-8.80062e-03,-2.69595e-01,-1.96340e-01,4.79057e-02,-4.59473e-02,-1.11939e-01,-3.59386e-02,6.49922e-02,3.44798e-12,1.13617e-07,1.94176e-01,-8.71483e-02,8.65351e-02,8.62675e-02,
-7.60149e-02,-1.85703e-01,1.33254e-01,-7.00594e-02,-6.57996e-02,1.43231e-03,-1.08392e-01,-6.86330e-02,1.33481e-01,1.73753e-01,-2.63097e-01,-2.89735e-01,-7.67221e-02,-9.84820e-02,1.57351e-01,1.28702e-01,-1.44211e-01,3.35802e-01,-7.24209e-02,3.29648e-01,3.36922e-02,-1.60802e-01,-2.54848e-02,1.47426e-01,9.08987e-02,1.96507e-01,-1.97373e-01,-1.58535e-01,4.00043e-02,2.08450e-01,-3.51084e-02,9.56379e-03,-1.62336e-01,6.80351e-02,-6.32527e-02,-5.05645e-02,-1.18915e-01,-5.06870e-02,7.39198e-02,7.65577e-02,-1.04766e-01,2.13454e-01,8.26163e-02,-5.58915e-02,-3.60617e-01,2.11210e-04,-8.95801e-03,-1.05946e-02,-1.00845e-02,-1.01622e-01,
-2.12016e-01,1.42613e-01,5.84021e-02,4.37842e-02,-2.23974e-01,-2.68349e-02,-2.68339e-01,-1.95704e-02,-8.49190e-02,-1.35878e-02,3.50712e-02,1.07449e-01,1.96850e-01,-8.06071e-02,5.47124e-02,2.02929e-01,-2.10923e-02,-2.77780e-01,9.52644e-02,1.21854e-01,-2.00442e-01,-1.35237e-01,1.57653e-02,8.84233e-02,4.50130e-02,-1.60805e-01,1.68113e-01,1.83935e-01,1.07825e-01,2.55257e-02,2.35185e-01,-1.81013e-01,1.77598e-01,2.00011e-01,-1.49635e-01,1.71276e-01,-5.81970e-02,1.89910e-01,5.65621e-02,-7.95916e-02,-2.40817e-01,-4.95161e-02,9.57790e-02,4.29160e-02,2.60899e-01,-1.37473e-02,2.42690e-01,-9.89560e-03,-3.89456e-02,-7.70509e-02,
1.15593e-01,1.30756e-01,2.27858e-01,-1.78696e-01,-2.02922e-01,-1.02058e-01,-1.07378e-01,3.51209e-27,-1.57662e-01,-5.96930e-02,4.33816e-02,3.83043e-02,-1.16511e-02,-1.68624e-01,-9.35904e-02,-2.81618e-01,1.65042e-01,6.23280e-02,2.25783e-01,-4.10902e-02,-1.23700e-01,-4.19648e-02,-7.72300e-02,1.17041e-01,7.47404e-02,5.73763e-02,1.02802e-01,-1.97247e-02,-5.23703e-02,-2.38027e-01,9.64082e-02,-2.25244e-01,2.86694e-02,-1.96745e-01,1.09347e-01,-1.47329e-01,1.31443e-01,-7.83328e-02,-6.63481e-02,2.33456e-01,1.02134e-01,-1.15159e-02,-3.09152e-01,-2.39268e-01,-1.53160e-01,3.37642e-02,-1.84277e-01,-1.18306e-01,-9.11372e-03,-5.50509e-02,
-1.01867e-01,2.49616e-03,-1.07958e-01,1.01196e-01,-8.84519e-02,4.69546e-02,2.19066e-02,-2.03662e-19,-3.97114e-03,7.02590e-02,1.19017e-01,1.46317e-01,-4.48401e-03,1.14605e-01,7.05720e-02,9.64474e-02,1.53655e-01,2.52605e-01,-1.73503e-01,-1.98059e-03,5.99292e-02,9.00978e-03,1.31547e-01,4.63546e-02,-2.98172e-02,9.24192e-02,-1.34077e-01,1.51873e-01,-7.21136e-02,2.08220e-02,6.64805e-02,1.13052e-01,4.25309e-02,1.58327e-01,-3.78565e-02,3.35232e-02,-6.58364e-02,-2.78254e-01,-2.20248e-01,-6.82139e-03,-1.03245e-01,-4.77156e-02,-9.34746e-02,3.20833e-02,6.44201e-02,1.17727e-02,1.73747e-02,-2.85990e-01,9.30641e-03,1.59261e-01,
1.12257e-01,-1.59486e-01,2.24607e-01,2.56217e-01,1.44334e-01,1.34139e-01,-4.87594e-02,6.13261e-02,-2.18020e-01,-1.26710e-01,2.64648e-01,-1.82247e-01,2.05575e-01,2.25958e-01,7.54542e-02,-2.23884e-02,1.52138e-01,2.62423e-01,-6.70374e-02,-1.23096e-01,-9.26834e-02,1.04289e-01,2.21568e-01,-1.94625e-01,-1.10828e-01,-1.36900e-01,2.42488e-01,-3.55824e-03,1.36667e-01,-8.15075e-02,1.81373e-01,-2.42392e-01,7.60563e-02,-1.40362e-01,2.16569e-01,1.20278e-01,-2.17193e-01,-8.25988e-02,2.77374e-02,1.32480e-01,2.00294e-01,1.91656e-01,1.06821e-01,2.20087e-01,1.47015e-01,2.20646e-02,2.86083e-01,-2.08724e-01,4.26248e-02,1.93994e-01,
-1.49682e-01,-4.78541e-02,-1.20144e-02,-8.47564e-02,-6.78284e-02,4.81624e-02,-2.02809e-01,-1.70094e-02,-1.58587e-01,1.00490e-01,1.76041e-01,-1.79893e-01,5.97812e-02,6.50890e-02,2.33869e-01,-8.19875e-02,1.28130e-01,-2.18810e-01,1.45847e-01,-1.02738e-01,-5.89176e-02,1.10901e-01,-2.09068e-01,-1.42548e-01,4.19293e-02,-1.33287e-02,1.00223e-01,-1.93321e-02,-1.99240e-01,2.17791e-01,-1.02159e-01,-1.54643e-01,9.04620e-02,-1.06913e-01,-1.98638e-02,1.54075e-01,-9.75405e-02,-1.12466e-01,3.81170e-02,-1.40528e-02,2.31872e-01,1.13092e-01,2.81798e-01,8.60726e-02,3.50320e-02,-1.43532e-02,2.29832e-01,7.18050e-02,8.29144e-02,-1.83883e-01,
7.44063e-02,-8.71269e-02,-3.74130e-02,-7.37704e-02,7.55446e-02,1.81811e-01,1.66500e-01,1.84123e-02,-2.24182e-01,2.15669e-01,-1.06468e-01,-3.86248e-02,2.07842e-01,5.81188e-02,-7.92562e-02,3.12739e-01,1.72361e-01,3.02657e-02,-1.08813e-01,3.19621e-02,7.70304e-02,-2.10191e-01,4.07438e-02,3.94802e-03,9.93084e-02,-2.08443e-01,-3.39662e-02,1.12552e-02,4.98364e-02,2.15821e-01,3.03928e-03,1.80532e-01,1.28775e-01,-3.00803e-01,-4.19315e-02,2.58318e-01,1.68998e-01,-1.92766e-01,4.61359e-02,-1.53104e-01,3.17881e-02,-1.61048e-01,1.07456e-01,1.29531e-01,-7.30016e-03,3.12118e-02,-5.45080e-02,-6.63560e-02,7.62257e-02,-1.09936e-01,
1.48996e-02,-2.29272e-01,5.10267e-02,-1.66271e-02,-6.23174e-02,-3.50992e-37,6.27316e-02,2.89747e-12,-1.13409e-01,8.14396e-02,1.57162e-01,-1.98378e-01,-1.29066e-01,1.36548e-01,-2.07397e-02,-2.32561e-01,-2.73526e-02,1.87392e-02,-1.32716e-01,-4.84192e-02,-8.17932e-02,1.24010e-01,6.38838e-02,-6.24859e-30,1.50675e-01,4.95387e-02,-1.00819e-01,-5.34080e-37,-3.49288e-02,-1.41760e-03,8.64174e-02,-7.92672e-02,-1.28982e-02,-2.34915e-01,-5.27555e-03,-2.86721e-02,-2.10704e-01,-1.72037e-01,-1.00722e-01,-2.33288e-01,1.06154e-01,-1.61259e-01,1.94916e-01,-5.57841e-03,-2.12651e-02,-2.26552e-06,1.69044e-01,-4.68725e-02,3.73761e-13,-1.90973e-01,
2.98844e-02,-3.88610e-02,-2.50954e-01,-1.92373e-01,2.50680e-01,5.53769e-02,-1.15935e-01,-2.20687e-02,-1.32679e-01,2.10491e-01,-1.89578e-01,-5.47291e-02,8.35628e-02,-1.58517e-02,-8.92150e-02,-4.05352e-02,-4.71720e-02,2.25093e-02,-1.32153e-01,-1.73013e-01,2.56210e-01,-7.83129e-02,-1.49254e-01,-8.18665e-02,4.83703e-02,-1.15217e-01,6.63535e-02,-4.26586e-02,-5.49085e-03,2.66699e-01,-2.36556e-01,1.06711e-01,-5.11339e-02,-9.36855e-02,9.26904e-02,-1.11435e-01,-7.56023e-03,-3.23361e-02,2.39514e-01,-1.09748e-01,1.03553e-01,-1.99505e-02,-1.02404e-01,2.71924e-03,2.81329e-01,-9.64908e-03,6.82440e-02,1.02374e-01,-5.67985e-03,-1.70235e-01,
1.72575e-01,-1.40319e-03,7.77784e-02,4.64128e-01,9.65192e-02,2.01490e-02,1.39794e-02,6.14867e-02,-2.34769e-02,-1.79498e-01,1.55575e-01,4.52086e-02,-1.43228e-01,1.36929e-01,1.32322e-01,1.30732e-01,-4.09248e-02,1.72870e-01,-5.09028e-02,2.46788e-01,-7.71524e-02,-9.90542e-03,1.00486e-02,2.25044e-01,-5.34352e-02,-1.21249e-01,9.19928e-02,-4.07159e-02,1.92314e-01,1.75800e-01,-1.29700e-01,8.75612e-02,2.29619e-02,8.94008e-02,-1.95060e-01,5.41832e-02,3.22139e-02,-2.53368e-01,-5.65758e-02,9.67778e-02,-5.34259e-02,1.99738e-01,-8.27516e-02,4.96358e-02,-7.51450e-02,5.26038e-02,-1.38307e-01,7.96909e-02,2.55072e-02,2.17130e-01,
-2.39195e-01,-2.35956e-01,-9.63656e-02,4.34256e-03,1.53457e-01,3.15197e-02,-2.01574e-01,-2.07044e-02,-1.03993e-01,6.81665e-02,2.48231e-02,8.55527e-02,1.30979e-01,4.91109e-03,-7.24195e-02,-8.15060e-02,1.81554e-01,1.75602e-01,8.75319e-02,-2.89792e-01,1.45120e-02,8.63783e-02,1.75331e-01,-1.46634e-01,9.19362e-02,1.24573e-01,-1.61205e-01,-4.44962e-02,-6.47271e-02,-4.23994e-02,-1.02343e-01,2.44279e-01,1.66523e-01,2.11153e-01,-1.20467e-01,5.80023e-02,2.04122e-01,2.10796e-01,7.01492e-02,-3.18032e-01,-9.22452e-02,-2.47392e-01,-6.40296e-02,2.70805e-01,-8.94499e-02,4.57014e-02,-1.70219e-01,2.22131e-01,-1.92466e-03,-9.52669e-02,
-2.18352e-02,1.76891e-01,-9.73578e-02,-2.49489e-02,1.26342e-01,8.45522e-03,1.73932e-01,-7.32460e-02,1.73798e-01,1.24950e-01,-3.56506e-02,-2.81053e-02,2.58338e-01,1.99296e-01,-1.59726e-01,6.87519e-02,1.29402e-01,-2.73870e-01,2.48326e-02,-2.43026e-01,9.66839e-02,-2.41404e-01,-3.90439e-02,1.00969e-01,1.72152e-01,-5.96262e-02,-7.18139e-02,1.56888e-01,7.48269e-02,3.67840e-02,-1.08536e-01,5.75103e-02,-4.79579e-02,-2.07383e-01,1.98208e-01,-1.39997e-01,6.09805e-02,1.67226e-01,-2.18887e-01,-3.61792e-02,-6.13126e-02,-1.98783e-01,2.80787e-02,1.43192e-01,3.95606e-01,-1.53081e-02,1.63068e-01,1.63830e-02,1.98628e-02,-3.23071e-02,
5.93471e-02,1.36366e-02,2.43185e-01,-1.14167e-01,-2.96062e-02,2.28586e-02,-1.25391e-01,2.62556e-02,2.10594e-01,-2.28291e-01,1.49080e-01,-3.88666e-02,-9.83859e-02,-9.50036e-02,-1.04526e-01,-1.07494e-01,-2.43649e-02,1.50797e-01,-3.59046e-02,7.53056e-02,2.02228e-02,1.14861e-01,-1.39901e-01,-1.02835e-01,-6.66827e-02,2.45501e-01,5.84798e-02,2.86799e-01,9.89054e-02,8.01751e-03,1.32821e-01,2.52087e-01,5.37376e-02,-1.56389e-01,-1.89203e-01,2.59057e-01,7.07954e-02,-1.28812e-01,1.98674e-01,2.60232e-01,-1.27585e-01,1.93033e-01,-4.54493e-02,-2.55454e-01,-1.83660e-01,2.09681e-02,-2.43944e-01,1.69572e-01,2.57923e-02,-1.39971e-01,
-2.05432e-02,1.51684e-01,-1.32690e-01,-1.46573e-08,1.19586e-01,-1.06873e-12,1.69185e-01,-2.11847e-09,-1.78554e-01,-4.51857e-02,7.55540e-02,1.09956e-02,-1.28407e-01,-3.59433e-02,1.13746e-01,2.06474e-01,2.08058e-01,1.85466e-02,-1.94796e-01,2.08677e-02,-1.55645e-01,6.58082e-02,7.84002e-02,4.28312e-03,-1.80187e-01,-2.22851e-01,3.22320e-03,2.99822e-04,-1.81534e-01,-6.77373e-02,-1.08312e-01,9.52887e-02,-1.15915e-07,-2.40981e-02,-1.06026e-01,-5.30971e-05,-1.47993e-03,-3.18801e-02,1.09004e-01,3.37619e-03,7.52378e-02,-8.26896e-02,8.88963e-02,-6.25645e-03,-2.19792e-02,-6.66301e-04,1.55040e-01,-1.12740e-01,-2.50952e-11,-9.75504e-03,
1.82615e-34,3.66836e-37,-5.41635e-27,-1.95650e-31,9.54123e-38,1.20846e-37,1.87259e-33,2.61565e-33,-2.78722e-36,-2.75836e-23,1.85566e-12,-6.80763e-14,3.94675e-37,-3.18376e-11,4.86481e-36,-1.47561e-13,7.27868e-27,-1.83495e-12,-2.20939e-37,-4.10944e-26,-2.62921e-33,1.74423e-37,6.76301e-37,3.15936e-37,4.02835e-30,-2.85465e-13,-1.67388e-13,5.07750e-29,2.87880e-31,-7.93487e-38,-8.89408e-28,6.87421e-37,3.88952e-38,-7.44057e-13,3.76450e-23,-3.03739e-34,-2.29879e-18,-9.64960e-33,-3.34876e-16,2.96041e-37,-1.40274e-13,2.27744e-36,-6.15798e-37,-4.26526e-34,-1.79732e-14,-2.93446e-37,-4.18798e-37,-2.64814e-37,-8.14478e-38,-3.88452e-37,
-8.89338e-02,-1.52783e-01,-2.21489e-01,2.55553e-01,9.55693e-02,7.77839e-02,3.12315e-03,-2.31508e-02,1.64761e-01,-1.06506e-01,1.42346e-01,1.99699e-01,-1.47206e-01,-7.51746e-02,-1.36142e-02,8.31635e-02,-2.70743e-01,-1.15181e-01,2.73465e-01,5.24497e-02,-1.05492e-01,3.49703e-02,-8.69240e-02,1.64397e-01,1.73574e-01,-2.11577e-02,-9.83041e-03,1.19141e-01,-2.90482e-01,-2.59471e-01,-2.78256e-02,2.74962e-02,-8.95651e-02,-1.85254e-01,-1.01607e-01,-2.42922e-02,1.30486e-01,2.20990e-01,7.61571e-02,-7.36487e-02,-2.49535e-01,-6.64171e-02,-2.98084e-01,1.64923e-01,1.46403e-01,2.07643e-04,-6.49031e-02,1.35858e-01,-1.79127e-02,1.70972e-01,
-1.22296e-02,2.39446e-01,1.47047e-01,-8.87093e-02,1.71137e-01,-4.40180e-03,2.03803e-02,4.95104e-02,-2.23939e-01,-2.24833e-01,1.64942e-02,7.17698e-02,2.15170e-01,-1.05346e-01,1.82854e-01,2.99130e-01,-1.28315e-01,8.00154e-02,2.43454e-01,-1.11221e-01,3.10408e-01,-1.85289e-01,1.14536e-01,-2.68988e-02,-2.03746e-01,-3.95574e-02,-4.59418e-02,-4.63676e-03,6.26754e-02,2.15746e-01,1.12110e-01,-1.99669e-01,2.32142e-01,-1.08007e-01,2.62627e-01,-2.94943e-02,-2.03848e-01,1.98289e-01,-1.13183e-01,-1.47159e-01,6.88405e-02,1.03057e-01,2.06502e-01,2.35516e-01,8.38109e-02,-1.80201e-02,-1.40297e-01,-1.63566e-01,2.00355e-02,-2.87922e-02,
-2.39296e-01,1.61793e-01,-6.82395e-02,-9.48857e-02,-6.70965e-02,-2.80220e-02,4.18295e-02,2.86756e-02,-3.52419e-02,1.00759e-01,-1.47738e-01,2.76353e-01,1.68670e-01,-2.60873e-02,1.79866e-01,-3.53340e-03,9.65491e-02,2.45205e-02,1.30295e-01,-1.35437e-02,3.26169e-01,-1.78978e-01,-9.30758e-02,-5.97958e-02,1.19908e-01,7.44738e-02,2.20867e-02,-5.54422e-02,1.57060e-01,3.86566e-02,4.91353e-02,-2.45972e-01,2.70323e-01,5.76136e-02,-1.78134e-01,1.17398e-01,-1.27675e-01,-5.41946e-02,2.25178e-01,-7.59219e-02,-1.76823e-01,-2.76199e-01,-1.41326e-01,2.11709e-01,3.02059e-01,-2.42994e-02,3.61363e-02,4.16193e-02,-4.76257e-02,5.63836e-02,
-1.45609e-01,2.08047e-01,-2.44881e-01,-2.50599e-01,2.67930e-01,-4.91544e-03,1.75649e-01,-2.29726e-02,-1.86875e-03,3.97389e-02,-1.21690e-01,-9.14599e-02,2.20362e-01,1.33968e-01,-1.02415e-01,-3.02599e-03,-1.27494e-01,-9.38213e-02,-2.83551e-03,-2.47947e-01,4.06897e-01,-2.49542e-01,1.56556e-02,-2.18346e-01,9.70605e-02,1.45357e-01,5.09223e-02,-3.87457e-02,-1.36443e-01,2.98849e-01,2.46892e-01,-1.78785e-01,2.13667e-01,-6.28945e-02,2.25286e-01,2.35576e-01,1.08329e-01,-8.80528e-02,9.71923e-02,-1.59028e-01,-4.17644e-02,-6.01774e-02,2.26062e-01,1.19750e-01,-3.87929e-02,1.82819e-03,2.22778e-01,1.36696e-02,1.16256e-02,1.88190e-01,
1.83994e-01,6.85146e-02,-1.11059e-01,-5.21223e-02,-1.72900e-01,5.53579e-02,2.71192e-01,-3.40124e-02,9.30085e-02,2.50759e-02,1.83819e-01,2.94695e-01,1.65312e-01,-1.83771e-01,-1.43075e-01,2.49651e-01,-5.83852e-02,-9.94566e-02,2.82583e-02,-1.89085e-01,4.58782e-01,1.27722e-01,-1.91387e-01,2.52463e-02,-2.40891e-01,-1.05582e-01,-1.47784e-01,6.15415e-02,1.08652e-01,1.69427e-01,-1.76320e-01,-2.86180e-02,3.95464e-02,-1.36179e-01,2.88564e-02,9.38970e-02,-1.27649e-01,-1.18400e-01,1.25666e-01,-1.89786e-01,-9.17580e-02,-2.10452e-01,1.71531e-01,1.48661e-02,7.77362e-02,1.63828e-02,6.98614e-02,3.19620e-02,6.12832e-02,2.86835e-01,
-5.32928e-18,-1.38084e-02,4.04857e-13,1.42434e-05,-3.56350e-02,7.68953e-05,8.54221e-06,-2.89171e-37,-1.98928e-02,5.54668e-02,1.93940e-37,7.76146e-03,4.77415e-02,-1.63907e-31,-5.05632e-07,-8.65334e-03,8.36976e-02,2.51133e-18,-9.92180e-03,2.15518e-24,-9.15394e-15,1.55313e-03,4.51608e-37,6.10614e-38,1.85832e-01,-1.03123e-01,1.89170e-06,-3.67790e-10,-9.87271e-02,-3.04562e-04,-1.43159e-01,-1.11887e-30,-1.65918e-15,-4.19845e-02,-1.19507e-01,1.11717e-04,-1.61577e-02,-2.77760e-02,-2.63499e-02,-9.67731e-03,-4.65596e-02,-1.15977e-02,-2.72016e-02,-2.96775e-03,-2.21292e-10,-3.57631e-34,7.19510e-02,-6.89003e-02,5.64769e-21,-1.24049e-02,
-4.67743e-03,-4.49831e-37,2.32404e-33,3.87231e-29,-5.04198e-17,5.81497e-29,3.30749e-32,-7.35402e-27,-9.06774e-03,3.48035e-38,-3.98937e-36,2.07925e-13,-1.87238e-22,1.99716e-34,-1.99061e-12,-1.36841e-03,-1.48052e-15,7.41655e-03,-8.27367e-03,-1.06382e-13,1.45499e-04,7.77216e-33,-8.28194e-03,3.04954e-13,4.17648e-03,-1.11454e-02,-5.90361e-03,-4.27491e-13,-1.71121e-02,-1.23930e-25,1.96803e-20,-1.78364e-02,-5.15071e-37,-9.63924e-03,-5.54010e-14,5.73346e-31,3.55463e-35,-6.25717e-03,-1.12858e-02,-6.25454e-34,-6.72510e-03,-2.44756e-03,-1.40378e-04,5.97752e-14,1.71947e-03,-3.10646e-15,1.36993e-35,-1.47125e-22,1.87510e-20,-1.94398e-03,
-3.21127e-02,1.98245e-01,8.22141e-02,-1.16499e-02,2.69381e-01,1.53795e-02,3.32372e-02,4.61089e-02,-1.64456e-01,-9.32265e-02,2.32087e-01,-1.14196e-01,8.90127e-02,-8.17696e-02,1.43693e-01,2.44055e-01,2.42501e-01,-2.46124e-01,-1.70155e-01,-2.22960e-01,3.41540e-01,-1.84638e-01,-1.84210e-01,-1.88313e-02,2.06908e-01,2.45597e-01,-1.53873e-01,2.74012e-02,2.15939e-01,1.39803e-01,2.50186e-01,-2.00902e-01,1.03916e-01,-1.18791e-01,2.71308e-01,-1.47332e-01,1.09736e-01,-1.32179e-01,-2.02144e-01,-1.13285e-01,7.07092e-02,-1.99314e-01,-1.18997e-01,7.46780e-03,1.71468e-01,-2.52597e-02,-1.34178e-02,-2.19445e-02,3.75641e-02,2.54223e-02,
2.93319e-02,-9.07418e-02,2.04626e-02,-1.21757e-01,2.87680e-01,6.60582e-03,1.46721e-01,2.73849e-02,-8.73066e-02,-1.77877e-01,-2.36820e-01,1.94872e-01,2.08347e-02,-7.88359e-02,6.24578e-03,8.44285e-02,1.07074e-01,1.62342e-01,5.72509e-02,-5.57975e-02,1.70970e-01,1.68620e-01,2.48267e-02,4.83140e-02,-2.26471e-01,-2.02572e-01,-2.72056e-01,-2.55091e-01,2.52014e-02,2.50711e-01,2.64490e-01,-8.28586e-02,6.53339e-02,-1.08864e-01,-1.01422e-01,1.12458e-01,2.15202e-01,1.83033e-01,-1.51434e-02,-3.02150e-01,1.62285e-01,1.12698e-01,2.13992e-01,-5.89108e-02,-2.25544e-02,-1.23572e-02,5.52919e-02,2.48283e-01,3.14459e-02,8.41940e-02,
1.07469e-01,-6.35897e-02,2.58296e-01,2.05353e-02,5.96202e-02,-4.44321e-03,-5.33287e-02,1.07111e-02,1.44038e-01,-2.46814e-01,1.56319e-01,-6.08548e-02,1.92743e-01,1.70060e-01,-1.58399e-01,-1.29238e-01,-2.07985e-01,1.48675e-01,-1.02937e-01,3.56396e-02,-3.67077e-01,1.22572e-01,1.97802e-01,1.62200e-01,9.41249e-03,1.44952e-01,2.06840e-01,1.55294e-01,-2.09788e-01,-2.67522e-01,1.50267e-01,1.66794e-01,8.88417e-02,1.38630e-01,-1.04400e-01,-1.47093e-01,1.90811e-01,-1.58025e-01,1.20008e-01,-1.95006e-01,-1.08023e-01,4.07640e-02,1.35198e-01,-6.36392e-02,-1.22093e-01,-6.94011e-03,-2.38823e-01,-5.75598e-02,4.67138e-03,4.20299e-02,
1.08151e-01,1.18351e-01,1.80430e-01,1.80792e-02,-6.22259e-02,4.78295e-02,-1.13571e-01,2.57639e-02,6.77033e-02,-1.93760e-01,-1.06687e-01,-1.64380e-01,5.69578e-03,-1.92450e-01,-4.94418e-03,-4.70486e-02,2.30915e-01,1.90020e-02,1.40404e-01,3.16989e-01,-8.94653e-02,-2.18563e-02,-1.56760e-02,1.41399e-01,1.67033e-01,3.25822e-02,2.23779e-01,-2.39510e-02,-1.84672e-01,-8.27104e-02,-1.54675e-02,2.46998e-01,-1.48645e-02,2.27314e-01,-7.55352e-02,-8.32839e-02,2.13952e-01,-4.71309e-02,-1.52811e-01,-2.02684e-01,1.55468e-01,1.29383e-01,-1.03255e-02,-2.58597e-02,-2.08920e-01,4.42314e-02,-5.22384e-02,-3.42951e-03,-6.89425e-02,-8.87229e-02,
-1.93760e-01,8.90290e-02,-2.96889e-01,1.01587e-01,1.04414e-01,9.72609e-02,-1.99183e-01,5.93420e-02,1.67398e-01,8.77038e-03,1.57391e-01,9.04092e-02,2.18666e-01,1.59013e-01,5.77789e-02,-2.05199e-01,2.25884e-01,-1.15350e-01,-6.98768e-02,1.43029e-01,6.04207e-03,3.28322e-02,-1.44213e-01,2.04333e-01,-2.94669e-01,1.00901e-01,-1.99703e-01,-1.72844e-01,-1.40428e-01,1.26400e-01,1.08263e-01,-1.32629e-01,1.54913e-01,-3.68051e-02,-9.63539e-02,-3.47257e-02,2.32594e-01,-6.72400e-02,8.23500e-02,-1.12152e-01,-9.06698e-02,2.16317e-01,1.38510e-01,1.91226e-02,2.52239e-02,-7.61024e-03,-5.99427e-02,2.46739e-01,3.86449e-03,2.34570e-01,
1.43905e-01,-2.64489e-01,1.57443e-01,8.84887e-02,-2.07549e-01,-9.28635e-03,3.99022e-03,-1.43078e-02,2.96978e-01,-1.92345e-01,-1.10974e-01,6.05469e-02,3.52239e-03,2.62753e-01,1.66822e-01,-3.94520e-02,-2.22413e-01,-7.77548e-02,4.20463e-02,3.00732e-01,-5.24999e-02,1.75573e-01,-5.55980e-02,-1.39101e-02,-1.07318e-01,6.28272e-02,-7.13708e-03,2.02836e-01,-3.63982e-02,5.92734e-02,-2.70550e-01,2.32343e-01,1.26299e-01,2.59944e-01,-2.12214e-01,3.89604e-02,-3.03842e-02,-8.97076e-02,-9.10421e-02,-1.87184e-01,-5.34163e-02,-1.54426e-01,-1.30358e-01,-3.89960e-02,6.38054e-02,6.50799e-03,-1.50552e-01,4.85301e-02,-5.46252e-02,1.06569e-01,
4.72267e-02,1.84374e-01,-1.35099e-01,-5.95185e-02,-7.59642e-02,1.75975e-02,1.23743e-01,4.24501e-02,-3.85797e-03,-2.02857e-01,2.73773e-01,-4.76994e-02,-2.15998e-01,-1.44601e-02,-2.93619e-02,-2.52335e-01,1.54931e-03,2.93889e-01,-7.35299e-02,1.20418e-01,-3.23084e-01,-1.20058e-01,2.43818e-01,1.86753e-01,-1.37878e-01,1.97296e-01,2.66794e-01,-6.59816e-02,1.85528e-01,-1.14497e-01,-2.44559e-01,-2.51127e-02,7.77689e-02,2.40503e-01,-1.97882e-02,-6.24647e-03,1.56006e-01,-3.01812e-02,2.15934e-01,1.88746e-02,2.15778e-01,-8.27963e-02,-4.50233e-03,-2.70424e-01,-1.07340e-01,-9.36494e-03,-1.85185e-01,1.73766e-01,-8.31478e-02,1.00461e-01,
2.59776e-01,-2.04151e-01,3.15601e-01,2.58762e-03,-5.18668e-02,2.11208e-02,-4.29671e-02,9.31531e-09,7.70600e-02,-1.14080e-01,-7.26498e-02,-2.14067e-01,7.64713e-02,-1.55035e-01,-1.86249e-01,4.16138e-02,5.59988e-02,2.51263e-01,-2.70237e-01,-6.65388e-03,-1.65566e-01,-1.32040e-01,-8.08322e-03,1.16051e-01,-6.16443e-02,-1.35011e-01,-3.78979e-03,-4.26610e-02,-1.72236e-01,-2.01510e-01,-7.42885e-02,8.77316e-02,-1.77101e-01,2.42619e-01,-1.64798e-01,9.28448e-03,1.99532e-01,1.53724e-01,-1.46654e-01,1.55080e-01,1.05206e-01,-1.27406e-01,1.69117e-01,1.00600e-01,1.21117e-01,-1.12286e-02,4.52887e-02,-1.69921e-01,1.96045e-02,1.07978e-01,
-2.60134e-02,8.81588e-02,-4.01417e-02,4.21069e-02,1.19227e-01,1.29324e-01,-3.81920e-03,1.91164e-06,5.36459e-03,-1.26993e-02,9.24826e-03,-2.69750e-02,2.64572e-02,1.14515e-01,1.56969e-01,-1.21252e-02,7.73227e-03,-1.95806e-02,-2.54701e-02,1.06116e-03,2.71250e-01,-8.10913e-02,-4.65990e-02,-1.46721e-02,-1.58584e-02,-3.11611e-02,4.53557e-02,-1.49730e-02,-7.01218e-03,2.24208e-01,1.53036e-02,-3.67942e-02,-1.11368e-02,-3.69564e-03,5.75739e-02,1.09147e-01,3.73138e-03,-6.33696e-02,-4.39645e-02,-9.37821e-02,-9.74280e-03,7.64556e-02,5.67419e-02,6.31920e-02,-4.79395e-02,1.81495e-02,6.17973e-02,5.50438e-03,4.44427e-02,-6.58307e-03,
9.71204e-02,-2.25169e-01,6.80687e-02,9.92652e-02,1.39539e-01,3.27670e-02,-8.65485e-02,-6.17668e-03,1.99175e-01,-2.71223e-01,-4.68011e-02,-4.07561e-02,-1.83310e-01,1.35691e-01,6.33161e-02,-1.78827e-02,-1.72517e-01,1.88268e-01,1.70954e-01,7.62842e-02,-9.71793e-02,-1.32539e-01,1.49490e-01,1.73359e-01,-2.90310e-03,-9.00501e-02,-1.29279e-01,1.84450e-01,-5.10751e-02,-6.17678e-02,-2.15398e-01,2.48205e-01,2.44843e-01,1.16068e-01,2.26678e-02,4.87028e-02,2.95803e-01,1.96271e-01,-3.88135e-02,-1.09062e-01,-1.53326e-01,5.34911e-02,-4.22069e-02,2.66365e-02,2.64909e-02,1.62330e-02,1.99818e-01,2.66765e-01,-1.24496e-03,3.03942e-02,
1.34592e-01,2.18822e-01,3.80861e-02,-6.18335e-02,2.66652e-01,7.29288e-02,2.09633e-01,3.12569e-02,-1.82215e-01,6.91306e-02,2.24572e-02,-2.61133e-01,3.29293e-01,5.94895e-03,2.25063e-01,-7.28204e-02,8.39709e-02,2.06503e-01,-9.26709e-03,-1.29572e-02,2.62253e-01,-2.48061e-01,1.76633e-01,1.33972e-01,-1.39024e-01,-2.46700e-02,-9.12531e-02,-1.79319e-01,8.83572e-02,8.79136e-02,7.76560e-02,2.12068e-01,-2.02892e-02,-8.85108e-02,2.01348e-01,2.63810e-02,-2.09813e-01,-9.96503e-02,-2.13856e-01,4.11363e-02,-2.78442e-02,-1.95425e-01,1.33886e-01,4.87652e-02,1.85204e-01,9.91611e-03,3.27966e-01,-4.40131e-02,3.36941e-02,1.95711e-01,
1.46832e-02,3.77913e-02,-1.85636e-01,-1.04135e-01,-2.74219e-02,6.54343e-02,-6.49358e-02,2.15997e-02,1.26139e-01,3.86199e-02,1.62328e-01,-1.18775e-01,-2.83858e-02,-1.69770e-01,1.41964e-01,-1.67414e-01,-1.40264e-01,1.02459e-01,1.15594e-01,-3.01031e-03,-1.05007e-01,-1.78343e-01,-4.94497e-02,-1.62462e-01,5.99266e-02,-1.24274e-01,2.13313e-01,2.12212e-01,2.31590e-01,-1.35147e-01,-2.02697e-01,1.32915e-01,1.34887e-01,-1.04977e-01,-1.75281e-01,1.52259e-01,2.52546e-01,1.93662e-01,-4.12983e-03,1.20218e-01,-2.38216e-01,-7.11937e-02,1.26319e-01,-6.14347e-02,-1.60282e-02,5.26565e-03,-1.35225e-01,5.68455e-03,3.36576e-02,1.00807e-01,
1.28083e-01,2.03016e-01,1.71066e-01,7.88183e-02,-1.21754e-01,1.54538e-01,1.50390e-02,1.18355e-02,-5.96469e-02,1.02361e-01,2.42071e-01,-1.29494e-01,-1.17697e-01,6.63652e-02,1.95401e-01,-1.66187e-01,7.25803e-02,1.56333e-01,1.02985e-01,2.77798e-01,-1.29867e-01,1.41527e-01,-2.54809e-01,2.39781e-01,-1.56130e-01,1.18801e-01,1.37989e-01,1.36941e-01,1.11573e-01,-1.01000e-01,5.70768e-02,4.89967e-02,-1.02542e-01,5.71554e-02,3.67106e-02,1.54954e-01,6.71101e-02,-2.43541e-01,-1.88056e-01,-1.29613e-01,7.33893e-02,1.83609e-01,-4.55706e-03,7.49218e-02,-1.21344e-01,1.60859e-02,-1.32843e-01,1.91754e-01,-2.14706e-02,-1.54578e-01,
2.01893e-01,2.98712e-01,7.62386e-03,-7.55772e-02,4.67556e-02,-5.74003e-03,-1.81899e-01,1.92145e-02,-6.96030e-02,6.50581e-02,-1.26169e-02,1.16928e-03,2.14840e-01,-1.11021e-01,-1.78800e-02,1.95372e-01,3.76503e-02,-3.10594e-02,7.90846e-02,-1.98093e-01,1.71730e-01,-1.44390e-01,-1.77553e-01,-1.83489e-01,-1.29166e-01,1.01553e-01,-1.42485e-01,-2.19746e-01,2.44037e-02,-1.16789e-01,2.38514e-01,-1.09186e-01,2.34665e-01,-2.62086e-01,2.73818e-01,2.23325e-01,1.01969e-01,-1.33095e-01,1.59492e-01,-4.61506e-02,2.33938e-01,1.68122e-04,-1.78655e-01,7.74736e-02,-9.14536e-04,-1.96758e-02,1.66235e-01,-2.03897e-01,1.24483e-02,-1.02122e-02,
-1.04107e-01,-8.70606e-02,1.26663e-01,-6.92990e-02,-1.11814e-01,-1.34333e-03,2.21139e-01,-4.54964e-03,-1.38390e-01,-5.27114e-02,-1.17387e-01,-1.24323e-01,1.63309e-01,-3.03565e-04,1.36568e-01,1.09131e-01,-2.20391e-01,2.02240e-01,1.68918e-01,3.32618e-02,-2.28726e-02,-2.68179e-01,1.38069e-02,-4.43574e-02,-1.23905e-02,3.37452e-02,1.18723e-01,-5.65066e-02,1.35622e-01,1.14741e-01,-1.91742e-02,2.97340e-02,1.39483e-01,-1.02620e-01,-5.92551e-02,1.99463e-02,-1.48930e-01,6.57644e-02,-1.72802e-01,7.47773e-02,5.21767e-02,-4.66206e-02,2.22889e-01,1.38765e-01,3.55833e-01,-1.08355e-02,4.29414e-02,-1.94558e-01,4.97250e-02,5.97964e-02,
-2.35918e-01,1.92612e-01,-2.40961e-01,-1.02587e-01,-2.92517e-01,3.79207e-02,2.64575e-01,-5.07518e-02,5.42610e-02,1.24380e-02,2.07959e-01,8.63854e-02,1.59278e-01,-3.14935e-02,1.12275e-01,-2.36520e-01,-2.22044e-01,-3.11238e-02,5.14191e-02,1.38101e-01,2.50861e-01,9.79075e-03,1.49283e-01,-2.42486e-01,-2.45884e-01,-2.05603e-01,-1.36312e-01,1.01969e-01,1.56633e-01,-4.82362e-03,-5.05279e-02,-1.98642e-01,-1.74539e-01,-1.04557e-01,-1.74720e-02,-1.87976e-01,-1.19960e-01,1.98259e-01,2.09071e-01,5.02383e-02,1.41064e-01,1.22357e-01,-1.57055e-02,-6.14069e-02,1.15153e-01,-9.77947e-03,-3.03259e-01,-2.09541e-01,5.48478e-04,-2.68935e-01,
1.05211e-01,-2.47034e-01,-1.93297e-01,-1.00598e-01,-2.13988e-01,-1.21834e-03,6.15805e-02,5.45448e-02,1.39915e-01,7.58881e-03,-1.71941e-01,-6.20838e-02,-2.68790e-01,-5.74535e-02,-4.82413e-02,-1.29515e-01,-1.55248e-01,9.23404e-02,1.32166e-01,3.17777e-01,-2.16690e-01,-1.06787e-01,2.43743e-01,1.48649e-01,5.49535e-02,1.27557e-01,-1.12100e-01,5.52453e-02,-1.79762e-01,-2.26663e-01,2.01592e-01,1.48162e-01,-2.17167e-01,1.16680e-01,1.58555e-01,2.61500e-02,1.89369e-01,1.50314e-01,1.80690e-01,1.04227e-01,-9.73663e-02,1.03936e-01,7.19520e-02,-1.41681e-01,4.64411e-02,1.63919e-02,-4.24977e-02,4.69644e-02,-2.06437e-02,1.60602e-01,
-2.11835e-01,6.56370e-02,-6.63001e-02,-4.70934e-02,2.02074e-01,3.80893e-02,2.14174e-01,1.42913e-04,2.20360e-01,1.67852e-01,-2.88002e-01,2.71311e-01,9.01496e-02,-5.81033e-02,7.88489e-02,-2.48686e-01,-1.34134e-01,-1.77106e-01,-1.43778e-01,-1.32571e-01,6.04376e-02,2.14731e-01,-1.71613e-01,-2.51113e-01,-2.09911e-01,-2.26862e-01,6.97690e-02,-4.66891e-04,-1.25869e-02,2.86457e-01,1.04550e-01,-1.37220e-01,1.45627e-01,1.44140e-01,-1.42916e-01,1.25150e-02,1.28941e-01,7.91049e-02,-1.67546e-01,1.08810e-01,-9.40660e-02,-1.83709e-01,-2.71105e-01,-1.37273e-02,-2.87146e-01,1.14718e-02,1.53816e-01,2.35222e-01,3.31051e-02,1.93061e-01,
-1.17974e-01,1.62096e-01,5.98640e-02,-2.16997e-01,2.81144e-01,2.34249e-02,1.35500e-01,-7.52948e-02,5.12071e-02,-1.14128e-01,-9.10904e-02,1.44951e-01,3.40369e-02,2.29932e-01,-7.49984e-03,2.94484e-01,-1.44214e-01,-1.87592e-01,1.99551e-01,-2.77724e-01,2.69535e-01,9.53790e-02,-5.95614e-02,-1.69382e-02,-9.71693e-03,1.97390e-01,2.10511e-02,-6.07064e-02,6.51957e-02,1.10848e-01,1.32032e-01,-1.46048e-02,1.46602e-01,-2.09699e-01,2.52752e-01,-5.65513e-02,1.84450e-01,-7.71599e-02,-9.02723e-02,2.98217e-02,2.88939e-02,-2.22958e-01,-4.04987e-03,3.17096e-01,-5.97251e-02,2.51860e-02,2.40263e-01,1.37276e-01,2.24146e-02,1.03235e-01,
