// Neural Network File Format by Kyle Julian, Stanford 2016
11,13,2,50,
13,50,50,50,50,50,50,50,50,50,50,2,
0,
29,0,0,94,126,0,0,71,0,0,0,0,0,
77,1,3,200,594,1,2,202,1,6.2,2,4,3,
0,0,0,0,0,0,0,0,0,0,0,0,0,0,
1,1,1,1,1,1,1,1,1,1,1,1,1,1,
-1.27273e-01,5.52899e-01,-6.34368e-01,1.29924e-01,4.94940e-02,-1.67255e-01,-2.01507e-01,-1.37817e-01,9.54175e-01,6.20806e-01,-4.70007e-02,4.23269e-01,6.90033e-02,
2.54394e-15,1.45794e-15,8.65105e-15,2.84762e-16,-3.60689e-13,1.36071e-19,-1.59847e-15,-2.32423e-13,2.71450e-17,-1.40736e-14,2.18584e-15,-1.61322e-16,-3.20865e-15,
1.64061e-01,7.15520e-01,-7.47157e-01,-1.44910e-01,1.69632e-01,1.45442e-02,-2.42584e-01,-1.49994e-01,6.92452e-01,6.82555e-01,-3.81706e-01,6.19844e-01,9.61354e-02,
-2.83823e-01,-6.37100e-01,4.21595e-01,-1.35211e-01,6.99260e-02,5.03469e-02,-9.59463e-02,1.88218e-01,-7.47311e-01,-3.95978e-01,9.14454e-02,-5.49243e-01,-1.76620e-01,
1.65050e-02,-6.22095e-01,7.39601e-01,-9.40790e-02,2.30672e-01,1.37770e-01,9.37048e-02,-5.10482e-02,-6.54390e-01,-7.93915e-01,1.81275e-01,-7.12786e-01,-4.17418e-01,
-9.34143e-04,-8.00738e-06,-1.15654e-05,-3.38023e-03,-1.02080e-02,-9.58854e-07,8.08069e-06,-6.22702e-03,3.82333e-06,-1.39143e-05,5.39810e-06,-3.66270e-06,-8.06058e-05,
1.11287e-01,8.26397e-01,-6.77161e-01,-8.55564e-02,2.59144e-01,-1.08315e-01,-3.23702e-01,-7.18279e-02,6.39493e-01,6.26441e-01,-1.34852e-01,3.51752e-01,3.56435e-01,
-2.51495e-01,-3.73824e-01,6.21010e-01,2.60675e-01,-8.73248e-02,1.67240e-01,5.73377e-02,4.06370e-02,-7.14584e-01,-5.30617e-01,5.33221e-02,-3.57135e-01,-4.01826e-01,
2.35949e-01,-6.71310e-01,7.51424e-01,-2.07954e-01,2.92417e-02,-9.45583e-02,1.94326e-01,1.67911e-01,-8.79569e-01,-2.77404e-01,1.66757e-02,-6.91193e-01,-2.73287e-01,
1.77296e-01,6.12778e-01,-5.66176e-01,2.00405e-01,2.36370e-01,5.86698e-02,-2.75667e-01,-9.10991e-02,8.13475e-01,5.77717e-01,-6.21469e-02,4.00787e-01,4.18731e-01,
-1.70374e-01,7.44538e-01,-7.16838e-01,1.63493e-01,4.20910e-02,-1.41795e-01,-2.08383e-01,-3.26319e-02,7.29774e-01,6.11595e-01,-3.04574e-01,7.54427e-01,1.35267e-01,
8.88958e-02,5.12264e-01,-7.77465e-01,-1.28768e-02,-9.78695e-02,-1.28102e-01,-8.29013e-02,1.57820e-01,8.33048e-01,5.38051e-01,-3.39323e-01,8.58918e-01,1.45589e-01,
1.73650e-02,-8.33864e-01,8.35678e-01,2.75991e-03,4.07665e-04,-1.04964e-01,1.43077e-01,4.89790e-02,-7.41925e-01,-4.96475e-01,1.89653e-01,-6.70645e-01,-3.87736e-01,
-1.19442e-02,-5.04215e-01,3.86151e-01,-1.38691e-01,2.45028e-02,1.59901e-01,1.27427e-01,2.10732e-01,-8.37897e-01,-5.11388e-01,1.73315e-01,-5.75448e-01,-3.28551e-01,
1.50209e-01,-4.89332e-01,5.01871e-01,-1.00225e-01,-2.56998e-02,-5.69538e-02,1.27980e-01,1.44717e-01,-7.34311e-01,-5.89266e-01,1.02275e-01,-5.98892e-01,-4.81036e-01,
1.27519e-01,-8.36492e-01,6.86432e-01,1.15204e-01,1.65992e-02,6.77241e-04,2.14100e-01,1.27842e-02,-7.32125e-01,-6.33354e-01,4.52559e-01,-7.03432e-01,-6.25496e-01,
1.95767e-01,-8.32025e-01,8.65018e-01,-8.17515e-02,8.94855e-02,5.42645e-03,3.19282e-01,5.46572e-02,-7.95566e-01,-7.92216e-01,9.06944e-02,-9.39238e-01,-4.11248e-01,
-1.67906e-11,5.88384e-34,-5.88526e-32,5.80834e-39,-2.05580e-30,-5.65683e-32,2.07809e-22,5.08620e-32,5.19459e-37,4.48621e-32,-7.79975e-27,1.18318e-36,-6.17772e-37,
1.17031e-01,-5.13766e-02,1.59859e-01,-6.74035e-02,-1.71479e-01,5.99867e-04,-1.50699e-02,1.45364e-01,-8.53366e-02,3.41692e-02,-2.88724e-02,2.63955e-02,7.75784e-02,
-7.72423e-02,-2.76305e-01,5.05047e-01,-5.15849e-02,2.10312e-01,-1.74787e-02,1.25564e-01,5.88025e-02,-5.49454e-01,-3.71442e-01,7.16469e-02,-5.40333e-01,-4.04893e-01,
-1.74451e-02,-2.36123e-12,-1.10689e-07,-1.83286e-02,-1.33176e-02,-1.60040e-14,-4.47429e-06,-1.61239e-02,3.88517e-08,-1.84788e-09,-1.82454e-05,-5.90208e-13,-1.14743e-04,
-6.06900e-02,-5.40289e-01,8.01086e-01,1.50206e-01,1.61396e-01,-1.71689e-02,2.21109e-01,-1.52793e-01,-1.01350e+00,-6.88983e-01,3.42389e-01,-7.61935e-01,-5.74715e-01,
1.83857e-01,-7.83534e-01,7.63693e-01,-1.51872e-01,9.73168e-02,-1.40591e-01,-4.57048e-02,1.69085e-02,-9.10083e-01,-7.11903e-01,1.97015e-01,-6.56328e-01,-2.78066e-01,
1.71491e-01,3.81618e-01,-2.72128e-01,5.65540e-02,1.38823e-01,-1.28759e-01,-2.49220e-02,1.39374e-02,4.53237e-01,1.86047e-01,-2.51400e-01,1.82326e-01,1.79927e-01,
-2.32673e-01,-1.94832e-01,7.75113e-01,2.67490e-01,-2.43241e-01,1.98652e-01,1.32396e-01,1.27216e-01,-3.76337e-01,-5.11842e-02,-4.88256e-02,1.88158e-01,-4.71669e-02,
-8.02260e-03,1.01843e-01,-2.31791e-01,-1.40174e-02,-1.24199e-02,-1.19641e-02,-6.62925e-03,5.20086e-03,1.46372e-01,1.98906e-01,-7.91319e-02,2.16559e-01,5.94317e-02,
-1.66618e-02,-1.35499e-01,2.61383e-01,-4.72722e-02,-1.32933e-01,6.35503e-02,1.22953e-02,1.83158e-01,-1.86865e-01,-1.80513e-01,-8.35918e-02,-8.16645e-02,-7.46441e-02,
7.56875e-02,7.56268e-01,-8.97191e-01,1.87212e-01,-6.95681e-02,-5.01693e-02,-1.60891e-01,1.58277e-02,1.02683e+00,5.66832e-01,-3.81864e-01,6.20719e-01,5.04089e-01,
1.24554e-01,4.44985e-01,-7.82071e-01,4.94368e-02,5.24467e-02,2.81221e-02,-3.29132e-03,-1.26229e-01,5.87961e-01,7.26001e-01,-3.27443e-01,6.40942e-01,5.01603e-01,
-1.21330e-01,-3.77914e-01,6.26685e-01,6.05379e-02,1.44844e-01,-4.65347e-02,5.31583e-02,2.41028e-01,-7.24738e-01,-6.75459e-01,3.08518e-01,-6.31644e-01,-3.26381e-01,
1.16107e-01,4.86758e-01,-4.83941e-01,2.94408e-02,-7.84000e-02,-5.05980e-02,3.29855e-02,1.74714e-01,5.54025e-01,3.66161e-01,-2.60517e-01,7.30679e-01,3.30536e-01,
-7.97819e-02,-6.17681e-01,7.03967e-01,-8.45230e-02,8.77217e-02,1.45650e-01,2.15314e-02,1.18246e-01,-8.41100e-01,-7.47444e-01,2.38376e-01,-4.44101e-01,-1.16269e-01,
-7.87491e-03,-1.77740e-02,-6.14535e-03,-1.15171e-02,-1.09901e-02,-3.47440e-06,-7.14536e-03,-1.72021e-02,-5.07566e-03,-1.43705e-02,-6.40482e-03,1.93919e-03,-1.67723e-02,
1.72490e-01,7.09664e-01,-6.96619e-01,-1.92693e-01,2.49689e-01,4.08181e-02,-1.86351e-01,-1.26988e-01,7.85520e-01,7.02768e-01,-1.60713e-01,6.99509e-01,1.64589e-01,
1.85229e-02,3.89400e-01,-4.69760e-01,9.68683e-02,2.32391e-01,2.88380e-02,-1.66164e-01,-1.94581e-01,7.44064e-01,6.56377e-01,-2.08135e-01,5.24616e-01,2.04633e-01,
1.53684e-01,-5.41957e-01,8.77579e-01,-2.75809e-01,1.83326e-01,1.87066e-03,9.88839e-03,7.00609e-02,-7.65356e-01,-4.27556e-01,3.03993e-01,-5.55871e-01,-5.46283e-01,
-9.13991e-02,5.68977e-01,-7.43840e-01,-1.60641e-01,2.02815e-01,2.43863e-02,-1.08174e-01,1.21314e-01,5.94591e-01,3.17338e-01,-1.08510e-01,5.21848e-01,3.69831e-01,
-5.44021e-02,-4.78941e-01,6.48925e-01,-1.48093e-01,2.22168e-01,6.57605e-02,-8.48559e-02,-3.07918e-02,-1.02667e+00,-7.51071e-01,1.34288e-01,-6.44536e-01,-2.30195e-01,
-4.41499e-03,-7.30160e-33,3.21000e-32,-7.70947e-03,-1.01643e-02,-7.13839e-31,-7.64686e-32,-8.02151e-03,-2.01297e-23,-1.23529e-23,-3.58016e-19,9.99627e-28,4.28965e-19,
1.87713e-01,-2.91938e-01,2.23313e-01,-1.60916e-01,-1.39717e-01,9.96268e-02,1.48990e-01,2.26611e-01,-1.97332e-01,-1.66280e-01,1.72784e-01,-2.11684e-01,-2.03764e-01,
-2.65176e-01,-3.11211e-01,1.08559e-01,-2.63035e-01,2.18819e-01,-2.03393e-02,-1.45403e-01,-1.18573e-01,-1.88998e-01,-1.02534e-01,4.04194e-02,5.96650e-03,-2.20582e-01,
-5.80510e-02,-9.34310e-06,-1.58770e-05,-6.82916e-02,-9.19795e-02,9.72064e-26,-4.65072e-06,1.22481e-01,-8.91311e-09,-2.37976e-03,-4.85649e-05,-1.95347e-07,-1.93762e-03,
-4.41517e-03,-2.76695e-01,4.27989e-01,1.61890e-02,-9.06191e-02,4.99664e-02,2.00692e-01,1.44501e-01,-6.58051e-01,-3.29957e-01,4.60398e-02,-3.65420e-01,-1.69825e-01,
-4.42726e-03,-5.89787e-15,2.93700e-18,-5.15071e-03,-9.52187e-03,2.08057e-21,5.57759e-29,-6.38185e-03,-2.42451e-12,-1.31168e-11,3.81371e-22,-6.44168e-13,-6.77075e-21,
3.39088e-02,-7.66065e-01,3.66234e-01,-2.42611e-01,1.10854e-01,3.27264e-02,-1.54923e-01,-4.38056e-02,-4.86628e-01,-4.63409e-01,1.43020e-01,-4.18910e-01,-5.31001e-02,
6.90209e-02,6.04264e-01,-7.84719e-01,-7.71155e-02,1.60606e-01,1.01934e-01,-3.05059e-01,-1.71349e-01,8.04305e-01,3.54929e-01,-1.53566e-01,5.40243e-01,3.80988e-01,
4.74054e-39,-5.60596e-39,1.13568e-20,-4.71618e-35,5.64627e-23,-1.71763e-18,1.79102e-23,-2.55118e-16,-1.28147e-36,4.54229e-26,1.07438e-38,-2.00805e-18,2.12394e-37,
-4.19653e-03,-1.81085e-03,1.09401e-02,-5.97328e-03,-6.75633e-03,4.50957e-05,-1.07817e-04,-6.17060e-03,-8.95723e-05,-7.48251e-03,2.17537e-03,-1.40853e-03,-7.85056e-03,
-3.51324e-12,5.86130e-17,-1.19729e-27,1.82576e-23,-6.49580e-21,-8.36581e-14,6.49559e-17,2.49423e-28,9.39422e-40,3.55505e-29,2.11223e-30,2.81728e-38,-9.71045e-20,
-6.55664e-03,1.91224e-04,-5.79430e-03,-9.16761e-03,-1.09578e-02,-5.71383e-13,2.41176e-04,-7.75981e-03,9.54680e-06,4.11376e-03,-6.98261e-04,6.63780e-04,3.54466e-04,
1.53768e-01,
-1.59531e-15,
-1.56769e-01,
1.05231e-01,
-8.67381e-02,
-3.11759e-05,
1.00176e-01,
-1.34013e-01,
6.38331e-02,
6.72460e-03,
-2.16461e-01,
8.73396e-02,
9.04549e-02,
-1.24996e-01,
1.49774e-01,
2.48060e-03,
1.06918e-01,
2.19026e-36,
-6.00757e-02,
-6.49773e-02,
-6.81276e-10,
1.31293e-01,
-8.55591e-02,
-1.97719e-01,
-1.15160e-01,
-4.45073e-03,
-1.08943e-01,
-1.48697e-01,
3.71459e-02,
5.15621e-02,
-5.76131e-02,
-1.94357e-01,
-5.98762e-03,
-2.48708e-02,
-3.57202e-02,
-2.59932e-03,
-3.44500e-02,
-1.55925e-03,
6.40791e-12,
9.65252e-02,
-1.88426e-02,
-2.88980e-06,
-1.45810e-03,
1.67989e-21,
-5.43623e-03,
7.18821e-02,
1.33683e-18,
-8.57072e-04,
3.73748e-13,
-1.08079e-04,
-1.93308e-04,-2.70010e-37,-3.05830e-03,-5.63877e-03,-8.61393e-03,-1.54696e-38,-7.23323e-03,-1.60908e-32,-3.41570e-03,-8.27906e-03,-3.80419e-03,9.61986e-28,-4.04221e-21,-1.05370e-03,-2.97410e-04,-4.45987e-03,-3.30224e-03,-4.27333e-36,-2.92278e-37,-7.90481e-03,4.36675e-38,-6.66835e-03,-1.49170e-03,-8.67020e-03,1.18475e-35,-3.81838e-39,2.92301e-30,-3.78999e-04,-1.34143e-03,-8.48922e-03,-6.06639e-03,-4.89976e-03,-2.07536e-38,-5.26821e-03,-7.08163e-03,-7.39614e-03,-7.66428e-03,-5.53272e-03,3.60327e-39,-1.81524e-25,-8.32234e-05,-7.31893e-39,-4.31840e-06,-4.94291e-32,-1.09213e-04,-2.54895e-03,3.67041e-34,-8.07598e-39,-4.77413e-32,-2.45498e-39,
2.05226e-03,1.19590e-35,5.79883e-02,1.31753e-01,3.69253e-02,-3.24917e-34,-1.10202e-01,5.36105e-03,2.92371e-03,-1.30921e-01,8.84037e-02,1.06654e-01,6.35548e-02,-2.98023e-02,-4.29410e-02,-1.42267e-01,-4.68744e-02,-3.28794e-37,-3.63732e-04,-6.19595e-02,-4.47879e-38,5.10731e-02,-9.32065e-02,6.70950e-02,2.05537e-02,7.68737e-33,5.11443e-02,-3.46821e-02,9.93813e-03,-8.57179e-02,1.27059e-02,7.06495e-02,-2.72293e-39,-2.63235e-02,1.24800e-02,5.43226e-02,5.34934e-02,1.02143e-01,5.28269e-39,1.17223e-01,-6.56371e-02,6.17453e-30,5.23621e-02,-4.03274e-34,3.80969e-02,-8.43889e-02,3.89200e-31,-1.23258e-38,2.78262e-38,-3.48831e-36,
4.65747e-03,1.15168e-37,3.82048e-04,-2.29683e-02,-1.21074e-02,-1.32237e-32,-6.68201e-03,-5.96524e-03,-2.01988e-02,-5.34236e-03,-2.73777e-03,2.74386e-03,-5.22926e-02,-2.61869e-02,-2.52488e-02,-9.68358e-03,-1.39085e-02,9.28992e-39,-7.36179e-08,-1.14449e-02,2.81980e-38,-1.02173e-02,-1.68232e-02,-6.85420e-03,3.67256e-02,7.44839e-03,-1.44064e-02,2.38408e-03,4.65873e-03,-1.19604e-02,-5.93354e-03,-1.79804e-02,-7.98954e-39,-4.56198e-03,-5.22317e-03,-1.52139e-02,-9.73350e-03,-1.53967e-02,-2.84310e-33,9.11560e-03,-1.13071e-03,-1.31361e-35,-2.16218e-02,-9.29478e-39,-1.71647e-02,3.61089e-03,-6.74365e-39,-1.56291e-37,-3.10038e-34,-4.15130e-34,
-9.37506e-13,-3.30340e-39,-2.26702e-05,-1.22260e-05,-5.84283e-04,3.98341e-38,-2.34763e-04,-4.16336e-38,-1.33775e-08,-1.19626e-03,-8.46488e-07,1.18302e-38,-2.50336e-37,-2.28268e-15,-2.54350e-34,-2.09937e-05,-1.52833e-05,-4.36305e-32,7.50502e-39,-7.73545e-04,-3.08743e-39,-2.73305e-04,-8.35197e-08,-1.10682e-03,-1.85763e-38,4.65802e-37,6.84569e-34,8.61621e-36,-2.09167e-10,-6.42595e-04,-1.43552e-06,-1.42067e-05,-7.40176e-35,-2.10552e-04,-6.26996e-04,-1.76193e-04,-5.93581e-04,-1.99249e-04,-7.58638e-35,2.47444e-38,-1.67790e-05,2.69093e-33,-7.31887e-38,1.71816e-31,-2.16181e-07,-9.50722e-06,1.95172e-31,6.31117e-31,-1.57506e-38,2.22608e-39,
2.13101e-35,-8.01141e-39,-8.89646e-38,-3.70630e-08,-1.21809e-06,3.03156e-34,-2.09416e-08,5.83349e-26,-6.81349e-09,-1.65431e-04,-4.64789e-06,-6.40702e-07,2.05050e-24,-4.04511e-11,-1.17961e-09,-1.39904e-04,-2.48161e-07,4.13271e-39,-9.74248e-17,-9.61438e-05,-1.64509e-38,-3.69667e-05,4.40935e-38,-1.05403e-03,-2.52452e-07,-1.04893e-37,-5.05040e-10,-9.75488e-07,1.64598e-35,-7.63032e-04,-5.45823e-04,-1.98551e-06,8.49310e-40,2.94302e-38,-4.72296e-06,-9.23705e-12,-8.50459e-05,4.33848e-36,1.91555e-37,-7.85273e-08,2.27220e-36,-6.10918e-33,4.26538e-06,2.00750e-37,-2.10492e-38,-1.77967e-38,-4.08643e-35,-6.96845e-39,-9.10209e-33,-1.11768e-30,
-8.39003e-02,-1.75488e-22,6.73431e-02,-9.87957e-03,-1.11395e-01,9.82432e-05,4.44846e-02,-1.83248e-01,-1.76729e-01,2.69896e-02,7.67189e-02,3.40285e-02,-2.90153e-01,-1.65542e-01,-1.42969e-01,2.70662e-02,-8.80544e-02,-6.01985e-39,-2.62649e-02,1.29375e-02,2.17649e-02,-3.90569e-03,-1.41963e-01,-6.94619e-02,-1.07121e-01,1.19329e-02,1.01790e-01,-1.44472e-02,1.47118e-01,1.03444e-01,7.46708e-02,-1.54074e-01,3.95797e-04,1.16966e-01,1.04417e-01,-7.98249e-02,-9.79884e-02,-5.99097e-02,2.71671e-03,-6.09097e-02,3.32091e-02,8.62611e-04,1.11672e-02,6.00699e-03,-1.99344e-01,8.15538e-02,-6.65324e-38,4.60780e-03,-1.21845e-30,-1.70592e-02,
-4.78572e-03,9.51429e-38,-3.88517e-02,-6.69688e-03,-5.49891e-02,1.97993e-35,-6.75122e-02,6.88538e-02,5.99603e-02,5.92544e-02,-6.11500e-02,9.13250e-02,-2.58033e-02,7.11636e-02,-1.69689e-02,-7.27551e-02,2.21694e-02,3.34383e-38,3.20578e-04,-9.81424e-02,3.65133e-38,-1.18857e-03,2.66851e-03,-3.64861e-02,5.82512e-02,-6.53185e-39,4.42444e-02,7.90409e-02,-1.93587e-03,-5.55413e-02,-4.25535e-03,-2.05757e-02,2.15064e-15,-7.96896e-03,-7.70957e-02,-9.18762e-02,7.39959e-02,-2.27180e-02,2.67954e-33,5.64237e-02,2.61619e-04,2.57914e-33,-2.50528e-02,2.85450e-36,-1.29182e-02,-6.20313e-02,1.93355e-38,-5.24556e-38,9.72188e-38,3.48439e-14,
-2.47839e-02,1.47279e-17,3.02872e-02,1.45083e-01,9.13313e-02,1.31759e-02,7.21063e-02,2.30034e-01,8.55248e-02,1.46211e-02,-3.49455e-03,-7.27811e-02,1.21013e-01,-4.86934e-04,1.29797e-01,-3.88607e-03,-7.91252e-02,-7.48063e-39,9.82146e-02,5.40465e-02,2.78525e-02,-8.17547e-02,1.24751e-01,-1.44374e-01,2.48930e-01,-2.43415e-02,8.64557e-02,-1.40390e-01,-7.82688e-02,9.61111e-02,-1.58549e-01,-6.66687e-02,-5.84850e-02,-1.00212e-01,-1.45432e-01,3.10234e-02,8.83709e-02,-1.86598e-03,-3.90045e-04,4.98019e-02,2.08472e-01,1.63015e-03,-3.27964e-02,-6.37587e-07,1.98963e-01,-1.18680e-01,1.26008e-38,-1.05683e-02,-6.67827e-33,2.53667e-02,
2.91552e-02,9.82606e-17,-3.52639e-02,-8.26698e-02,-1.33620e-01,5.04532e-09,-1.67174e-01,1.92055e-01,2.19824e-03,5.36297e-02,1.30800e-01,1.31163e-01,1.54627e-01,8.52263e-02,8.01005e-02,-7.56188e-02,-6.57444e-02,-2.47564e-37,1.40212e-01,-1.05902e-01,5.17464e-10,9.22804e-02,5.13727e-02,-9.28066e-02,5.37791e-01,7.57397e-02,1.13287e-01,1.09480e-01,-1.64925e-01,1.16033e-01,1.29797e-01,7.92633e-02,2.41745e-02,-2.10500e-01,-4.26802e-02,-7.65083e-02,-8.18930e-02,-1.26692e-01,-2.32946e-25,9.56564e-03,3.85096e-02,6.29661e-03,4.91188e-02,9.74549e-06,-3.05342e-02,4.40089e-02,1.11675e-39,7.33766e-03,4.89911e-36,2.10107e-02,
1.50561e-24,3.52881e-31,1.18720e-27,3.18394e-30,-1.56623e-10,1.69603e-34,-1.12250e-10,-5.69498e-39,5.50394e-32,-8.22689e-07,-1.24923e-15,6.78093e-33,5.63366e-37,-2.92133e-38,-2.46224e-34,-2.45563e-12,-1.13992e-24,2.76981e-39,5.05549e-39,-4.58007e-09,-5.00441e-39,-2.89077e-09,2.72638e-36,-4.61879e-07,-1.65672e-38,-5.52971e-39,-1.57781e-38,3.26368e-33,-9.75850e-29,-2.27826e-08,-5.61554e-13,1.82996e-25,-1.66335e-38,-2.85270e-22,3.03301e-08,1.20908e-25,2.83876e-10,1.82235e-20,-6.54060e-39,1.95204e-33,-2.31226e-32,-3.42550e-39,1.85156e-34,7.84236e-33,-5.53016e-38,-2.48613e-28,8.93068e-39,-3.21962e-34,6.30014e-37,-1.38704e-37,
-1.61594e-01,-1.66771e-15,-1.72999e-01,6.51419e-02,1.37381e-01,-2.69980e-02,-5.35614e-02,1.77535e-01,4.78522e-02,-1.00101e-02,-3.63351e-03,-2.34914e-01,3.42214e-01,6.67294e-02,7.39678e-02,9.73936e-02,8.81256e-02,-9.91523e-37,5.85858e-02,1.20989e-01,1.62829e-02,4.57659e-02,1.81341e-01,-2.97079e-02,3.38067e-01,-1.52513e-02,7.52524e-03,-1.63962e-01,4.27389e-03,5.89764e-02,-4.07600e-03,6.38945e-02,-1.99749e-02,-1.74326e-01,1.85964e-02,2.53965e-02,-1.43260e-01,1.20043e-01,-2.89949e-03,2.36522e-02,-1.20334e-01,2.55396e-03,1.42190e-01,-9.08310e-03,-4.86799e-02,-1.07212e-01,-9.90407e-35,-5.91363e-03,2.33132e-38,3.05089e-02,
6.10451e-04,1.01006e-34,-3.64832e-03,-7.27293e-03,1.81004e-02,-1.43802e-38,-1.47420e-02,5.33599e-13,-9.15087e-03,5.46276e-02,-3.34225e-03,1.00439e-06,-1.67694e-04,-5.27545e-03,-2.21530e-03,-3.79506e-02,-6.95889e-03,-9.23700e-39,2.34924e-38,-4.49526e-02,-2.58701e-37,-2.47481e-02,-5.23088e-03,-1.68738e-02,3.06739e-14,-5.49955e-04,5.38230e-26,1.97782e-03,-7.51368e-06,-5.99125e-02,1.78149e-02,-7.61394e-03,2.22296e-37,-7.91662e-03,2.00919e-02,-1.26055e-02,2.79193e-03,-2.08459e-02,-4.14510e-39,1.28491e-39,-5.44182e-03,-7.54118e-37,-2.46419e-06,-7.58747e-39,-2.45071e-03,-3.00353e-03,1.90320e-39,1.07493e-38,-3.80828e-38,-5.04481e-33,
-1.98503e-02,-1.40221e-39,-1.27151e-02,-4.09711e-03,-2.77712e-02,1.00631e-36,5.39796e-03,-6.75337e-04,-1.53379e-03,-1.05761e-02,-9.79554e-03,-2.33095e-03,-3.41624e-03,4.47824e-04,2.27273e-03,-8.52694e-03,-5.91259e-03,6.81010e-31,-4.37366e-13,-1.65957e-02,7.33184e-39,-3.78012e-03,-6.22152e-03,8.66706e-03,-3.59405e-04,-1.65219e-37,2.06451e-03,-5.44829e-03,-1.19513e-02,-2.37011e-02,-7.13164e-03,-9.93832e-03,-1.20141e-38,-1.29437e-02,-1.65114e-02,-1.25417e-02,-8.99700e-03,-3.33504e-03,4.18748e-39,4.83959e-03,-1.95995e-02,4.45647e-29,1.11194e-03,-1.24738e-05,-4.40532e-03,-1.58324e-02,-3.60324e-35,-5.69781e-32,7.50926e-39,1.06382e-38,
1.20388e-01,-4.89466e-34,1.08410e-01,-3.56876e-02,-1.48271e-01,2.13289e-34,-7.84094e-02,-5.57382e-02,-1.33553e-01,1.57694e-02,4.14780e-02,4.49865e-02,-1.50543e-01,-1.84827e-01,-8.68041e-02,2.10668e-02,4.13174e-02,-1.51794e-33,5.91022e-03,-5.56324e-02,1.10179e-03,2.79867e-02,-1.23480e-01,-1.01891e-01,-9.04065e-03,-1.06111e-02,-1.84422e-02,-9.07938e-02,-3.39178e-02,-5.56436e-02,-4.04659e-02,-5.06530e-02,4.96700e-02,-6.40387e-02,9.66580e-02,7.49331e-02,3.28955e-03,5.48454e-02,7.96247e-04,6.20222e-02,3.13845e-02,-2.53674e-38,-1.51477e-01,2.40973e-04,-2.61555e-02,7.79180e-02,-1.95643e-38,-5.85223e-03,1.67056e-35,5.73677e-03,
1.05363e-01,-2.14646e-17,-1.97336e-02,-4.83036e-03,-1.86545e-02,-2.89196e-10,3.25550e-02,2.04739e-01,9.04646e-02,8.50325e-03,9.03275e-02,-1.50087e-01,1.31428e-01,5.27044e-02,-1.11207e-02,4.30268e-02,-1.18462e-01,-1.63499e-31,9.33731e-02,-1.52686e-01,-1.00896e-12,-5.24726e-02,-1.57033e-01,-1.55219e-02,4.61751e-01,8.90702e-02,5.36368e-03,5.84312e-02,-1.40936e-01,8.14811e-02,-2.77926e-02,5.55219e-02,1.69496e-02,-5.83530e-03,-1.45060e-01,7.79945e-02,-1.27095e-01,-1.30156e-01,-2.49523e-34,2.43118e-02,-9.81993e-02,1.61867e-03,9.15611e-02,6.07639e-28,8.23715e-03,-7.53486e-02,-1.71523e-32,2.31067e-05,-6.69302e-41,1.68581e-13,
8.12711e-02,1.64325e-17,-1.15950e-01,1.58965e-01,-2.10283e-02,-2.24147e-10,-7.53291e-02,1.66155e-01,1.32809e-01,-5.43697e-02,4.04724e-02,4.94356e-02,1.45893e-01,1.42189e-01,2.40226e-02,-1.17112e-01,-3.42345e-02,-1.83659e-31,3.51742e-02,8.76444e-02,-1.44454e-12,6.70207e-02,-9.03380e-02,4.58392e-02,2.92801e-01,-2.41785e-02,-3.12589e-02,1.37909e-02,-6.86137e-02,-8.42015e-03,-4.91605e-02,-9.17951e-02,-2.26457e-02,2.18779e-02,-4.48530e-02,8.71619e-02,-1.42931e-01,-1.23313e-01,-7.49755e-04,-6.05757e-02,1.06178e-01,1.35313e-03,1.36160e-01,1.05478e-03,1.30354e-01,-3.15771e-02,6.12944e-39,-1.22531e-02,4.01427e-32,4.56935e-03,
1.87103e-02,2.06852e-23,1.13301e-01,8.27367e-02,-9.63357e-04,1.32263e-19,1.08256e-01,-9.19353e-02,-9.86553e-02,9.06277e-02,1.51519e-03,-2.47978e-02,-2.34488e-02,-1.12340e-01,-1.00275e-01,1.27745e-01,6.61898e-02,5.66966e-31,-3.25232e-02,-3.56727e-02,1.68008e-07,-3.91913e-02,-4.47313e-02,-4.49417e-02,-1.99640e-01,6.02481e-03,-1.97531e-02,-3.14234e-02,1.61638e-01,6.16869e-03,2.83975e-02,-1.26853e-01,3.61940e-02,-4.93547e-02,-1.11169e-01,-1.25981e-02,-1.44578e-01,-1.13406e-01,5.79014e-04,8.93008e-02,-7.24902e-02,7.48817e-04,1.17446e-02,-1.90029e-04,-2.53690e-02,-4.15975e-02,-3.24791e-36,5.08713e-03,1.06758e-33,-1.37010e-02,
6.46341e-10,-1.08369e-38,9.94449e-09,1.00818e-03,1.08721e-02,-6.80666e-39,-6.93315e-03,1.18852e-34,-1.35194e-05,-2.80909e-02,-1.83900e-04,5.68527e-06,-2.76442e-24,-4.38982e-10,6.13579e-13,-7.94371e-03,5.24740e-04,-9.22000e-39,3.52295e-38,-1.98448e-02,1.04944e-38,4.58291e-03,-1.45819e-08,3.88436e-03,8.90173e-35,2.60610e-36,-1.27313e-38,-1.39153e-07,2.02741e-39,1.31622e-02,-5.47376e-03,1.89571e-03,-3.66702e-34,3.39938e-04,-3.02771e-03,-1.43832e-03,3.45043e-03,1.32553e-03,2.36455e-39,-4.21840e-32,5.72224e-06,3.70790e-33,1.75243e-07,-1.46010e-38,2.95519e-16,2.06445e-09,-1.43859e-37,-3.97170e-38,-2.91102e-38,-7.53798e-39,
-2.60408e-02,1.74401e-17,-8.61646e-02,-5.43435e-02,-6.15506e-02,-2.23617e-10,-5.59776e-02,2.80199e-01,5.48368e-02,-6.41209e-02,-9.00198e-02,-3.43536e-02,5.62023e-02,7.19530e-03,-9.04363e-02,-1.19712e-01,9.70172e-02,-1.36975e-38,1.04109e-01,-1.01138e-01,-7.26402e-13,4.50349e-02,4.84919e-02,1.07261e-01,4.25625e-01,3.17110e-02,4.99186e-02,-1.08673e-01,-2.11968e-02,5.11223e-02,9.00902e-02,-6.87476e-02,2.19711e-02,-1.96541e-01,5.62849e-02,-1.40313e-01,2.02193e-02,-9.24410e-02,-1.58024e-29,9.67669e-02,-7.79392e-02,7.39065e-03,4.49406e-02,6.31300e-05,-1.09180e-01,-8.20354e-02,4.34015e-38,1.62511e-03,-9.05511e-39,8.35076e-03,
-5.00269e-33,-8.42707e-37,8.31872e-39,5.78059e-26,1.89688e-22,-3.38441e-38,-8.80767e-29,4.25729e-36,-1.38112e-31,-1.74465e-13,4.23309e-32,-7.04311e-31,-9.44804e-38,1.71159e-32,-4.06494e-37,1.05103e-25,-3.36180e-33,2.01448e-39,8.74744e-36,1.88600e-13,1.79134e-36,-8.41509e-28,-3.63273e-32,-4.94870e-12,-1.96206e-37,1.80313e-38,1.72116e-38,9.89146e-39,1.45924e-33,-4.81509e-13,7.75464e-17,-2.16669e-31,1.53242e-38,-3.44208e-38,-2.09737e-23,-9.57768e-23,3.82359e-20,-4.88946e-33,1.52946e-38,-2.33263e-31,3.25547e-32,-2.35698e-32,-4.49765e-29,-5.72117e-34,7.73704e-36,7.64221e-38,-1.54848e-38,4.30528e-35,-5.40954e-38,-2.15669e-38,
-8.51665e-26,-7.77007e-38,-5.87016e-25,-1.15006e-22,8.96400e-23,7.82100e-34,-6.97101e-24,-1.45871e-24,-1.28615e-25,-1.20025e-22,-2.34446e-24,-4.03865e-25,-1.69200e-24,-9.37700e-25,3.81109e-25,-1.89321e-24,-3.85409e-24,-1.54563e-35,4.64590e-26,7.65401e-18,-4.43074e-37,-1.20016e-23,-5.84804e-25,3.77166e-23,6.21376e-26,7.78152e-25,1.46354e-24,-1.42028e-24,1.00956e-24,-2.07934e-15,2.15354e-24,-5.13548e-24,9.48294e-31,-1.55468e-24,1.58235e-24,4.20421e-24,1.81178e-21,-5.14833e-24,-1.81893e-35,4.77871e-25,2.57583e-24,-8.00540e-37,-1.99519e-24,-2.76714e-34,1.73521e-24,3.80679e-25,-1.13041e-38,3.00973e-38,-1.14582e-35,-1.58948e-33,
-8.32299e-02,-8.67923e-17,-5.28774e-02,6.53955e-02,2.24672e-02,-1.78281e-09,-1.20555e-01,1.38328e-01,1.04983e-01,-8.85131e-02,-1.38988e-01,-1.10259e-01,8.63767e-02,-2.20029e-02,-4.91612e-02,1.17179e-01,-8.93868e-02,-2.89446e-35,1.32731e-01,1.17447e-01,3.96046e-03,9.97073e-02,9.08423e-02,1.97474e-02,5.07321e-01,-2.28842e-02,4.74845e-02,3.48287e-02,-1.61571e-01,5.73917e-02,1.66397e-02,8.07126e-02,-9.61423e-03,-7.96100e-02,-1.20246e-01,-3.96442e-02,-1.38201e-01,6.55423e-02,-2.28031e-03,1.39559e-01,-8.19776e-02,4.27220e-03,1.36333e-01,1.47902e-03,8.71698e-02,4.22960e-02,-6.58278e-39,-5.59451e-03,1.81904e-38,1.10231e-02,
9.29841e-13,2.75678e-36,-9.67992e-13,-1.41596e-12,-6.55934e-11,-1.65650e-37,-7.34899e-11,7.95829e-12,3.07940e-11,-1.72436e-10,-5.05867e-12,2.08241e-11,-7.41827e-12,2.52780e-11,1.91506e-11,-1.37475e-11,1.77893e-11,1.04935e-33,-3.25044e-39,-7.27489e-11,-3.01266e-34,-5.20226e-11,1.48884e-11,-1.30210e-10,2.68077e-15,-8.86243e-24,-2.18764e-27,5.15270e-11,-1.28687e-11,-1.28897e-10,5.77840e-11,-2.60268e-11,6.72895e-31,-2.41646e-11,-7.85058e-11,-2.95371e-11,-8.01747e-11,-2.34619e-11,4.95667e-38,7.19865e-13,-3.53319e-15,-5.84609e-39,-3.24530e-11,8.53284e-33,-3.96868e-14,-4.68552e-14,-1.81307e-32,-1.48957e-31,2.63935e-38,-1.31453e-38,
-1.32905e-02,-4.03877e-36,-1.90428e-02,-1.54113e-02,-1.95177e-02,2.36629e-38,-1.99282e-02,-6.71249e-03,-2.07817e-02,-1.97655e-02,-1.76783e-02,-6.55049e-03,-1.97979e-02,-1.60302e-02,-1.94621e-02,-1.95503e-02,-2.02985e-02,3.17899e-38,1.12569e-09,-1.89032e-02,9.11280e-39,-1.89218e-02,-2.15021e-02,-1.97411e-02,3.64313e-03,-9.29710e-05,1.04574e-02,-1.89058e-02,-2.08893e-02,-1.85203e-02,-1.91806e-02,-1.84741e-02,-6.74211e-31,-2.02360e-02,-1.95158e-02,-2.04600e-02,-1.86181e-02,-1.90926e-02,1.79962e-31,4.73201e-03,3.34761e-03,-1.85457e-32,-5.56078e-03,4.55277e-39,-9.86798e-03,-1.53789e-02,8.29861e-39,-6.49955e-33,-4.73798e-39,-1.71742e-38,
-2.25759e-22,-6.14446e-34,-1.09326e-08,-6.12002e-09,-8.30820e-05,1.52428e-38,-1.64309e-04,-3.13949e-25,-7.42423e-14,-1.21818e-03,-6.10831e-07,-1.13036e-25,4.46893e-25,-1.47109e-19,-5.67602e-24,-1.90963e-05,-2.86686e-07,-4.65289e-38,-3.89370e-31,-2.81901e-04,-2.47125e-33,-5.84810e-05,-3.83898e-21,-8.42394e-04,-7.62638e-27,-1.18670e-24,6.38243e-26,-6.03171e-13,-1.16094e-11,-5.57621e-04,-5.38581e-06,-9.88281e-08,-5.54431e-39,-5.13884e-06,-2.38435e-04,-1.24756e-06,-1.24502e-04,-1.52401e-06,-7.65631e-36,-1.95534e-25,-1.60695e-24,2.55419e-38,4.11810e-25,8.60028e-38,-4.67740e-25,-3.96938e-15,6.98631e-39,8.18808e-39,-2.26678e-37,-3.10887e-39,
2.42161e-14,2.12177e-35,-3.78418e-13,-6.98653e-13,-3.93049e-13,2.13556e-31,-5.80052e-13,2.47618e-13,-2.18081e-13,-1.48993e-12,-3.86559e-13,-6.15014e-14,-5.55183e-13,-1.66129e-12,-8.06343e-14,-7.92777e-13,-3.23116e-13,4.57065e-39,-3.12747e-34,-6.13298e-13,2.61154e-40,-3.05689e-13,-9.38311e-13,-1.93616e-12,-6.14899e-37,1.42518e-33,-7.94741e-33,1.23902e-13,-1.00480e-13,-5.11123e-13,-7.61666e-13,-4.92080e-13,-1.00013e-37,-6.97776e-13,-4.68434e-13,-4.77637e-13,-8.74192e-13,-6.23641e-13,-2.04687e-31,8.38904e-30,-1.04987e-13,-4.63793e-39,-1.27860e-13,-9.88500e-38,-8.35125e-14,-5.99535e-13,1.17272e-37,1.23374e-39,-1.34464e-38,-7.81128e-39,
2.32942e-02,4.85471e-16,-1.83387e-01,6.91758e-02,1.90457e-02,2.58992e-02,-1.39701e-01,1.35092e-01,-1.83861e-01,5.83664e-02,-7.02379e-02,1.05884e-01,-1.90309e-01,-1.10640e-01,5.13848e-02,6.08141e-02,-1.74373e-01,3.20636e-39,4.39112e-02,-1.36351e-01,1.81785e-02,-1.06005e-01,-3.08839e-01,1.22411e-01,3.07302e-01,2.18712e-02,5.53087e-02,1.82110e-01,1.10050e-01,-8.97901e-02,1.31559e-01,-3.91503e-02,3.37320e-02,-1.32153e-01,-3.01066e-02,-1.21163e-01,-7.01771e-02,-1.99745e-01,2.86414e-33,-1.79868e-01,-8.21197e-02,1.46747e-04,-4.93195e-02,1.22143e-03,3.42347e-02,-1.61614e-01,-4.69416e-38,2.78487e-04,-1.96744e-32,3.59219e-03,
2.58411e-24,1.43058e-33,1.20345e-23,5.29902e-24,-2.49374e-13,-7.13938e-36,-1.63387e-10,1.99059e-25,-4.39521e-24,-4.71506e-07,-2.02743e-22,4.64296e-25,5.57749e-25,1.95176e-24,-8.26261e-25,-6.62978e-19,1.31504e-22,4.10928e-38,-2.85126e-26,-2.95727e-10,-1.31169e-34,-9.19873e-16,3.10170e-24,-1.11917e-07,3.81986e-26,1.95436e-25,1.80964e-25,3.91748e-24,6.77422e-24,-9.43262e-09,2.02363e-19,-1.07575e-23,1.84331e-39,1.32280e-16,-2.64432e-10,2.30686e-21,-1.21443e-10,-2.99177e-22,2.13868e-38,-9.30361e-26,-2.16897e-24,3.61193e-39,-3.83463e-25,7.54239e-39,5.51940e-25,4.42026e-24,-1.49686e-38,1.95019e-39,7.37725e-34,-5.70522e-36,
4.20190e-07,8.37070e-39,8.14066e-11,-8.47452e-06,-2.05396e-06,-1.28773e-38,-2.13960e-17,-1.65611e-19,-8.10559e-05,-2.99015e-05,-6.77090e-23,-3.14894e-10,-4.37866e-09,-3.11062e-05,-1.99598e-05,-8.16251e-05,-2.54619e-05,2.00238e-36,-6.48860e-26,-1.27689e-04,3.82229e-33,-8.47684e-09,-1.07974e-12,-1.95321e-04,3.30343e-26,1.35426e-23,-6.23523e-22,2.35997e-22,1.62603e-12,-1.08555e-03,-7.64192e-05,-1.26413e-05,5.16889e-36,-2.84154e-23,3.30642e-23,-3.28578e-05,-7.92213e-06,-1.79844e-13,1.75831e-38,1.15303e-25,-5.08352e-25,-8.35758e-38,-3.25922e-06,-4.72171e-39,7.36659e-25,3.35227e-09,1.04074e-40,1.33497e-38,1.27180e-37,8.49426e-36,
1.93186e-02,2.49345e-17,6.11417e-02,-1.05400e-01,-5.72360e-02,9.63493e-10,-1.19785e-01,2.58201e-01,5.37874e-02,1.19852e-01,1.25836e-01,1.26185e-01,6.76685e-02,-4.19262e-02,-6.61610e-02,8.34829e-02,-1.71707e-01,3.13382e-38,4.73031e-02,-2.20815e-02,5.50309e-13,7.34186e-02,9.42842e-03,-8.42078e-02,2.83800e-01,1.14041e-02,-2.50281e-02,4.15667e-02,5.32567e-02,-7.02767e-02,1.22546e-01,-1.01137e-02,-1.02159e-12,-1.27944e-01,-4.40521e-02,5.59612e-02,-7.34152e-03,-1.98012e-01,-2.57096e-39,3.48582e-02,-8.54062e-02,2.95755e-06,8.03147e-02,7.81404e-04,-7.50942e-02,-1.34511e-01,7.23946e-39,5.72481e-08,-6.94913e-33,4.85997e-04,
1.67114e-02,-5.00054e-23,-5.44733e-02,-5.69852e-02,5.66815e-02,-9.70467e-06,-5.38036e-02,-6.33055e-02,-6.64712e-02,-1.01307e-01,8.22210e-03,-1.99153e-02,-6.48769e-02,2.06931e-02,-6.31428e-03,3.57112e-02,2.07603e-02,-3.72454e-33,-3.92096e-02,-1.43971e-01,-3.24437e-36,4.67260e-02,2.83626e-02,1.09805e-01,-1.73378e-01,3.92240e-02,-3.70436e-02,1.59762e-01,1.19328e-01,-9.14609e-02,3.07369e-02,6.50565e-04,1.15604e-14,-5.84281e-02,8.27702e-02,-9.20134e-02,-2.96516e-02,6.12099e-02,6.34742e-04,-5.89604e-02,8.75987e-04,3.20787e-30,3.24889e-02,4.15327e-14,-3.01657e-03,-6.47263e-02,-1.00954e-38,-7.39552e-03,6.89996e-37,4.16653e-13,
-2.31582e-03,1.79304e-30,4.55135e-04,-3.35023e-02,-1.17444e-02,2.24983e-39,-1.18920e-02,-2.29607e-02,-1.88807e-02,-1.11539e-02,-1.65868e-02,-2.57891e-02,-1.52586e-02,-2.98060e-02,-1.91815e-02,-1.07627e-02,-1.04324e-02,-2.00837e-35,4.09311e-15,-1.58291e-02,-1.66717e-37,-8.59996e-03,-6.23794e-03,-1.30588e-02,3.70950e-04,-1.46429e-38,-6.30501e-04,-1.22851e-02,-1.94544e-03,-1.73710e-02,-1.86256e-02,-2.09192e-02,-5.60691e-13,-7.91589e-03,-1.01887e-02,-1.44108e-02,-1.82060e-02,-1.31245e-02,-9.70247e-37,3.05071e-03,-1.11989e-02,-3.61829e-32,-2.25887e-02,-1.33038e-36,-5.14742e-05,1.29498e-03,-9.11766e-39,-1.49518e-33,4.44773e-36,-2.15566e-38,
-1.72831e-03,-9.66955e-35,-9.56267e-02,8.72852e-02,8.94582e-02,1.83845e-39,-5.16695e-02,-5.47564e-04,-2.01255e-02,-9.63055e-02,-9.31289e-02,-1.01857e-01,-6.50377e-02,-1.92189e-03,-6.99491e-02,-7.87655e-02,1.04160e-01,2.70918e-37,-4.25588e-11,1.00237e-02,-9.89883e-38,1.02996e-01,-1.25630e-01,8.93095e-02,-6.52386e-03,-1.08980e-03,-3.89694e-03,6.13049e-02,-9.44800e-02,-3.00494e-02,-1.36527e-01,2.26358e-02,-4.39326e-37,2.32703e-02,-3.37049e-02,7.80527e-02,-1.16314e-01,8.11063e-02,-2.46986e-31,-2.15348e-02,3.70713e-02,1.65704e-37,8.46387e-02,2.01259e-28,2.72066e-02,3.34006e-02,4.93657e-39,-4.17236e-04,9.46862e-37,-1.58457e-35,
6.65100e-02,6.89525e-39,3.95703e-02,-4.20218e-02,3.60753e-02,-2.80234e-38,1.24636e-01,-1.33378e-01,-1.42074e-02,-1.34248e-01,3.51409e-02,7.49822e-02,-2.75088e-01,-1.87428e-01,-1.99019e-01,-1.18387e-01,-1.72108e-01,9.29626e-35,2.44514e-02,4.54493e-02,1.15304e-38,8.70757e-02,-1.19995e-01,3.55929e-02,6.86700e-03,-1.17641e-02,-1.94516e-03,-4.09530e-02,3.52193e-02,-1.55741e-01,-1.33233e-02,4.39293e-02,3.69155e-03,3.70034e-02,1.06380e-01,-1.52816e-01,-9.66783e-03,1.31813e-02,1.55166e-03,-6.49248e-02,1.30937e-01,9.23041e-06,5.44991e-02,2.99516e-03,6.17214e-02,1.31577e-01,1.23165e-33,3.71996e-03,-4.35790e-37,-2.56662e-38,
1.35445e-02,-2.14854e-36,1.80537e-02,-1.11290e-01,6.09504e-02,4.03073e-38,5.19261e-02,1.55812e-26,3.34868e-04,-8.43373e-02,-9.08784e-02,3.83540e-02,-1.93816e-02,-5.59128e-02,-1.54670e-02,6.35703e-02,-8.47530e-02,-3.65609e-38,1.60064e-33,1.95144e-02,1.79514e-34,-4.09399e-02,-5.62612e-02,-8.71209e-02,3.44325e-35,-1.53735e-35,-1.08258e-05,4.57945e-02,7.87521e-02,3.16199e-02,-9.62603e-02,8.38814e-02,3.26385e-35,-4.23227e-02,7.92862e-02,-7.93215e-02,4.84071e-02,6.71679e-02,4.49033e-32,-1.46394e-03,2.09193e-02,-1.42139e-37,-3.12359e-02,1.33917e-38,-1.64966e-02,3.69791e-02,3.48401e-39,1.31947e-36,-1.66567e-37,3.15200e-35,
-1.89142e-04,-4.16332e-39,-4.30011e-03,-1.44024e-07,-5.78835e-03,2.15639e-32,-8.70494e-03,1.91105e-07,-4.13757e-07,-1.29201e-02,-1.78626e-03,-1.80587e-18,-9.33932e-22,-1.10741e-21,-5.13302e-22,-2.87729e-03,-1.39909e-03,-2.20057e-33,2.55816e-23,-6.11205e-03,-9.38110e-33,-4.86794e-03,-9.71162e-05,-1.03946e-02,1.52814e-22,-4.19344e-13,7.14682e-14,-4.71831e-05,-2.02940e-03,-6.02096e-03,-1.29260e-03,-2.38880e-04,7.44099e-38,-7.01361e-03,-9.61631e-03,-2.68992e-03,-6.37268e-03,-2.82669e-03,-3.65145e-34,-6.24898e-20,-5.52468e-09,5.29553e-36,4.92805e-09,2.53331e-40,-1.29284e-13,-1.48419e-03,3.72301e-38,-7.07605e-31,3.48366e-36,-1.85020e-32,
-6.88017e-02,-5.61025e-38,9.88079e-02,-2.93011e-02,-4.16081e-02,-4.57678e-39,-9.86228e-02,4.83147e-02,-1.04807e-01,1.08560e-01,1.01099e-01,-7.24817e-02,-8.64852e-02,2.60098e-02,-7.98030e-02,-9.03562e-02,-1.45659e-01,4.11379e-34,-2.65115e-04,9.88761e-03,-4.30673e-32,1.19445e-01,5.48273e-03,-6.99132e-02,-2.97413e-03,-8.88223e-04,-1.94534e-02,-1.19961e-01,9.46981e-02,-3.99901e-02,-4.71914e-02,-4.77595e-02,-3.76270e-37,1.08471e-01,-1.20737e-02,-1.06181e-01,3.53328e-02,-9.02094e-02,-3.63906e-32,-1.01554e-01,1.64935e-01,1.92393e-31,-4.10176e-02,-3.18193e-29,9.70871e-02,-3.18697e-02,5.99652e-38,1.14195e-02,1.91432e-38,4.76370e-36,
1.19129e-01,-1.86939e-18,1.15731e-02,3.05365e-02,-1.65719e-02,8.38963e-19,-9.03771e-02,2.65586e-01,-1.74120e-01,1.79754e-02,-2.09079e-02,1.11443e-01,3.35441e-03,-1.77641e-01,-1.04957e-01,5.93186e-02,4.57975e-02,-1.02710e-38,4.28858e-02,8.49183e-03,8.53909e-38,-1.65456e-01,-8.44833e-02,8.52946e-03,2.55799e-01,1.13473e-02,5.90660e-02,-9.32871e-02,-1.22013e-03,-5.63875e-02,1.15111e-01,-1.96413e-02,2.85215e-15,2.67973e-02,4.65430e-02,-8.19053e-02,7.84524e-04,-1.53559e-01,9.41431e-26,8.38093e-02,-1.98763e-03,6.77714e-06,2.25261e-02,-7.58976e-05,2.58522e-02,-1.29988e-01,7.52046e-34,-1.15980e-03,-1.42177e-34,4.32388e-07,
-4.11370e-09,4.89401e-36,-1.89215e-04,8.00189e-05,6.54873e-04,-2.99072e-39,-1.22517e-03,1.67671e-32,8.37160e-07,-1.43920e-03,-3.05576e-05,-1.28577e-27,7.15819e-38,-4.04065e-10,1.19404e-33,-4.48649e-04,2.24604e-04,-3.16197e-33,7.65696e-39,7.40942e-03,-1.20728e-39,-1.59692e-03,-4.02560e-06,7.36857e-04,-4.16564e-37,9.76839e-39,7.96601e-39,-1.53892e-31,-1.80406e-07,-9.82592e-03,-2.65697e-04,-1.78519e-04,-1.65294e-38,-1.20107e-03,-8.03231e-03,-4.78279e-04,-5.22131e-03,1.79311e-03,-2.28219e-32,-4.30546e-38,-2.31192e-04,-1.17751e-38,5.80220e-34,-2.19031e-38,-5.57403e-06,-1.51617e-04,9.18984e-37,3.37881e-31,7.79603e-39,-5.44692e-36,
7.49289e-02,-2.96505e-15,4.45001e-02,6.75316e-02,-9.96932e-02,2.67022e-02,9.85676e-02,-2.44872e-01,-6.80888e-02,6.88288e-02,-3.62858e-03,5.38671e-02,-1.14317e-01,5.11542e-02,4.59292e-03,-1.66069e-01,-1.57699e-01,9.02216e-33,-2.51488e-02,6.32993e-02,-1.93116e-02,-7.20016e-02,-1.68269e-01,-9.83669e-02,-2.45287e-01,1.26747e-02,2.29378e-03,1.58918e-01,1.44871e-01,1.09838e-01,1.19046e-02,-6.27119e-02,2.07361e-02,-4.53156e-02,1.09387e-01,-1.30264e-02,8.83003e-02,3.21997e-02,7.34363e-04,-1.04850e-01,2.89379e-02,4.67530e-03,1.26192e-01,2.20392e-03,-8.68723e-02,1.96399e-01,-6.37739e-38,7.93772e-03,-1.32931e-33,-3.73068e-02,
-3.62064e-04,-2.23036e-39,-8.79896e-04,-1.74585e-04,-5.71399e-03,1.14601e-34,-7.93584e-03,-5.74162e-06,-4.33041e-08,-1.25998e-02,-4.26118e-03,-2.73039e-07,-2.02134e-20,-5.81030e-09,-2.32332e-16,-5.73084e-03,-1.68344e-03,-6.11311e-39,-1.08377e-20,-7.63328e-03,-5.18529e-35,-6.19211e-03,-1.69974e-15,-1.10721e-02,2.79310e-21,1.71026e-17,-1.78948e-20,-2.48208e-03,-1.45556e-03,-1.01356e-02,-6.21514e-03,-8.12761e-04,-6.35732e-36,-3.06161e-03,-8.98541e-03,-8.42147e-04,-6.59078e-03,-1.19708e-03,5.65202e-39,-1.81877e-20,-1.58892e-08,-2.56304e-39,1.36955e-17,-3.36502e-34,-6.62620e-22,-1.69621e-05,4.09733e-38,6.83341e-37,1.08477e-35,-3.04841e-33,
-4.20142e-02,-2.52327e-22,5.86962e-02,-1.24076e-01,-8.45294e-02,-5.15820e-06,8.12004e-02,2.38498e-02,-2.72931e-02,-4.15527e-02,2.91254e-02,6.00381e-02,-2.57861e-02,-9.48037e-02,-8.37302e-02,-1.23121e-03,-1.05328e-01,-1.74073e-38,-1.81618e-02,-4.37979e-02,-1.24329e-39,1.09251e-02,-8.75746e-02,9.95149e-02,6.08336e-02,1.03796e-01,-7.02250e-03,8.42097e-02,1.18443e-01,-6.10882e-03,1.40334e-02,-2.40312e-02,7.47805e-13,-8.59291e-02,6.38311e-03,-2.56027e-03,-7.63047e-02,-5.08034e-02,2.67627e-06,-1.26507e-01,4.33939e-02,-6.79843e-29,7.81886e-02,-1.77575e-08,-1.05279e-01,-3.65767e-02,5.76066e-34,1.43431e-02,2.89819e-40,2.38180e-04,
3.90821e-02,-3.23257e-17,-8.29715e-03,1.49792e-01,1.02791e-01,2.14036e-02,6.62993e-02,2.49348e-01,7.38165e-02,-8.70354e-02,4.35495e-02,-1.87332e-02,1.39156e-01,7.48142e-03,5.29377e-02,-6.24114e-02,-4.09073e-02,4.69851e-37,1.07094e-01,4.38699e-02,7.70353e-10,-5.27232e-02,-9.06500e-03,-2.37361e-02,3.72338e-01,-2.84739e-02,5.33327e-02,-8.13583e-02,-2.55059e-01,8.15983e-03,-2.68106e-02,1.46925e-01,-2.19454e-02,-4.42345e-02,-1.26415e-01,1.22530e-01,-1.17732e-01,9.24621e-02,-2.62376e-04,1.45950e-01,1.09178e-01,3.08463e-04,1.23822e-01,2.80269e-04,2.00194e-01,-3.59627e-02,-7.78957e-39,-1.35658e-02,2.19857e-31,2.35960e-02,
7.69647e-28,-1.39300e-38,5.26651e-15,-1.94071e-15,-1.94327e-06,-1.10239e-38,-1.64243e-06,1.29487e-38,8.99140e-23,7.89223e-06,3.31283e-18,-5.49858e-38,5.99866e-39,-1.10394e-33,-3.48027e-36,-2.56745e-10,-6.01401e-13,1.65125e-36,3.40975e-34,2.40947e-06,-1.58940e-34,3.16700e-07,-4.25670e-23,-2.54194e-05,-3.19416e-39,1.19263e-38,-7.56592e-39,-3.54723e-39,-3.48378e-38,-8.76013e-06,5.20505e-13,-1.19722e-12,-1.63126e-39,4.29779e-08,-2.12144e-07,-1.56546e-09,7.13229e-07,1.46655e-07,-1.46021e-31,-2.15870e-38,3.94413e-10,-5.50189e-33,-7.57778e-39,8.41395e-38,-1.71591e-24,4.72739e-15,-3.17463e-39,1.08926e-37,5.65197e-39,-2.57497e-40,
5.92944e-02,4.77470e-16,8.89756e-02,-2.83700e-02,-2.91521e-03,-2.22592e-02,8.19082e-02,-1.39763e-01,8.98032e-02,-5.84958e-02,1.43276e-01,2.10434e-01,-1.33724e-01,-1.61428e-02,-2.85645e-02,1.12409e-01,-3.40636e-02,-9.48214e-39,-3.09409e-02,-6.66431e-02,-2.19477e-02,6.82364e-03,-4.07709e-02,-6.55985e-03,-2.37574e-01,3.87563e-03,2.68955e-02,1.74662e-01,4.50654e-02,-4.31957e-02,5.56080e-02,-1.12131e-01,2.59813e-02,1.45328e-01,1.90991e-02,5.38116e-03,-7.43948e-03,-2.35352e-02,9.97619e-04,8.99772e-03,-1.89501e-01,5.29136e-03,1.24260e-01,3.15836e-03,-1.72711e-01,4.24962e-02,-2.56353e-33,-1.15698e-04,4.43769e-38,-5.00442e-02,
1.29448e-01,-4.89909e-15,1.14321e-01,2.39598e-02,-9.25435e-02,2.68683e-02,1.63912e-01,-2.47982e-01,-1.10638e-01,1.51586e-01,6.78082e-02,6.20726e-02,-1.12935e-01,-8.29160e-02,3.71424e-03,-5.23669e-02,-1.46568e-01,6.40862e-31,-4.84473e-02,2.34874e-02,-2.13791e-02,-1.51303e-01,-1.75087e-01,1.32568e-01,-3.28776e-01,1.62913e-02,1.46763e-02,1.93416e-01,6.92460e-02,2.46352e-02,-9.68093e-03,1.25077e-01,2.18601e-02,9.86970e-02,-4.47590e-02,-4.30121e-02,-8.39572e-02,-1.22875e-01,6.14128e-03,-9.04491e-02,-1.58950e-01,1.60087e-02,-2.14124e-02,9.91817e-03,-2.15714e-01,8.10244e-02,3.35693e-38,3.44509e-03,-9.27394e-31,-4.70661e-02,
4.48066e-02,-5.96572e-16,-2.25387e-01,1.67496e-02,7.00075e-02,-2.36015e-02,6.34014e-03,2.16142e-01,-5.58926e-02,8.65375e-02,3.40373e-02,-4.88955e-02,2.03393e-01,-9.86324e-02,1.26934e-01,-1.56098e-01,-1.03178e-01,3.76045e-38,4.83443e-02,-1.10391e-01,-7.02043e-13,1.05458e-01,4.09708e-02,4.17443e-02,2.24940e-01,-2.93509e-02,5.57888e-02,4.91344e-02,-1.36364e-01,-1.02603e-01,-1.75041e-01,-7.33385e-02,-1.50854e-02,-3.12668e-02,2.85440e-02,-1.83068e-02,3.22357e-02,5.10129e-03,-2.37474e-05,1.06338e-01,1.38458e-01,7.12087e-05,4.41634e-02,-8.13902e-04,1.42833e-01,-1.00233e-01,-3.52202e-32,1.91094e-03,-1.11721e-39,3.77993e-02,
-6.10280e-02,-1.81802e-33,5.41931e-02,2.10443e-02,-8.04282e-02,7.62042e-33,3.37249e-02,-2.68051e-33,7.82829e-02,8.18861e-02,-1.14434e-01,-1.76742e-02,5.81917e-03,-2.68000e-02,-5.20983e-02,-1.37648e-01,-8.69940e-02,1.09255e-38,2.28501e-36,2.13866e-04,2.30941e-38,-1.37045e-01,-3.37552e-02,1.05986e-01,-3.97179e-36,1.79989e-36,-2.18646e-03,-1.02476e-01,-1.28135e-02,-8.68007e-02,7.79436e-02,1.08700e-01,3.01801e-38,2.58330e-02,-7.87043e-02,9.79612e-02,-1.36915e-01,9.47296e-02,6.08044e-39,4.83474e-03,6.12942e-02,3.30868e-31,8.50257e-03,1.10808e-33,5.40033e-02,-5.67994e-02,-3.61883e-36,6.77173e-31,9.33973e-39,-1.69653e-36,
-2.96149e-02,6.53740e-17,-7.07998e-02,9.82298e-02,-8.74844e-02,3.09494e-08,-8.28284e-02,2.34397e-01,1.28182e-01,-2.12771e-02,-8.81270e-02,-1.11322e-01,1.89318e-01,1.33045e-01,3.83995e-02,8.62785e-02,5.35912e-02,-8.13671e-36,1.23059e-01,1.81823e-02,2.84967e-02,1.25897e-01,-3.58496e-02,-2.53035e-02,3.36244e-01,-2.12731e-02,2.53623e-02,-1.04261e-01,-1.53836e-01,-5.45332e-02,-5.09569e-02,1.99508e-02,-2.70675e-02,-4.16651e-02,1.82377e-02,1.11707e-02,-1.34565e-02,9.25740e-02,-4.59590e-03,1.55222e-01,8.69657e-02,3.28616e-03,6.95349e-02,-6.06483e-03,8.64363e-02,6.40225e-02,4.38511e-38,-3.50160e-03,1.16563e-36,5.17805e-02,
7.51645e-02,1.51779e-15,-5.74461e-02,3.40534e-02,-2.55236e-03,-2.66883e-02,4.08827e-02,1.25211e-01,-5.51355e-03,-2.50302e-02,-1.10853e-01,-2.00872e-01,2.80762e-01,2.06094e-03,1.09660e-01,7.48103e-02,1.82998e-01,-1.64240e-37,1.27601e-01,-2.65563e-02,1.73773e-02,7.37625e-02,-5.47383e-03,7.93427e-02,1.70963e-01,-7.68796e-03,2.51658e-02,-1.47376e-01,-1.08829e-01,1.51274e-01,-5.96662e-02,1.34450e-01,-2.01729e-02,-1.48133e-02,-1.24529e-01,1.20605e-01,-1.46287e-01,1.29416e-01,-4.69656e-03,5.13176e-02,1.53466e-02,1.99322e-03,-3.11177e-02,-8.85377e-03,1.15657e-01,-3.20954e-02,-1.00922e-38,-4.62691e-03,-5.75524e-38,3.62642e-02,
-2.54293e-22,
2.23710e-02,
-1.87520e-03,
-3.57866e-32,
-2.66824e-36,
7.29931e-03,
-5.72065e-03,
-9.45049e-03,
4.53023e-02,
6.76841e-37,
6.00329e-02,
6.57546e-18,
-2.87388e-04,
1.09529e-02,
-3.85443e-02,
-4.62110e-02,
1.02461e-02,
-1.40631e-37,
-2.57361e-02,
-1.25159e-38,
-3.67662e-26,
-3.43531e-02,
2.17628e-12,
-1.37417e-02,
4.59756e-25,
4.89569e-15,
7.33397e-02,
7.76958e-26,
-1.78685e-23,
1.75611e-02,
-1.04841e-02,
-8.09292e-03,
-7.40832e-03,
5.27113e-02,
1.55308e-03,
7.13453e-22,
-4.28942e-02,
2.34388e-03,
-6.38299e-34,
2.09999e-02,
1.01078e-20,
8.60008e-02,
-2.09295e-02,
-3.00612e-39,
-6.10964e-02,
4.93947e-03,
-4.01465e-02,
9.34790e-04,
-1.08173e-01,
1.95076e-02,
-5.25725e-03,6.96346e-02,1.70180e-02,7.84205e-34,-1.64977e-38,4.86068e-02,-2.72431e-02,-2.60917e-02,-5.28328e-02,-5.26855e-36,7.73309e-03,-4.63044e-04,-1.35441e-02,1.29833e-01,-6.58746e-03,6.57373e-02,1.09248e-01,-4.58762e-07,1.26683e-01,9.93870e-37,1.94453e-04,-9.68256e-02,1.22854e-25,4.91561e-02,-1.25965e-25,-2.57867e-34,-5.16498e-02,-3.82564e-26,-8.80156e-33,-7.50778e-02,1.08501e-01,-1.52878e-33,-3.64903e-02,1.28651e-02,9.91640e-02,2.83881e-10,4.67125e-02,1.35864e-01,-5.66846e-34,-7.72754e-02,2.04296e-05,-7.53390e-03,-7.62942e-03,-2.46925e-39,1.15860e-02,-4.32175e-02,1.39471e-01,-1.14834e-01,-5.22703e-02,-1.05328e-01,
-9.05204e-33,1.68526e-39,-1.15131e-39,-6.65874e-32,2.51197e-38,6.95856e-02,-6.13164e-08,-3.49159e-03,-2.44481e-02,1.50192e-38,-1.23517e-02,-4.86393e-39,-5.39064e-40,-2.91952e-23,-3.35126e-03,-1.47155e-02,4.66273e-02,8.93745e-35,1.08466e-03,1.00235e-38,-9.91489e-35,-4.66732e-02,4.64408e-25,2.51921e-37,-4.04792e-38,-2.42325e-38,4.50798e-02,-4.27343e-37,-1.66459e-38,4.87769e-02,-2.76562e-04,-4.34222e-39,-2.32728e-38,-1.31642e-24,-4.18260e-39,4.83883e-36,1.88214e-24,1.87045e-02,-5.24529e-38,3.24912e-02,-8.76538e-39,5.37536e-02,9.45846e-03,-1.31969e-33,4.34943e-02,3.37611e-02,3.12134e-02,-6.53217e-32,-1.02921e-02,-5.55257e-03,
6.79231e-31,-3.70489e-14,3.48466e-34,7.07808e-33,1.91159e-37,3.82645e-06,-2.53966e-38,-3.35598e-06,3.86387e-05,-1.26201e-37,-1.02985e-04,7.58956e-33,8.19651e-39,-2.26183e-25,-6.58788e-08,1.71970e-07,1.79255e-08,-2.27434e-38,-2.00049e-04,8.50851e-39,1.06580e-37,-3.93049e-07,3.63975e-32,1.05556e-38,-1.52357e-37,-2.41064e-38,-7.55697e-05,5.89900e-37,1.50973e-37,1.13001e-05,-7.77437e-09,1.34795e-35,-1.16325e-11,-1.18567e-16,-7.05983e-40,-2.03314e-32,1.51268e-33,-1.06679e-04,-2.63292e-38,-2.47474e-05,2.16149e-38,-3.63485e-11,-6.97383e-05,4.26949e-39,-7.23958e-06,-2.11953e-05,-2.84266e-04,2.94561e-34,-3.44079e-17,-4.46902e-08,
-9.86675e-39,5.31404e-39,1.72085e-36,3.17487e-38,2.39412e-34,-5.55358e-05,-5.84985e-39,3.62399e-22,2.79427e-38,1.47285e-37,-2.11868e-06,-6.20077e-38,3.31299e-39,2.98219e-23,3.65675e-38,9.12981e-23,-3.90898e-17,-2.01967e-38,2.50354e-30,-2.16404e-36,2.60006e-35,8.31585e-24,3.72638e-39,4.49037e-27,-1.07893e-38,1.44071e-37,6.37428e-25,1.16776e-31,-7.62672e-29,-1.34852e-12,4.56476e-24,-1.92238e-35,-8.90416e-36,8.67841e-23,6.35254e-39,5.24384e-39,-3.55225e-22,-2.22985e-19,-5.40315e-39,-8.61997e-06,-2.36140e-34,-5.07251e-08,-3.45029e-24,-1.25726e-38,-1.86339e-05,-1.95542e-04,-7.37585e-07,7.98485e-37,1.51687e-23,-1.88919e-08,
8.86914e-35,-1.45210e-39,1.88140e-30,6.30597e-38,1.90522e-40,-2.36214e-22,-5.90008e-39,-9.38696e-07,1.28663e-28,2.11436e-39,-2.79537e-04,-1.51045e-36,-6.94207e-35,4.37995e-29,-1.73188e-29,-6.71355e-12,-1.46275e-28,-2.50705e-32,-3.68457e-28,1.01162e-34,-2.78697e-33,-7.75505e-09,4.45702e-38,-3.05007e-33,1.55033e-32,1.52485e-38,-6.82841e-25,-2.74606e-39,-8.25472e-33,-6.45871e-28,-1.89406e-29,-5.25169e-39,3.46637e-34,3.19575e-26,-9.18730e-39,3.48527e-35,1.34913e-34,3.31840e-27,-1.25920e-35,-5.55164e-08,-1.79575e-35,4.71161e-31,-3.90104e-07,-1.52184e-31,-2.32630e-24,-4.17272e-10,-5.09166e-12,7.40799e-39,-9.12107e-08,-1.46042e-05,
6.31788e-03,5.88916e-02,1.60481e-02,1.49965e-30,5.88628e-31,-4.69996e-03,1.41765e-03,5.94019e-02,-3.17462e-02,-5.14870e-38,2.42358e-02,3.30623e-28,-1.29860e-02,-1.56055e-03,8.32337e-02,7.17173e-02,-1.51224e-01,1.76792e-13,4.08734e-02,4.42020e-38,3.04838e-03,1.32232e-01,1.13298e-09,2.57595e-02,-4.56952e-26,1.28210e-12,3.60487e-03,6.54572e-29,-2.94470e-23,9.07568e-02,1.90744e-02,-2.33891e-02,2.58706e-02,-1.26821e-01,-5.86408e-02,6.03272e-08,1.21857e-01,-3.07802e-02,4.72842e-37,-2.90125e-02,2.07196e-03,4.62990e-02,8.96927e-02,-7.45453e-40,-1.13305e-01,-2.86811e-02,-1.01085e-01,3.27775e-02,1.38365e-01,-6.04156e-03,
2.50858e-04,5.53291e-35,1.25624e-02,-2.49706e-34,-1.05105e-32,-4.82305e-02,3.85296e-02,1.62701e-02,2.88075e-01,1.49122e-38,1.99591e-02,4.38924e-21,-1.32536e-02,-8.46764e-03,1.58715e-01,5.04676e-02,-6.63703e-02,9.52812e-39,1.61449e-01,-5.22369e-39,1.21428e-03,1.09588e-01,9.87598e-10,4.06880e-02,5.18885e-25,1.92214e-12,8.92908e-02,4.26352e-27,3.55888e-23,1.67694e-01,-1.16487e-03,-2.48570e-02,2.83478e-02,3.25196e-03,-2.41140e-33,5.22158e-07,4.91260e-02,1.80789e-02,1.61930e-34,-3.96822e-02,1.60952e-05,2.44809e-02,3.25736e-02,-1.42451e-38,-9.47844e-02,-1.06246e-01,-1.58833e-02,7.91303e-12,7.20743e-02,3.08927e-02,
-8.57872e-39,-2.28044e-11,-8.91594e-39,5.79722e-39,3.88834e-39,-4.96736e-03,1.54060e-33,-1.74316e-03,-2.88097e-06,2.73875e-32,-5.77708e-03,9.58953e-35,-1.14860e-38,-2.54900e-05,-1.67112e-09,-6.72178e-04,-3.06782e-04,-9.17279e-40,-2.43190e-07,-8.27079e-33,-4.61531e-33,-1.24903e-03,-3.18727e-25,-2.63598e-37,-6.36581e-38,-3.76335e-37,-1.93276e-13,2.88857e-38,3.65172e-26,-2.60159e-08,2.06321e-23,5.37461e-39,6.31092e-23,-1.60184e-06,-1.86643e-38,-3.47978e-38,3.86247e-23,-3.54870e-07,6.47532e-33,-7.26221e-03,-2.46776e-33,-3.33422e-24,-2.84429e-03,7.29449e-37,-1.95044e-03,-6.79834e-03,-3.08281e-05,-1.40417e-31,-1.12647e-03,-1.99946e-03,
5.54825e-40,5.52457e-02,2.26265e-02,-1.01208e-34,-2.35884e-30,-3.77641e-02,5.39866e-03,3.64274e-03,8.63646e-02,-1.19611e-37,7.19648e-02,-1.42393e-37,-1.00384e-02,-3.25033e-03,2.57935e-02,3.74845e-02,-1.20378e-01,1.62094e-30,9.06084e-02,-2.87658e-38,2.28324e-06,1.57463e-01,5.95279e-09,-5.46008e-03,2.79959e-25,1.92709e-12,7.59050e-03,-2.27638e-27,-6.26768e-25,-3.82314e-02,-8.75410e-03,-2.70472e-03,-2.35059e-03,-1.37167e-02,-2.05334e-34,1.12626e-04,4.80458e-02,1.73519e-02,9.41267e-39,-6.69223e-02,4.63148e-04,-6.40995e-02,-2.39746e-02,-1.98595e-35,-3.92917e-02,-1.07669e-01,-2.99059e-02,-1.26533e-02,4.95316e-02,1.85280e-02,
-1.04616e-38,-1.14108e-29,6.64877e-19,-2.58541e-36,6.45778e-33,-5.09912e-03,4.38237e-35,-2.04046e-02,1.37329e-05,2.04857e-38,-2.87648e-02,5.43285e-39,3.72749e-11,5.95257e-03,-2.63992e-12,-9.06502e-03,-1.16088e-02,7.60528e-38,-6.19010e-05,-2.68385e-39,6.11259e-36,-1.39788e-02,-1.01533e-34,-4.75789e-24,4.16499e-38,2.19422e-37,7.75382e-03,-2.78824e-36,-7.59136e-35,4.95452e-03,4.26401e-05,-2.36322e-36,-1.57000e-10,-2.79088e-03,3.46240e-34,4.18031e-29,3.51404e-27,8.25598e-03,1.12803e-39,-1.27134e-02,-2.71086e-39,6.37114e-03,-1.00218e-02,-6.75872e-35,-1.17336e-02,-1.07664e-02,-1.51674e-02,-4.45442e-34,-2.06551e-02,-2.95330e-02,
5.21167e-03,6.78971e-02,4.53878e-03,-3.04389e-34,-1.72051e-30,-2.89870e-02,3.69474e-03,2.40241e-02,1.01559e-01,-1.49941e-37,9.76330e-02,2.76438e-03,-3.15580e-03,3.66960e-02,-7.08064e-02,-3.11424e-02,1.09841e-01,-1.18548e-08,1.12304e-01,7.53822e-34,1.45426e-03,1.36472e-02,3.21090e-09,4.39106e-02,-5.61410e-26,7.63415e-13,2.00664e-02,-1.72978e-25,-5.74784e-23,-5.49577e-02,-4.77016e-02,-2.85767e-02,-3.37332e-02,-3.04513e-02,6.07539e-03,3.88815e-08,-7.68830e-02,3.27504e-02,-2.68334e-34,-9.79534e-02,-1.39426e-02,-2.46225e-02,1.37325e-01,-7.63786e-39,-2.65629e-02,-9.68160e-02,-8.77360e-02,-4.45491e-02,6.26127e-02,1.38285e-01,
-7.09921e-03,-9.68347e-02,1.98573e-02,1.04403e-33,1.02255e-36,1.42544e-02,-1.74250e-02,7.99906e-02,9.20976e-03,-8.17056e-36,-9.91455e-02,-5.57531e-03,-9.10051e-03,7.88363e-02,1.04507e-01,1.07812e-02,4.91536e-02,-5.34775e-08,3.42447e-02,-1.24025e-34,8.45677e-04,-9.62478e-02,6.69057e-10,-1.65021e-03,8.50352e-25,8.50605e-15,1.63941e-01,7.48053e-26,-2.42113e-22,1.13127e-01,-1.06023e-01,4.58060e-04,-4.46155e-02,9.62345e-02,-5.60088e-02,1.95336e-07,1.11303e-01,7.68694e-02,1.05482e-29,1.18312e-01,1.85557e-02,1.47550e-02,-8.34823e-02,-2.92370e-38,1.10604e-01,1.82884e-01,-1.08563e-01,-5.58411e-02,5.96010e-02,-8.32333e-02,
1.03972e-02,7.41533e-02,-4.20833e-03,-9.00379e-34,-1.42035e-36,3.51246e-02,2.99746e-04,1.11146e-01,8.88155e-02,1.45807e-39,3.84725e-02,1.04380e-02,-9.55276e-03,-1.24415e-02,-8.71644e-02,-2.93066e-03,-1.05317e-01,-2.67816e-05,-9.78991e-02,-3.28993e-36,7.26503e-04,1.56956e-01,-3.74051e-09,2.66385e-02,1.84016e-25,-7.64162e-12,2.38975e-02,-4.98201e-26,6.76278e-23,5.25532e-02,-1.16105e-01,-2.78716e-02,-3.18275e-02,-8.54238e-02,3.33713e-03,3.72806e-07,-1.06044e-01,9.58830e-02,-1.24047e-33,-1.61853e-02,3.50005e-20,-3.66824e-02,-1.01403e-01,-1.11322e-37,-1.52281e-02,-1.77098e-01,4.70943e-02,-7.92680e-02,9.87367e-02,9.33526e-02,
-7.73792e-03,5.45271e-02,-3.74170e-03,-8.74044e-36,1.05827e-33,1.62820e-01,3.91849e-02,3.07574e-02,4.15358e-02,-5.93562e-36,-7.79586e-02,-6.55633e-03,-2.60433e-03,9.36147e-02,-6.87283e-02,-1.05298e-01,-8.95488e-02,-1.89384e-06,-6.85812e-02,-1.57373e-39,1.38576e-22,-8.34407e-02,4.83756e-09,-2.25156e-02,-1.04584e-24,1.15523e-13,-7.09906e-03,2.02606e-25,9.65151e-23,-7.33693e-03,1.13774e-01,6.28456e-03,-7.85276e-02,-5.34618e-02,-9.69782e-02,-1.23644e-04,1.20385e-01,7.75945e-02,-1.13810e-32,1.09932e-01,1.16621e-02,5.81733e-03,2.08032e-02,-7.57952e-33,-4.70850e-03,5.52524e-02,6.29601e-02,4.59121e-02,7.99744e-02,5.53266e-02,
4.28917e-32,1.16509e-35,-2.78281e-38,1.98909e-35,1.09113e-38,-2.20970e-02,-4.89217e-37,-2.65150e-02,-1.90801e-08,-1.51114e-36,-2.92443e-02,-3.64336e-39,-1.14380e-37,-3.94860e-03,-3.97738e-24,-2.46333e-02,-1.63067e-02,1.32537e-38,-2.61915e-02,-2.98321e-39,6.63499e-34,-2.01121e-02,-1.04901e-33,-9.88311e-38,1.72099e-38,-3.71509e-39,-2.93987e-24,-1.53043e-38,5.96899e-37,-8.83506e-03,2.00606e-05,1.38736e-34,-6.17259e-38,-1.09563e-02,-7.61203e-36,-8.55629e-31,-1.00504e-03,-1.05649e-04,-7.44504e-39,-2.78235e-02,-2.40772e-32,-8.42749e-04,-1.85082e-02,6.29033e-38,-2.21025e-02,-2.69668e-02,-2.32220e-02,3.44873e-38,-2.53178e-02,-2.76166e-02,
-1.39203e-36,-9.18731e-08,-6.30763e-34,7.03163e-39,6.78127e-31,-9.42254e-07,2.83583e-34,-1.09975e-06,-5.62097e-05,-6.48931e-38,-1.78302e-03,7.34460e-35,-1.17557e-37,-6.29500e-17,-5.44751e-08,-2.12582e-07,1.02442e-08,2.74919e-39,-3.00492e-04,-1.55890e-32,5.41512e-38,-2.05662e-07,-2.77466e-34,-6.10896e-31,8.11564e-38,1.75280e-36,-6.08338e-05,-7.98636e-33,-3.42591e-33,2.98006e-05,3.02699e-10,-3.07585e-38,-5.71049e-15,-4.25707e-05,2.80566e-37,9.56893e-39,-3.52634e-31,-2.12083e-04,-8.53837e-39,-2.10544e-05,-1.70350e-36,7.08682e-09,-1.04181e-05,4.59508e-38,-3.37870e-05,-1.31829e-04,-2.62429e-04,-2.04513e-38,-4.60844e-16,-5.25457e-04,
6.15233e-38,-1.20729e-38,1.24084e-32,1.61326e-33,-1.05095e-36,-3.00607e-04,-3.46808e-37,-6.77847e-04,-1.73181e-33,1.09423e-37,-3.62079e-03,-6.51569e-39,-5.91292e-36,-2.92277e-05,-1.29302e-33,-2.42182e-11,-3.01278e-09,9.71477e-39,-3.12013e-33,7.60094e-39,-8.76300e-39,-2.83332e-09,-9.16805e-37,1.76110e-36,7.03228e-38,1.99304e-32,-1.50219e-32,-1.85888e-34,2.95696e-38,6.87273e-34,-7.61603e-09,-7.62394e-39,-3.69566e-14,-5.92737e-04,2.92183e-40,3.52813e-33,-9.53576e-16,-1.84959e-04,-3.94855e-37,-1.97327e-03,3.69636e-33,-8.99953e-34,-7.79051e-04,1.36021e-39,-6.01937e-05,-3.14172e-04,-7.96131e-04,5.83663e-38,-1.11160e-05,-1.53471e-03,
-4.03186e-04,8.08250e-03,1.29459e-02,2.33614e-35,5.62555e-37,-9.26185e-02,-1.22502e-03,-6.51277e-02,7.31175e-02,-6.98090e-37,1.44587e-02,1.15016e-05,1.71994e-02,9.43803e-02,-5.65891e-02,-1.29598e-01,9.87982e-02,-1.07555e-07,-1.10298e-02,-1.92333e-36,-5.79087e-24,-1.18660e-01,1.43838e-09,2.96580e-03,-2.04353e-26,2.30289e-13,5.30465e-02,-9.56418e-27,-1.19669e-24,1.28092e-02,1.30082e-02,-8.65005e-03,-7.99617e-03,7.12970e-02,2.17831e-02,5.20340e-23,-5.97011e-02,7.25476e-02,-8.57902e-25,1.47156e-01,-5.80256e-20,2.13235e-03,-1.57286e-01,4.77591e-34,-7.65635e-03,-2.94896e-02,-6.68911e-02,1.66407e-02,4.33135e-02,7.20076e-02,
1.66018e-38,1.85620e-37,-3.90539e-38,-3.17963e-35,-1.23764e-34,-2.79610e-02,-3.43330e-34,-2.54177e-02,-7.42270e-06,-2.32752e-37,-2.69742e-02,1.97326e-39,-5.69871e-38,-6.44493e-03,4.21137e-24,-2.60113e-02,-3.09346e-02,-4.38335e-39,-2.99251e-02,3.02578e-38,7.32445e-37,-2.28042e-02,2.72056e-32,6.85281e-38,-1.18956e-37,1.81629e-38,-4.85796e-21,-6.26249e-37,1.99491e-33,-1.56907e-02,-5.13005e-06,-2.08615e-39,-1.25361e-35,-1.32500e-02,2.70190e-37,-4.91875e-40,-5.45342e-04,-9.55039e-04,4.67894e-40,-2.78136e-02,1.89302e-36,-4.72780e-03,-1.84802e-02,-1.52237e-38,-2.52597e-02,-3.20173e-02,-2.82859e-02,-1.70401e-31,-2.66510e-02,-2.69119e-02,
6.91721e-03,7.20869e-02,3.49787e-02,-9.80201e-34,1.93872e-36,-8.04439e-02,7.70723e-02,-9.54893e-02,7.80207e-03,-3.45342e-38,9.75756e-02,6.48404e-05,-1.50260e-02,-7.53562e-02,1.38681e-01,1.38098e-01,-9.42812e-03,-9.97838e-06,-4.56153e-03,5.18003e-38,3.57964e-03,1.76440e-01,1.18837e-08,2.86401e-02,2.23595e-26,9.47757e-13,-1.30611e-01,-6.56848e-27,1.68402e-23,-5.30301e-04,-8.51573e-02,4.37240e-03,1.30726e-01,-8.82942e-02,2.90031e-02,6.99972e-06,5.28223e-02,5.83566e-02,1.21073e-28,-4.09409e-02,1.05993e-04,-2.24561e-02,1.02245e-01,-1.72324e-31,9.38308e-02,-1.35130e-01,8.49501e-02,7.36571e-02,7.24108e-02,7.27986e-04,
2.06051e-18,7.62369e-03,5.27239e-03,-1.39952e-35,5.23558e-32,-6.58388e-02,1.90169e-03,-5.33316e-02,8.05515e-02,-3.43979e-39,5.46729e-02,9.05633e-36,-2.85754e-03,-1.85304e-02,3.49085e-02,6.05989e-02,-1.08212e-01,-8.10551e-38,6.62900e-02,5.96579e-39,1.27132e-05,-1.48855e-02,6.33978e-09,8.02858e-03,-5.43680e-25,-9.41061e-12,1.02530e-01,1.34879e-27,-1.16200e-24,-2.50871e-02,-1.06498e-01,7.32318e-02,-3.22641e-02,-7.11922e-02,-3.94326e-02,3.34065e-05,6.97061e-02,7.84428e-02,1.15151e-36,-1.61141e-01,6.74139e-04,-2.92239e-02,8.77543e-02,6.39167e-38,7.80634e-02,-1.45834e-01,-6.77604e-02,-6.04344e-03,6.55427e-02,2.12533e-02,
-4.00461e-03,8.03011e-03,6.87831e-03,-5.18311e-34,1.41137e-37,6.10077e-02,-3.47674e-02,-1.29209e-01,1.64446e-02,-2.69507e-32,-1.57897e-01,-1.62818e-09,-1.70063e-02,7.60418e-02,-2.63613e-02,-5.15574e-02,7.10569e-03,4.36988e-36,-1.46466e-03,-5.46552e-36,1.54143e-24,4.02061e-02,-3.29330e-10,1.31461e-02,-5.38126e-25,-3.71306e-21,3.33047e-02,-2.65052e-25,7.32167e-23,6.14063e-02,-1.70732e-03,-6.55429e-03,-1.19954e-01,1.13759e-01,4.64583e-02,-3.83534e-04,-3.04410e-02,4.59355e-02,-1.75159e-33,-5.87846e-02,1.63533e-02,6.16712e-03,1.11189e-01,8.02006e-35,4.86788e-02,9.34238e-02,-6.14215e-02,3.86191e-02,-8.11062e-03,-4.02383e-02,
-7.68415e-10,5.24343e-02,1.97020e-02,-9.67461e-33,-1.60157e-38,4.58063e-04,6.26670e-02,8.56726e-02,8.97752e-02,3.16568e-36,-1.29255e-01,2.58952e-03,2.24578e-03,6.46075e-02,-3.93741e-02,-7.91677e-02,6.47320e-03,3.08902e-21,-3.18218e-02,-3.79133e-39,-3.78850e-03,-1.18559e-01,1.04108e-09,-6.65271e-03,-2.74286e-25,3.12820e-14,2.90636e-01,1.39352e-26,-2.16265e-22,5.45443e-02,-2.11129e-02,2.66489e-03,-2.43091e-02,5.72446e-02,-1.66414e-02,-5.19624e-03,9.27970e-02,4.01246e-02,5.11793e-34,1.20713e-01,1.40094e-02,1.08636e-01,-3.82949e-02,-9.76338e-36,4.74381e-02,-7.34730e-02,7.35994e-02,-4.72650e-02,-1.47679e-01,-2.01219e-01,
4.03775e-03,-1.25815e-01,1.15715e-02,6.45659e-34,-1.06430e-33,7.42067e-02,-9.45323e-03,1.27116e-01,-1.28198e-02,3.75957e-38,1.23773e-01,4.35299e-03,9.94874e-03,-7.08823e-02,-6.02310e-02,-3.35410e-03,5.83992e-02,5.41083e-08,9.67914e-02,7.99798e-39,8.83428e-05,1.37959e-01,3.35495e-09,2.33221e-02,8.53509e-25,8.94763e-13,-8.25587e-02,4.78522e-25,-1.28317e-23,5.79908e-02,8.81774e-02,9.47092e-03,-1.01608e-01,7.46779e-02,6.06735e-03,2.00133e-19,4.84055e-03,-1.14503e-01,7.43056e-34,-1.18298e-01,-1.66666e-02,4.90309e-02,-4.55969e-02,3.01362e-38,5.24647e-02,-1.06047e-01,1.03548e-01,4.48010e-02,1.34421e-01,6.70612e-02,
1.52409e-38,-1.11437e-01,2.82057e-02,-2.72081e-34,7.71108e-36,-6.65011e-03,4.00056e-02,1.07228e-01,4.59213e-02,3.83452e-39,2.63588e-02,1.37766e-03,4.01226e-03,2.28033e-02,-2.16211e-02,-3.75973e-02,-3.75056e-02,-3.49275e-13,2.79091e-02,-1.01635e-37,1.34811e-03,-2.64138e-02,-1.04954e-08,4.16811e-02,1.97578e-25,7.04133e-13,-2.90332e-03,-3.09961e-26,-2.18275e-23,-3.22123e-02,-1.35013e-02,-2.08135e-02,8.26315e-02,9.71163e-02,8.25938e-03,-8.24345e-21,2.22918e-02,-1.24863e-01,1.27067e-34,-9.08006e-02,1.59964e-03,-7.82236e-03,3.23370e-02,5.88594e-39,-1.91862e-02,-8.04088e-02,5.87964e-02,4.79201e-02,-1.59611e-02,1.18741e-01,
-1.80007e-38,1.29716e-03,2.06889e-02,-1.49938e-33,4.96738e-37,-9.36185e-03,-4.29679e-03,-1.69634e-02,-1.35774e-02,8.62566e-39,3.23669e-02,4.29623e-04,-1.61952e-02,1.65138e-02,1.34534e-02,-3.67302e-03,-6.38255e-02,-9.46940e-35,5.36065e-02,2.64234e-37,3.11138e-08,-3.77972e-02,-7.92546e-09,3.76720e-02,-9.26761e-26,-3.76671e-12,8.76111e-03,1.54044e-28,-9.06377e-24,3.43266e-02,-2.69912e-02,-6.29537e-03,5.11926e-03,6.42058e-04,-5.30069e-04,3.84870e-06,-4.54474e-02,-6.38828e-02,-5.54569e-38,-3.38722e-02,1.33068e-03,-1.42155e-02,1.23950e-02,-1.48194e-38,-1.00748e-01,-1.65973e-01,-6.11924e-02,-1.66955e-02,6.84629e-03,6.89170e-02,
4.03026e-03,1.35474e-02,-3.61205e-03,1.21043e-28,5.47539e-36,-6.91953e-02,2.04560e-02,9.29332e-02,1.71700e-03,2.39334e-36,6.23183e-02,1.45630e-02,6.33592e-03,-1.38530e-02,2.14984e-02,5.91032e-02,5.84938e-02,-4.74944e-04,7.41558e-02,3.60994e-34,4.58061e-06,4.65172e-03,-9.40121e-09,2.58451e-02,4.89956e-25,3.46074e-12,-2.96933e-03,1.33045e-25,-6.46032e-23,5.48994e-02,-1.02893e-01,-2.28418e-02,3.15866e-02,3.18456e-02,-6.26751e-02,5.59683e-14,1.75209e-02,1.23699e-01,-2.36826e-33,3.39102e-02,-1.02401e-02,-1.53676e-03,1.11592e-01,1.12213e-37,-1.07861e-01,-2.24775e-01,8.16838e-02,-1.06454e-01,1.97215e-01,1.50616e-01,
-2.62075e-10,1.84198e-02,8.15982e-03,-1.22622e-34,-8.08363e-34,8.19285e-02,8.60623e-03,-9.29410e-02,1.03056e-01,-2.42623e-37,-1.30241e-01,8.39023e-06,-1.99529e-02,-2.46543e-02,5.06035e-02,-7.55454e-02,9.67496e-03,9.48377e-24,1.02782e-01,-7.86938e-39,1.18187e-06,4.57180e-02,-2.08436e-13,3.58862e-03,1.14383e-25,1.65583e-21,1.11613e-01,7.55951e-26,-5.53659e-23,1.21036e-01,3.93400e-02,2.22549e-02,1.36144e-03,1.20275e-02,4.37225e-02,-1.97247e-04,1.55805e-02,1.14337e-01,4.93865e-38,7.93961e-03,1.54726e-02,-6.83598e-02,-1.00878e-01,2.21605e-38,-1.11125e-01,3.47892e-02,4.20542e-03,-3.83337e-02,-5.21668e-02,-1.49708e-02,
5.88464e-33,-1.83313e-38,6.25959e-03,-2.29977e-38,-4.23150e-38,-8.19316e-02,6.70022e-02,1.56214e-02,3.20191e-01,-2.54826e-34,3.08016e-02,-1.62365e-27,-2.22635e-02,-9.63775e-03,2.52680e-01,5.35118e-02,-6.87836e-02,-1.30626e-37,1.31619e-01,-2.07462e-38,3.18463e-03,1.21748e-01,2.21392e-09,3.82990e-02,1.31636e-25,4.43477e-12,7.85079e-02,-4.71998e-26,-6.04464e-23,1.53106e-01,-8.55098e-03,-3.05708e-02,3.31381e-02,2.75347e-02,9.59146e-38,7.09317e-04,-2.27955e-03,4.70794e-02,-2.60016e-31,-5.05108e-02,7.08294e-04,5.95552e-02,4.74828e-02,-3.62648e-39,-1.46197e-01,-1.32344e-01,-1.01770e-02,1.85529e-36,6.68240e-02,4.36185e-02,
2.65275e-16,-9.16233e-04,-9.39727e-04,-7.68324e-37,1.15538e-38,-4.19152e-02,-2.64499e-04,-3.29414e-02,-8.28474e-03,-1.18313e-35,-1.73829e-02,4.15494e-25,-4.49345e-39,-1.83143e-02,-7.01500e-03,-3.88384e-02,5.69349e-02,3.82004e-31,-4.53343e-03,-1.57090e-37,3.38901e-08,-6.68757e-02,-1.99415e-35,-7.76592e-04,-2.25020e-26,-3.54674e-21,-2.59635e-02,3.31290e-26,1.93884e-25,-6.99381e-02,3.42787e-02,1.15868e-37,-3.49290e-02,-6.25582e-02,3.43110e-04,-1.61603e-35,-2.49058e-04,-2.04955e-02,6.07048e-32,-4.18391e-02,-9.52672e-05,-1.20543e-02,-6.09068e-03,-2.31086e-38,-8.45530e-02,2.09642e-02,-3.46616e-02,-1.54012e-03,-7.23585e-02,2.84878e-02,
2.33575e-35,9.77433e-02,-7.45047e-03,2.27659e-34,-5.85073e-37,2.67716e-02,1.78572e-04,9.86422e-03,8.92267e-02,-2.06672e-36,-1.15654e-02,8.03218e-05,-9.95794e-03,1.18772e-01,4.95730e-02,-2.32175e-03,8.08931e-02,-1.49921e-10,4.02350e-02,-6.61031e-34,-1.85907e-07,1.94513e-02,3.74005e-19,4.89768e-02,2.69567e-25,9.81208e-13,1.32196e-01,-8.45904e-26,1.61336e-23,-1.53910e-01,-1.92338e-02,-2.65621e-02,7.25575e-03,2.15480e-01,4.65667e-02,-3.32677e-16,1.35674e-01,1.36198e-02,-2.50169e-34,1.41037e-01,1.38919e-02,-2.62643e-03,-7.97848e-02,1.01053e-39,-1.17681e-01,-1.23484e-01,2.42168e-02,5.82981e-02,-7.00583e-02,1.25592e-02,
8.72605e-05,5.11191e-02,2.31588e-02,-2.88146e-38,-7.61559e-37,-1.01759e-01,1.31658e-02,-4.90215e-02,1.36452e-02,-6.19394e-39,1.04861e-01,1.12573e-03,-1.43979e-03,-6.73913e-02,-7.33557e-02,4.81232e-03,-5.19424e-02,2.33064e-22,9.50354e-02,-9.08585e-39,1.23036e-07,1.42540e-01,-5.50062e-09,3.11749e-02,-6.68344e-25,1.97196e-12,7.48917e-02,7.28475e-26,-4.22886e-23,1.21030e-01,-3.86856e-02,-1.04252e-02,-7.85785e-02,-4.41956e-02,-7.30660e-03,2.99121e-06,-4.16339e-02,6.50731e-03,-1.49271e-38,-1.70897e-01,8.88049e-03,9.91160e-02,4.32623e-02,-1.18374e-38,-2.69110e-02,-1.50003e-01,-2.54415e-02,-6.58385e-02,1.53739e-01,7.85142e-02,
8.69490e-04,-2.23637e-02,8.94610e-03,2.25570e-34,-2.49484e-36,-1.19300e-01,3.26619e-02,-8.12115e-02,1.11346e-01,-4.24789e-31,1.12750e-01,-2.17292e-04,1.81783e-02,1.39488e-02,-7.97091e-02,-1.06206e-02,-5.72177e-02,1.94359e-06,-6.82406e-03,5.75923e-39,8.42274e-05,1.66980e-02,2.44116e-10,1.08657e-02,-8.47255e-26,2.30856e-13,-4.54874e-02,-2.31850e-25,-1.03066e-22,-8.48279e-02,-2.71550e-02,1.96121e-03,-5.42392e-02,3.94797e-04,1.45261e-02,3.59221e-03,-1.10720e-01,9.89458e-02,-3.78004e-35,1.56459e-02,-1.71621e-02,5.37640e-02,6.24431e-03,-9.26703e-37,2.05357e-02,6.00763e-02,1.27609e-01,-3.14933e-02,1.53689e-01,1.24623e-01,
-3.15201e-06,9.72474e-02,5.81049e-04,-3.99705e-35,2.57896e-37,1.06510e-01,7.46911e-03,1.01956e-02,6.33695e-02,2.16414e-36,-1.56735e-01,5.33311e-07,-1.14524e-02,3.67768e-02,9.96589e-02,-3.32475e-02,4.36093e-02,-5.15940e-09,-1.16624e-02,-7.27124e-39,1.07415e-05,4.93391e-02,-2.08421e-13,1.74785e-02,-4.39662e-26,-3.43374e-23,1.27141e-01,-2.96236e-26,-2.31345e-23,1.10141e-01,5.14553e-02,6.53047e-02,1.69731e-03,6.43802e-02,7.36742e-02,-1.48671e-04,1.10431e-01,-7.39046e-02,7.42368e-35,-7.60241e-02,2.44252e-03,1.22624e-02,7.82676e-02,-1.12607e-35,4.73819e-02,-8.38702e-02,-1.44437e-02,1.57861e-03,-1.20932e-01,6.55752e-02,
1.24078e-32,1.69456e-38,-8.31155e-39,1.27619e-36,-1.74059e-37,-1.13483e-11,3.56284e-39,-5.85900e-21,5.47216e-36,5.16498e-37,-1.73177e-05,4.51267e-38,-1.32179e-36,-1.32807e-31,-2.86593e-31,-4.76858e-29,-9.44208e-26,1.01678e-36,-2.11518e-33,2.31668e-36,1.31045e-38,4.16926e-28,3.37847e-38,-1.46265e-32,-2.33171e-38,1.12284e-34,-1.62840e-30,-2.36146e-35,1.40851e-38,-2.56416e-31,-5.56473e-13,1.44626e-37,-3.35656e-33,1.88101e-23,-1.80162e-38,-7.52021e-34,-2.46283e-33,-4.57160e-11,-8.26775e-36,-3.34992e-07,2.20487e-33,4.25310e-30,-6.39519e-13,6.26876e-38,-5.08773e-13,-4.06361e-08,-4.03900e-10,-1.68571e-38,-2.21856e-30,-1.33310e-08,
-1.56011e-03,5.92449e-02,1.10504e-02,-1.86556e-34,1.64153e-37,-5.51255e-02,7.22083e-02,-3.15037e-02,1.52993e-01,3.35783e-35,-1.54169e-01,-1.12998e-03,-1.98130e-02,3.11502e-02,5.76620e-02,7.44467e-02,-2.51968e-02,-8.71535e-36,4.70998e-02,1.78873e-38,-5.05717e-25,-3.39393e-02,2.11579e-09,-6.13828e-03,-1.46314e-25,-2.09366e-15,7.70851e-02,-5.24868e-25,-1.23167e-22,2.17155e-02,-1.87165e-02,-7.33082e-03,-9.24505e-02,2.06982e-02,-5.97239e-02,-3.17423e-03,2.34084e-02,-4.58236e-02,5.25629e-34,1.35412e-01,1.97725e-02,2.11488e-02,-6.43443e-02,1.29555e-38,-5.55733e-02,1.20371e-01,6.40648e-02,-3.43400e-03,-1.02741e-02,2.38361e-03,
-4.41769e-03,-1.05631e-01,5.25805e-03,7.92233e-34,9.47645e-33,8.08083e-02,-4.69207e-03,2.93956e-02,-8.38329e-02,-1.22690e-32,5.07756e-02,-5.16597e-03,-8.89421e-03,1.15291e-02,-8.66521e-02,9.82277e-02,7.62126e-02,-2.19935e-08,8.46516e-02,1.63392e-39,1.93646e-04,3.56099e-02,-2.49151e-09,5.44287e-03,-2.03010e-25,-5.00506e-15,5.20483e-03,-9.38043e-27,-2.91463e-23,6.72847e-02,-4.63184e-02,1.41990e-02,1.06904e-01,1.04693e-01,2.13965e-02,2.18651e-07,-6.72694e-02,8.01300e-02,2.22878e-35,1.05448e-01,1.09092e-02,7.27898e-02,9.27579e-02,1.80461e-38,6.65246e-03,1.55641e-01,-1.71301e-03,2.24641e-02,-4.20015e-02,-1.79477e-01,
-2.05751e-38,-1.23694e-37,-5.54853e-35,6.09512e-39,-2.15006e-39,-3.55914e-15,1.67195e-35,4.13635e-23,4.63385e-19,-1.63759e-38,-1.26299e-10,3.16351e-34,1.68375e-30,-2.49718e-27,4.09176e-28,-7.48713e-28,-6.02258e-21,-2.27149e-37,-1.97468e-19,5.31163e-38,1.38848e-39,1.83402e-27,-1.60760e-38,-9.84583e-38,-1.66334e-38,9.27254e-39,8.71536e-16,2.46396e-39,-7.84781e-36,-2.15313e-18,-6.40582e-20,-2.66683e-36,-3.63404e-35,9.42458e-27,-1.36046e-38,1.61352e-31,-3.94573e-32,4.46106e-19,-3.60733e-31,-2.30238e-13,3.19348e-34,6.45443e-19,-1.07629e-27,7.91583e-35,-1.39706e-13,-3.19644e-13,1.20066e-16,2.54115e-36,-4.84212e-27,1.66581e-16,
-6.75537e-04,-9.46795e-02,3.47752e-02,1.70179e-34,-8.63986e-39,5.14776e-03,-3.99418e-03,-7.49836e-02,4.03339e-03,2.46292e-37,-1.12840e-02,-5.75505e-04,7.00858e-03,9.27106e-02,-5.85562e-02,1.62290e-02,3.50523e-02,5.39234e-19,-9.29927e-02,-2.27248e-39,-2.92751e-16,7.89808e-03,-3.19714e-14,1.36811e-02,2.34130e-25,3.45634e-15,-2.64843e-03,-1.49764e-26,3.74109e-23,-7.03631e-02,1.61527e-03,1.92244e-02,1.25368e-01,6.52551e-02,-6.17135e-02,1.09862e-05,1.45986e-02,-1.04302e-01,-1.57647e-34,-9.21527e-02,-2.12895e-03,5.91556e-02,5.90948e-02,1.02862e-33,4.21462e-02,2.95038e-02,7.26885e-02,9.47157e-04,2.95662e-02,-1.17177e-01,
-8.69456e-03,8.97518e-02,1.68369e-02,-3.66652e-33,-1.81051e-38,1.21042e-01,-5.51771e-03,5.05885e-02,-6.54093e-02,3.13569e-36,-1.21914e-01,-5.92866e-03,-2.31239e-03,4.38816e-02,-1.13109e-01,-7.17514e-02,-2.86158e-02,-8.11372e-06,3.74041e-02,-5.86374e-34,6.46275e-03,1.03139e-01,1.77355e-09,-8.64703e-03,9.71936e-25,-6.27378e-15,1.71834e-01,4.40093e-25,4.25688e-23,-6.16805e-02,-5.78953e-02,-3.86703e-03,7.54815e-02,1.44151e-01,-2.83541e-02,-1.96911e-03,-1.14245e-02,-7.21041e-02,8.89429e-32,2.23421e-02,1.80374e-02,8.55821e-02,6.70815e-02,-1.82004e-38,1.20772e-01,9.56789e-02,-6.23562e-02,4.59863e-03,-4.62655e-02,-1.53582e-01,
6.02939e-05,6.82189e-02,2.68836e-02,-3.37295e-33,-9.33254e-37,-1.16534e-01,4.86853e-02,1.49588e-01,1.94243e-01,3.03515e-34,6.10750e-02,5.80615e-03,-2.05443e-02,7.80449e-02,6.82564e-02,4.71862e-02,-7.70700e-03,-1.07364e-11,-5.26137e-02,-1.44440e-37,6.04015e-03,1.34170e-01,-7.02555e-09,3.75799e-02,-3.29866e-25,1.74907e-12,-3.43321e-02,2.47802e-26,-2.45779e-23,5.62177e-03,8.64521e-02,-3.22560e-03,-3.51144e-02,4.23875e-02,7.25762e-02,8.42546e-05,1.19786e-01,-1.07301e-01,-7.96833e-34,-1.24464e-01,1.39606e-03,-8.62340e-02,5.62916e-02,6.25205e-33,-1.06276e-01,-1.61587e-01,9.39660e-02,2.88579e-03,5.42030e-02,1.01061e-01,
-2.16438e-36,-1.38174e-30,3.07041e-02,5.28343e-38,-5.67934e-36,-2.94389e-02,3.04185e-09,-5.89137e-02,2.31595e-03,4.46095e-38,-5.79773e-02,2.82229e-38,6.70678e-34,-2.01773e-02,-7.02009e-03,-7.50317e-03,-1.53280e-02,-1.67553e-37,2.91153e-03,-2.32951e-39,-8.09040e-29,-7.46191e-03,7.17644e-17,4.12786e-03,1.46194e-26,1.16511e-23,8.43073e-02,1.42772e-27,1.05587e-24,4.68228e-02,2.48025e-02,3.47602e-23,-1.75159e-25,-1.66913e-02,-4.53701e-32,2.16653e-22,-1.84972e-02,7.99379e-02,-1.81553e-34,-3.55708e-02,2.08812e-27,7.10172e-02,-5.75206e-05,-1.92258e-38,-2.87180e-02,-2.44889e-02,-3.99578e-02,-1.51740e-36,-3.61297e-02,-6.97734e-02,
3.71010e-38,9.10156e-39,4.16919e-39,-4.18130e-35,1.17159e-38,-3.54352e-02,-3.63766e-39,-2.32901e-03,-1.06832e-02,1.00106e-37,-2.57704e-03,-3.96841e-28,8.40431e-39,-1.23148e-02,-1.78925e-24,7.76193e-03,-2.10530e-02,5.13180e-39,-1.02580e-02,-3.34055e-39,7.90106e-35,4.72212e-03,6.81599e-31,1.48196e-35,-3.03260e-38,-1.25995e-31,-3.11378e-02,4.95571e-40,5.60360e-29,-6.44337e-03,-8.87242e-05,-3.64927e-34,-3.67452e-13,-4.56753e-02,8.26923e-33,6.81489e-31,-8.98621e-04,-4.73187e-03,-3.57787e-37,-1.22420e-02,-7.74205e-37,-5.97794e-25,3.96912e-03,6.27462e-37,-6.27221e-03,-1.45980e-02,-5.39966e-03,-1.26999e-37,3.64786e-03,-5.98312e-03,
7.09485e-03,8.71490e-02,-6.58552e-03,3.75315e-38,3.51960e-37,-9.17612e-02,-4.90897e-02,-9.77629e-02,1.43817e-01,-2.43281e-33,1.35450e-01,7.84682e-03,4.98421e-03,-4.07355e-02,5.61902e-02,2.75975e-02,-5.57066e-02,2.63872e-11,1.37390e-01,9.41752e-34,3.12900e-14,1.34002e-01,4.01346e-09,1.90039e-02,7.87618e-26,1.11773e-12,6.39457e-02,4.95480e-26,1.30293e-23,-5.51938e-02,-2.28484e-02,-1.42113e-03,-8.00399e-02,4.39318e-02,-7.56091e-02,5.89248e-10,3.48704e-02,-4.42932e-02,1.55117e-38,-5.52705e-02,2.15575e-08,-4.24340e-02,8.76927e-02,6.13363e-39,-1.01862e-01,-3.79031e-02,1.58452e-02,7.90151e-02,3.07733e-02,2.22734e-02,
-1.66510e-09,-1.24266e-31,8.14368e-03,3.25974e-33,-9.51220e-35,3.73653e-02,9.04310e-02,-6.07222e-02,2.46477e-01,-1.24981e-38,-1.21576e-01,2.64712e-03,-7.04516e-03,4.64552e-02,6.67098e-02,1.20930e-01,1.56227e-02,7.17537e-28,9.35256e-02,6.89032e-33,-1.24329e-03,8.96817e-03,-4.71527e-10,3.14671e-02,6.41260e-25,1.49080e-13,2.65716e-01,-4.58823e-26,-1.23739e-22,1.76658e-01,7.54075e-02,-1.34597e-02,-7.28274e-03,1.45173e-02,6.14533e-31,-6.65312e-03,1.17268e-01,7.32687e-02,-3.17210e-38,-4.79766e-04,2.09509e-02,1.10723e-01,-3.80692e-02,4.68583e-33,2.83092e-02,2.43297e-02,-2.06388e-02,-8.46860e-39,-4.36749e-02,-1.87724e-01,
7.24631e-03,3.48234e-02,-9.98039e-03,-9.77072e-34,-1.86281e-38,-2.47166e-02,-4.99810e-02,-1.70250e-02,-8.94105e-02,-6.67144e-35,1.91128e-01,3.86889e-03,1.63142e-02,1.11456e-01,-3.42508e-02,-8.24932e-02,9.82412e-02,3.88144e-08,6.29584e-02,-4.93185e-37,-1.37948e-06,3.08054e-02,-2.58531e-09,1.24688e-02,4.04158e-25,4.92517e-13,-9.04325e-02,5.53802e-25,2.65922e-22,-1.24626e-02,4.49710e-02,1.67561e-03,1.28897e-01,-6.63648e-02,-4.53198e-04,7.07667e-03,9.89986e-02,-4.39244e-02,1.16583e-33,-9.71964e-02,-1.96814e-02,1.12882e-01,-8.24491e-02,1.25247e-38,1.49626e-01,-6.23021e-02,2.20119e-02,-7.21103e-02,1.24345e-01,1.60703e-01,
6.39379e-34,-4.99896e-02,-8.45516e-03,1.85883e-38,1.04651e-33,-4.63840e-02,1.33168e-01,-5.04234e-03,2.79582e-01,4.67248e-36,2.32695e-02,-1.06316e-16,1.53610e-02,-1.25702e-01,1.76157e-01,3.60390e-02,-3.18459e-02,1.06102e-39,1.30379e-01,5.13503e-35,-4.65319e-03,2.12138e-01,-1.53492e-09,5.11925e-03,7.99048e-26,2.26955e-14,2.60405e-01,1.08836e-26,-1.57211e-22,1.24018e-01,1.07609e-01,-6.79554e-03,-1.23562e-02,-1.31097e-01,-1.05338e-30,1.57318e-21,-5.55612e-02,8.70238e-02,-2.97914e-34,-9.53542e-02,1.12914e-02,1.78679e-01,3.37374e-02,1.32549e-38,-3.67109e-02,-2.45002e-02,3.32449e-02,-1.41616e-32,5.30012e-02,-2.09106e-01,
-6.47165e-36,-6.82518e-05,1.55760e-36,-6.82181e-31,6.25714e-39,-1.99453e-02,2.32669e-36,-1.61376e-02,4.70426e-05,2.28978e-37,-2.45239e-02,-1.24369e-38,-3.61553e-32,-6.16759e-03,-2.63290e-07,-9.20274e-05,-1.49649e-02,3.24906e-37,-3.83899e-04,2.51892e-39,1.29814e-38,-9.65147e-05,-1.46249e-38,-4.88998e-37,-8.14330e-36,-1.24388e-33,1.76367e-08,3.30083e-37,1.67202e-37,-1.86427e-13,-2.90145e-31,-2.51334e-37,-3.12333e-04,-2.11295e-10,-8.37058e-36,9.31822e-39,5.42534e-36,-3.64842e-04,-1.21107e-30,-2.31599e-02,1.43566e-37,-2.61035e-13,-1.27063e-03,-6.26151e-36,-2.11100e-02,-2.26711e-02,-1.79638e-03,-7.00077e-11,-1.98098e-04,-2.38609e-02,
8.11924e-39,5.40289e-32,-2.91197e-10,-2.37031e-32,-5.34655e-36,-1.27459e-02,6.99359e-08,-9.61322e-03,-8.56093e-03,-5.01182e-36,-1.83963e-02,-5.16909e-39,-1.82923e-37,-1.68884e-02,3.08187e-07,2.93159e-04,-1.68005e-02,3.90339e-38,-1.20873e-03,-4.18199e-37,1.91046e-38,-5.67921e-03,-6.38914e-23,-1.36832e-02,-1.44722e-35,4.65880e-39,5.53319e-03,-2.19058e-38,2.39544e-23,4.35361e-02,-1.41675e-05,3.19341e-37,3.14077e-38,-1.36855e-03,3.19759e-39,-2.27953e-17,2.73195e-02,3.73695e-02,6.50013e-37,-1.33196e-02,3.79530e-31,4.30415e-02,-4.07126e-03,-7.45043e-39,-1.35935e-02,-1.10508e-02,-1.01893e-02,-1.38031e-31,-6.51859e-03,-2.03474e-02,
-6.94198e-21,-3.01514e-03,1.18923e-02,8.75363e-33,7.53679e-31,-3.62558e-03,3.23396e-02,-5.98526e-02,6.52516e-02,-2.47648e-36,-9.18109e-02,3.31608e-03,-1.46344e-02,5.52801e-03,-1.54352e-02,5.76446e-02,-4.03135e-03,-1.41031e-37,1.26618e-02,-7.38167e-38,1.56939e-09,1.22826e-03,-4.86199e-13,7.74189e-02,6.33878e-26,-1.56926e-21,1.39801e-01,-5.00146e-26,-7.36158e-24,2.87537e-02,4.26632e-02,-2.58878e-03,1.40194e-03,-9.45138e-03,1.93291e-02,1.87279e-18,2.31147e-03,1.26014e-02,-7.60180e-37,-6.96668e-03,-8.57506e-28,5.92837e-02,-4.11937e-02,1.13689e-37,2.53008e-02,1.21352e-02,-1.48453e-02,-2.14476e-02,-4.24363e-02,-1.18645e-01,
1.46244e-02,
1.02761e-02,
8.85407e-33,
4.96070e-22,
-6.56851e-29,
1.22665e-02,
-4.40549e-02,
-1.29207e-08,
5.65478e-02,
-3.34640e-03,
-4.17078e-03,
8.25885e-02,
-8.99247e-02,
1.30750e-01,
-7.61430e-03,
-9.38340e-18,
-1.18206e-23,
-7.74400e-02,
-1.65389e-02,
-7.73045e-02,
-4.28556e-03,
-5.30046e-02,
4.95858e-02,
1.05600e-01,
-2.30830e-02,
-3.40087e-02,
-5.82239e-03,
-2.15284e-02,
-4.13283e-02,
-3.58199e-02,
2.79986e-02,
-1.16709e-02,
2.35784e-02,
-4.00313e-02,
-2.43598e-33,
-9.63711e-03,
1.88684e-02,
-2.24121e-14,
-3.46803e-02,
-4.51454e-02,
-5.09064e-02,
-2.30194e-02,
-2.77668e-03,
2.55385e-02,
6.74068e-03,
8.96148e-02,
-5.79875e-03,
-3.12398e-03,
-1.04366e-02,
-1.44034e-02,
-8.79847e-02,2.64553e-02,-5.67266e-39,9.09680e-24,-8.49267e-24,-8.30296e-02,4.06193e-02,1.85810e-05,1.78386e-02,3.79302e-03,-1.37353e-01,-5.96984e-02,8.05155e-02,-9.86241e-02,-1.13043e-02,-8.80254e-34,4.38552e-28,-6.64550e-02,-1.76899e-02,1.29939e-01,6.83405e-02,-2.38290e-02,-1.14685e-01,8.82645e-02,3.89624e-02,1.04755e-02,-5.11924e-02,-2.80605e-02,1.19141e-01,-4.68322e-02,-4.76884e-03,7.10376e-03,3.34407e-02,-1.25978e-01,6.36542e-33,-4.35287e-02,5.00462e-03,1.51358e-27,-1.78484e-01,1.70327e-03,1.14278e-01,1.76388e-03,-1.24641e-02,3.26170e-02,1.09588e-01,6.82800e-02,8.98864e-02,4.67262e-07,-1.68304e-02,-1.53322e-02,
2.45880e-02,1.05903e-02,-3.21718e-10,1.68264e-04,-9.73613e-29,1.30743e-01,2.91321e-02,6.26820e-05,-5.59364e-03,8.95347e-03,4.29470e-02,-6.25693e-03,1.57906e-01,-9.79041e-03,-1.09645e-02,4.08595e-08,1.68836e-09,-7.25076e-02,-9.34545e-03,3.57912e-02,5.97133e-02,-3.67164e-02,-6.78381e-02,1.09387e-01,-1.24246e-02,7.31582e-02,1.15296e-01,1.13478e-01,8.47722e-02,-1.83698e-04,4.66945e-02,1.18689e-01,3.17428e-02,-6.27484e-02,7.58964e-10,-1.00702e-01,1.25510e-01,2.13212e-15,1.11896e-01,-7.66962e-02,-2.87817e-02,1.25791e-02,1.50797e-02,4.37182e-02,2.26495e-02,1.34165e-01,-2.50497e-03,4.79375e-03,3.62664e-02,1.26718e-02,
-1.17635e-01,3.06144e-03,1.09104e-36,-4.28526e-22,3.53895e-15,4.01290e-02,1.16220e-01,2.23363e-04,7.86976e-03,1.07859e-03,1.00178e-02,-1.41609e-01,1.74602e-01,-1.16313e-01,-1.66560e-02,1.03872e-20,-1.53537e-27,-8.73011e-02,-1.56150e-02,8.86890e-02,3.30761e-02,6.13808e-02,1.30860e-02,-5.12550e-02,3.32677e-03,3.87565e-02,-7.61903e-02,5.85519e-02,1.57218e-01,-3.21991e-02,1.18144e-01,3.74528e-02,1.36199e-01,1.26915e-01,6.47540e-34,-8.64417e-02,5.29195e-02,-9.57579e-22,-1.50036e-01,-4.21876e-02,1.73271e-01,3.29937e-03,-1.12061e-02,9.37302e-03,1.32138e-01,-8.73616e-02,1.42861e-01,-3.86451e-06,-1.02271e-02,-3.53284e-03,
5.78388e-09,-7.46441e-36,-1.71745e-34,-8.43814e-39,-2.52656e-39,-1.47238e-04,-3.98583e-03,-6.30570e-37,-1.16253e-02,6.92722e-38,-7.72087e-03,-2.16598e-02,-1.60079e-02,-1.91676e-02,-1.29823e-38,1.55368e-37,-6.26496e-39,9.92061e-04,2.03842e-31,4.50913e-03,-1.12279e-02,4.66045e-09,-3.21140e-08,-2.42022e-03,-2.53472e-02,-8.82437e-03,-4.92920e-03,2.14080e-08,-8.69617e-03,-2.10165e-22,-2.09230e-09,-1.23879e-02,-2.18716e-02,-1.51749e-07,-1.25535e-38,-8.52668e-03,-2.70970e-02,1.19194e-34,-1.57705e-02,1.08599e-02,-2.35314e-02,1.47677e-09,-1.38611e-36,-1.78089e-03,-6.01557e-08,-1.78882e-02,7.21962e-08,1.35702e-31,2.66513e-11,3.94888e-08,
-3.89840e-02,-4.68942e-02,1.02606e-17,-2.60003e-08,-7.83436e-29,1.41632e-01,3.11836e-03,7.30737e-05,-5.49004e-02,9.48264e-04,-7.02173e-02,3.54066e-02,-2.17918e-02,1.14133e-01,5.83471e-03,-1.42783e-17,4.12188e-10,5.69883e-02,2.95297e-03,-7.44606e-02,-5.96883e-02,3.44916e-02,-3.29640e-02,-8.89466e-02,-1.70046e-01,-1.95768e-03,3.79944e-02,5.87014e-02,4.34122e-02,4.40024e-02,6.32204e-02,-1.80934e-02,1.35488e-01,-3.02278e-02,-6.07191e-15,4.60863e-02,9.60586e-02,1.39280e-16,-6.19258e-02,1.19657e-01,-1.55336e-01,-8.75658e-04,-6.11131e-03,-6.85081e-02,5.65246e-02,-4.17634e-02,5.40117e-02,-2.55052e-04,-1.93572e-02,1.90521e-02,
7.16221e-02,-3.32789e-02,2.32143e-21,-3.10504e-12,2.27409e-29,-7.37067e-02,1.24122e-02,2.21854e-07,1.76051e-02,-2.39713e-03,-1.17963e-01,1.04399e-01,-9.96482e-02,-1.23992e-01,6.41647e-03,-1.60839e-17,2.80838e-14,-6.69826e-02,6.70600e-03,1.39294e-01,-7.06565e-03,8.31378e-02,-6.53186e-02,1.91393e-02,-8.11683e-02,1.37218e-02,2.32107e-02,4.79101e-02,4.64019e-02,-6.51184e-02,4.21409e-02,-6.30637e-02,4.87913e-02,-8.82463e-02,-6.60574e-21,1.34744e-01,1.40252e-01,-1.03257e-16,1.05637e-01,-1.01430e-01,-5.58291e-02,-3.95942e-03,-3.07264e-03,-7.45430e-02,8.93048e-02,7.60436e-02,2.72455e-03,-5.77374e-05,-3.30249e-02,2.22868e-02,
-1.05593e-01,4.57413e-02,-5.47259e-21,-1.51076e-06,-1.03849e-27,-7.36808e-02,1.43392e-02,-4.53927e-19,-1.25060e-02,1.49610e-03,-2.11468e-02,3.72578e-02,-6.84631e-02,5.33960e-02,-1.41903e-03,1.84709e-17,-9.06800e-27,1.23999e-01,2.34648e-03,-1.48903e-01,-4.82586e-02,8.87696e-02,1.19803e-01,-1.39032e-01,3.89270e-03,-5.85949e-03,4.67706e-02,-3.70071e-02,3.98145e-02,5.45475e-03,9.48350e-02,3.35615e-02,-9.34583e-02,1.17493e-01,2.77790e-22,1.22586e-01,1.05363e-01,-5.06747e-16,-3.86477e-02,-4.99192e-03,6.68982e-02,3.61551e-03,-3.02802e-02,7.25460e-02,1.28471e-01,-4.42649e-02,1.41512e-02,-2.07429e-03,-2.80286e-02,2.50073e-02,
-8.63445e-02,2.94955e-02,2.87413e-11,-6.94366e-08,6.99290e-30,-2.26201e-02,-9.73056e-04,2.45685e-06,-1.64744e-02,-6.14377e-03,6.25295e-02,1.53447e-01,-4.88287e-03,1.26916e-01,8.20862e-03,-5.22604e-15,-2.80384e-10,7.01904e-02,2.08600e-03,9.20307e-02,7.32443e-02,2.35889e-02,8.60030e-02,-3.26731e-02,-3.26569e-02,-1.03167e-02,-3.80678e-02,1.22611e-01,1.15687e-02,6.64569e-02,9.79984e-02,-1.26605e-01,7.88336e-03,1.28315e-01,-3.99803e-26,2.06150e-02,-4.35909e-02,2.84202e-16,2.61857e-02,1.14799e-01,-8.68230e-02,-7.03176e-03,-1.73014e-02,-8.36787e-04,4.19392e-02,-1.45762e-01,-2.65486e-02,-1.35930e-03,-3.89734e-02,3.15516e-02,
-5.81456e-03,-4.58501e-37,4.89020e-39,1.54549e-39,-8.18158e-35,-8.99531e-03,-6.48548e-03,1.09731e-31,-3.21778e-04,1.24272e-38,-9.94649e-03,-8.05391e-03,-1.26181e-02,-9.44169e-03,3.01738e-33,-1.71126e-36,2.02319e-32,-4.23074e-03,-2.71687e-37,-8.56543e-03,-3.82592e-04,-4.90131e-03,5.82708e-03,-1.21492e-02,-5.29498e-04,-5.10797e-03,-1.64744e-02,-5.10201e-03,-5.14121e-03,1.25752e-03,-8.03236e-03,-1.41365e-02,-1.37508e-02,3.03445e-03,-5.41785e-31,-1.67437e-02,-1.52375e-02,-1.05166e-36,-8.46461e-03,-6.01458e-03,-1.18744e-02,-3.22871e-33,6.46518e-38,-1.56133e-02,-4.70614e-03,-1.48202e-02,-1.36102e-05,1.85022e-32,-3.53277e-36,-1.99205e-03,
1.24202e-05,-7.34976e-39,-7.94221e-40,-2.25433e-36,-1.59222e-36,-4.66860e-03,-2.56597e-03,6.29224e-39,-1.05477e-04,1.14724e-38,-1.27616e-02,-1.01438e-05,-1.73339e-02,-1.69143e-03,-2.91318e-37,1.78425e-36,-5.01570e-35,1.20757e-05,-3.62699e-38,-8.27778e-03,-1.05973e-05,-7.22289e-34,1.67921e-04,-1.04833e-02,-8.09819e-04,-6.49984e-04,-4.38004e-05,-2.86632e-35,-2.89462e-03,-4.34795e-22,1.82202e-06,-7.02017e-03,-1.33423e-02,1.60986e-04,4.96577e-37,3.91956e-25,-8.39036e-03,-4.44784e-39,-5.89217e-06,-4.29031e-10,-2.37899e-03,4.01564e-37,4.77084e-37,-8.51581e-03,-9.42236e-39,-1.30027e-02,-5.82980e-22,-1.41443e-35,-2.53411e-36,1.46233e-38,
-1.61667e-12,-1.10672e-37,5.61103e-39,2.96746e-38,-1.38835e-36,-6.89619e-17,-5.70615e-32,1.92677e-37,3.00581e-38,-1.44681e-39,-9.96456e-09,3.60868e-09,-1.50541e-26,2.47133e-10,-3.92014e-38,1.79589e-31,6.34964e-34,-7.57137e-19,-6.63014e-37,-3.08209e-14,-4.23105e-27,1.13399e-17,-3.15356e-20,2.94129e-23,-2.34943e-36,5.77089e-39,-4.60285e-07,-3.35681e-16,6.72409e-33,-5.88205e-33,-1.11529e-30,-8.19553e-13,-7.31245e-10,-2.50973e-11,-4.32816e-38,-1.93338e-17,-4.22661e-06,-1.72162e-38,-5.79504e-12,3.43430e-10,6.77937e-35,-5.11659e-33,3.76553e-38,1.14219e-09,1.20414e-38,-2.43424e-37,-2.99044e-39,-2.49728e-38,7.31108e-39,2.13493e-36,
1.79582e-02,4.08159e-02,-3.21954e-07,9.03498e-10,7.58199e-10,3.96503e-02,6.87761e-02,-7.94641e-04,8.49522e-02,9.39912e-04,-3.32044e-03,-1.18104e-01,-9.94016e-03,-3.29587e-02,-2.28386e-02,1.24914e-08,-1.59621e-06,-8.98096e-02,-1.62849e-02,1.11167e-01,7.29406e-02,7.48033e-02,-8.86511e-02,-5.16968e-02,5.37193e-02,3.87285e-02,1.33419e-01,-1.18636e-01,1.26919e-01,-4.13213e-03,1.47181e-01,-2.34031e-02,1.07291e-01,-6.51095e-02,1.66071e-11,5.54707e-03,-3.87682e-02,-1.53095e-26,-4.21283e-02,5.17817e-03,2.27874e-01,2.37946e-03,-1.88953e-02,6.82409e-02,6.93473e-02,-5.42558e-02,1.32883e-01,-3.30606e-04,2.79268e-03,-2.28707e-03,
1.15215e-01,4.74215e-02,4.11077e-24,-1.71956e-04,-3.23583e-25,1.02168e-01,2.40854e-02,-1.26280e-07,-1.65833e-02,1.13311e-02,-1.03532e-01,4.56109e-02,2.86096e-02,1.20613e-01,-6.94144e-03,-3.79536e-16,-2.15605e-31,5.90013e-02,-6.80421e-03,-6.50693e-02,7.61572e-02,-4.33093e-02,9.30066e-02,8.43969e-02,-1.95215e-02,-2.02171e-02,-8.71849e-02,1.18693e-01,5.32344e-02,-3.77342e-02,4.18897e-02,-4.72664e-02,-6.31021e-02,3.56469e-02,-1.06247e-23,5.52657e-02,8.88877e-03,-1.22232e-15,-7.30821e-02,5.10176e-02,7.54490e-02,1.34105e-02,-2.01671e-02,-6.82621e-02,1.53006e-01,-1.98659e-01,2.16288e-01,-2.84837e-03,3.24868e-02,3.64438e-02,
5.17692e-03,1.41473e-24,-4.57371e-39,6.80473e-23,-1.14706e-37,-8.55956e-03,-5.79412e-03,4.93721e-23,-1.56463e-14,8.87721e-25,-2.20230e-02,-1.69392e-03,-2.51119e-02,-1.27568e-02,-2.90522e-03,2.12934e-18,2.54296e-38,2.13149e-02,-9.33576e-03,-3.04636e-03,1.72307e-14,-1.54000e-02,1.11208e-02,-1.36786e-02,3.87848e-02,-3.02863e-03,-1.14902e-02,-2.61871e-02,3.02145e-04,-1.78206e-04,5.22912e-02,-2.57378e-02,-2.67400e-02,4.97606e-02,5.76580e-35,-7.61532e-03,-1.10980e-02,9.00659e-38,-3.59086e-03,-2.22384e-03,1.09805e-02,1.33688e-03,1.93351e-35,-3.05931e-02,-9.87386e-03,-2.61110e-02,-1.42912e-02,-2.79852e-13,1.95280e-02,2.69291e-02,
1.17579e-01,9.79254e-02,4.91976e-12,-2.61553e-04,-3.17279e-28,5.08071e-02,7.99177e-03,7.23162e-07,-9.25297e-03,-1.68717e-03,-4.49375e-02,1.10440e-01,-3.09585e-03,4.51755e-02,-4.44641e-03,-2.28869e-16,-2.26260e-13,-7.74833e-02,2.80428e-03,-4.41946e-02,2.40119e-03,1.20265e-01,1.15856e-01,-2.57729e-02,-2.34697e-02,-6.68134e-03,-1.00920e-01,-1.13538e-02,1.70598e-02,3.91726e-03,1.95937e-02,8.86134e-02,-1.75805e-01,9.31811e-02,-3.61241e-28,7.77099e-02,-1.07222e-01,4.42492e-16,1.68435e-02,9.80926e-02,-4.27872e-02,1.47726e-02,-3.27958e-02,-4.02803e-03,1.37949e-01,-1.30526e-01,1.58670e-01,-4.07764e-03,-1.84400e-02,3.62797e-02,
-4.34430e-03,2.10501e-02,-7.43769e-34,2.04435e-31,1.63480e-39,3.13691e-02,9.35866e-02,1.12285e-38,4.93309e-02,2.42132e-38,8.82556e-03,-4.46891e-02,4.21201e-02,-5.20873e-02,2.47832e-25,1.23147e-38,3.38321e-34,-3.20870e-02,1.87575e-24,-5.79483e-03,7.96774e-02,1.59317e-02,-1.47042e-03,-4.03503e-03,2.18095e-02,6.79931e-02,4.16961e-02,2.14866e-02,9.91471e-02,-8.85912e-03,1.18548e-01,4.47307e-02,-3.26035e-02,2.84811e-03,-2.43183e-31,2.37306e-02,-1.00626e-01,-3.29088e-22,3.60652e-03,6.10139e-03,4.50557e-02,1.98405e-03,6.38095e-39,-1.14706e-03,6.72902e-02,-2.15120e-02,6.15460e-02,7.64001e-38,5.36534e-04,1.33806e-02,
1.12250e-13,2.33022e-39,-2.62117e-37,3.97246e-34,-2.83111e-36,2.36137e-09,3.69844e-08,4.24663e-38,2.48839e-07,-1.36909e-27,-1.48029e-06,2.69925e-07,9.16221e-07,1.37338e-07,2.71100e-38,8.86172e-39,1.30860e-38,-4.23152e-08,4.42373e-38,-3.45690e-07,1.85387e-07,-6.39194e-10,2.48924e-09,-2.80053e-07,-2.83938e-06,7.22769e-07,-1.82134e-06,2.51651e-10,-3.37662e-07,5.24563e-38,1.11360e-10,1.07786e-06,-2.36033e-06,5.85220e-13,8.74542e-39,-1.05542e-07,-3.39065e-07,-2.72732e-34,-7.90766e-09,3.44760e-08,1.47387e-06,-4.21421e-13,-2.23039e-36,9.29663e-07,-4.79570e-09,-1.32506e-06,-1.74386e-09,-6.17236e-38,-6.72226e-38,-4.93195e-10,
-4.31490e-02,9.02053e-02,-3.67705e-34,-8.86514e-09,-8.80561e-29,-6.37901e-02,4.56838e-02,-6.77682e-19,-2.28810e-03,2.67444e-03,-1.37207e-01,-9.38172e-02,-1.09047e-01,4.52993e-02,-5.52341e-03,4.97718e-18,-3.44452e-33,-3.24876e-02,-5.62927e-03,-1.05781e-01,9.72458e-03,9.69335e-02,-2.62028e-02,-1.08298e-01,2.84485e-02,-6.69002e-04,-2.01362e-02,-8.91050e-02,4.27396e-02,-3.33098e-02,3.95138e-02,-1.79854e-02,-1.88249e-02,5.86956e-02,-2.50003e-34,7.55358e-03,9.32967e-02,4.16585e-16,-1.05562e-02,7.26060e-02,-1.49418e-02,4.99076e-03,-1.48308e-02,-5.98545e-02,1.15276e-01,-7.31119e-02,1.55611e-01,-2.00249e-05,2.24959e-02,2.20550e-02,
-8.69444e-03,1.05218e-01,9.64607e-38,-3.19542e-04,-1.08511e-28,6.96071e-02,1.98644e-01,-3.26936e-07,1.09507e-01,2.16604e-03,-5.16171e-02,6.00325e-02,4.05147e-02,-7.13812e-03,-2.48239e-02,2.34615e-09,-1.95418e-31,3.65197e-02,-2.20452e-02,1.02892e-01,1.36316e-01,4.30038e-02,1.35516e-01,-6.11430e-02,1.97609e-02,-3.17171e-02,-6.90249e-02,7.68939e-02,2.11809e-01,-1.42045e-03,1.66253e-01,8.57920e-02,-7.52315e-02,1.05216e-01,7.66373e-37,5.99311e-02,-3.47523e-03,1.77038e-15,1.34832e-04,1.23698e-02,1.18997e-01,1.59793e-02,-2.41106e-02,8.91673e-02,1.46989e-01,-1.74520e-01,2.82163e-01,-1.51565e-03,3.17532e-02,9.77581e-02,
-6.25937e-02,7.14336e-03,-1.33475e-22,3.76329e-38,-1.18379e-28,-4.21408e-02,-2.47356e-02,1.92516e-35,3.81752e-03,-6.63983e-04,6.80867e-02,-7.79062e-03,-9.25906e-02,8.98578e-03,4.86387e-09,-5.50648e-31,-3.46921e-32,3.86855e-02,-5.26277e-04,-2.27205e-02,-6.02501e-03,-1.57394e-02,-7.27282e-02,-4.70227e-02,-8.93125e-03,-1.32502e-02,8.65598e-02,-3.05392e-02,-8.35589e-03,-4.06939e-02,-1.55802e-02,-6.38144e-02,-3.46106e-02,-4.60407e-02,1.39529e-33,-2.01713e-02,-8.73917e-04,-3.45995e-27,3.68486e-03,-4.17955e-02,-5.07617e-02,2.75563e-07,4.63771e-03,-3.58312e-02,6.08911e-04,-2.10846e-04,-2.47339e-03,-8.96168e-15,1.67002e-28,7.50212e-03,
3.33072e-02,9.69055e-02,-2.40917e-36,-6.99364e-05,-1.93266e-28,-2.71944e-02,2.43523e-02,4.59465e-08,1.15387e-02,9.80118e-03,-7.40166e-02,3.50747e-02,-5.44710e-02,3.73387e-04,-3.64074e-03,1.18523e-18,1.52335e-22,3.47911e-02,9.50010e-04,-1.90153e-02,2.12193e-02,5.75869e-02,1.51745e-01,-3.61164e-02,-8.75581e-03,1.91908e-03,-3.55728e-02,1.73526e-02,3.43780e-02,-1.41000e-02,1.11901e-01,-2.92851e-02,-7.34020e-02,8.58904e-02,2.00474e-26,3.86317e-02,-1.00911e-02,-3.26868e-15,-3.08617e-03,3.63217e-02,1.55165e-03,1.65496e-02,-2.44083e-02,-2.10824e-02,1.26091e-01,-1.20423e-01,1.49107e-01,-1.94847e-03,2.87859e-02,9.30929e-02,
-1.92480e-02,-1.51318e-03,-6.10921e-15,1.09658e-22,3.28945e-07,1.15160e-01,5.97329e-02,1.10635e-06,8.07886e-02,5.82891e-04,-4.68650e-02,-3.87130e-02,1.66483e-01,5.93360e-02,-1.94195e-02,-1.29986e-19,-6.41981e-08,8.68541e-03,-2.00658e-02,1.58931e-01,1.12905e-01,-9.49108e-02,-3.45866e-02,1.45086e-01,-4.74310e-02,2.80501e-02,1.64206e-01,1.10921e-01,1.26931e-01,6.73480e-02,-2.91346e-02,3.54073e-02,-5.95646e-02,1.24288e-01,-1.11529e-22,9.02451e-02,-4.31513e-02,3.69460e-22,5.24141e-02,-1.40927e-01,6.77750e-02,3.66175e-03,-2.14526e-02,-1.78112e-02,1.05770e-01,-6.15046e-02,6.29298e-02,1.53225e-04,-7.18291e-03,-1.51481e-02,
-7.22736e-02,-4.24414e-02,4.06764e-17,5.33426e-16,7.03208e-29,-1.18364e-02,4.70415e-02,2.33434e-05,-1.69479e-02,-2.37254e-03,7.78067e-02,2.43290e-02,-8.39611e-02,9.05260e-02,4.91733e-03,1.49510e-17,6.40124e-11,-5.49106e-02,4.91921e-03,4.12912e-02,-3.22594e-02,8.53465e-02,-6.56138e-02,4.96845e-02,-3.44719e-02,-2.85003e-02,-1.13559e-01,-1.57342e-03,-4.86252e-02,1.58933e-02,-2.44437e-02,-5.97575e-02,-8.83088e-03,1.81276e-02,-1.16879e-20,5.40830e-02,-3.28821e-02,6.22259e-17,-3.52669e-02,9.18351e-02,-1.57492e-01,-1.90176e-03,-7.31603e-03,8.63220e-02,4.91066e-02,1.09427e-02,1.10152e-02,-8.49618e-05,-2.03802e-02,-3.25775e-02,
-8.82173e-02,3.99811e-02,-6.35596e-10,-1.52023e-15,9.62732e-14,5.43572e-03,4.42762e-02,-1.00026e-03,7.23247e-02,-2.02694e-03,3.28393e-02,1.58030e-02,4.87200e-02,-1.15804e-01,-1.97401e-02,-5.92736e-32,-3.59586e-08,6.60322e-02,-1.46475e-02,-6.85815e-02,8.32675e-02,-4.19221e-02,3.83982e-02,4.38239e-02,8.81327e-02,7.32475e-02,1.18437e-01,-3.81397e-02,1.09849e-01,-3.05547e-02,1.64686e-01,1.75884e-01,-1.35384e-01,4.49345e-02,1.24173e-29,-1.40295e-01,3.95807e-02,1.73741e-21,-1.03763e-01,-1.32470e-01,7.45581e-02,-2.88196e-03,-1.66929e-02,9.41615e-02,7.23210e-02,7.21166e-02,3.34342e-02,3.32935e-04,1.48530e-04,2.06664e-02,
-5.21971e-15,2.06529e-39,-9.85489e-39,-1.59509e-39,1.01195e-34,-1.55064e-34,2.96118e-37,-4.45658e-36,7.10550e-38,-6.26271e-39,2.90135e-20,-4.76455e-09,1.24287e-38,-7.21650e-12,-2.88280e-39,-1.83161e-35,-3.66248e-38,-6.12698e-16,6.27236e-38,-3.86098e-37,-1.65300e-36,3.22041e-19,-8.44118e-17,-2.19084e-37,-5.76138e-34,-3.21176e-35,-1.74806e-10,-1.85778e-16,-2.13151e-32,-4.23486e-35,-9.91155e-34,-7.26768e-34,-6.01274e-17,-4.75317e-13,-6.88804e-37,-2.26183e-19,-8.43135e-07,2.96567e-38,-6.11503e-18,1.26852e-09,2.83684e-39,4.65756e-31,5.42992e-39,-5.51192e-32,-4.35925e-31,3.84607e-37,1.23920e-31,-6.61970e-39,1.58260e-36,-4.91295e-36,
-3.66001e-02,4.22068e-02,-5.99446e-14,9.68052e-14,5.59656e-12,1.25091e-01,8.33862e-02,-1.43831e-04,6.97250e-02,4.64440e-03,9.70185e-02,-1.94483e-02,-2.97919e-02,-7.12711e-02,-1.90743e-02,-5.07587e-14,-2.02171e-08,-8.55369e-03,-1.63112e-02,6.73554e-02,1.76401e-01,6.10995e-02,-7.62586e-02,-5.04115e-02,6.71809e-02,9.12265e-02,1.14513e-01,5.86075e-03,1.14905e-01,6.62078e-02,2.60087e-02,1.57863e-02,5.80578e-02,1.99482e-02,1.75539e-27,2.55294e-02,-1.35260e-01,5.40125e-22,6.05228e-02,-9.44071e-02,1.27318e-01,-5.54508e-03,-1.30608e-02,4.13189e-03,8.25539e-02,5.10760e-02,7.53490e-02,3.45881e-04,-6.48408e-03,-8.17391e-03,
-5.11738e-25,3.75643e-38,7.59437e-39,-3.28170e-34,1.06907e-38,-3.54892e-03,-2.30056e-03,-3.27215e-35,3.80929e-05,-8.19629e-39,-6.20919e-03,-2.59118e-02,-6.41273e-03,-2.12986e-02,4.25236e-29,-1.42652e-38,6.52996e-39,-1.22193e-02,-8.95126e-33,-4.83020e-03,1.34670e-06,-5.47317e-24,-2.00628e-18,-8.64972e-03,2.90675e-05,-1.29895e-03,-7.30195e-03,-5.38245e-24,3.09495e-03,-8.86088e-06,-3.44553e-07,-4.02250e-03,-1.38907e-02,-6.85165e-25,-8.57196e-33,-1.68572e-03,-2.92357e-02,-1.99544e-39,-2.58981e-02,-1.20552e-02,-1.11228e-03,1.96480e-26,1.71787e-38,-6.23411e-03,2.59167e-20,-1.46617e-02,4.02687e-05,-1.87197e-35,3.60234e-36,-6.24076e-26,
7.01119e-02,3.54001e-02,2.82768e-31,4.57152e-22,8.15414e-20,-5.15750e-02,5.46043e-02,-9.72110e-08,1.15202e-01,-3.12813e-03,3.85843e-02,3.64204e-02,4.18642e-02,-4.85763e-02,-1.38024e-02,-1.05759e-14,-5.30904e-15,2.53200e-02,-1.50379e-02,-5.34589e-02,7.98053e-02,-5.61137e-02,1.11274e-01,-3.85184e-02,1.60082e-02,3.14447e-02,1.39772e-01,8.37082e-02,1.04724e-01,-1.83570e-03,1.34307e-01,3.13132e-02,3.58209e-02,-2.20455e-02,7.79753e-34,-1.10131e-01,-6.94735e-02,1.03389e-21,-5.81465e-02,-9.69356e-02,8.37509e-02,1.58796e-03,-3.55280e-03,4.98048e-02,2.31795e-02,6.26001e-02,-3.40745e-03,1.68214e-05,1.27292e-02,-5.26425e-02,
-1.20277e-01,4.07235e-02,-7.04212e-11,3.06855e-05,2.58473e-14,7.16623e-02,3.81094e-02,1.10921e-04,8.80790e-02,4.98856e-03,2.49267e-02,1.33540e-02,9.15623e-02,7.83174e-02,-1.11654e-02,-5.75922e-16,-2.87771e-10,1.12075e-01,-9.44804e-03,-2.71807e-02,1.57368e-01,3.96578e-02,1.48690e-02,5.83750e-02,2.83435e-02,6.96305e-02,1.38486e-01,7.52369e-02,1.03591e-01,3.87255e-03,2.10613e-02,7.17075e-02,1.21021e-02,1.24941e-01,8.92179e-18,-1.14992e-01,-1.07292e-01,1.22475e-13,-6.82113e-02,-5.40324e-02,1.34771e-02,1.42712e-02,4.94425e-03,-1.47980e-03,-3.89664e-02,1.47462e-01,7.24505e-02,1.62298e-03,2.08128e-02,-1.53553e-02,
1.07203e-01,-4.41303e-02,-5.18888e-08,-7.14567e-09,-3.67339e-15,-1.06379e-01,6.67965e-03,4.82139e-04,-7.45694e-02,-4.89316e-03,1.20641e-01,1.25218e-01,1.57929e-03,2.17067e-02,1.16031e-02,-2.08541e-17,7.64328e-08,1.14417e-01,7.10913e-03,-1.17144e-01,2.09650e-03,9.11097e-02,-1.85983e-03,-1.52472e-02,-1.51249e-01,4.95617e-02,-1.31841e-01,-7.00284e-02,3.95967e-02,3.83350e-02,-7.84920e-02,6.24568e-02,3.70856e-02,1.38657e-02,-8.51422e-13,-4.00599e-02,1.14532e-01,2.99625e-16,4.65118e-02,8.57315e-02,-1.56969e-01,1.87007e-03,7.68952e-03,4.33374e-02,3.65516e-02,1.73842e-02,-3.72467e-02,-6.38450e-04,-2.13536e-02,1.25316e-02,
-5.05398e-02,-1.03759e-03,2.07129e-38,-2.80177e-35,1.44020e-38,-9.67462e-02,-8.26536e-02,-2.00042e-39,-5.62370e-02,1.95545e-38,-1.61235e-02,2.44626e-01,-1.04155e-01,1.96581e-01,4.63147e-38,-1.58370e-37,-7.91066e-36,2.24058e-01,3.55778e-33,-1.48529e-01,-1.16527e-01,5.25079e-01,3.63562e-01,-1.22411e-01,-1.00349e-01,-8.98262e-02,-5.28872e-02,1.00868e-01,-1.05042e-01,1.10802e-02,-7.01915e-02,-9.45341e-02,7.71059e-02,3.14892e-02,-1.67259e-39,2.44435e-01,1.95676e-01,-2.24588e-15,1.38831e-01,2.66972e-01,-8.89397e-02,2.03784e-02,-2.57920e-38,1.27963e-02,2.80580e-01,3.16382e-02,2.26195e-01,-8.99269e-33,5.48374e-03,2.36582e-01,
8.61071e-02,4.35367e-02,5.04088e-10,4.21421e-17,-6.87869e-20,-5.07304e-02,4.19550e-02,-1.10386e-04,6.53098e-02,1.05695e-03,1.26502e-01,-5.49924e-02,1.73412e-02,-1.40540e-01,-1.98543e-02,1.19673e-16,-2.91501e-08,1.09343e-01,-1.76649e-02,1.24317e-01,5.28257e-02,8.43806e-02,1.05813e-01,2.93225e-02,8.10351e-02,3.27507e-02,1.60061e-01,-5.64036e-02,1.02679e-01,7.63483e-02,1.26233e-02,1.24934e-01,1.72776e-02,8.00712e-02,-1.01767e-18,-3.76969e-02,3.64655e-02,-1.02196e-20,2.07103e-02,-1.43989e-01,5.20141e-02,1.66501e-02,-2.01167e-03,1.00720e-01,5.17992e-02,7.32958e-02,-2.64088e-02,1.37603e-03,2.60375e-04,4.83584e-05,
-1.00500e-05,-6.77433e-28,-3.30171e-35,4.27983e-38,3.22263e-39,-1.50742e-02,-1.73476e-02,1.46000e-37,-8.31800e-03,-1.58444e-30,-1.38112e-02,-1.34686e-02,-1.13460e-02,-9.63355e-03,-9.71273e-03,4.00601e-36,-9.91874e-32,-6.28969e-04,-1.50357e-02,-1.55598e-02,-9.19794e-03,-6.84687e-04,-2.41132e-06,-1.23868e-02,-5.73303e-03,-1.30938e-02,-1.32090e-02,-3.80807e-04,-1.47460e-02,-2.78066e-20,-6.24685e-04,-1.79293e-02,-1.49133e-02,2.31066e-07,-8.98884e-38,-1.09257e-02,-1.93149e-02,-1.45672e-32,-1.07071e-02,-9.87324e-03,-1.08614e-02,6.17267e-24,2.63705e-33,-1.60728e-02,-2.18154e-04,-1.50968e-02,-7.53787e-03,-7.19822e-37,1.64465e-38,-2.28173e-23,
1.40690e-01,4.64170e-02,3.83258e-08,-5.78752e-07,9.26506e-13,-1.23370e-01,5.95542e-03,-2.06889e-07,-3.46843e-03,2.70204e-03,9.96699e-02,-3.54444e-03,-1.35820e-01,1.27019e-01,4.41705e-04,5.04602e-16,-7.94958e-10,6.13784e-02,8.78785e-03,-7.99375e-02,-6.43958e-02,3.76099e-02,-1.01566e-01,-7.78269e-02,6.22787e-02,-6.33155e-03,-4.56419e-02,7.89923e-02,2.22014e-02,2.06527e-02,-2.91351e-02,-2.09958e-02,-4.12450e-02,4.45561e-02,-1.58103e-11,4.80723e-02,7.85679e-02,-1.58104e-13,-2.36492e-02,1.16190e-01,-4.54852e-03,-9.47746e-04,-3.42335e-02,-1.17217e-01,1.02145e-01,-1.21944e-01,-5.57242e-02,-2.01462e-03,-3.69296e-02,1.38934e-02,
-4.70677e-02,3.91216e-02,-5.90287e-11,2.04940e-05,-1.28878e-28,2.45649e-02,2.38533e-02,9.19255e-05,6.08045e-02,4.68299e-03,-7.34239e-02,-8.96841e-02,2.68251e-02,-1.07211e-01,-1.06321e-02,3.41278e-12,-8.21957e-10,-7.70228e-02,-8.76110e-03,1.38713e-02,7.25022e-02,-6.22371e-02,3.91799e-02,1.41544e-01,3.86021e-02,2.90723e-02,9.89613e-02,-4.28813e-02,9.71377e-02,7.33206e-02,-7.34484e-03,1.33538e-01,8.76806e-02,1.24763e-01,-1.35750e-18,-7.27037e-02,3.18947e-02,3.10513e-25,4.75875e-02,9.77478e-02,2.02043e-01,1.60280e-02,7.62499e-03,4.01164e-02,-8.18762e-03,9.95067e-02,9.94549e-03,1.03478e-03,2.34622e-02,-8.18569e-03,
-5.57896e-02,3.78798e-02,5.99964e-09,-9.62226e-07,1.11403e-11,-3.09619e-02,2.25910e-02,-1.17791e-08,6.70783e-02,4.62805e-03,1.22728e-02,1.04904e-01,-4.02100e-02,-5.79624e-02,4.88550e-03,4.39859e-17,-1.69948e-09,-7.82913e-02,9.91030e-03,3.18206e-02,1.04068e-01,1.14994e-01,4.58374e-02,-1.44401e-01,2.94135e-02,3.55211e-04,-1.24289e-01,1.47892e-01,2.61066e-02,-6.54857e-02,-4.25058e-02,-7.84148e-02,4.65493e-02,1.32307e-01,-6.08340e-12,1.45673e-01,9.20654e-02,6.71440e-18,7.44580e-02,-2.41799e-03,-6.12350e-02,-2.05671e-03,-1.78097e-02,-6.41042e-02,1.12921e-01,3.06092e-02,2.54017e-03,-2.65222e-03,-3.38169e-02,2.03222e-02,
1.24408e-01,3.06231e-02,1.10070e-08,-2.65521e-05,-2.07152e-23,9.58643e-02,3.25694e-02,-3.14662e-07,2.61805e-02,-9.20333e-04,-1.17459e-01,1.34929e-01,-2.10225e-02,-5.22717e-02,3.51234e-03,1.40663e-15,-2.75699e-09,1.26918e-02,1.01648e-03,-1.50814e-01,-5.75059e-03,1.11699e-01,9.62751e-02,-1.00378e-01,-6.77342e-02,2.55765e-02,-2.80486e-02,1.01278e-01,1.03480e-02,-9.10972e-03,1.63805e-01,-7.71702e-03,9.75074e-02,9.04943e-02,-7.57608e-15,3.82223e-02,9.64989e-02,-3.62982e-15,-5.71120e-03,2.64414e-02,4.26266e-02,-1.18781e-03,-2.65064e-02,3.54937e-02,1.19163e-01,-6.87694e-02,3.49014e-02,-3.79146e-03,-3.75934e-02,4.89872e-02,
-5.20888e-02,4.19865e-02,-9.24606e-15,3.60547e-23,-1.88532e-23,1.20489e-01,3.26423e-02,-1.52391e-05,8.99405e-02,7.54251e-03,4.25403e-02,-1.12279e-01,1.12607e-01,-1.33414e-01,-1.27155e-02,1.56273e-17,-6.02036e-11,7.66586e-02,-1.53298e-02,1.29403e-01,7.60451e-02,-9.11601e-03,4.60225e-02,6.10283e-02,9.28521e-02,-1.42821e-02,2.80049e-02,2.13428e-02,1.17173e-01,1.53316e-02,-5.91028e-02,5.65425e-02,-2.38121e-02,-7.65742e-02,-7.00384e-32,-4.92001e-02,6.30612e-02,-1.67614e-17,1.04380e-02,7.76783e-02,1.52813e-01,1.58690e-02,1.04435e-03,1.30609e-01,5.70591e-02,1.20762e-01,4.54490e-03,5.21850e-04,9.95473e-03,-1.00643e-02,
-7.92798e-02,4.33626e-02,2.44736e-33,-3.92748e-11,1.02407e-29,3.18532e-02,3.92369e-02,-5.05008e-25,-5.35748e-03,-3.80893e-03,1.10775e-02,1.08294e-01,-7.04604e-02,1.50733e-02,-7.64603e-04,4.50846e-19,1.61895e-31,6.47729e-02,-1.76309e-03,5.09168e-02,-9.75535e-04,2.06951e-02,6.83799e-02,-1.26500e-01,1.46192e-02,9.57847e-03,8.80554e-02,-6.59300e-02,1.83282e-02,-9.23418e-03,7.77164e-02,-2.88727e-02,-8.58766e-02,-1.26079e-02,7.19754e-28,1.26452e-01,6.68811e-02,5.35833e-16,-6.64734e-02,-4.08235e-02,-1.00846e-01,-3.27247e-03,-3.13434e-02,-1.57694e-02,9.59394e-02,-6.88334e-02,5.95500e-02,-2.12837e-04,-2.17997e-02,-8.87727e-03,
9.58398e-02,3.87945e-02,-2.44758e-27,6.58652e-23,1.55443e-09,2.67883e-02,7.39547e-02,-8.41845e-05,1.11389e-01,4.56814e-03,5.06419e-02,-6.36210e-02,3.11745e-02,-3.10462e-02,-1.42424e-02,-2.14119e-20,-6.21761e-21,4.69089e-02,-1.69868e-02,3.38301e-02,1.41640e-01,-4.99416e-02,-6.12718e-02,7.87317e-03,2.56129e-02,1.19568e-02,2.61330e-02,1.85187e-02,1.31261e-01,-7.61835e-02,2.10893e-02,7.21777e-02,-1.59136e-02,5.47115e-04,-1.35497e-32,-5.26745e-02,-1.28852e-01,1.45752e-22,-3.60451e-02,3.16352e-02,9.19794e-02,3.49326e-03,-6.79381e-03,3.39698e-02,1.04882e-01,4.14821e-03,9.74168e-02,4.97050e-06,-1.81691e-02,-3.23819e-03,
-6.42266e-02,-5.42044e-02,-3.73883e-24,2.80870e-05,8.63419e-30,1.76442e-02,9.91859e-03,-5.58916e-07,9.27420e-02,2.29305e-03,-2.39191e-02,-4.69454e-02,-6.28250e-02,-2.77672e-03,-4.28172e-03,4.24393e-15,1.75912e-20,6.19296e-02,-4.02499e-03,4.08564e-02,1.22595e-01,2.36103e-03,-8.61420e-02,-8.45634e-02,-4.87491e-02,1.17826e-02,2.78913e-02,1.35585e-01,8.94966e-02,-1.23869e-02,-1.17807e-01,1.13466e-01,5.74716e-02,-5.13304e-02,-6.15256e-23,3.97793e-02,1.58363e-01,1.23246e-20,6.95830e-02,-1.04472e-01,7.09447e-02,7.66433e-03,2.29036e-02,1.17282e-01,-3.09043e-02,8.00910e-02,-5.02446e-03,2.12763e-03,3.44251e-02,-9.66933e-04,
6.78910e-03,4.47482e-02,-1.48621e-11,1.05970e-05,2.00243e-11,1.13021e-01,5.40050e-02,2.30096e-04,1.41295e-01,9.55399e-03,1.37954e-01,-6.16139e-04,1.78761e-01,1.71395e-02,-1.51133e-02,7.22123e-16,-4.52736e-08,-5.55704e-02,-1.22633e-02,3.43045e-02,7.78304e-02,3.64704e-02,3.75195e-02,1.35444e-02,9.68916e-02,4.48427e-02,8.09711e-03,5.06915e-02,1.14905e-01,5.53786e-04,6.94978e-02,1.30287e-01,7.18069e-02,1.21083e-01,4.08245e-26,-8.82883e-02,-5.37322e-02,-1.38430e-21,5.98455e-02,-1.09559e-01,8.79847e-02,2.37962e-02,1.06715e-03,4.67327e-02,2.08333e-02,1.19029e-01,-3.42451e-02,1.72770e-03,1.47179e-02,1.57734e-02,
