// Neural Network File Format by Kyle Julian, Stanford 2016
2,13,2,50,
13,50,2,
0,
0,0,0,0,0,0,0,0,0,0,0,0,0,
1,1,1,1,1,1,1,1,1,1,1,1,1,
0,0,0,0,0,0,0,0,0,0,0,0,0,0,
1,1,1,1,1,1,1,1,1,1,1,1,1,1,
2.15688e-01,-3.59495e-01,2.47473e-01,5.23974e-02,1.83501e-01,1.24908e-02,1.29788e-02,5.30339e-02,-2.74048e-01,2.71908e-02,-4.91654e-01,-2.56755e-01,-1.90951e-01,
-6.29340e-02,2.88886e-02,5.16612e-02,-1.16951e-01,-5.33183e-02,4.16919e-03,2.44997e-01,-1.69116e-01,2.97249e-01,3.49059e-01,-1.76132e-01,-4.47261e-02,3.35011e-01,
-4.09745e-02,3.07510e-01,-3.19885e-01,1.97601e-01,5.80803e-02,-1.26068e-01,1.19289e-01,-8.14888e-03,-3.22601e-02,-3.92490e-03,-7.96558e-02,2.26374e-01,2.50369e-01,
2.96272e-02,-2.24881e-01,-1.47766e-01,2.81518e-01,7.12294e-03,3.61394e-01,1.16935e-01,4.65084e-03,4.53456e-01,2.53987e-01,-3.05231e-01,3.05906e-01,-4.48668e-03,
9.30084e-02,2.70625e-01,1.34023e-01,1.88595e-01,-1.39991e-01,1.05946e-01,1.29407e-01,3.12314e-02,1.24502e-01,2.48418e-01,1.08200e-01,3.21880e-01,1.05033e-01,
-8.97065e-03,-5.04672e-03,-9.65350e-06,8.25906e-04,1.62491e-03,1.38596e-02,-1.00353e-02,-1.66235e-03,-9.62070e-03,-2.38409e-03,-2.63821e-03,1.57924e-04,-7.11596e-03,
-3.06152e-02,-1.34398e-01,-1.86899e-02,4.60753e-02,1.21107e-01,2.53984e-01,-2.42231e-02,8.09365e-02,2.44060e-01,-2.67826e-01,3.75809e-01,-2.63219e-01,-1.81332e-01,
-2.51113e-01,2.27924e-03,3.49590e-02,2.77657e-02,1.66135e-01,3.24427e-01,-4.84772e-02,4.27030e-01,-7.52789e-02,-1.51463e-01,4.67643e-02,-1.45291e-01,1.18103e-01,
1.34414e-01,-2.51621e-01,1.46779e-02,-7.52983e-02,2.42804e-01,1.66380e-02,-1.25217e-02,1.30050e-01,2.78461e-01,-2.65548e-01,9.06986e-02,-6.60403e-01,-1.74254e-01,
-1.75020e-01,-1.16836e-01,3.60334e-01,-1.98676e-01,4.67075e-02,-1.95107e-02,1.35033e-01,3.56793e-01,1.89048e-01,-1.85407e-01,3.63653e-01,1.39418e-01,-3.78467e-02,
-2.41042e-01,1.75485e-01,8.63772e-02,-1.82484e-01,-3.14392e-01,2.22779e-01,1.94165e-01,2.21408e-01,1.73447e-01,-3.52590e-01,3.46971e-01,8.83208e-02,-1.90671e-01,
1.80610e-01,-1.18335e-01,1.57482e-01,1.15376e-01,-1.48521e-01,5.53411e-02,3.85290e-02,7.11027e-02,2.21240e-01,6.89909e-02,1.30592e-01,1.95495e-01,1.05644e-01,
1.54149e-01,1.51189e-01,-2.46479e-01,9.37378e-02,2.22985e-01,2.82429e-01,-4.80307e-02,2.52456e-02,9.13739e-02,2.54370e-01,-3.88005e-02,3.04106e-01,-3.64709e-01,
-1.02555e-01,2.46174e-01,1.71884e-02,1.64583e-01,1.51549e-02,1.06933e-01,9.98445e-02,-4.01573e-01,-7.18220e-02,1.13278e-01,-1.27671e-01,3.26268e-01,2.94201e-01,
-1.92464e-02,6.83876e-02,1.13565e-01,-5.63950e-02,-1.82756e-01,1.15839e-02,-4.13169e-02,4.08849e-01,-4.22230e-02,-1.82860e-01,2.19920e-01,-2.78782e-01,-2.96134e-01,
3.05309e-01,-4.16044e-02,-3.31788e-01,8.97209e-02,-5.25571e-02,-2.42544e-01,-1.58962e-01,2.93371e-02,2.16741e-01,4.10797e-01,-4.76139e-02,9.41935e-02,2.96917e-01,
-8.40305e-14,-1.36121e-13,-1.67706e-15,3.97139e-14,6.74638e-15,-1.68170e-13,-9.44944e-14,-1.16545e-13,-5.70766e-14,-9.16516e-14,2.10236e-15,-1.53808e-20,-4.06254e-11,
-2.85551e-01,-1.15665e-01,-8.56718e-02,1.99963e-01,-3.21206e-02,3.10510e-02,1.72629e-01,1.53007e-01,-5.28503e-02,3.64119e-02,1.21223e-01,2.80472e-02,1.13195e-01,
1.67595e-01,-3.96824e-01,1.23517e-01,-4.56127e-02,5.24714e-02,3.42723e-01,3.57206e-01,2.32947e-01,-1.34564e-01,-3.74010e-01,3.52325e-01,-1.48943e-02,-8.53268e-02,
1.59680e-01,-2.17076e-01,3.59022e-01,-1.18872e-01,-2.53731e-01,9.16479e-02,5.29328e-02,4.01025e-01,7.04232e-02,-1.48132e-01,6.05904e-02,-2.18704e-02,-2.26080e-01,
-3.81621e-01,3.40612e-01,-9.24968e-04,-9.09883e-03,-2.32785e-01,3.56821e-01,2.15088e-01,3.58278e-01,-3.64891e-01,-2.45652e-01,-1.42376e-01,1.57478e-01,-1.07412e-01,
1.28866e-01,-4.20036e-02,2.35094e-01,-1.31590e-01,-2.70185e-01,-1.64496e-01,2.53337e-03,3.12999e-01,2.28751e-02,-1.22411e-01,1.82697e-01,-1.34106e-01,-5.71043e-02,
3.23588e-01,2.88254e-01,-1.30933e-01,1.72078e-01,-1.99234e-02,1.81465e-01,-5.33747e-02,-3.78414e-02,1.69521e-01,3.30347e-01,-1.14751e-02,3.75695e-01,1.44862e-01,
4.89265e-02,3.88903e-01,-4.21823e-02,3.65196e-02,1.01752e-01,8.16063e-02,2.70052e-01,2.23684e-02,3.49517e-01,4.98232e-01,-1.50709e-01,3.62238e-01,1.59621e-01,
2.06920e-01,3.60817e-01,1.15475e-01,-3.00972e-02,-1.21193e-01,-1.60336e-01,-3.02362e-02,-7.58431e-04,1.00027e-01,1.98373e-02,-1.64777e-01,4.15800e-02,1.89779e-01,
9.13548e-02,-1.10347e-01,2.60466e-01,-1.58570e-02,-1.27989e-01,1.85863e-02,2.99019e-01,-8.81768e-02,-1.85039e-02,-4.18247e-01,2.68022e-01,-2.97640e-01,1.54653e-01,
1.27610e-01,6.95038e-02,3.85483e-01,-6.41753e-02,1.76553e-01,-2.64092e-02,3.39797e-01,2.62582e-02,-8.45308e-02,-4.33150e-02,8.87747e-02,-1.92492e-01,5.04424e-02,
1.37098e-03,3.10767e-01,9.72069e-03,7.92889e-02,-2.45151e-01,-2.49579e-01,7.97366e-02,-5.39889e-03,1.46398e-01,3.18346e-01,-3.00514e-01,1.13761e-01,1.74268e-01,
3.92261e-01,2.92156e-01,-2.28103e-01,3.75462e-01,1.74245e-01,1.33516e-01,2.17809e-01,-1.83741e-01,1.65685e-01,3.02228e-01,-1.32032e-02,-2.08650e-02,1.91204e-01,
-2.59130e-01,-2.19304e-01,-2.07231e-04,-7.82453e-02,1.54362e-01,2.18320e-01,-5.26916e-03,-1.57256e-01,2.45588e-01,-3.02705e-01,1.38890e-01,1.08527e-01,-1.89191e-01,
-2.23702e-01,1.55648e-01,3.60142e-01,-8.08726e-02,1.05715e-01,1.01332e-01,3.25512e-01,1.55300e-02,-4.29402e-02,-2.57938e-01,7.54902e-03,1.32312e-01,-8.00602e-02,
3.27453e-01,2.05899e-01,-1.36612e-01,1.78641e-01,8.49766e-02,3.17539e-02,-1.11012e-01,-2.43890e-01,2.59174e-01,2.88225e-01,-1.55167e-01,1.98497e-01,3.66845e-01,
-4.17897e-01,2.16586e-02,-4.91404e-01,-6.43429e-02,-2.35956e-01,-2.00653e-01,-1.22140e-01,1.77548e-02,-1.86949e-01,1.38722e-01,1.72500e-01,1.06110e-01,3.28842e-01,
4.95756e-02,-1.53526e-01,1.44984e-01,-1.30087e-01,3.11421e-02,7.11688e-02,1.68345e-02,4.10752e-01,3.99867e-02,-1.94092e-02,2.56171e-01,-2.12644e-01,4.87324e-02,
2.07736e-01,1.39407e-01,3.70805e-01,4.24853e-02,2.25331e-01,3.22785e-02,3.38494e-01,1.40886e-01,-2.22505e-01,-3.48478e-01,-1.04467e-02,-7.02243e-02,-4.76181e-03,
-2.08721e-01,1.19797e-01,3.44367e-01,-2.42452e-01,-2.02382e-01,8.18351e-02,2.25504e-01,4.45111e-01,-1.30842e-01,8.76164e-02,-1.34728e-04,1.81287e-01,-1.85439e-01,
8.28356e-03,1.41362e-02,-5.82310e-01,2.65317e-01,-1.12913e-01,3.59543e-01,7.57540e-02,-2.49522e-01,3.39144e-01,2.44201e-01,-6.70373e-02,2.29397e-01,1.27060e-01,
-5.29379e-02,-1.78071e-01,4.23543e-01,-1.21951e-01,2.35429e-01,1.47153e-01,2.98737e-01,5.59855e-02,1.90101e-01,-3.01386e-01,2.29510e-01,-1.35432e-01,1.54661e-01,
-1.13390e-01,-2.22630e-01,1.09997e-02,-1.45259e-01,2.00988e-01,3.06974e-01,2.28596e-02,1.99217e-01,-1.55058e-01,-1.03556e-01,1.22689e-01,-7.42316e-02,-1.87338e-01,
3.23968e-01,3.85006e-01,-2.45653e-01,7.46187e-02,2.51469e-02,5.32036e-02,-1.88113e-01,-3.16790e-01,2.31985e-02,1.14379e-01,7.15152e-02,3.73273e-01,1.14079e-01,
2.94153e-01,1.84580e-01,4.50204e-02,3.45885e-01,6.88665e-02,7.09900e-02,1.36921e-01,-2.51958e-01,1.99672e-01,1.21943e-01,3.76322e-02,2.45483e-01,-1.70489e-02,
4.79019e-02,-3.60697e-01,-3.65930e-01,2.62765e-01,-2.20116e-01,4.21659e-01,-1.70340e-01,1.19733e-01,2.91362e-01,8.81283e-02,-3.56067e-01,2.91487e-01,2.49675e-01,
1.09315e-01,1.85997e-01,3.47731e-02,1.77973e-01,-7.39862e-02,-6.94994e-02,1.97688e-01,-2.39811e-01,-1.27194e-01,-1.15183e-01,4.72057e-02,1.57050e-01,1.08036e-01,
-8.67737e-02,-1.53746e-01,5.89418e-02,-1.61387e-01,-7.21824e-02,1.26612e-01,1.94402e-01,-7.32407e-02,2.32685e-02,-2.35164e-03,2.30021e-01,-2.18639e-01,9.35701e-02,
-1.12875e-01,-1.28075e-02,-5.10195e-01,1.23968e-01,8.33035e-02,2.52220e-01,-3.92944e-01,9.72504e-02,1.25323e-02,2.98676e-01,-4.25048e-02,3.10006e-01,7.27009e-02,
3.69125e-01,2.52925e-01,-1.04141e-01,1.40338e-01,3.55948e-01,-5.21168e-02,-5.91133e-02,-1.22394e-01,2.45407e-01,5.92619e-02,-1.19607e-01,2.05736e-01,2.65313e-01,
-2.50694e-01,1.36907e-01,-1.02203e-01,-4.08446e-02,-3.13660e-01,-5.40891e-02,1.55632e-01,3.00001e-01,2.44515e-01,-3.09004e-01,3.02131e-01,-1.24869e-02,-2.41925e-01,
4.95390e-03,2.00080e-01,1.42375e-01,5.76941e-02,1.75978e-01,-3.66535e-01,-4.56996e-02,-2.31510e-01,-2.23970e-01,1.38675e-01,1.94696e-01,-2.09770e-01,1.36254e-01,
-1.78199e-02,-2.59024e-01,3.32664e-02,6.89281e-02,3.13968e-01,-1.30915e-01,-1.00332e-01,-1.44768e-01,-2.45179e-01,2.13280e-01,-4.57796e-01,-8.13490e-02,7.77171e-02,
7.41268e-03,-8.36595e-03,2.71093e-39,-1.68927e-01,-4.26592e-02,7.54378e-02,-1.13090e-02,-1.89852e-02,5.00518e-02,8.92483e-02,-7.04187e-02,8.85467e-02,1.50898e-01,
3.85709e-01,
-3.18009e-02,
1.18416e-01,
-5.86424e-02,
-2.47826e-02,
-1.40226e-02,
1.37994e-01,
3.25347e-01,
3.72125e-01,
6.15940e-02,
6.27884e-03,
3.26480e-02,
-2.01403e-01,
1.49879e-01,
3.94820e-01,
1.69613e-01,
-1.69532e-13,
-3.09886e-01,
2.58190e-01,
3.34800e-01,
-7.33053e-02,
3.15392e-01,
-1.25182e-01,
-1.67500e-01,
1.56900e-01,
3.45624e-01,
-4.90560e-02,
1.01123e-01,
-1.88496e-01,
-8.95089e-02,
2.95178e-01,
-5.83128e-03,
-6.23715e-02,
8.45327e-02,
-1.42331e-01,
9.31144e-02,
1.11382e-02,
5.45576e-02,
2.91936e-01,
1.50604e-01,
-2.64786e-03,
-1.39094e-02,
1.05264e-01,
2.74639e-01,
1.23036e-01,
-1.56652e-01,
6.50165e-02,
-1.39722e-01,
3.57491e-01,
-2.23503e-01,
-7.66756e-01,7.15419e-02,2.26704e-01,4.75405e-01,8.64737e-02,-1.71410e-02,-1.60812e-01,-1.43390e-01,-4.06165e-01,-3.33702e-01,-2.02767e-01,2.38549e-02,6.97578e-01,2.23812e-01,-3.43378e-01,-3.25751e-04,3.72404e-15,9.82469e-02,-1.95820e-01,-3.93731e-01,-5.72517e-01,-9.12073e-02,2.46205e-01,9.34149e-02,8.99158e-02,-1.83700e-01,-4.55786e-02,2.14610e-01,1.03104e-01,-2.87104e-01,-1.80932e-01,2.04355e-01,5.20607e-01,-1.51302e-01,-1.13032e-01,-3.21772e-01,2.10604e-01,-2.30005e-01,-2.37609e-01,1.21124e-01,9.69936e-02,4.90650e-01,5.49726e-02,1.24757e-02,4.11365e-01,2.97407e-01,-2.25893e-01,3.78790e-01,-6.22526e-01,-4.02313e-02,
7.57753e-01,-1.31120e-01,-3.63015e-02,-3.76559e-01,-1.45223e-01,-1.34665e-02,2.63609e-01,1.27654e-02,2.90296e-01,2.78695e-01,2.68994e-01,1.41899e-02,-6.61620e-01,-1.93690e-01,1.90907e-01,-1.77753e-01,-5.64561e-15,-8.08583e-02,2.69790e-01,2.43740e-01,3.14690e-01,2.10676e-01,-2.29729e-01,-2.92829e-01,2.83063e-02,1.90988e-01,5.91938e-02,-1.91036e-01,-3.08058e-01,3.02267e-01,1.36635e-01,-2.78967e-01,-4.73642e-01,4.18415e-02,8.09631e-02,2.65928e-01,-3.22400e-01,9.69768e-02,2.56893e-01,-2.50610e-01,-3.71857e-02,-6.49701e-01,-6.85688e-02,1.02409e-01,-4.64701e-01,-3.28191e-01,3.63960e-01,-3.44805e-01,4.66827e-01,3.26446e-02,
-8.47385e-02,
-3.20815e-03,
