// Neural Network File Format by Kyle Julian, Stanford 2016
3,13,1,50,
13,50,50,1,
0,
0,0,0,0,0,0,0,0,0,0,0,0,0,
1,1,1,1,1,1,1,1,1,1,1,1,1,
0,0,0,0,0,0,0,0,0,0,0,0,0,0,
1,1,1,1,1,1,1,1,1,1,1,1,1,1,
3.39557e-01,-3.34067e-02,-1.77427e-01,-1.83684e-01,1.82180e-01,2.41354e-01,-3.32365e-01,2.61233e-01,2.00239e-01,-9.88221e-02,-1.45749e-01,1.65727e-01,-2.25099e-01,
-1.74633e-01,1.88715e-01,3.49214e-01,-4.47411e-02,-1.17004e-01,1.84308e-01,-4.94158e-01,-5.91233e-02,-2.14742e-01,3.46286e-01,-6.73360e-01,-7.66749e-02,-5.40050e-02,
1.10150e-29,1.28260e-13,-2.85655e-12,-1.31949e-11,-6.41765e-35,-3.73897e-32,-4.09266e-08,1.02301e-13,-3.45224e-11,-9.72544e-23,-2.52196e-10,6.81680e-38,-1.58583e-11,
-7.79112e-02,1.58987e-01,-1.68524e-01,2.65642e-01,2.80670e-01,1.43830e-01,-3.91226e-01,-3.07153e-01,3.33034e-01,-3.26486e-02,-2.11342e-01,4.68415e-01,-3.89250e-01,
-3.03181e-01,-1.44619e-01,-4.46006e-01,2.07107e-01,3.66143e-02,2.12631e-01,4.93706e-02,2.17335e-01,3.12150e-01,1.39097e-01,1.14130e-01,9.66644e-02,1.91135e-01,
-1.01713e-01,-1.24138e-01,3.37696e-01,-1.74887e-02,2.33477e-01,9.73730e-02,3.50287e-01,-2.44899e-01,-1.73851e-01,-2.92238e-01,3.30322e-01,3.45703e-01,-2.23091e-02,
5.03838e-02,-1.14436e-01,-1.88950e-01,-1.74670e-02,1.14599e-01,3.99341e-01,2.57732e-01,-8.21187e-02,2.94271e-01,4.24214e-01,-2.49667e-01,1.03380e-01,8.84151e-02,
-8.61309e-02,-1.48837e-01,-7.46797e-02,2.93274e-01,2.56472e-01,-2.24715e-01,2.44186e-01,-2.30640e-01,2.43126e-01,1.76625e-01,3.91590e-01,-2.89510e-01,-2.11933e-01,
-2.26532e-01,2.92141e-01,-3.67775e-02,-2.03604e-01,5.35367e-02,3.70747e-01,1.88498e-01,4.09884e-02,2.43655e-01,-3.17284e-02,1.12782e-01,-1.78812e-01,-2.98217e-01,
-2.26271e-01,5.89235e-02,3.50613e-01,-1.03042e-01,-1.87980e-01,3.03802e-01,-4.64140e-01,3.00096e-03,1.15656e-01,1.49182e-01,-2.12808e-02,-1.47142e-01,-8.47016e-02,
1.99896e-01,-2.43293e-01,5.86691e-02,2.62634e-02,8.40141e-02,1.76089e-02,-1.69370e-01,4.02749e-01,7.59845e-02,-5.51203e-02,-7.41175e-02,-5.04471e-01,-1.53402e-01,
-3.33206e-10,1.41463e-36,1.81792e-37,-6.99183e-38,-1.52579e-10,3.14301e-37,-7.00559e-11,-1.99723e-10,9.33868e-19,-4.49765e-10,-1.49836e-36,-1.85558e-13,-2.73203e-28,
-1.15314e-01,2.13523e-01,-2.10418e-01,6.19407e-02,-8.46641e-02,-2.22095e-01,1.62596e-01,1.21826e-01,3.42232e-01,-2.91180e-01,1.06486e-01,-5.91840e-01,-3.25802e-01,
3.62340e-04,2.61409e-01,-1.47817e-01,1.92645e-01,-1.54232e-01,7.25526e-02,-2.88717e-01,-4.53449e-01,1.07826e-01,-6.74097e-01,1.03239e-01,-6.31978e-01,-1.67366e-01,
7.59364e-02,4.14597e-01,-1.18794e-01,5.18509e-02,-1.14338e-01,-4.01743e-01,-3.72050e-02,-1.71393e-01,2.68743e-01,-2.16097e-01,6.92743e-02,-3.21243e-01,2.40001e-01,
1.66446e-01,3.23130e-02,-2.46546e-01,-1.44074e-01,2.24893e-01,7.42147e-02,9.70803e-02,2.37941e-01,-3.57340e-01,-2.96444e-01,2.20123e-01,-3.10812e-01,2.50838e-01,
-2.34284e-01,4.27035e-02,3.19462e-01,-1.92660e-02,2.72568e-01,-2.79394e-01,-1.49192e-01,2.40426e-01,1.88356e-01,3.57194e-01,-2.21584e-01,-4.66977e-02,-6.11819e-03,
-4.53025e-03,2.41505e-01,-2.51043e-01,-5.26235e-02,-1.01765e-01,-2.55555e-01,-1.57931e-02,3.27717e-01,-9.46006e-02,-1.85724e-03,-6.15628e-02,-5.29520e-01,-2.73748e-01,
1.31742e-01,5.40417e-02,-2.31687e-01,3.12470e-01,-1.01076e-01,1.96783e-01,-2.70073e-01,-1.67791e-01,4.05388e-02,1.70056e-01,-4.28204e-02,3.02738e-01,-2.69722e-01,
-2.36427e-01,-5.08392e-02,7.62414e-02,-2.88071e-01,-4.25152e-01,3.07952e-02,8.01140e-02,-1.31479e-01,-2.20803e-01,1.21337e-01,4.13114e-01,-9.37670e-02,1.44124e-01,
2.09526e-01,1.20413e-01,4.02689e-01,-2.89894e-02,3.97619e-02,5.84561e-02,1.36398e-01,9.27892e-02,-1.68406e-01,1.44539e-01,-2.05942e-01,-2.50747e-01,2.62925e-01,
-2.82616e-02,1.92307e-01,-7.68570e-02,-2.17557e-01,1.74741e-01,5.01290e-02,-3.31134e-01,3.22706e-01,-1.88404e-01,8.06015e-02,-1.82415e-01,-5.81312e-01,-7.30109e-02,
1.61756e-01,-1.82908e-01,1.38798e-01,-1.07170e-01,-1.49520e-01,1.42790e-01,2.31424e-01,2.85164e-01,2.23896e-03,-2.74726e-01,2.68546e-01,-6.93665e-02,7.58802e-02,
1.71015e-01,8.58634e-02,1.27906e-01,3.64984e-01,1.01013e-01,2.12345e-01,-7.99868e-02,-2.14365e-01,2.00951e-01,4.36837e-02,-9.29710e-02,1.86304e-01,4.78880e-02,
-2.56939e-01,3.49414e-01,3.06422e-01,2.11512e-01,2.15924e-02,6.25469e-02,-1.98394e-01,7.96534e-03,1.63111e-01,3.00373e-01,-2.04949e-01,4.55652e-02,2.66174e-01,
-4.52750e-01,2.11848e-01,-1.87720e-01,-2.66323e-01,2.09942e-01,-3.09679e-01,1.85768e-01,-2.51010e-01,-2.19194e-01,-2.40202e-01,-3.35634e-02,-1.47267e-01,3.95821e-01,
1.53669e-01,3.94804e-01,1.94157e-01,9.78973e-02,-1.15656e-01,-4.01243e-01,7.97032e-02,4.19045e-02,3.57502e-01,-1.91660e-01,7.44606e-02,-3.27881e-01,-1.84112e-01,
2.20256e-01,5.00658e-02,-5.53821e-01,-1.19410e-01,5.56976e-02,1.68077e-01,-3.65293e-01,3.62395e-01,4.17382e-02,3.03215e-01,-9.65351e-02,1.13653e-01,2.60515e-02,
-2.23092e-01,2.85758e-02,-4.51287e-02,-1.62040e-02,-2.79621e-02,6.61375e-02,3.26351e-01,3.01744e-01,-2.66616e-01,-9.26441e-02,3.87069e-01,-1.84301e-01,6.94769e-02,
-2.24503e-01,2.66856e-01,-3.47363e-02,-8.36076e-02,-3.68702e-02,3.07040e-01,2.78541e-01,1.82198e-01,-3.24287e-01,-1.95994e-01,-2.23566e-01,2.59539e-01,-1.53635e-01,
1.52980e-01,2.23577e-01,6.43601e-02,2.00145e-01,-4.84059e-02,8.68678e-02,-5.64852e-02,-2.75745e-01,2.51893e-02,1.60318e-02,1.51452e-01,1.37953e-01,-2.66304e-02,
-1.76637e-02,-2.13449e-01,2.64008e-01,2.12850e-01,-2.31600e-01,1.52959e-01,-2.82151e-01,6.70007e-02,1.08656e-01,-8.13086e-02,-8.05151e-04,-5.01564e-01,1.55388e-01,
3.52623e-02,-1.09307e-01,-4.00242e-01,4.02555e-02,1.31239e-01,1.42320e-01,-3.00974e-01,2.91704e-01,5.75068e-03,-3.99542e-02,-1.71414e-01,2.52234e-01,2.84402e-01,
3.23610e-01,-2.61277e-01,3.03970e-01,-1.17477e-01,-1.78976e-01,2.83209e-01,-1.09894e-01,1.05100e-01,1.75149e-01,-8.46550e-03,8.43565e-02,1.37976e-01,-2.01451e-02,
-3.47898e-01,2.37461e-01,4.05978e-01,6.67584e-02,2.57982e-01,-2.77267e-01,1.22395e-01,-5.84358e-02,5.24765e-02,-4.04536e-01,5.63804e-02,1.91669e-01,1.83025e-01,
2.67506e-01,-2.32386e-01,2.98785e-01,-1.13857e-01,-3.70483e-02,-3.06598e-01,-7.52335e-01,-4.96792e-02,3.01654e-01,2.83687e-01,-1.38027e-01,-3.48043e-01,-1.65236e-01,
-5.09512e-02,-1.25561e-01,-3.82774e-01,3.07348e-01,-2.55185e-01,-1.02589e-02,-1.65307e-01,1.56635e-01,2.45727e-02,2.47414e-01,-8.37378e-02,-4.74016e-02,4.18611e-01,
3.22880e-01,9.54532e-02,2.78026e-01,1.72255e-01,3.16363e-01,2.49128e-01,-2.88125e-01,2.15376e-01,-4.51901e-02,1.59452e-01,-1.74699e-01,-5.30846e-02,2.45584e-01,
-1.68170e-01,1.58598e-01,-1.14572e-01,-1.58308e-01,-8.48069e-02,2.57000e-01,6.87718e-02,1.05888e-01,-2.04503e-02,2.91811e-02,1.82102e-01,-1.54238e-01,2.87211e-01,
-1.97218e-01,2.35529e-02,3.28234e-01,1.20091e-01,3.17860e-01,-2.19721e-01,-8.14266e-02,4.25832e-01,-5.54038e-02,1.32441e-01,2.32928e-01,-2.79088e-01,4.07328e-02,
-2.90862e-01,1.47736e-01,8.86036e-02,1.00872e-01,2.38254e-01,-4.51904e-02,-4.34524e-02,1.46618e-01,2.06663e-01,-2.17429e-01,-3.33701e-01,3.73530e-01,-1.72289e-01,
-5.10963e-02,3.32247e-01,-7.40773e-02,-1.49280e-01,-3.74703e-01,2.83746e-01,-2.11496e-02,1.10348e-01,1.90492e-01,-3.59093e-01,5.57460e-02,-1.70916e-01,-2.34786e-01,
-1.11540e-02,3.05905e-02,3.42673e-01,2.14448e-01,-1.25760e-01,6.05251e-02,1.91216e-01,-2.08138e-01,-5.94978e-02,3.39949e-01,-1.75168e-01,-2.76844e-01,1.14800e-01,
5.34146e-02,-3.19140e-01,-2.37955e-01,-2.85366e-01,-8.71789e-02,-2.25767e-01,2.90514e-01,9.16424e-02,-4.42941e-01,5.49546e-01,6.75652e-02,-2.51027e-01,1.25613e-01,
3.79036e-01,-2.40904e-01,3.13081e-01,-6.79293e-02,6.71242e-02,2.32674e-01,-4.47978e-01,2.95784e-01,-4.50366e-01,-3.88474e-01,-1.21056e-01,1.99673e-01,-2.29109e-01,
-1.47773e-01,9.65769e-02,2.31374e-01,4.55549e-02,1.82602e-01,1.70990e-01,-4.96682e-01,1.83075e-01,2.88963e-01,-1.93114e-01,-9.44509e-02,-4.33324e-01,-1.75310e-01,
-3.84672e-02,2.54150e-01,-1.45087e-01,-9.82168e-02,7.18323e-02,4.13626e-01,-5.26828e-02,-1.06870e-01,7.26004e-02,2.98420e-01,-3.43172e-01,2.71217e-01,-4.90430e-01,
-2.07438e-01,-2.12614e-01,-1.66668e-01,-5.71590e-02,-1.76667e-01,2.72061e-01,5.36626e-02,2.74145e-01,2.12340e-01,-1.58860e-01,2.22804e-01,4.16801e-01,2.83734e-01,
1.15619e-01,-8.22950e-02,1.85838e-01,2.17169e-01,-3.67816e-02,1.58577e-01,1.84190e-01,3.15919e-02,-3.40982e-01,1.47551e-01,-2.39773e-03,-1.13317e-01,8.10786e-02,
-7.14067e-02,-2.06857e-01,-4.28772e-01,-3.54370e-02,1.19800e-01,2.60657e-01,3.09362e-01,7.09403e-03,2.02464e-01,2.63216e-01,-3.71138e-01,-1.64868e-01,2.67611e-02,
2.26247e-02,
5.84783e-02,
-3.45906e-37,
2.75939e-02,
-8.92551e-02,
9.23416e-02,
-6.47311e-02,
1.06649e-01,
-9.11400e-03,
6.47861e-02,
1.29343e-01,
-3.45906e-37,
1.03683e-01,
-1.77166e-03,
-1.30299e-02,
1.84721e-02,
3.03568e-02,
4.78907e-02,
7.78655e-02,
6.32197e-02,
1.97971e-02,
8.91984e-02,
5.45834e-02,
3.99305e-02,
5.13625e-03,
5.84100e-03,
3.97273e-02,
-2.95109e-03,
8.00571e-02,
2.98383e-02,
2.32623e-02,
6.24358e-02,
-3.42666e-02,
8.51138e-02,
-3.08142e-02,
9.35742e-02,
-2.93408e-02,
2.52295e-02,
2.56346e-02,
9.46228e-02,
9.98361e-02,
3.85473e-02,
-7.31802e-03,
9.53213e-02,
9.48398e-02,
6.89310e-02,
5.35802e-02,
1.04316e-01,
-5.99312e-03,
2.58684e-02,
-1.63255e-01,2.69964e-01,4.37806e-37,-5.25260e-01,1.53114e-01,6.43880e-02,-2.01952e-01,-3.28311e-02,2.16972e-02,4.22664e-01,8.02575e-02,-1.52598e-35,1.31129e-01,1.10596e-01,-4.83444e-02,4.19023e-02,-2.97361e-02,3.04496e-01,-4.12039e-01,3.96308e-01,3.14045e-02,1.25270e-01,-1.79068e-02,-7.69239e-02,-1.97418e-01,-1.62548e-01,-2.95026e-01,-2.45890e-01,-7.31216e-02,3.24592e-01,6.00891e-02,2.67296e-01,-8.03918e-02,2.29723e-01,-1.78796e-01,3.98433e-01,-2.71368e-01,4.71137e-02,8.51651e-02,2.71433e-01,1.08666e-01,3.33720e-01,-6.13158e-02,6.77626e-01,-2.60815e-02,2.77333e-01,-3.78739e-01,5.81281e-02,1.49369e-01,-4.54921e-01,
-2.30850e-01,5.55722e-01,1.35527e-31,-2.03972e-01,-1.63411e-01,3.28220e-01,3.53276e-02,1.66849e-01,-1.01005e-02,-1.87123e-02,3.13206e-01,-2.50103e-37,2.04752e-01,1.30148e-01,-1.18317e-01,-1.89725e-01,-2.51018e-01,3.03225e-01,-3.11914e-01,3.07394e-01,6.00029e-02,5.29147e-01,1.32266e-01,7.49966e-02,-1.06523e-01,-4.77766e-01,1.47301e-01,-1.08854e-02,-1.11504e-01,1.10919e-01,-2.02646e-01,1.34472e-01,-1.87557e-01,-4.26905e-02,-1.41520e-01,2.82960e-01,8.15244e-03,1.57115e-01,1.71751e-01,2.23922e-01,1.09954e-01,3.79385e-01,-1.90276e-02,2.61673e-01,-4.76978e-02,9.70727e-02,-5.04915e-01,2.04232e-01,9.11824e-02,-8.33917e-01,
1.89280e-01,3.83823e-01,1.41530e-12,-1.20767e-01,-3.05283e-01,4.25295e-03,1.55800e-01,2.67629e-01,5.08190e-02,3.68466e-01,1.36086e-01,1.21584e-15,1.84362e-01,2.09141e-01,-1.30274e-01,1.99542e-01,-2.41225e-03,1.31082e-01,-6.02277e-01,-1.83672e-02,-7.58380e-03,1.25943e-01,2.68919e-01,1.29316e-01,6.30471e-02,-1.46543e-01,-3.63399e-02,-2.34242e-01,-3.47523e-02,2.77911e-01,-9.43968e-02,-4.48051e-02,-2.58258e-01,6.51943e-02,2.20855e-01,5.37920e-01,-9.29295e-03,5.56454e-02,-7.75867e-02,2.16875e-01,2.15511e-01,2.65408e-01,-2.76402e-01,3.38134e-01,-2.86149e-01,1.48067e-02,-2.45602e-01,-8.22014e-02,4.82704e-02,-4.84582e-01,
-1.75315e-01,6.03864e-01,1.49289e-23,-5.86510e-01,-1.83936e-01,1.60900e-01,-2.29551e-01,3.01537e-01,-4.60634e-02,2.82938e-01,-3.79997e-02,3.76005e-32,1.64133e-01,4.29422e-01,6.46792e-02,-1.13498e-01,-2.54755e-02,1.97861e-01,-3.57333e-01,2.68190e-01,-3.61238e-02,1.76988e-01,2.88955e-01,-1.89221e-01,1.63835e-01,-4.51519e-01,-3.99576e-02,-1.65118e-02,2.46150e-01,2.49372e-01,-7.37874e-02,4.26310e-01,1.86417e-01,-4.24135e-02,-5.60468e-02,5.62439e-01,-3.68965e-01,3.08405e-02,1.15410e-01,2.73462e-01,8.67099e-02,2.16605e-01,-8.41927e-02,3.03991e-01,1.07463e-01,1.26167e-01,-3.36609e-01,7.88517e-02,2.25338e-01,-6.14702e-01,
1.63333e-01,-5.38676e-01,-3.61633e-24,3.71055e-01,8.91578e-02,8.22738e-02,-2.02106e-02,1.55087e-01,7.19555e-02,-1.00054e-01,-2.57139e-01,-8.90304e-36,-1.07943e-01,-5.23509e-01,1.96059e-01,-1.39189e-01,2.05998e-01,-2.90526e-01,4.75513e-01,-9.53922e-02,1.81715e-01,-3.02830e-01,-1.99964e-01,1.70425e-01,2.67059e-01,3.72220e-01,2.00320e-01,2.63424e-01,-9.92442e-02,-1.02072e-01,1.97761e-01,-1.04590e-01,2.16582e-01,9.91027e-02,-4.05947e-02,-5.67810e-01,2.24503e-01,2.28920e-01,7.50640e-02,9.11640e-02,-6.30737e-02,-4.03481e-01,-4.36672e-02,-5.63622e-01,2.64540e-02,-4.25161e-01,5.40067e-01,1.87983e-04,-7.16569e-02,5.62864e-01,
7.83960e-02,4.22572e-01,-1.61754e-35,-3.07413e-01,9.78047e-02,2.84999e-01,1.17937e-01,2.86386e-01,-1.09725e-01,3.52977e-01,9.88580e-02,-4.55758e-13,2.91293e-01,3.93479e-01,1.43047e-01,2.01780e-01,5.29466e-02,3.35191e-01,-6.38199e-01,3.02951e-01,5.45746e-02,3.02782e-01,1.09269e-01,6.68416e-02,5.80591e-02,-1.34795e-01,-1.27077e-01,-2.69635e-01,2.05738e-01,3.05880e-01,-1.90981e-01,3.93058e-01,-7.78404e-02,-2.92774e-02,5.80483e-02,5.16442e-01,-3.58029e-01,7.92652e-03,2.25574e-01,-2.02708e-01,2.78141e-01,7.50907e-02,-1.49152e-01,5.06420e-01,-1.58109e-01,3.28323e-01,-3.91511e-01,-3.90877e-02,4.34023e-02,-4.32506e-01,
-6.04498e-14,6.06334e-36,5.53201e-37,2.52019e-33,-1.12529e-23,1.84329e-18,-3.22927e-30,6.35710e-23,3.37610e-37,-1.51345e-35,-5.48113e-37,-1.32188e-12,-4.46144e-18,-5.00099e-14,-1.19747e-38,-1.25745e-33,-3.77703e-37,1.51179e-35,-3.15793e-12,1.45169e-31,-7.57513e-38,6.87175e-38,-1.35396e-25,-3.68406e-15,-1.77836e-35,3.45557e-21,2.36922e-30,1.99447e-28,1.05910e-20,-9.58419e-13,-1.31399e-11,3.13554e-37,4.65092e-37,-3.01329e-37,2.95631e-37,1.12666e-37,3.54707e-35,-3.48200e-11,-2.08740e-19,-1.64002e-36,-4.12561e-37,6.77531e-31,-2.44778e-37,2.36272e-34,-7.38085e-17,2.33858e-37,-5.75307e-15,-8.72970e-32,-2.31990e-31,-1.40402e-33,
-2.91480e-37,-3.73417e-14,2.59288e-15,-6.08869e-37,-6.14628e-37,2.52497e-29,2.42070e-37,6.30638e-38,7.33350e-27,-5.74895e-29,1.07753e-30,1.73637e-29,3.62033e-24,1.27724e-36,6.30670e-28,2.98205e-36,-2.34721e-15,-1.56058e-36,-6.64735e-22,7.19632e-27,4.00912e-25,-8.66534e-17,1.66387e-33,-1.33608e-34,2.95076e-38,-1.26638e-11,5.45451e-35,-1.59626e-22,-1.07107e-17,-1.55077e-22,-6.84393e-37,6.91093e-37,-1.50781e-36,-4.62260e-13,-6.38326e-32,-4.43105e-23,-5.56111e-14,3.25793e-37,4.03087e-37,-7.71069e-33,7.30422e-35,-2.22287e-37,2.06334e-15,1.56274e-16,3.72683e-37,-6.13055e-13,-1.89341e-22,-3.11153e-19,-2.92206e-15,5.93194e-21,
2.91000e-01,-3.72172e-01,2.88902e-29,4.01598e-01,-2.36381e-02,-1.34175e-01,1.49361e-01,-1.33117e-01,-1.14363e-03,-1.46415e-01,-9.12139e-02,-1.97063e-12,-3.11436e-01,-1.24677e-01,-5.49202e-02,1.36117e-03,2.34105e-01,-3.71673e-01,7.04610e-01,7.55377e-02,-6.34260e-02,-7.11888e-02,-1.60785e-01,2.76006e-01,1.83682e-01,2.93184e-01,-3.33896e-03,2.57562e-01,6.51907e-02,-2.61528e-01,-1.73896e-01,-1.87581e-01,2.96361e-01,-3.79485e-02,2.03944e-01,-4.98725e-01,2.79844e-01,2.23385e-01,1.63115e-01,9.85877e-02,-3.38232e-01,-1.81224e-01,5.55161e-02,-3.64018e-01,1.87217e-01,-4.90268e-01,4.68288e-01,4.19127e-02,-7.91852e-02,6.42600e-01,
5.36811e-02,6.32297e-01,-3.21982e-37,-2.37935e-01,-3.91973e-02,-8.72358e-02,-7.67267e-02,5.49852e-02,1.54627e-01,1.99338e-01,4.21240e-01,4.06797e-21,9.37945e-02,1.58918e-01,-2.89224e-02,-2.15489e-01,-2.56999e-01,4.94323e-01,-5.82147e-01,3.59907e-01,2.19506e-01,5.51547e-01,3.57185e-04,-1.56318e-01,-1.22312e-01,-9.57756e-02,1.94054e-01,6.51684e-02,2.09281e-01,3.06275e-01,1.10487e-01,6.35935e-03,1.62490e-01,2.74442e-01,-5.27396e-02,5.94481e-01,-2.27559e-01,-1.69157e-01,-5.91685e-02,1.36585e-01,1.88137e-01,8.70985e-02,-2.85946e-01,2.29820e-01,1.68460e-02,2.37870e-01,-2.84758e-01,2.90520e-01,3.51463e-02,-7.10769e-01,
1.01927e-01,-6.41258e-01,1.38743e-35,7.23540e-01,1.81526e-01,-2.01877e-01,1.59732e-01,1.35898e-01,3.01158e-03,-2.40799e-01,-2.68050e-02,4.64916e-37,-2.45758e-01,-4.44512e-01,2.90163e-01,1.16002e-01,6.84645e-02,-1.96365e-01,6.04941e-01,-2.87781e-02,1.45480e-01,-5.87035e-01,-2.73650e-01,1.26971e-01,1.02541e-01,2.96812e-01,7.50936e-02,4.13514e-01,7.08226e-02,-5.33548e-02,1.24815e-01,-1.36504e-01,2.57267e-01,8.96862e-02,2.67404e-01,-5.51249e-01,4.34720e-01,2.20822e-02,2.27905e-01,1.38041e-01,-4.23262e-01,-4.02280e-01,2.65151e-01,-4.87430e-01,3.14007e-01,-8.80635e-02,2.55293e-01,-2.43502e-01,-1.57420e-01,4.88782e-01,
8.78923e-02,3.40099e-01,5.78593e-30,-5.79320e-01,-1.69397e-01,-2.36042e-01,-3.36928e-01,-1.29205e-01,-3.73813e-02,-1.45881e-02,-7.49272e-02,1.94856e-18,1.14850e-01,-1.23563e-01,-1.08584e-01,-1.46154e-01,2.32251e-01,-3.03997e-02,-2.14249e-01,3.15866e-01,-4.16916e-02,2.26142e-01,1.93865e-02,1.80830e-01,1.57151e-01,-9.84368e-02,-2.49770e-01,1.75285e-01,-3.28798e-01,3.95058e-01,-6.61115e-02,3.90800e-02,-8.69708e-02,-1.79196e-02,-9.07690e-02,5.06815e-01,1.76379e-01,5.99854e-02,1.12195e-01,1.96440e-02,3.65635e-01,4.17201e-01,6.63742e-02,1.67476e-01,5.98960e-01,2.23036e-01,-2.39864e-01,-2.11726e-01,-1.98801e-01,-2.30488e-01,
1.13781e-01,4.54036e-01,3.12707e-36,-1.48499e-01,-2.09210e-01,2.79031e-01,-2.02622e-01,3.15914e-01,1.64561e-01,-5.25268e-02,1.39343e-01,1.88725e-16,7.65017e-02,2.92013e-01,9.06856e-02,-2.42564e-01,8.69674e-03,3.73519e-01,-7.10938e-01,4.76356e-02,1.55664e-01,3.89142e-01,1.36738e-01,-1.76769e-01,1.53188e-01,-4.89865e-02,-2.45670e-01,-3.29825e-01,5.00679e-02,3.13027e-01,7.70479e-02,1.31507e-01,1.42799e-01,2.83795e-01,7.25028e-03,1.62680e-01,-3.66618e-01,1.62679e-01,-1.13754e-01,6.35210e-02,2.68231e-01,6.43614e-03,-1.38098e-01,3.66814e-01,-3.06290e-02,1.02421e-01,-3.01949e-01,1.84927e-01,-2.21573e-03,-6.48654e-01,
2.30423e-01,-4.12578e-01,-5.09063e-37,2.34496e-01,2.36212e-01,3.55503e-02,3.69000e-01,1.10013e-01,1.87907e-02,-1.33740e-01,-3.43595e-01,-1.71218e-21,-3.21321e-01,-1.20819e-01,4.36341e-02,-2.15480e-01,1.99350e-01,-9.02319e-02,5.05546e-01,1.70220e-02,1.27415e-01,-2.69725e-01,2.68567e-02,3.89356e-02,2.66450e-01,1.63237e-01,1.67717e-01,2.93180e-01,-6.50936e-02,-2.35054e-01,1.17789e-01,-2.42514e-01,1.04048e-01,-1.26529e-01,-5.77262e-02,-5.32285e-01,-3.48038e-02,2.48424e-01,-1.06946e-01,8.26024e-02,-3.40012e-01,-1.33914e-01,3.85661e-01,-2.98775e-01,-2.13052e-01,-3.77961e-01,5.29659e-01,-1.56369e-01,5.11357e-02,5.87020e-01,
2.78774e-02,3.54632e-01,-8.73907e-35,-6.41265e-01,-3.44211e-03,-1.65815e-01,4.15883e-02,2.66565e-02,-1.18270e-02,-9.69808e-02,6.07799e-02,1.01516e-13,4.18906e-01,2.19559e-01,2.38133e-01,-4.71657e-02,-2.41278e-02,4.16120e-01,-4.19123e-01,2.31656e-01,-1.64010e-01,2.34810e-01,-1.40571e-01,-2.28698e-01,-5.60077e-03,-2.68197e-01,9.55504e-02,1.35931e-01,-3.70743e-03,6.12874e-02,-8.64028e-02,7.90683e-02,-3.55443e-01,4.51308e-02,2.10660e-01,6.14861e-01,-2.15552e-01,-3.16004e-02,9.85051e-02,2.55744e-01,8.40646e-02,4.32984e-01,-1.48298e-01,2.54325e-01,-1.61515e-02,3.09652e-02,-3.66850e-01,-9.93449e-02,-3.32870e-01,-3.84790e-01,
-2.94729e-02,-2.67822e-11,-1.84578e-37,7.51822e-02,-1.70580e-01,8.55063e-02,1.36202e-01,-1.51931e-01,-8.82593e-02,3.20024e-18,-1.73751e-01,-5.29480e-14,-9.91649e-15,1.56393e-01,-4.26655e-02,-2.38932e-01,1.24266e-01,-7.06700e-38,-2.07657e-01,6.01590e-36,-2.24641e-01,7.23610e-38,7.20240e-02,2.92364e-02,1.60343e-01,-7.20943e-02,2.78649e-03,1.61128e-01,-2.50220e-02,1.31363e-01,5.54898e-02,-4.23174e-02,1.89963e-01,3.67124e-02,-8.01029e-02,3.56723e-02,-4.20061e-02,-2.02781e-01,-4.05016e-02,3.61381e-02,-1.57903e-01,-2.05565e-01,-1.34730e-01,-8.92347e-03,2.62796e-02,-1.66801e-01,1.49619e-01,-1.58863e-01,-9.87709e-02,-4.20857e-02,
-2.05744e-02,-4.44728e-02,5.19397e-16,6.03250e-01,3.15565e-01,-3.75521e-01,-5.35657e-03,-1.45633e-01,-8.16461e-02,-2.82916e-01,-1.77289e-01,1.52687e-20,-1.63078e-01,-3.99114e-01,4.27285e-02,9.60691e-02,-6.78629e-02,-1.96274e-01,4.47970e-01,-1.15722e-01,-2.23187e-01,-2.56430e-01,-1.56000e-01,-8.58520e-02,-1.02068e-01,6.17200e-02,-1.09957e-01,3.55851e-01,-3.80401e-02,-3.74967e-01,1.14123e-01,3.29629e-02,2.27847e-01,3.43435e-03,-1.10333e-01,-2.64786e-01,2.51215e-01,4.97845e-02,2.80552e-01,1.82774e-01,3.37634e-02,-8.88992e-02,7.51415e-02,-4.40545e-01,4.93107e-01,-1.40027e-01,4.18729e-01,3.76081e-01,-7.87438e-02,6.98833e-01,
2.04699e-01,-4.38536e-01,3.53444e-12,4.96852e-01,2.03682e-01,-2.53461e-02,-6.04933e-02,-2.80833e-01,-8.82468e-02,-2.98258e-01,-3.15631e-02,-3.41712e-18,-2.81169e-01,-1.65528e-01,2.57977e-01,-1.76065e-01,1.34353e-01,-5.34038e-01,3.91993e-01,6.18332e-03,1.31024e-02,-2.45147e-01,2.03902e-01,2.29145e-01,2.43133e-01,4.70914e-01,1.70031e-01,4.08385e-02,-1.25066e-01,-2.56073e-01,1.46088e-01,-1.90275e-01,9.33298e-02,-2.56135e-01,-1.00330e-02,-5.48188e-01,2.47473e-01,-5.41425e-02,2.41437e-01,-2.98081e-02,-4.38754e-01,-3.78535e-01,3.01218e-01,-5.80001e-01,2.75225e-01,-1.33454e-01,4.97792e-01,1.33338e-01,2.21607e-01,4.95122e-01,
-2.01248e-01,6.63290e-01,2.64028e-34,-2.89151e-01,-1.43123e-01,2.53475e-01,-1.02895e-02,9.88199e-02,2.05841e-01,2.03282e-01,2.04721e-01,-4.27416e-37,8.95609e-02,2.76682e-01,-2.57051e-01,5.82335e-02,-1.48180e-01,3.56528e-01,-4.68890e-01,4.04497e-01,1.24618e-01,8.80653e-02,1.92023e-01,1.86853e-01,1.55653e-01,-3.72108e-02,1.44950e-02,-1.26649e-01,1.39841e-01,1.46330e-01,1.22808e-01,3.26225e-01,-2.07607e-01,-9.35721e-02,-1.39743e-02,4.09184e-01,-3.21457e-01,-1.88406e-02,1.13526e-01,3.72673e-02,2.39612e-01,-6.78220e-05,-3.48580e-01,4.90167e-01,-1.09728e-01,2.93329e-01,-5.04127e-01,2.30242e-01,1.97901e-01,-7.76771e-01,
1.87313e-01,-5.03821e-01,3.81929e-38,3.75836e-01,9.54719e-02,1.06140e-01,8.83767e-03,-3.07293e-01,-4.36904e-02,-3.86038e-01,-1.43895e-01,1.17867e-26,-2.75121e-01,-2.86709e-01,3.11828e-01,-2.42926e-02,2.70806e-02,-3.70607e-01,6.38629e-01,-1.59539e-01,1.34437e-02,-4.97943e-01,9.23502e-02,2.38368e-01,-2.81678e-02,3.52126e-01,2.57986e-01,3.33390e-01,-1.76549e-01,5.64468e-03,-1.97059e-01,-2.52936e-02,-4.95629e-02,-1.29730e-01,-7.37068e-02,-3.64075e-01,1.28841e-02,2.08508e-01,1.80530e-01,1.56502e-01,-4.20073e-01,-3.76295e-01,7.25149e-02,-4.60108e-01,2.35597e-01,-1.19984e-01,5.66757e-01,5.98872e-03,1.47761e-01,7.90505e-01,
-1.62410e-02,-3.00037e-01,-4.14354e-30,3.84939e-01,2.85990e-01,-3.92363e-01,5.67215e-02,-1.57227e-01,-1.81577e-01,-5.10578e-01,-2.29534e-01,1.45029e-37,-2.46002e-01,-2.48674e-01,2.67330e-01,2.69231e-01,2.99790e-01,-2.43700e-01,6.64257e-01,-2.32268e-01,1.84459e-01,-5.40342e-02,1.98437e-01,2.37114e-01,-9.58651e-02,4.54112e-01,-1.98417e-01,4.03841e-01,-1.06440e-01,-5.07622e-01,1.37006e-01,-2.74241e-01,3.57454e-01,-1.83898e-01,-1.78120e-01,-2.62727e-01,1.77919e-01,-1.15670e-01,-4.52407e-02,1.10284e-01,2.80748e-03,-3.55811e-01,2.88418e-01,-2.34533e-01,4.09994e-01,-3.90664e-01,4.13237e-02,1.33348e-01,-6.18986e-02,6.16792e-01,
5.51165e-02,2.10442e-01,-2.84402e-14,-3.54946e-01,-2.21307e-02,3.59200e-01,-1.43256e-01,3.43507e-01,2.94291e-01,1.82558e-01,3.82443e-01,1.84493e-20,3.72877e-01,5.18215e-01,1.56028e-01,2.83802e-01,1.57673e-01,4.60747e-01,-5.58013e-01,1.23456e-02,-9.65043e-02,4.49251e-01,3.17240e-01,-3.63423e-02,-2.54063e-01,-5.10018e-01,1.71123e-01,-8.82440e-02,1.15066e-01,1.76567e-01,7.28678e-02,1.79802e-01,-2.15063e-01,1.03085e-01,-2.42899e-01,5.76686e-01,5.92351e-02,-1.88232e-01,6.23159e-03,-9.97816e-02,1.29160e-01,2.02050e-01,-4.46926e-01,4.97910e-01,-5.02347e-01,2.25252e-01,-4.71321e-01,2.84289e-01,-9.05043e-02,-6.77825e-01,
4.56481e-02,-3.62450e-01,3.52060e-37,4.95329e-01,3.69671e-01,-3.06374e-01,3.64877e-01,-1.19013e-01,-2.44797e-01,-3.09019e-01,-1.20353e-01,-3.14604e-37,-5.49154e-02,-2.78043e-01,1.42360e-01,1.28309e-02,7.32497e-02,-5.25092e-01,7.93962e-01,-3.01794e-01,2.81504e-01,-3.32073e-01,-1.44838e-01,3.33651e-03,9.79084e-02,1.79451e-01,2.05879e-01,2.42712e-01,1.53373e-01,-6.00666e-02,9.27640e-02,-3.91211e-01,-3.14762e-02,-4.53157e-02,2.29669e-01,-5.71029e-01,4.81914e-02,1.83853e-01,2.18306e-01,2.07952e-01,-2.38632e-01,-1.46157e-01,3.22034e-01,-2.11269e-01,3.98248e-01,-3.92564e-02,4.10837e-01,-2.23434e-01,-1.66070e-01,8.07616e-01,
-1.09457e-01,2.08601e-01,-6.37319e-37,-5.65413e-02,-6.37018e-02,2.46281e-01,1.36709e-01,-4.47368e-02,3.24102e-01,6.95572e-02,3.90028e-01,4.34605e-13,1.41959e-01,-1.91496e-01,-2.28583e-02,7.27124e-02,2.64749e-01,4.03726e-01,-2.14467e-01,2.78995e-01,-1.85914e-01,2.83055e-01,-1.18916e-01,-2.96884e-01,-2.50640e-01,-5.06742e-01,-8.99721e-02,-9.63972e-02,2.98857e-01,1.68934e-01,3.13747e-02,2.07438e-01,-7.93616e-02,1.25501e-02,-9.90595e-02,1.70031e-01,-5.88141e-03,-8.08583e-02,3.35493e-02,2.35183e-01,2.42454e-01,8.66760e-02,-4.00521e-01,5.96254e-01,-5.00177e-01,8.47655e-02,-2.28171e-01,-2.15790e-03,2.56994e-01,-6.48796e-01,
1.23899e-01,-6.71489e-01,-1.37060e-11,5.65994e-01,1.22545e-02,9.99164e-02,-4.39265e-02,3.10019e-02,-2.71632e-01,-3.43114e-01,-2.50607e-01,4.91156e-37,-3.42706e-01,-3.23963e-01,1.84097e-01,2.54942e-01,-1.15012e-02,-5.21261e-01,7.41659e-01,1.01648e-01,-7.27657e-03,-1.41327e-01,-1.95202e-01,2.30176e-01,3.39011e-01,3.85550e-01,2.88707e-02,2.90880e-01,-1.58066e-01,-4.95077e-01,5.50615e-02,-2.37364e-02,2.08253e-01,-1.91235e-01,1.63284e-02,-3.33508e-01,1.78748e-01,2.71480e-01,2.81253e-02,1.35055e-01,-3.45705e-01,-4.28248e-01,1.96237e-01,-5.43401e-01,1.15280e-01,-3.90384e-01,3.74472e-01,-7.86425e-02,1.78259e-01,7.34643e-01,
1.80683e-01,-4.59214e-01,-4.08284e-34,2.78910e-01,2.26127e-01,-3.23280e-02,1.88722e-01,2.18723e-02,-1.85728e-01,-1.85121e-01,-2.08828e-02,-2.46449e-20,-2.54704e-01,-5.51741e-01,7.55776e-02,-1.60478e-01,6.22519e-02,-1.72552e-01,4.38265e-01,-4.06755e-01,-1.07201e-01,-2.99365e-01,1.30392e-01,-4.09444e-02,2.46855e-01,2.03678e-01,1.88659e-01,4.32510e-01,-1.47897e-01,-9.65021e-02,-4.76614e-02,-5.02166e-02,3.02569e-01,-7.28105e-03,-2.22805e-01,-5.96008e-01,3.57874e-01,2.32065e-01,1.60260e-01,1.10891e-01,-2.02354e-01,-1.14741e-01,3.23222e-01,-3.68144e-01,1.41474e-02,-2.21810e-01,3.83380e-01,3.25525e-02,-1.05722e-01,6.99480e-01,
2.91888e-01,-2.37234e-01,-3.35209e-11,2.05565e-01,-7.43987e-02,-1.09942e-01,2.90047e-01,1.51366e-01,8.82511e-02,7.82695e-02,1.39071e-02,6.43739e-13,-1.79376e-01,-3.81617e-01,1.79396e-01,1.34785e-01,5.72252e-02,-3.95795e-01,4.55714e-01,-1.44241e-01,2.83411e-01,-5.16167e-01,1.30762e-01,2.57156e-02,1.92268e-01,4.18855e-01,1.91323e-01,-6.03216e-02,-1.34614e-01,-3.61961e-01,2.68382e-01,-6.82759e-02,3.44380e-01,-2.71040e-01,-1.59912e-01,-4.67275e-01,3.26056e-01,1.72335e-01,1.75900e-01,2.21586e-02,-4.28706e-01,-2.81368e-01,1.00653e-01,-3.75774e-01,8.64522e-02,-1.25658e-01,4.80065e-01,-2.91710e-02,9.93959e-02,3.84907e-01,
4.51858e-02,4.19512e-01,2.80113e-24,-4.89476e-01,-1.11499e-01,-7.91923e-02,-1.06005e-01,-9.95813e-02,2.12159e-02,-9.54010e-02,-2.55264e-02,5.95871e-27,4.44228e-01,5.20370e-01,7.78512e-02,-2.83672e-01,-1.73227e-01,5.77010e-01,-6.50085e-01,2.89831e-01,1.76816e-01,4.27084e-01,-1.32198e-01,1.50114e-01,8.73605e-02,-1.30357e-01,2.66752e-01,1.99169e-01,-3.36849e-01,-2.28307e-02,-1.49985e-01,-2.70395e-02,-1.60800e-01,2.92598e-02,1.14244e-01,4.36395e-01,-1.22075e-01,-1.53372e-01,-8.92534e-02,-2.51601e-02,2.05758e-01,1.63772e-01,-1.98285e-01,-2.39296e-02,-1.11314e-02,2.56920e-01,-2.77352e-01,1.36236e-02,-1.31807e-01,-3.62104e-01,
-2.78642e-02,5.76513e-01,3.53949e-37,-4.03259e-01,-2.00716e-01,2.89561e-01,-2.58005e-01,1.72737e-03,2.24618e-01,4.13805e-01,2.83580e-01,-4.13896e-32,2.66262e-02,2.76513e-01,1.81196e-01,1.23909e-01,8.18152e-02,3.37478e-01,-4.75893e-01,2.68931e-01,-1.09198e-01,4.24182e-01,2.48149e-01,8.49343e-02,-1.43279e-01,-2.58101e-01,2.70082e-02,-9.38172e-02,-1.94076e-01,1.32742e-01,-8.88468e-02,3.42008e-01,-1.17575e-01,-8.85857e-02,2.50606e-01,3.01274e-01,-3.78582e-01,9.00525e-02,3.09768e-01,-8.32545e-02,3.31800e-01,2.71793e-02,2.19468e-02,5.96284e-01,-1.42992e-01,9.98476e-02,-4.09727e-01,1.19301e-01,-1.84364e-01,-6.45703e-01,
2.07244e-01,-5.94842e-01,2.07109e-20,1.96224e-01,6.82880e-02,-2.36656e-01,3.59742e-01,-9.01232e-02,-1.59165e-01,4.44535e-02,-2.19632e-01,1.22286e-34,-2.06439e-01,-1.78263e-01,-2.82824e-03,2.10061e-01,9.37718e-02,-4.27431e-01,3.77137e-01,-1.32095e-01,1.13535e-01,-2.72452e-01,2.15902e-01,2.18390e-01,-5.70097e-02,4.28496e-01,1.00749e-01,-5.13606e-04,-1.72468e-01,-2.63194e-01,-7.93592e-02,-3.44417e-01,-5.46801e-02,1.41333e-01,1.28678e-01,-5.54564e-01,2.18899e-01,1.73984e-01,2.48095e-01,2.45120e-02,-2.61676e-01,-1.12276e-01,2.17761e-01,-5.76590e-01,2.39243e-01,-3.44328e-01,3.39151e-01,-7.80685e-02,-3.32365e-02,6.42081e-01,
3.85244e-02,-3.48546e-01,3.24210e-37,6.83667e-01,1.97287e-01,-1.81220e-01,-4.16800e-02,-1.95417e-01,-1.86565e-01,-5.99548e-02,-1.65161e-01,-1.89849e-20,-7.99004e-02,-4.51720e-01,3.02743e-01,8.35394e-02,2.69985e-01,-1.35237e-01,6.80109e-01,-2.76200e-01,1.28136e-01,-1.55716e-01,2.18081e-01,1.28599e-01,-5.52428e-02,3.55870e-01,-1.63960e-01,4.49078e-01,-1.55850e-01,-8.17782e-02,2.63642e-02,3.87235e-02,2.70619e-01,-1.80822e-01,6.11851e-02,-3.44495e-01,1.89108e-01,1.15360e-01,8.32876e-02,1.83489e-01,-1.77099e-01,-3.14408e-01,2.94405e-01,-6.20929e-01,2.81841e-02,-4.58243e-01,3.36398e-01,-3.24451e-02,-1.18417e-01,7.33075e-01,
1.58950e-01,4.88678e-01,7.01562e-16,-4.18517e-01,-3.08633e-01,2.97725e-01,-2.26042e-02,-1.60165e-02,-5.13973e-02,2.81585e-01,2.54741e-02,-3.23232e-18,2.17498e-01,3.64999e-01,3.93764e-03,2.21774e-01,3.88325e-02,1.76733e-01,-6.42408e-01,1.56951e-01,2.05655e-01,3.90503e-01,2.06254e-01,2.11603e-01,-3.56685e-02,-5.14038e-01,-1.16036e-01,-3.36551e-02,2.82435e-01,3.47332e-01,1.08688e-01,1.51130e-01,-1.78162e-01,2.61197e-01,-3.50680e-02,3.52425e-01,-6.05420e-02,-2.22534e-01,1.12896e-01,-1.40229e-01,4.16722e-01,3.48435e-01,-3.07832e-01,6.61303e-01,-1.43108e-01,3.93348e-01,-5.18567e-01,-6.87089e-02,-1.88047e-01,-4.19994e-01,
7.44428e-02,4.90237e-01,5.97618e-36,-5.67876e-01,-2.52716e-01,-9.60871e-02,-3.27601e-01,2.75508e-01,3.54043e-01,2.56016e-02,9.81626e-02,5.91245e-37,4.38666e-02,3.22815e-01,-3.05832e-01,1.33017e-01,2.34925e-01,4.77216e-01,-4.88830e-01,3.57119e-02,-1.86985e-01,5.46106e-01,1.71884e-01,-4.43521e-02,1.87909e-02,-4.42815e-01,-1.13862e-01,-1.09788e-01,2.49093e-01,1.49859e-01,-1.31509e-01,2.91750e-01,-1.81611e-01,3.46667e-02,-1.16003e-01,6.11289e-01,-2.62802e-01,7.31616e-02,-1.28285e-02,-1.34282e-01,1.96552e-01,2.72646e-01,4.49112e-02,5.01459e-01,-1.58613e-01,4.65288e-01,-3.55594e-01,2.13066e-01,1.87534e-01,-5.21927e-01,
1.38549e-01,3.74893e-01,-5.04292e-18,-5.67129e-01,1.11330e-01,1.26389e-01,-1.45783e-02,-8.11351e-02,1.72763e-02,-1.30442e-02,-1.47977e-02,-1.72274e-37,1.33314e-01,3.20830e-01,8.83028e-02,1.69137e-01,1.26996e-01,5.11765e-01,-3.16416e-01,3.18551e-01,5.65145e-03,1.63278e-01,2.79664e-01,-2.54251e-02,1.32176e-01,-2.71034e-01,-9.23060e-02,-1.83394e-01,1.80458e-01,2.28431e-01,4.57202e-02,2.94626e-01,-8.19643e-02,-9.88661e-02,1.75197e-01,6.04737e-01,-3.54888e-01,7.94566e-02,1.43844e-01,4.92106e-02,2.50253e-01,1.48743e-01,-2.08839e-01,4.42072e-01,-2.53490e-01,1.82623e-01,-3.25610e-01,2.17067e-01,4.58507e-02,-6.94276e-01,
4.82388e-02,-5.28355e-01,-3.59984e-24,3.12402e-01,3.63143e-01,1.06353e-01,1.41108e-01,-3.76580e-02,-2.36853e-01,7.88424e-02,-3.07318e-01,-1.71285e-36,1.91780e-02,-2.27441e-01,1.92243e-01,1.56317e-01,2.83867e-01,-1.96739e-01,3.83146e-01,-8.59402e-03,-1.42995e-02,-4.96766e-01,-8.42291e-02,-6.39454e-02,2.99496e-01,3.94962e-01,2.57811e-01,-5.69241e-02,-2.33313e-01,-1.28494e-01,-2.01736e-02,-2.38040e-01,1.16168e-02,1.34553e-01,3.63131e-02,-4.42752e-01,7.98094e-02,1.24717e-01,7.22338e-02,1.43806e-02,-1.25123e-01,4.46607e-02,3.00444e-01,-3.78848e-01,4.21917e-02,-3.01215e-01,2.52898e-01,-9.92826e-02,-5.84210e-02,7.38642e-01,
-1.18882e-01,3.44519e-01,3.10623e-37,-2.58994e-01,6.89851e-04,-3.32256e-02,-6.56361e-02,2.53260e-01,2.40474e-01,-6.49740e-02,3.67237e-02,1.90412e-29,-1.51688e-02,4.61463e-01,4.49986e-02,-1.19152e-01,7.33260e-03,3.65084e-01,-6.62645e-01,4.64293e-02,1.62982e-01,4.53093e-01,6.42050e-02,1.39937e-01,1.75842e-01,-3.75928e-02,-2.25396e-01,-3.39626e-01,-2.75892e-02,2.39964e-01,1.24422e-01,2.59363e-01,-1.22225e-01,-2.37256e-02,4.57807e-02,5.16846e-01,-3.08652e-01,1.52800e-01,-1.62435e-02,1.66478e-01,2.22062e-01,2.10865e-01,5.15805e-02,3.89288e-01,6.20627e-02,2.22369e-01,-2.26472e-01,-8.34441e-02,2.33622e-01,-4.95670e-01,
6.15286e-03,-4.18740e-01,1.57685e-20,4.86786e-01,4.80143e-02,-2.78080e-01,2.66911e-01,-1.03510e-01,-2.05447e-02,-1.08912e-02,-1.50979e-01,-2.14137e-13,-2.42445e-01,-3.92927e-01,2.31217e-01,-2.01117e-01,1.68692e-01,-1.45609e-01,3.39815e-01,-3.96089e-02,1.11891e-01,-5.04691e-01,-1.04690e-01,1.39174e-01,6.72158e-02,2.16617e-01,7.59612e-03,1.77864e-01,1.11692e-01,1.13371e-02,1.70448e-01,-7.27362e-03,-1.01231e-01,5.34842e-02,2.08649e-01,-1.81375e-01,7.12010e-02,-8.36989e-05,1.64155e-02,3.99379e-02,-1.61078e-01,-2.36743e-01,4.10322e-01,-2.97521e-01,3.88289e-02,-2.48948e-01,4.18595e-01,1.99902e-01,-2.54144e-02,6.29659e-01,
3.59598e-01,-3.67562e-01,-3.02597e-13,5.76246e-01,4.41342e-01,-1.31355e-01,1.35503e-01,-1.21045e-01,-1.27561e-01,-1.56196e-01,-1.22405e-01,-5.10941e-34,-7.48482e-02,-6.05212e-01,2.00527e-02,1.73831e-01,2.24720e-01,5.66214e-02,8.35113e-01,-2.20833e-01,5.56079e-02,-7.60536e-02,1.25421e-01,-1.10323e-01,9.14854e-02,3.78995e-01,-2.87134e-01,4.47471e-01,-9.19260e-02,-1.05742e-01,-2.56206e-01,-3.95351e-01,2.28059e-01,2.39312e-02,-2.25066e-01,-3.52240e-01,5.64649e-01,2.10849e-02,2.36037e-01,1.61152e-01,-2.34112e-01,-2.01796e-01,5.46624e-02,-4.58034e-01,4.65755e-01,-3.54419e-02,3.89779e-01,3.20765e-01,-3.20858e-01,8.88980e-01,
-1.73130e-01,6.49815e-01,2.29621e-31,-2.54319e-01,-2.24997e-01,2.54421e-01,-2.60751e-01,1.16785e-01,-1.00999e-01,4.06074e-01,1.84603e-01,-2.79147e-17,1.63990e-01,1.11095e-01,-3.52615e-01,2.30330e-01,-1.87532e-01,1.09772e-01,-5.58785e-01,6.66111e-03,2.22328e-01,3.96040e-01,2.12077e-01,1.16852e-01,-2.72539e-01,-3.33659e-01,-3.29225e-01,-2.22835e-01,1.89641e-01,2.07369e-01,-2.16031e-01,1.77405e-01,1.52642e-01,1.42421e-01,2.11481e-01,4.65486e-01,-2.80469e-01,1.24383e-02,1.62486e-01,-5.25189e-02,4.79919e-01,1.22566e-03,-2.62649e-01,4.58214e-01,-1.98599e-01,2.75088e-01,-2.57637e-01,2.18331e-01,2.24889e-03,-3.22413e-01,
-2.61336e-02,-3.10220e-25,2.59305e-37,-6.03802e-23,-1.41129e-01,6.29571e-02,-1.39770e-02,1.91940e-01,-2.61842e-02,-7.19883e-03,1.45227e-02,-3.25698e-38,-2.48964e-02,6.75355e-13,-9.69415e-02,-4.58300e-02,-1.49722e-02,-2.46966e-02,-4.13349e-07,9.16914e-03,-1.70081e-03,-8.35726e-32,-2.55960e-02,-9.57602e-02,-1.76248e-02,-2.92288e-12,1.68439e-01,-2.53472e-02,-1.81357e-01,2.71325e-30,-1.42753e-01,-2.34915e-02,-6.77285e-37,-6.20474e-02,-1.83683e-01,-9.09665e-03,1.19084e-02,-2.85120e-02,-1.77076e-02,4.77631e-02,-2.31532e-02,-3.07854e-02,-1.08405e-02,1.70581e-03,7.18690e-02,-1.02056e-01,-5.64421e-03,-3.05038e-02,-5.07327e-02,3.61887e-03,
-1.17964e-01,3.43441e-01,5.03220e-37,-2.94498e-01,-1.81908e-01,2.34684e-01,-1.75453e-01,1.48734e-01,-9.19201e-02,3.55569e-01,1.59584e-01,-1.42569e-37,3.59300e-01,1.33189e-01,1.68872e-01,1.74182e-01,-1.85422e-01,2.34082e-01,-6.77761e-01,3.81954e-01,5.48247e-02,3.97262e-01,2.85510e-01,-1.13589e-01,9.42458e-02,-3.60107e-01,1.90100e-01,4.76789e-02,-4.52318e-02,3.23891e-01,3.86056e-02,5.53913e-03,5.84878e-02,3.22050e-01,-2.18892e-01,3.83123e-01,-3.74141e-01,6.67123e-02,-7.91471e-02,1.68234e-02,-5.84673e-03,8.66828e-02,-2.81315e-01,6.62161e-01,-3.00774e-01,2.41306e-01,-3.13292e-01,-4.83657e-02,-4.75046e-02,-3.84441e-01,
3.54226e-02,9.60648e-03,-1.74018e-22,-5.03870e-01,-2.16244e-01,8.09381e-02,1.56801e-02,2.99418e-01,2.84955e-01,-1.60008e-01,-1.17490e-01,6.06621e-38,1.42854e-01,3.88287e-01,3.48335e-01,-5.12962e-02,-1.24437e-01,4.57673e-01,-5.73169e-01,2.65669e-01,-2.51427e-01,2.30477e-01,1.48041e-01,2.97004e-02,-1.40810e-01,-5.13389e-02,2.92599e-01,-1.78913e-01,-2.41400e-01,5.39957e-03,5.27710e-02,-2.35478e-02,-2.18193e-01,-5.96430e-02,-2.20043e-01,5.29161e-01,-8.45488e-02,1.20444e-01,-9.52821e-02,-1.77070e-01,-8.41266e-02,1.33039e-01,-4.31479e-02,6.69249e-02,2.66265e-01,3.42743e-01,-3.13904e-01,1.62022e-01,-8.53717e-02,-5.44730e-01,
1.81175e-01,-3.24944e-01,-1.21624e-37,4.28429e-01,1.61948e-01,7.06976e-02,9.40662e-02,-1.73769e-01,7.96650e-02,1.74510e-02,-1.21559e-01,4.27683e-30,1.01908e-01,-4.86227e-02,-2.66224e-01,1.18851e-01,2.87995e-03,1.00439e-01,7.07400e-01,-3.47119e-01,6.93531e-02,-8.78275e-02,5.11187e-02,-4.39823e-02,1.64869e-01,-2.40592e-01,1.46358e-01,-8.92022e-02,6.80023e-02,2.54778e-01,-8.43241e-02,-2.78823e-01,-1.39177e-01,-2.42193e-02,-2.70964e-01,2.83258e-02,-2.02358e-01,-7.27709e-02,-1.14498e-01,-1.15735e-02,1.54521e-01,-3.46457e-02,8.74052e-02,2.02149e-01,-1.97778e-01,2.29957e-01,6.30491e-01,-5.16339e-02,-1.13400e-01,4.25475e-01,
-1.18858e-01,-3.66565e-01,5.54085e-27,3.77312e-01,2.31788e-01,-3.77469e-02,7.29845e-02,8.55484e-02,-1.72621e-01,-1.06367e-01,-2.46022e-01,4.88052e-12,-3.65395e-01,-4.30140e-01,3.20384e-01,-1.26999e-01,-1.43264e-01,-2.60375e-01,6.76950e-01,-1.49446e-01,1.92116e-01,-3.17108e-02,-2.38687e-01,1.56481e-01,2.71685e-01,4.20159e-01,2.23987e-01,-4.94659e-03,-1.48127e-01,-6.13017e-02,-3.06380e-02,1.44364e-02,-1.37480e-01,-1.56659e-01,-5.06752e-02,-1.74980e-01,3.66341e-01,1.02375e-02,2.56751e-01,2.45661e-01,-2.39856e-01,-2.29919e-01,1.63197e-01,-4.06993e-01,-1.74139e-01,-3.62443e-01,5.22968e-01,9.28173e-03,-3.64053e-02,6.23634e-01,
1.61654e-01,-3.38036e-02,-2.38768e-19,5.55187e-01,8.40707e-02,2.04714e-02,-2.84443e-02,6.19457e-03,3.40757e-02,2.44099e-01,2.14239e-02,3.13643e-35,-1.28524e-01,7.65129e-03,3.83346e-02,-1.04136e-01,1.64123e-01,-1.30979e-01,4.25786e-01,-2.75432e-01,-5.51380e-03,-1.27859e-01,-3.57634e-02,2.46696e-01,-2.67715e-01,8.85697e-03,-2.62307e-02,-5.12600e-02,-1.25800e-01,1.34156e-01,1.69708e-01,-1.95187e-01,2.69694e-01,-7.44985e-04,-3.48600e-01,-3.87179e-02,-2.71379e-02,-9.29193e-02,3.43194e-03,-2.18687e-01,4.00007e-02,1.69348e-01,-8.89556e-03,-5.06313e-02,3.67221e-03,-4.93503e-03,5.30018e-01,1.96462e-01,2.62476e-02,6.64186e-01,
8.62509e-02,-6.64577e-01,-5.49569e-38,5.70230e-01,1.64688e-01,-1.34170e-01,2.34405e-01,-1.34492e-01,-1.48880e-01,2.25318e-02,-3.15233e-01,-1.15916e-15,-2.97677e-01,-5.43944e-01,1.01969e-01,-1.67171e-01,-9.36813e-02,-4.01935e-01,4.74906e-01,1.07698e-01,1.94945e-01,-5.89610e-01,-1.22198e-01,1.61626e-01,3.16690e-01,3.98287e-01,1.74179e-01,-2.45120e-02,1.45966e-01,-2.35326e-01,-2.29728e-02,-1.80151e-01,2.50476e-01,-1.93138e-01,1.85139e-01,-3.11900e-01,1.85208e-01,1.74977e-01,1.48342e-01,1.75986e-01,-2.80358e-01,-3.73886e-01,7.15935e-02,-4.41793e-01,7.66821e-02,-1.42733e-01,6.34748e-01,-1.80827e-01,8.94176e-02,8.80513e-01,
-2.16506e-01,3.16518e-01,2.31444e-33,-3.31120e-01,-2.77400e-03,2.65461e-01,-3.59729e-01,1.33637e-01,1.50303e-01,2.10056e-01,2.50373e-01,-3.64139e-37,-9.43833e-02,1.18913e-01,-3.96576e-01,-1.39733e-01,-1.04339e-01,4.34703e-01,-2.46770e-01,3.27081e-01,2.07095e-01,2.52766e-01,4.73941e-02,-9.56962e-02,4.10791e-02,-5.79797e-02,-3.50199e-01,-3.25908e-01,3.33176e-02,3.57330e-01,-1.70386e-01,2.99955e-01,-9.83181e-02,3.10774e-01,1.39425e-01,4.42849e-01,-7.28632e-02,1.16895e-01,2.19416e-01,-4.85942e-02,5.05574e-01,1.34875e-01,-3.59661e-01,6.46646e-01,-1.66568e-02,1.58777e-02,-3.99588e-01,3.08944e-01,-2.05880e-01,-5.31527e-01,
4.11869e-21,6.10601e-21,-1.29872e-29,9.52822e-23,-3.84824e-09,-1.59568e-10,-5.67521e-10,-2.58942e-11,-9.66098e-12,-1.02098e-10,-5.03733e-09,-4.51353e-15,-2.16495e-20,-6.39387e-33,-1.62287e-07,-4.44469e-07,-8.54374e-08,-5.70055e-21,4.97040e-22,5.26516e-21,-1.56250e-06,1.14220e-20,-1.60754e-06,-9.36314e-11,-7.36140e-07,-3.33210e-22,-1.93844e-07,-9.25179e-16,-1.09858e-06,6.53728e-11,-5.57319e-12,-1.82003e-18,-9.06984e-09,-3.42260e-10,-1.95384e-08,1.31668e-21,-1.39296e-10,-2.96869e-05,-7.15315e-09,-8.24642e-05,2.59561e-21,-1.35465e-11,1.11460e-16,-2.19354e-18,-7.56807e-10,-5.30722e-21,1.14291e-21,-5.52274e-09,6.14281e-16,-2.52860e-21,
-9.79558e-02,-7.10978e-01,-1.17468e-15,5.60903e-01,6.99842e-02,3.70154e-02,-2.71633e-03,-2.04017e-01,-1.05775e-01,-1.37809e-01,-1.03240e-01,-1.80140e-27,-8.71258e-02,-4.60906e-01,1.82300e-02,8.39689e-02,1.02628e-01,-2.65843e-01,8.72587e-01,1.11359e-01,-7.69532e-02,-2.62471e-01,-1.63639e-01,2.00099e-01,3.15878e-01,4.01800e-01,2.59323e-01,1.12812e-01,-4.36695e-02,-3.39067e-01,4.82301e-02,-2.22958e-01,5.93886e-02,2.19015e-01,1.81508e-01,-6.87287e-01,4.06810e-01,-2.49812e-02,-1.72172e-01,1.39130e-01,-4.36264e-01,-2.17997e-02,1.21615e-01,-5.33124e-01,9.96828e-02,-1.31239e-01,5.30611e-01,-1.60886e-01,3.81252e-03,8.75044e-01,
2.52479e-01,-5.37190e-01,-4.52257e-37,6.63396e-01,3.59704e-01,3.06767e-02,-6.77507e-02,-1.01426e-02,-4.37270e-02,1.15147e-02,9.95310e-02,2.23162e-16,-2.48534e-01,-5.57087e-01,2.20482e-01,-2.08110e-03,4.66338e-02,-2.16131e-01,8.48176e-01,9.38719e-02,9.25433e-02,-5.61978e-02,2.72190e-02,-1.68589e-01,-1.45044e-01,3.38212e-01,-1.58172e-01,4.46704e-01,-6.38768e-03,-1.00921e-02,2.76791e-01,-2.64148e-01,-1.14521e-01,-2.17516e-02,7.67900e-02,-2.53018e-01,2.90631e-01,1.38495e-01,7.73196e-02,-5.38089e-02,-2.26226e-01,-3.12931e-02,2.79002e-01,-6.72580e-01,-3.42044e-02,-5.20855e-02,6.06615e-01,-1.45557e-01,1.92334e-01,6.81752e-01,
8.87443e-02,
4.33570e-02,
5.26106e-02,
8.88692e-02,
3.60710e-02,
4.78489e-02,
-3.45906e-37,
-3.45906e-37,
5.86215e-02,
5.70215e-02,
-6.29609e-03,
-2.59591e-02,
5.77595e-02,
5.06211e-03,
7.89998e-02,
-2.24314e-02,
5.13782e-02,
1.76743e-02,
6.04736e-02,
5.53942e-03,
5.03683e-02,
9.37481e-02,
2.30520e-02,
6.35136e-02,
4.32829e-02,
-3.17991e-03,
-4.45146e-03,
6.07906e-02,
9.92583e-02,
9.17184e-03,
5.19671e-02,
8.88762e-02,
9.30647e-02,
1.88579e-02,
3.21963e-02,
3.73757e-02,
3.74025e-02,
-4.17269e-03,
4.21204e-02,
-1.56047e-02,
7.51224e-02,
8.02419e-02,
-2.76278e-02,
2.44820e-02,
8.36852e-03,
4.21336e-03,
5.49710e-02,
-1.76433e-04,
1.58454e-02,
2.15793e-02,
5.54330e-01,3.41483e-01,4.37878e-01,3.03016e-01,-4.61736e-01,2.15677e-01,3.20833e-07,1.11196e-30,-4.41631e-01,3.75630e-01,-2.57800e-01,4.68848e-01,4.52026e-01,-3.21556e-01,4.22061e-01,2.51384e-01,-5.82328e-01,-3.14011e-01,5.22863e-01,-5.84812e-01,-5.71042e-01,4.93767e-01,-3.25200e-01,6.87356e-01,-3.75928e-01,-2.55481e-01,-2.85018e-01,6.72156e-01,2.38306e-01,-4.14565e-01,-4.78069e-01,3.13880e-01,5.20813e-01,1.52398e-01,-4.47161e-01,3.72916e-01,-5.03212e-01,-3.86262e-01,5.92162e-01,-3.45171e-02,3.15469e-01,6.32759e-01,-4.13526e-01,-5.72757e-01,-3.29389e-01,-3.73743e-01,6.29630e-01,-1.86951e-02,-2.90371e-01,-3.50928e-01,
2.10828e-02,
