// Neural Network File Format by Kyle Julian, Stanford 2016
2,13,1,50,
13,50,1,
0,
0,0,0,0,0,0,0,0,0,0,0,0,0,
1,1,1,1,1,1,1,1,1,1,1,1,1,
0,0,0,0,0,0,0,0,0,0,0,0,0,0,
1,1,1,1,1,1,1,1,1,1,1,1,1,1,
2.59344e-01,4.05005e-01,-2.06662e-01,-1.63822e-01,1.72394e-01,-1.96191e-01,5.73277e-02,-4.12756e-01,1.93799e-01,2.94283e-01,9.44802e-02,-1.64186e-01,3.13146e-01,
-3.41045e-01,3.26052e-01,-5.61659e-02,2.18860e-03,4.62496e-03,-2.19647e-01,1.29402e-02,3.70906e-01,3.75509e-01,-3.53676e-01,-2.91415e-02,-1.31561e-01,-3.89485e-01,
-1.04972e-01,1.65788e-01,1.64365e-01,-2.23370e-01,1.03275e-01,2.23768e-01,-1.62849e-01,8.51666e-02,-8.48349e-02,5.78460e-02,1.31987e-01,2.34177e-01,2.37045e-01,
2.50047e-02,-4.97238e-02,-7.22205e-02,5.83876e-02,-3.07168e-01,-2.53536e-02,-2.39937e-01,-2.84524e-01,-5.44589e-02,-1.80363e-02,-1.68140e-01,-8.33510e-02,2.48472e-01,
3.84176e-01,1.63517e-01,9.96584e-02,4.33618e-01,1.78918e-01,-2.09659e-01,-1.13411e-01,-2.62653e-01,-1.35354e-01,1.79853e-01,-1.87936e-01,3.35263e-01,2.01038e-01,
1.47147e-01,4.18880e-01,-2.94102e-01,-5.42018e-02,2.31862e-01,-3.20265e-01,-1.19873e-01,-1.98023e-01,1.30826e-01,3.08675e-03,-7.06938e-02,-5.15728e-02,3.13249e-01,
1.19985e-01,7.36045e-03,4.13357e-01,-1.59165e-01,-6.31179e-02,-1.43979e-01,-8.71881e-02,1.65392e-01,-6.14602e-02,-2.92467e-01,1.34935e-01,-6.35832e-02,1.65243e-01,
7.24702e-02,-2.33479e-01,3.86691e-01,1.04777e-01,3.23793e-01,8.68689e-03,4.50927e-01,1.49559e-01,-1.88157e-01,-4.41371e-01,2.04318e-01,6.79860e-02,-1.02415e-01,
-3.14650e-01,3.74560e-01,-6.22469e-02,-3.06971e-02,-1.25051e-01,2.79626e-01,1.55204e-01,1.91664e-01,-5.82085e-01,-1.80701e-01,-1.01686e-01,2.77655e-01,-2.00347e-01,
4.29441e-02,-8.07552e-02,1.27020e-01,9.19186e-02,-2.20249e-01,-6.04788e-02,2.31556e-01,-2.09074e-01,-1.28189e-01,6.82782e-02,1.52302e-01,-1.57685e-01,-2.44338e-01,
1.08100e-01,-2.39846e-01,-8.51654e-02,1.15985e-01,3.96622e-02,-6.97403e-02,1.86735e-01,4.01175e-01,-1.52162e-01,-3.09163e-01,3.62692e-01,-3.01373e-01,2.42954e-01,
-1.98450e-01,9.73564e-02,-3.52231e-01,9.16725e-02,1.90734e-01,2.17601e-01,-1.30313e-01,7.81594e-02,1.02748e-01,5.18721e-03,1.83884e-01,-1.53782e-01,3.20741e-01,
2.21776e-02,3.31767e-01,-3.84273e-02,2.47885e-01,-1.87720e-01,1.91353e-01,-1.31110e-02,6.29265e-02,9.66662e-02,1.24102e-01,-2.72079e-01,3.67199e-01,3.05886e-01,
-8.82948e-02,2.83886e-01,-1.49437e-01,-1.09763e-01,-2.04497e-01,-6.23921e-01,-5.27418e-02,2.37977e-01,2.48123e-01,-1.70929e-01,6.81363e-02,-6.52544e-01,-2.99574e-01,
-5.08361e-02,-3.43267e-01,4.03572e-01,-2.69184e-01,2.61156e-01,2.02295e-01,2.04689e-01,1.85068e-01,-3.18074e-01,-2.39399e-01,-8.01716e-02,2.11481e-01,1.42065e-01,
-2.06263e-01,-7.12087e-02,5.50470e-02,1.82618e-02,9.03044e-02,3.44934e-01,5.05638e-01,3.71553e-01,-3.59087e-01,-2.72708e-01,6.57649e-02,2.22058e-02,-2.57709e-01,
-2.10893e-01,-3.64849e-02,-6.50619e-01,2.80657e-01,1.45583e-01,2.80775e-01,-2.53569e-02,6.63430e-03,2.61206e-01,3.03788e-01,-1.44289e-01,1.40711e-01,3.33546e-01,
1.40934e-01,2.81954e-01,1.09732e-01,3.52232e-01,4.03898e-02,9.76797e-02,-3.52357e-02,-3.84764e-01,1.73406e-01,3.88333e-01,-3.18752e-01,1.86497e-01,4.02869e-01,
1.06684e-01,2.24903e-01,1.22805e-01,-2.22978e-01,-2.10215e-01,2.04662e-01,4.80830e-02,3.43399e-02,1.65399e-01,-1.46285e-01,-2.28230e-01,3.80098e-01,-5.14087e-01,
-2.10036e-01,1.41811e-01,3.09577e-01,2.31302e-01,1.30423e-01,4.83557e-02,-3.15047e-02,6.37162e-02,-5.84225e-02,-6.35721e-02,8.67521e-02,-1.47279e-01,-9.00685e-02,
-1.76483e-01,-1.34106e-01,1.30810e-01,-4.37336e-02,-1.13798e-01,1.39319e-01,2.07853e-01,1.46772e-02,3.51982e-01,6.88775e-02,-3.15558e-01,2.32204e-01,-1.80446e-02,
1.11898e-01,1.65205e-01,9.12403e-02,2.20610e-01,-2.19580e-01,-3.13065e-01,-2.37236e-01,-1.50871e-01,3.00821e-01,-7.65523e-02,9.84723e-02,-5.64712e-02,2.43674e-01,
-1.13809e-01,-3.99319e-01,3.65131e-01,7.81040e-02,2.74405e-01,-2.46691e-01,1.09329e-01,5.16627e-01,2.65724e-01,-2.80366e-01,4.40969e-02,-2.74983e-01,1.21986e-01,
9.34764e-02,3.93328e-01,-4.03557e-03,1.31321e-01,2.73479e-01,-1.95466e-01,-3.28329e-01,4.59275e-02,7.79722e-02,1.35551e-01,-1.46179e-01,3.26711e-01,3.11308e-01,
1.56150e-01,3.71899e-01,-2.78590e-01,3.17800e-01,2.43966e-01,-2.52836e-02,-5.08257e-02,-9.24135e-02,1.95548e-01,8.23291e-02,-8.43487e-02,8.28726e-02,3.47536e-01,
-1.80263e-01,2.66443e-02,7.80149e-02,2.13159e-01,-8.91346e-02,1.45563e-03,-2.07836e-01,5.28531e-02,1.01067e-01,-1.41416e-02,3.82454e-01,-7.21452e-01,-2.29087e-01,
-1.45760e-01,-4.70574e-02,-1.10627e-08,-1.76753e-01,1.00474e-01,-4.66026e-11,2.45789e-01,-2.67823e-01,-6.23186e-02,-4.53906e-02,-2.76445e-01,1.03021e-01,3.87099e-02,
4.23921e-01,2.17797e-01,-2.80655e-01,4.12956e-01,1.11065e-01,-3.31255e-03,-2.68469e-01,-2.19187e-01,2.55916e-01,4.28530e-01,-5.60545e-02,4.25173e-01,-4.25756e-02,
-5.06754e-17,1.25705e-25,-1.43516e-37,7.93129e-25,4.10322e-15,-1.42226e-18,-2.40579e-36,-1.18851e-18,-3.08631e-09,3.24160e-37,-3.33872e-08,-3.05707e-40,-1.20571e-08,
7.29985e-02,-7.27612e-02,-3.51558e-01,-1.05926e-01,-2.32534e-01,-1.20775e-01,1.40845e-02,1.19006e-01,-2.28867e-02,3.61313e-01,1.30029e-02,-1.41527e-01,3.69844e-01,
-6.11198e-02,1.35611e-02,-5.49431e-01,2.68261e-01,-9.67681e-02,3.16149e-01,-3.99421e-01,-8.52707e-02,4.29105e-02,1.48883e-01,7.28037e-02,1.80328e-01,2.67277e-01,
2.99524e-01,-2.58924e-01,3.86591e-01,-2.61741e-01,1.52207e-01,2.68305e-01,-4.02905e-02,2.83729e-01,4.94911e-02,-2.66107e-01,2.78408e-01,-1.36201e-01,-1.19439e-01,
1.14232e-01,1.96401e-01,-1.71555e-01,3.64583e-01,-5.62548e-02,2.13654e-01,1.25396e-03,-1.64282e-01,6.22705e-04,5.02582e-01,-2.52430e-01,1.49447e-01,1.97001e-01,
-6.36767e-09,-4.04972e-37,-1.11425e-09,-5.74172e-28,-2.34483e-10,-4.50028e-37,1.15523e-25,-7.76991e-32,-9.95048e-10,-2.02765e-34,-6.19649e-37,-7.45864e-25,2.45710e-33,
1.02821e-01,-3.17926e-01,1.25018e-01,-2.42008e-01,-5.26615e-02,2.74059e-01,-8.08153e-02,-1.04071e-01,-6.64509e-02,1.84419e-02,3.65582e-01,-3.95892e-01,1.31925e-01,
-1.16986e-01,-3.31371e-01,-4.53608e-01,-1.09386e-01,-1.25223e-01,3.64925e-01,3.71940e-01,-1.35788e-01,3.18585e-01,1.76137e-01,-1.85266e-01,2.38933e-02,6.17718e-02,
7.11685e-02,-4.19798e-02,-6.30926e-01,4.74747e-02,7.75229e-02,1.68466e-01,-2.80215e-01,1.81457e-01,2.81311e-01,3.93386e-01,-1.40035e-01,3.68017e-01,2.19834e-01,
9.40927e-02,4.16740e-02,2.98372e-01,5.07346e-02,-2.12859e-01,1.76106e-01,4.13567e-01,2.84084e-01,-2.34361e-01,-4.97859e-01,-2.39124e-02,3.76824e-02,1.06602e-02,
-2.00866e-01,-2.50355e-01,9.98131e-02,6.61443e-02,-1.20146e-01,5.41413e-02,2.85639e-01,4.77940e-01,2.47168e-02,-3.36317e-01,2.65197e-01,-2.56427e-01,2.62826e-01,
6.59558e-02,1.84494e-01,1.48652e-01,1.75625e-01,3.48265e-01,1.72699e-01,-9.50727e-02,4.55304e-01,-7.05009e-02,-2.59153e-01,-1.42225e-01,-3.14887e-01,-1.44846e-01,
-6.00299e-09,-4.80940e-19,-9.51345e-14,-1.99832e-31,-2.26208e-37,3.14875e-24,-2.40724e-37,-2.27697e-08,4.10773e-27,4.19330e-09,1.58521e-22,6.98458e-17,-2.46772e-37,
1.89015e-01,1.90642e-02,4.94229e-02,9.59303e-02,-3.09068e-01,1.77619e-01,4.95532e-04,5.81964e-02,2.40871e-01,-3.39554e-01,1.24041e-01,-7.66609e-01,-2.65615e-01,
-1.67109e-01,4.69827e-02,3.16199e-02,4.08888e-02,-2.53739e-01,1.78844e-20,-3.19655e-01,-1.18870e-01,9.29124e-02,-9.94634e-03,1.68024e-01,-3.04281e-01,-1.32114e-01,
-1.13043e-01,-2.41517e-04,-3.54743e-01,4.43370e-01,2.81082e-01,1.31460e-01,-5.18858e-02,-1.67811e-01,1.46716e-01,2.58617e-01,-2.70780e-01,1.55015e-01,4.19734e-01,
-1.96866e-01,8.27314e-02,-1.64029e-01,2.41464e-01,1.28667e-01,2.30700e-01,-3.22766e-01,-1.47380e-01,-1.95500e-01,-1.82208e-01,-1.39981e-01,3.30136e-03,-6.11791e-02,
5.70132e-02,-9.05792e-02,1.59792e-01,1.36488e-01,3.10145e-01,-2.11364e-01,-1.03986e-01,2.84723e-01,4.20846e-03,-1.05082e-01,2.35023e-01,-2.68178e-02,-4.58149e-02,
-1.05202e-01,1.89866e-01,-5.08192e-01,1.81397e-01,1.53188e-01,1.00169e-01,2.02169e-01,-2.98495e-01,2.33571e-01,6.72481e-01,7.76571e-02,7.45715e-03,-7.64474e-02,
-1.16408e-01,1.76464e-01,-4.12435e-01,2.91773e-01,-1.82356e-01,2.40273e-01,-5.19025e-02,3.09891e-02,3.25650e-01,3.95169e-01,-3.02525e-01,3.18996e-01,2.13018e-01,
-7.75003e-02,1.40755e-01,-5.01554e-01,1.59663e-01,-1.88548e-01,3.20428e-02,-1.66854e-01,1.62764e-01,3.19368e-01,5.10811e-01,-1.92395e-01,2.52890e-01,2.01762e-02,
1.38920e-01,2.74530e-01,1.12864e-01,3.10939e-01,-9.11702e-02,1.32139e-01,-4.84365e-02,6.67790e-02,-1.96675e-01,1.14043e-01,-7.34264e-03,-2.40938e-01,2.22445e-01,
-8.96805e-02,
1.04495e-01,
-1.17938e-01,
-3.49235e-02,
-1.84520e-02,
2.65716e-02,
1.92507e-01,
1.91681e-01,
4.81491e-03,
3.82961e-02,
1.41563e-01,
-9.56703e-02,
-7.67523e-02,
1.26177e-01,
1.38500e-01,
1.62621e-01,
-4.55622e-02,
-1.51317e-02,
-1.56123e-02,
1.54481e-01,
-1.60430e-02,
-1.01664e-01,
1.99848e-01,
-7.79932e-02,
-9.70302e-02,
1.42840e-01,
-3.98510e-02,
-2.86680e-02,
-3.45906e-37,
-1.31106e-01,
6.88454e-02,
2.18591e-01,
1.47747e-02,
-3.45906e-37,
1.02128e-01,
1.74174e-02,
-2.75929e-02,
1.40638e-01,
1.84030e-01,
1.51561e-01,
-3.45906e-37,
1.48813e-01,
-3.20899e-02,
1.80098e-02,
-1.82459e-02,
1.41989e-01,
1.00784e-02,
-1.71156e-02,
-8.59025e-03,
-1.04465e-01,
-4.43188e-01,5.55464e-01,-2.64457e-01,2.40980e-01,-5.63761e-01,-4.11151e-01,4.62859e-01,2.79294e-01,5.29798e-01,3.75995e-01,3.68634e-01,-3.89477e-02,-2.74788e-01,8.20537e-01,2.58006e-01,6.15534e-01,-4.84986e-01,-2.84036e-01,-4.36018e-01,2.26459e-01,-2.79666e-01,-1.27055e-01,2.86480e-01,-3.14081e-01,-3.31708e-01,5.66944e-01,2.40403e-01,-2.95026e-01,8.11168e-12,-3.49917e-01,-7.64057e-01,5.38022e-01,-5.10453e-01,-1.03463e-12,5.83891e-01,-1.24239e+00,-3.78670e-01,2.41709e-01,5.07483e-01,1.43019e-01,-3.34489e-37,4.90727e-01,-1.41586e-01,-6.02326e-01,-9.46626e-02,1.90764e-01,-4.16482e-01,-3.39623e-01,-2.94901e-01,-3.94072e-02,
1.31520e-01,
