// Neural Network File Format by Kyle Julian, Stanford 2016
2,13,1,50,
13,50,1,
0,
0,0,0,0,0,0,0,0,0,0,0,0,0,
1,1,1,1,1,1,1,1,1,1,1,1,1,
0,0,0,0,0,0,0,0,0,0,0,0,0,0,
1,1,1,1,1,1,1,1,1,1,1,1,1,1,
2.35659e-01,4.02215e-01,-2.13542e-01,9.13860e-02,1.24020e-01,-5.13593e-02,6.34790e-02,-4.03267e-01,1.29324e-01,-5.72025e-02,-8.34432e-02,1.72700e-01,4.02410e-01,
-3.31064e-02,-6.90457e-02,9.43327e-02,1.26867e-01,7.30116e-02,-1.11669e-01,-1.09422e-01,5.67432e-01,-3.62393e-01,1.53123e-01,3.22190e-01,-5.58540e-02,-2.41241e-01,
-1.14734e-01,7.56382e-02,-4.75053e-01,5.96294e-02,5.17659e-02,2.02079e-01,-1.72983e-01,7.03206e-02,1.80475e-01,5.37683e-01,4.34105e-02,2.02093e-01,-3.65790e-02,
-9.24812e-02,8.53661e-02,-9.83061e-02,2.22812e-01,1.17029e-01,2.69364e-01,-6.45007e-03,2.24673e-01,-1.22651e-01,3.43840e-03,1.37259e-01,-2.41847e-02,-6.43521e-02,
-1.85697e-01,2.48581e-01,1.46012e-01,1.19638e-02,-4.17963e-03,-4.94112e-01,-2.29393e-01,1.28676e-02,4.03188e-01,-2.72105e-02,-2.81268e-01,-1.29232e-01,-1.17812e-01,
-1.21707e-01,-3.10639e-01,-2.00365e-03,-1.40744e-01,2.05137e-01,3.18686e-01,3.79545e-01,3.87153e-01,2.78526e-01,-2.97335e-01,1.51476e-01,1.11486e-01,3.02437e-03,
3.03312e-01,-2.29775e-02,4.50389e-02,-3.05103e-01,1.83432e-01,-1.36095e-01,1.12552e-01,2.95251e-01,-1.75003e-01,-3.19287e-01,3.59827e-01,1.05676e-01,6.78716e-02,
2.19185e-01,1.16503e-01,-3.77797e-01,6.05832e-03,-8.33993e-02,7.58749e-02,1.51327e-02,-2.36193e-01,2.60392e-01,4.14217e-01,2.02883e-01,2.63801e-01,9.95093e-02,
-5.94613e-02,-2.52149e-03,3.07068e-01,1.21763e-01,-1.58543e-02,2.61231e-01,6.04458e-02,4.37427e-01,9.94559e-02,-6.30370e-02,3.67094e-01,-4.34763e-01,-1.26729e-01,
-1.48919e-01,-2.00679e-01,-2.30094e-01,2.95485e-02,1.42242e-01,4.27677e-01,2.88174e-01,-1.42411e-01,4.16058e-01,4.53838e-01,-1.73226e-01,2.50106e-01,2.08364e-02,
1.25518e-01,1.37699e-01,4.30772e-01,-3.33733e-01,2.92054e-02,-1.54554e-01,3.49744e-01,-3.12770e-01,-2.12544e-01,1.72600e-01,8.74469e-02,-1.87298e-01,-9.44215e-02,
-1.10876e-01,-3.60326e-01,2.78929e-01,1.08036e-01,2.09681e-01,-1.97948e-01,1.21088e-01,4.32935e-01,3.13714e-01,-2.31534e-01,2.03174e-01,6.70733e-02,-2.74201e-02,
8.47124e-02,-9.61081e-02,-2.34531e-01,-3.67894e-02,1.35901e-01,6.16040e-02,3.19151e-01,-1.96020e-01,2.79653e-01,4.12663e-01,-1.84144e-01,1.01835e-01,1.06536e-01,
-2.67894e-01,-4.93249e-02,1.64484e-01,-2.37899e-01,1.01451e-02,-2.72886e-03,-2.51123e-01,2.23879e-01,2.95774e-02,-7.53467e-02,-1.09392e-01,-1.25479e-01,-4.86164e-02,
-4.32604e-02,-4.25409e-02,-6.41977e-01,1.54546e-01,-6.15295e-02,3.12853e-01,-3.98917e-01,2.70762e-01,1.71646e-01,3.02639e-01,-7.17104e-02,3.74079e-01,9.86215e-02,
-1.40387e-02,-1.56903e-02,-1.23485e-02,-1.04777e-02,-7.90074e-03,2.04789e-04,-5.56075e-03,-1.11853e-02,-7.54989e-03,-4.83630e-03,-1.45761e-02,-1.25523e-03,-1.39302e-02,
6.74215e-02,-3.08226e-02,-9.20746e-02,-2.28171e-02,-2.48963e-01,3.06533e-01,2.40577e-01,-2.16056e-02,-1.61315e-01,-5.88443e-01,3.03849e-01,-6.46346e-02,1.13354e-01,
-7.96966e-04,1.19708e-01,2.64363e-02,9.59559e-02,1.33649e-03,-1.88490e-01,1.11710e-01,-1.86921e-01,-1.80115e-02,1.27711e-01,-1.99166e-02,-8.48184e-02,1.84915e-01,
9.40597e-02,4.24244e-01,-7.87289e-02,1.30756e-01,-1.53389e-01,-1.02395e-02,3.12360e-01,-4.49386e-01,1.04723e-01,5.47577e-01,-2.83036e-01,2.69101e-02,4.24798e-01,
2.67105e-03,-2.66734e-01,4.31646e-01,-1.31790e-02,2.06697e-01,4.46041e-02,3.69201e-01,2.42251e-01,-4.88794e-02,-1.90965e-01,2.07554e-01,-2.47538e-01,2.24357e-01,
3.14066e-01,5.07893e-02,-4.63704e-01,-1.46975e-01,-4.41937e-02,-7.62136e-02,-8.45032e-01,2.76940e-01,-3.19411e-01,5.40929e-02,1.36043e-01,2.58484e-01,-5.07337e-02,
3.55277e-03,3.90316e-01,-3.85849e-01,3.35001e-01,2.96950e-02,1.46462e-01,2.31552e-01,-3.89018e-01,6.64796e-02,1.67348e-01,-3.49594e-02,-2.03042e-02,3.35377e-01,
0.00000e+00,-1.06969e-30,-8.58838e-11,0.00000e+00,-1.32651e-17,0.00000e+00,0.00000e+00,-1.16601e-22,-7.90825e-14,0.00000e+00,-2.26069e-08,-7.35478e-11,0.00000e+00,
-6.98666e-02,3.68477e-01,-1.04135e-01,3.76967e-01,2.93034e-02,-3.52696e-02,-1.58440e-01,-8.13011e-02,-6.28599e-02,1.09904e-02,-9.13489e-02,1.10899e-01,3.34807e-01,
2.32513e-01,-1.31106e-01,-1.69419e-01,4.01300e-01,2.05607e-01,-2.22246e-01,-1.29046e-01,5.89723e-03,-6.78507e-02,1.57033e-01,-8.28363e-02,5.37748e-02,3.71934e-01,
-8.60757e-02,8.83674e-03,-1.35796e-01,-7.54094e-03,2.36188e-01,1.69987e-01,4.50227e-01,-1.22153e-01,3.96164e-01,4.51294e-01,-2.20094e-01,9.50489e-02,-1.59992e-01,
-4.09955e-02,8.56293e-02,8.16834e-03,2.77495e-02,1.42395e-01,-1.07206e-02,-1.08246e-01,-1.78415e-01,9.79807e-03,3.43168e-01,-8.62249e-02,4.50180e-01,3.15053e-01,
1.34663e-01,1.95407e-01,4.61469e-01,1.21171e-01,-1.80523e-01,2.75867e-01,2.32626e-01,3.90898e-01,-2.81757e-02,-2.35034e-01,2.67168e-01,-4.50868e-02,-3.01029e-01,
-7.92733e-02,-1.29138e-01,-8.03025e-01,5.37521e-01,2.22533e-01,2.70759e-01,-2.43858e-01,1.02537e-01,8.74411e-02,-3.34344e-02,-2.02678e-01,4.11485e-01,2.47622e-01,
-2.53288e-01,-6.02231e-02,2.22521e-01,-2.34079e-01,-2.43944e-01,-9.91591e-09,-2.35428e-01,-2.85307e-01,1.31756e-01,-2.96619e-01,1.28125e-01,9.05076e-02,-2.77668e-02,
-1.48241e-02,-1.18308e-01,-7.23250e-01,-1.85869e-02,-1.02162e-01,1.67091e-01,8.31764e-03,-2.34290e-01,2.33216e-01,5.21174e-02,1.87148e-01,2.36423e-01,3.91588e-01,
3.07710e-01,1.27470e-01,-3.04364e-01,-1.81231e-01,-2.63808e-01,-4.09761e-01,-6.03178e-01,9.13893e-03,-3.61339e-01,-4.24590e-02,1.80035e-01,7.01679e-02,2.35968e-01,
1.37755e-01,4.75938e-02,1.36170e-01,1.74114e-02,1.87309e-01,1.56706e-01,-1.28824e-01,1.32900e-01,2.77443e-01,3.89622e-02,-1.01289e-01,1.43466e-01,3.41394e-02,
-9.26369e-03,-2.23919e-01,-2.20595e-02,1.72906e-01,-1.63806e-01,3.46932e-01,2.87295e-01,-3.61953e-01,2.91388e-01,5.22177e-01,-9.15743e-02,2.31354e-01,5.45952e-02,
-1.47441e-01,-7.38337e-02,1.05375e-01,3.93239e-01,2.07972e-01,-2.08349e-01,-2.61722e-02,-2.66518e-01,3.16603e-01,1.65592e-01,1.99490e-01,2.75042e-01,1.82296e-01,
3.71599e-01,4.31156e-01,1.41161e-02,1.93678e-01,-1.22444e-01,-3.84680e-01,2.56394e-02,-3.35469e-01,3.84053e-02,3.09379e-01,-3.03952e-01,3.31426e-01,1.78537e-01,
2.36803e-01,-2.20025e-02,-1.93301e-01,-3.47680e-01,6.92316e-02,-4.15708e-01,3.48091e-01,1.63827e-01,1.19970e-01,-1.99547e-01,3.34161e-01,2.93507e-01,-3.50594e-01,
3.03391e-01,3.26061e-01,-5.24839e-02,1.85213e-01,2.07941e-01,-1.28465e-01,-3.14368e-01,-2.03013e-01,-1.22829e-02,3.59937e-01,7.52716e-02,3.64692e-01,2.63951e-01,
3.70433e-02,1.19469e-01,1.46849e-01,-1.58889e-01,-6.78723e-02,2.40090e-01,1.56333e-02,3.33411e-01,-1.23735e-01,-1.07230e-01,3.94495e-01,-2.83591e-01,2.27741e-01,
-1.16422e-01,3.36986e-01,-5.35682e-02,3.05879e-01,1.43127e-01,-1.58677e-02,-1.56177e-01,-3.38812e-01,2.97594e-02,3.74190e-01,1.41084e-01,1.08906e-02,1.74880e-01,
-3.29722e-01,-8.12259e-02,1.18345e-01,-1.68615e-01,-1.49902e-01,1.71343e-01,7.02721e-02,-3.28902e-01,-4.90203e-09,4.62976e-02,2.56154e-01,-1.21404e-01,3.94543e-02,
2.10660e-01,3.30305e-01,-2.05837e-01,4.19295e-01,1.64399e-01,1.33904e-01,-6.87429e-03,-4.31203e-01,2.17215e-03,1.90275e-01,-3.32334e-03,-5.36665e-02,1.85581e-01,
1.56167e-01,1.72010e-02,2.83432e-02,-3.07054e-01,1.85604e-02,2.52726e-01,4.73160e-01,1.85592e-01,-4.78175e-01,-1.90131e-01,-1.50557e-01,-5.04340e-02,2.05905e-01,
2.11637e-02,7.57577e-02,-2.08767e-01,-1.11483e-01,2.74963e-01,-4.72475e-02,-1.48420e-02,-4.53433e-02,6.54450e-02,2.19245e-01,-1.96354e-01,4.55824e-01,3.30510e-01,
-8.50844e-02,-2.10296e-01,4.07357e-01,1.64756e-01,1.37721e-01,3.95233e-02,-1.76534e-02,2.40640e-01,3.11344e-02,-4.72284e-02,7.78887e-02,-1.74670e-01,2.37730e-02,
2.38455e-01,2.57216e-01,1.24177e-01,3.22974e-01,-1.22064e-01,-3.20046e-02,-1.60832e-01,-2.38891e-01,2.80189e-01,1.58070e-01,-1.57973e-01,4.23051e-01,1.75662e-02,
-2.83946e-01,-3.29565e-01,4.67589e-01,1.40632e-01,-1.42899e-01,2.87834e-01,8.82889e-02,8.92706e-02,-2.40217e-01,1.16548e-01,4.62625e-01,1.51101e-01,-1.15101e-01,
3.27691e-01,2.86382e-01,-4.49932e-01,3.26215e-01,-1.10648e-01,-3.34036e-01,-3.03765e-01,-2.01093e-01,-1.36299e-02,-9.60849e-02,-2.27169e-01,2.71833e-02,4.46281e-01,
1.75599e-01,-7.07921e-02,-5.01979e-01,2.49456e-01,-1.24062e-01,1.80559e-01,-2.29457e-01,-1.37045e-01,1.81278e-01,-1.27529e-01,-1.31417e-01,1.48497e-01,4.02587e-01,
2.91903e-01,1.78305e-01,-1.83106e-01,3.16484e-01,-4.52803e-02,1.10607e-01,-3.55508e-01,-8.79215e-02,-1.93406e-01,1.27530e-01,-5.48994e-02,2.68023e-01,-1.20796e-01,
1.15713e-02,
2.12926e-01,
2.40795e-02,
-2.87698e-02,
5.42345e-02,
2.07752e-01,
1.80237e-01,
8.60956e-03,
1.79360e-01,
3.74408e-02,
-5.66946e-02,
2.52523e-01,
-1.05448e-01,
-6.94614e-02,
1.96285e-02,
-1.49134e-02,
1.23479e-01,
-7.32846e-02,
-8.69072e-03,
2.10841e-01,
-2.98770e-02,
3.70664e-02,
0.00000e+00,
-2.47681e-02,
-9.52417e-02,
-2.83296e-03,
-3.00413e-02,
1.70258e-01,
5.28771e-02,
-2.42094e-02,
-1.93271e-02,
-6.70363e-02,
-9.30050e-02,
-6.08048e-02,
-5.79141e-02,
1.60359e-02,
1.38242e-01,
-1.26983e-01,
1.62501e-01,
-7.88091e-02,
-3.20963e-02,
-5.88676e-02,
7.25623e-02,
-1.62245e-04,
2.39381e-01,
1.11556e-02,
1.91829e-01,
-5.58563e-02,
3.84171e-02,
-1.05177e-02,
-3.74275e-01,2.76505e-01,-5.70558e-01,1.37416e-02,5.72582e-01,2.27420e-01,4.63625e-01,-4.78646e-01,5.41994e-01,-7.05790e-01,-6.26422e-01,5.40033e-01,-3.08224e-01,-2.33313e-01,-4.54393e-01,-2.38561e-02,3.88214e-01,-2.90098e-01,-3.65102e-01,3.36296e-01,-4.34348e-01,-3.15425e-01,-7.36355e-27,-2.39723e-01,-3.13373e-01,-3.40527e-01,-5.18023e-01,3.19144e-01,-5.33847e-01,-2.81990e-01,-2.16761e-01,-5.77646e-01,-9.33564e-03,-6.00519e-01,-2.68541e-01,-2.87383e-01,3.13624e-01,-4.12822e-01,2.92626e-01,-4.25112e-01,-2.90857e-01,-2.26509e-01,3.68763e-01,-3.49282e-01,5.47332e-01,-2.56814e-01,4.42909e-01,-3.32174e-01,-3.84005e-01,-3.56018e-01,
1.50878e-01,
