// Neural Network File Format by Kyle Julian, Stanford 2016
3,13,1,50,
13,50,50,1,
0,
0,0,0,0,0,0,0,0,0,0,0,0,0,
1,1,1,1,1,1,1,1,1,1,1,1,1,
0,0,0,0,0,0,0,0,0,0,0,0,0,0,
1,1,1,1,1,1,1,1,1,1,1,1,1,1,
3.71287e-01,3.24168e-02,-2.02804e-01,-1.25807e-01,2.21110e-01,2.44959e-03,-2.06441e-01,-2.24896e-01,-2.62022e-02,2.81474e-01,-1.22059e-01,1.65807e-01,3.12254e-01,
2.71814e-02,-3.39641e-01,3.69719e-01,-2.94945e-01,-1.42563e-01,-4.42239e-02,-3.75309e-01,2.80790e-02,2.99940e-01,-4.67077e-02,2.29123e-01,-1.11321e-01,-3.86297e-02,
-7.47780e-02,2.45957e-01,1.11015e-01,1.97928e-01,1.43956e-02,-1.11773e-02,-1.54932e-01,-5.70745e-02,-1.56976e-01,2.20860e-01,6.20592e-03,1.03332e-01,2.11317e-01,
-1.56050e-01,-1.06866e-01,-1.30387e-01,-5.91829e-02,-4.66621e-02,4.32438e-02,3.85765e-01,2.39280e-01,2.44849e-01,1.75246e-01,-9.39647e-02,2.15324e-01,4.78614e-03,
2.31305e-01,1.28109e-01,5.42921e-02,1.46486e-02,-1.83589e-02,8.49839e-02,2.41207e-01,5.58791e-02,3.36769e-01,8.94185e-03,-1.23722e-01,3.66993e-01,-1.68491e-01,
1.43310e-01,-5.38328e-02,3.66682e-01,1.05603e-02,2.60919e-01,2.47092e-01,1.97124e-01,3.97649e-01,4.81709e-02,-1.63245e-01,-1.14774e-01,-1.89601e-01,8.45246e-02,
-2.26235e-01,1.93313e-01,1.27353e-01,9.31270e-02,2.31512e-01,2.21541e-01,2.33438e-01,3.81970e-01,-6.09933e-02,-3.19826e-01,3.36873e-01,1.41661e-01,-1.80183e-01,
3.86570e-01,2.83133e-01,-2.50623e-02,2.15576e-01,1.88603e-01,-1.51602e-01,-2.15736e-01,-2.01279e-01,-1.16336e-01,3.31500e-01,-4.60902e-02,1.44949e-01,1.51270e-01,
-3.39789e-01,-2.64951e-01,1.62881e-01,-2.22508e-01,-8.96389e-02,2.44952e-01,-1.65904e-01,1.64404e-01,6.49691e-02,7.11910e-03,2.35495e-01,-2.75909e-01,9.75387e-02,
3.07060e-01,1.78510e-02,3.77609e-01,8.06170e-02,1.08257e-01,-2.67242e-02,1.73529e-01,2.93294e-01,-1.36595e-03,2.72108e-01,-6.03781e-02,-2.52135e-01,3.38042e-01,
2.22046e-01,-1.17523e-01,2.56915e-01,-2.94712e-02,1.79060e-01,1.49723e-01,1.72387e-01,2.76696e-01,-2.70349e-02,-3.02640e-01,1.12827e-01,-4.15555e-02,-2.19366e-01,
-1.39284e-01,-1.10232e-02,-1.18961e-01,2.61792e-01,2.73924e-01,-6.13750e-02,-1.93821e-02,-5.47765e-02,2.33235e-01,1.04645e-01,4.37675e-02,-1.23772e-01,1.89497e-01,
-3.07550e-01,1.45374e-01,-3.08308e-01,-1.93961e-01,6.83974e-02,-1.45599e-01,3.46533e-01,2.80591e-03,-1.35498e-01,-7.41105e-02,2.43049e-01,6.67390e-02,-1.42748e-01,
-3.25856e-02,-1.15264e-01,-3.09186e-01,-6.10481e-03,5.93488e-02,7.54110e-02,3.00612e-01,-6.77061e-02,2.62169e-01,9.07994e-02,-7.24202e-02,-7.08725e-02,2.78142e-01,
2.20907e-01,1.08918e-01,-1.87287e-02,2.24038e-01,2.14180e-01,1.04327e-01,-2.30975e-01,1.67555e-02,7.10279e-02,-9.38959e-02,1.41459e-02,3.03505e-01,-1.67302e-01,
-9.61610e-02,1.03032e-01,2.26165e-02,-3.80709e-02,2.93504e-02,-4.13777e-02,-1.54158e-02,-7.72350e-02,1.06053e-02,4.76960e-02,-8.42433e-02,6.20515e-02,-1.82625e-02,
-2.19263e-01,2.05393e-01,-8.37749e-01,-1.61185e-01,-3.27402e-02,-4.25264e-01,-1.64374e-01,1.11125e-01,-6.13231e-03,-2.55726e-01,3.02638e-01,2.71311e-01,1.69608e-01,
-1.06467e-01,2.88930e-01,-9.37902e-02,2.50718e-01,1.24535e-01,-1.31628e-01,9.50289e-02,-1.31748e-01,2.22474e-01,3.84706e-01,-2.09446e-01,1.52483e-01,3.14549e-02,
-3.84949e-02,3.33439e-01,1.70051e-01,3.15883e-01,7.58612e-02,-3.92637e-01,1.38870e-01,-2.12384e-01,-2.83861e-01,3.42698e-01,1.61480e-03,4.67962e-02,1.20039e-01,
-3.43677e-01,-1.23234e-01,-1.22604e-01,2.63784e-01,-2.73282e-01,-9.39664e-02,4.33966e-01,1.61152e-01,1.77752e-01,2.30872e-01,-8.34522e-02,-3.07854e-02,3.57804e-01,
2.82498e-01,1.93845e-01,-2.61204e-01,-2.62102e-02,1.87073e-02,-5.48105e-02,-1.41984e-02,-8.56111e-03,-3.04455e-02,1.74018e-01,-6.94734e-04,1.14611e-02,3.05160e-01,
3.30940e-01,1.97213e-01,-3.03834e-01,2.42677e-01,1.38412e-01,-1.30352e-01,1.25885e-01,9.20918e-02,-6.51659e-02,-1.64140e-01,2.00096e-01,2.12079e-01,3.10535e-01,
-8.99556e-02,2.54930e-01,-9.64395e-02,2.55591e-01,1.92177e-01,-1.40005e-01,1.50466e-01,-2.12233e-02,-1.27606e-01,1.13603e-01,2.11894e-01,8.55279e-02,1.59586e-01,
-9.55167e-30,-2.26630e-13,4.02497e-37,1.77050e-38,1.84786e-20,-1.28498e-15,-2.56609e-36,-3.54201e-16,3.00913e-38,-2.23339e-15,2.15946e-37,-8.03069e-33,-4.34778e-12,
1.10873e-01,-1.57141e-01,-3.76203e-01,2.41384e-01,1.42360e-01,2.65043e-01,-3.69487e-01,3.39808e-01,1.55745e-01,3.17166e-01,-8.04808e-02,3.55925e-01,-1.87995e-01,
1.90854e-01,-5.08914e-02,3.20195e-01,-6.29628e-02,-1.94674e-01,-1.29288e-01,3.30462e-01,-1.92784e-01,-1.63722e-01,-5.11523e-02,-2.08497e-01,-3.74708e-01,1.49029e-02,
2.72059e-01,-3.03889e-01,1.81762e-01,-4.03903e-02,7.56733e-02,8.10693e-02,-7.57810e-02,-2.19016e-01,-1.81853e-01,3.74053e-01,-1.94811e-01,-3.14087e-01,7.08499e-02,
1.57401e-01,-1.48743e-01,-4.44343e-01,-1.50207e-01,4.34860e-02,2.56982e-01,-1.86380e-01,1.71112e-01,-1.65631e-02,2.63516e-01,-1.59479e-01,2.27553e-01,2.31405e-01,
1.51867e-01,-1.75310e-01,2.82342e-01,2.04937e-01,1.60672e-01,-5.90348e-02,-1.52972e-01,-1.32415e-01,-2.96504e-01,-3.66851e-01,-3.07177e-02,4.50757e-02,1.41162e-01,
-1.94123e-01,2.56489e-01,-2.24355e-01,1.34387e-01,-3.16894e-02,-1.71424e-01,2.31988e-01,-2.20961e-01,2.94118e-01,-1.35678e-01,1.73118e-01,4.07312e-01,-1.81428e-01,
7.66856e-03,-2.06632e-01,-7.60996e-03,3.67424e-02,9.83914e-02,-9.98907e-02,-1.23482e-01,4.35158e-01,2.80788e-02,2.90125e-01,1.14366e-01,-6.65266e-01,-2.65624e-01,
3.97596e-03,-2.00542e-01,-1.26233e-01,-1.94954e-02,6.77444e-02,2.13657e-01,2.87897e-01,3.80484e-01,-1.18316e-01,-2.80319e-01,-4.13929e-02,-2.87436e-01,-3.13120e-01,
6.47908e-02,-4.30769e-02,9.77423e-02,7.85455e-02,2.09214e-01,2.39886e-01,1.22849e-01,3.53267e-01,4.04961e-01,3.60516e-01,2.44280e-01,4.18273e-01,1.25932e-01,
-3.16936e-02,-3.45488e-01,8.19500e-02,-5.96275e-02,-1.28113e-01,1.40999e-02,1.76671e-01,-2.75773e-01,-1.03350e-01,-1.43847e-01,9.22206e-02,5.13148e-01,1.25060e-01,
-3.92447e-03,-1.38271e-01,3.44075e-01,-7.77821e-02,7.65238e-02,2.00943e-01,3.38046e-01,5.70611e-02,-7.81703e-02,-2.38090e-01,9.20591e-02,1.28131e-01,-1.33744e-01,
7.76486e-03,3.83254e-02,2.25061e-01,-9.74615e-03,3.94101e-02,-2.07895e-01,1.81718e-01,-1.38150e-01,-3.60883e-02,-8.43323e-03,-7.89933e-03,-2.10505e-01,-3.30261e-03,
-1.56671e-01,-9.54149e-02,1.26799e-01,-2.04886e-01,1.52737e-01,2.17926e-02,-1.55565e-01,2.78333e-01,-2.09375e-03,1.58018e-01,5.60727e-02,5.97045e-02,1.09264e-01,
4.48026e-02,9.81148e-02,2.73126e-01,2.68654e-01,4.26060e-02,2.50125e-01,-8.61172e-02,4.08279e-02,-5.34406e-02,5.32254e-02,-6.11542e-01,-1.65964e-01,1.03490e-01,
2.47011e-02,-9.71964e-02,-9.60428e-02,1.76740e-01,1.97182e-01,4.44497e-01,-9.63822e-03,-9.49384e-02,2.57632e-01,4.63088e-01,-9.74979e-02,2.82266e-01,-3.43008e-01,
-1.02043e-02,-9.67404e-02,-1.87536e-01,2.16741e-01,1.38146e-01,-7.69717e-03,1.98505e-01,1.11371e-02,-6.88290e-02,2.80260e-01,8.56898e-02,2.58178e-01,2.93342e-01,
9.53906e-02,-2.42815e-01,3.54530e-01,-1.19877e-01,1.05287e-01,3.53417e-02,-1.14207e-01,1.01587e-01,-8.20939e-02,9.32150e-03,8.78299e-02,2.22328e-01,2.68911e-02,
1.32503e-01,-4.38958e-02,2.50138e-01,-6.93958e-02,2.10349e-01,-1.75291e-01,1.55049e-01,-5.27635e-02,-1.56542e-01,-1.65201e-01,2.93185e-01,2.10512e-02,-1.55383e-01,
2.97631e-01,2.35487e-01,-1.42655e-02,9.00695e-02,3.82111e-01,-5.99087e-02,4.12670e-02,-2.42735e-01,-3.50760e-02,-1.33674e-01,-3.66466e-02,4.78445e-02,-7.35838e-02,
8.10917e-02,-3.00706e-01,-2.53760e-01,-2.72956e-02,-3.91512e-01,1.75562e-01,2.97254e-01,-2.21921e-01,3.01179e-01,5.44277e-01,-1.41144e-01,-1.86116e-01,2.65508e-01,
1.15389e-01,1.82799e-02,5.02388e-02,2.15338e-01,3.29186e-01,7.22132e-02,-1.73449e-01,1.59722e-01,-4.22447e-03,1.02276e-01,-1.17829e-01,1.86159e-01,2.87307e-01,
6.24454e-14,-4.56848e-14,-2.63796e-14,-4.90844e-14,-3.61294e-14,2.43594e-13,-2.14284e-14,1.00822e-13,-9.48225e-15,-6.22502e-13,-3.34046e-13,4.91330e-14,7.56031e-14,
9.02235e-02,2.32576e-01,2.52728e-01,9.87023e-02,-1.88658e-01,-1.10184e-01,-8.85152e-02,5.11237e-02,-4.61568e-02,-1.37160e-01,3.65126e-02,1.99689e-01,-2.28425e-01,
2.00874e-01,-1.32984e-01,-2.62761e-01,4.46654e-02,2.22847e-01,4.19465e-01,-9.35653e-02,-2.47716e-01,2.31036e-01,3.02187e-01,-2.10666e-01,3.67555e-01,-3.29599e-01,
-3.33578e-01,-4.01419e-02,1.93917e-01,2.96362e-02,3.58847e-02,1.52720e-01,2.57136e-01,-7.11374e-02,1.70423e-01,7.20083e-02,2.60218e-01,1.08690e-01,1.10114e-01,
9.61962e-02,5.50891e-02,9.57803e-02,-2.10271e-01,-1.80451e-01,-3.92897e-02,2.97750e-01,-2.48505e-02,2.87727e-01,2.14592e-01,-1.00899e-02,3.94228e-01,6.25533e-02,
1.77482e-01,
-1.04449e-01,
1.27042e-03,
-2.69710e-01,
2.03694e-01,
-1.55933e-01,
-5.45726e-02,
-3.46743e-02,
2.10975e-01,
3.17768e-01,
5.76236e-02,
2.43596e-01,
3.03638e-01,
-2.99734e-01,
1.94482e-02,
-1.40691e-01,
-2.93542e-01,
-4.42145e-02,
-2.16701e-01,
-2.78129e-01,
-1.36326e-01,
2.25517e-01,
7.67189e-03,
2.60948e-36,
3.12503e-02,
2.04067e-01,
8.33524e-02,
3.38414e-02,
2.05280e-01,
2.05250e-01,
2.17747e-01,
3.49914e-01,
4.10574e-01,
2.53986e-01,
1.96782e-01,
-3.43766e-02,
-1.08882e-01,
-2.42119e-01,
-1.23394e-01,
-8.29698e-02,
3.87993e-02,
-7.48170e-03,
5.98313e-02,
-2.05400e-01,
-2.18696e-01,
-1.52118e-13,
3.00890e-01,
1.21750e-01,
7.13804e-02,
-8.13518e-02,
5.86778e-04,-1.36501e-12,-3.44702e-06,4.04798e-38,-4.67561e-03,1.28606e-03,-5.19890e-03,-3.37082e-30,2.95757e-02,4.05245e-02,4.41215e-03,-5.26671e-02,-9.24359e-06,3.31490e-37,-1.60000e-02,-1.96368e-37,9.23277e-35,2.20505e-10,5.40515e-30,1.63495e-12,1.64622e-07,1.07170e-02,-8.54947e-03,1.41785e-38,4.91640e-37,-4.74301e-04,2.86140e-07,-5.04862e-03,-1.96536e-02,-1.09978e-02,-1.59650e-04,6.87950e-03,-3.84350e-02,-7.08247e-04,1.13661e-02,-1.81871e-12,1.28274e-02,-2.20721e-08,6.76342e-38,-8.66560e-03,-1.89587e-04,-4.32347e-03,-2.28789e-31,-2.52524e-40,4.26681e-03,9.77950e-36,-4.70241e-05,-1.98743e-31,-1.28562e-02,-5.16602e-12,
-2.51095e-04,-8.23842e-23,-5.89015e-04,-4.31843e-23,-6.70901e-04,-5.67193e-05,-6.29939e-05,-6.00774e-04,-2.09346e-08,-5.48490e-03,-2.81631e-06,-1.08147e-03,-3.49339e-08,-2.42827e-13,-1.03040e-04,-1.09295e-25,1.63550e-24,-1.97334e-04,-3.83171e-05,1.24764e-20,-8.20126e-05,-2.87037e-03,-8.02562e-04,-7.87719e-38,3.33506e-21,-1.89508e-10,4.14174e-19,-1.72505e-09,-3.58229e-05,-3.14252e-04,-1.37055e-08,-2.88725e-11,-4.32673e-03,-6.74925e-19,-7.85148e-07,-1.15347e-22,-2.12047e-09,-1.24606e-12,3.75936e-23,-5.73174e-05,-3.83697e-08,-3.38317e-07,-8.57021e-05,9.08463e-23,-6.86439e-05,-6.16505e-36,-3.35331e-04,3.18387e-16,-2.16376e-05,-6.94880e-07,
2.75402e-02,-3.47272e-05,-5.72815e-03,1.04114e-02,4.20865e-02,-2.20707e-02,2.39828e-02,-3.63106e-02,-3.62623e-02,-4.67827e-03,-6.14017e-03,-9.98511e-02,1.95747e-02,5.36584e-02,-2.71775e-02,4.86026e-26,1.16429e-02,-8.95903e-03,2.03273e-02,3.07322e-02,-9.31010e-03,-1.86912e-02,-1.04704e-01,7.51743e-34,5.80658e-02,-2.60836e-02,-5.45821e-05,-4.65706e-02,-2.81596e-02,-4.02396e-02,3.66621e-03,-7.04575e-03,4.04954e-02,-2.41963e-02,-4.94488e-02,6.02696e-26,-3.44611e-02,1.20114e-03,1.48522e-02,5.30248e-02,1.10167e-03,-1.91817e-02,3.36435e-03,1.36920e-02,-4.47155e-02,1.29952e-38,-1.50413e-02,-1.54764e-03,-1.01315e-01,-1.29993e-02,
-1.85225e-01,4.71612e-01,9.26901e-02,-5.21060e-01,-2.91613e-03,1.38059e-01,4.77938e-02,-2.30345e-01,2.89704e-01,1.72267e-01,1.33710e-01,1.27345e-01,2.95086e-01,-1.28038e-01,7.24585e-02,9.67314e-03,-3.76292e-01,-1.56423e-01,-1.92834e-01,-3.87896e-01,-1.43317e-01,5.50850e-02,1.66335e-01,6.42171e-39,-3.99169e-01,-8.96005e-02,6.34325e-01,-2.23798e-01,5.32782e-02,8.27047e-02,3.32171e-01,2.17078e-01,7.95404e-02,2.51386e-01,2.04259e-01,-1.94073e-01,1.07576e-01,2.69675e-01,-4.03034e-01,-9.29453e-02,1.48035e-01,1.67652e-01,4.68086e-02,-5.30285e-01,3.42031e-02,-1.66166e-14,1.90085e-01,-3.47052e-01,6.99425e-03,1.20167e-01,
1.38094e-02,5.29993e-01,6.52753e-03,-5.98915e-01,7.02560e-02,-2.14592e-02,2.85759e-02,-6.59648e-02,5.31166e-02,1.61313e-02,2.54040e-02,5.30855e-02,1.61373e-01,-5.45868e-02,5.65518e-02,6.49222e-04,-4.46250e-01,4.49626e-02,-1.81405e-01,-5.19235e-01,-1.83595e-02,-5.54301e-03,1.49354e-02,8.43563e-33,-3.56845e-01,-1.06150e-01,6.65329e-01,-6.06685e-02,-5.81315e-02,1.00229e-01,3.29029e-01,1.74710e-01,6.42030e-02,3.56708e-01,3.58022e-02,-2.21939e-01,-5.96507e-03,4.30676e-01,-4.30908e-01,4.57546e-02,-1.04924e-02,-5.62715e-02,-5.92758e-03,-5.21898e-01,2.82824e-03,6.84244e-15,1.17800e-02,-3.20437e-01,4.43967e-02,1.27494e-01,
-8.08702e-02,4.94658e-01,5.08309e-04,-5.46828e-01,-2.73935e-02,1.41448e-01,2.31882e-02,-9.95023e-02,2.15548e-01,1.61936e-01,2.67418e-02,1.11831e-01,1.56658e-01,6.26580e-03,8.01976e-02,1.87264e-02,-2.55648e-01,-7.34828e-02,-2.60679e-01,-5.72009e-01,-6.01306e-02,8.11815e-02,7.96159e-03,3.41485e-36,-3.47383e-01,1.54971e-02,5.97317e-01,-2.26620e-01,1.15636e-01,4.97416e-02,3.86376e-01,2.69850e-01,7.89218e-02,3.94892e-01,2.63230e-01,-1.97156e-01,-4.24092e-02,3.10592e-01,-3.59792e-01,-8.32471e-02,1.06259e-01,-3.64518e-02,4.40973e-02,-5.89308e-01,-1.21411e-01,-2.25733e-14,5.98146e-02,-3.39338e-01,1.67169e-01,1.46564e-01,
-6.59904e-02,2.77127e-01,1.21357e-01,-3.79904e-02,4.97965e-02,2.01825e-01,-8.58227e-02,4.45172e-02,2.59911e-02,2.38104e-02,-7.73287e-02,-5.15638e-02,-6.97990e-02,-9.65870e-03,-1.12043e-02,3.13222e-02,-5.03376e-04,1.04962e-01,-8.58026e-02,-2.27031e-02,3.56744e-02,-1.87682e-01,2.74178e-03,-1.79141e-37,-4.25600e-02,1.56545e-01,3.70149e-01,-6.04008e-02,2.18683e-02,-2.31354e-01,9.97839e-02,8.08976e-02,-6.37908e-02,3.25897e-02,3.00573e-02,2.80339e-02,1.30924e-02,2.92770e-01,-1.13551e-01,-3.55482e-02,8.27439e-02,-2.09149e-01,5.62321e-02,9.78836e-02,7.24649e-02,-2.70235e-17,8.44638e-02,-7.35336e-02,-7.71774e-02,-1.65579e-01,
3.05574e-02,-2.79157e-34,3.22039e-02,-1.43502e-37,6.43080e-02,3.26059e-02,3.15271e-02,-3.48808e-02,-3.98565e-02,-6.74147e-02,-3.07718e-03,-6.88477e-02,3.33021e-03,-5.33320e-11,1.93050e-03,5.15548e-38,-2.15168e-06,-8.78291e-03,-3.12293e-02,4.48195e-39,2.71982e-02,3.94927e-03,4.03990e-02,3.01776e-33,-2.68498e-03,2.85937e-02,8.91560e-39,3.63349e-02,4.88187e-02,3.23755e-02,-3.57601e-03,1.78071e-02,-7.25518e-03,-1.15333e-03,2.54247e-02,-1.73192e-38,1.01634e-02,3.01636e-06,-2.38770e-33,-5.60476e-02,-2.50041e-03,2.96198e-03,-2.18860e-02,-1.22198e-38,2.78614e-02,9.92999e-39,-2.54359e-02,-1.08844e-02,-6.20277e-02,3.63202e-03,
4.60599e-02,5.48697e-01,4.54521e-03,-5.96062e-01,8.54523e-02,-5.37489e-02,9.02287e-03,-2.40974e-02,7.64847e-02,6.81086e-03,-4.05740e-02,5.47880e-02,1.83170e-01,-5.71893e-02,4.68284e-02,6.41194e-03,-4.79930e-01,6.03948e-02,-1.96741e-01,-5.36994e-01,4.31580e-02,3.15705e-02,2.08466e-02,-6.11898e-39,-3.27702e-01,-1.33212e-01,6.32202e-01,-6.04297e-02,-7.96538e-02,1.11974e-01,3.19418e-01,1.54922e-01,5.66732e-02,3.53757e-01,-9.36866e-03,-2.46862e-01,1.27682e-03,4.05644e-01,-3.72710e-01,5.94213e-02,-6.20649e-02,-9.45878e-02,5.93329e-03,-5.41791e-01,2.88947e-03,4.01844e-14,-4.28462e-03,-3.49695e-01,3.74878e-02,1.29731e-01,
-1.77247e-01,5.16294e-01,9.17677e-02,-5.51322e-01,2.03238e-01,3.62684e-02,2.04673e-01,-9.51761e-02,1.62553e-01,9.22704e-02,7.66179e-02,8.73830e-02,2.25100e-01,-1.98676e-02,-3.70862e-02,1.08114e-02,-2.06656e-01,-1.21935e-01,-2.77594e-01,-3.68955e-01,-8.97614e-03,9.88516e-02,-1.72785e-02,-3.53850e-34,-2.54205e-01,-4.38088e-02,7.03511e-01,-1.63214e-01,3.44961e-02,-4.26202e-03,3.75156e-01,3.06837e-01,7.58970e-02,2.72230e-01,9.46649e-03,-1.96014e-01,-3.69833e-02,3.30322e-01,-4.31694e-01,-4.16309e-02,1.30287e-01,1.84203e-01,-9.63434e-02,-4.99252e-01,6.91172e-02,2.60594e-14,6.41929e-02,-2.48602e-01,7.03405e-02,8.05925e-02,
-7.32065e-02,-2.87203e-01,5.21121e-02,4.72246e-01,-1.18594e-02,1.49584e-01,-1.09795e-01,1.09512e-01,-1.42190e-01,1.09424e-01,-9.08804e-03,-2.07273e-02,1.27592e-01,-1.57663e-01,-8.85456e-02,5.75382e-03,4.67324e-01,-1.21359e-01,1.99081e-01,3.74374e-01,9.94212e-02,1.27384e-01,9.99643e-02,1.96396e-31,3.85830e-01,3.25456e-01,-3.45787e-01,-4.63272e-02,1.59156e-01,4.78703e-02,-3.08849e-01,-1.76713e-01,-1.28741e-01,-5.51733e-01,6.63666e-02,2.12511e-01,-2.41158e-02,-4.55240e-01,3.59907e-01,-1.92949e-01,2.50505e-02,2.56443e-01,1.35008e-01,3.97510e-01,-5.55417e-02,5.85044e-14,4.82049e-02,4.90202e-01,1.25770e-01,-5.87276e-02,
1.46255e-02,5.91630e-01,-6.15841e-03,-5.98313e-01,5.18721e-02,-3.68077e-02,3.98713e-02,-6.99735e-02,1.47019e-01,2.68192e-03,2.56499e-02,2.68817e-02,1.87764e-01,-1.25003e-01,5.15232e-02,-4.00023e-03,-4.81575e-01,8.78416e-03,-2.44531e-01,-5.02696e-01,1.66512e-02,4.65076e-03,1.46271e-02,-2.12988e-38,-2.23436e-01,-1.03573e-01,8.42867e-01,-4.50743e-02,-8.51099e-02,1.12077e-01,3.64378e-01,1.76912e-01,1.01329e-01,3.36452e-01,-2.52789e-02,-2.19957e-01,2.88797e-02,4.10526e-01,-4.27967e-01,4.69341e-02,-4.38462e-02,-5.68670e-02,-2.97659e-02,-5.43961e-01,-4.24985e-02,-1.84061e-14,-8.79303e-04,-3.11563e-01,3.96688e-02,7.18030e-02,
5.13276e-02,-4.65580e-01,1.94965e-01,5.41639e-01,9.61266e-02,-1.83611e-03,-1.50321e-01,2.78233e-01,-1.70713e-01,4.36897e-02,1.91197e-02,1.71927e-01,-5.79573e-02,1.06089e-01,1.39653e-01,-1.67893e-02,2.63026e-01,5.05336e-03,3.13170e-01,5.01490e-01,1.01212e-01,8.87492e-02,1.22915e-01,6.87327e-39,3.37754e-01,1.61217e-01,-6.19805e-01,2.15026e-01,-2.30823e-02,-1.11142e-01,-3.23396e-01,-1.36010e-01,-2.64702e-02,-2.87411e-01,-8.32101e-03,1.95733e-01,-9.84079e-02,-4.24915e-01,4.97652e-01,1.03822e-01,4.76140e-02,-1.10595e-02,1.83421e-01,5.74921e-01,1.21761e-01,-1.44297e-14,5.64243e-02,3.85186e-01,-5.26108e-02,4.00273e-02,
3.51548e-06,-1.03521e-36,5.72701e-13,1.92737e-32,-2.73893e-07,1.22910e-39,-6.07216e-40,-2.07905e-11,-6.29012e-33,2.09512e-04,7.42541e-39,4.88621e-04,-9.02317e-33,-1.10692e-36,2.01407e-38,-5.87485e-38,-6.59975e-32,-2.87393e-05,-1.67725e-14,1.47446e-38,5.26001e-07,-1.77832e-04,2.56209e-08,-2.81821e-36,-1.40515e-31,2.24598e-12,2.02640e-38,-5.57110e-09,9.69474e-39,-3.22769e-07,9.07015e-39,7.53114e-39,-2.32370e-04,-9.41055e-31,1.29919e-38,-6.27989e-38,-3.15339e-39,2.48567e-38,1.66537e-34,4.79167e-07,4.00880e-33,8.99173e-38,3.95802e-37,5.33404e-33,6.44200e-35,-2.27529e-36,-1.52966e-38,-9.37680e-13,1.78445e-08,-3.48633e-34,
-2.03898e-01,4.72658e-01,-4.00877e-02,-6.25374e-01,7.88068e-02,1.81278e-01,2.30734e-01,-7.88111e-04,8.43198e-02,1.11788e-01,-2.34367e-02,7.87967e-02,6.18337e-02,-2.19593e-01,-8.06673e-02,3.15170e-02,-4.26617e-01,-9.36734e-02,-1.80044e-01,-5.82853e-01,-1.09433e-01,1.37879e-02,-5.39502e-02,1.58347e-38,-2.94610e-01,-7.54610e-02,7.27406e-01,-1.45517e-02,-5.18011e-02,1.54922e-02,2.38104e-01,3.27500e-01,1.97411e-01,2.19542e-01,1.20198e-01,-1.96467e-01,9.11211e-02,2.58430e-01,-3.44977e-01,-9.20846e-02,4.32709e-02,-4.73514e-02,-5.02763e-02,-4.33506e-01,-1.41147e-01,1.09349e-14,1.00764e-01,-3.07884e-01,1.07328e-01,1.65225e-01,
1.58016e-02,4.89669e-01,4.10815e-02,-6.32560e-01,1.22957e-01,1.99997e-01,8.59029e-02,-1.33988e-01,2.22731e-01,9.23071e-02,2.08121e-01,6.83471e-02,2.85729e-01,-1.32318e-01,1.17263e-03,2.07233e-02,-4.33641e-01,-8.49924e-02,-1.32859e-01,-5.59856e-01,-1.54549e-01,1.85813e-02,3.55797e-02,9.08288e-38,-3.50948e-01,-2.15144e-02,6.21544e-01,-1.19523e-02,2.01476e-02,3.33652e-02,4.51500e-01,1.64752e-01,1.03349e-01,3.64783e-01,6.39905e-02,-1.96595e-01,-8.71320e-03,2.66476e-01,-5.03478e-01,-9.69203e-02,1.03631e-01,8.10105e-02,6.52778e-02,-5.07930e-01,-1.02403e-01,4.40102e-14,4.69177e-02,-2.67216e-01,1.50157e-01,1.98775e-01,
-1.34291e-01,4.51613e-01,-8.94520e-03,-5.52170e-01,1.48341e-01,1.17029e-01,2.07264e-02,-1.98251e-01,8.75977e-02,1.45989e-01,2.37130e-01,-3.40500e-02,3.36907e-01,1.54392e-02,1.17089e-01,2.83498e-02,-4.49006e-01,-8.61189e-02,-1.90498e-01,-3.95533e-01,-1.75910e-01,1.36685e-01,7.42767e-02,-1.65467e-34,-3.99741e-01,2.51469e-02,6.65406e-01,-1.56597e-01,1.30703e-01,1.43180e-02,3.46958e-01,3.00310e-01,1.02035e-01,2.72015e-01,1.05557e-02,-1.96822e-01,2.41037e-02,4.02505e-01,-4.36042e-01,-2.30671e-02,-4.92735e-02,2.81214e-03,-6.91441e-02,-5.28647e-01,-1.60180e-01,-6.98231e-14,1.30943e-01,-2.62801e-01,1.87466e-01,1.88560e-01,
2.16796e-01,-4.48140e-01,-5.16564e-02,5.52205e-01,-1.32381e-01,8.44198e-03,-1.12438e-01,1.15110e-01,-1.06976e-01,1.29066e-01,-1.56937e-01,1.30984e-01,-6.40619e-02,2.26292e-01,1.06329e-01,-1.33126e-02,3.80425e-01,2.26105e-02,2.76335e-01,5.07752e-01,1.50687e-01,-2.26779e-02,3.75136e-02,-1.79832e-38,4.74837e-01,4.32458e-02,-6.19875e-01,1.21705e-01,9.66426e-03,-6.62736e-02,-3.22148e-01,-1.74594e-01,4.85959e-02,-2.05197e-01,-9.14577e-02,2.01299e-01,3.72957e-02,-3.55795e-01,4.43386e-01,-6.94484e-03,5.21672e-02,7.94701e-02,5.95031e-02,4.78997e-01,1.67493e-01,1.43047e-14,3.98418e-02,3.50040e-01,5.07820e-02,-8.34325e-02,
5.77661e-04,5.24612e-01,-2.60618e-02,-5.98673e-01,5.73955e-02,-1.99855e-02,2.67163e-02,-4.49419e-02,8.29407e-02,5.01866e-02,-4.59689e-03,4.77549e-02,1.67796e-01,-3.99155e-02,6.11092e-02,1.60214e-02,-4.40773e-01,5.33787e-02,-1.81237e-01,-5.14273e-01,-6.52271e-03,1.11442e-02,-1.03605e-02,-4.40554e-39,-3.50521e-01,-1.09128e-01,6.62402e-01,-5.95235e-02,-6.19101e-02,9.87191e-02,3.26615e-01,1.65406e-01,5.85524e-02,3.56602e-01,2.59732e-02,-2.23332e-01,2.01959e-02,4.34418e-01,-4.20381e-01,4.51357e-02,-4.76019e-04,-8.51978e-02,-3.98827e-03,-5.30440e-01,6.72219e-03,-1.14095e-13,-2.16331e-02,-3.29867e-01,4.23959e-02,1.28207e-01,
1.81556e-07,1.15981e-35,-1.07226e-05,-1.27820e-35,-6.07808e-05,-4.85095e-07,-2.80229e-05,-8.04350e-07,-5.52400e-07,-8.85312e-04,-1.75682e-06,-1.41384e-04,-1.47876e-10,-1.08890e-11,-6.00566e-06,-1.91020e-38,3.34657e-30,-1.85346e-06,8.25381e-07,-7.76870e-36,-1.01456e-07,-3.76684e-04,-3.37192e-05,4.14332e-38,-1.37258e-13,8.78449e-09,2.20350e-35,4.70523e-07,-8.92214e-07,-4.42003e-05,-8.11395e-09,-1.54043e-09,-1.15410e-03,-3.13269e-22,-1.29648e-06,3.82836e-31,-1.02905e-09,-2.09361e-33,2.58067e-30,-6.63462e-09,-1.67886e-08,-6.49134e-07,-3.68782e-07,4.35978e-35,-1.51500e-08,-1.00371e-34,-1.27791e-05,-8.73270e-10,-1.40072e-06,8.20053e-24,
-3.49447e-02,5.94968e-01,-5.28970e-02,-5.27819e-01,6.93411e-02,-4.51032e-03,8.37595e-02,-5.82373e-02,1.77073e-01,4.95726e-03,5.73940e-02,7.47039e-02,2.01699e-01,-1.53256e-01,4.81926e-02,2.81984e-02,-4.10052e-01,-4.54806e-02,-3.52684e-01,-4.82341e-01,-9.30143e-03,3.89595e-02,9.23188e-04,1.60412e-39,-1.47294e-01,-1.24886e-01,9.26591e-01,-8.87597e-02,-8.71382e-02,8.09275e-02,3.77198e-01,2.63256e-01,8.34198e-02,2.78215e-01,4.89092e-02,-1.86266e-01,4.57233e-02,3.35309e-01,-3.72628e-01,8.31093e-03,-4.42656e-02,-2.63521e-02,-6.15674e-02,-5.29631e-01,-5.31199e-02,-4.74462e-14,4.47441e-03,-2.54877e-01,6.21423e-02,4.58614e-02,
6.69270e-31,-9.60081e-33,-3.70028e-39,-7.33083e-38,-9.22698e-12,2.96794e-09,8.80604e-07,4.55658e-38,7.11360e-06,-1.58694e-05,8.14905e-12,3.80733e-07,3.71570e-38,9.26773e-39,-2.47695e-14,-6.48978e-36,2.10152e-38,3.47528e-36,-9.60218e-35,-5.98145e-31,-1.34088e-31,-4.50151e-06,1.67851e-19,-2.60760e-35,-1.54455e-38,-1.10099e-30,-4.10950e-35,-1.38416e-19,-5.72746e-14,8.91181e-26,8.83049e-24,7.79526e-13,-1.98156e-05,1.12326e-33,-4.05616e-11,6.17950e-39,-1.84113e-36,-7.07768e-39,1.01851e-39,1.39032e-12,-1.83598e-34,-1.74506e-28,7.63323e-37,-3.52626e-38,6.15588e-29,7.73116e-39,7.19693e-41,-4.91115e-38,4.12752e-07,4.09925e-39,
8.89022e-02,-5.80231e-01,-1.43326e-02,6.93663e-01,-1.32589e-01,1.12625e-01,2.78072e-02,1.06912e-01,1.84021e-02,4.20645e-02,9.86294e-02,4.20021e-02,-7.75412e-02,1.53576e-01,-7.54363e-02,-1.55796e-02,4.91367e-01,3.81395e-02,1.47695e-01,5.90262e-01,-4.94395e-02,-4.34731e-02,-2.29210e-02,-1.20870e-36,4.48632e-01,1.14708e-01,-5.94219e-01,6.25175e-02,7.96743e-02,-1.48921e-01,-3.21788e-01,-4.35977e-02,8.61229e-02,-2.84432e-01,3.70627e-02,2.24998e-01,2.05185e-02,-3.94437e-01,4.97716e-01,8.54967e-02,5.27611e-02,9.77804e-02,7.41846e-02,6.11405e-01,2.60348e-02,1.15624e-13,1.34797e-02,5.05281e-01,1.16485e-01,-4.44536e-02,
5.76183e-02,-4.51474e-01,1.30987e-01,5.70140e-01,-1.42704e-01,-1.31445e-02,-1.33184e-01,9.76254e-02,-1.17797e-01,1.13137e-01,-1.02077e-01,-4.46998e-02,-1.75391e-01,1.10796e-01,-2.98631e-02,-1.79301e-02,4.51794e-01,1.03597e-01,1.91495e-01,4.49764e-01,1.63159e-01,-3.51975e-03,1.30545e-01,3.18144e-39,3.99073e-01,7.17760e-02,-5.68020e-01,2.97007e-01,1.44422e-01,-2.01441e-02,-2.53949e-01,-5.31919e-02,6.21984e-02,-3.37480e-01,1.46955e-03,2.02449e-01,-8.02957e-02,-3.89475e-01,4.91605e-01,1.06951e-01,-3.50237e-02,5.11090e-02,1.70682e-01,5.87236e-01,5.00685e-02,1.43475e-14,-8.78192e-02,3.44287e-01,3.61064e-02,3.00794e-02,
1.30023e-19,4.30357e-21,1.65622e-19,-2.67080e-20,1.93772e-19,3.90830e-19,-2.07704e-19,2.25575e-19,-8.88935e-20,-1.10408e-18,3.72945e-19,1.42856e-19,6.80877e-20,-1.10143e-19,1.23324e-19,1.08305e-36,3.69358e-20,7.39094e-20,8.54905e-20,1.11430e-19,3.18666e-19,-1.16322e-18,6.53625e-20,-5.46057e-39,-3.11498e-19,2.22451e-20,-6.01547e-22,4.64567e-21,1.72122e-19,-1.86853e-20,-2.92865e-19,2.13858e-19,-1.46596e-18,-1.02988e-20,1.50280e-19,-1.11762e-20,-8.56529e-21,-4.82865e-21,4.35119e-22,1.82150e-19,-1.01729e-19,1.70696e-19,1.00537e-19,-3.01070e-21,-3.09439e-19,-9.86848e-39,2.11354e-20,-4.38249e-21,2.73972e-19,-8.23378e-20,
2.51563e-01,-4.67861e-01,1.90150e-01,5.48700e-01,-3.88551e-02,-1.63028e-01,-1.37841e-01,2.00849e-01,-2.21929e-01,1.49638e-01,4.45595e-02,6.46002e-02,-1.43421e-01,4.89106e-02,6.19572e-02,-3.24064e-02,3.22583e-01,-2.40109e-02,2.79740e-01,5.45889e-01,1.58684e-01,2.88914e-02,8.52559e-02,1.95823e-37,2.85761e-01,5.42358e-02,-5.67089e-01,6.32523e-02,1.31833e-01,-2.05360e-03,-3.28041e-01,-5.08411e-02,5.60463e-02,-2.96087e-01,-2.18061e-01,1.96810e-01,-8.27237e-02,-4.16888e-01,3.89036e-01,-4.49248e-02,5.99472e-02,3.08177e-02,1.90024e-01,5.21534e-01,1.47940e-01,6.02454e-14,7.59284e-02,3.21352e-01,1.19359e-01,-8.87704e-02,
1.49435e-01,-4.34288e-01,1.77950e-01,5.87797e-01,4.18914e-02,-7.14044e-02,-2.47912e-02,1.54397e-01,5.10852e-02,1.27113e-01,-2.02688e-01,5.23253e-03,-1.62063e-01,1.49077e-01,-3.66055e-02,-2.56271e-02,2.53516e-01,2.05837e-01,2.72559e-01,4.28151e-01,2.52018e-02,5.31360e-02,6.85449e-02,-2.10274e-37,3.76884e-01,-1.68353e-02,-6.21616e-01,2.43714e-01,1.39898e-01,-4.32369e-02,-3.76582e-01,-1.38626e-01,1.76660e-01,-1.75325e-01,-1.93993e-01,1.96712e-01,-1.19733e-01,-4.55404e-01,4.29304e-01,1.89852e-01,-1.22117e-01,-3.53047e-03,1.21681e-01,4.95547e-01,2.08800e-01,-1.63198e-14,1.34154e-01,4.06563e-01,-9.53197e-02,4.66952e-02,
7.69762e-02,-3.27858e-01,1.33984e-01,6.76704e-01,-4.86293e-02,-6.54689e-02,-5.57533e-02,9.18461e-02,-7.91419e-02,2.80061e-02,-4.00441e-02,2.87596e-03,-5.34918e-02,1.12327e-01,-9.55812e-02,7.94278e-03,4.27562e-01,1.44869e-01,1.09935e-01,5.87074e-01,9.49797e-02,3.24281e-02,-1.47520e-02,1.52815e-38,3.24516e-01,1.35068e-01,-3.73402e-01,1.10901e-01,-5.95002e-02,4.73719e-02,-3.48927e-01,-1.27152e-01,5.36381e-02,-5.64883e-01,-1.07560e-01,8.26077e-02,-4.14276e-02,-3.03906e-01,4.92945e-01,7.11471e-02,-1.87430e-01,-1.49363e-01,1.06522e-02,6.36430e-01,4.61942e-02,-9.78360e-17,-2.68607e-02,2.92573e-01,3.42915e-03,-4.98161e-02,
-5.18801e-11,-8.80899e-39,2.71669e-38,-3.96385e-37,-1.45664e-12,1.97624e-31,-1.54605e-05,1.12462e-31,1.18472e-03,5.55657e-04,-7.87186e-09,-9.47802e-04,-3.36811e-14,-5.49985e-39,-9.02799e-09,-1.99461e-35,-2.27838e-38,8.56767e-39,1.80922e-36,5.45205e-36,-2.88974e-28,2.04383e-03,-2.17774e-06,5.11022e-39,-7.44795e-36,-3.40374e-33,1.18979e-39,4.05754e-10,2.09483e-06,-2.34679e-06,2.06799e-04,-6.82917e-06,-1.30562e-03,2.42163e-17,9.03206e-10,8.62382e-39,-6.78675e-09,2.22159e-32,4.30137e-39,-2.58399e-08,8.43406e-29,-1.62922e-11,-7.55507e-35,-4.41822e-35,3.42992e-34,-6.81007e-39,1.69272e-25,2.81620e-33,-7.59605e-07,-5.39604e-35,
2.36335e-01,-4.50587e-01,8.15366e-02,5.50546e-01,6.50900e-02,1.99767e-03,-1.36977e-01,2.41938e-01,-1.61927e-01,1.53264e-01,-6.57733e-02,4.64299e-02,-2.38566e-01,8.91473e-02,1.47773e-01,-9.86264e-03,3.76933e-01,-1.45953e-02,3.37899e-01,4.63932e-01,8.00045e-02,-2.97444e-02,1.28776e-02,-3.85949e-32,4.06868e-01,1.61543e-01,-6.20798e-01,1.13039e-01,4.84383e-02,1.10462e-01,-3.13286e-01,-7.93949e-02,5.92718e-02,-1.86293e-01,-1.72597e-01,1.97167e-01,-2.88244e-02,-3.25804e-01,4.46472e-01,3.25475e-02,-9.26864e-02,-4.59443e-02,2.27170e-02,5.16725e-01,1.28228e-01,1.34787e-14,1.31917e-02,2.88655e-01,-5.87705e-02,4.74995e-02,
6.22371e-02,-5.12507e-01,3.02293e-02,5.03016e-01,2.03183e-03,-8.02789e-03,-7.30883e-02,6.50372e-02,-7.63998e-02,1.30675e-01,1.36347e-02,6.19930e-02,-2.13827e-01,2.43584e-01,1.61376e-02,-3.23762e-02,2.51768e-01,1.83283e-01,5.64900e-02,5.60650e-01,2.02225e-01,1.57146e-02,1.37087e-01,-3.10911e-38,4.68255e-01,1.52019e-01,-5.65271e-01,2.73078e-01,-7.53275e-02,7.81673e-02,-3.11493e-01,-2.06446e-01,6.40108e-02,-1.44530e-01,-1.80568e-01,1.98446e-01,5.90252e-02,-3.91378e-01,4.84291e-01,1.84875e-01,8.75401e-02,-9.70407e-03,6.95665e-02,4.46624e-01,2.21862e-01,-1.79684e-14,5.00379e-02,2.40826e-01,5.01958e-02,-4.85154e-02,
1.85820e-01,-4.86814e-01,7.24506e-02,6.28351e-01,4.43666e-02,6.52961e-02,-1.25722e-01,2.18287e-01,-1.70072e-01,1.15073e-01,-3.00455e-02,4.65573e-02,-2.21659e-01,1.54315e-01,2.37927e-02,-2.38838e-02,3.81844e-01,-4.33761e-02,1.23643e-01,3.92333e-01,2.37993e-01,6.75815e-02,1.38384e-01,-1.29131e-38,3.83600e-01,-1.75640e-02,-6.96346e-01,2.17836e-01,1.80306e-01,3.29459e-02,-3.63516e-01,-1.49436e-01,6.98811e-02,-3.39252e-01,7.14398e-03,1.99063e-01,8.36604e-02,-3.91912e-01,5.04088e-01,1.43220e-01,2.98271e-02,7.04605e-02,8.87012e-02,5.19676e-01,1.93804e-01,3.63003e-14,-8.33958e-02,2.99131e-01,-7.61459e-02,-1.18513e-02,
-6.19080e-02,5.30226e-01,4.93740e-02,-5.14294e-01,1.75206e-01,1.89714e-02,2.10005e-01,-1.27820e-01,1.03851e-01,7.40389e-02,2.20593e-01,-6.67232e-02,7.36465e-02,-1.02698e-01,8.88827e-02,3.32551e-02,-3.95529e-01,6.11157e-02,-6.87469e-02,-4.71849e-01,-1.70412e-01,7.21044e-02,3.60114e-02,-5.65594e-35,-2.36641e-01,-7.51241e-02,5.36952e-01,-1.03975e-01,3.62917e-02,1.10572e-01,2.08940e-01,3.39060e-01,-4.13467e-02,3.88416e-01,1.54158e-01,-1.95176e-01,4.97328e-02,4.27228e-01,-3.58772e-01,6.88728e-02,1.92800e-01,1.06424e-01,-1.31642e-02,-4.29132e-01,-1.30745e-01,-2.88710e-14,1.19561e-01,-3.03580e-01,-6.25273e-02,3.27958e-02,
-7.07667e-02,5.54364e-01,2.46902e-02,-5.71313e-01,-5.63324e-02,2.53299e-02,2.05497e-01,-7.01616e-02,1.00800e-01,-4.39760e-02,9.09500e-02,7.04145e-02,9.19687e-02,-1.57776e-01,1.04909e-01,3.30457e-02,-4.17509e-01,-7.38767e-02,-1.41098e-01,-3.66899e-01,-1.62906e-01,1.39896e-03,1.40695e-01,-7.03273e-39,-2.91602e-01,-1.29897e-01,5.75501e-01,-9.26368e-02,-8.74990e-02,9.43995e-02,2.63632e-01,2.03972e-01,1.34405e-01,4.49670e-01,1.99614e-01,-1.98352e-01,1.05017e-01,3.46967e-01,-5.02975e-01,1.16522e-01,1.06542e-01,7.55415e-02,-7.40823e-02,-4.32099e-01,-1.28504e-01,-2.85943e-14,1.50493e-01,-1.83441e-01,2.22026e-02,1.67102e-01,
3.21941e-28,-1.39838e-38,-1.66828e-29,-2.69019e-33,-8.50349e-13,4.57030e-29,7.51317e-25,4.64231e-29,-8.55155e-30,-2.08183e-09,-1.87910e-28,-3.54129e-16,-1.42709e-31,1.77132e-32,-9.06412e-29,1.76216e-34,2.73983e-31,-6.83015e-22,3.25140e-32,2.55132e-33,8.16607e-27,-8.20822e-11,3.63776e-22,-7.93307e-36,-7.80002e-33,-7.78823e-33,-2.82521e-32,2.71118e-28,-1.30943e-30,-1.18503e-14,-6.78540e-32,-6.76475e-31,-1.66290e-09,1.02296e-33,2.09686e-27,-1.64775e-35,1.44771e-32,-6.30078e-35,-2.05265e-33,-1.50489e-31,-9.12354e-33,-2.23590e-28,1.44484e-24,-4.44626e-34,-3.15091e-34,-6.21984e-37,1.79655e-24,6.13803e-30,-9.36871e-33,-7.42040e-29,
2.67312e-02,4.28773e-01,-5.11287e-02,-5.95442e-01,5.27137e-04,-1.52520e-02,1.22364e-01,-2.56873e-02,2.15063e-01,1.65470e-01,1.76967e-01,-1.03572e-01,1.15550e-01,-9.19903e-04,-1.02918e-01,3.12470e-02,-4.30987e-01,-1.74094e-01,-1.21080e-01,-4.94128e-01,2.04479e-02,4.98649e-02,1.18453e-01,-2.73862e-34,-2.69811e-01,-7.97996e-03,6.06663e-01,-1.56120e-01,1.43323e-02,1.70641e-01,4.52451e-01,1.12772e-01,1.19003e-01,3.85589e-01,1.10034e-01,-1.97616e-01,3.82855e-03,2.52402e-01,-4.32193e-01,5.33008e-02,8.62454e-02,-3.93334e-02,-1.56023e-01,-4.05637e-01,-1.98511e-02,1.31465e-14,1.22073e-01,-2.43198e-01,1.76756e-01,3.04412e-02,
5.23131e-02,-4.58878e-01,3.59169e-02,5.83619e-01,8.72529e-02,-3.20171e-02,-5.60107e-02,1.63023e-01,-1.71859e-01,1.44401e-01,-7.73678e-02,8.92715e-02,-2.23510e-01,2.34477e-01,3.85472e-02,-3.07418e-02,2.17050e-01,1.01602e-02,1.16541e-01,4.86442e-01,7.18733e-02,5.39829e-02,1.64563e-01,-6.28903e-32,4.30328e-01,1.25437e-01,-5.60953e-01,1.20458e-01,-5.87965e-02,-8.76195e-02,-3.12849e-01,-1.46126e-01,1.36755e-01,-1.87175e-01,-9.78834e-02,1.97930e-01,-5.68338e-02,-4.61638e-01,3.63150e-01,6.40492e-02,-3.47844e-02,9.65981e-02,1.16988e-01,5.67692e-01,2.91530e-02,2.80404e-14,-6.66404e-02,4.06260e-01,7.64523e-02,7.06402e-02,
-1.83205e-01,4.94606e-01,1.11959e-01,-5.57616e-01,9.36891e-02,7.69074e-02,2.30750e-01,-6.77201e-02,1.86341e-01,9.59090e-02,4.18168e-02,-1.00049e-02,3.39158e-01,-1.75625e-01,-8.59834e-02,1.36168e-02,-3.77994e-01,-4.68613e-02,-1.52969e-01,-4.60023e-01,-6.36492e-02,-1.09330e-01,5.33438e-02,1.56664e-38,-4.26334e-01,-1.49874e-01,6.66118e-01,-7.38061e-02,-9.97281e-02,1.87063e-01,4.56514e-01,2.52480e-01,1.75275e-01,4.50444e-01,1.32490e-01,-2.00748e-01,8.98974e-02,4.85068e-01,-4.51496e-01,-8.66077e-03,1.31735e-01,-5.62108e-02,-6.85423e-02,-5.90765e-01,-8.86617e-02,-2.23734e-15,-5.47652e-02,-2.48941e-01,-1.32293e-03,1.55622e-01,
7.32738e-02,-4.86928e-01,1.47971e-01,5.57466e-01,9.61870e-02,-1.74208e-02,-5.10748e-02,2.52009e-01,-1.15451e-01,1.07538e-01,-1.93859e-01,3.11002e-02,-1.96673e-01,2.05870e-02,1.73360e-01,-2.80800e-02,3.90265e-01,2.55185e-02,6.87283e-02,5.28032e-01,7.72997e-02,1.73637e-01,1.39090e-02,1.88240e-34,3.87436e-01,1.54296e-01,-6.80896e-01,2.26580e-01,2.01587e-03,1.16546e-01,-3.14638e-01,-1.77344e-01,7.53115e-02,-3.01836e-01,2.00647e-02,1.99501e-01,1.22976e-01,-2.43859e-01,5.20479e-01,2.07698e-01,1.40269e-02,8.13468e-02,1.93791e-01,5.73768e-01,1.00818e-01,-6.52180e-14,-1.21542e-01,3.57469e-01,-9.41808e-02,-1.21485e-01,
-1.62536e-01,4.60368e-01,1.00082e-01,-5.07183e-01,4.40038e-02,-1.95300e-02,4.26804e-02,-1.23064e-01,2.06345e-01,1.68750e-01,2.31267e-01,-3.67624e-02,2.16801e-01,-1.13760e-01,1.38536e-01,2.94817e-02,-3.27729e-01,-5.40814e-02,-2.79991e-01,-3.48735e-01,-2.04355e-01,-5.13280e-02,2.29722e-02,-2.80311e-37,-4.42315e-01,-7.24933e-04,5.36546e-01,-1.65700e-01,-1.40424e-02,4.88922e-02,3.82634e-01,2.85589e-01,1.45984e-01,2.09085e-01,2.11616e-01,-1.95444e-01,9.91007e-02,3.03766e-01,-5.20449e-01,4.26991e-02,1.84411e-01,-1.12210e-02,4.27795e-02,-4.60540e-01,-4.18471e-02,2.45407e-14,1.34403e-01,-1.54645e-01,1.71974e-01,1.48682e-01,
3.06122e-02,5.81208e-01,1.69648e-02,-6.03124e-01,8.73589e-02,-3.87604e-02,1.60156e-02,-3.43643e-02,7.10886e-02,1.10873e-02,-1.88513e-02,5.04390e-02,1.73848e-01,-6.98887e-02,5.74002e-02,8.22254e-03,-4.92396e-01,7.67463e-02,-1.75713e-01,-5.36127e-01,2.34444e-02,7.57386e-03,1.41401e-02,-2.04590e-31,-3.75144e-01,-1.38058e-01,6.90538e-01,-4.50857e-02,-5.34520e-02,1.23568e-01,3.64652e-01,1.54312e-01,5.60113e-02,3.73920e-01,1.62298e-02,-2.29219e-01,7.63548e-03,4.40289e-01,-4.13554e-01,5.37075e-02,-3.04019e-02,-8.96031e-02,-1.82096e-03,-5.40010e-01,9.50916e-03,2.55017e-14,5.37400e-03,-3.61608e-01,3.76027e-02,1.41238e-01,
1.04271e-01,-4.57208e-01,3.73510e-02,5.19539e-01,1.49200e-02,-6.12888e-03,-9.00816e-02,8.92574e-02,-7.68953e-02,-6.92665e-02,-4.52328e-02,6.51532e-02,-1.48920e-01,1.86622e-01,1.21339e-01,-2.91623e-02,2.92908e-01,-2.90416e-04,1.58279e-01,5.72216e-01,1.21306e-01,1.27727e-01,1.23120e-01,6.48478e-34,4.32533e-01,-4.03390e-02,-4.85787e-01,9.92321e-02,6.11648e-02,-1.42120e-01,-2.22552e-01,-9.82429e-02,1.92005e-02,-1.03988e-01,-4.08264e-02,1.64728e-01,5.67059e-03,-4.11675e-01,3.43510e-01,1.55758e-01,-9.34520e-02,6.16475e-02,-2.43910e-02,4.69484e-01,2.03807e-01,-2.47674e-14,-1.77022e-02,4.09834e-01,-1.56348e-01,-2.00679e-01,
-4.09447e-14,-4.55995e-18,3.45255e-16,-1.88669e-17,2.16094e-13,-1.05960e-13,-2.23414e-15,-1.15540e-15,-8.49338e-16,-2.96703e-05,-2.42441e-09,2.20896e-14,-2.96403e-16,-5.42915e-17,3.54308e-15,2.32790e-38,-1.58191e-17,-1.42770e-17,-3.92049e-16,1.25904e-17,4.63281e-17,-3.28872e-08,-6.36801e-16,-1.43971e-38,1.14916e-15,3.52838e-16,6.82823e-17,9.19516e-16,5.00384e-13,-1.23212e-16,-2.12290e-15,-1.22524e-15,-2.58677e-05,3.19337e-16,7.44181e-13,1.12425e-17,-1.08830e-16,1.79204e-16,2.14580e-16,-1.20187e-15,-2.78024e-15,-2.88865e-16,-2.64413e-15,1.48543e-17,-1.31601e-15,2.00189e-31,-2.17465e-16,-3.59076e-17,7.43029e-16,4.61954e-16,
2.69893e-02,-4.65313e-01,9.48765e-02,5.59273e-01,1.96109e-02,2.55419e-02,-1.98675e-02,2.72029e-01,-1.64395e-01,7.88605e-02,-2.46000e-02,-3.87433e-02,-2.16276e-01,1.28459e-01,5.21800e-02,-1.95051e-02,3.81814e-01,7.45024e-02,1.49564e-01,4.98507e-01,5.22303e-02,1.12342e-01,3.12701e-02,3.91602e-31,4.28380e-01,1.95920e-01,-6.60111e-01,1.64725e-01,6.54400e-02,6.45518e-02,-2.89692e-01,-2.75033e-01,4.74183e-02,-1.23949e-01,-6.27155e-02,1.98590e-01,1.41551e-02,-4.16979e-01,4.19461e-01,8.77443e-02,-5.59814e-02,5.78138e-02,1.56967e-01,4.40208e-01,1.22274e-01,-1.48635e-14,-1.08793e-01,3.03707e-01,4.50681e-02,-4.71095e-02,
2.44934e-01,-4.14374e-01,1.09217e-01,5.20698e-01,6.70050e-02,9.82940e-02,5.79750e-02,4.31260e-02,-1.89721e-01,1.48807e-01,4.62449e-02,-4.38511e-02,-2.44764e-01,1.63660e-01,-3.25199e-02,-2.63096e-02,3.67763e-01,-1.47558e-02,1.94235e-01,3.93748e-01,-2.60765e-02,8.75559e-02,5.59018e-02,-5.52441e-31,2.47372e-01,1.34178e-02,-5.53736e-01,9.96456e-02,-4.04953e-02,8.55555e-02,-2.39017e-01,-7.57466e-02,1.01239e-01,-2.97800e-01,-2.09836e-01,1.96404e-01,-7.66960e-02,-3.49780e-01,4.34773e-01,-5.91335e-02,-1.24082e-01,-1.01734e-01,1.18401e-01,4.63262e-01,7.69071e-03,-1.10458e-14,-1.33156e-01,3.23616e-01,6.06258e-02,-4.43704e-02,
1.51356e-01,-4.60071e-01,-5.50980e-03,6.26559e-01,-9.13454e-02,1.73623e-02,6.98832e-02,2.90718e-01,-1.49944e-01,1.45722e-01,-1.62503e-01,1.26747e-01,-1.54819e-01,1.46741e-01,-5.61439e-02,-2.84189e-02,4.05226e-01,1.53073e-01,1.65638e-01,4.03978e-01,1.11243e-01,1.09204e-01,1.07873e-01,6.81128e-39,3.07383e-01,5.30345e-02,-5.27319e-01,1.91786e-01,9.16269e-02,-7.30637e-02,-4.00200e-01,-8.06016e-02,2.17973e-02,-1.96024e-01,-1.19701e-01,1.97198e-01,-6.00192e-02,-4.62578e-01,4.77854e-01,1.85209e-01,8.73839e-02,7.67990e-02,2.19404e-01,5.06154e-01,9.83258e-02,1.62069e-13,6.23551e-02,3.69769e-01,-1.16700e-01,-1.22900e-01,
7.59582e-02,-4.61752e-01,3.36319e-02,5.51397e-01,1.38794e-01,1.29271e-03,-1.36592e-01,2.91128e-01,-1.18013e-01,6.39425e-02,-2.21131e-02,1.37325e-01,-1.43570e-01,2.42008e-01,-9.92102e-02,-1.65919e-02,3.44755e-01,1.24643e-01,1.53687e-01,3.89180e-01,2.43421e-01,4.13166e-02,6.55275e-03,-7.33183e-35,4.43171e-01,1.82650e-01,-6.02098e-01,2.27775e-01,7.04767e-02,1.19333e-01,-3.14424e-01,-1.10257e-01,1.20622e-01,-2.87666e-01,-1.09407e-01,1.97588e-01,-1.11390e-01,-4.52942e-01,4.49633e-01,6.78740e-02,4.23368e-02,1.05226e-01,1.94568e-01,5.74017e-01,1.99643e-01,3.61609e-14,-7.18500e-02,2.45020e-01,2.76459e-02,-9.43933e-02,
9.26867e-02,-4.29650e-01,1.30378e-01,6.57634e-01,-1.20023e-01,-8.77869e-02,-7.52445e-02,1.89888e-02,7.13506e-02,1.46583e-02,-7.26954e-02,5.49136e-02,-1.03574e-01,1.09497e-01,-1.47221e-02,1.52035e-04,4.05111e-01,5.87328e-02,1.40076e-01,5.64341e-01,7.43666e-03,6.45490e-02,1.60328e-01,1.43748e-38,3.81370e-01,2.10212e-01,-5.74407e-01,2.26633e-01,1.83637e-01,-1.10122e-01,-1.01766e-01,-1.99704e-02,5.53585e-02,-2.35115e-01,-1.45916e-01,1.98291e-01,1.15635e-01,-3.68282e-01,4.79231e-01,9.16340e-02,4.81104e-02,4.74599e-03,-2.42292e-02,5.87500e-01,1.96768e-01,5.88258e-15,-1.33441e-02,3.95564e-01,-8.10825e-02,-2.55848e-02,
7.11211e-02,-4.52518e-01,4.49066e-02,6.04158e-01,6.20941e-04,-5.44285e-03,1.16844e-02,1.11938e-01,-8.85506e-02,-1.03578e-02,-1.37311e-01,3.50219e-02,-2.36120e-01,1.10863e-02,9.53613e-02,-2.21887e-02,4.05477e-01,7.41740e-02,3.22011e-01,5.90309e-01,1.57837e-01,1.87582e-01,1.40065e-01,1.66916e-38,3.95618e-01,1.90757e-01,-6.42009e-01,1.10790e-01,5.79523e-02,-2.11805e-02,-1.88143e-01,-8.69606e-02,-7.54704e-02,-3.01080e-01,-8.22316e-02,2.01802e-01,2.59366e-02,-3.46238e-01,4.36881e-01,1.34339e-01,2.51844e-02,1.28975e-01,3.42125e-02,4.50381e-01,1.03508e-01,-3.96996e-14,-2.61242e-02,3.86771e-01,8.11784e-02,-4.91718e-02,
-2.02692e-01,5.30472e-01,-3.81207e-02,-6.22125e-01,1.39549e-01,1.75765e-01,2.08542e-01,-1.84534e-01,4.50286e-02,6.60405e-02,5.49078e-02,1.81365e-01,2.78836e-01,-8.41135e-02,-8.16511e-03,2.86507e-02,-2.92112e-01,-5.87726e-02,-2.19187e-01,-4.88663e-01,-1.76731e-01,4.07366e-03,-3.61275e-02,9.03402e-33,-3.34473e-01,-1.67301e-02,6.65887e-01,-1.63098e-01,7.69942e-02,1.42286e-02,4.44534e-01,2.24222e-01,1.95418e-01,3.68747e-01,7.36925e-02,-1.97548e-01,-6.69082e-02,3.70947e-01,-3.32767e-01,1.53666e-01,2.24996e-02,5.69085e-02,3.45950e-02,-5.46200e-01,-1.57908e-01,-2.41045e-15,5.77313e-02,-3.51365e-01,-4.45162e-02,1.62445e-01,
-7.57779e-03,
-2.81226e-03,
1.15584e-02,
1.56638e-01,
6.35106e-02,
1.01828e-01,
7.54670e-02,
-1.02940e-01,
5.92142e-02,
4.34230e-02,
-1.11163e-01,
6.82105e-02,
5.87124e-02,
-1.25197e-03,
1.85316e-01,
2.15870e-02,
8.05255e-02,
1.22359e-01,
5.76792e-02,
-6.31394e-04,
8.98748e-02,
-1.55256e-04,
-8.43859e-02,
1.00437e-01,
-8.47662e-19,
3.86589e-02,
-5.80430e-02,
-4.86956e-03,
-3.59354e-03,
1.31070e-01,
-5.96429e-02,
-8.48288e-02,
1.58900e-01,
1.07396e-01,
-2.45386e-11,
-4.38166e-02,
-6.93373e-02,
2.04023e-01,
-8.24919e-02,
1.20845e-01,
6.00741e-02,
1.13244e-02,
-4.53062e-07,
5.47095e-02,
6.53898e-02,
-4.58389e-02,
-7.90903e-02,
-7.45380e-02,
6.74524e-02,
1.80718e-01,
-3.14082e-02,-1.73264e-02,-8.21002e-02,1.95810e-01,2.83272e-01,2.43889e-01,3.57511e-01,2.79672e-02,3.65127e-01,2.91223e-01,-6.07278e-01,4.13215e-01,-2.19172e-01,2.21011e-24,3.01540e-01,3.57412e-01,2.50429e-01,-2.02347e-01,2.89024e-01,3.35870e-03,4.08486e-01,6.66099e-26,-3.73025e-01,-2.27642e-01,1.07262e-19,-2.94046e-01,-2.52256e-01,-4.26662e-01,-3.40033e-29,-2.10228e-01,-2.94595e-01,-2.97028e-01,3.20664e-01,3.57098e-01,5.98452e-11,2.60636e-01,-3.03281e-01,2.70435e-01,-2.56534e-01,3.43866e-01,3.52943e-01,-3.34206e-01,-4.49807e-03,-2.22271e-01,-1.71799e-01,-2.79461e-01,-2.08845e-01,-4.54701e-01,-2.73810e-01,3.10020e-01,
1.45378e-01,
