// Neural Network File Format by Kyle Julian, Stanford 2016
3,13,2,50,
13,50,50,2,
0,
29,0,0,94,126,0,0,71,0,0,0,0,0,
77,1,3,200,594,1,2,202,1,6.2,2,4,3,
0,0,0,0,0,0,0,0,0,0,0,0,0,0,
1,1,1,1,1,1,1,1,1,1,1,1,1,1,
1.25813e-01,4.46642e-01,-5.98692e-02,1.29064e-02,1.40830e-01,2.38683e-01,8.09582e-02,-2.11594e-01,5.56551e-01,1.77062e-01,-3.36318e-03,4.21680e-01,1.75478e-02,
1.54822e-01,7.34878e-01,-6.66823e-01,7.66913e-02,2.43532e-02,1.26453e-01,-3.18344e-01,-8.76911e-02,4.53453e-01,7.21358e-01,-9.09809e-02,5.70681e-01,3.33965e-01,
-4.21888e-02,-4.77721e-01,3.72001e-01,-1.34696e-01,2.06995e-01,-1.38606e-01,-6.97651e-02,-5.81191e-02,-4.91254e-01,-3.35170e-01,3.56839e-01,-6.19431e-01,-2.45937e-01,
-2.21186e-01,4.27096e-01,-7.21094e-01,1.30432e-01,2.07750e-01,-2.26378e-01,-1.89209e-01,-2.44766e-01,8.85090e-01,6.35559e-01,-1.72748e-01,2.13800e-01,3.62120e-01,
-2.76147e-02,-7.46509e-01,1.70735e-02,-1.58294e-01,2.04399e-01,5.30882e-03,1.86327e-01,-2.08910e-01,-1.83103e-01,-2.68117e-01,-1.14543e-01,-1.99102e-01,-2.95241e-01,
-1.84032e-01,3.07589e-01,-2.17416e-01,-2.71894e-01,1.58955e-01,-1.07262e-01,7.63575e-02,3.51928e-02,4.93666e-01,3.49532e-01,6.09918e-02,1.10861e-01,3.45671e-02,
-2.22311e-02,-6.32651e-11,-2.68598e-04,-2.44971e-02,-2.49188e-02,-3.92109e-06,-1.01566e-06,-2.30413e-02,-8.47145e-16,-1.02035e-03,1.37496e-10,-7.84611e-08,-4.60525e-04,
-1.86559e-01,-4.07113e-01,5.53581e-01,5.18092e-02,8.09374e-03,1.15391e-02,-1.12277e-01,1.88554e-01,-4.64845e-01,-3.66039e-01,5.33450e-02,-5.40822e-01,-4.04293e-01,
-2.32415e-11,-4.28551e-22,-3.47866e-13,1.75456e-22,1.60085e-37,4.92587e-13,-5.34678e-21,1.83735e-38,-7.24770e-11,-8.03777e-25,-3.69342e-23,-3.24806e-37,-1.91389e-20,
1.57372e-02,1.82424e-29,-1.34531e-30,-2.36514e-02,-9.44505e-03,-1.71535e-22,-5.56550e-11,-1.10047e-02,1.07957e-25,1.17406e-31,1.66232e-18,-1.70694e-11,1.25973e-31,
-4.37250e-11,-1.19189e-32,9.39936e-39,-2.38217e-17,-2.51124e-32,-3.31931e-32,-1.85102e-31,-1.17011e-21,2.44251e-38,1.23115e-20,4.13996e-39,-2.05109e-35,-1.49132e-38,
-1.79059e-01,-7.51050e-01,3.30652e-01,1.84197e-01,2.51064e-01,-2.36282e-01,3.71923e-01,-9.66070e-02,-7.98122e-01,-2.50211e-01,1.11217e-01,-5.31511e-01,-2.49794e-01,
1.56767e-38,9.84130e-35,1.12872e-16,-9.42838e-39,-6.23421e-12,1.34526e-23,1.86354e-18,7.03589e-38,8.07393e-38,-5.42160e-17,-6.57390e-36,-9.34965e-39,-9.39732e-35,
-5.71249e-12,1.27138e-38,-2.26134e-39,-1.84193e-38,4.31946e-37,7.56603e-36,6.35907e-33,-1.44431e-38,3.75543e-11,5.63581e-39,1.56208e-34,7.75571e-38,2.33588e-19,
-2.37993e-01,-3.16409e-01,9.87340e-01,2.28098e-01,-2.13363e-01,2.33780e-01,1.29525e-01,1.22389e-01,-1.29835e-01,-7.97919e-02,-5.47499e-02,7.81287e-02,6.94860e-02,
5.79369e-04,-5.93295e-02,-2.80379e-01,2.17213e-01,-6.23635e-02,-1.75149e-02,1.61203e-01,-1.60589e-01,2.27604e-01,1.53125e-01,-1.45917e-01,3.98173e-01,-6.44108e-03,
-2.66370e-01,5.32351e-02,-3.05635e-01,2.12878e-01,5.67522e-02,1.68099e-01,6.86484e-02,-2.52133e-01,1.35468e-01,2.23853e-01,1.50637e-01,-1.10485e-02,1.37546e-01,
-2.19487e-02,-2.11916e-02,6.97862e-03,-2.15387e-02,-2.51359e-02,-1.02468e-03,-7.12148e-04,-2.96689e-02,-2.73982e-02,-3.13617e-02,-4.93864e-03,-1.09216e-02,-2.51827e-02,
-1.29772e-02,2.03796e-22,3.03923e-20,-1.99614e-02,-2.29422e-02,-1.34891e-25,3.45167e-24,-2.01876e-02,7.21618e-27,4.06491e-07,-3.48781e-12,1.72340e-06,-7.20952e-10,
-1.41703e-01,-3.90690e-01,6.14111e-01,6.54874e-02,1.59788e-03,1.11390e-01,-1.48904e-01,1.68521e-02,-6.50392e-01,-6.77179e-01,3.42108e-02,-1.94143e-01,-4.87619e-01,
1.79788e-01,-4.88680e-01,6.86944e-01,-8.60091e-02,3.80055e-02,5.45464e-02,-3.03250e-03,1.94367e-01,-4.31093e-01,-5.63336e-01,2.99832e-01,-5.23812e-01,-2.71019e-01,
-3.13171e-02,-7.18927e-01,3.11989e-01,1.25408e-01,1.21582e-01,9.95188e-02,2.34359e-01,1.83964e-01,-8.76085e-01,-4.50131e-01,4.72037e-02,-5.95546e-01,-5.72560e-01,
9.23846e-02,-3.44960e-01,1.70119e-01,-3.69317e-02,-1.04058e-02,-1.72894e-01,5.05635e-02,8.35046e-02,-1.17568e-01,1.83856e-01,-2.51310e-01,-1.74597e-01,-2.06575e-01,
-2.79005e-01,4.24982e-01,-7.60944e-01,7.08663e-03,1.30128e-02,-1.31914e-01,-1.90223e-01,2.37601e-01,5.31051e-01,6.79227e-01,-4.42750e-02,4.57961e-01,3.96173e-01,
5.69353e-02,-8.82280e-04,1.15425e-02,-1.58237e-01,1.21518e-01,-3.63053e-39,-5.93961e-08,-2.12899e-01,-4.35528e-24,-2.53037e-02,8.43471e-03,-1.30688e-02,9.29239e-02,
-1.00694e-02,3.55745e-01,-6.64181e-01,-1.95483e-01,2.09064e-01,-4.80320e-02,1.00926e-01,9.81414e-02,4.05415e-01,6.39762e-01,-1.69260e-01,6.15112e-01,2.69403e-01,
-1.85677e-02,-1.13837e-02,4.61158e-03,-2.00002e-01,1.61399e-01,-1.85303e-04,9.28246e-03,-2.28707e-01,1.10026e-02,2.84675e-02,3.38521e-02,5.56328e-02,1.39349e-02,
-2.60780e-02,1.15456e-01,-3.79447e-02,-1.23779e-01,1.11985e-01,2.32879e-01,8.09046e-02,-2.50531e-03,1.50750e-01,-3.32620e-01,-5.15739e-02,-9.11116e-02,2.56326e-01,
1.35310e-01,4.68154e-01,-5.57246e-01,1.22102e-01,2.89811e-02,-4.09487e-03,-4.29397e-01,9.51607e-02,6.77422e-01,6.44408e-01,-2.54842e-01,3.78781e-01,2.17887e-01,
3.78068e-38,-4.89431e-37,2.69131e-35,5.79372e-29,1.01130e-19,-7.51548e-26,1.61844e-33,-4.71992e-38,9.47064e-33,-1.87500e-39,7.29746e-35,-1.64594e-32,5.37764e-38,
-2.43622e-37,6.33332e-24,-3.59592e-22,-4.99607e-16,-8.84158e-13,-2.35906e-39,-1.23047e-36,-4.62290e-38,2.29931e-38,5.66586e-17,-5.94653e-36,-9.35678e-38,-3.04584e-22,
-2.63235e-01,-4.44982e-01,2.87913e-01,-3.88923e-02,3.79941e-03,2.55926e-01,-2.61950e-01,1.31989e-01,-2.78725e-01,-5.73979e-01,1.58386e-01,-1.49020e-01,-1.22654e-02,
-7.43030e-03,6.90457e-20,-1.10091e-08,-1.41414e-02,-1.67469e-02,1.47628e-27,3.96787e-20,-1.47054e-02,-1.44519e-18,3.24349e-19,8.58398e-18,1.49024e-21,-1.78484e-08,
-1.84374e-36,3.06301e-35,-2.50325e-26,-6.76048e-12,-4.24536e-38,1.09387e-37,-1.00241e-25,2.42906e-38,-2.45312e-13,-1.91226e-14,-1.69508e-35,3.83048e-39,-2.73353e-25,
1.94961e-01,-6.66969e-01,4.56461e-01,-2.02595e-02,1.36932e-01,-8.51997e-02,4.25675e-02,-2.71043e-01,-2.86037e-01,-2.42224e-02,3.02276e-01,-1.20706e-01,-2.70118e-01,
-3.33723e-39,1.69560e-15,1.04239e-37,-4.53750e-21,-6.76774e-11,9.21035e-26,-2.27607e-24,1.90787e-12,4.07157e-34,-8.62034e-30,-2.39564e-19,2.93823e-27,-1.56260e-31,
-1.91197e-01,-2.25410e-01,2.73342e-03,-2.84904e-01,1.00023e-01,-2.48426e-01,2.16000e-01,1.00980e-01,-3.55521e-01,-3.50650e-01,-1.73626e-01,-1.23003e-01,6.73777e-02,
-1.71856e-01,-8.74301e-01,7.20828e-01,-1.15855e-01,6.77572e-02,-1.51465e-01,-6.09061e-02,1.71920e-01,-5.17877e-01,-7.70673e-01,9.62418e-02,-5.97126e-01,-3.15997e-01,
2.75058e-02,-3.26713e-01,9.45034e-02,-4.51708e-02,9.40738e-03,2.60342e-01,1.18304e-01,3.42482e-02,-2.68730e-01,-1.00681e-01,7.94316e-02,-1.46297e-01,-4.43322e-01,
-7.59539e-11,4.00728e-26,9.48677e-39,-7.71419e-39,-1.18551e-12,2.01064e-13,-3.15943e-18,-3.57447e-29,9.46747e-13,-9.70145e-26,3.44606e-39,1.05387e-26,6.75964e-16,
1.76106e-01,-1.05294e-01,5.56784e-02,1.64662e-01,8.67848e-03,1.00504e-02,-9.17258e-02,-3.14868e-01,-3.13130e-01,2.20579e-01,1.57982e-01,4.47316e-02,-2.11903e-01,
-5.59954e-02,5.03955e-01,-6.27367e-01,1.83784e-01,-6.14760e-02,-2.10561e-01,-1.01304e-01,-3.19498e-02,5.86546e-01,5.59567e-01,-9.47084e-02,4.50561e-01,4.73256e-01,
-5.60137e-13,5.96179e-32,4.51868e-39,8.59784e-38,-4.22824e-39,-1.04838e-14,-2.99214e-39,-1.00321e-38,5.36943e-27,3.69769e-37,2.23046e-33,-7.38044e-34,4.46680e-35,
-1.55799e-01,6.37600e-01,-4.76479e-01,-1.58511e-01,2.59599e-01,2.69308e-01,-1.94511e-01,-2.28942e-01,4.67227e-01,4.61693e-01,-3.45239e-01,6.13174e-01,4.37466e-01,
-1.57343e-02,1.61863e-02,-1.89328e-02,-1.87518e-02,-1.44184e-02,-1.52219e-02,-2.25435e-02,-1.64519e-02,2.19432e-02,2.25793e-03,-2.67791e-02,2.52653e-02,9.62654e-03,
-1.19740e-02,-1.39399e-02,1.52694e-02,-1.51574e-02,-1.10396e-02,-2.48587e-02,2.93712e-03,-1.07625e-02,-1.28513e-02,-1.12788e-02,-1.46932e-02,-5.44031e-03,-1.25866e-02,
1.44181e-02,-3.71351e-01,1.06724e-01,-1.74122e-01,1.87314e-01,5.82922e-02,4.64282e-03,1.41251e-01,-3.53488e-02,-5.85613e-02,1.34253e-01,-2.30028e-01,-1.05558e-01,
1.65613e-18,-7.78071e-25,1.82747e-29,8.59816e-36,8.31882e-38,3.52837e-37,2.22429e-38,-5.90118e-12,2.70203e-27,-3.53750e-28,-2.84535e-29,-7.40278e-11,-2.27980e-12,
-1.42471e-37,-1.87183e-22,-2.40815e-35,-2.86094e-38,-1.38180e-15,3.19592e-34,-5.87226e-34,-4.02414e-39,-5.02854e-33,2.81642e-21,-5.66298e-35,-1.18749e-39,1.36181e-27,
-1.27353e-38,4.73659e-37,6.28633e-37,7.82000e-39,-4.04735e-11,-1.31616e-11,4.84693e-12,-5.88734e-38,4.26680e-11,-4.04064e-38,-6.52975e-35,4.40011e-35,7.78144e-14,
-1.38198e-01,
-1.62816e-01,
-1.27126e-02,
-2.42688e-01,
3.22069e-02,
2.28474e-01,
-1.69790e-06,
9.31239e-02,
-1.93163e-35,
-5.37840e-30,
1.72468e-37,
-2.66046e-01,
1.01938e-29,
9.47720e-38,
-1.39419e-01,
4.35487e-02,
-7.67780e-02,
-1.61243e-02,
-6.81842e-13,
-2.79336e-01,
-2.46807e-02,
-2.85677e-01,
4.72136e-02,
7.88557e-02,
-1.52745e-02,
1.94155e-01,
-5.36576e-02,
1.32456e-01,
-2.15385e-01,
-2.28286e-38,
-1.87718e-32,
-7.91700e-02,
-1.01662e-09,
-1.10830e-38,
1.49484e-01,
-9.65732e-39,
9.48452e-02,
6.44258e-02,
-2.45011e-01,
1.49726e-16,
2.11660e-02,
3.70931e-02,
-2.72746e-23,
4.79689e-02,
-1.30602e-02,
-8.63978e-03,
-5.00798e-02,
-2.68795e-38,
-1.01865e-35,
6.21097e-14,
-1.16253e-03,-1.39798e-02,1.74618e-03,-3.57226e-04,1.87571e-02,1.51026e-02,-7.46673e-38,-1.33455e-02,2.09503e-39,-9.47552e-37,9.02488e-40,-8.31590e-03,1.92094e-38,-1.16322e-38,6.56796e-03,-3.27519e-07,-1.72432e-04,9.66712e-38,1.60373e-38,8.70584e-04,-1.37696e-02,-1.19828e-02,-1.51370e-02,-1.49208e-02,1.50782e-22,-1.01736e-02,-1.60242e-23,1.19659e-02,-1.50620e-02,-1.16243e-38,3.67231e-39,2.56128e-02,2.46292e-38,-8.81355e-36,1.74653e-02,-5.56785e-35,6.05957e-03,-4.91876e-03,-7.28345e-03,5.39023e-36,-7.39104e-22,-2.13463e-02,1.68019e-36,1.72025e-02,1.09957e-31,-4.61700e-29,-1.11228e-02,-1.43486e-36,-3.07836e-37,6.85647e-39,
-1.32012e-05,-6.59217e-07,-1.17731e-03,-1.20032e-03,-7.81996e-13,-1.25081e-08,-3.22783e-37,-3.07752e-03,-6.02538e-34,7.01682e-38,-2.62580e-34,-7.24950e-03,-1.18073e-41,7.25810e-35,-1.20038e-24,-2.13024e-26,5.44376e-25,-6.53172e-31,2.33614e-36,-1.95390e-06,-3.33788e-03,-9.00228e-03,-5.72491e-04,-2.51317e-03,-8.11672e-37,-3.66796e-03,2.85421e-38,-4.37505e-06,-4.50467e-03,4.62266e-38,-6.74569e-31,-7.94497e-08,1.57655e-38,9.98098e-34,1.72306e-16,2.14938e-38,-1.73670e-25,-8.43047e-04,1.84108e-16,-8.26421e-33,2.89159e-26,7.98545e-25,-1.96967e-38,-4.29812e-05,1.14979e-38,1.06187e-35,-6.03162e-03,1.30187e-38,-7.22782e-37,-4.09698e-38,
-1.83653e-02,-1.37961e-02,-1.18375e-02,-1.51778e-02,-8.94855e-03,1.53764e-02,1.13839e-38,-1.20337e-02,7.01921e-38,7.63562e-39,-6.81614e-36,-1.33809e-02,-1.01195e-37,-1.76578e-33,-1.66130e-02,2.14785e-07,6.42456e-07,-1.52897e-38,6.67114e-39,-2.21329e-02,-1.24026e-02,-1.16177e-02,-1.21152e-02,-7.52641e-03,1.15041e-26,-9.33091e-03,-3.78164e-27,-2.67647e-03,-1.28907e-02,6.75584e-36,-9.89916e-38,-2.99266e-03,-5.16423e-34,-1.04871e-38,-1.57606e-02,-1.37687e-33,-1.19919e-03,-8.10691e-03,-6.92891e-03,-2.60567e-35,2.48401e-05,-7.96445e-03,-4.19045e-39,5.17118e-03,-4.44100e-36,-4.46660e-39,-9.55053e-03,-4.15247e-36,-3.59299e-36,4.87074e-31,
9.67906e-02,-9.02880e-02,-8.50093e-02,-5.98026e-03,-1.64263e-01,1.16187e-01,-8.00189e-03,9.75316e-02,6.29321e-39,4.00615e-03,-1.05234e-38,-1.10085e-01,4.30112e-39,4.09188e-38,-1.01394e-01,1.50024e-01,-7.27278e-02,1.88893e-02,-2.88839e-03,-6.85809e-02,-9.32738e-02,8.01252e-02,4.16830e-02,-3.05082e-02,-4.22364e-02,1.52417e-01,-1.25805e-01,6.80916e-02,-9.04332e-03,-2.96564e-37,-2.25835e-38,-3.97959e-02,-2.24986e-02,7.14352e-39,-9.84953e-03,-7.48528e-34,-2.87771e-01,-9.29674e-02,-1.45842e-02,-7.44768e-34,1.72085e-01,1.49789e-01,3.89379e-38,7.31127e-02,-1.99529e-02,1.17750e-02,1.26618e-01,1.61906e-40,-3.44854e-40,1.85579e-37,
2.08728e-02,-1.34520e-01,-1.15430e-02,-4.91882e-02,-2.67241e-02,-8.86952e-02,-1.20431e-35,5.28891e-02,-1.37432e-36,6.33631e-39,3.12042e-36,9.15546e-02,-2.75156e-37,3.97175e-31,6.49988e-31,-1.33259e-39,-6.20474e-02,3.74055e-36,-1.48551e-38,7.63922e-02,1.04261e-01,-1.32378e-01,-6.01656e-02,-1.47998e-01,-7.32580e-36,-1.87220e-02,5.69818e-02,3.39156e-02,3.55689e-02,1.11207e-38,1.06043e-39,8.21512e-03,-6.59099e-37,4.28736e-39,5.56669e-02,-3.55110e-38,-3.15462e-03,-1.39677e-01,-1.26395e-01,-5.29901e-32,8.32644e-02,2.39215e-38,-8.88102e-39,-1.16135e-01,3.56736e-37,7.60197e-38,6.55095e-02,2.27451e-38,8.35208e-36,-9.62852e-36,
-2.24984e-03,-7.36085e-03,-3.00781e-03,-4.16168e-03,5.06805e-04,-1.69945e-03,4.61358e-36,-5.93353e-03,1.02876e-38,-5.97734e-35,-8.17523e-39,-4.33464e-03,6.10095e-36,6.29737e-38,3.54964e-03,-7.14730e-03,-1.39841e-04,-7.89613e-36,-4.78018e-38,-1.70999e-04,-4.37184e-03,-4.92975e-03,-6.41880e-03,-7.39231e-03,1.29929e-08,-6.17730e-03,1.73932e-06,-4.36249e-03,-5.18241e-03,-5.48241e-31,-9.37248e-38,-1.09560e-02,-1.18727e-39,-2.36727e-32,1.89345e-03,-2.64393e-35,1.34553e-02,-4.62561e-03,-7.15999e-03,-5.39033e-39,-2.51775e-02,-2.73749e-02,-3.15410e-38,-2.47311e-03,1.43894e-38,-3.64160e-38,-5.24799e-03,4.36237e-39,2.61024e-36,-6.13313e-38,
-1.08275e-01,-5.17522e-02,6.08651e-02,-1.08191e-02,9.36491e-02,-1.22161e-01,1.01907e-38,4.03594e-02,-1.39208e-36,-7.59232e-39,-6.28323e-36,-9.28067e-02,5.20646e-38,6.60045e-39,-2.67741e-38,-8.79826e-39,1.71993e-38,2.21261e-32,-2.77063e-38,5.09441e-02,-1.26009e-01,-8.16741e-02,-2.70196e-02,3.37261e-02,5.02410e-40,9.83932e-02,2.40978e-39,-6.75194e-02,6.90752e-02,2.81102e-34,-1.07776e-31,-3.12544e-02,-2.79380e-38,-6.39140e-39,-1.29200e-01,1.28665e-39,-9.23713e-03,-3.18681e-02,1.22009e-02,6.34570e-39,-7.54628e-38,2.31116e-36,-2.57210e-38,-8.86086e-02,6.84102e-38,-5.20166e-38,9.71757e-02,1.78615e-38,1.42641e-32,-7.99477e-33,
-1.56307e-01,1.24980e-01,8.63929e-02,1.15451e-01,-1.18456e-01,2.84053e-02,-3.31391e-03,5.52879e-02,1.21004e-38,6.50703e-06,-7.65119e-33,-1.40873e-01,3.43785e-37,1.86636e-38,-2.95707e-01,1.94383e-01,3.41006e-02,2.01590e-02,-2.87013e-04,-2.39973e-01,-8.51501e-02,-9.15460e-02,5.14594e-02,1.84720e-01,-8.94072e-02,1.51917e-01,-3.46201e-02,8.30692e-02,9.31678e-02,-6.27587e-37,3.58756e-38,-5.63987e-02,-2.13498e-02,5.20773e-35,5.48072e-02,-1.43928e-31,-5.64863e-01,-1.52204e-01,-4.72530e-02,1.70357e-38,1.90402e-01,1.41869e-01,-1.68327e-38,4.37079e-02,-1.79319e-02,1.62449e-02,6.35638e-02,3.41433e-39,-5.98627e-39,-2.19820e-32,
-2.43634e-24,-4.37454e-24,1.01057e-23,8.05156e-24,-1.55187e-25,-1.02424e-24,-1.81916e-31,-2.27680e-23,-1.18203e-35,2.07609e-38,8.58771e-35,2.84443e-19,-6.21239e-39,-5.37700e-36,6.27116e-30,-6.46865e-31,-6.14913e-38,-3.38692e-38,1.21888e-35,2.38903e-24,1.13359e-23,-6.03147e-14,8.34850e-24,3.28385e-24,-1.18800e-34,-3.13309e-23,1.41530e-34,-4.06230e-25,-4.90360e-22,4.21757e-32,-1.28367e-38,2.36186e-25,2.97811e-32,-6.07365e-31,-9.81981e-25,-3.33774e-38,-9.44396e-32,3.03989e-24,1.47402e-24,-2.21789e-39,-2.52784e-39,-3.73706e-25,1.26649e-39,-3.11140e-24,-1.42921e-31,-5.25457e-39,-7.50932e-20,-8.82993e-39,7.49610e-39,-8.56727e-38,
-1.39860e-01,1.63231e-01,-1.26230e-01,1.64713e-01,-1.29813e-01,1.49478e-01,-7.74814e-03,5.88908e-02,-6.29641e-32,3.73750e-03,-1.00601e-34,-3.30166e-02,-1.88332e-34,4.43129e-39,-2.15082e-01,2.57595e-02,8.71165e-02,1.88398e-02,-2.17358e-03,-1.66069e-01,1.07657e-01,9.54008e-02,-1.01292e-01,9.07720e-02,-5.12114e-03,-7.29209e-02,1.25957e-01,-9.17001e-02,1.39103e-01,9.04072e-33,-3.75268e-38,7.16934e-02,-2.24340e-02,-6.00919e-33,2.61917e-02,-1.63192e-36,-3.42523e-01,-1.28931e-01,-1.09548e-01,-1.75793e-32,1.38289e-01,8.26057e-02,-8.37017e-39,-5.58527e-02,-1.95201e-02,1.17647e-02,-4.13350e-02,1.59992e-37,-1.59192e-37,-1.81179e-38,
-2.50183e-02,-2.05541e-02,-3.07451e-02,-2.54748e-02,-1.59474e-02,-2.37785e-02,1.55644e-35,-2.84966e-02,-2.53595e-38,1.22172e-36,1.35974e-33,-2.84034e-02,-4.39330e-34,7.90998e-40,-1.26936e-03,8.32406e-04,6.42071e-03,-4.08972e-39,1.65551e-34,-4.51237e-02,-2.76072e-02,-2.73420e-02,-2.56548e-02,-2.47378e-02,3.49135e-22,-2.57972e-02,-5.74891e-23,-3.01121e-02,-2.51207e-02,-2.46691e-33,-8.29185e-38,-1.34437e-02,-2.43754e-37,-3.71468e-32,-1.79162e-02,-1.47522e-31,-1.60236e-02,-3.15224e-02,-2.85891e-02,-4.16774e-33,2.47496e-03,5.18182e-03,-2.68240e-37,-1.81775e-02,4.16031e-27,3.11570e-34,-2.74640e-02,7.17096e-36,1.29731e-38,1.67804e-38,
2.07540e-02,-5.64325e-03,-7.66718e-03,-4.49123e-02,-1.05260e-34,2.66407e-38,1.36978e-36,3.36723e-02,1.96091e-38,2.24125e-37,1.38800e-36,4.81549e-02,-1.82518e-32,-1.82579e-31,-2.42557e-38,-3.34594e-04,1.60281e-02,-3.73867e-38,-5.26800e-38,-5.65690e-03,-2.07321e-02,-6.30311e-02,-2.54579e-02,6.97306e-03,-8.09563e-37,2.41409e-02,-4.07408e-36,7.56141e-36,2.29815e-02,-4.99905e-37,-1.42754e-37,-1.44260e-38,1.40264e-38,-9.09869e-38,-2.70928e-02,1.29491e-38,3.28567e-38,2.72379e-36,-1.18734e-06,-2.04154e-38,-3.84074e-03,4.70211e-04,8.81373e-39,1.31832e-37,-5.76205e-37,-3.53195e-36,-9.38339e-03,3.52537e-34,2.52858e-34,-8.40943e-38,
-1.82466e-02,-1.92097e-02,-1.92787e-02,-1.95997e-02,4.84739e-03,-7.96239e-04,8.83458e-33,-2.07889e-02,5.01254e-37,1.84866e-36,-1.88733e-32,-2.19249e-02,-2.93516e-33,4.69049e-37,-2.03906e-04,4.10407e-22,6.30151e-20,-1.05007e-36,1.19562e-31,-5.59279e-03,-2.14868e-02,-2.21769e-02,-2.00181e-02,-2.06710e-02,9.55374e-39,-2.13606e-02,-9.91233e-39,-1.16551e-02,-2.18684e-02,-9.03643e-38,-8.70331e-39,-8.54245e-22,4.72852e-38,-3.05454e-36,-5.94268e-03,-4.74636e-35,6.71835e-06,-1.78429e-02,-7.64193e-03,-1.53108e-38,-3.11293e-22,-9.86689e-03,1.01064e-34,1.02366e-04,1.78440e-33,-2.96721e-31,-2.17891e-02,7.40246e-34,-2.47833e-38,1.74993e-34,
-6.64382e-02,-2.61243e-02,1.01064e-01,-1.79551e-02,1.38477e-01,-8.75164e-02,5.28198e-04,-6.23618e-02,-2.59591e-38,-6.06663e-04,5.83980e-35,-3.08114e-03,1.63078e-37,1.54713e-37,2.37408e-01,-1.09851e-01,-1.82564e-01,-1.95088e-02,5.52907e-04,3.44573e-02,7.96647e-03,1.20352e-01,1.01676e-01,8.78402e-02,3.65918e-02,-1.85791e-02,-3.82527e-02,-8.23236e-02,3.78950e-02,-9.78023e-38,5.35744e-32,-3.67824e-02,1.95409e-02,1.47756e-34,-8.66892e-02,-2.82711e-38,2.99102e-01,-1.15578e-01,6.58362e-02,2.25273e-37,-1.30887e-02,-1.40744e-02,8.00338e-34,1.64174e-02,1.91127e-02,-1.16655e-02,2.33973e-02,-6.74974e-38,6.66192e-38,2.19556e-33,
-5.27704e-02,-6.32190e-02,-4.98042e-02,7.85205e-02,3.87894e-02,8.48838e-02,-1.66901e-02,-1.10071e-01,-2.13670e-32,9.15816e-37,1.98048e-31,3.42575e-02,-1.67100e-39,4.65545e-38,-4.40108e-02,1.78076e-01,1.35030e-01,-7.75493e-03,-6.05258e-03,-3.50792e-02,-4.72544e-02,3.35157e-04,3.48758e-02,5.67538e-02,-1.65851e-02,1.72682e-02,-9.94972e-02,-1.58116e-01,8.45449e-02,-3.28121e-39,7.98023e-39,-8.54753e-02,-1.68984e-02,-5.65680e-39,-6.59210e-02,8.88098e-39,-3.60329e-02,-1.03746e-01,-9.61402e-02,1.57619e-33,1.40584e-01,1.20512e-01,-5.88675e-32,1.98543e-02,-5.22207e-03,1.87874e-02,-9.53424e-02,-3.68060e-33,7.29155e-39,2.70744e-35,
-1.00402e-01,5.04086e-02,-1.10735e-01,1.28784e-01,-5.75229e-02,-1.16266e-01,-3.35809e-05,-8.06864e-02,1.63357e-38,1.11579e-04,9.05941e-38,3.51447e-02,-4.55373e-38,-7.43710e-35,-8.16938e-02,6.15345e-02,-2.14314e-02,1.70007e-02,-1.83069e-04,-7.63785e-02,2.62102e-02,9.15105e-02,-1.39738e-01,-6.17276e-02,-6.04167e-03,-7.15804e-02,5.17882e-02,2.09225e-02,6.46405e-02,1.25861e-36,-3.01562e-35,-1.18954e-01,-1.75591e-02,-4.07599e-34,-1.03305e-01,7.08692e-34,-8.80196e-02,2.35662e-02,-1.04256e-01,1.35995e-36,1.53467e-01,-3.22063e-02,-1.33666e-38,1.41656e-01,-1.92836e-02,1.10635e-02,-8.70665e-04,6.19024e-39,-2.67477e-38,1.33174e-38,
-1.22330e-01,-7.09811e-02,5.75808e-03,9.84363e-02,1.02820e-01,-7.39770e-02,-2.31421e-03,7.92280e-02,-7.69786e-38,1.19459e-03,-3.55009e-39,1.34828e-01,2.72703e-35,-5.83344e-35,-3.06924e-01,7.33568e-02,1.41927e-01,1.82722e-02,-1.11949e-03,-1.53925e-02,1.74084e-02,-1.32844e-01,3.99555e-02,1.07033e-01,5.55757e-02,-6.14600e-02,-2.02728e-02,-1.05914e-01,7.61049e-02,8.45235e-39,-3.98805e-37,-1.41233e-01,-2.08369e-02,3.43154e-36,9.00181e-02,1.36812e-34,-2.27195e-01,-9.04409e-02,-9.60388e-02,1.41955e-39,2.25376e-01,-1.33476e-02,-2.09188e-36,9.31528e-02,-1.93850e-02,1.15321e-02,6.09313e-02,-2.43180e-32,1.87389e-34,-3.70022e-33,
-1.17900e-01,2.44574e-02,-9.86155e-02,1.14210e-01,1.11450e-01,1.23409e-03,-2.35220e-37,-1.08466e-01,5.80172e-32,-1.74062e-38,-1.57970e-36,-7.96658e-02,-7.97929e-38,-4.36041e-38,-3.46511e-39,7.49338e-35,-9.30660e-02,-1.11589e-33,3.34827e-35,-5.39281e-02,-1.47246e-01,7.58398e-02,1.02205e-01,-1.08394e-02,7.88964e-37,6.90316e-02,2.24415e-02,-1.43119e-01,-7.12387e-02,1.70596e-31,1.78654e-38,-9.12094e-02,-8.81812e-39,7.59111e-39,-6.51567e-02,1.62674e-37,4.10408e-02,2.47335e-02,1.26857e-01,-3.55402e-40,6.59835e-02,4.10918e-39,1.59203e-36,-1.12878e-01,-9.31160e-39,-1.15991e-35,1.05305e-01,1.39848e-38,9.51689e-36,1.98225e-31,
-1.64683e-05,-7.87004e-03,-2.38798e-03,4.34488e-03,1.72300e-02,2.74100e-03,-5.76522e-39,-8.48551e-03,-3.28092e-35,3.58707e-35,2.10412e-36,-5.04337e-03,-3.84018e-38,-1.36366e-38,-2.93490e-03,-2.50925e-10,-1.63560e-04,1.17086e-37,-1.85762e-39,-1.24064e-03,-1.02587e-02,-6.69536e-03,-1.03716e-02,-8.78229e-03,2.77408e-23,-6.98321e-03,1.53596e-22,-2.05253e-04,-8.43552e-03,7.72205e-36,8.90691e-33,-2.94890e-03,7.59965e-38,9.41831e-37,9.85279e-03,-7.12053e-38,2.20727e-03,-6.67608e-03,-1.04954e-02,3.41011e-38,2.78342e-07,-1.19527e-02,5.18737e-38,1.47724e-02,4.55702e-38,3.10177e-03,-7.84982e-03,-2.71734e-38,-1.64045e-31,1.54530e-38,
1.06348e-01,-1.34229e-02,8.78470e-02,7.48342e-02,-3.62867e-02,-1.26992e-02,-1.50153e-03,-7.70284e-02,-1.81273e-40,2.68921e-03,8.85121e-36,5.85336e-02,-3.75532e-34,-7.77540e-35,5.97478e-02,7.14661e-02,-3.08914e-03,-8.58616e-04,-8.24757e-03,7.70874e-02,-9.07766e-02,6.06283e-02,-3.41122e-02,-8.27379e-02,4.87230e-02,1.23345e-02,1.11331e-01,-8.96794e-02,-7.05648e-02,-1.16006e-31,1.95612e-31,-1.00783e-01,-1.59489e-02,3.82261e-35,7.48946e-02,-1.14372e-36,-6.31337e-02,6.28464e-02,-1.01214e-01,-5.45553e-39,1.36847e-01,4.34620e-02,-1.66655e-39,2.11975e-02,-1.11194e-02,5.41253e-03,-8.99304e-03,7.49244e-34,2.57035e-34,1.13534e-33,
-3.00109e-02,1.21471e-01,2.17558e-02,-1.45169e-01,-1.61889e-02,1.08208e-02,1.41610e-37,-9.00039e-02,-3.20608e-36,-5.45524e-39,1.80236e-35,-6.65506e-02,9.28982e-39,2.99725e-32,-6.14890e-02,2.54237e-03,-8.63453e-38,1.03787e-36,2.25833e-38,-1.41610e-01,-3.71936e-02,2.24261e-02,1.07167e-01,-2.47514e-02,1.65622e-37,-1.05677e-01,1.22331e-38,4.97543e-03,-1.72902e-02,5.10592e-33,1.46797e-33,-2.24900e-02,-3.68932e-35,5.68077e-35,6.33989e-02,2.39346e-35,7.79988e-03,2.07308e-03,4.13490e-02,-2.20102e-39,-4.11175e-02,-3.42952e-02,2.91166e-39,6.42024e-03,-1.20124e-31,-3.07756e-37,4.88670e-02,-1.74971e-37,1.08730e-36,2.73113e-37,
-4.18357e-02,2.35075e-02,-3.33277e-02,3.68019e-02,-1.06839e-02,-6.85241e-03,7.95335e-39,-1.11255e-02,-4.51844e-37,-1.11638e-37,-7.39614e-34,4.76503e-03,8.13979e-36,1.18890e-38,5.02674e-03,-4.96056e-03,-5.94272e-04,-1.50954e-31,7.13758e-39,-1.99783e-03,-7.50971e-03,-8.52510e-03,-7.96462e-03,-7.06807e-03,1.41512e-33,-7.93103e-03,-1.58356e-37,-7.07527e-03,-1.80722e-02,1.60770e-38,-4.38197e-34,-4.28217e-03,-6.46034e-31,-1.00873e-38,-2.22011e-02,1.00297e-34,-4.83068e-03,-7.17822e-03,-5.23640e-03,3.64297e-34,5.69924e-10,3.54713e-03,2.24303e-37,-7.10050e-03,2.95527e-38,3.33688e-33,-4.17730e-02,-3.65877e-38,-1.50937e-38,2.59463e-39,
8.03523e-02,-1.01753e-01,-1.23601e-02,-3.41740e-02,-4.84943e-02,1.99815e-01,-6.02718e-15,1.75720e-02,6.42406e-38,-6.34174e-39,-1.18819e-38,6.54823e-02,3.46507e-40,-4.64194e-39,8.32981e-02,-1.43984e-38,-5.96601e-02,-4.08629e-03,-2.14141e-38,5.79937e-02,-4.20593e-02,-7.66487e-02,2.02667e-02,3.16685e-02,2.52579e-03,-9.44591e-02,-2.25682e-02,-3.99550e-02,-5.12609e-02,-3.54901e-35,1.85161e-37,6.10633e-02,2.44587e-12,-1.04520e-38,-9.14313e-02,2.13514e-32,2.33761e-01,1.35448e-01,-1.33226e-01,2.85964e-39,-4.06110e-03,-1.42631e-01,-1.01261e-32,1.14652e-01,4.03450e-02,-8.42703e-24,8.35344e-02,-9.13105e-38,-6.54624e-33,-5.84904e-38,
1.29301e-01,-3.88858e-02,-8.41715e-02,1.28442e-01,-1.61935e-01,-6.93002e-03,-8.47856e-03,8.69000e-02,6.60255e-38,3.85482e-03,-6.35016e-39,-7.85733e-02,-2.83019e-38,5.64327e-39,-2.99616e-01,1.29025e-01,1.71391e-01,1.89040e-02,-2.57864e-03,8.23678e-02,2.31267e-02,-3.07309e-02,2.60667e-02,1.53039e-01,-4.38459e-03,1.22520e-01,-4.16698e-02,-3.71683e-02,6.73048e-02,1.02133e-37,1.14671e-38,8.81093e-02,-2.24608e-02,3.20506e-39,-6.95894e-02,2.46908e-31,-3.36312e-01,1.03558e-01,-1.82142e-02,4.78483e-39,6.87155e-03,6.32692e-04,-2.32038e-37,1.53751e-01,-1.95988e-02,1.15559e-02,-1.20258e-01,5.00548e-39,-1.05751e-38,8.51091e-35,
-7.95195e-03,-1.32749e-02,-1.43629e-02,-1.56194e-02,2.55558e-02,-9.67876e-03,2.90508e-38,-1.82099e-02,-6.80237e-38,-1.43435e-37,-1.21453e-38,-1.61838e-02,-1.20798e-39,-1.77725e-38,1.45102e-03,-4.90569e-07,-1.01478e-11,-8.79650e-38,2.25267e-40,-1.36620e-02,-1.55036e-02,-1.65689e-02,-1.44492e-02,-2.02155e-02,-5.64826e-23,-1.69403e-02,2.55682e-22,-1.55375e-02,-1.60596e-02,-5.80682e-34,6.78862e-36,-9.96890e-03,5.99160e-34,1.01897e-38,9.59573e-03,-6.55089e-39,1.47854e-03,-1.93356e-02,-1.28449e-02,-2.04257e-31,-9.67836e-23,-1.09797e-02,-1.35285e-38,-6.02275e-03,1.12671e-27,-1.66952e-29,-1.66848e-02,6.89442e-38,1.09874e-38,-2.14430e-38,
2.17967e-38,-4.06877e-05,-3.74818e-08,-1.74356e-39,1.49874e-32,4.02186e-31,-7.81485e-36,-5.71004e-03,-4.37644e-38,-5.80850e-37,-1.16004e-38,-4.25596e-03,-6.36401e-34,-1.28335e-33,-2.88411e-04,-6.57640e-39,3.18388e-36,1.08666e-38,-6.12596e-39,-5.86879e-06,-8.02268e-03,-8.71824e-03,-4.53916e-03,-4.86234e-03,3.59434e-33,-6.19446e-04,2.09307e-37,-2.34305e-32,-6.54735e-03,9.83740e-35,-7.29614e-37,-1.97816e-05,4.82265e-39,4.66772e-38,-1.13441e-36,2.88566e-37,-2.47782e-37,-1.79579e-03,-9.61954e-07,1.70810e-31,-5.14042e-37,-9.81756e-34,-1.54459e-32,2.12517e-38,-7.02532e-37,-1.87683e-38,-6.11783e-03,-8.13169e-37,2.87455e-34,-3.07237e-39,
3.12547e-02,-1.54334e-01,1.02712e-01,-5.25972e-02,-1.48054e-02,-6.96637e-02,1.54751e-02,1.23010e-01,3.02714e-38,-6.12790e-03,-4.84728e-39,1.20824e-01,8.97621e-39,-3.54155e-38,3.63295e-01,-6.84884e-02,-1.60035e-02,-1.92392e-02,2.20721e-03,1.16678e-01,1.78016e-03,4.52063e-02,8.56591e-02,-1.08359e-01,1.33277e-01,-1.57678e-01,-9.37704e-02,6.40223e-02,-2.62347e-03,-6.63148e-37,2.04569e-31,1.75530e-01,2.28139e-02,1.13859e-38,8.19964e-02,1.44622e-38,3.19408e-01,1.10471e-01,5.27896e-02,-1.48913e-31,-6.44262e-02,-6.53068e-02,2.12748e-38,-1.13036e-01,2.05595e-02,-1.10481e-02,-4.36835e-02,1.00902e-34,6.54173e-35,1.46824e-38,
-1.36185e-02,-1.37420e-02,-1.55744e-02,-1.65610e-02,-5.20971e-03,-1.61191e-03,-6.23967e-37,-1.70645e-02,-1.18334e-38,2.04057e-37,7.94157e-37,-2.01650e-02,-1.01138e-34,1.75804e-34,3.14331e-20,-1.21846e-21,-6.21997e-21,2.65795e-32,-3.82854e-38,-6.41812e-04,-1.89699e-02,-2.09899e-02,-1.52392e-02,-1.70856e-02,-4.72777e-23,-1.85848e-02,4.90533e-22,-6.26399e-03,-1.97788e-02,5.07253e-37,-6.62230e-38,-1.67404e-05,-1.95464e-35,3.70990e-35,-8.98837e-03,-1.31921e-39,-2.20950e-21,-1.20690e-02,-1.28221e-03,-3.55270e-34,1.95864e-21,-2.44967e-03,-3.20548e-36,-1.01095e-02,2.56719e-27,3.59403e-34,-1.92908e-02,-4.63846e-39,-9.69732e-37,9.88467e-35,
-1.27993e-02,-1.01660e-02,-1.43220e-02,-1.56383e-02,-2.46861e-03,-7.48317e-03,6.60259e-32,-1.15990e-02,4.32873e-38,1.63042e-37,3.64473e-39,-1.72249e-02,-5.19900e-39,8.91796e-39,5.44295e-06,5.66445e-23,2.37450e-22,6.43902e-38,-1.13236e-35,-2.20236e-04,-1.35322e-02,-1.70700e-02,-8.75629e-03,-1.27978e-02,-1.16252e-32,-1.60532e-02,-4.02667e-36,-8.33596e-03,-1.55876e-02,1.86619e-36,-1.53481e-38,-3.56061e-07,7.64823e-36,4.55361e-35,-8.16382e-03,-3.67179e-38,-5.32044e-22,-8.07844e-03,-3.68742e-05,1.80497e-37,1.26701e-22,-1.23121e-19,6.41622e-31,-1.23083e-02,8.09006e-33,7.53522e-28,-1.64151e-02,-1.92600e-37,1.59452e-32,1.21004e-38,
8.58074e-02,6.88955e-02,-3.18229e-02,8.16429e-02,8.60616e-02,3.94350e-02,1.22245e-31,-1.75706e-02,5.17356e-31,1.37665e-35,-4.64970e-39,-5.36547e-03,3.70767e-38,-8.65047e-39,-6.46656e-36,6.30677e-38,-8.83544e-02,-6.15739e-20,1.13742e-37,4.08233e-02,-2.90389e-02,-1.14034e-01,-4.05299e-03,-8.11199e-02,4.19737e-02,-2.22828e-02,3.43086e-02,1.17026e-01,-7.28912e-02,8.76863e-39,2.12216e-37,6.20347e-03,-1.89136e-38,-7.31647e-38,-3.28457e-02,-2.19457e-38,2.08389e-02,9.20288e-02,-1.94665e-03,1.31730e-32,-2.44509e-02,-9.95710e-03,-6.33587e-39,3.98669e-03,-1.79490e-23,3.32630e-12,7.46867e-02,3.52741e-34,-4.77443e-39,1.63768e-37,
-1.57050e-38,-1.67863e-03,2.03335e-38,1.85185e-38,-5.89704e-37,-1.42513e-33,7.04093e-38,-7.12438e-03,-2.27065e-32,3.04720e-39,-4.97457e-36,-5.94749e-03,9.88522e-37,-6.32201e-38,-3.09313e-03,-4.67986e-38,-5.88092e-35,4.01481e-37,-2.28961e-38,-9.70688e-05,-7.33952e-03,-1.04135e-02,-7.67224e-03,2.99281e-04,4.57166e-31,-2.97234e-03,-5.18622e-34,-1.50065e-36,-1.06444e-02,-3.47927e-39,-2.80449e-39,-6.33182e-10,-1.09082e-38,-5.07887e-37,5.95114e-38,3.48332e-33,6.13285e-39,-1.28998e-03,-4.57423e-09,5.76551e-39,-2.04532e-38,-4.13133e-04,6.09008e-39,-1.79806e-38,-1.80041e-37,-1.03276e-36,-6.68757e-03,3.65273e-39,2.99521e-37,-2.40053e-34,
4.32417e-22,-2.71382e-22,1.95607e-21,-8.42471e-22,-3.66978e-23,2.36089e-22,3.51304e-36,-2.73419e-18,7.25900e-35,-7.79735e-38,1.61246e-33,-5.84993e-08,-4.54535e-37,1.96488e-32,-2.21453e-27,-8.91877e-29,-5.81729e-25,4.00503e-38,-8.99490e-39,1.15411e-22,-6.82848e-11,-2.83733e-06,2.13772e-21,-2.51786e-18,-5.97136e-38,-1.12274e-10,4.27092e-38,-1.86623e-22,-9.75247e-09,-1.40958e-39,-1.89104e-38,-1.00377e-22,8.84198e-39,1.42215e-38,1.17637e-22,3.71972e-33,-5.08012e-23,-1.26897e-21,3.47189e-23,-1.75941e-40,6.49100e-29,-1.28123e-23,-2.04498e-31,8.07408e-23,2.67291e-37,-2.90178e-35,-1.82150e-08,-1.17269e-38,-5.95484e-39,-4.76636e-37,
-8.78959e-02,2.82949e-02,8.14978e-02,7.23367e-02,-1.00009e-01,-1.47532e-01,-1.24124e-14,-4.85409e-02,9.24399e-35,-2.25688e-07,4.43742e-32,8.51494e-02,-7.38786e-39,-4.06602e-38,-1.99644e-02,2.95773e-02,-1.41136e-01,-1.84451e-02,2.11002e-09,-1.14820e-01,-7.77752e-02,1.38586e-02,-2.46310e-02,8.57157e-02,1.01451e-01,9.87617e-03,6.79517e-02,-1.88719e-02,5.56420e-02,-8.88847e-39,-2.11366e-39,1.27980e-01,1.64801e-03,1.45052e-38,9.79701e-02,-2.06409e-38,-1.91997e-02,-1.66699e-02,-2.33120e-02,5.11416e-31,7.28166e-02,-8.08684e-02,2.28158e-32,-9.12396e-02,-1.22896e-02,-9.38461e-03,-1.21264e-01,-3.74784e-34,-7.58764e-38,-1.00268e-38,
2.85744e-03,-3.25895e-02,-7.89570e-02,5.09678e-02,9.07360e-02,7.96210e-02,-4.56231e-05,1.07978e-01,-1.37753e-37,1.92197e-04,-8.06081e-37,-5.47346e-02,7.51828e-37,1.34824e-38,-6.70073e-02,2.07382e-02,9.88224e-02,1.76843e-02,-2.31196e-04,-1.06595e-01,5.00127e-02,2.30382e-02,5.15163e-02,5.16670e-02,-9.14063e-02,-6.52286e-02,8.30183e-02,-2.28695e-02,4.50730e-02,1.37712e-33,-1.37790e-37,-8.99725e-02,-1.83268e-02,2.06967e-37,-1.65837e-02,8.81251e-32,-1.95844e-01,-5.10150e-02,8.77893e-02,4.57608e-39,2.06599e-01,1.14884e-01,4.59094e-36,7.75551e-02,-1.93095e-02,1.12295e-02,-2.82102e-02,2.14156e-33,9.49643e-39,1.40058e-38,
-2.83089e-02,-1.47884e-01,3.25772e-02,-9.21997e-02,-8.16855e-02,-3.24922e-02,3.25843e-38,-3.09361e-02,-3.74955e-39,-4.17848e-37,-6.53150e-31,8.31743e-02,-1.90466e-36,-8.63014e-33,-9.89123e-39,1.09175e-31,7.12740e-31,-9.34428e-39,-6.16725e-38,-6.52048e-02,1.11588e-01,-2.13496e-02,6.08172e-02,-8.91459e-02,4.70172e-39,7.03658e-02,5.65846e-38,5.14021e-02,-9.30171e-02,-2.62197e-39,-1.30133e-36,7.22779e-03,-5.83569e-38,-6.77710e-38,-1.45352e-01,-7.05834e-37,1.01096e-01,-1.23977e-01,-1.27922e-01,2.72375e-36,-1.17791e-30,-6.96006e-39,-3.70143e-33,-7.23569e-03,-5.37803e-40,6.56283e-32,-8.41042e-02,4.89738e-32,6.68354e-32,-2.49224e-38,
-1.32511e-01,-1.11227e-01,7.06090e-02,-7.17740e-02,5.76865e-02,-2.34809e-02,1.30560e-02,6.57940e-02,4.52422e-38,-6.94740e-03,9.01119e-37,3.24415e-02,2.20315e-32,-1.39950e-38,1.63438e-01,-1.93447e-02,-4.36752e-02,-1.94112e-02,2.28623e-03,1.82005e-01,1.06182e-01,7.71264e-02,-7.36187e-02,-2.60020e-02,9.34932e-02,-3.13491e-02,1.50841e-01,-1.32071e-01,5.47559e-02,-3.74895e-39,-1.06671e-35,4.73333e-02,2.30515e-02,5.44955e-36,9.91906e-02,7.89740e-39,3.20721e-01,3.17914e-02,7.94575e-02,-2.24577e-38,-7.48441e-02,-9.94331e-02,-1.48946e-32,-1.33205e-01,1.99328e-02,-1.09166e-02,6.45893e-02,-4.46237e-39,6.27611e-38,5.37827e-39,
1.25816e-01,5.89140e-02,5.53867e-03,-1.16393e-01,-9.63648e-02,-1.00446e-01,-6.33272e-04,-2.24226e-02,4.34602e-38,9.96979e-04,1.91930e-38,-3.69724e-04,3.98715e-37,1.06610e-35,-4.50432e-02,3.63477e-03,6.54140e-02,1.81396e-02,-8.61995e-04,3.89022e-02,-4.10306e-02,5.11897e-02,1.35492e-01,-1.54946e-02,-3.29886e-02,5.92882e-02,-1.26188e-01,8.07131e-02,-2.86879e-02,7.51997e-38,-5.80970e-39,7.55567e-03,-2.01049e-02,1.23402e-37,-8.61482e-02,-6.90430e-38,-1.48622e-01,-9.59305e-02,1.34000e-02,-5.28542e-37,1.04697e-01,5.02522e-03,-1.29881e-34,7.22407e-03,-1.94144e-02,1.15076e-02,2.38111e-02,-6.26794e-38,3.45057e-38,5.05742e-39,
-1.76028e-02,-1.77908e-02,-1.88811e-02,-1.89502e-02,-7.23086e-03,-9.67914e-03,2.72287e-39,-1.86498e-02,2.10361e-35,7.71210e-34,-3.95491e-39,-2.05294e-02,-2.84770e-38,-3.00690e-38,2.84569e-28,4.75630e-25,5.53955e-23,5.05599e-36,-2.25625e-38,-6.18355e-03,-2.00468e-02,-1.88543e-02,-1.90352e-02,-1.93831e-02,-1.14646e-37,-2.01343e-02,-5.14829e-39,-1.50000e-02,-2.03809e-02,-9.46151e-34,-4.82486e-32,-9.46577e-04,1.98964e-35,-2.34885e-33,-1.20252e-02,-3.39012e-39,1.14997e-29,-1.76091e-02,-9.18542e-03,-6.89112e-39,-1.82324e-10,-9.18342e-04,-7.98970e-37,-1.47922e-02,3.61391e-35,8.04635e-33,-2.04174e-02,-1.72290e-38,-7.97684e-39,3.10475e-35,
3.37879e-02,-1.08151e-02,3.33834e-02,-1.07011e-01,1.02442e-01,1.63030e-02,-4.14375e-39,-9.01811e-02,-1.57847e-37,-1.87366e-34,1.34371e-37,-9.77941e-03,-3.30975e-37,5.69233e-37,5.55659e-38,3.85961e-33,2.22464e-02,-3.16590e-35,-1.07849e-38,-4.99179e-02,-5.83851e-02,-1.33778e-02,-2.47810e-02,-7.83834e-02,7.34350e-02,-5.37783e-02,-3.87446e-02,-7.61393e-03,1.85008e-02,-1.46289e-30,3.75545e-31,-3.86948e-03,4.49982e-33,-1.91861e-39,-7.98839e-02,-4.73140e-38,-6.72796e-02,2.92675e-02,-5.18877e-02,4.61842e-37,3.14673e-34,1.99417e-35,3.09815e-33,1.06885e-01,-1.15570e-23,5.91793e-23,7.78965e-02,1.61861e-31,-8.26121e-39,2.29558e-35,
-2.70699e-02,-2.84462e-02,-2.76333e-02,-2.76459e-02,-4.80861e-03,-5.66729e-03,1.58449e-38,-2.83882e-02,-1.33373e-37,-6.30984e-37,-7.82412e-35,-2.87017e-02,4.15287e-38,-9.13741e-34,1.46261e-03,-1.67606e-03,-6.37659e-07,1.14542e-38,-4.59791e-33,-2.64823e-02,-2.82309e-02,-2.85912e-02,-2.88357e-02,-2.74205e-02,6.80416e-20,-2.77091e-02,4.60703e-19,-2.60661e-02,-2.84543e-02,7.88635e-38,-1.82057e-36,-1.01082e-02,5.19238e-38,-4.07455e-39,-1.94320e-02,-9.09740e-39,-3.96996e-03,-2.83528e-02,-2.87934e-02,1.73650e-34,-8.39411e-03,-2.74820e-02,1.12782e-39,-1.44249e-02,-2.55391e-38,-1.24301e-37,-2.80921e-02,1.58296e-38,1.44695e-37,6.17951e-37,
-5.47608e-02,-1.56579e-01,-2.87704e-02,-7.55905e-02,-6.24336e-02,6.18147e-02,-3.65912e-34,-1.26086e-01,-6.77881e-40,-6.50521e-38,1.45635e-39,9.87111e-02,-2.54240e-38,1.24869e-34,-1.09615e-02,5.48365e-39,2.28758e-02,-1.63507e-34,2.10253e-38,1.23666e-01,1.07995e-01,-1.26557e-01,1.21727e-01,-6.16085e-02,6.47182e-33,-6.05270e-02,9.21056e-02,-1.50352e-01,3.01023e-03,-1.31566e-37,3.26949e-39,-1.03457e-01,1.83321e-37,1.99933e-31,-1.53202e-01,-3.42142e-37,5.89239e-03,-3.89561e-02,-4.94209e-02,3.78874e-38,-5.33982e-02,-1.80199e-39,6.78705e-36,-3.07749e-02,-4.85047e-38,-1.59474e-35,1.20040e-01,2.17512e-34,2.10610e-33,-1.57600e-38,
-1.42733e-02,-2.25452e-02,-1.07280e-02,-1.41450e-02,3.73860e-03,4.66737e-03,8.29572e-38,-2.01090e-02,4.62871e-35,7.49939e-39,-2.87558e-38,-1.96873e-02,-7.05933e-35,2.81106e-39,8.00350e-04,-2.68637e-17,-4.49136e-08,-5.55470e-39,-9.06898e-35,-1.45394e-03,-2.13934e-02,-2.24454e-02,-2.20197e-02,-2.08146e-02,1.62065e-38,-1.87536e-02,-3.19710e-38,-1.18828e-03,-2.41535e-02,6.79160e-38,3.45174e-36,2.57964e-03,5.63999e-35,1.73897e-35,6.90845e-05,-7.16775e-38,2.78452e-04,-1.21110e-02,-6.51590e-03,-6.28718e-39,-8.90878e-23,-2.10663e-02,-1.20048e-36,2.99126e-03,-3.42464e-39,1.98288e-28,-1.94181e-02,9.01312e-39,-9.99861e-35,2.62048e-33,
-1.95177e-02,-1.85050e-02,-2.00346e-02,-1.98548e-02,-1.60062e-02,-9.46033e-03,4.81179e-38,-1.90788e-02,-6.33698e-39,7.85867e-37,-1.98387e-35,-2.12734e-02,9.62730e-35,2.65871e-37,-1.15121e-27,5.22470e-23,1.83895e-23,1.12945e-39,2.04091e-38,-6.31398e-04,-2.06888e-02,-2.14444e-02,-1.88692e-02,-1.83061e-02,-4.67171e-39,-2.08164e-02,-1.35377e-39,-1.66244e-02,-2.09529e-02,-4.51601e-39,9.17845e-39,1.06253e-02,-2.26176e-39,-1.90281e-38,-1.74563e-02,-7.45373e-38,3.64568e-03,-1.68612e-02,-8.02157e-03,-1.98597e-35,-4.25555e-07,-3.87933e-06,4.89361e-32,-1.76412e-02,-1.05506e-36,-6.57107e-04,-2.11314e-02,1.44149e-38,-2.62090e-38,-2.22334e-38,
5.21564e-02,5.76512e-02,-1.23857e-01,-1.06668e-01,1.21333e-01,-3.10769e-03,6.18086e-16,-1.29629e-01,-1.97589e-36,-2.78187e-36,3.21125e-39,-2.13022e-02,-1.83114e-32,1.03320e-33,-1.57876e-02,1.70077e-35,-5.28770e-03,3.36779e-38,1.05125e-38,1.73008e-03,1.10096e-01,2.80366e-02,5.73877e-02,9.50162e-02,-3.68112e-06,-5.38383e-02,-2.83589e-02,1.45748e-02,-1.35338e-01,-1.24923e-31,-3.67028e-34,3.85867e-02,-1.45588e-33,-1.76799e-39,5.88726e-02,3.66526e-34,1.05790e-01,1.20414e-01,-1.01149e-01,9.93669e-34,3.14016e-03,1.65168e-03,-4.95401e-38,2.53842e-02,-9.17230e-09,-1.09066e-23,1.09323e-03,-9.85173e-35,3.96164e-36,2.14314e-38,
-2.12107e-02,1.10932e-01,3.35964e-02,-1.33883e-01,-1.29751e-01,-5.81516e-02,-1.53607e-36,2.08921e-02,6.37834e-39,-5.87064e-38,2.99607e-33,1.00857e-01,-3.55900e-35,7.81534e-34,1.09420e-39,-9.89081e-03,-9.88190e-03,-4.01584e-37,8.76052e-27,-1.16243e-01,-9.60711e-02,-8.70159e-02,-5.79738e-02,-5.63007e-02,-2.13518e-32,-9.32764e-02,-1.08273e-01,-9.17610e-02,5.88085e-02,-9.04722e-33,-1.68756e-38,-4.71484e-02,-2.19483e-35,-1.82894e-35,1.04569e-01,-1.08014e-35,-8.60205e-02,-9.79107e-02,1.01106e-01,-1.77532e-37,-2.60553e-02,-8.43527e-02,-7.15704e-37,8.40413e-02,1.01199e-34,9.93671e-25,1.02944e-01,-5.89547e-32,-3.04391e-35,3.58473e-36,
-4.04440e-13,-8.93321e-07,-7.72456e-05,-1.68634e-06,-2.66866e-27,1.91336e-20,5.82745e-38,-1.03845e-03,6.32445e-31,2.77764e-33,-5.83439e-32,-3.58164e-03,-1.27304e-34,5.04337e-38,4.64991e-22,2.69652e-39,-4.53854e-29,2.87092e-34,-3.19789e-39,4.01800e-20,-2.60978e-03,-6.72796e-03,-2.19161e-04,-1.14275e-03,-2.41107e-39,-2.29784e-03,9.27653e-39,-2.30497e-10,-3.47984e-03,1.56384e-39,-1.02015e-36,-3.15602e-21,-8.14329e-35,3.99583e-38,1.43974e-26,2.12477e-38,1.07895e-22,-1.10337e-04,1.42753e-18,-7.01528e-39,1.23529e-29,-4.60986e-21,-2.25902e-33,8.99322e-27,-3.10017e-39,1.60372e-33,-4.05151e-03,1.35595e-38,-1.03763e-38,-7.68850e-39,
-1.08994e-01,3.20729e-02,-1.17082e-01,8.54662e-02,-1.00527e-02,2.30406e-02,-9.64475e-09,-3.34813e-02,-2.60391e-32,1.08782e-06,-2.80695e-38,-1.01877e-01,-1.17820e-38,1.20668e-35,-1.83587e-01,5.86345e-02,3.21332e-02,1.23247e-02,-9.40475e-06,5.21944e-02,4.21906e-02,3.65722e-02,-1.30273e-01,2.79735e-02,1.85347e-38,-1.03001e-01,-5.79378e-02,-7.29510e-03,1.39115e-01,-1.54120e-38,3.38173e-37,-5.53120e-03,-1.58790e-02,1.80296e-30,-1.54059e-01,-1.76469e-30,-1.50368e-01,-1.60959e-01,4.15960e-02,-5.57679e-35,9.25285e-02,-3.30617e-02,4.31373e-37,-6.57153e-02,-2.00642e-02,4.06468e-03,1.10518e-01,7.92507e-38,-1.34467e-32,-5.27924e-39,
-3.95260e-03,-7.03819e-03,-9.37928e-04,-8.88966e-03,-5.27442e-04,1.37968e-05,-8.09865e-39,-1.18372e-02,1.68419e-39,2.46815e-36,-8.75672e-38,-1.36695e-02,5.91786e-39,9.96195e-38,-1.73568e-30,-3.58887e-32,-1.17923e-05,-7.55197e-37,-6.80725e-33,-1.34015e-03,-1.16892e-02,-1.49620e-02,-1.49458e-02,-1.26692e-02,2.55541e-34,-1.03670e-02,5.22667e-39,-3.92348e-04,-1.45389e-02,-7.81924e-39,-2.40115e-37,-1.01588e-06,2.27944e-38,-1.23805e-38,-2.21167e-03,-2.53356e-38,8.57860e-20,-8.08246e-03,-1.32314e-04,-1.13463e-35,2.20805e-14,-4.21636e-07,-7.04710e-39,-1.37931e-03,1.26127e-37,7.88759e-39,-1.23822e-02,-7.69511e-39,-5.61905e-35,4.51924e-37,
-1.28598e-02,8.37662e-02,-1.43227e-02,-4.20596e-04,-5.40792e-03,-6.77650e-02,1.51825e-37,-1.03577e-01,-4.07502e-39,-3.59185e-33,1.15130e-38,8.14785e-02,-3.70525e-33,-3.40404e-32,1.22379e-04,-1.38234e-02,2.68574e-03,-2.69220e-22,2.41934e-38,3.87587e-02,-6.52601e-02,-1.09718e-01,3.16876e-02,3.89189e-02,-3.26698e-02,3.19606e-02,5.73195e-02,4.19822e-02,-1.61762e-02,3.25085e-38,1.82339e-39,-9.14364e-02,9.79691e-23,6.26314e-39,-3.21362e-02,-4.21604e-38,-4.38742e-02,-1.22767e-01,-7.30165e-02,-9.88237e-37,2.32857e-02,-1.64306e-02,1.13931e-30,5.33118e-02,4.54129e-26,-1.21629e-23,-1.22075e-02,-5.66606e-38,1.44154e-39,6.71182e-39,
2.07625e-02,4.64242e-02,-1.20332e-01,-6.10847e-02,-4.19139e-02,7.93296e-03,4.24407e-36,1.23245e-01,3.70763e-38,-8.07218e-39,2.58452e-37,5.56385e-02,3.75785e-38,7.52448e-39,-6.77410e-40,-9.04656e-33,-1.01994e-38,1.62815e-37,3.13484e-38,5.89516e-02,-1.45063e-01,-1.42131e-01,1.28593e-01,5.56329e-02,1.40148e-34,8.54421e-02,1.43690e-38,8.28381e-03,2.35098e-02,-1.33784e-32,-3.30746e-35,5.57575e-02,3.59015e-37,-2.37866e-32,7.43666e-04,6.61036e-36,5.28195e-02,8.87543e-02,-9.92727e-02,5.21432e-38,-3.95600e-37,9.20144e-39,-3.22502e-33,5.46147e-02,-1.16371e-38,-2.12593e-38,-7.33931e-02,-7.85121e-33,4.07216e-39,6.63897e-32,
-7.33125e-03,
-9.77238e-25,
-7.37376e-03,
1.17952e-01,
-1.91676e-02,
-5.56474e-03,
3.75021e-02,
-3.25282e-02,
-3.47115e-25,
-1.02618e-01,
-1.98583e-02,
-2.48291e-09,
-8.00279e-04,
-1.49249e-01,
-2.33995e-03,
6.07031e-02,
9.83275e-02,
1.55245e-02,
-6.45414e-03,
1.44752e-01,
-7.96520e-02,
-6.64640e-03,
-7.36919e-02,
1.25879e-01,
-8.19321e-03,
-8.82886e-24,
7.36447e-03,
-5.58069e-07,
-2.28183e-10,
-2.35478e-02,
7.28015e-20,
1.60902e-23,
5.77125e-02,
4.14033e-02,
-1.82678e-02,
-6.48425e-02,
-4.05712e-02,
-6.37952e-04,
-1.73576e-03,
-2.27268e-02,
9.78559e-02,
-1.27795e-03,
-1.82162e-04,
-4.52116e-02,
-5.69207e-02,
-5.78799e-21,
-2.62986e-02,
-3.09958e-11,
4.30628e-02,
6.41881e-02,
1.55028e-02,1.42429e-21,-1.26322e-02,9.33830e-02,-5.63096e-02,5.21185e-03,-2.39306e-02,3.16694e-02,1.48637e-24,1.19543e-01,-1.92819e-02,-4.14437e-38,-1.82741e-12,-6.72792e-02,1.08286e-01,-9.45744e-02,1.11940e-01,-9.19285e-02,-2.73243e-04,-4.75932e-02,-1.29481e-01,1.67278e-03,-6.18803e-02,1.39175e-01,1.76510e-02,-8.80436e-25,-1.52800e-01,-2.12985e-02,2.19181e-02,-6.81828e-02,-1.38725e-09,-9.27146e-23,1.18594e-01,-6.26839e-02,-5.88092e-02,-1.21819e-01,-5.32475e-02,1.77944e-02,-2.07964e-02,2.95449e-02,-6.91982e-02,2.37075e-02,-1.16656e-04,-6.31970e-02,-1.67205e-02,5.24752e-23,1.36760e-01,4.14758e-03,5.81220e-03,-9.47352e-02,
-1.55027e-02,9.84193e-21,1.26706e-02,-4.44458e-02,3.06208e-02,-4.86903e-03,1.30816e-02,-9.61978e-02,2.85021e-24,-1.24575e-02,1.92821e-02,5.01014e-34,2.86989e-12,-3.14213e-02,-1.15924e-01,-1.15535e-01,4.92582e-02,-5.74132e-02,2.73785e-04,-6.15232e-02,6.98187e-03,7.18620e-03,-2.36393e-02,-1.78582e-02,-1.78135e-02,-3.36618e-28,1.57492e-01,2.07404e-02,-2.19490e-02,1.34696e-01,8.13928e-10,-8.63627e-23,1.17686e-01,-9.06803e-02,8.68268e-02,1.27880e-01,-8.38135e-02,-1.77950e-02,-8.42838e-02,-2.91278e-02,-5.64371e-03,-2.32722e-02,1.16920e-04,-6.28083e-02,-1.04578e-02,2.19116e-23,1.17118e-01,-2.75363e-03,-3.83106e-03,1.46623e-02,
-1.16155e-01,
-2.82684e-02,
