// Neural Network File Format by Kyle Julian, Stanford 2016
3,13,1,50,
13,50,50,1,
0,
0,0,0,0,0,0,0,0,0,0,0,0,0,
1,1,1,1,1,1,1,1,1,1,1,1,1,
0,0,0,0,0,0,0,0,0,0,0,0,0,0,
1,1,1,1,1,1,1,1,1,1,1,1,1,1,
-4.45382e-02,1.17911e-01,-5.17013e-02,-3.57756e-04,-4.27123e-01,-1.04791e-02,-1.43925e-01,3.08046e-01,2.92633e-02,3.43943e-01,2.42579e-02,-7.46069e-01,-1.33892e-01,
-1.23993e-01,7.44346e-02,-2.39252e-02,-3.04729e-01,-2.93005e-01,-1.33416e-02,9.21391e-02,1.59795e-01,2.55131e-01,-2.24421e-01,3.53982e-01,-2.08344e-01,-1.10875e-01,
-1.77711e-02,-8.33635e-02,-4.91153e-02,-1.14662e-01,1.75071e-01,5.14184e-01,-1.88485e-01,1.02013e-01,1.38277e-01,2.66420e-01,1.34922e-01,4.30618e-01,2.62966e-01,
1.37757e-01,-1.04853e-01,-6.45452e-02,3.49253e-02,-5.94794e-02,-3.01494e-01,1.55325e-01,1.53430e-01,3.23053e-01,-1.79502e-01,1.58718e-01,8.27987e-02,-2.33047e-01,
-5.31190e-02,1.93145e-01,-8.29723e-02,7.19986e-02,2.30224e-01,5.03149e-02,2.03175e-01,-3.93536e-02,-1.89246e-01,2.00780e-01,1.88396e-01,-3.38851e-01,1.01054e-01,
-1.50417e-01,-3.34624e-02,-3.62045e-01,-1.70666e-03,-4.87093e-01,-7.96564e-02,-1.46299e-01,3.60221e-01,2.16581e-01,3.12083e-01,-1.62924e-01,4.78697e-02,3.09466e-01,
4.06272e-02,-4.30617e-02,2.50853e-01,-5.00334e-02,3.24668e-02,-9.00466e-02,3.99550e-03,-5.27897e-03,-1.55037e-01,1.08414e-01,2.13823e-01,1.76943e-01,-3.91442e-02,
2.68250e-01,1.31879e-01,-3.59851e-01,3.49388e-01,-1.51841e-01,1.55566e-01,-2.42284e-01,1.84502e-01,3.02076e-01,3.61526e-01,-2.96031e-01,2.47228e-01,4.45186e-02,
-3.81417e-01,2.07874e-01,-9.15843e-02,-1.01774e-01,-1.40767e-01,2.93663e-01,-5.41847e-02,1.98790e-01,-2.06105e-02,-8.10606e-02,2.39231e-01,-1.88448e-01,-1.01531e-01,
2.14419e-01,5.60792e-02,-1.67614e-01,3.14815e-01,3.11849e-01,-3.19478e-01,-3.01945e-01,1.24221e-01,1.36230e-02,1.76920e-01,3.22439e-01,-2.06603e-01,1.25610e-01,
2.09697e-01,-3.49486e-01,-1.60681e-01,-1.07821e-02,2.90479e-01,3.63954e-01,3.31286e-01,7.42764e-02,5.40660e-02,2.27372e-01,-1.24859e-01,3.50801e-01,9.06066e-02,
4.10313e-02,-2.66557e-01,-5.44366e-01,-1.86929e-02,2.19249e-01,1.17954e-01,-3.15557e-01,2.42184e-01,3.01358e-01,4.40954e-01,1.14213e-01,2.56364e-01,1.87071e-01,
3.72076e-01,2.31067e-01,-8.00732e-02,5.62542e-02,3.81383e-02,-2.25046e-01,-3.03652e-01,1.61328e-01,-4.43500e-01,-1.07775e-01,1.00371e-01,3.10498e-01,-1.51131e-01,
1.40268e-01,2.72396e-01,2.31948e-02,-2.83444e-01,9.64982e-02,-2.00848e-01,3.74426e-02,-3.44955e-02,-6.51727e-02,-2.13243e-01,2.54287e-01,-3.23389e-01,4.50590e-02,
1.99119e-13,-2.69799e-11,0.00000e+00,0.00000e+00,-7.28349e-11,-4.82915e-30,1.63228e-22,0.00000e+00,-1.79718e-18,-3.71226e-30,-3.18954e-08,-1.17903e-16,-4.74253e-11,
-1.34911e-01,2.87473e-01,3.22812e-01,-4.41574e-02,-5.99502e-02,4.96833e-02,2.56529e-01,-1.00886e-01,5.31237e-02,-2.27370e-02,2.83811e-01,-9.78407e-02,-2.46869e-01,
-2.65501e-01,-2.60856e-01,2.60862e-01,6.37753e-02,2.80924e-01,2.49934e-01,1.53845e-01,2.52453e-01,-2.37273e-01,-3.50248e-01,1.23700e-01,3.91616e-02,1.77115e-01,
0.00000e+00,7.41161e-18,4.29528e-10,0.00000e+00,-1.30234e-09,-8.52976e-13,-8.03615e-09,-2.07559e-08,0.00000e+00,-1.17707e-12,-4.73669e-15,0.00000e+00,-6.37765e-23,
1.96432e-01,-4.08683e-01,1.13100e-01,3.11736e-01,1.42947e-01,-3.14868e-01,1.60756e-01,-3.78263e-01,-2.21956e-01,3.39805e-01,-1.63145e-01,-1.91610e-01,2.19256e-01,
-2.23368e-01,-2.23633e-01,1.44249e-01,-2.86052e-01,1.73241e-02,-3.51119e-02,2.35013e-01,-5.63113e-02,-1.07306e-02,-3.64956e-02,3.44679e-01,4.81429e-01,-7.90076e-02,
-1.55570e-02,3.27965e-01,-3.67553e-01,-2.02213e-01,1.02845e-02,8.29901e-02,2.31045e-01,-6.98401e-02,2.94211e-01,-1.14377e-01,-3.96639e-02,-2.09817e-01,6.85574e-02,
-2.33462e-01,-5.69247e-02,-2.30537e-01,-9.49313e-02,2.82060e-01,2.68475e-01,-2.78067e-01,-8.94493e-02,3.24749e-01,4.17338e-01,1.24551e-01,1.92756e-01,1.21075e-01,
2.84319e-01,-1.69160e-01,-1.32031e-01,-6.49945e-02,-3.08758e-02,-3.63031e-01,3.89518e-01,2.63029e-01,-4.88862e-01,-5.66183e-02,-2.67864e-01,6.79531e-02,-1.28964e-01,
-2.63648e-01,-9.91127e-02,5.19560e-02,2.34285e-01,-7.05408e-02,1.24319e-01,-9.59819e-02,1.90956e-01,-6.65235e-02,3.54167e-01,1.43621e-01,-5.06419e-01,-1.46910e-01,
-1.59111e-01,2.70625e-02,1.07900e-01,-8.00244e-02,1.84741e-01,-4.38585e-01,-6.16866e-01,1.94064e-01,3.47344e-01,-1.56988e-03,-1.15114e-01,-2.35890e-01,-1.36398e-01,
-4.06376e-01,2.80594e-01,-1.13420e-01,1.76674e-01,-1.88142e-01,1.05171e-01,-1.98934e-01,2.76081e-01,-2.43156e-01,-1.20305e-01,-1.46972e-01,2.03498e-01,1.30577e-01,
-1.35830e-01,-4.65842e-02,3.56713e-01,2.39377e-01,-5.75845e-02,-4.57382e-01,2.31812e-01,3.61656e-02,9.40932e-02,-1.52048e-01,-2.82111e-01,-1.96979e-01,2.80037e-01,
0.00000e+00,-1.23820e-16,0.00000e+00,-1.77932e-30,-1.84832e-24,0.00000e+00,0.00000e+00,6.83451e-25,0.00000e+00,-5.20554e-09,-5.41497e-08,0.00000e+00,0.00000e+00,
5.94947e-02,-1.41568e-01,1.75820e-01,2.00103e-01,6.41944e-02,2.31191e-01,-4.93382e-01,2.74109e-01,1.11806e-01,-3.59671e-02,-1.49147e-01,-7.43244e-01,2.65587e-02,
1.44678e-01,2.33036e-01,9.86573e-02,3.63245e-01,3.32555e-01,-7.16524e-02,1.16280e-01,8.46091e-02,-2.51781e-02,2.46086e-01,3.21012e-01,2.19454e-01,4.23357e-01,
1.06431e-02,3.32377e-01,-2.53707e-01,-2.31358e-02,-2.21824e-01,3.78381e-01,4.15829e-01,-1.09353e-01,-4.15676e-02,-2.12239e-01,-1.29377e-01,2.22108e-01,-1.83318e-01,
2.02865e-01,1.35877e-01,-5.17298e-02,-2.45131e-01,3.28588e-01,2.08932e-01,1.67907e-01,-2.39093e-01,-8.15497e-02,1.44054e-01,-2.24936e-01,1.55237e-01,-3.68538e-01,
-2.65171e-01,-3.03039e-01,8.73692e-02,-1.59282e-01,2.23409e-01,-1.90027e-01,-1.30787e-01,1.76263e-01,6.30368e-02,-4.55933e-02,-2.19056e-01,-2.93773e-01,1.16317e-01,
2.65150e-01,-5.40891e-02,-3.26680e-01,2.32672e-01,-7.76608e-02,3.53929e-01,-1.73667e-01,3.16071e-02,1.32877e-01,7.84778e-02,-3.27008e-01,1.53460e-01,-1.86403e-01,
1.56191e-01,1.61918e-01,2.49462e-01,-6.68714e-02,1.78791e-01,1.71996e-01,2.51235e-01,-6.34774e-02,-2.19175e-01,-1.38849e-01,-2.46918e-01,1.00116e-01,1.21201e-01,
2.87092e-01,-2.28733e-01,-7.08668e-02,-2.87736e-01,2.32423e-01,-2.58316e-01,1.80143e-01,2.35592e-01,3.61503e-01,-2.05282e-01,1.23801e-01,-3.95432e-01,-1.20432e-01,
-9.08720e-02,-1.40702e-01,2.23548e-01,2.40399e-01,-2.59209e-01,1.10509e-02,-1.85787e-01,-9.72713e-02,1.31944e-01,-1.72453e-01,3.29044e-01,-2.34150e-01,-1.65456e-01,
-2.62618e-01,1.42432e-01,-3.26254e-01,-1.40732e-01,-2.47829e-01,1.39552e-01,1.98873e-01,-1.39146e-01,2.09835e-01,5.36924e-01,-6.56164e-02,-2.12621e-01,3.58274e-01,
2.36774e-01,3.05347e-01,4.75935e-02,1.29979e-01,-1.11025e-01,-2.44035e-01,-6.39370e-02,-3.42371e-01,3.10920e-01,-3.76645e-02,-9.22961e-02,4.59933e-02,1.11999e-01,
2.70912e-01,2.38803e-01,-1.48222e-01,1.29275e-01,7.12396e-02,8.01656e-02,3.61241e-02,-2.91902e-01,2.69090e-01,-1.06300e-01,6.36634e-02,-1.56783e-01,2.75068e-01,
1.81739e-01,1.70316e-01,-1.79118e-01,-4.18328e-02,-1.00758e-01,2.95704e-01,3.56008e-01,1.24466e-01,-2.71592e-01,-7.30671e-02,-4.40873e-02,1.60514e-01,-2.85220e-01,
3.59404e-01,1.87714e-01,-1.20926e-01,3.67573e-01,1.10710e-01,-5.79383e-02,1.84177e-01,-1.07767e-01,1.71566e-02,1.76730e-01,-1.48965e-01,2.81913e-01,-8.75835e-02,
1.53167e-01,-7.51199e-02,-3.40000e-02,2.03082e-01,1.71341e-02,2.87698e-01,1.53914e-01,2.35731e-01,-2.46942e-01,-3.41816e-02,2.07621e-01,-4.77158e-02,-7.59448e-02,
9.97832e-03,2.95544e-01,-1.30473e-01,2.53621e-01,2.01142e-01,-2.17927e-01,-1.32290e-01,-1.91265e-01,-3.36238e-01,-1.99735e-01,5.33952e-02,3.21356e-01,1.72487e-01,
-2.11876e-01,-4.38266e-02,2.84005e-01,-6.28863e-02,1.38801e-01,3.14621e-01,-5.08719e-01,1.80275e-01,6.46469e-02,-5.09072e-04,-3.00300e-01,-6.60718e-01,1.60570e-01,
9.86594e-02,1.73895e-01,-2.06198e-01,4.20424e-02,-1.71077e-01,1.04615e-01,-2.44611e-01,-3.81542e-03,7.92489e-02,-2.06752e-01,-1.47584e-01,1.71895e-01,-1.65810e-01,
2.12544e-01,2.56808e-01,-1.91487e-01,-1.49543e-01,-2.57121e-01,2.28557e-01,2.29154e-01,-1.58644e-02,-5.92475e-02,-3.23687e-01,1.69523e-01,6.65157e-02,1.49998e-01,
3.11493e-01,2.47037e-01,2.86684e-01,1.32151e-01,1.99473e-01,1.80312e-01,-2.61345e-01,-1.37356e-01,1.88438e-01,-3.20667e-01,3.91714e-01,-4.18415e-01,-2.73543e-01,
-1.02548e-01,-5.27639e-01,4.51813e-02,4.62905e-02,2.24710e-01,-3.35095e-01,1.95565e-01,-1.61433e-01,-1.17893e-01,3.11062e-01,1.27161e-01,-1.41118e-01,1.64331e-01,
7.56544e-02,-8.33854e-02,-2.00036e-01,3.11383e-02,-1.59408e-01,-2.32442e-01,1.09253e-02,1.43887e-01,-2.69945e-02,1.78615e-01,2.70643e-01,-5.49734e-01,-2.81305e-01,
6.80224e-02,
7.79364e-02,
7.98136e-02,
1.13577e-01,
-3.91742e-02,
-2.32061e-02,
7.04652e-02,
-2.67392e-02,
2.07117e-02,
-6.76879e-03,
8.31827e-02,
-1.21660e-02,
-1.30855e-03,
6.11951e-02,
0.00000e+00,
8.44586e-02,
2.75009e-02,
0.00000e+00,
-1.63822e-04,
3.77315e-02,
-1.13459e-02,
2.39054e-02,
1.17250e-01,
7.61128e-02,
9.71341e-02,
-2.33377e-02,
-1.62317e-02,
0.00000e+00,
4.69402e-02,
5.64389e-02,
1.19642e-02,
3.31217e-02,
9.45304e-02,
4.88759e-02,
5.21920e-02,
9.36839e-02,
2.77493e-02,
8.06781e-03,
-8.63904e-03,
-9.79653e-03,
4.87233e-02,
5.59957e-02,
7.56038e-02,
3.69669e-02,
8.95380e-02,
1.12973e-02,
5.65476e-03,
7.82848e-02,
7.63745e-02,
9.82610e-02,
0.00000e+00,0.00000e+00,1.34937e-24,0.00000e+00,1.42604e-17,0.00000e+00,0.00000e+00,0.00000e+00,0.00000e+00,0.00000e+00,-5.85260e-26,0.00000e+00,0.00000e+00,3.30717e-30,0.00000e+00,0.00000e+00,0.00000e+00,-1.38346e-15,-1.23607e-11,1.20603e-25,0.00000e+00,-3.71033e-23,0.00000e+00,-3.52281e-12,0.00000e+00,0.00000e+00,0.00000e+00,2.99877e-13,5.19513e-28,0.00000e+00,4.78253e-15,3.34873e-26,-1.93378e-20,5.71705e-29,0.00000e+00,-6.93286e-14,0.00000e+00,-2.58402e-13,0.00000e+00,-3.19119e-12,-5.15666e-29,-4.36474e-15,-2.85614e-16,-3.93659e-13,1.21032e-20,0.00000e+00,0.00000e+00,0.00000e+00,1.18846e-13,3.40647e-29,
-2.49385e-20,0.00000e+00,0.00000e+00,-1.11610e-25,6.27984e-24,2.28976e-16,0.00000e+00,1.15282e-21,0.00000e+00,2.91649e-21,8.49939e-17,0.00000e+00,0.00000e+00,0.00000e+00,1.47719e-17,0.00000e+00,-6.59314e-15,0.00000e+00,-4.79710e-18,0.00000e+00,1.57757e-20,9.08489e-12,1.39613e-22,0.00000e+00,-1.95874e-14,1.70627e-17,0.00000e+00,-3.79296e-18,0.00000e+00,-1.72082e-11,0.00000e+00,5.63939e-17,-4.06299e-26,0.00000e+00,-1.80300e-26,0.00000e+00,0.00000e+00,0.00000e+00,-7.16844e-16,0.00000e+00,0.00000e+00,0.00000e+00,0.00000e+00,0.00000e+00,0.00000e+00,4.82601e-28,-3.34644e-13,0.00000e+00,0.00000e+00,0.00000e+00,
1.24583e-01,2.06208e-01,2.39607e-01,2.85879e-01,-1.44971e-01,-2.35067e-01,-1.20488e-01,-1.02044e-01,3.49732e-01,-1.76926e-01,1.34409e-01,-1.77630e-01,6.17169e-02,-4.83700e-03,0.00000e+00,2.50464e-01,1.56999e-01,-5.22875e-29,1.91528e-01,4.07010e-01,-1.39222e-01,-7.49318e-03,4.61038e-01,4.57119e-01,4.88692e-01,-7.93712e-02,9.23006e-02,5.11850e-28,1.07817e-02,4.57919e-04,4.62490e-02,-3.77404e-01,4.94584e-01,-2.31745e-01,2.21882e-01,3.75796e-01,2.21630e-01,-2.56997e-01,2.20955e-01,-6.83858e-02,1.46729e-01,-8.52466e-02,1.75302e-01,7.80711e-02,2.48349e-01,-7.90138e-02,1.02871e-01,-1.61497e-01,3.33342e-01,1.32785e-01,
1.80362e-02,2.69581e-01,-1.37993e-01,-4.35927e-02,-9.01064e-02,-1.23717e-01,1.12532e-01,-1.42627e-01,-6.15711e-02,-1.95232e-01,6.91673e-02,-1.27325e-01,-1.82269e-01,1.27193e-01,3.05091e-20,1.13932e-01,-1.13487e-01,0.00000e+00,3.55985e-01,1.24516e-01,-1.17309e-01,-5.37181e-02,3.42207e-01,3.55428e-01,4.99628e-01,2.86581e-01,-3.35373e-01,0.00000e+00,2.67527e-02,7.90890e-02,1.35807e-01,-7.56244e-01,4.29192e-01,-4.22565e-01,9.27653e-02,7.32078e-02,2.77745e-02,-2.63886e-03,-4.04786e-02,8.58129e-02,-8.76257e-02,1.06999e-01,2.23473e-01,-5.16219e-02,3.59557e-01,-2.14578e-01,1.90909e-01,2.44508e-01,2.89241e-01,2.57567e-01,
3.28791e-03,-2.55685e-01,-1.23173e-01,-1.38085e-01,7.85418e-03,1.90231e-01,2.42244e-01,-2.48807e-01,-1.62063e-01,2.83289e-01,-4.24733e-01,-1.00948e-01,1.65273e-01,1.62607e-01,-9.86442e-13,7.87741e-02,1.07963e-01,0.00000e+00,-1.25556e-01,3.71139e-02,3.27163e-02,-2.61434e-01,-4.70255e-01,-3.09778e-01,-3.13430e-01,4.22028e-02,2.60651e-01,0.00000e+00,-2.78417e-01,-1.57098e-01,-6.02332e-01,1.90509e-01,3.06746e-02,-4.06396e-01,2.55741e-01,-6.68081e-02,-1.76830e-01,2.21403e-02,2.63784e-02,2.15113e-01,-8.44783e-02,9.10381e-02,9.65535e-02,1.96779e-01,-2.69928e-02,8.28335e-02,8.59634e-02,2.69285e-02,-3.10632e-01,-2.77958e-01,
2.52392e-01,3.00166e-01,2.56154e-01,-3.45979e-02,-1.34305e-02,-3.33381e-01,1.35634e-01,-1.31324e-01,2.75892e-01,1.72404e-02,2.97620e-01,-2.96474e-01,1.04628e-02,7.59418e-02,4.30621e-21,-2.20388e-01,-1.11317e-01,0.00000e+00,4.42223e-01,2.22602e-01,-1.85760e-01,9.53873e-02,3.07161e-01,1.58081e-02,1.98893e-01,-3.29055e-02,6.10025e-02,0.00000e+00,2.69948e-01,-1.61027e-01,-2.17997e-02,-6.76419e-01,5.13851e-01,-3.47332e-01,2.37911e-01,1.02873e-02,1.41710e-02,-3.20570e-01,-8.85769e-02,-8.35059e-02,2.56799e-01,-1.72697e-01,2.30067e-01,1.20796e-01,4.40345e-01,-1.17432e-01,1.76906e-01,1.56664e-01,2.87247e-01,2.88897e-01,
2.73367e-01,-3.76785e-02,-1.16750e-01,4.70117e-02,4.61860e-02,-2.33694e-01,-3.59268e-02,2.84952e-01,1.75125e-01,-1.63714e-01,1.41009e-02,-2.16626e-01,-1.57535e-01,-9.12185e-02,0.00000e+00,2.20041e-01,-9.64637e-03,-1.77969e-22,3.29135e-01,3.55173e-01,2.58879e-01,7.22351e-02,3.04146e-01,9.40547e-02,5.61155e-01,5.15299e-02,3.50046e-03,0.00000e+00,1.34821e-01,-2.29555e-02,9.50135e-02,-4.65751e-01,3.02518e-01,-2.35332e-01,2.01116e-01,4.65041e-01,3.36931e-01,-3.07417e-01,-1.79580e-01,-2.72547e-02,1.10056e-01,-1.58611e-01,1.19383e-02,1.51503e-01,3.75743e-01,-2.74333e-01,2.25813e-01,-1.46498e-02,3.00329e-01,2.87816e-01,
-3.33601e-02,-4.91510e-02,1.37513e-01,-1.69760e-02,1.36108e-01,8.16702e-02,-2.74934e-02,8.36777e-02,-4.82273e-02,-8.91505e-02,8.69844e-02,-5.56393e-02,-4.20354e-02,3.51804e-02,0.00000e+00,1.25732e-01,7.08432e-02,1.92311e-13,2.06765e-01,1.63745e-01,-6.78955e-02,2.11767e-01,2.97764e-02,1.40392e-01,7.04310e-02,1.45032e-01,1.21577e-01,0.00000e+00,-6.96517e-02,-2.68317e-01,-8.46822e-02,-1.87691e-01,2.23889e-01,-2.45851e-01,-4.52195e-02,1.08187e-02,-3.29784e-02,-1.97303e-01,-3.53455e-02,1.93483e-01,2.16139e-01,9.79224e-02,-2.51384e-01,6.99406e-02,-2.18062e-01,0.00000e+00,-1.35878e-01,-1.62387e-01,-4.40026e-02,4.17563e-02,
-5.14877e-02,-2.72326e-01,2.64966e-01,-1.39527e-01,-3.93320e-02,2.19583e-02,2.13898e-01,2.29214e-01,-1.26638e-01,2.82479e-01,-1.49405e-01,7.88592e-02,8.31609e-02,-8.12669e-02,0.00000e+00,2.06689e-03,-1.92977e-01,-2.28615e-16,-1.81991e-01,-4.60803e-01,-1.89708e-01,2.37123e-01,-2.23410e-01,-2.06143e-01,-4.86302e-01,-2.57296e-01,3.11704e-01,-2.99651e-20,-2.99774e-01,1.80436e-01,-3.92910e-02,5.83531e-01,-2.30420e-01,3.93532e-01,-4.64337e-02,-1.20733e-03,4.19435e-02,4.37746e-01,-1.74007e-01,-1.06404e-01,-7.73839e-02,1.52466e-01,-2.08265e-02,-1.24055e-02,-1.04623e-01,2.40085e-01,-1.72049e-01,-2.88759e-02,1.68789e-01,-3.97181e-03,
1.63474e-01,3.08872e-01,-2.09900e-01,1.40767e-01,-3.51889e-02,-5.11779e-01,1.37830e-01,-6.14717e-02,4.15851e-01,-1.29144e-01,1.88014e-01,-5.34107e-02,-9.98762e-02,-4.61561e-02,0.00000e+00,1.35570e-01,1.60730e-01,2.53788e-20,1.56757e-01,-2.58817e-02,-1.04023e-01,-5.64605e-02,4.41162e-01,2.38578e-01,9.65755e-02,1.67121e-01,-3.39385e-01,0.00000e+00,3.25677e-02,2.14645e-01,2.35065e-01,-2.51782e-01,5.02470e-01,-2.55502e-01,-1.25819e-01,2.50838e-01,1.85022e-01,-3.80138e-01,-3.10311e-01,-1.33652e-01,2.64082e-01,-1.84530e-01,2.03813e-02,-2.44681e-01,9.80432e-02,-4.58260e-02,-1.28454e-01,2.56102e-01,3.24011e-01,3.20703e-01,
-1.85547e-01,-3.44169e-01,2.03368e-01,-4.73765e-02,1.56378e-02,3.67574e-01,-1.01736e-01,1.93881e-01,-2.14456e-01,-1.52957e-02,-5.85450e-02,2.91859e-01,2.40186e-01,1.80458e-01,1.48184e-14,-1.71360e-01,-4.52306e-02,0.00000e+00,1.26483e-01,-2.39409e-01,9.70652e-02,-1.25666e-01,-4.50127e-01,-2.98985e-01,-1.47413e-01,-1.28907e-01,8.56684e-02,-7.96508e-19,1.45310e-03,1.48494e-01,1.94944e-02,4.30322e-01,-4.21849e-01,3.42342e-01,1.79484e-01,-1.35373e-02,-2.09916e-01,2.25936e-01,2.33897e-01,2.29217e-01,1.28869e-01,5.73075e-02,8.38284e-02,1.25623e-01,-2.67284e-01,3.30498e-01,1.40985e-01,2.28042e-01,-2.02220e-01,-3.33175e-01,
-2.40837e-01,-8.19672e-02,8.21001e-02,-9.96716e-02,-1.86936e-01,-1.18607e-01,-1.95979e-01,1.58754e-01,2.69919e-01,-6.85212e-02,1.92480e-01,2.28675e-01,-1.29339e-01,1.66496e-02,0.00000e+00,2.30751e-01,-3.63265e-01,3.56707e-17,4.43587e-01,-4.46833e-01,1.20110e-01,-4.24679e-02,4.12285e-01,1.25555e-01,1.76171e-01,-1.59279e-01,-2.51601e-01,-5.94152e-27,-5.56610e-02,-2.38923e-01,3.58242e-01,6.33685e-01,7.85938e-02,5.49974e-01,1.25146e-01,-3.02954e-01,9.53909e-03,7.05843e-03,1.24496e-01,-1.76443e-01,2.40170e-01,-3.56229e-02,-1.44076e-01,-4.24224e-02,-1.53292e-01,3.70774e-01,1.01579e-02,2.19677e-01,5.14683e-02,-2.33081e-01,
3.28362e-01,2.77212e-01,1.96838e-01,-5.06655e-02,1.14111e-01,-1.04413e-01,-1.03412e-02,-3.70807e-03,1.86280e-01,7.92777e-02,1.71800e-01,-1.92059e-01,-2.43562e-01,-1.38947e-01,5.04366e-12,7.09811e-02,2.21497e-01,0.00000e+00,-4.00586e-02,1.73212e-01,2.14256e-01,-1.96185e-01,5.23311e-01,-1.11094e-02,3.13153e-01,-2.34834e-02,-1.12320e-01,2.97157e-20,4.10959e-02,1.11737e-01,9.85680e-03,-7.53770e-01,3.43123e-01,-2.59269e-01,2.54416e-01,2.49373e-01,1.90644e-01,-1.76630e-01,1.24105e-01,-2.32953e-01,6.66092e-02,-2.42121e-01,3.84456e-02,6.36766e-02,1.04843e-01,-1.68261e-01,-2.57584e-02,-8.25754e-02,-5.82799e-02,4.57546e-01,
-3.32999e-02,-9.03199e-02,-1.24243e-01,-1.51495e-02,-2.12923e-01,-7.13334e-30,1.55258e-01,-4.29029e-02,-1.07900e-02,-9.27897e-02,-7.87502e-14,-4.75028e-17,2.09429e-01,2.53443e-02,-9.97119e-15,-7.57053e-03,-2.24391e-01,0.00000e+00,2.16577e-21,-6.42292e-13,-2.20306e-02,1.44141e-27,-5.30085e-03,-1.38219e-02,-1.65106e-02,2.82703e-02,5.64196e-02,0.00000e+00,2.27067e-02,-1.34769e-01,0.00000e+00,0.00000e+00,1.93100e-16,-9.13054e-02,5.61554e-02,-1.67675e-01,-1.28356e-01,0.00000e+00,-2.36248e-01,3.99247e-02,1.09561e-01,-1.18286e-02,-1.86932e-01,-1.25487e-02,7.11147e-02,-1.77038e-11,1.10502e-01,2.30219e-01,7.74966e-14,-1.10856e-03,
-3.05303e-01,-7.71745e-02,1.72688e-01,-1.31554e-02,-5.28755e-02,2.00974e-01,8.41598e-02,2.42552e-01,1.30259e-02,-1.30103e-01,1.68310e-01,1.69904e-01,3.10179e-02,-2.14955e-01,4.53585e-15,-2.38350e-03,-1.17839e-01,2.94567e-26,3.19702e-01,-1.77606e-01,-3.30539e-02,1.27053e-01,-4.00352e-01,4.62745e-02,-1.98403e-01,-2.85151e-01,7.22268e-02,0.00000e+00,-1.49190e-02,-1.34359e-01,1.81372e-01,8.78596e-01,-2.31185e-01,5.81853e-01,-1.59162e-01,-1.10168e-01,9.99963e-02,8.49314e-02,-5.62164e-02,1.85547e-02,1.89232e-01,1.79175e-01,8.22751e-02,-7.05536e-02,-1.54166e-01,3.48047e-01,-1.10190e-01,-9.91934e-02,3.06336e-02,2.34307e-02,
-3.74150e-01,-7.08657e-02,2.24184e-01,-1.14939e-01,1.74453e-01,1.12589e-01,-1.76964e-01,2.31818e-01,-3.64799e-01,-8.66776e-02,1.74984e-01,2.04206e-01,7.56412e-02,2.66576e-01,0.00000e+00,-7.35772e-02,-1.92659e-01,-4.70309e-28,-1.79861e-01,-3.01999e-01,-1.00093e-01,1.76513e-01,-2.19955e-01,-2.59127e-01,-1.08684e-01,-8.26616e-02,1.46683e-01,0.00000e+00,-1.61669e-01,1.69557e-01,-6.96386e-02,7.00620e-01,-2.97039e-01,5.02256e-01,1.21419e-01,-1.58929e-01,3.60291e-02,1.90911e-01,-1.40991e-01,1.64000e-01,5.65823e-02,3.56127e-02,1.88475e-01,1.94938e-01,-3.39357e-01,1.52799e-01,-1.15601e-01,2.17899e-01,-1.35799e-01,-2.57409e-01,
4.46698e-01,3.72070e-01,-7.46375e-02,2.42451e-01,9.25491e-02,-4.01779e-01,-1.27032e-01,-4.80896e-02,8.29545e-02,4.09376e-02,1.92062e-01,-6.32969e-02,2.59233e-02,8.32222e-02,-6.39956e-14,-1.81866e-01,-1.28548e-02,0.00000e+00,2.34155e-01,2.59212e-01,2.51551e-02,-2.49461e-01,3.86788e-01,3.52388e-01,1.64880e-01,1.42605e-01,-1.54115e-01,0.00000e+00,7.94444e-03,3.21523e-02,6.65918e-02,-3.37983e-01,5.02983e-01,-3.69331e-01,2.42858e-01,1.20425e-01,2.64359e-01,-3.25823e-01,-6.57789e-02,2.34631e-01,3.34676e-01,-1.92222e-01,-2.36537e-02,-2.79589e-01,3.03002e-01,-1.38883e-01,2.48163e-01,1.77715e-01,9.80286e-02,4.65438e-02,
1.97934e-01,6.19558e-02,1.24466e-02,-2.53576e-01,-1.72711e-03,9.22577e-02,-2.39957e-01,3.84529e-02,-1.12738e-01,-1.83629e-01,-2.56882e-01,5.47933e-02,-3.12607e-02,1.66294e-01,0.00000e+00,-1.62613e-02,-5.37408e-02,0.00000e+00,-8.00361e-02,-6.75545e-02,-1.48617e-01,-1.91852e-01,1.04475e-01,5.56761e-30,-3.64135e-02,-2.39081e-01,3.81556e-02,0.00000e+00,-1.15308e-01,-2.59614e-02,-1.26183e-01,-1.68421e-01,1.09279e-02,-1.92326e-01,1.08307e-01,4.08885e-02,-1.61440e-01,1.64835e-01,6.61403e-02,-1.52239e-01,-1.50247e-01,1.97340e-01,-1.81571e-01,-5.59000e-02,-1.09199e-01,-1.63786e-01,1.06192e-01,-5.91031e-02,1.24972e-01,2.01607e-01,
3.58497e-01,1.99057e-01,1.02212e-01,2.80635e-01,-1.71804e-01,-8.32931e-02,-1.50632e-01,-1.47777e-01,1.18927e-01,8.79494e-02,9.52352e-02,1.10255e-01,-3.21911e-01,1.07851e-01,-1.92048e-11,1.72212e-01,1.92658e-01,0.00000e+00,3.17460e-01,3.39010e-01,2.58375e-01,-1.68743e-01,4.78917e-01,4.05336e-01,5.32650e-01,-7.58151e-02,-2.76404e-01,-3.06422e-14,1.63270e-01,3.83616e-03,1.94818e-01,-4.73366e-01,4.23536e-01,-3.22790e-02,-1.81407e-01,3.37128e-01,3.01185e-01,-3.04868e-01,-8.37050e-02,6.19292e-02,2.35766e-01,-3.00802e-01,4.26252e-02,-3.07187e-01,-1.55918e-02,-2.73711e-01,1.99033e-01,2.04973e-01,1.61447e-01,2.96183e-01,
4.58619e-04,-1.25686e-02,-1.29101e-02,-3.77069e-02,-9.50947e-02,-5.78676e-02,-3.40009e-03,-3.45033e-02,-1.62616e-02,-3.59736e-02,9.83215e-02,3.72634e-02,-1.23654e-02,-9.74585e-02,0.00000e+00,-7.42450e-02,-1.32229e-01,0.00000e+00,-2.95842e-03,-2.26822e-02,6.11022e-02,-9.99734e-03,1.37779e-04,3.75719e-03,-1.29266e-03,1.00563e-01,-1.24934e-02,0.00000e+00,-8.76499e-03,-3.17487e-02,-2.74761e-02,-1.11117e-30,-9.37140e-03,3.12741e-02,-1.97865e-02,9.03250e-04,8.87191e-02,7.95372e-02,-5.46651e-02,-1.00679e-02,1.87677e-03,-4.16288e-03,-1.98061e-02,1.04044e-01,2.27511e-02,-1.20716e-02,1.63742e-02,-1.50848e-02,-5.11543e-02,-1.13078e-01,
4.10621e-02,-2.24990e-01,-1.25750e-01,-2.32873e-02,-9.61386e-02,3.54545e-01,1.33967e-01,7.46712e-02,2.47917e-01,-1.35067e-01,-6.97854e-02,2.80688e-01,1.20449e-02,-7.17882e-02,0.00000e+00,-3.28848e-02,-1.32277e-01,1.63124e-14,1.38175e-01,-3.31208e-01,-5.20430e-02,2.62499e-01,-6.05063e-01,-2.41351e-01,-1.88169e-01,-1.01502e-01,3.67658e-01,0.00000e+00,-2.06376e-01,2.28596e-01,-2.13433e-02,6.41222e-01,-2.92116e-01,3.76852e-01,-2.10124e-01,-2.25136e-01,-2.99668e-01,2.86148e-01,-1.25342e-01,1.97593e-01,-1.03236e-01,2.50914e-01,2.87618e-01,-1.30316e-01,-1.11068e-01,4.03341e-01,-1.05509e-01,-1.51083e-01,-2.99656e-01,-1.00101e-01,
-1.29442e-01,-1.46550e-01,8.46769e-02,-2.34073e-01,1.76184e-01,1.87399e-02,1.62102e-01,-9.20781e-03,1.47732e-01,-1.62984e-01,-4.31889e-02,-3.65962e-02,-1.00736e-01,5.91245e-02,0.00000e+00,-1.47759e-01,1.44692e-01,1.51307e-29,7.57552e-02,1.55788e-01,-2.69988e-01,4.10334e-02,8.09626e-03,1.68765e-01,-2.37511e-11,1.75786e-01,-7.64684e-02,0.00000e+00,-1.09613e-02,-2.68752e-01,9.97282e-02,4.85161e-04,-1.52035e-01,1.72413e-01,1.41321e-01,9.48535e-02,-3.65722e-02,-7.96583e-02,2.27451e-01,-3.99616e-02,-8.59528e-02,-2.07301e-01,4.20709e-03,-1.93074e-01,9.94955e-02,-5.49501e-02,3.12056e-02,-1.48730e-01,-3.26255e-03,3.07959e-02,
-2.32986e-01,-2.09483e-01,-1.92961e-01,1.08999e-01,1.52242e-01,-2.38543e-01,-8.27349e-02,-2.36657e-02,-1.87195e-01,-3.35367e-02,-2.35649e-01,3.82489e-02,2.21150e-01,-2.70814e-02,1.15530e-30,-1.26595e-01,2.27441e-01,2.56260e-20,-9.99400e-02,9.90718e-02,-2.32441e-01,3.31371e-02,-3.26385e-01,1.74892e-01,5.14269e-02,-2.54679e-01,1.91947e-01,0.00000e+00,2.23290e-01,7.73705e-02,-1.16635e-01,-3.83894e-02,-1.65145e-01,4.82506e-02,2.03271e-01,-5.40292e-02,7.62981e-02,-2.31625e-01,-2.47806e-01,-1.83838e-01,-2.27600e-01,-2.15224e-01,-1.50935e-01,2.39919e-01,1.03867e-01,0.00000e+00,-8.14137e-02,-1.13625e-01,-1.16985e-01,-1.36034e-02,
4.44832e-01,8.38057e-02,1.98643e-02,5.29839e-02,-7.41343e-02,-1.90265e-01,-3.37268e-02,5.35577e-02,3.05885e-01,8.36288e-03,3.33135e-02,-1.73399e-01,-3.78693e-02,1.90982e-02,0.00000e+00,6.96234e-02,2.68097e-02,0.00000e+00,3.60052e-01,2.74305e-01,-1.18307e-01,-1.97494e-02,3.26186e-01,3.05744e-01,4.96539e-01,1.93051e-01,-2.37096e-01,0.00000e+00,2.25011e-01,-6.95420e-03,2.77376e-01,-6.05829e-01,4.67106e-01,-4.73042e-01,-2.37212e-02,1.34636e-01,1.33533e-01,-1.45190e-01,-1.03465e-01,-5.50186e-03,1.85713e-02,1.28082e-01,1.04024e-03,4.56798e-02,3.05389e-01,-5.89197e-01,-1.12957e-01,-1.54383e-02,9.80384e-02,3.11612e-01,
4.18243e-01,2.70646e-01,1.48308e-02,1.45601e-02,3.38175e-02,-6.39965e-01,6.61695e-02,-1.92748e-02,4.66635e-01,1.34235e-01,3.19617e-01,1.14231e-02,-1.87092e-01,-1.54231e-01,-9.08383e-26,-3.05221e-02,3.28891e-01,-2.27882e-20,5.85889e-01,4.30488e-01,-2.95980e-02,-3.02420e-01,2.20072e-01,6.41822e-01,5.84459e-01,4.79447e-01,-1.63941e-01,0.00000e+00,3.51754e-01,-4.79383e-02,1.87133e-01,-6.38699e-01,3.78658e-01,-3.40259e-01,8.53297e-02,-3.07630e-02,7.12344e-02,-5.63393e-01,-3.06765e-02,-1.41437e-01,6.36853e-02,1.80454e-01,4.35474e-02,4.17310e-04,3.60028e-01,-2.23471e-01,9.70649e-02,-2.98031e-01,2.77549e-01,9.53470e-02,
1.14978e-01,3.03913e-01,-1.18567e-02,1.72455e-01,1.13954e-01,-8.06938e-02,2.10132e-01,-4.56696e-02,-4.48286e-02,1.90637e-01,-1.49810e-01,-2.24765e-01,-1.20787e-01,9.24168e-02,0.00000e+00,-1.19974e-02,-2.29917e-01,5.69775e-28,2.81268e-01,4.23082e-01,-1.84275e-01,-2.27718e-02,4.67303e-01,3.27575e-01,5.32430e-01,2.96576e-01,-1.83350e-01,-1.72890e-12,2.56147e-01,1.05801e-01,-1.16116e-02,2.61241e-02,2.41651e-01,-2.24949e-01,-1.59480e-01,2.45419e-01,-6.34256e-03,-3.14963e-01,-4.50621e-02,-1.73783e-01,1.98898e-01,-1.38814e-01,1.75524e-01,-2.94758e-01,2.14730e-01,-5.35569e-02,-2.02610e-01,3.45647e-02,2.48590e-01,4.59348e-01,
-1.45983e-01,5.39027e-02,5.55455e-02,-2.65124e-02,-1.02395e-01,4.31931e-02,-1.29580e-01,1.90402e-01,-2.74833e-01,8.00531e-02,1.49489e-01,2.51940e-02,1.16253e-01,2.49015e-01,-1.85322e-27,-6.61641e-02,-1.72969e-01,-1.77251e-22,-2.54502e-01,-3.46597e-01,-7.97680e-03,-4.10733e-02,-1.66284e-01,4.01233e-02,-4.36975e-01,7.74568e-02,2.84198e-01,-1.30739e-25,-5.14434e-02,1.74144e-01,-3.11191e-01,4.79884e-01,-4.63937e-01,8.74463e-02,1.85464e-01,2.54664e-02,-2.50855e-01,2.84838e-01,-1.50658e-01,1.62439e-01,1.24609e-01,2.04083e-01,1.02834e-01,3.08473e-01,-1.21883e-01,4.34990e-01,5.15300e-02,-1.30897e-01,1.75450e-01,-2.17415e-01,
2.74932e-01,-7.71783e-03,3.25980e-02,1.43834e-01,2.23799e-01,-1.17595e-01,1.72969e-01,-2.91249e-01,2.35697e-01,-8.47416e-02,4.94834e-02,1.22074e-01,-2.08324e-01,1.41171e-01,-4.96591e-18,-1.40896e-01,5.20775e-03,0.00000e+00,-6.93762e-02,-5.14450e-02,2.12373e-01,7.17207e-02,4.10834e-01,-2.04077e-02,1.71329e-01,-2.81241e-01,-4.74029e-01,0.00000e+00,2.91125e-01,-9.14107e-02,1.70279e-02,-5.49124e-01,4.30801e-01,-9.35824e-02,-7.35531e-02,2.57303e-01,4.82984e-02,-2.70775e-01,1.86133e-01,2.40593e-01,1.82664e-01,-2.11300e-03,1.90684e-02,-2.23645e-01,3.61996e-01,-2.65527e-01,1.65715e-01,1.14851e-01,1.58665e-01,3.90999e-01,
-1.28014e-01,5.62020e-02,-2.19530e-01,-1.48501e-01,1.36926e-01,9.52496e-03,5.45332e-02,5.82719e-02,-1.79874e-01,-2.42200e-01,1.45725e-01,1.95931e-01,-3.88931e-02,2.11487e-01,2.02421e-19,-3.93478e-02,-1.85949e-01,0.00000e+00,-1.91514e-01,0.00000e+00,-1.15805e-01,-1.09956e-02,-4.90949e-12,-1.56901e-02,-5.42523e-27,2.16191e-01,-1.50299e-01,-5.09924e-14,7.16030e-02,-2.49548e-01,-8.00182e-02,-4.71887e-02,0.00000e+00,7.93954e-02,-1.02538e-01,-1.09753e-01,-6.08112e-02,1.84026e-01,1.80533e-01,-8.68808e-04,1.74582e-02,4.78843e-02,1.03436e-01,-1.51152e-01,2.05307e-02,-1.18904e-02,5.03730e-02,1.27716e-03,-1.36383e-01,8.03943e-02,
2.00828e-01,1.59534e-01,2.48095e-01,2.25032e-01,-1.03229e-01,-3.49815e-01,2.88028e-02,-6.34500e-03,2.33233e-01,-3.30359e-02,5.41327e-02,-3.45767e-01,-9.50028e-03,-2.17928e-01,0.00000e+00,-5.43340e-02,1.81631e-01,0.00000e+00,8.14647e-02,4.95696e-01,-1.65531e-01,-8.43610e-02,3.89899e-01,1.06439e-01,5.02868e-01,3.47041e-01,-2.78867e-01,-3.62496e-15,1.91565e-01,2.20903e-01,1.32750e-01,-4.57637e-01,1.89698e-01,-3.70729e-01,1.61135e-01,2.92237e-01,2.80909e-01,-5.12590e-01,-1.35930e-01,-2.80738e-01,1.50168e-01,1.28297e-01,2.66467e-01,-1.59588e-01,2.06680e-01,-3.10083e-01,-7.98327e-02,-1.54763e-01,-8.08856e-02,7.47261e-02,
-4.33118e-01,-4.07355e-01,1.96011e-01,1.15343e-01,1.55575e-01,2.46552e-02,-2.24396e-01,-8.21057e-02,-3.99335e-01,1.88548e-01,2.49765e-01,-4.16945e-02,-5.70504e-02,1.36654e-01,0.00000e+00,2.20688e-01,-2.35733e-02,-1.95197e-23,-8.54255e-02,-3.21627e-02,-1.96069e-01,8.69883e-02,-1.72831e-01,-1.26169e-01,-3.91925e-01,2.70903e-02,7.91460e-03,-1.46412e-15,-9.89988e-02,2.18811e-01,-3.04296e-02,4.04193e-01,-2.49977e-01,2.34611e-01,1.80220e-01,4.24190e-02,-3.44352e-01,3.89277e-01,-1.46226e-01,1.91755e-01,-2.48730e-01,9.69222e-02,-2.26867e-01,3.14254e-02,-3.99112e-01,2.38592e-01,5.60344e-02,2.32281e-01,-1.16196e-01,-4.06152e-02,
4.01625e-01,2.35049e-01,2.55062e-01,2.48553e-01,1.51167e-02,-2.69039e-01,-5.89695e-02,-1.50676e-01,-8.11008e-03,-7.49826e-02,2.62333e-01,-2.64957e-01,5.81080e-02,-7.92244e-02,-1.25869e-24,1.88073e-01,2.02061e-02,0.00000e+00,1.81992e-01,2.79927e-01,1.70685e-01,1.65703e-01,1.68073e-01,1.15703e-02,5.26702e-01,-1.16579e-01,-2.35300e-01,3.11974e-17,2.88814e-01,1.51517e-02,4.08301e-01,-7.67460e-01,3.90141e-01,-1.81821e-01,9.33193e-02,2.44082e-02,1.65111e-01,-2.47036e-01,1.24037e-01,3.55959e-02,2.68074e-01,-2.32935e-01,-1.80820e-01,-1.84380e-01,4.68375e-01,-2.81636e-01,1.83386e-01,2.56790e-02,1.84325e-01,2.72404e-01,
3.38902e-01,1.40476e-01,-2.62333e-01,4.47791e-01,-1.00928e-01,-2.58445e-01,-5.59316e-02,-5.98137e-02,-1.36234e-01,1.29446e-01,-3.64722e-01,4.03279e-02,-2.87140e-01,2.31964e-01,-1.85776e-16,6.99998e-02,-3.57209e-01,0.00000e+00,-2.24025e-01,-4.24048e-02,2.15677e-01,4.39920e-02,3.34145e-01,-3.40962e-02,3.13816e-01,-2.20647e-01,-2.07228e-01,1.03889e-30,6.63573e-02,-7.72496e-02,1.83955e-01,-5.84404e-01,4.55299e-01,-6.60723e-01,-2.41452e-01,1.21064e-03,4.92543e-01,1.45647e-01,1.88694e-01,1.45689e-01,1.21641e-01,1.93680e-01,-1.80949e-01,-1.33590e-01,-1.54961e-01,-3.95258e-01,2.13648e-01,2.34805e-02,-2.23794e-01,4.72038e-01,
-2.02198e-01,-1.90015e-01,5.26889e-02,-2.12708e-01,-1.79797e-01,2.48527e-01,2.27093e-01,2.96620e-01,-1.86301e-01,1.13746e-01,2.85722e-01,2.96650e-01,2.30981e-01,-1.99627e-01,-3.53727e-25,1.16733e-01,-9.54943e-02,0.00000e+00,-3.21164e-01,-3.09269e-01,1.84547e-01,-5.61228e-02,-2.90038e-01,-2.28196e-02,-3.08035e-01,1.80989e-01,2.18601e-01,1.24517e-15,-9.74356e-02,2.96506e-02,-3.41452e-01,6.10287e-01,-3.51506e-01,2.84758e-01,-9.69830e-02,-1.34974e-01,-1.19724e-01,2.46311e-01,2.11083e-02,-1.38267e-01,7.68211e-02,5.35908e-02,2.80162e-01,-1.31783e-02,-4.45118e-01,3.24088e-01,-1.63170e-01,2.34840e-01,9.26999e-02,-2.21730e-01,
-2.25565e-01,-8.80131e-03,-6.11082e-02,-1.41096e-01,1.30643e-01,5.18079e-01,1.02207e-01,1.33983e-01,-1.12783e-01,2.77277e-01,-5.94933e-02,3.63453e-01,2.71473e-01,4.73221e-04,0.00000e+00,-1.22801e-01,1.61977e-01,7.28657e-27,-1.08796e-01,-2.58943e-01,-2.22169e-01,2.46085e-01,-3.80711e-02,2.93231e-02,-4.72187e-01,-2.44705e-01,-2.86734e-02,0.00000e+00,-1.22261e-01,8.91500e-02,-3.85181e-01,4.68777e-01,-2.91596e-01,5.05137e-01,-6.81993e-02,-6.87534e-02,-3.45470e-01,3.62086e-01,7.48254e-02,3.89883e-02,-4.06440e-02,1.69877e-01,2.79808e-02,9.98211e-02,-2.28449e-01,2.94363e-01,-9.28140e-02,6.04064e-02,-1.86709e-01,-4.60145e-01,
-1.85350e-01,-1.88719e-01,-2.73223e-02,9.24136e-02,2.58771e-01,1.04124e-01,-1.02896e-01,-7.75317e-02,-2.25901e-01,7.52668e-02,1.71140e-01,5.57994e-02,-7.82757e-03,-1.69274e-01,0.00000e+00,2.46026e-01,-1.79090e-01,0.00000e+00,-1.27430e-01,-2.31594e-01,-7.12151e-02,5.03394e-03,-3.16452e-01,-2.93837e-01,-2.18170e-01,-1.09203e-01,4.04935e-01,0.00000e+00,-2.16061e-02,2.42415e-01,-1.31500e-01,4.19246e-01,-1.97593e-01,2.69640e-01,9.50718e-02,-3.56904e-01,8.16618e-02,4.05132e-01,9.30394e-02,-3.48768e-02,5.53946e-02,1.40518e-01,-1.69804e-01,5.34766e-02,-1.56291e-01,4.77908e-01,1.08173e-01,5.61702e-02,-1.72436e-01,-4.20852e-01,
1.30706e-01,-1.56474e-01,1.68515e-01,-3.75494e-02,1.65257e-01,1.66970e-01,1.88803e-01,5.36246e-02,2.68772e-02,-3.39819e-04,2.78738e-01,1.58693e-01,3.14948e-01,-1.51349e-01,-2.17627e-27,6.33752e-02,-1.46593e-01,0.00000e+00,4.40902e-02,-3.75996e-01,2.32406e-01,2.65600e-01,-6.25222e-01,-1.58447e-01,-4.23602e-01,-1.07766e-01,2.36396e-01,-6.91011e-30,-3.28748e-01,-6.53766e-02,-1.01006e-01,4.89711e-01,-1.72107e-01,3.03725e-01,1.12761e-01,-2.26947e-02,-3.34101e-01,2.11407e-01,2.78756e-01,-1.71381e-01,-7.78370e-04,-5.11381e-02,-5.89777e-02,-1.72709e-01,-9.64802e-02,2.86889e-01,1.28107e-01,-4.60290e-02,-4.03275e-02,-3.08140e-01,
-1.52033e-01,-3.50158e-01,2.08941e-01,-1.45527e-01,-4.67258e-02,3.52228e-01,6.92595e-02,1.90181e-01,-1.74702e-01,3.35728e-01,-9.15616e-02,3.91796e-01,3.20021e-01,-1.78904e-01,4.21365e-12,-1.60976e-02,3.92133e-02,0.00000e+00,-1.18652e-01,-3.30665e-01,-1.93726e-01,1.30631e-01,-3.31881e-01,-2.00185e-01,-3.47898e-01,-7.76116e-02,1.93508e-01,0.00000e+00,-8.16970e-02,-1.11183e-01,-2.73016e-01,8.22930e-01,-1.92819e-01,3.10969e-01,3.67314e-02,-2.72910e-01,1.11608e-01,7.84106e-02,1.85306e-01,2.31253e-01,-3.98384e-02,2.75470e-01,1.84976e-01,-1.07767e-01,-1.69475e-01,4.17935e-01,1.59197e-01,-1.93208e-01,2.02703e-02,-1.03165e-01,
-2.44997e-01,-6.67787e-02,2.36783e-01,-9.05799e-02,-1.21547e-01,4.89072e-01,-2.46968e-01,-1.56599e-02,1.34570e-01,3.00862e-01,1.51234e-01,3.44148e-01,-1.11642e-01,-1.51204e-01,0.00000e+00,-3.24755e-01,-1.18205e-01,0.00000e+00,-3.10168e-01,-5.37151e-01,1.95091e-02,2.68532e-01,-3.54023e-01,-4.75605e-02,-1.76586e-01,1.76801e-01,1.81373e-01,-9.65604e-18,3.44650e-02,1.29266e-01,1.14870e-01,3.98102e-01,-2.09445e-01,4.12140e-01,-3.15554e-01,-9.77364e-02,-4.01075e-01,7.96437e-02,-2.33578e-01,1.22653e-01,1.38642e-02,2.16539e-01,-1.20430e-01,2.03402e-02,-3.24808e-01,4.18268e-01,2.11111e-01,-9.58278e-02,2.23703e-01,-1.53062e-01,
-1.16922e-01,1.85388e-02,-1.88875e-01,-2.20522e-01,-1.86589e-01,1.46285e-01,-2.33635e-01,-1.27331e-01,-1.87419e-01,1.90642e-01,-1.16034e-01,2.14345e-01,1.65248e-02,1.15813e-01,8.48241e-22,-2.60302e-02,2.13524e-01,0.00000e+00,-1.64492e-01,-7.69944e-03,-1.21143e-01,-2.34240e-01,-1.73574e-01,-1.33078e-01,6.50637e-02,7.73479e-02,-8.43728e-02,1.71619e-16,1.91411e-01,-2.13322e-01,1.16929e-11,0.00000e+00,1.28045e-02,-1.08176e-02,1.08145e-01,8.16612e-02,-1.15840e-01,1.04583e-02,-1.29470e-01,1.89395e-01,5.79849e-18,-3.92791e-15,2.80622e-02,0.00000e+00,9.81794e-02,0.00000e+00,-2.23135e-01,-1.34977e-01,-2.58099e-02,-4.54015e-02,
1.00904e-01,-3.62597e-02,-9.09964e-02,-2.51292e-02,1.36314e-01,2.70120e-20,-2.07442e-01,2.21198e-01,-2.07345e-02,-1.79222e-01,5.78675e-02,-2.60891e-02,-1.72496e-01,-6.86931e-07,-8.71225e-14,-3.54411e-02,-1.92742e-01,3.10010e-27,5.39016e-02,2.88878e-17,-1.15659e-02,-1.31787e-01,-1.55999e-01,0.00000e+00,0.00000e+00,-1.40741e-01,0.00000e+00,-3.10520e-15,-3.64299e-02,-1.77496e-01,-2.32916e-02,7.27502e-02,0.00000e+00,-2.43197e-01,-9.63168e-02,-1.68602e-01,-1.24083e-02,-6.91512e-02,9.01695e-03,-2.20507e-01,5.08523e-02,1.12532e-01,-1.16272e-01,-4.31465e-02,-9.14962e-03,0.00000e+00,1.39678e-01,1.26282e-01,-1.34401e-22,-2.87052e-12,
-2.92036e-02,1.41900e-04,7.98742e-02,2.11996e-02,8.08943e-02,4.38358e-01,1.45157e-01,1.85488e-01,-1.79029e-01,-4.29194e-02,2.35832e-01,3.98128e-01,-5.31798e-02,-1.52548e-01,-4.29229e-14,-1.55254e-01,1.51849e-01,0.00000e+00,-1.87926e-01,-1.17322e-01,4.29576e-02,3.12165e-01,-6.42152e-02,-8.83192e-02,-2.58063e-01,-1.78875e-01,3.31683e-01,3.64688e-21,-1.95251e-01,1.96182e-01,-3.55779e-01,4.65190e-01,-9.61989e-02,5.33149e-01,-1.01929e-01,5.24268e-02,-3.54141e-01,2.69316e-01,2.72008e-01,2.72351e-01,-9.70007e-02,2.52421e-01,2.10474e-01,-1.27611e-01,-4.49024e-01,1.68959e-01,8.99012e-02,-2.71552e-02,-2.61872e-01,-2.37561e-01,
6.83750e-02,2.97880e-01,-1.18408e-01,1.06516e-01,-1.29500e-01,-4.48470e-01,9.74719e-02,1.37529e-02,1.93439e-01,-1.05413e-01,1.67902e-01,-8.21809e-02,6.06334e-02,2.76026e-02,2.30549e-11,2.46027e-01,1.42912e-01,6.40725e-27,3.98706e-01,2.47623e-01,6.55045e-02,-2.14324e-01,4.08074e-01,2.51349e-01,3.86177e-01,2.88180e-01,-1.48408e-02,-2.72864e-11,3.42686e-01,-9.83494e-03,4.05859e-01,-7.31072e-01,4.34033e-01,-2.66522e-01,1.48244e-01,3.94305e-02,-1.44070e-02,-2.55846e-01,-2.73916e-01,4.51489e-02,3.27455e-02,7.52886e-02,1.39154e-01,-7.93821e-02,3.80713e-01,-1.41788e-01,-9.87954e-02,-9.42075e-02,-3.96458e-02,3.53147e-01,
2.78954e-01,1.37030e-01,6.75511e-02,-7.53372e-02,-1.36079e-01,-4.63367e-01,-4.90312e-02,2.61613e-01,2.96645e-01,-1.72672e-01,-5.23352e-02,-2.07840e-01,-6.33533e-03,5.26541e-02,0.00000e+00,6.37475e-02,2.61025e-01,-2.35404e-15,6.59406e-01,1.68925e-01,1.66462e-01,-3.43410e-01,3.59862e-01,3.49011e-01,2.73855e-01,3.59136e-01,-1.68648e-01,2.34718e-11,3.18969e-02,-1.83730e-02,3.75073e-01,-5.95839e-01,6.84578e-01,-2.03417e-01,3.42857e-01,-1.26116e-01,7.49137e-03,-9.47086e-02,-3.26204e-01,-1.78568e-01,1.11303e-01,2.24376e-01,1.96332e-01,1.13666e-01,4.79362e-01,-2.56817e-01,-1.96350e-01,-2.78196e-01,4.31307e-01,3.00443e-01,
-4.61078e-02,0.00000e+00,-1.61823e-01,-8.52338e-02,-1.75799e-01,0.00000e+00,-1.52133e-02,-1.46796e-01,6.82690e-26,4.88507e-02,1.52064e-01,-6.04919e-02,-1.21479e-01,-1.96830e-01,0.00000e+00,-2.60021e-02,-2.36615e-01,0.00000e+00,1.45841e-01,-1.38457e-01,-6.44961e-30,-6.58981e-02,-4.59547e-02,6.05758e-02,-4.34703e-03,-5.82011e-02,-1.82627e-02,0.00000e+00,1.48155e-01,3.63315e-02,-1.27797e-25,-3.12340e-20,-1.64779e-02,-2.66066e-18,-3.04905e-02,1.24956e-01,-5.87934e-02,5.30027e-13,-1.11960e-01,-3.20252e-02,0.00000e+00,-4.85697e-02,9.57059e-02,-2.16805e-02,4.50800e-04,5.24733e-27,-2.04640e-01,1.81216e-01,-1.07005e-01,-1.70331e-02,
3.29343e-01,1.78654e-01,1.08891e-01,1.70073e-01,1.39887e-01,-1.32905e-01,5.23667e-02,-1.28884e-01,2.79272e-03,-7.75974e-02,1.60999e-01,-2.77209e-01,-1.51522e-01,1.47154e-01,0.00000e+00,2.23422e-01,1.92560e-01,0.00000e+00,1.33841e-01,3.15143e-01,8.95103e-02,2.94963e-02,2.94139e-01,1.60671e-01,4.34424e-01,-1.69776e-01,-1.52087e-01,1.45979e-22,5.53729e-03,1.81982e-01,8.89359e-02,-6.82441e-01,4.40754e-01,-3.39967e-01,-1.08592e-02,3.39765e-01,-7.26678e-03,-2.58215e-01,-2.42170e-01,-1.21126e-01,1.05080e-01,6.54053e-02,1.65597e-01,-3.48619e-03,3.93671e-01,-3.14305e-01,-4.97252e-02,2.12155e-01,-1.24322e-01,1.86403e-03,
-1.32573e-01,-3.97646e-01,6.63989e-02,-2.30436e-01,-1.61425e-01,3.46430e-01,1.82695e-01,2.21876e-02,-3.17840e-02,2.45361e-01,2.30839e-01,3.65169e-01,1.48718e-01,-5.87519e-02,0.00000e+00,-2.39522e-01,1.34668e-01,0.00000e+00,-2.34759e-01,-1.82254e-01,-2.13990e-01,1.85956e-01,-2.54421e-01,-1.11269e-01,-2.17577e-01,-7.77407e-04,-4.46356e-02,3.57975e-24,-3.99205e-01,2.08141e-01,1.83928e-03,6.90635e-01,-1.50820e-01,3.96799e-01,-9.56222e-02,-2.10010e-02,-1.26091e-02,2.57258e-01,9.34129e-02,1.71399e-01,-3.38022e-01,5.90716e-02,1.77938e-01,1.05721e-01,-3.81125e-02,3.84958e-01,1.47832e-01,6.63655e-02,-2.74116e-01,-1.82355e-01,
-1.05752e-01,-3.28898e-01,-1.71473e-01,1.38523e-01,2.66847e-01,2.46925e-01,1.36113e-01,1.91057e-02,-2.90674e-01,-3.17626e-02,2.60216e-01,4.04429e-01,4.70455e-02,-7.82559e-02,-4.67125e-28,-2.14919e-01,1.78415e-01,2.97445e-29,-1.10232e-01,-4.62967e-01,1.71387e-01,1.19328e-01,-2.83166e-01,-2.34489e-01,-4.54918e-01,-2.07832e-01,2.62165e-01,-7.01017e-17,-8.26005e-02,2.34376e-01,-2.20088e-01,3.61215e-01,-3.34773e-01,3.07835e-01,1.62291e-03,-2.73873e-01,-3.24876e-01,2.11438e-01,2.22046e-01,6.77681e-02,-1.29846e-01,1.27218e-01,2.58276e-01,1.50129e-01,-3.97026e-02,4.06960e-01,-1.38064e-01,3.52168e-02,-1.00850e-01,-1.98808e-01,
2.39589e-01,-1.76219e-02,2.11002e-01,1.95300e-01,6.26454e-02,-4.11540e-01,2.52226e-02,-1.88711e-02,4.37927e-01,-5.82624e-03,6.98936e-02,-2.55870e-01,1.46806e-01,-8.80246e-02,3.00270e-14,-2.01888e-01,2.48265e-01,-5.20827e-16,2.10665e-01,4.26651e-01,-2.27390e-01,-2.10671e-01,1.61055e-01,4.63130e-01,2.51007e-01,2.03290e-01,-2.94067e-01,0.00000e+00,3.16439e-01,1.24179e-02,4.20821e-01,-6.61879e-01,6.43149e-01,-4.55782e-01,1.88137e-01,8.81375e-02,2.49297e-01,-2.93016e-01,-1.76356e-01,6.35240e-02,9.12727e-02,1.71670e-01,-1.19657e-01,-4.91444e-02,4.95307e-01,-1.90246e-01,-8.39385e-02,-1.73906e-01,4.65048e-01,4.35784e-01,
-2.04956e-01,-1.54312e-01,-2.17529e-01,-1.65894e-01,-1.32247e-01,1.52619e-02,2.14794e-02,1.06928e-01,-9.33629e-02,-7.95162e-02,1.37286e-01,-7.71901e-02,-1.86835e-01,1.87735e-01,2.61647e-24,-2.47014e-01,2.12522e-01,-1.53329e-22,1.09020e-01,1.42559e-01,-2.38095e-01,2.31212e-01,6.30108e-02,-9.31682e-02,-5.82533e-02,9.51218e-02,7.27928e-02,0.00000e+00,1.97170e-01,-2.30768e-03,1.93456e-01,-9.97603e-02,-7.47258e-02,2.18268e-01,-1.30784e-01,1.62507e-03,1.36194e-01,-1.40368e-01,-1.08246e-01,3.65596e-02,-8.31849e-02,-1.17050e-01,-2.36775e-01,1.67147e-01,-1.29305e-01,1.34918e-04,-3.42818e-02,-1.05167e-01,4.89409e-02,1.68442e-01,
0.00000e+00,
0.00000e+00,
6.61263e-02,
6.38161e-02,
-6.57449e-03,
4.02910e-02,
9.97093e-02,
-1.53528e-02,
7.27694e-03,
6.26023e-02,
1.27456e-02,
5.26142e-02,
5.71557e-02,
1.97103e-03,
3.53327e-02,
3.83581e-02,
6.18078e-02,
-2.15516e-02,
5.55845e-02,
-1.47197e-02,
3.54550e-02,
-3.11612e-02,
-3.49805e-02,
5.61258e-02,
8.28972e-02,
8.18123e-02,
4.18036e-03,
4.18565e-02,
-8.39944e-03,
6.30296e-02,
-7.72895e-03,
7.72826e-02,
6.53837e-02,
1.45603e-02,
3.47013e-02,
5.75388e-03,
4.62299e-02,
3.83231e-02,
4.19532e-02,
-4.80933e-03,
-3.58832e-03,
-6.99538e-03,
6.15722e-02,
5.61201e-02,
-1.51184e-02,
4.59436e-02,
-8.37951e-03,
1.64388e-02,
6.75327e-02,
-1.84304e-02,
9.95332e-09,0.00000e+00,4.32498e-01,3.83379e-01,-4.56647e-01,4.78974e-01,2.78804e-01,5.66993e-02,-4.25661e-01,3.45286e-01,-3.40517e-01,-7.29247e-01,4.59010e-01,-1.99954e-01,-9.08983e-01,-5.04578e-01,4.47659e-01,1.40435e-01,4.69786e-01,-4.90424e-02,-4.09543e-01,-1.48485e-01,-1.21085e-01,4.29380e-01,4.22080e-01,5.05984e-01,-3.16938e-01,4.30339e-01,9.68832e-02,5.93165e-01,-1.79383e-01,5.48921e-01,6.03339e-01,-5.97708e-01,-2.82214e-01,-2.14300e-01,-4.29769e-01,-2.21136e-01,-5.61032e-01,-6.46205e-02,1.97480e-01,-3.98267e-01,6.20314e-01,8.66474e-01,-2.82249e-02,3.14032e-01,-2.83615e-01,-5.49667e-01,7.23013e-01,-1.49793e-01,
2.96847e-02,
