// Neural Network File Format by Kyle Julian, Stanford 2016
2,13,1,50,
13,50,1,
0,
0,0,0,0,0,0,0,0,0,0,0,0,0,
1,1,1,1,1,1,1,1,1,1,1,1,1,
0,0,0,0,0,0,0,0,0,0,0,0,0,0,
1,1,1,1,1,1,1,1,1,1,1,1,1,1,
-2.91312e-03,6.20429e-02,-7.87746e-01,2.18911e-01,7.65152e-02,4.21885e-01,-2.73206e-01,3.67149e-02,3.12519e-01,1.99192e-01,3.71780e-02,3.06731e-01,-6.59376e-02,
1.48046e-01,-3.65646e-01,1.08458e-02,1.12365e-02,-1.84407e-01,-2.36569e-02,3.85202e-02,4.09296e-01,1.12073e-01,-4.53823e-01,2.78287e-01,-3.83438e-01,1.68327e-01,
9.54311e-02,1.42724e-01,-7.13425e-02,2.22880e-01,1.70557e-01,7.90151e-02,-2.06811e-01,-1.98054e-01,2.39732e-01,4.05480e-01,-2.46416e-01,-4.18705e-02,3.90035e-01,
-1.71720e-01,-2.91754e-02,4.05144e-01,-7.13889e-02,1.21564e-01,3.19743e-02,8.74895e-02,4.84103e-01,-1.78115e-01,1.20265e-02,8.33565e-02,-1.11271e-01,-1.00825e-01,
-5.32354e-02,2.02526e-01,-1.64832e-01,2.66094e-01,2.49605e-01,1.55328e-01,-2.66992e-01,6.59326e-03,3.11645e-01,3.20097e-02,-1.29842e-02,1.02806e-01,1.01332e-01,
1.07971e-01,-1.40722e-01,-3.31575e-01,1.70664e-01,-7.86808e-02,3.45059e-01,-4.53517e-01,-2.23131e-01,1.24426e-01,2.10850e-01,-2.50324e-01,3.31597e-01,2.57456e-01,
-3.59596e-02,2.14803e-01,-1.27759e-01,1.49081e-01,3.52830e-02,1.83332e-01,-6.35060e-02,-3.45127e-02,7.15326e-02,1.77771e-01,1.09902e-01,2.05887e-01,-4.56426e-01,
-2.88532e-37,-8.32375e-23,-7.83364e-17,-3.82489e-11,2.32243e-32,3.04826e-19,-2.31609e-30,-5.60269e-11,-5.61726e-13,-3.67995e-11,-5.07558e-39,-3.36205e-11,-1.29703e-16,
6.78646e-02,9.00500e-02,-4.64171e-02,1.25328e-01,5.14086e-02,-1.30467e-02,-1.86782e-02,-9.13337e-02,-7.65617e-02,1.85067e-01,1.21900e-02,3.53196e-02,1.26595e-01,
-1.76346e-01,-2.64391e-01,2.16281e-01,-6.72727e-02,-1.21458e-01,-1.70789e-01,-3.89938e-01,1.09740e-01,2.78203e-01,-1.36561e-01,-2.31829e-01,-4.89993e-02,4.28478e-04,
-2.21536e-01,1.52891e-01,1.10613e-01,-6.50700e-02,2.09589e-01,8.40311e-02,2.90133e-01,3.45813e-01,7.50010e-02,1.01486e-02,1.18010e-01,5.97147e-02,-7.11409e-02,
1.16953e-01,-1.85141e-01,4.63036e-01,-1.55279e-01,-3.75117e-02,-1.45640e-02,3.59408e-01,6.12000e-02,-2.20531e-01,-5.42952e-02,3.89512e-01,-2.60341e-01,1.40911e-01,
-8.86695e-02,-3.79681e-02,-6.33042e-01,4.00816e-01,1.84258e-01,1.08699e-01,-2.75875e-01,-3.71963e-03,2.93375e-01,9.28246e-02,-1.97707e-01,1.21119e-01,4.20470e-01,
2.91526e-01,1.41470e-01,-1.13357e-01,3.50595e-01,2.11220e-01,1.97683e-01,-1.66288e-02,3.99737e-02,1.87508e-01,4.72738e-01,-1.79526e-01,1.93574e-03,3.61111e-01,
-1.15777e-01,2.78482e-01,8.62277e-02,-2.57251e-01,-1.57082e-01,3.64599e-01,6.37540e-02,3.88468e-01,-3.40389e-02,-5.18603e-01,-2.53233e-01,1.11785e-01,-5.01587e-02,
2.72265e-02,1.04051e-01,-6.50460e-02,3.82474e-01,1.64586e-01,-1.49077e-01,-1.62476e-01,-2.59504e-01,2.58915e-01,4.16275e-01,1.61820e-02,1.47384e-01,1.36932e-01,
-2.88332e-01,-6.60228e-02,1.84874e-01,1.58949e-01,-6.09839e-03,1.62989e-01,2.93930e-01,1.99171e-01,1.36828e-01,-2.52752e-01,1.29643e-01,1.68284e-02,-1.88361e-01,
-1.34500e-23,-1.97890e-18,1.46868e-17,9.18717e-38,-2.00590e-28,-2.45809e-17,-1.11756e-24,-1.20274e-11,2.44025e-18,-2.77398e-12,-5.83406e-12,1.94358e-35,-6.02495e-11,
9.08320e-02,3.34817e-01,-4.13094e-02,3.71735e-01,-1.59655e-01,-2.19774e-01,1.34493e-01,-1.48861e-01,1.58165e-01,4.31881e-01,-2.74290e-01,3.97378e-01,3.27071e-01,
1.28783e-01,-2.38585e-01,3.40160e-01,5.20098e-02,1.14968e-01,4.51056e-02,1.62634e-01,3.29912e-01,-1.82012e-01,-3.77193e-01,9.87714e-02,-1.74183e-01,-1.60899e-01,
3.00197e-01,1.58794e-01,2.06834e-02,2.86376e-01,1.47965e-01,-1.38992e-01,-1.74864e-01,-1.94851e-01,7.67810e-02,4.47071e-01,-1.98588e-01,3.03879e-01,1.16289e-01,
1.02828e-01,-1.39466e-01,3.82497e-01,-1.20216e-01,-3.18553e-02,1.66850e-01,3.72289e-02,2.54353e-01,-2.30137e-02,-2.02874e-01,3.56033e-01,-2.05802e-01,-2.11389e-01,
1.80363e-01,-3.51573e-01,-7.83772e-02,-8.19972e-02,2.82517e-01,-3.76602e-01,1.51660e-01,2.55037e-01,3.29692e-01,-1.11910e-01,1.10704e-01,-4.59490e-01,-2.66335e-01,
4.24207e-01,3.06819e-01,-3.03573e-01,1.54576e-01,2.08745e-01,1.30101e-01,-4.74909e-02,-2.46815e-01,-1.62423e-01,2.06647e-01,-2.48124e-01,4.30381e-03,3.55406e-01,
1.27308e-01,-4.72299e-02,3.47134e-01,-5.94249e-02,-9.23341e-02,-6.00983e-02,8.76920e-02,4.94284e-02,-1.72224e-01,-2.26487e-01,-4.17186e-02,1.24186e-01,-1.36469e-01,
-1.53188e-39,-9.10409e-27,7.89050e-39,1.40581e-32,-1.02267e-14,-4.14242e-39,1.26263e-28,-1.65238e-38,4.12709e-29,-3.46333e-18,-1.60499e-15,2.61765e-32,-3.94605e-21,
1.67815e-01,-2.54978e-01,4.75206e-01,1.16703e-01,-2.39609e-01,-2.33104e-01,-7.77066e-02,4.42661e-01,1.78151e-01,-8.13052e-02,2.34722e-01,-1.13935e-01,-2.68526e-01,
7.98550e-02,-2.82486e-01,4.93712e-02,2.32827e-01,-7.97601e-02,-3.80639e-02,1.07733e-01,4.78798e-01,4.50615e-02,-2.57532e-01,3.76301e-01,-2.91744e-01,-7.10447e-02,
1.80898e-01,-3.95587e-02,4.55253e-01,1.50462e-01,-1.59336e-01,-9.56531e-02,-9.81347e-02,4.69474e-01,-1.52452e-01,-7.93401e-02,3.92073e-01,-8.80200e-02,4.18490e-02,
8.09833e-04,2.33138e-01,-4.11635e-01,3.65325e-01,-1.61616e-01,1.76743e-02,8.36385e-02,-1.19955e-01,-6.10785e-02,3.91486e-01,1.09865e-01,3.74181e-01,4.10016e-01,
1.70066e-01,-4.51286e-02,4.76543e-01,1.35889e-01,-1.07344e-01,-1.87319e-01,1.18590e-01,2.03772e-01,-1.12635e-01,-4.18505e-02,1.04886e-01,3.17926e-02,1.62306e-01,
-2.05149e-01,-2.25298e-01,3.98821e-01,-1.60216e-01,1.80051e-01,2.97016e-01,2.77628e-02,4.03442e-01,-7.30172e-03,-2.84447e-01,3.83833e-01,6.32383e-02,-9.53999e-02,
2.82387e-01,7.22710e-02,-3.13742e-01,3.32319e-01,1.55697e-01,-1.72692e-01,-2.00947e-01,-1.55716e-01,7.22713e-02,5.47940e-01,-2.93928e-01,2.81621e-01,3.26343e-01,
3.79233e-01,1.62878e-01,3.20752e-03,-5.56339e-02,-7.76992e-02,4.73442e-02,1.55009e-01,-1.66215e-01,3.09270e-01,2.25572e-02,6.63726e-02,3.51424e-01,2.56622e-01,
7.10050e-02,-2.46302e-01,4.04113e-02,-5.92557e-02,3.28496e-02,2.47033e-01,3.32738e-01,3.37405e-01,-5.98010e-02,-8.28863e-02,-3.25016e-02,-3.67091e-01,-8.80016e-02,
-1.36318e-03,8.21724e-03,1.71714e-01,1.94646e-01,-2.85628e-02,-1.92152e-01,3.60180e-01,3.47521e-01,-2.38117e-01,4.47376e-02,2.58937e-01,2.25948e-04,-1.16422e-01,
1.39282e-01,1.92912e-01,-2.14601e-01,4.14827e-02,2.21152e-01,1.49438e-02,-3.94748e-02,-2.42394e-01,3.12266e-01,2.49213e-01,-2.28404e-01,4.50093e-01,3.83485e-01,
-2.82593e-01,-1.15765e-01,5.55114e-02,1.84230e-01,2.44911e-01,-7.16762e-02,3.52968e-02,-6.68540e-03,-1.10009e-01,5.64232e-02,3.05388e-01,-3.54406e-01,1.31276e-01,
1.23348e-01,7.19363e-02,1.32076e-01,5.85393e-02,-1.12359e-01,1.27444e-01,8.40547e-02,-2.14388e-01,-2.97090e-02,2.22542e-01,1.28123e-02,3.14691e-01,-2.18586e-01,
-1.22544e-01,-2.34083e-01,4.77047e-01,-3.19036e-02,-9.99391e-02,2.55015e-02,1.18444e-01,2.55862e-01,1.75410e-01,-1.75504e-01,2.83734e-04,6.02003e-02,1.81857e-01,
-5.21711e-03,-9.76882e-03,-8.13233e-03,-4.77400e-03,-2.39982e-04,-1.10114e-05,2.54625e-10,-4.21382e-03,-3.27860e-04,-2.62767e-03,-2.28865e-04,-5.14977e-03,-8.81361e-03,
-1.41412e-01,4.43780e-02,4.64351e-01,-2.51417e-01,-5.65873e-02,2.75277e-01,4.25019e-03,4.99205e-01,2.66034e-02,-3.18275e-01,5.17256e-02,-2.61996e-01,-1.58861e-01,
-1.82972e-01,-9.67463e-02,3.48718e-01,-9.20017e-03,-2.95161e-02,2.68181e-01,3.43490e-01,1.44646e-01,-2.02015e-01,-5.30700e-01,8.51079e-02,9.10072e-02,2.77634e-02,
8.71592e-02,1.90947e-01,1.05020e-01,3.49227e-01,2.75005e-01,-4.79473e-02,1.50593e-01,-2.00285e-01,2.03317e-01,4.76982e-01,-2.32942e-01,4.21102e-01,-2.98423e-02,
-2.16912e-01,-1.52361e-01,1.58431e-01,-1.84063e-01,-1.47180e-01,6.17139e-02,-1.02574e-01,-1.89908e-01,5.21582e-02,-9.36999e-02,1.53982e-01,-1.14169e-01,-1.13703e-01,
-1.03598e-01,9.12751e-02,-4.59380e-01,3.46100e-01,-1.20719e-01,4.12264e-02,1.17208e-01,-1.33137e-01,3.46587e-01,4.93099e-01,-3.13484e-01,1.91963e-01,-6.20340e-02,
1.48845e-01,8.04315e-02,-1.64251e-01,4.36127e-01,1.82941e-01,-1.05561e-01,8.57887e-02,-3.11278e-01,1.43558e-01,7.33080e-02,-3.61207e-02,3.80163e-01,3.90206e-01,
4.18794e-01,2.99214e-01,-2.97478e-01,3.64255e-01,2.66799e-01,-8.40079e-02,-2.85874e-02,-4.27896e-02,2.57103e-01,9.02755e-02,3.55224e-03,3.51351e-01,2.20882e-01,
2.74928e-01,3.23209e-01,3.26546e-02,3.61542e-01,1.89970e-01,1.03487e-01,-1.81159e-01,-3.42991e-01,7.85327e-02,6.21405e-02,-2.29407e-01,3.03974e-01,3.89164e-01,
2.53927e-01,-1.29142e-01,1.99746e-01,1.38574e-01,2.74351e-02,-1.55341e-03,1.98671e-01,2.21328e-02,-1.19263e-01,-2.57548e-01,2.63982e-01,-3.17038e-01,-1.51188e-01,
7.70378e-02,
3.20570e-01,
1.17562e-01,
6.91613e-02,
1.36600e-01,
-4.30784e-02,
-1.69426e-01,
-6.38044e-39,
-4.05000e-02,
1.29146e-01,
1.52764e-01,
2.49768e-01,
8.02511e-02,
-2.97909e-01,
-5.75804e-02,
7.96899e-02,
2.97623e-01,
-1.70660e-16,
-1.57048e-01,
3.17713e-01,
6.41465e-02,
3.05345e-01,
3.18805e-01,
9.92679e-02,
3.23318e-01,
7.04249e-27,
2.17780e-01,
1.14725e-01,
-2.99910e-02,
-7.06763e-02,
5.12762e-02,
2.79960e-01,
1.18566e-01,
-2.07135e-01,
4.38372e-01,
1.39813e-01,
1.30764e-01,
2.79621e-01,
1.59303e-01,
1.81575e-01,
-1.02646e-02,
3.88932e-01,
2.91359e-01,
-3.88705e-03,
1.01475e-01,
1.45308e-01,
-1.00826e-01,
-2.58137e-01,
-2.57168e-02,
1.40694e-01,
-4.92114e-01,2.27303e-01,-2.75028e-01,2.09234e-01,-1.28344e-01,-1.10476e+00,-6.24396e-01,2.28558e-38,-1.26729e-01,3.30242e-01,1.26673e-01,1.68765e-01,-3.84469e-01,-3.13861e-01,4.12184e-01,-2.95703e-01,2.68219e-01,1.50829e-35,-3.44993e-01,3.11583e-01,-2.64076e-01,2.00955e-01,4.20301e-01,-3.06800e-01,6.19115e-02,-5.49742e-35,2.17594e-01,3.90428e-01,1.00606e-01,-3.05580e-01,4.82935e-02,4.43358e-01,-2.67654e-01,-2.80295e-01,2.59847e-01,1.82846e-01,-2.67039e-01,2.01803e-01,-1.45541e-02,4.00273e-01,8.40740e-12,4.30616e-01,2.76370e-01,-2.30150e-01,-2.65795e-02,-3.51214e-01,-4.31095e-01,-2.95040e-01,-2.23500e-01,2.63504e-01,
3.30945e-03,
