// Neural Network File Format by Kyle Julian, Stanford 2016
10,784,10,784,
784,50,50,50,50,50,50,50,50,50,10,
0,
0,0,0,0,0,0,0,0,0,0,0,0,0,0,0,0,0,0,0,0,0,0,0,0,0,0,0,0,0,0,0,0,0,0,0,0,0,0,0,0,0,0,0,0,0,0,0,0,0,0,0,0,0,0,0,0,0,0,0,0,0,0,0,0,0,0,0,0,0,0,0,0,0,0,0,0,0,0,0,0,0,0,0,0,0,0,0,0,0,0,0,0,0,0,0,0,0,0,0,0,0,0,0,0,0,0,0,0,0,0,0,0,0,0,0,0,0,0,0,0,0,0,0,0,0,0,0,0,0,0,0,0,0,0,0,0,0,0,0,0,0,0,0,0,0,0,0,0,0,0,0,0,0,0,0,0,0,0,0,0,0,0,0,0,0,0,0,0,0,0,0,0,0,0,0,0,0,0,0,0,0,0,0,0,0,0,0,0,0,0,0,0,0,0,0,0,0,0,0,0,0,0,0,0,0,0,0,0,0,0,0,0,0,0,0,0,0,0,0,0,0,0,0,0,0,0,0,0,0,0,0,0,0,0,0,0,0,0,0,0,0,0,0,0,0,0,0,0,0,0,0,0,0,0,0,0,0,0,0,0,0,0,0,0,0,0,0,0,0,0,0,0,0,0,0,0,0,0,0,0,0,0,0,0,0,0,0,0,0,0,0,0,0,0,0,0,0,0,0,0,0,0,0,0,0,0,0,0,0,0,0,0,0,0,0,0,0,0,0,0,0,0,0,0,0,0,0,0,0,0,0,0,0,0,0,0,0,0,0,0,0,0,0,0,0,0,0,0,0,0,0,0,0,0,0,0,0,0,0,0,0,0,0,0,0,0,0,0,0,0,0,0,0,0,0,0,0,0,0,0,0,0,0,0,0,0,0,0,0,0,0,0,0,0,0,0,0,0,0,0,0,0,0,0,0,0,0,0,0,0,0,0,0,0,0,0,0,0,0,0,0,0,0,0,0,0,0,0,0,0,0,0,0,0,0,0,0,0,0,0,0,0,0,0,0,0,0,0,0,0,0,0,0,0,0,0,0,0,0,0,0,0,0,0,0,0,0,0,0,0,0,0,0,0,0,0,0,0,0,0,0,0,0,0,0,0,0,0,0,0,0,0,0,0,0,0,0,0,0,0,0,0,0,0,0,0,0,0,0,0,0,0,0,0,0,0,0,0,0,0,0,0,0,0,0,0,0,0,0,0,0,0,0,0,0,0,0,0,0,0,0,0,0,0,0,0,0,0,0,0,0,0,0,0,0,0,0,0,0,0,0,0,0,0,0,0,0,0,0,0,0,0,0,0,0,0,0,0,0,0,0,0,0,0,0,0,0,0,0,0,0,0,0,0,0,0,0,0,0,0,0,0,0,0,0,0,0,0,0,0,0,0,0,0,0,0,0,0,0,0,0,0,0,0,0,0,0,0,0,0,0,0,0,0,0,0,0,0,0,0,0,0,0,0,0,0,0,0,0,0,0,0,0,0,0,0,0,0,0,0,0,0,0,0,0,0,0,0,0,0,0,0,0,0,0,0,0,0,0,0,0,0,0,0,0,0,0,0,0,0,0,0,0,0,0,0,0,0,0,0,0,0,0,0,0,0,0,0,0,0,0,0,0,0,0,0,0,0,0,0,0,0,0,0,0,0,0,0,0,0,0,0,0,0,0,0,0,0,0,0,0,0,0,0,0,0,0,0,0,0,0,0,0,0,0,0,0,0,0,0,0,0,0,0,0,0,0,0,0,0,0,0,0,0,0,0,0,0,0,0,0,0,0,0,
1,1,1,1,1,1,1,1,1,1,1,1,1,1,1,1,1,1,1,1,1,1,1,1,1,1,1,1,1,1,1,1,1,1,1,1,1,1,1,1,1,1,1,1,1,1,1,1,1,1,1,1,1,1,1,1,1,1,1,1,1,1,1,1,1,1,1,1,1,1,1,1,1,1,1,1,1,1,1,1,1,1,1,1,1,1,1,1,1,1,1,1,1,1,1,1,1,1,1,1,1,1,1,1,1,1,1,1,1,1,1,1,1,1,1,1,1,1,1,1,1,1,1,1,1,1,1,1,1,1,1,1,1,1,1,1,1,1,1,1,1,1,1,1,1,1,1,1,1,1,1,1,1,1,1,1,1,1,1,1,1,1,1,1,1,1,1,1,1,1,1,1,1,1,1,1,1,1,1,1,1,1,1,1,1,1,1,1,1,1,1,1,1,1,1,1,1,1,1,1,1,1,1,1,1,1,1,1,1,1,1,1,1,1,1,1,1,1,1,1,1,1,1,1,1,1,1,1,1,1,1,1,1,1,1,1,1,1,1,1,1,1,1,1,1,1,1,1,1,1,1,1,1,1,1,1,1,1,1,1,1,1,1,1,1,1,1,1,1,1,1,1,1,1,1,1,1,1,1,1,1,1,1,1,1,1,1,1,1,1,1,1,1,1,1,1,1,1,1,1,1,1,1,1,1,1,1,1,1,1,1,1,1,1,1,1,1,1,1,1,1,1,1,1,1,1,1,1,1,1,1,1,1,1,1,1,1,1,1,1,1,1,1,1,1,1,1,1,1,1,1,1,1,1,1,1,1,1,1,1,1,1,1,1,1,1,1,1,1,1,1,1,1,1,1,1,1,1,1,1,1,1,1,1,1,1,1,1,1,1,1,1,1,1,1,1,1,1,1,1,1,1,1,1,1,1,1,1,1,1,1,1,1,1,1,1,1,1,1,1,1,1,1,1,1,1,1,1,1,1,1,1,1,1,1,1,1,1,1,1,1,1,1,1,1,1,1,1,1,1,1,1,1,1,1,1,1,1,1,1,1,1,1,1,1,1,1,1,1,1,1,1,1,1,1,1,1,1,1,1,1,1,1,1,1,1,1,1,1,1,1,1,1,1,1,1,1,1,1,1,1,1,1,1,1,1,1,1,1,1,1,1,1,1,1,1,1,1,1,1,1,1,1,1,1,1,1,1,1,1,1,1,1,1,1,1,1,1,1,1,1,1,1,1,1,1,1,1,1,1,1,1,1,1,1,1,1,1,1,1,1,1,1,1,1,1,1,1,1,1,1,1,1,1,1,1,1,1,1,1,1,1,1,1,1,1,1,1,1,1,1,1,1,1,1,1,1,1,1,1,1,1,1,1,1,1,1,1,1,1,1,1,1,1,1,1,1,1,1,1,1,1,1,1,1,1,1,1,1,1,1,1,1,1,1,1,1,1,1,1,1,1,1,1,1,1,1,1,1,1,1,1,1,1,1,1,1,1,1,1,1,1,1,1,1,1,1,1,1,1,1,1,1,1,1,1,1,1,1,1,1,1,1,1,1,1,1,1,1,1,1,1,1,1,1,1,1,1,1,1,1,1,1,1,1,1,1,1,1,1,1,1,1,1,1,1,1,1,1,1,1,1,1,1,1,1,1,1,1,1,1,1,1,1,1,1,1,1,1,1,1,1,1,1,1,1,1,1,1,1,1,1,1,1,1,1,1,1,1,1,1,1,1,1,1,1,1,1,1,1,1,1,1,1,1,1,1,1,1,1,1,1,1,1,
0,0,0,0,0,0,0,0,0,0,0,0,0,0,0,0,0,0,0,0,0,0,0,0,0,0,0,0,0,0,0,0,0,0,0,0,0,0,0,0,0,0,0,0,0,0,0,0,0,0,0,0,0,0,0,0,0,0,0,0,0,0,0,0,0,0,0,0,0,0,0,0,0,0,0,0,0,0,0,0,0,0,0,0,0,0,0,0,0,0,0,0,0,0,0,0,0,0,0,0,0,0,0,0,0,0,0,0,0,0,0,0,0,0,0,0,0,0,0,0,0,0,0,0,0,0,0,0,0,0,0,0,0,0,0,0,0,0,0,0,0,0,0,0,0,0,0,0,0,0,0,0,0,0,0,0,0,0,0,0,0,0,0,0,0,0,0,0,0,0,0,0,0,0,0,0,0,0,0,0,0,0,0,0,0,0,0,0,0,0,0,0,0,0,0,0,0,0,0,0,0,0,0,0,0,0,0,0,0,0,0,0,0,0,0,0,0,0,0,0,0,0,0,0,0,0,0,0,0,0,0,0,0,0,0,0,0,0,0,0,0,0,0,0,0,0,0,0,0,0,0,0,0,0,0,0,0,0,0,0,0,0,0,0,0,0,0,0,0,0,0,0,0,0,0,0,0,0,0,0,0,0,0,0,0,0,0,0,0,0,0,0,0,0,0,0,0,0,0,0,0,0,0,0,0,0,0,0,0,0,0,0,0,0,0,0,0,0,0,0,0,0,0,0,0,0,0,0,0,0,0,0,0,0,0,0,0,0,0,0,0,0,0,0,0,0,0,0,0,0,0,0,0,0,0,0,0,0,0,0,0,0,0,0,0,0,0,0,0,0,0,0,0,0,0,0,0,0,0,0,0,0,0,0,0,0,0,0,0,0,0,0,0,0,0,0,0,0,0,0,0,0,0,0,0,0,0,0,0,0,0,0,0,0,0,0,0,0,0,0,0,0,0,0,0,0,0,0,0,0,0,0,0,0,0,0,0,0,0,0,0,0,0,0,0,0,0,0,0,0,0,0,0,0,0,0,0,0,0,0,0,0,0,0,0,0,0,0,0,0,0,0,0,0,0,0,0,0,0,0,0,0,0,0,0,0,0,0,0,0,0,0,0,0,0,0,0,0,0,0,0,0,0,0,0,0,0,0,0,0,0,0,0,0,0,0,0,0,0,0,0,0,0,0,0,0,0,0,0,0,0,0,0,0,0,0,0,0,0,0,0,0,0,0,0,0,0,0,0,0,0,0,0,0,0,0,0,0,0,0,0,0,0,0,0,0,0,0,0,0,0,0,0,0,0,0,0,0,0,0,0,0,0,0,0,0,0,0,0,0,0,0,0,0,0,0,0,0,0,0,0,0,0,0,0,0,0,0,0,0,0,0,0,0,0,0,0,0,0,0,0,0,0,0,0,0,0,0,0,0,0,0,0,0,0,0,0,0,0,0,0,0,0,0,0,0,0,0,0,0,0,0,0,0,0,0,0,0,0,0,0,0,0,0,0,0,0,0,0,0,0,0,0,0,0,0,0,0,0,0,0,0,0,0,0,0,0,0,0,0,0,0,0,0,0,0,0,0,0,0,0,0,0,0,0,0,0,0,0,0,0,0,0,0,0,0,0,0,0,0,0,0,0,0,0,0,0,0,0,0,0,0,0,0,0,0,0,0,0,0,0,0,0,0,0,0,0,0,0,0,0,0,0,0,0,0,0,0,0,0,0,0,0,0,0,0,0,0,0,0,0,0,0,0,0,0,0,0,0,0,0,0,0,0,0,
1,1,1,1,1,1,1,1,1,1,1,1,1,1,1,1,1,1,1,1,1,1,1,1,1,1,1,1,1,1,1,1,1,1,1,1,1,1,1,1,1,1,1,1,1,1,1,1,1,1,1,1,1,1,1,1,1,1,1,1,1,1,1,1,1,1,1,1,1,1,1,1,1,1,1,1,1,1,1,1,1,1,1,1,1,1,1,1,1,1,1,1,1,1,1,1,1,1,1,1,1,1,1,1,1,1,1,1,1,1,1,1,1,1,1,1,1,1,1,1,1,1,1,1,1,1,1,1,1,1,1,1,1,1,1,1,1,1,1,1,1,1,1,1,1,1,1,1,1,1,1,1,1,1,1,1,1,1,1,1,1,1,1,1,1,1,1,1,1,1,1,1,1,1,1,1,1,1,1,1,1,1,1,1,1,1,1,1,1,1,1,1,1,1,1,1,1,1,1,1,1,1,1,1,1,1,1,1,1,1,1,1,1,1,1,1,1,1,1,1,1,1,1,1,1,1,1,1,1,1,1,1,1,1,1,1,1,1,1,1,1,1,1,1,1,1,1,1,1,1,1,1,1,1,1,1,1,1,1,1,1,1,1,1,1,1,1,1,1,1,1,1,1,1,1,1,1,1,1,1,1,1,1,1,1,1,1,1,1,1,1,1,1,1,1,1,1,1,1,1,1,1,1,1,1,1,1,1,1,1,1,1,1,1,1,1,1,1,1,1,1,1,1,1,1,1,1,1,1,1,1,1,1,1,1,1,1,1,1,1,1,1,1,1,1,1,1,1,1,1,1,1,1,1,1,1,1,1,1,1,1,1,1,1,1,1,1,1,1,1,1,1,1,1,1,1,1,1,1,1,1,1,1,1,1,1,1,1,1,1,1,1,1,1,1,1,1,1,1,1,1,1,1,1,1,1,1,1,1,1,1,1,1,1,1,1,1,1,1,1,1,1,1,1,1,1,1,1,1,1,1,1,1,1,1,1,1,1,1,1,1,1,1,1,1,1,1,1,1,1,1,1,1,1,1,1,1,1,1,1,1,1,1,1,1,1,1,1,1,1,1,1,1,1,1,1,1,1,1,1,1,1,1,1,1,1,1,1,1,1,1,1,1,1,1,1,1,1,1,1,1,1,1,1,1,1,1,1,1,1,1,1,1,1,1,1,1,1,1,1,1,1,1,1,1,1,1,1,1,1,1,1,1,1,1,1,1,1,1,1,1,1,1,1,1,1,1,1,1,1,1,1,1,1,1,1,1,1,1,1,1,1,1,1,1,1,1,1,1,1,1,1,1,1,1,1,1,1,1,1,1,1,1,1,1,1,1,1,1,1,1,1,1,1,1,1,1,1,1,1,1,1,1,1,1,1,1,1,1,1,1,1,1,1,1,1,1,1,1,1,1,1,1,1,1,1,1,1,1,1,1,1,1,1,1,1,1,1,1,1,1,1,1,1,1,1,1,1,1,1,1,1,1,1,1,1,1,1,1,1,1,1,1,1,1,1,1,1,1,1,1,1,1,1,1,1,1,1,1,1,1,1,1,1,1,1,1,1,1,1,1,1,1,1,1,1,1,1,1,1,1,1,1,1,1,1,1,1,1,1,1,1,1,1,1,1,1,1,1,1,1,1,1,1,1,1,1,1,1,1,1,1,1,1,1,1,1,1,1,1,1,1,1,1,1,1,1,1,1,1,1,1,1,1,1,1,1,1,1,1,1,1,1,1,1,1,1,1,1,1,1,1,1,1,1,1,1,1,1,1,1,1,1,1,1,
-1.76157e-02,2.68011e-02,-1.96430e-02,2.14548e-02,1.21941e-02,-9.87044e-03,2.45513e-02,-2.51844e-02,-1.54727e-03,1.68030e-02,2.03833e-02,-3.32562e-02,3.27225e-02,1.92630e-01,2.80223e-01,1.36869e-01,1.11524e-02,1.30990e-02,-1.57350e-02,2.96844e-04,3.10643e-02,-5.07747e-03,-1.63060e-02,-3.29295e-02,2.96356e-02,-9.17952e-03,-2.83694e-02,-2.54038e-02,2.80159e-02,3.41645e-02,1.85548e-02,1.10598e-02,2.82537e-02,-8.26669e-03,2.84026e-02,-1.35719e-03,4.36747e-02,5.15200e-02,2.06904e-01,1.46268e-01,1.28343e-01,-2.63831e-03,-1.05205e-01,-1.17203e-01,1.00398e-01,-2.48101e-03,-6.66672e-02,-5.40409e-02,-7.89167e-02,-1.10850e-01,-1.63105e-02,-1.90568e-03,-2.58182e-03,1.35406e-02,3.20214e-02,-2.87011e-02,-6.75424e-03,1.60304e-03,-3.14017e-02,-2.90481e-02,-2.07246e-01,-2.06473e-01,3.49500e-02,-1.56933e-01,2.30894e-01,2.61799e-01,1.03591e-01,7.43550e-02,1.98889e-02,-3.22900e-02,-3.37584e-02,3.65541e-02,2.19427e-02,8.93616e-02,-9.96621e-02,-2.67518e-01,-6.86127e-02,-2.89310e-02,-2.89870e-01,8.43490e-02,2.36271e-01,-2.19083e-02,1.06508e-02,1.88933e-02,-7.81430e-03,1.13223e-03,2.72412e-01,2.13988e-01,-4.81091e-02,1.21801e-02,2.52910e-01,2.07630e-01,1.78204e-01,1.16862e-01,-3.70676e-02,4.08050e-02,5.19799e-02,1.49592e-02,5.03789e-02,-7.13883e-02,7.60870e-02,2.79374e-02,-1.65553e-02,1.31674e-02,-9.72074e-02,2.63381e-03,1.35414e-01,-1.37528e-01,-2.13945e-01,-2.02881e-01,-1.40967e-01,1.22753e-02,-2.64331e-02,-1.04614e-02,2.20202e-01,-3.74136e-02,-7.39902e-02,1.05315e-01,1.91929e-01,1.79655e-01,7.87400e-02,2.65302e-02,-4.25307e-03,-1.38798e-03,-1.21035e-02,5.25066e-02,2.35220e-02,-5.93571e-02,-3.47994e-02,5.28588e-02,2.90138e-02,2.93688e-02,6.03919e-02,1.95636e-02,5.90882e-02,1.73774e-02,-1.55960e-01,-9.46829e-02,-2.04764e-01,-2.22514e-01,1.68206e-02,-2.29558e-02,3.05855e-01,2.85918e-01,1.85260e-01,5.48420e-02,1.40896e-01,1.16487e-01,-5.26836e-02,-4.92440e-02,1.46880e-02,4.78753e-03,-4.55586e-02,-4.39414e-03,5.66014e-04,1.71898e-02,2.13541e-02,-3.50144e-02,9.00194e-02,-2.82755e-02,4.36197e-02,1.01006e-01,-1.33214e-02,1.18061e-01,-6.52787e-02,-9.28041e-02,-1.41050e-01,-2.05175e-01,1.88472e-02,1.13015e-01,-7.43655e-02,6.38243e-02,5.40548e-02,5.53583e-02,-1.51290e-01,-5.23851e-02,-5.71036e-02,1.93163e-03,-1.42994e-02,-2.51416e-02,-6.88042e-02,3.53735e-02,7.22464e-02,7.84153e-02,4.96290e-02,-2.04202e-02,-1.40926e-02,-9.38098e-03,-3.45910e-02,-5.64916e-02,-1.07214e-02,1.36233e-03,-1.81970e-01,-3.04009e-01,8.11127e-02,-8.38669e-02,-1.01173e-02,2.85506e-01,-4.49465e-02,-8.42180e-02,-6.12358e-02,4.30289e-02,-5.69360e-02,-3.59653e-02,-1.04724e-01,-2.55201e-02,-5.04736e-02,2.69223e-02,7.29134e-03,-3.65858e-02,2.94791e-02,7.71431e-02,3.70992e-03,-3.15077e-02,-6.48676e-02,-8.25923e-03,1.73007e-02,-4.19047e-02,2.86418e-02,-2.41897e-02,-2.20333e-01,-3.83127e-01,6.60112e-02,-8.38262e-02,1.95664e-02,3.11431e-01,-1.10392e-01,5.19625e-02,-8.49885e-02,-4.27052e-02,-7.00139e-03,-1.03771e-02,-2.36812e-02,-3.79720e-02,4.60910e-02,9.56112e-03,2.54796e-02,7.31129e-02,3.93021e-02,1.45009e-02,-2.23875e-02,2.31887e-02,-2.32456e-02,-1.55340e-02,-1.19777e-02,-1.24669e-02,4.76585e-02,2.56175e-02,-3.52376e-01,-2.35528e-01,1.21131e-01,4.46534e-02,9.64714e-03,2.59955e-01,7.08253e-02,1.56228e-01,-9.46322e-02,-3.56542e-02,-9.93096e-02,1.93185e-02,1.05599e-01,6.25388e-02,1.00421e-01,1.17956e-01,1.17046e-01,-3.23576e-02,-5.26211e-02,-8.94072e-02,-7.93377e-02,-2.81778e-02,2.30702e-03,2.54246e-02,-3.67961e-02,6.32686e-02,-1.66353e-03,3.00587e-02,-2.55673e-01,-8.55936e-02,-3.43849e-03,-1.87736e-01,1.35376e-02,2.34475e-01,1.08699e-02,-7.00542e-02,-5.19447e-03,-1.30636e-03,-9.45710e-03,7.59126e-02,2.64996e-01,8.54431e-02,1.18155e-01,3.21866e-03,1.77923e-03,-1.04854e-01,-1.49461e-01,-3.97701e-02,-2.64508e-03,-5.04012e-02,-1.18866e-02,2.55784e-02,1.54268e-02,-3.07093e-02,-3.82256e-02,-1.00024e-01,-1.96223e-01,1.94708e-01,1.25897e-01,-6.85746e-02,5.22923e-02,1.63261e-01,-8.89669e-02,-2.32299e-01,2.24270e-03,-4.84491e-02,7.66943e-02,9.03285e-02,-8.71352e-03,1.81893e-02,-7.23091e-02,-9.97942e-02,-2.11572e-01,-1.32257e-01,-6.70576e-02,5.14950e-02,6.51308e-02,-1.27201e-02,-1.39062e-02,-1.10475e-05,6.88727e-02,-3.40340e-02,-5.61830e-02,2.06182e-02,-4.23344e-02,2.82482e-02,-4.88652e-02,6.00580e-02,6.63123e-02,2.21962e-03,-2.30429e-01,-2.38565e-01,-1.22369e-02,-9.39540e-02,-9.50206e-02,-1.79598e-01,-2.59668e-01,-1.85814e-01,-3.44122e-01,-3.21980e-01,-1.34581e-01,-4.71151e-02,2.94476e-02,5.88963e-02,1.00910e-01,1.45898e-02,3.60304e-04,-4.86782e-02,-4.66852e-02,4.33166e-02,-1.21190e-01,-2.74937e-02,3.14180e-02,3.41425e-02,2.75956e-02,2.21930e-01,1.94067e-01,-7.40838e-04,2.61887e-01,-6.89211e-02,-2.12041e-01,-1.99052e-01,-3.50885e-01,-4.87441e-01,-4.74584e-01,-2.87257e-01,-3.17799e-01,-7.96488e-02,6.60867e-02,5.54004e-02,-8.89729e-03,-2.85824e-03,-3.31147e-03,-2.96615e-02,2.88454e-02,-5.44127e-02,7.06109e-03,3.83506e-02,7.62795e-03,3.13144e-02,-3.80485e-02,1.29416e-02,1.90797e-01,2.62838e-01,-2.55309e-02,4.32534e-02,1.20796e-02,-2.76757e-02,-1.41931e-01,-2.60639e-01,-2.35470e-01,-1.82891e-01,-1.58394e-01,-2.51064e-03,5.59023e-03,9.08283e-02,1.07741e-01,7.77509e-02,7.97813e-02,1.35375e-02,5.82500e-02,-4.86339e-02,-3.87492e-02,-3.11512e-02,-3.78167e-02,1.06103e-01,9.19390e-02,7.19054e-02,-5.55074e-02,1.01050e-01,2.61146e-01,2.09053e-01,1.61655e-02,-4.18687e-02,4.36568e-02,1.13909e-01,-1.43473e-01,-3.92163e-02,-3.14967e-02,-8.00256e-03,8.71850e-02,4.57899e-02,7.15719e-02,1.25312e-01,7.40174e-02,1.02933e-01,4.20894e-02,2.69337e-02,9.36202e-03,-3.86684e-02,-1.06017e-02,-1.29017e-02,1.11569e-03,3.84506e-02,8.71177e-02,7.05381e-02,-1.00434e-01,1.47276e-01,4.66633e-02,2.28646e-01,-1.38187e-02,8.17464e-02,1.66536e-01,4.57382e-02,8.39492e-03,-8.11819e-03,9.29481e-02,9.98513e-02,9.00456e-02,1.03332e-04,8.31200e-02,4.38503e-02,3.37340e-02,1.04908e-01,7.10380e-02,7.49275e-02,1.41431e-02,-1.67130e-02,-2.00504e-02,-2.76845e-02,-5.07849e-02,4.86826e-02,1.46435e-01,5.99138e-02,-2.05591e-02,1.53983e-01,1.16845e-01,3.28386e-01,2.53655e-02,1.39299e-01,2.94015e-01,-1.51939e-01,7.04276e-02,-2.13910e-02,3.29048e-02,7.31703e-02,1.07914e-02,4.82702e-02,6.28694e-02,4.17740e-02,3.24408e-02,8.54593e-02,5.73527e-02,5.61967e-02,-6.48228e-02,-4.83964e-02,-1.01430e-01,-1.56777e-02,-5.02120e-03,-8.70598e-02,1.41842e-03,-7.01840e-02,-1.13523e-01,-3.54032e-02,3.50103e-02,5.69201e-01,6.00552e-02,8.09797e-02,1.76472e-01,-2.47264e-02,1.77120e-02,3.50377e-02,-3.27610e-02,3.32312e-02,-9.48815e-02,-3.74951e-02,2.32959e-02,-2.16913e-02,-6.93985e-03,-6.74018e-03,2.67896e-02,-1.05437e-01,-8.99230e-02,-3.56766e-02,-5.76694e-02,-1.22929e-02,-6.17270e-02,-7.31564e-02,3.31982e-03,-1.93481e-02,2.84082e-02,9.78231e-02,4.75967e-01,3.74592e-01,1.47120e-01,2.69746e-01,2.74790e-02,2.66131e-02,9.82305e-02,3.49876e-02,-1.79956e-02,-2.68785e-02,-5.35409e-02,6.45428e-02,4.24988e-03,4.10027e-02,-1.28050e-01,4.62716e-02,5.68847e-02,-6.34233e-02,4.43530e-03,-4.46898e-02,-2.77422e-02,-9.09140e-02,-7.71749e-02,-8.03944e-02,-8.59038e-02,1.93378e-02,-5.62980e-02,4.67139e-02,1.58810e-01,2.19412e-01,-8.94901e-03,1.33845e-01,2.56666e-02,1.79218e-01,1.50673e-01,1.20075e-02,1.69674e-02,9.83848e-02,4.41323e-02,2.61920e-02,-3.49477e-03,2.27487e-03,-5.16094e-02,-6.99872e-02,3.96620e-02,-3.66178e-02,5.98020e-02,-2.28177e-02,5.48862e-02,-1.11613e-02,4.67646e-02,-3.95907e-02,-1.70256e-01,-3.44506e-02,-3.52182e-02,8.12783e-02,1.67240e-01,-3.26311e-02,1.71033e-01,8.25581e-02,-5.82520e-02,4.23003e-02,-7.91351e-02,1.55645e-02,-1.51725e-02,3.47046e-02,-5.07471e-02,-1.29515e-02,9.26611e-03,-3.79015e-03,-7.10684e-02,-2.56896e-02,-2.97139e-02,9.42897e-03,-1.11243e-02,-9.86166e-03,1.06444e-01,9.12176e-02,-1.86131e-02,1.12330e-01,3.90376e-02,4.82883e-02,1.18703e-01,1.45067e-01,3.03672e-01,-3.21700e-02,1.51933e-01,1.08219e-01,-3.60428e-03,-1.64322e-01,-1.58475e-01,1.12948e-01,6.97846e-03,2.90952e-02,-6.53377e-03,-2.87961e-02,-1.20554e-02,5.25235e-02,-1.96909e-02,-4.95623e-02,4.05491e-03,-1.05987e-02,6.79021e-03,-4.85825e-03,5.64617e-02,6.96471e-02,6.64693e-02,1.83556e-01,1.97795e-01,2.35313e-02,6.14722e-02,-6.30578e-02,1.57130e-01,-1.57007e-04,-1.04811e-03,-3.26827e-02,-2.09512e-01,-1.39130e-01,-1.47268e-01,3.78652e-02,3.46338e-02,-3.14168e-02,5.88452e-03,-3.89395e-02,-2.94804e-02,6.72481e-03,5.68317e-02,-4.11859e-02,-5.42323e-02,-3.61260e-02,2.70374e-02,-5.21796e-02,4.78794e-02,1.33290e-02,2.08611e-02,-1.99948e-02,-7.11516e-02,-9.82474e-02,9.23605e-03,-9.33217e-02,3.07624e-01,-1.75729e-02,3.09868e-02,2.02937e-02,-1.54147e-01,-1.20794e-01,-8.07092e-03,6.06042e-03,-1.68554e-01,-9.45110e-02,1.98561e-02,4.57373e-02,-7.32458e-02,-1.09817e-02,4.91306e-02,-4.00849e-02,1.53642e-02,2.69095e-02,1.51291e-02,7.39860e-02,-6.07401e-02,-2.11045e-02,-7.00050e-02,-5.31828e-02,-7.14843e-02,-1.63056e-01,7.76593e-02,3.60216e-01,1.72658e-01,-3.38553e-02,-6.85662e-03,4.39242e-03,6.11589e-03,1.06267e-01,-7.98167e-02,-6.31395e-02,-1.38598e-01,-1.14964e-01,-5.13939e-02,-1.05172e-01,4.05262e-04,-6.10829e-02,1.03077e-01,-2.65905e-02,-4.76361e-03,-2.59472e-02,-7.09269e-02,-1.62110e-01,-4.22288e-02,-8.79416e-02,-2.66358e-02,7.33705e-02,-1.49704e-01,-5.82433e-02,1.26377e-03,1.71820e-01,2.00324e-01,-3.44941e-02,-5.52028e-03,1.61095e-03,1.39661e-02,3.56533e-02,-2.24246e-01,-2.46914e-01,-2.03401e-01,9.78722e-02,2.09884e-02,9.88924e-02,2.19971e-01,6.10606e-02,1.31875e-01,4.09556e-02,4.08975e-02,5.17974e-02,-3.21057e-02,-1.43585e-01,-1.20794e-03,-3.03727e-02,-1.22688e-02,-2.03941e-01,-2.66164e-01,1.43057e-01,3.56492e-02,-2.62361e-02,-6.94156e-03,-1.20556e-02,-1.22702e-02,-2.33837e-02,1.94369e-02,2.37824e-02,-4.10444e-02,3.58861e-02,1.79804e-01,2.75056e-01,4.35432e-01,5.40318e-01,1.76910e-01,3.96416e-01,8.11340e-01,7.82740e-01,5.74259e-01,4.69800e-01,4.63768e-01,4.08725e-01,7.10486e-02,-9.90118e-02,-1.34848e-01,-1.38838e-01,-2.62295e-02,-1.67664e-02,1.22334e-02,7.95579e-03,-2.93477e-02,1.57257e-02,
-2.88304e-02,2.55820e-02,-2.43009e-03,-2.42435e-02,-8.66486e-03,1.60902e-02,-3.34608e-02,2.92420e-02,-4.22682e-03,1.48744e-02,4.24740e-03,-3.28596e-02,-9.87366e-03,3.24718e-02,-4.27174e-03,1.24393e-02,2.86163e-02,9.20634e-03,2.26946e-03,3.24658e-02,-3.25903e-02,3.25283e-02,1.84435e-02,-3.13739e-02,-1.34282e-02,1.00361e-02,-3.33689e-02,2.93423e-02,1.21734e-02,-3.27776e-02,2.52428e-02,1.74475e-02,3.17731e-02,5.15964e-02,6.63085e-02,9.07855e-02,-4.00490e-03,-1.20288e-03,-4.13997e-03,1.34829e-01,1.56992e-01,1.35407e-01,-3.66921e-02,-1.00147e-01,-1.66207e-01,-1.00502e-01,-9.90679e-02,6.66951e-03,1.84050e-02,-1.06128e-02,2.98204e-02,2.46100e-02,2.09783e-02,-3.51475e-02,-1.05633e-02,-3.98622e-03,-5.32861e-03,-5.44147e-03,4.46151e-02,1.59858e-01,1.68778e-01,7.80772e-03,1.43348e-01,1.37553e-01,-1.51482e-01,-1.85078e-01,-1.71998e-01,-5.85154e-02,9.26368e-02,8.00235e-02,2.25523e-02,4.82591e-02,3.11765e-02,-2.81393e-02,9.39018e-02,6.15534e-02,6.08148e-04,-1.85953e-02,4.94593e-02,1.20600e-02,1.15656e-02,5.76364e-02,-2.60767e-02,-2.25842e-02,3.49470e-02,-2.36912e-02,2.92776e-01,1.87683e-01,-1.12185e-02,-5.32899e-02,-1.61961e-01,-1.32853e-01,1.07067e-01,-1.39204e-01,-1.97847e-01,-3.01921e-01,-6.23421e-02,-8.00615e-02,-1.36505e-01,8.23594e-02,1.35927e-01,9.31730e-02,9.57223e-02,4.56100e-02,3.34345e-02,-1.15388e-01,-6.44663e-02,-6.21901e-02,-5.67624e-02,-2.64422e-02,-9.95382e-02,-3.95277e-03,-2.53519e-03,-3.39616e-02,2.26315e-01,2.14853e-01,-2.49312e-01,-2.62832e-01,-1.82804e-01,-1.50690e-01,-7.27311e-02,3.17367e-02,3.04717e-02,-1.13829e-01,-5.04430e-02,-1.17870e-02,-4.77765e-02,1.70184e-02,-4.12196e-02,5.08637e-02,-1.87621e-02,-6.00805e-02,6.90143e-02,7.54151e-02,4.71492e-02,-6.97109e-02,-2.27802e-02,-6.52963e-03,-2.71334e-02,-8.66114e-02,1.20053e-03,3.05032e-02,2.42201e-01,-1.47939e-01,-3.43737e-01,-1.81784e-01,-1.74528e-01,-4.87115e-02,2.86229e-02,2.09630e-02,-1.80661e-02,-3.77410e-02,-5.66903e-02,7.48649e-03,-1.00528e-01,-1.93647e-02,1.00005e-02,-2.12766e-02,-2.15766e-02,7.27855e-02,1.51308e-01,1.32904e-01,-1.30063e-02,-6.90866e-02,-7.61551e-02,-1.42607e-02,-1.27315e-01,-3.47831e-01,-2.94338e-02,5.78639e-02,8.75861e-02,1.28907e-01,5.61418e-03,-2.17684e-01,-8.77624e-02,-6.34335e-02,-1.11507e-01,-6.68828e-02,-1.47342e-02,-7.34944e-02,2.54020e-02,1.30626e-02,-3.60604e-02,-1.28176e-01,-9.56801e-02,-3.07707e-02,-4.35140e-02,2.09194e-02,7.02169e-02,8.41642e-02,-4.01870e-02,2.56735e-02,5.61226e-02,-5.27678e-02,-9.34200e-03,-2.31855e-02,-3.22790e-02,2.35501e-02,1.85942e-01,4.56610e-02,3.64388e-02,2.23799e-02,-3.54853e-02,3.17316e-02,-9.35662e-02,-6.42228e-02,-7.89262e-02,-4.59369e-02,-1.03860e-01,-5.95792e-02,2.29062e-02,-3.30554e-03,9.37942e-03,3.54981e-02,1.65520e-02,4.27787e-02,1.06717e-01,6.27844e-05,-2.12134e-02,8.25532e-02,-2.07076e-02,-8.14832e-02,-2.40000e-02,4.27183e-02,1.39965e-01,1.80332e-01,-1.49359e-02,9.81283e-02,1.54184e-01,3.56715e-02,4.11310e-02,3.46670e-02,-1.39540e-01,-1.49992e-01,-9.03593e-02,-8.14338e-02,-6.79068e-02,-3.90511e-02,7.54983e-02,5.18503e-02,7.68015e-02,4.45271e-02,4.90643e-02,7.84398e-02,1.23245e-01,4.01469e-02,-4.56251e-02,1.30622e-01,5.74642e-02,-1.04213e-01,-5.36449e-02,9.80228e-02,2.16371e-01,3.67855e-01,7.66664e-02,1.26280e-01,1.78656e-01,1.34681e-01,4.59611e-02,-9.06090e-03,-7.93252e-02,3.61994e-02,2.84741e-02,3.63285e-03,6.68702e-02,1.18876e-01,9.34521e-02,9.74289e-02,1.22828e-02,1.06456e-02,9.61053e-02,5.03221e-02,7.98415e-02,5.02744e-02,8.90944e-02,6.06533e-02,5.58740e-02,1.32715e-01,-3.06520e-02,-6.78877e-02,2.76917e-01,1.87793e-01,1.87799e-01,1.42595e-01,1.49862e-02,8.25941e-02,6.08443e-02,6.73179e-03,7.51375e-02,1.43010e-01,1.31098e-01,1.76057e-01,9.52224e-02,2.06756e-01,1.34143e-01,9.30393e-02,1.06433e-01,2.63362e-02,-2.36047e-02,5.69332e-04,1.08053e-01,-6.15147e-02,2.30783e-02,4.16695e-02,5.73269e-02,6.37474e-02,2.22516e-01,1.01155e-01,2.18055e-01,8.80182e-03,2.30176e-01,1.10732e-01,-7.15016e-03,-5.38766e-02,-2.92415e-02,3.08791e-02,5.47237e-02,1.01429e-01,1.44659e-01,1.48104e-01,5.82718e-02,8.37683e-02,2.51847e-02,4.79383e-02,-2.25356e-02,-1.00253e-01,-6.26489e-03,-5.76073e-02,-1.60571e-02,-1.37041e-01,-3.85258e-03,-4.35670e-03,1.43619e-03,9.25339e-02,1.59938e-01,2.61380e-01,1.12409e-01,5.71638e-01,6.52464e-02,7.84030e-02,-3.33454e-02,-1.61724e-02,7.78756e-02,1.04013e-01,1.17839e-01,1.31615e-01,4.40114e-02,1.40081e-02,-8.11251e-03,-1.59703e-01,-7.09541e-02,-1.03857e-01,-1.48703e-01,-1.46205e-02,6.86426e-02,1.53947e-02,-9.71706e-02,-1.02106e-01,-6.65692e-02,9.98041e-02,2.90740e-03,-5.00982e-03,-1.36890e-01,3.10500e-01,7.00289e-02,2.13329e-01,8.06011e-02,-2.67958e-02,-5.83978e-02,2.12331e-02,7.67132e-02,2.59453e-03,6.35261e-03,5.29907e-02,-2.64094e-02,-1.13731e-01,-1.08595e-01,-7.12897e-02,-4.43491e-02,-1.47025e-01,-1.01807e-01,-4.61141e-02,7.51926e-03,-1.09799e-02,-1.48101e-02,-7.86739e-03,3.49430e-02,6.51681e-02,1.24850e-01,-5.39109e-02,-2.82174e-01,-5.38714e-02,-4.10462e-02,1.63445e-01,3.02752e-01,-4.12323e-02,-3.94743e-02,4.27768e-02,-6.08025e-02,-8.73450e-02,-3.40760e-02,-1.63591e-04,-6.59419e-02,-5.64276e-02,-5.00676e-02,-3.61476e-02,-1.92141e-02,-6.14378e-02,-1.71414e-01,-6.14580e-02,-8.97453e-04,9.38006e-03,-4.00447e-02,6.63901e-02,-2.01386e-02,9.59752e-02,2.05358e-01,1.09070e-03,1.40757e-01,-3.04716e-02,1.49202e-01,-2.02864e-02,4.58477e-02,-1.80483e-01,9.01207e-04,1.09297e-01,-7.45962e-02,-6.72852e-02,-7.78010e-02,-1.24686e-02,-2.58435e-02,-1.08963e-01,1.49421e-02,6.77444e-02,-2.64499e-02,-1.14975e-01,-1.12946e-01,-1.15153e-01,4.67491e-02,-3.19852e-03,1.77206e-02,-1.44641e-02,5.04444e-02,3.92072e-02,1.75611e-01,6.24144e-02,1.41433e-01,2.67976e-01,3.59181e-01,1.71561e-02,4.10390e-02,-9.04262e-02,3.31858e-03,2.10480e-02,-2.62868e-03,-6.10748e-03,-4.56004e-02,1.26851e-02,1.10385e-01,5.87986e-02,7.82218e-02,5.87637e-02,-1.17794e-01,-1.49464e-01,-9.62697e-02,-4.29442e-02,-4.44993e-03,-1.19951e-02,1.00514e-02,-1.20429e-02,1.09971e-01,-6.16757e-02,-4.76620e-02,-4.56584e-02,2.25064e-01,3.37413e-01,6.72348e-03,7.26883e-02,-7.26057e-02,-3.78905e-02,-3.89843e-02,-7.89461e-03,-1.67098e-02,1.61889e-02,-1.58627e-02,8.39305e-03,4.94914e-02,-4.50920e-03,5.60987e-02,4.52580e-03,-1.56439e-01,-1.28546e-01,-3.17010e-02,4.39087e-02,-5.58832e-02,1.03692e-03,3.79127e-03,-9.21390e-03,4.43717e-02,-5.94447e-02,1.10161e-01,5.95788e-02,1.69865e-01,2.82534e-01,3.73247e-01,6.78483e-02,1.03547e-01,-1.61471e-01,-1.10688e-01,-2.51538e-02,4.50629e-03,-1.58249e-02,6.01606e-02,2.86638e-02,5.52907e-02,9.63485e-03,-3.26143e-02,-1.24815e-01,-1.22456e-01,-3.92348e-03,-2.00861e-02,-2.30634e-02,2.49763e-04,3.93126e-02,-9.77621e-03,6.45325e-02,7.55172e-02,-4.37629e-02,1.40797e-01,-6.35941e-02,1.34618e-01,2.99893e-01,8.27746e-02,1.59080e-01,1.92222e-01,-1.44409e-01,4.46465e-04,-5.25300e-02,-4.53995e-02,-7.75623e-02,-1.87100e-02,-1.76103e-02,1.46138e-02,-2.83822e-02,6.94205e-02,5.41911e-03,-6.36325e-02,-4.99406e-02,-2.99966e-02,-1.08460e-02,4.38718e-02,4.38337e-02,-4.69685e-02,4.68658e-02,4.51863e-02,-4.16787e-02,7.77882e-02,2.48322e-02,1.83722e-01,9.76708e-02,-7.74498e-03,-8.48593e-02,-1.59103e-02,-1.50880e-02,-3.61711e-03,-1.06821e-02,6.20773e-02,4.94551e-02,3.62145e-02,2.25934e-02,3.11273e-02,-4.21957e-02,1.01559e-01,6.11771e-02,9.70370e-03,-7.85712e-02,-8.70595e-02,3.65208e-04,5.08009e-04,-3.18019e-02,-1.42651e-01,2.01493e-02,6.05655e-02,5.34951e-03,-9.51385e-02,1.46491e-01,2.22627e-01,1.23887e-01,1.07710e-01,-2.98098e-02,1.75127e-02,-2.79745e-02,1.01976e-01,7.57709e-02,1.08671e-01,4.11134e-02,1.61941e-02,4.05119e-02,-2.44246e-02,-5.80544e-02,3.67384e-02,8.52318e-02,7.01570e-02,1.42947e-02,-2.94770e-04,3.36751e-02,2.21873e-02,-3.17751e-02,-1.75952e-01,-1.65289e-01,3.42489e-02,-8.88613e-02,-9.80932e-02,2.28901e-02,2.63334e-01,1.19811e-01,1.02835e-01,2.05232e-02,1.73318e-01,-1.53132e-02,8.73919e-02,1.68297e-01,1.19220e-01,-1.10827e-01,-2.46695e-02,3.05153e-02,-6.86571e-02,-3.79359e-02,6.01201e-02,1.01780e-01,8.21272e-02,8.44170e-02,3.63481e-02,4.76269e-02,4.90020e-02,6.40495e-02,-3.61380e-02,-8.76500e-02,-6.98708e-02,-1.81355e-01,-6.93481e-02,2.18068e-01,1.84132e-01,1.25317e-01,9.96737e-03,-2.67159e-02,5.32419e-02,9.09809e-02,8.83794e-02,1.22310e-01,8.84616e-02,-3.79761e-02,-1.27981e-01,-4.30610e-02,6.05404e-02,1.60714e-02,1.69755e-03,-1.58937e-02,-4.69165e-02,-1.85195e-02,4.66058e-02,7.98971e-02,-1.89464e-02,-1.47880e-04,-1.07695e-01,-3.10065e-02,-1.05350e-01,-2.24772e-02,5.73253e-03,4.71593e-02,2.93382e-01,2.15515e-03,-1.43803e-02,3.82830e-03,-4.66179e-02,9.77842e-02,5.29030e-02,2.09160e-02,-4.18632e-02,-1.00016e-01,-3.85370e-02,5.42668e-02,5.92723e-02,3.46256e-02,-1.46417e-02,9.22255e-03,3.94501e-02,-2.53886e-02,-2.97190e-02,3.44062e-02,-3.49377e-02,2.07333e-03,-4.18402e-03,4.13521e-02,-3.01769e-02,-3.37913e-02,6.08891e-02,1.36275e-01,1.55211e-01,1.25705e-03,-5.12829e-03,-1.55540e-02,-5.83257e-02,2.67380e-02,-1.59844e-01,-1.21860e-01,-7.15258e-02,5.96747e-02,-2.71779e-02,-5.47147e-02,-7.85479e-02,-1.23484e-02,7.96303e-02,1.59199e-01,7.04635e-02,1.07022e-02,8.94078e-02,1.72371e-01,4.85818e-02,1.46090e-01,1.73178e-01,1.24195e-01,8.54084e-02,-3.81730e-02,1.32607e-02,-4.53053e-02,4.04932e-02,2.45447e-02,1.38775e-02,1.78324e-02,3.27237e-02,-1.65383e-02,-9.03024e-02,-6.64925e-02,-3.81688e-02,9.79405e-02,1.37358e-01,9.52990e-02,2.26446e-01,2.14934e-01,5.59126e-02,3.18095e-02,9.96810e-02,4.38970e-02,2.06948e-01,1.76112e-01,7.47918e-02,1.19502e-01,5.38845e-03,1.81537e-01,-1.03274e-03,8.19752e-02,-1.62533e-01,1.80178e-01,-3.39349e-02,2.97624e-03,3.01802e-02,-2.57674e-02,6.02188e-03,2.02497e-03,2.57657e-01,3.37066e-01,2.08479e-01,1.91910e-02,-9.11254e-03,-4.83122e-02,2.70226e-01,1.49369e-01,1.05229e-01,1.90653e-01,1.45713e-01,-9.49694e-05,-6.13867e-02,4.78665e-03,-5.16330e-02,7.64647e-02,-1.47174e-01,1.36532e-01,1.65618e-01,4.30362e-01,-2.91681e-02,-1.55986e-02,-1.22135e-03,2.35192e-02,
-2.75678e-02,2.90167e-02,3.35990e-02,7.66047e-03,1.48035e-02,3.10621e-04,-2.03924e-02,1.53552e-02,-4.58741e-03,-7.23367e-03,9.56137e-03,-3.33147e-02,3.68617e-02,4.35773e-02,-1.23627e-02,-2.64079e-02,2.44038e-02,-2.10030e-02,3.26411e-02,-1.09222e-02,-2.33489e-02,-2.01204e-02,-1.37261e-02,-8.94778e-03,1.00206e-02,-3.04580e-02,-2.73489e-02,1.07747e-02,-3.37872e-02,-2.93516e-02,2.10700e-02,4.10398e-03,5.79053e-02,3.69561e-02,-1.05700e-02,-2.61962e-03,8.28727e-02,9.15599e-02,9.00749e-02,1.30278e-01,1.42775e-01,3.04505e-01,1.32826e-01,1.51803e-01,1.14083e-01,1.16559e-01,3.84565e-01,3.54371e-01,3.01842e-01,2.68525e-01,2.00589e-01,1.30529e-01,-3.74467e-03,-7.46303e-03,3.11783e-02,4.56884e-03,-2.66143e-02,2.00347e-02,1.23321e-01,4.26340e-03,4.00345e-02,8.14595e-02,1.80602e-03,1.09536e-01,1.22059e-01,8.28297e-02,9.99555e-02,1.28579e-01,2.04858e-01,3.69146e-03,-1.12314e-01,7.74570e-02,2.73294e-01,3.76150e-01,2.53113e-01,2.34412e-01,6.93167e-02,5.41214e-02,1.35810e-01,-1.56846e-02,9.17685e-02,-2.25108e-02,-3.18477e-02,-2.36887e-02,2.43369e-02,-6.40220e-03,-2.98142e-02,-2.34558e-02,1.86732e-01,8.43807e-02,8.13209e-03,-3.62698e-02,-1.63926e-02,2.35505e-02,1.54538e-02,-8.97794e-02,-3.06546e-02,-2.05748e-01,-1.03710e-01,-2.97298e-02,8.60190e-03,5.39938e-02,1.75745e-01,8.93191e-02,-3.99365e-02,1.23859e-01,-5.26615e-02,-1.07657e-02,-4.18851e-02,-2.55689e-01,-8.74794e-02,-3.15987e-02,1.00696e-03,1.52488e-02,-3.70724e-02,-3.22941e-02,1.04402e-02,3.50653e-02,2.49967e-02,-1.80706e-01,-6.68449e-02,1.24027e-01,1.30254e-02,-1.99710e-02,4.03276e-02,7.64416e-04,3.26033e-02,4.59289e-02,1.47966e-01,1.04094e-01,9.33679e-02,7.30482e-02,5.66055e-02,9.31457e-02,-1.32945e-01,-9.60257e-03,3.41125e-02,-1.26815e-01,-9.92285e-02,1.60854e-01,-1.23167e-03,3.42213e-02,7.28985e-02,4.50858e-02,-1.68141e-01,3.47177e-02,-5.64129e-02,-7.93833e-02,2.02829e-02,2.17899e-02,-8.61931e-02,-7.02487e-02,-1.36235e-01,-7.58679e-02,2.26057e-02,2.71943e-03,1.57325e-03,1.31195e-02,7.56112e-02,-1.68888e-02,-5.59570e-02,-1.94881e-02,-1.26551e-01,1.56865e-02,1.12500e-01,2.78868e-02,1.04025e-01,1.44009e-01,-9.95180e-04,2.89599e-02,1.30393e-01,-4.56752e-02,-2.28310e-01,-8.05950e-02,-2.42616e-02,6.98654e-02,3.88884e-02,-9.77733e-02,-1.38214e-01,5.94091e-02,-1.87788e-02,-6.80495e-02,-1.25451e-03,4.69062e-02,7.05292e-02,1.48265e-02,1.25955e-02,9.95112e-03,-9.32851e-02,-7.85870e-02,-9.44862e-03,7.13685e-02,1.24451e-01,-2.30363e-02,1.38573e-01,2.70373e-02,-2.36756e-02,1.41390e-01,-5.01697e-03,1.23806e-02,-2.86722e-01,-2.29729e-01,-1.81000e-01,-7.91323e-02,3.36009e-02,1.34265e-01,2.59139e-02,6.46171e-02,1.52179e-02,8.98297e-03,1.57851e-01,7.94455e-02,1.08863e-01,6.16934e-02,-2.88445e-02,-4.63855e-02,-7.14659e-02,-5.32828e-02,4.82309e-02,1.12264e-01,1.48791e-02,1.71533e-02,1.85942e-01,8.80921e-02,-5.32962e-03,2.45169e-01,-1.45868e-01,-4.22282e-02,-2.12025e-01,-2.25956e-01,-1.74448e-01,3.83774e-03,9.71139e-03,1.02633e-02,-2.17224e-02,-1.22394e-02,-4.50436e-02,-4.46940e-02,4.71729e-02,3.50548e-03,-4.68545e-03,-4.72656e-02,-4.53577e-02,-6.77916e-02,-6.68824e-02,3.84969e-02,5.88774e-02,5.12073e-02,1.20902e-01,9.12175e-02,8.38295e-02,-3.03445e-01,4.07713e-02,2.92350e-01,-5.70908e-02,6.29922e-02,-1.20723e-01,-1.15377e-01,-1.86847e-01,-6.63616e-02,4.38979e-03,1.50012e-02,-3.37727e-02,-2.36631e-02,-9.22350e-02,-8.45354e-02,7.23493e-02,1.54886e-02,-6.81140e-02,-1.51856e-01,-3.84323e-02,-6.92782e-02,-9.55441e-02,-5.46737e-02,-1.79908e-02,-7.17757e-02,1.95944e-01,2.18670e-01,7.51584e-02,1.88678e-01,1.48323e-02,2.33247e-01,1.44767e-01,-2.84986e-02,-8.52398e-04,-6.51170e-02,-1.06950e-01,-1.17131e-01,-7.03295e-03,6.24239e-02,-7.66522e-02,5.74872e-02,2.70262e-02,4.66301e-02,2.39986e-02,1.10161e-03,-4.81687e-02,-8.28916e-02,-7.39340e-02,-8.78870e-02,-4.80178e-02,-7.44487e-02,-2.13343e-01,-9.06736e-02,-4.78449e-02,2.02522e-01,2.32694e-02,1.56408e-01,3.79390e-02,-1.58419e-02,5.26292e-02,-9.93367e-02,8.90930e-02,1.20166e-01,-1.03420e-01,-2.29928e-02,1.83005e-02,4.39818e-02,-2.88921e-02,4.96408e-02,7.45197e-02,2.67229e-02,7.14512e-02,4.58977e-02,-5.12523e-02,1.33624e-02,-5.63356e-03,3.14052e-02,2.25403e-02,-1.60232e-01,-1.35642e-01,-9.97648e-02,-8.03571e-02,2.00387e-02,3.95951e-02,1.32947e-01,-1.06945e-03,3.75376e-01,-1.26538e-01,-7.36545e-02,5.99045e-02,-4.39565e-02,-1.67254e-01,-1.28011e-02,-3.50967e-02,1.93274e-02,3.31845e-02,5.26572e-02,2.57185e-03,3.41181e-02,1.11487e-03,4.08707e-03,-2.79659e-02,1.60011e-02,-1.01644e-02,-9.01756e-03,8.11974e-02,-1.73633e-02,-7.39280e-02,6.22386e-02,-6.40664e-02,-1.32560e-01,-3.16467e-02,1.42172e-01,-3.27566e-02,2.07249e-01,-3.55432e-01,1.08834e-01,1.22177e-01,4.32763e-02,-1.53258e-01,-3.26270e-02,3.19605e-02,8.84581e-03,8.67397e-02,2.29537e-02,-1.86222e-02,4.55879e-02,2.29513e-02,4.16463e-02,-2.69125e-02,-9.69265e-02,-2.17916e-02,-8.84813e-04,4.30724e-02,5.69622e-02,-1.67808e-01,-8.94932e-02,-2.01252e-01,-2.42857e-01,-2.86626e-01,-3.85433e-02,1.25126e-01,7.06679e-02,2.26629e-02,1.19898e-01,7.34578e-02,4.14238e-02,-2.01367e-02,1.86408e-02,-3.72190e-02,-1.25801e-02,-3.73660e-02,-6.52785e-02,-2.54691e-02,-6.49707e-02,2.77220e-02,1.24799e-01,-4.15652e-02,-9.99865e-02,5.35819e-02,2.63729e-03,9.89432e-02,-5.13644e-02,9.62242e-05,-5.43418e-02,4.60807e-02,1.77880e-01,-9.42460e-03,-6.90496e-03,1.31511e-01,1.83675e-03,6.02746e-02,-1.06641e-01,-1.73850e-01,5.19338e-02,5.69875e-02,2.16658e-03,-1.23845e-01,1.71200e-02,5.45778e-02,-3.60191e-02,1.67938e-02,-1.93893e-03,6.96007e-02,-2.27702e-02,-5.00738e-02,5.22836e-03,5.28908e-02,-1.55826e-02,4.33748e-02,1.41742e-01,3.05222e-02,4.24121e-02,7.39903e-02,1.07358e-02,-3.35832e-02,-8.32873e-02,1.20127e-02,-1.63483e-02,-5.89357e-03,-1.50002e-01,-1.77135e-01,-4.28620e-02,-8.02522e-02,-4.89931e-02,-2.40612e-02,-2.43600e-02,-4.68275e-02,-8.25710e-03,2.61642e-02,-1.04350e-02,4.46779e-02,-1.76329e-02,-6.54095e-02,-3.30172e-02,-2.44510e-02,3.20075e-02,6.14831e-02,1.42700e-02,8.11742e-02,-3.21310e-02,3.77548e-02,-9.79905e-02,-2.26824e-01,-5.67117e-02,-2.09412e-02,1.10728e-01,-1.32774e-01,2.10824e-02,-1.05616e-01,-9.78356e-02,-4.86549e-03,1.18533e-02,-5.03558e-02,-1.41515e-01,-8.37094e-02,-7.45653e-02,-5.28956e-03,8.83313e-02,2.07778e-02,8.47168e-03,-1.75023e-02,-1.33195e-01,3.02753e-03,6.91257e-02,3.82349e-02,1.76243e-02,-4.54192e-02,-8.77345e-02,-1.78600e-01,-1.78900e-01,-4.76002e-02,-9.84344e-02,8.15324e-02,1.01058e-01,-7.83005e-02,4.17521e-03,7.82265e-02,1.61431e-02,5.25026e-03,-1.12509e-02,-1.45970e-01,-9.57477e-02,-1.53479e-01,-1.14538e-01,3.77904e-02,7.99149e-02,8.39162e-02,-7.59057e-02,-2.48867e-02,-4.06553e-02,1.04657e-02,-3.45258e-02,3.71658e-02,4.31838e-02,-1.59167e-01,-5.78855e-02,-1.26810e-01,-2.72055e-01,-8.55818e-02,1.62317e-01,7.54737e-02,-1.98417e-02,3.72743e-02,-8.59009e-02,1.79731e-01,3.47850e-02,-3.63617e-02,3.38948e-03,-5.82670e-03,6.85023e-03,3.47309e-03,2.33079e-02,9.02569e-02,9.07115e-02,4.34860e-02,-1.21464e-01,-9.42099e-03,3.51851e-02,1.35497e-02,-8.49259e-02,5.08832e-02,3.07143e-02,5.31414e-03,4.89651e-03,1.63868e-01,1.35274e-01,-6.12275e-02,2.20237e-01,-3.68268e-03,-5.11026e-03,3.38657e-02,-6.83717e-03,6.56127e-02,4.52851e-02,-1.03282e-01,-4.14835e-02,5.97852e-02,6.63052e-02,1.01924e-02,3.14804e-02,1.12200e-02,-4.91710e-03,-8.87822e-02,-1.90991e-02,3.15362e-03,4.02313e-02,3.36103e-02,2.94670e-02,-2.66840e-02,-5.30889e-02,2.48176e-02,-1.07818e-02,1.64764e-02,9.90553e-02,-5.50305e-03,1.98655e-01,1.05472e-01,6.04913e-02,1.45654e-02,7.13693e-02,1.34707e-01,-1.11507e-02,-1.50578e-01,-2.81154e-02,7.97476e-02,9.94407e-02,3.95445e-02,7.76066e-02,8.42939e-02,2.52336e-02,2.93082e-02,-2.20596e-02,-5.19681e-02,-4.63268e-02,3.24927e-02,6.48644e-02,3.56106e-03,9.34178e-02,-3.55435e-02,1.58609e-02,1.15170e-02,-1.83839e-01,-1.17375e-01,1.65043e-02,8.87315e-02,4.19063e-02,-2.93180e-02,1.25991e-01,5.43764e-02,-1.67355e-04,-1.28987e-01,-8.14736e-02,5.06381e-02,3.86940e-02,4.75432e-02,1.55795e-02,5.13643e-02,1.29581e-02,1.49305e-02,-1.89722e-02,-7.68916e-03,-7.27082e-03,9.38702e-03,8.85357e-02,2.72652e-02,6.52230e-02,-9.86116e-02,1.30408e-01,1.03326e-01,-1.10797e-01,1.63971e-01,-8.98830e-03,-7.59935e-03,6.73346e-03,-1.34492e-01,7.83414e-02,5.35090e-02,1.10776e-01,9.15527e-02,1.08247e-01,4.14872e-02,-4.08669e-02,6.53038e-03,-1.99569e-02,4.13890e-02,4.34940e-03,3.49980e-02,2.19175e-02,3.68125e-02,4.52339e-02,-6.48309e-02,1.06217e-02,1.64405e-02,9.66802e-02,7.08465e-02,3.19710e-02,1.05476e-01,2.79928e-02,7.36846e-02,-3.28478e-02,-8.77687e-03,2.40733e-02,-5.06985e-02,-1.65264e-01,-6.61311e-02,1.53410e-01,1.09718e-01,1.23242e-01,9.84702e-02,2.74116e-02,7.69753e-02,-6.21740e-02,-7.67630e-02,-1.24957e-01,-1.85377e-01,-7.84660e-02,2.24018e-02,5.50675e-02,3.98286e-02,-9.03239e-02,-7.63399e-03,3.12724e-02,1.11091e-01,1.40064e-01,2.95740e-02,1.38617e-02,3.81750e-02,3.42065e-02,-2.17549e-02,-3.09418e-02,1.89038e-02,-1.55616e-04,8.88376e-04,5.41927e-03,-8.46784e-02,7.87269e-02,2.28585e-01,1.39329e-01,-1.05528e-01,-6.95740e-02,-9.43444e-02,-1.45694e-01,-6.09593e-02,1.87202e-02,4.51985e-03,1.30220e-01,1.36709e-01,7.97404e-02,5.62905e-02,5.67064e-02,-2.76488e-02,1.73054e-01,1.98455e-01,2.44856e-02,-4.67585e-04,-6.25359e-04,-2.67454e-02,-3.52915e-02,2.95685e-02,-6.27990e-02,1.77467e-02,-1.32383e-01,-8.10941e-02,9.40700e-02,5.24672e-02,4.31370e-02,1.00517e-01,-2.09009e-02,5.00483e-03,1.08752e-01,2.06031e-01,-2.00334e-02,-5.23159e-03,1.69047e-01,2.83103e-01,2.68633e-01,3.47129e-01,2.59008e-01,8.49031e-02,-8.63041e-03,-3.49140e-02,2.25585e-01,-1.82734e-02,-3.45364e-02,2.41865e-02,-2.36768e-02,-3.05233e-02,2.03205e-02,1.65251e-01,2.06315e-01,4.16520e-01,5.56068e-01,4.56850e-01,2.99041e-01,9.86806e-02,1.01237e-01,7.89507e-03,9.89026e-03,1.06805e-01,2.34596e-01,2.11268e-01,2.74889e-01,1.91132e-01,3.13406e-02,-1.13731e-01,-1.66313e-01,-1.81822e-01,1.14822e-03,1.93583e-02,-1.25994e-02,3.07774e-02,-2.14613e-02,
3.08492e-02,-3.51274e-02,1.23913e-02,8.15697e-03,1.18620e-02,2.53924e-02,9.16374e-03,-1.56844e-02,-1.50575e-02,-3.43567e-02,1.22932e-03,9.48063e-03,4.81128e-02,4.98822e-03,-2.85642e-02,9.40804e-03,2.99898e-02,-7.86784e-03,6.11476e-03,-1.10468e-02,2.77672e-03,-1.03472e-02,3.27839e-02,7.27055e-03,-3.34344e-02,3.15148e-02,3.63299e-03,-2.07262e-02,1.10411e-02,-2.43435e-02,-1.37478e-02,-2.16136e-02,2.17211e-02,-6.79442e-04,2.42330e-02,6.94412e-02,2.34260e-02,3.94154e-02,1.22346e-01,5.31057e-02,5.58488e-02,8.83338e-02,2.93578e-02,-3.30281e-02,-2.07013e-02,-1.40944e-02,1.51391e-02,8.90142e-02,1.38168e-01,1.03183e-01,1.97268e-02,1.90442e-03,-1.06628e-02,7.65618e-03,-2.45519e-02,-2.60521e-02,1.99247e-02,1.49282e-02,-2.05761e-02,-3.12158e-02,-1.09208e-02,-1.89213e-02,3.90601e-02,2.29498e-02,5.04170e-02,-5.46254e-02,-8.13188e-03,-2.93655e-01,-8.14049e-02,-4.51136e-02,-2.65083e-02,-3.61311e-02,-3.31134e-01,-4.75410e-02,1.06658e-01,1.54214e-01,1.10941e-01,-1.30813e-01,1.53525e-02,-3.83191e-02,-1.05758e-01,-5.52938e-02,-6.64860e-03,-2.18949e-02,-1.12733e-02,3.03631e-02,1.70639e-01,6.96285e-03,9.85761e-02,8.49798e-02,8.02931e-02,5.07401e-03,-4.96699e-02,-1.06129e-02,-5.80462e-02,-9.25700e-02,3.64732e-02,6.39923e-02,2.54692e-02,-2.60786e-01,-4.40662e-01,-2.60816e-01,-1.45501e-01,-2.49880e-02,-1.84678e-01,-2.06749e-02,2.20722e-02,1.53237e-02,-1.19556e-01,-4.95841e-02,-4.34944e-02,-2.01785e-02,1.18959e-02,3.57748e-03,6.77346e-02,2.63573e-01,1.82123e-01,-2.40331e-02,-4.28373e-02,-3.01911e-02,-1.45374e-02,-1.61704e-02,-6.87388e-02,1.02855e-01,9.78967e-02,6.69229e-02,9.26820e-02,9.36297e-03,-1.05826e-01,2.46955e-02,1.06819e-01,-3.00288e-02,6.00609e-02,1.22978e-01,1.71090e-01,1.00701e-01,-3.55437e-02,-1.62034e-01,-1.55630e-01,5.12720e-03,-2.30944e-02,-3.64411e-03,-3.14794e-02,-1.25700e-01,-9.39017e-02,-5.26292e-02,-2.28590e-02,4.51484e-02,3.98988e-02,-7.11769e-02,-1.52084e-02,4.46478e-02,-4.96492e-02,-2.14614e-02,2.94409e-02,1.05528e-01,3.64956e-03,5.66969e-02,-5.04492e-03,-4.14080e-02,1.16865e-01,5.59020e-02,4.93704e-02,-2.24554e-02,-1.19435e-02,-8.56892e-02,1.45019e-02,-2.26529e-01,-7.18717e-04,-1.26839e-01,1.74899e-01,-1.32724e-02,-8.75345e-02,-1.08453e-01,6.28244e-02,1.64069e-02,5.80082e-02,9.29538e-02,9.81617e-02,3.09326e-02,-1.32820e-02,8.11384e-02,1.20731e-01,1.25554e-01,1.09154e-01,8.14108e-02,9.80318e-02,4.73130e-02,-5.66761e-03,-8.52733e-03,-1.41555e-01,-2.10880e-02,9.50975e-02,1.76148e-01,-2.94282e-02,-2.38872e-01,7.71223e-03,-5.01266e-02,3.21003e-03,-4.11979e-02,-1.73669e-01,-1.01257e-01,-1.66769e-03,-7.57360e-02,-1.93737e-02,4.86191e-02,7.29861e-02,7.86379e-02,4.45687e-02,1.14960e-01,1.58666e-01,1.23897e-01,7.22676e-02,5.55982e-03,4.62747e-02,-5.91528e-02,-1.09614e-02,-8.90196e-02,-1.01777e-01,-1.04293e-02,-2.95539e-03,-6.98334e-03,-3.55983e-02,-9.29949e-02,-1.84497e-02,-9.59827e-03,-1.40924e-01,8.09001e-02,-1.50411e-01,5.37201e-02,3.21033e-02,-6.46883e-02,5.17893e-02,6.88706e-02,-2.40148e-03,3.85226e-02,4.52079e-02,1.00379e-01,7.21966e-02,1.52959e-02,3.04169e-02,7.07508e-04,-1.27961e-02,-4.22878e-02,-6.53083e-02,-4.24997e-02,-6.38847e-02,2.60882e-02,6.58329e-02,1.12836e-01,1.08308e-02,2.08388e-01,-1.22577e-02,2.08747e-01,9.15397e-02,6.60675e-02,-3.44294e-02,2.06539e-02,1.03918e-01,-2.67523e-02,5.54749e-02,4.39109e-02,2.08676e-02,-1.25033e-02,-5.12299e-02,3.01245e-02,3.47464e-02,-7.62953e-03,-5.59196e-02,-5.38997e-02,2.34474e-02,-4.89441e-02,-3.09272e-02,4.42986e-02,3.11501e-03,2.87675e-02,-1.78072e-02,1.06031e-01,-6.29742e-04,-1.39661e-01,1.39289e-02,-7.35838e-02,6.02502e-02,-2.44123e-02,5.13670e-02,1.61001e-02,6.50102e-02,-3.44698e-02,4.80779e-02,1.25987e-02,-3.98821e-02,-4.88808e-02,-6.73029e-02,2.43476e-02,2.28008e-02,-7.28561e-02,-4.30292e-02,-1.47950e-03,5.31384e-02,5.52305e-03,1.24583e-01,2.86617e-02,8.77202e-02,-3.40827e-02,-2.38351e-02,-6.31651e-03,1.27881e-01,-1.13719e-01,-4.02743e-02,-1.08483e-01,-2.85393e-01,-7.11887e-02,5.45393e-02,6.19612e-02,3.78305e-02,-4.55371e-02,2.80424e-02,2.84254e-03,-4.48033e-04,-5.45191e-03,9.53585e-03,9.59335e-02,4.25452e-02,6.78171e-02,1.02689e-03,7.21637e-02,8.82616e-02,4.76025e-02,8.10285e-02,1.00741e-01,9.43232e-03,-7.89676e-03,-3.84705e-02,5.31863e-02,2.87392e-01,-2.23127e-02,-2.61958e-02,1.06315e-01,-2.25928e-01,3.55891e-02,9.98135e-02,-5.54093e-02,1.78342e-02,1.81725e-02,3.32452e-02,1.98931e-02,3.01783e-03,3.58024e-02,-3.99449e-02,-1.80166e-02,3.28791e-03,-3.25534e-02,-3.67003e-02,-7.18723e-03,6.45370e-02,4.85330e-02,3.84688e-02,4.67048e-03,-4.21204e-04,1.05088e-02,-6.95928e-03,-6.90034e-02,-1.28526e-02,1.76041e-01,-1.79131e-01,1.22361e-01,-1.69073e-01,8.71002e-02,1.91382e-01,6.26549e-03,-9.21452e-02,-1.47730e-02,5.65216e-02,-1.37634e-02,-1.28272e-02,1.11996e-02,1.07215e-02,-7.45358e-02,-6.50532e-02,-1.05031e-01,-6.97327e-02,-8.08490e-02,1.89805e-02,-4.85114e-03,-2.26599e-02,-5.90643e-02,6.27732e-02,-3.19420e-02,-2.94362e-02,9.86391e-02,7.02539e-02,-8.84993e-03,3.17660e-02,9.34770e-02,3.91223e-02,7.96780e-03,1.46377e-01,7.48661e-02,-5.55622e-03,1.42803e-02,-2.76156e-02,1.31323e-02,7.33050e-02,4.81022e-02,-1.98864e-02,-1.55589e-02,-4.91680e-02,-5.08597e-02,-1.25727e-01,-2.10130e-02,-6.44331e-02,-1.07279e-01,-8.26441e-02,-6.46048e-03,6.46445e-02,-6.43221e-02,-8.61009e-02,-1.72052e-01,-2.06031e-01,-1.07078e-01,2.49364e-02,-1.48245e-02,1.94329e-01,-3.50181e-02,1.66572e-01,1.08342e-01,2.77213e-03,5.55353e-02,-5.82707e-03,2.47663e-03,-1.53905e-02,6.45917e-02,8.48264e-02,-5.39286e-03,-2.86020e-02,-2.58851e-02,-5.17555e-02,-2.84348e-02,-3.63892e-02,-1.48435e-01,-1.14320e-01,-4.78687e-03,-4.12404e-02,4.01400e-02,-2.61775e-02,-1.40133e-01,-1.25501e-01,1.03364e-01,-5.22377e-02,-1.04460e-01,4.30242e-02,-1.65216e-02,8.17926e-02,1.26404e-01,-8.79973e-02,3.00379e-02,4.25424e-02,3.97041e-02,6.86503e-02,1.01127e-01,7.31234e-02,1.95415e-02,-5.85278e-03,-1.07498e-02,2.35764e-02,-8.24976e-02,-5.78674e-02,-3.96698e-02,8.13214e-03,-6.33846e-02,-2.03836e-03,-7.17901e-02,-9.27922e-02,-1.68302e-01,-9.25861e-02,3.11159e-04,9.37104e-03,-4.04537e-02,4.86205e-02,-1.07412e-02,-6.57521e-02,-4.65813e-02,-7.01610e-02,-2.07276e-02,-2.97838e-02,7.15711e-02,7.46071e-02,-3.10393e-02,7.75865e-02,4.84657e-02,-5.99944e-03,2.45609e-02,-2.24652e-02,1.63048e-02,-1.03575e-01,-5.83973e-03,-4.55557e-02,-3.83448e-02,-4.27380e-02,-2.71985e-02,-7.07987e-04,2.23258e-02,-1.30367e-02,-3.60312e-01,2.65696e-01,4.77767e-02,4.47867e-02,-1.05248e-02,-4.45299e-02,-1.76854e-01,-5.35521e-02,-8.52149e-02,-2.47585e-02,-7.88201e-04,-4.47747e-03,-6.43089e-02,-1.49114e-02,-4.23350e-02,-4.92570e-02,6.40367e-02,6.12086e-02,-3.47044e-02,-6.46121e-02,9.04808e-03,-1.11861e-01,-4.20696e-02,-4.71306e-02,-5.71241e-02,-5.86777e-02,2.76079e-02,-4.17071e-02,-1.83539e-01,-2.06250e-02,1.24010e-01,-1.82643e-02,2.20728e-04,4.69527e-04,-9.07455e-02,-6.41193e-02,-5.28306e-02,-4.98555e-02,-7.50527e-02,-5.19290e-02,-4.04397e-02,1.56952e-02,-3.33975e-02,-5.96509e-02,4.10963e-02,-6.94683e-02,-5.42385e-02,-4.54932e-02,-4.53161e-02,-8.29356e-02,-5.50944e-03,3.79499e-02,-1.20838e-01,-2.56881e-02,-1.29932e-02,-6.06564e-02,-5.92968e-02,-3.48981e-02,7.28428e-02,4.55841e-02,3.52200e-02,1.24221e-01,8.10541e-02,4.11659e-02,-2.48962e-02,1.88758e-02,-7.82457e-02,2.23777e-02,-4.27094e-02,2.30481e-02,6.69131e-02,-9.25795e-02,2.78842e-04,-3.92958e-02,-4.92800e-02,-8.87264e-02,3.84581e-02,-1.09300e-02,2.89957e-02,1.62990e-04,-1.47388e-01,-1.50726e-01,-4.27580e-02,8.48318e-02,1.39885e-01,-8.60008e-02,-9.26512e-02,6.80162e-03,1.70950e-02,5.30618e-02,-5.74712e-02,4.63908e-02,9.80319e-03,6.52889e-02,5.26192e-02,2.46164e-02,4.38170e-02,7.00250e-02,-2.68473e-02,-9.01661e-02,2.54998e-02,-2.70112e-02,-5.73135e-02,-5.88606e-02,3.87514e-02,-3.83760e-02,-6.32655e-02,-8.99611e-03,-4.67224e-02,-1.69206e-01,-2.08283e-01,-2.12763e-02,1.19849e-01,-9.57693e-02,-2.72941e-02,-2.40345e-02,2.63121e-02,-6.20269e-02,-1.81349e-02,-2.30670e-02,-3.03124e-02,-7.38817e-03,2.30343e-02,3.07988e-02,7.33590e-02,-3.14125e-02,-1.18459e-03,-3.65066e-02,5.26703e-02,-2.51662e-02,8.35169e-03,1.79803e-02,2.68186e-02,3.00027e-02,-1.85121e-02,-1.92703e-02,2.30442e-02,-6.93961e-02,-1.23375e-01,-5.05072e-02,1.46067e-01,2.69441e-02,2.79256e-03,-1.64309e-02,-3.32690e-02,3.36488e-02,-3.79616e-02,1.00350e-01,-2.05046e-02,8.80280e-02,1.43720e-01,1.10803e-01,9.50220e-02,6.60393e-02,1.15005e-01,6.33377e-02,3.39758e-02,-1.71073e-03,7.51694e-03,8.35799e-02,2.92835e-02,1.98494e-01,1.07400e-02,1.53438e-01,1.30125e-01,4.54969e-02,-8.02771e-02,-7.54066e-02,1.40104e-02,6.99198e-03,3.00061e-02,-8.21434e-02,1.50396e-01,-7.20693e-02,-1.01534e-01,-9.77744e-02,-4.16678e-03,3.56848e-02,1.85582e-02,-3.70523e-02,-5.36240e-03,4.97428e-02,8.45641e-02,-6.01924e-02,2.34412e-02,1.38395e-02,5.51338e-02,1.58653e-01,1.07681e-02,7.94521e-02,-7.55644e-02,1.37493e-01,1.40575e-01,2.12434e-01,-4.18404e-02,4.60703e-02,-3.46024e-02,-1.93196e-02,1.61164e-02,-6.04230e-03,-2.32218e-02,-1.71276e-01,-1.93967e-01,-1.79575e-02,1.08165e-01,8.66403e-02,-1.64657e-02,4.46231e-02,1.05249e-01,1.26218e-01,2.02476e-01,5.25957e-02,1.50784e-02,4.07918e-02,1.07494e-01,1.01752e-01,1.87880e-01,2.92164e-01,1.41279e-01,2.43193e-01,1.51102e-01,7.26369e-02,1.39028e-01,-1.47753e-01,3.18227e-02,2.16506e-02,-1.23276e-03,2.22375e-02,1.11855e-01,1.87296e-01,-1.06310e-01,-2.09681e-02,2.43523e-02,1.03939e-01,-1.92216e-02,3.35111e-02,1.33288e-01,1.88718e-01,1.69314e-01,1.29105e-01,1.82647e-01,1.97103e-01,2.24671e-01,2.82283e-01,2.03793e-01,2.66370e-01,1.36394e-01,6.91611e-02,-1.02338e-02,1.95546e-02,-4.99224e-02,5.26022e-03,3.11971e-02,-9.28082e-03,-2.94816e-02,5.28228e-03,5.74803e-03,-4.35656e-02,-2.13143e-01,-1.92214e-01,-1.85851e-01,-3.20767e-02,1.90375e-02,-6.54554e-02,-1.19407e-02,1.03981e-01,3.79758e-02,-2.80457e-01,-5.09889e-02,4.75700e-02,-2.65865e-01,-2.88640e-01,-1.66889e-01,-6.84353e-02,-2.38777e-01,-2.47524e-02,-1.18894e-01,-4.19407e-03,1.08562e-02,-1.91205e-03,3.24290e-02,
2.54553e-02,-9.86130e-03,-2.01231e-02,8.10879e-05,1.45815e-02,3.49325e-02,-3.47420e-02,1.77842e-02,1.00262e-02,-3.27756e-02,2.97394e-02,-5.50205e-03,1.10688e-01,1.94262e-01,1.42082e-01,3.87689e-02,-8.73691e-03,-6.33424e-03,-1.30730e-02,-5.84254e-03,6.05146e-03,-1.95978e-02,1.68661e-02,-1.01311e-02,-1.43811e-02,-1.07354e-02,-3.30768e-02,-7.94719e-03,-3.28549e-02,-4.01395e-03,-2.18797e-02,2.34418e-03,5.83048e-02,5.71952e-02,8.35704e-02,9.68755e-02,2.06232e-01,2.07616e-01,1.62754e-01,1.70771e-01,1.20688e-01,-3.46848e-03,-9.55553e-02,5.18114e-02,2.67267e-01,3.08447e-01,3.33713e-01,9.90458e-02,8.07990e-02,1.18748e-01,6.86810e-02,7.77099e-02,-7.51782e-03,8.35177e-03,-3.29931e-02,-1.08591e-02,-4.81818e-03,2.45903e-02,4.11651e-02,3.74876e-02,4.11996e-02,-4.89777e-02,1.91661e-01,3.62164e-01,1.47182e-01,1.79425e-01,1.72972e-01,1.29645e-01,-2.01790e-03,-3.62208e-02,5.58032e-02,1.07825e-01,4.95730e-02,-1.43991e-01,-1.79874e-01,-8.46549e-02,2.14188e-02,7.28535e-02,6.03419e-02,1.61986e-01,2.56249e-02,-4.40686e-02,-3.25844e-02,-2.86362e-04,2.57154e-02,-2.59067e-05,-7.85905e-02,-3.68732e-02,2.01902e-02,-7.05553e-02,1.16545e-01,5.39536e-02,1.24910e-01,1.63861e-01,1.60663e-01,3.04329e-01,9.37910e-02,9.12475e-03,3.53574e-02,2.38286e-02,-2.04231e-01,-2.44550e-01,-1.29157e-01,-8.15235e-02,-3.65496e-02,1.29291e-01,6.56876e-02,-2.65728e-02,-9.69250e-02,-1.88073e-01,-6.51474e-02,3.06347e-02,1.33296e-02,4.86065e-02,-1.59331e-01,-9.34759e-02,2.40879e-02,-1.10208e-02,-2.57677e-02,-6.46499e-02,-1.66085e-01,4.11020e-02,8.55693e-02,2.30084e-02,-1.58281e-02,-1.45184e-01,-3.67690e-02,-1.28968e-01,-5.66811e-02,6.58986e-02,4.49157e-02,-2.98215e-02,-6.26536e-02,-3.56368e-02,-7.00255e-02,6.76266e-02,4.99256e-03,-1.56208e-01,-1.93901e-01,5.70835e-02,-2.92858e-02,-2.73717e-02,-8.36034e-02,1.68835e-02,-1.21020e-02,-2.25990e-02,3.34310e-02,3.11097e-02,2.22062e-02,1.50256e-02,-2.85896e-02,-4.40791e-02,-9.49812e-03,-1.56378e-02,2.81710e-02,-5.31433e-02,-4.64022e-02,-6.39056e-03,-7.84105e-02,-4.99581e-02,4.36485e-02,-8.97279e-02,-9.32490e-02,2.76294e-02,9.72806e-02,6.96850e-02,-6.90089e-02,1.44956e-03,-3.24143e-02,1.98888e-02,3.58501e-03,-1.23924e-01,-5.58236e-02,8.09120e-02,-1.19865e-02,6.72646e-02,6.06883e-02,2.09638e-02,-7.52030e-02,-1.75564e-02,-1.38725e-02,-1.68069e-02,-8.17315e-02,1.74525e-02,8.84936e-02,5.75195e-02,-3.31508e-02,-8.00380e-02,-3.88730e-02,-4.44142e-02,-3.92520e-02,5.30131e-02,4.90058e-02,1.73954e-01,1.38135e-01,-1.14367e-01,5.90302e-03,2.18509e-02,-1.21016e-02,-1.10926e-01,1.17596e-01,8.96500e-02,-4.03625e-02,-6.45165e-02,2.19774e-02,2.00008e-02,-7.29119e-03,-7.68116e-03,-3.32237e-02,-4.56424e-02,-3.01572e-02,5.22637e-03,3.46560e-02,1.97678e-02,-2.19333e-02,-4.86502e-02,-4.73503e-02,-1.67994e-02,-1.19225e-02,2.72014e-02,-2.41785e-02,6.33137e-02,1.38475e-01,-1.20166e-02,1.52601e-01,4.51922e-02,2.34603e-01,8.13656e-02,4.89160e-02,-3.21337e-02,-2.12011e-02,2.74517e-02,5.73920e-02,-3.70230e-02,-5.74147e-02,-9.60277e-02,-7.27023e-02,3.91116e-02,2.14801e-02,4.77534e-02,6.16115e-02,-9.73165e-03,-6.42544e-02,-3.73419e-04,-2.79539e-02,-7.60762e-03,-3.58678e-02,-4.24564e-02,1.54551e-02,1.73433e-01,-5.67974e-02,-1.32105e-01,-1.14766e-01,-2.94690e-01,1.14794e-01,3.27064e-02,6.33202e-02,-9.38069e-02,5.45931e-02,1.62621e-02,-9.95571e-02,-9.45852e-02,-3.52586e-02,2.86013e-02,5.78822e-02,4.39000e-02,7.48516e-02,3.89166e-02,1.95699e-02,2.67108e-02,-1.56265e-02,4.23713e-02,-4.74804e-03,-5.70235e-03,-4.55471e-02,-1.31341e-01,-4.40167e-02,-3.03495e-02,1.20653e-01,-2.73646e-02,-1.55047e-01,-2.29754e-01,-2.83141e-01,-9.76941e-02,8.87451e-02,6.59307e-02,5.36836e-02,-1.47880e-02,-6.21693e-02,5.42087e-02,2.39736e-03,2.32667e-02,1.03132e-01,2.54751e-02,1.07000e-02,-1.63210e-02,-1.54275e-02,-4.76498e-02,5.19025e-02,2.42521e-02,7.97472e-03,3.73961e-02,4.96600e-02,4.44622e-02,5.03511e-02,1.22126e-01,1.96589e-01,-2.79576e-02,-3.83219e-02,6.22128e-02,-1.07238e-01,-8.94629e-02,6.26906e-02,2.33629e-02,-3.72339e-02,-2.91628e-02,7.37286e-02,1.72528e-02,-6.06610e-02,-2.62804e-02,-2.69671e-02,9.23603e-03,-3.56551e-02,-3.06864e-02,-3.13378e-02,1.66185e-02,6.30610e-02,3.18308e-02,5.63736e-02,4.17640e-02,1.74070e-01,1.57570e-01,1.04883e-01,1.53121e-01,2.92138e-01,-8.87616e-02,-7.05534e-03,1.21704e-01,-5.56298e-02,4.89106e-02,3.32414e-02,-1.82524e-02,1.65750e-02,4.89015e-02,5.30417e-03,1.74605e-02,7.54295e-03,-3.58032e-02,-7.40435e-02,1.27605e-02,-6.85199e-02,-5.98149e-02,-3.39138e-02,-3.60357e-03,9.30784e-03,4.91514e-02,5.08010e-02,-5.10976e-03,1.39647e-01,6.54911e-02,1.51386e-02,1.81350e-02,2.10804e-01,-1.85183e-01,-4.78272e-02,1.90679e-01,-1.12634e-01,2.69014e-02,-5.46991e-02,-4.18449e-02,2.41923e-02,1.34541e-02,3.86684e-02,2.57903e-02,5.42877e-02,8.16954e-03,8.30530e-03,5.11559e-02,2.65212e-02,-3.22640e-02,-8.45558e-02,-6.22016e-02,-6.60916e-02,-5.08262e-02,-4.59473e-04,-4.30603e-02,-6.45882e-02,2.20954e-02,1.75837e-02,2.06496e-01,1.31028e-01,2.50294e-01,6.00176e-02,4.71045e-02,-1.21661e-01,8.17710e-03,5.95678e-03,9.72421e-02,1.94091e-02,2.73466e-02,5.84806e-02,9.30543e-02,8.86071e-02,8.28615e-02,-2.69625e-02,7.35866e-02,7.01539e-03,-1.11487e-02,-1.41207e-02,-3.69749e-02,-8.99034e-02,-1.30098e-01,2.42101e-02,7.15225e-03,-4.96902e-02,-4.90424e-02,9.85995e-02,1.75633e-01,-2.37126e-01,1.32055e-01,2.95569e-02,4.03783e-02,-7.79072e-03,1.25470e-01,1.18234e-01,3.48390e-02,-3.73516e-03,4.34865e-02,7.97621e-02,5.26496e-02,9.40466e-02,2.62933e-02,4.45230e-02,4.14908e-02,-4.75403e-02,4.14827e-02,1.13152e-03,-7.20707e-02,-1.23863e-01,-4.53335e-02,-5.22912e-02,2.61877e-02,-1.22810e-01,-2.95887e-02,1.35261e-01,5.77132e-02,-7.40356e-02,4.21868e-02,-4.58488e-02,-1.49253e-01,-5.50832e-02,7.85641e-02,1.08854e-02,9.86706e-03,-4.45692e-04,6.24248e-02,8.29384e-02,5.03949e-02,4.35892e-02,6.20554e-02,-3.77729e-02,-1.02077e-02,9.46357e-02,8.25651e-02,-7.77252e-03,-1.03745e-01,-4.53145e-02,-5.29652e-02,-2.15280e-02,-4.97159e-02,-3.49721e-02,3.62324e-03,1.82738e-02,-2.66702e-02,-5.09674e-02,1.68760e-01,-2.06886e-02,-5.24902e-02,1.89645e-01,3.61941e-03,1.08586e-01,-5.34060e-02,4.71992e-03,7.75591e-03,1.13099e-01,1.41240e-01,7.81445e-02,4.09789e-02,-2.48917e-02,4.96576e-03,5.14303e-02,7.57898e-02,-2.42396e-02,-5.24695e-02,-2.24012e-02,-2.85986e-02,-2.75250e-02,-7.39302e-02,-3.91027e-02,-1.21226e-02,-1.52091e-01,-1.81692e-01,-2.12635e-01,1.78657e-01,-2.74474e-01,8.46106e-02,1.68473e-01,1.57880e-03,-3.27922e-02,-4.00431e-03,4.01350e-02,6.63678e-02,8.77942e-02,1.07298e-01,1.93006e-02,-5.34361e-02,-2.97712e-02,-6.08592e-02,2.22924e-02,-1.34922e-02,-6.55783e-02,-5.18608e-02,-9.18213e-02,7.18758e-02,-1.00114e-01,-5.76734e-02,-8.88827e-02,-1.76234e-02,-1.35175e-01,4.82709e-02,-4.28678e-02,-1.38705e-01,4.50611e-03,3.22944e-02,-1.29243e-01,-1.73393e-01,-8.09634e-02,5.14784e-02,-2.25949e-03,8.42476e-02,1.06367e-01,7.38960e-02,1.09461e-02,-1.63782e-02,-4.65262e-02,3.35874e-03,4.17732e-02,-1.47197e-02,1.66642e-02,-1.68867e-02,1.30489e-02,5.51935e-02,-1.19934e-02,-5.60031e-02,5.32221e-02,4.23576e-04,-1.56063e-02,-5.46746e-02,2.33017e-02,-1.11026e-01,1.24509e-02,2.47853e-01,-1.55345e-02,-9.47919e-02,-6.70689e-02,1.11815e-01,2.30452e-03,7.16692e-02,1.23681e-01,9.01296e-02,7.16638e-02,1.38568e-02,-6.64870e-02,-4.00238e-02,3.50137e-02,-1.88013e-02,9.46968e-04,-6.16265e-02,-2.76788e-02,-4.77908e-02,-9.65657e-02,-9.90628e-04,1.60427e-02,-5.57932e-02,-1.39642e-01,-9.66368e-02,-9.18926e-02,-2.26382e-02,-4.81557e-02,-2.36452e-02,-1.45795e-01,-1.30364e-01,-8.60719e-02,1.24000e-02,1.52884e-02,7.30528e-02,2.90554e-02,5.12008e-02,8.84075e-03,-2.04591e-02,-4.11269e-02,-1.04265e-02,1.13945e-02,1.61804e-02,-6.07272e-02,-4.47164e-02,-8.57550e-02,-7.33544e-02,1.18820e-02,-6.35421e-02,-3.58519e-02,-9.57458e-02,-1.68822e-01,7.95439e-03,1.95168e-01,-5.71817e-03,-2.66075e-02,-2.99189e-02,-1.23292e-01,3.21860e-02,-2.29183e-01,-5.78498e-02,-3.78201e-02,3.44116e-02,2.00892e-02,-2.10359e-02,-5.25720e-02,-7.00561e-02,-1.09765e-02,6.07363e-02,8.24652e-03,-3.01569e-02,-9.01372e-02,8.74877e-03,-7.08079e-02,-9.49907e-02,-5.56619e-02,-4.03536e-02,-1.01563e-01,-6.74433e-03,5.71136e-02,1.08220e-01,5.88974e-02,7.16289e-03,-2.60895e-02,3.04226e-02,-4.14148e-02,3.65124e-02,1.02492e-01,-7.22379e-02,-1.50253e-01,-1.64400e-01,5.98414e-02,3.74911e-02,-7.08018e-02,-4.68919e-02,-2.42849e-02,-1.21025e-02,-1.89697e-02,1.43392e-02,-3.40407e-02,-1.02829e-01,-1.78028e-02,2.43989e-02,3.10409e-03,-2.22552e-02,5.61089e-04,-5.54161e-02,-1.15827e-01,4.80644e-02,-6.62947e-02,-2.98743e-02,-1.22441e-02,1.09170e-02,-9.52636e-03,-1.45183e-01,5.15502e-02,2.38246e-02,-2.31454e-01,-1.87119e-01,-2.13527e-02,-8.74487e-03,-5.27391e-02,-5.88180e-02,2.88090e-02,7.19711e-02,-1.83274e-02,7.64408e-03,-1.51044e-02,-5.46250e-02,6.71926e-02,6.57301e-02,6.89674e-02,5.14349e-02,1.00980e-01,7.84335e-02,9.74889e-02,2.69528e-02,1.19331e-01,1.34105e-02,2.08911e-02,-3.29307e-02,1.65103e-01,-1.94058e-01,6.98668e-02,-5.63871e-02,-6.41861e-02,-7.80682e-02,-2.62388e-02,-3.58787e-02,-6.21200e-02,-2.88324e-02,9.29158e-02,7.39186e-02,1.48904e-02,3.91608e-02,8.73611e-02,8.20208e-03,-5.76440e-02,3.05054e-03,7.15331e-02,1.44448e-01,1.44351e-01,2.19418e-01,2.12494e-01,9.75244e-02,1.80865e-01,1.21999e-02,-2.79254e-02,-2.36333e-02,-1.00610e-03,1.01009e-01,8.00940e-02,-2.46817e-02,-4.59144e-04,-6.87790e-02,-6.02874e-02,-1.44831e-02,2.72115e-02,5.08558e-02,6.61922e-02,5.54381e-02,1.65483e-02,-3.79634e-02,9.47009e-02,1.01958e-01,5.96355e-02,1.03037e-01,1.46999e-01,-4.27604e-02,-3.50315e-02,-4.13876e-02,-5.42027e-02,-5.17111e-02,-1.25652e-02,5.10427e-03,1.28892e-02,-1.22893e-02,-2.77317e-03,1.25486e-02,-1.28465e-01,-1.82770e-01,-7.15220e-02,2.95069e-02,9.17961e-03,1.57859e-01,-1.93261e-03,9.50125e-02,1.27873e-01,-6.32144e-03,-1.17877e-01,-2.59767e-02,1.00896e-01,5.24569e-03,6.64563e-03,1.67927e-02,7.21757e-02,-1.59959e-01,-8.36158e-02,-2.79623e-01,2.57323e-02,-1.95838e-02,-4.08645e-04,2.87857e-02,
-1.83923e-02,2.31828e-02,-1.44574e-02,2.84232e-02,-1.01945e-02,1.03834e-02,-2.71767e-02,-1.97376e-02,-1.83947e-02,1.11692e-02,1.39785e-02,-1.19237e-03,6.14679e-02,-1.40936e-01,-1.25243e-01,-9.62454e-02,-9.44356e-03,-2.54223e-02,-1.87469e-02,7.41227e-03,-2.78324e-02,-1.65658e-02,2.67030e-02,1.01081e-02,-3.14292e-02,-3.41111e-03,-6.77973e-04,-1.11626e-02,-3.28669e-02,7.33414e-04,-1.75441e-02,7.86143e-03,-8.17903e-03,8.35510e-03,-2.15579e-02,-2.88327e-02,9.39176e-02,1.01470e-01,1.38707e-01,-5.58900e-02,-9.78915e-02,1.02566e-02,5.37284e-02,7.07754e-02,4.39292e-02,1.29804e-01,2.55033e-01,2.20487e-01,1.75092e-01,2.08766e-01,1.24723e-01,6.76016e-02,-3.27929e-02,-1.37237e-02,3.34183e-02,-1.65040e-02,1.77225e-02,-3.56850e-02,7.33667e-02,-2.42651e-01,1.17779e-01,2.45130e-01,-5.65025e-02,1.53329e-01,1.41294e-01,7.63318e-02,-5.76127e-02,-1.01626e-02,1.65732e-01,2.99544e-01,1.34993e-01,7.88571e-02,-5.36208e-02,2.73797e-02,-2.66195e-02,2.36583e-02,-4.61423e-03,9.64946e-02,9.48731e-02,-4.31093e-02,-1.12040e-01,1.72280e-02,2.69428e-02,-2.43540e-04,1.65049e-02,-8.00483e-03,-1.97963e-01,-2.28766e-01,-1.76037e-02,-2.66628e-02,8.33541e-02,-1.43409e-03,-4.29557e-02,9.03938e-02,-1.29474e-01,-1.01906e-01,-4.61098e-02,6.46811e-02,4.42482e-02,-7.37427e-02,-1.56386e-02,3.78390e-02,8.84865e-02,-5.56798e-02,-1.46915e-01,1.01522e-01,3.50599e-02,-2.20959e-02,2.23923e-03,-2.05984e-01,-1.05528e-01,1.16990e-03,1.79748e-02,5.84582e-02,-1.80669e-01,-2.43206e-01,2.06462e-01,1.17585e-01,5.99470e-02,4.39496e-02,3.14200e-02,-4.00904e-02,-3.51690e-02,-1.91762e-01,-1.55181e-01,5.34591e-02,5.75387e-02,-8.68017e-03,-2.21346e-03,-2.47344e-02,-4.56568e-02,-8.05642e-02,-3.61567e-02,8.83624e-02,2.68304e-04,8.33829e-02,2.95401e-02,-4.27311e-02,-1.27948e-01,-2.84351e-02,-7.77288e-03,-2.99194e-02,-1.39291e-01,-1.45171e-01,9.04470e-02,8.45946e-02,-4.52718e-02,2.11657e-02,1.06708e-01,9.26578e-03,-1.56250e-02,-9.83950e-02,-1.06739e-01,-7.25827e-02,9.17269e-02,-7.84613e-03,-1.40072e-02,1.43271e-02,1.69191e-02,-2.70249e-02,-2.33499e-03,1.25859e-02,7.92852e-03,4.57898e-02,9.46821e-02,9.22512e-02,-4.51883e-02,-1.50228e-01,-5.40290e-03,-5.48938e-02,1.33802e-01,-1.20225e-02,2.09305e-02,7.83821e-02,-8.16903e-02,4.46112e-02,2.56582e-02,-4.99688e-02,-8.48064e-02,-9.85021e-02,-7.65292e-02,6.91095e-04,6.81660e-02,1.36078e-01,3.91581e-02,-4.91172e-02,-2.75027e-02,3.45612e-02,2.35261e-02,-6.96878e-02,-9.08297e-02,-3.63662e-02,1.46803e-01,9.36677e-02,7.29986e-02,-7.49539e-02,-1.53275e-02,-1.20957e-01,8.32496e-02,-3.93396e-02,4.43774e-03,3.35463e-02,-1.75887e-03,9.15521e-02,-1.36036e-02,-4.66897e-02,-1.08484e-02,-8.82419e-02,-2.42143e-02,1.39354e-01,1.91469e-01,8.97419e-02,2.60590e-02,-2.18050e-02,-5.81557e-02,-4.72734e-02,5.69225e-02,-6.44915e-02,-6.72454e-02,7.76143e-02,7.72536e-02,-4.90237e-02,2.66640e-02,-3.87602e-02,-6.45762e-02,-1.23687e-01,-1.82704e-01,-1.49603e-01,-6.22146e-03,6.47220e-02,9.63615e-02,1.85435e-02,-1.40569e-02,-3.30303e-02,-1.23395e-01,-1.57085e-01,-4.15908e-02,4.23017e-02,8.67687e-02,9.21373e-02,-5.65061e-02,-9.13536e-02,3.44368e-02,2.73182e-02,3.13330e-02,-5.73527e-03,8.87902e-03,-8.54591e-03,2.88509e-02,4.46843e-02,9.82579e-02,-2.13132e-01,-4.07333e-02,-3.13624e-02,-5.44282e-02,-1.38309e-01,-7.58658e-02,5.45271e-02,-2.81842e-02,-7.75607e-03,4.98661e-02,-2.55251e-02,-1.51369e-01,-8.75950e-02,-5.63160e-02,-6.26776e-02,-5.65572e-03,1.08273e-02,-4.01427e-02,-8.99186e-02,1.74783e-02,3.15851e-02,-9.89332e-02,-2.26026e-03,-7.12481e-02,-1.49013e-02,1.42829e-02,6.69718e-02,5.21090e-02,-1.35666e-01,-5.05989e-02,-8.38752e-02,4.24377e-02,-8.62167e-02,6.95806e-04,-4.67281e-02,-5.28044e-02,-4.60466e-03,7.02610e-02,-1.06084e-02,-1.52372e-02,-3.62367e-02,-5.72659e-02,1.04856e-02,6.01047e-02,-6.25748e-02,-1.07813e-01,-6.17659e-02,2.40517e-03,-5.67744e-02,-1.26966e-01,-3.50880e-02,1.73220e-02,-1.09260e-01,-1.19556e-01,6.78495e-02,3.28082e-02,-1.00922e-01,-6.16316e-03,-7.57022e-02,4.57890e-02,-3.45365e-02,-9.49155e-02,3.68347e-02,2.01713e-03,1.40018e-02,6.73561e-02,4.24603e-02,-3.36461e-03,-4.51695e-02,-5.97114e-02,-3.40200e-02,-5.17363e-03,-4.94884e-02,-1.10513e-01,-5.92462e-03,-1.27454e-02,-2.32535e-02,-1.04073e-01,-1.21571e-01,-5.15374e-02,-2.93285e-02,-4.75691e-02,-4.78826e-02,1.56242e-01,-8.73113e-02,-5.07937e-02,-1.06087e-01,8.97278e-02,-5.36225e-03,-6.97311e-02,1.42438e-02,-1.55130e-02,4.76049e-03,1.01061e-01,6.17089e-02,-1.30485e-03,9.54304e-03,-3.14885e-02,-2.35876e-02,-1.00978e-01,-4.04194e-02,-9.28328e-03,-3.61541e-02,5.66844e-02,-5.88238e-02,-4.22552e-03,-8.17234e-02,-3.52382e-02,-4.06511e-02,-2.90443e-02,-2.14235e-01,-6.83678e-02,-1.62801e-02,-1.35970e-01,-4.52722e-02,-7.76809e-02,-8.61926e-02,-1.22313e-02,-8.20347e-02,7.89217e-03,-2.26069e-03,-5.23912e-02,-3.18136e-02,2.00102e-02,-1.46743e-02,2.21397e-02,-1.69653e-02,-2.12693e-02,4.36024e-02,5.93030e-02,2.99814e-02,-1.33594e-02,-2.17852e-02,9.85886e-03,3.01184e-02,1.52595e-02,5.78549e-02,6.03600e-02,-3.70935e-02,-1.39015e-01,-4.30167e-02,6.39374e-02,3.63255e-02,-1.17411e-01,-7.17517e-02,1.16549e-01,-1.08717e-01,6.77450e-02,9.20895e-02,-1.01380e-02,-1.72642e-02,3.07779e-02,-6.75458e-02,6.44509e-03,-6.68124e-04,3.56173e-03,1.05328e-01,8.23544e-03,-2.16057e-02,5.35553e-02,-1.06267e-02,-3.04169e-03,-3.22141e-02,6.50570e-02,-2.50963e-02,-3.02475e-02,4.47042e-02,-2.41360e-01,-5.36118e-02,4.54973e-02,3.50343e-02,-4.01994e-03,-2.79469e-02,1.43060e-01,3.10220e-03,6.34658e-02,1.21597e-01,1.03548e-01,5.66653e-02,-1.39336e-02,-4.49694e-02,-3.06776e-02,1.12203e-02,6.90859e-02,8.17468e-02,8.52621e-03,7.34967e-03,2.69584e-02,1.92551e-02,-8.66587e-03,-1.61405e-02,-1.26945e-02,-7.35628e-02,-5.74649e-02,8.14502e-04,-2.14417e-01,7.24061e-02,-5.92417e-02,-1.08197e-01,-2.79042e-02,-8.02029e-02,-2.08611e-02,4.10810e-02,1.44722e-02,1.03254e-01,2.98793e-02,5.50719e-02,3.10289e-02,-1.89789e-02,-6.22936e-03,3.85486e-02,3.11021e-02,1.32966e-02,4.09063e-02,-9.33039e-03,-1.89440e-02,-3.04472e-02,-2.69658e-02,3.91298e-02,-3.69119e-03,-1.72170e-02,3.76245e-02,5.28593e-03,-1.05124e-01,-2.98634e-02,2.95871e-02,-7.47095e-02,5.05735e-02,4.37840e-03,5.17109e-03,-2.47376e-02,5.37012e-02,4.98457e-02,9.21786e-02,3.63376e-02,8.09080e-02,-5.23243e-02,-5.97612e-02,3.19030e-02,2.27767e-02,1.08426e-02,4.22719e-02,1.31530e-02,-7.43126e-02,-9.55086e-02,6.48638e-02,2.57662e-02,1.99658e-02,-1.02774e-02,5.81510e-02,-1.26045e-02,-2.77276e-03,-3.08639e-01,-2.61101e-01,-2.81246e-02,-1.75015e-02,2.92716e-02,2.47127e-03,-2.35906e-02,-7.43676e-03,2.85278e-02,1.99491e-02,9.87998e-02,1.12176e-02,-4.46959e-03,8.83687e-02,2.55298e-02,1.41890e-02,-8.59244e-02,1.22320e-02,3.37189e-02,-1.28795e-01,-3.24115e-02,2.75895e-02,1.78694e-02,2.81367e-02,4.78641e-02,1.10893e-02,6.49080e-02,6.11111e-02,-1.71700e-01,-4.78386e-02,-1.91812e-01,-7.56824e-03,-5.55313e-02,1.36589e-02,-2.03156e-02,-7.57384e-02,-1.40105e-02,-5.16525e-02,1.37328e-02,-2.52429e-02,-2.05539e-02,2.65119e-02,-1.79861e-02,6.57650e-02,-1.00672e-02,8.21360e-02,8.01889e-02,2.70838e-02,6.02885e-03,2.18517e-02,1.19036e-01,6.53846e-02,4.34832e-02,1.38382e-02,1.44976e-01,-1.43527e-01,3.65788e-02,-1.33183e-02,2.82235e-03,3.77368e-02,2.88131e-02,6.35934e-02,8.71240e-02,1.09748e-02,5.52691e-02,-4.13586e-02,2.33572e-02,-3.54241e-02,-3.13266e-02,2.93868e-02,3.62899e-02,-2.13837e-02,3.69879e-02,8.07508e-02,6.59298e-02,1.08069e-01,6.68134e-02,3.93471e-02,1.28122e-01,4.08483e-02,2.40485e-02,4.48829e-02,9.00175e-02,5.80296e-03,1.81518e-02,-8.31984e-02,-8.29882e-02,-9.26032e-02,-6.48602e-02,1.59299e-01,1.72725e-01,3.69122e-02,1.82730e-02,5.49765e-04,3.25444e-02,-2.22057e-02,3.49462e-02,4.41729e-02,-1.66440e-02,3.09851e-03,3.65780e-02,3.67246e-02,1.15464e-02,1.18855e-02,-1.37018e-02,9.73104e-02,7.59092e-02,3.07780e-02,6.32122e-03,2.30674e-01,1.77440e-01,1.39428e-01,4.01582e-02,-7.13852e-02,-6.64711e-02,-1.13469e-01,-1.20930e-01,1.87676e-01,5.06722e-02,-1.66693e-02,-3.45697e-02,1.85435e-02,7.98927e-04,-8.64598e-03,-4.04935e-02,-1.42080e-02,-9.68358e-02,-3.19240e-02,-3.13581e-02,1.69579e-02,-6.03983e-02,-4.17382e-02,-1.93345e-03,3.03975e-03,4.83840e-02,-1.32026e-01,-7.66234e-03,2.02186e-01,1.80707e-01,8.78637e-02,2.69533e-02,-2.61396e-02,7.95737e-03,-3.36817e-02,-1.57473e-01,1.42520e-01,1.01202e-01,-1.53581e-02,-1.06236e-01,-1.74766e-02,1.40869e-02,1.05062e-01,7.41001e-02,-3.96693e-02,-1.90931e-02,1.43230e-02,4.00682e-02,-6.28159e-02,-4.06967e-02,-8.37654e-02,5.87436e-02,9.41752e-02,5.81315e-02,-9.13453e-02,1.76957e-02,-2.40685e-02,9.03208e-02,-1.11243e-02,-1.97724e-02,1.70813e-02,-7.79021e-03,4.39120e-02,-2.19671e-01,-2.98846e-03,-1.06723e-02,6.20529e-02,1.95202e-02,9.05230e-02,-6.21480e-02,3.17606e-02,-1.05825e-03,1.41763e-02,7.27165e-02,3.27497e-02,5.10346e-02,-3.85610e-03,-1.13130e-01,-3.37273e-02,3.98333e-02,4.85208e-02,8.45535e-02,1.76519e-01,1.58960e-01,1.67574e-02,-3.69953e-02,-2.51275e-02,1.41547e-02,-2.50416e-03,1.64597e-02,6.30741e-02,-3.67486e-02,8.85464e-02,5.34599e-02,6.55511e-03,-4.09300e-02,5.42738e-02,-3.75275e-02,-1.68893e-01,-1.30793e-01,-5.20504e-03,-2.30507e-02,4.90982e-02,1.39413e-01,5.38108e-03,-4.13991e-03,3.82321e-02,8.47087e-02,1.96538e-01,1.36186e-01,2.04818e-01,2.94605e-01,1.81499e-01,3.06107e-02,-1.67970e-02,1.07745e-02,3.50275e-02,2.91807e-02,-7.82231e-03,-1.10840e-01,5.38763e-02,6.43144e-02,1.66367e-01,8.01077e-03,1.43540e-02,2.20040e-03,-9.19789e-02,-4.46484e-02,6.87339e-02,8.66782e-02,1.73938e-01,1.38349e-01,4.05322e-02,6.75256e-02,7.87061e-02,1.50863e-01,1.39440e-01,6.10731e-03,1.26367e-02,-6.09130e-02,-1.02940e-01,-4.87756e-02,4.78221e-03,2.38252e-02,2.41826e-02,2.89169e-03,-1.28133e-02,-2.52860e-03,-1.37309e-02,2.30133e-03,-3.64951e-02,-3.06993e-02,2.08326e-02,1.11557e-01,6.09390e-02,5.30872e-03,1.61653e-01,6.81728e-03,-1.19846e-01,1.57153e-01,1.23414e-01,6.92976e-02,9.42424e-02,-2.71320e-02,9.78071e-02,-1.65219e-01,-3.72499e-01,-3.35722e-01,-3.39747e-02,-1.73311e-03,-1.54985e-02,1.95216e-02,
-4.00789e-03,7.54172e-03,-3.19785e-02,1.83430e-02,3.56587e-02,2.39308e-02,1.17712e-02,3.13637e-02,1.45148e-02,-2.38006e-02,-1.84852e-02,3.30363e-02,7.88229e-02,8.01603e-02,3.84912e-02,1.82452e-02,6.70074e-03,-1.32173e-02,2.49528e-02,-1.60036e-03,-2.42686e-02,-1.91762e-02,1.67499e-02,2.69140e-02,-2.41235e-02,2.35121e-02,-6.21030e-03,5.59000e-03,2.94374e-02,-3.04862e-02,-1.33860e-02,-3.07763e-02,5.60290e-02,9.44353e-02,9.07771e-02,1.15566e-01,3.00596e-01,3.69877e-01,2.64497e-01,3.39625e-01,2.90569e-01,-2.81930e-02,-2.70900e-01,4.48172e-02,1.33483e-01,2.19352e-01,5.10301e-01,3.22702e-01,2.59957e-01,2.03872e-01,2.13554e-01,1.41627e-01,-1.15536e-02,-6.53541e-03,-1.49677e-02,2.04080e-02,-8.06780e-03,-2.08203e-02,1.79305e-01,2.66588e-01,3.54458e-01,8.27025e-03,2.57571e-01,4.44845e-01,5.45286e-02,9.73820e-02,1.17123e-01,2.95451e-02,9.69391e-02,1.03200e-01,4.39737e-02,-3.82357e-04,1.05330e-01,1.45755e-01,1.09122e-01,2.45706e-01,1.37509e-01,1.22491e-01,1.19155e-01,8.09876e-02,2.20946e-01,7.18342e-02,7.53130e-03,-3.18707e-03,-3.09931e-02,-1.86967e-02,-2.00896e-01,1.77980e-01,1.46598e-01,6.14695e-02,1.78535e-01,1.79360e-01,2.59691e-02,-1.67924e-02,-1.35034e-01,1.47543e-01,9.22457e-02,7.55281e-02,1.67794e-01,4.14751e-02,6.81833e-03,1.62112e-03,-1.01313e-02,-8.77018e-02,-1.65917e-01,7.46679e-02,5.17189e-02,-1.24511e-02,-1.07792e-01,-1.94218e-01,-7.16326e-02,1.15907e-02,9.01432e-03,1.19795e-02,-1.46839e-01,-1.12759e-01,-1.81732e-02,-1.88727e-02,2.26648e-03,-5.31573e-02,-1.77021e-01,-1.12658e-01,-2.68364e-02,-4.92597e-02,-1.36224e-02,5.49840e-02,6.26436e-03,-3.53284e-02,-3.98332e-02,-7.79738e-03,-1.85268e-03,9.54985e-02,-2.41018e-02,-3.21969e-02,-5.13986e-02,-8.07317e-02,-2.36460e-01,-1.59105e-01,-9.96392e-03,2.47730e-01,1.29429e-02,-3.49196e-02,5.55779e-02,-1.71857e-01,6.48078e-02,-1.09570e-01,-7.42256e-02,-1.29391e-01,-4.43479e-02,-7.57969e-02,2.53939e-02,-6.65506e-02,-1.01625e-01,-1.44165e-02,8.20569e-03,1.56904e-02,-3.82582e-02,-2.50308e-02,1.13212e-02,-2.84679e-02,-2.76970e-02,-9.70792e-02,-9.41866e-02,1.96217e-02,-2.04442e-01,-6.66281e-02,2.03129e-01,1.72840e-01,2.20605e-02,-2.44149e-02,2.13888e-01,-3.74794e-02,7.81658e-02,-7.18731e-02,-1.13150e-01,-4.61092e-02,-1.21044e-01,-1.71465e-01,-7.40153e-02,5.09852e-02,-1.63144e-02,6.25640e-02,1.31627e-02,3.54189e-02,-3.25879e-02,-8.27293e-02,-1.23154e-01,-1.07511e-01,4.59251e-03,-5.26559e-02,5.98881e-03,-1.16386e-01,-1.82588e-01,-1.45480e-01,-2.51730e-01,-2.94406e-01,-3.21428e-02,-2.31006e-01,2.03156e-01,-1.98721e-01,1.28426e-02,-1.81112e-01,-1.02258e-01,-1.96754e-02,-1.12184e-01,-1.74265e-02,-2.48439e-02,-4.60603e-02,-8.53509e-02,-4.48735e-02,1.85222e-02,3.97050e-02,-1.47972e-01,-1.03011e-01,-1.17201e-01,-9.30931e-02,-7.82062e-02,-5.69186e-02,-1.27360e-01,-1.10771e-01,2.55159e-02,-8.00563e-02,-2.79759e-01,-2.18179e-01,2.54480e-01,-3.47626e-01,2.47386e-01,6.21468e-02,-2.41619e-02,-2.03774e-01,-2.24528e-01,8.18586e-02,-9.86121e-02,1.69393e-02,-1.83887e-02,-1.18648e-01,-3.88807e-02,5.98226e-02,-2.30874e-02,-7.63429e-02,-3.28331e-02,1.87816e-03,-3.36549e-02,-2.88278e-02,1.12420e-02,-3.11809e-02,-1.42737e-01,-6.60831e-02,-8.04586e-02,1.02227e-01,-1.30541e-01,-3.44407e-01,-7.28787e-02,-3.88864e-01,7.94536e-02,2.09423e-01,9.49870e-02,-2.00309e-01,-2.09781e-01,-1.50718e-03,-3.02713e-02,3.31735e-02,-2.22050e-02,-3.09269e-02,-2.45148e-02,-3.03686e-02,6.33979e-02,-9.09916e-03,-1.16733e-01,-2.31037e-02,-7.32182e-03,1.43173e-02,4.04122e-03,-9.10365e-02,-1.22076e-01,-1.77597e-01,-1.99012e-01,-3.48578e-01,-1.03559e-01,-1.95478e-02,-5.57702e-02,-3.52753e-01,-1.68374e-01,1.05312e-01,2.09457e-02,-2.36448e-01,-3.27761e-02,-1.25919e-02,-1.36933e-01,5.47261e-02,1.89540e-02,5.75963e-02,-7.14854e-02,2.14327e-02,2.50669e-02,-6.69756e-02,-1.30202e-01,7.82836e-03,-4.50219e-02,4.25026e-03,-8.53485e-02,8.03750e-03,-2.89056e-02,-1.74730e-01,-1.95780e-01,-8.47348e-02,-1.62817e-01,3.26528e-02,-4.74551e-02,9.86968e-02,-8.32620e-02,3.85172e-02,-9.57129e-02,-1.13523e-01,1.64922e-01,-2.81869e-02,-8.94649e-02,-1.49568e-02,-3.28809e-02,-9.81906e-02,3.90951e-03,-4.86347e-02,-8.14989e-02,-1.30092e-01,-4.91391e-02,5.08846e-02,-2.15611e-02,5.53520e-02,-4.15803e-03,6.95217e-02,-3.36472e-02,-8.37103e-02,-9.75467e-02,-2.55708e-01,-4.10759e-01,-2.43746e-01,1.41275e-02,2.40611e-01,1.57239e-02,-2.66248e-01,-6.91043e-02,6.96956e-02,1.68169e-02,1.28479e-02,2.61812e-02,2.52155e-02,-1.65945e-02,9.55847e-02,-5.67921e-03,2.49273e-03,1.57824e-02,-9.75498e-02,1.42964e-02,3.98997e-02,-1.40376e-02,1.08215e-01,2.17906e-02,4.04629e-02,9.01880e-02,1.02867e-02,-5.12922e-02,-1.31287e-01,-1.12284e-01,-3.38282e-01,-1.00988e-02,2.44433e-01,4.90682e-02,-3.07373e-01,-6.42252e-02,7.72879e-02,2.72048e-02,-7.70416e-02,2.35339e-02,2.54246e-02,2.47789e-02,1.46460e-02,3.44284e-02,-6.64168e-03,3.24082e-02,-8.56819e-03,2.92537e-02,1.93952e-02,-1.49591e-02,9.35127e-02,3.00986e-02,3.54166e-02,5.47346e-02,1.12697e-01,2.36418e-02,4.84952e-02,1.77754e-03,2.05546e-01,-1.68402e-02,-2.95872e-02,-1.38544e-01,-2.31586e-01,-6.28317e-02,6.43447e-02,-3.33679e-02,-4.39173e-02,8.32427e-02,4.89491e-02,4.25351e-02,4.37792e-02,5.53752e-02,-2.66191e-02,-1.15501e-01,5.22672e-03,6.97840e-02,3.15366e-03,1.78104e-03,-4.14502e-03,9.68036e-02,3.36185e-02,1.66258e-01,7.25595e-02,6.77385e-02,1.29685e-02,-4.51730e-01,4.12962e-02,-2.38445e-02,-2.07259e-02,5.05358e-02,5.65762e-02,-7.59194e-02,-6.05443e-02,-7.20834e-02,9.36919e-02,9.12723e-02,4.67044e-02,8.06627e-02,5.59047e-03,3.24231e-02,-3.47068e-02,-1.03366e-01,-1.26680e-01,-2.61035e-02,3.14753e-02,-4.25970e-02,-6.39201e-03,6.28227e-02,5.29635e-02,9.19030e-02,2.20954e-02,1.91482e-02,1.06958e-01,-2.12730e-01,-1.49637e-01,-4.03840e-02,1.76079e-02,-6.11082e-02,-4.40342e-02,-9.63325e-02,-9.79490e-02,-1.53078e-01,3.55532e-03,1.46148e-01,1.22769e-01,5.97562e-02,1.25052e-01,8.99618e-02,5.93956e-03,-1.71267e-03,-5.69023e-02,-2.94999e-02,4.08461e-02,-1.54321e-02,3.12801e-02,6.56312e-02,-2.83115e-02,8.36578e-02,5.13126e-03,-6.83046e-02,1.36724e-02,-2.01473e-01,1.65292e-01,-1.31428e-02,2.63627e-02,6.33578e-02,-1.02821e-01,-1.42870e-02,-1.49633e-01,-1.30903e-01,-5.75945e-02,1.27019e-01,1.11737e-01,9.96241e-02,1.78878e-01,9.85244e-02,8.64195e-02,4.27517e-02,-4.99789e-02,3.53165e-02,3.40344e-02,1.34938e-02,4.82266e-02,2.32527e-02,-1.00069e-02,4.24822e-02,-9.31912e-02,-6.24054e-02,4.81537e-03,-2.21493e-01,1.30555e-01,-2.97506e-01,3.08387e-02,-1.47755e-01,-1.35159e-01,-8.03274e-02,-1.12750e-01,-8.96008e-02,-3.58788e-02,1.59401e-01,7.77040e-02,7.80897e-02,1.41337e-01,1.85397e-02,2.09993e-02,1.06106e-01,-4.81478e-03,2.98802e-02,5.47780e-02,3.48862e-02,2.15194e-02,-2.73030e-02,3.65701e-02,1.87502e-02,9.02773e-03,2.17876e-02,5.46239e-02,-2.39205e-01,-1.94602e-01,3.13185e-02,-1.87108e-01,-1.92781e-01,-2.54783e-02,-8.86989e-02,-9.69769e-02,-1.60860e-01,-5.51333e-02,3.56969e-02,3.77294e-02,1.31577e-01,1.62054e-01,1.14104e-01,2.84516e-02,9.50982e-02,4.45645e-02,-4.26097e-02,-1.08162e-02,-4.96260e-02,-4.17462e-02,-1.68176e-02,2.99143e-02,-5.26248e-02,1.12949e-02,3.30114e-02,-8.36352e-02,-1.30118e-01,-1.30515e-01,-5.56668e-03,3.17942e-01,2.21883e-01,9.25858e-02,-3.45881e-02,-3.46470e-02,-2.44781e-02,-7.90789e-02,-6.92776e-02,6.24862e-02,5.69228e-02,9.65097e-02,7.38871e-02,4.46190e-02,1.20594e-01,5.32478e-02,-2.09539e-02,-5.34886e-02,7.81639e-03,-2.31499e-02,-5.93251e-02,6.93402e-02,-1.06245e-01,-9.89184e-02,-4.84197e-02,-8.19205e-02,1.78635e-02,4.96743e-03,2.15349e-02,1.06332e-01,1.63415e-01,-1.81658e-01,-1.45357e-01,-2.61386e-02,-2.85392e-02,8.24353e-02,-9.87310e-02,7.49519e-03,-3.25923e-02,6.44463e-02,7.41709e-02,7.10594e-02,6.10501e-02,-1.74035e-02,2.85952e-02,-3.69454e-02,-4.47770e-02,3.24730e-02,-1.40663e-02,-1.23577e-01,-1.45171e-01,-2.40666e-01,-2.02876e-01,-5.13875e-02,2.71518e-01,3.93519e-02,1.94855e-02,-2.90886e-02,-8.88981e-02,1.13390e-02,-9.25759e-02,-2.72373e-02,-1.10454e-01,6.25886e-02,-1.11779e-01,2.80687e-02,5.92649e-02,-5.16990e-02,3.08142e-02,-6.53001e-03,-1.31540e-01,-1.81676e-02,6.55495e-02,-9.05844e-02,-2.28586e-02,1.16139e-04,-9.07332e-02,-3.86394e-01,-2.58716e-01,-8.32253e-02,-1.72306e-01,-6.38418e-02,-5.88986e-02,4.11034e-02,-2.73285e-02,2.30944e-02,1.35300e-02,1.24835e-01,1.05431e-01,3.44632e-02,5.58672e-02,-3.70096e-02,-6.23441e-02,-1.02578e-01,-4.20078e-02,-3.84476e-02,-5.33622e-02,-4.93193e-02,1.79099e-02,5.85947e-02,-4.86001e-02,-1.37461e-01,-5.09204e-02,1.58566e-02,-6.80443e-02,-3.64594e-02,-1.42221e-01,-1.77728e-01,-2.04639e-01,-8.97506e-02,-1.89401e-01,1.16159e-02,3.42245e-02,8.98937e-03,-1.28659e-01,4.77742e-02,4.61268e-02,3.76143e-02,1.54221e-01,7.71256e-02,3.85603e-02,-9.17285e-02,-6.19538e-02,-9.21849e-02,2.43376e-02,5.81602e-03,-1.73599e-01,-4.84829e-02,3.70701e-02,-9.88101e-02,-1.14831e-01,-9.95425e-02,7.03885e-02,3.21547e-02,8.21812e-04,2.07341e-02,-1.60067e-01,-3.84759e-02,4.33425e-03,1.68538e-02,-1.42851e-02,3.33849e-02,1.21873e-01,-2.50893e-01,5.73294e-02,6.01718e-02,2.19974e-01,1.23658e-01,5.52512e-02,6.71257e-03,9.23806e-02,-4.11109e-03,-1.01156e-01,-5.08589e-02,-1.09412e-01,-1.03982e-01,-1.32363e-01,-1.75043e-01,-3.46366e-01,-1.63548e-01,7.77478e-03,-1.43979e-02,7.16805e-03,5.97911e-02,-9.06866e-02,1.44161e-02,1.30408e-02,2.32885e-02,-1.56488e-02,-3.23773e-02,2.35581e-03,-1.02668e-01,9.74690e-02,1.20699e-01,1.15442e-01,-5.64411e-02,-1.27478e-02,1.11068e-01,2.06037e-03,-6.51892e-02,9.36006e-02,1.76489e-01,1.06313e-01,-6.30259e-02,-3.14201e-02,-2.83361e-02,-4.16199e-02,3.08427e-03,-6.38629e-02,-3.11435e-01,-8.39090e-02,-4.00986e-02,1.04352e-01,-1.99452e-01,-5.74733e-03,-3.14105e-02,-3.01903e-02,2.25719e-02,3.01586e-02,3.46322e-02,-1.06466e-01,-1.50843e-01,-1.05574e-01,-5.59012e-02,-1.63148e-02,9.01608e-02,-7.55974e-03,4.88373e-02,1.69218e-03,-8.34057e-02,1.04793e-01,3.24469e-03,-1.75132e-01,3.17854e-02,1.16292e-01,-1.27244e-02,-1.28176e-01,-1.57302e-01,-1.30326e-01,2.60721e-02,3.42295e-02,6.99997e-03,-2.43606e-02,-2.95911e-02,
3.51618e-02,-1.44054e-02,-1.70019e-02,1.86268e-02,1.84169e-02,-3.13751e-02,7.60383e-03,2.68874e-02,5.10030e-03,3.45570e-02,7.04659e-03,-3.14971e-02,6.10758e-03,3.12524e-02,5.40308e-02,5.43258e-02,-2.24244e-02,-2.39802e-02,3.51715e-02,-1.10214e-02,-1.96881e-03,-1.47371e-02,-3.23817e-02,3.26647e-02,2.76606e-02,1.88247e-02,1.65866e-02,-1.66494e-02,-2.17003e-02,1.42772e-03,1.79797e-02,2.20507e-03,-1.78703e-02,7.90063e-03,-6.73912e-02,-7.60772e-02,-3.39152e-02,-3.85023e-02,-5.66198e-02,-1.94070e-02,-3.13175e-02,-1.47272e-01,1.45486e-01,1.66470e-01,-8.32622e-02,-1.73617e-01,-2.30968e-01,-4.62635e-02,-7.36860e-02,-2.74403e-02,-3.81931e-02,-4.19211e-03,2.74753e-02,2.83225e-02,3.32448e-02,2.17217e-02,-4.21007e-03,1.20223e-02,-4.15212e-02,-9.05571e-03,-1.53584e-01,-1.21503e-01,-2.77165e-02,-7.25757e-02,-2.63419e-01,-2.70826e-01,7.05923e-02,1.66855e-01,-4.32349e-02,1.13981e-01,7.17615e-02,2.54552e-01,3.08796e-01,1.96436e-01,1.00110e-01,3.21830e-02,9.95740e-02,-8.81046e-03,-6.49501e-02,-2.61692e-02,-1.04304e-01,-4.13951e-03,2.98494e-02,-1.79340e-02,-1.45469e-03,2.74286e-02,1.22098e-01,-1.19699e-01,-1.84310e-01,-3.06256e-01,-2.53070e-01,-1.70987e-01,-4.58278e-02,-5.01873e-02,-1.49544e-01,-4.99977e-02,-6.40335e-02,-9.08004e-02,-1.46629e-01,-1.16690e-01,-1.99479e-02,4.09941e-02,2.17579e-02,-5.67586e-02,-4.57930e-02,1.23032e-02,1.15000e-01,1.12726e-01,-7.87247e-02,-7.56857e-02,-2.84722e-01,-2.68210e-02,-1.30882e-02,4.10191e-02,4.11803e-02,-9.41141e-02,-1.33253e-02,2.57120e-02,1.02154e-02,-9.35359e-02,1.08662e-01,1.09457e-01,9.66801e-02,9.22182e-02,5.82256e-02,-9.64822e-02,-1.51060e-02,4.06495e-02,1.15800e-01,6.08834e-02,-2.40459e-02,2.55940e-02,1.42475e-02,8.83407e-02,7.35557e-02,2.58360e-02,-1.40712e-01,-1.19562e-01,-3.84420e-02,-2.12517e-01,4.69436e-03,-1.71654e-03,4.38117e-02,-9.57739e-02,-3.24302e-02,1.97453e-01,5.69673e-02,-1.13451e-01,-1.97935e-02,6.19370e-02,3.71865e-02,-7.37470e-03,-1.03931e-01,-3.06908e-02,4.33225e-02,-6.53077e-02,-5.52536e-02,-9.76048e-02,1.49630e-02,1.05385e-02,5.13634e-02,4.78177e-02,3.90246e-02,8.40356e-02,5.95459e-02,-1.18873e-01,-2.30257e-01,-8.15822e-02,-8.58196e-03,1.02104e-01,-9.33677e-02,-9.87080e-02,-5.59699e-02,-4.92302e-02,1.56466e-01,1.22728e-01,3.67827e-03,-3.72149e-02,-4.28142e-02,4.98146e-02,1.79859e-02,3.44823e-02,-2.77401e-02,4.52341e-03,1.97981e-02,-1.20730e-02,-1.13462e-02,1.72435e-02,-8.04956e-03,9.09272e-02,-7.71686e-03,-2.06084e-02,3.98849e-02,2.96179e-02,-2.02865e-01,-1.15079e-01,-9.07238e-03,3.95195e-02,-5.71011e-02,-1.13800e-02,-5.92745e-02,-6.06616e-02,6.72877e-02,4.30647e-02,2.64016e-02,1.19775e-02,1.22908e-02,8.37501e-03,5.53330e-02,4.75966e-02,3.24633e-03,-7.91367e-03,3.15095e-02,4.83878e-02,4.67199e-02,5.72963e-02,1.51846e-01,2.71017e-03,7.09410e-02,6.70502e-02,-3.51571e-02,-1.50790e-02,-1.58428e-01,-1.81564e-01,-6.61876e-02,3.47656e-01,-1.02317e-01,3.48365e-02,-1.45723e-02,-1.04750e-01,5.70176e-02,-1.72674e-02,2.53724e-02,1.04446e-01,1.04424e-01,5.70225e-02,8.99947e-02,3.29962e-02,3.40196e-02,-7.19158e-03,5.71967e-02,2.53812e-02,6.14149e-02,-2.40525e-02,7.24146e-03,-4.43739e-02,3.59695e-02,6.05715e-02,1.90836e-02,8.54592e-02,-3.25562e-02,-9.37555e-03,1.98866e-01,2.65722e-01,5.70763e-02,-6.82368e-02,-1.35407e-01,-1.02208e-01,-4.90217e-02,7.13084e-02,9.95433e-02,9.06508e-02,7.65073e-02,5.58200e-02,-1.59682e-02,5.34942e-02,6.16270e-02,-8.94355e-03,-3.48294e-03,9.39317e-03,5.10775e-03,-1.67849e-02,-2.13258e-02,-1.09780e-02,6.69677e-02,8.76872e-02,2.55847e-02,4.58802e-02,1.08697e-01,3.21348e-01,2.06170e-01,1.09848e-01,2.86296e-03,-1.22318e-01,-1.58773e-01,-1.60597e-01,-6.34360e-02,7.05435e-03,5.19346e-02,1.14279e-01,-1.52017e-02,1.85386e-02,-1.36293e-02,-1.18860e-02,2.05000e-02,-7.98741e-03,4.53281e-02,1.34139e-02,2.11875e-02,-6.29676e-04,-7.45446e-02,-3.61183e-02,-5.31969e-02,-1.93238e-02,5.84255e-03,3.33244e-02,1.31988e-01,2.90166e-01,1.72568e-01,-1.17472e-01,-1.20328e-02,-2.50549e-02,-2.67156e-02,-3.11094e-02,-1.10480e-01,-5.63862e-02,-3.54692e-02,-3.83667e-02,-6.37473e-02,-2.65713e-02,4.17310e-02,-2.42854e-02,-1.96924e-02,5.90434e-02,9.14889e-02,5.65185e-02,3.87082e-02,-3.78675e-02,-4.27480e-02,-4.13075e-02,-6.12554e-03,3.48602e-02,9.96945e-02,1.63090e-03,4.61476e-02,-1.21067e-01,8.02225e-02,-4.09195e-02,-3.49175e-02,2.31660e-02,4.04214e-02,1.95167e-02,-1.37826e-01,-8.54577e-02,-1.03181e-01,-7.72221e-02,1.36291e-03,-9.11585e-03,-8.44114e-02,-1.21274e-01,-9.48271e-03,8.06414e-02,6.14414e-02,1.05625e-01,2.94955e-03,-7.94500e-02,-8.07158e-02,-4.19971e-02,6.28504e-02,9.01911e-02,-5.39963e-02,-8.90893e-02,-1.46378e-01,4.52664e-02,-8.74901e-02,-6.96696e-02,-9.42223e-04,1.32584e-01,1.24408e-01,7.28954e-02,-1.41406e-01,1.60388e-02,-2.02021e-02,-8.15562e-02,5.15136e-02,1.20981e-02,-9.90257e-02,-5.01792e-02,4.14053e-02,3.05495e-02,2.86014e-02,8.75674e-02,1.65066e-02,-1.91103e-01,-1.19041e-01,7.22115e-02,1.28469e-01,1.20170e-01,2.29502e-02,2.37275e-02,-9.72521e-02,3.49679e-02,1.92156e-03,-6.04214e-02,8.35449e-02,1.76448e-01,-8.16639e-02,4.14436e-03,-4.26974e-02,1.33281e-01,-9.56931e-02,3.98116e-03,1.86161e-02,-8.94870e-03,-4.61075e-02,-5.30748e-03,-6.77963e-02,-3.30714e-03,2.31594e-02,2.92123e-02,2.59729e-02,-8.02467e-02,-1.26233e-02,2.45925e-02,-3.00633e-02,6.60467e-02,1.34572e-02,4.80004e-02,3.32301e-01,8.99464e-02,-4.50048e-03,-2.74712e-02,4.31639e-02,-1.10608e-01,-7.98665e-02,-1.75894e-01,3.03456e-02,-3.26524e-02,2.60838e-02,1.50793e-02,4.50227e-02,2.58179e-02,-7.33546e-02,-7.17274e-02,-4.97548e-02,-6.14243e-03,3.84250e-02,3.56751e-02,-4.98349e-04,3.22555e-02,-5.85834e-02,1.59057e-02,-1.84362e-01,-3.17347e-02,-2.53460e-01,-9.06433e-02,1.54694e-01,-1.47640e-01,-1.67487e-03,2.41148e-02,1.45014e-01,-1.31102e-01,-3.18567e-02,5.96003e-02,1.52761e-01,1.50984e-02,-8.96142e-02,-8.93549e-03,-3.89462e-02,-5.82280e-02,-3.44482e-02,-3.59983e-02,-1.16992e-02,6.56820e-02,5.32758e-02,-1.53922e-02,-9.76011e-02,-1.03517e-01,-1.24122e-01,-1.13378e-01,-2.12648e-01,-9.53108e-02,-2.25410e-01,-1.18637e-01,-4.40223e-02,-1.90954e-01,-1.41605e-02,5.79577e-02,1.30148e-01,-1.23039e-01,9.28430e-02,7.05703e-02,3.65300e-02,-5.93119e-02,-7.86794e-02,-4.82265e-02,-8.25687e-03,4.76041e-03,-1.21894e-03,-4.14619e-02,-1.14172e-02,3.61677e-03,-4.17938e-02,-1.55625e-01,-1.65060e-01,-1.03759e-01,-7.26931e-02,-1.45618e-01,-1.82691e-01,-1.75725e-01,-1.42531e-01,-3.77760e-02,7.41633e-02,-1.01040e-01,3.43353e-01,5.53188e-02,1.23328e-01,-1.20932e-01,6.74976e-02,1.20314e-01,1.00384e-02,-3.76620e-02,-1.01291e-01,-2.26158e-02,2.81695e-02,-3.82346e-02,-6.45574e-02,-1.25604e-02,-3.83993e-02,-6.03385e-02,-8.39078e-02,-1.42590e-01,-8.85328e-02,-4.56425e-02,-5.09209e-03,1.33998e-02,3.20969e-02,1.74357e-02,-1.46865e-01,1.41921e-02,-1.27164e-01,1.83978e-01,8.63155e-02,1.24214e-01,-7.21302e-02,-5.77419e-02,6.27528e-03,-7.18746e-02,-2.42513e-02,-3.22537e-02,3.89011e-03,-5.78397e-02,3.00153e-02,-3.58093e-02,-3.63890e-02,2.50425e-03,2.50901e-02,-1.15851e-01,-9.35225e-02,-9.27141e-02,-4.65531e-02,-5.51697e-02,3.36439e-02,3.29326e-02,1.04467e-01,8.71426e-03,-3.49744e-02,1.43959e-01,-7.71733e-02,2.28485e-01,3.52668e-02,6.20265e-02,-9.45235e-02,1.51602e-02,-1.15162e-01,-9.63616e-02,-1.59130e-02,7.03113e-02,6.03503e-02,1.29780e-02,-2.29742e-02,-4.14099e-02,5.31554e-02,5.52964e-03,-3.30801e-02,-5.24080e-03,4.22885e-02,6.37669e-02,3.54934e-02,-1.42146e-02,-1.43771e-02,7.37150e-02,9.29900e-02,6.18218e-02,1.65068e-01,1.71348e-01,-2.15413e-02,1.74045e-01,8.50152e-02,1.08559e-01,4.23607e-02,5.24134e-02,2.13373e-02,2.88108e-02,5.39984e-02,4.47394e-02,1.89464e-02,-8.88136e-03,1.23115e-02,2.47815e-02,1.36699e-02,-1.11302e-03,-2.14511e-02,8.31152e-02,1.06136e-01,4.23958e-02,7.71031e-03,2.15937e-02,2.85109e-02,1.54561e-01,1.38772e-02,3.38881e-02,1.01048e-01,4.32005e-02,-1.76655e-01,-4.86494e-03,7.85235e-02,1.08614e-01,1.57192e-02,-9.89330e-03,2.07479e-01,3.80331e-02,7.72395e-03,2.78588e-02,1.26759e-02,-6.64314e-02,3.54850e-04,2.10414e-02,-2.80496e-03,-2.95254e-02,4.91112e-02,3.40338e-02,7.44861e-02,-4.08342e-02,3.51485e-02,-6.06154e-02,1.07607e-02,8.68004e-02,-4.95735e-02,-8.61159e-03,-9.64030e-02,-1.08466e-01,-1.13996e-01,-4.00504e-02,2.28335e-02,2.09729e-03,4.90624e-02,-1.09306e-01,4.08664e-02,3.96954e-02,-1.06932e-01,3.09826e-02,-1.16644e-02,-9.22076e-02,1.46195e-02,4.03147e-03,2.27535e-03,2.32113e-02,-6.86228e-04,6.13878e-02,1.78351e-03,-9.35282e-02,-2.56786e-02,8.24786e-02,-4.08815e-02,5.55004e-02,-3.20334e-02,1.38005e-02,9.79676e-02,-1.11195e-01,-2.57763e-02,-3.26638e-02,6.39827e-03,-2.04474e-02,7.92827e-02,-1.60599e-01,1.02705e-01,1.12532e-01,1.49906e-01,1.34429e-03,1.47386e-02,-5.29741e-02,3.52889e-02,-2.20637e-02,-5.30100e-02,-4.97052e-04,-2.00020e-02,8.52867e-02,7.04087e-02,-4.79145e-02,-1.02162e-02,-8.85924e-02,-2.89880e-02,2.27877e-03,2.36861e-02,-1.54378e-02,-1.87438e-01,-1.20320e-01,-6.61228e-02,-3.01493e-02,-1.31733e-02,-1.40207e-02,5.69352e-02,1.08425e-01,1.49974e-01,1.70574e-01,5.86967e-02,1.79659e-01,5.55577e-02,4.57235e-03,-2.05049e-02,6.96535e-02,-1.36726e-02,-9.47487e-02,-5.68751e-02,2.38994e-02,3.09026e-02,-7.57649e-02,-6.13604e-02,-6.28809e-02,8.76399e-02,1.79043e-01,-3.07395e-02,-1.55583e-01,-2.20322e-01,-1.25594e-01,-1.50983e-01,-3.35591e-02,2.82969e-02,6.24566e-03,2.32380e-02,1.11267e-01,-1.83031e-02,2.33068e-01,2.22252e-01,1.86043e-01,1.75079e-01,1.46817e-01,2.89194e-02,7.24147e-02,3.35785e-02,6.25189e-02,1.59752e-01,6.28422e-02,-1.29914e-01,-2.47707e-01,-1.33582e-01,1.12900e-02,1.86160e-01,2.52516e-01,1.05704e-01,7.42243e-02,6.19476e-02,1.30072e-01,-2.87462e-02,-9.44022e-03,3.97897e-03,2.25246e-03,1.52982e-02,7.69943e-04,5.88362e-02,3.58065e-02,-4.53772e-02,-2.60281e-02,5.08186e-02,-3.39517e-02,2.36463e-01,1.29537e-02,1.41673e-02,1.32076e-01,1.10079e-02,-2.10751e-01,-1.17817e-01,2.88087e-02,2.45270e-02,8.15926e-02,-6.27676e-02,-6.86461e-02,1.94314e-01,1.64365e-01,1.29627e-02,1.37080e-02,-6.37547e-03,7.18789e-05,
1.32447e-02,1.13526e-02,-7.57169e-03,-3.17968e-02,3.25329e-02,2.27334e-02,-3.36589e-02,-3.22856e-02,-1.83872e-02,-1.95641e-02,1.16461e-02,-3.99739e-03,1.68710e-03,-1.14917e-03,3.69786e-02,1.69348e-02,-1.97878e-02,-2.62283e-02,9.91270e-03,-2.89663e-02,-2.28998e-02,-2.44016e-02,1.74547e-02,1.56511e-02,3.08117e-02,-1.83623e-02,-6.02551e-03,-1.66576e-02,1.18903e-02,-2.74286e-02,-1.57718e-02,-1.49166e-02,-1.88066e-02,-3.43313e-02,-1.89610e-03,3.32737e-02,8.30469e-05,-1.70270e-02,1.16423e-02,1.32082e-02,3.36721e-02,-8.17342e-03,1.47459e-01,1.42548e-01,9.06925e-02,3.42426e-02,4.05282e-02,4.64735e-02,5.67283e-03,-2.07002e-03,2.86837e-02,3.44065e-02,-2.58957e-02,2.17085e-02,-1.82951e-02,5.00597e-03,2.64438e-02,-3.54359e-02,-4.33756e-03,4.16111e-02,1.73139e-02,5.76182e-03,9.74877e-03,-3.15892e-04,-9.10242e-02,-1.67699e-01,-9.41952e-02,9.67506e-02,-2.23323e-01,-3.39442e-01,-1.81820e-01,1.17566e-01,1.15421e-01,1.45314e-01,1.70444e-01,2.10330e-01,1.17507e-01,7.50057e-02,7.00970e-02,1.23979e-01,-2.10993e-02,-9.79199e-03,1.60247e-02,2.54881e-02,-2.06519e-02,-1.00450e-02,2.19450e-02,4.23844e-02,7.85832e-02,1.91866e-01,1.83733e-01,2.12669e-02,-4.50577e-02,-2.00799e-01,-2.22823e-01,-1.44317e-01,-3.90025e-02,6.55710e-03,-6.16543e-02,5.88532e-02,-1.25862e-02,-3.00904e-02,4.22708e-02,5.30349e-02,6.90030e-02,-5.68488e-03,4.80081e-03,3.30432e-02,-3.59988e-02,-7.89634e-02,1.95146e-02,2.30716e-02,-1.09950e-02,9.19391e-02,-4.35179e-02,2.37034e-01,-9.00420e-03,1.20520e-01,1.44763e-01,1.49152e-01,1.88261e-01,1.11003e-01,1.39950e-01,2.20113e-01,1.84850e-01,2.63043e-02,1.91667e-02,8.29841e-02,9.88151e-02,2.57997e-02,1.08743e-01,-7.16583e-02,-1.63556e-01,2.00707e-02,1.01404e-01,4.51953e-02,2.35936e-01,2.70721e-01,1.98464e-01,1.18025e-01,1.99939e-02,6.79332e-03,1.96480e-01,4.23221e-02,-5.02945e-02,-2.86539e-02,9.67625e-02,8.68077e-02,3.31388e-02,1.21497e-02,1.31616e-01,1.48807e-01,1.07967e-01,1.02675e-01,2.09684e-02,1.19843e-01,6.28724e-02,4.73712e-03,3.46826e-02,-1.40785e-02,2.31660e-02,4.16060e-02,2.18898e-01,1.36711e-01,1.34802e-01,2.65608e-01,2.89173e-01,-8.77309e-03,-3.14823e-02,1.83669e-01,1.85092e-01,1.24737e-01,9.92851e-02,3.60309e-02,1.22921e-02,6.79033e-02,6.21304e-02,3.13182e-02,3.14346e-02,6.33987e-02,3.28495e-02,6.33188e-02,-7.08301e-02,3.49140e-02,1.80873e-02,3.73172e-02,-3.39163e-02,9.10621e-02,3.31020e-02,-5.84527e-02,3.38379e-02,2.71139e-01,2.43092e-01,3.30521e-01,2.15427e-01,1.42531e-01,2.39566e-02,3.45705e-01,1.28700e-01,8.11176e-02,1.69101e-01,8.27732e-02,-7.19355e-03,6.95760e-02,-2.97553e-02,-1.37804e-02,5.86110e-02,2.03074e-02,3.70179e-02,4.90984e-02,4.50912e-02,5.79627e-02,7.91483e-02,3.68825e-02,6.93922e-02,6.98731e-02,8.90487e-02,-2.85328e-02,-8.87119e-03,1.03431e-01,1.69706e-01,3.17374e-01,3.00338e-01,2.00043e-01,5.97103e-02,3.05169e-01,-1.36979e-02,1.02685e-01,-1.18875e-02,-6.02884e-02,2.10104e-02,-5.93483e-02,-2.14818e-02,-2.58128e-02,8.27970e-02,-4.28770e-02,4.19647e-02,6.06166e-02,2.09949e-02,4.61175e-02,2.15220e-02,-6.36010e-02,-2.64069e-02,-7.52066e-03,7.73375e-02,3.76997e-02,5.04806e-02,1.18684e-01,3.02811e-01,4.26365e-01,2.89407e-01,2.61724e-01,5.46148e-02,4.57277e-01,1.04914e-01,-3.18793e-02,-4.41058e-02,-1.66407e-01,1.28808e-01,-8.84227e-02,8.40582e-03,2.75467e-02,1.04635e-01,-1.20754e-01,-1.36943e-01,-1.71127e-01,-1.04232e-01,-7.05370e-02,-1.31390e-01,-1.29806e-01,-8.55706e-02,-7.59554e-02,-2.63032e-02,-2.78237e-02,7.16980e-02,8.04166e-02,3.36843e-01,4.54234e-01,3.46991e-01,4.00031e-01,-2.86843e-03,6.06191e-01,1.41403e-01,-2.73391e-02,-3.01070e-01,-1.32877e-01,1.69038e-02,-9.78613e-02,-1.11603e-01,-2.88721e-02,-1.57870e-02,-6.32426e-02,3.28414e-02,-8.30943e-02,-7.15604e-02,-1.82522e-01,-6.34528e-02,-8.69302e-02,-8.44376e-02,-2.13740e-01,-1.12639e-01,-1.34709e-01,-1.47524e-01,-1.54385e-01,-7.36835e-02,1.70472e-02,7.37798e-02,2.26240e-01,4.56826e-02,6.28645e-01,1.85121e-01,-9.34595e-02,-2.28305e-01,-1.54309e-01,-7.21072e-02,-2.95207e-02,-6.56483e-02,-7.57423e-03,-7.49048e-02,3.27118e-02,1.61095e-01,1.46431e-01,1.70888e-01,-1.68854e-02,-3.67084e-02,5.81077e-04,4.71744e-02,-2.34018e-02,-1.13695e-01,-2.14766e-01,-2.92749e-01,-2.41320e-01,-1.75360e-01,-1.33403e-01,9.38463e-02,-1.81142e-02,1.71632e-01,5.83171e-01,2.30900e-01,-5.00784e-02,-1.18113e-01,-5.62286e-02,-4.28583e-02,1.11875e-01,1.52903e-01,7.94319e-02,5.96188e-02,1.53700e-01,1.55377e-01,2.22329e-01,2.14496e-01,-1.42022e-02,-7.65243e-02,2.44181e-02,-2.69156e-03,-2.80945e-02,1.91437e-02,-8.54814e-02,-2.35381e-01,-1.30659e-01,-1.20003e-01,-2.55883e-01,5.83235e-02,3.60985e-02,-7.51117e-03,3.92176e-01,2.64830e-01,7.54309e-02,-1.09159e-01,8.52115e-03,-4.51269e-02,1.04406e-01,3.39504e-02,1.15122e-01,1.25650e-01,5.21000e-02,7.84710e-02,1.37836e-01,1.02125e-01,-9.16947e-02,3.48555e-02,-1.49323e-02,-1.19478e-01,-9.69836e-02,-6.39024e-02,-4.14251e-02,-1.06274e-01,2.09421e-02,2.63123e-02,-5.70870e-02,-2.95613e-02,-1.10044e-01,2.12085e-01,2.56134e-01,1.95862e-01,1.81836e-01,1.19043e-02,-1.61138e-01,-1.25263e-01,-1.79234e-02,2.93652e-02,1.17743e-01,2.46895e-02,-8.35972e-02,-1.01382e-01,9.51242e-03,8.84294e-02,-5.81848e-02,9.50123e-03,-8.40643e-02,-1.25324e-01,-1.05678e-01,-8.03135e-03,-8.88126e-03,-2.23895e-02,7.59085e-02,6.97106e-02,5.08887e-02,-3.70110e-02,-1.44422e-01,2.12631e-01,8.23159e-02,3.24497e-01,-5.63761e-02,-1.64552e-01,-2.52391e-01,-2.80334e-01,-1.96374e-01,-5.79839e-02,-4.17846e-02,6.39359e-02,-7.54351e-02,8.27116e-02,1.21480e-01,1.08739e-02,-1.53040e-01,-8.30749e-02,-4.69289e-02,-7.72697e-02,-3.76599e-03,7.20838e-02,4.13241e-02,1.41660e-02,1.15586e-01,-1.97213e-03,8.24157e-02,5.97928e-02,-3.35193e-02,5.73259e-02,1.26378e-01,2.78125e-01,3.68823e-02,-2.43578e-01,-4.58845e-01,-5.46083e-01,-4.21286e-01,-4.69900e-01,-3.42705e-01,7.41387e-04,-3.02153e-02,-4.45887e-02,4.84464e-02,-7.10889e-02,-9.26421e-02,-2.32329e-02,-2.08215e-03,-5.37312e-02,4.54916e-02,3.15284e-02,8.23093e-02,1.38230e-01,1.53474e-02,-3.45372e-02,-2.40393e-01,-3.28508e-02,-4.52322e-02,2.46509e-02,2.43494e-01,2.17707e-01,1.56432e-01,-2.04464e-01,-4.04265e-01,-2.78121e-01,-3.56424e-01,-5.47682e-01,-5.73676e-01,-4.11470e-01,-2.69482e-01,-1.85436e-01,-2.86802e-01,-1.75881e-01,-2.60881e-02,-4.99154e-02,6.69636e-02,3.23068e-02,1.04618e-01,1.30693e-01,1.53301e-01,7.67773e-02,5.91123e-03,-1.60947e-01,-2.81334e-01,-1.10530e-01,-1.07806e-01,1.38526e-01,1.90449e-01,1.81917e-01,2.66640e-01,1.81290e-01,-5.89112e-02,-3.58103e-02,-1.72414e-01,-1.75853e-01,-3.71043e-01,-2.85922e-01,-3.84051e-01,-3.19370e-01,-2.49472e-01,-6.01903e-02,1.40715e-02,5.48932e-02,5.37253e-02,5.03394e-02,9.80235e-02,1.43157e-01,5.44116e-02,1.34131e-01,4.24881e-02,-1.69152e-01,-4.17853e-01,-7.93055e-02,-1.89907e-01,2.61401e-02,9.49007e-02,2.74877e-01,3.96390e-01,1.99887e-01,1.33177e-01,9.64784e-02,7.90245e-02,7.75259e-02,7.59585e-02,-4.81785e-02,-1.66508e-01,-5.17834e-02,-5.79049e-02,3.65441e-02,-7.74050e-02,-7.22453e-02,3.16459e-02,8.03153e-02,8.91913e-02,7.84186e-02,4.96857e-02,9.52907e-02,1.06752e-01,7.90411e-02,3.25316e-02,-1.14591e-01,-1.27262e-01,-6.21988e-03,2.15906e-01,2.10696e-01,3.81171e-01,2.65495e-01,1.49901e-01,1.12264e-01,1.15528e-01,2.96749e-01,1.57335e-01,8.99111e-02,6.52069e-02,2.64192e-02,3.73956e-02,-4.92899e-02,-3.48352e-02,-1.20598e-01,-1.21990e-03,6.16867e-02,7.41612e-02,4.80011e-02,-2.23112e-02,2.86713e-02,-2.57837e-02,1.02903e-01,2.16481e-02,-6.41337e-02,4.89217e-02,-1.17466e-02,1.91973e-01,1.34913e-01,1.97335e-01,2.38308e-01,2.28217e-01,1.51878e-01,2.52606e-01,1.92385e-01,1.85751e-01,1.74818e-01,2.68326e-02,1.10458e-01,1.33094e-01,1.87831e-02,-2.67533e-02,-3.46192e-02,3.90980e-02,3.44897e-02,-7.46928e-02,-4.56702e-02,-9.99729e-02,-3.46777e-02,-1.52120e-01,-1.47151e-01,-1.58592e-01,-8.37730e-02,3.31198e-02,-3.31312e-02,3.93728e-02,1.31101e-01,7.56031e-02,9.66361e-02,1.20358e-01,6.05296e-02,4.55952e-02,1.03618e-01,1.14032e-01,1.01720e-01,-3.24600e-02,-4.97429e-02,7.76424e-02,7.20408e-03,-2.97846e-02,-2.52747e-02,5.51147e-02,-4.77198e-02,-4.14419e-02,-3.83877e-02,5.25878e-03,1.30581e-02,1.16904e-01,-2.00358e-01,5.84789e-04,2.68469e-02,7.81852e-02,-1.22066e-02,-1.05709e-02,1.12211e-01,2.83603e-01,8.91994e-02,2.24480e-01,3.07900e-02,4.09530e-02,4.88883e-02,9.19568e-02,1.66515e-01,7.48579e-02,4.39727e-02,1.30799e-01,-3.46723e-02,1.79020e-02,1.32037e-01,1.48281e-01,-3.39128e-03,-5.95799e-02,8.99106e-03,3.76205e-02,-1.88481e-02,-1.73490e-01,-2.38758e-01,-1.35980e-01,4.11300e-02,-3.35774e-03,2.11802e-02,-2.95012e-02,-9.71355e-02,2.56344e-01,5.73826e-03,-7.63388e-02,4.38373e-03,1.11894e-01,-1.68970e-02,-3.24223e-02,3.37341e-02,3.14361e-02,-3.02054e-02,-3.31342e-02,2.27180e-02,9.34383e-02,1.17673e-01,6.96482e-02,-5.86140e-02,-1.26811e-01,-8.95385e-02,-1.12744e-01,-2.17768e-01,-1.45065e-01,-2.26174e-01,-3.81001e-02,3.69708e-02,3.18943e-02,3.18413e-02,-2.42429e-02,-1.85998e-02,-3.25147e-02,-1.40347e-01,-2.19970e-01,-4.09759e-02,6.00291e-02,-1.93776e-02,4.91260e-02,7.87050e-02,9.13534e-02,-1.64226e-02,2.59360e-02,3.41739e-02,1.62310e-01,3.08996e-01,1.36115e-01,2.15647e-02,1.30020e-01,-3.02059e-03,5.55154e-02,2.06310e-02,-1.72532e-01,-8.65514e-02,-1.15630e-02,9.73521e-03,2.25338e-02,-4.70517e-03,-4.57805e-03,9.62789e-03,4.91980e-03,-1.83370e-02,-7.23415e-02,-1.22793e-01,-1.36989e-01,-9.16406e-02,9.08325e-02,1.41198e-01,2.43371e-01,2.42545e-01,2.89354e-01,3.84488e-01,4.18852e-01,4.64174e-01,2.72061e-01,1.19298e-01,5.35110e-03,2.86356e-01,3.53624e-01,3.94850e-01,2.13187e-01,4.34348e-02,3.28511e-02,2.37674e-04,-2.84949e-02,2.95065e-02,-3.33792e-02,-8.20498e-03,3.33707e-02,3.49392e-02,3.49958e-02,7.72844e-02,5.61187e-02,1.12188e-01,1.02810e-01,2.08143e-01,1.60733e-01,2.24705e-01,4.96440e-01,1.12859e-01,2.46058e-01,4.17274e-01,4.28755e-01,6.16385e-02,8.29319e-02,4.76740e-02,1.57525e-05,-1.09925e-02,-1.88028e-02,2.40481e-03,-2.51901e-02,-2.80373e-02,-3.61992e-03,
