// Neural Network File Format by Kyle Julian, Stanford 2016
3,784,10,784,
784,50,50,10,
0,
0,0,0,0,0,0,0,0,0,0,0,0,0,0,0,0,0,0,0,0,0,0,0,0,0,0,0,0,0,0,0,0,0,0,0,0,0,0,0,0,0,0,0,0,0,0,0,0,0,0,0,0,0,0,0,0,0,0,0,0,0,0,0,0,0,0,0,0,0,0,0,0,0,0,0,0,0,0,0,0,0,0,0,0,0,0,0,0,0,0,0,0,0,0,0,0,0,0,0,0,0,0,0,0,0,0,0,0,0,0,0,0,0,0,0,0,0,0,0,0,0,0,0,0,0,0,0,0,0,0,0,0,0,0,0,0,0,0,0,0,0,0,0,0,0,0,0,0,0,0,0,0,0,0,0,0,0,0,0,0,0,0,0,0,0,0,0,0,0,0,0,0,0,0,0,0,0,0,0,0,0,0,0,0,0,0,0,0,0,0,0,0,0,0,0,0,0,0,0,0,0,0,0,0,0,0,0,0,0,0,0,0,0,0,0,0,0,0,0,0,0,0,0,0,0,0,0,0,0,0,0,0,0,0,0,0,0,0,0,0,0,0,0,0,0,0,0,0,0,0,0,0,0,0,0,0,0,0,0,0,0,0,0,0,0,0,0,0,0,0,0,0,0,0,0,0,0,0,0,0,0,0,0,0,0,0,0,0,0,0,0,0,0,0,0,0,0,0,0,0,0,0,0,0,0,0,0,0,0,0,0,0,0,0,0,0,0,0,0,0,0,0,0,0,0,0,0,0,0,0,0,0,0,0,0,0,0,0,0,0,0,0,0,0,0,0,0,0,0,0,0,0,0,0,0,0,0,0,0,0,0,0,0,0,0,0,0,0,0,0,0,0,0,0,0,0,0,0,0,0,0,0,0,0,0,0,0,0,0,0,0,0,0,0,0,0,0,0,0,0,0,0,0,0,0,0,0,0,0,0,0,0,0,0,0,0,0,0,0,0,0,0,0,0,0,0,0,0,0,0,0,0,0,0,0,0,0,0,0,0,0,0,0,0,0,0,0,0,0,0,0,0,0,0,0,0,0,0,0,0,0,0,0,0,0,0,0,0,0,0,0,0,0,0,0,0,0,0,0,0,0,0,0,0,0,0,0,0,0,0,0,0,0,0,0,0,0,0,0,0,0,0,0,0,0,0,0,0,0,0,0,0,0,0,0,0,0,0,0,0,0,0,0,0,0,0,0,0,0,0,0,0,0,0,0,0,0,0,0,0,0,0,0,0,0,0,0,0,0,0,0,0,0,0,0,0,0,0,0,0,0,0,0,0,0,0,0,0,0,0,0,0,0,0,0,0,0,0,0,0,0,0,0,0,0,0,0,0,0,0,0,0,0,0,0,0,0,0,0,0,0,0,0,0,0,0,0,0,0,0,0,0,0,0,0,0,0,0,0,0,0,0,0,0,0,0,0,0,0,0,0,0,0,0,0,0,0,0,0,0,0,0,0,0,0,0,0,0,0,0,0,0,0,0,0,0,0,0,0,0,0,0,0,0,0,0,0,0,0,0,0,0,0,0,0,0,0,0,0,0,0,0,0,0,0,0,0,0,0,0,0,0,0,0,0,0,0,0,0,0,0,0,0,0,0,0,0,0,0,0,0,0,0,0,0,0,0,0,0,0,0,0,0,0,0,0,0,0,0,0,0,0,0,0,0,0,0,0,0,0,0,0,0,0,0,0,0,0,0,0,0,0,0,0,0,0,0,0,0,0,0,0,0,0,0,0,0,0,0,0,0,0,0,0,0,0,0,0,0,0,0,0,0,0,
1,1,1,1,1,1,1,1,1,1,1,1,1,1,1,1,1,1,1,1,1,1,1,1,1,1,1,1,1,1,1,1,1,1,1,1,1,1,1,1,1,1,1,1,1,1,1,1,1,1,1,1,1,1,1,1,1,1,1,1,1,1,1,1,1,1,1,1,1,1,1,1,1,1,1,1,1,1,1,1,1,1,1,1,1,1,1,1,1,1,1,1,1,1,1,1,1,1,1,1,1,1,1,1,1,1,1,1,1,1,1,1,1,1,1,1,1,1,1,1,1,1,1,1,1,1,1,1,1,1,1,1,1,1,1,1,1,1,1,1,1,1,1,1,1,1,1,1,1,1,1,1,1,1,1,1,1,1,1,1,1,1,1,1,1,1,1,1,1,1,1,1,1,1,1,1,1,1,1,1,1,1,1,1,1,1,1,1,1,1,1,1,1,1,1,1,1,1,1,1,1,1,1,1,1,1,1,1,1,1,1,1,1,1,1,1,1,1,1,1,1,1,1,1,1,1,1,1,1,1,1,1,1,1,1,1,1,1,1,1,1,1,1,1,1,1,1,1,1,1,1,1,1,1,1,1,1,1,1,1,1,1,1,1,1,1,1,1,1,1,1,1,1,1,1,1,1,1,1,1,1,1,1,1,1,1,1,1,1,1,1,1,1,1,1,1,1,1,1,1,1,1,1,1,1,1,1,1,1,1,1,1,1,1,1,1,1,1,1,1,1,1,1,1,1,1,1,1,1,1,1,1,1,1,1,1,1,1,1,1,1,1,1,1,1,1,1,1,1,1,1,1,1,1,1,1,1,1,1,1,1,1,1,1,1,1,1,1,1,1,1,1,1,1,1,1,1,1,1,1,1,1,1,1,1,1,1,1,1,1,1,1,1,1,1,1,1,1,1,1,1,1,1,1,1,1,1,1,1,1,1,1,1,1,1,1,1,1,1,1,1,1,1,1,1,1,1,1,1,1,1,1,1,1,1,1,1,1,1,1,1,1,1,1,1,1,1,1,1,1,1,1,1,1,1,1,1,1,1,1,1,1,1,1,1,1,1,1,1,1,1,1,1,1,1,1,1,1,1,1,1,1,1,1,1,1,1,1,1,1,1,1,1,1,1,1,1,1,1,1,1,1,1,1,1,1,1,1,1,1,1,1,1,1,1,1,1,1,1,1,1,1,1,1,1,1,1,1,1,1,1,1,1,1,1,1,1,1,1,1,1,1,1,1,1,1,1,1,1,1,1,1,1,1,1,1,1,1,1,1,1,1,1,1,1,1,1,1,1,1,1,1,1,1,1,1,1,1,1,1,1,1,1,1,1,1,1,1,1,1,1,1,1,1,1,1,1,1,1,1,1,1,1,1,1,1,1,1,1,1,1,1,1,1,1,1,1,1,1,1,1,1,1,1,1,1,1,1,1,1,1,1,1,1,1,1,1,1,1,1,1,1,1,1,1,1,1,1,1,1,1,1,1,1,1,1,1,1,1,1,1,1,1,1,1,1,1,1,1,1,1,1,1,1,1,1,1,1,1,1,1,1,1,1,1,1,1,1,1,1,1,1,1,1,1,1,1,1,1,1,1,1,1,1,1,1,1,1,1,1,1,1,1,1,1,1,1,1,1,1,1,1,1,1,1,1,1,1,1,1,1,1,1,1,1,1,1,1,1,1,1,1,1,1,1,1,1,1,1,1,1,1,1,1,1,1,1,1,1,1,1,1,1,1,1,1,1,1,1,1,1,1,1,1,1,1,1,1,1,1,1,1,1,1,
0,0,0,0,0,0,0,0,0,0,0,0,0,0,0,0,0,0,0,0,0,0,0,0,0,0,0,0,0,0,0,0,0,0,0,0,0,0,0,0,0,0,0,0,0,0,0,0,0,0,0,0,0,0,0,0,0,0,0,0,0,0,0,0,0,0,0,0,0,0,0,0,0,0,0,0,0,0,0,0,0,0,0,0,0,0,0,0,0,0,0,0,0,0,0,0,0,0,0,0,0,0,0,0,0,0,0,0,0,0,0,0,0,0,0,0,0,0,0,0,0,0,0,0,0,0,0,0,0,0,0,0,0,0,0,0,0,0,0,0,0,0,0,0,0,0,0,0,0,0,0,0,0,0,0,0,0,0,0,0,0,0,0,0,0,0,0,0,0,0,0,0,0,0,0,0,0,0,0,0,0,0,0,0,0,0,0,0,0,0,0,0,0,0,0,0,0,0,0,0,0,0,0,0,0,0,0,0,0,0,0,0,0,0,0,0,0,0,0,0,0,0,0,0,0,0,0,0,0,0,0,0,0,0,0,0,0,0,0,0,0,0,0,0,0,0,0,0,0,0,0,0,0,0,0,0,0,0,0,0,0,0,0,0,0,0,0,0,0,0,0,0,0,0,0,0,0,0,0,0,0,0,0,0,0,0,0,0,0,0,0,0,0,0,0,0,0,0,0,0,0,0,0,0,0,0,0,0,0,0,0,0,0,0,0,0,0,0,0,0,0,0,0,0,0,0,0,0,0,0,0,0,0,0,0,0,0,0,0,0,0,0,0,0,0,0,0,0,0,0,0,0,0,0,0,0,0,0,0,0,0,0,0,0,0,0,0,0,0,0,0,0,0,0,0,0,0,0,0,0,0,0,0,0,0,0,0,0,0,0,0,0,0,0,0,0,0,0,0,0,0,0,0,0,0,0,0,0,0,0,0,0,0,0,0,0,0,0,0,0,0,0,0,0,0,0,0,0,0,0,0,0,0,0,0,0,0,0,0,0,0,0,0,0,0,0,0,0,0,0,0,0,0,0,0,0,0,0,0,0,0,0,0,0,0,0,0,0,0,0,0,0,0,0,0,0,0,0,0,0,0,0,0,0,0,0,0,0,0,0,0,0,0,0,0,0,0,0,0,0,0,0,0,0,0,0,0,0,0,0,0,0,0,0,0,0,0,0,0,0,0,0,0,0,0,0,0,0,0,0,0,0,0,0,0,0,0,0,0,0,0,0,0,0,0,0,0,0,0,0,0,0,0,0,0,0,0,0,0,0,0,0,0,0,0,0,0,0,0,0,0,0,0,0,0,0,0,0,0,0,0,0,0,0,0,0,0,0,0,0,0,0,0,0,0,0,0,0,0,0,0,0,0,0,0,0,0,0,0,0,0,0,0,0,0,0,0,0,0,0,0,0,0,0,0,0,0,0,0,0,0,0,0,0,0,0,0,0,0,0,0,0,0,0,0,0,0,0,0,0,0,0,0,0,0,0,0,0,0,0,0,0,0,0,0,0,0,0,0,0,0,0,0,0,0,0,0,0,0,0,0,0,0,0,0,0,0,0,0,0,0,0,0,0,0,0,0,0,0,0,0,0,0,0,0,0,0,0,0,0,0,0,0,0,0,0,0,0,0,0,0,0,0,0,0,0,0,0,0,0,0,0,0,0,0,0,0,0,0,0,0,0,0,0,0,0,0,0,0,0,0,0,0,0,0,0,0,0,0,0,0,0,0,0,0,0,0,0,0,0,0,0,0,0,0,0,0,0,0,0,0,0,0,0,0,
1,1,1,1,1,1,1,1,1,1,1,1,1,1,1,1,1,1,1,1,1,1,1,1,1,1,1,1,1,1,1,1,1,1,1,1,1,1,1,1,1,1,1,1,1,1,1,1,1,1,1,1,1,1,1,1,1,1,1,1,1,1,1,1,1,1,1,1,1,1,1,1,1,1,1,1,1,1,1,1,1,1,1,1,1,1,1,1,1,1,1,1,1,1,1,1,1,1,1,1,1,1,1,1,1,1,1,1,1,1,1,1,1,1,1,1,1,1,1,1,1,1,1,1,1,1,1,1,1,1,1,1,1,1,1,1,1,1,1,1,1,1,1,1,1,1,1,1,1,1,1,1,1,1,1,1,1,1,1,1,1,1,1,1,1,1,1,1,1,1,1,1,1,1,1,1,1,1,1,1,1,1,1,1,1,1,1,1,1,1,1,1,1,1,1,1,1,1,1,1,1,1,1,1,1,1,1,1,1,1,1,1,1,1,1,1,1,1,1,1,1,1,1,1,1,1,1,1,1,1,1,1,1,1,1,1,1,1,1,1,1,1,1,1,1,1,1,1,1,1,1,1,1,1,1,1,1,1,1,1,1,1,1,1,1,1,1,1,1,1,1,1,1,1,1,1,1,1,1,1,1,1,1,1,1,1,1,1,1,1,1,1,1,1,1,1,1,1,1,1,1,1,1,1,1,1,1,1,1,1,1,1,1,1,1,1,1,1,1,1,1,1,1,1,1,1,1,1,1,1,1,1,1,1,1,1,1,1,1,1,1,1,1,1,1,1,1,1,1,1,1,1,1,1,1,1,1,1,1,1,1,1,1,1,1,1,1,1,1,1,1,1,1,1,1,1,1,1,1,1,1,1,1,1,1,1,1,1,1,1,1,1,1,1,1,1,1,1,1,1,1,1,1,1,1,1,1,1,1,1,1,1,1,1,1,1,1,1,1,1,1,1,1,1,1,1,1,1,1,1,1,1,1,1,1,1,1,1,1,1,1,1,1,1,1,1,1,1,1,1,1,1,1,1,1,1,1,1,1,1,1,1,1,1,1,1,1,1,1,1,1,1,1,1,1,1,1,1,1,1,1,1,1,1,1,1,1,1,1,1,1,1,1,1,1,1,1,1,1,1,1,1,1,1,1,1,1,1,1,1,1,1,1,1,1,1,1,1,1,1,1,1,1,1,1,1,1,1,1,1,1,1,1,1,1,1,1,1,1,1,1,1,1,1,1,1,1,1,1,1,1,1,1,1,1,1,1,1,1,1,1,1,1,1,1,1,1,1,1,1,1,1,1,1,1,1,1,1,1,1,1,1,1,1,1,1,1,1,1,1,1,1,1,1,1,1,1,1,1,1,1,1,1,1,1,1,1,1,1,1,1,1,1,1,1,1,1,1,1,1,1,1,1,1,1,1,1,1,1,1,1,1,1,1,1,1,1,1,1,1,1,1,1,1,1,1,1,1,1,1,1,1,1,1,1,1,1,1,1,1,1,1,1,1,1,1,1,1,1,1,1,1,1,1,1,1,1,1,1,1,1,1,1,1,1,1,1,1,1,1,1,1,1,1,1,1,1,1,1,1,1,1,1,1,1,1,1,1,1,1,1,1,1,1,1,1,1,1,1,1,1,1,1,1,1,1,1,1,1,1,1,1,1,1,1,1,1,1,1,1,1,1,1,1,1,1,1,1,1,1,1,1,1,1,1,1,1,1,1,1,1,1,1,1,1,1,1,1,1,1,1,1,1,1,1,1,1,1,1,1,1,1,1,1,1,
1.19564e-02,-2.28140e-02,3.17329e-02,2.66827e-02,1.45003e-02,2.06761e-02,2.27665e-02,2.76767e-02,1.44895e-02,3.00875e-02,-1.89517e-02,-1.52379e-02,5.03129e-03,4.25496e-02,8.35559e-02,-1.28814e-02,2.90543e-02,3.43645e-02,1.53075e-02,-2.86352e-02,-3.18092e-02,1.25368e-02,-3.32947e-02,1.75864e-02,-2.01101e-03,3.14201e-03,2.84248e-02,1.46737e-02,-1.50772e-02,2.83372e-02,3.27143e-02,2.42939e-03,-5.21677e-02,-3.05242e-02,1.36390e-04,2.39312e-02,5.81256e-02,7.44566e-02,-2.20813e-01,-8.81329e-03,-2.21812e-02,3.25449e-01,1.39266e-01,-1.54962e-02,9.45111e-02,1.48642e-01,-3.46807e-01,-3.39921e-01,-3.45547e-01,-1.85820e-01,-1.17317e-01,1.31278e-02,2.48846e-02,-1.64063e-02,-1.56242e-02,2.98163e-02,-2.23633e-03,-1.11083e-03,-1.12941e-02,3.03249e-01,3.17306e-01,-1.29351e-01,-2.14839e-02,4.50077e-02,-3.40433e-01,-2.72600e-01,1.52785e-01,3.27735e-01,4.54530e-01,4.04352e-01,1.72875e-01,-1.01795e-01,-5.92737e-02,-2.11419e-01,-1.59362e-01,-4.07926e-01,-6.67455e-01,-6.34397e-01,-6.10655e-01,-5.09054e-01,-9.82821e-02,3.12532e-02,-1.45039e-02,-3.43843e-02,1.71533e-02,-2.81602e-02,1.42638e-01,2.98239e-01,-1.29800e-01,-1.04771e-01,7.52160e-03,-2.77675e-02,3.35003e-01,1.62974e-01,3.40466e-01,9.89496e-02,1.23343e-01,1.23385e-01,2.02265e-01,1.22926e-01,1.33380e-01,1.29074e-01,-5.19690e-02,-1.47987e-01,1.38126e-01,-1.52996e-01,-1.49989e-01,-5.16249e-02,1.28627e-01,1.07858e-01,-6.33395e-02,-2.36389e-02,-2.81413e-02,3.99003e-02,1.32566e-01,1.21442e-01,-2.54522e-01,8.15314e-02,2.28725e-02,2.92378e-01,2.49552e-01,1.30379e-01,6.02406e-02,1.69828e-01,1.84789e-01,2.33722e-01,1.77224e-01,8.42060e-02,4.94227e-02,4.95125e-02,1.14209e-01,-1.26381e-02,3.68887e-02,-2.24771e-01,-7.02666e-02,-2.73504e-01,-1.70408e-01,-5.59572e-03,2.10683e-01,-3.11206e-01,3.22122e-02,6.66494e-03,-1.81972e-01,9.02093e-02,-1.91997e-01,-7.32909e-02,-1.50323e-01,1.83345e-01,1.51809e-01,-8.37679e-02,1.02185e-03,1.49755e-01,1.86372e-01,1.89302e-01,5.19220e-02,1.09024e-02,5.06106e-02,3.31607e-02,1.22641e-01,1.96211e-01,4.32694e-02,2.98562e-02,-1.21546e-01,-2.70392e-01,-3.38116e-01,-1.60110e-01,-6.33900e-02,-3.69405e-01,2.05955e-02,1.44268e-01,-9.53831e-02,2.97387e-01,2.98844e-02,2.06317e-01,-1.15103e-01,-4.48081e-02,5.62931e-02,3.76995e-02,3.81839e-03,-1.20863e-01,-2.46664e-01,-1.21186e-01,4.62528e-02,5.47568e-02,1.26130e-01,2.44114e-01,3.14598e-01,2.61297e-01,2.30335e-01,3.72034e-01,1.58256e-02,1.04006e-01,-1.17206e-01,-8.77817e-02,1.00871e-01,-3.34143e-01,-9.04544e-03,4.99421e-01,-2.32538e-03,-1.30298e-01,-1.88339e-01,-7.39399e-02,-2.35891e-02,-2.61090e-02,-5.03759e-02,-2.32340e-01,-1.43930e-01,-2.92158e-01,-1.19183e-01,-2.14681e-02,9.59238e-03,1.99966e-01,1.61543e-01,1.85635e-01,3.17189e-01,3.44901e-01,2.15814e-01,2.22677e-01,1.39834e-01,3.40642e-01,-4.97561e-02,4.96279e-02,2.22199e-01,-3.68802e-01,-1.08084e-02,2.99394e-01,1.35354e-01,2.74734e-01,-4.90990e-02,1.73321e-01,-5.40351e-02,-1.33804e-01,-1.06931e-01,-2.66947e-01,-8.34541e-02,-8.91059e-02,-1.78359e-02,7.09275e-02,8.18656e-02,1.56321e-01,2.11023e-01,1.57323e-01,2.41297e-01,2.57898e-01,2.43461e-01,2.04413e-01,2.47226e-01,2.19797e-01,3.26391e-02,1.59177e-02,2.24818e-01,2.30913e-01,1.34790e-01,3.25296e-01,1.59314e-01,4.08929e-01,-1.04037e-01,1.59096e-01,-1.45781e-02,-1.59826e-01,-1.59554e-02,-1.61485e-01,-1.71975e-02,6.79230e-03,2.03800e-01,1.08332e-01,5.94850e-02,-1.45282e-02,3.48395e-02,7.79073e-02,-1.16214e-01,8.13525e-02,3.12240e-01,1.74626e-01,1.45211e-01,2.50397e-01,2.56645e-02,4.16884e-01,5.64045e-01,1.53430e-01,1.89710e-01,-9.71199e-02,4.84380e-02,3.65882e-01,-1.05038e-01,-2.16998e-01,-1.06446e-01,-1.27468e-01,-1.79841e-02,-9.33639e-02,9.19463e-02,1.58966e-01,1.52950e-01,1.73296e-01,1.43211e-01,1.60017e-02,8.05118e-02,-1.45001e-01,-8.86111e-02,-1.03995e-01,3.29016e-02,2.99445e-02,1.35307e-01,2.30729e-01,-1.24066e-01,3.34755e-02,1.75627e-01,1.70439e-01,7.75314e-02,3.98320e-01,4.36540e-01,-6.32386e-02,-2.06787e-01,-3.59829e-01,-1.05248e-01,-3.60980e-02,-9.02423e-02,-1.06285e-01,1.72378e-01,2.49365e-01,6.99735e-02,3.65859e-02,9.09923e-02,2.11986e-02,-1.12382e-01,-1.32059e-01,-2.90776e-02,-1.25875e-01,5.42980e-02,-8.57648e-03,1.21666e-01,8.37681e-02,3.21772e-02,8.63583e-02,4.59528e-01,1.93535e-01,-8.13071e-03,-1.23638e-01,5.47025e-01,-3.13642e-01,-1.76078e-01,-3.85345e-02,8.31856e-02,-1.25879e-01,-2.91943e-01,-1.65768e-01,-5.83433e-02,1.65040e-02,-1.67433e-01,-2.11026e-01,7.11644e-02,1.43593e-01,-4.54936e-02,-2.25972e-02,1.11862e-02,3.70197e-02,9.31055e-03,4.86119e-02,-2.16092e-02,-6.22838e-02,-1.32854e-01,-2.18515e-01,3.84410e-02,2.10978e-01,-3.12582e-01,-8.24756e-02,3.08665e-01,-1.95338e-01,9.39125e-02,5.08243e-02,1.48875e-02,-1.59430e-01,-9.64442e-02,-9.45925e-02,-1.88338e-01,-7.38095e-02,-1.99280e-01,-8.70726e-02,7.04168e-02,1.26440e-01,-4.39026e-02,-4.72161e-02,2.82088e-02,3.25462e-02,-8.55180e-02,7.82456e-02,2.78065e-03,-1.32434e-01,-1.41453e-01,-1.61921e-01,-1.53958e-01,1.39620e-01,-7.05028e-02,-9.11785e-02,4.63171e-02,-1.40476e-01,-7.46325e-02,-9.26527e-03,-5.45513e-02,-1.53540e-01,-1.22011e-01,-9.66912e-02,-1.62717e-01,-9.98171e-03,-9.33518e-02,6.48805e-02,1.15030e-01,1.36179e-01,-1.63621e-01,-1.23568e-02,1.14786e-02,1.17659e-01,9.36819e-02,1.34472e-01,7.54672e-02,-2.87174e-02,3.26201e-02,-2.96639e-01,-3.07385e-02,-1.07269e-01,-1.06652e-01,1.38803e-01,-2.75095e-01,-3.70839e-01,9.64597e-02,9.26239e-02,9.69588e-02,-4.27953e-02,-5.09324e-02,-1.31401e-01,-9.58103e-02,-5.42231e-02,-8.51524e-02,1.34075e-01,8.16939e-02,6.35745e-02,-1.26704e-01,-2.12179e-01,-5.50003e-02,6.73120e-02,7.16153e-02,-2.86804e-02,2.98263e-02,7.15989e-02,2.14206e-01,-4.60710e-02,1.25905e-01,5.52227e-02,-4.55341e-02,2.05272e-01,-1.04911e-01,-1.32820e-01,1.48727e-01,2.94710e-02,3.32904e-02,3.73197e-02,-8.06483e-03,5.53570e-02,5.93869e-02,-3.24731e-02,3.51038e-03,3.50489e-02,-1.02574e-01,-8.57519e-02,-9.43553e-02,-1.05780e-01,-1.13556e-01,-8.11327e-02,4.74712e-04,-2.40937e-01,-9.13952e-02,-7.68087e-02,1.01522e-01,-1.93302e-01,-4.02619e-01,1.07355e-01,1.42136e-02,1.45594e-01,-3.25142e-01,1.68107e-01,1.99288e-02,3.55476e-02,3.56958e-02,1.76943e-01,8.96591e-02,2.05845e-01,7.08084e-02,-7.28819e-04,-3.03138e-02,-6.88017e-02,-2.11275e-01,-1.51458e-01,-5.12811e-02,-1.79919e-02,-1.75166e-01,-8.70683e-02,-8.36522e-02,-7.15824e-02,-1.13020e-01,7.26459e-02,2.57978e-01,-1.16212e-01,-5.81941e-02,1.14898e-01,4.26901e-01,4.23731e-02,-3.86594e-02,-5.71766e-02,-2.35811e-01,8.73442e-04,2.03666e-01,2.12199e-01,1.56660e-01,1.37191e-01,1.78911e-01,7.05527e-02,-1.16410e-01,-1.29711e-01,-8.21883e-02,5.57689e-02,2.45000e-02,3.77112e-02,-8.04171e-02,-2.44348e-03,2.41665e-02,1.05452e-01,1.32592e-01,6.68251e-02,2.53426e-01,-2.11838e-01,3.23631e-02,-5.99866e-02,-1.69287e-01,1.79242e-01,-1.96751e-02,-4.11560e-02,-1.45486e-01,9.28168e-02,5.80682e-02,7.77272e-02,1.84561e-01,1.43179e-01,1.51432e-01,-7.78463e-02,1.20982e-01,5.91873e-02,8.18587e-03,3.89577e-02,-5.77089e-02,3.69312e-02,1.10203e-02,-7.12870e-02,-1.42792e-01,-1.10838e-01,-2.00633e-02,-1.37399e-01,2.47652e-01,-2.74161e-01,5.47716e-02,-7.56884e-03,-2.00278e-02,-9.24783e-02,-1.53943e-01,4.46161e-02,-7.09765e-02,1.36008e-01,1.06145e-01,5.12373e-02,1.67340e-01,7.28251e-02,9.81726e-02,3.45888e-02,4.03107e-03,5.04338e-02,-6.00323e-04,-3.80673e-02,-9.93973e-02,7.64575e-02,3.64063e-02,-6.25970e-02,-1.46192e-01,-1.12671e-01,-2.37008e-01,-2.14386e-01,1.12802e-01,-1.37277e-01,-2.09768e-01,-4.79937e-02,-1.74395e-01,-1.34490e-02,-4.03792e-02,-1.93255e-01,-1.55772e-01,-2.11410e-01,5.48061e-02,1.36084e-02,-1.63928e-03,6.52444e-03,8.89207e-02,1.70237e-02,1.60983e-02,3.69676e-02,4.90389e-02,-8.71476e-03,-1.35673e-01,7.75495e-02,1.07490e-01,8.04649e-02,-2.12864e-01,-3.72097e-01,-2.08031e-01,-2.06522e-01,-1.56971e-01,-2.86719e-01,2.09324e-01,1.75239e-02,-1.59238e-01,-5.09888e-02,2.94687e-01,-2.30176e-01,-8.08763e-02,-1.71981e-01,6.77729e-02,-1.20096e-02,-1.74988e-02,4.50101e-02,-5.09402e-02,-1.18071e-03,6.73636e-02,6.93619e-02,1.04613e-01,5.63322e-02,-6.86061e-02,5.70023e-02,3.81211e-02,-1.06092e-01,-4.59460e-01,-4.39514e-01,-2.54876e-01,9.34561e-02,2.72448e-01,-1.95531e-01,-1.95229e-01,3.25819e-02,3.16902e-02,3.91047e-03,3.77869e-01,-8.75087e-02,-5.38767e-02,1.76469e-01,1.04088e-01,1.60132e-01,-5.58830e-02,-7.87114e-02,-2.22026e-02,1.21402e-01,-3.22421e-02,8.25171e-02,-1.95402e-02,1.23954e-01,3.17976e-02,-3.40341e-03,-5.91082e-02,-3.88265e-01,-5.70292e-01,-2.55801e-01,-1.35222e-01,9.44865e-02,4.59613e-01,-1.01666e-01,-4.28351e-01,-1.30780e-02,3.05204e-02,1.25276e-02,-4.45166e-03,4.58361e-01,4.93475e-01,3.67870e-01,2.23343e-01,6.57020e-02,-1.13171e-02,-4.25488e-02,6.48388e-02,6.75181e-02,1.37611e-01,1.42577e-01,-6.26763e-02,2.16640e-02,-9.58507e-02,-1.18160e-01,-1.87304e-01,-2.82656e-01,-2.65335e-01,-4.92839e-01,-5.36251e-01,-2.18687e-01,-3.02989e-01,-3.46932e-01,-2.87870e-01,-1.93490e-03,2.04641e-02,1.03708e-02,2.81827e-01,-2.27421e-01,-2.53436e-01,-1.30607e-01,1.99995e-01,2.01171e-01,1.42077e-01,1.15873e-01,2.35559e-01,1.06623e-01,2.45550e-02,-1.33382e-02,-6.65064e-02,-7.13447e-02,2.49290e-01,-8.82487e-02,-1.21504e-01,-8.53762e-02,4.44797e-02,-2.75600e-01,-3.55067e-01,-2.97868e-01,-2.65491e-01,-5.12848e-02,-8.24886e-03,-2.56654e-02,-8.95004e-03,5.00090e-03,-3.27847e-02,2.30395e-01,-4.17527e-01,-3.11388e-01,-2.25878e-01,1.87653e-01,4.06003e-01,2.84710e-01,3.71845e-01,3.26933e-01,1.34741e-01,4.30083e-01,3.76420e-01,-1.08178e-01,1.93750e-01,3.49353e-01,3.50575e-01,4.82523e-01,4.07194e-01,2.83952e-01,9.28928e-02,-1.05446e-01,-9.68608e-02,3.19350e-03,-3.24015e-02,2.96735e-02,-3.21841e-02,2.98091e-02,-2.21775e-02,-1.14506e-02,-2.37138e-02,-1.43642e-01,9.24265e-02,1.69740e-01,2.20118e-01,7.82481e-03,3.21920e-01,2.39155e-01,2.29609e-01,5.33321e-01,7.22896e-01,-1.06985e-01,8.80361e-02,3.63712e-01,3.22532e-01,3.12326e-01,2.48442e-01,8.99790e-02,5.51389e-02,9.41533e-02,9.75668e-03,-2.45693e-02,4.95387e-03,1.04362e-02,
2.97981e-02,1.75011e-02,-1.67426e-03,7.38667e-03,-2.30556e-02,-6.10162e-03,2.73835e-02,-2.31440e-02,-5.19336e-03,6.35128e-03,3.37218e-02,-8.48388e-03,-1.26293e-02,-5.13557e-02,1.38129e-02,4.69324e-02,1.42966e-02,-3.26235e-02,1.42920e-02,2.52172e-02,1.94532e-02,3.29388e-03,-2.14394e-02,-1.61183e-02,1.23373e-02,-7.45684e-03,-1.11322e-02,-2.34181e-03,3.27091e-02,-3.01734e-02,-2.48909e-03,-6.15361e-03,-3.77967e-02,-2.20548e-02,-1.22491e-01,-7.37034e-02,1.56063e-02,-3.85132e-02,-8.23518e-02,5.37830e-02,-2.19341e-01,-2.25833e-01,3.22729e-01,2.24887e-01,-2.17477e-01,-1.95584e-01,-2.37742e-01,-2.42324e-01,-2.23049e-01,-1.08094e-01,-1.56021e-01,-1.66599e-01,-3.34420e-02,2.25947e-02,2.66244e-02,2.81243e-02,-9.08996e-03,8.80334e-03,-1.24140e-02,-2.74275e-01,-3.31045e-01,-7.44367e-02,-2.40606e-01,-1.66878e-01,-2.08799e-01,1.18855e-02,1.87476e-01,-9.02122e-02,-1.23915e-01,4.01119e-02,-2.09011e-01,-4.97582e-04,8.08096e-02,-7.22898e-02,-2.13647e-01,-1.50727e-01,1.36872e-01,8.27677e-02,1.08232e-01,1.30858e-01,-1.57958e-01,1.07442e-01,9.28255e-03,2.41961e-02,3.34870e-02,-1.06942e-02,2.50809e-01,-1.83872e-01,2.02834e-01,-5.26869e-01,-4.39341e-01,-5.19728e-01,-4.19152e-01,-3.91120e-03,-4.80612e-02,-1.80205e-01,4.01884e-03,3.69918e-02,-1.74619e-01,-6.79391e-02,-1.91015e-01,-1.74429e-01,-5.47034e-02,4.04201e-02,-1.84418e-01,1.80831e-01,2.38585e-01,1.76978e-01,-3.01887e-01,8.18984e-02,-1.81003e-01,1.34975e-02,-2.60589e-02,1.93296e-02,1.41332e-01,2.22257e-03,-6.25629e-02,-1.47128e-01,-2.71844e-01,-3.78595e-01,-5.52281e-01,-1.94616e-01,-2.36368e-01,-3.57460e-02,1.39143e-01,1.69765e-02,1.58740e-01,1.17310e-01,-1.80601e-02,4.18323e-02,-8.42862e-03,1.96714e-02,9.52828e-02,6.71355e-02,2.00154e-01,3.42570e-01,1.41330e-01,-5.43343e-02,7.64452e-04,-3.06783e-01,1.27801e-02,-1.92452e-03,-2.63613e-01,4.22959e-02,-9.80937e-02,2.34744e-01,1.62404e-01,-2.82976e-01,-1.54033e-01,-1.01826e-01,-2.43854e-01,1.60146e-01,8.27773e-02,8.33515e-02,1.40562e-01,6.98815e-02,9.74239e-02,1.41605e-01,-6.40528e-03,-7.12706e-02,-1.41809e-02,1.54475e-01,1.53264e-01,-3.93611e-02,7.30043e-03,2.65509e-01,-1.20133e-01,-3.48736e-01,-1.62909e-02,-8.59567e-02,-1.91827e-01,-3.15745e-01,-1.58432e-02,2.49171e-02,-2.36628e-02,-3.47248e-02,-1.27882e-02,-1.43570e-02,1.08142e-01,1.41458e-01,8.92370e-02,5.64767e-02,5.39766e-02,5.32758e-02,-7.53067e-03,8.58681e-02,8.05559e-02,6.92470e-02,1.31192e-01,-4.02719e-02,-3.77266e-02,1.12142e-01,-2.10246e-01,1.37646e-02,2.38354e-01,-2.83296e-01,1.15400e-02,7.21714e-02,-8.47527e-02,1.51946e-01,-8.08046e-02,-1.33550e-01,-7.97451e-02,-4.49996e-02,-7.77364e-02,-6.43577e-05,1.70321e-01,3.04407e-02,1.45634e-01,9.78706e-02,-4.57315e-02,1.09497e-01,7.63929e-02,6.28971e-02,1.35840e-02,-2.05149e-02,6.59997e-03,2.62070e-02,1.89068e-01,1.83157e-01,-3.39789e-01,-1.33813e-01,4.69835e-01,-3.13670e-01,-2.14680e-01,5.17781e-01,6.34407e-02,-3.33822e-02,-1.50094e-02,2.73678e-03,1.39812e-01,1.22209e-01,5.28800e-02,3.28718e-02,1.20498e-01,1.28494e-01,1.66206e-01,1.89470e-01,1.60680e-01,1.29500e-01,4.07847e-02,8.48921e-02,1.89464e-02,2.38903e-02,9.01458e-02,-5.97848e-02,-1.10114e-01,1.39909e-01,-2.38407e-02,7.95560e-02,7.10212e-01,4.45448e-01,8.71924e-02,3.90440e-01,-3.01817e-02,5.70348e-03,-1.57508e-01,-9.84040e-03,1.47940e-01,8.95686e-02,7.24624e-02,1.85525e-02,2.75700e-02,7.64703e-02,1.97512e-02,2.91020e-01,3.15116e-01,2.06218e-01,1.07303e-01,1.56478e-01,5.93672e-02,8.86795e-03,1.19666e-01,9.34291e-02,-2.61211e-02,-1.02849e-01,4.57125e-02,2.88056e-01,3.81538e-01,2.58918e-01,9.17248e-02,2.79478e-01,1.22554e-02,-1.92894e-01,1.05742e-01,1.08827e-01,1.08032e-01,1.07669e-01,2.30743e-01,1.65197e-02,5.07191e-02,-1.81219e-02,4.29765e-02,2.94625e-01,3.46834e-01,2.73104e-01,3.39841e-02,8.47690e-02,1.45475e-01,1.65345e-01,9.11844e-02,1.52555e-01,-1.28002e-01,-1.42198e-01,2.23206e-02,-2.35632e-01,4.03998e-01,3.18550e-01,1.64554e-01,4.47045e-01,5.05369e-02,2.12371e-01,2.22255e-01,8.58452e-02,1.41311e-01,2.64154e-01,1.25784e-01,1.20035e-02,-1.72987e-01,-5.61739e-02,1.17473e-01,2.98963e-01,2.91799e-01,1.02903e-01,2.84641e-02,-4.91539e-02,-5.01210e-02,3.97251e-02,3.16164e-02,-2.19082e-02,-5.53367e-02,2.21427e-02,6.90815e-02,3.36690e-02,6.66710e-01,-2.56852e-01,4.05792e-02,3.23891e-01,-2.47114e-01,1.75285e-01,4.79822e-02,-1.36361e-02,2.08586e-02,2.30590e-01,1.96603e-02,-6.55235e-02,-1.71507e-01,-1.55583e-01,1.21501e-01,1.85672e-01,-2.69747e-03,-1.84792e-02,1.41563e-02,-1.47741e-02,-1.11456e-01,-4.15497e-02,-1.05872e-01,-1.67129e-02,-1.42182e-01,8.05289e-03,1.05522e-01,-7.94633e-02,-9.19924e-02,-2.23184e-01,2.05183e-01,2.65186e-01,-1.54196e-01,-1.17131e-01,-4.50236e-01,-1.58678e-01,-2.81221e-01,-1.47281e-01,-6.19971e-02,1.26201e-02,1.55634e-02,5.18836e-02,2.44882e-02,-4.42551e-02,-2.32948e-02,6.82169e-02,2.97557e-02,-1.79825e-02,-4.29273e-02,-1.46399e-01,-7.92921e-02,-1.24263e-01,-2.05132e-01,-1.53408e-01,-2.99366e-01,-1.37102e-01,-2.93221e-01,-2.10252e-01,7.88205e-02,1.12797e-01,4.35666e-01,-4.47281e-01,-5.26677e-01,-3.04696e-01,-3.51070e-01,-1.52874e-01,-9.53824e-02,-4.18013e-02,1.31833e-01,2.46763e-02,-2.63835e-02,-3.67082e-02,6.42899e-02,-2.21104e-02,1.16266e-02,3.57113e-02,-9.24911e-02,-1.07992e-01,-1.96374e-01,-1.29193e-01,-1.78101e-01,-4.45145e-02,-2.28531e-01,-1.00405e-01,1.13737e-01,2.02302e-01,5.30596e-02,-1.18289e-01,3.13382e-01,1.07741e-01,-2.44627e-01,-3.74624e-01,-3.46315e-01,-1.87879e-01,-2.86989e-03,1.40222e-01,9.93972e-03,3.36969e-03,1.68865e-02,8.82928e-02,1.29458e-01,5.57821e-02,-1.63548e-02,-4.91943e-02,-4.08691e-03,-1.79025e-01,-1.25206e-01,-1.17837e-01,-4.54282e-02,-1.03233e-01,-1.97466e-01,-5.35548e-02,-1.13641e-01,2.25254e-01,7.59929e-02,-1.24295e-01,-7.72625e-02,8.67304e-02,-3.78857e-01,-3.81973e-01,-1.60792e-01,-1.44680e-01,-7.12630e-02,3.12294e-02,-7.10843e-02,-1.17633e-01,-7.16128e-03,2.03100e-02,6.35898e-02,9.34928e-02,1.01834e-01,5.78638e-02,-1.43322e-02,-1.18827e-01,-1.44728e-01,5.94423e-02,1.82653e-02,-5.94635e-02,-2.08996e-01,1.28398e-01,1.42234e-01,-8.00010e-02,1.80493e-02,-1.32896e-01,-1.28726e-01,4.34185e-02,5.15462e-02,-1.13102e-01,6.25291e-02,-1.16044e-01,7.06500e-02,1.76306e-01,-8.41134e-02,1.92876e-02,-1.01207e-01,-1.27098e-01,2.32127e-01,1.94007e-01,2.70205e-01,8.03245e-02,9.40778e-02,-3.26009e-02,-5.01437e-03,5.17375e-02,1.29572e-01,1.58142e-01,3.69019e-01,3.98654e-01,1.11813e-01,-7.27038e-02,1.09778e-01,-1.24156e-01,-5.17797e-02,6.89640e-02,2.94274e-01,1.33502e-01,1.34858e-01,-3.83599e-02,6.31364e-02,1.33507e-01,6.68222e-02,-8.59626e-02,-1.88735e-02,-1.94584e-02,2.14031e-01,2.54329e-01,1.87893e-01,3.90545e-02,1.11791e-02,-1.35833e-01,7.59517e-03,-8.26888e-03,3.37685e-03,1.93939e-02,4.18043e-01,3.80779e-04,2.67669e-01,1.82116e-01,-6.53792e-03,3.46230e-02,1.49912e-01,1.34483e-02,2.58791e-01,-4.86460e-02,2.88677e-02,1.77059e-02,2.54170e-01,2.18104e-01,7.04140e-02,-6.17654e-02,-1.23027e-01,9.25697e-02,8.78018e-02,2.40633e-01,1.71036e-01,1.96647e-02,-1.33845e-01,3.77724e-02,-2.95489e-02,-4.17691e-02,-1.14145e-01,7.32369e-03,1.42413e-01,8.54157e-02,4.92219e-02,4.00048e-02,-5.55003e-03,3.05128e-01,2.86521e-01,-3.62992e-02,1.26968e-01,1.35364e-01,1.78447e-01,6.17524e-02,2.63739e-01,7.37601e-02,1.39150e-01,4.52540e-02,4.27619e-02,-5.94297e-02,-3.78014e-02,2.43309e-01,1.06553e-01,8.66697e-02,5.15181e-02,5.08254e-02,7.42208e-03,-4.74682e-02,-1.22288e-01,5.22149e-02,-7.47475e-02,1.08413e-01,-9.51176e-02,8.80175e-02,-1.41009e-02,-7.93332e-02,1.34468e-01,3.62364e-02,2.04965e-01,1.85125e-01,1.98391e-01,1.05462e-01,3.01973e-02,2.03885e-01,7.65303e-02,1.13333e-01,2.16246e-02,-1.39543e-02,1.58357e-02,1.51069e-01,-3.69603e-02,7.49818e-02,4.93443e-02,5.45396e-03,3.04577e-03,-5.66327e-02,-9.74519e-02,-5.02485e-02,6.69502e-02,3.99658e-01,2.04364e-02,-1.56410e-02,1.23825e-02,-2.90209e-02,-9.32794e-02,1.45619e-01,3.25318e-01,2.49482e-01,3.30707e-01,3.28567e-01,1.40999e-01,1.13295e-01,-1.19307e-03,5.06124e-02,2.14485e-02,-1.55891e-02,8.48235e-02,1.13492e-01,5.04104e-02,-5.34813e-03,2.48355e-02,-7.45514e-02,-1.43009e-01,-1.97693e-01,-1.36058e-01,-1.28322e-01,3.44217e-01,4.27794e-01,1.54441e-01,-2.30793e-02,2.15181e-02,3.52846e-02,-4.01865e-01,-1.30514e-01,4.23081e-01,1.37298e-01,2.63496e-01,2.05467e-01,5.05583e-02,5.86213e-02,6.41643e-02,-3.93273e-02,1.52380e-01,1.76497e-02,-9.36449e-02,-1.55719e-02,6.14852e-03,-1.29848e-01,-9.87108e-02,-6.87090e-02,1.13580e-02,-3.02283e-01,-1.38975e-01,6.56584e-02,1.24980e-01,3.45559e-01,-1.49516e-01,-3.11036e-02,1.28361e-02,1.48803e-02,-1.29460e-02,-3.89345e-01,-2.10234e-01,-1.22151e-01,-5.59167e-03,-1.18927e-01,2.91417e-02,7.86772e-02,9.81559e-02,7.36551e-02,1.68014e-01,6.78173e-02,-1.24067e-01,-1.27054e-01,-1.83949e-01,-2.28954e-01,1.63437e-03,7.57357e-02,2.14479e-02,-2.89445e-01,-3.04628e-01,-1.80552e-01,-4.82954e-02,-1.84018e-01,1.27429e-01,-1.61063e-02,-2.17684e-02,1.29206e-02,-4.19113e-01,4.27231e-01,-1.54975e-01,-3.86999e-01,-1.87300e-01,-1.89832e-01,-8.02911e-02,6.56010e-02,1.63588e-02,3.26444e-02,1.18713e-01,-6.52553e-03,1.74530e-01,1.22213e-01,-5.62126e-02,2.11195e-01,7.63790e-02,-1.39178e-01,-5.33066e-02,2.08973e-01,-5.13153e-02,-6.95527e-02,-1.01797e-02,-6.25138e-02,2.86159e-01,-1.23836e-02,-1.20177e-02,2.18946e-02,2.70273e-02,-6.88682e-02,-3.89345e-01,-3.99406e-01,-3.64790e-01,1.23667e-01,2.73067e-01,2.14901e-01,8.36227e-02,9.32259e-03,-1.60522e-01,8.28712e-02,-8.99941e-03,-2.14211e-01,-4.68198e-01,-1.75463e-01,1.45465e-01,2.18728e-01,-2.68412e-01,-4.27746e-01,-1.70164e-01,-1.73222e-01,-1.44229e-01,5.17152e-02,4.91032e-03,-2.71060e-02,3.24152e-02,-1.15230e-02,-2.08850e-03,3.29616e-02,1.95534e-01,3.02758e-01,3.30594e-01,1.53140e-01,1.54126e-01,6.02672e-02,1.33893e-01,4.10061e-02,-1.15563e-01,2.34735e-01,4.28603e-01,4.82843e-01,3.56440e-01,2.48723e-01,3.32278e-02,3.83253e-01,-6.57482e-02,-2.17452e-01,-8.89441e-02,1.20030e-01,-2.63055e-02,2.34527e-04,-2.73676e-02,7.82867e-03,
-2.70652e-02,-5.03467e-03,2.04437e-02,2.54693e-02,-2.28427e-02,-1.56270e-02,-3.16018e-02,3.53094e-02,3.47277e-02,2.51571e-02,1.47475e-02,7.81664e-04,5.80894e-02,1.37198e-01,1.27897e-01,2.57791e-03,1.48529e-02,2.56827e-02,2.09742e-03,-1.85196e-02,-2.32710e-02,2.81987e-02,-4.78000e-03,2.01565e-02,3.61500e-03,7.02323e-03,3.21373e-02,-2.38369e-02,3.09715e-02,-3.07124e-02,-3.29654e-02,3.26716e-03,5.10369e-02,3.77739e-02,1.04378e-01,1.08238e-01,1.66453e-01,2.37270e-01,2.09837e-01,1.86600e-01,4.46952e-01,1.69986e-01,-3.62089e-01,-2.55283e-01,2.68196e-01,2.40767e-01,-2.29236e-02,2.24875e-01,2.29355e-01,2.15419e-01,1.39148e-01,6.68867e-02,2.30122e-03,2.22938e-02,-1.53896e-02,-2.13152e-02,-2.19233e-02,-1.70227e-04,5.07630e-02,3.45507e-01,3.70890e-01,1.94317e-01,3.69723e-01,4.20704e-01,-4.35403e-02,-1.82302e-01,-1.04004e-01,1.25940e-01,1.07185e-01,-1.01794e-01,1.44545e-01,1.65891e-01,-4.16319e-02,-1.20113e-01,-1.95498e-01,-7.15680e-02,2.17768e-02,1.24361e-01,9.45135e-02,4.61193e-01,1.76738e-01,-7.80465e-02,-8.29434e-03,-3.01475e-02,-4.79037e-03,3.49282e-02,-2.59390e-01,4.56887e-01,4.78978e-01,4.88216e-01,4.76196e-01,3.30544e-01,1.07322e-01,8.26408e-02,-1.20409e-01,-3.19340e-03,6.17209e-02,-5.40396e-03,2.34334e-01,-1.92431e-02,-1.67154e-01,-1.64720e-01,-2.37706e-01,-1.41209e-01,1.52289e-01,9.44234e-03,1.80850e-02,-1.83250e-01,2.46527e-01,-4.45792e-02,2.66838e-01,-2.53753e-03,3.18151e-02,-2.67925e-02,-2.40509e-01,1.04121e-01,2.45504e-01,3.30124e-01,4.31714e-01,-7.56971e-02,-2.18469e-01,-1.13544e-01,-1.43675e-02,-9.83478e-02,-2.74644e-01,-2.63108e-01,-1.63732e-01,-2.63103e-02,-3.79507e-02,-2.33840e-02,8.03438e-02,6.84590e-02,2.03068e-02,-1.46208e-01,-2.28894e-01,5.12632e-02,7.79305e-02,2.23364e-01,-5.79071e-02,3.64904e-01,2.91260e-02,2.69990e-02,4.51618e-02,5.23408e-01,2.31127e-01,1.18482e-01,-1.51425e-01,-3.81937e-01,-3.55933e-01,1.50017e-01,1.97052e-01,-4.25281e-02,-1.61062e-01,-1.01648e-01,-1.08341e-01,7.70564e-02,-1.09647e-01,-8.94895e-02,6.49489e-02,1.02727e-01,1.09938e-01,-1.12811e-02,-7.63828e-02,7.71440e-02,-2.70023e-02,-2.40318e-01,4.90531e-01,3.56019e-01,-2.93618e-02,-1.21785e-01,2.58691e-01,3.48754e-01,4.12772e-01,7.46753e-02,-3.49711e-01,-3.47644e-01,-7.00432e-02,-4.37898e-02,-1.05491e-01,2.41203e-02,-1.18991e-01,-2.03945e-01,-1.13623e-01,-1.24625e-01,1.33205e-02,-9.73580e-02,-6.67418e-02,-7.74300e-02,7.21598e-03,-8.78656e-02,8.21600e-02,-4.19740e-02,1.40343e-01,2.66228e-02,4.08894e-01,2.59329e-01,1.83212e-02,-4.55738e-01,3.80439e-01,7.79140e-02,1.04568e-01,-7.24453e-02,-1.93000e-01,-3.60329e-01,-1.01587e-01,-2.00698e-03,-1.94858e-01,4.69122e-02,-2.76707e-01,-2.18449e-01,-5.21844e-02,1.51417e-02,5.38355e-02,6.41180e-02,9.31462e-02,-1.04231e-01,-5.05760e-02,-6.89457e-02,-6.50373e-02,-1.49423e-01,1.49344e-01,-1.79142e-02,-1.19476e-01,4.11663e-01,-9.71819e-02,-5.31512e-01,4.57843e-01,5.21482e-02,-2.98772e-01,-2.53786e-01,-3.84804e-02,-1.90055e-01,-8.81452e-03,8.16524e-02,-1.51472e-01,-2.05859e-01,-1.88920e-01,-7.76331e-02,-3.35929e-02,3.61640e-03,1.35089e-02,1.34376e-01,-5.58391e-03,-9.47623e-02,-1.52167e-01,-3.45564e-02,-1.42079e-01,-1.95820e-01,-2.08226e-01,-1.56953e-01,-2.86403e-01,-9.94424e-02,-1.16191e-01,-4.28110e-01,-1.29926e-01,1.90215e-01,-2.28239e-01,-2.03599e-01,-1.36338e-01,4.34804e-02,-4.76837e-02,-7.60555e-02,-4.78756e-02,-1.05980e-01,9.71229e-03,4.19706e-02,-3.63954e-02,4.45667e-02,4.81799e-03,-1.63757e-02,1.04980e-02,-6.32815e-02,-1.01948e-01,-2.05985e-01,-2.46219e-01,-2.67520e-01,-1.43169e-01,-4.29000e-01,-2.45165e-01,-9.89434e-02,-1.28039e-01,-2.89826e-01,-3.40691e-01,3.82809e-01,-1.83295e-01,-8.94284e-02,-2.27187e-02,8.36537e-02,-3.12523e-02,-1.07627e-01,-1.36940e-01,-1.04010e-01,3.60575e-02,-2.82517e-02,-1.03697e-01,-4.36927e-02,-1.60871e-03,-9.82178e-02,-1.52471e-01,-1.93056e-01,-1.64375e-01,-3.00769e-01,-3.54102e-01,-3.20202e-01,-1.32205e-01,1.15508e-01,-1.87045e-01,-2.69740e-01,-1.18507e-01,-2.39210e-01,2.38495e-01,4.60190e-02,-2.60049e-01,-9.08038e-02,1.79358e-01,3.69831e-02,-9.33127e-02,-1.34364e-01,-1.37631e-01,-5.66344e-02,3.10726e-02,-8.53671e-02,-7.42793e-02,-1.50820e-01,8.74647e-03,5.56666e-02,-1.50117e-02,6.95289e-02,-6.86618e-02,-9.81884e-02,-1.24384e-01,-2.52564e-01,-2.82905e-01,-2.58639e-01,-5.86895e-01,-3.10659e-01,-4.19336e-02,-3.06194e-01,-5.44384e-02,-2.01388e-01,-8.34511e-02,1.97432e-02,9.22598e-02,-1.42262e-01,-3.15953e-02,-2.43183e-02,-8.96790e-03,5.37281e-02,8.41425e-02,6.81256e-02,1.59420e-01,-7.58013e-02,6.12208e-03,1.18547e-01,1.42337e-01,1.46583e-01,-7.11367e-02,-1.94867e-02,1.19029e-01,-1.22838e-01,-3.49063e-01,-5.33557e-01,-1.71305e-01,-3.99137e-01,1.13051e-02,2.27436e-02,-4.22277e-01,-1.62063e-01,-1.02377e-01,1.23572e-01,-6.32782e-02,6.27028e-02,7.33864e-02,8.24254e-02,2.27302e-01,1.44916e-01,2.35685e-01,1.69655e-01,8.96811e-02,8.85647e-02,6.38328e-02,6.86757e-02,5.32553e-02,7.84922e-02,-3.27840e-04,-8.04720e-03,1.12784e-01,1.50008e-01,3.38214e-02,-5.77181e-01,-1.81194e-01,1.92250e-01,1.29096e-01,7.13199e-02,-2.19271e-01,1.65732e-01,7.43699e-02,-1.27140e-02,2.86360e-02,1.49819e-01,4.12885e-02,2.20156e-01,1.80433e-01,1.21034e-01,5.09572e-02,5.96695e-02,2.40500e-02,1.56508e-01,4.52841e-02,7.17115e-02,1.91338e-01,6.27005e-02,1.30975e-01,-8.30736e-02,6.09922e-02,1.13144e-01,2.36351e-01,1.05776e-01,1.00927e-01,-1.20124e-01,8.21187e-02,9.02413e-02,-3.10689e-01,3.71186e-02,2.78684e-01,2.10183e-01,8.69715e-02,6.90422e-02,1.12620e-01,3.35346e-03,3.56139e-02,-7.76383e-02,5.27723e-02,6.77339e-02,-4.73739e-02,2.52101e-02,8.33009e-02,1.28753e-01,2.19364e-01,2.05609e-01,6.61974e-03,2.13488e-02,-5.17429e-02,-7.35959e-04,3.75959e-01,4.23748e-01,-2.68591e-01,2.13974e-01,-4.99973e-02,-1.41757e-01,5.05482e-02,-9.77362e-02,2.04244e-01,2.43144e-01,6.94524e-03,-8.46694e-02,7.96282e-02,-8.04205e-02,-5.84786e-03,1.25002e-01,-2.73810e-02,2.69077e-02,-7.38225e-02,1.13971e-02,8.45371e-02,1.45729e-01,1.69473e-01,1.75772e-01,1.75004e-01,1.82347e-02,1.04463e-01,1.83934e-02,1.59985e-01,3.72023e-01,-1.09024e-01,3.30004e-01,-2.06164e-02,-1.09924e-01,3.88527e-02,1.33866e-01,-3.91169e-02,9.43582e-02,-6.61151e-02,5.06138e-03,2.92424e-01,2.02703e-01,1.97489e-01,1.75832e-01,-7.91905e-02,-4.17486e-02,-6.05440e-02,7.81126e-02,1.09481e-01,1.80851e-01,3.89843e-02,1.62509e-01,2.17981e-02,-7.18162e-02,-1.48012e-01,-2.24622e-01,-1.59087e-01,1.80154e-01,-1.96111e-01,6.09166e-01,-1.31425e-01,-4.81145e-03,-4.03597e-02,2.33816e-01,2.92148e-02,-1.39652e-02,-1.84525e-02,3.60371e-04,1.93183e-01,1.53781e-01,2.10367e-01,1.90154e-01,-3.37411e-02,-1.96699e-03,8.74114e-02,2.16686e-01,1.03978e-01,1.40757e-01,8.06940e-02,7.01168e-02,-7.77119e-02,-7.18274e-03,-9.90646e-02,-9.09572e-02,2.53824e-03,1.68600e-01,-3.66988e-01,3.55140e-01,5.02184e-02,-1.40948e-01,4.65448e-02,4.50588e-01,-8.45417e-03,1.66202e-01,-4.95270e-02,-1.63927e-01,-8.58453e-02,-3.02477e-02,1.46197e-01,2.92868e-01,3.34691e-01,1.41356e-01,2.05510e-01,1.75196e-01,2.83320e-03,-3.51262e-03,7.25681e-02,4.56831e-02,7.42776e-02,9.36670e-03,7.69906e-02,1.05870e-01,1.69834e-01,-1.43029e-01,1.69411e-01,1.77218e-01,-3.46726e-02,2.78185e-01,1.08648e-01,3.08582e-01,9.51568e-02,-4.18735e-02,-1.04156e-01,-5.04006e-02,3.00192e-02,6.89358e-02,7.86062e-02,1.46488e-01,1.71372e-01,5.91785e-02,1.54980e-01,-5.02871e-02,-5.78874e-02,7.90017e-02,-3.35427e-02,4.32237e-02,-6.71568e-02,-4.89767e-02,-1.08152e-01,1.39113e-01,4.00070e-01,6.07588e-01,5.93402e-02,-1.03604e-01,8.12230e-02,6.62027e-02,1.64448e-02,-5.55892e-02,6.03055e-03,4.37706e-02,1.82706e-02,2.62315e-02,-1.05457e-01,-9.40487e-02,-2.15023e-02,-5.52200e-02,2.64894e-02,-3.55604e-02,-1.35046e-02,-1.05749e-01,-1.72528e-02,-6.93720e-03,1.09184e-01,5.15785e-02,-5.13355e-02,3.32682e-03,-1.51743e-01,1.11649e-02,1.34876e-01,2.46580e-01,1.68422e-01,2.28787e-02,1.11014e-01,3.03737e-02,9.49410e-02,8.02213e-02,-1.91032e-01,-1.08323e-01,1.10287e-03,-8.08193e-02,-5.33231e-02,-3.34798e-02,1.06857e-01,-2.28329e-01,-1.46523e-01,-1.06681e-01,-8.27155e-02,-1.20542e-01,-7.52215e-03,-4.28950e-02,9.68615e-02,-4.28483e-02,-7.62603e-02,-6.03741e-02,-8.26691e-02,3.00480e-03,6.53540e-02,4.36443e-02,3.31323e-01,2.13020e-02,-2.50432e-02,1.50442e-02,2.26396e-01,3.08819e-01,4.35540e-03,1.90928e-01,5.16826e-03,5.33124e-02,-1.68627e-02,-4.32613e-02,-3.55349e-04,-1.44698e-01,-1.93681e-01,-1.82927e-01,-1.45924e-02,-5.71787e-02,-1.81185e-01,-1.21464e-01,-1.38119e-01,-1.53017e-01,1.10555e-02,2.06331e-01,2.99432e-01,1.07880e-01,1.84840e-01,1.19447e-01,4.32844e-01,2.96668e-02,2.52171e-02,-2.40982e-02,-2.19449e-01,-2.48434e-03,5.47861e-01,2.89509e-01,2.72580e-02,1.75179e-01,-8.37166e-02,-1.51696e-01,-1.94127e-01,-3.90424e-01,-2.70306e-01,-2.06447e-01,-2.03561e-03,-9.56261e-02,-1.69601e-01,1.28501e-02,2.09065e-01,1.66917e-01,7.45309e-02,2.42594e-02,3.00968e-01,3.20522e-01,4.25827e-01,-4.05495e-02,1.66753e-01,1.54050e-02,3.34796e-02,2.97867e-02,3.23017e-01,-2.32297e-01,7.62260e-02,1.11882e-01,-1.73832e-01,-4.56739e-02,-4.45161e-02,8.38892e-02,-2.68455e-01,-1.30187e-01,-2.67604e-02,-4.34240e-02,1.48728e-01,5.14272e-02,2.37581e-02,3.38677e-02,6.66369e-02,1.86159e-01,1.99289e-01,3.11485e-01,3.33976e-01,3.55256e-01,5.21126e-01,1.62084e-01,1.87845e-01,-2.07472e-02,-1.72458e-02,-1.15843e-02,-3.36232e-02,2.50308e-01,3.62292e-01,2.50784e-01,1.41139e-01,8.49793e-02,-3.29095e-02,6.68915e-02,-2.93948e-02,8.11857e-02,1.41668e-01,1.81593e-01,2.92292e-01,3.45663e-01,3.75577e-01,3.05848e-01,2.74156e-01,1.40909e-01,3.13528e-01,2.89614e-01,3.24709e-01,4.35297e-01,2.59131e-01,-5.89577e-02,3.09875e-02,-1.19401e-02,1.51266e-03,2.37799e-02,-1.55382e-02,-2.97309e-02,-1.59548e-01,-2.35728e-01,-1.52794e-02,1.92038e-01,2.68281e-01,3.82102e-02,1.19098e-01,8.31418e-02,9.11107e-02,2.12577e-01,1.14284e-01,1.17281e-01,1.99205e-01,-1.44245e-01,1.42132e-01,2.20586e-01,-2.44823e-01,-4.03118e-01,7.45959e-03,-2.46328e-02,2.55055e-02,2.99913e-02,-2.91973e-02,-2.62242e-02,
-3.27866e-02,2.18592e-02,-1.53590e-02,-2.64367e-02,-8.77966e-03,-1.96282e-02,-2.78145e-02,2.44515e-02,-1.12973e-02,-4.03278e-03,1.34527e-02,-3.49597e-03,-1.24893e-01,-1.53776e-01,-1.09997e-01,-4.73029e-02,-2.22040e-02,-8.51474e-04,-1.08601e-02,-1.15561e-02,2.95336e-02,-1.85969e-02,-8.30012e-04,-2.67963e-02,-2.06399e-02,3.41111e-02,2.57713e-02,9.68027e-03,4.20823e-03,-1.50193e-02,9.54697e-03,9.66888e-03,-4.30601e-02,-6.54040e-02,-1.31934e-01,-1.34584e-01,-1.22009e-01,-7.39845e-02,-1.59857e-03,1.03072e-02,-1.77321e-01,-2.63656e-01,-1.43186e-01,-4.25500e-01,-4.83476e-02,-1.99697e-01,-3.48727e-01,-2.80196e-01,-3.20461e-01,-1.45800e-01,-1.41195e-01,-8.59526e-02,-3.07231e-02,1.51918e-02,2.43455e-02,9.70048e-03,1.38211e-02,-2.37026e-02,-7.80084e-02,2.75719e-01,1.68776e-01,-1.41599e-03,-2.60692e-02,-2.80285e-02,-3.46066e-01,-3.20476e-01,-4.32252e-01,-3.21350e-01,-1.87129e-02,-4.05764e-01,-4.66338e-01,-5.26454e-01,-4.25980e-01,-2.61856e-01,-2.45615e-01,-3.44193e-01,-4.96739e-01,-4.12454e-01,-3.18435e-01,-4.47158e-01,-2.15965e-01,-1.35876e-01,-2.15910e-02,-3.89019e-03,3.16931e-04,-1.53527e-02,-3.21867e-01,2.60062e-01,2.77502e-01,1.56961e-01,-3.40763e-01,-3.56587e-01,-2.01302e-01,-1.08655e-01,4.92150e-02,8.52729e-02,-7.19038e-02,-1.51312e-01,2.45904e-02,-8.30127e-02,-1.30162e-01,6.94130e-02,4.55497e-02,-2.21426e-01,1.11694e-01,6.74071e-03,-9.32543e-02,-1.54519e-01,1.24444e-01,9.67658e-02,-1.35298e-01,4.47140e-03,2.52855e-02,7.62986e-03,-3.58556e-01,2.93555e-01,-2.38995e-01,-2.96801e-01,-1.33694e-01,-6.27558e-02,-4.55595e-01,-2.00245e-01,-8.67811e-03,3.70478e-02,2.54369e-02,-2.84007e-02,-7.69331e-02,7.75354e-03,-4.81919e-02,4.68231e-02,1.71025e-01,-8.76246e-02,-3.28550e-02,-4.51163e-03,2.09901e-02,2.22541e-01,5.87210e-01,4.20026e-01,1.99685e-01,2.22675e-02,-3.70854e-03,-5.35214e-03,-5.39569e-01,2.79515e-01,-6.15449e-01,-3.44781e-01,-2.03452e-01,-1.92786e-01,6.13152e-02,1.05975e-01,1.53202e-01,2.08361e-01,1.99185e-01,1.63716e-01,1.32914e-01,2.00168e-02,1.25658e-02,8.98708e-02,1.17498e-01,-6.25406e-02,-2.07453e-02,-2.20944e-01,-1.87492e-01,-2.22972e-01,1.16457e-01,7.69433e-02,-6.74705e-03,-3.29761e-02,4.10690e-03,-1.12495e-01,4.10833e-01,1.37811e-01,1.49711e-01,1.88883e-01,-8.18886e-02,-1.13546e-01,5.68072e-02,2.08132e-01,7.31226e-02,9.51319e-02,1.03916e-01,1.56913e-01,1.33154e-01,9.41428e-02,1.23722e-01,1.19194e-01,4.64415e-02,9.49828e-03,-9.32749e-02,-4.12994e-02,-4.94949e-02,3.63877e-02,-5.91907e-02,2.60210e-02,3.34361e-01,-3.26577e-01,7.69215e-03,1.13535e-02,3.33089e-01,1.61127e-01,-2.16743e-01,-7.34126e-02,2.72311e-01,-6.57629e-02,1.04584e-01,7.74629e-02,-2.10302e-02,3.92652e-02,-3.17527e-03,8.10865e-02,7.67968e-02,1.54851e-01,2.52284e-02,3.29974e-02,3.16372e-02,-9.96122e-03,-1.03469e-01,-1.31384e-01,-1.14269e-01,2.97479e-02,2.17360e-01,3.33449e-01,-1.40191e-01,-3.62987e-01,-3.71454e-01,2.08415e-01,2.43734e-01,1.06150e-01,-1.75204e-01,-5.10734e-02,2.64250e-01,-9.64111e-02,9.87467e-02,1.52673e-01,3.57911e-03,1.49347e-02,-7.10618e-02,-1.12558e-02,4.45489e-02,9.09365e-02,9.81484e-02,-8.76900e-02,8.07216e-02,-3.66259e-02,-7.85308e-02,-6.54323e-02,-7.22669e-02,-1.11652e-01,3.05865e-01,5.66268e-01,-3.48718e-01,-2.40619e-01,1.75561e-01,1.59716e-01,-3.65952e-02,2.05537e-01,-1.48616e-01,-6.80842e-02,1.82199e-01,-2.01666e-01,-7.38425e-02,4.63418e-02,1.38757e-02,-6.37364e-02,-6.33209e-02,-3.47106e-02,-3.68985e-02,-3.31140e-03,4.43078e-02,1.42757e-01,4.38719e-02,4.75380e-02,1.26888e-01,1.87825e-02,8.43801e-04,2.96511e-02,1.86807e-01,2.35346e-01,4.17043e-01,-2.19556e-01,1.58668e-01,-9.08361e-02,2.96375e-02,2.95901e-01,-8.91622e-02,2.21389e-01,3.11420e-01,-1.27269e-02,-9.83622e-02,5.14411e-02,-1.13238e-01,-1.09594e-01,-7.00950e-02,-6.36680e-02,-1.74879e-02,-7.36246e-02,8.42421e-02,1.52682e-02,5.72319e-02,1.45966e-03,4.54196e-02,1.79585e-02,1.66945e-01,1.07151e-02,3.71570e-02,5.72582e-01,-2.34410e-01,-2.91105e-01,1.28296e-01,-1.70666e-01,6.28565e-01,3.57398e-01,-2.18546e-01,5.96502e-02,2.54129e-01,1.28437e-01,8.82503e-02,-3.21900e-02,8.57577e-03,1.73874e-02,-1.53735e-02,-7.83481e-02,-3.14434e-02,5.48644e-02,1.07344e-01,1.29883e-01,1.43403e-01,1.44316e-01,7.14546e-02,9.89852e-02,9.05430e-02,-9.29030e-02,1.55819e-01,2.94345e-01,-2.91224e-01,1.01033e-01,4.42992e-04,2.44593e-01,5.34623e-01,2.30694e-01,-7.15114e-03,1.30133e-01,1.79026e-01,-6.29385e-02,8.88895e-02,1.50814e-02,3.78027e-02,5.55560e-02,-2.93116e-02,1.07048e-02,3.27172e-02,9.49055e-02,2.40666e-03,8.75225e-02,1.64712e-01,3.03414e-01,1.63909e-01,1.74025e-01,7.37543e-02,-5.09363e-02,-7.83412e-02,-7.70269e-02,-9.97171e-02,3.80176e-01,-3.05922e-01,7.60027e-02,4.00732e-01,1.62385e-01,2.02446e-01,2.11658e-01,-8.80332e-04,1.31470e-01,9.69313e-02,5.77144e-02,1.49325e-01,-2.48743e-02,7.14762e-02,5.21291e-02,-3.16308e-02,5.19566e-03,-3.03239e-02,8.83401e-03,1.09277e-01,7.79571e-02,2.08948e-01,3.03626e-01,2.93938e-01,1.00934e-01,1.27891e-01,2.28662e-01,-1.55151e-01,-5.19086e-03,-9.20067e-02,8.18032e-03,-7.98980e-02,1.56992e-01,3.08962e-01,1.79212e-01,2.55114e-01,3.16569e-01,7.20914e-02,8.11618e-02,3.43842e-02,8.34391e-03,7.80594e-02,6.21545e-02,-1.19289e-01,-6.03719e-02,-9.88287e-02,7.30777e-02,1.03696e-01,-5.48081e-02,2.01575e-01,1.97544e-01,1.51301e-01,1.02456e-01,2.35647e-01,3.21860e-01,-3.56757e-01,-1.31457e-01,-8.28988e-02,1.17184e-02,-4.87388e-01,2.97950e-01,4.90107e-01,3.27118e-01,4.92556e-01,3.54637e-01,2.48113e-01,-4.67694e-03,2.16539e-02,-7.24999e-02,5.01424e-02,-4.02107e-02,-7.79794e-02,1.19861e-01,-1.72037e-02,1.51256e-01,3.15852e-02,7.29827e-03,8.77406e-02,2.32342e-01,3.20484e-01,2.20323e-01,4.84630e-01,3.37941e-01,1.33186e-01,-2.83292e-01,-4.47001e-02,-1.74648e-01,-4.40601e-01,1.05201e-01,5.30724e-01,3.77604e-01,3.34420e-01,2.36548e-01,1.88788e-01,5.25663e-02,-1.25093e-01,-1.08832e-01,1.06182e-02,-6.72475e-02,-5.28907e-02,1.57679e-01,1.12963e-01,1.53598e-01,3.26608e-02,4.49398e-02,3.25074e-01,2.64013e-01,2.73536e-01,1.57261e-01,1.10411e-01,1.07875e-01,-2.58875e-04,-1.58966e-01,-1.14650e-02,-2.27478e-01,-3.34646e-01,2.76179e-01,4.53546e-01,2.09737e-01,2.98046e-01,1.65288e-01,2.13153e-01,1.54363e-01,1.62178e-02,-3.67714e-02,-7.71387e-02,1.50289e-02,-6.28465e-02,1.09920e-01,1.31571e-01,2.04344e-01,3.13178e-02,4.00179e-02,1.74483e-01,1.47945e-01,-1.02901e-03,-9.69557e-03,1.52110e-01,-1.95195e-01,-1.21090e-01,-1.35300e-02,5.19441e-01,-2.37227e-01,-1.26294e-01,2.13612e-02,2.71999e-01,2.63158e-01,3.71238e-01,1.14293e-01,9.69842e-02,-1.33221e-01,-7.17371e-02,1.17756e-01,-3.93450e-02,-4.51086e-02,6.50343e-02,9.72546e-02,1.45690e-01,1.65422e-01,3.46016e-02,2.47392e-01,1.31747e-01,1.85775e-01,1.29483e-02,-9.40071e-02,2.79603e-02,-3.99066e-01,9.69613e-02,-2.85261e-01,-2.14670e-01,4.35169e-01,2.52333e-01,2.93369e-01,2.96560e-01,3.47950e-01,9.04077e-02,-1.48475e-01,-5.40018e-02,-1.43727e-01,-7.01277e-02,3.11685e-02,1.46364e-01,-4.59956e-02,8.49625e-02,3.70951e-02,-6.16757e-03,1.63708e-01,2.42168e-01,1.04749e-01,1.63249e-01,1.48573e-01,5.80879e-03,-1.25782e-01,-1.43436e-01,-4.85976e-01,-2.66670e-02,-1.83096e-01,1.65235e-02,3.89527e-01,8.11996e-02,-1.17124e-02,2.94103e-02,1.91300e-01,-1.55923e-01,-2.25536e-01,-4.65071e-02,-3.50104e-05,3.28299e-02,4.28264e-02,-3.09243e-02,6.87993e-02,-6.01109e-02,-9.23966e-02,-3.30541e-02,3.33400e-02,-9.96164e-02,2.09622e-02,6.06923e-02,6.68390e-02,6.56420e-04,-5.97077e-02,6.81445e-02,1.13732e-02,-2.22244e-01,-2.77068e-01,-1.95861e-01,-8.01332e-02,-1.91249e-01,-1.60912e-01,-5.44181e-02,1.77522e-01,-5.37768e-02,-1.43325e-01,2.68177e-02,-5.05025e-02,-1.01356e-01,-6.93951e-02,-9.81396e-03,-1.08875e-01,-1.03927e-01,-3.28799e-02,-2.87753e-03,9.87671e-02,-2.03091e-01,-7.52668e-02,-1.31319e-01,8.95266e-02,4.03011e-02,-7.01153e-02,-3.00494e-02,-1.00415e-01,-2.01865e-01,1.66347e-02,-1.74744e-01,-8.20051e-02,2.02412e-01,1.50933e-01,-1.40597e-01,-3.67485e-01,-1.35675e-01,-1.53891e-01,-8.98863e-02,-9.00007e-02,-2.88496e-02,2.19608e-02,5.28498e-02,-1.65049e-02,-1.14261e-02,3.13148e-03,4.81162e-02,-3.29155e-02,-1.55537e-01,-4.84206e-02,-2.15631e-01,-3.62149e-02,3.57742e-02,4.39393e-02,2.43720e-01,-5.37295e-02,-3.30564e-01,1.50641e-02,2.07157e-03,3.09508e-02,1.88438e-03,2.65198e-01,-1.75312e-02,-1.02878e-01,-4.58054e-02,1.47354e-01,-1.75095e-02,-1.06704e-01,2.95795e-02,1.33885e-01,-7.22972e-03,-2.31789e-02,1.22581e-01,-4.01090e-02,-1.41098e-01,-1.02160e-01,-6.01464e-02,-7.60933e-02,-7.22837e-02,1.23622e-01,7.87893e-02,5.40180e-02,2.36621e-01,-1.51070e-01,-3.23085e-01,-1.29502e-02,4.56738e-03,-2.05778e-02,1.48701e-01,4.53632e-01,3.31671e-01,2.08725e-01,2.16103e-01,3.02713e-01,5.49960e-02,-5.30160e-03,-2.82296e-02,-3.45921e-02,4.10603e-02,1.36334e-01,1.20807e-01,6.36049e-02,1.69567e-03,-1.09064e-01,-8.32139e-02,-8.63912e-02,1.83206e-01,-4.12931e-02,9.52128e-02,1.87377e-01,5.25994e-03,-2.36342e-01,-3.26917e-01,1.24913e-02,-1.21895e-02,-3.33905e-02,3.51082e-01,2.80567e-01,4.26113e-02,2.81649e-01,1.75510e-01,2.53340e-01,-1.63361e-01,-1.73977e-01,1.26058e-01,1.89065e-01,-2.40521e-01,-6.62628e-02,-1.71209e-02,2.83314e-02,1.47949e-01,3.42029e-02,-3.75011e-02,2.23616e-01,2.60155e-01,2.77518e-01,1.08187e-01,-2.40131e-02,-9.33671e-02,1.45165e-01,-1.60982e-01,-2.92169e-02,-2.97734e-03,2.90176e-02,-3.68136e-03,1.70817e-01,2.49084e-01,2.83925e-01,2.58091e-01,-8.21155e-03,5.65140e-02,1.62520e-01,7.47392e-02,1.15076e-01,3.10012e-01,2.70648e-01,2.54944e-01,7.71194e-02,3.38830e-01,3.84752e-01,2.76822e-01,2.70030e-01,6.02565e-01,7.26877e-01,7.04817e-01,5.21972e-01,3.12540e-01,-2.18302e-02,-2.19342e-02,-2.75638e-02,2.36503e-04,3.10674e-02,5.20998e-03,1.66313e-03,-1.58378e-01,-6.86434e-02,4.37725e-02,1.37362e-02,1.43149e-01,7.65740e-02,6.24103e-02,5.24730e-02,2.22900e-01,2.19216e-01,1.71541e-02,-2.33648e-01,1.57168e-01,3.93075e-01,4.47190e-01,2.98875e-01,3.14191e-01,4.25723e-01,4.14808e-01,-1.11216e-01,-1.01002e-02,-6.61511e-03,2.76427e-02,-2.46664e-02,
1.25271e-03,2.75200e-02,-2.51454e-02,1.23555e-02,-5.83780e-03,2.96460e-02,-1.98573e-02,1.73361e-02,-7.01645e-04,-8.03048e-03,3.13479e-02,-1.22501e-02,-2.05332e-02,7.69521e-03,-1.01995e-02,-3.41766e-02,6.15076e-03,2.35596e-02,2.34549e-02,2.45699e-02,-2.64300e-04,-1.90142e-02,1.23229e-02,4.25419e-03,-1.72411e-02,2.92360e-02,2.39099e-03,8.33612e-03,5.90350e-04,1.99840e-03,-2.33049e-03,2.06427e-02,1.35191e-02,-1.86771e-02,-1.15258e-01,-9.59204e-02,-1.03161e-01,-1.28696e-01,-8.26285e-02,-1.55860e-01,-1.44879e-01,-8.99095e-02,-5.12217e-02,-1.47916e-01,-1.94341e-01,-1.87830e-01,-7.54367e-02,-1.00849e-01,-1.03229e-01,-1.66074e-01,-2.52542e-01,-1.32788e-01,-2.06625e-02,6.55064e-03,-1.94884e-02,-2.95778e-02,-1.90394e-04,5.74780e-03,1.46720e-02,-2.04421e-01,-1.92774e-01,-7.24572e-02,-1.31516e-01,-3.33516e-02,-1.04986e-01,-3.87953e-01,-4.44546e-01,-3.53549e-01,-3.00717e-01,-5.68794e-01,-5.51447e-01,-9.98881e-03,-4.51981e-02,7.14234e-02,-1.42624e-01,2.06929e-01,2.48393e-01,-1.67977e-02,-7.52298e-02,-2.06465e-01,-1.78268e-02,-4.30096e-02,-1.34755e-02,1.04331e-03,-7.34410e-04,1.68859e-02,4.09747e-04,-2.17859e-01,-2.96006e-01,-5.89677e-02,-3.00570e-01,-3.90154e-01,-6.43497e-01,-5.50845e-01,-3.58760e-01,-4.13267e-01,-7.68075e-01,-8.30912e-01,-9.96104e-01,-7.93591e-01,-8.93531e-01,-5.83860e-01,-6.02193e-01,-1.28921e-01,1.42921e-02,3.17712e-02,-2.66098e-01,-1.46798e-01,7.41658e-02,9.27287e-02,5.98856e-04,-2.62253e-02,1.45478e-02,9.07515e-03,-3.74233e-02,1.44761e-01,-2.11424e-01,1.75687e-01,1.84187e-01,1.86517e-01,-5.08777e-01,-5.58461e-01,-1.88525e-01,-1.54601e-01,-1.13783e-01,-1.46316e-01,-6.96101e-01,-3.03611e-01,-2.17431e-01,-4.46923e-01,-3.48122e-02,1.75404e-01,8.18221e-02,3.54903e-01,1.37195e-01,-3.29857e-02,-1.85033e-01,-1.68899e-01,-9.16280e-02,1.07522e-02,1.77944e-02,-3.44837e-02,-4.38192e-02,-2.63458e-01,-5.77973e-01,-6.97177e-02,-6.13653e-02,-2.06726e-01,9.76962e-02,-2.20010e-03,-1.88810e-01,-9.64721e-02,-8.20920e-02,-8.62148e-02,-5.80906e-02,-3.45670e-02,-2.49003e-01,-2.10478e-01,-6.47033e-03,-2.88616e-01,-2.66787e-01,-1.14940e-01,-2.91653e-01,1.21607e-02,6.46419e-02,-1.54100e-03,-4.10934e-01,-1.80161e-02,2.61197e-02,-1.20874e-01,-2.03032e-02,2.35897e-01,2.74217e-01,2.76780e-01,8.41969e-03,-4.85119e-02,1.54102e-01,1.48064e-01,-1.08908e-01,-2.77384e-02,-2.00220e-02,-7.95667e-02,-8.05589e-02,-1.67723e-01,-1.13741e-01,2.89308e-02,-3.22519e-02,-3.84976e-02,-5.91888e-02,2.73302e-01,7.39451e-02,2.64069e-02,-2.74163e-02,-7.08728e-02,1.78342e-01,-4.02169e-01,5.67625e-02,-6.23686e-02,1.31456e-01,8.19391e-01,3.23699e-01,8.45076e-02,8.19176e-02,1.15753e-02,1.34993e-01,1.38073e-01,-5.73985e-03,-1.88311e-02,6.48213e-03,-4.99545e-02,-7.32849e-02,-6.87946e-02,-3.65028e-02,1.12534e-01,3.88443e-02,3.93818e-02,9.86866e-02,8.62949e-02,1.07430e-01,1.13046e-01,1.14610e-01,7.49563e-02,4.85763e-01,-3.71326e-01,-1.38959e-01,4.66325e-01,7.29466e-02,3.35852e-01,2.53832e-01,2.47660e-01,1.39886e-02,-5.22189e-02,1.49931e-01,1.07094e-01,1.03056e-01,1.58069e-01,-9.63006e-02,-1.19667e-01,-7.75858e-02,1.23109e-02,-2.38413e-02,-4.95056e-02,-6.98392e-03,-1.54458e-01,-5.40425e-02,2.31824e-02,6.69762e-03,1.84499e-01,1.81968e-01,1.52150e-01,2.36331e-01,-3.08564e-01,1.95011e-01,4.59343e-01,5.25836e-02,2.35774e-01,2.78749e-01,2.91622e-01,3.89105e-02,-1.30652e-02,6.35552e-02,-2.99559e-02,1.57800e-01,1.08680e-01,1.03862e-01,-7.92557e-02,3.04971e-02,2.59361e-03,-5.85344e-02,-5.77786e-02,-2.34611e-03,-1.57337e-01,-4.97906e-02,3.33206e-02,8.53238e-02,1.20512e-01,3.10485e-02,-3.20613e-02,-2.14271e-01,-2.84420e-01,2.15375e-01,3.47372e-01,2.73268e-01,1.54537e-01,2.01824e-01,2.23972e-01,9.64693e-02,6.67471e-02,1.02553e-01,4.86725e-02,3.93704e-02,4.44579e-02,-4.45383e-02,-6.62251e-02,5.20051e-02,5.59403e-02,4.50324e-02,-9.30951e-02,-6.52948e-02,-4.42932e-02,-7.39214e-02,-9.13504e-02,9.40956e-02,-1.26114e-01,-2.61991e-02,2.43260e-01,-6.09887e-01,-9.06359e-02,2.45649e-01,2.44141e-01,5.93485e-02,3.30659e-01,-1.32351e-01,3.84975e-02,8.76470e-03,1.51066e-01,2.02569e-01,7.49917e-02,-2.71649e-02,7.51662e-02,-3.97673e-02,-1.70327e-01,4.07613e-02,1.20157e-01,7.97622e-02,5.15405e-02,-7.65492e-02,-5.86588e-02,4.31461e-03,9.83699e-03,2.79047e-02,-1.21566e-01,-2.96179e-01,-7.96475e-02,-3.01190e-01,-2.32850e-02,1.20586e-01,4.41328e-01,6.96354e-02,3.95759e-02,-2.55166e-01,-4.79363e-02,-3.88442e-02,1.11002e-01,9.60423e-02,-4.35222e-02,9.78643e-02,5.83560e-02,-8.48050e-02,-1.07982e-01,3.02676e-02,2.23240e-01,1.94709e-01,-1.14482e-02,-3.13729e-04,1.70682e-02,7.11559e-02,1.31620e-02,9.02196e-02,-2.48676e-01,-2.16508e-02,-6.57716e-02,-7.83329e-02,1.66376e-01,-1.00920e-01,3.98264e-01,2.59563e-01,1.68492e-02,-2.34252e-03,2.46628e-02,1.67332e-02,1.78138e-01,1.13899e-02,4.99559e-02,1.82209e-01,3.76616e-02,-1.33309e-01,-2.37287e-01,-8.93147e-02,9.31121e-02,8.43816e-02,1.07417e-02,1.01151e-03,-1.31014e-01,9.53150e-02,3.59160e-02,-6.75615e-02,-3.10840e-01,-2.44298e-01,9.75173e-02,-1.91390e-01,9.63440e-02,-1.43247e-01,2.94592e-01,3.91215e-01,7.11421e-02,-5.55821e-02,1.07729e-01,1.50912e-02,1.14534e-01,-1.74597e-04,1.09429e-01,2.78644e-01,-2.57502e-03,-6.95661e-02,-1.84993e-02,8.97058e-02,3.36731e-02,1.18763e-01,1.21810e-01,9.79592e-02,2.35215e-01,1.30030e-01,8.22164e-02,1.61775e-01,-7.36178e-03,-1.75266e-01,7.11474e-02,-4.05270e-01,4.41053e-02,-6.92588e-02,1.10327e-01,1.38334e-01,1.61839e-01,1.90227e-01,-1.79163e-01,1.09472e-02,-2.50705e-02,-2.03557e-02,8.17655e-02,2.00441e-01,1.61457e-02,3.52614e-03,1.42725e-01,6.23570e-02,1.32418e-01,7.16915e-02,3.35467e-01,2.83968e-01,2.78697e-01,2.38541e-01,1.70361e-01,2.78895e-01,2.42366e-02,-4.76226e-02,-1.48918e-01,-2.75421e-01,-1.29588e-03,1.42035e-01,-6.04467e-03,-2.42556e-01,7.50931e-02,4.01813e-01,-7.78270e-02,1.23404e-01,1.24392e-01,3.17043e-02,3.82164e-02,8.93898e-02,-2.60739e-02,-4.43642e-04,-4.01067e-02,3.03764e-02,2.09656e-01,7.12999e-02,2.72324e-01,6.01742e-02,1.29775e-01,2.07680e-01,1.15793e-01,1.19691e-01,3.26077e-01,2.23587e-01,-3.32825e-01,-4.76061e-01,-1.96947e-01,-1.87141e-02,3.28596e-03,2.71293e-01,6.02170e-02,4.18706e-01,-1.12724e-01,3.56557e-03,1.88176e-02,-7.03425e-02,6.91369e-02,1.11741e-01,-1.36268e-01,-3.75625e-01,-2.77388e-01,3.18722e-02,1.21970e-01,1.02043e-01,3.69646e-02,9.81946e-02,-6.76782e-02,7.24652e-04,-2.06134e-02,5.91820e-02,2.03717e-01,-8.83478e-02,-4.06774e-02,-4.20923e-01,-1.30498e-01,3.35269e-01,1.22457e-02,3.49307e-01,7.86463e-02,1.89368e-01,-1.35124e-01,-1.89171e-01,5.60658e-02,-1.71678e-02,-1.33247e-01,-2.64592e-01,-3.50721e-01,-4.12985e-01,-2.32049e-01,9.10557e-02,8.19397e-02,2.50390e-02,-1.38286e-01,-1.24615e-01,-3.44045e-01,-4.06072e-01,-1.82325e-01,-3.34151e-01,-2.50470e-01,-5.58513e-01,-2.07012e-01,-8.15530e-02,6.57230e-02,-3.16109e-02,2.37059e-01,2.82714e-01,1.74486e-01,1.74966e-01,-1.00464e-01,2.45884e-02,-5.88371e-03,-1.74415e-01,-2.50227e-01,-2.31854e-01,-2.39505e-01,-4.41301e-01,-2.02762e-01,9.63914e-02,1.51315e-01,-1.02984e-01,-1.58537e-01,-2.85300e-01,-3.17407e-01,-5.04990e-01,-2.84852e-01,-5.38510e-01,-4.83946e-01,-6.30777e-01,-4.82875e-02,3.13045e-03,2.71062e-02,3.10071e-02,1.05807e-01,9.10033e-03,-1.48753e-01,-1.69558e-01,-4.82057e-01,-1.57908e-01,-3.38765e-01,-2.22124e-01,-3.42614e-01,-7.91359e-02,-1.43046e-01,-2.32630e-01,-1.39280e-02,1.11998e-01,7.46999e-02,-8.93384e-02,-6.98592e-02,-1.31591e-01,-3.04124e-01,-4.78110e-01,-3.81124e-01,-4.56231e-01,-4.65563e-01,-4.55256e-01,-6.00222e-02,-3.73600e-02,-2.53499e-02,-2.37263e-02,-7.22567e-02,-8.44097e-02,-5.59779e-01,-2.88613e-01,-6.29491e-01,-3.18895e-01,-3.09997e-01,8.38942e-02,1.41300e-01,3.18309e-02,-3.15794e-02,9.62482e-02,9.09532e-02,8.18170e-02,-8.68336e-02,5.53390e-02,2.20528e-02,-2.76759e-02,-1.32272e-01,-3.00090e-01,-1.43940e-01,-2.64639e-01,-2.19299e-01,-4.95170e-03,9.54392e-02,-3.78248e-01,-1.56608e-02,-3.33067e-03,-1.05975e-02,-1.68561e-01,-3.96721e-01,-8.91265e-02,-4.01363e-01,-2.32868e-01,-1.32176e-01,2.33872e-01,2.15957e-01,4.70931e-02,-1.46174e-01,2.47976e-02,1.92170e-01,1.29447e-01,6.13376e-02,8.32833e-02,7.98568e-02,-4.41171e-02,2.02285e-02,-1.57859e-01,-1.35869e-01,-2.28231e-01,-2.24432e-01,1.88697e-02,1.93800e-01,-2.60907e-02,-1.96327e-02,-4.51121e-03,2.43086e-02,-2.11916e-01,-3.43132e-01,-5.11651e-01,-4.38849e-01,-1.55897e-02,-4.55944e-02,-1.21352e-01,7.92575e-02,-2.15574e-02,-1.25522e-01,5.83694e-02,9.34022e-02,1.38637e-01,2.11123e-02,8.25884e-02,3.03417e-02,1.69910e-02,8.32905e-02,-9.53913e-02,2.40163e-01,-8.98204e-02,4.62729e-02,4.98658e-03,7.98685e-02,2.53138e-01,-3.40356e-02,3.81233e-03,-3.38523e-02,2.88763e-01,2.90427e-01,1.55311e-02,-9.77064e-02,-9.91219e-02,-1.59714e-01,-2.39829e-02,4.87374e-02,-1.77332e-01,-2.11153e-01,-1.65009e-01,-4.32916e-02,2.41656e-02,9.86250e-03,8.26160e-02,9.80653e-02,6.62547e-02,1.94534e-01,3.45492e-01,2.43418e-01,2.32053e-01,1.19162e-01,9.58978e-02,1.83007e-01,-1.23426e-02,3.25219e-02,-1.88684e-02,-2.21966e-02,-7.98958e-03,-4.81994e-02,-3.36013e-01,-4.73675e-01,-1.20230e-01,-1.72340e-01,5.56275e-02,1.75094e-02,-2.63529e-01,-2.98831e-02,3.86192e-02,1.70481e-02,7.48912e-02,1.36682e-03,4.32389e-03,3.91106e-02,1.95461e-01,-1.43653e-01,-3.79824e-02,-9.48355e-02,-1.12500e-01,-1.26679e-01,-3.55395e-01,1.18587e-01,2.08906e-02,-1.88249e-02,3.20017e-04,-3.53808e-02,-5.74057e-04,2.45656e-02,-2.47662e-01,-4.63444e-01,-3.84720e-01,-1.99087e-01,-2.78021e-01,-9.44347e-02,-1.78207e-01,-1.68899e-01,-8.36147e-02,2.77240e-02,1.92596e-01,6.43759e-02,1.01572e-01,-3.74604e-03,5.71653e-02,1.66442e-01,-2.26340e-01,-1.65863e-01,-1.37808e-01,-1.79888e-01,-2.72550e-01,9.51673e-02,1.14397e-02,3.05161e-02,1.10031e-02,2.64884e-02,3.15180e-02,2.79914e-02,2.71116e-01,3.83765e-01,2.38558e-01,8.08236e-03,-1.23196e-02,9.21426e-02,5.46210e-03,-4.10598e-03,9.30055e-04,1.46718e-01,1.89804e-01,5.82110e-02,1.96186e-02,5.39101e-01,2.90006e-01,-3.03896e-02,7.11798e-02,3.90575e-01,3.65049e-01,2.73655e-01,2.36162e-02,-3.02501e-02,9.38470e-03,-2.62187e-02,
3.14651e-02,-3.65831e-03,-2.67293e-02,-9.63285e-03,-3.33539e-02,1.39644e-02,-2.40669e-02,-2.70947e-02,1.87420e-02,3.20118e-02,-2.50788e-02,2.65815e-02,-7.40861e-02,4.17587e-02,1.99382e-01,1.88807e-02,-1.82397e-02,8.99162e-03,3.14738e-02,-3.04315e-03,-2.58472e-02,-5.05769e-03,-3.26783e-02,4.03056e-03,-2.92545e-02,2.11015e-03,1.73591e-03,9.12539e-03,-1.08020e-02,-2.67193e-02,3.18862e-02,-1.15668e-02,3.40465e-04,-4.95873e-02,-7.36722e-02,-2.42547e-02,-5.86793e-02,-1.72312e-01,-2.02817e-01,6.78058e-02,-2.64028e-01,-5.12327e-01,4.57613e-02,1.43967e-02,-1.31571e-01,6.07976e-02,9.49526e-02,1.80221e-02,-1.43770e-01,-2.37618e-01,-1.18954e-01,8.08301e-02,-2.91518e-02,1.78083e-03,1.56072e-02,2.22806e-02,-9.74742e-03,2.26731e-02,5.51607e-02,-3.54683e-02,-2.61773e-01,-1.70360e-01,-8.31731e-03,-4.14660e-02,-1.92026e-01,1.67277e-01,2.42805e-01,-1.53373e-02,2.53125e-01,2.96392e-01,2.28768e-01,5.32952e-01,4.26913e-01,8.15163e-02,-7.12283e-02,1.98442e-01,2.66719e-01,1.80195e-01,1.26899e-01,3.91568e-02,1.15053e-01,1.95881e-01,3.55215e-02,-3.52594e-02,-3.24840e-02,-1.73995e-02,3.24444e-01,1.92058e-01,-6.65771e-02,-8.22884e-02,-5.57395e-02,8.28667e-02,2.38978e-01,1.80698e-01,2.88657e-01,2.78550e-01,2.60305e-01,1.39274e-01,-2.77722e-02,1.10379e-01,7.37555e-02,-3.73913e-02,-2.01381e-01,-7.28654e-02,-1.18759e-01,-1.85043e-01,-7.33270e-02,2.99273e-01,3.83783e-01,2.17776e-01,-3.18065e-02,1.53789e-02,-1.49086e-02,7.15839e-04,3.67638e-01,1.07381e-01,1.52800e-01,2.54922e-01,2.48780e-01,-1.32416e-01,-6.04175e-02,-1.51373e-01,8.81238e-02,1.05576e-01,1.39598e-02,9.77082e-02,3.17737e-02,1.32059e-01,6.32246e-03,9.53141e-03,2.01303e-02,-1.73140e-01,-3.20208e-01,-2.45661e-01,-9.86992e-02,-1.31491e-01,-1.39344e-01,-3.88411e-01,-2.14798e-01,-1.05461e-02,2.80830e-02,-2.94050e-02,2.87257e-01,1.49838e-01,3.61124e-01,3.46132e-01,1.35996e-01,-1.36189e-01,-2.90283e-02,-2.40227e-01,-1.12085e-01,-1.28646e-01,-1.99101e-03,8.53940e-02,7.27671e-02,1.07438e-01,1.11606e-01,1.00725e-01,1.41791e-01,-8.81555e-02,-3.55673e-01,-1.53413e-01,5.13026e-03,6.73293e-02,-8.15678e-02,-5.16259e-01,-1.01173e-01,-5.55810e-02,3.21618e-04,1.31205e-01,-2.24090e-01,-3.83973e-02,3.95521e-01,-3.97610e-02,-2.01691e-01,-1.91101e-04,-6.66293e-02,-6.22181e-02,-8.87679e-03,3.28640e-02,-2.96110e-04,9.97952e-02,1.38900e-02,-4.78076e-02,2.39610e-02,8.32701e-02,3.44598e-02,7.40578e-02,-4.15055e-01,-2.28537e-01,-1.12736e-01,-1.31669e-01,-2.56964e-01,-4.36851e-01,-4.31153e-01,-1.83636e-01,2.56579e-02,4.34048e-01,-1.81676e-01,9.82175e-02,1.78037e-01,2.33257e-01,4.31671e-03,1.39093e-01,-1.11318e-01,5.91814e-03,-4.92820e-02,-3.94693e-02,-1.40457e-01,-1.18102e-01,-6.53359e-02,-1.18800e-01,8.73337e-02,2.64323e-01,1.11641e-01,6.44141e-02,-1.75106e-01,-2.01600e-01,-2.84664e-01,-4.44216e-01,-3.69162e-01,-1.32746e-01,-1.20074e-01,-2.29094e-01,-6.88609e-02,4.74565e-01,-3.78945e-01,-2.02679e-01,1.57055e-01,1.99917e-01,-1.32944e-01,1.59450e-02,-2.19628e-01,9.69793e-02,8.45391e-02,-1.85874e-01,-2.58785e-01,-1.95429e-01,-2.23661e-02,1.59351e-01,2.45503e-01,2.69781e-01,4.15710e-02,1.19532e-03,-2.33142e-01,-3.03652e-01,-4.27603e-01,-7.03809e-01,-2.80604e-01,-3.71964e-01,-5.80492e-02,-7.50958e-02,1.89149e-01,2.58914e-01,6.88488e-02,5.10554e-02,1.69790e-01,5.82301e-02,5.43747e-02,1.70359e-01,-9.08605e-02,4.40417e-02,-1.28682e-01,-2.49362e-01,-2.02464e-01,-7.82813e-02,1.05033e-01,2.98174e-01,3.54006e-01,9.22719e-02,-6.85637e-02,-1.81771e-01,-3.26737e-01,-4.03323e-01,-3.55474e-01,-5.11921e-01,-1.73919e-01,-4.28867e-01,-3.79224e-01,-1.45542e-01,1.38729e-01,1.47470e-01,-2.40610e-02,-2.67004e-01,-1.48713e-01,-2.06265e-01,1.88518e-01,6.78305e-02,-2.01457e-01,-1.68046e-01,-3.55532e-01,-2.25745e-01,-1.68599e-01,8.36747e-02,1.74185e-01,3.75824e-01,3.34864e-01,-6.09210e-02,-2.66123e-01,-2.10178e-01,-3.25838e-01,-3.40909e-01,-3.07790e-01,-3.71824e-01,-3.55769e-01,-1.31325e-01,-1.55741e-01,2.15192e-01,7.37128e-02,-1.08622e-01,-2.04289e-01,-2.17120e-01,-1.78368e-01,-1.96466e-01,-1.76734e-01,-1.19710e-01,-1.00622e-01,-2.06601e-01,-9.63596e-02,-2.89120e-02,8.06375e-02,8.36122e-02,3.99124e-01,2.81135e-01,-4.72208e-02,-2.55405e-01,-3.04169e-01,-5.36885e-03,-2.59299e-04,-1.55388e-01,-2.43339e-02,2.87372e-02,-2.95938e-01,-1.84245e-01,-5.22153e-01,1.63570e-01,5.33633e-02,1.57567e-03,-1.83664e-01,-6.58993e-02,-1.58317e-01,3.31174e-02,-1.87943e-01,-1.83564e-01,-1.36659e-01,-6.83802e-02,5.19412e-02,-1.16339e-02,1.62354e-01,1.62604e-01,1.78588e-01,2.70046e-02,-6.19747e-02,-2.45913e-01,-4.45572e-02,1.93082e-02,-2.07996e-02,-7.58396e-02,-1.20230e-01,-4.06166e-02,2.49248e-01,3.05680e-01,4.75759e-02,3.17227e-01,-1.82258e-01,1.20017e-02,2.17521e-01,-1.17516e-01,-7.13097e-02,-1.13688e-01,6.42481e-02,-1.32188e-01,-9.85778e-02,8.55809e-03,2.39696e-01,1.81659e-01,8.68138e-02,7.93832e-02,1.12167e-01,-3.99562e-02,1.69379e-02,-1.11252e-01,1.25147e-01,7.77787e-02,-3.42899e-02,2.06688e-01,-2.05604e-02,1.01721e-01,1.86007e-01,4.13018e-01,1.49239e-01,-1.39451e-01,-1.15682e-02,-6.92579e-02,4.06816e-02,-9.99397e-03,-2.61355e-01,-1.61190e-01,-1.93533e-01,-2.16065e-01,6.35672e-02,1.62561e-01,9.15437e-02,7.63781e-02,6.04068e-02,2.57661e-02,1.48030e-01,5.37370e-02,1.33715e-02,-2.15363e-02,1.81819e-01,1.34403e-01,2.84020e-02,2.84854e-01,2.06840e-01,1.32842e-01,-8.00599e-03,3.29569e-01,4.29906e-01,2.54624e-01,-2.31878e-02,-2.43811e-02,1.21161e-01,1.18076e-01,3.38506e-02,-2.24085e-01,-3.54900e-03,3.72222e-02,-5.03007e-02,8.95270e-02,6.13637e-02,1.12892e-01,1.53660e-02,3.60513e-02,2.17585e-02,1.57640e-02,-9.38350e-03,-4.87705e-02,5.47124e-02,1.21884e-01,-1.37700e-02,1.21321e-01,2.22065e-01,9.82067e-03,-1.07736e-01,-1.94027e-01,1.33744e-01,1.88041e-01,4.92135e-02,6.17315e-02,2.35297e-01,5.45759e-02,3.84859e-02,-1.95441e-01,8.12367e-02,1.99000e-01,1.93031e-01,2.40843e-01,1.62564e-01,1.09209e-01,-3.01092e-02,-3.19689e-02,-6.66619e-02,-7.65830e-02,5.93602e-02,-4.02574e-02,1.31266e-02,6.86052e-02,-6.79098e-02,5.17026e-02,-1.53033e-01,-2.24616e-02,1.29172e-01,-2.41450e-01,3.01642e-01,-2.24408e-01,2.57291e-02,1.65878e-01,-1.12206e-01,-1.37273e-01,-2.08757e-01,-2.06332e-01,3.81369e-02,2.26261e-02,-1.95319e-02,9.40402e-02,2.43981e-02,-2.85797e-02,-3.27301e-02,3.00299e-02,5.21786e-02,-2.73238e-02,1.07614e-01,-7.28727e-02,-1.37186e-02,-1.47113e-01,-1.59637e-01,1.51717e-01,4.81749e-02,1.94662e-02,-9.21119e-04,1.56173e-01,1.03667e-01,-3.64954e-01,1.68661e-01,2.12409e-01,-2.21909e-01,-1.84852e-01,-4.64964e-02,-2.87415e-02,1.00420e-02,-1.17784e-01,-1.23498e-01,2.95726e-02,8.31341e-03,-1.32614e-01,-1.25603e-02,1.98166e-01,-3.27619e-02,1.83209e-02,-6.95305e-02,6.36184e-02,-9.00380e-03,-1.13191e-01,7.17356e-02,1.89828e-01,1.49947e-01,7.49875e-02,-5.50310e-02,3.71779e-01,3.55004e-01,-3.70036e-02,-7.61086e-02,1.24632e-01,-2.53058e-01,-2.27731e-02,-1.20226e-01,-4.29053e-02,2.02401e-02,-1.02033e-01,-2.63833e-01,-5.96634e-05,2.18938e-02,-6.19595e-02,-8.82731e-02,1.33388e-01,9.31110e-02,7.69586e-02,-5.22243e-02,-4.68031e-02,1.16095e-01,-6.37775e-02,7.93878e-02,1.58721e-01,4.89278e-02,-2.48029e-02,8.47605e-02,1.06068e-01,-4.50802e-02,-2.50074e-02,1.58898e-03,-3.34354e-01,-2.97178e-01,-9.78654e-02,-1.89439e-01,-9.82030e-03,-5.83849e-02,-3.46430e-02,-5.84160e-02,9.90099e-02,-8.91645e-02,-1.47447e-01,5.36500e-02,7.04588e-02,1.47592e-01,9.24316e-03,-2.03770e-02,-2.54916e-02,1.78715e-01,-1.30048e-01,-1.46045e-01,-1.42114e-01,5.92709e-02,2.34142e-02,1.46248e-01,-3.86682e-02,-8.02875e-02,1.35362e-01,7.27402e-02,1.72456e-01,-4.85855e-02,-6.32304e-02,-3.70265e-01,1.28697e-02,-1.41857e-01,-5.39712e-02,6.89982e-02,-5.29533e-02,3.45375e-02,-6.61760e-02,4.92061e-02,-4.98858e-03,2.65159e-02,-8.83088e-02,-3.49959e-03,-9.58472e-02,1.20484e-01,-2.18376e-01,-3.03484e-01,-1.60507e-01,6.58985e-02,2.12585e-01,2.88596e-01,-1.77648e-01,-1.21278e-01,9.84090e-03,8.78563e-02,1.25528e-01,7.39800e-02,3.30562e-01,-5.07361e-02,-4.81631e-02,9.25955e-02,3.37874e-02,-1.10507e-01,-2.50175e-01,-6.85456e-02,-3.26722e-02,-7.29783e-02,-4.32762e-02,-9.80109e-02,-2.71538e-02,3.58647e-02,-2.76721e-02,-1.10824e-01,-3.00212e-02,-7.15085e-02,-1.09784e-01,1.48798e-01,-7.43273e-02,-2.00855e-01,-1.03197e-01,2.25530e-01,9.41489e-03,3.34901e-02,-1.04728e-02,-1.44822e-01,3.23141e-01,1.33889e-01,-1.54846e-01,-1.69120e-02,9.91892e-02,-6.86984e-02,-9.65532e-02,-2.99246e-03,3.60345e-02,2.56604e-02,9.64065e-02,1.89117e-02,-5.25369e-03,1.87318e-02,1.42707e-01,-2.01604e-02,3.95756e-02,-2.45142e-01,-2.04601e-01,-8.47777e-02,2.38255e-02,2.58059e-03,-1.70071e-01,2.86908e-01,9.27886e-03,-1.70727e-02,-2.71567e-02,2.25270e-01,2.01455e-01,3.96564e-01,-4.35533e-02,1.83437e-01,3.89639e-02,-3.56123e-02,1.70168e-01,2.56213e-02,9.65083e-02,-5.79373e-02,1.52564e-01,2.68720e-01,6.94902e-02,-6.26563e-02,2.65732e-01,-1.02309e-01,5.42003e-02,1.46593e-01,3.88512e-02,6.82511e-02,-1.81537e-01,-2.23864e-01,-2.69840e-02,-4.03784e-03,-3.00823e-02,-2.97640e-02,-1.60637e-02,-2.85836e-02,-2.65321e-01,9.47353e-02,3.04446e-01,3.88473e-01,1.13038e-01,1.54089e-01,3.74690e-02,1.69423e-01,2.01052e-01,1.12205e-01,1.89538e-01,1.11395e-01,6.45097e-02,-8.00288e-03,-1.07623e-01,1.98248e-01,8.51413e-02,5.61690e-02,-2.97979e-01,-6.25824e-02,-1.55038e-01,-3.10563e-01,-3.95338e-02,3.12003e-02,2.75954e-02,-2.51842e-02,-1.25214e-02,-2.56918e-02,-2.26381e-01,-2.56008e-01,-2.49877e-01,-2.42741e-01,-1.76275e-01,1.85513e-01,8.27707e-02,1.56477e-01,-1.45663e-02,-5.97957e-02,1.47289e-01,2.92955e-01,3.27290e-01,3.52773e-02,-3.47982e-01,-2.44632e-02,-1.47029e-01,7.10452e-02,5.03765e-02,-2.40794e-02,-4.33424e-02,-2.86489e-02,-1.04672e-02,1.44979e-02,-1.15678e-02,-1.12673e-02,-2.06746e-02,9.86017e-03,9.18942e-03,6.57074e-02,5.39323e-03,-1.21376e-01,-2.09468e-01,-2.43767e-01,-2.46407e-01,-3.61976e-01,-3.46107e-01,-1.83186e-01,-1.51227e-01,-6.89682e-01,-3.09406e-01,-4.18507e-03,-2.42065e-01,-3.12950e-01,-2.16292e-01,-2.95706e-02,-2.32548e-02,-5.90937e-02,3.73439e-02,1.65503e-02,2.07394e-02,-1.68984e-02,2.16944e-02,
-2.15287e-02,1.98878e-02,2.55908e-02,3.53838e-02,1.82068e-02,-1.76713e-02,-1.40751e-02,-1.29672e-02,-1.97698e-02,-2.44821e-02,-1.93360e-02,-1.17157e-02,1.06360e-01,1.53790e-01,3.61630e-05,-7.45122e-04,2.73643e-02,2.86927e-02,1.53375e-02,-3.09604e-02,3.19703e-02,-2.20103e-03,8.07508e-03,-3.36979e-02,7.18669e-03,1.87863e-02,-1.46385e-02,6.22473e-03,-1.93058e-02,3.36279e-02,2.76909e-02,-2.91245e-02,4.93718e-02,7.86481e-02,1.67531e-01,1.77603e-01,1.42058e-01,2.55230e-01,4.27099e-01,1.03483e-01,3.84811e-01,2.97818e-01,-1.64722e-01,2.86474e-01,3.53121e-01,3.37082e-01,5.55976e-01,3.52708e-01,4.44179e-01,3.79060e-01,2.98260e-01,1.78506e-01,1.74520e-02,1.20082e-02,-2.50638e-02,-1.10124e-02,-3.21542e-02,2.40528e-02,1.29238e-01,3.17661e-01,3.46717e-01,2.40122e-01,2.77287e-01,1.25455e-01,3.84795e-01,1.41630e-01,3.75398e-02,2.95220e-01,1.03232e-01,5.44039e-02,1.93324e-01,1.53884e-01,1.89807e-01,2.03991e-01,3.53109e-01,4.46205e-01,2.24371e-01,3.43932e-01,2.33262e-01,-4.05308e-02,1.16038e-01,-1.43045e-01,-2.73788e-02,5.38304e-03,2.43457e-02,-3.39691e-02,-3.10783e-01,3.51443e-01,3.20394e-01,9.85175e-02,1.87936e-01,-1.07588e-02,1.61805e-01,2.79912e-01,4.51272e-02,2.19431e-01,5.43699e-02,2.00395e-01,1.42576e-01,-1.69799e-02,2.42244e-03,8.19139e-03,7.82073e-02,9.73944e-02,8.68914e-02,3.18864e-01,1.69543e-01,3.37257e-01,1.10998e-01,-2.43280e-01,1.40966e-01,-2.22293e-02,8.17426e-03,6.45042e-03,-2.21924e-01,-1.51073e-01,2.18010e-01,1.99372e-01,-1.44947e-01,-1.87720e-01,1.41514e-01,1.74382e-01,8.36718e-02,1.38649e-01,1.46387e-01,4.24365e-02,1.48737e-01,-2.33896e-02,7.26744e-02,-3.72870e-02,-1.16024e-01,1.44910e-02,-4.44284e-02,-3.67080e-02,-1.65149e-01,-3.17095e-01,-1.53174e-01,1.70520e-03,3.40867e-01,3.77260e-01,-2.43322e-03,-2.08739e-02,3.44943e-01,-1.73886e-01,-5.35282e-01,-3.31768e-01,-1.82512e-01,1.23602e-01,5.48871e-02,1.13036e-03,1.44355e-02,3.56840e-02,-3.97627e-02,-7.69218e-02,-4.29158e-02,-2.18423e-01,-1.83584e-01,-6.91459e-02,-1.47617e-01,4.67073e-02,-3.84863e-02,-7.90554e-02,-2.36637e-01,-2.98659e-01,-1.14409e-01,-1.83620e-01,3.48436e-01,3.66569e-01,3.32759e-02,-1.59283e-01,-5.89283e-02,-1.69500e-01,-2.84846e-01,1.71701e-03,-5.99115e-02,1.31971e-01,5.36363e-03,-1.29789e-01,-1.33129e-01,3.90364e-02,-8.32402e-03,-3.25648e-02,-5.87206e-02,-7.69301e-02,-3.92096e-02,6.84589e-02,-2.17165e-02,-7.87083e-03,5.87505e-02,-2.22639e-01,-1.06157e-01,-5.61756e-02,-5.66255e-02,-2.23682e-01,-3.03964e-02,3.36446e-01,-8.12714e-03,-3.82091e-01,-1.26088e-01,-1.12108e-01,-6.52311e-03,-1.78578e-01,-2.02368e-01,-4.19534e-02,-7.10921e-02,-3.38295e-02,5.36907e-02,5.16155e-02,6.39361e-02,-7.95237e-03,3.14471e-02,1.36725e-01,-8.58582e-02,-9.18168e-02,1.87559e-02,6.20745e-03,2.66507e-02,7.82889e-02,9.12873e-02,-4.51258e-02,-8.53042e-02,-5.14783e-02,1.01514e-01,2.69037e-01,6.20477e-02,-3.69661e-01,-1.20657e-02,-1.00942e-01,-1.10909e-01,-8.82401e-02,1.97873e-01,4.74149e-02,5.15421e-02,6.52628e-03,1.12224e-02,4.04256e-02,4.59821e-03,4.89957e-02,2.85751e-02,-7.81260e-02,-1.03083e-01,-1.37998e-01,-1.03234e-01,-5.07003e-02,1.58372e-03,1.79026e-01,1.55099e-01,-1.01697e-01,-1.91188e-01,1.53679e-01,1.08637e-01,1.03271e-01,-8.80097e-02,-2.55949e-01,-1.21660e-02,-1.04915e-01,-2.49292e-01,-2.50897e-01,7.64708e-02,1.10387e-01,5.65169e-02,1.45221e-01,1.05602e-01,1.22696e-01,-1.49307e-01,2.16536e-02,3.45907e-02,-8.93464e-02,-2.12999e-01,-2.56700e-01,-3.26887e-01,-1.42492e-01,-9.55391e-02,2.70889e-02,3.03771e-02,7.39794e-02,5.92163e-02,1.88254e-01,1.06271e-01,-3.77663e-01,-1.12226e-01,6.92711e-02,-2.40855e-01,-5.89604e-02,-1.68586e-01,-1.89587e-01,-2.96603e-02,1.63238e-02,6.62341e-02,1.31497e-01,5.51633e-02,-2.17935e-02,2.44266e-05,4.94072e-02,1.60439e-01,-1.76958e-02,-1.73298e-01,-1.67615e-01,-4.71580e-03,-1.27391e-01,-8.21999e-02,5.80683e-02,-1.35967e-02,1.29977e-01,8.71153e-02,-1.54763e-01,-1.79008e-01,-2.72740e-01,-6.08433e-02,1.56498e-01,2.83428e-01,-1.28709e-01,-3.77530e-01,-2.90217e-01,5.72756e-02,7.49300e-02,1.07324e-02,8.08485e-02,6.86032e-03,2.93134e-02,1.82553e-01,1.95004e-01,2.34548e-01,-1.41189e-02,1.14274e-02,3.72181e-02,1.13255e-01,-4.36805e-03,4.43093e-02,1.27714e-01,1.38428e-02,7.85619e-02,3.54938e-01,2.37381e-01,2.33620e-01,2.27118e-01,-3.49248e-02,-9.94099e-02,7.62728e-02,-3.11653e-01,-1.29371e-01,-3.15323e-01,1.34157e-01,1.23247e-01,-3.63624e-03,4.42882e-02,-1.31699e-01,9.56616e-02,-5.45106e-02,6.80074e-02,1.42002e-01,7.01986e-02,8.41011e-02,1.19169e-01,5.26034e-03,-3.90270e-03,-4.00244e-02,1.14396e-01,8.40154e-02,2.00849e-01,2.67038e-01,6.14795e-02,-2.22422e-01,2.13768e-02,2.85541e-01,-2.25896e-02,-4.04185e-01,-5.09205e-01,-3.14624e-01,-2.59020e-01,-2.93685e-02,6.19241e-02,-4.84375e-04,8.41644e-03,-5.76437e-02,-7.01350e-02,-7.38444e-02,-2.63015e-03,1.48691e-01,2.11455e-01,8.98549e-02,1.53472e-02,-4.74510e-02,8.02813e-02,9.57812e-02,5.23245e-02,3.86304e-02,1.50194e-02,8.60397e-02,2.52066e-02,-1.54006e-01,3.95318e-02,1.34281e-02,1.90077e-02,-1.58372e-01,-3.66054e-01,-3.22657e-01,-1.81350e-01,-1.86504e-01,-5.28452e-02,-1.18444e-03,6.85521e-02,1.07241e-01,7.25407e-03,-3.54767e-02,1.01705e-01,1.37771e-01,8.36800e-02,1.20081e-01,1.76674e-02,7.22419e-02,3.57942e-03,1.55602e-01,1.66171e-01,1.93307e-01,6.11434e-02,-2.48677e-01,7.15355e-02,-5.51768e-01,-2.60654e-01,-1.33605e-02,-3.31547e-02,-2.13968e-01,-1.36017e-01,-2.15899e-01,-1.06091e-01,-1.37325e-01,-3.16431e-02,-1.81595e-02,4.44291e-02,5.28279e-02,-3.31895e-02,-5.76281e-02,8.41683e-02,1.66442e-01,2.47357e-02,7.60826e-02,-6.67889e-03,1.19945e-01,-1.67034e-02,4.35698e-02,9.97777e-04,-4.55754e-02,8.68201e-03,-2.42593e-01,5.72886e-02,-6.87222e-01,-2.93035e-01,-8.94594e-02,-2.37691e-02,-7.11720e-02,-7.79247e-02,-1.68985e-01,-1.43508e-01,-2.03686e-01,-1.92567e-01,8.76073e-02,1.16035e-01,-5.42111e-03,1.07430e-01,9.29568e-02,-2.53204e-02,1.22130e-01,2.16268e-02,5.78565e-02,-2.82072e-02,1.22136e-02,-4.17638e-02,-1.60379e-02,-2.12814e-01,-3.43337e-02,-5.38324e-02,-2.90638e-02,-6.11497e-02,-8.54263e-01,-4.42715e-01,-1.44561e-02,-1.24408e-01,-2.39987e-01,-1.81323e-01,-1.15382e-02,-3.18892e-01,-3.23234e-01,-1.40772e-01,8.18224e-02,-9.47893e-02,1.06345e-01,1.39592e-01,1.16415e-01,6.83904e-02,7.59202e-02,-4.81075e-02,6.45239e-02,5.36199e-02,-1.01443e-02,3.47645e-02,9.95211e-02,-1.23255e-01,-2.64752e-02,2.73959e-02,1.10205e-01,-2.37520e-01,4.61442e-02,-4.70963e-01,3.28034e-01,3.97161e-02,-3.20040e-01,1.07399e-01,8.72012e-02,-2.07782e-01,-2.50500e-01,-1.25368e-01,3.67718e-02,4.64420e-02,4.78650e-02,-5.28921e-02,6.40785e-02,6.61822e-02,1.10184e-01,3.71390e-02,-2.03929e-02,5.57464e-02,3.61262e-02,6.06839e-03,-4.15149e-02,1.39585e-02,-8.58144e-02,-1.17307e-01,-1.59724e-01,-1.42579e-01,2.06597e-01,-4.31388e-01,1.20469e-01,-1.09074e-01,-3.00592e-01,2.59727e-01,-6.61269e-02,-1.38743e-01,-1.16832e-01,-3.61333e-03,5.30696e-02,4.19426e-02,5.18029e-02,2.10476e-02,6.38939e-02,-4.89097e-02,-5.32542e-02,2.30486e-02,-7.71664e-02,-3.18493e-04,-1.30903e-02,2.13328e-02,-5.49644e-03,-1.90198e-02,1.63171e-01,1.84385e-01,-5.42832e-02,5.11539e-02,-3.33058e-01,-1.76154e-01,3.01865e-02,2.94805e-01,1.77724e-01,1.66240e-01,-2.49434e-01,1.87934e-02,-1.26382e-01,-2.69125e-01,-3.53447e-01,4.80302e-03,5.60804e-02,8.11485e-02,2.06558e-03,-7.36728e-02,1.35499e-02,8.66712e-03,-1.17475e-01,-5.41381e-02,-5.35603e-02,4.46926e-02,-1.61241e-02,-9.23018e-03,9.15725e-02,-1.09738e-01,3.73778e-02,2.55141e-01,-7.70317e-02,-9.42819e-03,1.19638e-01,-4.03584e-02,-1.56977e-01,3.04422e-01,-8.73037e-02,-2.23304e-01,4.83868e-02,-1.74020e-01,-1.17956e-01,9.69204e-02,-2.31527e-03,3.78435e-02,2.93183e-02,5.82906e-02,1.25244e-01,3.10737e-02,-8.81998e-02,9.24008e-02,5.60570e-02,-1.00633e-02,3.05186e-02,-5.89964e-02,2.41294e-02,-2.84751e-01,-2.18438e-01,-1.35814e-01,5.94629e-03,2.14951e-02,8.27287e-02,5.35572e-02,-3.86883e-01,2.82130e-01,7.99486e-02,-1.14630e-01,-1.88657e-01,-2.25188e-01,-1.39980e-01,2.56018e-02,8.10902e-02,-3.01117e-02,3.07239e-02,5.92205e-02,9.45416e-02,6.09871e-02,9.90846e-02,9.15087e-02,2.79995e-02,-8.96879e-02,-9.74564e-02,-1.30107e-01,-3.96277e-01,-6.27135e-01,-2.53764e-01,-1.46849e-01,-2.52100e-01,-2.65153e-02,-6.91810e-03,3.31042e-03,-2.64914e-01,2.37149e-01,2.59872e-01,1.37835e-01,-2.14658e-01,-2.41992e-01,-1.51388e-01,-1.81126e-01,-2.73313e-01,-1.96545e-01,1.67698e-02,1.19552e-02,3.81004e-02,1.29472e-01,1.25624e-02,-3.08386e-02,3.26556e-02,3.31145e-02,-2.06957e-02,-1.66721e-01,-1.06787e-01,-3.40688e-01,-3.52890e-01,-2.59214e-01,-4.05117e-01,1.97874e-02,1.17196e-02,5.71490e-03,2.52699e-02,-2.61137e-01,2.60973e-01,-2.69887e-02,-2.35124e-01,-7.88904e-02,-9.75798e-02,-9.80362e-02,-4.17187e-02,-7.69473e-02,2.46914e-02,-3.01659e-02,-9.81810e-02,7.96820e-02,1.72713e-01,-2.96105e-01,-1.52577e-01,-2.14129e-01,-1.65054e-02,-2.94481e-01,-1.85038e-01,-5.11782e-02,-4.14652e-01,-7.35902e-02,4.79390e-02,-2.30726e-02,-1.89644e-02,-1.15145e-02,6.92842e-02,2.36616e-01,1.71297e-02,-1.13856e-01,-1.10490e-01,-7.27769e-03,-4.03599e-02,1.88457e-01,1.23243e-01,1.43210e-01,1.65306e-01,1.46483e-01,1.23092e-01,-9.15584e-02,-8.64870e-02,1.02188e-01,-6.21466e-02,-4.42070e-02,-1.99975e-01,-9.10195e-02,2.19273e-01,-3.96311e-02,-2.33206e-01,-9.30425e-03,-3.11833e-02,2.02109e-02,2.39387e-02,2.39576e-02,9.27870e-04,1.96743e-01,2.53356e-01,-2.33784e-01,-3.92039e-01,-1.63299e-01,6.11394e-02,1.57726e-01,3.86908e-02,9.43789e-02,7.11048e-02,-1.00203e-04,1.12071e-04,-9.60560e-02,-1.64652e-01,3.01075e-01,1.79455e-01,-2.08576e-01,-3.88741e-02,1.52971e-01,2.00975e-01,4.50782e-01,2.84541e-01,-3.84325e-02,2.51276e-02,-2.95572e-02,-2.69939e-02,2.98844e-02,2.85338e-02,9.61354e-03,-3.20531e-02,-3.12203e-02,-1.04765e-01,-2.06688e-01,-5.04935e-02,3.71939e-02,9.92188e-02,1.23050e-01,3.64674e-02,7.85870e-02,1.48738e-01,1.43453e-01,4.02736e-01,3.43055e-01,4.12498e-01,2.72950e-01,-3.30249e-01,-3.58336e-01,-3.58983e-01,1.63920e-02,3.03528e-02,1.98247e-02,-1.77366e-02,6.83246e-03,
-3.86310e-04,-9.14411e-03,8.93893e-03,-1.85813e-02,-3.51796e-02,-2.21644e-02,2.57383e-02,-2.49114e-02,-7.16524e-03,-3.55621e-02,1.46512e-02,1.98524e-02,-1.34249e-01,-7.83541e-02,4.29621e-02,7.34588e-04,-1.64573e-02,-3.18316e-02,-1.52116e-02,-9.99481e-03,-1.82250e-02,2.16870e-02,-1.25458e-02,-3.32333e-02,-2.87090e-02,-2.63964e-02,-1.04339e-02,-1.06963e-02,1.66722e-02,5.63500e-03,1.30487e-02,2.55054e-02,6.75538e-04,-3.68613e-02,-1.28484e-01,-9.45107e-02,-1.50570e-01,-1.50483e-01,-2.34689e-01,2.99933e-02,-1.05396e-01,-7.90958e-02,-1.05241e-01,2.08632e-01,2.80133e-01,6.18248e-02,-4.00196e-01,-1.92666e-01,-2.55685e-01,-2.24461e-01,-2.16278e-01,-1.46610e-01,2.58081e-02,-1.04670e-02,3.49367e-02,8.67658e-03,1.90007e-02,-4.84239e-03,-5.24656e-02,3.25014e-01,2.62474e-01,-1.96433e-01,-2.68308e-01,-1.42168e-01,-5.26778e-01,-2.86762e-01,-6.35910e-03,-4.41292e-01,-5.14009e-01,-4.30837e-01,-2.35884e-01,-6.92993e-02,2.41692e-01,1.40439e-01,2.06982e-02,2.46222e-01,1.81774e-01,-3.40670e-02,1.11539e-01,1.16391e-01,-2.15759e-01,1.02234e-02,1.50308e-02,3.04703e-02,-2.99542e-02,-1.15756e-02,2.06752e-01,2.73214e-01,-1.93156e-01,2.40440e-01,1.00050e-01,3.47243e-02,4.31173e-02,-1.58888e-01,1.39245e-01,5.77897e-02,4.83569e-02,-5.11358e-02,1.56191e-02,-1.21818e-01,-1.13988e-01,2.29982e-02,9.67079e-02,-6.87794e-02,2.81544e-01,-2.59812e-01,-3.64602e-01,-1.71800e-01,4.81778e-01,2.72356e-01,-5.45908e-03,1.69321e-02,-1.43396e-02,-7.21455e-03,2.14708e-01,4.17542e-01,5.75110e-02,-1.38083e-01,3.00649e-02,2.32352e-01,4.73586e-02,6.53594e-02,-1.28072e-03,6.49186e-02,1.21293e-01,1.74408e-02,-1.61521e-01,4.48811e-03,-4.97164e-02,-7.38419e-02,2.25987e-02,-1.12046e-01,-1.47796e-02,-2.65908e-02,-2.10924e-02,-3.20914e-01,-1.51313e-01,-1.60595e-01,3.41863e-01,1.56547e-01,-7.94019e-06,2.97267e-02,-2.60073e-01,-2.23838e-01,1.74246e-02,4.15542e-01,2.64109e-01,1.43992e-01,2.75744e-01,2.34532e-01,9.42712e-02,8.89416e-02,6.51853e-02,1.26159e-01,4.42846e-02,1.52554e-01,9.02249e-02,2.85539e-02,2.14604e-01,3.60913e-02,-1.71553e-01,-2.57375e-01,-7.05025e-02,4.07222e-02,-1.18890e-01,-1.01562e-01,-2.54275e-02,-1.83742e-01,-1.57141e-02,1.04693e-01,1.31096e-01,1.67742e-01,2.12267e-01,2.51568e-01,1.53899e-01,1.16520e-01,8.83527e-02,1.32658e-01,8.51151e-02,-4.87071e-03,5.68798e-03,1.04503e-01,5.53183e-02,6.86879e-02,1.48240e-01,1.66282e-01,2.01669e-01,1.00159e-02,-2.28743e-01,1.06269e-01,-8.40005e-02,-8.84245e-02,-5.46862e-02,1.06545e-01,-9.43017e-02,6.42758e-02,4.00833e-02,4.39076e-01,1.14946e-01,3.02404e-01,-8.08615e-02,-6.64490e-02,1.45894e-01,1.40656e-01,3.63844e-02,5.86175e-02,5.82434e-02,-2.67141e-02,2.53230e-02,4.19750e-02,5.45794e-02,7.74798e-02,7.12543e-02,9.41785e-02,1.53879e-01,1.35556e-01,-6.47379e-02,-1.57412e-01,-2.41851e-01,4.67457e-02,1.85609e-01,4.88979e-02,-2.94878e-01,-2.62242e-01,2.64290e-01,5.30208e-01,7.61636e-02,1.84600e-01,-1.20046e-01,1.44534e-02,6.65218e-02,-1.76411e-02,1.00452e-01,-1.73464e-02,9.87845e-02,-1.02309e-01,-7.46232e-02,-8.85565e-02,4.60521e-02,1.00566e-01,6.67868e-02,-7.10118e-02,1.73862e-01,5.37428e-02,3.79897e-03,-8.15528e-02,8.23629e-02,-7.97350e-02,-1.20251e-02,-1.37717e-01,-5.42779e-01,-3.41015e-01,1.54679e-01,3.46511e-01,4.13655e-02,1.75380e-01,1.00122e-01,-7.12886e-02,7.14642e-02,-1.30777e-02,9.78633e-02,-4.04834e-02,-3.50416e-02,-6.54130e-02,5.72629e-02,-6.86775e-02,2.05371e-02,-9.89427e-02,-1.03531e-01,8.78629e-02,1.16312e-01,1.37466e-01,1.13053e-01,3.93373e-02,6.62134e-02,2.54051e-02,4.97270e-02,1.83628e-01,-1.46009e-01,3.18374e-01,2.01844e-01,6.21763e-02,2.05902e-01,1.40119e-01,6.58116e-02,-1.26312e-01,1.92102e-01,-2.47374e-02,-2.29104e-02,5.93993e-02,-5.95427e-02,2.78449e-02,-7.59256e-02,7.91629e-03,-2.33121e-02,-3.63722e-02,6.08004e-02,2.24742e-03,1.03647e-01,1.26893e-01,1.01339e-01,-3.26524e-02,2.01730e-01,-1.74547e-01,-1.14965e-01,3.91440e-01,-4.33359e-01,3.17215e-01,1.91477e-01,5.09267e-01,3.09893e-01,9.27663e-02,1.80500e-01,1.16783e-02,-9.15435e-02,-4.72565e-02,-1.32684e-01,-7.97355e-02,1.23937e-01,9.88720e-02,1.23522e-03,1.44307e-03,-6.51734e-02,2.72193e-02,1.50740e-02,1.85858e-01,2.26367e-01,9.08467e-02,2.29468e-01,4.48194e-02,6.72938e-02,-5.15710e-02,-3.59768e-01,-2.87204e-01,9.62242e-02,-1.87042e-01,5.68718e-02,1.24405e-01,2.61260e-01,-4.57438e-02,1.54623e-01,2.12992e-02,-1.12687e-01,-1.86421e-01,6.64776e-02,4.74461e-02,1.56231e-01,1.63518e-01,6.29587e-02,7.97164e-02,1.12711e-01,1.79740e-01,9.90998e-02,1.44151e-01,2.76644e-01,1.68958e-01,1.73403e-01,5.84970e-02,5.20604e-02,-1.34279e-01,-4.65772e-01,-4.55006e-01,-6.15652e-01,-1.87140e-01,-3.00883e-01,-1.13024e-01,4.12436e-01,1.32996e-02,2.02373e-01,-4.76599e-02,-6.80886e-02,-6.58528e-02,6.67991e-02,9.68659e-02,1.23226e-01,2.03230e-01,1.00573e-01,5.28546e-02,1.06150e-01,1.09530e-01,1.32297e-01,9.82975e-02,1.41865e-01,1.00607e-01,7.29983e-02,1.55913e-01,-5.08855e-02,-4.77184e-01,-3.59133e-01,-3.60603e-01,-5.10407e-01,-1.14138e-01,-7.36715e-02,-1.08668e-01,2.96940e-01,1.31811e-01,1.64583e-01,-7.79198e-02,-1.25958e-02,7.92815e-02,7.33429e-02,-2.96075e-02,-2.64789e-03,1.06427e-01,1.34967e-01,6.85917e-02,5.61054e-02,6.86317e-02,-9.19175e-02,9.35718e-02,9.89745e-02,1.84300e-01,9.67164e-02,-1.01643e-02,-9.77428e-02,-8.29111e-02,6.18621e-02,-4.99552e-02,-2.53056e-01,-1.38446e-01,-9.37787e-02,1.84562e-02,-3.21155e-01,-1.43163e-01,5.32127e-03,8.02365e-02,1.45111e-01,1.02770e-01,-8.11985e-02,-1.55189e-01,-1.10156e-01,-7.96924e-02,-2.24671e-02,-7.69367e-02,-8.90194e-02,1.29707e-01,-1.65535e-02,9.20395e-02,1.40110e-01,5.80249e-02,1.67870e-01,1.48658e-01,2.08211e-01,6.14891e-02,9.40145e-02,-1.11607e-01,1.04681e-01,-7.10380e-02,9.51162e-02,1.80101e-01,-3.81935e-01,-1.15990e-01,2.35464e-01,9.49489e-02,-7.90569e-04,1.27947e-01,4.25947e-02,-1.21541e-01,-1.77850e-01,-1.95340e-01,-1.29361e-01,-1.31590e-01,-1.21040e-01,7.78705e-02,1.02413e-01,7.84432e-02,7.23469e-02,8.79671e-02,1.90220e-01,1.08506e-01,8.25700e-02,-1.81490e-01,-1.21241e-02,-3.95011e-01,-4.62887e-02,2.01427e-01,2.71615e-02,1.43906e-01,-3.23026e-01,-2.72495e-02,7.05146e-02,1.00614e-01,-9.99980e-02,4.70230e-02,-2.19092e-02,-8.93822e-02,-8.93955e-02,-1.19210e-01,-1.21455e-01,-1.32719e-01,-5.10025e-02,7.44267e-02,9.13525e-03,1.24896e-02,-8.20773e-02,8.12876e-02,1.14585e-01,-6.14807e-02,-7.60958e-02,-8.04320e-02,5.88592e-02,-9.40400e-02,2.12278e-01,2.95376e-01,5.09032e-01,9.40292e-03,1.33410e-01,-6.38086e-02,-1.81778e-01,1.59013e-01,-1.33355e-02,-3.54402e-02,1.44567e-02,-3.97989e-02,5.91958e-02,-8.31722e-04,-1.26683e-01,-1.68377e-01,-3.73282e-02,1.00264e-01,7.65702e-02,1.39246e-01,6.94026e-02,1.80061e-01,1.47016e-01,3.15109e-02,-4.08825e-03,-1.14706e-01,-1.19556e-01,-9.50693e-02,4.32925e-01,-3.43531e-01,-1.79230e-01,3.96931e-01,1.61757e-01,-1.57121e-02,-2.06837e-02,1.78571e-02,1.48030e-02,-8.72897e-02,-9.56949e-02,-6.05458e-02,-8.26005e-02,-7.48780e-02,8.78627e-02,-2.10813e-01,3.74102e-02,3.98730e-02,-6.15052e-02,2.84216e-02,3.33891e-02,6.97836e-02,-5.64782e-03,-1.43146e-01,-1.35241e-01,-1.79022e-01,1.59773e-01,3.29786e-02,-5.51447e-01,-3.35674e-01,-1.87546e-03,3.06045e-01,-1.03567e-01,2.65787e-02,-1.52180e-01,-1.68727e-01,-6.66591e-02,-3.69837e-02,-1.35104e-01,-1.66727e-01,-1.61186e-01,-1.14947e-01,-1.19855e-01,-1.42394e-01,-5.18789e-02,-6.08499e-02,-3.12124e-02,1.53534e-02,-4.45488e-03,9.71720e-02,-7.05721e-02,-2.34578e-01,-1.75058e-01,-5.54496e-02,1.73807e-01,-2.81159e-01,-1.92475e-01,-8.89553e-02,-1.40660e-01,-3.53899e-02,-2.67252e-02,1.49276e-01,-9.50635e-02,-1.41317e-01,-1.28638e-01,-1.13863e-01,-2.64379e-02,-1.45041e-01,2.16237e-02,-5.01182e-02,4.73426e-02,-5.18385e-02,-9.17423e-02,-2.11236e-02,1.05710e-01,-3.31934e-02,-3.95275e-03,6.12658e-02,-1.36608e-01,-9.29876e-02,-2.70368e-01,-1.42591e-01,-1.69691e-01,-2.85183e-01,3.28978e-01,7.43016e-03,-1.74337e-01,-7.84760e-02,4.76665e-02,-6.44466e-02,1.48099e-02,-1.64834e-01,-8.23597e-02,-2.22931e-02,4.19926e-02,-4.16600e-03,1.11170e-01,1.00358e-01,4.62037e-02,-7.85727e-02,2.30962e-02,1.13670e-01,3.74460e-02,8.04373e-02,-1.97766e-02,-2.55378e-02,-1.63752e-01,-3.97677e-01,-1.91833e-01,-6.31886e-02,-3.68207e-01,-1.37929e-01,-3.19951e-01,-1.82819e-02,-3.13857e-04,-2.97880e-02,-2.05877e-01,3.92554e-02,-8.15009e-02,-1.48513e-01,9.62286e-02,2.62215e-01,-5.19131e-02,6.74734e-03,1.44347e-01,1.77881e-01,-1.68417e-02,5.40431e-02,1.08177e-01,9.43508e-02,-3.25985e-04,-2.99732e-02,-1.03803e-01,-1.45739e-01,-2.20123e-01,-3.36228e-01,-3.72345e-01,-1.88201e-01,1.67541e-01,-1.80430e-01,-3.57452e-01,1.40427e-02,2.52155e-02,-3.53038e-02,2.53467e-01,5.17722e-01,3.50808e-01,3.97569e-01,1.93236e-01,1.12518e-01,6.38658e-02,-1.24696e-02,5.45052e-02,-4.95812e-02,-1.25826e-02,1.05755e-01,1.67838e-01,1.45616e-01,1.87957e-02,4.18726e-02,-1.94008e-01,-1.43653e-01,-2.84403e-01,-1.70580e-01,-3.05474e-01,-1.49540e-01,5.96566e-02,-2.98203e-01,-3.23836e-02,5.10307e-03,2.46639e-02,-1.10868e-02,-6.19940e-02,-1.39382e-01,-1.29886e-02,-1.39264e-02,1.00856e-02,2.07234e-01,6.88940e-02,-2.42541e-02,1.95740e-02,7.37507e-02,1.25936e-01,6.37795e-02,1.12709e-01,4.94699e-02,2.58803e-01,5.37404e-02,-1.10747e-01,6.18858e-02,-5.09842e-02,-5.96887e-02,-8.66464e-02,-1.67959e-01,-1.90178e-01,1.37446e-01,6.23760e-03,-9.40372e-03,-7.65597e-03,3.23206e-02,1.93468e-02,1.64336e-01,-4.28165e-01,-3.91927e-01,-2.94860e-01,2.20735e-01,1.72579e-01,1.65992e-01,1.43675e-01,-1.13244e-02,9.03148e-02,2.62176e-01,2.76955e-01,2.05682e-01,2.84627e-01,2.54077e-01,2.02157e-01,4.75735e-01,2.67225e-01,1.33830e-01,4.26087e-01,1.84477e-01,1.11678e-01,1.13275e-01,1.40547e-02,-1.98842e-02,3.54062e-02,-1.10704e-02,2.17249e-02,2.25921e-02,1.90013e-01,3.79331e-01,1.89683e-01,2.59980e-02,-3.24688e-03,5.28159e-02,-9.63022e-03,-7.99917e-02,1.61716e-01,4.13342e-01,4.37821e-01,1.91628e-02,1.16072e-01,5.15274e-01,2.31213e-01,-4.55327e-02,9.32697e-02,3.57578e-01,4.71217e-01,3.87222e-01,3.53433e-02,-1.70654e-02,-9.56256e-03,-1.34053e-03,
1.84863e-02,-1.98624e-02,-2.31690e-02,2.07839e-02,5.06504e-03,2.33394e-02,9.95716e-03,3.39945e-02,3.08792e-02,-1.76098e-02,-1.58705e-02,2.26323e-02,-1.62466e-02,-8.36708e-02,-1.67275e-01,-2.50559e-02,8.47686e-03,2.34047e-03,2.96214e-02,2.47997e-02,-5.62176e-03,1.15119e-02,1.23755e-02,1.90774e-02,-1.80065e-02,-1.05105e-02,-7.45116e-03,2.69784e-02,-2.01240e-02,-1.99442e-02,3.32988e-02,1.97107e-02,-2.60617e-04,-3.38794e-02,-7.73171e-02,-9.36583e-02,3.84037e-02,1.81392e-01,6.68721e-02,-1.73629e-01,-2.66819e-01,-1.09085e-01,4.55469e-02,-5.55152e-01,-2.63570e-01,-7.35522e-02,1.64829e-01,-1.86056e-01,-1.66937e-01,1.14708e-01,-4.76881e-02,-9.31870e-02,2.74727e-02,2.68443e-02,-2.97543e-02,1.54441e-02,-1.58901e-02,9.11440e-04,-8.66011e-02,-3.17980e-01,-2.66734e-01,1.68766e-01,1.45030e-01,3.01504e-02,2.27672e-01,4.02825e-02,-4.12693e-01,-1.91081e-01,1.80765e-01,-4.81275e-02,3.06313e-03,-2.41953e-01,-2.73683e-01,-2.47151e-02,1.08448e-01,-2.15168e-01,-2.11800e-01,4.66129e-02,2.32822e-01,-1.78262e-01,-1.62120e-01,-1.23305e-01,-2.56652e-03,-3.24565e-02,3.04316e-02,2.84200e-02,-3.38405e-01,-3.17561e-01,-1.87123e-01,7.95933e-02,-2.63370e-01,-2.04809e-01,-8.75683e-02,-2.18268e-01,5.52904e-02,1.24543e-01,-4.13449e-02,2.58673e-02,1.93772e-01,9.29106e-02,-3.70003e-02,-7.85316e-02,1.28831e-02,-1.77585e-01,2.55377e-02,2.18644e-01,1.02697e-01,3.51781e-01,-1.28449e-01,-1.68179e-01,-3.46373e-01,-2.80692e-03,2.03475e-02,-2.61134e-02,-3.65777e-01,2.10909e-01,-4.69173e-02,-1.31296e-01,-1.69014e-01,7.01941e-02,-2.04184e-01,-2.14659e-01,-3.61720e-02,-1.11014e-01,1.71589e-02,4.77678e-02,1.84980e-02,-8.11592e-02,-5.74428e-02,-8.02360e-02,-9.87141e-02,-9.42911e-02,2.75353e-02,2.31889e-01,1.44727e-01,1.62428e-01,3.96232e-01,2.45488e-01,4.38425e-01,-1.37297e-01,8.16912e-03,-2.83135e-02,-6.03856e-01,-8.61258e-02,-2.16364e-01,-2.77376e-01,-1.39256e-01,1.04097e-01,6.76455e-02,7.66675e-02,-3.81278e-02,1.74523e-01,1.96488e-01,1.54502e-01,1.33697e-01,-2.62465e-02,-5.06127e-02,3.05956e-02,-6.25884e-02,-2.04817e-02,2.29942e-02,-3.34352e-02,-2.12089e-01,-2.86556e-01,9.30350e-02,2.84973e-01,4.35262e-03,-2.38585e-01,9.62994e-04,-8.64202e-02,3.36428e-01,-9.90247e-02,9.35586e-02,9.39069e-02,-7.77945e-02,2.17304e-02,3.54943e-02,1.89818e-01,-6.21569e-03,1.33785e-01,2.14913e-01,1.44042e-01,1.28604e-01,1.70666e-01,1.40233e-01,1.78198e-01,4.47729e-02,1.09045e-01,8.33846e-02,-5.62674e-02,3.43321e-02,1.98193e-01,1.84078e-01,1.00663e-01,2.88974e-01,-2.52396e-01,1.50475e-02,-4.79144e-02,4.97866e-01,-8.71689e-02,-1.54610e-01,-1.47450e-01,6.40557e-02,-3.85581e-03,1.02835e-01,5.30157e-02,4.97611e-02,6.41903e-02,1.65012e-01,9.89004e-02,2.21442e-02,1.74869e-01,6.21718e-02,6.20058e-02,1.07560e-01,8.81440e-02,1.02540e-02,-9.24517e-02,5.42892e-03,1.97036e-01,1.16749e-01,1.65988e-01,8.41189e-02,-3.60854e-01,-4.69371e-01,-1.27210e-01,5.72845e-01,1.85558e-01,-1.81713e-02,-5.31096e-03,1.75859e-01,6.82846e-02,5.23074e-02,1.15589e-02,-1.54158e-02,1.86105e-01,2.55833e-02,8.10219e-02,-2.50705e-03,4.22752e-02,7.81732e-02,-1.85562e-02,4.76756e-02,1.23729e-02,4.08106e-02,3.18699e-02,-3.07821e-02,-7.42494e-02,1.40763e-01,4.18808e-01,1.24679e-01,1.01363e-01,1.35758e-01,-7.82925e-02,2.88962e-01,1.56688e-01,-1.52216e-01,-1.23775e-01,9.05452e-02,-1.87798e-01,-3.96849e-02,-2.64528e-02,-8.28401e-02,1.58617e-02,-6.56069e-02,-4.89089e-02,-5.39206e-02,-8.10429e-02,-5.15949e-02,4.07890e-02,-1.01336e-01,7.44219e-03,1.86998e-01,1.65571e-01,-4.95816e-02,8.81885e-05,6.33285e-03,2.57333e-01,2.73567e-01,-3.36832e-01,1.26770e-01,-3.00800e-01,-2.00670e-01,5.33356e-02,-3.55836e-02,-6.04667e-02,1.52394e-03,-9.12762e-02,-6.98807e-02,3.58675e-02,-9.70853e-02,-1.28627e-01,-7.11434e-02,-6.18996e-02,-1.48901e-02,-1.08223e-01,-1.43673e-01,-1.14333e-01,-7.12388e-02,-1.16025e-02,1.42921e-02,-2.20931e-03,-3.69888e-02,-1.63218e-02,-1.07209e-01,-1.03253e-01,-1.12552e-01,-1.43921e-01,6.31436e-02,-4.82045e-01,-1.08969e-01,1.80454e-01,-1.78680e-01,-5.73735e-02,2.73201e-02,3.96526e-02,9.60597e-02,4.22733e-02,2.10910e-03,-1.54294e-02,5.74134e-02,3.48299e-02,2.01116e-02,-3.51972e-02,-4.39141e-02,-4.98071e-02,-6.38597e-02,-4.09713e-02,-1.03165e-01,6.03868e-02,-4.29381e-02,-1.29367e-01,-3.98097e-03,8.26370e-02,4.19655e-01,2.00036e-02,5.56068e-02,6.18729e-02,9.47239e-02,2.32021e-01,-9.92867e-02,1.56627e-01,1.12960e-02,-3.19239e-02,-2.68863e-02,-1.28578e-01,-1.82318e-02,2.23009e-02,-8.62573e-02,7.52284e-02,1.21310e-02,1.33224e-01,6.83175e-02,8.99233e-03,-6.85556e-02,1.00152e-02,-5.01382e-02,1.38795e-01,-5.01424e-02,3.06569e-03,-6.39376e-02,-9.46906e-02,-2.02186e-01,-7.88389e-02,-3.64887e-01,1.41273e-01,-1.87697e-01,1.90284e-02,-1.84314e-01,9.32466e-02,-1.37966e-01,-3.89461e-02,-5.23683e-02,4.93277e-02,1.53546e-01,2.02285e-03,5.70115e-02,1.11057e-01,6.08825e-02,1.28734e-01,1.01382e-01,4.01732e-02,-2.84338e-02,2.55380e-02,1.25722e-01,7.02484e-02,-9.68709e-03,5.06306e-02,-1.79017e-01,5.80103e-02,-2.54292e-01,-3.37208e-02,-8.74084e-02,1.43744e-01,-2.87627e-01,-3.15832e-01,-1.70492e-01,4.80183e-02,-3.19296e-02,1.50609e-01,7.27875e-02,1.20152e-01,1.73215e-01,9.63820e-02,6.80034e-02,1.02219e-01,3.39851e-03,-1.08526e-02,1.39383e-02,9.93474e-02,-3.21774e-02,5.34198e-02,9.93239e-02,4.97731e-02,-9.02670e-02,-9.04873e-02,-1.51581e-01,5.32966e-02,-3.64936e-01,-2.04954e-01,-7.48854e-02,1.73740e-01,-4.19110e-01,4.54207e-02,1.80192e-01,6.04842e-02,1.86460e-01,3.02202e-01,2.42788e-01,9.54977e-02,6.71639e-02,6.06608e-02,-1.15164e-03,-3.01097e-02,8.26885e-02,9.19628e-02,8.70679e-03,8.26127e-02,3.26325e-02,1.28654e-01,1.04915e-01,7.47669e-02,1.44184e-01,-5.17327e-02,-9.61959e-02,6.22364e-02,-3.93393e-02,-2.66506e-01,-2.84374e-02,5.89938e-02,-1.86930e-01,1.18156e-01,3.47133e-02,-2.64484e-03,3.26157e-01,1.61488e-01,1.79151e-01,2.46817e-01,5.53109e-02,-5.93007e-03,4.49418e-02,8.38504e-02,7.05080e-03,6.02891e-02,-2.47065e-03,4.65961e-02,1.86073e-01,1.11946e-01,1.67811e-01,-2.07792e-02,1.15416e-01,-8.56251e-02,-1.08328e-01,7.26738e-02,-1.13796e-01,-4.45294e-01,-2.32800e-02,-1.36991e-01,2.47416e-02,5.17543e-02,1.35920e-01,6.86965e-02,1.92791e-01,1.43094e-01,2.15461e-01,2.72420e-01,9.41781e-02,9.90178e-02,-3.28055e-03,3.89510e-02,-4.38193e-02,9.04060e-03,4.92312e-02,1.98397e-01,1.33398e-01,6.25911e-02,5.27450e-02,-1.55691e-03,-9.65448e-02,1.23411e-03,5.00444e-03,-2.78607e-01,2.18594e-02,-5.36327e-01,2.18503e-01,-1.86503e-01,-1.30873e-02,-1.03050e-01,7.14070e-02,4.41642e-02,1.76898e-01,1.01495e-01,6.78910e-02,1.68197e-02,-5.69044e-03,6.88796e-02,7.60348e-02,2.19647e-02,2.66295e-02,3.75604e-02,4.47984e-02,7.49459e-02,1.19033e-02,1.05208e-01,3.12723e-02,2.33131e-02,-1.14578e-01,-1.37838e-01,-1.72679e-01,-6.38150e-01,1.70064e-01,-3.50894e-01,-2.03731e-01,-3.79523e-01,-1.41442e-01,-1.18853e-02,5.82297e-02,-1.34052e-02,-6.79775e-02,-3.75949e-02,4.51312e-02,-3.77815e-02,6.06088e-04,-3.01137e-02,-2.51196e-02,-4.04787e-02,1.04497e-01,3.37873e-02,-3.40994e-02,4.15872e-02,8.81670e-02,1.24996e-01,7.00392e-02,1.08233e-01,-7.87585e-02,-9.40472e-02,-2.06978e-01,-5.57376e-01,3.22697e-02,-1.75845e-01,1.29117e-02,-3.37361e-01,-3.19108e-01,-2.04985e-01,-1.55593e-01,-1.78908e-02,-1.37656e-01,-1.17760e-01,-7.02250e-02,-1.83675e-02,3.47204e-02,-8.67363e-04,-6.23375e-02,2.40755e-02,6.87798e-02,4.38179e-02,-7.64433e-02,-8.26941e-02,-1.31908e-01,-5.05014e-03,1.16558e-01,1.10805e-01,3.59382e-02,-9.76682e-02,-9.24324e-02,-1.46432e-01,-2.77477e-01,-2.62170e-01,-2.01551e-01,-9.56680e-02,-3.57077e-01,-2.92921e-01,-1.60760e-01,1.11276e-03,-6.66942e-02,-3.17163e-03,4.60024e-02,-5.95113e-02,-1.35538e-01,-2.88495e-02,8.89196e-03,3.52427e-02,5.62367e-02,3.23695e-03,-2.08631e-02,6.23856e-02,-9.78730e-02,-3.75717e-02,1.56781e-02,1.18556e-01,1.41844e-01,-1.50168e-01,-1.68288e-01,-2.39758e-01,-4.38102e-01,-4.10854e-02,-1.99087e-01,-9.34551e-02,-3.45639e-02,-3.57913e-02,5.05804e-02,-2.39334e-01,-1.08459e-01,-5.70859e-02,-1.14492e-01,-1.14342e-01,-7.65937e-02,8.62636e-02,8.48121e-02,4.90604e-02,4.11417e-02,1.18982e-02,7.03123e-03,-1.98637e-02,-9.27003e-02,1.98504e-02,-8.79446e-02,4.15760e-02,9.94534e-02,-2.22284e-02,3.00212e-01,-2.64464e-02,-3.96883e-01,-1.38154e-02,4.90419e-04,2.08647e-02,7.88511e-02,9.09741e-02,7.88511e-02,4.63133e-02,-1.04463e-01,3.07535e-03,4.06752e-02,-1.28636e-01,-6.65416e-02,7.32373e-02,-3.04405e-02,6.45507e-02,3.90451e-02,4.67000e-02,-1.10850e-01,-1.96450e-01,5.60494e-03,9.32115e-02,3.62155e-03,1.54444e-01,1.25070e-01,1.08751e-01,2.99359e-01,-1.06847e-01,-3.96670e-01,-1.98769e-02,3.33846e-02,6.96090e-03,1.54205e-01,1.70871e-01,-1.26350e-02,-5.60958e-03,2.18828e-01,1.73612e-01,1.50277e-01,5.30352e-02,4.98883e-02,1.14539e-01,1.72883e-01,2.63868e-01,1.08251e-01,-5.69160e-03,5.44829e-03,-4.12216e-01,-1.85949e-01,-9.53324e-03,2.53205e-01,-5.46368e-02,1.17771e-01,4.70439e-02,-2.87719e-01,-4.01635e-01,-3.74523e-01,1.36061e-02,-5.39652e-03,1.25470e-02,3.41985e-01,-1.10944e-01,5.32728e-02,1.45672e-01,-3.87062e-02,3.11927e-02,-1.20582e-01,2.21586e-02,4.28031e-01,3.71402e-01,-2.68293e-02,1.96134e-01,5.66718e-02,3.00610e-02,9.60730e-02,1.11936e-02,5.81745e-02,1.96831e-01,5.60999e-02,3.05143e-02,-8.95681e-02,-1.09796e-01,-2.53595e-01,-1.58484e-01,-2.44303e-01,2.38885e-02,4.80750e-04,6.52632e-03,-3.22975e-02,1.01794e-01,3.80132e-01,2.95892e-01,2.13008e-01,-7.38420e-02,2.23951e-02,8.68661e-02,6.82901e-02,1.76635e-01,2.80253e-01,1.02006e-02,3.78723e-02,-1.45289e-01,6.72512e-03,3.32975e-01,2.75622e-01,-4.52752e-02,2.73521e-01,2.59760e-01,-1.21004e-01,1.29154e-01,3.24078e-01,-2.63053e-02,-1.23776e-02,-2.28857e-02,-1.85471e-02,3.48298e-02,-1.52650e-02,3.27098e-03,-9.31309e-02,3.46422e-02,1.27705e-01,3.89423e-02,6.89008e-02,4.67350e-02,6.24245e-02,1.23391e-01,1.17931e-01,-6.88780e-02,-8.79501e-02,3.84384e-02,-4.72215e-02,-2.54362e-01,6.09417e-03,7.22100e-02,1.67349e-01,2.97567e-02,-1.54517e-01,-3.50327e-01,7.29949e-03,1.19297e-02,-3.41640e-02,-1.01813e-02,
