// Neural Network File Format by Kyle Julian, Stanford 2016
10,3072,43,3072,
3072,50,50,50,50,50,50,50,50,50,43,
0,
0,0,0,0,0,0,0,0,0,0,0,0,0,0,0,0,0,0,0,0,0,0,0,0,0,0,0,0,0,0,0,0,0,0,0,0,0,0,0,0,0,0,0,0,0,0,0,0,0,0,0,0,0,0,0,0,0,0,0,0,0,0,0,0,0,0,0,0,0,0,0,0,0,0,0,0,0,0,0,0,0,0,0,0,0,0,0,0,0,0,0,0,0,0,0,0,0,0,0,0,0,0,0,0,0,0,0,0,0,0,0,0,0,0,0,0,0,0,0,0,0,0,0,0,0,0,0,0,0,0,0,0,0,0,0,0,0,0,0,0,0,0,0,0,0,0,0,0,0,0,0,0,0,0,0,0,0,0,0,0,0,0,0,0,0,0,0,0,0,0,0,0,0,0,0,0,0,0,0,0,0,0,0,0,0,0,0,0,0,0,0,0,0,0,0,0,0,0,0,0,0,0,0,0,0,0,0,0,0,0,0,0,0,0,0,0,0,0,0,0,0,0,0,0,0,0,0,0,0,0,0,0,0,0,0,0,0,0,0,0,0,0,0,0,0,0,0,0,0,0,0,0,0,0,0,0,0,0,0,0,0,0,0,0,0,0,0,0,0,0,0,0,0,0,0,0,0,0,0,0,0,0,0,0,0,0,0,0,0,0,0,0,0,0,0,0,0,0,0,0,0,0,0,0,0,0,0,0,0,0,0,0,0,0,0,0,0,0,0,0,0,0,0,0,0,0,0,0,0,0,0,0,0,0,0,0,0,0,0,0,0,0,0,0,0,0,0,0,0,0,0,0,0,0,0,0,0,0,0,0,0,0,0,0,0,0,0,0,0,0,0,0,0,0,0,0,0,0,0,0,0,0,0,0,0,0,0,0,0,0,0,0,0,0,0,0,0,0,0,0,0,0,0,0,0,0,0,0,0,0,0,0,0,0,0,0,0,0,0,0,0,0,0,0,0,0,0,0,0,0,0,0,0,0,0,0,0,0,0,0,0,0,0,0,0,0,0,0,0,0,0,0,0,0,0,0,0,0,0,0,0,0,0,0,0,0,0,0,0,0,0,0,0,0,0,0,0,0,0,0,0,0,0,0,0,0,0,0,0,0,0,0,0,0,0,0,0,0,0,0,0,0,0,0,0,0,0,0,0,0,0,0,0,0,0,0,0,0,0,0,0,0,0,0,0,0,0,0,0,0,0,0,0,0,0,0,0,0,0,0,0,0,0,0,0,0,0,0,0,0,0,0,0,0,0,0,0,0,0,0,0,0,0,0,0,0,0,0,0,0,0,0,0,0,0,0,0,0,0,0,0,0,0,0,0,0,0,0,0,0,0,0,0,0,0,0,0,0,0,0,0,0,0,0,0,0,0,0,0,0,0,0,0,0,0,0,0,0,0,0,0,0,0,0,0,0,0,0,0,0,0,0,0,0,0,0,0,0,0,0,0,0,0,0,0,0,0,0,0,0,0,0,0,0,0,0,0,0,0,0,0,0,0,0,0,0,0,0,0,0,0,0,0,0,0,0,0,0,0,0,0,0,0,0,0,0,0,0,0,0,0,0,0,0,0,0,0,0,0,0,0,0,0,0,0,0,0,0,0,0,0,0,0,0,0,0,0,0,0,0,0,0,0,0,0,0,0,0,0,0,0,0,0,0,0,0,0,0,0,0,0,0,0,0,0,0,0,0,0,0,0,0,0,0,0,0,0,0,0,0,0,0,0,0,0,0,0,0,0,0,0,0,0,0,0,0,0,0,0,0,0,0,0,0,0,0,0,0,0,0,0,0,0,0,0,0,0,0,0,0,0,0,0,0,0,0,0,0,0,0,0,0,0,0,0,0,0,0,0,0,0,0,0,0,0,0,0,0,0,0,0,0,0,0,0,0,0,0,0,0,0,0,0,0,0,0,0,0,0,0,0,0,0,0,0,0,0,0,0,0,0,0,0,0,0,0,0,0,0,0,0,0,0,0,0,0,0,0,0,0,0,0,0,0,0,0,0,0,0,0,0,0,0,0,0,0,0,0,0,0,0,0,0,0,0,0,0,0,0,0,0,0,0,0,0,0,0,0,0,0,0,0,0,0,0,0,0,0,0,0,0,0,0,0,0,0,0,0,0,0,0,0,0,0,0,0,0,0,0,0,0,0,0,0,0,0,0,0,0,0,0,0,0,0,0,0,0,0,0,0,0,0,0,0,0,0,0,0,0,0,0,0,0,0,0,0,0,0,0,0,0,0,0,0,0,0,0,0,0,0,0,0,0,0,0,0,0,0,0,0,0,0,0,0,0,0,0,0,0,0,0,0,0,0,0,0,0,0,0,0,0,0,0,0,0,0,0,0,0,0,0,0,0,0,0,0,0,0,0,0,0,0,0,0,0,0,0,0,0,0,0,0,0,0,0,0,0,0,0,0,0,0,0,0,0,0,0,0,0,0,0,0,0,0,0,0,0,0,0,0,0,0,0,0,0,0,0,0,0,0,0,0,0,0,0,0,0,0,0,0,0,0,0,0,0,0,0,0,0,0,0,0,0,0,0,0,0,0,0,0,0,0,0,0,0,0,0,0,0,0,0,0,0,0,0,0,0,0,0,0,0,0,0,0,0,0,0,0,0,0,0,0,0,0,0,0,0,0,0,0,0,0,0,0,0,0,0,0,0,0,0,0,0,0,0,0,0,0,0,0,0,0,0,0,0,0,0,0,0,0,0,0,0,0,0,0,0,0,0,0,0,0,0,0,0,0,0,0,0,0,0,0,0,0,0,0,0,0,0,0,0,0,0,0,0,0,0,0,0,0,0,0,0,0,0,0,0,0,0,0,0,0,0,0,0,0,0,0,0,0,0,0,0,0,0,0,0,0,0,0,0,0,0,0,0,0,0,0,0,0,0,0,0,0,0,0,0,0,0,0,0,0,0,0,0,0,0,0,0,0,0,0,0,0,0,0,0,0,0,0,0,0,0,0,0,0,0,0,0,0,0,0,0,0,0,0,0,0,0,0,0,0,0,0,0,0,0,0,0,0,0,0,0,0,0,0,0,0,0,0,0,0,0,0,0,0,0,0,0,0,0,0,0,0,0,0,0,0,0,0,0,0,0,0,0,0,0,0,0,0,0,0,0,0,0,0,0,0,0,0,0,0,0,0,0,0,0,0,0,0,0,0,0,0,0,0,0,0,0,0,0,0,0,0,0,0,0,0,0,0,0,0,0,0,0,0,0,0,0,0,0,0,0,0,0,0,0,0,0,0,0,0,0,0,0,0,0,0,0,0,0,0,0,0,0,0,0,0,0,0,0,0,0,0,0,0,0,0,0,0,0,0,0,0,0,0,0,0,0,0,0,0,0,0,0,0,0,0,0,0,0,0,0,0,0,0,0,0,0,0,0,0,0,0,0,0,0,0,0,0,0,0,0,0,0,0,0,0,0,0,0,0,0,0,0,0,0,0,0,0,0,0,0,0,0,0,0,0,0,0,0,0,0,0,0,0,0,0,0,0,0,0,0,0,0,0,0,0,0,0,0,0,0,0,0,0,0,0,0,0,0,0,0,0,0,0,0,0,0,0,0,0,0,0,0,0,0,0,0,0,0,0,0,0,0,0,0,0,0,0,0,0,0,0,0,0,0,0,0,0,0,0,0,0,0,0,0,0,0,0,0,0,0,0,0,0,0,0,0,0,0,0,0,0,0,0,0,0,0,0,0,0,0,0,0,0,0,0,0,0,0,0,0,0,0,0,0,0,0,0,0,0,0,0,0,0,0,0,0,0,0,0,0,0,0,0,0,0,0,0,0,0,0,0,0,0,0,0,0,0,0,0,0,0,0,0,0,0,0,0,0,0,0,0,0,0,0,0,0,0,0,0,0,0,0,0,0,0,0,0,0,0,0,0,0,0,0,0,0,0,0,0,0,0,0,0,0,0,0,0,0,0,0,0,0,0,0,0,0,0,0,0,0,0,0,0,0,0,0,0,0,0,0,0,0,0,0,0,0,0,0,0,0,0,0,0,0,0,0,0,0,0,0,0,0,0,0,0,0,0,0,0,0,0,0,0,0,0,0,0,0,0,0,0,0,0,0,0,0,0,0,0,0,0,0,0,0,0,0,0,0,0,0,0,0,0,0,0,0,0,0,0,0,0,0,0,0,0,0,0,0,0,0,0,0,0,0,0,0,0,0,0,0,0,0,0,0,0,0,0,0,0,0,0,0,0,0,0,0,0,0,0,0,0,0,0,0,0,0,0,0,0,0,0,0,0,0,0,0,0,0,0,0,0,0,0,0,0,0,0,0,0,0,0,0,0,0,0,0,0,0,0,0,0,0,0,0,0,0,0,0,0,0,0,0,0,0,0,0,0,0,0,0,0,0,0,0,0,0,0,0,0,0,0,0,0,0,0,0,0,0,0,0,0,0,0,0,0,0,0,0,0,0,0,0,0,0,0,0,0,0,0,0,0,0,0,0,0,0,0,0,0,0,0,0,0,0,0,0,0,0,0,0,0,0,0,0,0,0,0,0,0,0,0,0,0,0,0,0,0,0,0,0,0,0,0,0,0,0,0,0,0,0,0,0,0,0,0,0,0,0,0,0,0,0,0,0,0,0,0,0,0,0,0,0,0,0,0,0,0,0,0,0,0,0,0,0,0,0,0,0,0,0,0,0,0,0,0,0,0,0,0,0,0,0,0,0,0,0,0,0,0,0,0,0,0,0,0,0,0,0,0,0,0,0,0,0,0,0,0,0,0,0,0,0,0,0,0,0,0,0,0,0,0,0,0,0,0,0,0,0,0,0,0,0,0,0,0,0,0,0,0,0,0,0,0,0,0,0,0,0,0,0,0,0,0,0,0,0,0,0,0,0,0,0,0,0,0,0,0,0,0,0,0,0,0,0,0,0,0,0,0,0,0,0,0,0,0,0,0,0,0,0,0,0,0,0,0,0,0,0,0,0,0,0,0,0,0,0,0,0,0,0,0,0,0,0,0,0,0,0,0,0,0,0,0,0,0,0,0,0,0,0,0,0,0,0,0,0,0,0,0,0,0,0,0,0,0,0,0,0,0,0,0,0,0,0,0,0,0,0,0,0,0,0,0,0,0,0,0,0,0,0,0,0,0,0,0,0,0,0,0,0,0,0,0,0,0,0,0,0,0,0,0,0,0,0,0,0,0,0,0,0,0,0,0,0,0,0,0,0,0,0,0,0,0,0,0,0,0,0,0,0,0,0,0,0,0,0,0,0,0,0,0,0,0,0,0,0,0,0,0,0,0,0,0,0,0,0,0,0,0,0,0,0,0,0,0,0,0,0,0,0,0,0,0,0,0,0,0,0,0,0,0,0,0,0,0,0,0,0,0,0,0,0,0,0,0,0,0,0,0,0,0,0,0,0,0,0,0,0,0,0,0,0,0,0,0,0,0,0,0,0,0,0,0,0,0,0,0,0,0,0,0,0,0,0,0,0,0,0,0,0,0,0,0,0,0,0,0,0,0,0,0,0,0,0,0,0,0,0,0,0,0,0,0,0,0,0,0,0,0,0,0,0,0,0,0,0,0,0,0,0,0,0,0,0,0,0,0,0,0,0,0,0,0,0,0,0,0,0,0,0,0,0,0,0,0,0,0,0,0,0,0,0,0,0,0,0,0,0,0,0,0,0,0,0,0,0,0,0,0,0,0,0,0,0,0,0,0,0,0,0,0,0,0,0,0,0,0,0,0,0,0,0,0,0,0,0,0,0,0,0,0,0,0,0,0,0,0,0,0,0,0,0,0,0,0,0,0,0,0,0,0,0,0,0,0,0,0,0,0,0,0,0,0,0,0,0,0,0,0,0,0,0,0,0,0,0,0,0,0,0,0,0,0,0,0,0,0,0,0,0,0,0,0,0,0,0,0,0,0,0,0,0,0,0,0,0,0,0,0,0,0,0,0,0,0,0,0,0,0,0,0,0,0,0,0,0,0,0,0,0,0,0,0,0,0,0,0,0,0,0,0,0,0,0,0,0,0,0,0,0,0,0,0,0,0,0,0,0,0,0,0,0,0,0,0,0,0,0,0,0,0,0,0,0,0,0,0,0,0,0,0,0,0,0,0,0,0,0,0,0,0,0,0,0,0,0,0,0,0,0,0,0,0,0,0,0,0,0,0,0,0,0,0,0,0,0,0,0,0,0,0,0,0,0,0,0,0,0,0,0,0,0,0,0,0,0,0,0,0,0,0,0,0,0,0,0,0,0,0,0,0,0,0,0,0,0,0,0,0,0,0,0,0,0,0,0,0,0,0,0,0,0,0,0,0,0,0,0,0,0,0,0,0,0,0,0,0,0,0,0,0,0,0,0,0,0,0,0,0,0,0,0,0,0,0,0,0,0,0,0,0,0,0,0,0,0,0,0,0,0,0,0,0,0,0,0,0,0,0,0,0,0,0,0,0,0,0,0,0,0,0,0,0,0,0,0,0,0,0,0,0,0,0,0,0,0,0,0,0,0,0,0,0,0,0,0,0,0,0,0,0,0,0,0,0,0,0,0,0,0,0,0,0,0,0,0,0,0,0,0,0,0,0,0,0,0,0,0,0,0,0,0,0,0,0,0,0,0,0,0,0,0,0,0,0,0,0,0,0,0,0,0,0,0,0,0,0,0,0,0,0,0,0,0,0,0,0,0,0,0,0,0,0,0,0,0,0,0,0,0,0,0,0,0,0,0,0,0,0,0,0,0,0,0,0,0,0,0,0,0,0,0,0,0,0,0,0,0,0,0,0,0,0,0,0,0,0,0,0,0,0,0,0,0,0,0,0,0,0,0,0,0,0,0,0,0,0,0,0,0,0,0,0,0,0,0,0,0,0,0,0,0,0,0,0,0,0,0,0,0,0,0,0,0,0,0,0,0,0,0,0,0,0,0,0,0,0,0,0,0,0,0,0,0,0,0,0,0,0,
1,1,1,1,1,1,1,1,1,1,1,1,1,1,1,1,1,1,1,1,1,1,1,1,1,1,1,1,1,1,1,1,1,1,1,1,1,1,1,1,1,1,1,1,1,1,1,1,1,1,1,1,1,1,1,1,1,1,1,1,1,1,1,1,1,1,1,1,1,1,1,1,1,1,1,1,1,1,1,1,1,1,1,1,1,1,1,1,1,1,1,1,1,1,1,1,1,1,1,1,1,1,1,1,1,1,1,1,1,1,1,1,1,1,1,1,1,1,1,1,1,1,1,1,1,1,1,1,1,1,1,1,1,1,1,1,1,1,1,1,1,1,1,1,1,1,1,1,1,1,1,1,1,1,1,1,1,1,1,1,1,1,1,1,1,1,1,1,1,1,1,1,1,1,1,1,1,1,1,1,1,1,1,1,1,1,1,1,1,1,1,1,1,1,1,1,1,1,1,1,1,1,1,1,1,1,1,1,1,1,1,1,1,1,1,1,1,1,1,1,1,1,1,1,1,1,1,1,1,1,1,1,1,1,1,1,1,1,1,1,1,1,1,1,1,1,1,1,1,1,1,1,1,1,1,1,1,1,1,1,1,1,1,1,1,1,1,1,1,1,1,1,1,1,1,1,1,1,1,1,1,1,1,1,1,1,1,1,1,1,1,1,1,1,1,1,1,1,1,1,1,1,1,1,1,1,1,1,1,1,1,1,1,1,1,1,1,1,1,1,1,1,1,1,1,1,1,1,1,1,1,1,1,1,1,1,1,1,1,1,1,1,1,1,1,1,1,1,1,1,1,1,1,1,1,1,1,1,1,1,1,1,1,1,1,1,1,1,1,1,1,1,1,1,1,1,1,1,1,1,1,1,1,1,1,1,1,1,1,1,1,1,1,1,1,1,1,1,1,1,1,1,1,1,1,1,1,1,1,1,1,1,1,1,1,1,1,1,1,1,1,1,1,1,1,1,1,1,1,1,1,1,1,1,1,1,1,1,1,1,1,1,1,1,1,1,1,1,1,1,1,1,1,1,1,1,1,1,1,1,1,1,1,1,1,1,1,1,1,1,1,1,1,1,1,1,1,1,1,1,1,1,1,1,1,1,1,1,1,1,1,1,1,1,1,1,1,1,1,1,1,1,1,1,1,1,1,1,1,1,1,1,1,1,1,1,1,1,1,1,1,1,1,1,1,1,1,1,1,1,1,1,1,1,1,1,1,1,1,1,1,1,1,1,1,1,1,1,1,1,1,1,1,1,1,1,1,1,1,1,1,1,1,1,1,1,1,1,1,1,1,1,1,1,1,1,1,1,1,1,1,1,1,1,1,1,1,1,1,1,1,1,1,1,1,1,1,1,1,1,1,1,1,1,1,1,1,1,1,1,1,1,1,1,1,1,1,1,1,1,1,1,1,1,1,1,1,1,1,1,1,1,1,1,1,1,1,1,1,1,1,1,1,1,1,1,1,1,1,1,1,1,1,1,1,1,1,1,1,1,1,1,1,1,1,1,1,1,1,1,1,1,1,1,1,1,1,1,1,1,1,1,1,1,1,1,1,1,1,1,1,1,1,1,1,1,1,1,1,1,1,1,1,1,1,1,1,1,1,1,1,1,1,1,1,1,1,1,1,1,1,1,1,1,1,1,1,1,1,1,1,1,1,1,1,1,1,1,1,1,1,1,1,1,1,1,1,1,1,1,1,1,1,1,1,1,1,1,1,1,1,1,1,1,1,1,1,1,1,1,1,1,1,1,1,1,1,1,1,1,1,1,1,1,1,1,1,1,1,1,1,1,1,1,1,1,1,1,1,1,1,1,1,1,1,1,1,1,1,1,1,1,1,1,1,1,1,1,1,1,1,1,1,1,1,1,1,1,1,1,1,1,1,1,1,1,1,1,1,1,1,1,1,1,1,1,1,1,1,1,1,1,1,1,1,1,1,1,1,1,1,1,1,1,1,1,1,1,1,1,1,1,1,1,1,1,1,1,1,1,1,1,1,1,1,1,1,1,1,1,1,1,1,1,1,1,1,1,1,1,1,1,1,1,1,1,1,1,1,1,1,1,1,1,1,1,1,1,1,1,1,1,1,1,1,1,1,1,1,1,1,1,1,1,1,1,1,1,1,1,1,1,1,1,1,1,1,1,1,1,1,1,1,1,1,1,1,1,1,1,1,1,1,1,1,1,1,1,1,1,1,1,1,1,1,1,1,1,1,1,1,1,1,1,1,1,1,1,1,1,1,1,1,1,1,1,1,1,1,1,1,1,1,1,1,1,1,1,1,1,1,1,1,1,1,1,1,1,1,1,1,1,1,1,1,1,1,1,1,1,1,1,1,1,1,1,1,1,1,1,1,1,1,1,1,1,1,1,1,1,1,1,1,1,1,1,1,1,1,1,1,1,1,1,1,1,1,1,1,1,1,1,1,1,1,1,1,1,1,1,1,1,1,1,1,1,1,1,1,1,1,1,1,1,1,1,1,1,1,1,1,1,1,1,1,1,1,1,1,1,1,1,1,1,1,1,1,1,1,1,1,1,1,1,1,1,1,1,1,1,1,1,1,1,1,1,1,1,1,1,1,1,1,1,1,1,1,1,1,1,1,1,1,1,1,1,1,1,1,1,1,1,1,1,1,1,1,1,1,1,1,1,1,1,1,1,1,1,1,1,1,1,1,1,1,1,1,1,1,1,1,1,1,1,1,1,1,1,1,1,1,1,1,1,1,1,1,1,1,1,1,1,1,1,1,1,1,1,1,1,1,1,1,1,1,1,1,1,1,1,1,1,1,1,1,1,1,1,1,1,1,1,1,1,1,1,1,1,1,1,1,1,1,1,1,1,1,1,1,1,1,1,1,1,1,1,1,1,1,1,1,1,1,1,1,1,1,1,1,1,1,1,1,1,1,1,1,1,1,1,1,1,1,1,1,1,1,1,1,1,1,1,1,1,1,1,1,1,1,1,1,1,1,1,1,1,1,1,1,1,1,1,1,1,1,1,1,1,1,1,1,1,1,1,1,1,1,1,1,1,1,1,1,1,1,1,1,1,1,1,1,1,1,1,1,1,1,1,1,1,1,1,1,1,1,1,1,1,1,1,1,1,1,1,1,1,1,1,1,1,1,1,1,1,1,1,1,1,1,1,1,1,1,1,1,1,1,1,1,1,1,1,1,1,1,1,1,1,1,1,1,1,1,1,1,1,1,1,1,1,1,1,1,1,1,1,1,1,1,1,1,1,1,1,1,1,1,1,1,1,1,1,1,1,1,1,1,1,1,1,1,1,1,1,1,1,1,1,1,1,1,1,1,1,1,1,1,1,1,1,1,1,1,1,1,1,1,1,1,1,1,1,1,1,1,1,1,1,1,1,1,1,1,1,1,1,1,1,1,1,1,1,1,1,1,1,1,1,1,1,1,1,1,1,1,1,1,1,1,1,1,1,1,1,1,1,1,1,1,1,1,1,1,1,1,1,1,1,1,1,1,1,1,1,1,1,1,1,1,1,1,1,1,1,1,1,1,1,1,1,1,1,1,1,1,1,1,1,1,1,1,1,1,1,1,1,1,1,1,1,1,1,1,1,1,1,1,1,1,1,1,1,1,1,1,1,1,1,1,1,1,1,1,1,1,1,1,1,1,1,1,1,1,1,1,1,1,1,1,1,1,1,1,1,1,1,1,1,1,1,1,1,1,1,1,1,1,1,1,1,1,1,1,1,1,1,1,1,1,1,1,1,1,1,1,1,1,1,1,1,1,1,1,1,1,1,1,1,1,1,1,1,1,1,1,1,1,1,1,1,1,1,1,1,1,1,1,1,1,1,1,1,1,1,1,1,1,1,1,1,1,1,1,1,1,1,1,1,1,1,1,1,1,1,1,1,1,1,1,1,1,1,1,1,1,1,1,1,1,1,1,1,1,1,1,1,1,1,1,1,1,1,1,1,1,1,1,1,1,1,1,1,1,1,1,1,1,1,1,1,1,1,1,1,1,1,1,1,1,1,1,1,1,1,1,1,1,1,1,1,1,1,1,1,1,1,1,1,1,1,1,1,1,1,1,1,1,1,1,1,1,1,1,1,1,1,1,1,1,1,1,1,1,1,1,1,1,1,1,1,1,1,1,1,1,1,1,1,1,1,1,1,1,1,1,1,1,1,1,1,1,1,1,1,1,1,1,1,1,1,1,1,1,1,1,1,1,1,1,1,1,1,1,1,1,1,1,1,1,1,1,1,1,1,1,1,1,1,1,1,1,1,1,1,1,1,1,1,1,1,1,1,1,1,1,1,1,1,1,1,1,1,1,1,1,1,1,1,1,1,1,1,1,1,1,1,1,1,1,1,1,1,1,1,1,1,1,1,1,1,1,1,1,1,1,1,1,1,1,1,1,1,1,1,1,1,1,1,1,1,1,1,1,1,1,1,1,1,1,1,1,1,1,1,1,1,1,1,1,1,1,1,1,1,1,1,1,1,1,1,1,1,1,1,1,1,1,1,1,1,1,1,1,1,1,1,1,1,1,1,1,1,1,1,1,1,1,1,1,1,1,1,1,1,1,1,1,1,1,1,1,1,1,1,1,1,1,1,1,1,1,1,1,1,1,1,1,1,1,1,1,1,1,1,1,1,1,1,1,1,1,1,1,1,1,1,1,1,1,1,1,1,1,1,1,1,1,1,1,1,1,1,1,1,1,1,1,1,1,1,1,1,1,1,1,1,1,1,1,1,1,1,1,1,1,1,1,1,1,1,1,1,1,1,1,1,1,1,1,1,1,1,1,1,1,1,1,1,1,1,1,1,1,1,1,1,1,1,1,1,1,1,1,1,1,1,1,1,1,1,1,1,1,1,1,1,1,1,1,1,1,1,1,1,1,1,1,1,1,1,1,1,1,1,1,1,1,1,1,1,1,1,1,1,1,1,1,1,1,1,1,1,1,1,1,1,1,1,1,1,1,1,1,1,1,1,1,1,1,1,1,1,1,1,1,1,1,1,1,1,1,1,1,1,1,1,1,1,1,1,1,1,1,1,1,1,1,1,1,1,1,1,1,1,1,1,1,1,1,1,1,1,1,1,1,1,1,1,1,1,1,1,1,1,1,1,1,1,1,1,1,1,1,1,1,1,1,1,1,1,1,1,1,1,1,1,1,1,1,1,1,1,1,1,1,1,1,1,1,1,1,1,1,1,1,1,1,1,1,1,1,1,1,1,1,1,1,1,1,1,1,1,1,1,1,1,1,1,1,1,1,1,1,1,1,1,1,1,1,1,1,1,1,1,1,1,1,1,1,1,1,1,1,1,1,1,1,1,1,1,1,1,1,1,1,1,1,1,1,1,1,1,1,1,1,1,1,1,1,1,1,1,1,1,1,1,1,1,1,1,1,1,1,1,1,1,1,1,1,1,1,1,1,1,1,1,1,1,1,1,1,1,1,1,1,1,1,1,1,1,1,1,1,1,1,1,1,1,1,1,1,1,1,1,1,1,1,1,1,1,1,1,1,1,1,1,1,1,1,1,1,1,1,1,1,1,1,1,1,1,1,1,1,1,1,1,1,1,1,1,1,1,1,1,1,1,1,1,1,1,1,1,1,1,1,1,1,1,1,1,1,1,1,1,1,1,1,1,1,1,1,1,1,1,1,1,1,1,1,1,1,1,1,1,1,1,1,1,1,1,1,1,1,1,1,1,1,1,1,1,1,1,1,1,1,1,1,1,1,1,1,1,1,1,1,1,1,1,1,1,1,1,1,1,1,1,1,1,1,1,1,1,1,1,1,1,1,1,1,1,1,1,1,1,1,1,1,1,1,1,1,1,1,1,1,1,1,1,1,1,1,1,1,1,1,1,1,1,1,1,1,1,1,1,1,1,1,1,1,1,1,1,1,1,1,1,1,1,1,1,1,1,1,1,1,1,1,1,1,1,1,1,1,1,1,1,1,1,1,1,1,1,1,1,1,1,1,1,1,1,1,1,1,1,1,1,1,1,1,1,1,1,1,1,1,1,1,1,1,1,1,1,1,1,1,1,1,1,1,1,1,1,1,1,1,1,1,1,1,1,1,1,1,1,1,1,1,1,1,1,1,1,1,1,1,1,1,1,1,1,1,1,1,1,1,1,1,1,1,1,1,1,1,1,1,1,1,1,1,1,1,1,1,1,1,1,1,1,1,1,1,1,1,1,1,1,1,1,1,1,1,1,1,1,1,1,1,1,1,1,1,1,1,1,1,1,1,1,1,1,1,1,1,1,1,1,1,1,1,1,1,1,1,1,1,1,1,1,1,1,1,1,1,1,1,1,1,1,1,1,1,1,1,1,1,1,1,1,1,1,1,1,1,1,1,1,1,1,1,1,1,1,1,1,1,1,1,1,1,1,1,1,1,1,1,1,1,1,1,1,1,1,1,1,1,1,1,1,1,1,1,1,1,1,1,1,1,1,1,1,1,1,1,1,1,1,1,1,1,1,1,1,1,1,1,1,1,1,1,1,1,1,1,1,1,1,1,1,1,1,1,1,1,1,1,1,1,1,1,1,1,1,1,1,1,1,1,1,1,1,1,1,1,1,1,1,1,1,1,1,1,1,1,1,1,1,1,1,1,1,1,1,1,1,1,1,1,1,1,1,1,1,1,1,1,1,1,1,1,1,1,1,1,1,1,1,1,1,1,1,1,1,1,1,1,1,1,1,1,1,1,1,1,1,1,1,1,1,1,1,1,1,1,1,1,1,1,1,1,1,1,1,1,1,1,1,1,1,1,1,1,1,1,1,1,1,1,1,1,1,1,1,1,1,1,1,1,1,1,1,1,1,1,1,1,1,1,1,1,1,1,1,1,1,1,1,1,1,1,1,1,1,1,1,1,1,1,1,1,1,1,1,1,1,1,1,1,1,1,1,1,1,1,1,1,1,1,1,1,1,1,1,1,1,1,1,1,1,1,1,1,1,
0,0,0,0,0,0,0,0,0,0,0,0,0,0,0,0,0,0,0,0,0,0,0,0,0,0,0,0,0,0,0,0,0,0,0,0,0,0,0,0,0,0,0,0,0,0,0,0,0,0,0,0,0,0,0,0,0,0,0,0,0,0,0,0,0,0,0,0,0,0,0,0,0,0,0,0,0,0,0,0,0,0,0,0,0,0,0,0,0,0,0,0,0,0,0,0,0,0,0,0,0,0,0,0,0,0,0,0,0,0,0,0,0,0,0,0,0,0,0,0,0,0,0,0,0,0,0,0,0,0,0,0,0,0,0,0,0,0,0,0,0,0,0,0,0,0,0,0,0,0,0,0,0,0,0,0,0,0,0,0,0,0,0,0,0,0,0,0,0,0,0,0,0,0,0,0,0,0,0,0,0,0,0,0,0,0,0,0,0,0,0,0,0,0,0,0,0,0,0,0,0,0,0,0,0,0,0,0,0,0,0,0,0,0,0,0,0,0,0,0,0,0,0,0,0,0,0,0,0,0,0,0,0,0,0,0,0,0,0,0,0,0,0,0,0,0,0,0,0,0,0,0,0,0,0,0,0,0,0,0,0,0,0,0,0,0,0,0,0,0,0,0,0,0,0,0,0,0,0,0,0,0,0,0,0,0,0,0,0,0,0,0,0,0,0,0,0,0,0,0,0,0,0,0,0,0,0,0,0,0,0,0,0,0,0,0,0,0,0,0,0,0,0,0,0,0,0,0,0,0,0,0,0,0,0,0,0,0,0,0,0,0,0,0,0,0,0,0,0,0,0,0,0,0,0,0,0,0,0,0,0,0,0,0,0,0,0,0,0,0,0,0,0,0,0,0,0,0,0,0,0,0,0,0,0,0,0,0,0,0,0,0,0,0,0,0,0,0,0,0,0,0,0,0,0,0,0,0,0,0,0,0,0,0,0,0,0,0,0,0,0,0,0,0,0,0,0,0,0,0,0,0,0,0,0,0,0,0,0,0,0,0,0,0,0,0,0,0,0,0,0,0,0,0,0,0,0,0,0,0,0,0,0,0,0,0,0,0,0,0,0,0,0,0,0,0,0,0,0,0,0,0,0,0,0,0,0,0,0,0,0,0,0,0,0,0,0,0,0,0,0,0,0,0,0,0,0,0,0,0,0,0,0,0,0,0,0,0,0,0,0,0,0,0,0,0,0,0,0,0,0,0,0,0,0,0,0,0,0,0,0,0,0,0,0,0,0,0,0,0,0,0,0,0,0,0,0,0,0,0,0,0,0,0,0,0,0,0,0,0,0,0,0,0,0,0,0,0,0,0,0,0,0,0,0,0,0,0,0,0,0,0,0,0,0,0,0,0,0,0,0,0,0,0,0,0,0,0,0,0,0,0,0,0,0,0,0,0,0,0,0,0,0,0,0,0,0,0,0,0,0,0,0,0,0,0,0,0,0,0,0,0,0,0,0,0,0,0,0,0,0,0,0,0,0,0,0,0,0,0,0,0,0,0,0,0,0,0,0,0,0,0,0,0,0,0,0,0,0,0,0,0,0,0,0,0,0,0,0,0,0,0,0,0,0,0,0,0,0,0,0,0,0,0,0,0,0,0,0,0,0,0,0,0,0,0,0,0,0,0,0,0,0,0,0,0,0,0,0,0,0,0,0,0,0,0,0,0,0,0,0,0,0,0,0,0,0,0,0,0,0,0,0,0,0,0,0,0,0,0,0,0,0,0,0,0,0,0,0,0,0,0,0,0,0,0,0,0,0,0,0,0,0,0,0,0,0,0,0,0,0,0,0,0,0,0,0,0,0,0,0,0,0,0,0,0,0,0,0,0,0,0,0,0,0,0,0,0,0,0,0,0,0,0,0,0,0,0,0,0,0,0,0,0,0,0,0,0,0,0,0,0,0,0,0,0,0,0,0,0,0,0,0,0,0,0,0,0,0,0,0,0,0,0,0,0,0,0,0,0,0,0,0,0,0,0,0,0,0,0,0,0,0,0,0,0,0,0,0,0,0,0,0,0,0,0,0,0,0,0,0,0,0,0,0,0,0,0,0,0,0,0,0,0,0,0,0,0,0,0,0,0,0,0,0,0,0,0,0,0,0,0,0,0,0,0,0,0,0,0,0,0,0,0,0,0,0,0,0,0,0,0,0,0,0,0,0,0,0,0,0,0,0,0,0,0,0,0,0,0,0,0,0,0,0,0,0,0,0,0,0,0,0,0,0,0,0,0,0,0,0,0,0,0,0,0,0,0,0,0,0,0,0,0,0,0,0,0,0,0,0,0,0,0,0,0,0,0,0,0,0,0,0,0,0,0,0,0,0,0,0,0,0,0,0,0,0,0,0,0,0,0,0,0,0,0,0,0,0,0,0,0,0,0,0,0,0,0,0,0,0,0,0,0,0,0,0,0,0,0,0,0,0,0,0,0,0,0,0,0,0,0,0,0,0,0,0,0,0,0,0,0,0,0,0,0,0,0,0,0,0,0,0,0,0,0,0,0,0,0,0,0,0,0,0,0,0,0,0,0,0,0,0,0,0,0,0,0,0,0,0,0,0,0,0,0,0,0,0,0,0,0,0,0,0,0,0,0,0,0,0,0,0,0,0,0,0,0,0,0,0,0,0,0,0,0,0,0,0,0,0,0,0,0,0,0,0,0,0,0,0,0,0,0,0,0,0,0,0,0,0,0,0,0,0,0,0,0,0,0,0,0,0,0,0,0,0,0,0,0,0,0,0,0,0,0,0,0,0,0,0,0,0,0,0,0,0,0,0,0,0,0,0,0,0,0,0,0,0,0,0,0,0,0,0,0,0,0,0,0,0,0,0,0,0,0,0,0,0,0,0,0,0,0,0,0,0,0,0,0,0,0,0,0,0,0,0,0,0,0,0,0,0,0,0,0,0,0,0,0,0,0,0,0,0,0,0,0,0,0,0,0,0,0,0,0,0,0,0,0,0,0,0,0,0,0,0,0,0,0,0,0,0,0,0,0,0,0,0,0,0,0,0,0,0,0,0,0,0,0,0,0,0,0,0,0,0,0,0,0,0,0,0,0,0,0,0,0,0,0,0,0,0,0,0,0,0,0,0,0,0,0,0,0,0,0,0,0,0,0,0,0,0,0,0,0,0,0,0,0,0,0,0,0,0,0,0,0,0,0,0,0,0,0,0,0,0,0,0,0,0,0,0,0,0,0,0,0,0,0,0,0,0,0,0,0,0,0,0,0,0,0,0,0,0,0,0,0,0,0,0,0,0,0,0,0,0,0,0,0,0,0,0,0,0,0,0,0,0,0,0,0,0,0,0,0,0,0,0,0,0,0,0,0,0,0,0,0,0,0,0,0,0,0,0,0,0,0,0,0,0,0,0,0,0,0,0,0,0,0,0,0,0,0,0,0,0,0,0,0,0,0,0,0,0,0,0,0,0,0,0,0,0,0,0,0,0,0,0,0,0,0,0,0,0,0,0,0,0,0,0,0,0,0,0,0,0,0,0,0,0,0,0,0,0,0,0,0,0,0,0,0,0,0,0,0,0,0,0,0,0,0,0,0,0,0,0,0,0,0,0,0,0,0,0,0,0,0,0,0,0,0,0,0,0,0,0,0,0,0,0,0,0,0,0,0,0,0,0,0,0,0,0,0,0,0,0,0,0,0,0,0,0,0,0,0,0,0,0,0,0,0,0,0,0,0,0,0,0,0,0,0,0,0,0,0,0,0,0,0,0,0,0,0,0,0,0,0,0,0,0,0,0,0,0,0,0,0,0,0,0,0,0,0,0,0,0,0,0,0,0,0,0,0,0,0,0,0,0,0,0,0,0,0,0,0,0,0,0,0,0,0,0,0,0,0,0,0,0,0,0,0,0,0,0,0,0,0,0,0,0,0,0,0,0,0,0,0,0,0,0,0,0,0,0,0,0,0,0,0,0,0,0,0,0,0,0,0,0,0,0,0,0,0,0,0,0,0,0,0,0,0,0,0,0,0,0,0,0,0,0,0,0,0,0,0,0,0,0,0,0,0,0,0,0,0,0,0,0,0,0,0,0,0,0,0,0,0,0,0,0,0,0,0,0,0,0,0,0,0,0,0,0,0,0,0,0,0,0,0,0,0,0,0,0,0,0,0,0,0,0,0,0,0,0,0,0,0,0,0,0,0,0,0,0,0,0,0,0,0,0,0,0,0,0,0,0,0,0,0,0,0,0,0,0,0,0,0,0,0,0,0,0,0,0,0,0,0,0,0,0,0,0,0,0,0,0,0,0,0,0,0,0,0,0,0,0,0,0,0,0,0,0,0,0,0,0,0,0,0,0,0,0,0,0,0,0,0,0,0,0,0,0,0,0,0,0,0,0,0,0,0,0,0,0,0,0,0,0,0,0,0,0,0,0,0,0,0,0,0,0,0,0,0,0,0,0,0,0,0,0,0,0,0,0,0,0,0,0,0,0,0,0,0,0,0,0,0,0,0,0,0,0,0,0,0,0,0,0,0,0,0,0,0,0,0,0,0,0,0,0,0,0,0,0,0,0,0,0,0,0,0,0,0,0,0,0,0,0,0,0,0,0,0,0,0,0,0,0,0,0,0,0,0,0,0,0,0,0,0,0,0,0,0,0,0,0,0,0,0,0,0,0,0,0,0,0,0,0,0,0,0,0,0,0,0,0,0,0,0,0,0,0,0,0,0,0,0,0,0,0,0,0,0,0,0,0,0,0,0,0,0,0,0,0,0,0,0,0,0,0,0,0,0,0,0,0,0,0,0,0,0,0,0,0,0,0,0,0,0,0,0,0,0,0,0,0,0,0,0,0,0,0,0,0,0,0,0,0,0,0,0,0,0,0,0,0,0,0,0,0,0,0,0,0,0,0,0,0,0,0,0,0,0,0,0,0,0,0,0,0,0,0,0,0,0,0,0,0,0,0,0,0,0,0,0,0,0,0,0,0,0,0,0,0,0,0,0,0,0,0,0,0,0,0,0,0,0,0,0,0,0,0,0,0,0,0,0,0,0,0,0,0,0,0,0,0,0,0,0,0,0,0,0,0,0,0,0,0,0,0,0,0,0,0,0,0,0,0,0,0,0,0,0,0,0,0,0,0,0,0,0,0,0,0,0,0,0,0,0,0,0,0,0,0,0,0,0,0,0,0,0,0,0,0,0,0,0,0,0,0,0,0,0,0,0,0,0,0,0,0,0,0,0,0,0,0,0,0,0,0,0,0,0,0,0,0,0,0,0,0,0,0,0,0,0,0,0,0,0,0,0,0,0,0,0,0,0,0,0,0,0,0,0,0,0,0,0,0,0,0,0,0,0,0,0,0,0,0,0,0,0,0,0,0,0,0,0,0,0,0,0,0,0,0,0,0,0,0,0,0,0,0,0,0,0,0,0,0,0,0,0,0,0,0,0,0,0,0,0,0,0,0,0,0,0,0,0,0,0,0,0,0,0,0,0,0,0,0,0,0,0,0,0,0,0,0,0,0,0,0,0,0,0,0,0,0,0,0,0,0,0,0,0,0,0,0,0,0,0,0,0,0,0,0,0,0,0,0,0,0,0,0,0,0,0,0,0,0,0,0,0,0,0,0,0,0,0,0,0,0,0,0,0,0,0,0,0,0,0,0,0,0,0,0,0,0,0,0,0,0,0,0,0,0,0,0,0,0,0,0,0,0,0,0,0,0,0,0,0,0,0,0,0,0,0,0,0,0,0,0,0,0,0,0,0,0,0,0,0,0,0,0,0,0,0,0,0,0,0,0,0,0,0,0,0,0,0,0,0,0,0,0,0,0,0,0,0,0,0,0,0,0,0,0,0,0,0,0,0,0,0,0,0,0,0,0,0,0,0,0,0,0,0,0,0,0,0,0,0,0,0,0,0,0,0,0,0,0,0,0,0,0,0,0,0,0,0,0,0,0,0,0,0,0,0,0,0,0,0,0,0,0,0,0,0,0,0,0,0,0,0,0,0,0,0,0,0,0,0,0,0,0,0,0,0,0,0,0,0,0,0,0,0,0,0,0,0,0,0,0,0,0,0,0,0,0,0,0,0,0,0,0,0,0,0,0,0,0,0,0,0,0,0,0,0,0,0,0,0,0,0,0,0,0,0,0,0,0,0,0,0,0,0,0,0,0,0,0,0,0,0,0,0,0,0,0,0,0,0,0,0,0,0,0,0,0,0,0,0,0,0,0,0,0,0,0,0,0,0,0,0,0,0,0,0,0,0,0,0,0,0,0,0,0,0,0,0,0,0,0,0,0,0,0,0,0,0,0,0,0,0,0,0,0,0,0,0,0,0,0,0,0,0,0,0,0,0,0,0,0,0,0,0,0,0,0,0,0,0,0,0,0,0,0,0,0,0,0,0,0,0,0,0,0,0,0,0,0,0,0,0,0,0,0,0,0,0,0,0,0,0,0,0,0,0,0,0,0,0,0,0,0,0,0,0,0,0,0,0,0,0,0,0,0,0,0,0,0,0,0,0,0,0,0,0,0,0,0,0,0,0,0,0,0,0,0,0,0,0,0,0,0,0,0,0,0,0,0,0,0,0,0,0,0,0,0,0,0,0,0,0,0,0,0,0,0,0,0,0,0,0,0,0,0,0,0,0,0,0,0,0,0,0,0,0,0,0,0,0,0,0,0,0,0,0,0,0,0,0,0,0,0,0,0,0,0,0,0,0,0,0,0,0,0,0,0,0,0,0,0,0,0,0,0,0,0,0,0,0,0,0,0,0,0,0,0,0,0,0,0,0,0,0,0,0,0,0,0,0,0,0,0,0,0,0,0,0,0,0,0,0,0,0,0,0,0,0,0,0,0,0,0,0,0,0,0,0,0,0,0,0,0,0,0,0,0,0,0,0,0,0,0,0,0,0,0,0,0,0,0,0,0,0,0,0,0,0,0,0,0,0,0,0,0,0,0,0,0,0,0,0,0,
1,1,1,1,1,1,1,1,1,1,1,1,1,1,1,1,1,1,1,1,1,1,1,1,1,1,1,1,1,1,1,1,1,1,1,1,1,1,1,1,1,1,1,1,1,1,1,1,1,1,1,1,1,1,1,1,1,1,1,1,1,1,1,1,1,1,1,1,1,1,1,1,1,1,1,1,1,1,1,1,1,1,1,1,1,1,1,1,1,1,1,1,1,1,1,1,1,1,1,1,1,1,1,1,1,1,1,1,1,1,1,1,1,1,1,1,1,1,1,1,1,1,1,1,1,1,1,1,1,1,1,1,1,1,1,1,1,1,1,1,1,1,1,1,1,1,1,1,1,1,1,1,1,1,1,1,1,1,1,1,1,1,1,1,1,1,1,1,1,1,1,1,1,1,1,1,1,1,1,1,1,1,1,1,1,1,1,1,1,1,1,1,1,1,1,1,1,1,1,1,1,1,1,1,1,1,1,1,1,1,1,1,1,1,1,1,1,1,1,1,1,1,1,1,1,1,1,1,1,1,1,1,1,1,1,1,1,1,1,1,1,1,1,1,1,1,1,1,1,1,1,1,1,1,1,1,1,1,1,1,1,1,1,1,1,1,1,1,1,1,1,1,1,1,1,1,1,1,1,1,1,1,1,1,1,1,1,1,1,1,1,1,1,1,1,1,1,1,1,1,1,1,1,1,1,1,1,1,1,1,1,1,1,1,1,1,1,1,1,1,1,1,1,1,1,1,1,1,1,1,1,1,1,1,1,1,1,1,1,1,1,1,1,1,1,1,1,1,1,1,1,1,1,1,1,1,1,1,1,1,1,1,1,1,1,1,1,1,1,1,1,1,1,1,1,1,1,1,1,1,1,1,1,1,1,1,1,1,1,1,1,1,1,1,1,1,1,1,1,1,1,1,1,1,1,1,1,1,1,1,1,1,1,1,1,1,1,1,1,1,1,1,1,1,1,1,1,1,1,1,1,1,1,1,1,1,1,1,1,1,1,1,1,1,1,1,1,1,1,1,1,1,1,1,1,1,1,1,1,1,1,1,1,1,1,1,1,1,1,1,1,1,1,1,1,1,1,1,1,1,1,1,1,1,1,1,1,1,1,1,1,1,1,1,1,1,1,1,1,1,1,1,1,1,1,1,1,1,1,1,1,1,1,1,1,1,1,1,1,1,1,1,1,1,1,1,1,1,1,1,1,1,1,1,1,1,1,1,1,1,1,1,1,1,1,1,1,1,1,1,1,1,1,1,1,1,1,1,1,1,1,1,1,1,1,1,1,1,1,1,1,1,1,1,1,1,1,1,1,1,1,1,1,1,1,1,1,1,1,1,1,1,1,1,1,1,1,1,1,1,1,1,1,1,1,1,1,1,1,1,1,1,1,1,1,1,1,1,1,1,1,1,1,1,1,1,1,1,1,1,1,1,1,1,1,1,1,1,1,1,1,1,1,1,1,1,1,1,1,1,1,1,1,1,1,1,1,1,1,1,1,1,1,1,1,1,1,1,1,1,1,1,1,1,1,1,1,1,1,1,1,1,1,1,1,1,1,1,1,1,1,1,1,1,1,1,1,1,1,1,1,1,1,1,1,1,1,1,1,1,1,1,1,1,1,1,1,1,1,1,1,1,1,1,1,1,1,1,1,1,1,1,1,1,1,1,1,1,1,1,1,1,1,1,1,1,1,1,1,1,1,1,1,1,1,1,1,1,1,1,1,1,1,1,1,1,1,1,1,1,1,1,1,1,1,1,1,1,1,1,1,1,1,1,1,1,1,1,1,1,1,1,1,1,1,1,1,1,1,1,1,1,1,1,1,1,1,1,1,1,1,1,1,1,1,1,1,1,1,1,1,1,1,1,1,1,1,1,1,1,1,1,1,1,1,1,1,1,1,1,1,1,1,1,1,1,1,1,1,1,1,1,1,1,1,1,1,1,1,1,1,1,1,1,1,1,1,1,1,1,1,1,1,1,1,1,1,1,1,1,1,1,1,1,1,1,1,1,1,1,1,1,1,1,1,1,1,1,1,1,1,1,1,1,1,1,1,1,1,1,1,1,1,1,1,1,1,1,1,1,1,1,1,1,1,1,1,1,1,1,1,1,1,1,1,1,1,1,1,1,1,1,1,1,1,1,1,1,1,1,1,1,1,1,1,1,1,1,1,1,1,1,1,1,1,1,1,1,1,1,1,1,1,1,1,1,1,1,1,1,1,1,1,1,1,1,1,1,1,1,1,1,1,1,1,1,1,1,1,1,1,1,1,1,1,1,1,1,1,1,1,1,1,1,1,1,1,1,1,1,1,1,1,1,1,1,1,1,1,1,1,1,1,1,1,1,1,1,1,1,1,1,1,1,1,1,1,1,1,1,1,1,1,1,1,1,1,1,1,1,1,1,1,1,1,1,1,1,1,1,1,1,1,1,1,1,1,1,1,1,1,1,1,1,1,1,1,1,1,1,1,1,1,1,1,1,1,1,1,1,1,1,1,1,1,1,1,1,1,1,1,1,1,1,1,1,1,1,1,1,1,1,1,1,1,1,1,1,1,1,1,1,1,1,1,1,1,1,1,1,1,1,1,1,1,1,1,1,1,1,1,1,1,1,1,1,1,1,1,1,1,1,1,1,1,1,1,1,1,1,1,1,1,1,1,1,1,1,1,1,1,1,1,1,1,1,1,1,1,1,1,1,1,1,1,1,1,1,1,1,1,1,1,1,1,1,1,1,1,1,1,1,1,1,1,1,1,1,1,1,1,1,1,1,1,1,1,1,1,1,1,1,1,1,1,1,1,1,1,1,1,1,1,1,1,1,1,1,1,1,1,1,1,1,1,1,1,1,1,1,1,1,1,1,1,1,1,1,1,1,1,1,1,1,1,1,1,1,1,1,1,1,1,1,1,1,1,1,1,1,1,1,1,1,1,1,1,1,1,1,1,1,1,1,1,1,1,1,1,1,1,1,1,1,1,1,1,1,1,1,1,1,1,1,1,1,1,1,1,1,1,1,1,1,1,1,1,1,1,1,1,1,1,1,1,1,1,1,1,1,1,1,1,1,1,1,1,1,1,1,1,1,1,1,1,1,1,1,1,1,1,1,1,1,1,1,1,1,1,1,1,1,1,1,1,1,1,1,1,1,1,1,1,1,1,1,1,1,1,1,1,1,1,1,1,1,1,1,1,1,1,1,1,1,1,1,1,1,1,1,1,1,1,1,1,1,1,1,1,1,1,1,1,1,1,1,1,1,1,1,1,1,1,1,1,1,1,1,1,1,1,1,1,1,1,1,1,1,1,1,1,1,1,1,1,1,1,1,1,1,1,1,1,1,1,1,1,1,1,1,1,1,1,1,1,1,1,1,1,1,1,1,1,1,1,1,1,1,1,1,1,1,1,1,1,1,1,1,1,1,1,1,1,1,1,1,1,1,1,1,1,1,1,1,1,1,1,1,1,1,1,1,1,1,1,1,1,1,1,1,1,1,1,1,1,1,1,1,1,1,1,1,1,1,1,1,1,1,1,1,1,1,1,1,1,1,1,1,1,1,1,1,1,1,1,1,1,1,1,1,1,1,1,1,1,1,1,1,1,1,1,1,1,1,1,1,1,1,1,1,1,1,1,1,1,1,1,1,1,1,1,1,1,1,1,1,1,1,1,1,1,1,1,1,1,1,1,1,1,1,1,1,1,1,1,1,1,1,1,1,1,1,1,1,1,1,1,1,1,1,1,1,1,1,1,1,1,1,1,1,1,1,1,1,1,1,1,1,1,1,1,1,1,1,1,1,1,1,1,1,1,1,1,1,1,1,1,1,1,1,1,1,1,1,1,1,1,1,1,1,1,1,1,1,1,1,1,1,1,1,1,1,1,1,1,1,1,1,1,1,1,1,1,1,1,1,1,1,1,1,1,1,1,1,1,1,1,1,1,1,1,1,1,1,1,1,1,1,1,1,1,1,1,1,1,1,1,1,1,1,1,1,1,1,1,1,1,1,1,1,1,1,1,1,1,1,1,1,1,1,1,1,1,1,1,1,1,1,1,1,1,1,1,1,1,1,1,1,1,1,1,1,1,1,1,1,1,1,1,1,1,1,1,1,1,1,1,1,1,1,1,1,1,1,1,1,1,1,1,1,1,1,1,1,1,1,1,1,1,1,1,1,1,1,1,1,1,1,1,1,1,1,1,1,1,1,1,1,1,1,1,1,1,1,1,1,1,1,1,1,1,1,1,1,1,1,1,1,1,1,1,1,1,1,1,1,1,1,1,1,1,1,1,1,1,1,1,1,1,1,1,1,1,1,1,1,1,1,1,1,1,1,1,1,1,1,1,1,1,1,1,1,1,1,1,1,1,1,1,1,1,1,1,1,1,1,1,1,1,1,1,1,1,1,1,1,1,1,1,1,1,1,1,1,1,1,1,1,1,1,1,1,1,1,1,1,1,1,1,1,1,1,1,1,1,1,1,1,1,1,1,1,1,1,1,1,1,1,1,1,1,1,1,1,1,1,1,1,1,1,1,1,1,1,1,1,1,1,1,1,1,1,1,1,1,1,1,1,1,1,1,1,1,1,1,1,1,1,1,1,1,1,1,1,1,1,1,1,1,1,1,1,1,1,1,1,1,1,1,1,1,1,1,1,1,1,1,1,1,1,1,1,1,1,1,1,1,1,1,1,1,1,1,1,1,1,1,1,1,1,1,1,1,1,1,1,1,1,1,1,1,1,1,1,1,1,1,1,1,1,1,1,1,1,1,1,1,1,1,1,1,1,1,1,1,1,1,1,1,1,1,1,1,1,1,1,1,1,1,1,1,1,1,1,1,1,1,1,1,1,1,1,1,1,1,1,1,1,1,1,1,1,1,1,1,1,1,1,1,1,1,1,1,1,1,1,1,1,1,1,1,1,1,1,1,1,1,1,1,1,1,1,1,1,1,1,1,1,1,1,1,1,1,1,1,1,1,1,1,1,1,1,1,1,1,1,1,1,1,1,1,1,1,1,1,1,1,1,1,1,1,1,1,1,1,1,1,1,1,1,1,1,1,1,1,1,1,1,1,1,1,1,1,1,1,1,1,1,1,1,1,1,1,1,1,1,1,1,1,1,1,1,1,1,1,1,1,1,1,1,1,1,1,1,1,1,1,1,1,1,1,1,1,1,1,1,1,1,1,1,1,1,1,1,1,1,1,1,1,1,1,1,1,1,1,1,1,1,1,1,1,1,1,1,1,1,1,1,1,1,1,1,1,1,1,1,1,1,1,1,1,1,1,1,1,1,1,1,1,1,1,1,1,1,1,1,1,1,1,1,1,1,1,1,1,1,1,1,1,1,1,1,1,1,1,1,1,1,1,1,1,1,1,1,1,1,1,1,1,1,1,1,1,1,1,1,1,1,1,1,1,1,1,1,1,1,1,1,1,1,1,1,1,1,1,1,1,1,1,1,1,1,1,1,1,1,1,1,1,1,1,1,1,1,1,1,1,1,1,1,1,1,1,1,1,1,1,1,1,1,1,1,1,1,1,1,1,1,1,1,1,1,1,1,1,1,1,1,1,1,1,1,1,1,1,1,1,1,1,1,1,1,1,1,1,1,1,1,1,1,1,1,1,1,1,1,1,1,1,1,1,1,1,1,1,1,1,1,1,1,1,1,1,1,1,1,1,1,1,1,1,1,1,1,1,1,1,1,1,1,1,1,1,1,1,1,1,1,1,1,1,1,1,1,1,1,1,1,1,1,1,1,1,1,1,1,1,1,1,1,1,1,1,1,1,1,1,1,1,1,1,1,1,1,1,1,1,1,1,1,1,1,1,1,1,1,1,1,1,1,1,1,1,1,1,1,1,1,1,1,1,1,1,1,1,1,1,1,1,1,1,1,1,1,1,1,1,1,1,1,1,1,1,1,1,1,1,1,1,1,1,1,1,1,1,1,1,1,1,1,1,1,1,1,1,1,1,1,1,1,1,1,1,1,1,1,1,1,1,1,1,1,1,1,1,1,1,1,1,1,1,1,1,1,1,1,1,1,1,1,1,1,1,1,1,1,1,1,1,1,1,1,1,1,1,1,1,1,1,1,1,1,1,1,1,1,1,1,1,1,1,1,1,1,1,1,1,1,1,1,1,1,1,1,1,1,1,1,1,1,1,1,1,1,1,1,1,1,1,1,1,1,1,1,1,1,1,1,1,1,1,1,1,1,1,1,1,1,1,1,1,1,1,1,1,1,1,1,1,1,1,1,1,1,1,1,1,1,1,1,1,1,1,1,1,1,1,1,1,1,1,1,1,1,1,1,1,1,1,1,1,1,1,1,1,1,1,1,1,1,1,1,1,1,1,1,1,1,1,1,1,1,1,1,1,1,1,1,1,1,1,1,1,1,1,1,1,1,1,1,1,1,1,1,1,1,1,1,1,1,1,1,1,1,1,1,1,1,1,1,1,1,1,1,1,1,1,1,1,1,1,1,1,1,1,1,1,1,1,1,1,1,1,1,1,1,1,1,1,1,1,1,1,1,1,1,1,1,1,1,1,1,1,1,1,1,1,1,1,1,1,1,1,1,1,1,1,1,1,1,1,1,1,1,1,1,1,1,1,1,1,1,1,1,1,1,1,1,1,1,1,1,1,1,1,1,1,1,1,1,1,1,1,1,1,1,1,1,1,1,1,1,1,1,1,1,1,1,1,1,1,1,1,1,1,1,1,1,1,1,1,1,1,1,1,1,1,1,1,1,1,1,1,1,1,1,1,1,1,1,1,1,1,1,1,1,1,1,1,1,1,1,1,1,1,1,1,1,1,1,1,1,1,1,1,1,1,1,1,1,1,1,1,1,1,1,1,1,1,1,1,1,1,1,1,1,1,1,1,1,1,1,1,1,1,1,1,1,1,1,1,1,1,1,1,1,1,1,1,1,1,1,1,1,1,1,1,1,1,1,1,1,1,
1.27110e-01,1.11317e-01,9.24460e-02,8.56842e-02,1.11821e-01,7.98853e-02,7.45716e-02,7.45082e-02,9.56744e-02,7.17124e-02,4.68562e-02,1.27131e-02,3.88564e-02,1.94983e-02,-4.45702e-03,2.13474e-02,-3.05020e-03,3.97222e-03,-6.01203e-03,-1.01003e-02,7.71536e-03,2.83064e-03,4.61138e-02,3.62084e-02,6.14321e-02,7.70778e-02,9.61028e-02,1.14121e-01,6.69701e-02,6.71519e-02,9.91901e-02,1.29923e-01,9.68991e-02,8.02724e-02,5.76943e-02,3.33467e-02,6.70239e-02,3.69916e-02,2.84576e-02,1.34233e-02,3.54123e-02,3.22280e-02,2.11194e-02,-2.81037e-03,-2.11584e-02,-1.88708e-02,-2.93092e-02,-4.40955e-02,-4.85324e-02,-4.00672e-02,-4.98032e-02,-2.66461e-02,9.60300e-03,-1.48806e-02,-1.52610e-02,-2.69312e-02,4.38319e-04,3.58026e-02,5.68452e-02,6.28979e-02,4.07125e-02,4.34834e-02,5.50119e-02,5.43808e-02,5.95120e-02,2.13391e-02,5.38681e-02,3.44833e-02,5.34886e-02,8.76378e-03,1.29307e-02,1.21567e-02,1.15888e-02,3.98206e-03,-1.20089e-02,-2.40205e-02,-2.43734e-02,-5.53248e-02,-5.88930e-02,-7.51827e-02,-8.14138e-02,-7.58829e-02,-5.97459e-02,-6.01169e-02,-2.73327e-02,-4.12766e-02,-3.36487e-02,-3.78386e-02,-1.57215e-02,8.60215e-03,3.31368e-02,3.98681e-02,2.04784e-02,-1.21025e-02,4.96336e-02,5.59549e-02,5.39848e-02,4.53540e-02,5.52356e-02,3.60088e-02,7.05798e-02,2.25983e-02,3.07580e-02,3.17897e-02,2.74890e-02,-1.60026e-03,-1.81830e-02,-1.52219e-02,-4.14807e-02,-5.09421e-02,-5.26706e-02,-1.39959e-02,-5.73571e-02,-4.42875e-02,-4.91579e-02,-3.64709e-02,-2.92888e-02,-2.71333e-02,-8.53030e-03,1.46434e-02,1.53750e-02,3.04474e-02,5.48498e-02,7.70475e-02,2.03912e-02,9.52152e-03,4.24502e-02,3.08238e-02,9.60577e-02,6.81642e-02,9.72703e-02,1.13500e-01,1.31930e-01,9.89238e-02,1.08491e-01,9.24805e-02,1.03201e-01,7.82607e-02,5.28076e-02,4.11673e-02,2.74680e-02,3.14531e-03,1.04095e-02,4.08126e-02,3.67765e-02,1.86022e-02,4.81081e-02,5.05832e-02,6.02203e-02,6.59783e-02,8.50753e-02,8.31529e-02,1.03268e-01,1.18918e-01,1.12073e-01,1.38334e-01,9.28553e-02,5.14109e-02,5.48868e-02,6.40103e-02,3.03720e-02,5.13659e-02,3.21564e-02,3.77181e-02,7.66526e-02,7.63678e-02,6.07953e-02,4.02633e-02,4.90108e-02,3.58741e-02,1.56244e-02,-2.15999e-02,-4.67834e-02,-7.33166e-02,-3.70275e-02,-5.00107e-02,-3.86556e-02,-5.03990e-02,-2.37160e-02,-3.90335e-04,-4.77145e-03,-1.07538e-02,3.37065e-02,3.81725e-02,3.33660e-02,3.65901e-02,8.30483e-02,9.96949e-02,3.26107e-02,1.11697e-02,8.48918e-03,3.84115e-02,1.61953e-02,-8.23966e-03,-4.64736e-03,4.25445e-03,5.51062e-02,1.57174e-02,1.50848e-02,2.17575e-02,1.52495e-02,-1.14266e-02,-1.31269e-02,-3.57663e-02,-6.46957e-02,-7.30340e-02,-1.03667e-01,-8.16897e-02,-1.09017e-01,-9.22554e-02,-7.34898e-02,-4.28198e-02,-3.47113e-02,-3.45572e-02,3.96914e-03,-1.24996e-02,-1.98435e-02,1.33531e-02,3.87584e-02,3.90791e-02,-1.38627e-03,-1.17555e-02,3.84651e-03,1.97660e-02,-2.16679e-02,-3.05685e-02,1.73157e-03,-1.51976e-02,4.37172e-02,9.94575e-03,9.19764e-03,1.86875e-02,8.16931e-03,1.21622e-03,-4.26420e-02,-9.05065e-02,-7.42156e-02,-8.09772e-02,-1.02154e-01,-1.07477e-01,-1.08541e-01,-1.00020e-01,-1.02677e-01,-8.13704e-02,-7.25929e-02,-4.70466e-02,-3.98147e-02,-4.91147e-02,-4.21005e-02,-1.44770e-02,1.12060e-02,2.35268e-02,-3.26824e-02,-3.75662e-02,-1.06752e-02,-4.01802e-03,-3.47295e-02,-2.10575e-02,2.49881e-03,-2.67917e-02,9.86380e-03,-1.86666e-02,-3.96507e-02,-2.38051e-02,-3.00109e-02,-3.32528e-02,-5.36830e-02,-8.88031e-02,-1.00635e-01,-1.39820e-01,-1.28953e-01,-1.26990e-01,-1.26932e-01,-1.15342e-01,-1.11438e-01,-8.24456e-02,-8.30748e-02,-8.24706e-02,-4.91607e-02,-3.37080e-02,-2.11930e-02,-3.34883e-02,-2.24685e-02,8.89980e-03,-1.84884e-02,-3.62503e-02,-4.22340e-02,-1.99118e-02,-2.70299e-02,-3.79653e-02,-2.02614e-02,-2.78766e-02,1.55949e-02,3.40122e-03,-1.79621e-02,-3.48502e-02,-2.59370e-02,-3.10747e-02,-9.83791e-02,-1.06583e-01,-9.69409e-02,-1.30187e-01,-1.67790e-01,-1.64131e-01,-1.52876e-01,-1.75183e-01,-1.64764e-01,-1.44383e-01,-9.41290e-02,-9.32255e-02,-9.13439e-02,-6.04899e-02,-7.09369e-02,-3.35614e-02,-1.93813e-02,-1.14043e-02,-2.91854e-02,-6.31753e-02,-4.91262e-02,-5.01833e-02,-6.92645e-02,-4.24640e-02,-3.66451e-02,-4.47813e-02,2.82378e-02,-1.53916e-02,-3.93769e-02,-5.86568e-02,-5.97663e-02,-8.35604e-02,-9.26922e-02,-1.24853e-01,-1.50245e-01,-1.76027e-01,-1.91538e-01,-2.01480e-01,-2.21389e-01,-1.96406e-01,-2.03740e-01,-1.67376e-01,-1.55984e-01,-1.14421e-01,-1.14687e-01,-1.13261e-01,-9.16589e-02,-4.14368e-02,-2.44778e-02,-1.59127e-02,-4.87784e-02,-3.64804e-02,-3.18680e-02,-5.38961e-02,-6.75818e-02,-5.87686e-02,-2.89352e-02,-7.56298e-02,2.48051e-03,-7.87515e-02,-8.08882e-02,-8.10061e-02,-1.04715e-01,-9.13975e-02,-1.35009e-01,-1.74965e-01,-1.88152e-01,-2.17637e-01,-2.26262e-01,-2.40994e-01,-2.39688e-01,-2.45784e-01,-2.19119e-01,-2.09955e-01,-2.13800e-01,-1.78337e-01,-1.59145e-01,-1.43141e-01,-1.24352e-01,-8.69782e-02,-4.34534e-02,-5.95040e-03,-4.24360e-02,-3.87487e-02,-5.43997e-02,-4.62973e-02,-1.14628e-01,-9.62714e-02,-5.45595e-02,-1.00447e-01,-2.24658e-02,-8.56933e-02,-9.54637e-02,-1.02538e-01,-8.90911e-02,-1.46992e-01,-1.81377e-01,-2.04545e-01,-1.96136e-01,-2.08950e-01,-2.38813e-01,-2.57758e-01,-2.49150e-01,-2.24595e-01,-2.55567e-01,-2.43790e-01,-2.22745e-01,-2.17006e-01,-1.89725e-01,-1.50753e-01,-1.61793e-01,-1.45932e-01,-5.74088e-02,-2.83669e-02,-8.20060e-02,-5.35663e-02,-4.29454e-02,-6.36429e-02,-8.94846e-02,-9.58812e-02,-7.60157e-02,-9.41025e-02,-2.53138e-02,-9.07806e-02,-7.75311e-02,-1.09943e-01,-1.24641e-01,-1.85349e-01,-2.19895e-01,-2.18093e-01,-2.29051e-01,-2.15987e-01,-2.13401e-01,-2.04434e-01,-2.20919e-01,-2.57373e-01,-2.57130e-01,-2.59130e-01,-2.51618e-01,-2.30274e-01,-2.04557e-01,-1.74386e-01,-1.71372e-01,-1.36148e-01,-1.04918e-01,-2.69313e-02,-7.35642e-02,-6.00075e-02,-7.59330e-02,-6.36982e-02,-8.22518e-02,-1.01757e-01,-8.64525e-02,-7.14680e-02,-1.55621e-02,-8.88291e-02,-9.81636e-02,-9.71032e-02,-1.49483e-01,-2.03749e-01,-2.28445e-01,-2.18510e-01,-2.21966e-01,-2.05631e-01,-2.26117e-01,-2.19437e-01,-2.37282e-01,-2.60602e-01,-2.85275e-01,-3.07781e-01,-2.65559e-01,-2.61554e-01,-2.51418e-01,-2.01692e-01,-1.49525e-01,-1.51409e-01,-8.81519e-02,-4.41416e-02,-8.91970e-02,-9.95334e-02,-6.79559e-02,-5.73538e-02,-9.05894e-02,-6.59773e-02,-7.98305e-02,-5.92178e-02,-7.57072e-03,-6.06484e-02,-9.28321e-02,-1.13864e-01,-1.73345e-01,-1.82542e-01,-2.19638e-01,-2.15689e-01,-2.28139e-01,-2.09369e-01,-2.07200e-01,-1.87252e-01,-1.86207e-01,-2.43497e-01,-2.79695e-01,-2.69085e-01,-2.48430e-01,-2.46465e-01,-2.32852e-01,-1.93414e-01,-1.60519e-01,-1.10129e-01,-9.36339e-02,-4.15051e-02,-1.14265e-01,-9.55005e-02,-8.91662e-02,-8.28062e-02,-8.52506e-02,-6.80048e-02,-8.29524e-02,-6.06759e-02,-2.06688e-02,-6.86032e-02,-1.06880e-01,-1.25708e-01,-1.78789e-01,-1.88328e-01,-2.31049e-01,-2.47118e-01,-2.54097e-01,-2.26930e-01,-2.14103e-01,-1.89280e-01,-1.83745e-01,-2.08294e-01,-2.31699e-01,-2.72418e-01,-2.51215e-01,-2.30601e-01,-2.43616e-01,-2.12575e-01,-1.66509e-01,-1.05222e-01,-9.04203e-02,-5.39667e-02,-1.12872e-01,-1.12468e-01,-7.73380e-02,-9.62997e-02,-8.83113e-02,-1.03403e-01,-7.51617e-02,-8.00019e-02,-4.53158e-02,-6.90291e-02,-1.21866e-01,-1.36875e-01,-1.68373e-01,-2.06670e-01,-2.36062e-01,-2.61626e-01,-2.75255e-01,-2.36335e-01,-2.28515e-01,-1.83801e-01,-1.61388e-01,-1.91764e-01,-2.30286e-01,-2.48701e-01,-2.32038e-01,-2.37396e-01,-2.09241e-01,-2.01655e-01,-1.82130e-01,-1.56714e-01,-1.06970e-01,-7.91674e-02,-1.07981e-01,-1.03651e-01,-7.70037e-02,-8.40335e-02,-1.08621e-01,-9.40765e-02,-6.28479e-02,-8.26478e-02,-5.11013e-02,-7.62963e-02,-1.11192e-01,-1.47746e-01,-1.41180e-01,-1.89344e-01,-2.37376e-01,-2.65386e-01,-2.82386e-01,-2.88158e-01,-2.23156e-01,-2.06669e-01,-1.94996e-01,-1.90157e-01,-2.30101e-01,-2.53569e-01,-2.51426e-01,-2.46349e-01,-2.18968e-01,-1.89773e-01,-1.45707e-01,-1.55070e-01,-1.40501e-01,-5.89221e-02,-1.12411e-01,-1.12847e-01,-9.59671e-02,-9.99777e-02,-1.08338e-01,-9.60592e-02,-7.78250e-02,-9.59360e-02,-5.26400e-02,-8.01773e-02,-1.16741e-01,-1.16748e-01,-1.47705e-01,-1.81657e-01,-2.59779e-01,-2.81649e-01,-3.03791e-01,-2.69808e-01,-2.57977e-01,-2.51511e-01,-2.51069e-01,-2.28722e-01,-2.55907e-01,-2.64864e-01,-2.69087e-01,-2.40521e-01,-2.33390e-01,-1.97762e-01,-1.66084e-01,-1.23031e-01,-9.32779e-02,-4.84411e-02,-1.05163e-01,-8.69667e-02,-7.46211e-02,-9.07067e-02,-9.28161e-02,-7.53956e-02,-7.87525e-02,-8.29295e-02,-1.09912e-02,-7.63255e-02,-1.00492e-01,-1.14431e-01,-1.46963e-01,-1.55728e-01,-2.29765e-01,-2.41675e-01,-2.80260e-01,-2.83927e-01,-2.59321e-01,-3.00054e-01,-2.91070e-01,-2.64491e-01,-2.69651e-01,-2.84177e-01,-2.62155e-01,-2.20310e-01,-2.30184e-01,-2.04229e-01,-1.55786e-01,-1.34718e-01,-1.28574e-01,-6.25077e-02,-1.09595e-01,-1.20450e-01,-9.25902e-02,-9.99884e-02,-8.89435e-02,-8.07682e-02,-9.57735e-02,-4.59177e-02,1.69317e-02,-5.10347e-02,-8.22447e-02,-9.08120e-02,-1.21925e-01,-1.47501e-01,-1.46872e-01,-2.24514e-01,-2.55615e-01,-2.49195e-01,-2.57598e-01,-2.64504e-01,-2.73246e-01,-2.55265e-01,-2.60763e-01,-2.40234e-01,-2.49977e-01,-1.96417e-01,-1.77763e-01,-1.63120e-01,-1.39826e-01,-1.12373e-01,-8.70216e-02,-4.47229e-02,-9.40084e-02,-9.15144e-02,-9.23904e-02,-9.57435e-02,-6.78799e-02,-8.59220e-02,-7.03442e-02,-5.85227e-02,2.86322e-02,-2.38384e-02,-5.95562e-02,-8.51202e-02,-1.17194e-01,-1.08120e-01,-1.32522e-01,-1.70530e-01,-1.99761e-01,-2.05872e-01,-2.10838e-01,-2.12941e-01,-2.22157e-01,-2.12918e-01,-1.84200e-01,-1.86239e-01,-1.61995e-01,-1.56381e-01,-1.37950e-01,-1.18492e-01,-9.70513e-02,-7.88092e-02,-7.29944e-02,1.73019e-02,-8.47807e-02,-8.30995e-02,-6.52712e-02,-7.95434e-02,-3.39294e-02,-7.14068e-02,-5.97377e-02,-1.64882e-02,5.76319e-02,-2.20555e-02,-2.27375e-02,-5.72926e-02,-7.85157e-02,-7.05121e-02,-1.24291e-01,-1.39324e-01,-1.75515e-01,-1.75633e-01,-2.08905e-01,-1.74678e-01,-1.96363e-01,-1.73010e-01,-1.63427e-01,-1.28755e-01,-1.17432e-01,-1.16903e-01,-1.35109e-01,-1.10752e-01,-8.15421e-02,-6.78335e-02,-2.84895e-02,3.01758e-02,-4.29780e-02,-7.57550e-02,-6.96318e-02,-7.42218e-02,-2.55516e-02,-4.39832e-02,-2.65688e-02,-3.43407e-02,3.01997e-02,7.28457e-03,-1.21723e-02,-2.30516e-02,-2.67808e-02,-9.13411e-02,-1.02309e-01,-1.15614e-01,-1.57081e-01,-1.60940e-01,-1.99231e-01,-1.98342e-01,-1.78601e-01,-1.95992e-01,-1.39625e-01,-1.28994e-01,-1.21482e-01,-1.17177e-01,-9.63252e-02,-7.98044e-02,-7.70484e-02,-4.19189e-02,-2.05951e-02,4.44290e-02,-1.26256e-02,-5.48881e-02,-5.90698e-02,-3.49019e-02,-1.20544e-02,-9.37774e-03,-1.72155e-03,-7.85893e-03,2.76171e-02,-1.52901e-02,-1.65822e-03,-1.51955e-02,-6.59249e-02,-8.73597e-02,-9.90685e-02,-8.39910e-02,-1.25424e-01,-1.44939e-01,-1.64237e-01,-1.68419e-01,-1.90230e-01,-1.76823e-01,-1.25285e-01,-9.51842e-02,-9.47613e-02,-8.74639e-02,-8.50111e-02,-8.13651e-02,-3.27242e-02,-2.61837e-02,-6.88021e-03,4.54801e-02,-2.65071e-02,-3.95168e-02,-1.72314e-02,-2.74875e-02,2.04421e-02,-6.04579e-04,-1.73979e-02,1.82070e-02,4.51908e-02,-8.20314e-03,-2.21138e-02,-2.36955e-02,-6.46192e-02,-5.90523e-02,-5.01366e-02,-6.93056e-02,-9.34748e-02,-1.44960e-01,-1.24436e-01,-1.52304e-01,-1.57882e-01,-1.52137e-01,-8.64207e-02,-9.87079e-02,-1.01247e-01,-8.87858e-02,-8.48982e-02,-6.13203e-02,-1.39610e-02,1.80829e-02,1.81900e-02,8.27460e-02,2.52886e-02,-3.25115e-02,-1.42377e-02,-4.60149e-03,6.86434e-02,3.98710e-02,3.87763e-02,1.82060e-02,9.34081e-02,4.72536e-02,1.16603e-02,-1.46536e-02,1.70539e-02,6.39202e-03,-3.26395e-02,-2.06133e-02,-3.06474e-02,-5.10793e-02,-7.41674e-02,-1.01606e-01,-7.48220e-02,-8.57737e-02,-2.40186e-02,-1.18350e-03,-2.62541e-02,-3.75694e-02,-1.95400e-02,-8.70309e-03,2.14995e-02,4.12351e-02,7.61220e-02,1.18305e-01,4.87364e-02,1.06280e-02,4.05466e-02,5.41808e-02,4.84134e-02,2.54086e-02,-4.11984e-03,-2.29206e-02,5.22321e-02,-5.19084e-03,-1.38044e-02,-3.36748e-02,-4.47155e-02,-4.16775e-02,-8.29752e-02,-1.00472e-01,-1.06176e-01,-1.00554e-01,-1.00255e-01,-1.27401e-01,-1.02478e-01,-1.05440e-01,-6.49002e-02,-4.49905e-02,-4.59178e-02,-3.30407e-02,-4.39988e-02,-8.88077e-03,-2.82682e-02,-1.77412e-02,-7.10805e-03,7.72239e-02,-1.39359e-02,-1.96573e-02,-9.33368e-03,1.28808e-02,5.76676e-02,2.71938e-02,-1.29750e-02,2.61465e-03,3.76548e-02,-1.50163e-02,-2.18262e-02,-1.98054e-02,-2.38224e-02,-4.36828e-02,-3.92562e-02,-6.77581e-02,-6.58919e-02,-9.04879e-02,-1.03647e-01,-8.34608e-02,-6.86151e-02,-7.49444e-02,-8.04687e-02,-1.01166e-01,-9.00333e-02,-4.59161e-02,-5.32805e-02,-1.22270e-02,-1.32376e-02,-2.82416e-02,-6.76700e-03,5.07438e-02,-8.07597e-03,-1.20599e-02,-2.30356e-02,-1.23638e-02,3.92543e-02,3.64691e-02,-3.32746e-04,3.14922e-02,7.75927e-02,3.68649e-02,-9.44008e-03,1.38029e-02,-1.33153e-03,9.27913e-03,-2.44156e-02,-4.74109e-02,-3.62225e-02,-7.31431e-02,-6.38225e-02,-7.48178e-02,-3.58822e-02,-7.83866e-02,-6.94798e-02,-9.08589e-02,-6.01381e-02,-3.71276e-02,-2.28812e-02,-1.69205e-02,2.35560e-03,9.39007e-04,-4.78455e-03,4.38612e-02,-1.81077e-02,-8.73092e-03,1.00050e-02,2.93990e-02,3.66448e-02,4.43464e-02,4.52739e-02,1.77868e-02,7.67003e-02,6.10343e-02,4.99241e-02,5.02396e-02,2.85412e-02,2.47135e-02,-1.91917e-02,-2.49302e-02,-2.57673e-02,-4.95463e-02,-7.53532e-02,-5.44541e-02,-5.75705e-02,-6.80563e-02,-5.13102e-02,-3.95618e-02,-2.43793e-02,-2.68120e-02,-9.77208e-03,2.92759e-03,9.41247e-03,1.38744e-02,3.30156e-02,6.36925e-02,3.67373e-02,-8.79907e-03,1.42901e-02,1.53764e-02,1.44084e-01,1.20404e-01,1.33683e-01,1.06171e-01,1.42450e-01,1.31377e-01,1.69889e-01,1.76196e-01,1.66161e-01,1.35259e-01,1.18620e-01,1.31312e-01,1.28026e-01,1.18304e-01,1.13741e-01,1.20907e-01,1.05484e-01,1.04123e-01,1.15104e-01,9.43939e-02,1.18349e-01,1.16060e-01,1.19749e-01,1.45412e-01,1.65969e-01,1.63810e-01,1.55890e-01,1.80785e-01,1.51046e-01,1.32842e-01,1.37257e-01,1.62486e-01,1.32645e-01,1.18002e-01,8.35280e-02,9.75380e-02,9.65157e-02,7.72559e-02,1.08517e-01,1.21592e-01,1.18415e-01,1.06172e-01,1.02581e-01,8.77137e-02,6.65487e-02,5.54764e-02,6.62645e-02,8.01877e-02,6.68919e-02,4.91263e-02,3.75891e-02,6.03334e-02,1.05820e-01,7.29893e-02,1.10776e-01,1.04385e-01,9.57841e-02,1.38966e-01,1.28815e-01,1.18574e-01,1.07780e-01,8.90098e-02,1.23620e-01,1.12533e-01,1.26396e-01,7.11585e-02,1.06743e-01,7.58088e-02,9.32672e-02,7.83129e-02,8.87662e-02,1.09829e-01,1.14035e-01,9.47587e-02,5.10871e-02,6.20673e-02,3.43157e-02,4.71461e-02,2.72653e-02,3.59949e-02,1.17916e-02,3.25759e-02,3.34654e-02,4.46362e-02,6.76430e-02,5.56711e-02,8.11643e-02,7.92290e-02,9.63016e-02,1.14038e-01,9.72420e-02,9.29483e-02,1.01976e-01,8.25581e-02,1.01212e-01,1.35458e-01,1.27401e-01,1.07709e-01,1.21176e-01,1.02734e-01,1.07713e-01,9.01785e-02,1.06497e-01,9.10149e-02,9.29181e-02,9.12631e-02,4.78795e-02,6.62098e-02,3.24536e-02,3.05798e-02,1.01748e-02,1.81949e-02,5.17645e-03,2.97535e-02,2.31820e-02,4.47554e-02,6.93401e-02,8.42694e-02,1.04273e-01,1.25337e-01,1.16280e-01,1.40992e-01,1.19550e-01,1.16128e-01,9.72434e-02,1.04617e-01,1.03573e-01,1.14921e-01,1.49503e-01,1.46032e-01,1.31869e-01,1.38200e-01,1.42841e-01,1.52911e-01,1.66726e-01,1.57601e-01,1.58296e-01,1.58073e-01,9.67571e-02,1.01620e-01,6.56598e-02,4.53814e-02,5.94403e-02,4.67813e-02,3.47173e-02,4.40439e-02,7.39931e-02,9.52983e-02,1.28270e-01,1.30041e-01,1.28834e-01,1.39601e-01,1.52794e-01,1.73911e-01,1.64525e-01,1.69746e-01,1.35321e-01,1.16817e-01,1.33844e-01,1.33781e-01,1.25109e-01,1.10961e-01,1.12958e-01,1.20023e-01,1.39411e-01,1.55517e-01,1.46234e-01,1.33745e-01,1.08431e-01,9.97773e-02,8.83845e-02,7.83719e-02,4.00207e-02,-9.14838e-03,1.61018e-02,-9.90843e-03,-1.07242e-02,8.70170e-03,1.79546e-02,6.36970e-02,8.00900e-02,9.12184e-02,1.34377e-01,1.40849e-01,1.63941e-01,1.27053e-01,1.40457e-01,1.53881e-01,1.00560e-01,1.15999e-01,1.30011e-01,1.35980e-01,1.31499e-01,1.08732e-01,1.04744e-01,9.26939e-02,1.09300e-01,1.18132e-01,1.07907e-01,1.28818e-01,9.88765e-02,7.87490e-02,8.03047e-02,8.12236e-02,5.94049e-02,1.44487e-02,-1.52657e-02,-1.75833e-02,-1.84935e-02,-2.48341e-02,5.63740e-03,5.92252e-02,6.41759e-02,7.32158e-02,8.94707e-02,1.29925e-01,1.20663e-01,1.16211e-01,1.26063e-01,1.17415e-01,8.37002e-02,9.76553e-02,1.19084e-01,1.38151e-01,1.27032e-01,8.70493e-02,7.65049e-02,1.09542e-01,1.06303e-01,8.49131e-02,9.76088e-02,1.00589e-01,9.91540e-02,1.19473e-01,9.75722e-02,3.08073e-02,3.30627e-02,2.52792e-02,1.18012e-02,-4.38124e-03,2.94711e-03,-2.64308e-02,1.62459e-02,4.78475e-02,7.55587e-02,9.07640e-02,1.20879e-01,1.13083e-01,1.03339e-01,9.18877e-02,8.98208e-02,1.05738e-01,5.98507e-02,7.85001e-02,1.04569e-01,1.42350e-01,1.05029e-01,9.66867e-02,9.59435e-02,8.13740e-02,9.26341e-02,1.01034e-01,9.87939e-02,1.07599e-01,1.02845e-01,7.95237e-02,7.17609e-02,6.60084e-02,3.39613e-02,2.05654e-02,5.02586e-03,9.68692e-03,-4.36518e-03,4.16670e-03,1.99937e-02,3.25284e-02,6.53536e-02,6.73225e-02,9.98468e-02,8.27190e-02,1.02399e-01,1.05912e-01,9.57258e-02,7.34008e-02,7.59863e-02,4.53765e-02,8.41390e-02,1.27090e-01,1.23978e-01,8.96235e-02,6.85723e-02,6.59420e-02,9.76265e-02,9.58437e-02,9.53585e-02,8.28787e-02,9.92486e-02,6.91764e-02,5.78426e-02,6.81681e-02,4.75239e-02,2.63028e-02,-1.95308e-02,-3.50320e-02,-2.19984e-02,4.92508e-03,-1.36435e-02,2.25837e-02,4.74635e-02,2.88153e-02,6.51076e-02,7.65343e-02,9.92454e-02,8.27893e-02,8.75385e-02,8.78728e-02,7.39111e-02,5.14860e-02,7.00399e-02,1.04900e-01,9.07438e-02,7.18486e-02,9.40521e-02,7.76848e-02,1.06189e-01,9.49289e-02,6.68340e-02,6.28673e-02,8.96974e-02,6.36698e-02,5.57528e-02,5.46615e-02,2.13946e-02,-1.21924e-02,-3.38431e-02,-3.47423e-02,-5.37087e-02,-2.64268e-02,-1.02093e-02,-3.74277e-03,1.13534e-02,4.68592e-02,5.72347e-03,2.54082e-02,4.89787e-02,8.06853e-02,1.03025e-01,1.09069e-01,3.88329e-02,8.81822e-02,7.71492e-02,1.04317e-01,1.03382e-01,8.24148e-02,6.90816e-02,6.31904e-02,7.45229e-02,6.73586e-02,5.50170e-02,6.91984e-02,6.77721e-02,5.45516e-02,4.33406e-02,4.44539e-02,6.36375e-03,-1.40611e-02,-4.68240e-02,-5.02251e-02,-6.22649e-02,-5.47239e-02,-3.42105e-02,-2.70028e-02,-2.03547e-02,-1.72250e-03,3.44731e-02,3.85744e-02,2.93332e-02,5.18063e-02,6.39635e-02,9.24588e-02,7.70927e-02,7.95355e-02,1.08642e-01,9.75568e-02,6.17144e-02,4.27153e-02,4.85781e-02,5.06572e-02,6.11884e-02,4.60833e-02,4.86145e-02,5.00374e-02,6.20154e-02,2.42371e-02,3.64112e-02,1.20709e-02,-6.42921e-03,-3.26425e-02,-3.30991e-02,-7.49398e-02,-6.71081e-02,-6.02426e-02,-6.92241e-02,-7.50615e-02,-5.18677e-02,-1.07344e-02,7.14536e-03,-8.67438e-03,-2.52970e-03,2.56244e-02,4.71967e-02,8.96058e-02,4.76683e-02,7.06817e-02,8.29580e-02,1.01240e-01,9.64431e-02,6.27507e-02,5.97769e-02,4.02497e-02,6.04706e-02,5.79127e-02,3.36143e-02,4.53661e-02,2.90990e-02,1.25036e-02,-2.69825e-02,-1.43079e-02,-3.10220e-02,-4.10759e-02,-7.11602e-02,-8.97533e-02,-1.00614e-01,-8.14025e-02,-1.07835e-01,-9.73097e-02,-7.54003e-02,-6.00887e-02,-3.76108e-02,9.18861e-03,2.50192e-02,1.25190e-03,3.50155e-02,7.64178e-02,4.97895e-02,6.44017e-02,6.60308e-02,9.36482e-02,8.39482e-02,3.75357e-02,4.56333e-02,3.21493e-02,5.99725e-02,5.71329e-02,3.18917e-02,4.24190e-02,1.53208e-02,-2.10628e-02,-3.95773e-02,-4.81665e-02,-4.48370e-02,-9.17929e-02,-7.72565e-02,-7.70342e-02,-8.85389e-02,-1.33839e-01,-1.28940e-01,-1.42236e-01,-9.34727e-02,-7.03334e-02,-5.36271e-02,-2.87541e-02,-5.55632e-03,1.99615e-02,5.37125e-02,7.89296e-02,5.60429e-02,3.62947e-02,8.62001e-02,1.22929e-01,9.02565e-02,5.42696e-02,5.52784e-02,4.89655e-02,6.59417e-02,4.37655e-02,3.22365e-02,1.96795e-02,-1.98679e-03,-2.52562e-02,-6.32445e-02,-4.50586e-02,-1.01889e-01,-1.18395e-01,-1.05659e-01,-8.98962e-02,-8.42948e-02,-1.28249e-01,-1.48007e-01,-1.40064e-01,-1.05526e-01,-5.41949e-02,-3.94116e-02,-5.67994e-03,7.24215e-03,3.45499e-02,4.69944e-02,7.07218e-02,5.22243e-02,5.60327e-02,8.53382e-02,1.01597e-01,8.15419e-02,6.35849e-02,4.98844e-02,6.24993e-02,7.94692e-02,6.68824e-02,6.60022e-02,2.57186e-02,-2.35570e-02,-3.73021e-02,-7.33357e-02,-1.06403e-01,-1.31742e-01,-1.25756e-01,-9.99727e-02,-8.17188e-02,-9.56735e-02,-9.52991e-02,-1.19120e-01,-1.15229e-01,-9.43908e-02,-5.97911e-02,-7.01629e-02,-3.51709e-02,1.61625e-02,2.04431e-02,4.82719e-02,6.86693e-02,5.91763e-02,7.57634e-02,8.83620e-02,1.33132e-01,9.16144e-02,7.16493e-02,6.20460e-02,2.19813e-02,3.30850e-02,2.42150e-02,1.70806e-02,3.98691e-02,7.25921e-03,-5.15711e-02,-7.74280e-02,-1.01748e-01,-1.22199e-01,-1.13581e-01,-1.07435e-01,-8.99799e-02,-7.02943e-02,-8.54744e-02,-1.14713e-01,-1.12916e-01,-6.32844e-02,-9.59195e-02,-4.73542e-02,-1.37180e-02,1.04223e-02,1.83684e-02,3.54605e-02,7.44818e-02,4.40768e-02,5.91858e-02,8.75886e-02,1.10987e-01,9.27029e-02,4.25600e-02,5.84214e-02,4.63586e-02,5.15416e-02,4.63375e-02,3.44427e-02,1.80628e-02,1.14465e-02,-2.67804e-02,-7.30810e-02,-8.91676e-02,-1.15456e-01,-1.22490e-01,-9.94145e-02,-8.74003e-02,-7.33056e-02,-8.76421e-02,-9.66965e-02,-9.66841e-02,-5.88454e-02,-6.70454e-02,-6.63390e-02,-6.84478e-03,3.72290e-02,2.78703e-02,1.70478e-02,7.66179e-02,4.11946e-02,5.62643e-02,8.82241e-02,8.59020e-02,7.17334e-02,4.56196e-02,5.18119e-02,2.19565e-02,5.13891e-02,2.21422e-02,1.62278e-02,6.07559e-03,8.43941e-03,-2.19761e-02,-7.62086e-02,-7.12353e-02,-1.07767e-01,-1.18517e-01,-1.22987e-01,-1.25465e-01,-1.02503e-01,-9.98645e-02,-9.03973e-02,-9.78377e-02,-9.22551e-02,-6.08965e-02,-5.98236e-02,-4.44611e-02,-1.94736e-03,1.80729e-02,1.48716e-02,5.67341e-02,5.15962e-02,4.77062e-02,9.44026e-02,1.03167e-01,6.92208e-02,7.28249e-02,2.93440e-02,5.12668e-02,5.16264e-02,3.87952e-02,2.39454e-02,1.32134e-02,-2.42589e-02,-2.85199e-02,-6.60820e-02,-4.52687e-02,-8.26500e-02,-8.74239e-02,-7.99455e-02,-1.12501e-01,-1.21029e-01,-9.72672e-02,-7.94972e-02,-7.10575e-02,-7.97724e-02,-4.84858e-02,-7.44740e-02,-5.11072e-02,-2.82783e-02,1.76273e-03,5.38200e-03,3.59270e-02,4.07280e-02,6.49999e-02,7.06787e-02,9.28736e-02,7.20496e-02,4.02655e-02,2.93568e-02,3.43021e-02,8.84878e-02,6.49627e-02,6.03212e-03,1.60965e-02,-8.95904e-04,2.51248e-04,-3.33223e-02,-3.94908e-02,-6.84439e-02,-5.82299e-02,-9.56046e-02,-9.01937e-02,-7.52889e-02,-1.05142e-01,-9.78676e-02,-9.78173e-02,-5.73377e-02,-5.48756e-02,-3.92259e-02,-3.67278e-02,2.29024e-03,5.30716e-06,1.66077e-02,3.86553e-02,5.79904e-03,5.28151e-02,5.68733e-02,7.06365e-02,9.53316e-02,3.80495e-02,5.22847e-02,7.38865e-02,7.37486e-02,4.66452e-02,1.79551e-02,7.24507e-04,-1.30988e-03,-2.18473e-03,2.71947e-03,-2.22768e-02,-3.72885e-02,-5.18553e-02,-6.23427e-02,-5.30054e-02,-6.29855e-02,-7.53808e-02,-7.45151e-02,-4.14632e-02,-5.67844e-02,-3.73971e-02,-1.49739e-02,-1.52570e-02,2.34492e-02,3.11463e-02,3.67338e-02,7.99713e-02,4.84863e-02,6.08692e-02,6.49788e-02,1.05084e-01,9.34143e-02,4.75585e-02,4.00210e-02,4.43380e-02,9.52878e-02,5.46698e-02,3.97262e-02,3.64407e-02,2.16810e-02,2.19029e-02,-1.84832e-04,-1.35997e-02,-4.34276e-02,-4.83905e-02,-5.42478e-02,-6.06186e-02,-6.52967e-02,-5.25349e-02,-4.64437e-02,-2.57738e-02,-3.82393e-02,-2.03152e-02,-2.79682e-02,-7.07189e-04,6.04682e-03,4.45081e-02,7.37237e-02,8.92699e-02,6.75954e-02,3.30751e-02,8.17845e-02,1.22384e-01,9.73603e-02,4.97326e-02,3.72700e-02,4.37584e-02,9.18728e-02,6.76221e-02,7.17315e-02,3.75271e-02,4.60903e-02,2.08501e-02,8.27252e-03,-1.75635e-02,-4.44383e-02,-5.28009e-02,-4.50112e-02,-5.47167e-02,-6.61557e-02,-7.79576e-02,-3.87507e-02,-3.82609e-02,2.54114e-03,-2.26246e-02,-1.79848e-02,-1.86526e-02,2.31310e-02,9.53290e-03,5.36387e-02,1.13758e-01,5.65969e-02,5.57050e-02,9.91454e-02,1.03624e-01,1.13200e-01,6.82106e-02,5.14707e-02,5.84601e-02,7.37186e-02,6.52222e-02,6.31959e-02,4.77686e-02,1.95759e-02,2.87064e-02,5.16064e-03,2.11138e-03,-2.89021e-02,-4.88353e-02,-3.46919e-02,-3.39982e-02,-7.74839e-02,-7.06123e-02,-3.10853e-02,-1.54189e-02,-1.06638e-02,-7.11321e-03,2.02691e-03,1.07587e-02,1.67015e-02,2.66231e-02,4.35981e-02,1.12892e-01,6.62203e-02,5.86014e-02,7.96071e-02,1.21403e-01,1.30088e-01,9.91530e-02,5.76091e-02,3.74267e-02,8.37337e-02,7.80831e-02,5.56436e-02,3.08332e-02,1.72731e-02,1.04869e-02,1.04146e-02,2.36387e-02,-3.59554e-02,-3.94480e-02,-5.86797e-02,-5.56397e-02,-6.50742e-02,-6.29475e-02,-4.98009e-02,-6.14382e-03,-1.97611e-02,-3.10307e-02,-2.06550e-02,9.27722e-03,3.93241e-02,6.52803e-02,7.12970e-02,1.02630e-01,7.16923e-02,6.35059e-02,6.89104e-02,1.21314e-01,1.37356e-01,9.01003e-02,6.20821e-02,4.91605e-02,9.47234e-02,8.82329e-02,6.26213e-02,1.30409e-02,2.35110e-02,1.61274e-02,1.37990e-02,1.63668e-02,7.16577e-03,-4.85756e-02,-4.12993e-02,-4.45112e-02,-5.12506e-02,-4.35564e-02,-3.60342e-02,5.43826e-03,-2.11691e-02,3.41175e-03,2.87409e-02,1.52876e-02,1.45259e-02,6.24529e-02,8.88413e-02,1.10013e-01,5.61626e-02,6.51994e-02,9.20086e-02,1.62298e-01,1.53430e-01,8.73630e-02,3.89572e-02,3.90217e-02,9.08380e-02,6.37480e-02,5.90346e-02,2.95251e-02,3.89417e-02,3.47807e-02,3.47859e-02,2.62753e-03,-2.33128e-02,-1.03197e-02,-1.71970e-02,-9.56707e-03,-2.27825e-02,-2.17586e-02,1.18751e-02,1.37873e-02,-8.89563e-03,1.33879e-02,4.29440e-02,5.30422e-02,4.70994e-02,2.41013e-02,6.78601e-02,8.74628e-02,3.76263e-02,3.15454e-02,8.16590e-02,1.14392e-01,1.27652e-01,8.88355e-02,4.51021e-02,4.44996e-02,5.52343e-02,4.28277e-02,3.73793e-02,4.27248e-02,4.86549e-02,6.89140e-02,5.04140e-02,3.88152e-02,2.60574e-02,-7.87884e-04,-2.12565e-02,1.91246e-03,2.93059e-02,1.93557e-02,1.92612e-02,-6.87221e-03,-1.46219e-03,1.73727e-02,4.53748e-02,5.07398e-02,3.29609e-02,1.31215e-02,5.78103e-02,9.42721e-02,4.83387e-02,3.57860e-02,7.27672e-02,8.62129e-02,1.15879e-01,9.15688e-02,5.88447e-02,7.67015e-02,1.05521e-01,9.40825e-02,8.70775e-02,6.64167e-02,6.68017e-02,7.98721e-02,7.48254e-02,4.85006e-02,3.54533e-02,2.81333e-02,5.16617e-02,4.65776e-02,4.22459e-02,3.11347e-02,1.16998e-02,1.51415e-02,3.97076e-02,5.13242e-02,5.45328e-02,7.63133e-02,7.30514e-02,7.16794e-02,7.87013e-02,1.05791e-01,5.32200e-02,5.09226e-02,6.20330e-02,1.09359e-01,1.28987e-01,7.96916e-02,8.61291e-02,6.57566e-02,1.32662e-01,1.23339e-01,8.93770e-02,1.01268e-01,1.01274e-01,1.08038e-01,8.95198e-02,7.53385e-02,6.03086e-02,4.84593e-02,6.35063e-02,3.10623e-02,5.93705e-02,3.36191e-02,6.32469e-02,5.81216e-02,6.99772e-02,6.32470e-02,1.00299e-01,9.63665e-02,9.09227e-02,1.01110e-01,1.18218e-01,1.38926e-01,7.72533e-02,9.34176e-02,1.00151e-01,1.18154e-01,-4.46281e-02,-4.32898e-02,-8.16183e-02,-9.06264e-02,-9.70455e-02,-6.24262e-02,-2.32162e-02,-1.17598e-02,-1.12455e-02,-3.03359e-03,1.40824e-02,6.58032e-03,3.78175e-03,4.02816e-03,1.78895e-02,4.69162e-02,2.77819e-02,2.36590e-02,1.90207e-02,2.27319e-03,6.24549e-03,7.14483e-03,5.32379e-04,-1.47916e-02,5.65735e-03,-1.51715e-02,-3.53577e-03,-2.49365e-02,-3.79927e-02,-4.83458e-02,-2.97062e-02,-1.24561e-02,-3.47487e-02,-6.85479e-02,-7.89134e-02,-5.12963e-02,-7.96335e-02,-9.81502e-02,-6.36831e-02,-2.47478e-02,-4.72403e-02,-4.01814e-02,-2.32575e-02,-2.32235e-02,-3.68462e-02,-2.49391e-02,-2.70636e-02,-4.45797e-03,-5.45446e-03,-9.36041e-03,-1.31411e-03,-2.18137e-02,1.40129e-02,1.07116e-02,2.22220e-03,-2.62251e-02,-3.60623e-02,-2.49055e-02,-4.94856e-02,-4.74397e-02,-3.56598e-02,-6.19451e-02,-4.78305e-02,-2.45174e-02,-4.75143e-02,-5.72615e-02,-5.49148e-02,-4.31417e-02,-9.96199e-02,-6.05756e-02,-4.41968e-02,-1.98452e-02,-2.92882e-02,-1.70266e-02,-3.07486e-02,-3.14291e-03,-2.07973e-02,-2.87742e-02,-2.52931e-02,-1.99650e-02,-2.47015e-02,-3.15368e-02,-8.14380e-03,-1.32885e-02,8.38912e-03,1.27558e-02,1.40301e-02,-1.71600e-02,-2.62923e-02,-1.21386e-02,-1.67163e-02,-3.83311e-02,-3.70694e-02,-5.86477e-02,-4.75246e-02,-3.06557e-02,-2.41185e-02,-5.95145e-02,-5.14383e-02,-4.95151e-02,-5.82617e-02,-3.21050e-02,-3.62322e-02,-2.98290e-02,6.06770e-03,-3.02585e-02,-2.51486e-02,-1.77053e-02,-2.67639e-02,-1.76037e-02,-2.98784e-02,-5.82475e-03,2.15054e-03,-2.28229e-02,1.42344e-02,-4.41734e-03,2.02404e-02,2.69413e-02,4.99024e-02,4.06679e-02,3.14060e-02,1.43464e-02,-7.88556e-03,-2.51727e-02,-2.06469e-02,-4.10968e-02,-2.11816e-02,-3.73239e-02,1.12610e-02,-3.08598e-02,-1.49802e-02,8.43121e-04,-4.94599e-02,-2.88305e-03,2.01697e-02,3.35998e-02,4.74265e-02,5.36940e-02,-2.24199e-02,-4.20804e-03,-1.63600e-02,-2.65008e-02,-3.97832e-04,1.64785e-02,-4.32606e-03,1.79986e-02,1.59588e-02,2.18985e-02,4.38575e-02,3.14151e-02,2.96569e-02,4.42046e-02,2.17465e-02,2.59148e-02,1.47016e-02,7.77317e-03,1.24634e-02,-3.44956e-02,-8.56681e-03,-8.73865e-03,2.57962e-02,-1.91066e-02,7.32127e-03,-5.94851e-03,-2.45030e-02,1.17236e-02,7.38074e-03,5.58413e-03,4.50401e-02,2.94286e-02,6.11231e-03,2.74764e-02,5.44103e-03,-3.82706e-02,-8.58490e-03,-1.81321e-03,-1.39296e-02,-5.80442e-03,-1.54140e-03,2.54267e-02,3.79967e-02,4.02197e-02,7.15740e-02,6.47185e-02,7.28859e-02,2.42305e-02,3.07862e-02,1.50558e-02,-1.97564e-02,-2.79724e-02,-2.64415e-03,-1.15829e-02,3.82635e-02,-1.78716e-02,-1.49533e-02,2.37049e-03,-1.22506e-02,2.61087e-02,1.53588e-02,3.32995e-02,4.51516e-02,5.16139e-02,4.43959e-02,2.07365e-02,5.54159e-02,1.62906e-02,-8.10691e-03,1.15569e-02,-3.01884e-03,1.99626e-02,1.54924e-02,3.87905e-02,4.07665e-02,4.49861e-02,4.95082e-02,5.97045e-02,4.22232e-02,4.59766e-02,5.34235e-02,1.44693e-02,1.07656e-02,-1.11850e-02,1.02700e-02,2.43949e-02,2.37030e-02,7.19768e-03,-1.28545e-02,1.22418e-02,2.66018e-03,9.27558e-03,2.47982e-02,4.35672e-02,4.34914e-02,7.80283e-02,4.23616e-02,2.71493e-02,9.67789e-02,7.88287e-02,4.00442e-02,5.15494e-02,2.95026e-02,4.11711e-02,5.73665e-02,9.16848e-02,6.58480e-02,6.91491e-02,6.94660e-02,8.31913e-02,4.28125e-02,1.35074e-02,3.78153e-02,-7.34558e-03,-3.11048e-03,-3.96707e-02,-1.28612e-02,2.49360e-02,4.47422e-02,2.84286e-03,1.53133e-02,-1.87186e-02,-1.51024e-02,3.25454e-02,3.05032e-03,5.50977e-02,7.34307e-02,8.83500e-02,7.34694e-02,9.39638e-02,9.96617e-02,8.83504e-02,1.06660e-01,1.00691e-01,9.68293e-02,8.61616e-02,1.03697e-01,1.17270e-01,7.06009e-02,6.24519e-02,9.47772e-02,6.37963e-02,6.11483e-02,2.29763e-02,2.63544e-02,-8.70342e-03,-1.36438e-02,-5.02925e-02,-1.68197e-02,3.28494e-02,2.55416e-02,-9.41621e-03,-1.00098e-02,2.51376e-02,1.73028e-02,3.72866e-02,1.53629e-02,5.51362e-02,8.11436e-02,9.44121e-02,1.14942e-01,1.35227e-01,1.34635e-01,1.26755e-01,1.11933e-01,1.18024e-01,1.30194e-01,1.54721e-01,1.48641e-01,1.57108e-01,1.44005e-01,8.22757e-02,9.34459e-02,9.00069e-02,4.46004e-02,4.51627e-02,6.17238e-02,7.44758e-03,-5.19979e-03,-2.76883e-02,-2.72192e-02,1.14510e-02,5.39781e-02,-3.14532e-03,1.90346e-02,3.93644e-02,4.83975e-02,4.64806e-02,5.40938e-02,6.31237e-02,1.34596e-01,1.44814e-01,1.44547e-01,1.50168e-01,1.81501e-01,1.63157e-01,1.83006e-01,1.50039e-01,1.60718e-01,1.99690e-01,1.88445e-01,1.66423e-01,1.51217e-01,1.29083e-01,7.63011e-02,4.90789e-02,3.35143e-02,6.73572e-02,8.33103e-02,3.93799e-02,1.22102e-02,-6.66877e-03,2.35681e-03,4.15681e-02,5.76385e-02,4.30673e-02,4.75318e-02,4.21782e-02,2.82829e-02,2.66458e-02,3.27953e-02,5.00404e-02,9.56698e-02,1.28295e-01,1.39501e-01,1.71911e-01,1.79985e-01,2.15555e-01,2.17696e-01,2.06245e-01,2.15656e-01,1.96858e-01,2.16396e-01,1.87772e-01,1.69189e-01,1.65658e-01,1.04829e-01,7.87015e-02,6.74253e-02,6.66887e-02,6.37795e-02,5.08752e-02,1.55058e-02,-3.63628e-03,1.72396e-02,5.99212e-02,4.83711e-02,-1.19023e-02,2.41826e-02,1.62562e-02,3.16724e-02,4.75062e-02,4.32473e-02,8.83373e-02,1.12393e-01,1.24875e-01,1.56749e-01,1.84919e-01,2.10038e-01,2.27286e-01,2.11261e-01,1.94806e-01,2.24647e-01,2.00446e-01,1.97848e-01,2.05946e-01,1.81629e-01,1.70659e-01,1.39913e-01,8.44906e-02,6.59238e-02,4.83916e-02,5.98850e-02,7.14177e-02,2.73064e-02,-1.12224e-02,4.26595e-02,7.56489e-02,4.86442e-02,3.27064e-02,3.09655e-02,3.27190e-02,6.00549e-02,4.83243e-02,5.33549e-02,1.01911e-01,1.05532e-01,1.23109e-01,1.29203e-01,1.52992e-01,1.98547e-01,1.92814e-01,2.01008e-01,1.85155e-01,1.87837e-01,1.88939e-01,1.73755e-01,1.69808e-01,1.59663e-01,1.34498e-01,1.09736e-01,1.30454e-01,9.55371e-02,7.11889e-02,4.46010e-02,3.61067e-02,2.75193e-02,-1.10978e-02,2.04661e-02,6.41224e-02,4.59911e-02,1.66308e-02,3.49649e-02,1.75541e-02,6.32301e-02,4.20181e-02,8.55168e-02,1.07090e-01,1.02816e-01,8.34180e-02,1.23664e-01,1.77356e-01,1.76869e-01,1.61261e-01,1.54002e-01,1.90165e-01,1.94515e-01,1.46288e-01,1.23350e-01,1.19332e-01,1.34637e-01,1.27450e-01,9.10326e-02,1.02574e-01,9.86285e-02,8.76227e-02,6.53808e-02,6.84443e-02,9.86398e-03,7.43558e-05,4.05599e-02,5.99767e-02,8.41625e-02,2.32536e-02,3.77834e-02,3.10113e-02,6.05083e-02,5.78223e-02,6.83494e-02,8.17510e-02,6.13839e-02,9.20632e-02,1.14116e-01,1.68615e-01,1.39363e-01,1.76917e-01,1.78365e-01,1.81034e-01,1.82328e-01,1.42478e-01,1.26439e-01,1.38535e-01,1.70609e-01,1.63129e-01,1.14235e-01,1.19473e-01,1.05586e-01,1.03122e-01,9.33908e-02,7.01403e-02,2.95376e-02,2.18073e-02,3.01015e-02,6.87121e-02,8.06021e-02,3.41770e-02,1.59774e-02,3.97048e-02,6.56176e-02,9.06753e-02,9.91949e-02,1.11972e-01,7.17570e-02,7.21214e-02,8.18349e-02,1.05295e-01,1.18501e-01,1.55783e-01,1.53106e-01,1.78587e-01,1.86600e-01,1.75897e-01,1.50895e-01,1.55895e-01,1.55913e-01,1.54820e-01,1.26858e-01,1.09105e-01,1.14713e-01,1.03131e-01,8.68924e-02,8.69553e-02,5.85799e-02,4.80294e-02,3.59270e-02,8.23903e-02,8.19442e-02,7.33760e-03,3.98980e-02,2.45933e-02,3.69375e-02,4.79488e-02,8.38736e-02,1.01902e-01,8.49676e-02,6.95406e-02,9.47985e-02,1.01642e-01,1.29603e-01,1.56740e-01,1.75379e-01,1.67101e-01,2.23745e-01,1.91135e-01,1.71680e-01,1.61544e-01,1.51597e-01,1.27960e-01,1.20073e-01,1.43432e-01,1.06392e-01,1.06951e-01,9.28202e-02,6.98450e-02,4.75787e-02,1.50162e-02,2.80267e-02,7.91813e-02,4.02065e-02,-3.03490e-03,3.57423e-02,4.63539e-02,4.13947e-02,6.22363e-02,7.32515e-02,1.06045e-01,8.35901e-02,7.76174e-02,9.47202e-02,1.27411e-01,9.82215e-02,1.49500e-01,1.59346e-01,1.99634e-01,2.09538e-01,2.19362e-01,1.76890e-01,1.60857e-01,1.65024e-01,1.26472e-01,1.09060e-01,1.09719e-01,1.17576e-01,8.95979e-02,8.75547e-02,6.70052e-02,4.28516e-02,4.69191e-02,4.48833e-02,9.80017e-02,5.37482e-02,2.21319e-02,2.64182e-02,3.39807e-02,1.22268e-02,1.79630e-02,7.32265e-02,7.71339e-02,6.12753e-02,9.28312e-02,1.07328e-01,1.21561e-01,1.29211e-01,1.41726e-01,1.66862e-01,1.73226e-01,1.80081e-01,1.87729e-01,1.98140e-01,1.63896e-01,1.45470e-01,1.14014e-01,7.55927e-02,9.47497e-02,1.09526e-01,8.65847e-02,6.76710e-02,5.00486e-02,3.78692e-02,2.55677e-02,5.85668e-02,7.96221e-02,4.89110e-02,-1.57232e-03,-2.35048e-03,1.10053e-02,4.18104e-02,3.36597e-02,3.11212e-02,3.49460e-02,5.05033e-02,9.13973e-02,9.40366e-02,1.29063e-01,1.30922e-01,1.53526e-01,1.70400e-01,1.58864e-01,1.60668e-01,1.57559e-01,1.45498e-01,1.27234e-01,8.03033e-02,8.40246e-02,7.09315e-02,7.08962e-02,3.32691e-02,3.46806e-02,1.01923e-02,3.84048e-02,1.75844e-02,-4.13473e-03,1.42958e-02,7.35369e-02,3.29548e-02,4.46398e-03,1.74807e-04,1.32927e-02,5.46824e-02,2.37782e-02,1.05808e-02,1.32188e-02,6.61847e-03,6.86007e-02,1.13174e-01,1.31719e-01,1.05701e-01,1.16097e-01,9.67977e-02,1.13581e-01,1.16971e-01,9.84568e-02,7.39139e-02,6.13462e-02,6.12410e-02,7.31034e-02,5.49036e-02,4.71180e-02,1.52629e-02,2.75690e-02,1.35148e-02,1.06268e-02,4.59519e-03,-1.17147e-02,1.54405e-02,3.82406e-02,2.94170e-02,-6.97261e-03,7.19539e-04,1.51390e-02,1.94409e-02,9.14823e-03,-2.21063e-03,-1.51104e-03,2.09556e-03,1.60395e-02,4.08216e-02,1.03426e-01,1.01934e-01,8.00467e-02,9.60047e-02,8.39266e-02,9.37429e-02,7.92868e-02,6.72098e-02,5.69197e-02,5.42435e-02,1.75585e-02,2.27474e-02,2.73748e-02,4.55476e-02,1.71790e-02,2.79225e-02,2.80795e-02,-3.37541e-04,2.86621e-03,2.36950e-02,4.78649e-02,2.65717e-02,-2.34430e-02,-1.39105e-02,2.48448e-02,4.51613e-02,1.26060e-02,-8.22222e-03,-1.90881e-02,-1.18604e-02,1.72577e-02,2.06862e-02,4.35662e-02,5.75360e-02,5.01319e-02,1.49377e-02,3.86693e-02,3.11028e-02,3.23899e-02,1.06487e-02,1.83809e-02,2.16389e-02,2.12865e-02,-1.64383e-02,-9.69137e-03,-2.40008e-02,-8.34224e-03,1.04160e-02,2.34689e-02,2.66296e-02,-9.00814e-03,-6.80873e-03,4.39899e-02,2.75333e-02,-4.59945e-02,-2.11324e-02,-1.22737e-02,1.33731e-02,6.25424e-03,1.81567e-02,1.99836e-03,-3.84827e-03,-7.13094e-03,1.84161e-02,2.72935e-02,2.49977e-02,1.59658e-02,-3.26609e-02,-2.46084e-02,-1.24659e-02,-1.58999e-02,-1.85838e-02,-1.42318e-02,-5.37835e-03,-3.28377e-02,-5.56314e-02,-7.29422e-02,-4.84282e-02,-1.38154e-02,1.13074e-02,4.55600e-02,2.75764e-03,-3.22016e-02,-7.35397e-03,2.80634e-02,1.37740e-02,-2.34532e-02,-4.31253e-02,-4.08433e-02,-1.22379e-02,-4.25063e-02,-4.48696e-02,-9.38650e-03,-5.23113e-02,-3.51863e-02,-2.43945e-02,2.26051e-03,-8.51806e-03,-4.06547e-02,-2.28323e-02,-4.79146e-04,-4.43051e-02,-1.02944e-02,-2.10104e-02,-9.27983e-03,-3.25573e-02,-5.36868e-02,-5.41830e-02,-9.01325e-02,-6.49888e-02,-6.00777e-02,-2.08750e-02,2.53381e-03,-3.30926e-02,-4.90469e-02,-1.89380e-02,1.19592e-02,3.15591e-02,-2.74855e-02,-6.04470e-02,-4.82333e-02,-3.60286e-02,-5.78399e-02,-6.31714e-02,-6.22134e-02,-7.94284e-02,-9.80286e-02,-5.52120e-02,-2.64614e-02,-5.18991e-02,-4.02609e-02,-3.08302e-02,-3.58161e-02,-3.69757e-02,-6.03739e-02,-5.53219e-02,-7.93739e-02,-9.63725e-02,-1.03934e-01,-1.17070e-01,-8.70466e-02,-7.31621e-02,-6.36527e-02,-3.99928e-02,-2.95526e-02,-4.13432e-02,-3.25546e-02,-2.53914e-02,-1.25833e-03,1.92191e-02,-3.87474e-02,-7.46692e-02,-7.00926e-02,-5.67596e-02,-4.75151e-02,-5.31975e-02,-1.04244e-01,-9.29045e-02,-8.04384e-02,-8.33212e-02,-9.37460e-02,-8.82763e-02,-1.13850e-01,-1.07820e-01,-9.97412e-02,-1.15860e-01,-9.60626e-02,-9.84500e-02,-1.09046e-01,-1.43853e-01,-1.24619e-01,-1.42455e-01,-1.18359e-01,-9.65327e-02,-8.62900e-02,-5.16808e-02,-3.98217e-02,-6.59946e-02,-5.94083e-02,-2.24891e-02,1.46344e-02,4.37491e-02,-2.33880e-02,-5.00977e-02,-7.08762e-02,-1.98316e-02,-2.44773e-02,-3.74903e-02,-4.99480e-02,-6.67783e-02,-4.09334e-02,-4.29680e-02,-4.75087e-02,-5.65842e-02,-5.53724e-02,-7.82065e-02,-6.18590e-02,-4.69022e-02,-4.61756e-02,-4.53133e-02,-4.87300e-02,-7.06262e-02,-4.68791e-02,-6.07571e-02,-3.01651e-02,-4.19951e-02,-3.74141e-02,-5.22659e-02,-6.99538e-03,-5.16182e-02,-6.65345e-02,-2.97219e-02,7.57996e-03,3.56990e-02,-1.37260e-02,-4.28892e-02,-6.23482e-02,-4.68063e-02,-3.58926e-02,-3.41255e-02,-4.32821e-02,-3.28981e-02,-1.41127e-02,-3.80971e-02,-4.98559e-02,-2.91778e-02,-5.79750e-02,-7.42464e-02,-4.06123e-02,-9.42475e-03,-3.10360e-03,-1.57944e-02,-5.16733e-02,-7.87865e-02,-8.34927e-02,-5.40819e-02,-6.07883e-02,-4.30711e-02,-8.58216e-02,-6.64335e-02,-2.30196e-02,-5.66426e-02,-7.22499e-02,-1.56387e-02,-1.90089e-02,3.04309e-02,-3.45553e-02,-5.35183e-02,-6.35140e-02,2.50409e-03,-1.02103e-02,1.37136e-03,1.60313e-02,4.27073e-03,2.06390e-02,-9.71333e-03,-1.09514e-02,-1.64671e-02,-1.85016e-02,-2.45020e-02,-3.70055e-03,-2.64032e-02,-1.30845e-02,-9.31762e-03,-4.05262e-02,-3.02569e-02,-4.25176e-02,-3.48628e-02,-4.09703e-02,-2.85310e-02,-3.72346e-02,-3.06094e-02,-1.81509e-02,-4.65692e-02,-4.46076e-02,-3.97420e-02,1.15094e-02,3.78571e-04,-3.13374e-02,-5.76473e-02,-5.13686e-02,6.75300e-03,1.74871e-02,-8.68451e-04,1.63143e-02,2.44554e-02,6.85610e-03,1.03943e-02,8.28131e-03,-1.43657e-02,1.59291e-02,1.04421e-02,1.00804e-02,-5.89332e-03,2.69876e-03,2.08205e-02,-1.12571e-02,-7.96673e-03,4.28466e-03,-2.14180e-02,-7.02882e-03,-3.41649e-02,-6.38711e-03,-1.41032e-02,8.69628e-03,-1.32223e-02,-2.77012e-02,-2.60160e-02,1.01185e-02,
3.02892e-02,-8.21019e-03,-4.73552e-03,-2.18156e-02,4.42159e-03,-1.35297e-02,-2.26893e-03,-9.35865e-03,-2.33415e-03,-3.18478e-02,6.32577e-03,3.80926e-02,5.14723e-02,7.36061e-02,1.04949e-01,1.24146e-01,1.35851e-01,1.26328e-01,1.12159e-01,1.28774e-01,9.71872e-02,5.98118e-02,3.09031e-02,1.89998e-02,-4.23976e-03,2.86320e-02,-2.03744e-02,-3.20968e-02,-3.73743e-02,-5.34029e-02,-7.83124e-02,-9.41637e-02,1.59622e-02,1.48417e-03,-5.34279e-03,-1.30199e-03,3.10741e-03,9.94293e-03,-4.81389e-03,2.32955e-02,7.79200e-03,1.40823e-02,-9.14969e-03,2.38572e-02,4.07906e-02,4.53408e-02,8.41940e-02,9.34384e-02,9.74404e-02,1.20546e-01,1.23386e-01,1.08613e-01,7.05002e-02,7.91448e-02,5.67700e-02,2.18173e-02,4.86456e-03,3.13667e-02,9.28350e-03,1.00492e-02,-3.27670e-02,-4.68582e-02,-5.10650e-02,-6.78362e-02,1.50508e-02,2.42626e-02,-4.67789e-03,-1.09309e-02,4.98500e-02,2.47308e-02,1.61703e-02,2.29248e-02,2.83385e-02,4.74144e-03,1.99268e-02,4.79449e-02,6.75711e-02,7.94832e-02,1.13231e-01,1.00903e-01,1.15668e-01,1.28148e-01,1.01572e-01,9.99300e-02,6.32722e-02,5.05497e-02,4.02801e-02,2.71592e-02,-9.14091e-03,-6.76710e-03,-6.58315e-03,1.80992e-02,-1.68961e-02,-2.35518e-02,-1.37521e-02,-5.01805e-02,9.48204e-03,-8.81188e-03,-1.21378e-02,-6.27155e-04,5.11920e-02,3.29972e-02,5.63484e-03,3.43193e-02,3.82933e-02,1.02627e-02,3.69045e-02,5.78531e-02,6.66330e-02,1.12113e-01,1.20332e-01,1.28139e-01,1.15873e-01,1.20245e-01,1.09982e-01,1.15263e-01,7.22630e-02,6.48230e-02,5.37918e-02,4.99420e-02,2.55505e-02,7.29318e-03,-6.44415e-03,1.02608e-02,-1.99461e-03,-2.91400e-02,2.08641e-02,-1.42885e-02,-4.50095e-02,-4.34439e-02,-4.60335e-02,1.21111e-02,3.26014e-02,2.17388e-02,4.54478e-04,2.23650e-02,2.35274e-02,4.16918e-02,3.52075e-02,6.50535e-02,5.96114e-02,1.03640e-01,1.27429e-01,1.43791e-01,1.82204e-01,1.58178e-01,1.48726e-01,1.38671e-01,1.06323e-01,6.30192e-02,3.18929e-02,1.43414e-02,2.68130e-02,1.22407e-03,1.45736e-02,2.84631e-02,-1.60292e-02,-2.42712e-02,1.58770e-02,-1.60465e-02,-5.29046e-03,-2.60797e-03,-2.34425e-02,3.16583e-03,3.99789e-02,4.21740e-02,4.04125e-02,4.04661e-02,2.38100e-02,6.03140e-02,1.07612e-01,1.02346e-01,1.10368e-01,1.26556e-01,1.43313e-01,1.71030e-01,1.80466e-01,1.96195e-01,1.44440e-01,1.43844e-01,1.13784e-01,8.90928e-02,4.65333e-02,1.21100e-02,3.39511e-02,2.37068e-02,1.79357e-02,6.38130e-02,1.81231e-02,2.28339e-02,2.06907e-02,3.44928e-03,1.45189e-02,1.69504e-02,-2.67761e-03,3.16051e-02,4.64876e-02,3.66797e-02,3.18076e-02,2.36442e-02,3.27036e-02,8.87349e-02,9.47602e-02,1.10778e-01,1.26445e-01,1.41302e-01,1.88836e-01,1.84310e-01,1.95364e-01,2.02767e-01,1.63972e-01,1.49855e-01,1.29109e-01,7.82371e-02,7.68108e-02,2.49605e-02,4.05496e-02,4.11920e-02,4.56607e-02,4.81594e-02,2.74613e-02,9.57070e-03,5.09378e-02,4.38273e-02,2.03381e-02,-8.94766e-03,3.26001e-02,2.62587e-02,6.94818e-02,7.08771e-02,5.47526e-02,6.20140e-02,5.46033e-02,8.01016e-02,9.05528e-02,9.70210e-02,1.05739e-01,1.16448e-01,1.50034e-01,1.78122e-01,1.84126e-01,2.03213e-01,1.71802e-01,1.52148e-01,1.46853e-01,8.87781e-02,7.87494e-02,5.81959e-02,1.27655e-03,3.33867e-02,3.84331e-02,6.35163e-02,2.54188e-02,2.12742e-02,3.96257e-02,3.03749e-02,4.16015e-02,-1.12049e-03,4.61704e-03,4.58725e-02,9.04027e-02,5.09702e-02,7.37790e-02,5.00051e-02,5.09442e-02,9.74538e-02,8.43714e-02,1.18526e-01,1.05200e-01,7.94518e-02,1.18687e-01,1.56826e-01,2.14607e-01,2.05922e-01,1.91968e-01,1.46647e-01,1.40162e-01,8.78619e-02,5.97127e-02,2.96697e-02,1.87777e-02,2.16153e-02,2.49196e-02,6.05391e-02,3.76336e-02,2.53729e-02,4.77598e-02,2.95094e-02,1.88983e-02,4.61026e-03,1.72792e-02,6.26574e-02,7.65534e-02,6.52807e-02,4.53190e-02,5.00103e-02,8.72379e-02,7.73265e-02,1.02785e-01,8.98111e-02,1.04581e-01,9.77342e-02,1.28319e-01,1.85106e-01,2.14602e-01,2.15169e-01,1.83909e-01,1.40544e-01,1.22224e-01,9.58526e-02,3.56054e-02,2.55400e-02,-3.48982e-03,1.79997e-03,1.58621e-02,5.25810e-02,4.33668e-02,4.85928e-02,8.63507e-02,3.28684e-02,3.19793e-02,1.82654e-02,2.60655e-02,5.06540e-02,6.83592e-02,4.42319e-02,5.04947e-02,5.57803e-02,5.74467e-02,6.89409e-02,4.41306e-02,7.87704e-02,9.03420e-02,1.21400e-01,1.56951e-01,2.00812e-01,1.89121e-01,2.13745e-01,1.78109e-01,1.54618e-01,1.00374e-01,7.97742e-02,2.59101e-02,-2.04584e-03,2.14366e-02,8.33604e-03,4.96224e-02,4.45053e-02,1.89342e-02,3.53842e-02,3.55088e-02,3.35667e-02,2.57232e-02,3.58901e-02,1.61621e-02,5.91265e-02,6.83335e-02,7.23531e-02,8.58357e-02,5.04322e-02,7.73739e-02,4.58069e-02,6.64218e-02,8.77130e-02,9.36094e-02,1.20442e-01,1.35923e-01,1.71479e-01,1.95775e-01,2.16672e-01,1.96843e-01,1.37231e-01,1.20856e-01,6.49608e-02,4.18932e-02,1.95232e-02,4.17943e-03,2.72237e-02,2.07183e-02,3.43028e-02,3.49049e-02,7.57736e-03,3.66863e-02,9.97398e-03,4.19491e-02,4.05911e-02,2.90255e-02,7.66511e-02,8.02351e-02,6.34486e-02,6.76651e-02,5.98839e-02,3.20095e-02,2.33817e-02,2.11094e-02,5.95510e-02,6.04575e-02,8.45238e-02,1.06968e-01,1.45412e-01,1.63902e-01,1.56746e-01,1.56376e-01,1.37860e-01,5.53531e-02,5.06208e-02,2.03402e-02,1.07403e-02,2.94810e-02,3.69464e-03,2.05480e-02,2.48730e-02,4.52175e-03,2.08469e-02,8.37798e-03,1.67041e-03,5.70222e-02,6.03820e-02,4.77271e-02,7.12515e-02,9.97607e-02,6.69368e-02,4.98415e-02,3.94912e-02,4.34446e-02,5.33522e-03,1.83402e-02,3.35062e-02,4.97334e-02,8.22577e-02,8.40161e-02,9.49375e-02,1.50782e-01,1.69469e-01,1.52387e-01,1.09060e-01,8.79697e-02,7.37372e-02,1.70751e-02,1.09928e-02,2.76680e-02,-6.16739e-03,-3.17565e-02,2.27614e-02,-1.83298e-02,3.23977e-03,-6.86420e-04,1.81438e-02,7.23175e-02,3.76349e-02,4.84003e-02,4.09640e-02,5.09264e-02,3.71385e-02,4.48683e-02,2.21938e-02,-6.09834e-03,-5.52601e-03,-7.02099e-03,3.27841e-02,5.58987e-02,7.18174e-02,1.12061e-01,1.26432e-01,1.39589e-01,1.50470e-01,1.26759e-01,1.19334e-01,8.71684e-02,6.34032e-02,3.74215e-02,-5.16959e-03,1.19346e-02,-3.47316e-02,-1.03319e-02,7.32923e-03,-8.87389e-03,-8.10211e-03,1.16624e-02,2.19378e-02,8.98397e-02,3.13363e-02,5.97391e-02,7.43040e-02,7.29110e-02,4.85448e-02,4.55095e-02,4.51659e-02,3.57705e-02,2.86488e-02,5.18131e-02,5.70677e-02,6.93793e-02,9.06148e-02,1.38678e-01,1.61421e-01,1.35758e-01,1.33166e-01,1.26998e-01,1.07444e-01,9.24420e-02,8.65861e-02,4.17003e-02,8.78095e-03,-1.53532e-02,-9.10693e-03,-7.60955e-03,1.44390e-02,-2.14382e-02,-6.98757e-03,1.79982e-02,2.61891e-02,7.37328e-02,5.39699e-02,6.96838e-02,7.68916e-02,7.07232e-02,6.10452e-02,7.79635e-02,6.74104e-02,5.11777e-02,8.68037e-02,7.51901e-02,1.20067e-01,1.27773e-01,1.26662e-01,1.47848e-01,1.66635e-01,1.85536e-01,1.75954e-01,1.82213e-01,1.37729e-01,1.21194e-01,1.04035e-01,5.73202e-02,1.61694e-02,2.77549e-03,5.68833e-03,-2.53657e-02,-4.56382e-03,-1.16598e-02,-1.32453e-02,2.15096e-02,3.38069e-02,7.93450e-02,4.52212e-02,6.93772e-02,8.75965e-02,1.18784e-01,1.18209e-01,8.45892e-02,1.04676e-01,1.06517e-01,1.56526e-01,1.53227e-01,1.80654e-01,1.73410e-01,1.80145e-01,2.13844e-01,2.04487e-01,2.21370e-01,2.15612e-01,2.04775e-01,2.05138e-01,1.60806e-01,1.56490e-01,9.74451e-02,4.56756e-02,2.02097e-02,-1.27145e-02,-1.62697e-02,-1.35863e-02,-1.63041e-02,-4.39472e-03,-1.58741e-02,2.64687e-02,7.54656e-02,4.90315e-02,6.47755e-02,8.36545e-02,1.22226e-01,1.17304e-01,1.21306e-01,1.57720e-01,1.59372e-01,2.09527e-01,2.07914e-01,2.57570e-01,2.51780e-01,2.78702e-01,2.73043e-01,2.77693e-01,2.70432e-01,2.75961e-01,2.56413e-01,2.73861e-01,2.26907e-01,1.94966e-01,1.25404e-01,9.71212e-02,4.92248e-02,1.42347e-02,-9.70462e-03,1.91031e-02,-1.52054e-02,-8.05733e-03,3.52390e-03,4.51993e-02,1.12762e-01,5.81154e-02,9.20108e-02,1.30665e-01,1.69282e-01,1.29233e-01,1.64737e-01,1.79637e-01,1.94130e-01,2.44544e-01,2.90569e-01,3.00078e-01,2.95311e-01,3.34788e-01,2.93073e-01,2.94326e-01,2.81704e-01,3.10129e-01,3.16359e-01,2.82920e-01,2.72088e-01,2.27763e-01,1.38598e-01,8.88978e-02,3.93102e-02,2.36190e-02,2.85604e-02,2.25196e-02,-2.75448e-03,4.50828e-03,3.40190e-02,5.30290e-02,1.30515e-01,9.37470e-02,9.98019e-02,1.54415e-01,1.55464e-01,1.88213e-01,1.97793e-01,2.09491e-01,2.48812e-01,2.84874e-01,3.27596e-01,3.36210e-01,3.20387e-01,3.11075e-01,3.30726e-01,3.13158e-01,3.01872e-01,3.19108e-01,3.18833e-01,2.93593e-01,2.63067e-01,2.27312e-01,1.99083e-01,1.46864e-01,1.11294e-01,8.69432e-02,4.81947e-02,4.34451e-02,3.14462e-02,9.88607e-03,5.01012e-02,7.02565e-02,1.15207e-01,8.87143e-02,1.06865e-01,1.46010e-01,1.70913e-01,1.65600e-01,2.09981e-01,2.15339e-01,2.27438e-01,2.75666e-01,3.21500e-01,2.97595e-01,2.88275e-01,2.48818e-01,2.26758e-01,2.20932e-01,2.24812e-01,2.44671e-01,2.46940e-01,2.24760e-01,2.20966e-01,2.21507e-01,1.72495e-01,1.24077e-01,1.19448e-01,9.25067e-02,7.61719e-02,8.16304e-02,3.83230e-02,5.50387e-02,8.29304e-02,9.61013e-02,8.00946e-02,8.95589e-02,8.39517e-02,1.04609e-01,1.67943e-01,1.57301e-01,1.70820e-01,1.78402e-01,1.86105e-01,2.13653e-01,2.53905e-01,2.00996e-01,1.69435e-01,1.53257e-01,1.12853e-01,9.20058e-02,1.20093e-01,1.46543e-01,1.40613e-01,1.70493e-01,1.72579e-01,1.44232e-01,1.07879e-01,7.22337e-02,9.56288e-02,6.48541e-02,5.41900e-02,5.97633e-02,7.34465e-02,4.41293e-02,8.28840e-02,8.34827e-02,8.52882e-02,8.71951e-02,1.14838e-01,9.59554e-02,1.50246e-01,1.71757e-01,1.54433e-01,1.47554e-01,1.22217e-01,1.24788e-01,1.40652e-01,1.12325e-01,4.24780e-02,1.20862e-02,-7.91271e-03,1.10310e-02,2.76659e-02,5.97181e-02,7.58226e-02,7.88907e-02,8.99055e-02,5.73088e-02,2.07636e-02,-1.65526e-03,1.51260e-02,2.13598e-02,5.40161e-03,5.71515e-02,4.11664e-02,2.45155e-02,4.83514e-02,5.51813e-02,9.70637e-02,1.01463e-01,9.88327e-02,1.09819e-01,1.45124e-01,1.31750e-01,1.05351e-01,7.97611e-02,7.87762e-02,6.56860e-02,6.00837e-02,2.11548e-02,-4.64849e-02,-4.19634e-02,-7.18666e-02,-8.75001e-02,-4.94860e-02,4.00432e-03,-3.53830e-02,9.03520e-04,-1.06979e-02,-3.21317e-02,-4.39315e-02,-6.55139e-02,-5.77475e-03,1.53621e-02,1.16242e-02,3.62506e-02,1.59475e-02,3.20465e-02,3.79370e-02,4.09915e-02,8.78975e-02,4.91276e-02,8.70628e-02,6.39868e-02,1.39272e-01,9.13766e-02,8.73226e-02,4.91392e-02,4.29617e-02,1.90667e-02,-6.65428e-03,-4.66855e-02,-1.26984e-01,-1.31538e-01,-1.47189e-01,-1.38629e-01,-1.32572e-01,-8.83115e-02,-9.71748e-02,-8.43019e-02,-8.81180e-02,-7.14037e-02,-6.58268e-02,-4.91243e-02,-5.12152e-02,-1.42349e-02,-1.13309e-02,2.46476e-02,1.16903e-04,1.09637e-02,4.79253e-03,4.82263e-02,8.65692e-02,5.34645e-02,5.47582e-02,6.22891e-02,8.42694e-02,5.00387e-02,4.21244e-02,4.01264e-02,-4.83879e-03,-2.95924e-02,-6.58523e-02,-1.18208e-01,-1.33683e-01,-1.63502e-01,-1.68193e-01,-1.95902e-01,-1.36199e-01,-1.42279e-01,-1.15020e-01,-1.42098e-01,-1.11403e-01,-8.42277e-02,-9.96128e-02,-8.43870e-02,-6.56060e-02,-5.99348e-02,-3.84951e-02,-1.43700e-02,-8.93742e-03,-2.78016e-02,-6.77578e-03,3.78760e-02,2.60990e-02,3.99968e-02,1.36620e-02,3.44953e-02,9.19876e-02,2.96872e-02,-1.04021e-02,-3.42276e-03,-6.46811e-02,-9.26973e-02,-1.19269e-01,-1.33570e-01,-1.74119e-01,-2.24710e-01,-2.04174e-01,-1.97690e-01,-1.60179e-01,-1.56130e-01,-1.38692e-01,-1.44016e-01,-1.49560e-01,-1.19973e-01,-1.16403e-01,-1.37225e-01,-8.79796e-02,-8.94702e-02,-7.59735e-02,-1.77086e-02,-3.02774e-02,-1.49567e-02,9.07444e-03,2.45003e-02,8.21266e-02,6.25686e-02,5.78681e-02,8.20930e-02,1.39838e-01,9.52316e-02,6.89669e-02,5.23590e-02,1.47137e-02,6.55107e-03,-2.05488e-02,-3.19016e-02,-9.27711e-02,-1.16671e-01,-1.26020e-01,-6.86937e-02,-9.02802e-02,-6.75479e-02,-5.98911e-02,-7.30766e-02,-5.69126e-02,-6.04759e-02,-5.60531e-02,-6.63042e-02,-5.10398e-02,-2.57731e-02,-1.21938e-02,1.95921e-02,-4.53348e-03,-3.79443e-03,3.07553e-02,2.58246e-03,5.78690e-02,7.33536e-02,6.08967e-02,6.31687e-02,1.16845e-01,9.06302e-02,5.66812e-02,5.34861e-02,3.18464e-02,3.94402e-02,-1.13825e-02,-2.40096e-02,-7.07933e-02,-7.92703e-02,-6.34953e-02,-5.82818e-02,-5.28398e-02,-6.24495e-02,-2.38093e-02,-3.94867e-02,-3.75256e-02,-3.89119e-02,-6.92628e-02,-4.34644e-02,-3.35661e-02,-2.87156e-02,-1.00713e-02,1.29914e-02,-2.06231e-03,-3.70879e-03,1.48759e-02,-1.98744e-02,9.56222e-02,4.72535e-02,6.12788e-02,6.57366e-02,8.36247e-02,8.84527e-02,3.58235e-02,4.56873e-02,8.17723e-03,7.43622e-03,2.19365e-02,-8.57484e-03,-2.05577e-02,-3.16968e-02,-3.15211e-02,-1.87796e-02,-4.27913e-02,-3.45930e-02,-4.29905e-02,-3.79668e-02,-2.44753e-02,-3.56689e-02,-5.25554e-02,-2.80783e-02,-2.63112e-02,-3.75914e-02,-3.09846e-02,-3.07413e-02,-2.89702e-02,-2.56003e-02,-1.11943e-02,-1.90537e-02,4.79273e-02,5.46968e-02,1.92399e-02,2.83634e-02,3.14676e-02,3.18466e-02,-3.18858e-03,-1.80699e-02,-2.07552e-02,-1.53054e-02,-2.43774e-02,-3.20587e-02,-2.66109e-02,-3.85638e-02,-3.89049e-02,-5.22009e-02,-5.77761e-02,-6.76776e-02,-5.10898e-02,-4.47829e-02,-4.08926e-02,-5.64799e-02,-4.53288e-02,-6.68758e-02,-9.65805e-02,-9.21607e-02,-8.40776e-02,-4.31251e-02,-7.82329e-02,-6.39309e-02,-8.61393e-02,-6.57183e-02,3.29822e-02,8.61760e-03,5.33862e-03,-1.58835e-02,-1.33020e-02,-2.61400e-02,4.10824e-03,-2.30443e-02,-3.67982e-02,-2.84145e-02,-1.58806e-02,-6.36878e-03,-1.89111e-02,-5.19917e-02,-2.90542e-02,-2.83155e-02,-6.51983e-02,-7.93239e-02,-4.82735e-02,-7.62498e-02,-7.17073e-02,-8.68578e-02,-7.25429e-02,-1.00068e-01,-9.34303e-02,-4.97486e-02,-6.86540e-02,-4.73767e-02,-3.56588e-02,-4.88437e-02,-5.77126e-02,-6.08891e-02,2.70584e-02,-1.82312e-03,-2.05306e-02,-4.18714e-02,-2.33288e-03,-4.24156e-03,-5.53473e-03,-1.45103e-02,-2.99983e-02,-3.69184e-02,-4.04053e-02,-1.61533e-02,-4.37127e-02,-2.81961e-02,-2.51521e-02,-1.89720e-02,-4.18585e-02,-2.84428e-02,-6.21459e-02,-7.25131e-02,-8.11121e-02,-6.07345e-02,-9.81553e-02,-9.49167e-02,-8.59514e-02,-6.17193e-02,-4.36187e-02,-1.55488e-02,-5.98943e-02,-5.10366e-02,-3.22690e-02,-6.49355e-02,-2.59472e-03,-9.12903e-03,-2.11465e-02,-2.62722e-02,1.71633e-02,-1.82303e-02,-2.90662e-02,-1.98955e-02,-1.32238e-02,-3.06743e-02,-3.43071e-02,-4.76972e-02,-3.86721e-02,-3.63593e-02,-1.05022e-02,-4.43317e-02,-3.40959e-02,-6.29409e-02,-6.85805e-02,-4.99530e-02,-8.95708e-02,-7.95778e-02,-9.48716e-02,-9.15602e-02,-7.62892e-02,-7.47244e-02,-4.27157e-02,1.67966e-02,-5.49057e-02,-5.21192e-02,-2.33587e-02,-4.04468e-02,1.60626e-02,-4.76914e-03,-4.96247e-02,-2.38614e-02,-1.28383e-02,-5.58076e-02,-4.11190e-02,-3.58802e-02,-1.95599e-02,-5.37584e-02,-6.55243e-02,-5.99246e-02,-5.58674e-02,-4.68160e-02,-3.58536e-02,-5.02844e-02,-4.38354e-02,-3.97009e-02,-7.07896e-02,-1.00838e-01,-9.77039e-02,-8.44045e-02,-7.73613e-02,-8.09680e-02,-4.05723e-02,-1.92440e-02,-1.77694e-02,2.19085e-02,3.03952e-04,-4.04655e-02,4.59043e-03,-1.99240e-02,-5.65225e-02,-7.13477e-02,-5.80925e-02,-5.09277e-02,1.66273e-02,-5.01788e-02,-5.35833e-02,-3.59034e-02,-5.31589e-02,-4.82485e-02,-4.78998e-02,-5.78796e-02,-7.27267e-02,-6.74817e-02,-5.94248e-02,-3.65659e-02,-4.62899e-02,-7.59161e-02,-5.47313e-02,-8.44048e-02,-8.02514e-02,-7.25101e-02,-7.63571e-02,-5.85504e-02,-3.75082e-02,4.84974e-03,-9.54501e-03,4.05155e-02,-3.71563e-03,-1.69091e-02,1.47696e-02,-3.21884e-02,-1.24020e-02,-3.35929e-02,-5.84193e-02,-5.85887e-02,5.67024e-03,-2.75876e-02,-2.69595e-02,-4.35477e-02,-1.66499e-02,-3.16622e-02,-5.77329e-02,-5.11154e-02,-8.03594e-02,-5.68533e-02,-5.23427e-02,-4.97976e-02,-4.88389e-02,-7.14970e-02,-9.62474e-02,-1.05447e-01,-9.36371e-02,-1.00829e-01,-5.63516e-02,-5.19025e-02,-2.81030e-02,-4.03718e-03,1.34327e-02,3.25861e-02,-2.45905e-02,-2.34409e-02,3.02280e-03,-1.75805e-02,-1.58365e-02,-2.77055e-02,-5.16331e-02,-5.68922e-02,-1.95655e-04,-3.60325e-02,-3.57347e-02,-1.14498e-02,-3.04781e-02,-3.88213e-02,-1.16793e-02,-5.86149e-02,-5.79056e-02,-6.78847e-02,-3.61007e-02,-2.96219e-02,-5.03466e-02,-6.61203e-02,-1.22427e-01,-1.02583e-01,-8.99537e-02,-7.81522e-02,-6.22501e-02,-4.32067e-02,-9.20035e-03,1.87947e-02,8.17412e-03,5.90347e-02,1.35526e-02,-1.02041e-04,1.56487e-02,-3.33618e-02,-1.53005e-02,-4.53509e-02,-4.33608e-02,-4.34795e-02,1.53373e-02,-1.29905e-02,2.69797e-03,-1.56275e-02,2.70235e-04,-2.36127e-02,-4.96698e-02,-6.58885e-02,-8.27305e-02,-6.20303e-02,-7.42131e-02,-5.72966e-02,-8.40380e-02,-7.90698e-02,-1.42509e-01,-1.13816e-01,-1.19124e-01,-8.28905e-02,-6.92869e-02,-3.30553e-02,-4.40459e-03,5.36860e-03,-1.91829e-04,6.64451e-02,2.14708e-02,1.55863e-02,2.89470e-03,-3.73306e-02,-2.39751e-02,-4.82347e-02,-5.81286e-02,-4.37821e-02,1.96073e-02,-1.64415e-02,-1.49943e-02,-1.38568e-02,-2.97134e-02,-1.94795e-02,-3.63064e-02,-5.93311e-02,-8.49859e-02,-9.83960e-02,-1.08642e-01,-1.19790e-01,-1.04567e-01,-1.32780e-01,-1.48135e-01,-1.36709e-01,-1.36344e-01,-9.63643e-02,-6.76908e-02,-3.20772e-02,-4.16303e-03,-2.65115e-03,-1.33458e-02,5.06814e-02,6.48433e-03,8.37179e-03,-7.15897e-03,-3.19154e-02,-2.26774e-02,-5.93315e-02,-3.54987e-02,-1.43358e-02,2.41872e-02,-1.95365e-02,-3.42524e-02,-1.02333e-02,-1.81724e-02,-5.24972e-02,-2.32624e-02,-6.16737e-02,-5.73719e-02,-1.12189e-01,-1.23679e-01,-1.06852e-01,-1.36908e-01,-1.63644e-01,-1.58679e-01,-1.65033e-01,-1.35499e-01,-1.25009e-01,-8.37202e-02,-3.81918e-02,-3.86953e-02,-1.71940e-02,-1.43900e-02,5.98756e-02,6.85784e-03,7.62487e-03,7.27716e-03,-2.26393e-02,-3.55379e-02,-6.73247e-02,-3.51022e-02,-3.56729e-02,2.39705e-02,-4.14082e-02,-3.24434e-02,-2.33882e-02,-5.08277e-02,-4.67932e-02,-6.39700e-02,-6.85107e-02,-6.73578e-02,-9.91340e-02,-1.17540e-01,-9.39908e-02,-1.41362e-01,-1.63162e-01,-1.67658e-01,-1.71162e-01,-1.64846e-01,-1.14266e-01,-1.06168e-01,-6.01438e-02,-4.85314e-02,-2.52625e-02,3.70059e-03,4.96177e-02,-6.10501e-03,-2.59277e-02,-8.87023e-04,-5.09156e-02,-5.58401e-02,-5.88794e-02,-5.60885e-02,-3.28676e-02,2.46036e-02,-2.00295e-02,-2.17015e-02,-4.38577e-03,1.02724e-03,-3.84560e-02,-6.10594e-02,-1.00263e-01,-9.65384e-02,-1.22312e-01,-1.31463e-01,-1.23284e-01,-1.53225e-01,-1.75388e-01,-1.98006e-01,-2.11475e-01,-2.03097e-01,-1.45011e-01,-1.29250e-01,-5.56134e-02,-1.27692e-02,-6.04030e-03,-4.34153e-05,1.58039e-02,-1.00990e-02,-1.80184e-02,-7.46901e-03,-3.26298e-02,-4.46630e-02,-2.03891e-02,-4.29417e-02,-4.16743e-02,1.80814e-02,-1.98404e-02,-2.26807e-03,1.68245e-02,-1.21746e-02,-5.24116e-02,-8.53979e-02,-1.12200e-01,-1.27262e-01,-1.96501e-01,-2.22303e-01,-2.29420e-01,-2.32024e-01,-2.37970e-01,-2.52132e-01,-2.37186e-01,-2.54278e-01,-1.89477e-01,-1.24307e-01,-8.00685e-02,-3.04891e-02,8.35268e-03,5.17495e-03,3.39059e-02,2.46766e-04,-1.76973e-02,-8.30981e-04,-2.41245e-02,-3.35873e-02,-2.16206e-02,-1.89886e-02,-1.92623e-02,1.46630e-02,-1.32087e-03,-1.05079e-02,-6.68574e-04,-1.92143e-02,-5.32111e-02,-7.08565e-02,-1.28581e-01,-1.81933e-01,-2.40663e-01,-2.67406e-01,-2.99260e-01,-2.81395e-01,-2.85136e-01,-2.94517e-01,-2.71336e-01,-2.53462e-01,-2.20102e-01,-1.34171e-01,-7.76110e-02,-2.61135e-02,6.01002e-03,-1.97525e-02,1.38921e-02,6.12918e-04,-4.89902e-04,-1.36900e-03,-1.57990e-02,-6.04019e-02,-5.33011e-02,-5.31470e-02,-5.91513e-02,6.55961e-03,-4.01477e-02,-3.15939e-02,-1.83494e-02,-1.04589e-02,-6.21431e-02,-9.57978e-02,-1.41404e-01,-2.14552e-01,-2.52857e-01,-2.80568e-01,-3.09165e-01,-3.35943e-01,-3.15808e-01,-3.05103e-01,-3.13048e-01,-2.69730e-01,-2.13591e-01,-1.70439e-01,-9.58074e-02,-2.14179e-02,-2.20114e-02,-2.47278e-02,2.91960e-02,-1.75602e-02,1.93292e-03,-1.06801e-02,-3.88027e-02,-6.66001e-02,-5.52461e-02,-6.67711e-02,-7.79716e-02,-1.87693e-02,-4.48538e-02,-2.63796e-02,-2.84356e-02,-2.49370e-03,-3.40498e-02,-9.47355e-02,-1.30494e-01,-2.02899e-01,-2.38992e-01,-2.64310e-01,-3.07972e-01,-3.18002e-01,-3.24144e-01,-3.39611e-01,-3.01326e-01,-2.87991e-01,-1.90445e-01,-1.67597e-01,-1.02076e-01,-3.92884e-02,-1.33535e-02,-4.34636e-04,2.21276e-02,-2.56363e-02,-8.83298e-03,5.46371e-03,-3.24113e-02,-5.84714e-02,-7.35700e-02,-7.04922e-02,-7.19529e-02,-6.61395e-02,-6.91511e-02,-4.36505e-02,-5.08785e-02,-6.98203e-02,-5.97761e-02,-1.06669e-01,-1.59434e-01,-1.82924e-01,-2.27699e-01,-2.65561e-01,-2.89110e-01,-2.66727e-01,-3.02032e-01,-2.91423e-01,-2.65331e-01,-2.35734e-01,-2.11825e-01,-1.51207e-01,-9.53976e-02,-6.98762e-02,-2.47930e-02,-1.64034e-03,2.36075e-02,-8.37524e-03,-9.31645e-04,1.73194e-02,-2.54974e-02,-8.22008e-02,-7.54806e-02,-8.94879e-02,-8.21887e-02,-5.42784e-02,-8.26507e-02,-6.31703e-02,-5.71920e-02,-4.97453e-02,-6.44535e-02,-8.74541e-02,-1.24661e-01,-1.42181e-01,-1.88762e-01,-2.20403e-01,-2.18089e-01,-2.54698e-01,-2.65516e-01,-2.56321e-01,-2.44593e-01,-2.24931e-01,-1.37249e-01,-1.23840e-01,-8.47477e-02,-3.80529e-02,-1.68956e-02,-1.11566e-02,3.48299e-02,-1.47225e-02,-1.70946e-02,-2.40751e-02,-4.14670e-02,-7.95663e-02,-8.77453e-02,-8.20509e-02,-1.04762e-01,-5.72841e-02,-8.42381e-02,-9.08099e-02,-7.25934e-02,-7.44507e-02,-6.75252e-02,-1.03532e-01,-1.11162e-01,-9.29204e-02,-1.45032e-01,-1.86808e-01,-2.04120e-01,-2.08646e-01,-2.25533e-01,-2.14515e-01,-1.87072e-01,-1.58187e-01,-1.13199e-01,-8.08928e-02,-4.90854e-02,-1.50625e-03,-2.57929e-02,-1.22366e-02,2.80043e-02,-3.53621e-03,-2.08414e-02,-3.50883e-02,-2.63357e-02,-9.83887e-02,-1.06628e-01,-1.01789e-01,-8.73301e-02,-3.76176e-02,-1.00770e-01,-8.82339e-02,-7.61494e-02,-1.00255e-01,-1.12108e-01,-1.04585e-01,-1.44662e-01,-1.21776e-01,-1.49923e-01,-1.88287e-01,-2.09007e-01,-2.30190e-01,-2.05309e-01,-1.65863e-01,-1.34831e-01,-1.19386e-01,-7.81888e-02,-6.04202e-02,-1.59252e-02,-5.95985e-03,-3.88812e-03,-5.11875e-04,4.81205e-02,-5.20149e-03,-2.22310e-02,-4.10074e-02,-3.00749e-02,-6.96465e-02,-8.47266e-02,-1.02941e-01,-8.04079e-02,-5.51653e-02,-5.76200e-02,-8.19795e-02,-6.75993e-02,-8.69295e-02,-1.03888e-01,-9.85441e-02,-1.55840e-01,-1.76443e-01,-1.84920e-01,-2.27802e-01,-2.62695e-01,-2.30917e-01,-2.34259e-01,-2.00918e-01,-1.43562e-01,-1.13906e-01,-5.43796e-02,-9.63740e-03,-6.59755e-03,2.11702e-02,-1.40893e-03,1.10686e-02,3.40780e-02,-7.15907e-03,-6.50057e-03,-3.42764e-02,-3.58897e-02,-8.23016e-02,-9.18064e-02,-1.16041e-01,-7.36227e-02,-5.14536e-02,-5.86832e-02,-6.08935e-02,-4.94311e-02,-6.25629e-02,-7.17185e-02,-9.46777e-02,-1.36806e-01,-2.01957e-01,-2.38081e-01,-3.08074e-01,-3.16738e-01,-2.75741e-01,-2.58714e-01,-2.17506e-01,-1.75911e-01,-1.08879e-01,-4.47228e-02,-2.99116e-02,-9.20459e-03,2.93769e-02,2.40514e-02,3.59541e-02,7.56424e-02,2.68901e-02,-4.05228e-03,1.11600e-02,-1.47062e-02,-9.72697e-02,-7.61946e-02,-1.02836e-01,-8.86945e-02,-5.32736e-02,-5.88846e-02,-5.90481e-02,-5.39083e-02,-5.29965e-02,-9.92481e-02,-1.06402e-01,-1.73081e-01,-2.16903e-01,-3.01214e-01,-3.06039e-01,-3.33928e-01,-3.05059e-01,-2.59334e-01,-2.36237e-01,-1.57623e-01,-1.01542e-01,-8.55923e-02,-3.76447e-02,-1.71693e-02,4.18458e-03,3.58200e-02,1.89318e-02,5.34112e-02,1.44421e-02,3.93599e-03,-3.37643e-04,-1.62705e-02,-1.01917e-01,-8.46393e-02,-7.55652e-02,-7.86834e-02,-9.79985e-03,-4.14895e-02,-6.07969e-02,-6.81735e-02,-7.78807e-02,-9.21575e-02,-1.49682e-01,-1.82655e-01,-2.18402e-01,-2.72948e-01,-2.93645e-01,-3.25134e-01,-2.92600e-01,-2.36806e-01,-2.08515e-01,-1.44886e-01,-9.68603e-02,-8.75747e-02,-6.09685e-02,-6.51511e-02,-5.06320e-02,9.49158e-04,4.26910e-03,6.20861e-02,2.68306e-02,-2.29498e-03,1.71382e-02,-3.94905e-02,-1.17766e-01,-1.08476e-01,-1.02480e-01,-7.55031e-02,-1.42364e-02,-5.24959e-02,-6.12959e-02,-7.04087e-02,-7.82050e-02,-1.24505e-01,-1.35504e-01,-1.56787e-01,-1.98232e-01,-2.03044e-01,-2.66339e-01,-2.40593e-01,-2.17600e-01,-2.09184e-01,-1.81342e-01,-1.35801e-01,-1.01729e-01,-1.07613e-01,-9.25473e-02,-9.45557e-02,-6.03012e-02,-2.97165e-02,-1.70981e-03,4.96048e-02,-2.13908e-03,-2.16010e-02,-3.23828e-02,-2.99609e-02,-1.06224e-01,-1.02422e-01,-1.21702e-01,-8.10646e-02,-3.31520e-02,-6.32114e-02,-7.16475e-02,-6.54713e-02,-8.83511e-02,-7.95392e-02,-7.90659e-02,-1.06928e-01,-1.62054e-01,-1.56832e-01,-1.84335e-01,-2.06046e-01,-1.57366e-01,-1.46399e-01,-1.50200e-01,-1.16584e-01,-9.32854e-02,-8.65458e-02,-8.91147e-02,-4.63403e-02,-3.87665e-02,-3.72491e-02,-7.02289e-03,4.85881e-02,3.53742e-03,-4.27848e-02,-3.76290e-02,-5.01701e-02,-1.12929e-01,-1.13730e-01,-1.21339e-01,-1.34442e-01,-5.48474e-02,-1.02784e-01,-8.42903e-02,-9.61634e-02,-7.27651e-02,-1.12930e-01,-8.55133e-02,-1.09171e-01,-1.07506e-01,-1.43659e-01,-1.61187e-01,-1.81870e-01,-1.50367e-01,-1.11288e-01,-1.07425e-01,-1.33559e-01,-9.60705e-02,-7.70441e-02,-7.42855e-02,-5.34150e-02,-3.74714e-02,-3.04801e-02,-4.96473e-02,1.03805e-02,-4.23027e-02,-3.72557e-02,-4.07488e-02,-5.57548e-02,-1.30497e-01,-1.19818e-01,-1.32918e-01,-1.18419e-01,-6.61321e-02,-1.33962e-01,-1.12971e-01,-9.19281e-02,-7.95794e-02,-9.74303e-02,-9.63333e-02,-9.35918e-02,-1.32238e-01,-1.43516e-01,-1.38570e-01,-1.19669e-01,-8.50742e-02,-9.34934e-02,-6.81493e-02,-6.34321e-02,-8.74143e-02,-7.30662e-02,-3.91623e-02,-4.72845e-02,-4.42425e-02,-2.59541e-02,-1.73446e-02,1.55882e-02,-1.96618e-02,-2.67307e-02,-3.51513e-02,-8.40041e-02,-1.05085e-01,-1.06132e-01,-1.15560e-01,-9.13873e-02,-6.20158e-02,-8.21769e-02,-7.18007e-02,-6.89601e-02,-6.39394e-02,-4.17100e-02,-5.32497e-02,-7.96000e-02,-1.02557e-01,-1.29890e-01,-1.02175e-01,-8.57091e-02,-7.54113e-02,-7.28312e-02,-6.81602e-02,-7.16029e-02,-4.14486e-02,-4.23534e-02,-1.83320e-02,-2.21736e-02,-1.94202e-02,-1.63902e-02,-2.21280e-02,2.10863e-02,-1.96348e-02,-3.03915e-02,-6.47042e-02,-6.14518e-02,-1.05979e-01,-1.13728e-01,-1.09798e-01,-7.75063e-02,-3.95545e-02,-6.28942e-02,-7.33380e-02,-6.94317e-02,-5.68207e-02,-4.45951e-02,-2.23479e-02,-4.50981e-02,-6.92266e-02,-9.35952e-02,-1.00763e-01,-1.01837e-01,-8.14874e-02,-5.99439e-02,-4.89223e-02,-7.11966e-02,-6.74077e-02,-5.92204e-02,-3.77631e-02,-4.09514e-02,-2.68385e-02,-2.89808e-02,-1.26249e-02,-1.76815e-02,-3.41133e-02,-4.40664e-02,-5.61590e-02,-6.99800e-02,-8.15139e-02,-1.05472e-01,-1.00580e-01,-8.86508e-02,-6.79646e-02,-6.79147e-02,-5.44142e-02,-5.85371e-02,-5.62295e-02,-3.34608e-02,-5.56733e-02,-3.88497e-02,-5.95315e-02,-5.96117e-02,-7.17398e-02,-6.54289e-02,-5.18078e-02,-5.96119e-02,-6.83905e-02,-5.66840e-02,-5.01500e-02,-4.74399e-02,-2.78112e-02,-3.91362e-02,-1.82060e-02,-3.25912e-02,-3.40018e-02,-2.74048e-02,-6.69218e-02,-8.29796e-02,-8.99235e-02,-1.01599e-01,-1.13021e-01,-1.20977e-01,-1.27735e-01,-1.24705e-01,-9.50414e-02,-1.22570e-01,-1.18490e-01,-7.94894e-02,-7.54763e-02,-9.35967e-02,-9.03940e-02,-1.05137e-01,-1.17517e-01,-1.11259e-01,-8.65638e-02,-9.93450e-02,-1.18186e-01,-1.00994e-01,-9.55387e-02,-1.09152e-01,-9.16157e-02,-9.53306e-02,-8.97602e-02,-8.03643e-02,-7.86022e-02,-9.51755e-02,-9.65188e-02,-5.11351e-02,-8.42129e-02,-1.04220e-01,-1.30653e-01,-1.37031e-01,1.82556e-01,1.28080e-01,1.37146e-01,1.14869e-01,1.42410e-01,1.44631e-01,1.43520e-01,1.09521e-01,1.11123e-01,1.02849e-01,1.09417e-01,1.49464e-01,1.08966e-01,8.97668e-02,1.21472e-01,1.15152e-01,8.81412e-02,5.89532e-02,6.34658e-02,4.77091e-02,3.54926e-02,5.55921e-02,6.39273e-02,2.79430e-02,2.28695e-02,6.48884e-02,7.48069e-02,7.49867e-02,4.98652e-02,5.23717e-02,6.66797e-02,4.23682e-02,1.24795e-01,1.07619e-01,8.71689e-02,7.11774e-02,1.01681e-01,1.04450e-01,1.03176e-01,7.79291e-02,7.41449e-02,9.74135e-02,9.35345e-02,1.12875e-01,1.02096e-01,6.93647e-02,9.52779e-02,8.64471e-02,9.66154e-02,6.20005e-02,6.99947e-02,4.87492e-02,1.41611e-02,1.87851e-02,3.15020e-02,3.57775e-02,2.92909e-02,3.28927e-02,3.59212e-02,7.37252e-02,3.61000e-02,2.02825e-02,2.78398e-02,1.88420e-02,1.19090e-01,8.39870e-02,5.39810e-02,5.45972e-02,1.25454e-01,8.67761e-02,7.52802e-02,6.83471e-02,7.22766e-02,6.03634e-02,6.43566e-02,4.58371e-02,5.29263e-02,8.56305e-02,9.63832e-02,1.05598e-01,9.57089e-02,5.08178e-02,2.69177e-02,4.67351e-02,2.83542e-03,1.74304e-02,-1.94160e-02,1.79012e-02,7.68584e-03,-1.46443e-02,2.92371e-02,8.41959e-02,-8.38503e-03,-1.32784e-02,3.38840e-02,3.32099e-02,1.07318e-01,8.97463e-02,4.40579e-02,5.63775e-02,8.28586e-02,3.97842e-02,1.75396e-02,5.50148e-02,5.59949e-02,2.40173e-02,2.56693e-02,-5.79609e-03,2.78813e-02,5.78452e-02,7.13586e-02,9.94082e-02,5.48716e-02,1.91153e-02,-9.22817e-04,1.59659e-02,-1.96042e-02,-1.48241e-02,-1.61714e-02,1.15191e-02,-4.92447e-03,1.26764e-02,1.05694e-02,5.90101e-02,2.40237e-02,2.21727e-03,5.07126e-02,1.90268e-02,9.61553e-02,5.92672e-02,1.20397e-02,2.18839e-02,1.11142e-01,3.07314e-02,3.56625e-02,4.19609e-02,4.53719e-02,1.40059e-02,9.16956e-03,2.06071e-02,2.23444e-02,3.08160e-02,6.05813e-02,7.07450e-02,5.76579e-02,4.90143e-02,1.20922e-02,3.60712e-02,1.20747e-02,2.13674e-02,-1.21935e-02,2.95253e-02,4.40319e-02,6.80156e-02,4.94305e-02,9.78635e-02,1.65684e-02,1.11648e-02,2.37411e-02,2.73569e-02,8.24982e-02,5.12842e-02,7.88771e-03,-7.38852e-03,5.77373e-02,2.22576e-02,2.53589e-02,2.81803e-02,4.52588e-02,5.09483e-02,2.23819e-02,3.84088e-03,2.84502e-03,3.57888e-03,8.26325e-03,3.37215e-02,-4.60571e-03,-7.82243e-03,-3.03987e-02,-3.85429e-02,-3.83015e-02,-2.71601e-02,-3.39781e-02,1.46173e-03,1.89595e-02,3.63768e-02,3.29161e-02,1.04891e-01,1.88813e-02,2.88566e-02,4.32463e-02,-1.85959e-02,9.43842e-02,5.16392e-02,6.68085e-03,1.65984e-02,5.28477e-02,3.43044e-02,4.74853e-03,3.18377e-02,2.79161e-02,2.13848e-02,2.48842e-02,7.01898e-03,-1.93220e-02,-2.04376e-02,1.88468e-02,1.48360e-02,1.21985e-02,-2.80033e-02,-4.81803e-02,-4.47869e-02,-6.99749e-02,-3.81137e-02,-2.62412e-02,2.14335e-02,5.89263e-02,6.04713e-02,5.51638e-02,7.53694e-02,4.49537e-03,-2.74727e-03,4.34221e-02,1.00695e-02,7.15449e-02,3.73084e-02,3.61987e-02,-8.84204e-03,7.42242e-02,2.47903e-02,1.92883e-02,1.17245e-02,8.44730e-03,1.16464e-02,-2.12303e-02,-2.19376e-02,-4.39355e-02,-3.17612e-02,2.30085e-03,-2.42935e-02,-2.95297e-02,-6.31016e-02,-1.04767e-01,-9.59765e-02,-5.33494e-02,-5.30155e-02,-2.43172e-02,8.24603e-04,1.42585e-02,5.31426e-02,4.37105e-02,1.03085e-01,1.10259e-02,1.81178e-02,2.52024e-02,3.91639e-03,9.54187e-02,3.40878e-02,2.63930e-02,1.76223e-02,9.02386e-02,2.68721e-02,4.35790e-02,2.21907e-02,6.87752e-03,-3.62546e-03,1.00770e-02,-1.20164e-02,-6.28643e-02,-7.06528e-02,-4.56969e-02,-5.26623e-02,-1.59268e-02,-5.97505e-02,-7.92174e-02,-9.61766e-02,-8.36589e-02,-2.98334e-02,7.39949e-03,2.01678e-02,2.32567e-02,3.91945e-02,4.48483e-02,9.96468e-02,1.60542e-02,1.22598e-02,2.25456e-02,-6.61374e-03,5.58929e-02,2.37284e-02,2.83224e-02,2.47457e-02,1.01579e-01,1.69960e-02,1.47676e-02,1.34698e-02,-1.53956e-02,6.60244e-03,6.99844e-03,5.49045e-03,2.36309e-03,-4.89398e-02,-1.07684e-02,-2.87322e-02,-3.93758e-02,-9.37398e-02,-9.24601e-02,-1.06875e-01,-7.59096e-02,-3.74748e-02,-3.55606e-02,2.58088e-02,2.02744e-02,2.72900e-02,1.81033e-02,9.18729e-02,2.35575e-02,3.47679e-02,4.19880e-02,-1.92460e-02,5.05093e-02,3.36133e-02,4.97509e-02,2.81519e-02,8.23877e-02,-1.55299e-04,2.68444e-02,-3.31102e-03,5.41653e-03,2.90629e-02,2.01946e-02,2.98475e-03,2.43264e-02,-3.47107e-03,2.04984e-03,2.11749e-02,-5.82841e-02,-9.33123e-02,-9.37057e-02,-1.13556e-01,-1.02574e-01,-5.96727e-02,-1.16144e-02,1.56205e-02,4.78666e-02,3.81152e-02,4.29776e-02,6.56845e-02,5.28810e-04,1.51558e-02,1.20093e-02,-3.69991e-02,7.93395e-02,3.80855e-02,1.95317e-02,5.07065e-03,6.31536e-02,1.96452e-02,2.86823e-02,5.73041e-02,7.88718e-02,5.86576e-02,4.83301e-02,4.20403e-02,1.41936e-02,-3.09330e-02,-1.91979e-03,-1.25015e-03,-3.25365e-02,-9.51740e-02,-7.66990e-02,-1.44583e-01,-1.22751e-01,-9.97732e-02,-3.44935e-02,3.08354e-02,4.44122e-02,6.94525e-02,4.37580e-02,7.93729e-02,1.39620e-03,1.69454e-02,2.16113e-02,-1.93961e-02,5.75542e-02,5.64208e-02,3.28943e-02,1.78710e-02,8.86481e-02,5.68553e-02,6.92680e-02,8.80547e-02,9.32742e-02,9.36898e-02,6.98840e-02,4.03210e-02,2.35292e-02,-3.60495e-02,-4.10550e-02,-7.79035e-02,-8.29609e-02,-1.34555e-01,-1.43609e-01,-1.52481e-01,-1.81459e-01,-1.16655e-01,-3.19662e-02,6.73578e-03,6.79284e-02,7.74203e-02,5.18259e-02,6.82634e-02,1.06083e-02,2.73109e-03,1.29804e-02,-3.96212e-02,6.83695e-02,5.31058e-02,4.91209e-02,5.11330e-03,7.85652e-02,7.23163e-02,7.40659e-02,1.10386e-01,1.08868e-01,1.04620e-01,7.56771e-02,6.10749e-02,6.32178e-04,-3.83996e-02,-9.41768e-02,-9.81328e-02,-1.25965e-01,-1.26439e-01,-1.59508e-01,-1.80192e-01,-1.61302e-01,-9.23659e-02,-5.07016e-02,3.84844e-02,8.61669e-02,5.22897e-02,3.66674e-02,5.80793e-02,1.97746e-03,-8.93339e-03,2.16741e-02,3.04410e-03,4.73996e-02,4.63981e-02,2.74898e-02,4.80396e-03,7.58790e-02,6.97215e-02,9.37835e-02,1.36234e-01,1.34664e-01,1.37507e-01,8.66678e-02,6.13076e-02,-7.09388e-03,-3.84404e-02,-5.51193e-02,-7.15502e-02,-1.53670e-01,-1.85683e-01,-2.10810e-01,-2.12122e-01,-1.55143e-01,-8.04800e-02,-3.39977e-02,1.54087e-02,8.60720e-02,7.83618e-02,5.43552e-02,6.88658e-02,-1.12413e-02,6.04502e-03,-4.00390e-04,8.57718e-03,4.33583e-02,2.78823e-02,5.90179e-02,3.38470e-02,9.55928e-02,4.21173e-02,1.05695e-01,1.34004e-01,1.63740e-01,1.73878e-01,1.48722e-01,1.02392e-01,4.54325e-02,-1.54322e-02,-2.14680e-02,-8.50592e-02,-1.76894e-01,-1.88217e-01,-1.98782e-01,-1.97260e-01,-1.79893e-01,-8.46123e-02,-3.87003e-02,1.99274e-02,3.73643e-02,6.73856e-02,5.19452e-02,7.56613e-02,4.03344e-03,3.51213e-02,1.77893e-02,7.26743e-04,5.08824e-02,3.92003e-02,2.15262e-02,3.74017e-02,7.17371e-02,5.12007e-02,1.04107e-01,1.05974e-01,1.54589e-01,2.14152e-01,1.69973e-01,1.32718e-01,1.02111e-01,2.01877e-02,-9.06217e-03,-6.28343e-02,-1.10298e-01,-1.71931e-01,-1.96886e-01,-1.54611e-01,-1.43426e-01,-8.48609e-02,-1.73289e-02,3.41272e-02,5.56054e-02,7.02572e-02,7.65164e-02,9.37770e-02,3.25914e-02,2.34803e-02,7.00394e-02,1.69941e-02,2.12956e-02,3.54678e-02,2.54621e-02,1.38519e-02,8.96070e-02,7.98424e-02,8.39758e-02,1.19555e-01,1.51230e-01,1.98760e-01,1.79134e-01,1.85423e-01,1.71377e-01,8.60757e-02,4.50576e-02,3.52330e-05,-3.51872e-02,-8.26744e-02,-1.29513e-01,-8.76881e-02,-8.32144e-02,1.42073e-02,2.86843e-03,6.74397e-02,9.26756e-02,1.01067e-01,1.03958e-01,1.01925e-01,6.19223e-02,4.19736e-02,1.48254e-02,5.79234e-03,1.52829e-02,3.98766e-02,3.68949e-02,1.02295e-02,8.02501e-02,5.05278e-02,6.60310e-02,7.98323e-02,1.42900e-01,1.63736e-01,1.52042e-01,1.83827e-01,1.86716e-01,1.26929e-01,7.64239e-02,2.61658e-02,-1.72795e-02,-6.17132e-02,-6.37041e-02,-5.27876e-02,-6.51357e-03,4.43782e-02,1.00594e-01,1.26305e-01,1.10296e-01,9.90416e-02,1.05590e-01,1.28024e-01,8.25703e-02,4.11406e-02,3.89246e-02,3.83918e-02,3.04078e-02,2.62194e-02,2.20923e-02,1.86935e-02,9.96989e-02,4.80634e-02,4.39129e-02,9.53127e-02,1.06974e-01,1.18887e-01,1.39247e-01,1.32917e-01,1.38785e-01,1.19040e-01,3.75417e-02,-1.44863e-02,-4.09680e-02,-3.84475e-02,-2.27110e-02,-2.86320e-02,1.31792e-02,9.20659e-02,1.16443e-01,1.16638e-01,1.03295e-01,1.10139e-01,1.21974e-01,1.56912e-01,7.12723e-02,4.01779e-02,6.05586e-02,2.15004e-02,3.57615e-02,3.07020e-02,3.01475e-02,5.83416e-02,1.07206e-01,1.04549e-01,8.45990e-02,1.08825e-01,1.08909e-01,1.03807e-01,1.68080e-01,1.40615e-01,7.63738e-02,1.69326e-02,-4.36226e-02,-9.39973e-02,-1.00922e-01,-1.06049e-01,-7.51406e-02,-5.09676e-03,4.86811e-02,1.14936e-01,1.56688e-01,1.61386e-01,1.67916e-01,1.32912e-01,1.16909e-01,1.81975e-01,8.88570e-02,5.25682e-02,6.35878e-02,4.89642e-03,3.75938e-02,2.87077e-02,1.31173e-02,4.56264e-02,1.43138e-01,1.10378e-01,1.05796e-01,1.45183e-01,1.28762e-01,1.12553e-01,1.39461e-01,9.64592e-02,2.41487e-02,-7.99272e-02,-1.42643e-01,-1.92258e-01,-2.14137e-01,-1.68499e-01,-1.14776e-01,-5.66049e-02,1.19618e-02,8.55971e-02,1.36111e-01,1.50633e-01,1.75819e-01,1.32151e-01,1.52897e-01,1.81919e-01,1.04863e-01,8.81148e-02,6.55789e-02,3.02491e-02,4.12482e-02,4.05350e-02,6.28346e-02,6.48912e-02,1.62408e-01,1.30312e-01,1.49813e-01,1.19961e-01,1.16674e-01,1.16489e-01,1.17899e-01,6.00948e-02,-3.78674e-02,-1.21164e-01,-1.99147e-01,-2.19281e-01,-1.80934e-01,-1.38797e-01,-1.03126e-01,-3.27407e-02,3.12667e-02,7.60435e-02,1.08664e-01,1.13606e-01,1.49487e-01,1.61764e-01,1.52418e-01,1.99494e-01,1.30026e-01,9.34618e-02,7.31300e-02,3.18985e-02,5.28900e-02,3.05786e-02,5.09923e-02,8.38048e-02,1.83886e-01,1.70968e-01,1.71736e-01,1.38074e-01,1.40945e-01,9.57890e-02,8.46928e-02,2.78300e-02,-3.07576e-02,-1.14696e-01,-1.62015e-01,-1.87816e-01,-1.33529e-01,-1.20928e-01,-8.80340e-02,-2.88198e-02,5.49026e-02,7.43417e-02,9.97257e-02,9.10512e-02,8.20847e-02,1.04541e-01,1.22172e-01,1.64969e-01,9.58693e-02,6.69389e-02,5.98364e-02,2.98232e-02,1.49118e-02,3.50178e-02,7.33142e-02,5.67024e-02,1.57542e-01,1.06891e-01,1.32808e-01,1.17009e-01,1.02258e-01,6.54761e-02,6.85623e-02,7.91121e-02,-1.10894e-02,-3.93951e-02,-9.99704e-02,-1.13952e-01,-7.06168e-02,-5.66885e-02,-3.75966e-02,6.81296e-03,6.60087e-02,4.61228e-02,3.20604e-02,6.08865e-02,4.96927e-02,7.83943e-02,8.50690e-02,1.41068e-01,5.16465e-02,5.75173e-02,4.35291e-02,2.66303e-02,3.39666e-02,2.85558e-02,3.80721e-02,3.09813e-02,1.30120e-01,9.23690e-02,8.62934e-02,1.17799e-01,1.22390e-01,1.24576e-01,8.42341e-02,6.78209e-02,4.84367e-02,2.93356e-03,-8.73365e-03,-2.58171e-02,-2.37780e-02,1.31091e-02,-4.92180e-03,1.83447e-02,5.34722e-02,5.11960e-02,5.52238e-02,7.47648e-02,4.37682e-02,7.62840e-02,4.57615e-02,1.06558e-01,5.04887e-02,2.88128e-02,2.76487e-02,-8.35513e-03,1.45877e-02,-2.93489e-03,-1.17998e-02,-2.63653e-02,9.16574e-02,4.61984e-02,5.06529e-02,6.70658e-02,6.05895e-02,5.01108e-02,4.29121e-02,7.02500e-03,1.75153e-02,-1.87583e-02,-3.37700e-02,-5.59126e-02,7.11131e-03,1.53899e-02,3.22236e-03,1.40836e-02,3.74761e-02,5.54164e-02,3.02434e-02,3.92203e-02,3.87107e-02,3.06207e-02,2.59067e-02,6.86099e-02,1.57977e-02,5.00518e-03,2.03430e-02,9.05781e-03,1.66119e-03,-1.42252e-02,1.45963e-02,-3.09165e-02,7.67049e-02,2.54969e-03,1.53427e-03,3.76789e-02,6.06780e-02,4.24317e-02,5.86245e-02,5.44999e-02,-4.68259e-03,6.20759e-03,-9.01956e-03,1.39266e-02,5.35136e-02,5.80146e-02,6.15843e-02,5.16680e-02,6.14922e-02,8.31017e-02,7.00350e-02,5.83827e-02,5.98164e-02,5.66849e-02,6.11667e-03,6.79018e-02,-7.29843e-03,1.87477e-02,3.02124e-02,-1.16745e-02,-1.56978e-02,5.00390e-03,-1.42660e-03,-1.54780e-02,4.38976e-02,-2.24013e-02,-1.32892e-02,-5.15015e-03,2.01928e-03,2.16262e-03,7.25994e-03,-2.24325e-02,-5.10827e-02,-7.41822e-02,-4.73400e-02,-3.52888e-02,-8.62032e-03,-1.42219e-02,-7.75690e-03,-2.99092e-02,-8.20108e-03,3.11478e-02,