// Neural Network File Format by Kyle Julian, Stanford 2016
4,3072,10,3072,
3072,50,50,50,10,
0,
0,0,0,0,0,0,0,0,0,0,0,0,0,0,0,0,0,0,0,0,0,0,0,0,0,0,0,0,0,0,0,0,0,0,0,0,0,0,0,0,0,0,0,0,0,0,0,0,0,0,0,0,0,0,0,0,0,0,0,0,0,0,0,0,0,0,0,0,0,0,0,0,0,0,0,0,0,0,0,0,0,0,0,0,0,0,0,0,0,0,0,0,0,0,0,0,0,0,0,0,0,0,0,0,0,0,0,0,0,0,0,0,0,0,0,0,0,0,0,0,0,0,0,0,0,0,0,0,0,0,0,0,0,0,0,0,0,0,0,0,0,0,0,0,0,0,0,0,0,0,0,0,0,0,0,0,0,0,0,0,0,0,0,0,0,0,0,0,0,0,0,0,0,0,0,0,0,0,0,0,0,0,0,0,0,0,0,0,0,0,0,0,0,0,0,0,0,0,0,0,0,0,0,0,0,0,0,0,0,0,0,0,0,0,0,0,0,0,0,0,0,0,0,0,0,0,0,0,0,0,0,0,0,0,0,0,0,0,0,0,0,0,0,0,0,0,0,0,0,0,0,0,0,0,0,0,0,0,0,0,0,0,0,0,0,0,0,0,0,0,0,0,0,0,0,0,0,0,0,0,0,0,0,0,0,0,0,0,0,0,0,0,0,0,0,0,0,0,0,0,0,0,0,0,0,0,0,0,0,0,0,0,0,0,0,0,0,0,0,0,0,0,0,0,0,0,0,0,0,0,0,0,0,0,0,0,0,0,0,0,0,0,0,0,0,0,0,0,0,0,0,0,0,0,0,0,0,0,0,0,0,0,0,0,0,0,0,0,0,0,0,0,0,0,0,0,0,0,0,0,0,0,0,0,0,0,0,0,0,0,0,0,0,0,0,0,0,0,0,0,0,0,0,0,0,0,0,0,0,0,0,0,0,0,0,0,0,0,0,0,0,0,0,0,0,0,0,0,0,0,0,0,0,0,0,0,0,0,0,0,0,0,0,0,0,0,0,0,0,0,0,0,0,0,0,0,0,0,0,0,0,0,0,0,0,0,0,0,0,0,0,0,0,0,0,0,0,0,0,0,0,0,0,0,0,0,0,0,0,0,0,0,0,0,0,0,0,0,0,0,0,0,0,0,0,0,0,0,0,0,0,0,0,0,0,0,0,0,0,0,0,0,0,0,0,0,0,0,0,0,0,0,0,0,0,0,0,0,0,0,0,0,0,0,0,0,0,0,0,0,0,0,0,0,0,0,0,0,0,0,0,0,0,0,0,0,0,0,0,0,0,0,0,0,0,0,0,0,0,0,0,0,0,0,0,0,0,0,0,0,0,0,0,0,0,0,0,0,0,0,0,0,0,0,0,0,0,0,0,0,0,0,0,0,0,0,0,0,0,0,0,0,0,0,0,0,0,0,0,0,0,0,0,0,0,0,0,0,0,0,0,0,0,0,0,0,0,0,0,0,0,0,0,0,0,0,0,0,0,0,0,0,0,0,0,0,0,0,0,0,0,0,0,0,0,0,0,0,0,0,0,0,0,0,0,0,0,0,0,0,0,0,0,0,0,0,0,0,0,0,0,0,0,0,0,0,0,0,0,0,0,0,0,0,0,0,0,0,0,0,0,0,0,0,0,0,0,0,0,0,0,0,0,0,0,0,0,0,0,0,0,0,0,0,0,0,0,0,0,0,0,0,0,0,0,0,0,0,0,0,0,0,0,0,0,0,0,0,0,0,0,0,0,0,0,0,0,0,0,0,0,0,0,0,0,0,0,0,0,0,0,0,0,0,0,0,0,0,0,0,0,0,0,0,0,0,0,0,0,0,0,0,0,0,0,0,0,0,0,0,0,0,0,0,0,0,0,0,0,0,0,0,0,0,0,0,0,0,0,0,0,0,0,0,0,0,0,0,0,0,0,0,0,0,0,0,0,0,0,0,0,0,0,0,0,0,0,0,0,0,0,0,0,0,0,0,0,0,0,0,0,0,0,0,0,0,0,0,0,0,0,0,0,0,0,0,0,0,0,0,0,0,0,0,0,0,0,0,0,0,0,0,0,0,0,0,0,0,0,0,0,0,0,0,0,0,0,0,0,0,0,0,0,0,0,0,0,0,0,0,0,0,0,0,0,0,0,0,0,0,0,0,0,0,0,0,0,0,0,0,0,0,0,0,0,0,0,0,0,0,0,0,0,0,0,0,0,0,0,0,0,0,0,0,0,0,0,0,0,0,0,0,0,0,0,0,0,0,0,0,0,0,0,0,0,0,0,0,0,0,0,0,0,0,0,0,0,0,0,0,0,0,0,0,0,0,0,0,0,0,0,0,0,0,0,0,0,0,0,0,0,0,0,0,0,0,0,0,0,0,0,0,0,0,0,0,0,0,0,0,0,0,0,0,0,0,0,0,0,0,0,0,0,0,0,0,0,0,0,0,0,0,0,0,0,0,0,0,0,0,0,0,0,0,0,0,0,0,0,0,0,0,0,0,0,0,0,0,0,0,0,0,0,0,0,0,0,0,0,0,0,0,0,0,0,0,0,0,0,0,0,0,0,0,0,0,0,0,0,0,0,0,0,0,0,0,0,0,0,0,0,0,0,0,0,0,0,0,0,0,0,0,0,0,0,0,0,0,0,0,0,0,0,0,0,0,0,0,0,0,0,0,0,0,0,0,0,0,0,0,0,0,0,0,0,0,0,0,0,0,0,0,0,0,0,0,0,0,0,0,0,0,0,0,0,0,0,0,0,0,0,0,0,0,0,0,0,0,0,0,0,0,0,0,0,0,0,0,0,0,0,0,0,0,0,0,0,0,0,0,0,0,0,0,0,0,0,0,0,0,0,0,0,0,0,0,0,0,0,0,0,0,0,0,0,0,0,0,0,0,0,0,0,0,0,0,0,0,0,0,0,0,0,0,0,0,0,0,0,0,0,0,0,0,0,0,0,0,0,0,0,0,0,0,0,0,0,0,0,0,0,0,0,0,0,0,0,0,0,0,0,0,0,0,0,0,0,0,0,0,0,0,0,0,0,0,0,0,0,0,0,0,0,0,0,0,0,0,0,0,0,0,0,0,0,0,0,0,0,0,0,0,0,0,0,0,0,0,0,0,0,0,0,0,0,0,0,0,0,0,0,0,0,0,0,0,0,0,0,0,0,0,0,0,0,0,0,0,0,0,0,0,0,0,0,0,0,0,0,0,0,0,0,0,0,0,0,0,0,0,0,0,0,0,0,0,0,0,0,0,0,0,0,0,0,0,0,0,0,0,0,0,0,0,0,0,0,0,0,0,0,0,0,0,0,0,0,0,0,0,0,0,0,0,0,0,0,0,0,0,0,0,0,0,0,0,0,0,0,0,0,0,0,0,0,0,0,0,0,0,0,0,0,0,0,0,0,0,0,0,0,0,0,0,0,0,0,0,0,0,0,0,0,0,0,0,0,0,0,0,0,0,0,0,0,0,0,0,0,0,0,0,0,0,0,0,0,0,0,0,0,0,0,0,0,0,0,0,0,0,0,0,0,0,0,0,0,0,0,0,0,0,0,0,0,0,0,0,0,0,0,0,0,0,0,0,0,0,0,0,0,0,0,0,0,0,0,0,0,0,0,0,0,0,0,0,0,0,0,0,0,0,0,0,0,0,0,0,0,0,0,0,0,0,0,0,0,0,0,0,0,0,0,0,0,0,0,0,0,0,0,0,0,0,0,0,0,0,0,0,0,0,0,0,0,0,0,0,0,0,0,0,0,0,0,0,0,0,0,0,0,0,0,0,0,0,0,0,0,0,0,0,0,0,0,0,0,0,0,0,0,0,0,0,0,0,0,0,0,0,0,0,0,0,0,0,0,0,0,0,0,0,0,0,0,0,0,0,0,0,0,0,0,0,0,0,0,0,0,0,0,0,0,0,0,0,0,0,0,0,0,0,0,0,0,0,0,0,0,0,0,0,0,0,0,0,0,0,0,0,0,0,0,0,0,0,0,0,0,0,0,0,0,0,0,0,0,0,0,0,0,0,0,0,0,0,0,0,0,0,0,0,0,0,0,0,0,0,0,0,0,0,0,0,0,0,0,0,0,0,0,0,0,0,0,0,0,0,0,0,0,0,0,0,0,0,0,0,0,0,0,0,0,0,0,0,0,0,0,0,0,0,0,0,0,0,0,0,0,0,0,0,0,0,0,0,0,0,0,0,0,0,0,0,0,0,0,0,0,0,0,0,0,0,0,0,0,0,0,0,0,0,0,0,0,0,0,0,0,0,0,0,0,0,0,0,0,0,0,0,0,0,0,0,0,0,0,0,0,0,0,0,0,0,0,0,0,0,0,0,0,0,0,0,0,0,0,0,0,0,0,0,0,0,0,0,0,0,0,0,0,0,0,0,0,0,0,0,0,0,0,0,0,0,0,0,0,0,0,0,0,0,0,0,0,0,0,0,0,0,0,0,0,0,0,0,0,0,0,0,0,0,0,0,0,0,0,0,0,0,0,0,0,0,0,0,0,0,0,0,0,0,0,0,0,0,0,0,0,0,0,0,0,0,0,0,0,0,0,0,0,0,0,0,0,0,0,0,0,0,0,0,0,0,0,0,0,0,0,0,0,0,0,0,0,0,0,0,0,0,0,0,0,0,0,0,0,0,0,0,0,0,0,0,0,0,0,0,0,0,0,0,0,0,0,0,0,0,0,0,0,0,0,0,0,0,0,0,0,0,0,0,0,0,0,0,0,0,0,0,0,0,0,0,0,0,0,0,0,0,0,0,0,0,0,0,0,0,0,0,0,0,0,0,0,0,0,0,0,0,0,0,0,0,0,0,0,0,0,0,0,0,0,0,0,0,0,0,0,0,0,0,0,0,0,0,0,0,0,0,0,0,0,0,0,0,0,0,0,0,0,0,0,0,0,0,0,0,0,0,0,0,0,0,0,0,0,0,0,0,0,0,0,0,0,0,0,0,0,0,0,0,0,0,0,0,0,0,0,0,0,0,0,0,0,0,0,0,0,0,0,0,0,0,0,0,0,0,0,0,0,0,0,0,0,0,0,0,0,0,0,0,0,0,0,0,0,0,0,0,0,0,0,0,0,0,0,0,0,0,0,0,0,0,0,0,0,0,0,0,0,0,0,0,0,0,0,0,0,0,0,0,0,0,0,0,0,0,0,0,0,0,0,0,0,0,0,0,0,0,0,0,0,0,0,0,0,0,0,0,0,0,0,0,0,0,0,0,0,0,0,0,0,0,0,0,0,0,0,0,0,0,0,0,0,0,0,0,0,0,0,0,0,0,0,0,0,0,0,0,0,0,0,0,0,0,0,0,0,0,0,0,0,0,0,0,0,0,0,0,0,0,0,0,0,0,0,0,0,0,0,0,0,0,0,0,0,0,0,0,0,0,0,0,0,0,0,0,0,0,0,0,0,0,0,0,0,0,0,0,0,0,0,0,0,0,0,0,0,0,0,0,0,0,0,0,0,0,0,0,0,0,0,0,0,0,0,0,0,0,0,0,0,0,0,0,0,0,0,0,0,0,0,0,0,0,0,0,0,0,0,0,0,0,0,0,0,0,0,0,0,0,0,0,0,0,0,0,0,0,0,0,0,0,0,0,0,0,0,0,0,0,0,0,0,0,0,0,0,0,0,0,0,0,0,0,0,0,0,0,0,0,0,0,0,0,0,0,0,0,0,0,0,0,0,0,0,0,0,0,0,0,0,0,0,0,0,0,0,0,0,0,0,0,0,0,0,0,0,0,0,0,0,0,0,0,0,0,0,0,0,0,0,0,0,0,0,0,0,0,0,0,0,0,0,0,0,0,0,0,0,0,0,0,0,0,0,0,0,0,0,0,0,0,0,0,0,0,0,0,0,0,0,0,0,0,0,0,0,0,0,0,0,0,0,0,0,0,0,0,0,0,0,0,0,0,0,0,0,0,0,0,0,0,0,0,0,0,0,0,0,0,0,0,0,0,0,0,0,0,0,0,0,0,0,0,0,0,0,0,0,0,0,0,0,0,0,0,0,0,0,0,0,0,0,0,0,0,0,0,0,0,0,0,0,0,0,0,0,0,0,0,0,0,0,0,0,0,0,0,0,0,0,0,0,0,0,0,0,0,0,0,0,0,0,0,0,0,0,0,0,0,0,0,0,0,0,0,0,0,0,0,0,0,0,0,0,0,0,0,0,0,0,0,0,0,0,0,0,0,0,0,0,0,0,0,0,0,0,0,0,0,0,0,0,0,0,0,0,0,0,0,0,0,0,0,0,0,0,0,0,0,0,0,0,0,0,0,0,0,0,0,0,0,0,0,0,0,0,0,0,0,0,0,0,0,0,0,0,0,0,0,0,0,0,0,0,0,0,0,0,0,0,0,0,0,0,0,0,0,0,0,0,0,0,0,0,0,0,0,0,0,0,0,0,0,0,0,0,0,0,0,0,0,0,0,0,0,0,0,0,0,0,0,0,0,0,0,0,0,0,0,0,0,0,0,0,0,0,0,0,0,0,0,0,0,0,0,0,0,0,0,0,0,0,0,0,0,0,0,0,0,0,0,0,0,0,0,0,0,0,0,0,0,0,0,0,0,0,0,0,0,0,0,0,0,0,0,0,0,0,0,0,0,0,0,0,0,0,0,0,0,0,0,0,0,0,0,0,0,0,0,0,0,0,0,0,0,0,0,0,0,0,0,0,0,0,0,0,0,0,0,0,0,0,0,0,0,0,0,0,0,0,0,0,0,0,0,0,0,0,0,0,0,0,0,0,0,0,0,0,0,0,0,0,0,0,0,0,0,0,0,0,0,0,0,0,0,0,0,0,0,0,0,0,0,0,0,0,0,0,0,0,0,0,0,0,0,0,0,0,0,0,0,0,0,0,0,0,0,0,0,0,0,0,0,0,0,0,0,0,0,0,0,0,0,0,0,0,0,0,0,
1,1,1,1,1,1,1,1,1,1,1,1,1,1,1,1,1,1,1,1,1,1,1,1,1,1,1,1,1,1,1,1,1,1,1,1,1,1,1,1,1,1,1,1,1,1,1,1,1,1,1,1,1,1,1,1,1,1,1,1,1,1,1,1,1,1,1,1,1,1,1,1,1,1,1,1,1,1,1,1,1,1,1,1,1,1,1,1,1,1,1,1,1,1,1,1,1,1,1,1,1,1,1,1,1,1,1,1,1,1,1,1,1,1,1,1,1,1,1,1,1,1,1,1,1,1,1,1,1,1,1,1,1,1,1,1,1,1,1,1,1,1,1,1,1,1,1,1,1,1,1,1,1,1,1,1,1,1,1,1,1,1,1,1,1,1,1,1,1,1,1,1,1,1,1,1,1,1,1,1,1,1,1,1,1,1,1,1,1,1,1,1,1,1,1,1,1,1,1,1,1,1,1,1,1,1,1,1,1,1,1,1,1,1,1,1,1,1,1,1,1,1,1,1,1,1,1,1,1,1,1,1,1,1,1,1,1,1,1,1,1,1,1,1,1,1,1,1,1,1,1,1,1,1,1,1,1,1,1,1,1,1,1,1,1,1,1,1,1,1,1,1,1,1,1,1,1,1,1,1,1,1,1,1,1,1,1,1,1,1,1,1,1,1,1,1,1,1,1,1,1,1,1,1,1,1,1,1,1,1,1,1,1,1,1,1,1,1,1,1,1,1,1,1,1,1,1,1,1,1,1,1,1,1,1,1,1,1,1,1,1,1,1,1,1,1,1,1,1,1,1,1,1,1,1,1,1,1,1,1,1,1,1,1,1,1,1,1,1,1,1,1,1,1,1,1,1,1,1,1,1,1,1,1,1,1,1,1,1,1,1,1,1,1,1,1,1,1,1,1,1,1,1,1,1,1,1,1,1,1,1,1,1,1,1,1,1,1,1,1,1,1,1,1,1,1,1,1,1,1,1,1,1,1,1,1,1,1,1,1,1,1,1,1,1,1,1,1,1,1,1,1,1,1,1,1,1,1,1,1,1,1,1,1,1,1,1,1,1,1,1,1,1,1,1,1,1,1,1,1,1,1,1,1,1,1,1,1,1,1,1,1,1,1,1,1,1,1,1,1,1,1,1,1,1,1,1,1,1,1,1,1,1,1,1,1,1,1,1,1,1,1,1,1,1,1,1,1,1,1,1,1,1,1,1,1,1,1,1,1,1,1,1,1,1,1,1,1,1,1,1,1,1,1,1,1,1,1,1,1,1,1,1,1,1,1,1,1,1,1,1,1,1,1,1,1,1,1,1,1,1,1,1,1,1,1,1,1,1,1,1,1,1,1,1,1,1,1,1,1,1,1,1,1,1,1,1,1,1,1,1,1,1,1,1,1,1,1,1,1,1,1,1,1,1,1,1,1,1,1,1,1,1,1,1,1,1,1,1,1,1,1,1,1,1,1,1,1,1,1,1,1,1,1,1,1,1,1,1,1,1,1,1,1,1,1,1,1,1,1,1,1,1,1,1,1,1,1,1,1,1,1,1,1,1,1,1,1,1,1,1,1,1,1,1,1,1,1,1,1,1,1,1,1,1,1,1,1,1,1,1,1,1,1,1,1,1,1,1,1,1,1,1,1,1,1,1,1,1,1,1,1,1,1,1,1,1,1,1,1,1,1,1,1,1,1,1,1,1,1,1,1,1,1,1,1,1,1,1,1,1,1,1,1,1,1,1,1,1,1,1,1,1,1,1,1,1,1,1,1,1,1,1,1,1,1,1,1,1,1,1,1,1,1,1,1,1,1,1,1,1,1,1,1,1,1,1,1,1,1,1,1,1,1,1,1,1,1,1,1,1,1,1,1,1,1,1,1,1,1,1,1,1,1,1,1,1,1,1,1,1,1,1,1,1,1,1,1,1,1,1,1,1,1,1,1,1,1,1,1,1,1,1,1,1,1,1,1,1,1,1,1,1,1,1,1,1,1,1,1,1,1,1,1,1,1,1,1,1,1,1,1,1,1,1,1,1,1,1,1,1,1,1,1,1,1,1,1,1,1,1,1,1,1,1,1,1,1,1,1,1,1,1,1,1,1,1,1,1,1,1,1,1,1,1,1,1,1,1,1,1,1,1,1,1,1,1,1,1,1,1,1,1,1,1,1,1,1,1,1,1,1,1,1,1,1,1,1,1,1,1,1,1,1,1,1,1,1,1,1,1,1,1,1,1,1,1,1,1,1,1,1,1,1,1,1,1,1,1,1,1,1,1,1,1,1,1,1,1,1,1,1,1,1,1,1,1,1,1,1,1,1,1,1,1,1,1,1,1,1,1,1,1,1,1,1,1,1,1,1,1,1,1,1,1,1,1,1,1,1,1,1,1,1,1,1,1,1,1,1,1,1,1,1,1,1,1,1,1,1,1,1,1,1,1,1,1,1,1,1,1,1,1,1,1,1,1,1,1,1,1,1,1,1,1,1,1,1,1,1,1,1,1,1,1,1,1,1,1,1,1,1,1,1,1,1,1,1,1,1,1,1,1,1,1,1,1,1,1,1,1,1,1,1,1,1,1,1,1,1,1,1,1,1,1,1,1,1,1,1,1,1,1,1,1,1,1,1,1,1,1,1,1,1,1,1,1,1,1,1,1,1,1,1,1,1,1,1,1,1,1,1,1,1,1,1,1,1,1,1,1,1,1,1,1,1,1,1,1,1,1,1,1,1,1,1,1,1,1,1,1,1,1,1,1,1,1,1,1,1,1,1,1,1,1,1,1,1,1,1,1,1,1,1,1,1,1,1,1,1,1,1,1,1,1,1,1,1,1,1,1,1,1,1,1,1,1,1,1,1,1,1,1,1,1,1,1,1,1,1,1,1,1,1,1,1,1,1,1,1,1,1,1,1,1,1,1,1,1,1,1,1,1,1,1,1,1,1,1,1,1,1,1,1,1,1,1,1,1,1,1,1,1,1,1,1,1,1,1,1,1,1,1,1,1,1,1,1,1,1,1,1,1,1,1,1,1,1,1,1,1,1,1,1,1,1,1,1,1,1,1,1,1,1,1,1,1,1,1,1,1,1,1,1,1,1,1,1,1,1,1,1,1,1,1,1,1,1,1,1,1,1,1,1,1,1,1,1,1,1,1,1,1,1,1,1,1,1,1,1,1,1,1,1,1,1,1,1,1,1,1,1,1,1,1,1,1,1,1,1,1,1,1,1,1,1,1,1,1,1,1,1,1,1,1,1,1,1,1,1,1,1,1,1,1,1,1,1,1,1,1,1,1,1,1,1,1,1,1,1,1,1,1,1,1,1,1,1,1,1,1,1,1,1,1,1,1,1,1,1,1,1,1,1,1,1,1,1,1,1,1,1,1,1,1,1,1,1,1,1,1,1,1,1,1,1,1,1,1,1,1,1,1,1,1,1,1,1,1,1,1,1,1,1,1,1,1,1,1,1,1,1,1,1,1,1,1,1,1,1,1,1,1,1,1,1,1,1,1,1,1,1,1,1,1,1,1,1,1,1,1,1,1,1,1,1,1,1,1,1,1,1,1,1,1,1,1,1,1,1,1,1,1,1,1,1,1,1,1,1,1,1,1,1,1,1,1,1,1,1,1,1,1,1,1,1,1,1,1,1,1,1,1,1,1,1,1,1,1,1,1,1,1,1,1,1,1,1,1,1,1,1,1,1,1,1,1,1,1,1,1,1,1,1,1,1,1,1,1,1,1,1,1,1,1,1,1,1,1,1,1,1,1,1,1,1,1,1,1,1,1,1,1,1,1,1,1,1,1,1,1,1,1,1,1,1,1,1,1,1,1,1,1,1,1,1,1,1,1,1,1,1,1,1,1,1,1,1,1,1,1,1,1,1,1,1,1,1,1,1,1,1,1,1,1,1,1,1,1,1,1,1,1,1,1,1,1,1,1,1,1,1,1,1,1,1,1,1,1,1,1,1,1,1,1,1,1,1,1,1,1,1,1,1,1,1,1,1,1,1,1,1,1,1,1,1,1,1,1,1,1,1,1,1,1,1,1,1,1,1,1,1,1,1,1,1,1,1,1,1,1,1,1,1,1,1,1,1,1,1,1,1,1,1,1,1,1,1,1,1,1,1,1,1,1,1,1,1,1,1,1,1,1,1,1,1,1,1,1,1,1,1,1,1,1,1,1,1,1,1,1,1,1,1,1,1,1,1,1,1,1,1,1,1,1,1,1,1,1,1,1,1,1,1,1,1,1,1,1,1,1,1,1,1,1,1,1,1,1,1,1,1,1,1,1,1,1,1,1,1,1,1,1,1,1,1,1,1,1,1,1,1,1,1,1,1,1,1,1,1,1,1,1,1,1,1,1,1,1,1,1,1,1,1,1,1,1,1,1,1,1,1,1,1,1,1,1,1,1,1,1,1,1,1,1,1,1,1,1,1,1,1,1,1,1,1,1,1,1,1,1,1,1,1,1,1,1,1,1,1,1,1,1,1,1,1,1,1,1,1,1,1,1,1,1,1,1,1,1,1,1,1,1,1,1,1,1,1,1,1,1,1,1,1,1,1,1,1,1,1,1,1,1,1,1,1,1,1,1,1,1,1,1,1,1,1,1,1,1,1,1,1,1,1,1,1,1,1,1,1,1,1,1,1,1,1,1,1,1,1,1,1,1,1,1,1,1,1,1,1,1,1,1,1,1,1,1,1,1,1,1,1,1,1,1,1,1,1,1,1,1,1,1,1,1,1,1,1,1,1,1,1,1,1,1,1,1,1,1,1,1,1,1,1,1,1,1,1,1,1,1,1,1,1,1,1,1,1,1,1,1,1,1,1,1,1,1,1,1,1,1,1,1,1,1,1,1,1,1,1,1,1,1,1,1,1,1,1,1,1,1,1,1,1,1,1,1,1,1,1,1,1,1,1,1,1,1,1,1,1,1,1,1,1,1,1,1,1,1,1,1,1,1,1,1,1,1,1,1,1,1,1,1,1,1,1,1,1,1,1,1,1,1,1,1,1,1,1,1,1,1,1,1,1,1,1,1,1,1,1,1,1,1,1,1,1,1,1,1,1,1,1,1,1,1,1,1,1,1,1,1,1,1,1,1,1,1,1,1,1,1,1,1,1,1,1,1,1,1,1,1,1,1,1,1,1,1,1,1,1,1,1,1,1,1,1,1,1,1,1,1,1,1,1,1,1,1,1,1,1,1,1,1,1,1,1,1,1,1,1,1,1,1,1,1,1,1,1,1,1,1,1,1,1,1,1,1,1,1,1,1,1,1,1,1,1,1,1,1,1,1,1,1,1,1,1,1,1,1,1,1,1,1,1,1,1,1,1,1,1,1,1,1,1,1,1,1,1,1,1,1,1,1,1,1,1,1,1,1,1,1,1,1,1,1,1,1,1,1,1,1,1,1,1,1,1,1,1,1,1,1,1,1,1,1,1,1,1,1,1,1,1,1,1,1,1,1,1,1,1,1,1,1,1,1,1,1,1,1,1,1,1,1,1,1,1,1,1,1,1,1,1,1,1,1,1,1,1,1,1,1,1,1,1,1,1,1,1,1,1,1,1,1,1,1,1,1,1,1,1,1,1,1,1,1,1,1,1,1,1,1,1,1,1,1,1,1,1,1,1,1,1,1,1,1,1,1,1,1,1,1,1,1,1,1,1,1,1,1,1,1,1,1,1,1,1,1,1,1,1,1,1,1,1,1,1,1,1,1,1,1,1,1,1,1,1,1,1,1,1,1,1,1,1,1,1,1,1,1,1,1,1,1,1,1,1,1,1,1,1,1,1,1,1,1,1,1,1,1,1,1,1,1,1,1,1,1,1,1,1,1,1,1,1,1,1,1,1,1,1,1,1,1,1,1,1,1,1,1,1,1,1,1,1,1,1,1,1,1,1,1,1,1,1,1,1,1,1,1,1,1,1,1,1,1,1,1,1,1,1,1,1,1,1,1,1,1,1,1,1,1,1,1,1,1,1,1,1,1,1,1,1,1,1,1,1,1,1,1,1,1,1,1,1,1,1,1,1,1,1,1,1,1,1,1,1,1,1,1,1,1,1,1,1,1,1,1,1,1,1,1,1,1,1,1,1,1,1,1,1,1,1,1,1,1,1,1,1,1,1,1,1,1,1,1,1,1,1,1,1,1,1,1,1,1,1,1,1,1,1,1,1,1,1,1,1,1,1,1,1,1,1,1,1,1,1,1,1,1,1,1,1,1,1,1,1,1,1,1,1,1,1,1,1,1,1,1,1,1,1,1,1,1,1,1,1,1,1,1,1,1,1,1,1,1,1,1,1,1,1,1,1,1,1,1,1,1,1,1,1,1,1,1,1,1,1,1,1,1,1,1,1,1,1,1,1,1,1,1,1,1,1,1,1,1,1,1,1,1,1,1,1,1,1,1,1,1,1,1,1,1,1,1,1,1,1,1,1,1,1,1,1,1,1,1,1,1,1,1,1,1,1,1,1,1,1,1,1,1,1,1,1,1,1,1,1,1,1,1,1,1,1,1,1,1,1,1,1,1,1,1,1,1,1,1,1,1,1,1,1,1,1,1,1,1,1,1,1,1,1,1,1,1,1,1,1,1,1,1,1,1,1,1,1,1,1,1,1,1,1,1,1,1,1,1,1,1,1,1,1,1,1,1,1,1,1,1,1,1,1,1,1,1,1,1,1,1,1,1,1,1,1,1,1,1,1,1,1,1,1,1,1,1,1,1,1,1,1,1,1,1,1,1,1,1,1,1,1,1,1,1,1,1,1,1,1,1,1,1,1,1,1,1,1,1,1,1,1,1,1,1,1,1,1,1,1,1,1,1,1,1,1,1,1,1,1,1,1,1,1,1,1,1,1,1,1,1,1,1,1,1,1,1,1,1,1,1,1,1,1,1,1,1,1,1,1,1,1,1,1,1,1,1,1,1,1,1,1,1,1,1,1,
0,0,0,0,0,0,0,0,0,0,0,0,0,0,0,0,0,0,0,0,0,0,0,0,0,0,0,0,0,0,0,0,0,0,0,0,0,0,0,0,0,0,0,0,0,0,0,0,0,0,0,0,0,0,0,0,0,0,0,0,0,0,0,0,0,0,0,0,0,0,0,0,0,0,0,0,0,0,0,0,0,0,0,0,0,0,0,0,0,0,0,0,0,0,0,0,0,0,0,0,0,0,0,0,0,0,0,0,0,0,0,0,0,0,0,0,0,0,0,0,0,0,0,0,0,0,0,0,0,0,0,0,0,0,0,0,0,0,0,0,0,0,0,0,0,0,0,0,0,0,0,0,0,0,0,0,0,0,0,0,0,0,0,0,0,0,0,0,0,0,0,0,0,0,0,0,0,0,0,0,0,0,0,0,0,0,0,0,0,0,0,0,0,0,0,0,0,0,0,0,0,0,0,0,0,0,0,0,0,0,0,0,0,0,0,0,0,0,0,0,0,0,0,0,0,0,0,0,0,0,0,0,0,0,0,0,0,0,0,0,0,0,0,0,0,0,0,0,0,0,0,0,0,0,0,0,0,0,0,0,0,0,0,0,0,0,0,0,0,0,0,0,0,0,0,0,0,0,0,0,0,0,0,0,0,0,0,0,0,0,0,0,0,0,0,0,0,0,0,0,0,0,0,0,0,0,0,0,0,0,0,0,0,0,0,0,0,0,0,0,0,0,0,0,0,0,0,0,0,0,0,0,0,0,0,0,0,0,0,0,0,0,0,0,0,0,0,0,0,0,0,0,0,0,0,0,0,0,0,0,0,0,0,0,0,0,0,0,0,0,0,0,0,0,0,0,0,0,0,0,0,0,0,0,0,0,0,0,0,0,0,0,0,0,0,0,0,0,0,0,0,0,0,0,0,0,0,0,0,0,0,0,0,0,0,0,0,0,0,0,0,0,0,0,0,0,0,0,0,0,0,0,0,0,0,0,0,0,0,0,0,0,0,0,0,0,0,0,0,0,0,0,0,0,0,0,0,0,0,0,0,0,0,0,0,0,0,0,0,0,0,0,0,0,0,0,0,0,0,0,0,0,0,0,0,0,0,0,0,0,0,0,0,0,0,0,0,0,0,0,0,0,0,0,0,0,0,0,0,0,0,0,0,0,0,0,0,0,0,0,0,0,0,0,0,0,0,0,0,0,0,0,0,0,0,0,0,0,0,0,0,0,0,0,0,0,0,0,0,0,0,0,0,0,0,0,0,0,0,0,0,0,0,0,0,0,0,0,0,0,0,0,0,0,0,0,0,0,0,0,0,0,0,0,0,0,0,0,0,0,0,0,0,0,0,0,0,0,0,0,0,0,0,0,0,0,0,0,0,0,0,0,0,0,0,0,0,0,0,0,0,0,0,0,0,0,0,0,0,0,0,0,0,0,0,0,0,0,0,0,0,0,0,0,0,0,0,0,0,0,0,0,0,0,0,0,0,0,0,0,0,0,0,0,0,0,0,0,0,0,0,0,0,0,0,0,0,0,0,0,0,0,0,0,0,0,0,0,0,0,0,0,0,0,0,0,0,0,0,0,0,0,0,0,0,0,0,0,0,0,0,0,0,0,0,0,0,0,0,0,0,0,0,0,0,0,0,0,0,0,0,0,0,0,0,0,0,0,0,0,0,0,0,0,0,0,0,0,0,0,0,0,0,0,0,0,0,0,0,0,0,0,0,0,0,0,0,0,0,0,0,0,0,0,0,0,0,0,0,0,0,0,0,0,0,0,0,0,0,0,0,0,0,0,0,0,0,0,0,0,0,0,0,0,0,0,0,0,0,0,0,0,0,0,0,0,0,0,0,0,0,0,0,0,0,0,0,0,0,0,0,0,0,0,0,0,0,0,0,0,0,0,0,0,0,0,0,0,0,0,0,0,0,0,0,0,0,0,0,0,0,0,0,0,0,0,0,0,0,0,0,0,0,0,0,0,0,0,0,0,0,0,0,0,0,0,0,0,0,0,0,0,0,0,0,0,0,0,0,0,0,0,0,0,0,0,0,0,0,0,0,0,0,0,0,0,0,0,0,0,0,0,0,0,0,0,0,0,0,0,0,0,0,0,0,0,0,0,0,0,0,0,0,0,0,0,0,0,0,0,0,0,0,0,0,0,0,0,0,0,0,0,0,0,0,0,0,0,0,0,0,0,0,0,0,0,0,0,0,0,0,0,0,0,0,0,0,0,0,0,0,0,0,0,0,0,0,0,0,0,0,0,0,0,0,0,0,0,0,0,0,0,0,0,0,0,0,0,0,0,0,0,0,0,0,0,0,0,0,0,0,0,0,0,0,0,0,0,0,0,0,0,0,0,0,0,0,0,0,0,0,0,0,0,0,0,0,0,0,0,0,0,0,0,0,0,0,0,0,0,0,0,0,0,0,0,0,0,0,0,0,0,0,0,0,0,0,0,0,0,0,0,0,0,0,0,0,0,0,0,0,0,0,0,0,0,0,0,0,0,0,0,0,0,0,0,0,0,0,0,0,0,0,0,0,0,0,0,0,0,0,0,0,0,0,0,0,0,0,0,0,0,0,0,0,0,0,0,0,0,0,0,0,0,0,0,0,0,0,0,0,0,0,0,0,0,0,0,0,0,0,0,0,0,0,0,0,0,0,0,0,0,0,0,0,0,0,0,0,0,0,0,0,0,0,0,0,0,0,0,0,0,0,0,0,0,0,0,0,0,0,0,0,0,0,0,0,0,0,0,0,0,0,0,0,0,0,0,0,0,0,0,0,0,0,0,0,0,0,0,0,0,0,0,0,0,0,0,0,0,0,0,0,0,0,0,0,0,0,0,0,0,0,0,0,0,0,0,0,0,0,0,0,0,0,0,0,0,0,0,0,0,0,0,0,0,0,0,0,0,0,0,0,0,0,0,0,0,0,0,0,0,0,0,0,0,0,0,0,0,0,0,0,0,0,0,0,0,0,0,0,0,0,0,0,0,0,0,0,0,0,0,0,0,0,0,0,0,0,0,0,0,0,0,0,0,0,0,0,0,0,0,0,0,0,0,0,0,0,0,0,0,0,0,0,0,0,0,0,0,0,0,0,0,0,0,0,0,0,0,0,0,0,0,0,0,0,0,0,0,0,0,0,0,0,0,0,0,0,0,0,0,0,0,0,0,0,0,0,0,0,0,0,0,0,0,0,0,0,0,0,0,0,0,0,0,0,0,0,0,0,0,0,0,0,0,0,0,0,0,0,0,0,0,0,0,0,0,0,0,0,0,0,0,0,0,0,0,0,0,0,0,0,0,0,0,0,0,0,0,0,0,0,0,0,0,0,0,0,0,0,0,0,0,0,0,0,0,0,0,0,0,0,0,0,0,0,0,0,0,0,0,0,0,0,0,0,0,0,0,0,0,0,0,0,0,0,0,0,0,0,0,0,0,0,0,0,0,0,0,0,0,0,0,0,0,0,0,0,0,0,0,0,0,0,0,0,0,0,0,0,0,0,0,0,0,0,0,0,0,0,0,0,0,0,0,0,0,0,0,0,0,0,0,0,0,0,0,0,0,0,0,0,0,0,0,0,0,0,0,0,0,0,0,0,0,0,0,0,0,0,0,0,0,0,0,0,0,0,0,0,0,0,0,0,0,0,0,0,0,0,0,0,0,0,0,0,0,0,0,0,0,0,0,0,0,0,0,0,0,0,0,0,0,0,0,0,0,0,0,0,0,0,0,0,0,0,0,0,0,0,0,0,0,0,0,0,0,0,0,0,0,0,0,0,0,0,0,0,0,0,0,0,0,0,0,0,0,0,0,0,0,0,0,0,0,0,0,0,0,0,0,0,0,0,0,0,0,0,0,0,0,0,0,0,0,0,0,0,0,0,0,0,0,0,0,0,0,0,0,0,0,0,0,0,0,0,0,0,0,0,0,0,0,0,0,0,0,0,0,0,0,0,0,0,0,0,0,0,0,0,0,0,0,0,0,0,0,0,0,0,0,0,0,0,0,0,0,0,0,0,0,0,0,0,0,0,0,0,0,0,0,0,0,0,0,0,0,0,0,0,0,0,0,0,0,0,0,0,0,0,0,0,0,0,0,0,0,0,0,0,0,0,0,0,0,0,0,0,0,0,0,0,0,0,0,0,0,0,0,0,0,0,0,0,0,0,0,0,0,0,0,0,0,0,0,0,0,0,0,0,0,0,0,0,0,0,0,0,0,0,0,0,0,0,0,0,0,0,0,0,0,0,0,0,0,0,0,0,0,0,0,0,0,0,0,0,0,0,0,0,0,0,0,0,0,0,0,0,0,0,0,0,0,0,0,0,0,0,0,0,0,0,0,0,0,0,0,0,0,0,0,0,0,0,0,0,0,0,0,0,0,0,0,0,0,0,0,0,0,0,0,0,0,0,0,0,0,0,0,0,0,0,0,0,0,0,0,0,0,0,0,0,0,0,0,0,0,0,0,0,0,0,0,0,0,0,0,0,0,0,0,0,0,0,0,0,0,0,0,0,0,0,0,0,0,0,0,0,0,0,0,0,0,0,0,0,0,0,0,0,0,0,0,0,0,0,0,0,0,0,0,0,0,0,0,0,0,0,0,0,0,0,0,0,0,0,0,0,0,0,0,0,0,0,0,0,0,0,0,0,0,0,0,0,0,0,0,0,0,0,0,0,0,0,0,0,0,0,0,0,0,0,0,0,0,0,0,0,0,0,0,0,0,0,0,0,0,0,0,0,0,0,0,0,0,0,0,0,0,0,0,0,0,0,0,0,0,0,0,0,0,0,0,0,0,0,0,0,0,0,0,0,0,0,0,0,0,0,0,0,0,0,0,0,0,0,0,0,0,0,0,0,0,0,0,0,0,0,0,0,0,0,0,0,0,0,0,0,0,0,0,0,0,0,0,0,0,0,0,0,0,0,0,0,0,0,0,0,0,0,0,0,0,0,0,0,0,0,0,0,0,0,0,0,0,0,0,0,0,0,0,0,0,0,0,0,0,0,0,0,0,0,0,0,0,0,0,0,0,0,0,0,0,0,0,0,0,0,0,0,0,0,0,0,0,0,0,0,0,0,0,0,0,0,0,0,0,0,0,0,0,0,0,0,0,0,0,0,0,0,0,0,0,0,0,0,0,0,0,0,0,0,0,0,0,0,0,0,0,0,0,0,0,0,0,0,0,0,0,0,0,0,0,0,0,0,0,0,0,0,0,0,0,0,0,0,0,0,0,0,0,0,0,0,0,0,0,0,0,0,0,0,0,0,0,0,0,0,0,0,0,0,0,0,0,0,0,0,0,0,0,0,0,0,0,0,0,0,0,0,0,0,0,0,0,0,0,0,0,0,0,0,0,0,0,0,0,0,0,0,0,0,0,0,0,0,0,0,0,0,0,0,0,0,0,0,0,0,0,0,0,0,0,0,0,0,0,0,0,0,0,0,0,0,0,0,0,0,0,0,0,0,0,0,0,0,0,0,0,0,0,0,0,0,0,0,0,0,0,0,0,0,0,0,0,0,0,0,0,0,0,0,0,0,0,0,0,0,0,0,0,0,0,0,0,0,0,0,0,0,0,0,0,0,0,0,0,0,0,0,0,0,0,0,0,0,0,0,0,0,0,0,0,0,0,0,0,0,0,0,0,0,0,0,0,0,0,0,0,0,0,0,0,0,0,0,0,0,0,0,0,0,0,0,0,0,0,0,0,0,0,0,0,0,0,0,0,0,0,0,0,0,0,0,0,0,0,0,0,0,0,0,0,0,0,0,0,0,0,0,0,0,0,0,0,0,0,0,0,0,0,0,0,0,0,0,0,0,0,0,0,0,0,0,0,0,0,0,0,0,0,0,0,0,0,0,0,0,0,0,0,0,0,0,0,0,0,0,0,0,0,0,0,0,0,0,0,0,0,0,0,0,0,0,0,0,0,0,0,0,0,0,0,0,0,0,0,0,0,0,0,0,0,0,0,0,0,0,0,0,0,0,0,0,0,0,0,0,0,0,0,0,0,0,0,0,0,0,0,0,0,0,0,0,0,0,0,0,0,0,0,0,0,0,0,0,0,0,0,0,0,0,0,0,0,0,0,0,0,0,0,0,0,0,0,0,0,0,0,0,0,0,0,0,0,0,0,0,0,0,0,0,0,0,0,0,0,0,0,0,0,0,0,0,0,0,0,0,0,0,0,0,0,0,0,0,0,0,0,0,0,0,0,0,0,0,0,0,0,0,0,0,0,0,0,0,0,0,0,0,0,0,0,0,0,0,0,0,0,0,0,0,0,0,0,0,0,0,0,0,0,0,0,0,0,0,0,0,0,0,0,0,0,0,0,0,0,0,0,0,0,0,0,0,0,0,0,0,0,0,0,0,0,0,0,0,0,0,0,0,0,0,0,0,0,0,0,0,0,0,0,0,0,0,0,0,0,0,0,0,0,0,0,0,0,0,0,0,0,0,0,0,0,0,0,0,0,0,0,0,0,0,0,0,0,0,0,0,0,0,0,0,0,0,0,0,0,0,0,0,0,0,0,0,0,0,0,0,0,0,0,0,0,0,0,0,0,0,0,0,0,0,0,0,0,0,0,0,0,0,0,0,0,0,0,0,0,0,0,0,0,0,0,0,0,0,0,0,0,0,0,0,0,0,0,0,0,0,0,0,0,0,0,0,0,0,0,0,0,0,0,0,0,0,0,0,0,0,0,0,0,0,0,0,0,0,0,0,0,0,0,0,0,0,0,0,0,0,0,0,0,0,0,0,0,0,0,0,0,0,0,0,0,0,0,0,0,0,0,0,0,0,0,0,0,0,0,0,0,0,0,0,0,0,0,0,0,0,0,0,0,0,0,0,0,0,0,0,0,0,0,0,0,0,0,0,0,0,0,0,0,0,0,0,0,0,0,0,0,0,0,0,0,0,0,0,0,0,0,0,0,0,
1,1,1,1,1,1,1,1,1,1,1,1,1,1,1,1,1,1,1,1,1,1,1,1,1,1,1,1,1,1,1,1,1,1,1,1,1,1,1,1,1,1,1,1,1,1,1,1,1,1,1,1,1,1,1,1,1,1,1,1,1,1,1,1,1,1,1,1,1,1,1,1,1,1,1,1,1,1,1,1,1,1,1,1,1,1,1,1,1,1,1,1,1,1,1,1,1,1,1,1,1,1,1,1,1,1,1,1,1,1,1,1,1,1,1,1,1,1,1,1,1,1,1,1,1,1,1,1,1,1,1,1,1,1,1,1,1,1,1,1,1,1,1,1,1,1,1,1,1,1,1,1,1,1,1,1,1,1,1,1,1,1,1,1,1,1,1,1,1,1,1,1,1,1,1,1,1,1,1,1,1,1,1,1,1,1,1,1,1,1,1,1,1,1,1,1,1,1,1,1,1,1,1,1,1,1,1,1,1,1,1,1,1,1,1,1,1,1,1,1,1,1,1,1,1,1,1,1,1,1,1,1,1,1,1,1,1,1,1,1,1,1,1,1,1,1,1,1,1,1,1,1,1,1,1,1,1,1,1,1,1,1,1,1,1,1,1,1,1,1,1,1,1,1,1,1,1,1,1,1,1,1,1,1,1,1,1,1,1,1,1,1,1,1,1,1,1,1,1,1,1,1,1,1,1,1,1,1,1,1,1,1,1,1,1,1,1,1,1,1,1,1,1,1,1,1,1,1,1,1,1,1,1,1,1,1,1,1,1,1,1,1,1,1,1,1,1,1,1,1,1,1,1,1,1,1,1,1,1,1,1,1,1,1,1,1,1,1,1,1,1,1,1,1,1,1,1,1,1,1,1,1,1,1,1,1,1,1,1,1,1,1,1,1,1,1,1,1,1,1,1,1,1,1,1,1,1,1,1,1,1,1,1,1,1,1,1,1,1,1,1,1,1,1,1,1,1,1,1,1,1,1,1,1,1,1,1,1,1,1,1,1,1,1,1,1,1,1,1,1,1,1,1,1,1,1,1,1,1,1,1,1,1,1,1,1,1,1,1,1,1,1,1,1,1,1,1,1,1,1,1,1,1,1,1,1,1,1,1,1,1,1,1,1,1,1,1,1,1,1,1,1,1,1,1,1,1,1,1,1,1,1,1,1,1,1,1,1,1,1,1,1,1,1,1,1,1,1,1,1,1,1,1,1,1,1,1,1,1,1,1,1,1,1,1,1,1,1,1,1,1,1,1,1,1,1,1,1,1,1,1,1,1,1,1,1,1,1,1,1,1,1,1,1,1,1,1,1,1,1,1,1,1,1,1,1,1,1,1,1,1,1,1,1,1,1,1,1,1,1,1,1,1,1,1,1,1,1,1,1,1,1,1,1,1,1,1,1,1,1,1,1,1,1,1,1,1,1,1,1,1,1,1,1,1,1,1,1,1,1,1,1,1,1,1,1,1,1,1,1,1,1,1,1,1,1,1,1,1,1,1,1,1,1,1,1,1,1,1,1,1,1,1,1,1,1,1,1,1,1,1,1,1,1,1,1,1,1,1,1,1,1,1,1,1,1,1,1,1,1,1,1,1,1,1,1,1,1,1,1,1,1,1,1,1,1,1,1,1,1,1,1,1,1,1,1,1,1,1,1,1,1,1,1,1,1,1,1,1,1,1,1,1,1,1,1,1,1,1,1,1,1,1,1,1,1,1,1,1,1,1,1,1,1,1,1,1,1,1,1,1,1,1,1,1,1,1,1,1,1,1,1,1,1,1,1,1,1,1,1,1,1,1,1,1,1,1,1,1,1,1,1,1,1,1,1,1,1,1,1,1,1,1,1,1,1,1,1,1,1,1,1,1,1,1,1,1,1,1,1,1,1,1,1,1,1,1,1,1,1,1,1,1,1,1,1,1,1,1,1,1,1,1,1,1,1,1,1,1,1,1,1,1,1,1,1,1,1,1,1,1,1,1,1,1,1,1,1,1,1,1,1,1,1,1,1,1,1,1,1,1,1,1,1,1,1,1,1,1,1,1,1,1,1,1,1,1,1,1,1,1,1,1,1,1,1,1,1,1,1,1,1,1,1,1,1,1,1,1,1,1,1,1,1,1,1,1,1,1,1,1,1,1,1,1,1,1,1,1,1,1,1,1,1,1,1,1,1,1,1,1,1,1,1,1,1,1,1,1,1,1,1,1,1,1,1,1,1,1,1,1,1,1,1,1,1,1,1,1,1,1,1,1,1,1,1,1,1,1,1,1,1,1,1,1,1,1,1,1,1,1,1,1,1,1,1,1,1,1,1,1,1,1,1,1,1,1,1,1,1,1,1,1,1,1,1,1,1,1,1,1,1,1,1,1,1,1,1,1,1,1,1,1,1,1,1,1,1,1,1,1,1,1,1,1,1,1,1,1,1,1,1,1,1,1,1,1,1,1,1,1,1,1,1,1,1,1,1,1,1,1,1,1,1,1,1,1,1,1,1,1,1,1,1,1,1,1,1,1,1,1,1,1,1,1,1,1,1,1,1,1,1,1,1,1,1,1,1,1,1,1,1,1,1,1,1,1,1,1,1,1,1,1,1,1,1,1,1,1,1,1,1,1,1,1,1,1,1,1,1,1,1,1,1,1,1,1,1,1,1,1,1,1,1,1,1,1,1,1,1,1,1,1,1,1,1,1,1,1,1,1,1,1,1,1,1,1,1,1,1,1,1,1,1,1,1,1,1,1,1,1,1,1,1,1,1,1,1,1,1,1,1,1,1,1,1,1,1,1,1,1,1,1,1,1,1,1,1,1,1,1,1,1,1,1,1,1,1,1,1,1,1,1,1,1,1,1,1,1,1,1,1,1,1,1,1,1,1,1,1,1,1,1,1,1,1,1,1,1,1,1,1,1,1,1,1,1,1,1,1,1,1,1,1,1,1,1,1,1,1,1,1,1,1,1,1,1,1,1,1,1,1,1,1,1,1,1,1,1,1,1,1,1,1,1,1,1,1,1,1,1,1,1,1,1,1,1,1,1,1,1,1,1,1,1,1,1,1,1,1,1,1,1,1,1,1,1,1,1,1,1,1,1,1,1,1,1,1,1,1,1,1,1,1,1,1,1,1,1,1,1,1,1,1,1,1,1,1,1,1,1,1,1,1,1,1,1,1,1,1,1,1,1,1,1,1,1,1,1,1,1,1,1,1,1,1,1,1,1,1,1,1,1,1,1,1,1,1,1,1,1,1,1,1,1,1,1,1,1,1,1,1,1,1,1,1,1,1,1,1,1,1,1,1,1,1,1,1,1,1,1,1,1,1,1,1,1,1,1,1,1,1,1,1,1,1,1,1,1,1,1,1,1,1,1,1,1,1,1,1,1,1,1,1,1,1,1,1,1,1,1,1,1,1,1,1,1,1,1,1,1,1,1,1,1,1,1,1,1,1,1,1,1,1,1,1,1,1,1,1,1,1,1,1,1,1,1,1,1,1,1,1,1,1,1,1,1,1,1,1,1,1,1,1,1,1,1,1,1,1,1,1,1,1,1,1,1,1,1,1,1,1,1,1,1,1,1,1,1,1,1,1,1,1,1,1,1,1,1,1,1,1,1,1,1,1,1,1,1,1,1,1,1,1,1,1,1,1,1,1,1,1,1,1,1,1,1,1,1,1,1,1,1,1,1,1,1,1,1,1,1,1,1,1,1,1,1,1,1,1,1,1,1,1,1,1,1,1,1,1,1,1,1,1,1,1,1,1,1,1,1,1,1,1,1,1,1,1,1,1,1,1,1,1,1,1,1,1,1,1,1,1,1,1,1,1,1,1,1,1,1,1,1,1,1,1,1,1,1,1,1,1,1,1,1,1,1,1,1,1,1,1,1,1,1,1,1,1,1,1,1,1,1,1,1,1,1,1,1,1,1,1,1,1,1,1,1,1,1,1,1,1,1,1,1,1,1,1,1,1,1,1,1,1,1,1,1,1,1,1,1,1,1,1,1,1,1,1,1,1,1,1,1,1,1,1,1,1,1,1,1,1,1,1,1,1,1,1,1,1,1,1,1,1,1,1,1,1,1,1,1,1,1,1,1,1,1,1,1,1,1,1,1,1,1,1,1,1,1,1,1,1,1,1,1,1,1,1,1,1,1,1,1,1,1,1,1,1,1,1,1,1,1,1,1,1,1,1,1,1,1,1,1,1,1,1,1,1,1,1,1,1,1,1,1,1,1,1,1,1,1,1,1,1,1,1,1,1,1,1,1,1,1,1,1,1,1,1,1,1,1,1,1,1,1,1,1,1,1,1,1,1,1,1,1,1,1,1,1,1,1,1,1,1,1,1,1,1,1,1,1,1,1,1,1,1,1,1,1,1,1,1,1,1,1,1,1,1,1,1,1,1,1,1,1,1,1,1,1,1,1,1,1,1,1,1,1,1,1,1,1,1,1,1,1,1,1,1,1,1,1,1,1,1,1,1,1,1,1,1,1,1,1,1,1,1,1,1,1,1,1,1,1,1,1,1,1,1,1,1,1,1,1,1,1,1,1,1,1,1,1,1,1,1,1,1,1,1,1,1,1,1,1,1,1,1,1,1,1,1,1,1,1,1,1,1,1,1,1,1,1,1,1,1,1,1,1,1,1,1,1,1,1,1,1,1,1,1,1,1,1,1,1,1,1,1,1,1,1,1,1,1,1,1,1,1,1,1,1,1,1,1,1,1,1,1,1,1,1,1,1,1,1,1,1,1,1,1,1,1,1,1,1,1,1,1,1,1,1,1,1,1,1,1,1,1,1,1,1,1,1,1,1,1,1,1,1,1,1,1,1,1,1,1,1,1,1,1,1,1,1,1,1,1,1,1,1,1,1,1,1,1,1,1,1,1,1,1,1,1,1,1,1,1,1,1,1,1,1,1,1,1,1,1,1,1,1,1,1,1,1,1,1,1,1,1,1,1,1,1,1,1,1,1,1,1,1,1,1,1,1,1,1,1,1,1,1,1,1,1,1,1,1,1,1,1,1,1,1,1,1,1,1,1,1,1,1,1,1,1,1,1,1,1,1,1,1,1,1,1,1,1,1,1,1,1,1,1,1,1,1,1,1,1,1,1,1,1,1,1,1,1,1,1,1,1,1,1,1,1,1,1,1,1,1,1,1,1,1,1,1,1,1,1,1,1,1,1,1,1,1,1,1,1,1,1,1,1,1,1,1,1,1,1,1,1,1,1,1,1,1,1,1,1,1,1,1,1,1,1,1,1,1,1,1,1,1,1,1,1,1,1,1,1,1,1,1,1,1,1,1,1,1,1,1,1,1,1,1,1,1,1,1,1,1,1,1,1,1,1,1,1,1,1,1,1,1,1,1,1,1,1,1,1,1,1,1,1,1,1,1,1,1,1,1,1,1,1,1,1,1,1,1,1,1,1,1,1,1,1,1,1,1,1,1,1,1,1,1,1,1,1,1,1,1,1,1,1,1,1,1,1,1,1,1,1,1,1,1,1,1,1,1,1,1,1,1,1,1,1,1,1,1,1,1,1,1,1,1,1,1,1,1,1,1,1,1,1,1,1,1,1,1,1,1,1,1,1,1,1,1,1,1,1,1,1,1,1,1,1,1,1,1,1,1,1,1,1,1,1,1,1,1,1,1,1,1,1,1,1,1,1,1,1,1,1,1,1,1,1,1,1,1,1,1,1,1,1,1,1,1,1,1,1,1,1,1,1,1,1,1,1,1,1,1,1,1,1,1,1,1,1,1,1,1,1,1,1,1,1,1,1,1,1,1,1,1,1,1,1,1,1,1,1,1,1,1,1,1,1,1,1,1,1,1,1,1,1,1,1,1,1,1,1,1,1,1,1,1,1,1,1,1,1,1,1,1,1,1,1,1,1,1,1,1,1,1,1,1,1,1,1,1,1,1,1,1,1,1,1,1,1,1,1,1,1,1,1,1,1,1,1,1,1,1,1,1,1,1,1,1,1,1,1,1,1,1,1,1,1,1,1,1,1,1,1,1,1,1,1,1,1,1,1,1,1,1,1,1,1,1,1,1,1,1,1,1,1,1,1,1,1,1,1,1,1,1,1,1,1,1,1,1,1,1,1,1,1,1,1,1,1,1,1,1,1,1,1,1,1,1,1,1,1,1,1,1,1,1,1,1,1,1,1,1,1,1,1,1,1,1,1,1,1,1,1,1,1,1,1,1,1,1,1,1,1,1,1,1,1,1,1,1,1,1,1,1,1,1,1,1,1,1,1,1,1,1,1,1,1,1,1,1,1,1,1,1,1,1,1,1,1,1,1,1,1,1,1,1,1,1,1,1,1,1,1,1,1,1,1,1,1,1,1,1,1,1,1,1,1,1,1,1,1,1,1,1,1,1,1,1,1,1,1,1,1,1,1,1,1,1,1,1,1,1,1,1,1,1,1,1,1,1,1,1,1,1,1,1,1,1,1,1,1,1,1,1,1,1,1,1,1,1,1,1,1,1,1,1,1,1,1,1,1,1,1,1,1,1,1,1,1,1,1,1,1,1,1,1,1,1,1,1,1,1,1,1,1,1,1,1,1,1,1,1,1,1,1,1,1,1,1,1,1,1,1,1,1,1,1,1,1,1,1,1,1,1,1,1,1,1,1,1,1,1,1,1,1,1,1,1,1,1,1,1,1,1,1,1,1,1,1,1,1,1,1,1,1,1,1,1,1,1,1,1,1,1,1,1,1,1,1,1,1,1,1,1,1,1,1,1,1,1,1,1,1,1,1,1,1,1,1,1,1,1,1,1,1,1,1,1,1,1,1,1,1,1,1,1,1,1,1,1,1,1,1,1,1,1,1,1,1,1,1,1,1,1,1,1,1,1,1,1,1,1,1,1,1,1,1,1,1,1,1,1,1,1,1,1,1,1,1,1,1,1,1,1,1,1,1,1,1,1,1,1,1,1,1,1,1,1,1,1,
1.30739e-02,-9.94560e-03,-1.42371e-02,-2.33546e-03,-1.92522e-02,-6.60358e-03,4.80499e-03,1.10082e-02,-6.34455e-03,-1.82483e-02,1.10802e-02,-1.82615e-02,3.33683e-03,-5.67411e-03,-9.69590e-03,-1.54968e-02,8.39845e-03,-1.96672e-02,1.04137e-02,6.82233e-03,7.01429e-04,-1.00077e-03,-1.02042e-02,2.66054e-03,-1.35651e-02,8.10633e-03,8.98075e-03,1.06008e-02,1.43973e-02,-4.43577e-03,1.05119e-02,1.26358e-02,-1.05204e-02,1.04204e-02,-1.06477e-02,8.02118e-04,1.38632e-02,-1.87982e-02,-1.18546e-02,1.27523e-02,1.51675e-03,-1.59413e-02,-4.41753e-03,9.42064e-03,-1.36172e-02,-1.33845e-02,7.19981e-04,-1.95934e-02,-7.95143e-03,5.55511e-04,-7.97468e-03,1.38869e-02,-7.51941e-03,1.33245e-02,4.90798e-03,-6.46754e-03,1.19348e-02,-1.65272e-02,1.35630e-02,1.38044e-02,9.31282e-03,-5.59971e-03,3.37406e-03,4.97597e-03,4.73893e-03,1.10116e-02,-1.02291e-02,1.04074e-02,7.22331e-03,-1.39985e-02,-1.51026e-03,8.86255e-03,1.34982e-02,1.01243e-02,6.91846e-03,8.52732e-03,-7.89209e-03,-1.73982e-02,-3.37483e-03,1.36177e-02,-6.13228e-03,1.26986e-03,5.56677e-03,-1.83465e-02,-5.14944e-03,-2.92490e-03,-8.87095e-03,-1.43579e-03,1.38605e-02,1.50738e-02,-1.33921e-02,-1.27961e-02,1.56338e-02,-4.05010e-03,-1.79303e-02,1.03419e-02,-7.18854e-05,5.41105e-03,5.14982e-03,-1.36353e-02,5.39270e-05,-1.77283e-02,-1.81826e-02,-5.44291e-03,3.23647e-03,-2.43585e-03,6.15545e-03,2.20246e-03,-1.28090e-02,-1.94142e-02,1.06035e-02,1.55166e-02,-1.69640e-02,-5.94482e-03,-7.26939e-03,6.33709e-03,9.97619e-04,6.80821e-03,-1.84247e-02,1.11976e-02,-7.74977e-03,4.57447e-03,1.36020e-02,5.32354e-03,-8.46614e-03,-9.86723e-03,-4.46934e-03,3.36401e-03,-1.96621e-02,-2.76800e-03,1.41772e-02,1.05259e-02,1.14112e-02,1.26462e-02,-1.84006e-02,3.19500e-03,-1.51279e-02,-5.56350e-03,-1.25849e-03,-6.91570e-03,1.43525e-02,-8.49386e-03,-1.24954e-03,8.27846e-03,-1.08867e-02,-1.77560e-02,-4.30516e-03,-7.49788e-04,-2.88688e-03,-4.84077e-03,1.76799e-04,-2.76552e-03,1.18823e-02,1.17785e-02,-2.41596e-03,1.57078e-02,-1.71829e-03,1.02679e-03,-3.80097e-03,1.59340e-02,-1.27785e-02,-2.03367e-02,-1.76965e-02,-6.44557e-04,1.75891e-03,1.81822e-02,-5.60121e-03,-1.01094e-02,-5.51486e-03,-7.40003e-03,-1.13866e-02,-1.06734e-02,6.60071e-03,-1.66118e-02,-1.82168e-02,1.24391e-02,-1.69669e-02,1.26220e-02,1.47498e-02,-1.79452e-02,3.21405e-03,-1.13469e-02,2.62395e-04,-5.15357e-04,2.84403e-03,-5.84819e-04,-6.13182e-03,-1.43024e-03,2.80935e-03,1.11487e-02,-8.90361e-03,-1.83642e-02,1.48007e-02,-1.13384e-02,5.87257e-04,-1.50310e-02,1.29599e-02,-1.67990e-02,5.10891e-03,-1.37152e-02,1.02378e-02,1.11418e-02,1.29909e-02,-1.60027e-02,1.84698e-03,2.02582e-03,1.37301e-02,-1.64847e-02,-7.11451e-03,1.00051e-02,-9.94198e-03,2.64893e-03,-1.02751e-02,-7.58607e-03,6.41181e-03,1.30374e-02,-1.77178e-02,-1.59558e-02,-1.77302e-02,1.54265e-02,1.03758e-02,-1.02862e-02,-1.01228e-02,-5.50351e-03,-9.77175e-03,-8.79181e-03,-1.11657e-02,-1.54729e-02,1.02357e-02,-3.84511e-03,-1.22160e-02,-1.17944e-04,-1.42773e-02,8.45811e-03,1.12380e-02,1.15932e-02,1.07926e-02,5.01714e-03,-1.02330e-03,-4.25592e-03,8.13559e-03,-4.00831e-03,-1.51055e-02,7.40875e-03,-6.68699e-03,2.72871e-03,-1.35673e-02,3.05791e-03,-2.16648e-03,-1.53787e-03,1.50706e-02,-1.86811e-02,-1.33481e-02,3.09009e-04,1.07101e-02,1.19288e-02,2.82702e-04,-1.16295e-02,-9.05938e-03,-6.39781e-03,-1.94837e-02,-1.80023e-03,-5.26278e-03,1.16078e-02,1.08821e-02,-1.22537e-02,-7.64810e-03,1.75188e-02,1.05512e-02,-1.57971e-02,8.56454e-03,-2.06996e-02,-9.87304e-03,-9.92031e-03,-7.14778e-03,-1.96324e-02,5.35790e-03,-2.60650e-03,-9.47582e-03,-4.22809e-03,-8.47651e-04,-2.15176e-03,5.80875e-03,-6.75697e-03,1.38180e-02,-2.26486e-03,-7.25912e-03,-3.92428e-03,8.09823e-03,6.25863e-03,9.24722e-03,1.46816e-02,-1.54551e-02,-1.07689e-03,-1.20104e-02,3.83594e-04,-2.03242e-02,-4.19099e-04,-5.68741e-04,9.19123e-03,-1.61922e-02,1.04715e-02,3.39030e-03,1.36286e-02,-1.41323e-02,1.21278e-02,1.16469e-02,-9.50657e-03,-1.55764e-02,-8.80226e-03,-1.57212e-02,-3.66566e-03,-1.95489e-02,1.22440e-02,2.17509e-03,1.29832e-02,1.65939e-04,1.16887e-02,5.21198e-03,1.06536e-02,-1.61687e-03,-1.12313e-02,1.52187e-02,-1.52989e-02,1.51906e-02,-3.54724e-03,-8.48664e-03,1.23420e-02,-6.39329e-03,-1.54262e-02,-1.47392e-02,-1.16152e-02,1.09130e-02,7.42250e-03,1.70057e-03,-1.56225e-02,-3.68926e-03,-1.62104e-02,-1.06142e-03,-1.57108e-02,9.43605e-03,1.33307e-02,-1.46539e-02,-6.93741e-03,7.31070e-03,-1.53448e-02,-1.92355e-03,-8.84044e-03,4.96097e-03,1.56396e-03,-1.63784e-02,-1.91177e-02,-5.24874e-03,-1.23315e-02,6.74441e-03,8.78888e-03,1.41060e-02,1.42799e-02,-1.65383e-02,-7.34117e-03,1.36255e-02,-2.34797e-03,7.58948e-03,1.59915e-02,-1.49222e-02,-7.37464e-03,-5.22056e-03,-6.86134e-03,3.21797e-03,-2.01616e-02,4.10532e-03,1.57704e-02,1.25959e-02,3.98960e-03,-1.69210e-02,6.69012e-03,-1.11078e-02,-4.77149e-04,1.23429e-02,-1.43960e-02,-1.83981e-02,-1.46925e-02,-1.58118e-02,-8.43760e-03,4.64722e-03,-1.61932e-02,1.62886e-02,1.09282e-02,2.46099e-04,1.22244e-02,2.23466e-03,-8.44643e-03,1.95253e-03,-7.18336e-03,-1.58815e-02,-1.13134e-02,-1.99763e-02,-2.08673e-02,9.15160e-05,1.07315e-02,-1.76606e-02,2.87377e-03,1.23218e-02,-1.07280e-02,-6.22016e-03,4.64935e-03,-8.83233e-04,-7.96471e-03,-3.05056e-03,-1.99374e-02,4.53019e-03,2.28192e-03,1.38880e-02,1.25401e-02,3.15137e-03,4.41063e-03,-1.92017e-02,4.60103e-03,1.55029e-02,6.18284e-03,-8.99216e-03,-7.50537e-03,-5.19310e-03,1.10001e-02,1.39376e-02,-5.95898e-03,1.42497e-02,-1.52375e-02,-1.20529e-02,5.62542e-03,1.17677e-02,3.17756e-03,-1.65133e-02,1.50462e-02,1.09330e-03,-7.97828e-03,-6.57076e-03,-6.19618e-03,1.22768e-02,-1.48974e-02,-1.93989e-05,3.67676e-03,9.76423e-03,-5.40994e-03,4.66432e-03,-2.16396e-03,-1.52450e-02,8.39215e-03,-5.64245e-03,-9.85695e-03,1.63144e-02,1.20874e-02,8.85645e-03,5.96698e-03,-1.60384e-02,7.15732e-03,-4.91516e-03,-2.01629e-02,-1.61938e-02,-6.82561e-03,-8.88329e-04,-7.42202e-03,-9.94687e-03,7.61636e-03,-1.80121e-02,-4.52441e-03,1.30351e-03,-1.40662e-02,-4.61792e-03,7.91568e-03,1.28140e-02,8.55575e-03,1.52798e-02,1.30814e-02,1.11129e-02,-1.66144e-02,5.83805e-03,5.20307e-03,1.11194e-02,1.29399e-02,-8.52580e-03,4.05439e-03,-6.09391e-03,-8.43067e-04,-1.95504e-02,-1.62724e-03,-1.01183e-02,4.51452e-03,-1.26589e-02,-1.16042e-02,5.18287e-03,1.38781e-02,-1.61475e-02,1.54716e-02,1.16624e-02,8.19786e-03,-7.27811e-03,1.72083e-03,-6.86858e-03,-1.31118e-02,-1.93681e-03,-1.26338e-02,1.45591e-04,-8.25065e-03,6.78517e-04,3.14541e-03,7.04785e-03,-3.57272e-03,-1.06390e-02,-8.64632e-03,-1.60088e-02,7.03784e-03,-3.73760e-03,-1.04313e-02,1.44560e-02,5.67991e-03,-1.55087e-02,-1.29183e-02,7.42820e-03,9.62353e-03,-1.18310e-02,-1.61783e-02,2.84828e-03,9.63639e-03,1.17795e-02,-1.11593e-02,-1.03368e-02,-3.12196e-03,-1.24281e-02,-1.45545e-02,-1.57010e-02,1.50963e-02,-1.20415e-02,-1.65607e-02,1.54461e-02,3.74091e-03,1.22568e-02,1.34402e-02,7.97147e-03,-1.45510e-02,-1.55655e-02,8.40515e-03,-2.85929e-03,-1.01185e-02,-1.31331e-02,-1.04943e-02,3.93037e-03,-1.82718e-02,-6.92796e-03,-1.63223e-02,-1.80242e-02,-8.61859e-03,-1.71219e-02,1.26852e-02,-6.98659e-04,-7.28486e-03,1.25309e-02,-1.31335e-03,-3.87738e-03,-1.22902e-02,-2.92286e-03,1.02610e-02,1.57931e-02,1.20421e-02,6.23187e-03,-1.40875e-02,5.21353e-03,-1.18417e-02,-1.85474e-02,-2.61095e-03,-1.00155e-02,1.33964e-02,-1.05193e-02,3.29443e-03,1.20152e-02,6.71961e-03,-1.49173e-02,-1.23932e-02,8.32385e-03,-1.72271e-02,-1.32867e-02,-1.80635e-02,-1.10812e-02,-9.65750e-03,-4.21641e-03,-1.99501e-02,-4.42325e-03,-1.86148e-02,-1.38929e-02,7.27451e-04,-9.08193e-03,-1.63396e-02,1.20212e-02,1.38534e-02,-1.52438e-02,-1.48421e-02,1.56900e-02,-2.00533e-02,-3.60291e-03,-2.54961e-03,-1.25290e-02,-1.83352e-02,1.02880e-03,1.25492e-02,3.78340e-03,8.46529e-03,-1.31465e-02,1.47550e-02,-1.16131e-02,1.05046e-02,1.39150e-03,-6.33157e-03,-1.50924e-02,-7.07641e-04,1.29976e-02,-1.82730e-03,-5.54908e-03,-1.47045e-02,1.50660e-02,-1.83887e-02,8.61739e-03,-1.23482e-03,4.52868e-03,1.44480e-02,5.36340e-03,-1.12876e-02,9.98490e-03,1.08006e-02,-1.73292e-02,1.55689e-02,-1.95751e-02,-1.13798e-02,6.95966e-03,-4.24860e-03,-3.07517e-03,-3.62204e-03,-1.22834e-02,-1.62656e-02,7.04687e-03,-6.32786e-03,-6.26127e-03,8.50694e-03,-6.50960e-03,1.21835e-02,-1.80172e-02,-1.23485e-03,-6.69331e-03,6.92752e-03,-1.10643e-02,1.54204e-02,-6.24558e-04,-1.23637e-02,-8.58520e-03,-1.91575e-02,-8.85165e-03,-3.90266e-03,9.04522e-03,-3.61737e-03,1.51980e-03,1.03795e-03,5.11650e-03,1.55457e-02,-1.01303e-02,-1.25062e-02,-1.14361e-02,2.37358e-03,-2.27335e-03,6.35179e-03,-3.25246e-03,1.44685e-02,-2.23728e-03,-8.02354e-03,3.28464e-03,6.67816e-04,-1.46302e-03,-1.25693e-02,-9.10043e-04,7.16368e-03,5.06850e-03,1.54840e-03,1.20917e-02,-1.06395e-02,4.25670e-03,8.71736e-03,-6.99903e-03,-2.50886e-03,1.05413e-02,-1.07359e-02,-1.95467e-02,-1.55903e-02,6.44698e-03,-1.08497e-02,1.11478e-02,5.34099e-03,9.30184e-03,-1.97822e-02,1.43773e-02,-7.26572e-03,8.18473e-03,4.79951e-04,1.58285e-02,1.54989e-02,-4.69162e-03,1.30672e-02,2.04326e-04,-1.88716e-02,8.75206e-03,1.16389e-02,-9.00134e-03,1.57116e-02,4.39215e-03,1.53244e-02,6.29607e-03,-1.66504e-02,1.30689e-02,-1.36264e-02,-3.23052e-03,7.89779e-03,-1.22955e-02,-7.32092e-03,-1.61229e-02,3.56553e-03,-1.97755e-02,-8.55280e-03,1.48862e-02,-1.34515e-02,-1.83785e-02,-8.72507e-03,-1.51852e-02,-3.82021e-03,8.90042e-03,-1.62348e-02,-3.09409e-03,-1.28968e-02,-5.53133e-03,4.24152e-03,6.75539e-03,1.84533e-03,-7.71390e-03,8.54874e-03,1.40714e-02,4.38079e-04,-1.72360e-04,5.49795e-03,5.96575e-03,-7.07230e-03,4.97028e-03,-1.97644e-03,-4.82338e-03,1.97202e-03,2.87300e-03,-1.64231e-02,-1.92584e-02,6.13383e-03,9.50489e-03,1.20981e-02,3.55832e-03,9.81418e-03,8.91869e-03,1.55487e-02,1.10880e-03,1.16430e-02,7.75464e-03,1.29565e-02,-3.55706e-03,-4.99191e-03,5.10968e-03,5.61915e-03,5.07384e-03,-7.15225e-03,1.52299e-02,8.48721e-03,3.51221e-03,-4.86371e-03,-1.35654e-03,1.03683e-04,8.86808e-03,-9.07454e-03,-4.87207e-03,-1.98581e-02,4.06859e-03,-7.54684e-04,3.94192e-03,5.34241e-03,1.53049e-02,-1.27297e-02,-7.38324e-03,6.74792e-03,1.38009e-02,-6.24699e-03,1.14998e-02,3.25274e-03,-4.81072e-03,-3.34316e-03,1.43533e-02,1.17070e-02,7.10446e-03,8.17993e-03,-1.22695e-03,-4.54209e-04,1.22506e-02,5.78646e-03,1.09112e-02,-1.73914e-02,-1.64202e-02,-1.53984e-02,-1.82539e-02,-1.78076e-02,-1.03174e-02,-1.96161e-02,-1.16274e-02,1.07307e-02,-1.58396e-02,-2.09258e-03,6.61294e-03,-4.63643e-03,1.62943e-03,-1.63676e-02,5.35729e-03,1.24409e-02,-1.80186e-02,1.44569e-02,1.48733e-03,9.23648e-03,3.17972e-03,-1.75750e-02,4.35041e-03,7.97979e-04,2.41507e-04,-8.23952e-03,-9.48393e-04,-4.20538e-03,-1.53189e-02,-1.45420e-02,-1.60783e-02,1.35503e-02,-1.03150e-03,-8.39440e-03,-7.61096e-03,2.41361e-03,-1.27375e-03,-1.38532e-02,-1.30411e-03,5.77434e-03,-1.26436e-02,-1.12202e-02,7.11387e-03,-1.90150e-02,3.06803e-03,9.81490e-03,-1.08962e-03,2.90936e-03,1.58513e-02,-2.13639e-03,1.11035e-02,1.89408e-03,4.68616e-03,2.36347e-03,3.37269e-03,-9.95297e-03,5.07517e-03,1.05817e-02,-1.15111e-02,-9.75767e-03,1.56980e-02,8.63938e-03,2.27377e-03,-1.25180e-02,-5.78460e-03,9.28040e-04,-4.71483e-03,1.57150e-02,-8.62357e-03,-1.37677e-02,1.29107e-02,-2.62390e-03,-6.57759e-03,6.93597e-03,4.29943e-03,-6.84935e-03,2.32911e-03,1.30452e-02,-1.92568e-02,-8.68686e-03,-5.86599e-03,9.23044e-03,1.43896e-02,-7.10773e-03,-1.99169e-02,-1.10152e-02,-1.76878e-02,7.21776e-03,-4.18539e-03,-1.81985e-02,-4.30970e-03,1.56638e-02,-6.17324e-03,1.49508e-02,-1.64084e-02,-7.03992e-03,-7.85198e-03,2.81510e-03,-1.11554e-02,-7.41712e-04,8.68582e-03,-1.54356e-03,-1.31866e-02,-1.49621e-02,-1.60531e-02,-7.63647e-03,1.24989e-02,-1.90948e-02,3.49532e-04,7.92967e-03,8.61704e-04,2.32594e-03,-6.65406e-03,7.28910e-03,-3.85834e-04,-2.47824e-04,-5.32103e-03,-7.05596e-03,-7.84898e-04,-2.99250e-03,-1.24257e-02,6.09435e-03,-1.18068e-02,4.64407e-03,-2.86042e-03,-1.78369e-02,-6.82829e-03,-1.51721e-02,1.48337e-02,6.39492e-03,2.06192e-03,-1.66494e-02,-1.06752e-02,9.68000e-03,-3.13090e-03,-1.88697e-02,-1.98491e-03,3.78496e-03,-1.32638e-02,-5.88033e-03,1.08191e-02,1.57850e-02,4.58186e-03,1.38147e-02,-6.58344e-03,4.28945e-04,-2.70492e-03,2.85472e-03,1.51995e-02,6.13141e-03,-1.26232e-03,-5.87863e-03,-1.43124e-02,1.05485e-02,3.67753e-03,-8.24402e-03,-1.24421e-03,-8.19526e-03,8.83876e-03,-1.81344e-02,-1.76113e-02,9.94318e-03,-1.25386e-02,-1.16315e-02,-1.23637e-02,4.10483e-03,-5.83916e-03,8.65718e-03,-1.78231e-02,1.39009e-02,1.50925e-02,-5.65383e-03,7.96421e-03,-5.00145e-03,-1.02016e-02,7.35900e-03,-5.15288e-04,8.97790e-03,1.24674e-02,1.04450e-02,9.12159e-03,-1.15290e-02,-1.75643e-02,-9.41561e-03,1.65837e-05,1.07829e-02,-4.03218e-03,-1.26257e-02,-1.55548e-02,3.80318e-03,-1.75172e-02,-1.22713e-02,7.49736e-04,-1.55325e-02,-1.45932e-02,1.53823e-02,1.15847e-02,-2.56978e-03,-3.10535e-03,-1.43958e-02,-4.65234e-03,-9.68620e-03,6.31389e-03,1.61806e-02,-1.47625e-02,-1.72192e-02,-7.82154e-03,5.72205e-03,-1.88741e-02,-7.37314e-03,-1.17193e-02,-7.65635e-03,-4.07483e-03,2.31463e-03,-2.21348e-03,4.49865e-03,-4.93344e-03,1.57792e-02,2.70214e-03,-3.89103e-03,7.11442e-03,1.10714e-02,1.55045e-02,-1.98244e-02,1.88031e-03,7.98570e-03,3.22201e-03,-1.26681e-02,-1.39128e-02,1.30555e-02,-7.06815e-03,-1.29431e-02,7.24374e-03,-1.59041e-03,2.37387e-03,-4.66272e-03,5.58608e-03,7.80610e-03,3.41163e-03,1.18290e-02,8.11226e-03,-1.68502e-03,1.40797e-02,4.79909e-03,-9.90477e-03,-2.48216e-03,-1.98513e-03,1.77706e-03,-9.88334e-03,-1.78369e-02,-2.70598e-03,7.16928e-03,6.31665e-03,-2.83034e-03,9.12902e-03,1.01941e-02,-1.49537e-02,-1.07201e-02,-1.28643e-02,-1.36155e-02,-1.82922e-02,-8.72797e-03,1.48727e-03,-1.47293e-02,1.16145e-02,-2.15480e-03,-7.17682e-03,-1.07661e-02,-1.05107e-02,7.48342e-03,-7.13337e-03,5.74318e-03,-1.19046e-02,-1.33125e-02,-1.43356e-02,1.14234e-02,7.22347e-03,-3.47026e-03,1.56372e-02,1.08706e-02,1.45005e-02,4.26420e-03,-4.08416e-03,-1.65522e-02,-3.81340e-03,-1.70200e-02,-1.80585e-02,-2.07855e-03,-1.43028e-02,1.46870e-02,-1.06114e-02,1.53919e-02,1.56193e-02,1.40379e-02,2.18486e-04,2.40752e-03,2.94106e-03,2.46250e-03,1.06514e-03,-1.29102e-02,1.46210e-02,1.23741e-03,-1.34514e-02,-1.15325e-02,1.06633e-02,-1.07964e-02,-1.46095e-03,-6.79588e-03,-4.41775e-03,1.25292e-02,-1.42357e-02,1.28703e-02,-6.86003e-03,-5.40286e-03,1.25796e-02,-1.60824e-02,-1.60960e-02,1.27417e-02,1.28789e-02,1.17151e-02,1.60430e-02,-4.57183e-03,-8.42302e-03,-7.37320e-03,1.27420e-02,-2.50641e-05,-8.55461e-03,-2.91120e-03,1.42991e-03,1.09826e-02,-1.81252e-02,6.24437e-03,1.05803e-02,-6.36358e-03,-4.41381e-03,-2.22108e-03,2.30965e-03,1.23903e-02,1.07853e-02,4.45242e-03,8.75661e-03,-1.20470e-02,-2.44642e-03,-8.81779e-03,-7.90352e-03,1.47568e-02,1.21994e-03,-1.43972e-02,1.27818e-02,-8.31399e-03,1.57748e-02,-1.22509e-02,3.87526e-03,1.36757e-02,1.26846e-02,9.61349e-04,-5.57348e-03,-1.93451e-02,2.73570e-03,1.05803e-02,1.58483e-02,-3.73417e-03,-1.58590e-02,-1.11654e-02,-1.46325e-03,-1.08366e-02,3.93417e-03,-9.26144e-03,2.38826e-03,-1.90560e-02,1.57652e-02,-1.41581e-03,6.91675e-03,3.09236e-03,-2.94338e-03,1.28197e-02,-6.52010e-03,1.58446e-03,1.01629e-02,6.20940e-03,-6.51275e-04,3.18596e-03,-5.88579e-03,-1.87991e-02,-1.65670e-02,-1.93563e-02,2.64989e-03,-1.33238e-02,9.05471e-03,-1.23419e-02,1.35280e-03,1.21962e-02,-1.58930e-02,1.34534e-02,1.39099e-02,-8.01233e-03,-1.44151e-02,-1.37706e-02,-6.56217e-03,-6.85100e-03,4.23015e-03,1.16521e-02,-8.04929e-03,-1.90629e-02,1.09245e-02,-1.69615e-02,1.78766e-03,-1.79031e-02,3.71479e-03,1.91056e-03,-9.30573e-03,-1.58457e-02,9.78727e-03,-1.48143e-03,5.64080e-03,1.15107e-04,-1.44855e-02,-1.25749e-02,5.00029e-03,-1.14103e-02,-1.04848e-02,-1.67812e-02,6.26873e-04,6.37233e-03,-3.91455e-03,1.48966e-02,2.63949e-03,1.04969e-03,1.36429e-02,1.93286e-03,5.11859e-03,-1.71545e-02,-1.88627e-02,3.76535e-03,-1.73867e-02,9.57208e-03,-6.04381e-03,-1.05830e-02,-1.48718e-02,-5.27932e-03,-8.50655e-03,-1.66394e-02,1.23462e-02,-5.63899e-03,-1.47771e-02,5.80696e-03,1.28722e-02,-7.46371e-03,-1.57374e-02,1.52207e-02,3.83695e-03,9.99450e-04,-1.91862e-02,-1.31701e-02,-3.91939e-03,7.20290e-03,3.07583e-03,-9.08447e-06,8.30902e-03,8.33771e-03,-4.68762e-03,-4.82838e-03,-4.35574e-03,9.61040e-03,-8.14832e-03,-4.62341e-03,-1.49093e-02,-1.97102e-02,-3.17925e-03,9.72117e-03,-1.48222e-02,9.22148e-03,-4.19482e-03,5.48625e-03,1.35581e-02,2.99810e-03,-1.61752e-02,-3.19856e-03,1.24489e-02,-9.76040e-03,1.02943e-02,-1.12759e-02,-4.57954e-03,9.24460e-03,-8.94235e-03,-4.25797e-03,9.14359e-03,-1.19236e-02,5.36445e-03,7.94727e-03,8.80519e-03,8.55387e-03,-2.00413e-02,3.97524e-03,1.95632e-03,2.76294e-03,-1.09567e-02,1.23634e-02,-2.35189e-03,3.04025e-03,-8.01505e-03,7.35051e-03,1.24283e-02,1.41294e-02,-1.45921e-02,-4.90547e-03,-5.72089e-03,7.15661e-03,-6.97576e-03,-1.49006e-03,3.29169e-03,5.36987e-03,9.31617e-03,-1.00803e-02,-1.05366e-02,9.67190e-03,7.82138e-03,3.10593e-03,-1.32945e-02,-7.34471e-03,1.59818e-02,6.05928e-03,-7.26773e-03,5.47661e-03,-1.72391e-02,1.42071e-03,-1.69801e-02,-7.53445e-03,3.91280e-03,-4.51890e-03,-2.83455e-03,1.37515e-02,-7.97303e-03,-1.90559e-02,-4.43806e-04,-3.97797e-03,-7.79257e-06,-1.42847e-02,-1.70431e-02,-9.96756e-03,-1.10997e-02,-6.81398e-03,-1.64457e-02,9.62240e-03,-1.64159e-02,-1.45406e-03,1.08136e-02,-4.03882e-03,-2.22904e-03,-8.81999e-03,-1.29195e-02,9.30503e-03,-8.60694e-03,-1.45287e-02,-1.46152e-02,-4.67092e-03,-8.18050e-03,-9.32915e-03,-1.06617e-02,-6.88583e-03,-4.69755e-05,-4.12035e-03,1.28936e-02,-1.46439e-02,1.42632e-02,-1.59455e-02,6.93134e-03,-9.35820e-03,-1.56234e-03,5.09122e-03,7.39139e-03,1.19377e-02,1.10596e-02,-8.29887e-03,1.01064e-02,1.82708e-03,2.80741e-03,9.31747e-05,-4.44212e-03,-1.46996e-03,-4.97522e-03,3.35337e-03,-9.14925e-03,-1.46487e-02,-6.54441e-03,-1.69875e-02,-6.41264e-03,-1.91399e-02,1.97524e-03,3.16393e-03,-1.97019e-02,-5.00541e-03,-1.57892e-03,-3.93027e-04,-8.38291e-03,5.76943e-04,-1.12026e-02,4.42166e-03,-1.59278e-02,-9.27996e-03,-1.20691e-02,1.45067e-02,1.11101e-02,-2.16554e-03,6.53474e-04,9.82561e-03,-1.83626e-02,-2.99523e-03,-1.46105e-02,1.10058e-02,-8.55981e-03,1.15710e-02,8.52039e-04,-5.98601e-03,-3.68969e-03,-1.53564e-02,-3.44325e-03,-1.50842e-02,1.00816e-02,-2.00176e-02,-4.06082e-03,-1.45787e-02,8.59485e-03,4.84629e-03,1.17782e-02,-1.14420e-03,-4.07204e-03,7.75171e-03,-4.46964e-03,1.45855e-02,1.40231e-02,-5.29761e-03,1.05494e-02,6.14122e-03,4.63054e-03,7.78886e-03,1.39149e-03,7.11133e-03,-5.37980e-03,1.60456e-02,-1.70543e-02,-4.20466e-03,-1.68007e-02,-8.56388e-03,-1.45223e-02,8.41747e-04,-5.69276e-03,7.69431e-04,-2.22919e-03,9.48014e-03,-1.69451e-02,1.46806e-02,-1.39714e-02,-1.31009e-03,-1.63533e-02,-4.71710e-04,1.22840e-02,-1.05794e-03,6.44512e-03,-1.95812e-02,7.81672e-04,8.42725e-03,-1.16391e-02,-9.73031e-03,-1.88741e-02,8.81454e-03,-6.77949e-03,5.40747e-03,2.50813e-03,1.24395e-02,1.33749e-02,-1.42731e-02,-1.09478e-02,-8.50182e-03,-2.30185e-03,-3.57118e-03,-1.79597e-02,-1.57382e-02,-1.05715e-02,-1.71249e-02,-1.37638e-02,7.88074e-03,-1.47838e-02,-1.90381e-02,-1.32250e-02,-5.69208e-03,-4.52993e-03,1.16122e-02,-1.95787e-02,-6.49442e-03,-1.46661e-03,-1.21656e-02,1.07931e-02,1.59601e-02,1.18084e-02,-1.82165e-02,-1.55054e-02,1.45067e-02,4.03350e-03,1.25059e-02,-1.46590e-02,-5.99404e-03,1.53256e-02,1.40302e-02,-4.51149e-03,1.51033e-02,-1.02902e-02,-1.94915e-02,-1.85942e-02,8.58750e-03,1.74420e-03,5.25349e-03,-9.47296e-03,-1.10524e-02,-3.02914e-03,-1.28172e-02,-8.21067e-03,1.50367e-02,-9.46761e-03,1.37302e-02,-2.43178e-03,5.74846e-03,-1.13026e-02,8.26372e-03,-1.30642e-02,1.43277e-02,2.65461e-03,7.53509e-03,-1.70464e-03,4.53838e-03,1.57400e-02,1.40095e-02,-1.04952e-02,-1.46783e-02,1.55918e-02,8.06327e-03,9.59288e-03,-1.08395e-02,6.05920e-03,1.19591e-02,2.76198e-03,1.08479e-02,-1.42479e-02,7.55583e-03,1.57636e-02,-5.35724e-03,6.63451e-03,2.55376e-03,8.00645e-03,1.40086e-02,-4.55908e-03,-1.53548e-02,4.62662e-03,-1.76423e-02,-1.52652e-03,1.50029e-02,1.27431e-02,6.15540e-04,-4.94850e-03,-3.48199e-04,-1.03873e-02,-2.87573e-03,-1.49299e-02,-1.33251e-02,2.88133e-03,1.55142e-02,-1.46186e-02,1.39562e-02,-6.19318e-03,2.94809e-03,5.89169e-03,-1.45567e-02,4.12383e-03,4.59449e-03,5.20270e-03,1.56829e-02,-4.80107e-03,-1.65386e-02,5.22411e-03,-1.40011e-02,1.29042e-02,-9.46717e-04,5.41438e-03,8.84277e-03,-4.14157e-03,-1.25065e-02,-1.94905e-02,3.53367e-03,-1.92033e-03,1.12371e-02,-9.56154e-04,-1.73599e-02,7.56287e-03,1.55821e-03,-1.93307e-02,3.13479e-03,6.90423e-04,-2.38823e-03,8.21234e-03,-5.01802e-03,-1.84700e-02,1.29344e-02,-1.70813e-02,-1.90664e-02,-8.55554e-03,-1.92482e-02,-1.68997e-02,-1.17086e-02,-1.33854e-02,-9.08016e-03,-8.22141e-04,-1.28273e-02,1.09506e-02,3.94261e-03,-1.30634e-02,-6.77323e-03,-1.28344e-02,-1.53771e-02,1.44880e-02,7.60461e-03,-1.25547e-02,-1.60781e-02,-1.44789e-02,6.52826e-04,-9.13319e-03,3.80434e-03,5.17926e-03,6.11543e-03,-1.89380e-02,8.17497e-03,-1.94460e-02,-7.11683e-03,-6.39514e-03,1.09647e-02,-1.50634e-03,1.24152e-02,-1.23234e-02,-4.56463e-03,8.74434e-03,7.58643e-03,-3.88687e-04,-9.57852e-03,8.50844e-03,-3.85925e-03,3.01956e-03,-1.08855e-02,7.85082e-03,-2.75594e-03,1.42395e-02,9.95826e-04,-5.90991e-03,-4.49287e-03,7.57999e-03,-2.69829e-03,-9.80696e-04,-1.03199e-03,1.31593e-02,1.22850e-02,1.35054e-02,-1.30966e-02,-1.53047e-02,-2.88162e-03,1.52289e-02,-1.57270e-02,-1.05846e-03,-7.27251e-03,-4.12641e-03,-8.46548e-03,-9.36112e-03,7.00069e-03,-1.94017e-02,-8.68724e-03,-1.66985e-02,1.41483e-02,5.11633e-03,-1.79117e-02,1.61892e-02,-1.65552e-02,-6.38506e-03,2.67460e-03,5.39248e-03,-1.37941e-02,1.56751e-03,-1.90026e-02,2.23772e-03,1.08568e-02,1.56654e-02,9.65623e-04,1.09619e-02,-3.24253e-03,-1.63522e-02,9.47612e-04,-1.97202e-02,2.07750e-03,-1.95481e-02,3.05737e-03,-4.20346e-03,-1.32831e-02,1.23742e-02,5.77353e-03,-8.81641e-03,-1.82463e-02,3.39219e-03,-9.99742e-03,-1.97883e-02,-6.43015e-03,1.30753e-02,-1.86098e-02,-2.98718e-03,-3.96696e-04,1.82308e-03,1.54023e-02,-1.26182e-02,-1.86387e-02,1.39044e-02,1.12717e-02,-2.96908e-03,-1.90880e-02,-2.43321e-03,4.57304e-03,2.64133e-03,-1.77939e-02,-1.32118e-02,-5.99288e-03,1.43684e-02,9.56092e-03,9.83953e-03,-1.49120e-02,1.28181e-02,-1.63762e-02,1.32476e-02,-1.44431e-02,1.26656e-02,-1.72552e-03,1.17562e-02,4.22226e-03,-1.29120e-02,1.44770e-02,-1.13499e-02,-7.31686e-04,-1.19758e-02,-1.67701e-04,9.35061e-03,-1.63639e-02,1.58945e-02,1.40587e-02,1.22641e-02,-1.08520e-02,-8.24754e-03,-1.10581e-02,9.98818e-03,-1.40140e-03,8.51963e-03,-1.06982e-02,-6.20757e-03,-4.37105e-03,3.28478e-03,-1.63880e-02,1.67033e-03,-6.90309e-03,1.18313e-02,-6.05405e-03,-6.08225e-03,-1.90598e-02,-9.12971e-03,1.60912e-02,-1.85202e-02,-1.97405e-02,9.63995e-03,-8.34188e-03,-1.98058e-03,-1.31451e-02,1.43217e-02,-1.32355e-02,6.98488e-03,-1.76631e-02,8.37669e-03,-3.09576e-03,1.54442e-02,-3.23511e-03,5.27694e-04,1.35741e-02,-1.52785e-02,1.11981e-02,-1.94931e-04,1.34516e-02,-1.55988e-02,-9.43928e-03,-1.68376e-02,-1.40398e-02,4.81515e-03,1.59502e-03,-7.24813e-03,5.84734e-03,1.07937e-02,8.40965e-03,-1.94922e-02,-4.34067e-03,-1.98823e-02,-3.63831e-03,-1.55500e-02,1.69119e-03,9.92686e-03,-1.18531e-02,-1.82027e-02,-1.65146e-02,2.26861e-03,1.54153e-02,1.34090e-02,-4.26560e-03,1.02575e-02,5.08696e-03,-9.10012e-05,1.50878e-02,7.08688e-03,8.36116e-03,-1.32989e-02,4.14670e-03,9.64814e-04,1.35681e-02,-6.27532e-03,-1.87939e-02,-1.16382e-02,1.19020e-02,-4.17673e-03,6.85818e-03,1.42885e-03,1.14331e-02,1.39083e-02,9.48860e-03,-6.24663e-03,2.17188e-03,-8.97021e-03,-3.63919e-03,-1.02447e-02,-8.73854e-03,-1.69667e-02,-1.32459e-02,6.07894e-03,-2.84778e-03,9.25042e-03,2.74881e-03,-8.86820e-04,4.94830e-04,6.86017e-03,-1.42651e-02,-1.87405e-02,-1.51440e-02,-9.93920e-03,-7.15288e-03,-9.76029e-03,-3.08674e-03,-1.86606e-02,8.66295e-03,-8.10090e-03,3.46657e-03,-5.83656e-03,4.98237e-03,-6.06937e-03,-1.23132e-02,9.54380e-03,-2.96979e-03,-5.97544e-03,-4.12545e-03,6.24915e-04,1.47476e-02,-7.66143e-03,2.77278e-03,1.07574e-02,6.28508e-03,1.34524e-04,1.04934e-02,1.30783e-02,-1.73880e-02,9.34376e-03,7.78674e-03,3.99995e-04,6.33431e-03,-1.45754e-02,-1.51464e-02,2.30377e-04,-3.78316e-03,7.88674e-03,-6.10631e-03,1.15123e-02,1.05111e-02,-2.71650e-03,1.37661e-03,7.69593e-03,1.20506e-02,-1.74679e-02,-3.17552e-04,-2.18398e-03,1.48974e-02,1.02662e-02,-1.42369e-02,-1.24732e-02,1.11968e-02,8.48181e-03,1.29529e-02,1.14823e-02,-1.45517e-02,-8.58087e-04,9.67236e-03,-1.61072e-02,1.07380e-02,9.12606e-03,1.58086e-02,-1.32940e-02,-1.31350e-02,9.96101e-05,2.61243e-03,-2.44117e-03,-1.74662e-02,-4.68459e-03,1.20748e-02,-1.24306e-02,1.57060e-02,-1.99633e-03,1.45473e-02,-1.38067e-02,-6.34804e-03,-1.31379e-02,3.05441e-03,2.12701e-03,1.35406e-02,6.35525e-03,3.20667e-03,1.25258e-02,1.57503e-02,1.35785e-02,-1.23408e-02,1.69089e-03,9.12079e-03,-7.62375e-03,6.20870e-03,-2.55494e-03,3.78441e-03,-6.41946e-03,9.17279e-03,-7.92438e-03,-1.26117e-02,-1.15320e-02,1.12312e-02,-6.28158e-03,7.15251e-03,-5.42762e-03,1.35492e-02,-1.16964e-02,1.54190e-02,1.10678e-02,-1.40203e-02,2.98555e-03,4.84167e-03,-9.68963e-03,1.13024e-03,-1.28880e-02,-1.01595e-02,-1.63940e-02,9.51360e-04,1.45366e-02,-1.43619e-03,-8.44164e-03,-1.17109e-02,1.19773e-02,-4.51117e-03,5.38692e-03,2.65331e-03,8.77127e-03,8.25806e-03,2.19469e-04,6.18390e-03,7.86830e-03,1.39580e-02,-1.78745e-02,-1.55443e-03,-3.23472e-03,1.06754e-02,-7.33228e-03,-8.37496e-03,-1.97828e-02,3.93150e-05,7.24783e-04,1.03800e-02,8.52456e-03,8.01409e-03,-4.95400e-03,-1.51245e-03,1.42197e-03,5.03702e-03,-8.46196e-03,-4.01949e-03,1.51979e-02,-8.94160e-03,-8.28057e-03,-7.14273e-03,-2.39099e-03,2.34667e-03,-1.52414e-02,-1.46162e-02,1.26098e-02,1.21743e-02,1.25097e-03,-1.38523e-02,-9.52337e-03,1.73503e-03,-1.51780e-02,-9.11127e-03,1.09750e-02,-5.14935e-03,-9.53909e-03,4.15452e-03,1.20370e-03,2.31610e-03,7.15130e-04,1.20598e-02,-7.36448e-03,6.22515e-03,6.29142e-03,1.41702e-03,1.42036e-02,-1.85760e-02,-1.10425e-02,-1.27286e-02,1.21012e-02,-1.49982e-02,-1.46480e-02,1.61862e-02,5.71580e-03,1.53767e-02,-3.97183e-03,1.18035e-02,4.63132e-03,-3.69937e-04,-9.49894e-03,1.23869e-02,1.22338e-02,-8.27844e-04,-1.80522e-02,1.01467e-02,4.88319e-03,1.25574e-02,-1.63151e-02,6.78191e-04,1.14429e-02,1.13247e-03,-1.05621e-02,-1.82844e-02,1.20346e-02,-2.23564e-03,-5.81419e-03,8.30900e-03,1.28195e-03,1.50834e-02,-2.05701e-03,6.24625e-04,-1.47184e-02,1.51718e-02,-7.43298e-03,4.61577e-03,9.21891e-03,7.65001e-03,-1.65084e-02,-1.80601e-03,-5.86991e-03,1.26757e-02,1.28381e-02,1.70673e-03,-1.63506e-02,6.82350e-03,-1.24666e-02,-1.94288e-02,6.56875e-03,2.46943e-03,-7.52152e-03,5.01733e-03,-3.40448e-04,7.79785e-03,6.31961e-03,-1.46354e-02,2.38672e-03,-8.71911e-03,-9.28184e-03,-1.40809e-02,-1.88037e-02,7.60602e-03,1.67145e-02,-1.10908e-02,-3.25274e-03,1.20757e-02,1.61225e-02,8.52679e-03,2.19846e-03,-1.03096e-02,-5.98202e-03,3.49811e-03,-1.75917e-02,1.47193e-02,7.48188e-04,1.44835e-02,2.66886e-03,-3.24089e-03,6.14344e-04,-1.32189e-02,-1.49456e-02,-1.49953e-02,-5.15579e-03,4.00217e-03,2.49171e-03,-1.97179e-02,-3.02876e-03,1.50969e-03,-1.78641e-02,-1.29458e-02,-1.48362e-02,5.39488e-03,-1.28709e-02,9.48331e-03,-1.16878e-03,-1.75133e-02,-1.58815e-02,-9.20695e-03,1.38367e-02,-1.05069e-03,-6.44690e-03,1.40902e-02,2.19542e-03,-4.56999e-03,-5.88880e-03,-7.91744e-04,1.14158e-02,1.42733e-02,9.46158e-03,1.64606e-03,1.59579e-02,2.74286e-03,-1.45994e-02,-1.30968e-02,1.36935e-03,1.05235e-02,2.21081e-03,-1.04637e-02,-1.62049e-02,-4.63419e-03,-3.56853e-03,4.15563e-03,1.59348e-02,1.45661e-02,-1.85535e-02,2.57614e-04,1.64766e-03,1.27101e-02,3.55130e-03,-1.39280e-02,1.90141e-03,-3.56838e-03,1.61949e-02,4.04660e-03,1.04616e-02,6.49875e-03,-8.89120e-03,9.93125e-03,-1.16325e-02,7.34877e-03,9.40329e-04,-1.29478e-02,-1.45034e-02,-1.53934e-02,6.37434e-03,-3.98518e-03,-1.39075e-02,-8.61924e-03,-1.67322e-02,1.00636e-02,7.91583e-04,-2.04290e-03,1.73649e-02,-1.38719e-02,-4.75361e-03,-3.69410e-04,-1.68048e-02,-1.41107e-03,8.35745e-04,2.95735e-03,7.35924e-03,1.00659e-02,1.27917e-02,1.02717e-03,-6.25592e-03,-1.26050e-02,1.77417e-02,-1.39718e-02,1.64168e-02,9.51828e-03,-1.19042e-02,3.83336e-03,-4.99599e-03,1.69956e-02,1.60199e-03,-8.94301e-03,-1.22933e-02,-1.31758e-02,-1.26298e-02,-1.94011e-02,-6.48685e-03,9.12151e-03,-4.51414e-03,2.74984e-03,2.15115e-03,7.92297e-03,1.28237e-02,1.20581e-02,-1.87168e-02,-1.38886e-02,-6.74393e-03,-3.26259e-03,-1.85917e-02,-2.43700e-03,-1.28212e-02,1.16968e-02,-1.34896e-02,1.04330e-02,1.04187e-02,-1.45919e-02,-1.11516e-02,1.01498e-02,-2.94441e-03,1.77012e-02,-4.66142e-03,-6.36080e-03,1.69620e-02,-3.08011e-03,-4.87919e-03,-5.18504e-03,7.37900e-03,-4.85556e-03,-6.12063e-03,8.81497e-03,1.08957e-02,4.75958e-03,1.27862e-02,2.80948e-03,1.77567e-02,8.60360e-03,-1.63884e-02,-1.23457e-02,-7.94266e-03,-1.41615e-02,-6.98551e-04,-1.65120e-02,1.34881e-02,2.71866e-03,-4.90045e-03,-2.37355e-04,-3.97978e-03,-1.21916e-02,-1.27058e-03,5.00284e-03,-1.48068e-02,-1.49835e-02,8.15410e-03,2.76017e-03,-8.31239e-03,-1.18120e-02,-3.16623e-03,1.41790e-05,2.92597e-03,-8.72434e-03,1.08613e-02,-7.95219e-03,-1.55490e-02,5.04144e-03,-6.77894e-03,9.49668e-03,-8.08160e-03,-9.57070e-03,-2.72460e-03,1.03674e-02,2.89356e-03,-5.75340e-04,9.41206e-03,4.19653e-03,1.35144e-02,1.41452e-02,1.28250e-02,-1.49755e-03,-6.02251e-03,-1.32185e-02,-1.47497e-02,-8.02050e-03,1.82059e-02,8.55608e-03,-4.52139e-03,2.70223e-03,4.56605e-03,1.05266e-02,-1.35875e-02,3.38276e-03,-1.99880e-02,-1.86678e-02,-6.03403e-03,1.34545e-02,-1.03900e-02,-6.64533e-04,-6.54253e-04,3.47785e-03,1.31498e-02,-5.48939e-04,1.06231e-02,-1.43614e-02,7.44867e-03,-2.54880e-03,1.65357e-02,-4.45116e-03,4.73908e-03,-1.42836e-02,-6.81821e-03,-6.93175e-04,-1.07483e-02,2.56009e-03,-9.26577e-05,4.54007e-03,-8.59284e-05,-1.67718e-03,8.22278e-03,-1.29024e-02,1.28757e-02,-6.78715e-03,1.52627e-02,4.34208e-03,1.55099e-02,-9.33376e-04,-1.03421e-02,-6.92797e-03,8.34026e-03,1.30433e-04,1.36387e-02,1.36303e-02,1.14451e-02,-1.18563e-03,4.59627e-03,-1.23338e-02,6.77015e-03,-1.29008e-02,-9.86474e-04,1.48805e-03,-2.04790e-03,8.47231e-03,1.69718e-02,1.76706e-02,-1.35635e-02,1.24357e-03,-1.09032e-02,6.17016e-03,-2.54055e-03,1.91791e-03,3.08790e-03,3.50907e-04,1.77633e-04,-3.94143e-03,-1.92264e-02,1.02451e-02,3.90028e-03,1.40945e-03,9.03060e-03,1.75583e-03,-1.75522e-02,-2.34385e-03,-1.88520e-02,1.57500e-02,8.11114e-03,-1.57716e-02,1.33487e-02,-1.56423e-02,1.33915e-02,4.87232e-03,1.14018e-02,-1.33121e-02,1.42228e-02,5.58797e-03,1.84042e-02,1.57450e-02,-7.94676e-03,-1.47390e-02,1.44038e-02,8.46214e-03,1.37485e-04,9.35024e-03,-3.77130e-03,-1.18322e-02,8.80561e-03,-1.53460e-02,-1.72052e-02,-1.44020e-02,-1.05036e-02,-1.16282e-02,-1.18555e-02,8.81845e-03,1.25864e-02,1.22320e-02,-3.24321e-03,6.64251e-03,-1.82209e-02,4.66230e-03,1.19478e-02,-8.38289e-03,1.31589e-02,1.19804e-02,1.34438e-02,1.34546e-02,1.80436e-02,-1.62479e-02,6.86146e-03,1.00914e-02,-1.50516e-02,1.49250e-02,6.64168e-03,-1.68367e-02,2.12571e-03,-6.14648e-03,-1.21718e-02,1.64791e-03,-7.56923e-03,1.41397e-02,1.28397e-02,-9.85976e-03,-1.49978e-02,-1.20068e-02,1.46618e-02,1.79658e-02,-1.76808e-03,1.27016e-02,-2.58157e-03,-6.53529e-03,1.39432e-03,-1.84122e-02,-1.79879e-02,-1.01951e-02,1.49005e-02,1.07453e-02,9.51524e-03,5.91902e-03,8.81198e-03,1.84400e-02,-5.42959e-03,-2.38196e-03,1.75862e-03,2.50944e-03,1.54458e-02,8.30994e-03,-4.60962e-03,1.44507e-03,1.74053e-03,1.56140e-03,1.30317e-02,-1.72875e-02,6.43999e-03,1.61802e-02,-1.72484e-03,2.15395e-03,-7.26349e-03,1.00416e-02,-6.52476e-03,9.63115e-04,1.06084e-02,-1.10653e-02,6.86518e-03,2.03125e-03,-1.09759e-02,-1.89584e-02,-1.88084e-02,1.14428e-02,-1.44860e-03,-1.43317e-02,-7.91855e-03,2.80431e-03,1.45859e-02,-3.87880e-03,-1.83898e-02,-1.36647e-02,9.93115e-03,-1.67582e-02,-1.22101e-02,-1.74686e-02,-1.08865e-02,-2.38652e-03,1.48747e-02,-9.05988e-03,-1.93048e-02,-3.49041e-03,3.01534e-03,-7.17655e-03,-3.50982e-03,-7.57998e-03,-1.68427e-02,-1.44285e-02,-1.34208e-02,-1.63212e-02,-1.01181e-03,-1.95589e-02,-6.59783e-03,3.63355e-03,7.68643e-03,2.03114e-03,-3.44586e-03,-6.55424e-04,-9.71638e-03,-1.48236e-02,-4.99535e-03,-1.95667e-02,2.43977e-03,-1.01814e-02,-1.69231e-02,1.65331e-03,-1.65889e-03,-1.00360e-02,4.38424e-03,-1.20512e-02,-1.83746e-02,1.37755e-02,-4.26728e-03,7.15645e-03,-4.30884e-03,-1.84406e-02,-7.11849e-03,-5.06028e-03,-1.64967e-03,-1.72195e-02,4.56938e-03,-4.82518e-03,1.22715e-02,-1.96532e-03,2.95290e-03,1.47641e-02,-1.50027e-02,3.12168e-03,-1.76358e-02,-2.04765e-02,-2.34788e-04,-1.41806e-02,5.81705e-03,-8.77077e-03,-1.64409e-02,1.45664e-02,6.00985e-04,4.11549e-04,-2.25208e-03,-1.85177e-02,1.29047e-02,-2.97791e-04,7.66079e-03,7.37024e-04,6.35462e-03,-5.37530e-03,-7.27507e-03,-7.91555e-03,1.13590e-02,-1.18775e-04,-1.57989e-02,3.66698e-03,-1.73117e-03,6.73364e-03,-2.88177e-03,-1.96513e-03,-1.07454e-02,1.50218e-02,3.57646e-03,1.91695e-03,6.64009e-03,-1.27035e-02,9.78217e-03,-2.95706e-03,7.65761e-03,-2.45859e-03,-2.67209e-03,1.39006e-02,1.05139e-02,1.05030e-02,-1.25904e-02,1.49992e-02,-1.79611e-02,3.18642e-04,9.20858e-03,9.44575e-03,1.54291e-02,-1.86397e-02,6.26800e-04,1.41116e-03,-1.95171e-02,8.75489e-03,4.21671e-03,-6.95944e-03,9.90370e-03,9.74652e-03,-1.22993e-02,9.60587e-03,-1.27720e-02,-6.38700e-03,-1.62597e-02,9.64515e-03,8.74052e-03,2.57150e-04,-1.06351e-02,-1.16151e-02,1.07151e-02,9.75636e-03,-1.43207e-02,-7.94795e-03,-4.60749e-03,-1.24077e-04,1.22179e-02,-4.23340e-03,1.24902e-02,9.24662e-03,8.31836e-03,-1.26368e-02,3.86282e-03,1.62183e-02,1.15058e-02,-1.84756e-02,1.14619e-02,1.28401e-03,-1.96953e-02,6.37499e-03,-3.44387e-03,-1.64421e-02,-6.77030e-04,5.07892e-03,1.00679e-02,4.60122e-03,3.00908e-03,-1.20785e-02,-4.91373e-03,1.19670e-02,3.39991e-05,-1.83555e-02,-7.99057e-03,5.82140e-03,-1.44481e-02,-7.91042e-03,7.50650e-03,6.24125e-03,-8.65199e-04,1.07579e-02,-1.50119e-02,-5.48896e-03,1.96607e-03,1.36033e-02,1.19735e-02,1.26127e-02,-1.24526e-02,6.68214e-03,-1.78499e-02,9.13211e-03,-9.40136e-03,3.66534e-03,-4.31979e-04,8.41897e-03,-3.64553e-03,4.90429e-03,-6.54622e-03,-1.35712e-02,-1.53033e-02,-1.16839e-02,-1.13879e-02,2.29063e-03,6.09926e-03,1.23714e-02,-3.02433e-03,-3.50693e-04,-1.85781e-02,-1.39519e-02,-5.95353e-03,1.42945e-02,1.28529e-02,5.64763e-03,-3.94079e-03,1.60693e-02,-1.51443e-03,-9.81238e-03,7.00337e-03,4.94682e-03,-2.86778e-03,-7.17555e-03,-7.05459e-03,-8.01514e-03,4.26460e-03,-1.98600e-04,7.29261e-03,-6.69839e-03,-1.05445e-02,7.13386e-03,-9.97071e-03,9.78523e-03,9.67453e-04,-1.21416e-02,-1.34433e-02,-5.34009e-03,1.00898e-02,7.60747e-03,6.47980e-03,-4.58721e-04,4.86437e-03,-1.01679e-02,-2.92817e-03,-1.17764e-02,-1.11566e-02,1.27808e-02,1.15742e-03,-8.78928e-03,1.45460e-02,2.70037e-03,1.11667e-02,-1.62099e-02,-1.56794e-02,-1.94294e-02,1.40617e-02,8.01589e-03,1.22029e-02,7.38139e-04,2.15909e-03,-5.61789e-03,-9.13787e-03,1.51742e-02,-4.64015e-03,1.33165e-02,5.04651e-03,9.02205e-03,-4.11325e-03,4.38346e-04,-1.16348e-02,-7.10324e-04,1.41080e-02,1.39386e-02,-1.65123e-02,-1.11237e-02,3.58271e-03,-4.98435e-03,3.31074e-05,-1.99199e-02,1.47849e-02,8.71089e-03,1.13871e-02,-1.45959e-02,8.93389e-03,-2.81082e-03,-1.05216e-02,8.88865e-03,1.23179e-02,1.71629e-03,-3.24208e-03,-1.82780e-02,-7.40979e-03,-1.77374e-02,-1.92674e-02,7.71255e-03,-1.64593e-02,-2.06416e-03,-9.19813e-03,-1.16721e-02,-1.19886e-02,-1.65218e-02,-1.03360e-02,-1.08274e-02,1.06944e-02,8.63499e-03,7.78111e-03,-7.43788e-03,-1.07895e-02,-8.70771e-03,-8.54106e-03,6.77216e-04,-1.95083e-02,1.40332e-02,-1.61580e-02,1.10211e-02,-4.34072e-03,-1.62958e-02,-9.28489e-03,-1.74660e-02,-5.53786e-03,-3.28698e-03,-8.49766e-03,-9.85646e-03,1.58471e-02,-2.75962e-03,-1.71307e-02,-6.42251e-03,-2.18802e-03,9.63172e-03,-1.32498e-02,4.22594e-03,-8.80105e-03,-1.60529e-02,-4.64180e-03,1.46153e-02,-1.58766e-02,-5.70649e-03,6.38348e-03,9.25445e-03,4.44726e-04,8.10318e-04,-4.43203e-03,1.13089e-02,-1.84607e-03,7.00418e-03,3.97160e-03,6.78917e-03,-8.74889e-03,-9.69294e-03,7.26182e-03,-5.13497e-03,-9.39076e-03,-5.12929e-03,-1.85160e-02,1.01073e-02,1.16010e-02,-1.44968e-02,1.22378e-02,-1.05402e-02,2.55466e-03,9.76520e-03,-4.68287e-03,1.46331e-02,-1.68821e-02,1.24257e-02,-1.34025e-02,1.06130e-02,1.25983e-02,-7.09749e-03,-6.29755e-03,-1.68179e-02,-1.91350e-02,-4.77911e-03,3.58854e-04,-1.58170e-02,-6.75463e-03,-1.51096e-02,1.51352e-02,-1.66182e-02,-6.50484e-03,1.57866e-02,1.41264e-02,-7.27930e-03,-1.58078e-02,-1.79794e-02,-1.22572e-02,-1.12639e-02,-3.79480e-03,3.44333e-04,1.18999e-02,-1.83428e-02,-5.61423e-04,-1.94828e-02,1.43374e-02,-1.98241e-02,-1.88389e-02,-1.55749e-02,-1.85778e-02,-1.78143e-02,-5.30649e-03,1.21334e-02,-7.01694e-03,1.12965e-02,-4.70546e-03,-3.31140e-03,1.32597e-02,-1.68818e-02,-1.50131e-02,-1.07625e-02,1.41316e-02,1.37039e-02,-1.87055e-02,1.23014e-02,-2.84878e-03,-2.66526e-03,-9.56900e-03,3.08046e-03,-4.82170e-03,4.06179e-03,-1.07600e-02,6.38985e-03,-1.85628e-02,-8.76034e-03,-4.19071e-03,-7.83183e-03,-1.55988e-03,-1.12495e-02,3.56337e-03,-1.43835e-02,1.07549e-02,-7.91554e-03,-4.02403e-03,1.25256e-02,-1.09688e-02,-1.89479e-02,-4.08263e-03,-1.01409e-02,-1.73245e-02,-1.53783e-02,-2.75001e-03,-1.45407e-02,-1.02834e-02,4.17318e-03,-9.29398e-03,5.20201e-03,-8.13800e-03,8.00298e-03,8.06468e-03,-8.86961e-05,-1.62782e-04,-1.98848e-02,-6.22463e-03,1.14620e-02,1.31034e-02,-5.55779e-03,-1.63618e-03,-6.02790e-03,-1.07711e-03,1.48405e-02,-4.01839e-03,-1.72823e-02,-8.10769e-03,1.56801e-02,1.39736e-03,6.37645e-03,-7.13308e-03,-1.49211e-02,1.53892e-02,7.04803e-03,2.67094e-03,6.92136e-03,7.69880e-03,-1.69574e-03,1.61917e-02,-8.21130e-04,-5.56677e-03,-4.91183e-04,-1.19157e-02,-7.94500e-03,-1.49531e-02,-7.91444e-03,-1.60061e-03,-8.65423e-03,-3.50383e-04,5.62975e-03,8.96148e-03,-1.01046e-02,-2.40132e-03,-1.82411e-02,-1.72034e-02,-1.92068e-02,9.61941e-03,-4.82448e-03,-7.65907e-03,1.07087e-02,6.90299e-03,-4.81675e-03,2.81642e-03,1.58713e-02,-1.58965e-02,-1.71128e-03,1.00558e-02,-2.66085e-03,-1.21427e-02,1.00704e-02,4.60245e-03,1.56508e-03,-6.13702e-03,-1.13661e-03,-1.75878e-02,-8.45280e-03,9.86483e-03,-7.79331e-03,-1.68568e-02,-4.55855e-03,5.33663e-03,-1.60494e-02,1.49524e-03,-1.34922e-02,1.21533e-02,-1.98371e-02,1.01262e-02,1.09471e-02,6.81934e-03,-1.64945e-02,-2.67141e-03,1.46822e-02,1.60980e-03,-1.05379e-03,-1.41086e-02,-1.76285e-02,7.33249e-03,1.50823e-02,5.04674e-03,-8.63902e-03,-1.61055e-02,1.53123e-03,-1.79453e-02,8.37004e-03,3.02546e-03,3.38646e-03,-1.24175e-02,8.13374e-03,-4.16554e-03,-1.51766e-02,1.52645e-02,-1.50400e-02,5.88681e-03,-1.98345e-03,-1.89301e-02,5.52107e-04,-1.71026e-02,4.67214e-03,1.08801e-02,-1.48277e-02,-8.93715e-03,-1.74695e-02,1.62234e-02,2.26270e-03,1.63119e-02,-2.68769e-03,-1.91357e-02,6.29671e-03,-1.38273e-02,5.51847e-03,9.72619e-03,6.10300e-03,-9.45222e-03,-1.32218e-02,1.37159e-02,-1.08059e-02,-4.06960e-03,-5.15240e-04,-8.70090e-03,-7.61122e-03,-2.04240e-03,-4.50737e-03,1.39621e-02,5.25140e-03,1.09439e-02,-1.44134e-03,-2.23166e-03,1.48079e-02,-3.14771e-03,-1.55322e-02,-1.51221e-02,-1.44861e-02,6.47531e-03,2.31491e-03,-6.94620e-03,-8.87959e-04,-9.28636e-03,-6.28276e-03,1.75635e-03,4.43837e-03,-1.19686e-02,-3.67302e-03,6.95479e-03,1.30184e-02,-7.52437e-03,-7.63666e-03,9.40054e-04,1.33966e-02,4.53271e-04,-4.81769e-03,6.74949e-03,-1.92516e-02,
-1.81756e-03,3.88803e-04,-1.43036e-02,5.33810e-03,8.89799e-03,-9.05767e-03,-1.47943e-02,1.45314e-02,-8.65608e-03,-7.72676e-03,9.09710e-03,2.48607e-03,-1.83978e-02,-1.00777e-02,-8.15485e-03,1.00031e-03,2.13678e-03,5.61603e-03,1.44938e-02,1.55633e-02,-8.32301e-03,-5.66104e-03,-5.91635e-03,1.36746e-02,-5.41217e-03,4.15213e-03,1.38271e-02,-1.60882e-02,1.60967e-03,-1.29892e-02,1.19634e-02,1.21452e-02,-1.43096e-02,-5.36153e-04,-1.92522e-02,-1.68501e-02,-6.31179e-03,1.34526e-02,-3.70176e-03,-1.71378e-02,-5.52021e-03,-2.01246e-03,-1.15169e-02,-1.59713e-02,-1.77942e-02,-7.12207e-03,-9.28929e-03,-6.88055e-03,-1.44879e-02,-2.49891e-03,1.48130e-02,-1.47211e-02,4.82153e-03,-1.32290e-02,-1.37236e-02,8.38272e-03,-1.71653e-02,7.10215e-03,-1.34344e-02,-7.14034e-03,-1.02186e-02,4.82891e-03,1.20347e-02,-7.02282e-04,-1.71388e-03,-1.78473e-02,7.66842e-03,2.37045e-03,1.26630e-02,1.60184e-02,4.94567e-03,-8.70483e-03,-7.12739e-03,7.82932e-03,-1.43868e-02,-1.14322e-02,1.25943e-02,8.52645e-03,6.43601e-03,-6.67029e-04,1.35511e-02,-8.04424e-03,-1.62282e-02,-5.20030e-03,1.48426e-02,1.59880e-02,-6.12237e-03,4.67088e-03,9.66530e-03,1.60434e-02,9.13936e-03,8.57910e-03,-6.09645e-03,9.72657e-03,1.27689e-02,3.83192e-03,-2.98848e-03,-1.32000e-02,-1.68898e-02,1.47688e-02,1.53883e-02,-1.85249e-02,1.15017e-02,8.43413e-03,-1.29869e-02,2.35835e-03,-1.42668e-02,-3.59084e-03,-1.34147e-02,1.31773e-02,4.31821e-03,9.66160e-03,9.56288e-03,-1.85459e-02,-1.82846e-02,-1.85472e-02,-1.10071e-02,1.31360e-02,7.79978e-03,-8.53555e-03,6.59470e-04,1.58653e-02,-5.30593e-03,-9.07475e-03,-1.69225e-02,-5.71061e-03,-1.32045e-02,6.05011e-03,2.62959e-03,-9.59141e-03,7.14054e-03,4.46289e-04,-1.02331e-03,7.39695e-03,2.18093e-03,-5.65823e-03,-9.95801e-03,-1.94738e-02,-1.18060e-02,-5.56147e-03,-1.03635e-02,2.32702e-03,-2.31977e-03,-1.94180e-02,-1.54082e-02,4.85773e-03,7.77104e-03,-1.93848e-02,1.51560e-02,8.76167e-06,-6.16783e-03,-1.61596e-02,2.45084e-03,-2.22187e-04,1.03431e-02,5.67365e-03,-1.58554e-02,-3.02246e-03,1.31683e-02,4.43905e-04,2.83941e-03,-1.35677e-02,1.35596e-02,1.23677e-04,-9.55588e-03,1.14679e-03,1.43798e-02,-1.41973e-02,1.43804e-03,-6.19604e-03,-7.70138e-03,-1.55017e-02,8.52216e-03,1.55699e-02,6.44611e-03,-1.00735e-02,4.26909e-03,-8.89213e-04,1.12885e-02,1.47895e-02,-1.54889e-02,-7.20864e-03,-7.78199e-03,-1.47278e-02,-4.31171e-03,-1.69153e-02,-4.54998e-03,-1.07656e-02,7.67303e-03,-1.89539e-02,-1.06222e-02,1.01767e-02,-1.85828e-02,1.31565e-02,1.76446e-03,1.18475e-02,-1.84979e-02,-1.30064e-02,-1.57081e-02,-1.55862e-02,6.71442e-03,4.45755e-03,-1.94769e-02,-1.28276e-02,-1.03319e-02,-1.16555e-02,-9.41576e-04,1.43039e-02,1.47504e-02,-1.19868e-02,-1.16775e-02,-1.79113e-02,-5.72804e-03,9.13216e-03,-1.55318e-02,1.02734e-02,-1.88885e-02,-9.28221e-03,4.69830e-03,1.21832e-02,2.32480e-03,-1.67046e-02,-1.82948e-02,-3.43457e-03,-1.18425e-02,-1.44635e-02,2.06187e-03,4.99091e-03,-6.57985e-03,-8.05801e-03,2.85690e-03,6.01559e-03,-7.68605e-03,1.40859e-02,-1.65579e-02,-1.08490e-02,1.17195e-02,-1.75115e-02,-6.99425e-05,3.99457e-03,9.14052e-03,-8.10817e-03,-1.78364e-02,-1.51145e-02,-9.96968e-03,3.31501e-03,-1.67780e-02,1.42114e-02,-1.94746e-02,-1.48416e-02,-3.56025e-03,-1.61127e-02,1.04539e-02,-1.21987e-02,1.49185e-02,-3.45703e-03,1.12688e-03,-2.88258e-03,-6.61188e-03,1.57248e-02,-7.71454e-03,-1.61620e-02,4.11523e-04,-7.41440e-03,-5.92357e-03,4.52746e-03,1.61762e-02,-3.58964e-03,-6.24806e-03,4.90141e-03,-6.68274e-03,5.63361e-03,-3.05803e-03,2.06580e-03,-9.74267e-03,-1.23762e-02,-1.29716e-03,8.84901e-03,-1.34440e-02,-7.68791e-03,-1.80999e-02,-1.94890e-02,-3.69366e-03,-7.67847e-03,-1.03810e-02,-1.95587e-02,-6.05871e-03,7.08646e-03,-1.50962e-02,8.81074e-03,2.52633e-03,7.09036e-03,1.10194e-02,3.43566e-04,-1.71925e-02,1.54928e-03,-5.45026e-03,1.48952e-02,1.48228e-02,-5.75964e-03,-5.66765e-03,3.59295e-03,-1.66047e-02,-1.15807e-02,-1.63543e-04,-1.42863e-02,7.47378e-03,-9.20779e-03,-1.23278e-02,-9.89678e-03,-1.31752e-02,-4.26436e-04,-5.15923e-03,1.24417e-02,-1.42743e-03,1.31573e-02,2.03864e-03,9.96655e-03,1.13942e-03,-2.46409e-03,1.60336e-02,1.51709e-02,-1.42416e-02,6.85333e-03,-5.26054e-03,1.44372e-02,-3.63356e-03,3.34443e-03,6.63724e-03,-1.64971e-02,7.57783e-03,-8.21427e-03,1.55702e-02,1.10638e-02,-1.05526e-02,9.29527e-03,1.42561e-02,-6.51229e-03,8.96566e-03,-1.10544e-02,-7.01623e-03,-9.80530e-03,5.22743e-03,1.14584e-02,-1.47219e-02,2.07710e-03,9.43851e-03,7.60204e-03,-5.89512e-03,-5.35689e-03,5.41051e-03,2.75427e-03,1.39466e-03,-1.15707e-02,4.62755e-04,-1.83754e-02,-7.65126e-03,6.03793e-03,8.22760e-04,1.00471e-02,-1.60183e-02,-1.88829e-02,4.06429e-03,-8.80455e-03,-1.19715e-02,-7.68608e-03,-7.18352e-03,1.29916e-02,-3.06898e-03,9.20316e-03,-1.85734e-02,-2.09791e-03,1.57182e-02,-1.75835e-02,-1.69640e-02,1.09386e-02,-1.67609e-02,2.29432e-04,-1.50312e-02,-1.62741e-02,1.49180e-02,1.05831e-02,2.19296e-03,-2.69756e-03,-3.66461e-03,1.58312e-02,4.65726e-03,1.27913e-02,1.21828e-02,1.16866e-02,-1.45117e-02,3.70297e-03,-5.23263e-03,1.13065e-02,-1.73225e-02,2.65848e-03,-1.62165e-02,-6.90906e-03,-5.07773e-03,-7.68385e-03,3.50820e-04,1.72041e-03,-1.90813e-02,9.62759e-03,-1.96989e-02,-2.97844e-03,-8.77660e-03,-6.96553e-03,-1.37023e-02,-1.09687e-02,1.11811e-02,5.84564e-03,-1.45659e-03,-4.18160e-03,-1.67608e-02,-8.23355e-03,-1.88051e-02,1.07315e-02,-3.69937e-03,1.99930e-03,5.59888e-03,-8.51143e-03,2.82896e-03,6.55473e-03,1.26743e-02,-1.16862e-03,3.11677e-03,-1.23548e-02,1.15722e-02,3.96398e-03,8.63481e-03,1.20980e-02,-1.44151e-02,-1.48866e-02,-9.73319e-03,-6.23663e-03,1.21371e-02,1.32470e-02,9.17590e-03,9.18483e-03,3.59954e-03,1.01097e-02,1.04945e-02,-1.10700e-02,7.46629e-03,-1.77986e-02,1.14384e-02,-4.98473e-04,-2.37556e-04,-1.84639e-02,1.56515e-02,-1.53995e-02,1.34604e-02,-1.15919e-02,7.39083e-03,1.36729e-02,-3.04664e-03,-1.20557e-02,-2.15553e-03,-8.11196e-03,3.14784e-03,3.12145e-03,-3.09219e-03,-8.03089e-03,1.19361e-03,3.20508e-03,1.01300e-03,-5.69509e-03,-1.65641e-02,1.26756e-03,7.03996e-03,1.67920e-03,-1.65657e-02,5.76264e-03,-1.34003e-02,5.72376e-03,-4.73765e-04,2.04743e-03,9.28456e-03,-1.35343e-02,-3.67631e-03,-1.93044e-03,6.39281e-03,1.95329e-04,3.95647e-03,-1.82407e-02,-1.66284e-02,1.06684e-02,1.04528e-02,7.45784e-03,-1.21862e-02,9.02679e-03,-2.71271e-03,-6.50442e-03,8.96509e-03,1.01330e-02,-1.79852e-03,-2.78721e-03,-4.35007e-03,-1.71831e-02,-1.78932e-02,-4.15437e-03,-1.21242e-02,1.16651e-02,1.04415e-02,-3.03590e-03,-7.70230e-03,-7.22623e-05,-1.60834e-02,-2.81920e-03,-1.54895e-02,8.73791e-03,1.01726e-02,-1.08534e-02,1.33060e-02,-1.26622e-02,-9.72904e-03,-2.82680e-03,-1.93723e-02,1.60439e-02,-1.00488e-02,-4.01764e-05,-4.05575e-03,-1.33890e-02,-1.13852e-02,2.56787e-03,-1.58929e-02,8.76187e-03,-1.24691e-02,-1.81816e-02,-1.35250e-02,7.37353e-03,-4.63832e-03,-7.45322e-03,1.10899e-02,2.34297e-03,1.01688e-02,5.90679e-03,9.70574e-03,8.53540e-03,9.07053e-03,-5.40472e-03,-4.82878e-03,9.80296e-03,-8.32742e-03,9.49840e-03,-1.26058e-02,3.79829e-03,9.76036e-04,-3.48189e-03,1.37985e-02,-3.50524e-03,-2.78922e-03,8.27227e-03,-8.25959e-04,-1.01022e-03,7.33797e-03,1.01459e-02,-9.21081e-03,-1.58595e-02,-9.56924e-03,-9.84505e-03,9.09916e-04,-1.80822e-02,-1.76094e-02,-7.43369e-03,1.95544e-03,-6.69569e-03,-6.87526e-03,-1.58367e-02,-1.20032e-02,-1.56190e-02,1.21340e-02,-5.36481e-03,1.24004e-02,7.51182e-03,1.57869e-02,3.53347e-03,9.14271e-03,-9.07811e-03,9.35894e-03,-1.85687e-03,-3.62260e-03,1.51476e-02,3.95516e-03,1.12889e-02,5.37940e-03,-8.76124e-03,-1.64865e-02,-1.08287e-02,-1.48270e-02,-5.04664e-03,4.65544e-03,4.20118e-03,-6.96794e-03,-1.79869e-02,-6.63658e-03,-5.06106e-03,1.18036e-02,-3.11249e-03,-6.85258e-03,-1.51750e-02,8.22488e-03,1.28082e-02,-1.65548e-02,3.24764e-03,-1.59846e-02,1.09812e-02,-1.56004e-02,-1.55265e-02,-3.24441e-03,-1.22617e-02,6.61374e-04,-7.05180e-03,1.06322e-02,-1.70713e-02,-5.40051e-03,-3.32471e-03,6.67761e-03,-1.17375e-02,-4.13720e-03,5.28640e-03,-1.68447e-02,-5.56007e-03,7.42267e-03,-1.85375e-02,-3.91705e-03,-1.15184e-02,-1.07760e-02,1.27732e-02,-1.41101e-02,1.21926e-02,2.69977e-03,-1.03983e-02,4.17848e-03,-1.10046e-02,2.44258e-03,-1.11325e-02,-1.19370e-02,-1.09867e-02,6.34750e-03,-9.29402e-03,-1.68096e-02,1.40705e-02,-1.23136e-02,-4.26204e-03,5.74410e-03,-1.17569e-02,-1.63250e-02,1.21754e-02,-1.83184e-02,1.52005e-02,-1.60822e-03,-6.62782e-03,-1.04913e-02,1.35390e-02,1.52987e-02,-5.46801e-03,-1.17237e-02,1.22853e-02,-7.15550e-03,-1.19452e-02,-8.62011e-03,7.90878e-03,4.79114e-03,-1.89692e-02,-1.23082e-02,1.50736e-02,-1.70218e-02,-1.37482e-02,1.21503e-02,1.55756e-02,7.24515e-03,1.47346e-03,-6.21905e-03,5.14891e-04,-1.56986e-02,-7.13502e-03,-9.22706e-03,1.39741e-02,-1.97880e-02,-8.43659e-03,7.41836e-03,8.56043e-03,-9.90430e-03,-9.82834e-03,-7.68370e-03,-6.37786e-03,-1.15093e-02,-7.34143e-03,-4.84950e-03,-1.24003e-02,-1.52107e-02,1.04395e-02,-5.60317e-03,1.50227e-02,1.17518e-02,7.48456e-03,-1.37884e-02,-1.86387e-02,-1.55796e-02,-1.60463e-02,-3.05635e-03,-1.28423e-02,-1.03018e-04,1.73923e-03,9.50841e-03,-1.67677e-02,7.00891e-03,-1.81766e-02,9.18174e-03,1.09062e-02,-1.16154e-02,-1.49603e-02,-1.28218e-02,-1.60710e-02,1.49095e-02,-9.14886e-03,-4.02077e-03,-9.33583e-03,-1.87481e-02,-7.08696e-03,5.78657e-03,8.91253e-03,1.25342e-02,1.02942e-02,3.69923e-03,9.85742e-03,3.81438e-03,1.49903e-02,1.11633e-03,2.17423e-03,2.94674e-03,-1.08103e-03,-7.33155e-03,-1.10912e-02,1.29058e-02,-8.02575e-03,1.07625e-02,5.79509e-03,-1.90218e-02,-8.23100e-03,1.22413e-02,-8.96773e-03,5.08661e-03,-1.42313e-02,-1.52191e-02,2.79662e-03,1.55873e-02,1.57182e-02,5.97596e-03,-1.35537e-02,8.66445e-03,5.31830e-03,-1.07430e-02,-1.06432e-02,-1.47806e-02,-1.53755e-02,-1.37141e-02,1.38309e-02,3.77305e-03,-1.01485e-02,-1.10807e-02,-1.34390e-02,-3.77364e-03,4.02834e-03,-1.47134e-02,-1.19536e-02,-5.45076e-03,-1.37760e-02,9.52429e-03,-1.73677e-02,-7.67825e-03,1.40990e-02,-2.44693e-03,-1.85325e-02,-1.06529e-02,-1.37466e-02,-7.78172e-03,9.85392e-03,-1.68726e-02,-3.21252e-03,4.46484e-03,-8.03488e-03,1.33183e-02,1.69068e-03,6.40455e-03,5.84511e-03,3.35963e-03,-3.82556e-03,-6.14494e-03,-1.12370e-02,4.25700e-03,-1.02515e-02,-4.92856e-03,-1.44876e-02,7.59198e-03,-1.13566e-02,4.63375e-03,-1.61828e-02,3.23166e-03,-1.81193e-02,-1.26946e-02,8.23582e-03,1.29296e-02,-2.42541e-03,-1.72291e-02,-1.48165e-02,-1.67208e-02,-1.90421e-02,-1.59691e-02,-1.39125e-02,-6.30861e-03,-1.82432e-02,-1.57165e-02,9.05331e-03,1.57903e-02,4.59666e-03,1.56011e-02,-1.04874e-02,-4.77685e-03,-9.89558e-03,-1.68810e-02,4.58997e-03,-1.25959e-02,5.37806e-03,-5.19270e-03,1.26858e-02,6.14688e-03,-8.24137e-03,-3.90690e-03,-2.42538e-03,-3.31842e-03,-2.54497e-03,-8.79813e-03,6.61327e-03,-1.48725e-02,-1.92127e-02,4.92517e-03,-5.93498e-03,7.55758e-03,1.51672e-02,1.06688e-02,-1.33871e-02,-6.12253e-03,9.64070e-03,-1.82064e-03,-5.57021e-03,-2.14331e-03,8.86240e-03,-9.91172e-03,2.16159e-03,-4.92544e-03,-1.54449e-02,1.03043e-02,1.25995e-02,-7.96495e-03,-3.66161e-03,-1.20912e-03,1.17921e-02,-1.00602e-02,1.42052e-02,-4.81355e-03,1.50723e-03,-8.43799e-05,-1.27573e-02,9.76102e-03,-1.85545e-02,1.57937e-02,-7.47262e-03,-1.38984e-02,-4.23526e-03,7.73823e-03,-3.22576e-03,-4.15950e-03,8.98154e-03,-1.68387e-02,7.18128e-03,-1.84121e-02,1.28886e-02,-6.38679e-03,1.12804e-02,-7.33405e-03,7.18792e-03,-1.34027e-02,5.43602e-03,-1.88522e-03,-1.77836e-02,5.78928e-03,1.29035e-02,-1.93377e-02,-2.43091e-03,2.69418e-04,-1.54395e-02,-1.12862e-02,-1.70175e-02,1.20860e-02,-5.02912e-04,5.73537e-03,-9.29268e-03,-1.87578e-03,8.26254e-03,8.82132e-04,-3.49048e-03,1.04478e-02,-1.52596e-02,3.88759e-03,5.34699e-03,1.06201e-02,4.36714e-03,1.17936e-02,-1.88240e-02,5.53161e-03,-1.65475e-02,-5.94349e-03,7.19700e-03,7.35884e-03,6.24385e-03,-1.96810e-02,1.57654e-02,-4.76469e-03,1.19953e-03,-1.44098e-02,-2.27047e-03,1.08973e-02,-5.14963e-03,7.86613e-03,-1.76614e-03,-1.18529e-03,5.49100e-03,-2.00724e-03,-2.60047e-03,-8.80424e-03,-1.02576e-02,-8.49491e-03,-7.22069e-03,1.42976e-02,-1.35307e-02,-8.47836e-03,-5.31849e-03,5.52771e-03,1.59189e-02,1.16517e-02,-9.52711e-03,-9.08192e-03,-7.21844e-03,3.85579e-03,1.47378e-02,7.00690e-03,-9.23835e-03,-2.79008e-04,7.06376e-04,2.74501e-04,7.67234e-03,-1.02341e-02,-1.42561e-02,-1.85928e-02,2.18633e-03,-1.55701e-02,-3.96341e-03,1.46944e-02,-1.03949e-02,5.26322e-03,-1.36659e-02,4.14158e-03,1.61688e-02,-1.56693e-02,-1.50962e-02,5.39810e-03,7.64737e-03,-3.05057e-03,-1.05134e-02,-6.71088e-03,-3.72273e-03,-1.38736e-02,-1.24495e-02,-1.90439e-02,-1.74959e-02,-1.29597e-02,-1.51233e-03,-1.13334e-03,1.55064e-02,-1.00712e-02,-1.07142e-02,-1.76920e-02,5.87156e-03,-3.29298e-03,-4.73855e-03,2.92119e-03,1.26251e-02,-1.79716e-03,1.24739e-03,1.26832e-02,-3.87567e-03,1.37748e-02,-4.34448e-03,-1.35683e-02,1.49110e-02,-5.84808e-03,-1.35772e-02,1.36843e-02,-1.63214e-02,4.57993e-03,-1.15297e-02,8.33598e-03,-5.77153e-03,-6.17727e-03,1.54403e-02,1.18680e-02,-8.82544e-03,6.13613e-03,-9.04197e-03,4.62015e-03,-1.56607e-02,-1.39668e-02,-3.75045e-03,6.24805e-03,-1.18762e-02,4.36485e-03,-1.26355e-02,-1.28080e-02,1.15116e-02,1.25792e-02,5.62594e-03,1.03751e-02,-1.69104e-02,-6.34940e-03,6.50451e-03,-1.35326e-02,1.15892e-02,-1.65668e-02,1.41258e-03,8.69206e-03,1.03365e-02,-1.69368e-02,1.55724e-02,1.29149e-02,-1.04616e-02,-1.03147e-02,-1.62643e-02,-6.57379e-03,1.64092e-02,-1.92995e-02,1.03253e-02,-1.94209e-02,-9.80698e-03,-8.97994e-03,1.39605e-02,-9.41731e-03,-1.01304e-02,-9.88616e-03,-4.94615e-03,7.45169e-03,-1.83736e-02,-1.61047e-02,-1.84753e-03,8.59179e-03,9.42467e-03,6.90062e-03,-1.89155e-02,-1.28278e-02,-3.07252e-03,1.25440e-02,8.24710e-03,6.57221e-04,2.94107e-04,4.76545e-03,-7.68459e-03,1.49553e-02,-1.82663e-02,4.19145e-03,3.85051e-03,-1.41282e-02,-1.06421e-02,-1.93226e-02,1.07308e-02,4.58897e-03,1.03342e-02,-1.89231e-02,1.41780e-02,-4.08036e-03,5.69013e-03,-3.03808e-04,1.43577e-02,2.77908e-03,3.69376e-03,1.14804e-02,-1.52683e-02,1.10665e-02,4.70203e-03,1.18231e-02,1.53280e-02,-1.06357e-02,3.51451e-03,-3.92391e-03,9.75885e-03,-1.33040e-02,9.77232e-03,1.40787e-02,2.03521e-03,-5.90027e-03,2.38757e-03,1.07864e-02,1.42160e-02,-6.20440e-04,1.96756e-03,-9.70530e-03,1.53261e-03,4.65272e-03,1.08046e-03,1.07845e-02,2.82828e-03,-1.12660e-02,8.54523e-03,-3.47216e-05,2.82458e-03,-4.40443e-03,1.53893e-02,-8.60847e-05,-7.23439e-03,1.57073e-02,1.15016e-02,-1.16389e-02,9.17416e-03,-4.83905e-03,-1.51868e-02,9.12123e-03,-5.68355e-03,1.45413e-02,-1.57868e-02,-9.39074e-03,-1.94365e-02,-1.44270e-02,-5.60217e-03,-1.10787e-02,6.19088e-03,-7.88529e-03,1.03375e-02,-3.60174e-03,-7.76266e-03,-3.83331e-03,-1.12644e-02,-6.37520e-03,-1.54919e-02,-1.86602e-02,-2.81533e-03,6.90620e-03,-1.73795e-02,1.61398e-02,-2.86920e-03,-8.86542e-03,1.12385e-03,-1.24234e-02,-1.45553e-02,1.31491e-04,6.62348e-03,-4.55503e-03,7.93171e-03,5.70677e-03,-1.57066e-02,-1.93718e-02,-6.01161e-03,6.54461e-03,1.44731e-02,-1.69708e-02,-5.27107e-04,3.81009e-03,-5.85865e-03,2.94908e-03,-1.36692e-02,-5.03463e-03,3.98218e-03,-1.84523e-02,1.16472e-02,1.12228e-02,-6.29757e-03,-1.67606e-02,-5.51888e-03,-1.14575e-02,1.49020e-02,1.37870e-02,-1.54595e-02,9.11549e-03,1.40143e-02,1.27465e-02,1.02836e-02,-2.67731e-04,-1.30245e-02,1.10985e-02,2.43260e-03,-1.87761e-03,-1.99142e-03,1.01083e-02,-6.41198e-03,-1.26284e-02,-3.14555e-03,-1.41202e-02,1.51497e-02,-4.61827e-03,-2.22578e-03,-7.94981e-03,1.09683e-02,2.09102e-03,6.84805e-05,-1.15665e-02,1.10783e-02,1.17228e-02,-1.56763e-03,-1.14341e-02,-1.24126e-02,-7.57992e-03,1.13609e-02,-1.59248e-02,1.06547e-02,-1.33281e-02,-1.65521e-02,-1.04789e-02,-1.40971e-03,1.77775e-03,-1.35694e-02,-1.11416e-02,-9.08304e-03,6.59332e-03,-1.64876e-02,-1.23503e-02,-1.00903e-02,6.00086e-03,-1.70510e-02,-1.55505e-02,3.19500e-03,7.77810e-03,2.83791e-03,1.09772e-02,-1.59735e-02,4.95333e-03,-4.68924e-04,1.47418e-02,-2.75272e-03,-1.60272e-02,-9.68528e-03,1.01114e-02,-7.70236e-03,6.95787e-03,1.40495e-02,5.42523e-03,-1.66569e-02,-1.72503e-02,1.56209e-03,-1.63359e-02,9.96722e-04,1.18995e-02,7.24321e-03,1.02126e-02,1.09474e-02,-1.26133e-03,-6.73126e-04,-1.40065e-02,-1.92866e-02,1.29633e-02,-5.94055e-03,-3.78397e-03,-1.12231e-02,9.65449e-03,-1.69729e-02,-1.28460e-02,3.01315e-03,7.21963e-03,7.98081e-03,5.21831e-03,3.85006e-03,5.74628e-03,-1.81605e-02,-1.65074e-02,-1.50272e-02,-8.17097e-03,-1.98499e-02,1.60175e-02,1.54368e-02,-1.70908e-02,1.26237e-02,7.01644e-03,7.11615e-03,-5.49785e-03,-1.40037e-02,-6.18428e-04,-1.80984e-02,2.68109e-03,1.12105e-03,-1.39293e-02,4.71263e-03,-1.34415e-02,9.64791e-03,1.62219e-02,1.17144e-02,-8.65851e-04,5.87961e-03,-6.31453e-03,-3.68892e-03,-1.95801e-02,-1.30434e-02,1.58437e-02,-4.07666e-03,-2.86352e-03,-1.43759e-02,-6.52260e-03,-1.81412e-02,4.74934e-04,5.54802e-03,-1.87062e-02,-8.63966e-04,1.16294e-02,2.33352e-03,-9.59673e-04,-7.89688e-03,6.97937e-03,-1.49558e-02,-1.20576e-02,6.16179e-06,-1.02755e-02,-1.43508e-02,1.32346e-03,-1.46952e-02,-1.81115e-02,1.24636e-02,-1.45210e-02,3.99263e-03,-1.00024e-02,-1.10347e-02,-1.40084e-02,2.86362e-03,-1.94435e-02,7.88353e-03,6.73908e-03,-1.78794e-02,8.34283e-03,1.50020e-02,-1.18922e-02,-1.78309e-02,6.60837e-04,-1.83309e-02,1.95060e-03,-1.67768e-02,-9.32899e-03,-1.79544e-02,8.15836e-03,-1.71040e-02,4.63303e-03,1.47064e-02,-1.70637e-03,1.07645e-02,-1.01675e-02,1.17501e-02,-1.59151e-02,-4.17358e-03,-2.73925e-03,1.37412e-02,-1.63303e-02,1.13621e-03,-1.88987e-02,-1.01643e-02,-1.48778e-02,1.50296e-03,1.45721e-02,-8.60839e-03,-1.22145e-02,-1.34681e-02,-1.66143e-02,-1.27101e-02,-7.43222e-03,-7.92710e-03,4.00773e-03,-2.81900e-03,-1.81657e-02,1.49500e-03,-1.59410e-02,-1.63941e-02,-1.31213e-03,1.58803e-03,1.57362e-02,-1.31373e-02,4.61629e-03,-1.44881e-03,1.14720e-02,-1.89371e-02,1.17095e-02,7.68910e-03,1.16987e-02,5.94107e-03,-3.47127e-03,1.32188e-02,8.63984e-03,-2.09620e-03,-6.28099e-03,1.23578e-02,8.49584e-04,-8.50210e-03,-1.80904e-02,-1.40314e-02,4.46310e-03,3.53872e-03,3.23317e-03,-4.43672e-03,-1.91823e-02,3.38078e-03,1.56641e-02,1.40638e-02,1.26000e-02,5.91158e-03,2.78241e-03,1.89447e-03,-1.77262e-02,1.85496e-04,1.21719e-02,-3.50547e-03,1.33999e-02,1.37579e-02,-7.79613e-03,-9.65510e-03,-6.18585e-03,8.42380e-05,-1.00643e-02,6.73569e-03,-4.15625e-03,1.59096e-03,-1.00879e-02,3.69670e-03,-8.92020e-03,1.40519e-02,1.48003e-02,-1.23244e-02,-6.63788e-03,-1.97952e-02,1.17794e-02,7.26262e-03,-6.78101e-03,1.40204e-03,-1.89999e-02,1.04533e-02,-4.68925e-03,-8.51222e-03,1.18558e-02,-1.44951e-02,-1.74279e-02,-1.70940e-02,-1.97340e-02,2.20047e-03,-1.91703e-02,3.27146e-03,-1.24529e-02,-8.98419e-03,-1.07631e-02,-9.26840e-03,-9.44516e-03,9.15536e-04,8.02263e-03,3.29150e-03,1.04528e-02,-2.00806e-03,-1.30328e-02,1.80620e-03,-1.75103e-02,3.03742e-03,-1.90355e-02,4.23314e-03,4.37273e-03,-9.22718e-03,1.01697e-02,-2.18740e-03,8.41910e-03,-1.24670e-03,6.17228e-03,1.17555e-02,-8.12951e-03,-2.68383e-03,-5.20908e-03,-3.19356e-03,6.49267e-03,-9.84775e-03,-1.17421e-03,-1.28625e-02,1.28066e-02,1.52292e-02,-8.07092e-03,-1.74062e-02,-1.24865e-02,-1.03285e-02,-3.47841e-04,6.62175e-04,-2.96164e-03,-1.53237e-02,-1.95494e-02,1.64467e-03,-1.03698e-02,1.07808e-02,7.91313e-04,-1.87728e-02,1.91644e-03,-1.31543e-02,-1.58277e-02,6.11285e-03,-6.22370e-03,-1.71326e-02,-1.21215e-02,-4.96490e-03,1.34385e-02,6.21861e-03,1.66092e-03,-9.10945e-03,-1.70379e-02,-1.59336e-02,1.31069e-02,2.63960e-03,-1.52888e-02,-1.29573e-03,1.23966e-03,1.55473e-02,-2.41294e-03,1.09608e-02,-5.58529e-03,-1.08008e-03,3.23662e-03,-5.68118e-03,-1.02667e-02,-1.91193e-02,-7.26768e-05,-2.71516e-03,-1.19973e-02,-1.52076e-02,1.09780e-02,-1.50853e-02,-8.39077e-03,4.63619e-03,-1.67516e-02,-1.41158e-02,9.72969e-03,8.42587e-03,-6.70566e-03,-8.37495e-04,-9.10145e-03,-2.53825e-03,2.66296e-03,-1.65430e-03,9.24643e-03,-1.43616e-02,-1.26534e-02,-1.59756e-02,1.37047e-02,-1.89827e-02,-5.51491e-03,-1.96079e-02,-1.48749e-03,2.40673e-03,-1.81876e-02,-5.49306e-03,-1.43325e-02,3.04329e-03,-6.93059e-03,-1.03352e-02,-1.95123e-02,8.68325e-03,1.00445e-02,1.12422e-02,1.58086e-02,2.62859e-03,7.02313e-03,-1.64745e-03,-3.91960e-03,-1.83966e-02,-5.89538e-04,1.27683e-02,-7.87716e-03,-4.79614e-03,4.96363e-03,5.66180e-03,-9.34243e-03,-1.53314e-02,3.23955e-03,-6.80773e-03,7.47110e-03,6.70177e-03,-5.41733e-03,2.57823e-03,-1.56232e-02,1.52587e-02,1.00327e-02,1.48748e-02,5.35369e-03,-5.81645e-03,-4.07589e-03,3.59490e-03,1.58168e-02,-1.01394e-02,-1.79280e-02,-7.20819e-04,-1.70990e-02,-1.33185e-04,1.07855e-02,-8.86411e-03,-7.03400e-03,-1.91827e-02,5.39509e-03,1.24251e-02,8.74150e-03,1.92062e-03,-1.66708e-02,1.27847e-02,9.01482e-03,-1.46334e-02,-1.63062e-02,-4.96651e-03,7.86189e-03,-1.09542e-03,8.12209e-03,-5.99427e-03,4.93537e-03,-6.74289e-03,1.11507e-02,-1.63634e-02,-1.95231e-02,6.17815e-03,2.34531e-04,-1.81478e-02,-5.12790e-03,-1.75903e-02,5.22555e-04,1.57721e-02,5.06851e-03,1.04788e-02,2.50546e-03,6.37229e-03,-5.56185e-03,4.64384e-03,1.16567e-02,1.08045e-02,9.93856e-03,-2.81289e-03,-1.72631e-04,1.37433e-02,1.40207e-02,-1.22254e-02,1.54298e-02,-6.46370e-04,-6.75754e-03,5.33053e-03,-2.76125e-03,1.22680e-02,-1.01167e-02,1.42166e-03,1.46045e-02,-1.14683e-02,-1.14794e-02,-1.80806e-02,-2.11052e-03,-3.99380e-03,-6.62976e-03,1.33710e-02,-2.58968e-03,-1.09268e-03,1.56951e-02,7.50117e-03,-4.89388e-03,2.52416e-03,6.15032e-03,-3.61254e-03,1.76139e-03,-5.89324e-03,1.15307e-02,-1.17810e-02,-1.18616e-02,-9.43136e-03,7.10599e-03,-2.32990e-03,1.55539e-02,3.66149e-04,-1.44716e-02,8.52585e-03,-7.13694e-03,-3.83418e-04,-9.98620e-03,-7.04025e-03,-1.42088e-02,-7.65816e-03,4.30622e-03,-2.72168e-03,1.41683e-02,1.38833e-02,4.71121e-03,-1.71323e-02,-4.71307e-04,1.20545e-02,-2.63801e-03,-5.92409e-03,8.19961e-03,-1.00905e-02,-1.32306e-03,1.46998e-02,5.73691e-03,-9.41011e-03,-1.48340e-02,6.39546e-04,9.75819e-03,1.24417e-02,2.45031e-03,-4.96714e-03,1.42624e-02,-4.35140e-03,-6.71695e-04,-1.35360e-02,-4.14643e-03,1.19546e-02,-4.52914e-03,-4.58427e-03,1.12226e-02,-1.11497e-02,-9.08578e-03,8.80724e-03,7.43101e-03,-9.38947e-03,-2.28318e-03,-7.10798e-03,-9.57660e-04,1.16749e-02,-1.14535e-02,1.39131e-02,1.57782e-02,9.15744e-03,6.84561e-03,6.50522e-03,-3.77078e-03,1.00819e-02,-7.52822e-03,-1.98743e-02,-1.02833e-02,6.10634e-03,-1.88868e-02,-1.91989e-02,1.53621e-02,-1.39278e-02,-5.75382e-04,-1.04709e-02,1.18319e-02,1.35307e-02,-1.37782e-02,-3.49250e-03,4.19991e-03,-7.29228e-04,4.57028e-03,-1.29383e-02,1.51098e-02,6.36067e-03,-1.81979e-02,-1.48794e-02,-1.50208e-02,-1.41992e-02,-1.04494e-02,5.03933e-04,9.66371e-03,8.88064e-03,-1.22087e-03,6.63372e-03,-2.14140e-03,-6.72359e-03,1.59539e-02,-4.83390e-03,1.00290e-02,-5.17175e-03,-1.64177e-02,-1.59445e-02,4.50604e-03,-1.11519e-02,1.47545e-02,7.50950e-04,1.55598e-02,-3.73663e-03,-3.87259e-03,2.52435e-03,1.27042e-02,-7.44385e-03,-4.67376e-03,-1.80340e-03,-1.14640e-02,9.16280e-03,3.22911e-03,-7.72197e-03,-1.99679e-04,-1.30357e-02,-8.78269e-03,-1.98608e-02,7.62278e-03,-1.16388e-02,7.81144e-03,6.04768e-03,1.24152e-02,-4.59614e-03,-4.64475e-03,-1.84994e-02,-9.80166e-04,9.11711e-03,-1.92779e-03,9.45209e-03,-1.36855e-02,9.89888e-03,1.15924e-02,1.05204e-02,-5.88623e-03,-1.46033e-03,-8.25782e-03,4.75238e-04,1.01117e-02,3.78198e-03,1.07142e-02,2.33141e-03,1.36530e-02,-1.72867e-03,-1.08352e-02,-1.28692e-02,-8.45671e-04,1.00489e-02,-1.36072e-03,6.90167e-03,9.87714e-03,-1.13370e-02,-1.51907e-02,1.35376e-02,-1.15031e-02,-1.05750e-02,4.93246e-03,-1.74447e-02,-1.77796e-02,3.50688e-03,1.44963e-02,-8.79168e-03,-4.80037e-03,2.07850e-03,-1.14644e-02,-1.58849e-02,-9.70422e-03,-1.39690e-02,1.10048e-02,2.23134e-03,-1.49145e-02,1.54509e-02,-6.71925e-03,-1.78864e-02,-1.21726e-02,-1.04685e-03,5.45458e-03,-1.98138e-02,7.95219e-04,-1.70619e-02,-5.16670e-03,9.55155e-03,-4.08016e-03,-4.10021e-03,4.37271e-03,-1.21261e-02,7.24176e-03,-1.73793e-02,3.74770e-03,-1.41669e-02,-5.84714e-03,2.54384e-03,-1.38297e-02,9.94233e-03,8.57427e-03,-1.07206e-02,1.06252e-02,4.29096e-03,-1.55570e-02,-1.46376e-02,1.01232e-02,7.49514e-03,4.90164e-03,-9.47299e-03,-5.57474e-03,5.88030e-04,-1.74356e-03,-4.96721e-03,7.47819e-03,-1.97801e-02,-5.41334e-03,-1.51876e-02,-1.46245e-02,-1.94077e-02,1.02420e-02,-1.07111e-02,1.69355e-03,3.85559e-03,1.08322e-02,-3.78561e-03,4.91170e-03,-6.63352e-03,-1.19293e-02,9.31353e-03,-6.46995e-03,1.50620e-02,1.60268e-02,-1.80598e-02,-7.11789e-03,8.21314e-03,1.51258e-02,-1.65046e-02,-9.47626e-03,5.52664e-03,-3.38846e-03,-4.85702e-03,-9.82595e-03,-6.47786e-03,-5.49156e-03,-1.70642e-02,3.40135e-03,-2.98564e-03,7.65351e-03,2.79118e-04,5.20411e-03,-1.00500e-02,1.24574e-02,1.24573e-04,8.75254e-03,-3.04382e-03,-1.47318e-02,1.64992e-03,1.54303e-03,1.66490e-03,-1.43845e-02,2.86102e-03,-1.59383e-02,-1.30479e-02,-7.81808e-03,5.61472e-03,-9.50477e-03,1.31139e-02,4.61215e-03,1.18094e-02,-6.59674e-03,8.97860e-03,5.70518e-03,-9.72571e-03,-1.87978e-03,-8.01164e-03,3.46876e-04,1.10424e-02,6.05330e-03,-3.91322e-03,-3.48478e-03,1.00640e-02,-1.68096e-02,-2.63303e-03,2.90318e-03,-4.05275e-03,1.34799e-02,1.16161e-02,6.45699e-03,-6.75357e-03,8.33320e-03,1.75166e-03,8.04114e-03,-1.72134e-02,1.26692e-02,1.55241e-02,-1.56018e-02,-1.18626e-02,-1.30327e-02,1.39666e-02,-9.14086e-03,5.84577e-03,-1.68365e-02,-8.55684e-04,9.89813e-04,1.37228e-03,-1.41790e-02,6.27943e-03,6.78134e-03,1.18027e-02,4.81840e-03,-6.83698e-03,-9.54129e-03,-1.89751e-02,-4.10438e-03,-7.16718e-03,6.12765e-03,-1.05017e-02,-1.84603e-02,4.26036e-03,-1.97646e-02,-1.63406e-02,4.54801e-03,5.32186e-05,1.16465e-02,2.85205e-03,1.71208e-03,-4.29815e-03,-1.69967e-02,-7.89829e-03,-1.42761e-02,1.35802e-02,-8.08176e-03,1.55263e-02,8.18537e-03,-7.57828e-03,1.14981e-02,-9.33788e-03,-1.95718e-02,1.07811e-02,-1.04318e-02,-8.40760e-04,2.54800e-03,-1.57202e-02,-1.12609e-03,-1.97402e-02,8.72829e-03,-1.08938e-02,-1.22399e-02,-1.18368e-02,-1.60166e-02,1.36734e-02,1.41085e-02,-1.27913e-02,-9.95760e-03,4.38363e-03,1.39308e-02,1.45778e-02,-1.32608e-02,2.74981e-03,-7.66090e-03,1.08636e-02,1.19873e-02,-1.66434e-02,-9.94867e-03,1.18297e-02,-1.98065e-02,1.47285e-02,-1.08753e-02,-7.33846e-03,-6.66221e-03,-9.39008e-03,1.26292e-02,-1.86249e-02,3.78738e-04,-5.10060e-03,-1.60549e-02,-1.54288e-02,1.13577e-02,-1.31994e-02,-1.05800e-02,1.11363e-02,-1.48187e-02,-4.18138e-04,-2.76954e-03,-8.85958e-03,8.58944e-03,-2.31766e-03,-8.31953e-03,-1.15994e-02,-1.19353e-02,1.33126e-02,-1.69135e-02,-1.77574e-03,-4.18116e-04,-1.58730e-02,1.43512e-02,-1.08395e-02,2.60782e-03,-1.22621e-03,9.36813e-03,-1.08892e-02,2.91139e-03,1.10984e-02,-1.58790e-02,-1.55774e-02,3.04759e-03,-1.31907e-02,-1.52723e-02,9.64838e-03,5.80551e-03,-1.53693e-02,-1.32480e-02,-2.72948e-03,-5.10973e-04,3.77822e-04,-9.68802e-03,-1.78130e-02,-9.35179e-03,-1.27605e-02,-1.04560e-03,1.07626e-02,-1.96865e-02,-5.68490e-03,-1.93930e-02,-5.78587e-04,-1.44551e-02,1.09451e-02,-1.80439e-02,-2.94656e-03,-1.83886e-02,-1.65125e-02,1.29326e-02,-8.18851e-03,1.07810e-02,-1.28584e-03,-1.85809e-02,7.51963e-03,5.09986e-03,1.25475e-02,-9.17214e-03,-5.18617e-03,1.05168e-02,-1.83040e-03,1.39389e-02,-5.24508e-03,-6.37638e-03,-1.43063e-02,3.52437e-03,2.73194e-03,-6.63814e-03,9.26740e-03,9.55125e-03,-1.90354e-02,-8.54182e-03,9.24998e-03,1.18635e-03,-3.71223e-03,-1.59237e-02,-6.60230e-03,-8.65209e-03,1.57281e-03,1.41032e-02,6.12245e-03,-1.48419e-02,-7.06160e-03,-1.51696e-02,-1.22274e-02,-9.72856e-03,7.37778e-03,-1.61171e-02,8.70308e-03,6.37921e-03,6.41330e-03,2.35595e-03,-1.44028e-02,4.40908e-03,-3.04494e-03,-5.17972e-04,6.59191e-03,-1.82925e-02,-1.74607e-02,-3.39566e-03,-1.86750e-02,-6.99345e-03,-9.11359e-03,-1.85163e-02,1.17932e-02,1.20458e-02,-1.60114e-02,3.29506e-03,-2.81667e-03,1.53395e-02,-1.10209e-02,1.19005e-02,1.65444e-03,-1.05753e-03,1.33886e-02,1.18474e-02,1.06310e-03,7.09462e-03,-1.91416e-02,-1.51325e-02,-1.58071e-02,-1.37399e-02,-1.78696e-02,-1.17476e-02,-1.16742e-02,-9.90781e-03,-9.67504e-03,9.46356e-03,1.58025e-02,1.27246e-02,-1.38542e-02,-9.97426e-03,7.31361e-03,1.08056e-02,-1.59865e-02,-1.87833e-02,-1.58249e-02,-1.46442e-02,6.89505e-03,-4.07774e-03,1.65951e-03,-3.02626e-03,-9.73275e-03,-1.86410e-02,1.47419e-02,-1.01755e-02,1.35478e-02,1.03205e-02,-6.18553e-03,3.54774e-03,-1.13456e-02,7.96865e-03,5.00978e-03,6.33445e-03,-9.95038e-04,6.19863e-03,-1.25668e-03,5.10493e-03,-5.87299e-04,-1.41712e-02,-1.01570e-02,-8.84384e-03,1.11488e-02,-5.45157e-03,1.57572e-02,1.74167e-03,-6.76006e-03,6.39678e-03,-1.42318e-02,1.79150e-02,4.26067e-03,1.66228e-02,-7.42552e-03,7.66389e-04,-1.48127e-02,6.90440e-03,-4.66090e-03,-1.24952e-02,3.77935e-03,-1.99585e-03,5.64277e-03,-1.56718e-02,3.23630e-03,1.15085e-02,-1.42605e-02,-1.59164e-02,-3.63263e-03,1.29465e-03,-1.05165e-03,-1.10950e-02,-3.73550e-03,1.37498e-02,-1.89604e-02,-1.72965e-02,-1.32174e-02,1.32703e-02,-3.91081e-03,9.06257e-03,-1.38148e-02,-2.36975e-03,-7.71875e-03,-1.50417e-02,9.44987e-03,-1.68430e-03,-8.78255e-03,-1.69054e-02,-3.82562e-03,-5.36013e-03,-5.03420e-03,-3.58397e-03,-8.92419e-03,-2.09236e-03,-1.26839e-03,-1.13859e-02,-2.66121e-03,1.11462e-02,-7.92063e-03,-1.73852e-02,1.47078e-02,-7.86563e-03,-1.50207e-03,-4.33290e-05,1.12149e-02,-1.73528e-02,-1.77416e-03,-8.88124e-03,-1.45872e-03,7.83876e-03,5.99262e-03,1.41556e-02,-1.88799e-02,-3.18636e-03,2.16491e-03,4.77377e-03,-5.97797e-03,8.54630e-03,1.78936e-02,8.23571e-03,1.11374e-02,-2.91495e-04,-1.42036e-02,-1.46517e-02,1.39750e-02,-1.71730e-02,4.51148e-03,-1.23121e-02,-1.50101e-02,1.23184e-02,2.89553e-03,8.31205e-03,2.34490e-03,-7.36251e-03,1.51664e-02,-8.62820e-03,7.38889e-03,4.02963e-03,-1.98693e-02,6.72353e-03,-1.94760e-02,-1.48694e-02,1.09197e-02,4.71016e-03,-1.17906e-02,-1.42795e-02,-3.91614e-03,4.17250e-03,-4.56048e-03,4.70700e-04,-1.58677e-02,-1.20189e-02,8.78354e-03,1.59427e-02,-1.32974e-02,1.13143e-02,8.53223e-03,-1.89819e-03,1.63468e-03,6.92410e-03,9.51101e-03,-9.94793e-03,7.86746e-04,1.84974e-03,-1.63568e-02,6.72184e-03,1.00345e-02,9.55319e-03,-1.08284e-02,1.29348e-02,1.46733e-02,-1.78681e-02,3.51537e-03,-3.02462e-03,1.07763e-03,7.88398e-03,-1.49239e-02,3.20164e-03,-1.18430e-02,8.54172e-03,-6.45592e-03,-1.21902e-02,-1.73807e-02,-1.40014e-02,-5.49984e-04,7.08491e-03,-1.38124e-02,-1.48504e-02,1.28748e-02,-2.53445e-03,5.98229e-03,1.63034e-02,-6.25761e-03,9.84391e-03,8.64932e-03,4.52321e-03,-4.29568e-03,-1.30728e-02,3.53405e-03,1.19512e-02,-1.63715e-02,1.32843e-02,9.30106e-03,-5.88360e-03,1.58774e-02,7.92639e-04,6.72066e-03,1.04732e-02,1.08597e-02,-7.46009e-03,-1.41061e-02,-7.58635e-03,3.16157e-03,-1.37629e-02,-8.48839e-03,-1.74891e-02,7.21450e-03,-1.91593e-02,-9.20956e-03,1.09856e-02,1.49419e-02,1.26823e-02,-1.77179e-02,-1.22614e-02,1.37391e-02,1.39641e-02,1.22949e-03,-1.20257e-02,7.80581e-03,6.63225e-03,-4.75611e-04,-7.55307e-03,4.83884e-03,-9.12078e-03,-1.40339e-02,9.00208e-03,-4.47978e-04,1.60459e-02,1.35805e-03,-5.25501e-03,1.02449e-02,-1.37843e-03,1.36792e-02,1.54841e-02,9.38594e-03,-6.31945e-03,-2.46571e-03,7.41467e-03,1.47548e-02,-1.63440e-02,7.46670e-03,-1.07488e-02,1.48848e-02,-1.10740e-02,1.57891e-02,3.97798e-03,-1.36402e-02,1.55454e-02,-1.05452e-02,-1.83953e-04,-7.27891e-03,7.34882e-03,1.09659e-02,4.51863e-03,-1.46275e-02,-1.59608e-03,1.29953e-02,-1.61168e-02,1.10196e-02,-1.38484e-02,1.49525e-02,-1.33380e-02,-5.24602e-03,-1.34121e-02,3.48796e-03,1.04885e-02,1.54625e-02,4.01157e-03,-2.82335e-03,-1.66814e-02,1.00269e-02,-1.13839e-02,-3.47879e-03,-1.63124e-03,-1.07377e-02,8.28282e-03,-1.13184e-02,-2.77406e-03,1.15003e-03,-1.41386e-02,1.22026e-02,-8.50309e-03,-1.23194e-02,9.35511e-03,-1.23029e-03,1.16546e-02,-1.59418e-02,9.24481e-03,6.75912e-03,-7.30639e-03,-3.66586e-03,-1.65206e-02,-6.42355e-04,4.12136e-03,6.87816e-04,-3.96299e-03,1.12854e-02,6.30230e-03,8.62696e-03,-1.42441e-02,1.08486e-02,-1.60371e-02,-1.98420e-03,1.04574e-02,-9.32636e-03,-1.22148e-02,1.12200e-03,1.34924e-02,-1.17118e-02,5.02093e-03,9.90601e-03,-8.01260e-03,-1.51361e-03,2.83765e-04,2.16303e-03,2.62626e-03,1.07951e-02,-5.00877e-03,-8.95162e-03,1.10996e-02,1.33253e-03,9.87191e-03,-1.73459e-02,-1.57802e-02,6.40256e-03,-1.64905e-02,-1.87228e-02,1.08151e-02,8.72645e-03,-1.34929e-02,1.34767e-03,3.04319e-03,-1.01703e-03,-2.31717e-03,-1.22934e-02,-6.58364e-03,8.48982e-03,-1.44615e-02,-2.66774e-03,-1.35176e-02,8.43140e-03,-9.04440e-03,-1.15475e-02,8.81774e-03,-4.89033e-04,-8.99314e-03,1.57257e-02,1.31458e-02,-1.38991e-02,-1.45941e-02,-3.81208e-04,1.38920e-02,-2.58997e-03,1.43498e-03,-8.50532e-03,-2.74204e-03,-1.82043e-02,-4.73436e-03,4.77583e-03,1.54754e-02,-2.78259e-03,1.20818e-02,1.55904e-02,-1.21932e-02,-2.93573e-03,-8.09825e-04,1.12456e-02,-1.74422e-02,5.75293e-03,-1.51284e-02,-1.60942e-02,-1.35288e-02,-1.25225e-02,6.08299e-03,-1.94261e-02,9.08464e-03,-8.70182e-04,-1.94730e-02,-1.98966e-02,-1.79376e-02,-1.21715e-02,-8.58350e-03,1.55479e-02,5.32168e-03,-1.93706e-02,-9.12459e-03,5.71101e-03,-9.15450e-03,-1.70651e-02,3.61702e-03,-1.92971e-02,4.24835e-03,6.39730e-03,-1.54547e-02,-1.88666e-02,1.10334e-02,-2.57403e-03,-1.33498e-02,1.41978e-02,-1.19107e-02,-4.00491e-03,-3.76490e-03,-1.26066e-02,7.13606e-04,-1.64880e-02,-1.19725e-02,2.94978e-03,-1.52345e-02,-2.28528e-03,-4.80038e-03,3.25302e-04,1.14302e-02,-1.67530e-02,5.91248e-03,1.03458e-02,1.19569e-02,-2.59054e-03,-1.38202e-02,-1.74030e-02,-1.39897e-02,-3.22347e-03,8.93720e-03,7.45144e-03,1.05369e-02,-1.70454e-02,-8.75974e-03,-1.14503e-02,1.36815e-02,-8.38543e-03,1.79276e-03,-1.82421e-02,1.11910e-02,-1.09793e-02,-1.70055e-02,-1.09292e-02,-1.78886e-02,-9.26705e-03,7.03611e-03,3.56860e-03,7.08707e-03,1.06436e-02,1.04285e-02,1.04372e-02,-5.52200e-03,1.66020e-03,-1.71266e-02,-4.90443e-03,4.02772e-03,-2.22466e-03,-9.91672e-03,-1.93585e-02,-1.08521e-02,-8.13913e-03,-1.50225e-02,-1.00282e-02,-1.54852e-02,9.22831e-03,8.19571e-03,8.63101e-03,-1.12639e-02,2.92802e-03,1.13185e-02,1.14112e-02,-7.60004e-03,1.57919e-02,1.21099e-04,-1.61721e-02,-1.74762e-03,-8.43908e-03,4.46079e-04,-3.75688e-03,-1.54548e-02,3.21894e-03,-1.77938e-02,-1.77989e-02,-6.77237e-03,1.05537e-02,-1.32486e-02,-1.05392e-02,-7.65910e-04,1.30327e-02,-1.61397e-02,7.77123e-03,8.15257e-05,-9.90920e-03,-1.05207e-02,1.77727e-03,-1.74784e-02,1.43388e-04,1.33974e-03,-4.48156e-03,-1.52511e-03,6.98844e-03,1.38033e-03,-9.77564e-03,-1.92412e-03,-3.88060e-03,-1.04123e-02,1.13535e-03,-1.77470e-02,-4.69561e-03,-8.17737e-03,6.09743e-03,1.20054e-02,4.03803e-03,-1.70005e-02,-1.91218e-02,1.59440e-02,-3.08963e-03,6.81618e-03,-7.30996e-03,-1.56894e-02,5.52539e-03,-4.09817e-03,-9.98018e-03,-1.69113e-02,-1.04858e-02,1.11545e-02,-1.52178e-02,-1.52174e-02,1.53169e-03,-1.38797e-02,-1.24522e-02,-1.36252e-02,-2.48699e-03,-1.50950e-02,-8.24230e-03,9.59388e-03,4.10910e-03,-1.44461e-02,-1.18695e-02,-1.67717e-02,-2.26144e-03,3.65205e-03,-1.44359e-02,-1.01908e-02,4.07345e-03,-1.19815e-04,5.16076e-03,-1.37490e-02,4.86021e-03,-1.56397e-02,1.00769e-02,-1.12998e-02,4.28552e-03,1.21597e-02,-7.50955e-04,9.03910e-03,3.55669e-03,-6.11708e-03,-8.78422e-03,-1.44838e-02,8.89798e-03,5.04676e-03,-9.80073e-03,1.59724e-02,1.60234e-02,-1.07322e-02,1.22482e-02,-8.32530e-03,-2.11994e-03,2.69362e-03,-2.28795e-03,-1.79171e-04,-1.54817e-02,6.39953e-03,-2.87449e-03,9.00730e-03,-6.61119e-03,1.05863e-02,-1.38415e-02,-1.32552e-03,-1.63381e-03,1.63085e-02,-1.43362e-02,3.69671e-03,8.61347e-03,-1.66764e-02,-1.47450e-02,-5.43110e-03,-7.17497e-03,-1.42004e-02,8.41146e-03,-3.98134e-03,1.63916e-02,-9.03328e-03,-1.25136e-02,1.29952e-02,-1.74712e-02,1.54484e-02,5.69819e-03,-9.94913e-03,-4.98689e-03,9.01858e-03,2.14476e-03,-1.05536e-02,1.55655e-02,5.45616e-03,9.00837e-03,7.53132e-03,-1.36738e-02,-6.96147e-03,5.57827e-03,9.47629e-03,1.59955e-02,-3.64903e-03,-4.04592e-03,8.34453e-03,-9.94815e-03,-1.83862e-02,-6.64182e-03,-1.41140e-02,-5.18964e-05,4.83287e-03,5.10225e-03,3.40106e-03,3.63218e-03,-4.32120e-03,-1.57224e-02,-1.66146e-02,-1.97005e-02,-9.80328e-03,1.04293e-02,-1.88432e-02,-1.97892e-02,-1.07917e-02,3.91228e-03,6.26163e-03,8.89480e-04,-1.11732e-02,-1.83995e-02,-2.62532e-03,5.18112e-03,-7.51566e-04,-8.20208e-03,1.59120e-02,-1.23927e-02,-8.27928e-03,-1.70078e-02,-1.51541e-02,1.54699e-02,8.12390e-03,1.50348e-02,6.08959e-03,-8.17993e-03,-2.17163e-03,-1.60037e-03,-1.77931e-02,4.07351e-04,-7.52412e-04,-1.61240e-02,4.28977e-03,-1.08735e-02,-1.19339e-02,1.28745e-02,9.42410e-04,2.85099e-04,-7.09607e-03,-6.67135e-03,-6.63207e-03,-1.43138e-02,4.89654e-03,-3.17736e-03,1.42757e-02,-3.19678e-03,-1.50772e-03,3.22942e-03,1.02676e-02,-1.40882e-02,6.33764e-03,-1.28772e-02,-8.12921e-03,-2.64357e-03,-6.25676e-03,-1.88832e-02,-3.92689e-03,-1.54700e-02,1.37284e-02,-1.66821e-02,1.12892e-02,-1.50015e-04,1.58090e-02,8.36659e-03,-4.86652e-03,9.37931e-03,-5.47279e-04,8.79963e-03,1.16386e-02,-9.15345e-03,9.64212e-03,1.14126e-02,-1.53088e-02,1.20909e-02,4.03841e-03,1.41024e-02,-8.67767e-03,1.43979e-03,1.29830e-02,-1.14137e-02,-1.40283e-02,-1.20851e-03,5.32249e-03,-5.56280e-03,-1.20481e-02,-9.09988e-03,1.40753e-02,-9.54157e-03,-8.46200e-03,1.29896e-02,-2.88235e-03,-1.13087e-02,-2.95495e-03,-3.48283e-03,7.45062e-03,1.49247e-02,-1.00749e-02,-4.34750e-03,-1.60857e-02,9.09668e-03,7.84789e-03,-4.61062e-03,-6.95938e-03,3.41937e-03,-3.03787e-03,-1.23758e-02,7.59221e-03,5.07106e-03,7.50425e-03,1.22663e-04,1.50932e-02,-6.86551e-03,6.11121e-03,-1.77523e-03,-1.68941e-02,7.83822e-03,1.07689e-02,-7.45412e-03,1.35172e-02,-1.48474e-02,-1.81961e-02,9.50382e-04,-1.86600e-02,-5.45578e-03,1.39413e-02,1.18061e-02,-1.15952e-02,-4.96083e-03,9.27280e-03,9.56895e-03,-8.48330e-03,5.53020e-04,-6.00166e-03,-1.13125e-02,