// Neural Network File Format by Kyle Julian, Stanford 2016
3,15,7,200,
15,200,200,7,
0,
-1.0,-1.38,-2.62,-2.07,-2.54,-2.63,-2.19,-3.87,-0.14,-1.66,-0.24,-1.16,-1.08,-2.46,-1.98,
1.0,4.16,2.45,0.49,0.4,1.12,1.71,2.39,7.6,1.63,4.31,2.27,2.15,1.46,1.31,
0,0,0,0,0,0,0,0,0,0,0,0,0,0,0,0,
1,1,1,1,1,1,1,1,1,1,1,1,1,1,1,1,
1.61075e-01,-1.41090e-01,-4.59513e-01,1.90779e-01,-2.59182e-01,-2.38414e-01,4.46678e-02,-2.24539e-01,-1.90975e-02,1.64438e-01,-3.23281e-02,2.88776e-01,-1.33152e-01,4.48799e-02,-1.81372e-01,
-2.54062e-01,-1.27410e-02,1.19899e-01,1.41336e-01,7.89706e-02,4.50132e-01,2.99512e-01,5.51841e-02,1.86473e-01,1.46919e-01,1.36691e-01,-3.51915e-01,-1.22192e-02,7.31323e-03,-1.03736e-01,
1.56354e-01,-2.26222e-01,3.40872e-01,-2.62104e-01,2.57221e-01,3.32909e-01,-5.33053e-03,-2.65900e-01,1.66910e-01,1.54605e-01,-2.49521e-02,-1.81992e-01,-3.92183e-01,1.46402e-01,5.95257e-02,
-6.35398e-02,2.97611e-02,-2.19508e-01,-2.45015e-01,-9.34241e-02,1.58565e-01,6.05509e-02,-3.64293e-01,-5.08034e-02,8.44266e-02,-2.77530e-01,2.22707e-01,5.55878e-03,-2.40640e-01,2.73622e-01,
2.12233e-01,-2.97149e-01,4.05006e-02,-2.01364e-01,2.95316e-01,-2.73043e-01,-3.81039e-01,-1.62473e-01,-1.02914e-01,1.75509e-01,1.83709e-01,1.73060e-01,-3.65811e-01,2.08680e-01,1.78093e-01,
-2.45603e-02,5.90060e-02,1.94345e-01,-5.06151e-02,-1.58328e-01,-1.71688e-01,-1.66328e-01,-1.11064e-01,4.15562e-02,1.75737e-02,-6.47247e-02,-5.56125e-02,-1.87669e-01,2.43988e-01,-7.32088e-02,
1.11550e-01,-5.31438e-01,-1.09350e-01,6.84952e-02,3.76556e-01,-1.25133e-01,-2.86500e-01,1.00469e-01,2.39835e-01,1.53106e-01,-8.43201e-02,-1.97990e-01,3.01723e-02,2.84247e-01,2.58242e-01,
-2.30679e-01,1.45026e-02,-1.13649e-01,-6.94391e-02,1.86108e-01,-2.19479e-02,1.39944e-01,-1.30784e-01,-1.40590e-01,-3.31512e-01,1.76447e-01,1.08394e-01,-5.55380e-02,3.45537e-02,5.85287e-03,
-1.98403e-01,-4.05708e-02,2.90263e-01,7.10035e-02,-3.20465e-01,1.04354e-01,2.01864e-01,1.62346e-01,-2.61532e-01,-2.60288e-01,-1.62305e-01,3.03019e-01,6.66505e-02,-8.98498e-02,2.55593e-02,
2.05648e-01,-2.50465e-01,-9.22221e-02,6.47183e-02,-1.05878e-01,6.26189e-02,2.31490e-01,3.68806e-01,4.11694e-02,2.87399e-01,-1.82595e-01,-4.06967e-02,-1.36270e-01,1.54120e-01,2.55197e-01,
-1.35161e-01,-2.05199e-01,1.52720e-01,-1.61454e-01,-2.72237e-01,-1.69757e-01,-2.72507e-01,-2.32559e-01,1.56577e-01,5.94011e-02,-3.83354e-02,2.29153e-01,2.69685e-01,1.10458e-01,-4.62405e-02,
-3.34975e-01,1.95204e-01,-3.84773e-02,-2.36362e-01,-4.22175e-02,7.83791e-02,1.18118e-01,-3.26472e-01,2.36125e-02,1.20250e-01,2.28690e-02,4.10857e-01,1.90783e-01,7.64679e-02,3.05231e-01,
1.65669e-01,3.34164e-01,2.28816e-01,8.22529e-02,4.51043e-01,-2.77457e-02,2.37405e-01,-2.00846e-01,-2.31431e-01,-1.76466e-01,-2.73775e-01,-1.84989e-02,1.73257e-01,8.40037e-02,1.57722e-01,
-8.04831e-02,-3.01191e-01,-2.25798e-01,4.37805e-01,-2.29541e-01,4.02853e-02,-1.52237e-01,9.73682e-02,-1.63231e-01,1.72957e-01,-1.93044e-01,1.94739e-01,-2.61889e-01,-1.82334e-01,1.37274e-01,
-2.28454e-01,2.35680e-01,-3.15311e-01,-8.51673e-02,2.11921e-01,-1.19511e-01,-2.61037e-01,2.38705e-01,-2.04187e-01,-2.59327e-02,-4.50135e-02,-8.01830e-02,2.25075e-01,-1.49212e-01,2.19355e-01,
-2.24275e-01,-4.00727e-01,-4.16676e-02,1.59417e-01,-1.46564e-01,-8.46576e-02,4.50217e-01,2.17384e-01,-6.55140e-02,3.17159e-01,-1.58093e-02,3.47217e-01,1.60733e-01,2.85114e-01,-1.49538e-01,
1.43832e-01,2.21041e-01,-7.76834e-02,-1.20445e-02,7.05080e-02,-2.50653e-01,-2.85243e-01,-2.66630e-01,-1.40274e-01,4.51401e-01,1.11800e-01,-1.61526e-01,-1.30001e-01,3.04062e-01,9.63243e-02,
2.52424e-01,3.56109e-01,4.69632e-02,-1.20902e-01,-7.73077e-02,1.48288e-01,-2.10904e-01,-6.11975e-02,-1.49438e-01,3.86809e-01,1.96934e-01,1.87460e-01,-2.09365e-03,2.09738e-01,9.93506e-02,
3.11002e-01,-1.95770e-01,-8.60979e-02,1.81261e-01,-2.39086e-01,-4.40740e-03,-1.67391e-01,9.01119e-02,-7.31397e-02,2.75231e-01,1.69041e-01,-2.48884e-01,-1.13707e-01,1.05843e-01,-5.39942e-02,
-3.42229e-01,-2.25347e-01,-1.32743e-01,1.49965e-01,-1.20520e-01,-3.26835e-02,-7.45426e-02,-1.43649e-01,-5.76713e-02,-2.73826e-01,1.45915e-01,-1.68139e-01,-1.39592e-02,1.03673e-01,-6.07223e-02,
3.31086e-01,-7.17825e-02,1.37233e-01,5.80512e-02,2.01781e-01,2.06531e-01,3.26834e-01,-1.20214e-01,1.09687e-01,-1.62630e-01,1.84099e-01,2.16076e-01,2.09413e-01,-3.21146e-01,1.50033e-03,
1.76432e-01,2.50655e-01,1.46643e-01,-1.11475e-01,-2.78507e-01,9.21625e-02,9.55245e-02,3.60543e-01,1.94523e-01,2.96888e-03,6.46629e-02,-3.91514e-02,-3.22127e-01,8.84857e-02,2.24040e-01,
-1.67957e-02,1.85018e-01,-5.95322e-02,3.09547e-01,3.03167e-03,-2.94616e-01,-7.06299e-02,-1.52570e-01,7.12568e-02,2.81900e-01,1.69427e-01,-3.79017e-01,-3.08375e-02,-2.70607e-01,-2.42232e-01,
-2.18639e-01,-2.32369e-01,1.08855e-02,2.95075e-01,3.76469e-01,-3.20431e-01,1.09091e-01,1.17579e-01,-8.45459e-02,-2.70763e-01,-1.60255e-01,-1.71125e-01,1.99772e-01,-3.34540e-01,-1.72691e-01,
-1.85717e-01,3.88801e-01,-2.65247e-01,-3.02837e-01,-2.37179e-01,-7.96583e-02,8.85134e-02,2.04947e-02,-1.59865e-01,1.81286e-02,2.58414e-01,-2.27048e-01,-2.92159e-01,-7.05412e-02,1.48616e-01,
-3.98788e-02,-6.45249e-02,1.43936e-01,-2.08486e-01,2.54801e-01,-1.13397e-01,3.98210e-01,-5.95672e-02,9.57903e-03,-1.92407e-01,2.12325e-01,-1.75152e-01,3.63895e-01,-1.10076e-01,-1.95118e-02,
1.85249e-01,7.32474e-02,8.33059e-02,-1.74850e-01,3.13033e-01,3.35003e-01,-2.52413e-01,-2.68455e-01,8.35942e-02,-1.34795e-01,9.08348e-02,-9.88978e-02,-1.36709e-01,-3.56612e-02,5.04790e-02,
-4.09540e-01,3.82309e-02,4.36994e-01,-1.77382e-01,2.63798e-01,-9.77061e-02,8.50366e-03,-9.23647e-02,1.73110e-01,-6.60108e-02,-6.34670e-02,2.07703e-01,1.67776e-01,6.39013e-02,-2.03934e-01,
1.34001e-01,-1.21116e-01,7.98424e-02,-3.66873e-01,-1.74589e-01,-1.96377e-01,4.02170e-01,-1.86049e-01,-1.25886e-01,1.37566e-01,1.93873e-01,-2.88457e-02,3.91930e-01,-2.06237e-01,-1.97509e-01,
2.14837e-01,-1.38506e-02,-1.55764e-01,1.81626e-01,1.49912e-01,4.10596e-01,3.34956e-01,-3.59618e-01,-6.09948e-02,-8.54951e-02,1.12796e-01,1.67428e-01,-1.95540e-01,2.64845e-01,-2.48587e-01,
3.28164e-01,5.23976e-02,-9.66196e-02,9.32735e-02,-1.12184e-01,2.13192e-01,1.12817e-01,-1.37925e-01,1.72851e-01,-2.54498e-01,-1.17045e-01,-1.25095e-01,-7.09351e-02,2.04904e-01,8.82778e-02,
1.56928e-01,-2.51352e-02,-2.11269e-01,-2.52792e-01,-1.67257e-01,-1.06238e-01,-3.77435e-02,-1.71749e-01,2.93032e-02,2.60744e-01,1.08603e-01,4.69987e-01,2.07065e-01,6.10206e-02,-4.66443e-02,
2.80870e-01,3.21884e-01,-1.40963e-01,2.83273e-01,-1.45488e-01,-5.71386e-02,-3.15296e-01,-7.89831e-02,4.52774e-03,1.91295e-01,6.59622e-02,2.54471e-01,-1.22001e-01,1.22179e-02,-5.00211e-02,
9.92074e-02,-4.09977e-01,-2.27781e-01,1.36871e-01,7.68738e-02,3.55069e-02,1.41166e-01,-1.81395e-01,1.72818e-02,-3.66877e-01,-7.77484e-02,2.24086e-01,-2.50994e-01,-2.63583e-01,1.90331e-01,
-2.29759e-01,-6.47948e-02,-1.49982e-01,-1.29807e-01,-9.15245e-02,3.32257e-01,3.24018e-01,2.17562e-01,-5.97748e-02,3.85054e-01,-2.46494e-01,2.36013e-01,1.29696e-01,-1.94982e-01,-9.13731e-03,
1.25483e-01,-1.39311e-01,-4.01915e-02,-1.26482e-01,2.72358e-02,-1.41459e-01,1.22126e-01,7.31828e-02,-7.45648e-02,-8.58119e-02,-2.11630e-01,2.01105e-01,-4.93275e-01,-1.12543e-01,-1.81024e-02,
-1.79468e-01,-3.82913e-01,1.79606e-01,2.47343e-01,2.01954e-01,3.98666e-01,-2.58130e-01,-1.85851e-01,2.09648e-01,6.07813e-02,8.08575e-02,-2.78059e-01,1.90988e-01,3.20415e-01,-6.71426e-03,
-2.95497e-01,4.70516e-02,-2.45554e-01,2.68917e-01,1.71322e-01,5.30360e-01,-9.22339e-02,3.48829e-02,-5.73188e-02,-9.76825e-02,-1.17429e-01,-2.77508e-01,-6.11678e-02,-9.44761e-02,1.84104e-01,
-1.42861e-01,2.56674e-01,1.77716e-01,-3.40971e-01,-1.35695e-01,1.16607e-02,-3.42048e-01,-4.79082e-02,4.72701e-02,-3.94470e-01,-1.09250e-01,-2.44839e-01,-1.52891e-01,-2.67970e-01,-2.56466e-01,
-5.24728e-02,-1.64658e-02,-3.18392e-01,3.21774e-01,-2.01721e-01,-1.87896e-01,-2.19185e-01,-8.73712e-02,7.76615e-02,1.27796e-02,2.13389e-01,-1.85172e-01,1.90138e-01,3.26630e-01,-2.48990e-01,
-3.07996e-01,-6.44473e-02,-3.94018e-02,1.25099e-01,4.25308e-02,2.45954e-01,-8.71162e-02,-1.30810e-01,-8.96983e-02,4.00365e-01,-2.82696e-01,-3.19982e-01,-2.80307e-01,-4.02021e-02,3.78166e-02,
-7.90740e-02,3.40742e-01,-2.35277e-01,-2.71187e-02,-1.96375e-02,-1.55859e-01,-1.28705e-01,1.16639e-01,3.87104e-02,-1.02374e-01,5.17498e-02,3.77953e-01,5.99649e-02,9.93862e-02,-1.29203e-01,
-6.60525e-02,1.48621e-01,-2.90305e-01,-1.29985e-01,-3.49265e-01,7.85409e-02,-3.12464e-02,-2.37810e-01,1.92036e-01,-4.53044e-02,-3.13717e-02,2.44687e-02,3.71418e-02,1.14734e-01,2.29179e-01,
-1.00909e-01,-1.32007e-01,-3.29312e-01,2.37714e-01,1.02164e-02,-3.07852e-01,1.65923e-01,9.16504e-02,-2.42634e-01,2.14034e-01,1.38910e-01,-4.96388e-03,-2.03886e-01,2.86983e-01,2.58375e-02,
7.69416e-02,-2.05237e-01,7.80670e-02,-2.64486e-02,1.66284e-01,-5.77634e-02,-2.69159e-01,2.63532e-03,1.40410e-01,3.84832e-01,5.91015e-02,-6.97934e-02,2.89877e-01,-8.11283e-02,-5.91820e-02,
1.70727e-01,-3.01948e-01,2.50700e-01,-3.95819e-02,-1.76622e-01,-3.48063e-01,3.69713e-01,1.84314e-03,-6.32154e-02,-1.38985e-01,2.12057e-01,1.44971e-01,-1.25444e-01,1.34142e-02,2.21892e-01,
1.23294e-01,-1.79144e-01,-1.09722e-02,-1.88461e-01,-1.63120e-01,-1.07483e-01,-3.81605e-01,-7.77688e-02,1.15921e-01,2.26053e-01,-2.34648e-01,3.60275e-01,-3.58733e-02,-4.01805e-03,-3.35137e-01,
-1.22124e-01,-3.37047e-01,-6.55229e-02,-2.60800e-01,-1.04263e-01,-1.46410e-01,1.62269e-01,-2.66213e-01,5.19716e-02,-3.60726e-01,-2.27829e-01,1.53384e-01,-1.70706e-01,1.85596e-01,1.24803e-01,
1.88102e-01,-1.07687e-02,-3.89657e-01,6.61170e-02,-1.30077e-01,-2.42546e-01,2.87746e-01,-2.33402e-02,2.26743e-01,-1.23137e-01,4.40934e-02,-1.01863e-01,2.09031e-01,-4.42511e-01,-3.82622e-01,
-3.72221e-01,-4.31562e-01,1.93319e-01,4.84402e-02,1.85959e-01,-2.44454e-02,-1.42401e-01,1.08013e-02,1.43286e-03,-2.87669e-01,-1.66768e-01,1.39222e-01,1.63863e-01,-3.93842e-01,3.55700e-01,
-9.32758e-02,-2.23113e-03,-3.22917e-01,-4.26655e-02,7.99184e-02,7.68102e-02,8.80909e-02,2.23937e-01,-1.39153e-01,2.20688e-01,2.13057e-01,-5.40922e-02,-4.88459e-01,1.44905e-01,2.63667e-02,
2.46439e-01,2.89626e-01,-5.00872e-02,3.17296e-02,-1.34002e-01,-1.14217e-01,1.89718e-02,3.74468e-02,6.05941e-02,-1.70829e-01,-7.25903e-02,-3.24914e-03,1.28197e-01,-3.36409e-01,-9.15489e-02,
-3.74797e-02,-4.01308e-01,-1.64615e-01,2.37291e-01,-7.13154e-02,-5.46869e-02,-4.10554e-01,1.05099e-01,-2.36753e-01,-1.23449e-01,8.11292e-04,1.30705e-01,2.06936e-01,-1.91265e-01,6.06879e-02,
-1.17138e-01,-8.75695e-02,-3.37656e-01,2.33947e-01,3.29038e-01,-1.32120e-01,1.66277e-01,2.66373e-01,-2.83309e-02,2.21934e-01,-1.88936e-03,-2.17181e-01,-1.11215e-01,1.49507e-01,1.98867e-01,
3.74578e-02,-9.75862e-02,3.51979e-01,-7.48961e-03,-2.04853e-01,6.68867e-02,2.98726e-01,-2.38545e-01,2.32144e-01,2.19858e-01,2.36712e-02,-9.69870e-02,1.91468e-01,9.43230e-02,4.23730e-02,
2.79565e-01,1.44730e-01,-1.77975e-01,6.55749e-02,3.81711e-01,3.39619e-01,3.16877e-01,6.93368e-02,1.21783e-01,3.67809e-01,-2.27469e-01,-2.50372e-01,-2.64885e-02,-6.09916e-02,2.64733e-01,
-7.07276e-02,-1.95276e-01,1.58541e-02,-1.68235e-01,3.65723e-01,7.46389e-02,-5.31962e-02,3.42444e-01,7.04433e-02,1.08588e-01,-9.62844e-02,-2.55750e-02,-6.68522e-02,3.01156e-01,3.37312e-01,
-2.34204e-01,2.41691e-01,-3.04220e-01,1.58992e-01,2.97006e-01,3.90775e-01,-1.82782e-01,1.10121e-01,2.10282e-02,-1.69038e-01,-5.10842e-02,1.25222e-01,-2.00095e-01,-3.75910e-01,-8.61205e-02,
1.27145e-01,3.45334e-01,1.21396e-01,1.09427e-01,1.05677e-01,1.61505e-01,-1.51827e-01,-1.96450e-01,-1.54034e-01,2.69947e-01,1.19448e-01,-4.02085e-01,1.62400e-01,-2.16351e-01,-2.28934e-01,
-7.95684e-02,-4.88612e-02,-6.64874e-02,2.52849e-01,1.80416e-01,4.04658e-01,-3.25979e-01,-1.49681e-01,-1.48433e-01,-2.89177e-01,-2.84688e-01,-3.13076e-01,2.83258e-01,3.04191e-01,2.09157e-01,
1.84667e-02,-1.36334e-01,3.05412e-01,-2.72408e-01,5.93551e-02,-1.38327e-02,3.30405e-01,-9.60894e-02,1.92482e-01,-9.17937e-02,-5.77478e-02,2.87192e-01,4.31766e-02,3.88945e-02,3.34943e-02,
1.81991e-01,-6.29670e-02,2.46978e-01,1.27916e-01,1.46185e-01,1.83871e-02,-2.80482e-01,1.06486e-01,-2.34714e-02,9.31310e-03,1.23329e-01,2.63831e-01,9.40809e-03,2.08309e-01,2.85873e-01,
-2.57409e-01,2.49529e-01,-2.52419e-01,6.48518e-02,9.70281e-03,-1.85153e-01,-1.50293e-01,-1.50657e-01,-1.44477e-01,4.31042e-01,-2.06532e-01,2.49105e-01,1.43404e-01,7.24675e-02,-1.24287e-01,
1.78649e-01,-1.33128e-01,3.00201e-01,3.02105e-02,-2.20960e-01,-2.95483e-01,2.12675e-01,-2.47938e-01,7.44132e-02,8.30552e-02,2.30189e-01,2.67368e-01,-2.99461e-01,-4.45576e-03,2.47136e-01,
2.27397e-01,-8.05273e-02,3.15307e-01,2.54872e-01,-2.20893e-01,-3.05816e-01,-2.63372e-01,-1.29924e-01,-1.99091e-01,1.73924e-01,-2.08322e-01,2.61123e-01,-1.73742e-01,-2.25001e-01,2.70691e-01,
-1.22824e-01,3.15136e-01,-2.27973e-01,-1.03820e-01,4.54479e-02,1.91732e-01,1.86683e-02,-1.12628e-01,1.84573e-01,-3.10639e-01,2.72309e-01,5.54311e-02,-1.11433e-01,-2.11584e-01,-2.36809e-01,
3.44686e-02,2.53665e-01,3.63888e-02,1.57890e-01,1.13131e-01,-1.28107e-01,-4.13386e-01,-2.04767e-01,1.65641e-01,-4.50413e-02,-2.95137e-01,2.83386e-01,-4.20305e-01,-2.33685e-02,1.44676e-01,
-1.45792e-01,-2.40433e-01,-1.64871e-01,-3.84061e-01,-1.14618e-01,2.94322e-01,-1.91097e-01,-4.67485e-02,4.99002e-02,-2.01078e-01,2.51052e-01,-2.43932e-01,7.97294e-03,1.81668e-01,-4.75861e-02,
1.51006e-01,-3.12913e-01,-3.34618e-01,-3.02497e-02,-1.58185e-01,-3.37104e-02,2.02234e-01,-4.08906e-02,1.16232e-01,1.29245e-01,1.47717e-01,8.63664e-02,5.56653e-02,-1.26164e-01,3.73426e-01,
-3.17954e-01,1.63653e-01,2.23125e-01,-4.00480e-02,1.54917e-01,-2.26576e-01,2.21095e-01,7.92253e-02,1.92136e-01,-2.87992e-01,1.53718e-01,-1.98831e-01,1.97178e-01,1.05252e-01,2.50232e-01,
-1.80425e-01,3.90609e-01,1.17698e-01,-5.87832e-02,1.66937e-01,-4.06375e-02,4.89519e-01,-4.04616e-01,1.56319e-01,2.44234e-02,-4.26645e-02,-2.66145e-01,-3.25992e-02,3.01050e-01,1.78341e-01,
-1.53544e-01,-3.31548e-01,-1.41413e-01,-6.89299e-02,-2.99776e-01,-1.31703e-01,6.49145e-02,-6.20969e-02,7.00482e-02,-2.67187e-01,-1.20846e-01,1.28228e-01,2.62738e-01,1.49555e-01,-1.00819e-01,
-2.40266e-01,-1.51149e-01,9.81080e-02,-1.65231e-01,2.02857e-01,-7.02446e-02,1.68059e-01,2.19829e-01,-9.40613e-02,3.00906e-01,-1.56824e-01,-1.81969e-01,2.72274e-01,2.86496e-01,1.51586e-01,
1.23074e-01,2.01188e-01,3.34875e-01,-1.46267e-02,2.50015e-01,3.21057e-01,-1.50230e-01,6.73005e-02,2.17185e-01,3.57440e-02,-9.06296e-02,-5.26966e-02,3.27310e-01,-2.38317e-02,1.34631e-01,
-2.78809e-01,2.43399e-02,2.84304e-01,1.24961e-01,9.55595e-02,-2.44787e-02,3.67795e-01,5.52976e-02,-5.75322e-02,3.15452e-01,1.92716e-01,1.84033e-01,2.22961e-01,1.34673e-02,-3.46920e-01,
-1.15156e-01,-1.13799e-01,-1.87513e-01,-1.38395e-02,3.62778e-02,-3.18361e-01,3.70347e-04,1.89075e-01,-2.21074e-01,-1.36151e-01,1.01554e-01,1.77722e-01,1.90298e-01,-2.21078e-01,4.76844e-02,
-1.02228e-02,2.10653e-01,-3.13528e-02,-1.22156e-02,1.95637e-01,4.99915e-01,2.10271e-02,-8.23181e-02,-2.51686e-01,-2.99281e-01,-1.36477e-01,3.08877e-01,3.57033e-01,-2.11561e-01,-1.14753e-01,
-2.78478e-01,1.61262e-01,-8.06785e-02,-3.72491e-01,-2.55952e-01,-1.91505e-01,-4.19954e-01,2.48190e-01,1.40892e-01,2.64112e-01,-8.92619e-02,-8.74305e-02,-3.71509e-01,-1.92583e-01,9.48859e-02,
2.88073e-02,-2.89754e-01,-2.74474e-01,2.04912e-01,1.95523e-01,-1.12943e-01,1.30699e-01,1.22049e-01,-1.85932e-01,-2.83622e-01,-1.38229e-02,1.69671e-01,-4.26322e-01,-2.34359e-01,-3.05359e-01,
-1.55608e-02,-3.24615e-01,1.32800e-01,1.93571e-01,-3.15744e-01,1.02155e-01,-1.73990e-01,3.14573e-01,2.30853e-01,-1.20861e-01,-9.53756e-02,-1.13204e-01,2.69365e-01,2.58766e-01,2.95875e-01,
2.67113e-01,1.63314e-01,-2.72731e-01,-3.01830e-01,-1.45739e-01,-1.85637e-01,-7.17726e-02,-3.89162e-01,1.46341e-01,-9.85246e-02,-7.73664e-02,2.14358e-01,7.62321e-04,-3.12244e-01,-2.33344e-01,
2.30700e-01,2.12181e-01,2.91314e-01,-1.03374e-01,-4.67496e-03,-1.72922e-01,1.49581e-01,3.07873e-01,6.98336e-02,-1.45594e-01,-2.07102e-01,-7.45794e-02,-2.61495e-02,5.62492e-02,8.18300e-02,
-4.21198e-02,1.22487e-01,-3.56910e-01,-6.42108e-02,1.99926e-01,9.57508e-02,1.20743e-01,-3.00010e-01,2.01102e-01,2.45991e-03,-7.75389e-04,-9.50376e-02,-2.48621e-01,-2.20675e-01,3.81049e-01,
1.84907e-01,-2.63363e-01,-2.71485e-01,-2.33439e-01,-1.03140e-01,2.13795e-01,-2.23549e-01,2.40628e-01,9.51361e-02,-2.48383e-01,-6.42723e-02,1.16125e-02,-3.31214e-01,-3.08155e-01,2.22886e-01,
-3.73853e-01,-2.58231e-01,2.08370e-01,3.30459e-01,2.00203e-01,2.70466e-01,-1.71942e-01,1.26343e-01,-9.82543e-02,1.19999e-01,-2.31592e-01,1.08939e-01,-2.03255e-01,-2.33585e-01,2.25856e-01,
1.51533e-02,-4.91304e-01,-2.54907e-01,-1.15550e-01,2.87293e-02,1.62408e-01,2.05629e-01,-1.31210e-01,-1.88227e-01,1.12887e-02,-1.32234e-01,-1.22272e-01,-2.19157e-01,-2.72059e-01,-1.10762e-01,
-3.72097e-01,-3.36080e-01,-1.65013e-02,2.65743e-01,1.28563e-01,-2.43379e-01,-1.46268e-01,-1.13673e-01,4.96011e-02,-2.01293e-01,1.31173e-01,1.16719e-01,-4.52640e-01,-3.46133e-02,4.51441e-01,
2.60169e-01,2.74655e-01,-7.00372e-02,1.88268e-01,1.10755e-01,2.45313e-02,-3.51880e-01,1.10139e-01,2.19257e-01,1.79317e-02,-2.04148e-01,2.32610e-01,-6.37117e-02,4.48406e-02,1.02384e-02,
-5.80293e-02,1.60992e-01,5.53919e-02,2.87382e-02,1.29937e-01,3.34335e-01,-2.51359e-01,-2.24364e-01,1.97989e-01,8.24805e-03,9.98408e-02,5.16962e-02,-1.63731e-01,3.93577e-01,-2.43103e-01,
-2.92852e-01,8.85351e-02,-2.87648e-01,-9.41704e-03,7.84374e-02,-2.75338e-02,2.24252e-01,2.34036e-01,1.01181e-02,2.44939e-01,-3.54771e-02,-3.13022e-01,4.04584e-01,-2.46555e-01,2.26507e-01,
1.96018e-01,-4.47226e-01,-2.87632e-01,-2.18220e-01,-1.21507e-01,-6.45330e-02,7.32830e-02,3.41981e-01,-1.37492e-01,6.95320e-02,-2.67866e-02,1.17622e-01,2.04618e-02,-1.80923e-01,-2.81080e-01,
-2.47155e-01,-3.41806e-01,-3.37397e-01,-7.13979e-02,3.27519e-01,8.47724e-02,3.95067e-01,3.35269e-01,-7.35718e-04,1.17649e-01,-2.20442e-01,1.30422e-01,-3.76567e-02,-2.10223e-01,-1.60893e-01,
4.46751e-03,-8.41916e-02,-3.18630e-01,2.41494e-01,-6.04987e-02,2.49425e-01,5.22098e-01,-5.33786e-02,-2.78326e-02,-2.61093e-01,2.72847e-02,2.33914e-01,2.13260e-01,2.48137e-01,-1.89673e-01,
-1.73900e-01,1.49252e-01,-2.57781e-01,-3.65967e-01,-7.18454e-02,-3.08588e-01,3.06773e-01,-1.57437e-01,7.77702e-02,1.97800e-01,-2.38306e-02,-1.26362e-01,2.58437e-01,4.08333e-01,2.50590e-01,
-2.84180e-01,4.17603e-01,1.60615e-01,1.85518e-01,1.52786e-01,-1.58697e-01,2.79159e-02,1.28118e-01,1.24768e-01,1.52995e-01,-1.90298e-01,-2.64346e-01,2.72845e-01,1.14831e-01,-3.20350e-01,
3.95883e-02,2.92886e-01,-1.24372e-01,1.27339e-01,3.00571e-01,2.54117e-01,-2.07786e-01,-3.29180e-02,6.07062e-02,2.22056e-01,1.34286e-02,-2.85094e-03,-3.82031e-03,-3.74898e-01,6.15529e-02,
-7.78907e-02,-3.28904e-01,3.09300e-01,-1.69269e-01,2.64587e-01,-1.25756e-01,-2.15065e-01,3.61867e-01,-1.98678e-01,-5.52127e-02,1.48175e-02,1.96784e-01,-3.02388e-01,-2.53574e-01,-2.03503e-01,
1.29868e-01,-4.77899e-01,-2.63891e-02,-8.40427e-02,1.16898e-01,5.44341e-02,1.18788e-01,-2.28889e-01,-1.00801e-01,-3.07332e-01,-7.48676e-02,5.60454e-02,1.21081e-01,-1.41819e-01,-4.04977e-01,
-6.18577e-02,-3.73942e-01,-2.59024e-01,-1.08133e-01,6.83184e-02,1.36487e-01,1.60226e-01,-3.79352e-02,-2.46877e-02,2.92447e-01,5.06118e-02,1.66854e-01,-5.45802e-02,4.11035e-02,5.63075e-02,
2.02224e-01,-2.06977e-01,2.62677e-01,3.27150e-01,-2.79982e-01,2.36534e-01,1.96881e-01,-7.36391e-02,-1.26819e-01,1.70506e-01,1.70466e-01,6.28986e-03,-1.18096e-01,1.32532e-02,-1.35218e-01,
2.69062e-01,2.72653e-01,2.82866e-01,1.53394e-01,1.48568e-01,7.31513e-02,-3.46251e-01,4.77411e-02,2.32455e-01,-9.29281e-02,-2.45236e-01,-7.02936e-02,-2.45562e-02,-1.67950e-01,-9.08923e-02,
2.78198e-01,-3.09671e-01,-2.90762e-01,-1.57765e-01,-2.85053e-01,2.83064e-02,5.30561e-02,-2.13490e-01,-7.96377e-02,6.50131e-02,1.05914e-02,-1.60087e-02,6.40388e-02,-1.16655e-01,4.67513e-01,
3.14304e-01,2.77023e-01,1.05619e-01,-2.31233e-01,3.32854e-01,2.68902e-01,-1.97591e-03,-1.10430e-01,1.91912e-01,-3.04170e-01,7.28346e-02,1.64045e-01,-7.26057e-02,-1.82140e-01,-8.29780e-02,
1.59028e-01,-3.87607e-01,2.33062e-01,-3.30131e-01,-3.63489e-02,-1.04108e-01,3.01452e-01,4.00808e-01,-6.86232e-03,2.24923e-01,2.17126e-01,-1.11690e-01,-1.04181e-01,4.13881e-02,7.61533e-02,
-1.96610e-01,-5.73833e-02,1.28447e-02,7.06171e-02,-4.23494e-02,-2.39733e-01,1.09024e-01,2.62578e-01,-7.07481e-02,-1.23689e-01,-2.66769e-01,-1.28672e-01,-4.05117e-01,2.05695e-01,-1.32899e-01,
3.33053e-01,6.60926e-02,-1.32406e-01,-1.20861e-01,1.87815e-01,1.87969e-01,4.47557e-01,-2.31246e-01,2.21671e-01,1.97547e-01,-1.85962e-01,4.54084e-02,2.78851e-01,-3.83306e-01,-1.26909e-01,
-4.38519e-01,2.10441e-02,2.88021e-01,1.03019e-01,-5.35644e-02,2.60340e-01,-2.43348e-01,-6.90585e-02,-1.85348e-01,-3.23075e-01,1.28938e-01,-5.70688e-03,1.17960e-02,-9.90635e-02,-3.09675e-01,
2.56928e-01,3.50032e-01,-3.25871e-01,-1.64442e-01,9.43932e-03,1.11088e-01,1.79811e-01,8.47029e-02,1.09365e-01,2.33045e-01,-7.31910e-02,-2.04705e-01,3.94648e-01,-1.25540e-01,-1.85926e-01,
-1.71649e-01,2.01573e-01,2.47504e-01,2.32888e-01,-1.83867e-01,3.85414e-01,4.21040e-01,1.31859e-01,1.14227e-01,2.30437e-02,1.83143e-01,-3.65431e-01,1.80477e-01,-1.80803e-01,3.15206e-02,
2.32320e-01,-2.46822e-02,-2.40329e-01,1.12598e-01,-2.25603e-01,1.28388e-01,-1.93006e-01,3.03228e-01,7.04829e-03,3.40064e-02,3.35860e-02,2.68316e-01,1.28109e-01,-3.81426e-01,2.69669e-01,
9.84081e-02,1.36519e-01,3.38165e-01,-2.77332e-01,3.08038e-01,-3.02380e-01,1.48050e-01,-2.85473e-01,-1.23067e-01,2.69038e-01,-1.17211e-01,-2.47497e-01,6.96384e-02,-1.20016e-01,1.72028e-01,
3.28064e-02,3.08976e-01,3.24865e-01,-1.08663e-01,-2.09754e-01,1.79227e-01,-1.99559e-01,2.91515e-01,2.29338e-01,3.43692e-01,-8.10012e-03,-1.35847e-02,3.56517e-01,1.26656e-01,2.90096e-01,
1.83153e-02,-4.45952e-01,3.55461e-02,-7.58963e-02,-2.32453e-01,-5.11396e-02,3.63627e-01,1.70147e-01,-2.08934e-01,4.00251e-02,1.90109e-01,-1.57024e-01,1.93495e-02,1.71205e-01,-2.59790e-01,
1.36257e-01,2.25661e-01,2.28119e-02,-8.07733e-02,1.58986e-01,-1.80291e-01,2.04794e-01,7.17401e-02,9.46059e-02,-3.15961e-01,1.83265e-01,-2.61457e-01,2.58772e-01,-3.04206e-02,2.96878e-01,
2.73117e-01,4.30111e-01,-1.60617e-01,2.81605e-01,1.77785e-01,-5.90824e-02,-3.65637e-01,3.24237e-02,-2.16211e-01,2.82252e-01,-2.80726e-01,5.29778e-02,-1.16473e-01,1.48542e-01,8.44951e-02,
-1.40292e-01,1.84358e-01,3.37794e-01,3.19040e-01,-7.73712e-02,2.57347e-01,3.73287e-02,1.77917e-01,1.10484e-01,3.18718e-01,-1.94752e-01,8.47820e-02,4.65230e-03,-4.97322e-01,1.52476e-01,
2.24115e-01,-1.15020e-01,-4.03341e-01,-3.53087e-01,-1.56616e-01,1.82101e-01,-1.09292e-02,-2.82063e-01,3.71697e-02,-3.51524e-01,1.02023e-01,8.50419e-02,2.13914e-01,8.47717e-02,3.48494e-01,
-5.11610e-03,3.37904e-01,1.38870e-01,1.81234e-01,3.53624e-02,1.57318e-01,-2.16601e-01,3.76672e-02,1.13751e-01,2.33655e-02,3.69577e-02,4.31384e-01,4.44027e-02,-3.69860e-01,3.12763e-01,
3.31615e-01,-2.43835e-01,-1.19778e-01,-2.07653e-01,-1.80352e-01,1.30531e-01,-3.22732e-01,3.11992e-01,9.38547e-02,-2.83450e-02,-2.07481e-01,2.73855e-01,-2.10383e-01,-5.73967e-02,2.08431e-01,
-2.77612e-01,1.41623e-01,-1.44950e-01,2.70165e-01,2.92347e-01,2.13948e-01,7.53033e-02,1.35166e-01,-1.08020e-01,-3.45604e-03,5.06827e-02,2.07390e-01,8.32198e-02,-3.57766e-03,1.31841e-01,
-2.30378e-02,-1.56888e-01,1.31910e-01,1.83664e-01,1.65149e-01,-3.03820e-01,1.68059e-01,-1.53027e-01,-1.04110e-01,1.95918e-01,-2.43734e-01,-1.59729e-01,-3.74488e-01,5.06326e-02,-1.87458e-01,
-7.56270e-02,3.79104e-01,-1.87333e-01,3.29023e-01,-1.48070e-02,-2.77097e-01,-1.07771e-01,-1.07943e-01,-5.55285e-02,-1.91322e-01,-2.84416e-02,-2.22459e-01,6.05162e-02,-4.16029e-01,2.96312e-01,
-9.46724e-02,-1.66150e-01,-2.85499e-01,-1.44925e-01,1.98135e-01,1.68953e-01,-2.18633e-01,2.59270e-01,-2.04226e-01,-7.15672e-02,2.46104e-01,-2.38204e-01,3.00916e-01,-3.63955e-01,-9.72310e-02,
1.57842e-01,1.25149e-01,-3.31228e-02,2.22087e-01,1.04835e-01,2.66574e-01,2.00634e-01,-2.54443e-01,-1.41666e-01,1.10034e-01,1.31887e-01,-1.58111e-01,3.05409e-02,3.85519e-01,-7.40635e-02,
1.18042e-01,-5.36677e-02,-6.13483e-02,-1.24034e-01,-1.65976e-01,-2.90883e-01,3.62695e-01,-2.10620e-01,3.87094e-03,-3.14893e-01,1.56464e-01,4.55789e-02,-1.37172e-01,-4.32626e-01,-1.30907e-01,
-5.48608e-02,-2.26318e-01,6.84205e-02,-3.77944e-01,2.04237e-01,1.55610e-01,3.14346e-01,1.68309e-01,2.11515e-01,-3.75858e-01,-2.26346e-01,-1.63994e-02,1.19441e-01,1.82813e-01,9.18457e-02,
3.20793e-01,3.68844e-01,2.09846e-01,2.11661e-01,-4.13881e-02,-1.71946e-01,-3.01613e-01,-2.89568e-02,1.36436e-01,-1.78488e-01,-1.82429e-02,-1.70560e-01,9.92199e-02,-3.28851e-01,-6.10179e-02,
-2.60637e-02,1.92694e-01,7.43811e-02,1.01289e-01,-2.52061e-01,2.23932e-01,-1.37114e-01,-1.54607e-01,-3.41470e-02,-1.91052e-01,1.21797e-02,-1.67884e-01,4.27255e-02,3.82869e-01,-2.81044e-01,
7.41281e-02,8.16753e-02,-2.56754e-01,-4.41647e-01,1.55239e-02,7.35794e-02,9.72039e-02,-8.97575e-02,2.15338e-01,1.56323e-01,1.65020e-01,-2.11925e-01,-3.04275e-02,3.06190e-01,-1.30831e-01,
-1.81402e-01,-2.45673e-02,-2.20245e-01,3.48446e-01,3.07178e-01,2.00544e-01,4.27662e-01,2.94603e-01,-3.48148e-01,-4.24830e-02,-2.39469e-02,-3.30015e-01,-3.39620e-01,2.98709e-01,2.13061e-01,
-9.46874e-02,-1.19106e-01,-2.93667e-02,2.21201e-01,1.65630e-01,-2.45876e-01,-2.07669e-01,3.18301e-02,2.07020e-01,2.88647e-01,5.63687e-03,-3.89299e-02,1.45364e-01,6.94749e-02,-1.88967e-01,
2.22052e-01,-2.16452e-01,4.33419e-02,-1.50343e-01,-3.04183e-01,2.85475e-02,2.12559e-01,-2.49887e-01,-1.82861e-02,-1.61222e-01,-9.81716e-02,-3.00553e-01,5.81187e-02,-3.47854e-01,2.10644e-01,
2.13809e-01,-2.23893e-01,-2.62380e-03,3.09581e-02,3.05891e-01,2.95278e-01,1.73051e-01,-6.53001e-02,-5.80700e-03,2.21591e-01,-1.89428e-01,-1.42197e-01,-2.40746e-01,-1.68438e-01,-1.18718e-01,
-2.22192e-01,3.65555e-01,-7.97477e-02,-1.17908e-02,-6.32355e-02,4.52480e-01,1.89657e-01,-2.93548e-01,1.38131e-01,-8.04713e-02,1.32379e-01,2.61130e-01,-1.67449e-01,-8.09509e-02,-4.47357e-02,
-7.77118e-02,2.52233e-02,1.00620e-01,5.61039e-02,2.82469e-01,-3.88383e-01,-4.00149e-02,5.10169e-02,-8.66079e-02,2.48173e-01,2.31011e-01,-3.73956e-01,-2.10848e-01,1.85245e-01,-8.12535e-02,
-1.92453e-01,-4.29961e-01,1.27238e-01,3.72933e-02,1.42185e-01,-2.24759e-01,2.81780e-01,-2.40130e-01,3.66490e-02,-4.58233e-01,-3.75133e-02,-3.12198e-01,1.86864e-01,-3.52746e-01,5.84704e-02,
2.87089e-01,-1.69926e-01,-3.20884e-01,-3.57912e-02,-9.39598e-02,1.61633e-01,-3.81183e-01,-3.17043e-01,-1.34216e-01,-3.54859e-01,9.78006e-03,1.17643e-01,2.58467e-02,1.07504e-01,3.75540e-02,
4.74970e-02,2.36914e-01,1.26668e-01,3.03578e-01,-2.94009e-01,-1.43446e-01,-1.03961e-01,9.63498e-02,-1.95262e-01,-1.54898e-01,-2.51806e-02,2.60165e-01,-1.24928e-01,-2.55269e-01,-1.16977e-01,
-6.09538e-02,-1.25968e-01,-2.98543e-01,2.90891e-01,-2.55618e-02,4.24808e-01,9.34340e-02,-6.07789e-02,2.10325e-02,3.37323e-01,-2.66337e-01,4.69256e-02,3.30521e-02,-1.71106e-01,1.59922e-01,
1.91153e-01,2.19395e-01,-1.89139e-02,3.16407e-01,9.19338e-02,-1.56538e-01,2.74512e-01,-1.24911e-01,1.91773e-01,-1.87289e-01,1.42742e-01,-2.39118e-01,-2.99138e-01,-1.58917e-01,2.09314e-01,
-1.33686e-01,3.15460e-01,-2.09787e-01,2.29920e-02,2.39336e-02,1.00356e-01,-3.27166e-01,-2.25661e-01,-1.38325e-01,-1.22562e-01,-1.54273e-01,3.33020e-01,-9.22484e-02,-5.51662e-02,-2.71173e-01,
-2.42888e-01,-2.33004e-01,2.66391e-01,-8.76269e-02,-1.97938e-01,-1.83043e-01,-4.62242e-01,-1.85072e-01,-1.03907e-01,1.16381e-01,6.05649e-02,2.20410e-01,1.58353e-01,-2.87428e-01,-2.42012e-01,
2.74433e-01,3.12167e-02,9.18184e-02,2.68130e-01,2.29324e-01,-1.22873e-01,2.84679e-01,3.50956e-01,-1.86570e-01,-2.21685e-02,2.00559e-01,1.61567e-01,-2.05911e-01,-2.01103e-01,2.86285e-02,
-5.34278e-02,-4.57878e-01,-3.61309e-01,3.81290e-01,-2.12900e-01,-1.90438e-01,3.36469e-01,1.52075e-02,-2.02759e-01,2.80987e-01,6.98915e-02,-9.41943e-02,1.63866e-01,-2.21514e-01,3.51535e-01,
2.40704e-01,1.95715e-01,5.34354e-02,2.96230e-02,6.90993e-02,-1.87381e-01,-3.67764e-01,-9.08622e-02,2.19152e-01,3.90386e-01,-1.01666e-01,-8.59511e-02,-9.28994e-02,2.14564e-01,2.21675e-02,
-1.41383e-01,-8.10946e-02,2.85271e-01,1.27802e-01,-5.45675e-03,1.26579e-01,-2.25602e-01,-2.75247e-01,8.33763e-02,-1.54100e-01,5.34786e-02,-2.52668e-01,-3.01272e-01,1.01690e-01,1.87298e-01,
4.53030e-02,2.22277e-01,-3.04457e-01,6.26689e-02,1.79615e-01,1.66925e-01,1.28439e-01,6.66952e-02,-1.37873e-01,-2.59613e-01,-3.86030e-02,1.97945e-02,-1.62689e-01,3.48847e-01,-1.67841e-01,
3.43398e-01,-2.31329e-01,1.31476e-01,-1.73071e-03,-2.66573e-01,1.90834e-01,4.78860e-02,-2.13291e-01,5.16113e-02,1.87926e-01,1.31730e-01,-2.96078e-01,-8.40284e-02,2.89752e-01,-1.84100e-02,
-1.75211e-01,4.33180e-01,3.96720e-01,1.80990e-02,2.66633e-01,-3.26465e-01,5.36977e-03,4.40894e-02,-1.85033e-01,-9.65431e-02,-1.49951e-02,-6.80036e-02,9.66828e-04,2.31140e-01,2.41122e-01,
2.29755e-01,-2.96587e-01,3.41813e-01,2.43310e-01,2.18912e-01,-1.33380e-01,3.53980e-01,5.73414e-02,1.85411e-01,-1.61518e-01,-1.69488e-02,1.13544e-01,-5.39485e-02,6.63703e-03,-2.34133e-01,
1.17202e-01,1.33521e-01,7.80841e-02,-7.45641e-02,-1.95742e-01,-2.32226e-01,3.19497e-01,3.47952e-01,2.00059e-01,-2.22418e-01,-1.83941e-01,3.77687e-01,-5.27871e-01,1.19814e-01,1.44886e-01,
2.92112e-01,2.92396e-01,-2.91426e-01,2.37188e-01,-4.55501e-02,-3.30767e-01,9.37224e-02,-1.81650e-01,1.52766e-01,-7.06141e-02,1.40134e-01,-1.74237e-01,2.92659e-01,1.31849e-01,-1.32609e-02,
1.52672e-01,1.56909e-01,1.85746e-01,4.98327e-02,1.74103e-01,-1.34437e-01,1.65741e-01,-2.64968e-01,-8.03546e-03,7.90711e-02,2.12334e-01,-2.97974e-02,2.79281e-01,-1.59870e-01,1.64664e-01,
2.46446e-01,1.19057e-01,-4.62327e-01,-2.10781e-01,-1.44276e-01,2.32684e-01,-1.37993e-01,-1.16401e-02,-1.97757e-01,2.34949e-01,2.58804e-01,-5.92381e-02,3.91144e-01,-2.34446e-01,1.86873e-01,
-1.90986e-01,-2.42587e-01,6.63858e-02,2.05359e-01,1.94505e-01,-2.27858e-01,-2.23500e-01,4.90306e-02,2.61489e-02,-3.32200e-01,-2.11710e-01,-2.75073e-01,-1.20354e-01,-2.16891e-01,-1.63621e-02,
2.99911e-02,5.61295e-02,-3.28601e-01,-2.20671e-01,-2.08265e-01,2.40875e-01,1.41537e-01,1.85013e-01,1.72261e-01,1.71670e-01,1.79821e-01,2.86736e-01,2.37244e-03,-1.99228e-01,2.45564e-01,
-5.72612e-02,1.71221e-01,-6.15070e-02,3.47826e-01,2.90644e-01,6.61576e-02,1.15295e-01,2.30132e-01,8.45607e-02,3.03899e-01,-2.59564e-01,-1.07864e-01,5.95774e-02,-2.29107e-01,5.05546e-02,
2.09311e-01,3.57188e-01,2.38261e-01,4.58439e-02,3.30630e-01,-2.04540e-01,-7.82724e-02,-3.88634e-02,1.31488e-01,7.61643e-02,-1.22614e-01,-8.90748e-02,2.92944e-01,-1.97397e-01,3.50329e-01,
2.24977e-01,6.14326e-02,-1.68722e-01,8.64130e-02,-3.04036e-01,2.20493e-01,1.01115e-01,2.70856e-01,1.52021e-01,9.23199e-02,-2.35774e-01,-3.36182e-01,3.44222e-02,2.32261e-01,1.61217e-03,
-2.94779e-01,3.80023e-02,-3.19711e-01,-1.88846e-01,2.46561e-01,-2.11421e-01,-4.70040e-01,5.47593e-02,-2.03609e-01,-9.51318e-02,2.77870e-01,4.59438e-02,-2.04118e-01,1.89249e-01,4.37980e-01,
1.55725e-01,9.23375e-02,1.10902e-01,-3.96863e-02,-1.15426e-01,-2.03766e-01,2.19897e-01,-4.19871e-02,6.74374e-02,3.84113e-01,9.22660e-02,-1.48325e-01,-3.76655e-02,-2.21148e-01,-1.72571e-01,
5.31245e-02,-1.13676e-01,2.64581e-01,-1.72144e-02,-2.05484e-01,-1.51972e-01,-2.36528e-01,1.91191e-01,1.93715e-01,5.55919e-02,1.66361e-01,-4.81186e-01,1.11627e-01,2.45959e-01,3.41771e-01,
3.81318e-01,-4.16165e-01,-8.57001e-02,-1.65742e-01,-2.24948e-01,7.16726e-02,-1.32455e-01,-2.95594e-01,-2.36678e-01,-2.97678e-01,-1.80609e-01,-2.18743e-01,-1.80240e-01,-2.09430e-01,2.28755e-01,
4.91587e-02,4.12725e-01,7.14505e-02,2.51193e-01,2.62968e-01,-2.01069e-01,-3.45696e-01,6.04031e-02,7.01554e-02,8.87994e-02,2.14089e-01,2.65938e-01,6.76439e-02,-2.57539e-02,2.97737e-02,
1.41907e-01,-4.05156e-01,8.09182e-02,1.66561e-01,-1.77878e-01,5.09389e-04,4.68248e-01,2.31653e-01,-8.20073e-02,2.18952e-01,7.99918e-02,-2.00007e-01,1.78015e-01,1.92014e-01,-1.29263e-01,
3.66899e-02,-1.39103e-01,-3.44802e-01,3.12384e-02,-9.86290e-02,-4.86993e-02,-2.62668e-01,5.10692e-01,-2.73165e-01,-1.25782e-01,7.22721e-02,-1.94925e-01,1.00624e-01,-2.67430e-01,-3.28451e-01,
-1.05407e-01,1.31402e-01,-4.20259e-01,9.24930e-02,-1.74476e-01,2.87141e-01,4.17344e-02,4.12293e-01,-9.96323e-02,-3.71616e-01,2.11700e-01,-3.66302e-02,-4.99338e-02,2.78911e-01,1.25072e-01,
-1.64174e-02,4.14374e-01,3.14485e-01,4.53427e-02,-2.39557e-01,-5.63401e-02,-2.08828e-01,-3.97967e-01,-5.07567e-02,-5.52810e-02,-8.39155e-02,3.42801e-01,1.95772e-01,-2.68297e-01,7.34744e-02,
7.62968e-03,-2.54629e-01,-2.58377e-01,-2.01361e-01,-1.91747e-01,5.27972e-02,-4.72766e-01,-2.16963e-01,8.36306e-02,1.41413e-01,2.53909e-01,1.28973e-02,-1.53027e-01,-1.34817e-01,9.80931e-02,
-2.80902e-01,2.26777e-01,1.06135e-02,-2.21894e-01,-1.38181e-01,5.37357e-02,-2.01774e-01,-1.56548e-01,5.07196e-02,-4.28614e-01,-2.23810e-01,3.07302e-01,1.53519e-01,-3.63775e-01,-8.18118e-02,
1.89110e-01,2.22346e-01,3.95213e-01,-3.61676e-01,-9.41810e-02,4.12249e-02,-3.34204e-01,3.09049e-01,2.89955e-02,8.96922e-02,1.28159e-01,2.43367e-02,3.44080e-01,2.61766e-01,8.82050e-04,
1.89588e-01,5.57505e-02,1.76245e-02,-1.68185e-01,4.27308e-02,-2.12423e-01,1.87585e-01,-2.28209e-01,6.60142e-02,-2.05889e-01,2.78232e-01,2.62252e-01,-3.10653e-01,7.18231e-02,1.84791e-01,
-1.34529e-01,2.52308e-01,-2.66675e-01,-3.44501e-01,-2.93882e-02,1.24855e-01,2.92798e-01,-7.34533e-02,2.49650e-01,-8.83765e-02,3.97812e-02,-3.08951e-01,3.86257e-01,3.29500e-01,-1.69828e-01,
8.60204e-02,-2.00253e-01,-1.93974e-01,1.65505e-01,-1.17147e-01,-1.59994e-01,-1.51726e-01,-1.60552e-01,2.28788e-01,-1.35445e-01,7.59813e-02,-3.79770e-01,-1.05196e-01,-3.68184e-02,-2.67549e-01,
3.00767e-01,-4.02833e-02,-2.61285e-01,1.78907e-02,-9.21442e-02,1.59060e-01,-1.92049e-01,2.56855e-01,-2.18865e-01,-1.91584e-01,-2.24044e-01,4.06037e-01,-3.12145e-01,-2.26044e-02,-1.08152e-01,
-1.22747e-01,-2.10348e-01,2.95641e-01,3.27310e-01,3.03924e-01,3.92663e-01,9.71225e-02,-1.21483e-01,-2.06133e-01,8.34145e-02,-1.52218e-01,7.13830e-02,-1.50451e-01,-1.93582e-01,-1.81788e-01,
-1.98255e-01,-3.54073e-01,1.24736e-01,-2.27677e-01,3.54266e-02,1.76012e-01,2.95378e-01,1.71093e-01,-7.49795e-02,-1.06175e-01,-1.51728e-01,2.04361e-02,4.74184e-02,-3.96914e-02,1.63923e-01,
2.90999e-01,-3.19431e-01,-2.69876e-01,4.38741e-02,2.83919e-01,-6.17884e-02,2.73885e-01,2.66035e-01,3.56038e-02,-7.85045e-02,3.10828e-01,1.42743e-01,2.19354e-01,-2.04173e-01,-1.62697e-02,
-2.39838e-01,-3.28627e-02,3.25370e-01,-8.13336e-02,-8.79598e-02,3.04899e-02,-1.37491e-01,1.32261e-01,-1.96673e-01,1.41373e-01,7.00721e-02,2.14083e-01,2.57337e-01,-2.17224e-01,-1.73660e-01,
-3.01939e-01,1.24968e-01,3.42174e-01,-2.06720e-04,-2.21058e-01,-3.34268e-01,-4.99661e-04,3.29752e-01,-1.34650e-02,-3.48689e-01,2.21619e-01,-2.55589e-01,2.10110e-01,4.51398e-02,2.21559e-01,
2.33082e-02,-1.24265e-01,-9.67428e-02,-4.09860e-02,-2.53311e-01,-2.88564e-01,2.26250e-01,-3.05215e-01,2.34628e-02,8.02193e-02,1.17697e-02,-6.68391e-02,1.03696e-01,-6.70833e-02,-1.21767e-01,
3.37176e-01,1.49547e-01,-8.37720e-02,1.10337e-01,5.18583e-02,-6.36495e-02,2.36344e-01,2.46203e-01,2.10439e-01,9.62848e-02,5.64264e-02,1.37705e-01,-1.55608e-01,-1.71199e-01,-1.59131e-01,
7.67807e-04,-3.14452e-01,-3.14610e-01,-1.23442e-01,1.83211e-01,-1.70566e-01,3.61489e-01,-2.59861e-01,-1.91947e-01,2.63234e-01,-1.55799e-01,-2.69586e-01,2.38448e-02,9.95530e-02,-1.15423e-01,
-2.58510e-01,-1.02861e-01,-1.88329e-01,1.76595e-01,-2.86162e-01,1.79407e-01,2.26369e-01,2.98341e-02,2.39832e-02,-2.33413e-01,2.95598e-01,-7.50719e-02,3.60022e-01,1.40845e-01,-2.02064e-01,
3.92674e-02,-3.95881e-01,-3.45978e-01,1.94091e-01,-1.94922e-01,-1.73944e-01,-1.74576e-01,-1.94097e-01,-1.06548e-01,1.18025e-01,-2.64829e-01,-2.63567e-01,-1.71195e-01,-6.74217e-02,5.49559e-02,
-1.07472e-01,2.07360e-01,3.25977e-02,-1.41623e-01,1.99015e-01,-3.14084e-01,-1.35797e-01,3.92222e-02,-6.44514e-02,-2.69486e-01,-1.67402e-01,-1.12604e-01,1.40345e-01,1.36687e-01,-2.61594e-01,
3.20213e-01,-2.09515e-01,6.06704e-02,-1.18354e-01,1.55891e-01,-2.34921e-01,4.01810e-02,1.52231e-01,-1.57466e-01,-1.15866e-01,-2.04830e-01,3.92653e-02,-1.69006e-01,-2.88259e-01,3.01187e-01,
-4.89892e-02,1.98635e-01,5.79949e-02,3.37662e-01,-1.26437e-01,-3.04285e-01,3.33685e-02,-1.28092e-01,-1.39929e-01,4.10891e-02,-3.73364e-01,-3.32715e-02,-1.52503e-01,1.70320e-01,2.73415e-01,
-2.71071e-01,3.31652e-01,-2.74618e-01,1.86792e-01,-2.68545e-01,-1.61971e-01,-2.19335e-01,-1.52384e-01,1.83083e-01,3.19505e-01,-1.68252e-01,-8.11777e-02,1.79875e-01,-3.59037e-01,2.00509e-02,
-1.86519e-01,1.28431e-01,-6.61953e-02,-1.95498e-01,2.22496e-01,2.08090e-01,-1.51454e-01,1.03167e-01,4.31330e-02,-2.60675e-01,-2.90426e-01,-6.09564e-01,-2.80553e-01,-2.35305e-01,1.27529e-01,
3.51067e-01,2.92384e-01,2.85778e-01,-9.44801e-02,-7.21875e-02,1.00302e-02,-1.01557e-01,-2.78011e-01,-2.07126e-01,2.75491e-01,-1.77997e-01,-1.95575e-02,1.03133e-01,-2.27581e-01,-6.11236e-02,
1.32855e-01,2.21898e-01,2.97529e-01,2.87114e-01,-1.74719e-01,-9.94376e-02,3.59014e-01,2.80237e-02,8.08358e-02,2.05219e-01,1.46819e-01,1.01103e-01,-2.58558e-01,3.60567e-01,-2.83891e-01,
1.91036e-01,3.68815e-01,1.56041e-01,1.76866e-01,6.02596e-02,-9.22202e-02,-2.52212e-01,7.41297e-02,1.41024e-01,-2.16381e-01,-4.52418e-02,-2.81245e-01,9.02825e-02,1.71542e-01,-5.72319e-02,
-2.10704e-01,-1.19459e-01,2.82027e-01,8.33438e-02,2.15101e-01,3.05280e-01,9.99163e-02,-6.37971e-02,-3.30657e-01,1.36097e-01,-3.38682e-01,7.44548e-02,1.82786e-02,2.13215e-01,1.75417e-01,
-2.59930e-01,-9.97421e-02,-1.82181e-01,2.41476e-01,-1.61247e-01,3.15168e-01,-1.15199e-01,-8.07837e-02,-2.47104e-01,-1.21539e-01,4.78621e-02,1.92905e-01,1.13419e-01,-2.70331e-01,5.68773e-02,
-1.46697e-01,2.73399e-01,1.03995e-01,1.57760e-01,-2.06344e-01,2.36745e-01,3.53572e-01,2.62869e-01,-1.34177e-02,-2.25017e-01,1.04350e-01,5.12163e-02,-2.78226e-01,-1.92320e-01,-2.93545e-01,
2.18941e-02,3.95295e-02,-2.72029e-01,-3.06003e-01,-2.21434e-01,2.99186e-01,-1.98454e-01,3.57150e-01,8.79822e-02,1.80579e-01,1.59788e-01,1.26716e-01,-1.69328e-01,1.75340e-02,-2.66718e-01,
1.35779e-01,1.06626e-01,3.58402e-01,-9.57451e-03,1.86037e-01,2.38705e-02,-2.36561e-01,-5.53343e-02,-2.53550e-01,-5.15244e-02,-2.82775e-01,-4.85002e-01,-2.95689e-01,2.02726e-02,-1.08677e-01,
3.39792e-01,2.10616e-01,-3.27141e-01,1.80744e-01,1.33832e-01,-1.69732e-01,6.52339e-02,-2.00715e-01,1.69520e-02,-2.81424e-01,-2.07165e-01,4.53126e-01,-2.79616e-01,1.65756e-01,-1.93860e-01,
-1.43253e-01,-4.72422e-02,-2.51549e-01,2.26417e-01,1.15290e-01,-1.22366e-02,-2.11494e-01,-1.43699e-02,-1.14954e-01,-2.67511e-01,-1.35740e-01,-2.19121e-02,-2.76536e-01,-3.38998e-01,-3.32020e-01,
-9.25365e-02,
-2.33053e-01,
-2.57406e-01,
8.54643e-02,
1.34754e-01,
-1.40409e-01,
4.14965e-04,
4.78858e-02,
1.38080e-01,
3.52890e-01,
5.52545e-02,
-2.10534e-02,
2.27025e-01,
2.95736e-01,
7.47648e-02,
8.39278e-02,
2.00693e-02,
-2.26626e-01,
3.87985e-02,
2.47248e-01,
1.64006e-01,
4.96124e-02,
2.54152e-01,
2.24130e-01,
1.38923e-01,
1.23520e-01,
1.05201e-01,
-1.02249e-01,
2.63068e-03,
2.17735e-02,
2.85646e-01,
-1.19661e-01,
2.84820e-01,
-1.53099e-01,
2.98613e-02,
6.05077e-02,
2.88882e-01,
-1.22298e-01,
2.22619e-01,
1.27628e-01,
2.82578e-01,
-3.21795e-02,
-1.15553e-01,
3.46690e-02,
-2.51743e-01,
1.51808e-01,
1.39884e-01,
4.43539e-03,
-9.44450e-02,
-1.84049e-01,
-6.14229e-02,
2.61149e-01,
2.18864e-01,
2.22527e-02,
2.13019e-02,
1.14759e-01,
2.79458e-01,
1.15146e-01,
3.96265e-02,
-1.69965e-01,
1.53466e-01,
2.58346e-01,
2.47929e-01,
-1.27024e-01,
1.24339e-02,
-1.03154e-01,
-8.42242e-02,
-1.64388e-01,
9.16294e-02,
-7.45269e-03,
-1.53508e-01,
-1.96923e-01,
1.27026e-01,
2.53786e-02,
-2.34606e-01,
2.29716e-01,
2.39801e-01,
1.29742e-01,
4.46962e-02,
-3.90433e-02,
1.10438e-02,
2.34572e-01,
-1.01753e-01,
2.37573e-01,
1.21379e-01,
1.12205e-01,
2.19845e-02,
1.14822e-01,
-2.02401e-02,
1.62072e-01,
4.68243e-02,
2.04647e-01,
-1.69360e-01,
2.61081e-01,
-1.31451e-01,
5.17004e-02,
-3.86339e-02,
-8.64552e-02,
2.23298e-01,
2.76554e-01,
-1.30231e-01,
-6.53196e-02,
-1.03835e-01,
6.34184e-02,
1.44560e-01,
1.76055e-01,
-7.65372e-02,
-2.69111e-01,
-3.75657e-02,
2.61487e-01,
2.68081e-02,
-7.81123e-02,
2.35995e-01,
1.29207e-01,
-4.40056e-02,
1.58859e-01,
1.71767e-01,
8.15693e-02,
-1.80560e-01,
6.70846e-03,
6.44692e-02,
1.21509e-01,
2.14164e-01,
1.21874e-01,
9.09794e-02,
-2.28413e-01,
-1.60669e-01,
2.36923e-01,
-6.78880e-02,
-8.49853e-02,
1.92800e-01,
-8.00744e-02,
3.55890e-01,
1.72223e-01,
-1.46371e-02,
-7.74576e-02,
-1.09687e-02,
1.08512e-01,
-3.54440e-02,
3.07861e-01,
-9.01014e-02,
2.30349e-01,
-1.72529e-01,
-2.64581e-03,
-1.93022e-01,
-1.42577e-01,
-9.42465e-02,
9.73941e-03,
2.27809e-01,
-1.29114e-01,
5.44900e-02,
2.19903e-01,
8.57797e-02,
-1.82531e-01,
7.14336e-02,
1.44956e-02,
2.96034e-01,
1.54715e-01,
2.19393e-01,
-1.48961e-01,
1.86319e-01,
6.06255e-02,
-6.18941e-02,
-1.31401e-01,
1.70000e-01,
-1.36249e-02,
8.72585e-03,
-1.42390e-01,
-2.32772e-01,
1.40687e-01,
-1.04023e-03,
-3.28373e-02,
-1.26445e-01,
-9.99385e-02,
2.46183e-01,
1.72049e-02,
-6.83910e-02,
-1.55088e-01,
1.77916e-01,
-7.81609e-02,
7.79219e-02,
2.00411e-01,
2.21705e-01,
-2.07102e-01,
2.73843e-01,
3.29226e-02,
1.55708e-01,
1.57869e-01,
-3.22582e-01,
1.25090e-02,
4.13532e-02,
1.47393e-01,
2.11525e-01,
4.54228e-02,
2.37416e-01,
-8.62531e-02,
5.20398e-02,
-1.06289e-01,
6.75419e-02,
1.83551e-01,
-3.71918e-02,-1.08393e-01,-6.54149e-02,-7.09597e-02,2.15700e-02,9.15552e-03,-9.45597e-02,4.96529e-02,-5.20172e-02,6.38511e-02,2.14090e-02,-1.25843e-01,1.26310e-01,1.41729e-01,6.26542e-02,-8.15143e-02,-3.89564e-02,1.23567e-02,-9.04837e-02,4.66695e-03,4.80309e-02,2.11053e-02,1.37123e-01,3.09257e-02,-6.54141e-03,3.13567e-02,-8.31780e-02,7.20404e-02,-3.99349e-02,9.97985e-03,-3.93387e-02,-2.94287e-02,1.00100e-02,1.78966e-02,-3.18104e-02,4.97208e-02,-1.18687e-01,-1.76495e-01,1.20409e-01,-4.04508e-02,-1.54832e-02,1.08141e-01,-1.22454e-01,-4.51239e-02,-3.57298e-02,-6.22843e-02,-2.75956e-02,-9.36066e-02,-8.15975e-02,6.51520e-02,-1.03674e-02,6.14509e-02,-4.84082e-02,-5.88364e-02,1.96595e-02,2.85228e-02,5.99923e-03,4.61650e-02,1.02165e-01,-6.82055e-02,7.96218e-03,1.60995e-03,-1.23245e-02,1.29567e-02,1.21481e-01,8.10558e-02,-4.58602e-02,4.03279e-02,-1.71895e-03,1.12532e-01,4.69730e-02,-1.53123e-01,9.10723e-02,6.03559e-02,-3.81715e-02,1.35016e-02,-1.29498e-02,-9.34190e-02,6.29561e-02,-1.38306e-01,-6.55291e-02,1.04407e-01,-1.67134e-01,6.21470e-02,1.19414e-01,-9.07721e-02,2.17606e-02,3.45539e-02,-4.35242e-02,8.13489e-03,-4.38585e-02,-6.91067e-02,-8.21671e-02,6.41159e-03,9.85108e-02,3.72957e-02,1.70410e-01,-1.23234e-01,-6.62707e-02,-6.18589e-02,1.20583e-02,-7.94836e-03,-5.63594e-03,-5.01846e-02,6.52854e-03,5.41982e-02,1.43035e-01,5.64284e-02,-5.94434e-03,9.68183e-02,9.22323e-02,-6.84940e-02,-6.02285e-02,2.70252e-02,5.78399e-02,4.19934e-02,1.49762e-02,9.61711e-02,1.12295e-01,6.25810e-02,8.20692e-02,1.33482e-01,-5.15478e-02,3.53942e-02,-5.96487e-02,-4.81646e-02,7.40468e-02,6.06087e-02,7.20991e-02,-2.32427e-02,-4.96307e-02,6.24471e-03,5.92918e-02,-1.63206e-01,-2.05006e-02,-5.40760e-02,-6.18114e-02,7.86166e-02,1.17733e-02,4.74702e-02,4.29573e-02,-3.30987e-02,1.57266e-01,3.31977e-02,-1.66617e-02,-5.30854e-02,8.60995e-02,2.78059e-02,1.63592e-01,-4.91239e-03,1.46348e-01,-1.13593e-02,1.26628e-01,-5.80194e-02,3.69100e-02,-4.43572e-02,9.81379e-02,1.23336e-01,-2.37263e-02,-5.65141e-02,2.31690e-03,1.59871e-02,2.01022e-02,2.52441e-02,-9.86231e-02,-7.23349e-02,-1.59248e-02,-7.33247e-02,1.87505e-02,-6.91397e-02,-2.01785e-02,4.39280e-03,2.18250e-02,-8.24058e-02,5.02758e-02,1.04759e-01,-5.28122e-02,-9.36421e-02,2.40246e-02,-3.79930e-02,-1.08949e-01,1.31034e-01,-5.19446e-02,-1.13498e-01,-2.13703e-02,5.84832e-02,7.71069e-02,2.47848e-02,1.65068e-02,3.22956e-02,7.31875e-03,3.50134e-02,1.03695e-02,5.29381e-02,2.95197e-02,-6.98156e-02,-5.66307e-02,-3.56885e-02,5.57714e-02,3.33798e-02,
1.96564e-02,-7.53917e-02,-4.94379e-02,-1.04691e-01,2.69862e-04,-1.07582e-02,-2.60255e-02,3.99860e-02,-5.70945e-02,1.28006e-01,3.71693e-02,2.24785e-03,2.37377e-02,3.16582e-02,-3.31320e-02,-7.75106e-02,4.76616e-03,-2.26700e-02,9.99935e-02,1.86066e-02,-1.14025e-01,-5.97966e-02,1.12779e-01,-7.87246e-04,-4.04368e-02,-3.44876e-02,4.53068e-02,-5.51176e-02,-5.62919e-02,4.48348e-02,2.95826e-02,-1.48465e-02,1.11781e-01,-2.57209e-02,-4.01327e-02,-2.55863e-02,-5.28713e-02,-4.82263e-02,1.11264e-01,1.10408e-01,-3.82527e-03,4.26209e-02,-8.88986e-02,9.39875e-02,1.41346e-02,7.10455e-02,5.94934e-02,1.16890e-02,4.15485e-02,6.56837e-02,-8.20975e-03,1.02164e-01,1.20279e-02,8.87818e-02,-4.22906e-02,2.77799e-02,1.51177e-01,2.06130e-02,6.62175e-02,2.67888e-02,6.06818e-02,-3.46107e-03,6.90769e-02,-7.47546e-02,2.57008e-02,2.43455e-02,-2.26521e-02,-1.06023e-02,-8.48167e-02,3.22836e-02,-1.17262e-01,9.81932e-04,4.72769e-02,9.30128e-02,-1.24828e-01,-6.17352e-02,5.42094e-02,-7.70568e-02,-3.51906e-02,2.13686e-03,9.09607e-02,3.77188e-02,-7.01600e-02,-9.34346e-02,-6.68874e-04,1.99384e-02,5.02930e-03,9.23982e-02,-2.32813e-02,-1.54338e-01,-1.15419e-01,-1.03120e-01,5.88388e-02,5.51924e-02,-2.37764e-02,6.44822e-02,-5.29967e-02,-5.78077e-02,1.38975e-02,1.25876e-02,1.24401e-01,-4.70011e-02,1.80148e-01,3.97312e-02,1.94170e-02,1.01240e-02,-5.55732e-02,2.43663e-02,-8.11309e-02,4.57861e-02,3.23594e-02,6.83664e-02,-3.28005e-02,-4.19379e-02,8.80076e-02,6.69175e-02,-2.31754e-02,1.33758e-01,-1.20631e-01,2.48418e-02,2.39176e-02,2.54012e-02,-9.17909e-02,6.05787e-02,-5.74810e-03,6.23657e-02,1.55115e-01,3.96900e-02,8.02743e-02,4.22244e-02,2.34364e-03,1.17490e-01,-2.78336e-02,-3.83559e-02,1.06882e-01,-1.13463e-02,-5.00726e-02,-1.27208e-02,-5.26824e-02,8.31088e-03,4.53502e-02,-3.88735e-03,5.41574e-02,-1.54699e-02,6.52987e-02,-8.73518e-02,5.02103e-02,1.02749e-01,9.65335e-02,-1.16193e-01,7.00572e-03,1.00414e-01,-4.03757e-02,-4.35824e-02,7.23315e-02,-4.97893e-02,-1.49667e-02,3.59607e-02,3.53880e-02,-5.41011e-02,7.81607e-02,5.50259e-02,1.90354e-02,1.12185e-01,1.12631e-02,3.99512e-02,1.17638e-03,7.02980e-03,-1.61262e-02,2.98022e-02,1.02471e-01,2.06646e-02,-9.18322e-02,1.15872e-01,8.21973e-02,-4.88945e-02,1.68455e-02,-6.74660e-02,3.06514e-02,-9.04261e-02,1.24671e-02,9.50645e-02,-3.32392e-02,4.18210e-02,8.78806e-02,-1.32410e-02,5.75172e-02,8.12088e-02,1.02856e-01,3.54721e-02,1.34127e-01,3.73293e-02,1.25186e-01,7.41323e-02,-7.28934e-02,-2.38639e-02,-1.66766e-02,1.39375e-01,9.57222e-02,-2.78546e-02,
-6.98367e-02,-6.69971e-02,-2.48196e-02,-2.06102e-02,-6.09076e-02,-1.20196e-01,2.86532e-02,1.36419e-01,1.17561e-01,8.90818e-02,3.78580e-02,9.31645e-02,1.10002e-01,6.30940e-03,-2.79718e-02,4.95848e-04,1.41401e-02,-7.91462e-02,-7.06061e-02,-3.21612e-02,3.36174e-02,-1.08274e-01,-9.58955e-02,1.90788e-02,5.22343e-02,2.57084e-02,-3.19916e-02,1.46088e-01,-2.83837e-02,1.08049e-02,-8.90811e-03,-1.19697e-01,-4.71701e-02,-7.52310e-02,5.51747e-02,-4.78366e-02,-5.15089e-03,-5.40996e-02,-7.01442e-02,-1.71528e-02,4.37571e-03,1.14111e-01,-6.08735e-02,1.03884e-01,1.25761e-01,1.63309e-01,-7.46462e-02,8.44489e-03,-3.89305e-02,1.26641e-01,-3.92794e-02,-5.51720e-02,1.03812e-01,-4.49316e-02,-3.35681e-02,1.20064e-01,-6.19102e-02,3.54955e-02,-3.73421e-02,2.21453e-02,1.24514e-01,1.49099e-01,1.21476e-01,-1.14253e-01,-9.47254e-02,-3.53664e-02,-1.03475e-01,-8.25666e-02,-1.03083e-01,1.30837e-01,7.52292e-02,-2.39356e-02,3.57009e-02,1.57441e-01,5.16324e-02,1.34513e-02,8.81998e-02,-1.32729e-01,1.00404e-02,-2.99981e-02,-2.76388e-01,6.89068e-02,1.15053e-02,-6.59580e-02,1.01194e-01,1.23416e-02,2.47076e-02,-4.85433e-03,-3.36483e-02,1.49738e-02,-7.21583e-02,6.45743e-02,-1.66393e-02,7.14513e-02,-1.89489e-02,-2.18553e-02,6.35395e-02,-8.62060e-02,-1.05485e-01,-3.76981e-02,-3.44293e-02,-1.58787e-01,4.66516e-02,7.81207e-02,1.31496e-02,5.51176e-03,-6.86844e-02,-4.45077e-02,-6.17623e-02,5.73742e-02,3.74316e-02,2.37489e-02,-7.05802e-02,1.54259e-01,-3.25546e-02,1.01022e-02,-7.66241e-02,-8.38524e-03,-1.02729e-01,8.27979e-02,-6.00123e-02,-6.69246e-02,-2.60482e-02,6.74827e-02,-9.46704e-03,4.32768e-02,-1.12819e-01,3.00303e-02,-9.06314e-02,5.27523e-02,-3.98267e-02,3.11292e-02,1.25591e-01,1.06097e-01,4.98627e-02,5.56279e-02,1.38060e-02,-1.04901e-01,1.31809e-01,1.56937e-01,-4.44604e-02,1.10465e-01,-3.22200e-02,4.75353e-02,-2.25195e-02,-3.53916e-02,8.88984e-02,-2.88645e-02,1.12452e-01,4.99337e-02,1.00041e-01,9.07952e-02,2.91299e-02,-1.70299e-01,8.08691e-02,-3.01084e-02,1.77240e-01,3.18654e-02,6.48757e-02,-4.93276e-02,-1.50512e-01,6.08804e-02,3.43787e-02,-1.80493e-02,5.43587e-02,-1.18613e-01,1.96605e-02,-5.90596e-02,-4.98986e-02,3.66569e-02,-6.90259e-02,-1.20036e-03,-1.30812e-01,-6.91096e-02,-5.45513e-02,1.28146e-01,-3.33594e-02,-8.86722e-02,7.33794e-02,4.65255e-02,2.85100e-03,-2.97242e-02,-2.68431e-02,-2.95516e-02,-1.04937e-01,6.60299e-02,7.17717e-02,1.26618e-01,-8.63359e-02,9.39498e-02,-7.40953e-02,5.93039e-02,5.97343e-02,1.34044e-01,4.73007e-02,2.66130e-02,-1.29274e-01,-1.07563e-01,7.71536e-02,-7.04468e-02,
-4.08368e-02,9.66279e-02,6.42204e-03,-6.07277e-02,7.40492e-02,5.67121e-02,9.45881e-02,1.34168e-02,-1.09816e-02,-1.03110e-01,-1.54138e-02,-2.26183e-02,1.21297e-02,-1.45334e-02,6.26373e-02,-1.04616e-01,-6.21721e-02,-1.11181e-02,-4.09889e-02,-4.56638e-02,1.32037e-01,-3.48308e-02,-2.68809e-02,7.61663e-02,3.82996e-03,6.24360e-02,5.90008e-03,6.05278e-02,1.00014e-01,-1.03212e-02,-1.68565e-02,4.67759e-02,2.09907e-02,1.71957e-02,-1.09862e-01,1.13266e-01,9.49017e-02,8.50863e-02,-6.06104e-02,-2.51491e-03,-2.68013e-02,-8.81162e-02,9.58165e-02,-8.87781e-02,-5.97369e-02,1.80402e-02,-7.71372e-02,7.18369e-02,2.25272e-02,2.02507e-02,-2.12008e-02,3.27803e-02,1.56769e-02,-1.36014e-01,1.38472e-01,4.65827e-02,-7.70268e-02,-4.47372e-02,-1.01660e-01,9.97123e-02,6.64014e-02,3.08821e-02,-5.51714e-02,5.05398e-02,-3.90567e-03,5.88403e-02,1.39467e-01,1.14230e-01,4.09865e-02,5.11386e-02,1.67764e-01,-2.08315e-02,2.74357e-02,1.96286e-02,1.69880e-01,6.30852e-02,-2.54725e-02,-2.97318e-02,-5.35561e-03,-1.76931e-02,-7.16544e-03,-1.86045e-02,-6.44578e-03,8.16631e-02,-1.63841e-02,-4.66473e-02,9.98283e-02,-6.47558e-02,1.38048e-01,8.22936e-02,7.80464e-02,5.99573e-02,-1.52402e-01,1.07328e-01,4.50750e-03,-9.88725e-02,1.48216e-01,-8.62558e-03,-9.07941e-03,-2.10559e-02,-2.48314e-02,5.31372e-02,-7.42043e-02,3.24719e-02,1.31420e-02,1.28173e-01,1.37178e-01,1.21894e-01,2.09496e-01,-1.13753e-03,5.89708e-02,-1.68815e-02,-4.77570e-02,1.24961e-01,-8.03878e-02,-9.80333e-03,1.12882e-01,-7.16753e-02,3.80556e-02,-1.16143e-01,-3.93050e-03,-3.68346e-02,1.44231e-01,1.09082e-01,5.29754e-02,-4.65107e-02,-9.06279e-02,6.44241e-02,-1.96093e-02,-2.00412e-01,3.61621e-02,-4.87437e-02,1.75275e-02,1.03072e-01,-2.23398e-02,-2.67328e-02,1.21135e-01,4.24688e-02,-2.55834e-02,2.88660e-03,-2.68500e-02,-5.48165e-02,1.56665e-01,-4.05735e-02,-1.03103e-01,7.33733e-02,8.19081e-02,-2.28378e-02,5.43190e-03,8.14735e-02,5.87495e-02,6.13739e-02,6.41771e-02,1.29217e-01,-4.68169e-02,-7.80070e-02,2.51829e-02,1.27458e-02,-3.61818e-02,1.68794e-01,9.84935e-02,-1.18231e-01,-4.07197e-02,-1.64265e-01,-5.84124e-02,1.09586e-01,-9.67088e-03,-6.40390e-02,8.85289e-02,1.73397e-02,-1.23399e-01,1.20964e-01,1.13675e-01,-6.52306e-02,-3.99411e-02,4.46308e-02,-1.18723e-01,1.92012e-01,-3.45158e-02,-8.53347e-02,-1.56466e-02,1.15989e-02,3.30865e-03,-1.09404e-02,-5.23989e-02,-3.24444e-03,-2.38653e-02,6.11429e-02,-1.39514e-01,-1.33823e-01,-9.50151e-02,7.81175e-02,1.53312e-02,-6.16818e-02,-6.49963e-02,1.18205e-01,8.11111e-02,-5.83732e-02,3.59334e-02,-1.71198e-02,
1.07533e-01,-5.41649e-02,-8.59152e-02,-3.66612e-02,1.02417e-01,7.16764e-02,-1.08806e-01,1.09340e-02,-4.45280e-02,-6.21979e-03,-8.96233e-02,-7.33377e-02,-2.16953e-02,8.59886e-02,1.63646e-02,-1.65825e-03,-1.60701e-02,3.22978e-02,-6.48227e-04,1.85440e-02,1.48353e-02,1.09062e-01,7.89041e-02,3.12521e-02,-8.46074e-02,3.65977e-02,-3.99162e-02,-1.41210e-01,-5.23753e-02,-4.37687e-02,2.45392e-02,-1.23966e-02,1.03534e-01,3.75200e-02,-2.47360e-02,3.49729e-02,2.88559e-02,-4.88704e-02,6.39243e-02,1.18773e-01,1.69144e-02,5.99173e-02,2.25323e-02,-2.76004e-02,-1.17710e-01,8.54135e-03,-7.12546e-02,3.65684e-02,-2.58680e-02,-9.48378e-02,-3.03200e-02,-1.17565e-02,3.00729e-02,-5.40834e-02,-6.80357e-02,-6.25372e-02,-4.62872e-02,-4.44221e-02,1.26842e-01,-6.58987e-02,5.34607e-02,4.86951e-02,3.96580e-02,3.49691e-02,1.11926e-01,8.50938e-03,5.31755e-02,2.59055e-02,1.43205e-02,-6.16058e-02,3.47824e-03,-5.17322e-02,1.22258e-02,-2.28806e-02,-7.37180e-02,1.13093e-02,-2.11401e-02,-8.50617e-02,4.83114e-02,-2.28665e-02,7.17686e-05,6.12267e-02,-6.08197e-02,-9.31067e-03,7.58600e-02,1.29893e-02,-5.09148e-02,1.23397e-01,2.59080e-02,-2.06411e-02,-3.31176e-02,4.99630e-03,8.07149e-02,3.02995e-02,1.26987e-01,3.61541e-02,8.48092e-03,-7.87367e-02,2.50687e-02,-7.96654e-02,1.17962e-01,1.51231e-02,2.66639e-02,-6.43741e-02,-3.00437e-03,-2.63618e-02,3.83829e-02,1.91829e-02,5.58200e-02,9.85433e-02,8.19415e-02,4.31983e-02,-1.09797e-02,1.13860e-01,3.55376e-02,1.05293e-01,7.94288e-02,1.13770e-01,1.05053e-01,3.97738e-03,8.31323e-02,5.00350e-02,-4.61109e-02,4.03940e-02,-4.43875e-02,5.51824e-02,9.01118e-02,8.99847e-02,8.47552e-02,-1.33513e-01,6.31304e-03,4.69769e-02,8.99698e-03,-9.76724e-02,8.64231e-02,-6.40401e-02,7.75536e-02,1.27923e-01,3.74216e-02,-2.03055e-02,4.81611e-02,-4.00464e-02,8.43652e-02,1.23447e-01,5.58562e-03,-3.78030e-02,2.82361e-02,3.56324e-02,1.49661e-02,-1.11366e-01,4.31336e-02,4.60715e-02,1.54194e-02,-5.34860e-02,1.90383e-02,6.73324e-02,5.79185e-02,7.72366e-02,7.07326e-02,-1.05906e-01,1.05787e-01,-1.48491e-02,2.78146e-02,1.64312e-02,-7.47059e-02,4.84743e-02,9.42039e-02,2.29694e-02,-6.51165e-02,-4.07626e-02,1.15321e-01,6.65278e-02,1.25512e-01,-2.36934e-03,1.41902e-01,-4.76662e-02,2.36290e-02,6.64134e-02,3.26939e-02,-3.94294e-02,1.73169e-03,7.31427e-02,-4.22378e-02,4.00307e-02,1.70826e-02,1.19627e-01,7.59824e-02,8.24536e-02,9.26310e-02,-4.35600e-02,5.23083e-03,-1.72470e-02,8.12718e-02,-1.19324e-01,4.21942e-02,-7.14304e-02,-7.21604e-02,1.43191e-01,9.73250e-02,6.75473e-02,
-9.18560e-02,1.46722e-01,1.49564e-02,1.42252e-03,1.01051e-01,-3.30350e-03,8.42847e-02,8.48493e-03,5.24666e-02,1.08627e-02,2.16288e-02,4.42060e-02,-2.21821e-02,-5.08091e-02,-4.48371e-03,-8.79526e-02,3.70660e-02,1.70175e-01,4.21952e-02,1.51542e-02,1.27644e-01,4.27316e-02,-6.39178e-02,8.36612e-02,1.00748e-01,6.14558e-02,1.17552e-02,3.20748e-02,1.83419e-01,1.77636e-02,-2.89178e-02,4.96052e-02,-6.21308e-02,1.84354e-01,6.49666e-02,8.33949e-02,5.85003e-02,4.46405e-02,-4.68958e-02,3.39861e-02,-1.09057e-02,-7.38226e-02,-7.59463e-02,2.33391e-02,1.55168e-01,8.46915e-02,-2.50106e-02,5.38841e-03,1.39522e-01,2.35572e-01,1.39476e-01,-4.79862e-02,-3.39723e-03,3.61474e-02,1.22603e-01,5.08550e-02,8.94992e-02,5.20110e-02,-1.05165e-01,1.93571e-02,1.78394e-02,7.92253e-02,-1.09225e-01,8.84347e-02,-6.51583e-02,2.63642e-04,-7.12520e-02,-7.62081e-02,-9.67799e-02,-4.44579e-02,-1.07869e-03,-6.14312e-02,8.89311e-02,8.14631e-02,4.70821e-02,-1.78334e-02,8.82704e-02,-2.83049e-02,1.33838e-01,3.52506e-02,9.91151e-02,2.59785e-02,1.51811e-01,-5.85910e-02,-3.40033e-02,1.57881e-02,1.69907e-01,-9.59043e-02,-1.05732e-01,1.38271e-02,-9.01643e-02,3.87933e-02,-1.02209e-01,1.34502e-03,-1.32830e-01,-6.77189e-02,1.27451e-03,8.26132e-02,-7.03160e-02,8.62643e-02,-1.35240e-01,-7.24269e-02,4.26117e-03,1.25349e-01,4.34978e-02,1.11612e-02,-1.73165e-03,1.41012e-01,5.88575e-02,-7.75280e-02,1.06618e-02,1.68838e-01,7.76678e-02,2.97640e-03,1.93445e-02,-2.81769e-02,-4.75746e-02,-5.42042e-02,-1.49085e-01,-1.79442e-03,4.21603e-02,-9.18126e-02,-8.58157e-04,6.59501e-02,1.70573e-01,-9.24881e-03,-1.02218e-01,-4.04888e-02,-3.36495e-02,1.65866e-01,1.09031e-02,1.71929e-02,7.28726e-02,4.92640e-02,9.19852e-02,1.51908e-01,-9.37387e-02,-1.12606e-01,-5.91480e-02,1.14464e-01,-9.88374e-02,6.30080e-02,4.76581e-02,-8.79954e-03,1.61050e-01,5.64503e-02,-4.37458e-02,-3.07611e-02,-9.97410e-02,1.10080e-01,-7.65974e-02,-3.74340e-03,-4.54821e-03,2.14517e-01,1.18866e-01,-3.98623e-02,1.55086e-02,-6.33171e-02,-1.91241e-02,2.36855e-01,-6.26294e-02,3.71241e-02,-4.83299e-03,-8.12489e-03,1.00868e-01,-1.64718e-02,-2.06876e-02,-2.63626e-02,4.76153e-03,1.04648e-01,1.47573e-01,8.93842e-02,-7.66416e-02,6.69250e-02,-1.06584e-01,7.51622e-02,2.18788e-02,1.26094e-02,-5.57155e-02,3.22548e-02,5.98682e-02,-3.89192e-03,-6.36736e-04,1.71365e-03,1.52255e-02,-7.47503e-02,-6.57387e-02,-7.46794e-02,-1.03900e-01,2.89949e-02,-1.62169e-02,1.24068e-01,-3.71579e-02,1.35383e-01,6.60486e-02,5.92646e-02,4.10471e-02,-6.17884e-02,-3.71350e-02,9.50829e-02,
-1.98496e-02,-2.63631e-02,-5.79489e-03,-3.65878e-02,-3.33036e-02,-7.65729e-02,-1.16936e-02,1.18378e-02,9.03413e-02,4.85630e-02,7.73055e-02,-1.01286e-01,-1.04399e-02,-2.27715e-02,-4.08892e-02,-8.20659e-02,7.27180e-02,-2.31891e-02,8.46573e-02,8.52151e-02,3.85952e-03,-5.40967e-03,8.12550e-02,-3.94566e-03,2.05429e-02,-8.54952e-02,-5.22565e-02,2.27577e-02,3.68871e-02,-6.15600e-02,1.81713e-02,-9.61610e-02,6.46204e-02,7.59528e-02,-3.89801e-02,7.01407e-02,1.96545e-02,1.53598e-02,-2.53473e-03,1.16045e-01,5.25306e-02,8.29595e-02,-1.28667e-01,7.76123e-02,9.04759e-02,5.58886e-02,2.20599e-02,-6.02822e-02,5.89228e-02,1.02978e-01,1.20620e-02,4.79584e-02,3.06938e-02,-5.04274e-04,3.61457e-02,8.98062e-02,1.22360e-01,5.99128e-02,4.27567e-02,-4.28173e-03,4.92757e-03,8.95469e-02,2.17819e-02,2.98959e-02,1.15651e-02,7.80531e-02,-1.04136e-01,-1.84108e-02,-1.00009e-01,4.59545e-02,-1.19196e-01,-7.51303e-02,1.37507e-02,1.06173e-01,-1.73160e-01,-1.01877e-01,1.00420e-01,-9.81934e-02,1.64297e-02,3.54604e-02,7.03415e-02,-4.75499e-03,-5.87264e-02,-9.15717e-02,1.44471e-01,-1.85505e-02,2.05433e-02,5.84665e-02,-8.76958e-02,-1.54640e-01,-1.33823e-01,-9.59989e-02,-3.64120e-02,2.32917e-02,-9.61407e-02,6.99867e-02,1.53727e-02,2.09932e-02,-5.61784e-02,7.22607e-02,-5.46420e-03,-1.07316e-01,9.18897e-02,6.42981e-02,2.98690e-04,4.94232e-02,-6.42861e-02,1.74167e-02,-8.72435e-02,3.92271e-02,1.83779e-02,-4.82677e-03,-5.50966e-02,5.50426e-03,1.05634e-01,1.99493e-02,-1.35146e-01,3.46063e-02,-8.91529e-02,1.07629e-01,-3.12257e-02,4.03213e-02,-9.25010e-02,-1.73276e-02,1.00175e-01,2.01010e-02,5.19486e-02,5.52068e-02,2.69339e-02,1.93262e-02,6.73523e-02,6.49070e-02,7.33087e-02,4.01795e-02,1.70737e-03,-7.44355e-02,-6.13856e-02,3.09535e-02,3.81306e-02,7.56977e-02,-3.09055e-02,2.36903e-02,1.09377e-02,-6.33347e-02,-2.14463e-02,-1.28055e-01,7.89333e-02,8.98186e-02,1.01435e-02,-8.56407e-02,7.57521e-02,-3.77191e-03,8.12033e-02,-4.51297e-02,4.68768e-02,-1.98879e-02,3.00867e-02,6.44207e-02,8.16159e-02,-2.53621e-02,-2.06451e-03,4.73340e-02,1.45484e-02,7.31703e-02,-4.95108e-02,4.97817e-03,4.67108e-02,1.13090e-02,-5.54564e-02,3.64371e-02,6.95729e-02,7.79956e-03,-8.21289e-02,4.97200e-02,1.23223e-01,-1.09877e-02,7.35777e-02,-1.07525e-01,2.97039e-03,-1.30204e-01,6.73493e-02,-1.45658e-02,-4.03670e-03,2.68932e-02,2.53696e-03,2.65438e-02,2.49797e-02,2.32618e-02,4.37618e-02,-3.04509e-02,1.08962e-01,4.19207e-02,7.94071e-02,7.99755e-02,7.01879e-02,-3.82865e-02,-2.02149e-02,2.13128e-02,9.96632e-02,8.92385e-02,
7.41294e-02,-1.30208e-01,-2.03004e-02,9.40500e-02,2.76206e-02,-1.20915e-02,3.99190e-02,2.27201e-02,-2.15449e-02,9.50704e-02,6.26835e-02,4.09861e-02,3.78865e-02,1.88943e-01,-5.69251e-02,9.49265e-02,1.84425e-01,-7.37168e-02,1.77733e-01,6.31705e-02,-2.24461e-02,-1.76674e-01,6.96712e-02,-1.15299e-01,1.61136e-02,-1.63800e-01,-9.25517e-02,-4.48253e-02,2.35730e-03,9.72987e-02,1.14687e-01,-3.48162e-02,2.25971e-02,7.60409e-02,2.91286e-02,6.56040e-02,-7.84053e-02,-7.00049e-02,1.21091e-02,-1.05352e-02,-2.48095e-03,-1.44324e-03,1.43631e-01,4.70087e-02,8.95714e-02,1.58637e-02,-2.05292e-02,-4.58547e-02,-7.99783e-03,-8.40475e-02,9.38613e-03,-2.18661e-02,8.19857e-02,1.91035e-01,-4.46129e-02,1.52007e-01,1.54976e-02,-2.71167e-02,-1.65597e-02,-1.11942e-01,-1.33365e-01,2.18734e-02,9.51623e-02,2.39680e-03,-1.06253e-01,7.64068e-02,-1.83303e-01,3.05360e-02,1.52306e-01,-2.12585e-01,-6.17207e-02,-4.99369e-02,-1.02143e-01,-1.28119e-01,3.62199e-02,-9.26885e-03,5.20228e-02,5.16545e-02,1.09004e-01,-2.46726e-02,-1.15133e-01,-4.86650e-02,1.01990e-01,1.45258e-01,8.94010e-02,8.79536e-02,9.62638e-04,-8.58187e-02,-2.97599e-02,2.93701e-02,1.55671e-01,1.04495e-01,2.29042e-02,3.30145e-02,-6.64059e-02,-4.94571e-02,-4.05898e-02,-1.97120e-02,1.97519e-01,7.47206e-02,-1.92653e-01,9.34766e-02,-1.45286e-01,-6.95238e-02,-3.36516e-02,6.70234e-02,-7.22673e-02,-4.77618e-02,-1.49332e-01,8.35885e-02,-2.88152e-02,-1.54366e-01,5.20120e-02,-1.83612e-01,-1.00039e-02,-6.88723e-02,1.10036e-01,-1.29678e-01,5.69780e-02,1.71615e-02,5.25569e-02,-1.98635e-01,4.95544e-02,2.28259e-03,-7.77807e-02,-1.26590e-01,-1.46647e-01,3.69139e-02,-6.94435e-02,3.84535e-02,1.11093e-02,2.48706e-02,8.63216e-02,-2.66084e-02,9.95843e-02,-1.80129e-01,1.11807e-01,-1.28216e-02,9.64824e-02,1.18510e-01,-2.13525e-01,2.82702e-02,1.09572e-01,1.58033e-01,2.46276e-02,-6.61551e-02,7.60669e-02,4.21494e-02,-8.25939e-02,2.64836e-03,-4.86184e-02,7.00265e-03,-9.83114e-02,4.46098e-02,-1.40002e-01,7.52842e-02,1.47903e-01,6.78149e-02,1.57910e-01,3.41834e-02,2.93567e-02,-1.51512e-01,1.79438e-01,-1.04056e-01,4.50524e-02,8.31937e-02,1.68815e-02,-1.51432e-01,1.25967e-01,-6.33857e-02,-2.14984e-01,-5.39039e-02,-8.11080e-02,-1.56559e-02,5.24118e-02,8.31954e-02,-7.99854e-02,9.78174e-02,1.43028e-02,-7.38666e-02,-2.18791e-02,9.17399e-02,1.03909e-01,-1.49774e-03,1.09418e-01,-1.95703e-01,6.65848e-02,-1.25776e-02,-1.03537e-01,-4.40687e-02,-9.97844e-02,-8.74416e-02,-1.10791e-01,1.58264e-02,9.03967e-02,-1.33452e-01,-3.66114e-02,-1.72968e-01,-7.73889e-02,-4.37660e-02,
2.30290e-02,-1.01521e-01,-1.61100e-03,-2.09304e-02,3.29748e-02,-3.00893e-02,9.79188e-02,-1.04674e-01,1.22474e-02,1.07354e-01,-1.33905e-01,5.46787e-02,8.11339e-02,8.50711e-03,-3.95618e-02,-2.42146e-02,1.14902e-01,1.56404e-01,4.95960e-03,-3.98503e-02,-2.46403e-03,1.24348e-01,-4.67478e-02,-1.88145e-01,-1.08567e-02,-5.81295e-02,-3.28616e-02,-1.43499e-01,8.39300e-02,-8.31729e-02,2.41427e-02,-1.29204e-02,3.42918e-02,7.55176e-02,3.22176e-03,1.08066e-01,-7.63609e-03,-2.41488e-02,-1.29091e-01,-2.78590e-02,-3.08886e-02,-4.63947e-02,-3.83623e-02,7.38735e-02,-2.34270e-02,1.11151e-01,-3.22278e-02,-1.38660e-01,-5.23910e-02,-1.52549e-01,-6.10832e-02,-1.03808e-01,-2.18826e-01,9.42040e-02,8.88742e-02,2.05981e-01,3.97961e-02,-2.63119e-02,-4.14001e-02,-2.83790e-02,2.56298e-02,1.17336e-01,-1.23597e-02,1.34517e-01,-5.51279e-04,-6.54131e-02,-1.46485e-01,-4.04165e-02,-1.39735e-01,-1.73208e-02,-4.22455e-03,-1.63988e-01,1.12508e-01,1.33558e-01,-9.66732e-02,-1.33799e-01,1.12882e-01,-5.54352e-02,3.68215e-02,-5.32940e-02,-8.32234e-03,5.44391e-02,-2.47541e-02,-7.71833e-02,5.53601e-02,-3.11208e-03,-2.55438e-02,3.08576e-02,-2.14517e-01,-3.32145e-02,-1.20208e-01,-1.38866e-01,-9.65373e-02,1.73425e-02,-1.34146e-01,4.77197e-02,1.05537e-02,-1.66943e-01,-1.04390e-01,3.77726e-02,-6.22565e-02,-1.87123e-01,-4.06611e-02,9.75662e-02,9.37584e-03,6.74853e-02,-1.36337e-02,6.17107e-02,4.47482e-02,5.16806e-02,4.25997e-02,1.40959e-01,5.72013e-02,-4.84636e-02,6.85791e-02,4.41571e-02,-3.10666e-02,-1.48756e-02,-3.39129e-02,2.90002e-02,6.81904e-02,-3.18740e-01,-9.89228e-02,-8.16433e-03,4.41123e-02,-1.20125e-02,-2.37444e-01,-6.03364e-02,1.04891e-02,9.96691e-02,-9.52538e-02,5.04558e-03,-4.21710e-02,-3.61592e-02,1.34317e-01,-9.39601e-02,-2.18783e-01,-6.06737e-02,-4.64006e-02,3.10934e-02,-1.90866e-01,-1.33285e-01,4.16227e-02,-2.60919e-01,1.49620e-01,-4.47741e-02,-1.17380e-01,1.03725e-01,1.41868e-01,6.09884e-02,6.69406e-02,-1.28115e-01,3.00155e-02,8.01380e-02,6.59020e-02,9.07734e-02,1.02127e-03,6.46555e-02,7.71054e-02,-1.01512e-01,1.67296e-02,1.11702e-01,-1.32126e-01,-3.86912e-02,6.06011e-03,5.00210e-03,-1.59593e-01,-7.09245e-02,-5.84355e-03,6.46004e-02,1.58269e-01,8.77475e-02,5.18159e-02,5.56886e-02,-7.72870e-02,-4.01223e-02,1.21241e-02,-6.16719e-02,-2.90381e-02,-5.70207e-02,-4.54420e-02,8.38911e-03,5.33529e-02,-3.75486e-02,2.57679e-02,-8.46375e-02,1.31166e-01,1.38742e-01,3.93809e-02,-6.04468e-03,4.06833e-02,1.02945e-01,-9.09641e-02,7.62035e-02,-4.68915e-02,-2.57499e-02,-2.69632e-02,3.05444e-02,-4.05308e-02,-1.02603e-01,
-3.23569e-03,1.18855e-01,9.03166e-02,9.11694e-02,3.50273e-02,2.50975e-02,-4.79858e-02,-6.63666e-02,9.18412e-03,2.00961e-02,-5.70387e-02,4.98447e-03,-3.13183e-02,9.46318e-02,6.06255e-02,9.87115e-02,-3.72112e-02,-4.41054e-02,-6.24882e-02,-7.00269e-02,5.59500e-02,3.47916e-02,2.78511e-02,7.10697e-02,2.49661e-02,1.01837e-01,8.39771e-02,5.35756e-02,4.34352e-02,1.72264e-02,4.22199e-02,1.23281e-01,-1.03869e-02,-2.10205e-02,2.04028e-01,-8.83344e-02,6.82609e-02,8.95226e-02,4.55979e-02,-1.04389e-01,1.24170e-01,-6.23647e-02,1.06386e-01,7.53390e-03,-6.33789e-02,4.37220e-03,-2.06431e-02,3.86855e-03,6.24750e-02,1.09123e-02,2.43040e-02,-1.54787e-02,4.27378e-02,1.64207e-01,1.85887e-02,-3.85406e-02,-4.14793e-02,1.23152e-01,-8.55393e-02,-1.61996e-02,4.17166e-02,-7.40528e-02,-3.03124e-02,8.00381e-02,6.02276e-02,-3.29069e-02,8.47434e-02,7.74216e-02,1.36360e-01,-2.90066e-02,6.62306e-02,-1.60582e-02,1.01707e-01,-1.57940e-01,1.95286e-01,3.12258e-02,-2.88651e-02,6.78443e-02,4.06678e-02,-3.82783e-02,-7.86434e-02,-1.84002e-03,4.11732e-03,1.10431e-01,6.40928e-02,4.07385e-02,-9.98847e-02,-5.33550e-02,9.29756e-02,2.13286e-01,1.12961e-01,1.74931e-01,4.68503e-02,-2.41082e-02,3.14923e-02,1.35867e-02,3.09618e-02,1.00136e-01,1.40886e-01,-3.73080e-02,-7.45269e-02,1.85035e-01,-3.71514e-02,-2.27390e-02,8.53972e-02,2.62237e-02,1.88845e-01,-3.33315e-02,9.17370e-02,8.97307e-02,-1.37266e-02,-8.02063e-02,1.68035e-02,-2.08028e-02,-1.31312e-02,1.15073e-01,1.30162e-01,-4.85772e-02,1.10027e-01,2.73977e-02,1.27554e-02,2.28784e-02,5.11439e-02,-8.41746e-03,-4.65650e-02,7.97919e-03,-1.32634e-02,-4.75764e-04,-2.58470e-02,1.26155e-02,-2.28899e-02,1.59813e-02,1.88366e-02,1.26630e-02,2.54814e-02,8.91128e-02,6.52461e-02,-3.28087e-03,1.37244e-01,-8.56327e-02,8.64159e-02,-6.04466e-02,-1.37718e-02,1.69764e-01,-5.34596e-02,5.36464e-02,-9.59587e-02,-1.15479e-01,-1.25506e-01,8.78741e-03,-7.25913e-02,-6.61918e-02,-2.97297e-02,-3.55273e-02,6.44738e-02,1.53596e-01,2.22687e-02,-1.01255e-01,1.21804e-02,-6.84925e-02,2.07788e-03,-1.93075e-03,-2.04936e-02,-1.10597e-01,2.16072e-02,8.13188e-03,6.31416e-02,1.24016e-01,-3.27376e-02,2.78899e-03,-4.30897e-02,5.99231e-03,1.46344e-01,1.51468e-02,-1.38291e-02,2.57342e-02,5.59249e-02,2.20214e-01,-8.57901e-03,5.35065e-02,1.71840e-02,-4.82452e-02,2.47145e-03,1.87352e-02,-7.63165e-02,7.05156e-02,9.74369e-02,1.07127e-03,-5.16685e-04,1.08743e-01,-3.89542e-02,-8.12352e-02,-2.86581e-03,-3.27592e-02,1.01541e-01,5.37532e-03,1.09800e-02,-4.48963e-02,-6.25343e-02,1.45003e-02,
-2.43289e-02,1.12459e-02,1.31765e-01,5.48636e-02,8.20863e-02,7.99059e-02,6.05533e-02,-2.13753e-02,-2.88507e-02,-3.31514e-02,-1.22525e-02,-1.77890e-02,-2.09949e-02,-1.53165e-03,-1.83981e-03,5.69601e-02,1.16492e-03,2.73480e-02,-5.41128e-02,7.44142e-03,5.44103e-02,1.14547e-01,1.98990e-02,1.17479e-01,-3.82785e-02,1.23152e-01,7.74059e-02,-6.71874e-02,6.22896e-02,6.99832e-02,9.66955e-03,7.60343e-02,-5.86022e-02,-3.53363e-02,1.08302e-02,1.17216e-01,9.97183e-02,3.24388e-02,-7.53918e-02,3.26401e-02,-4.09369e-02,-5.50765e-02,1.07875e-01,-4.72752e-02,-6.61834e-02,-3.46553e-02,2.79202e-02,1.29178e-01,-1.33108e-02,-9.66849e-04,-5.93488e-02,1.17126e-02,4.08797e-02,-1.31305e-01,2.12904e-02,-7.33510e-02,-4.82337e-02,-1.11835e-01,-8.81385e-02,7.75480e-02,8.05547e-03,-5.86400e-02,-3.78724e-02,1.03284e-01,4.09848e-02,-9.65850e-02,1.18968e-01,1.28659e-01,9.24399e-02,-3.98371e-02,8.83144e-02,7.59379e-02,-3.68769e-02,-7.26800e-02,1.28776e-01,1.51560e-01,-7.91048e-02,3.81382e-02,-1.89078e-02,8.79214e-02,-6.29966e-02,-1.09908e-02,3.78216e-02,1.11840e-01,-4.62122e-02,7.94172e-03,-5.56283e-02,-2.00439e-02,1.44352e-01,1.19409e-01,1.30286e-01,3.95894e-02,8.97300e-02,3.21362e-03,1.14949e-01,-1.39516e-01,6.51639e-02,4.30404e-02,-5.10584e-03,2.45027e-02,-3.75705e-03,1.30257e-01,-1.60188e-02,-4.00221e-02,-3.23183e-02,5.60579e-02,5.84789e-02,5.94947e-02,1.32203e-01,-9.89239e-03,2.55729e-02,-7.58912e-03,7.63322e-02,2.59035e-02,-1.02808e-01,1.34082e-02,3.14416e-02,-5.64598e-02,1.97066e-01,-7.38846e-02,-2.06697e-02,-3.48964e-02,1.25368e-01,8.34723e-02,-4.09825e-02,-4.17753e-03,2.75152e-02,-1.19295e-02,-3.42310e-02,-6.88094e-02,2.81773e-02,-5.60142e-03,-2.65526e-02,-5.86694e-02,-3.98033e-02,-4.18509e-04,3.38099e-02,3.71761e-02,-5.26818e-02,8.01281e-03,-4.98782e-02,-9.72088e-02,3.68729e-02,2.69796e-02,7.04379e-03,8.14598e-02,1.28258e-02,2.50061e-03,-7.90970e-03,1.04848e-02,1.02282e-01,5.46384e-02,6.54245e-02,2.94625e-03,7.19974e-02,3.74665e-02,-4.39994e-02,-5.39237e-02,-1.08503e-02,6.08179e-02,7.21078e-02,-8.67001e-03,-4.59612e-02,-5.35329e-02,5.12966e-02,-5.90775e-03,3.53390e-02,1.04228e-02,-4.46008e-02,-3.43270e-02,3.21134e-02,9.18513e-02,1.31008e-01,2.50818e-02,3.82725e-02,-9.43886e-03,4.10763e-03,1.46499e-01,5.24546e-02,6.43466e-02,6.72358e-03,7.72969e-02,5.17256e-02,6.79030e-02,-7.82401e-02,8.00575e-02,-6.19233e-03,9.68310e-02,-9.87624e-02,-7.39316e-02,1.49102e-02,7.17246e-02,3.13980e-02,-8.12498e-02,-5.01913e-02,-4.33715e-02,3.21911e-02,5.67363e-02,7.24409e-02,2.98036e-02,
4.07234e-02,-7.61416e-02,-2.85556e-02,-9.18959e-02,1.28278e-01,8.43982e-02,-4.34562e-02,-5.63827e-02,-1.05112e-02,-7.61345e-03,-5.97610e-02,-1.02597e-01,1.63949e-02,4.92876e-03,5.92006e-02,-7.31274e-02,-6.83528e-02,-3.82328e-02,-3.56680e-02,-5.49298e-02,-1.59230e-02,5.02270e-02,9.20978e-02,6.01057e-03,3.66686e-04,6.16156e-02,1.29189e-02,-4.87159e-02,5.32281e-02,-1.10277e-01,3.19537e-02,4.24756e-02,1.14758e-01,-2.83254e-02,-5.77247e-02,1.31074e-01,6.48896e-02,5.16335e-02,3.95543e-02,6.92953e-02,-5.62611e-02,6.70069e-02,-5.20913e-02,-3.36851e-02,-1.09009e-01,3.56036e-02,4.01427e-03,2.06066e-02,3.52078e-02,1.69315e-02,-7.08100e-02,2.46734e-02,-4.35600e-02,-1.57402e-01,1.32257e-02,-2.77259e-02,2.61218e-03,5.27908e-02,1.69598e-02,4.93954e-02,1.09624e-01,3.40906e-02,-4.30356e-02,1.53235e-01,1.11576e-01,8.17233e-02,9.07067e-02,9.15118e-02,-2.21142e-03,-6.36546e-02,-1.34290e-01,-8.14415e-02,-2.80491e-02,8.30626e-02,-8.97018e-02,-5.02416e-02,1.16076e-01,-1.09916e-01,9.31720e-03,-1.75511e-02,7.03912e-04,3.38833e-02,-4.68432e-02,5.53315e-02,1.13565e-01,-5.74636e-02,-1.83822e-03,1.11724e-01,4.16400e-02,-5.72873e-03,-2.19309e-02,7.77432e-02,5.77913e-02,-6.45855e-02,4.39462e-02,4.65329e-02,5.86485e-02,-1.49943e-01,-4.67291e-02,-4.75132e-02,4.03540e-03,-1.33431e-02,-3.42107e-02,-6.19843e-02,-3.09977e-02,3.26013e-02,4.03934e-02,1.68534e-01,6.14200e-02,8.60736e-02,1.71184e-02,3.39899e-02,-6.37078e-02,1.08491e-01,-5.41826e-03,3.98874e-02,4.39736e-02,1.01406e-01,1.12216e-01,5.93210e-02,3.93585e-03,1.26738e-01,3.29423e-02,9.62249e-03,-5.44718e-03,1.26311e-01,7.11774e-02,1.08134e-01,7.44137e-02,-2.04779e-01,-6.01407e-02,-4.28935e-02,-4.62130e-02,-5.54288e-02,-8.43660e-02,-1.76075e-01,6.11535e-02,1.00165e-01,-1.61929e-02,-3.85793e-02,-1.74367e-03,-1.64429e-01,5.36319e-02,-1.34659e-01,8.61112e-03,-4.01093e-02,7.78631e-02,6.37452e-02,5.69182e-02,1.56666e-02,1.64255e-01,1.34878e-01,4.18834e-03,7.85150e-02,-7.38127e-02,-6.21324e-04,8.14411e-03,8.81150e-02,7.59318e-02,-6.11653e-02,4.76235e-02,-1.01576e-02,-1.29891e-01,-2.36160e-02,2.80297e-02,8.61163e-02,8.79847e-02,3.96540e-02,3.60347e-02,-1.36756e-02,9.29845e-02,9.53141e-02,3.33021e-02,3.18012e-02,1.13931e-01,-1.22827e-01,5.73829e-02,-5.09894e-02,-7.43037e-02,-1.16479e-01,6.41861e-02,5.74917e-02,-1.36408e-01,2.22685e-02,-1.67961e-01,6.25304e-02,-1.05667e-02,1.36842e-02,2.48581e-03,5.51348e-02,1.05657e-01,1.58650e-02,1.02545e-01,-3.21808e-02,6.79326e-02,3.47632e-04,2.48526e-03,5.20549e-02,1.29592e-01,2.09595e-03,
-1.47517e-02,6.62298e-02,-7.66267e-02,-6.94782e-03,-1.93047e-02,2.21486e-02,-3.36327e-02,-8.54029e-03,6.38155e-02,1.45310e-03,-5.24944e-02,-5.39464e-02,3.51291e-02,2.86550e-02,6.13138e-02,-4.63660e-02,-2.68159e-03,1.21207e-01,-8.03976e-03,1.11613e-01,4.39565e-02,4.57942e-02,9.34012e-03,1.00337e-01,-6.28997e-03,6.20733e-02,2.07443e-02,3.24706e-02,-8.80709e-03,-3.68328e-02,-7.47016e-02,6.89584e-03,-2.66076e-02,1.13587e-01,1.09715e-01,-5.44586e-02,3.00312e-02,4.31232e-02,-5.66571e-03,-5.45412e-02,3.47055e-02,4.81316e-02,-6.54620e-02,9.14368e-02,-4.29044e-02,-6.40747e-02,3.84624e-02,-7.39294e-02,3.84940e-02,2.60581e-02,6.62397e-02,7.77929e-02,-4.63607e-02,2.04375e-01,-1.18791e-02,1.06577e-01,1.83838e-02,1.42096e-01,-6.67027e-02,1.44460e-02,-8.01003e-02,-1.03691e-01,-4.64649e-02,-2.93594e-02,1.58121e-02,8.47041e-02,-1.54195e-02,2.19899e-02,6.30914e-02,3.14636e-02,4.20306e-02,-5.49116e-02,9.93724e-02,7.51624e-02,-7.03931e-02,-3.49471e-02,1.00681e-01,4.32247e-04,4.92660e-02,-1.00555e-01,-6.15515e-02,-7.78357e-02,5.25958e-02,8.46411e-02,1.22132e-01,6.61829e-02,1.35916e-01,1.34802e-02,-4.50750e-02,5.35144e-02,3.50744e-02,5.68090e-02,-1.80718e-01,1.79652e-02,-9.20630e-02,7.51392e-02,4.72521e-02,-9.81065e-03,-2.81912e-02,9.24872e-04,-1.31081e-01,1.40061e-02,1.27893e-02,-5.49770e-02,8.68439e-02,6.54648e-02,1.72245e-01,3.28016e-03,1.29312e-01,-6.44524e-02,-1.08897e-01,-4.12064e-02,5.62110e-02,4.77662e-02,-7.99836e-02,-3.04533e-02,-8.34421e-02,2.71114e-03,9.07214e-03,1.19340e-01,-2.16091e-02,1.08267e-01,1.18967e-02,-1.84708e-02,6.40143e-02,-3.02313e-02,-6.51917e-02,-3.40355e-02,1.27997e-01,1.05145e-01,-3.38249e-02,1.24858e-02,9.41690e-02,-6.59294e-02,3.42206e-02,2.00398e-01,-5.77865e-02,-3.95971e-02,1.30089e-01,6.77604e-02,-2.50365e-03,-3.20046e-02,2.54550e-02,9.00690e-02,-1.46026e-02,3.56236e-02,-1.80885e-02,-3.04980e-02,-5.91809e-02,-4.12659e-02,-1.61146e-02,-3.85017e-02,7.97189e-02,9.12529e-02,1.67942e-01,3.89923e-02,-1.76768e-02,-6.07916e-02,1.84326e-02,6.40365e-02,2.49586e-02,1.94910e-02,-1.39407e-01,-1.41768e-01,-3.86588e-02,-2.16564e-02,1.22322e-01,1.23389e-01,-4.65805e-02,2.48000e-02,3.58482e-02,4.95230e-02,4.43279e-02,-7.49955e-02,5.88277e-02,3.46916e-02,6.50606e-02,8.41897e-02,1.22258e-03,6.28143e-02,1.84703e-02,-5.00413e-02,4.32857e-02,9.16825e-02,-4.88311e-03,8.86550e-02,-4.13317e-02,-7.14552e-02,1.15948e-02,1.54091e-02,-8.12438e-02,-6.88499e-03,-9.32651e-03,6.66780e-02,7.95962e-02,9.07273e-02,1.30800e-01,-1.04982e-01,-2.12174e-02,1.16974e-01,
2.23307e-02,4.51308e-02,5.04859e-02,-6.03094e-02,4.82130e-03,6.47779e-02,-1.74338e-02,8.69292e-03,7.43380e-02,5.05671e-02,-2.97664e-02,-1.63423e-02,7.67187e-02,-2.96234e-03,-3.75634e-02,-5.78546e-03,4.71265e-02,-7.04273e-02,4.35880e-02,-7.97184e-02,1.34168e-01,-2.07808e-02,9.07969e-02,1.07430e-01,-4.63684e-02,6.72879e-02,-8.10718e-02,1.48289e-01,1.47743e-01,1.10690e-01,2.84187e-02,-1.31557e-01,-1.85740e-02,1.61263e-02,2.87623e-02,1.18539e-01,2.65554e-04,-3.81340e-02,-6.50281e-02,-5.28374e-02,5.46531e-03,-1.56132e-02,5.07581e-02,2.20438e-02,9.71889e-02,1.35598e-01,-6.41719e-02,6.28953e-02,6.78226e-02,-5.63932e-02,-1.43041e-02,4.00478e-04,-4.29476e-02,-1.62613e-01,5.58262e-02,1.00131e-01,-8.08772e-02,8.11919e-03,6.49322e-02,4.20131e-02,9.25235e-02,3.31981e-02,6.63560e-02,7.54425e-02,-4.85188e-02,5.05494e-02,4.70514e-02,-1.61133e-01,-2.96026e-02,1.14362e-02,7.77330e-02,-9.23321e-02,4.67236e-02,1.74844e-02,1.01400e-01,1.04808e-01,8.73396e-02,-5.70797e-02,1.12961e-01,-1.06102e-01,-1.13364e-01,9.74319e-02,-6.26540e-02,-7.78731e-02,-1.06829e-01,-9.25178e-02,2.25751e-02,-6.16965e-02,-3.25415e-03,5.34170e-02,4.39667e-02,-7.08322e-02,-2.93955e-03,9.92530e-02,2.76630e-02,2.42342e-04,1.76751e-02,-2.87986e-02,-1.75405e-01,2.81523e-02,-3.88744e-02,-5.72318e-02,-2.26490e-02,6.60623e-02,1.08927e-01,1.48995e-01,8.12156e-04,9.32411e-02,1.19242e-01,1.02643e-01,-2.72265e-02,-4.28381e-02,9.36568e-03,1.21366e-01,-3.03067e-02,4.72618e-02,1.35683e-02,-1.44865e-02,-8.49995e-02,-1.07110e-01,7.83663e-02,1.40337e-02,9.48945e-04,2.19363e-02,-2.55821e-02,-4.03204e-02,2.33005e-02,9.91772e-02,-1.09999e-01,-8.45421e-02,-4.03768e-02,-1.29945e-01,1.26840e-01,-1.77991e-02,-9.66559e-02,3.23446e-02,3.79952e-03,4.58671e-02,-7.02586e-03,3.00070e-02,-3.21346e-02,-3.93622e-02,6.81885e-02,7.46372e-02,1.92341e-02,-2.09710e-03,4.92162e-02,-4.80472e-02,1.07391e-01,1.75263e-01,1.20404e-01,1.02252e-02,5.36358e-02,1.19308e-01,-5.63022e-02,-1.06130e-01,1.41233e-01,4.95916e-02,2.67064e-02,-1.57707e-02,7.32143e-02,-5.83080e-02,-1.63325e-01,-4.92993e-02,9.31379e-02,8.42034e-02,9.73921e-02,-1.93940e-01,-9.43787e-02,-1.13267e-01,-1.19438e-01,8.48699e-02,-8.04372e-02,-6.77329e-02,-1.83631e-04,1.01172e-01,-1.60104e-01,4.22990e-02,2.33320e-02,-1.20260e-03,3.13256e-02,1.14088e-01,-2.44271e-02,-7.02305e-02,-1.08362e-01,-3.35744e-02,3.01992e-02,1.38019e-01,-5.99949e-02,-2.24326e-01,-7.27810e-02,1.66210e-01,2.40154e-02,-2.45989e-03,-1.09851e-01,1.57052e-01,-4.65564e-04,-9.61865e-02,8.66560e-03,2.15046e-02,
2.43400e-02,-8.58425e-02,1.86153e-02,1.06510e-01,-1.17784e-01,-4.78390e-03,-3.30771e-02,6.08087e-02,4.20596e-02,7.85280e-02,1.00693e-01,9.85862e-02,1.26529e-01,6.75510e-02,-9.92201e-02,1.65600e-01,1.01891e-01,-4.68361e-02,1.86329e-02,-5.49679e-03,-9.23671e-02,1.46611e-02,1.34878e-02,-2.56311e-03,1.72564e-02,4.38356e-03,6.52728e-02,5.79635e-02,-2.49336e-02,1.09382e-01,1.73775e-01,4.52278e-02,7.78043e-02,-2.94251e-02,5.05927e-02,-5.50452e-02,-8.04399e-02,-1.10223e-01,6.01725e-02,4.14345e-02,7.37879e-02,-8.91434e-04,7.42745e-02,-2.08992e-02,6.70496e-02,2.66749e-02,3.48698e-02,3.03108e-02,-1.08803e-01,6.59698e-02,4.42969e-02,-2.76501e-02,1.10107e-01,-1.88701e-02,-4.74479e-02,2.97446e-02,-3.54498e-02,-8.13382e-02,3.50033e-02,9.47857e-02,-1.27753e-02,-4.37330e-03,1.41212e-01,-7.21123e-02,5.59531e-02,-1.24960e-01,-5.28167e-02,-3.38518e-02,7.97455e-02,3.31428e-02,6.49571e-02,1.76173e-02,-8.52969e-02,-1.51596e-02,1.62188e-01,1.03134e-01,-3.19627e-02,9.77549e-02,-1.74337e-01,1.15946e-01,1.78741e-02,2.24659e-02,1.14145e-02,4.21428e-02,-9.02417e-02,8.57456e-02,-9.26986e-02,5.75847e-02,8.57393e-02,-5.09731e-02,5.72421e-02,-2.44899e-02,1.62682e-01,-7.97238e-02,2.59369e-02,-4.95954e-02,-1.02866e-01,-1.87858e-02,9.83519e-02,-8.04054e-03,2.09165e-02,1.12807e-01,4.48590e-02,-3.21672e-02,-4.87823e-02,-7.48558e-02,-1.98464e-01,-1.27038e-01,-1.77089e-01,2.39586e-02,-4.45367e-03,-7.49341e-02,3.81920e-03,6.76612e-02,5.21198e-02,-5.17383e-02,1.83234e-02,-2.59617e-02,4.20623e-03,3.56965e-03,6.05150e-02,-6.83722e-02,1.37987e-02,5.28650e-02,-1.85915e-01,5.75923e-02,8.10201e-02,4.69797e-02,-4.23092e-02,1.22840e-01,5.08272e-02,1.06223e-02,8.61513e-02,5.80859e-02,-9.70689e-04,-7.82186e-02,9.15537e-02,2.63598e-02,1.19726e-02,-1.07565e-01,-3.70938e-02,2.64717e-02,-4.57150e-02,5.65213e-02,2.98406e-02,3.12851e-02,8.61366e-02,9.63142e-03,7.49671e-02,2.15220e-02,-3.56472e-02,1.30320e-01,-6.74442e-02,-7.02683e-02,-8.09070e-02,6.65391e-02,6.47671e-02,4.16336e-03,1.14273e-01,-4.38093e-02,-5.79909e-02,2.27112e-02,1.77794e-01,1.20185e-01,-3.16837e-03,-6.48739e-02,-2.85993e-02,-9.71760e-03,1.01113e-01,-2.52470e-02,-1.07702e-03,-1.57229e-01,-9.39726e-02,1.46893e-02,5.09967e-03,-4.66562e-02,2.14348e-02,2.08696e-02,3.46490e-03,1.02539e-01,-4.81255e-02,-2.39874e-02,3.77542e-02,8.18325e-03,1.00371e-01,4.62529e-02,2.30679e-02,6.44274e-02,-9.69719e-02,7.76452e-03,1.00307e-02,4.06208e-02,1.59051e-01,-2.65741e-02,-4.95283e-02,-5.53653e-02,-7.24502e-02,1.88189e-01,-5.98080e-02,-8.05130e-02,
1.05267e-01,-4.70360e-03,-3.75560e-02,3.94937e-02,-3.45008e-02,2.44725e-02,-1.50516e-01,6.39779e-02,-7.96601e-02,2.22149e-03,-1.01434e-01,-1.32994e-02,-1.21004e-02,1.46106e-02,7.48292e-02,1.19815e-01,-2.21193e-02,2.76567e-02,8.79573e-02,-5.30545e-02,1.62983e-02,2.29939e-03,9.50356e-02,-1.47905e-02,-4.67235e-02,-1.36424e-02,-1.92027e-02,-1.69741e-01,-4.42847e-02,3.37892e-02,8.84774e-02,8.85584e-02,1.32158e-01,1.17257e-02,-4.01758e-02,-4.39907e-02,-3.62108e-02,-5.00684e-02,5.13512e-02,5.68280e-02,-1.30377e-02,-2.12618e-02,-3.28337e-02,6.89434e-02,-6.31430e-02,3.27780e-02,2.33575e-02,-3.84825e-02,3.05172e-02,-6.91205e-02,-5.73052e-02,3.23313e-02,-1.66758e-02,6.08268e-02,-2.38601e-02,-7.32063e-02,4.35273e-03,-6.07822e-03,5.77083e-02,-1.58163e-02,3.93988e-02,4.55439e-02,7.68360e-02,7.42034e-02,1.13289e-01,-3.85671e-02,9.67989e-02,-5.42846e-02,6.30488e-02,-2.40312e-02,-1.77162e-02,7.33095e-02,-8.27102e-02,-2.49201e-02,-5.35352e-02,-2.08492e-02,-8.87878e-03,2.41606e-02,-4.11832e-02,3.89589e-02,9.89908e-02,-1.14128e-02,4.07605e-02,-4.69270e-02,8.68486e-02,-1.73601e-02,1.41510e-02,1.58982e-01,2.04319e-03,4.36389e-02,-7.68997e-02,2.73378e-02,1.63082e-01,-3.99973e-02,9.20555e-02,4.53251e-02,-1.61584e-02,6.49864e-02,9.02511e-02,-5.50125e-02,4.47351e-02,9.28598e-02,1.71561e-01,-6.10029e-02,-6.11159e-02,-5.64848e-03,-9.17531e-02,-8.25597e-02,-7.72925e-02,-2.44714e-02,5.91261e-02,1.25916e-01,2.35314e-02,2.58757e-02,1.87737e-01,1.33753e-01,-2.70031e-02,8.67060e-02,5.25197e-02,5.54080e-02,1.18326e-02,7.09252e-02,-4.77357e-02,5.48788e-03,-2.52189e-03,1.39546e-01,1.22534e-01,4.25901e-02,-2.73630e-02,5.14327e-02,5.50946e-02,9.91753e-02,-9.13553e-02,-7.56295e-02,1.08191e-01,-5.18267e-02,6.93327e-02,-4.73145e-03,5.62738e-02,4.08235e-02,7.91923e-02,-9.23530e-02,-4.31433e-02,4.02026e-02,3.50550e-02,-3.35263e-02,-4.02529e-02,-3.34671e-02,2.52574e-02,-1.11158e-01,2.53017e-02,5.60226e-02,-3.16927e-02,-5.49278e-02,-3.90656e-02,-3.20101e-02,5.69219e-02,5.51196e-02,1.21898e-03,-8.62275e-02,3.90902e-03,7.22099e-02,5.73937e-02,1.13846e-01,-4.11365e-02,-2.34991e-02,7.97503e-02,1.27718e-01,-8.48662e-02,1.04827e-02,1.81391e-01,-4.67022e-03,1.81872e-02,1.19285e-01,-1.18261e-02,-1.30806e-01,9.62600e-02,2.78437e-02,4.80218e-02,1.60101e-02,-2.92216e-02,-3.96707e-02,-5.08619e-02,9.44380e-02,6.59475e-02,6.57597e-02,7.96398e-03,3.84943e-02,1.49237e-01,5.61138e-02,1.32794e-01,4.73218e-03,1.07953e-01,-1.26617e-01,1.49483e-02,-8.55212e-02,-8.66172e-02,1.80814e-01,1.55204e-02,3.44458e-02,
2.52274e-02,-1.67080e-02,-3.21288e-03,-6.59599e-02,8.04792e-02,6.35458e-02,-1.78207e-02,-7.98272e-03,-2.86857e-02,-2.99679e-02,-6.22905e-02,4.90654e-03,-9.33915e-03,4.73933e-02,4.70519e-03,4.86212e-02,-3.31758e-02,-6.91050e-02,5.01558e-03,1.99336e-03,-2.56229e-02,6.64282e-02,4.60196e-02,9.72309e-02,-3.86581e-02,8.89322e-02,1.89169e-02,-5.98992e-02,2.82408e-02,3.70764e-02,7.29644e-02,4.36898e-04,1.35170e-02,-4.48488e-02,-4.92157e-02,8.93405e-02,2.83712e-02,-1.41933e-03,-4.64360e-02,9.14352e-02,5.79570e-02,-1.05154e-02,5.61469e-02,-6.66440e-02,-5.47376e-02,-3.92879e-02,-6.19376e-02,7.98738e-02,1.01648e-01,-4.30930e-02,-5.38302e-02,1.06834e-02,2.11623e-02,-7.88544e-02,1.46071e-02,4.21556e-02,-3.74021e-03,-6.14050e-02,1.85857e-02,1.38362e-01,3.12244e-03,2.36723e-02,3.11313e-02,1.24054e-01,9.86345e-02,1.93809e-02,6.92514e-02,4.57057e-02,2.99658e-02,-4.99073e-02,1.65065e-02,1.70278e-02,4.68057e-02,4.40803e-02,-8.74873e-02,5.59023e-02,-6.57897e-02,3.91054e-02,6.63983e-03,4.48974e-02,4.51113e-03,8.26052e-02,-4.50524e-02,1.00096e-01,2.67201e-02,-8.89166e-02,-2.24441e-02,7.99353e-02,7.25754e-02,4.34025e-02,9.53582e-02,2.56997e-02,1.32643e-01,3.00625e-02,1.09066e-01,-3.12611e-02,1.06647e-01,-2.10312e-02,2.82651e-02,-1.76273e-03,5.11241e-02,4.08870e-05,-2.27500e-02,3.14315e-02,-3.78802e-02,3.24224e-02,2.22447e-02,1.02597e-01,4.29767e-02,1.33916e-01,6.97447e-02,7.44338e-02,3.69990e-02,9.18240e-02,-1.61614e-02,-8.60938e-03,8.96366e-02,1.90549e-02,1.25280e-01,-7.83928e-02,4.29260e-02,1.51267e-02,8.17679e-02,6.66882e-02,-2.70875e-02,4.96811e-02,5.49040e-02,1.15206e-01,2.19741e-02,-1.63945e-01,6.21968e-02,-6.39686e-02,-4.96935e-02,-1.15080e-01,4.57616e-02,-1.05793e-02,5.08013e-02,6.62234e-02,-8.87052e-03,-8.80812e-03,5.24542e-02,-1.58997e-01,1.00878e-01,2.86474e-02,-5.65497e-02,3.50040e-02,1.45069e-04,-3.78774e-02,3.05670e-03,1.83083e-02,1.12519e-01,7.94767e-02,-3.16367e-02,-3.74001e-03,-4.90708e-02,-4.47320e-02,1.04341e-01,8.86774e-02,4.90056e-02,3.73374e-02,1.21586e-01,4.59603e-02,-3.06257e-02,-6.13270e-02,7.17335e-02,7.74612e-02,7.96508e-02,-2.44408e-02,-3.37063e-02,-1.18644e-01,2.45173e-02,5.08447e-02,1.00608e-01,2.86001e-02,1.03409e-01,-5.97545e-02,-5.55834e-03,2.64153e-02,-2.99681e-02,-4.57417e-02,4.55591e-02,9.82159e-02,-4.60861e-03,-1.03503e-02,5.65675e-03,4.35561e-02,6.42265e-02,1.34910e-01,9.24166e-02,-8.91655e-02,8.64766e-03,1.06742e-01,3.13051e-02,-7.90825e-02,-9.50990e-02,-3.12610e-02,-1.31997e-02,7.15682e-02,6.79621e-02,1.00717e-02,
-1.50589e-01,2.15718e-01,5.25904e-02,1.80420e-03,-9.27949e-02,7.64478e-02,-9.18085e-02,-1.02795e-02,-5.96504e-02,1.74512e-02,-1.06640e-01,-7.85027e-02,-1.05431e-01,-6.00271e-02,1.28895e-01,-1.96708e-02,-1.69394e-01,4.30168e-02,-1.16804e-02,8.17627e-02,-4.82768e-02,9.39083e-02,5.08205e-02,1.83857e-02,6.44847e-02,1.28212e-01,5.34537e-03,5.07927e-03,3.99672e-02,-1.34373e-01,-3.93729e-02,2.61053e-02,7.65340e-03,-5.87391e-02,1.02686e-01,-8.38091e-02,6.48666e-02,1.73948e-01,-4.77184e-02,-5.10225e-02,5.77422e-02,4.73435e-03,-2.91245e-02,-4.44617e-02,-5.34574e-02,-6.47938e-02,-7.71281e-02,-1.12311e-02,4.34351e-02,-9.79900e-03,4.82648e-02,2.89116e-02,5.91244e-03,1.04339e-01,3.99976e-03,7.77374e-02,6.20791e-02,6.06671e-02,1.83621e-02,6.76606e-02,-1.17136e-02,1.83667e-02,-1.37112e-02,-5.40850e-02,-4.31717e-02,8.98835e-02,7.20132e-02,8.31025e-02,1.07254e-02,3.06438e-02,-2.50778e-02,-3.62289e-02,8.16967e-02,3.25731e-02,6.40609e-02,1.92834e-02,6.52467e-03,2.83833e-02,-6.77258e-02,-7.96201e-03,2.98502e-02,-4.53124e-02,6.14786e-02,-4.69741e-03,9.88365e-02,-2.67369e-02,-8.30353e-02,-6.40176e-02,8.00584e-02,1.68830e-01,1.20383e-02,9.80151e-02,-8.10982e-02,8.83667e-04,-1.84062e-02,2.93786e-03,1.97242e-02,4.98548e-03,-5.17440e-02,-6.74198e-02,-1.65871e-01,5.76575e-02,-1.21407e-01,7.18326e-02,1.54752e-02,-3.24154e-02,1.89093e-01,1.27545e-01,2.08339e-01,6.90646e-02,-3.84382e-02,7.89003e-02,9.60627e-02,-1.42837e-03,-6.16388e-02,5.17601e-02,-1.94304e-03,2.27357e-02,8.05799e-02,1.00641e-01,-7.34057e-02,8.23406e-02,3.53480e-02,2.62504e-02,-5.03137e-02,4.78259e-02,-6.82942e-02,3.80990e-02,5.54755e-02,1.04002e-01,-3.07962e-02,1.64709e-02,-5.05990e-02,2.09240e-02,2.51594e-02,4.43492e-02,1.73978e-02,-1.80216e-04,1.37741e-01,-3.48272e-02,2.27448e-02,-5.74983e-02,-4.82311e-03,6.00754e-02,2.97705e-02,5.18100e-02,-5.96523e-02,-4.38175e-02,-1.41145e-01,-2.00711e-01,-9.60307e-02,-6.75411e-02,1.94111e-02,5.14980e-02,7.36849e-02,1.31179e-02,8.76437e-02,-1.45041e-01,7.43241e-02,7.10133e-02,9.20462e-02,3.62426e-02,-1.48416e-01,-9.15072e-02,2.10376e-02,7.74604e-02,2.10156e-02,1.13225e-01,1.25098e-02,-4.18767e-02,9.15511e-02,-3.38443e-02,1.08105e-01,-3.75732e-02,-1.60529e-02,-4.85241e-02,6.84612e-02,4.30047e-02,-5.66656e-02,1.25742e-01,4.77455e-02,-2.07738e-02,3.73283e-02,8.02910e-02,-1.09281e-01,5.91969e-02,-3.88391e-02,-2.79938e-02,-2.50366e-02,3.37492e-02,-8.25481e-02,-7.94566e-03,-9.35913e-02,2.79247e-02,6.35722e-03,5.88160e-02,6.93065e-02,-7.22788e-02,-4.76530e-02,5.45274e-03,
-4.87810e-02,-5.71468e-02,1.22241e-01,2.19015e-02,7.84740e-02,-5.37180e-02,-1.34974e-01,-6.74702e-02,5.48172e-03,-1.19314e-01,1.10163e-02,6.94777e-02,-8.85051e-02,-1.11536e-01,7.19239e-02,-7.34267e-02,-1.73164e-02,-5.89824e-02,1.46837e-02,-5.56348e-02,7.56523e-02,1.29766e-02,4.53158e-02,4.00798e-02,9.09192e-02,6.31275e-02,-2.97529e-02,-2.68177e-01,1.42279e-01,-4.52453e-02,4.35992e-02,6.86061e-02,-4.52541e-02,2.63414e-02,-2.54368e-03,8.72585e-02,3.70801e-02,-1.33804e-01,-3.68705e-02,9.64079e-02,-1.11744e-01,-5.91153e-02,6.65558e-02,-1.70345e-01,2.83778e-02,-1.51539e-02,-1.69414e-01,3.30617e-02,1.97655e-01,-1.23142e-01,-1.80171e-01,1.66498e-01,-1.42544e-01,8.70575e-03,1.19475e-01,4.78872e-02,-1.23601e-01,-5.95762e-02,1.33532e-01,-1.17279e-01,-2.95832e-02,-9.03102e-02,3.18962e-02,7.63035e-02,-1.01209e-01,2.14973e-02,-1.35188e-01,-2.61099e-02,-4.09814e-02,-1.88726e-01,4.31448e-02,-4.99615e-02,8.67295e-02,-1.39270e-02,-1.36636e-02,3.28922e-02,1.77657e-01,5.55469e-02,4.77992e-02,-5.94937e-02,1.07643e-01,-2.55531e-02,1.17772e-01,-7.54286e-02,-1.06202e-01,1.84585e-02,6.17807e-03,-1.77728e-01,-1.31305e-01,1.53069e-01,9.81084e-02,1.26068e-02,-3.42720e-02,3.87217e-02,2.01027e-01,-1.76635e-03,-1.64143e-01,4.61751e-02,-6.21303e-03,-6.04047e-02,-5.86866e-02,5.75647e-02,8.68022e-02,7.06272e-02,-5.94613e-02,9.57282e-02,-8.31386e-02,2.89480e-01,1.49194e-01,8.09114e-03,-1.63763e-02,1.32652e-01,-1.47879e-02,-2.30050e-02,-1.12201e-01,5.20534e-02,3.64179e-02,-5.43055e-02,4.49461e-02,-6.26856e-02,5.53194e-02,2.58458e-02,7.30764e-02,8.59568e-02,1.09757e-01,-5.36373e-02,5.10946e-02,1.33008e-02,-5.82643e-02,-2.01343e-01,5.98707e-02,-1.31772e-02,3.47743e-02,-6.52472e-02,7.91372e-04,2.69987e-02,-5.53825e-02,-1.74744e-02,-1.07340e-01,3.35011e-02,-1.15100e-01,-8.89225e-02,-1.41592e-01,-1.28218e-02,-1.09379e-01,5.99089e-02,6.54935e-03,3.40021e-03,-1.38154e-01,-1.87430e-01,-4.22012e-02,7.22390e-02,-3.13581e-02,6.43620e-02,-2.54683e-02,1.83057e-02,4.19387e-02,-5.07744e-02,1.19316e-01,-1.22169e-01,8.40600e-02,5.07315e-02,-5.59069e-02,-1.97375e-01,6.96814e-02,1.13359e-01,-7.06378e-02,1.11804e-01,-7.10429e-02,7.25097e-04,1.52579e-01,2.72651e-02,8.04806e-02,9.75235e-02,-4.46836e-02,-1.72178e-01,-2.65394e-02,4.38311e-02,-1.35117e-02,1.23817e-02,7.93410e-03,7.46320e-03,1.06148e-01,-7.06516e-03,-9.45233e-02,1.35308e-02,3.64387e-03,-4.75688e-02,1.16102e-01,-6.46582e-02,1.32588e-01,-7.46914e-03,6.72990e-02,-2.98616e-02,-1.13844e-01,-1.41305e-02,-3.10327e-02,-9.59075e-03,5.08088e-02,9.73558e-02,
-4.31302e-02,-6.80387e-02,-1.41692e-01,-2.98716e-02,1.01569e-01,-4.52290e-02,5.58697e-02,-4.57135e-02,1.34739e-01,3.52779e-02,5.38418e-02,-1.78550e-02,-1.62114e-02,5.17048e-02,9.77671e-02,-1.41254e-01,-1.54551e-01,-2.22328e-02,-4.89751e-02,-3.57482e-02,9.50988e-02,6.23973e-02,-3.78139e-02,8.38193e-02,3.06159e-02,5.58956e-02,-9.04422e-02,6.13020e-02,7.21158e-02,1.20417e-02,-2.18593e-02,2.54909e-02,1.33969e-02,-6.78368e-02,-4.70578e-02,1.06240e-01,-1.36211e-02,2.71977e-02,3.72809e-02,-1.09556e-01,-7.82417e-02,4.09980e-02,6.22555e-02,-6.99115e-02,-3.85984e-02,-7.24120e-03,4.67374e-02,-1.36796e-02,7.33928e-02,-4.05646e-02,1.74245e-02,5.31089e-02,4.63866e-02,-1.62836e-01,7.96550e-02,1.10489e-01,2.95237e-02,-1.00162e-01,3.84030e-02,1.42372e-01,-8.68147e-02,1.25477e-01,-8.10134e-02,7.92342e-02,3.84663e-02,5.17923e-02,8.68188e-03,1.45844e-01,4.14585e-02,-4.26672e-02,-3.10037e-02,-7.88666e-02,5.29689e-02,-1.05903e-02,-3.16211e-03,9.35852e-02,-4.67473e-02,2.16808e-02,8.38785e-02,6.90331e-03,-6.62166e-02,7.65700e-02,-3.56302e-02,1.18089e-01,-2.66674e-02,-2.80571e-02,8.49622e-02,3.35615e-02,2.87940e-02,4.91814e-02,7.30743e-02,2.92366e-02,-2.72982e-01,-3.72525e-02,4.04237e-02,4.73102e-03,1.16485e-01,-1.13164e-01,-4.71526e-02,-1.69461e-02,1.05854e-02,7.75994e-04,-1.78398e-01,2.87398e-02,1.54418e-02,8.62620e-02,7.89783e-02,1.12247e-01,1.56189e-01,1.12663e-01,-9.36483e-02,-1.14852e-01,3.23993e-02,5.39932e-02,-8.55226e-02,3.30005e-02,1.14318e-01,3.44177e-02,1.51864e-01,-6.55184e-02,-2.65148e-02,-2.36552e-02,7.41806e-02,-8.22255e-02,7.05374e-02,-1.03962e-01,-4.89171e-02,6.15086e-02,5.34896e-02,-1.81487e-01,-2.57460e-02,-8.20537e-02,2.61065e-03,6.15606e-02,-2.51940e-03,-5.10240e-02,7.09861e-02,1.43896e-01,-1.20671e-01,4.09129e-02,-2.61102e-02,-7.58753e-02,1.00989e-01,-4.41948e-02,-1.97329e-01,-1.63007e-02,2.90408e-02,-1.09864e-01,5.37500e-02,1.41089e-01,1.79259e-01,-8.19286e-02,1.18294e-02,2.11270e-01,-2.78060e-02,1.11371e-02,6.12927e-02,3.49358e-02,7.88631e-02,1.41079e-01,2.38066e-02,-1.06232e-01,-5.06388e-02,-1.62620e-01,-4.60198e-02,1.05930e-01,1.52711e-01,-1.68578e-01,7.85500e-02,1.59828e-02,-1.25544e-01,5.40658e-02,3.54485e-03,-2.19162e-01,4.33030e-02,7.03750e-02,-1.05039e-01,8.29167e-02,7.15632e-03,6.79208e-02,-7.15300e-02,1.13512e-01,-9.34271e-02,-2.67741e-02,-1.36051e-01,-2.70307e-02,1.23393e-01,-1.22321e-01,-1.31498e-01,-7.93288e-02,-7.06681e-02,5.64396e-02,-3.75660e-02,-4.26628e-02,4.91958e-02,1.36447e-01,9.85338e-02,-5.59982e-02,3.11720e-02,6.27057e-02,
7.24631e-02,-1.78839e-02,-1.00507e-01,9.96710e-03,-7.92003e-02,-1.84150e-02,5.93780e-02,-1.23361e-02,-1.57511e-02,1.04764e-01,1.73903e-02,3.56526e-02,-5.71048e-03,5.86328e-02,2.79798e-02,1.40987e-01,4.93803e-02,-3.85328e-02,7.91845e-02,5.38665e-03,-1.34692e-01,-9.48881e-02,4.34210e-02,4.48233e-02,-5.52628e-02,-1.10210e-01,-4.34160e-02,9.08934e-02,3.83917e-04,3.32575e-02,-4.48846e-02,1.44838e-02,3.28822e-02,1.24372e-01,2.05305e-02,2.94740e-04,-1.35683e-01,-8.57033e-02,6.73748e-02,-5.53413e-02,8.64060e-02,3.91130e-02,-1.37835e-02,2.85121e-02,1.48858e-01,-3.47804e-02,1.11990e-01,5.98231e-02,-2.90358e-02,1.24318e-01,-7.11149e-02,3.08078e-02,9.88380e-02,7.90757e-02,-1.07414e-01,-4.16304e-02,-2.83894e-02,-3.65749e-02,1.15331e-01,-1.24855e-01,2.04821e-02,-4.68176e-03,7.19390e-02,-9.01246e-02,4.13201e-02,-3.05506e-02,-6.45961e-02,-3.26908e-02,5.48336e-02,-1.51861e-02,-1.44425e-01,9.21124e-02,1.70549e-02,-6.04609e-02,3.54833e-02,4.62473e-02,-1.11324e-01,1.48980e-01,-4.34053e-02,1.08502e-01,3.44786e-02,-3.70086e-02,-5.71326e-02,2.96271e-02,-4.46273e-02,1.13136e-01,-8.85295e-02,-2.97795e-02,-5.94591e-02,-4.75216e-02,1.09443e-01,5.28393e-02,2.26872e-01,-2.33571e-02,-2.67317e-02,4.99672e-02,-5.04921e-02,3.39014e-02,9.33154e-02,-3.35868e-02,1.02058e-01,7.03642e-02,8.75698e-02,-4.79716e-02,-1.90325e-02,3.28326e-03,-3.52289e-02,-2.36183e-01,-1.90321e-01,-4.19438e-02,4.78155e-03,1.87138e-02,-2.77834e-02,-1.32127e-02,4.95554e-02,3.36288e-02,6.29153e-02,-1.04018e-01,-7.67191e-02,-2.59633e-02,7.86169e-02,1.46662e-02,1.84892e-02,-4.49876e-02,-4.26755e-02,4.84330e-02,4.40219e-02,-7.32627e-02,-1.09411e-01,1.02342e-01,6.05415e-02,1.41087e-01,7.13750e-02,-5.95902e-03,3.73006e-02,-7.58112e-03,6.51087e-03,-4.49406e-02,5.33121e-02,-7.47800e-02,-5.02853e-02,1.83798e-01,-6.21397e-02,1.36082e-01,8.94586e-02,-5.78117e-02,-9.97032e-02,5.71745e-02,1.15141e-01,3.55879e-03,-1.38283e-01,2.02651e-02,-6.34407e-02,-1.82997e-02,2.00989e-02,6.19269e-02,-2.36661e-03,1.04470e-01,-2.16201e-02,-1.41476e-01,6.66129e-02,1.28496e-01,2.51716e-01,4.95419e-02,3.14198e-02,1.97833e-02,-1.25130e-01,-1.07545e-01,1.32958e-01,5.02433e-02,-8.40778e-02,-1.38889e-01,-1.38306e-01,-2.05431e-02,6.43338e-03,2.59243e-02,-5.13677e-03,-1.02442e-01,1.18901e-01,3.62387e-02,-8.75455e-02,4.25695e-03,-2.93515e-02,5.40802e-02,1.51461e-01,-4.94777e-02,-2.18470e-02,2.30316e-02,1.02258e-01,1.72470e-03,5.61203e-02,-3.75717e-02,4.46509e-02,-5.86415e-02,8.12987e-02,-4.78231e-02,2.17340e-02,5.82850e-02,-9.94404e-02,3.66449e-02,
7.97809e-03,-6.87548e-02,6.58852e-02,1.98026e-02,-3.59830e-02,-6.65204e-02,1.69654e-01,9.14689e-02,-6.49123e-03,9.54644e-02,9.05021e-02,5.30914e-02,-1.10995e-02,1.85739e-02,5.52470e-02,7.50221e-02,1.15237e-01,1.27375e-01,1.17561e-01,9.69070e-02,-1.99982e-02,1.37533e-02,-7.33459e-03,1.78806e-02,1.80692e-02,4.11356e-02,-6.94325e-02,-6.36567e-02,9.27302e-02,4.45811e-03,-2.35658e-02,1.05152e-02,-3.96515e-02,7.99358e-02,-9.02597e-03,2.10985e-02,-6.39391e-02,-2.50029e-02,-6.43799e-02,1.06766e-01,6.51084e-03,3.15952e-02,-8.41606e-02,9.50662e-02,9.37815e-02,8.80343e-02,-5.10315e-03,1.27927e-01,1.44608e-01,1.77937e-01,9.17024e-02,6.69661e-03,3.22517e-02,1.07577e-01,5.98938e-02,8.92621e-03,1.24709e-01,2.14071e-02,-4.51449e-02,-1.30473e-01,-3.21063e-02,4.76949e-03,1.26855e-01,-8.35872e-02,1.71221e-02,7.67917e-02,-8.98350e-02,-5.92196e-02,4.19495e-03,1.51107e-02,-7.86800e-02,4.95886e-02,1.21051e-01,-1.57593e-02,-9.96127e-02,3.47292e-03,-8.76891e-02,7.40016e-02,2.95323e-02,8.68643e-02,2.37719e-02,-1.37465e-03,-3.39207e-02,-1.18719e-01,1.97755e-02,7.46070e-02,9.30798e-02,-4.45228e-02,2.41715e-03,3.02592e-02,5.89514e-02,-1.71728e-03,4.84061e-02,7.92570e-02,3.56126e-02,6.41749e-03,-6.27783e-02,1.34774e-01,8.24733e-02,9.42660e-02,-6.88658e-02,-6.16050e-02,-5.40312e-02,1.01171e-01,8.90141e-02,-6.20385e-02,-5.03266e-03,1.23802e-02,-1.76407e-01,-1.31801e-01,-1.53139e-02,3.17964e-02,1.61198e-01,-5.36775e-02,9.53688e-02,-1.17943e-01,-1.25078e-01,-8.89277e-02,-1.09823e-01,3.20172e-02,4.06744e-02,-5.26273e-02,3.90907e-04,6.03588e-02,6.22884e-02,2.37627e-02,-1.19640e-02,-1.04547e-01,1.46162e-02,1.56758e-01,-1.41094e-02,7.39722e-02,-4.12388e-02,-5.60385e-02,4.50065e-02,3.77110e-02,-1.40182e-01,-1.75101e-01,-9.02068e-02,-4.02669e-02,1.01852e-01,8.70253e-02,1.07101e-02,8.66548e-02,7.18775e-02,8.02728e-02,2.31113e-02,7.46139e-02,9.34677e-02,3.71751e-02,-4.33508e-02,-9.29580e-03,-2.20912e-02,-3.42595e-02,5.83929e-02,-1.06088e-01,2.13656e-02,6.21017e-02,5.56378e-02,8.95339e-02,-4.24033e-02,9.35508e-02,-2.69896e-02,-2.93777e-02,7.29334e-02,-3.77984e-03,-9.68192e-03,-7.65517e-02,-2.98926e-02,1.52800e-01,5.69101e-02,-9.42064e-02,-7.03010e-02,5.01842e-02,-1.59634e-01,-9.01546e-02,-2.87671e-03,-3.78544e-02,-6.18551e-02,1.09560e-01,-5.13050e-02,-5.23411e-02,4.66702e-02,3.32545e-02,1.23726e-01,3.07282e-02,1.72027e-02,1.06704e-01,1.72612e-01,2.31312e-02,-5.03102e-02,3.13140e-02,-8.24581e-02,8.52131e-02,3.49433e-02,-5.52575e-02,-3.23115e-04,-4.94168e-03,4.61375e-02,-2.32282e-02,
4.95704e-02,-8.35573e-02,1.27668e-02,-1.29236e-01,6.36938e-02,-9.87190e-02,9.14588e-02,6.96358e-02,6.11053e-02,1.05827e-01,2.86712e-02,-1.97768e-02,1.38484e-02,-3.13857e-02,6.00483e-02,-3.79232e-02,6.58799e-02,-1.07100e-02,4.21112e-03,5.80729e-02,-5.32161e-02,9.49164e-02,6.89336e-02,-7.38996e-02,-5.52061e-02,2.35970e-02,4.12780e-02,-8.02886e-02,4.88891e-02,3.26214e-02,1.97577e-02,-2.85605e-02,6.74199e-02,7.27913e-02,-7.37730e-02,1.56313e-01,2.15450e-02,-9.19863e-02,-2.78710e-02,1.26052e-01,-8.98471e-02,1.09650e-01,-7.33477e-02,7.24908e-02,1.14093e-01,2.51981e-02,-1.91616e-03,-2.06294e-03,6.04881e-02,-7.93554e-03,2.89210e-02,7.32200e-02,7.47330e-03,4.08039e-02,9.67874e-02,7.47730e-02,6.23846e-02,4.31482e-02,7.06261e-02,-4.13400e-03,2.70691e-02,1.03968e-01,8.79312e-03,7.43166e-02,2.95361e-02,8.21836e-02,-6.15268e-03,7.89551e-02,-9.99238e-02,5.38783e-02,-1.13610e-01,2.76896e-02,5.61794e-02,5.71621e-02,-1.54885e-01,-7.07227e-02,6.69626e-02,-6.71240e-03,1.18507e-01,8.52163e-02,3.13515e-02,-3.52909e-02,-4.03602e-02,-1.03055e-02,-9.15646e-03,-7.78556e-02,1.77406e-01,4.60489e-02,-8.57528e-02,-6.41436e-02,-5.08612e-02,-1.02497e-01,3.33628e-02,8.67145e-02,3.43770e-02,3.17906e-02,-1.62062e-02,-5.39192e-02,-6.56570e-03,4.22901e-02,7.56321e-02,-1.38325e-01,2.82590e-02,3.91192e-02,1.05414e-01,5.06125e-02,2.79034e-02,9.66256e-02,-8.92181e-02,4.29488e-02,8.17253e-02,9.11210e-02,5.31257e-02,-9.83972e-03,6.00595e-02,2.40269e-02,-6.25423e-02,9.46579e-02,-6.58689e-02,6.25185e-03,1.97189e-02,-5.36867e-02,-1.11138e-03,2.09874e-02,1.28272e-01,6.86411e-02,9.20476e-02,-1.16101e-02,8.57551e-02,-1.26501e-02,8.63277e-02,3.36807e-02,7.61979e-02,-3.22173e-02,1.42117e-02,2.30304e-02,-6.63188e-02,5.81725e-03,-4.90312e-02,1.20778e-01,4.75416e-02,4.54708e-03,1.02473e-01,-3.24889e-03,4.70981e-02,-6.41543e-02,-1.96419e-02,1.31796e-02,4.25960e-02,-5.32235e-02,8.32853e-02,9.72391e-02,8.87773e-02,-9.38170e-03,-4.09186e-02,-4.92095e-02,-2.13903e-02,-1.49481e-03,-6.38045e-03,1.03443e-01,1.13500e-01,7.24878e-02,-5.05913e-02,6.19817e-03,1.21709e-02,1.02609e-01,-3.67123e-02,-2.28052e-02,-4.61110e-02,-7.08415e-03,-4.96723e-03,2.24794e-02,8.95654e-03,8.04500e-02,7.73250e-02,-5.23100e-02,-1.60333e-02,-9.18313e-02,-2.86491e-04,-8.60585e-02,1.06998e-01,6.06330e-02,8.37322e-03,3.14900e-02,4.78500e-02,-4.52715e-02,-2.13223e-02,-1.28747e-02,4.66506e-02,-3.51752e-02,9.43960e-02,-2.62699e-02,1.85990e-02,4.20590e-02,-4.72106e-02,4.15502e-02,-5.03999e-02,1.10092e-02,1.30619e-01,7.34020e-02,
