// Neural Network File Format by Kyle Julian, Stanford 2016
2,15,7,50,
15,50,7,
0,
-1.0,-1.38,-2.62,-2.07,-2.54,-2.63,-2.19,-3.87,-0.14,-1.66,-0.24,-1.16,-1.08,-2.46,-1.98,
1.0,4.16,2.45,0.49,0.4,1.12,1.71,2.39,7.6,1.63,4.31,2.27,2.15,1.46,1.31,
0,0,0,0,0,0,0,0,0,0,0,0,0,0,0,0,
1,1,1,1,1,1,1,1,1,1,1,1,1,1,1,1,
2.23381e-01,-5.12276e-01,-6.58627e-02,-2.27394e-01,2.80915e-01,-1.17708e-01,4.89085e-01,-5.48421e-02,2.02430e-01,-3.91237e-01,-3.81614e-01,2.75439e-01,4.76725e-01,-3.48801e-01,-6.15726e-01,
-8.09577e-01,1.98279e-02,-1.09433e-01,-4.16123e-01,-4.25716e-01,2.93076e-01,4.11531e-03,2.30509e-01,-3.22972e-01,2.17485e-01,-1.01271e-02,1.06241e-01,-4.06550e-01,-6.03111e-01,3.73818e-01,
-5.57657e-01,-4.25466e-02,1.48438e-02,1.63975e-01,1.73835e-01,7.95992e-01,6.83430e-01,-3.32714e-01,-3.01336e-01,2.76023e-01,3.73654e-02,3.13428e-01,-1.69514e-01,2.47218e-01,-2.60419e-01,
-4.22550e-01,4.99738e-02,-3.96224e-01,-2.28248e-02,5.32489e-01,2.68607e-01,-4.97719e-01,1.42119e-01,4.42864e-01,-2.08364e-01,-2.60984e-01,9.51595e-02,5.96110e-02,1.57103e-01,3.99424e-01,
3.79801e-01,2.32022e-01,-1.54659e-01,5.15546e-01,4.18632e-01,-2.88111e-02,-4.87409e-01,3.33399e-01,4.68202e-02,-7.57254e-02,3.54176e-02,4.75663e-01,-3.27569e-01,-5.23063e-02,-1.15268e-01,
2.65227e-01,2.55842e-01,1.26517e-02,5.41207e-01,1.83888e-01,-5.92957e-02,5.92395e-01,1.87935e-01,-6.33620e-02,3.60288e-02,5.23221e-02,-2.19145e-01,7.92012e-01,4.44787e-01,-1.88864e-01,
7.03647e-01,4.61137e-01,1.86533e-01,-1.19159e-01,-5.59482e-01,-3.06722e-01,2.98577e-01,-2.57578e-01,2.77909e-01,6.51958e-02,-4.03671e-02,2.77998e-01,2.08287e-01,-1.23310e-01,1.65872e-01,
-2.89810e-01,-1.23925e-01,-6.12624e-01,3.62051e-01,5.26826e-01,-1.04532e-01,5.25987e-01,3.09742e-02,4.09407e-02,-4.22722e-01,2.86396e-01,-5.01381e-02,-7.41206e-01,1.79766e-01,2.83513e-01,
1.75375e-01,-8.81905e-01,-4.55121e-01,-3.24309e-01,-4.15330e-01,-4.56057e-02,1.00655e-01,-4.22456e-01,-3.59206e-01,-3.77518e-01,-3.73085e-01,7.69412e-03,6.55342e-02,1.73269e-01,-9.40219e-03,
-2.93847e-01,-5.54264e-01,-6.34308e-01,4.62079e-01,5.02903e-01,5.30834e-01,3.22224e-01,-4.00151e-01,-6.19840e-02,-1.78318e-01,-3.75974e-01,5.85267e-02,-9.61319e-02,-1.09635e+00,-1.47593e-01,
-2.35985e-01,-2.72215e-01,-4.30696e-01,-1.83892e-01,8.37157e-02,8.64870e-02,-7.73411e-01,-6.18126e-02,9.61739e-02,-2.34778e-01,3.96424e-01,1.76958e-01,-5.95474e-01,4.79251e-01,3.78538e-01,
-3.82771e-02,-4.25033e-01,-9.30606e-02,-2.69203e-01,1.96503e-01,-5.67429e-01,2.01235e-01,-1.54721e-01,-1.18147e-01,-1.50964e-01,3.65078e-01,2.80976e-01,-6.81735e-01,9.72101e-04,2.60697e-01,
-1.68468e-02,5.39364e-03,1.08254e-01,1.95019e-01,4.00308e-01,-1.95890e-01,2.52698e-01,-1.53125e-01,2.81623e-02,6.06227e-01,-3.58551e-01,-9.98006e-02,3.22839e-01,6.33071e-01,3.56377e-01,
7.95657e-02,2.07959e-01,-3.39988e-01,2.67795e-01,-2.33660e-01,1.61954e-01,-1.35303e-01,-1.11060e-01,-2.65148e-01,-1.47312e-01,-3.01995e-01,7.67379e-01,-4.43812e-02,-5.56404e-02,-4.74479e-01,
4.30167e-01,-6.60147e-01,-4.39995e-01,-7.41720e-01,1.91594e-01,-1.34817e-01,5.33068e-01,5.37639e-01,-3.51603e-01,9.42125e-02,1.80721e-01,-2.05191e-02,1.99922e-01,-3.04592e-01,-1.14478e-01,
5.10295e-01,3.60642e-01,7.40789e-02,5.66401e-01,-2.47447e-01,-2.13756e-01,-1.16395e-01,5.04462e-01,2.19450e-01,-2.06074e-02,-1.31115e-01,1.85183e-01,-1.39257e-01,-2.03377e-01,1.53159e-01,
5.94397e-01,5.35675e-01,6.12707e-01,1.28182e-01,-4.14467e-01,-2.35731e-01,-6.72854e-01,-3.07159e-02,2.88628e-01,-5.73308e-02,-1.34402e-01,-6.55720e-01,-2.74144e-01,-1.77415e-01,-5.51438e-02,
-3.87907e-02,1.52019e-03,4.31089e-01,1.75565e-01,-2.08307e-02,6.93231e-01,5.07422e-01,6.15786e-02,-2.13600e-01,3.70928e-01,-9.18728e-02,1.93965e-01,1.81515e-02,2.87904e-01,3.76786e-01,
-5.94583e-01,-1.03095e-01,3.48923e-01,2.32210e-01,2.84621e-01,1.24778e-01,-2.17736e-01,6.86768e-01,4.68953e-02,6.18246e-01,2.44302e-01,-3.33421e-01,-1.14461e-01,5.09622e-01,5.41641e-01,
-1.39604e-01,-4.37695e-01,4.67991e-02,-4.79975e-01,7.16223e-02,2.05732e-01,-1.54668e-01,-5.36182e-01,-2.67908e-01,-4.09051e-01,-4.14387e-01,-3.40315e-02,-1.12039e-01,-2.33792e-01,3.64674e-01,
5.62273e-01,3.84477e-02,3.60887e-01,2.94544e-01,-9.59960e-02,-3.77291e-01,-3.40332e-01,-2.42720e-01,-2.61284e-01,-2.45482e-01,-7.97060e-02,6.05755e-01,-9.27699e-01,-1.48300e-01,4.28535e-01,
-3.72758e-02,3.68075e-01,-1.95113e-01,-5.76091e-01,-4.09516e-01,1.93211e-02,-3.82985e-01,2.45313e-01,-6.06296e-02,-4.58891e-01,5.00318e-01,8.71648e-02,-5.12797e-01,-7.55897e-01,-4.87438e-01,
4.89027e-01,4.07367e-01,6.43422e-02,2.91869e-01,-1.40866e-01,1.85289e-02,3.52202e-01,9.80090e-02,1.88302e-01,3.65559e-01,7.89969e-02,-8.14891e-02,-2.85345e-01,-1.12471e-02,-2.11319e-01,
-2.94467e-01,-9.55579e-01,-2.82102e-01,7.42352e-01,-2.76193e-01,-5.16389e-01,2.21165e-01,2.77634e-01,-4.24760e-01,3.77596e-01,-5.18587e-02,-2.52548e-01,-1.20430e-01,4.91974e-01,2.91259e-01,
-3.50280e-01,-4.88908e-01,5.61217e-01,-2.73579e-02,4.51802e-01,-4.45376e-01,-4.13526e-01,3.69822e-01,1.37700e-01,8.13624e-02,3.14710e-01,1.26602e-01,5.67175e-01,-1.26142e-01,-3.04583e-01,
2.04023e-01,3.05283e-01,2.51647e-01,-2.42101e-01,-2.26851e-01,-1.58316e-01,-5.78667e-01,6.83789e-03,1.81634e-01,2.14480e-02,4.33693e-02,4.43810e-01,-2.30666e-01,5.74908e-01,-2.31947e-01,
1.77697e-01,3.96579e-02,1.57262e-01,3.45798e-01,6.74941e-01,5.39207e-01,2.19409e-01,-4.34087e-02,1.11375e-01,4.39773e-01,-1.77967e-01,-3.69340e-01,5.37848e-01,-2.88207e-01,8.27301e-02,
-1.06391e-01,1.93270e-01,-5.01867e-01,2.77263e-01,-8.38873e-03,3.46310e-01,1.39308e-01,-2.15774e-01,1.86074e-01,1.54492e-01,-2.72023e-01,-3.72492e-01,-5.31131e-01,-1.34274e-02,5.01177e-02,
-7.91229e-01,4.57900e-01,5.85451e-01,5.57392e-02,-2.79772e-01,-2.74875e-02,5.40334e-01,-3.10479e-01,3.44479e-01,1.95175e-01,-6.02889e-02,-2.21334e-01,1.33159e-01,4.84905e-01,-3.36544e-01,
1.39340e-01,8.01640e-01,3.17457e-01,2.65005e-01,6.64077e-01,-5.79630e-01,-1.72404e-01,-1.89795e-01,2.03915e-03,3.07047e-01,-5.18557e-01,-2.53100e-01,1.91440e-01,-1.60375e-01,-1.24716e-01,
-1.18813e-01,3.74914e-01,-1.95836e-01,1.87189e-01,4.50422e-01,4.97950e-01,1.80475e-01,6.12263e-01,-3.28831e-01,-1.65021e-01,-6.21351e-01,1.83913e-01,1.38527e-01,-9.26509e-02,2.81707e-01,
-7.30480e-01,-3.63222e-01,-4.04192e-01,5.73493e-01,1.14755e-01,6.44943e-01,1.00566e-01,3.72740e-01,-1.38269e-03,2.33295e-01,-8.22203e-02,-1.56746e-01,-2.10222e-01,-3.54489e-01,4.99639e-01,
-1.68562e-02,-3.59830e-01,3.56270e-01,-4.94841e-01,-4.06938e-01,-3.77800e-01,-1.81739e-01,-1.27495e-02,3.35905e-01,1.76279e-02,-2.08084e-02,2.68731e-01,5.81317e-01,-3.12196e-01,-3.76067e-01,
-2.17628e-01,-2.64017e-02,-1.25915e-01,1.10581e-02,2.41317e-01,5.89896e-01,-2.15144e-01,6.62036e-01,-3.42869e-01,3.40120e-02,1.59572e-01,-1.21592e-02,-5.33054e-02,-3.26322e-01,-7.64481e-02,
6.41122e-01,-1.23734e-01,2.42303e-02,6.92614e-01,1.62715e-01,-2.94543e-01,7.53375e-01,-2.06214e-02,9.91419e-02,9.18504e-02,-1.01541e-01,-2.71236e-03,-2.56794e-01,1.88302e-01,-7.62609e-02,
4.97625e-01,2.80102e-01,1.59075e-01,2.87274e-01,3.32874e-01,1.89402e-01,-4.57649e-01,2.39255e-01,-2.65268e-01,-5.51096e-02,-4.41924e-01,-3.26581e-01,1.05312e-01,6.69673e-01,1.41827e-01,
-1.95369e-01,1.63482e-01,3.13039e-01,2.90798e-01,-3.39524e-01,-4.19762e-01,-4.54387e-01,5.50830e-01,-2.82109e-02,7.71512e-01,-2.64053e-01,3.14563e-01,3.33490e-01,5.37035e-01,-1.10739e-01,
3.74528e-02,7.23880e-02,3.83947e-01,3.93727e-01,1.79660e-01,1.21554e-01,7.36552e-01,2.14594e-01,1.07139e-01,3.00898e-01,5.18907e-02,2.17906e-01,-6.39676e-02,2.19115e-01,-1.06772e-01,
1.69398e-02,1.47507e-01,2.11852e-01,4.12852e-03,-3.42375e-01,-1.66997e-01,8.43296e-01,3.32880e-01,-1.44079e-01,-6.79355e-02,1.76478e-01,2.70574e-01,-2.87038e-01,-1.77962e-01,-4.53747e-01,
9.58945e-02,4.29229e-01,1.44856e-01,1.18919e-01,4.02203e-02,3.12099e-01,4.10803e-01,-2.70373e-02,-7.38597e-02,-7.48582e-02,-1.23551e-01,-9.17643e-02,-7.73691e-02,4.72956e-01,3.36693e-02,
-2.30998e-01,-4.11832e-01,-3.24692e-01,-2.65966e-01,-1.97253e-01,-5.75139e-01,5.00800e-03,-2.38910e-01,-4.96564e-01,1.66785e-01,-4.00625e-02,-1.30997e-01,-1.19373e-01,1.72845e-01,4.70026e-01,
-4.99721e-02,-4.31072e-01,4.90831e-02,-3.24016e-02,7.35304e-01,-2.65288e-01,2.40675e-02,3.75034e-01,2.26461e-01,1.77304e-01,8.90421e-02,-1.34849e-02,8.50289e-02,3.77084e-01,5.25140e-01,
-6.17156e-01,-2.21308e-02,-1.34468e-01,3.43271e-01,6.91796e-02,2.16414e-01,-2.05768e-01,5.34042e-01,-4.73054e-01,-2.74514e-01,6.75970e-02,-5.40288e-01,-1.11839e-01,-6.15327e-01,3.27456e-01,
-3.19484e-01,-7.78984e-01,-4.10800e-01,1.53308e-01,-2.98583e-01,2.23350e-01,3.28627e-01,-5.99260e-02,-8.65603e-02,2.83685e-01,-3.78596e-01,4.37800e-01,9.85265e-02,-6.70421e-02,3.01151e-01,
-1.52862e-01,-6.70381e-01,5.07933e-02,-5.38258e-01,-1.68278e-02,3.07566e-01,3.52190e-01,-4.15012e-01,-2.18760e-01,-1.96542e-01,1.13361e-01,2.28345e-01,1.35258e-01,-1.51760e-01,1.57909e-01,
1.89059e-01,-6.28375e-01,-6.37018e-01,-1.27452e-01,-4.33671e-01,-2.52314e-01,-8.06968e-03,1.31130e-01,3.95320e-02,3.09212e-01,1.01202e-01,1.44835e-01,1.58099e-01,-6.27916e-01,8.64424e-01,
5.87566e-01,1.07834e-01,6.76033e-02,-1.14757e-01,-2.24729e-03,1.09576e-01,2.59501e-01,-1.73328e-01,4.47483e-02,-5.75892e-03,2.14032e-01,-2.26389e-02,3.33893e-01,3.07352e-01,1.89603e-01,
2.98400e-01,7.38580e-01,7.29752e-02,2.88575e-01,5.18231e-01,-3.37434e-02,-3.06157e-01,-3.11609e-02,-2.91106e-01,5.36166e-01,-4.03728e-01,-6.44775e-02,5.30122e-02,8.31143e-02,-3.11442e-01,
-5.49188e-03,-4.44291e-02,-5.92134e-01,2.25840e-01,-5.95125e-02,-4.77590e-01,3.17913e-01,-5.02302e-01,3.28831e-01,-3.33812e-01,-1.82564e-01,2.06865e-01,-1.95008e-01,-5.36208e-01,-5.72271e-01,
1.73414e-01,-2.13048e-01,1.23699e-01,6.18888e-01,-1.13038e-01,-3.01549e-01,-1.39594e-01,2.95951e-01,1.91831e-01,2.50817e-01,-4.49798e-01,1.52833e-01,-1.13340e-02,-1.46619e-01,4.44136e-01,
2.95352e-02,
-1.38708e-01,
2.08838e-01,
-3.23352e-01,
2.84685e-01,
-6.19054e-02,
3.83780e-02,
6.44919e-02,
3.08616e-01,
1.72826e-01,
3.94619e-01,
9.58963e-02,
-2.70036e-01,
2.58461e-01,
1.54055e-01,
4.14765e-01,
2.81750e-01,
3.27107e-01,
2.54642e-01,
-2.63685e-02,
-4.13893e-02,
2.45610e-01,
1.40618e-01,
-1.84712e-03,
3.88991e-02,
1.73002e-02,
3.80564e-01,
-3.36967e-01,
7.46706e-02,
2.64797e-01,
2.68343e-01,
-1.08702e-01,
-1.27264e-02,
5.55915e-01,
4.13571e-01,
5.84297e-02,
-2.40611e-01,
4.70327e-01,
1.52501e-01,
1.41276e-01,
5.56992e-01,
3.39847e-01,
3.52901e-01,
3.74404e-01,
2.05353e-01,
1.23886e-01,
3.56726e-01,
1.70107e-01,
-5.08673e-02,
3.36933e-01,
9.84548e-02,3.28107e-01,3.70611e-01,1.16260e-01,-5.42883e-01,3.64851e-01,-8.25714e-01,-2.84646e-01,9.34172e-02,-3.31971e-01,1.99480e-01,-2.28252e-02,-7.97646e-04,-3.45013e-01,8.58496e-02,-3.03881e-02,-7.70949e-01,6.62011e-02,-4.82511e-01,4.26647e-01,-9.69888e-01,2.36845e-01,-3.52511e-02,-2.00974e-01,5.34860e-01,-1.18893e-01,-1.40434e-01,1.75202e-01,3.88485e-02,-6.32979e-01,-4.86194e-01,-4.88714e-01,3.04122e-01,-3.02643e-01,3.64330e-01,-2.82150e-01,3.84962e-02,4.31966e-01,1.96244e-01,3.14611e-01,2.03167e-01,-1.83984e-01,-3.51027e-01,1.75108e-01,2.41959e-01,4.03659e-01,-2.60419e-01,-2.00269e-01,-7.20527e-01,-2.19802e-01,
3.28317e-01,-9.33603e-02,-1.10286e-01,1.15438e-01,-1.34882e-01,2.14661e-01,3.82803e-01,-6.71799e-02,2.81553e-01,3.26362e-01,1.24860e-01,2.09249e-01,-4.84648e-01,9.08013e-02,2.72566e-01,-1.79707e-01,9.86541e-02,-4.96031e-02,4.67057e-01,1.11523e-01,2.06949e-01,-2.67057e-01,-3.09333e-01,-3.89800e-02,-2.73242e-01,3.63633e-01,-4.58951e-01,-2.19400e-02,2.50200e-01,-3.79401e-01,-5.42962e-01,1.31746e-01,2.02250e-01,-2.37753e-01,-4.58131e-01,1.01770e-01,3.89918e-01,-4.37464e-01,-3.93101e-02,-2.73379e-01,-8.81259e-02,-2.50455e-01,-2.18105e-02,-1.71239e-01,2.97619e-01,3.91953e-02,1.93222e-01,-2.55865e-01,4.34731e-01,-1.92329e-01,
-3.90513e-03,-9.97551e-01,-1.81397e-01,-6.91912e-02,1.65838e-01,-6.92602e-01,-9.43590e-02,6.10623e-01,-1.69829e-01,1.85834e-01,-1.70363e-01,-8.29135e-02,2.86893e-01,2.57666e-01,-4.88578e-01,-1.19490e-01,-9.50242e-03,1.50969e-01,2.88758e-01,-1.78828e-01,-6.39090e-01,3.65858e-01,1.84497e-01,5.71146e-01,8.11991e-02,-1.25306e-01,-7.65844e-02,2.04337e-01,-1.31237e+00,2.22265e-01,9.12229e-02,-2.85016e-01,4.66265e-01,-5.53326e-02,2.72546e-02,2.41152e-02,3.44416e-01,-1.24623e-01,-1.69918e-01,5.64953e-02,8.65691e-02,2.55219e-01,-2.68996e-01,-3.84340e-01,-1.90684e-01,-5.53983e-01,-1.40895e-01,3.52746e-01,2.72469e-01,2.27433e-01,
-2.88582e-01,-2.14188e-01,-7.23984e-01,3.40460e-01,2.97760e-01,8.35059e-02,3.36066e-01,-3.48307e-01,-3.74227e-02,-1.30867e+00,1.02129e-01,2.22863e-02,-4.85802e-01,-2.34447e-01,-9.53823e-01,2.98837e-01,2.29328e-01,-8.55017e-02,-4.56845e-01,-1.21277e-01,4.24725e-01,-4.65905e-01,2.10624e-01,-5.25964e-01,-3.84854e-01,-3.34433e-01,3.07418e-01,-6.64116e-01,-3.74019e-02,-4.68011e-02,2.38312e-01,-5.41978e-01,-1.48166e-01,-1.06475e-01,2.70044e-01,3.38361e-01,-8.69231e-01,1.66734e-01,5.27022e-02,1.35480e-01,-3.35984e-01,1.10912e-01,-7.90458e-01,-1.05991e+00,-4.72526e-01,-6.85768e-01,2.77464e-01,-2.68736e-02,-1.60657e-02,1.48963e-01,
4.20014e-03,2.44663e-01,4.06602e-01,2.21430e-01,-6.13013e-01,-4.88487e-01,1.20255e-01,-9.14726e-02,-4.94465e-01,5.82522e-01,-7.43229e-01,-7.81870e-01,-4.49419e-01,-4.23651e-01,-8.56134e-01,-8.01852e-01,-4.94004e-01,4.11219e-01,2.28342e-01,4.31653e-02,-1.14095e-01,-4.02688e-01,-5.13144e-01,-8.93158e-01,-5.28021e-01,-2.71280e-01,4.74966e-01,2.15929e-01,-4.67809e-01,-9.76117e-01,7.51173e-02,5.62088e-01,3.42520e-02,3.17335e-01,-5.13011e-01,-7.35539e-01,-4.85882e-01,2.81345e-02,-4.27233e-01,-1.15340e-01,-8.43658e-01,-5.05288e-01,2.93212e-01,2.18570e-01,7.33873e-02,-9.13161e-01,-1.90839e-01,-7.33698e-01,-6.06136e-01,-4.14443e-01,
-9.37357e-02,-1.67381e-01,-3.28553e-01,1.13822e-02,3.78570e-02,1.72234e-01,-3.76231e-02,-1.32580e-01,-3.88826e-01,-2.63267e-01,2.97347e-01,4.25857e-01,4.56629e-01,-3.05060e-02,4.06742e-01,-4.35290e-02,-5.84910e-01,-3.94867e-01,-2.20551e-01,-5.57505e-01,3.39459e-01,4.44066e-01,-1.10144e-01,-3.13477e-01,2.61670e-01,5.56444e-02,2.75121e-01,-1.08146e-01,4.88656e-01,-5.48774e-02,7.60630e-02,-5.12901e-01,-4.02301e-01,4.53187e-01,2.29825e-02,-4.90414e-01,-7.52371e-01,-1.89152e-01,3.89526e-01,-4.73450e-01,8.11564e-02,2.95797e-01,3.37461e-01,-1.00528e-01,-3.21982e-01,1.25108e-01,-1.36485e-01,-3.60291e-01,1.14914e-02,1.66588e-01,
-5.53691e-01,-3.41773e-02,-1.17280e-01,-1.24269e+00,2.36257e-01,2.39069e-01,3.75021e-02,-3.38657e-01,3.85825e-01,1.64894e-01,-3.42153e-01,-8.82852e-01,-1.02132e-01,2.04774e-01,-1.83288e-01,9.89567e-02,4.46398e-01,-3.25822e-01,-4.16505e-01,-3.17199e-01,1.16332e-01,-6.69545e-02,-1.92464e-01,1.99176e-01,-1.41564e-01,3.46270e-01,-4.01889e-01,7.37334e-03,6.16342e-03,4.22184e-01,-1.61289e-01,3.35887e-01,-3.20865e-01,-1.54411e-01,-1.07625e-01,6.52044e-02,4.74628e-02,-2.56906e-01,-7.53946e-01,9.20264e-02,7.81401e-02,-1.89133e-01,2.38415e-01,4.48954e-01,-4.72312e-02,4.54013e-01,-8.48394e-02,1.69789e-01,-3.74282e-01,2.43909e-01,
-5.62660e-02,
-2.11630e-02,
2.32586e-02,
-3.24764e-02,
-1.35317e-01,
1.27574e-01,
5.52906e-02,
