// Neural Network File Format by Kyle Julian, Stanford 2016
3,15,7,50,
15,50,50,7,
0,
-1.0,-1.38,-2.62,-2.07,-2.54,-2.63,-2.19,-3.87,-0.14,-1.66,-0.24,-1.16,-1.08,-2.46,-1.98,
1.0,4.16,2.45,0.49,0.4,1.12,1.71,2.39,7.6,1.63,4.31,2.27,2.15,1.46,1.31,
0,0,0,0,0,0,0,0,0,0,0,0,0,0,0,0,
1,1,1,1,1,1,1,1,1,1,1,1,1,1,1,1,
1.95235e-01,-8.54847e-01,5.02879e-01,3.96612e-01,1.54794e-01,2.06139e-01,5.32657e-01,8.64231e-02,-5.46290e-02,1.85428e-01,2.32620e-01,-1.42465e-01,-5.12052e-02,3.46099e-01,-4.10545e-02,
-4.60416e-02,5.91693e-01,-2.70789e-01,-2.97832e-01,2.40378e-01,-1.09624e-01,5.13987e-01,5.28147e-02,-3.70520e-01,1.13103e-01,4.88143e-01,-2.29779e-01,-7.01850e-02,1.78093e-01,1.72699e-01,
3.32724e-01,1.29486e-01,3.20072e-01,4.15049e-02,5.01783e-01,2.90655e-01,1.74468e-02,-9.69288e-02,-3.65115e-02,3.79324e-01,-1.48785e-01,-4.38512e-02,4.61106e-01,-1.93685e-01,1.11026e-02,
-6.48537e-02,-1.07927e-01,1.16683e-01,4.59460e-01,5.48169e-01,-4.26982e-01,-4.42285e-01,1.57992e-01,1.39646e-01,-9.39654e-03,1.07831e-01,-1.54294e-01,2.87602e-01,-2.75703e-01,-1.09132e-01,
2.68866e-01,4.84661e-01,3.94430e-01,8.27488e-03,-2.03942e-01,-1.51378e-01,1.35782e-01,1.66721e-01,-1.96613e-01,8.56490e-02,1.36327e-01,-3.96503e-01,-1.95294e-02,-3.33682e-01,4.59523e-01,
3.38176e-01,4.27714e-01,5.98290e-02,2.26498e-01,-4.94572e-01,-3.07713e-01,-5.63005e-01,-2.23849e-01,-3.79376e-02,1.20650e-01,-1.36775e-01,-9.70784e-02,9.63690e-02,-5.26265e-01,-2.97610e-01,
4.60678e-01,9.59788e-02,-1.93155e-01,-1.74832e-02,2.35387e-01,1.08611e-01,-9.36998e-03,-4.12851e-01,2.01006e-01,-5.74734e-01,-5.86842e-02,-2.82601e-01,4.15835e-01,2.05746e-01,1.07241e-01,
2.66908e-01,-3.64399e-01,-7.63068e-01,-3.35522e-01,-1.20635e-01,-1.09988e-01,5.51762e-01,1.19064e-01,-3.00104e-02,5.92990e-01,2.51787e-02,-1.66530e-01,5.67345e-02,-2.10366e-01,1.99432e-01,
2.28116e-01,1.02789e-01,1.91469e-01,4.69765e-01,4.41315e-01,1.92080e-01,9.52455e-01,-1.66426e-01,2.11217e-01,8.24668e-02,-1.21804e-01,-3.36710e-02,3.73516e-01,9.75506e-02,-1.68182e-01,
-5.38149e-02,-9.20180e-02,-1.17928e-01,3.59335e-01,5.64115e-01,-3.70043e-01,1.02988e-01,2.66344e-02,-2.68862e-01,-8.00488e-02,3.01154e-01,2.12358e-01,-5.05342e-01,1.71024e-02,8.75857e-02,
-1.63118e-01,-4.76898e-01,2.35009e-01,-1.93793e-01,-3.86631e-01,-1.47901e-01,-2.94189e-01,1.94825e-01,1.19566e-01,-3.20257e-01,-3.50964e-01,-2.91423e-02,1.20258e-01,1.53134e-01,-1.39322e-01,
3.77403e-01,5.30197e-01,2.75688e-01,1.04146e-01,1.57804e-01,-6.23015e-02,-2.36945e-01,1.92491e-01,2.82610e-01,2.48381e-01,4.53335e-02,-4.17907e-02,3.65777e-02,2.72843e-01,7.35804e-02,
-5.06040e-02,-9.86762e-02,4.65735e-01,-2.59667e-02,1.65268e-01,-1.34951e-01,-5.46702e-01,-6.44263e-02,1.64310e-01,4.70477e-01,3.46289e-01,3.73769e-01,1.19604e-01,4.06865e-01,-4.12862e-01,
-3.71166e-01,-4.08087e-01,1.58258e-01,1.37370e-02,3.60931e-01,-2.24182e-01,4.88537e-01,2.81609e-01,-4.41178e-03,-2.86274e-02,-3.32202e-01,-4.05221e-01,3.82630e-04,4.69414e-01,5.19529e-01,
1.31965e-01,6.07759e-04,3.17742e-01,2.66694e-01,-5.08439e-01,-4.81025e-01,6.82298e-02,-4.50049e-01,2.33532e-01,3.52106e-01,1.24981e-01,-5.52236e-01,6.82020e-02,-1.71832e-01,8.71723e-03,
-3.07995e-01,-1.41180e-01,-4.25834e-01,-1.34516e-01,2.59192e-02,-3.34941e-01,1.59557e-01,-2.71773e-01,-2.99752e-02,-8.74021e-01,2.23802e-01,1.55276e-01,8.64346e-02,-5.10366e-01,-1.75853e-01,
2.68753e-01,-4.26326e-03,1.85367e-01,4.89855e-01,4.62223e-01,-4.99432e-01,1.03735e-01,4.21855e-02,1.16917e-01,4.79945e-01,-3.50008e-01,1.51204e-01,1.14978e-01,1.78802e-01,-1.42171e-01,
-2.30886e-01,-5.88229e-02,-3.54782e-01,-5.32776e-01,-3.46749e-01,2.31531e-01,-1.06699e-01,-2.97805e-01,2.13461e-01,-6.83379e-02,-8.91558e-02,-2.12328e-01,6.41392e-02,3.97700e-01,1.13272e-01,
1.68762e-01,-2.21891e-01,4.23444e-01,-5.99092e-01,3.34971e-02,2.31652e-01,-1.14064e-01,-5.90774e-01,-1.88430e-01,8.42354e-02,-3.13256e-02,-2.21277e-01,1.00194e-01,-9.68717e-02,3.21611e-01,
-1.94620e-01,2.77089e-01,3.74548e-01,-1.58911e-01,2.50790e-01,-3.91339e-01,1.30484e-01,3.61069e-01,-5.11587e-01,-2.97509e-01,-2.86458e-01,2.77500e-01,-7.38004e-01,1.53938e-01,-8.84638e-02,
3.43995e-01,-7.22281e-01,-1.75895e-01,-2.08359e-01,2.43877e-01,2.77815e-02,1.28127e-01,4.60079e-01,-5.59562e-02,8.95785e-02,2.89619e-01,8.32450e-02,1.98819e-01,-2.23394e-01,-2.28582e-01,
3.84327e-01,2.33876e-01,-9.97731e-02,1.86188e-01,-1.90777e-01,2.95154e-01,-3.35564e-01,2.28686e-01,-4.84491e-01,-2.52963e-01,-1.57496e-02,4.73773e-01,-1.29980e-01,-2.37814e-01,4.62791e-01,
3.11063e-01,-1.60828e-01,-1.00830e-01,-3.34939e-02,-3.72331e-01,-2.17403e-01,1.85286e-01,-6.78430e-02,-7.42603e-02,-5.66544e-01,3.99892e-02,-2.48323e-01,3.79116e-01,1.40174e-01,3.28698e-01,
-1.48000e-01,-5.27036e-02,-1.45500e-01,-3.64879e-01,3.94482e-01,-7.44025e-02,2.74676e-02,2.10854e-01,-3.36475e-01,-1.95848e-02,2.56819e-01,-1.04013e-02,4.31846e-01,-2.39104e-01,-3.32130e-01,
1.35937e-01,-1.35188e-01,7.60129e-02,-2.13382e-01,-1.25937e-01,3.34494e-02,-3.70354e-01,-3.76416e-01,-1.94795e-01,-8.42326e-02,1.74082e-01,4.74786e-01,-1.41400e-01,-2.96843e-01,6.02666e-01,
-2.99665e-01,-2.88733e-01,-1.05138e-01,-2.51325e-02,-4.50784e-01,-3.91075e-01,4.56108e-01,4.68528e-01,-2.15004e-01,1.41761e-02,-1.01898e-01,3.65418e-01,3.99163e-01,1.38240e-01,-4.60546e-01,
-3.47703e-01,-3.77591e-01,-3.81927e-01,1.45379e-01,-2.79474e-01,-3.92973e-01,-2.36880e-01,2.02534e-01,2.88509e-01,3.59323e-01,-4.43129e-01,-1.42731e-02,-8.15819e-02,4.70576e-01,4.94011e-02,
5.06737e-01,2.31370e-01,3.08638e-01,-2.25379e-01,1.15485e-01,-1.93848e-02,-2.79043e-02,-3.07556e-01,1.99439e-01,1.51597e-01,-1.66278e-01,1.35096e-01,-4.26142e-01,-4.12359e-01,-2.47516e-01,
3.82512e-02,-3.80751e-01,-3.39020e-01,-2.48212e-01,4.76363e-01,-2.19099e-01,-3.08765e-01,9.45641e-02,6.44307e-03,1.84174e-01,-3.81827e-01,5.32979e-02,-3.96076e-01,7.04905e-02,-3.98282e-01,
5.13666e-01,1.19932e-01,1.14950e-01,-2.02974e-01,1.78006e-01,2.90294e-01,-2.39361e-02,-1.41421e-01,2.06522e-01,-4.02201e-01,1.44174e-01,2.70669e-01,-1.74986e-01,5.44575e-01,3.41572e-03,
1.79310e-01,2.29712e-03,-5.53985e-03,4.85051e-01,4.64171e-01,3.53605e-01,-7.40768e-02,1.68750e-01,-2.73987e-01,-2.07166e-02,1.40400e-01,4.33698e-01,9.66483e-02,4.88568e-01,6.83187e-02,
9.37112e-02,-8.50723e-01,-5.88884e-01,3.36826e-01,-2.27182e-01,9.03439e-02,1.35863e-01,1.77583e-01,-1.07511e-01,6.86103e-02,7.46511e-02,4.62935e-01,-2.04822e-01,-7.93851e-02,3.50318e-02,
-3.92584e-01,-3.75506e-01,-3.29518e-01,6.93774e-02,7.08703e-02,5.42536e-01,4.08230e-01,-1.80981e-01,1.34149e-02,3.50999e-01,5.64192e-02,-1.59708e-01,-3.89484e-01,-4.44946e-01,3.89090e-01,
-4.86116e-01,2.31418e-01,-1.02335e-01,5.01652e-01,3.44297e-01,6.31967e-01,-7.37030e-02,2.01501e-02,7.34784e-04,8.71850e-02,-2.04870e-02,-3.44881e-02,-4.73243e-01,2.26638e-01,6.83014e-01,
3.11303e-01,-4.17379e-01,-1.77740e-02,-3.05725e-01,2.18631e-01,-2.85214e-01,6.53086e-01,-2.53983e-01,5.31867e-02,-3.43062e-01,1.52909e-01,-1.96460e-01,1.44879e-01,-2.16192e-01,-7.68113e-02,
-3.49547e-01,7.05081e-02,2.60226e-01,-2.82148e-02,-1.04533e-01,4.82872e-01,2.55196e-01,-1.72175e-01,1.42069e-01,-1.76233e-01,1.42631e-01,1.21671e-01,4.04482e-01,-1.18956e-01,-6.12111e-02,
3.00197e-01,3.54011e-01,-4.61789e-01,-2.19817e-02,-1.93545e-01,4.53991e-01,-4.28570e-01,-2.17044e-02,1.94556e-01,-7.33366e-02,-1.90263e-01,6.88549e-01,1.06394e-01,-6.62853e-02,-3.42787e-01,
5.06511e-01,3.66797e-01,2.06204e-01,2.31571e-02,-3.94455e-02,1.48654e-02,6.12308e-01,4.62070e-01,-2.25806e-01,3.15478e-01,-1.48611e-01,7.56342e-03,-3.49345e-01,-1.22112e-01,-1.92771e-01,
9.47883e-02,-9.43588e-03,1.10299e-01,-2.02293e-01,-3.56235e-01,1.74174e-01,-5.53642e-01,3.87992e-01,-7.00867e-02,2.57636e-01,1.42914e-01,6.64518e-01,-3.68326e-01,-5.39010e-02,-2.21953e-01,
-6.28644e-01,-1.47026e-01,2.54570e-01,2.75224e-01,2.76478e-01,2.57435e-01,-1.12766e-01,2.80343e-02,-6.52932e-02,3.02677e-01,-3.65394e-01,3.02755e-01,1.22475e-01,-2.04384e-01,3.12476e-01,
1.11491e-01,4.74770e-01,1.96646e-01,-1.38757e-01,4.78626e-01,1.54345e-01,-2.74021e-01,3.98371e-01,-1.48182e-01,1.04159e-01,1.36785e-01,-3.32572e-01,-4.45911e-02,4.10132e-01,7.75749e-02,
-3.02917e-01,2.23545e-01,-5.29131e-04,-1.04915e-01,7.64595e-02,2.93184e-01,-2.83734e-01,-5.70296e-01,8.24946e-02,6.16475e-02,-5.50452e-02,-7.43360e-02,-3.74227e-02,5.14366e-01,-1.35525e-01,
-2.35275e-01,3.24151e-01,1.41073e-01,3.39830e-01,-5.18256e-02,4.67640e-01,-2.74702e-01,2.57987e-01,-6.09685e-01,7.01599e-02,3.39246e-01,-2.96554e-01,8.70949e-02,-6.63441e-01,-1.47494e-01,
-2.95097e-01,-3.54347e-01,-3.87278e-01,1.25011e-01,7.19030e-02,-9.39746e-02,4.36592e-01,-3.83496e-01,1.61671e-01,-1.10189e-01,1.23261e-01,-1.08663e-01,3.26775e-01,6.12130e-01,-5.38008e-01,
-2.59537e-01,1.31610e-01,8.86381e-02,-3.37275e-01,2.80361e-02,-1.52267e-01,-5.39554e-01,-5.22579e-01,2.33500e-02,-2.85178e-01,-1.67238e-01,1.96810e-02,-1.33978e-02,-1.97521e-01,6.75743e-01,
-2.23619e-01,-5.46461e-02,-2.87422e-01,-2.79071e-02,3.35509e-01,3.33535e-01,1.56251e-01,-7.03080e-04,7.99700e-02,-7.98241e-02,-3.69899e-01,-3.56089e-01,-3.41160e-01,-3.16423e-01,3.49539e-01,
-4.52240e-01,-3.01183e-01,-4.00165e-01,-1.22136e-01,-7.24297e-02,5.80838e-01,-1.95486e-02,2.73252e-01,5.14458e-02,7.47065e-02,-1.34773e-01,-1.65950e-01,-2.79780e-01,-6.56312e-01,2.29371e-01,
-5.37988e-02,-7.12121e-03,6.92710e-01,-4.22747e-02,-2.40540e-01,3.05928e-02,-3.39352e-02,-4.75846e-01,2.01714e-01,-1.05258e-01,1.59830e-02,4.09375e-01,-5.16304e-01,3.88698e-01,-2.82528e-01,
1.98209e-01,-2.23243e-01,1.38995e-01,-4.69389e-01,-9.81357e-02,-1.35081e-01,5.11695e-01,-9.10063e-03,3.81133e-01,-2.89238e-01,-1.01881e-01,3.59856e-01,-3.11046e-01,-2.95946e-01,-2.85769e-01,
1.41956e-01,-1.64703e-01,-3.84256e-01,6.08842e-01,-9.41446e-02,-4.63161e-01,-7.47802e-02,-2.04481e-01,-1.73377e-01,-7.95963e-05,-1.48352e-01,9.87828e-02,-2.13781e-01,2.35528e-01,-2.51233e-01,
-1.29139e-01,
4.32129e-01,
-7.35855e-02,
2.69486e-01,
-1.82738e-01,
-1.59831e-02,
2.36925e-01,
3.96193e-01,
6.50926e-02,
1.82206e-01,
3.81868e-01,
2.56809e-01,
-8.23168e-02,
2.61954e-02,
1.16213e-01,
2.07250e-01,
4.01444e-01,
-8.57615e-03,
-6.55897e-02,
4.55374e-01,
-1.50772e-01,
4.08406e-01,
-1.88894e-01,
1.19963e-01,
3.41437e-02,
-1.18537e-01,
1.82454e-01,
4.78337e-01,
1.95858e-01,
1.26919e-01,
1.31424e-01,
-1.33448e-01,
2.67793e-02,
-2.10909e-01,
-1.11328e-01,
2.90566e-01,
3.42879e-01,
1.02425e-01,
-1.58738e-01,
3.76200e-01,
1.95715e-01,
1.16154e-01,
4.82410e-01,
-1.46070e-01,
1.20047e-01,
1.77214e-01,
3.74867e-01,
-7.92159e-02,
1.85810e-01,
1.27426e-01,
1.70841e-01,-3.04159e-01,6.87765e-03,1.58495e-01,-2.64947e-01,-2.62327e-01,-9.63572e-02,4.19847e-01,2.12335e-01,-2.48350e-01,-1.46105e-02,-3.06112e-01,9.33787e-03,-1.23244e-01,-1.18101e-01,-8.03818e-02,2.09556e-01,1.44250e-01,-9.81888e-02,-2.10140e-01,2.45406e-01,1.40694e-01,1.71442e-01,-2.16354e-01,1.62556e-01,1.29142e-02,1.61465e-01,3.24248e-01,3.04079e-01,-2.57702e-01,1.75183e-01,4.80283e-01,1.17275e-01,-6.32821e-01,-4.44650e-01,-1.47005e-01,3.53194e-01,-1.14715e-01,4.05983e-01,-3.52172e-02,-6.35343e-01,1.36993e-01,-2.49513e-01,1.19145e-01,-3.12388e-02,-8.59797e-02,3.58848e-01,-1.28064e-01,-4.16753e-01,1.93860e-01,
-1.53970e-01,2.60558e-01,1.81373e-01,1.32239e-01,-9.08555e-02,5.47505e-02,1.60005e-01,-2.56050e-02,5.26114e-02,1.35049e-01,-1.10289e-01,-1.59525e-01,-1.18638e-01,4.71528e-02,5.24317e-02,-1.25712e-01,6.99540e-02,9.54957e-03,-1.22613e-01,3.81116e-01,1.30027e-02,3.27049e-01,-3.10339e-01,1.37551e-01,8.18954e-02,-3.79778e-01,-3.90101e-01,8.40158e-02,-6.69893e-02,-2.10830e-02,3.02042e-02,2.59159e-03,-1.05530e-01,1.00871e-01,-8.06142e-02,2.10497e-01,-1.09073e-02,2.36759e-01,5.43323e-02,3.21604e-01,1.69297e-01,-5.17344e-02,3.89384e-01,-4.41834e-01,-1.95876e-01,2.73184e-02,2.92329e-01,1.70787e-01,3.80597e-02,-1.05892e-01,
2.91367e-01,1.22126e-01,1.54505e-01,2.71246e-01,-2.31522e-01,-1.81839e-01,-3.48321e-01,1.30859e-01,1.39089e-01,2.18902e-01,1.62884e-01,-5.96056e-02,1.55014e-01,4.43455e-02,-2.72148e-01,3.95799e-01,-5.22699e-03,1.53323e-01,-2.51543e-01,3.38812e-01,4.91735e-01,-1.05687e-01,-2.40550e-01,3.77773e-01,-1.52995e-02,5.31329e-02,2.56883e-01,-1.29768e-01,2.71807e-01,-2.02106e-01,2.09674e-01,-1.03372e-01,-2.60842e-01,1.37484e-01,2.23378e-01,1.22382e-01,7.65002e-02,7.11549e-02,2.67239e-01,-2.28331e-01,-2.40715e-01,7.18302e-02,4.03529e-02,-2.28806e-01,4.34917e-01,-1.54966e-01,-8.81530e-02,-1.07638e-02,3.08593e-01,2.70235e-02,
3.37603e-01,2.03638e-01,-7.14606e-02,1.92486e-03,-2.85881e-01,-1.29023e-01,-2.90266e-01,1.63088e-01,3.80682e-01,-3.49738e-01,1.82996e-01,-9.40902e-02,2.02604e-01,2.00235e-01,-3.31967e-01,1.76104e-01,-1.73749e-02,3.62122e-02,-1.07353e-01,-1.03177e-02,3.58156e-01,6.90737e-02,-4.87496e-02,1.39138e-01,3.54235e-01,1.78509e-01,-1.69133e-01,-4.83194e-02,2.45847e-01,-2.37219e-02,8.90625e-02,1.01463e-02,3.09653e-01,1.41304e-01,-9.86584e-02,3.74378e-01,1.73853e-01,1.22959e-01,2.48899e-01,1.46839e-01,-1.25515e-01,1.97465e-01,2.61437e-02,-1.67695e-01,2.37423e-01,2.85004e-01,2.38138e-01,2.00310e-01,8.87082e-02,-1.92690e-01,
6.70866e-02,-1.21802e-01,-1.70674e-01,1.37351e-01,-1.24692e-01,-3.09067e-01,6.02013e-02,1.97820e-01,2.18723e-01,-1.46500e-01,2.36033e-01,-2.12360e-01,-1.14309e-02,-2.31004e-01,-5.45294e-01,2.92146e-03,2.19573e-01,3.30875e-01,5.53765e-02,1.95421e-01,3.23449e-01,1.57096e-01,-1.75110e-02,2.37898e-01,2.61162e-01,2.06255e-01,3.20115e-02,-3.80070e-02,6.86122e-02,6.65483e-02,-8.96807e-03,2.07911e-01,3.58627e-02,-4.13734e-01,-1.35796e-01,3.94682e-02,-1.17510e-01,1.67838e-01,4.32443e-01,-1.71976e-01,-2.11537e-01,4.73541e-01,-5.58100e-01,1.80093e-01,1.59055e-01,-4.83340e-02,-2.43019e-02,1.58619e-01,3.40870e-02,1.43603e-01,
1.87203e-01,2.41331e-02,-5.63534e-02,2.14254e-01,-7.32031e-02,3.30165e-01,-9.94662e-02,2.71763e-01,-2.83013e-01,2.43831e-01,4.13045e-02,8.82747e-02,2.32460e-01,4.43719e-01,9.85183e-02,1.33514e-01,1.60629e-01,-1.65269e-01,1.48200e-01,1.40879e-01,-2.55486e-01,-4.15554e-01,8.11195e-02,-5.13572e-02,-3.84579e-01,-3.38956e-01,1.83779e-01,1.95239e-02,2.05270e-01,-4.64398e-02,-2.02993e-01,3.13176e-01,1.13382e-01,-2.83767e-01,8.68632e-03,-1.77258e-01,1.33920e-01,-3.32540e-02,-3.56602e-02,2.92934e-01,2.74250e-01,-2.41859e-01,-7.42386e-02,1.49068e-01,1.51167e-01,8.52203e-03,-7.88424e-02,-1.98753e-01,-1.70887e-01,6.82301e-02,
2.22755e-01,1.55863e-01,-1.72496e-01,3.46914e-02,3.06645e-01,8.54778e-02,3.13909e-02,2.82164e-01,8.84038e-02,2.39043e-01,1.72576e-01,-2.70158e-01,6.46252e-02,-2.88343e-02,-1.63674e-01,3.55879e-01,-2.13189e-01,9.22629e-02,4.95104e-02,-3.83050e-02,3.90239e-01,4.10128e-02,3.03757e-02,3.15254e-01,1.26652e-01,1.37462e-01,4.17681e-02,-1.98336e-01,1.40466e-01,3.45179e-02,-1.76239e-01,-8.98696e-02,-3.71687e-02,7.22846e-02,3.44052e-01,1.40173e-01,-2.15495e-01,1.85578e-01,1.49351e-01,-2.58928e-01,-3.92482e-01,3.79040e-02,5.27834e-02,1.73374e-01,-6.37142e-02,2.56179e-01,-1.07749e-01,-1.83516e-02,8.15567e-02,-1.10050e-01,
-2.69080e-01,1.52623e-01,-1.24749e-02,2.35723e-01,2.18274e-01,1.32205e-01,-1.91947e-01,5.07577e-01,-1.39256e-01,1.54701e-01,-7.64253e-02,-1.15093e-01,4.18382e-01,2.75903e-01,-3.50304e-02,6.08110e-02,-1.17798e-01,2.44832e-01,-1.70333e-01,2.29467e-01,2.08901e-01,4.87757e-02,2.49435e-01,6.63458e-02,4.72645e-02,-2.38528e-01,1.68151e-02,6.09651e-02,2.65339e-01,8.54437e-02,-2.46383e-01,1.29777e-01,-3.35715e-02,-2.74686e-01,1.28362e-01,-1.38441e-01,5.70277e-02,-2.59903e-01,2.78761e-01,7.29571e-02,8.32562e-02,1.80714e-01,1.09662e-01,2.73955e-01,3.24142e-01,1.47179e-01,4.77927e-02,1.77570e-01,-9.21088e-02,-2.21405e-01,
4.58666e-02,1.20500e-01,2.51347e-02,-2.77359e-02,-1.68119e-01,2.40703e-01,-1.57926e-01,1.95271e-01,-2.07161e-01,2.87905e-01,1.20042e-01,1.74516e-01,3.73567e-01,3.70732e-01,1.65649e-01,4.15724e-01,-5.45580e-02,7.13537e-04,-9.91464e-02,1.23275e-01,4.79540e-02,-2.62677e-01,-1.12001e-01,1.78162e-01,-2.69339e-01,-3.15238e-01,2.22164e-01,8.34178e-02,3.48921e-01,-7.96511e-02,-1.06619e-01,8.44833e-02,6.34539e-02,1.92338e-01,1.59872e-02,-2.19534e-01,2.23634e-01,-1.38247e-01,7.64778e-03,1.06640e-01,2.52443e-01,-2.00273e-01,1.02359e-01,5.93566e-02,1.05119e-01,2.60868e-01,3.25147e-03,-2.29501e-01,-9.15154e-02,-8.80298e-02,
-2.98216e-01,-5.66352e-01,-4.52691e-01,2.20040e-01,-3.51850e-01,-1.42962e-01,5.05940e-01,-7.11599e-01,-8.26848e-02,1.20377e-01,3.73832e-02,1.02105e-01,-3.09445e-01,-1.95727e-01,-3.14235e-01,5.75843e-02,-1.57453e-01,4.60283e-03,-2.03426e-01,-3.45709e-02,-3.10061e-01,3.10533e-01,-9.71922e-02,8.03317e-02,-1.98296e-01,-5.11342e-01,-1.08040e-02,-2.44514e-01,-8.38647e-02,3.88891e-01,5.62208e-01,-3.26058e-01,-2.02370e-01,4.11070e-01,-3.16705e-01,5.00774e-02,2.08750e-01,-1.93213e-01,-2.30395e-01,-2.72259e-01,1.08693e-01,3.13109e-01,-6.61030e-01,-6.43856e-02,2.38265e-01,-3.50183e-02,-3.23722e-01,2.60223e-01,-3.08277e-01,3.23316e-01,
-7.03976e-02,1.49591e-02,5.73452e-02,2.94738e-01,1.97412e-01,-2.59966e-01,3.28179e-01,-1.40567e-01,3.11040e-01,5.00514e-02,1.68226e-01,7.80282e-02,-3.06675e-01,-2.18936e-01,-1.73395e-01,-1.23963e-01,3.30859e-01,1.94116e-01,-6.52438e-02,7.66927e-02,-4.31377e-02,1.59818e-01,1.95280e-01,-3.41536e-03,1.99643e-01,1.92154e-01,5.61349e-04,1.35290e-01,-1.37880e-01,-1.59550e-02,1.12242e-01,3.96309e-01,-1.92075e-01,-3.22059e-01,-1.88321e-01,1.17365e-01,-2.29739e-01,1.34042e-01,7.15785e-02,-1.69607e-01,1.80266e-02,2.45643e-01,-2.24695e-01,-3.05307e-02,9.28462e-02,-2.30911e-01,1.22934e-01,1.58119e-01,5.77820e-02,1.01598e-01,
-5.48388e-02,1.62206e-01,2.21166e-01,2.95296e-01,2.07152e-01,2.43818e-01,3.13201e-02,-1.92425e-01,-2.51667e-01,4.72672e-01,4.20602e-02,1.26985e-01,-3.94081e-01,-1.38638e-02,3.13957e-01,-1.87104e-01,2.05213e-01,-1.86539e-01,-8.23571e-02,2.32871e-01,-3.49719e-01,1.37634e-01,-1.98721e-02,4.42951e-02,-1.47581e-01,-2.40882e-01,3.00108e-02,2.86705e-01,-1.13675e-01,1.09154e-01,3.37886e-01,2.21179e-01,-4.30964e-02,-7.26778e-02,-3.05911e-01,-1.18486e-01,-3.32919e-02,1.58151e-01,-2.25349e-01,2.03863e-01,1.73713e-01,-1.63597e-01,2.54236e-02,2.76104e-02,-3.18172e-01,1.02140e-01,-1.75375e-01,-1.53703e-01,2.90067e-01,1.46885e-01,
3.74046e-01,1.02252e-01,1.51785e-01,-9.90572e-02,-3.02109e-01,-2.62191e-01,-1.87183e-01,1.68063e-02,2.87616e-01,6.20205e-02,1.52617e-01,-1.75180e-02,4.53850e-01,2.70574e-01,-1.65575e-01,6.01168e-01,-1.78866e-01,-1.23115e-01,4.98085e-03,5.89507e-02,1.93839e-01,1.15404e-01,-2.07304e-01,1.28838e-01,3.23207e-01,-2.23704e-01,1.19615e-01,6.26834e-02,2.59778e-01,-2.07162e-02,3.22530e-02,4.20505e-02,1.28901e-01,3.94713e-01,1.66217e-02,3.71074e-01,7.33102e-02,7.71557e-02,3.81811e-02,1.27210e-01,6.04589e-02,8.56791e-02,2.28866e-01,-3.96046e-01,2.13413e-01,1.73584e-01,-1.35749e-02,4.71512e-02,2.22736e-01,-1.10136e-01,
-1.33559e-01,-7.07426e-02,1.09622e-01,-5.53635e-02,7.38118e-02,5.81789e-01,1.58579e-02,1.59312e-01,-3.56780e-01,-3.62950e-02,2.00668e-02,1.75976e-01,1.84645e-01,-1.15571e-01,1.51646e-01,1.00463e-01,6.41957e-02,-2.43395e-01,4.22879e-02,-2.53790e-01,-8.99785e-02,1.72588e-01,3.33793e-01,-1.42809e-01,-4.25550e-02,3.73263e-01,5.35536e-02,1.31787e-01,-1.88894e-02,2.80488e-01,9.50847e-02,2.78759e-01,1.60310e-01,1.86463e-02,1.87070e-01,-2.66235e-01,2.36264e-01,-1.06390e-01,-1.26703e-01,3.49380e-01,2.98046e-01,-3.22063e-01,-4.67903e-02,1.45765e-01,-5.86805e-02,2.07364e-01,-1.54172e-01,-2.84696e-01,-1.71450e-01,1.51901e-01,
3.40008e-01,1.15193e-01,1.18031e-01,-2.21948e-02,-2.53312e-01,1.57034e-01,-3.42786e-01,8.21969e-02,-4.56756e-01,2.90683e-01,1.34126e-01,2.20747e-01,2.43149e-01,1.60728e-01,1.83163e-01,3.68969e-01,-2.35095e-02,-1.89215e-01,2.21473e-01,1.78244e-01,1.14246e-02,-3.64386e-01,1.51785e-01,-1.15756e-02,-3.30841e-01,-1.19077e-01,2.52618e-01,-9.41080e-03,-3.31295e-02,-5.32146e-02,-1.88662e-02,1.72262e-02,1.96162e-02,-1.11935e-01,8.46116e-02,-1.49446e-01,1.11936e-01,-6.28703e-03,-1.80460e-01,1.96389e-01,2.83934e-01,-2.33196e-01,6.23048e-02,3.55062e-02,1.06507e-01,1.15645e-01,-2.62032e-01,-5.67906e-01,8.05067e-02,2.22552e-01,
4.04872e-01,-9.45853e-02,2.30745e-01,-4.27380e-01,-1.97138e-01,1.98840e-01,3.87025e-02,-7.46323e-02,-1.73772e-01,3.39484e-01,-6.09897e-03,2.61239e-01,-1.84196e-01,2.69164e-01,2.60949e-01,3.46840e-01,-1.98173e-01,-2.41127e-01,4.14792e-01,1.37671e-01,-2.07612e-01,4.07786e-02,-1.06050e-01,-6.58176e-02,-2.32510e-01,-2.47159e-02,-9.03010e-02,1.61714e-01,-1.63952e-02,1.34985e-01,2.90843e-01,4.60317e-02,-2.33654e-02,2.54213e-01,9.17336e-02,-1.68006e-01,1.65018e-01,3.15289e-01,-1.80179e-01,2.15822e-04,-2.97714e-02,-1.90576e-01,-3.98647e-02,9.65575e-02,-2.29873e-01,1.80179e-01,-2.58167e-01,-4.16924e-01,6.90168e-02,2.79032e-01,
-3.97001e-02,9.70520e-02,-3.72431e-02,-4.74472e-02,7.20564e-02,1.18360e-01,-5.21741e-02,-4.66655e-01,1.55140e-01,-8.65101e-02,-4.20711e-01,1.90828e-01,4.93788e-01,-4.98474e-01,-7.16610e-02,-1.73939e-01,2.51313e-01,-2.15891e-01,-6.78690e-02,3.05855e-02,-1.40553e-01,-8.76624e-01,-1.74435e-01,-3.06172e-01,-1.90342e-01,-2.00264e-01,-3.76766e-01,7.31380e-02,-7.97716e-02,2.85286e-02,3.13960e-02,9.22104e-02,9.21816e-02,-1.14596e-01,-5.70198e-01,-7.98690e-02,-9.52647e-02,2.36186e-01,9.63208e-02,-4.15133e-01,3.14894e-01,3.80399e-01,-3.02606e-01,2.97746e-01,-1.43920e-01,7.22908e-02,-1.73939e-01,2.13568e-01,-2.31993e-01,1.24017e-01,
6.81865e-02,1.71281e-01,2.71134e-01,1.90211e-01,-5.31385e-02,2.19510e-01,4.01699e-02,-3.02961e-01,-6.30057e-02,-3.83356e-02,7.93730e-02,1.65269e-01,-1.50746e-01,1.30302e-01,1.09442e-01,-2.66560e-01,2.75460e-01,-1.40319e-02,2.91399e-01,8.34032e-02,-5.09635e-01,-1.31084e-01,-1.32446e-01,-8.75425e-02,-6.39786e-01,-3.66731e-01,1.05359e-01,4.08425e-01,-1.46294e-01,2.61810e-01,2.21553e-01,-4.55036e-01,-7.86251e-02,-9.37613e-02,-2.53012e-01,-1.62693e-01,1.67288e-01,1.47621e-01,-3.28833e-01,1.25803e-01,3.48477e-01,-3.06078e-01,1.87113e-01,-4.03774e-02,-2.20635e-01,1.72571e-02,-2.08528e-01,-2.23975e-01,-4.45297e-02,1.32254e-01,
-1.37658e-01,3.67589e-01,5.81501e-02,4.44083e-02,1.50895e-01,1.16022e-01,-1.06344e-01,7.87443e-02,1.73244e-01,4.34271e-01,6.40901e-02,-4.33539e-02,-4.94522e-01,1.84526e-01,-2.87658e-01,5.77824e-02,8.57761e-02,1.96864e-01,-3.43169e-01,2.43304e-01,6.36280e-02,3.33550e-01,-2.32293e-01,1.57828e-01,2.17286e-01,-3.48104e-01,-4.41555e-01,2.10134e-02,7.92217e-02,-2.22074e-01,-2.84265e-01,-1.19670e-01,7.46192e-03,1.64756e-01,1.84434e-03,-4.87706e-02,-3.22995e-01,2.04998e-01,-1.29981e-01,7.24162e-02,-3.73359e-02,-1.92494e-01,2.21494e-01,-1.46619e-01,-2.76284e-01,1.79369e-01,2.52652e-01,-2.92235e-02,-1.65278e-01,-2.32278e-01,
1.94407e-01,1.94644e-02,-5.11820e-02,-7.04708e-02,-7.11826e-02,1.95708e-03,-1.30546e-01,3.22852e-03,-2.20000e-01,1.20268e-01,2.04404e-01,2.44282e-04,4.29211e-01,1.44814e-01,3.39734e-02,5.84156e-01,-4.67025e-02,-1.34332e-01,6.07117e-02,2.92379e-02,4.04905e-01,2.65647e-02,-1.20797e-01,2.16429e-01,6.85250e-02,1.63216e-01,2.34082e-01,-1.02603e-01,3.32864e-01,-3.43638e-02,1.06333e-01,-2.09090e-01,3.33157e-02,3.39072e-01,2.26737e-01,1.54790e-01,2.33501e-01,6.84996e-02,-6.39269e-02,6.03759e-02,1.11250e-01,-5.05604e-02,1.04359e-01,8.14024e-02,1.45244e-01,1.44977e-01,-9.66552e-02,-2.14531e-01,3.39541e-01,-4.20739e-02,
4.85901e-02,-1.82535e-01,1.11838e-01,-8.36514e-02,3.26855e-01,-1.76937e-02,1.90465e-01,-1.09148e-01,1.45593e-01,-4.03753e-02,-1.01276e-01,2.64591e-01,-3.38675e-01,-3.51389e-01,1.31315e-01,-7.27938e-02,9.90943e-02,2.41853e-01,2.18621e-01,-2.03739e-01,-1.11126e-01,5.10379e-02,-3.56133e-02,2.90021e-01,2.70275e-01,3.12055e-01,8.22590e-03,1.03302e-01,-8.86530e-02,-3.89162e-02,3.05879e-04,-4.18638e-01,8.85716e-02,5.45635e-01,1.18228e-01,4.36824e-02,3.18849e-02,9.35243e-02,4.46634e-02,-6.45648e-02,-4.71891e-02,1.34597e-01,-1.17662e-01,1.07028e-01,1.27689e-01,3.19290e-01,1.78729e-02,3.44110e-01,3.27912e-01,-1.01996e-01,
-3.05361e-01,3.28667e-01,1.46418e-01,1.50938e-01,3.01263e-01,-8.22919e-02,2.26136e-01,2.76882e-01,-3.43985e-03,5.31236e-02,3.83217e-02,-1.85926e-02,-1.51964e-01,2.54682e-02,7.90887e-02,-1.65941e-01,2.51638e-01,3.59421e-01,-3.29596e-01,2.12031e-01,1.12686e-01,1.12597e-01,2.63257e-01,6.34869e-02,2.98676e-02,-3.76722e-01,3.91548e-02,-9.69787e-03,3.81910e-02,5.40693e-02,-1.84406e-01,3.36971e-01,-2.26001e-01,-2.31884e-01,6.96540e-03,-1.13857e-01,8.19614e-02,1.76999e-01,2.64391e-01,7.95355e-02,-1.52633e-02,2.07053e-01,3.25578e-02,2.84239e-01,4.97312e-02,-1.02373e-01,2.09048e-02,2.30810e-01,-1.28516e-01,-8.97121e-02,
1.13107e-01,1.42415e-01,-4.88535e-02,-8.75926e-02,3.41960e-01,1.42398e-01,3.31704e-01,-8.86666e-01,3.38640e-01,-4.02782e-02,-2.71951e-01,2.12800e-01,1.38362e-01,-4.60190e-01,-1.42234e-01,-5.14662e-01,-1.72240e-02,1.30435e-01,-1.61663e-01,3.42174e-01,-8.30147e-02,-2.79982e-01,-1.27313e-01,-1.61607e-01,-4.52765e-01,-3.08001e-01,-6.08376e-01,1.42376e-01,-2.77539e-01,2.59822e-01,4.58952e-02,-8.16128e-02,-7.94544e-02,-6.17032e-02,-1.66223e-01,-7.77286e-02,-3.49003e-01,3.00191e-01,-1.35929e-01,-4.57321e-01,3.59047e-01,2.01842e-01,3.95080e-02,2.76855e-01,1.63846e-01,2.55061e-02,-2.62360e-01,4.79780e-01,2.47501e-02,2.06065e-01,
3.95174e-01,-5.19035e-02,6.70595e-02,-1.73006e-01,-3.55002e-01,1.70312e-01,-1.87496e-01,1.52296e-01,7.87248e-02,-3.00577e-01,-2.67671e-01,-5.14189e-02,2.20182e-01,6.15247e-02,-2.82709e-01,2.44279e-01,-2.28309e-02,-9.43656e-02,3.89655e-01,-1.38244e-01,-1.13977e-01,7.29834e-02,-3.08885e-01,1.94467e-02,2.29384e-01,2.49041e-01,2.15480e-01,1.18774e-01,7.01052e-04,-5.54727e-02,1.80540e-01,-1.08175e-01,4.95221e-01,3.39401e-01,-2.03622e-01,3.02836e-01,-1.09607e-02,8.69065e-02,-5.57766e-02,1.97173e-01,2.46832e-01,8.09442e-02,8.64859e-03,-2.46413e-01,2.68727e-01,3.65962e-01,2.36503e-01,-2.32882e-02,-1.01893e-01,2.60655e-01,
4.78530e-01,6.09590e-02,7.06399e-02,-2.54667e-01,-2.03551e-01,-5.85551e-02,-1.27249e-01,4.82688e-02,1.56251e-01,7.05589e-02,1.87165e-01,-3.26245e-02,2.73474e-01,2.48041e-01,5.06099e-02,2.90211e-01,-1.96406e-01,-3.65903e-01,4.49349e-01,2.21539e-02,-2.80128e-02,-8.48584e-02,1.10598e-02,-1.57552e-01,8.78442e-02,3.95345e-01,2.38716e-02,-4.52249e-02,1.07912e-01,-5.47154e-02,2.05404e-01,-5.86626e-02,4.07610e-01,3.11261e-01,1.83110e-02,3.42805e-01,1.01134e-02,-1.26434e-01,-3.75175e-01,1.59671e-01,2.69581e-01,-1.29412e-01,-4.33701e-03,-2.66620e-01,9.21656e-02,4.47679e-01,1.05154e-01,-4.09117e-01,9.61585e-02,3.15295e-01,
-3.98050e-01,1.26044e-01,8.80738e-02,-4.73485e-02,3.99810e-01,5.01712e-01,3.36149e-02,1.74586e-01,-2.29087e-01,3.57262e-01,-2.74994e-01,2.19900e-01,-1.90539e-01,-8.61274e-02,5.52061e-01,-7.11479e-02,2.41773e-01,2.07426e-01,-5.70342e-02,-5.64320e-02,-1.96784e-02,3.80255e-01,-1.14566e-01,1.47017e-01,1.17122e-01,4.65356e-02,5.70506e-02,1.83815e-01,2.08215e-01,2.02606e-01,-2.30420e-01,-2.22790e-01,-7.29873e-02,-1.00000e-01,2.46766e-01,-1.85458e-01,1.81017e-01,-1.91272e-02,-1.78105e-01,-1.02560e-01,1.31324e-01,-1.15326e-01,3.31470e-01,4.45947e-01,-1.86532e-01,1.49138e-01,-1.42173e-02,1.99953e-01,1.16848e-01,1.93335e-01,
-6.44848e-02,4.14723e-01,9.76457e-02,5.11184e-02,5.16042e-03,-2.28515e-01,5.74390e-02,9.04577e-02,2.91465e-01,-5.78727e-02,-4.19392e-02,-3.88126e-01,4.47070e-02,2.25937e-01,-2.99305e-01,9.70162e-02,-1.07825e-01,9.58113e-02,-2.15371e-01,6.99881e-02,1.73453e-01,2.77168e-01,-1.64986e-01,1.13764e-01,1.73390e-01,-3.62773e-01,-3.62129e-01,-1.63317e-01,-8.25523e-02,-1.95075e-01,1.59430e-02,-3.60741e-02,7.52559e-02,2.24074e-01,1.20908e-01,3.69033e-01,-8.76333e-02,1.00138e-01,-8.39602e-03,5.80785e-02,1.83422e-02,1.41214e-01,3.85393e-01,-3.33026e-01,5.06839e-02,-5.30853e-02,3.17952e-01,3.24714e-01,-2.34283e-02,-3.13922e-01,
-3.10952e-01,1.78523e-01,-1.23605e-01,2.97379e-01,2.08400e-01,-8.38325e-02,3.46796e-01,1.24633e-01,3.66148e-01,6.63124e-02,1.09855e-01,-9.62196e-02,-1.22306e-01,-1.13033e-01,1.29433e-01,-3.55963e-01,2.59429e-01,5.01377e-01,-9.25079e-02,1.24241e-01,2.02002e-03,8.92516e-02,-2.35745e-02,1.98432e-01,2.23082e-01,-2.37432e-02,-1.50792e-01,2.93988e-02,-1.20390e-01,-2.96209e-02,-1.14371e-01,-2.36757e-02,-6.89844e-02,1.06464e-02,-1.13017e-02,2.41670e-01,-1.02082e-01,3.20119e-02,2.29017e-01,-8.37999e-03,-1.13652e-03,3.45526e-01,9.44210e-02,8.99125e-02,-1.58465e-02,-4.14975e-02,2.36138e-01,3.99637e-01,-2.64313e-02,-6.83410e-02,
5.32518e-01,-5.15625e-02,2.97523e-02,7.44378e-02,1.33853e-02,-1.60317e-02,-1.73844e-01,-1.75370e-01,4.66028e-03,2.58264e-01,2.92105e-01,1.48551e-01,-1.82439e-01,-4.43805e-02,7.39662e-02,1.58235e-01,8.73921e-02,-1.70104e-01,1.69686e-01,-1.71223e-02,-8.79208e-02,7.72715e-02,-2.17994e-01,2.31298e-01,-2.23384e-01,4.11962e-01,4.23004e-01,1.17491e-01,-3.71332e-02,-4.53421e-03,3.19475e-01,-1.76615e-01,-1.57439e-01,3.00109e-01,2.00386e-01,-1.24090e-02,4.04040e-02,2.90655e-01,-1.29642e-01,-8.77277e-02,-2.41495e-02,-1.62369e-01,-1.18734e-01,2.69963e-02,9.96996e-02,1.43517e-02,-6.28773e-02,-3.91366e-02,3.12134e-01,3.56120e-01,
-1.43650e-01,3.13162e-01,1.07877e-01,2.44522e-01,2.23194e-02,2.15601e-01,9.51703e-02,-1.52200e-02,-1.43819e-01,5.37204e-02,-8.94153e-02,6.81115e-02,-9.38018e-03,2.73900e-01,1.74441e-01,-1.98552e-01,2.40113e-01,-8.56903e-03,-1.33692e-02,2.43998e-01,-2.14107e-01,2.62910e-02,9.80659e-02,-2.99254e-01,-2.64200e-01,-3.34432e-01,5.39759e-02,5.00258e-01,5.16646e-02,1.36091e-01,4.14293e-02,3.29368e-01,-1.48556e-01,-3.73649e-01,-1.48868e-01,-6.10546e-02,5.50935e-02,3.20936e-01,-1.63931e-01,2.53981e-01,2.11181e-01,3.83310e-02,3.07259e-02,1.27049e-01,-6.75844e-02,-8.75044e-02,-1.11503e-01,-2.43696e-01,-3.09348e-02,8.58327e-02,
4.17044e-01,-1.79757e-01,2.90597e-02,-1.04420e-01,-1.02043e-01,1.29371e-01,-1.72051e-01,2.80374e-01,-1.52216e-01,3.91461e-02,1.90721e-01,5.75967e-02,-7.00414e-02,1.71019e-01,1.53728e-01,-1.34641e-01,-5.50981e-02,2.18988e-02,-1.47808e-01,-4.51862e-01,-6.73356e-02,1.41258e-01,2.97331e-01,-1.43522e-02,-3.46209e-01,3.22767e-01,-2.70575e-03,5.07901e-03,2.19378e-01,8.15717e-02,-6.23910e-02,2.73747e-01,6.09588e-01,3.46541e-01,-1.55780e-01,9.24754e-02,9.04048e-02,-2.54502e-01,-9.85814e-02,4.59793e-01,-1.07008e-01,-5.17945e-01,5.63499e-02,2.59424e-01,-5.52745e-01,3.88690e-01,4.38866e-01,-5.13052e-01,-3.06748e-01,2.24088e-01,
-7.93467e-02,3.09114e-01,3.11490e-01,4.34229e-02,6.38849e-02,4.62465e-02,1.85256e-01,-7.22775e-02,-1.35126e-01,1.27102e-01,-1.48914e-02,1.16096e-01,-3.31584e-01,1.95671e-01,2.14093e-01,-1.31183e-01,2.52967e-01,1.80808e-01,-5.58890e-02,1.63224e-01,-4.18247e-01,1.73294e-01,2.84681e-01,-4.00111e-01,-4.58260e-01,-1.81482e-01,1.54408e-01,2.73977e-01,-1.52801e-01,9.36949e-02,3.61373e-01,3.84966e-01,8.26680e-02,-2.43181e-01,-1.42562e-01,-2.86452e-01,-4.46728e-02,1.28638e-01,-2.57330e-01,1.96775e-01,2.26855e-01,2.99588e-02,-8.67304e-02,1.36819e-01,9.10297e-03,-5.45975e-03,-2.43073e-01,-3.71559e-01,1.79091e-02,1.63953e-01,
3.80520e-01,-4.48013e-01,-6.61514e-02,-2.67363e-01,2.80140e-02,-3.11595e-01,-2.45532e-02,-1.51083e-01,-7.17224e-02,3.55968e-01,-1.09614e-01,9.66301e-02,3.18141e-01,-3.92546e-01,1.07324e-01,-1.40344e-01,8.11091e-02,3.51395e-03,3.69785e-01,-4.12923e-02,2.42746e-01,2.36504e-01,7.80879e-02,-1.55209e-01,3.28785e-01,2.42912e-01,-2.07194e-01,1.89987e-01,2.67248e-01,3.34274e-01,-4.94130e-02,-4.13543e-01,2.02257e-01,1.55754e-01,2.81501e-01,-2.10060e-01,-2.02795e-01,-1.89018e-01,1.52082e-02,-1.59454e-01,-1.84572e-01,1.45831e-01,-4.52110e-01,4.47920e-02,-4.50106e-02,2.38421e-01,-2.68568e-02,5.01229e-01,3.19480e-01,6.57497e-02,
-1.63136e-01,1.45955e-01,1.35966e-01,1.38392e-01,1.51097e-01,2.06513e-01,-3.02431e-02,-9.31459e-02,-2.17220e-01,4.47537e-01,9.49272e-02,3.01424e-01,-1.06634e-01,4.44205e-02,5.02543e-01,-1.17739e-01,2.81714e-01,1.60956e-01,-2.86239e-01,1.90658e-01,-3.69269e-01,1.22941e-01,1.62980e-01,-1.63773e-01,-2.57610e-02,-3.18976e-01,1.88109e-01,2.69362e-01,-5.27970e-03,1.65114e-01,1.64959e-01,3.93591e-01,-1.87393e-01,-2.71507e-01,-2.33606e-01,-2.45988e-01,2.29053e-01,4.96866e-02,-2.67586e-03,1.60451e-01,2.10478e-01,-1.14976e-01,1.72221e-01,1.32015e-01,-6.38025e-02,-5.45570e-02,2.58286e-02,-1.95468e-01,1.57855e-01,2.30176e-01,
-1.21477e-01,-1.03898e-01,-2.90783e-01,5.10362e-02,3.25053e-01,2.02823e-01,-1.02478e-01,1.47975e-01,8.87645e-02,-6.22851e-02,6.01086e-02,1.42090e-01,2.80731e-01,-3.72645e-02,-1.95912e-04,-1.07673e-03,-1.29960e-02,1.16799e-01,-4.41874e-02,1.39773e-03,3.58113e-01,-1.82845e-02,3.09979e-01,1.60581e-01,2.24757e-01,1.76731e-01,-1.18262e-01,-2.78575e-02,2.38227e-01,2.17772e-01,-1.61855e-01,8.40794e-02,1.75114e-02,-1.37781e-01,4.95845e-03,-7.49065e-02,5.74868e-02,-8.92480e-02,3.56008e-01,-7.44766e-02,1.41216e-03,2.94599e-01,-1.26055e-01,3.13030e-01,2.79105e-01,1.39699e-01,1.05098e-01,2.44386e-01,-2.49664e-01,-1.48450e-01,
1.94029e-01,4.38158e-01,1.47615e-01,2.59291e-01,-1.75020e-01,-1.00873e-01,-4.27898e-01,4.47807e-01,1.28610e-02,1.90964e-01,1.19756e-01,1.33908e-01,3.74167e-01,3.35814e-01,-1.66983e-01,4.16261e-01,-9.34151e-02,1.70415e-01,-2.13085e-01,4.29371e-01,4.59094e-01,-2.09411e-01,-1.62911e-01,9.71679e-02,3.65209e-02,-3.27238e-01,2.95595e-01,-1.61047e-01,2.97694e-01,-2.51205e-02,3.31735e-02,1.80704e-02,-4.02531e-01,-3.34078e-01,1.43879e-01,1.91422e-01,3.64727e-01,2.38146e-01,2.64939e-01,-5.33898e-02,-1.44050e-01,1.00296e-01,1.56497e-01,-8.79155e-02,3.95820e-01,-9.54866e-02,-1.00242e-01,-8.33532e-02,5.69596e-02,-2.63630e-01,
2.56130e-01,-1.14735e-01,3.66256e-01,8.54893e-02,-3.09219e-02,-3.84167e-02,-8.68367e-02,-3.36178e-01,2.34375e-01,1.51578e-02,-9.50283e-02,7.86607e-02,2.32770e-01,-2.44623e-01,-7.18977e-02,-1.16114e-01,1.13271e-01,1.56225e-01,1.18946e-01,-2.01497e-01,-2.48091e-01,7.58046e-02,-2.61714e-01,1.90906e-01,-3.57082e-01,5.81083e-02,3.65141e-01,1.25990e-01,-2.42527e-02,1.34896e-01,1.95483e-01,-5.99979e-01,-8.64795e-02,-2.18025e-01,-4.36007e-01,3.64612e-01,-3.24114e-02,2.34442e-01,-2.13158e-01,1.41520e-01,-3.03191e-04,-1.67086e-01,1.22166e-01,-2.79140e-01,-1.07773e-02,9.04968e-03,-2.77061e-01,-2.16734e-01,-3.29322e-03,3.01296e-02,
-6.68833e-03,6.09171e-02,-1.04587e-01,2.27900e-01,2.80866e-01,-1.71896e-01,3.05861e-02,4.04434e-01,1.22309e-01,3.34359e-02,1.11601e-01,-1.01957e-01,2.59579e-01,-1.20974e-01,-9.90711e-02,2.29912e-01,1.27832e-01,2.36534e-01,-5.92663e-02,1.01588e-01,4.87915e-01,1.31399e-02,-2.38349e-02,2.15120e-01,2.04414e-01,4.50407e-01,-1.13880e-01,-2.33621e-01,3.18585e-01,1.11460e-01,-1.98867e-02,6.10288e-02,1.05467e-01,7.85926e-02,2.54272e-01,1.28270e-01,-3.50981e-01,-3.64671e-02,2.56947e-01,-3.75960e-01,-1.85496e-01,1.00047e-01,-1.85509e-01,2.38780e-02,2.46516e-01,-3.00763e-02,-9.26080e-02,1.77184e-01,1.18622e-01,-1.90847e-01,
4.50802e-02,4.71642e-01,2.91894e-01,2.07780e-01,-1.80099e-01,-3.87413e-01,-1.42682e-01,8.27718e-02,3.70827e-01,1.67707e-01,1.48247e-01,-1.70676e-01,7.70936e-02,2.55871e-01,1.07569e-01,5.30670e-02,1.89491e-01,2.08730e-01,-3.94362e-01,4.51213e-01,-2.49386e-02,6.54652e-02,-1.76147e-01,1.65738e-01,4.48566e-02,-6.39494e-01,9.26534e-02,-2.42421e-02,-9.17041e-02,-3.67118e-01,-9.60356e-03,3.74380e-03,-2.54383e-01,-4.02869e-01,-7.31700e-02,3.22247e-01,1.74420e-01,4.73334e-01,1.08614e-01,-1.02675e-01,-2.26375e-01,5.71067e-02,2.18114e-02,-2.42051e-01,1.37153e-01,-2.70356e-01,6.04398e-02,6.31060e-02,1.32746e-01,-2.77624e-01,
4.08442e-02,-1.30442e-01,-2.39086e-01,6.88225e-02,2.38469e-01,-2.33806e-01,-3.71188e-02,3.20480e-01,3.31878e-01,-2.03492e-02,5.27557e-02,1.21595e-03,2.26776e-01,4.21810e-02,-2.85156e-01,2.34261e-01,2.13794e-01,1.92995e-01,-1.47938e-01,2.42152e-01,5.77702e-01,-2.10957e-01,4.02616e-02,3.66810e-01,1.15607e-01,2.74874e-01,6.50776e-02,-2.28146e-02,2.56655e-01,-3.61678e-02,-2.09499e-02,-1.72918e-01,-2.78694e-02,-8.77053e-02,1.22964e-01,1.24961e-01,-3.02965e-01,1.67526e-01,3.62151e-01,-2.95717e-01,-2.40680e-01,2.82167e-01,-2.23929e-01,5.46820e-02,3.33310e-01,6.33925e-02,1.28886e-01,2.85146e-01,-1.42334e-01,1.02341e-02,
-5.42340e-02,1.60998e-01,3.51610e-01,-1.77448e-01,-5.98367e-02,1.77825e-01,-1.19829e-01,7.03398e-02,-1.43896e-01,2.31836e-01,1.59148e-01,3.24801e-01,5.53184e-02,-1.37950e-01,4.20781e-01,1.97974e-01,8.45760e-02,7.97935e-02,-1.55898e-01,1.65396e-01,1.85513e-01,3.09057e-02,-4.43221e-02,1.01416e-01,-1.78464e-01,-9.39810e-02,2.78322e-01,7.51809e-02,7.83294e-04,1.39148e-01,1.81265e-01,-2.06485e-01,-3.03600e-01,8.02199e-02,8.51434e-03,2.94774e-02,2.76574e-01,1.69079e-01,-1.39186e-01,-2.63723e-01,1.10000e-01,-2.36265e-02,2.09129e-01,2.79915e-01,-3.04730e-01,-1.07772e-01,-1.68122e-01,-1.76055e-01,4.12197e-01,7.56587e-02,
2.69358e-02,-3.10902e-01,-3.18139e-01,-6.12426e-02,4.63822e-01,-1.18129e-01,1.88249e-01,8.12684e-02,-9.36013e-02,-1.03353e-01,1.49660e-01,-2.94485e-01,3.55568e-02,-2.62654e-02,-3.33379e-01,1.09210e-01,-3.84806e-01,-6.69172e-02,5.33309e-01,1.49203e-01,-9.92209e-02,-3.06609e-01,-1.18341e-01,8.54460e-02,3.86851e-01,2.65983e-01,1.07538e-01,7.43249e-02,-4.03364e-03,-8.04326e-02,-1.14588e-01,-5.68176e-02,3.95055e-01,1.43728e-01,2.19289e-01,2.38203e-01,-3.22806e-01,3.29555e-02,2.26058e-01,-1.51376e-01,-9.90096e-02,3.42344e-01,-7.45638e-01,-1.09492e-01,3.36231e-01,2.01257e-02,9.77625e-03,2.79958e-01,3.10488e-01,2.48073e-01,
-1.50717e-02,-9.90920e-02,7.35589e-03,5.43163e-02,-3.25713e-02,3.71273e-01,-1.33608e-01,-3.09392e-01,-2.60635e-01,5.62240e-01,2.61794e-01,3.43264e-01,-1.96666e-01,-4.04351e-02,4.53912e-01,7.37721e-02,1.95561e-01,-1.55069e-01,-2.01276e-02,-1.44904e-02,-3.72700e-01,2.29623e-01,-1.69895e-01,-1.77479e-01,9.52414e-02,-1.35971e-01,4.09821e-02,1.97753e-01,1.68823e-01,1.99850e-01,4.06524e-01,2.78729e-01,1.85348e-01,1.92899e-01,-1.76176e-01,-2.45912e-01,2.90752e-01,1.30777e-01,-2.71246e-01,3.45930e-01,5.36057e-01,-2.92658e-01,2.07271e-01,-8.30122e-03,-1.82230e-01,9.17016e-02,1.06849e-01,-5.26668e-01,2.70992e-01,3.62436e-01,
2.86575e-01,1.38859e-01,2.14582e-01,1.27399e-01,-3.11327e-01,-2.40613e-01,-2.36798e-01,5.22075e-02,3.59473e-01,-9.23262e-02,1.46917e-01,-1.64384e-02,1.85437e-01,2.24797e-01,-1.20646e-01,3.31382e-01,7.57651e-03,1.06733e-02,-1.09960e-01,2.13096e-01,6.94823e-02,9.12177e-02,-1.22293e-01,2.19459e-01,3.22716e-03,-1.21374e-01,4.75159e-02,6.55359e-04,7.74003e-02,-4.15070e-02,1.88103e-01,2.13305e-02,3.96900e-02,3.24348e-01,4.49435e-02,9.38182e-02,3.84370e-02,7.74249e-02,9.62286e-02,-4.50646e-02,-1.83297e-01,5.43549e-02,-7.25704e-02,-4.23682e-01,3.12807e-01,9.17250e-03,-9.24778e-02,-3.65162e-02,1.34325e-01,2.80465e-02,
-7.35060e-02,-8.52980e-02,1.84061e-01,8.14029e-02,7.36746e-02,5.12147e-01,1.93664e-01,-1.90839e-01,-3.04412e-01,4.03641e-01,-8.90433e-02,2.35227e-01,-7.21524e-02,-3.55092e-01,4.56946e-01,8.21639e-02,-1.82089e-02,-2.68206e-01,8.07312e-02,4.54809e-02,-2.30944e-01,4.21806e-01,-1.67686e-01,-4.27194e-04,9.44661e-02,1.51968e-03,9.78285e-02,2.67176e-01,8.62374e-03,1.70039e-01,2.60345e-01,1.94392e-01,5.76374e-02,-4.35622e-02,-7.82913e-02,-2.88896e-01,2.14235e-01,1.01728e-01,-8.71809e-02,1.67841e-01,5.12634e-01,-2.14644e-01,-6.83576e-02,1.37038e-01,-2.56719e-03,2.02751e-02,6.97353e-02,-1.93050e-01,2.76353e-01,3.60613e-01,
8.50870e-02,5.40872e-02,-1.50551e-01,1.82520e-01,3.38454e-01,1.79699e-01,-1.00934e-01,5.29540e-01,1.68153e-01,-9.30961e-02,3.65299e-02,-2.95703e-03,1.74835e-01,1.42961e-02,-1.22601e-01,9.73703e-02,1.68976e-01,1.07379e-01,8.83223e-02,2.17248e-02,4.36104e-01,-3.70855e-02,1.79160e-01,2.15313e-01,1.75570e-01,5.41152e-01,-3.22967e-02,-1.59016e-01,4.44832e-01,-2.32992e-02,-6.61489e-02,5.76698e-02,2.29155e-01,1.72118e-01,8.82033e-02,-1.52783e-01,-3.33403e-02,-1.78036e-01,4.06199e-01,-1.98672e-01,1.23604e-02,2.95525e-01,-1.31129e-01,1.60796e-01,2.96384e-01,1.40355e-01,1.07299e-01,2.50032e-02,-4.43400e-02,-7.72928e-02,
-1.73606e-01,6.76978e-02,2.01784e-01,1.32598e-01,1.13008e-01,4.41062e-01,1.07370e-01,-7.09818e-02,-1.84587e-01,4.63866e-01,-9.25776e-03,2.07264e-01,4.91478e-02,-1.68081e-01,5.80568e-01,-1.31102e-02,6.19172e-02,1.68153e-02,4.79916e-03,2.13655e-01,-3.03491e-01,5.16272e-01,-2.26705e-01,-6.70266e-02,7.28499e-02,-3.31356e-01,-1.43094e-01,2.02199e-01,1.82445e-01,3.37098e-01,-8.60075e-02,2.62370e-01,-3.47937e-01,-2.22506e-01,-9.05222e-02,-2.21312e-01,3.36992e-01,2.34142e-01,7.12537e-02,3.33853e-01,4.22788e-01,1.07384e-02,8.75872e-02,1.16425e-01,-1.32730e-01,6.29265e-02,-8.16357e-02,4.08110e-02,3.05544e-01,7.48942e-02,
-1.33002e-01,2.39130e-01,-1.23978e-01,1.26666e-01,1.93906e-01,2.07539e-02,1.95398e-01,5.61496e-01,1.06664e-01,-1.78361e-02,1.68950e-01,-3.08271e-01,9.27365e-02,1.87175e-01,-1.89527e-01,7.73462e-02,-1.61427e-02,4.57398e-01,-1.25189e-01,4.30189e-02,4.82462e-01,3.90002e-01,1.34510e-01,1.14590e-01,4.88535e-01,1.24548e-01,-1.43830e-01,-2.99805e-01,2.37931e-01,7.33666e-02,-3.44734e-01,1.15858e-01,2.91654e-01,4.66011e-02,1.30088e-01,1.81726e-01,-7.86616e-03,-9.76745e-02,3.12623e-01,-2.28831e-02,-2.28179e-01,9.56384e-02,2.26645e-01,1.01077e-01,2.92853e-01,1.94101e-01,3.03251e-01,7.93285e-02,5.04628e-02,-3.31505e-01,
-1.50948e-01,4.27509e-01,2.02611e-01,1.65502e-01,1.32150e-01,-1.56132e-01,-1.51830e-01,-1.11203e-01,3.00654e-01,2.20778e-01,-3.43782e-01,2.59802e-02,-1.93555e-01,-1.33846e-01,-2.51893e-02,1.35799e-02,3.02846e-01,-7.13254e-02,-1.85249e-01,1.77298e-01,-5.23848e-02,-4.32634e-02,-2.37998e-01,9.92220e-02,3.19396e-01,-3.99569e-03,-5.57701e-01,1.15722e-01,-4.15078e-01,-4.21719e-01,-3.07406e-01,4.00598e-03,2.45844e-01,3.21455e-01,-1.93570e-01,4.12513e-01,-7.21069e-01,2.11083e-01,1.15273e-01,2.71283e-01,-1.30200e-01,-2.48317e-01,3.59948e-01,-4.48817e-02,-1.20235e-01,4.44010e-02,3.85405e-01,3.29912e-01,-1.72969e-04,-1.00907e-01,
-2.89424e-01,-4.23768e-02,8.16847e-02,2.04788e-01,3.02224e-01,4.25794e-01,2.89682e-01,-4.91914e-01,3.98891e-02,7.62713e-02,-2.92004e-01,4.30393e-01,1.62403e-01,-2.48804e-01,1.13900e-02,1.65115e-01,4.50688e-02,-1.86854e-01,8.68398e-02,9.90031e-02,-3.00903e-01,5.36505e-02,4.43528e-02,-4.64733e-01,-1.77550e-01,-2.90732e-01,-1.44762e-01,2.53937e-01,1.58889e-01,2.49309e-01,2.09265e-01,-6.78144e-02,-3.24471e-01,-4.17252e-01,-1.03934e-01,-3.44978e-01,2.07347e-01,-6.89873e-02,2.03975e-02,4.58728e-02,4.61037e-01,1.77429e-01,-6.73932e-02,3.18130e-02,2.25085e-01,7.79606e-02,-2.45085e-01,-1.28432e-01,-6.86953e-01,1.45378e-01,
2.08306e-01,
2.58274e-01,
1.69011e-01,
-1.96948e-02,
1.30711e-01,
-8.80479e-03,
7.92966e-03,
1.38305e-01,
-2.21962e-02,
-3.69897e-02,
1.95700e-01,
9.22733e-02,
1.44100e-01,
6.02714e-02,
-5.46259e-02,
1.88205e-01,
-1.27843e-01,
2.31431e-02,
8.46525e-02,
-8.95925e-02,
-1.79741e-02,
2.78845e-01,
-8.48705e-02,
-4.60673e-02,
1.67165e-01,
-4.06927e-02,
2.47102e-01,
5.78203e-02,
9.94131e-02,
3.01959e-01,
1.52995e-01,
3.02602e-01,
-3.95661e-02,
2.33985e-01,
-6.30346e-02,
4.73883e-02,
-2.29483e-02,
-1.21013e-02,
6.04793e-02,
-1.42101e-01,
6.04860e-02,
-9.27507e-03,
2.36934e-01,
1.38744e-01,
3.53508e-02,
-1.14213e-02,
1.37233e-01,
1.46228e-02,
3.01175e-01,
-9.44429e-02,
6.30564e-01,-4.33433e-01,3.50301e-01,1.95609e-01,3.74828e-01,-2.30802e-01,-1.20804e-05,-3.84282e-02,-2.54752e-01,6.12298e-01,2.70133e-01,-7.06163e-01,1.39161e-01,-3.46214e-01,-2.08837e-01,-2.92432e-01,2.57867e-01,-1.99853e-01,-4.87293e-01,-4.31201e-02,8.58508e-04,-1.29441e-01,7.80397e-01,1.94127e-01,3.48093e-02,-6.63429e-01,-9.81489e-02,-1.21854e-02,6.95458e-02,-2.07674e-01,-5.87855e-01,-1.57393e-01,-2.21385e-01,-5.13021e-01,1.02307e-01,1.74010e-01,2.14199e-01,2.56971e-01,1.84302e-01,3.28801e-01,-3.73180e-01,4.38564e-01,-1.08353e+00,3.46063e-01,-6.76258e-01,1.72460e-01,-8.81683e-01,1.40211e-01,5.19641e-02,-1.99822e-01,
-7.10344e-01,-3.91422e-01,2.61180e-03,-1.09155e-02,4.18168e-02,-1.97100e-01,3.12329e-01,1.64435e-01,9.01626e-02,4.48345e-02,-1.48989e-01,-3.07141e-01,-4.53701e-02,2.47949e-01,-1.54952e-01,-9.71373e-02,-3.26529e-01,-5.02467e-01,-4.37486e-01,2.31549e-01,4.16804e-01,-1.46849e-01,-5.72233e-01,8.94478e-02,-1.37843e-02,3.34913e-01,-4.26107e-01,-6.96139e-02,3.66324e-02,-5.29602e-01,2.89558e-01,-4.77236e-01,5.58713e-01,-8.45849e-02,2.89115e-01,-8.13649e-02,-9.24640e-01,2.57189e-01,-7.71048e-01,2.14454e-01,3.31848e-02,2.68857e-01,1.22063e-01,-1.27818e-01,2.45435e-01,2.14139e-01,1.56242e-02,1.65416e-01,-7.40015e-01,2.16065e-03,
-7.23625e-01,-1.68953e-01,2.35501e-02,-2.16919e-01,-8.13752e-01,3.64600e-01,-1.63199e-01,-7.55915e-02,3.61854e-01,-7.80488e-01,-3.73795e-01,1.00886e-01,1.06587e-01,2.58150e-01,7.12192e-01,6.63241e-01,-4.37914e-01,2.66982e-01,-2.27179e-01,3.10369e-01,-2.14787e-01,-2.56019e-01,-7.36795e-01,1.19560e-01,2.43501e-01,-1.23633e-02,-3.81827e-01,-5.26120e-01,1.73838e-01,1.51087e-01,3.41957e-02,1.62657e-01,-9.35076e-01,8.88296e-02,-2.12394e-01,1.88789e-01,4.99968e-01,-4.06768e-01,-1.17548e-03,-3.55630e-01,1.92130e-01,-3.22506e-01,3.39349e-01,1.45864e-01,2.39811e-01,-2.72861e-01,3.67191e-02,-4.84599e-01,-5.24297e-01,-1.85954e-02,
-1.01767e+00,5.32533e-02,-2.89362e-01,-6.08043e-01,3.34287e-02,-3.65665e-01,-6.34667e-01,-6.53001e-01,-5.19036e-01,7.10160e-01,3.64422e-01,2.80121e-01,-4.83181e-01,-1.09545e-01,-3.59003e-01,2.07039e-01,-3.99093e-01,1.72047e-01,1.41190e-01,-5.05173e-01,3.53735e-01,-8.81902e-03,1.14213e-01,-4.31314e-01,-4.54786e-01,2.05513e-01,-3.23076e-01,1.50158e-01,2.42694e-01,1.52231e-01,-7.06647e-01,2.92804e-01,6.08075e-01,2.33305e-01,-3.44701e-01,-5.47949e-01,1.11691e-01,-3.74673e-01,6.27071e-02,-3.69368e-01,1.31242e-01,-3.49830e-01,2.57863e-01,-1.95488e-01,2.54626e-01,-4.76448e-01,1.52648e-01,-7.29460e-01,3.92805e-01,-2.23980e-01,
-4.67433e-01,3.32548e-01,-3.49589e-01,1.82885e-01,-2.70044e-01,-6.87551e-01,-2.57712e-01,-6.75620e-01,-1.30188e-02,-5.25020e-01,-5.98484e-03,-7.47579e-01,3.71504e-01,-3.58050e-01,-4.21066e-01,-1.08575e-01,-9.07867e-03,-5.86497e-01,1.92185e-01,-4.46224e-02,1.51211e-01,-7.57008e-01,-1.66562e-01,3.58136e-01,1.77005e-01,-2.34059e-01,2.86434e-01,1.67254e-01,-2.28580e-01,-5.27430e-01,2.14321e-01,-8.24770e-01,2.33407e-01,-9.02284e-01,-3.03060e-01,-7.88354e-01,2.95850e-01,-2.83260e-01,-2.65906e-01,-3.57396e-01,-4.37544e-01,-2.50310e-01,-1.33920e-01,1.82654e-01,-2.79514e-01,-4.73223e-01,-3.05549e-01,5.12795e-02,3.69379e-01,-3.05282e-01,
-2.59298e-01,1.67156e-01,2.31048e-01,-1.73523e-02,-1.40223e-02,-4.34210e-02,2.33066e-02,3.32212e-01,1.49924e-01,-2.78441e-01,-2.12944e-02,-5.66564e-02,6.62668e-02,-5.22877e-01,-1.66119e-01,-2.30018e-01,-4.99471e-01,-4.77489e-01,2.43941e-01,2.07143e-02,-3.73846e-01,2.04453e-01,-7.88274e-01,-3.67991e-01,-4.07682e-01,1.62709e-01,1.61891e-01,2.29744e-01,-2.32126e-01,8.34148e-02,-8.48094e-01,-9.87271e-02,-9.89035e-02,1.01213e-01,4.82625e-02,4.68791e-01,-6.83932e-01,4.68622e-02,5.31322e-01,1.44290e-01,1.23392e-01,-1.05891e+00,-1.23868e-01,1.19111e-01,-1.54261e-01,-1.21715e-01,1.29123e-01,1.45475e-01,2.04400e-01,-1.19130e+00,
7.81090e-01,7.33690e-02,-6.11716e-01,-1.08312e-01,2.23936e-01,1.82338e-01,-3.25682e-01,2.87387e-01,-6.22540e-02,-1.02359e+00,1.63120e-01,1.12505e-01,-4.44025e-01,2.82845e-01,-1.98805e-01,-3.30210e-01,6.55370e-01,9.77405e-03,-7.58365e-02,-4.44821e-01,-2.71971e-01,1.49917e-01,2.95176e-01,-1.27077e-01,-2.12344e-01,1.16890e-01,-1.93923e-01,7.90102e-02,-3.89856e-01,2.41802e-01,5.92910e-01,2.22012e-01,-3.33932e-01,2.06861e-01,1.97854e-01,-2.59378e-01,-4.74640e-01,-1.82177e-01,-2.72813e-01,-1.21878e-01,-1.91706e-01,-1.15885e-01,9.92150e-02,-4.39378e-01,1.16913e-01,-2.90923e-02,1.44073e-01,1.77736e-01,1.12596e-01,4.78054e-01,
1.12814e-01,
-6.41308e-02,
1.39774e-01,
2.42402e-02,
-2.62748e-02,
9.00268e-03,
8.50537e-02,
