// Neural Network File Format by Kyle Julian, Stanford 2016
2,15,7,200,
15,200,7,
0,
-1.0,-1.38,-2.62,-2.07,-2.54,-2.63,-2.19,-3.87,-0.14,-1.66,-0.24,-1.16,-1.08,-2.46,-1.98,
1.0,4.16,2.45,0.49,0.4,1.12,1.71,2.39,7.6,1.63,4.31,2.27,2.15,1.46,1.31,
0,0,0,0,0,0,0,0,0,0,0,0,0,0,0,0,
1,1,1,1,1,1,1,1,1,1,1,1,1,1,1,1,
2.59433e-01,-2.75837e-01,-5.39627e-01,3.67159e-01,-1.67218e-01,-1.99162e-01,1.12586e-01,1.39465e-02,-1.24419e-01,3.30351e-01,1.18537e-01,1.19524e-01,3.44266e-01,-2.71950e-01,7.49231e-01,
-3.64649e-01,5.62018e-02,-5.28923e-01,-4.96766e-01,-2.68369e-01,3.38343e-02,2.98093e-01,-1.25756e-01,1.70893e-01,3.46558e-01,-8.99642e-02,-1.79092e-01,4.02623e-01,2.64180e-01,1.02354e-01,
-1.08879e-01,5.99280e-02,-2.12723e-02,5.18148e-02,-9.36810e-02,1.54871e-01,-3.24222e-01,1.84064e-01,5.80632e-02,-2.57105e-01,-1.94151e-01,4.26133e-01,-2.08269e-01,1.31705e-01,-3.60480e-01,
8.73508e-02,-2.36112e-03,4.10517e-01,2.57617e-01,-2.59409e-01,-1.72295e-01,2.90606e-01,-3.47841e-01,2.53020e-01,-5.65369e-03,-1.36334e-01,3.39076e-01,-5.23760e-01,3.18435e-01,1.85187e-03,
-2.04136e-01,-5.96692e-01,-5.29998e-02,5.91174e-02,-3.99069e-01,-2.42230e-01,6.23213e-02,3.95048e-01,1.61241e-01,2.55307e-01,-6.57978e-02,-3.82283e-01,-5.07312e-02,2.72110e-01,2.20434e-01,
-1.77242e-01,-2.71423e-01,-1.50956e-01,2.08831e-01,-2.46103e-01,4.67427e-01,1.15806e-01,-1.27128e-01,-2.27787e-01,-6.98409e-03,1.17182e-01,-1.04372e-01,-1.03101e-01,1.54957e-01,-6.55297e-03,
4.16265e-01,-2.41191e-01,-2.14279e-01,4.17054e-02,5.54953e-01,2.86034e-01,-2.82819e-01,5.33087e-01,-1.42994e-01,1.80217e-01,-5.05308e-02,2.60262e-01,2.22819e-01,-8.57256e-03,3.78808e-01,
-3.19215e-01,-5.06455e-01,4.12826e-01,2.54137e-01,3.99656e-01,-1.31437e-02,5.83094e-01,2.81599e-01,-1.19676e-01,2.14999e-01,2.26879e-01,3.21250e-01,4.27821e-01,-3.94676e-01,-3.51208e-01,
3.81516e-01,1.69699e-01,-2.53151e-01,-2.72427e-01,1.11887e-01,-9.99182e-02,3.70671e-02,1.23564e-02,2.01788e-01,8.63695e-02,3.19739e-02,2.91034e-01,-7.93678e-02,-1.27357e-02,2.33839e-01,
-1.53959e-01,-5.17280e-01,1.29644e-01,-1.95319e-02,3.61756e-01,-4.38575e-01,-2.27347e-01,4.63929e-01,-2.15038e-01,1.06622e-01,-3.84880e-01,-1.59873e-01,1.00039e-01,3.05452e-01,1.72328e-01,
-4.52028e-03,3.02535e-01,3.49412e-01,-5.15163e-01,-1.73780e-01,5.26675e-02,-1.56604e-01,5.08476e-01,2.34036e-01,3.96969e-01,5.53174e-02,4.47435e-02,4.01598e-01,-5.41255e-02,4.21905e-01,
-2.14239e-01,-1.69445e-01,3.36398e-01,2.15173e-01,7.22600e-02,-5.95109e-02,1.66110e-01,-2.02594e-01,2.23014e-01,2.07366e-01,6.32104e-02,-5.21116e-02,-3.95491e-01,-1.75312e-01,3.73413e-01,
-3.33660e-01,-6.93998e-03,3.00970e-02,5.12686e-01,6.47802e-01,-4.41693e-01,-3.44163e-01,3.34941e-01,1.60752e-01,2.23929e-01,1.64424e-01,2.69826e-02,-1.30319e-01,1.51279e-01,-6.57980e-02,
-2.78893e-01,1.41710e-01,2.53110e-01,-1.23705e-01,1.12574e-01,-1.05484e-02,5.34998e-03,-1.90729e-01,2.95543e-01,4.52990e-01,-2.40278e-01,-3.84613e-02,-3.76207e-01,-1.96477e-01,-1.39038e-01,
-2.89173e-01,-4.42668e-01,-1.24558e-01,1.42195e-01,-3.62359e-01,-6.09252e-01,-3.16123e-01,1.67130e-01,-2.73023e-01,4.45801e-01,7.27111e-02,-1.64197e-01,1.78044e-01,-2.10554e-01,3.59322e-01,
2.88463e-01,-2.50349e-01,-4.73294e-01,-1.63901e-01,-1.69972e-01,3.48953e-01,-2.13322e-01,-4.07647e-01,2.12449e-01,-6.00753e-01,-1.11006e-01,-1.90782e-01,1.93293e-01,6.04986e-01,1.96857e-01,
-1.78675e-03,-1.15084e-01,-7.19561e-02,-4.16500e-01,1.78392e-01,6.61563e-02,1.23713e-01,-2.50566e-01,8.13355e-02,-6.15769e-01,-3.00144e-01,-4.26204e-01,-2.06104e-01,-5.83453e-01,2.87088e-01,
2.84370e-01,2.45199e-01,-4.55237e-02,-3.60797e-02,-2.07640e-01,3.17738e-01,4.21409e-02,1.16090e-01,-4.82940e-02,-1.94476e-01,2.10021e-01,-5.88664e-01,5.39448e-01,3.24460e-01,-1.82160e-01,
2.39830e-01,1.51438e-01,-4.80161e-01,-4.06462e-01,1.92915e-01,3.92730e-01,-8.11390e-02,5.33588e-01,2.64651e-01,3.93587e-02,1.20406e-01,-3.30370e-01,4.24419e-01,4.18272e-02,-3.77539e-01,
3.63816e-01,6.61154e-01,2.53098e-01,2.52571e-01,-2.26492e-01,-1.23198e-01,-4.97108e-01,-8.27291e-02,-1.03241e-01,2.25738e-01,-1.82848e-01,-2.12993e-01,8.26919e-02,7.41986e-02,5.74086e-04,
-7.26818e-01,-3.31367e-01,-1.25100e-01,-7.53472e-02,3.82874e-01,5.67427e-01,4.46504e-01,6.84666e-02,7.46877e-02,3.31154e-01,8.77435e-02,1.28515e-01,-2.48255e-01,-5.42627e-01,-6.81982e-02,
1.25902e-01,-3.76916e-01,-1.66094e-01,-8.05587e-02,7.20124e-02,3.95878e-01,-1.14053e-01,-3.41559e-01,1.66684e-01,-4.67086e-01,-6.79344e-02,-8.72762e-02,1.50501e-01,4.42502e-01,-5.58454e-02,
3.79652e-01,1.20425e-01,-3.16373e-01,-2.80668e-01,-4.02658e-01,-1.55264e-01,-4.95720e-01,-1.32263e-01,-9.99911e-03,-3.34855e-01,-3.83796e-01,-8.23416e-03,-1.83239e-01,-8.46124e-02,5.60617e-01,
3.35738e-01,-7.84993e-02,-4.87488e-01,-2.75015e-01,8.49953e-02,6.07082e-02,1.66769e-02,7.15544e-02,2.26618e-01,-4.90248e-01,-2.25320e-01,4.28101e-01,1.18161e-01,3.23589e-01,-1.96642e-01,
-7.13217e-02,-1.01907e-01,-9.36502e-02,-4.77705e-01,-4.22747e-02,5.68891e-02,-2.11651e-01,-1.89078e-01,2.32752e-01,1.37956e-01,2.63711e-03,5.28479e-02,1.31588e-01,-4.32334e-01,3.85404e-01,
-1.65907e-01,-6.11333e-01,-6.77322e-01,4.73482e-01,-1.12974e-01,1.77484e-01,2.26050e-01,5.63443e-01,-9.21814e-02,1.13232e-01,-3.17399e-01,1.19047e-01,1.00640e-01,-4.76661e-01,2.82517e-01,
4.88239e-01,6.09829e-01,2.87829e-01,4.44387e-01,1.17792e-01,-3.14975e-01,1.58748e-01,-1.02542e-01,2.20559e-01,2.87233e-01,-1.94451e-02,5.76948e-02,-2.96516e-01,-2.01747e-01,7.67591e-02,
-3.55121e-01,-2.90508e-01,-3.54897e-01,4.51189e-01,1.44360e-01,-5.93149e-02,4.37306e-01,2.59018e-01,-1.66284e-02,-8.42470e-02,-1.27719e-01,-3.73339e-01,-1.61908e-01,-5.52350e-02,3.20466e-02,
1.79123e-01,3.00971e-01,2.63596e-01,-1.86054e-01,8.14086e-03,3.85895e-01,-1.07182e-02,-3.15165e-02,-1.68594e-01,5.99555e-01,1.16014e-01,-9.49097e-02,-1.62064e-01,3.39088e-01,2.58665e-01,
4.78482e-01,3.12902e-01,3.66425e-01,2.30873e-01,-2.70566e-01,-1.27274e-01,-6.18453e-01,-3.35286e-01,4.50110e-02,7.78716e-02,-3.38347e-01,-8.76949e-02,-1.58250e-02,-3.47143e-01,-2.17824e-01,
-4.30638e-01,-1.09381e-02,-2.34682e-01,3.43056e-01,-1.73157e-02,1.33492e-01,-6.12728e-02,2.87660e-01,-3.26548e-02,-9.20110e-02,5.30856e-02,-1.46675e-01,-1.80120e-01,-1.56379e-01,-1.36275e-01,
-4.88769e-01,-7.08015e-02,6.23432e-01,5.08342e-01,-3.26212e-02,5.22179e-02,-4.87705e-01,-2.75281e-01,1.02228e-01,-3.28167e-01,1.36875e-01,-2.34663e-03,1.34610e-01,-4.83680e-01,-2.01865e-01,
2.64115e-01,4.28494e-02,-1.05044e-02,-1.47015e-01,-4.88966e-01,1.19099e-02,-5.30737e-01,-2.45117e-02,-1.76660e-01,-1.94515e-01,-3.52947e-01,3.98779e-01,-3.44865e-01,-2.21414e-02,5.08828e-01,
-5.33916e-01,-1.21130e-01,2.15297e-01,-1.92700e-01,4.16059e-01,1.67940e-01,2.39619e-01,3.33235e-01,-2.31817e-01,2.96997e-01,2.10025e-01,-8.72904e-02,-2.28522e-01,-2.62327e-01,-1.82018e-01,
9.14208e-02,-1.80567e-01,-3.21993e-01,-3.33412e-01,-8.34238e-02,-1.39483e-01,-3.09874e-01,1.49549e-01,-2.30642e-01,4.33579e-02,4.13043e-02,3.20429e-02,2.35511e-01,-1.24360e-01,3.67267e-01,
3.61371e-01,-2.42688e-01,1.79324e-01,2.75983e-01,-1.49697e-01,-8.98687e-02,-4.23162e-01,4.56822e-02,-2.33791e-01,-1.03756e-01,4.12276e-02,4.87236e-01,-9.46149e-02,-2.76390e-01,6.08598e-01,
2.06356e-01,1.84980e-02,-4.26106e-02,-8.92291e-02,1.90356e-02,3.85739e-01,-3.92359e-01,-4.25374e-01,2.31965e-02,8.93325e-02,-3.33020e-01,-4.11550e-01,-3.82431e-01,-3.92258e-01,4.41973e-01,
-3.71211e-01,1.44655e-01,-2.44666e-01,-1.64876e-01,-5.07656e-02,4.57925e-01,2.19538e-01,-3.79286e-01,1.34758e-01,2.94402e-01,2.05204e-01,-2.96859e-01,5.25345e-01,1.23692e-01,1.12669e-01,
-3.75055e-01,-9.58636e-02,-1.84932e-01,-2.53134e-02,3.93588e-01,3.94872e-02,2.74112e-01,3.29078e-01,2.24119e-02,-7.84403e-02,-4.28404e-03,-4.27159e-01,-5.85539e-03,2.95491e-03,3.90357e-01,
9.63988e-02,-2.08513e-01,-1.36603e-01,1.61333e-01,6.73934e-02,-1.22041e-01,-5.03961e-01,-1.00720e-01,-7.76487e-02,3.37224e-01,-3.61766e-01,1.41629e-01,3.01280e-01,-1.38970e-01,-2.66834e-01,
-1.52488e-01,2.35452e-01,-5.98767e-01,3.40184e-01,-1.61416e-02,-7.57389e-02,-5.00147e-02,-2.73191e-01,1.27330e-02,-1.03503e-01,-6.09047e-02,4.65608e-01,9.15539e-02,-4.98566e-01,-2.77922e-01,
2.08237e-01,3.16484e-01,1.79647e-01,4.27273e-02,3.68881e-01,4.95791e-01,-2.01624e-04,-5.46258e-01,-1.07489e-01,-2.33831e-01,-3.53015e-01,-4.73564e-02,-2.05556e-01,4.43034e-01,6.07575e-02,
-1.03773e-01,2.23496e-01,2.70049e-01,2.19391e-01,2.96507e-01,6.86399e-02,-2.57399e-01,2.39751e-01,-2.95818e-02,1.13444e-01,-1.10473e-01,-6.81269e-01,-2.72028e-01,7.77421e-03,-1.55135e-01,
-1.52291e-01,-3.22879e-01,-2.56579e-01,-2.47028e-01,-2.15518e-01,-8.80487e-02,5.67760e-01,-1.41162e-01,-2.07163e-01,-2.04532e-01,-4.06017e-01,1.76430e-01,1.83110e-01,-1.36353e-01,-3.55712e-01,
3.49453e-01,-4.73803e-01,-2.73952e-02,3.13516e-01,3.06989e-01,-3.02789e-01,-1.68204e-01,3.42736e-02,-1.01734e-01,3.04642e-01,-1.49226e-01,3.47010e-01,-1.18535e-01,1.16797e-02,-1.74114e-01,
2.62455e-02,-9.86932e-02,1.13100e-01,-3.59351e-01,-1.17959e-01,-4.61566e-01,3.46772e-01,6.84865e-01,1.71422e-01,1.37205e-01,-3.72823e-03,4.13677e-01,-4.75857e-01,-1.81092e-01,4.38824e-02,
-3.31530e-01,-3.77965e-01,-6.20604e-02,-2.57312e-01,-2.39043e-01,5.06524e-01,-4.14535e-01,1.97486e-01,-1.46380e-01,1.51168e-01,-1.78339e-01,-1.01689e-01,-2.06417e-01,-4.15397e-01,1.29485e-01,
2.63626e-01,4.37878e-01,2.63656e-02,-2.90288e-01,4.03856e-01,-1.81993e-01,2.80799e-01,3.25995e-01,1.27579e-01,-5.88146e-02,1.84045e-01,2.43104e-01,-2.09041e-01,-1.24395e-01,1.69591e-01,
3.52020e-01,3.85851e-01,1.30334e-01,1.90943e-01,-4.24284e-01,-1.64171e-01,-7.28462e-02,2.82957e-02,-1.12543e-01,1.24060e-01,1.01941e-01,4.91860e-01,-3.31435e-02,-4.87935e-02,5.04586e-01,
-2.73648e-02,-2.31678e-02,8.08200e-02,2.61749e-01,6.07693e-01,1.12539e-01,-4.65964e-01,3.05969e-01,1.28900e-01,-2.64580e-01,-1.02940e-01,5.98517e-01,-5.54287e-01,1.17939e-01,4.45865e-01,
-1.55755e-02,2.98736e-01,1.72604e-01,3.87913e-01,-1.23030e-01,-5.27498e-01,-2.60496e-01,-2.31670e-01,6.74050e-02,3.86625e-01,1.05183e-01,-4.01682e-01,-1.32050e-01,-2.44822e-01,-2.38840e-01,
4.10267e-01,2.51463e-01,1.15414e-01,-8.21275e-03,-3.68785e-01,-2.74458e-01,-2.49211e-01,-3.03686e-01,-1.32337e-01,1.08780e-01,1.56324e-01,5.55382e-01,1.69441e-02,-1.33262e-01,5.53925e-01,
5.61966e-01,4.39138e-01,1.15349e-01,-1.83573e-01,-1.55777e-01,-9.73097e-02,3.71061e-01,1.92032e-01,1.48141e-01,3.18113e-01,-1.29575e-01,8.54142e-02,-7.86364e-02,-3.15823e-01,-8.98529e-02,
-1.93876e-01,-6.28863e-01,-3.37666e-01,-2.45454e-01,-2.42639e-01,4.97182e-01,5.04004e-01,-1.61666e-02,-2.38443e-01,4.42254e-01,-1.99655e-01,3.01560e-01,-9.75325e-02,1.13579e-01,2.23713e-01,
1.45396e-01,-6.35311e-01,1.05157e-02,-1.36753e-01,3.12989e-01,-1.46899e-01,4.90604e-01,-3.09031e-02,-4.60318e-02,-3.98025e-01,-2.66052e-01,1.81744e-01,1.07167e-03,-7.10570e-02,-4.87154e-01,
-4.11629e-01,5.19180e-02,-4.15910e-02,1.12915e-01,-6.56507e-02,2.87468e-01,4.67417e-01,4.61880e-01,-7.34029e-02,-1.08444e-01,9.14451e-02,-5.02329e-01,4.82388e-01,-2.14726e-01,-3.05218e-01,
4.82661e-01,6.84296e-01,5.62272e-02,3.22606e-01,-2.10740e-01,-1.28063e-01,-5.42311e-01,-1.13885e-01,2.80203e-01,3.20149e-01,-2.23616e-01,-1.75939e-01,3.12367e-02,2.45665e-02,3.06464e-02,
1.65187e-01,-2.07144e-01,1.49672e-02,-2.28390e-01,-6.39915e-02,-2.40276e-01,4.90387e-02,2.18445e-02,-3.79666e-02,-1.97452e-01,7.70912e-02,-1.62578e-01,2.93161e-01,-3.62588e-01,-2.31079e-01,
2.50308e-01,-1.68035e-01,1.11037e-01,2.94485e-01,-2.03250e-01,2.03394e-02,-7.10878e-02,2.94952e-01,1.07025e-01,1.89362e-01,2.20614e-01,-3.61534e-01,2.31850e-01,-1.81900e-01,-2.20497e-01,
-2.59113e-01,-2.44127e-01,-2.07920e-01,-2.47928e-01,-1.93385e-01,-1.90373e-01,-1.43254e-01,3.46057e-01,8.46921e-02,-3.99928e-01,4.78469e-02,1.09037e-01,-4.80524e-01,-3.01143e-01,2.76593e-01,
1.08431e-02,1.72075e-02,-2.43567e-01,-1.27645e-01,3.57101e-01,-3.93225e-01,-7.17976e-03,1.85254e-01,-1.55573e-01,3.63565e-01,1.35768e-01,-4.96833e-01,-1.84933e-01,4.77344e-02,2.22365e-01,
-2.30790e-01,-3.74014e-01,2.21316e-01,-1.83871e-01,-5.30928e-03,-9.81717e-02,-1.22628e-01,4.82083e-01,-3.30324e-01,-2.63362e-01,2.66016e-01,3.49850e-01,-5.99463e-01,-3.25472e-01,-1.08773e-01,
2.08270e-01,-5.07578e-01,-3.71148e-01,3.13235e-02,-1.55177e-01,5.31748e-02,4.22412e-01,-3.97230e-02,1.54833e-02,3.31705e-01,3.37678e-02,-1.06828e-01,1.15327e-01,1.13568e-01,4.00720e-01,
-3.28971e-01,-2.11185e-01,-4.61205e-01,4.71492e-01,3.91579e-01,-8.90173e-02,1.11014e-01,-1.02739e-02,6.21542e-02,-2.20873e-01,8.66189e-02,-2.75217e-01,-1.04507e+00,2.58366e-01,3.03066e-01,
-4.18129e-01,2.10811e-01,2.31152e-02,-2.82826e-01,1.97887e-01,8.29604e-02,-8.74968e-03,-1.84662e-01,-8.92764e-02,2.56235e-01,2.09755e-01,1.75807e-01,1.45802e-01,1.45999e-01,1.51055e-01,
1.22695e-01,-3.86148e-01,6.16803e-01,3.52779e-01,5.47791e-01,4.68390e-01,5.97754e-01,4.52092e-02,1.39356e-01,2.82077e-02,-4.83224e-02,-9.01643e-03,5.80453e-02,2.40008e-01,-8.15408e-02,
1.24221e-01,9.74885e-02,2.05182e-01,1.44331e-01,5.96936e-01,-2.59306e-01,-2.51985e-01,2.86511e-01,-2.24166e-01,-1.70899e-01,-3.63736e-03,9.23110e-02,-3.91152e-01,1.45965e-01,3.42213e-01,
-1.93160e-01,5.37988e-01,1.07768e-01,-2.53510e-01,-2.22607e-02,-1.58528e-01,6.38807e-01,-1.34830e-01,5.87968e-02,2.10843e-01,1.05028e-01,-5.43480e-01,4.47543e-01,1.61986e-01,8.27815e-02,
-1.57647e-01,-6.71275e-02,-1.41276e-01,-3.57614e-01,-4.73212e-01,-1.54116e-01,-1.70570e-02,-1.34508e-02,1.15651e-01,2.46629e-01,9.81512e-02,3.63351e-01,1.23744e-02,-4.26247e-01,4.54603e-01,
-1.70866e-01,-1.14158e-01,3.75407e-01,9.28558e-02,4.85020e-01,-6.23817e-02,-2.02235e-01,3.79772e-01,-3.95991e-02,3.37238e-01,4.47895e-02,-3.95737e-01,-3.37281e-01,7.95561e-02,2.11152e-01,
3.20116e-01,-2.75504e-01,-4.98158e-02,-1.30040e-02,1.02106e-01,6.11304e-01,-1.31736e-01,-1.40547e-01,7.95369e-02,-3.95964e-01,-4.11730e-02,-6.33345e-01,-2.92274e-01,-4.93364e-01,3.17014e-01,
-9.90477e-02,-9.46051e-02,-3.42981e-01,-2.83496e-01,1.42602e-01,-1.80093e-01,2.59924e-01,1.10591e-01,9.80991e-02,3.17302e-01,-2.73922e-02,1.39848e-01,1.21384e-03,8.19064e-02,-1.72694e-01,
-4.64385e-01,1.77077e-01,-5.01983e-02,1.29509e-01,2.01248e-02,6.65007e-01,1.79951e-01,-4.70240e-01,1.91435e-01,-8.73768e-02,-6.50631e-02,-1.01578e-01,2.57389e-02,-1.43681e-01,5.20733e-01,
-2.11859e-01,2.63115e-01,3.08030e-01,1.40950e-01,-1.17183e-01,9.86398e-02,-3.66318e-01,-5.62879e-01,1.79331e-01,-6.13410e-02,8.64956e-02,5.55971e-02,-2.84422e-01,2.66026e-01,3.99608e-01,
2.22743e-01,-2.17106e-01,3.32818e-01,3.89316e-01,1.78327e-01,-2.47256e-01,3.14618e-01,-3.57883e-02,-5.18416e-02,-3.42040e-01,1.48041e-01,3.41147e-01,-7.24357e-01,-2.28848e-01,2.60172e-02,
1.06461e-01,3.19702e-01,-1.31588e-01,-2.58221e-01,2.47366e-01,2.54370e-01,-3.34093e-01,-3.26836e-02,-1.34199e-01,3.68482e-01,-1.59599e-01,1.06039e-02,3.72721e-01,2.20636e-01,3.12286e-01,
-5.30509e-01,3.44753e-01,5.42095e-01,-2.21871e-02,-3.17440e-02,-5.53033e-02,7.22975e-01,-1.34887e-01,3.83824e-01,3.38755e-02,-1.96651e-01,-1.28526e-01,-7.30741e-02,4.30865e-01,-3.99864e-01,
-2.82462e-01,1.74683e-01,-4.22248e-01,3.58253e-01,1.60737e-01,5.27671e-01,-4.94793e-03,-1.54594e-01,-1.36083e-01,2.64195e-01,-3.36717e-01,5.10711e-01,-1.33471e-01,-4.97784e-01,-3.03156e-01,
1.32072e-02,-5.56840e-01,2.08109e-02,-1.83386e-02,1.86176e-01,-2.13924e-01,-1.54943e-01,2.66958e-01,1.32487e-01,5.84888e-02,-1.89479e-01,-2.46625e-01,-4.03442e-02,2.63964e-01,1.36296e-01,
9.23780e-02,5.63284e-02,-5.94804e-02,-2.30489e-01,3.30410e-01,-3.15213e-01,-2.16242e-01,8.25744e-02,7.21826e-02,5.25248e-02,-8.62833e-02,1.73035e-01,-2.66554e-01,-1.27375e-01,-3.25363e-03,
3.49719e-01,4.45404e-01,4.31002e-01,2.44201e-01,-3.82022e-01,-5.19954e-01,-1.92037e-01,-3.53937e-01,2.69856e-01,2.03676e-01,4.83606e-02,8.57189e-02,-2.26585e-01,-1.04651e-01,1.26882e-01,
4.26720e-01,5.70591e-01,6.59914e-02,3.52448e-01,5.63206e-01,1.36499e-01,5.48116e-01,-2.02075e-01,9.15591e-02,1.54656e-01,-8.30457e-03,-1.37273e-01,3.28477e-01,2.27903e-01,-7.00362e-03,
5.56559e-01,1.42019e-01,-1.67132e-01,-4.21756e-01,2.54870e-01,2.04457e-01,7.24267e-02,-7.14421e-01,7.55745e-03,-4.50154e-01,3.71726e-02,8.95254e-02,-1.01178e-01,-5.82612e-01,-2.84147e-01,
-2.23585e-01,1.37817e-01,-3.43034e-01,-1.27774e-01,2.34377e-01,4.79054e-01,-1.90891e-01,2.99486e-01,2.39201e-01,-1.38547e-01,6.52416e-02,-4.89836e-01,3.69915e-01,1.80824e-02,-1.99847e-01,
-1.25730e-02,3.64984e-01,3.38826e-02,1.25737e-01,-1.07324e-01,-1.54442e-01,4.80656e-01,-7.91366e-02,1.55781e-01,-2.37150e-02,1.52622e-02,-1.97881e-02,-4.93031e-01,2.05641e-01,-2.60991e-01,
-2.58838e-01,-6.88573e-01,-5.88303e-01,-1.12315e-01,-3.52537e-01,-1.93347e-01,2.54310e-01,-2.03467e-01,-5.98676e-02,-1.48558e-01,-4.28554e-01,3.81739e-01,1.23615e-01,7.56979e-02,2.39330e-01,
-1.45402e-01,-1.49897e-01,1.62911e-01,-1.31325e-01,-1.27651e-01,3.03456e-01,2.01011e-01,-2.96351e-01,2.28549e-01,7.84917e-02,-3.20236e-01,1.40985e-01,-8.23798e-02,3.18882e-01,-2.11467e-01,
-3.37989e-01,-2.37362e-01,2.90456e-01,-2.63226e-02,-1.36096e-01,1.49896e-01,-2.43098e-01,4.36838e-01,-6.20072e-02,-2.95518e-01,3.28041e-01,4.18854e-01,-7.27471e-03,-3.23025e-01,-3.04741e-01,
-1.55635e-01,-1.18247e-01,4.61013e-01,3.76663e-01,-1.75382e-01,-1.88061e-01,-1.33219e-02,-3.11493e-01,-2.80984e-02,-2.73808e-01,-1.77557e-01,3.22391e-01,-5.92906e-01,-2.20099e-02,2.20565e-01,
-2.66193e-01,2.04686e-01,-6.24636e-01,6.11427e-03,-9.93737e-02,-2.49952e-01,5.81807e-01,-2.81169e-02,6.65799e-02,-2.71104e-01,1.38480e-01,-2.71435e-01,-1.47549e-01,1.50818e-01,1.67159e-01,
4.46527e-02,-6.11618e-01,-2.13253e-01,-2.84474e-02,-2.86074e-01,-2.08373e-01,-1.21094e-01,3.23079e-01,5.04666e-02,1.93983e-01,-3.45760e-01,-3.54016e-01,-1.33906e-01,-6.96530e-02,2.46220e-03,
5.52915e-02,-6.65453e-03,-4.47450e-01,-1.16561e-01,3.20343e-01,2.04688e-01,-2.41541e-01,2.06167e-01,7.35763e-02,-1.59576e-01,1.56793e-01,-2.61023e-01,4.26716e-01,-2.53149e-01,-3.54915e-01,
4.91500e-01,2.94033e-01,2.08672e-01,3.74380e-01,1.87915e-01,1.30046e-01,-2.64047e-01,1.86204e-01,-3.20652e-01,-8.66833e-02,3.19451e-01,-2.59343e-01,1.71847e-01,5.18954e-01,1.43902e-01,
-1.86757e-01,-5.41436e-01,-3.11024e-01,-5.52556e-02,-1.26206e-01,1.43341e-01,4.38513e-01,2.73598e-02,-1.25019e-01,3.80505e-01,3.89233e-02,6.52396e-01,3.50785e-01,2.97707e-02,-1.43385e-01,
3.13933e-01,2.19358e-01,-1.39527e-01,9.51930e-02,-4.74141e-02,-2.57689e-02,1.71618e-01,2.99122e-01,1.21154e-01,-2.81202e-01,-1.25380e-01,3.93770e-01,-3.68551e-01,3.72679e-01,2.24843e-01,
1.30611e-01,-7.30159e-01,-3.80281e-01,-1.50584e-01,-1.17000e-01,-1.12328e-01,5.49812e-01,2.24976e-01,-1.38247e-02,3.19160e-01,1.76235e-01,-1.33015e-01,1.10059e-01,5.63495e-02,2.94652e-01,
3.52187e-01,3.18742e-01,-9.78666e-02,-3.38168e-01,-1.04015e-01,3.96416e-01,4.13270e-02,5.32603e-02,1.31426e-01,2.49512e-01,-1.45309e-01,5.19086e-01,2.45085e-01,2.69461e-01,-1.54742e-01,
-3.24928e-01,-5.28979e-01,3.21125e-01,-2.67571e-01,1.22839e-01,-4.05520e-01,-4.00967e-01,2.84065e-01,9.98764e-02,3.73226e-01,-2.92874e-01,2.28977e-01,2.55771e-01,2.57233e-01,1.83083e-01,
9.70252e-02,-1.98438e-01,-4.19398e-01,1.12189e-01,-1.17590e-01,-2.75392e-01,3.53188e-01,-3.38309e-01,1.85244e-02,-3.73671e-01,1.30194e-01,-5.04336e-02,2.21463e-01,1.81198e-01,-1.95141e-01,
2.36819e-01,1.21231e-01,8.86502e-02,2.21235e-01,-1.34038e-02,-3.89238e-01,6.28101e-01,-3.56674e-02,5.20842e-02,3.42450e-01,1.58756e-01,1.97736e-02,2.57187e-02,-3.06694e-01,6.75022e-02,
-1.99745e-01,4.14596e-01,3.08755e-01,-2.95063e-02,-3.53428e-01,-5.28495e-02,4.15513e-01,7.68337e-02,9.43556e-02,-2.24018e-01,8.80022e-02,-3.25509e-01,2.39025e-01,4.62240e-01,1.43955e-01,
-9.83449e-02,6.55453e-01,2.15953e-01,3.40870e-02,6.43696e-01,-7.65541e-02,5.41262e-01,1.82691e-01,-4.39478e-01,-2.73138e-01,-2.34676e-01,1.39970e-01,-1.64158e-01,1.10577e-01,3.34000e-01,
-2.00999e-01,2.09223e-01,-4.94119e-01,4.15344e-01,1.20321e-01,1.69669e-01,8.76977e-02,2.09493e-01,-2.52964e-02,3.68123e-01,-3.46490e-01,2.43847e-01,-6.50192e-02,6.24301e-02,9.14948e-02,
-3.78998e-02,1.53111e-01,2.51579e-01,1.13838e-01,-2.19412e-01,-1.36468e-01,-2.54926e-01,6.43232e-02,-4.21535e-02,5.14826e-01,-2.41478e-01,4.73906e-01,2.85434e-01,2.75598e-01,-1.08883e-01,
-2.99030e-01,3.29315e-01,-2.69233e-01,-3.65843e-01,-1.20208e-02,1.39241e-01,-4.63597e-01,-5.28959e-01,-2.52863e-01,1.95096e-01,1.56850e-01,1.31726e-01,-1.55592e-02,2.29144e-01,2.69467e-01,
3.39442e-01,-2.46224e-01,4.22557e-01,-8.84382e-02,-2.55104e-01,5.73925e-01,-6.16016e-02,-9.55661e-02,-2.26562e-02,3.32478e-01,-1.54577e-01,2.40301e-01,3.32413e-01,-2.37282e-01,-4.01223e-01,
-9.39753e-03,4.20668e-01,2.68525e-01,-2.61022e-02,-1.41869e-01,2.95547e-02,-5.49320e-01,2.22990e-01,5.86071e-03,2.85119e-01,3.52433e-02,5.29715e-01,6.28605e-02,1.92288e-01,-2.10381e-01,
-3.52961e-01,-3.13083e-01,1.88920e-01,3.59972e-01,4.65416e-01,1.89593e-01,-3.96921e-01,1.43030e-01,3.19283e-01,-3.06698e-01,1.39547e-01,7.04380e-02,-2.78986e-01,7.20701e-02,4.73870e-01,
-2.19672e-01,-3.47066e-01,-3.76273e-01,2.39343e-01,1.17101e-02,1.06421e-01,1.40217e-01,-3.39065e-01,-6.59141e-03,-1.34612e-01,-1.73651e-01,1.54128e-01,1.03240e-01,-7.88106e-02,-1.28548e-01,
-1.87405e-01,-5.47504e-02,-5.01816e-01,-2.53721e-01,3.40206e-01,-9.44873e-02,-8.24672e-02,2.86173e-02,1.47405e-01,-1.92534e-01,-3.57670e-01,9.84726e-02,1.06486e-01,-3.01920e-01,-4.31976e-01,
2.36847e-01,-6.33744e-02,4.62775e-02,-3.43030e-01,-9.44276e-02,-4.58739e-01,7.99346e-01,-2.59343e-01,1.63414e-01,-1.85303e-01,1.31639e-01,2.39833e-01,6.55175e-02,-2.57408e-01,-1.98284e-01,
3.33422e-01,-1.93336e-01,3.93595e-01,3.30907e-01,-4.90724e-02,-1.43597e-02,5.94626e-01,4.34034e-01,-5.36452e-02,1.02672e-01,2.70044e-01,1.41898e-02,2.46401e-01,-3.13379e-01,-4.59516e-01,
4.11980e-01,9.64507e-02,3.17571e-02,-1.86518e-01,1.27044e-01,5.07809e-01,1.87229e-01,-1.85840e-01,-1.82232e-01,4.52539e-01,3.21664e-01,1.39665e-01,2.42333e-01,-1.19243e-01,-1.14920e-01,
-7.23716e-02,2.65070e-01,4.70560e-01,-8.69635e-02,2.77088e-01,5.01363e-01,-3.93935e-01,5.24862e-01,-2.22403e-01,1.27269e-01,-3.36149e-01,-1.53638e-02,1.07959e-01,3.10459e-01,5.39453e-01,
-2.51138e-01,3.73765e-02,-4.29962e-01,-2.11628e-01,1.12840e-01,-1.46357e-01,-4.40366e-02,3.35913e-02,-2.47227e-01,-4.85494e-01,-3.24853e-01,2.27346e-01,2.07784e-01,-5.01888e-01,-3.90180e-01,
-1.38413e-01,4.24296e-02,2.51739e-01,-7.09512e-02,2.58838e-01,-2.07461e-01,-1.17651e-01,-1.96873e-01,1.76169e-01,2.77451e-01,-7.05060e-02,-1.46118e-01,4.51062e-01,2.76921e-01,3.17543e-01,
3.45956e-01,1.13066e-01,2.52356e-01,-1.63103e-01,-1.66064e-01,-4.13203e-01,1.35404e-01,-1.21821e-01,1.76067e-02,-1.72446e-01,-1.78020e-01,6.18945e-01,-4.06124e-01,-1.14819e-01,4.80734e-02,
2.08315e-02,-2.76907e-01,-1.29893e-01,1.00609e-01,1.23983e-01,-5.32400e-01,1.56543e-01,4.30188e-01,-1.70738e-01,-4.32218e-01,-8.35539e-02,-2.08500e-01,3.51430e-01,-3.77946e-01,3.76676e-01,
-3.68491e-01,-5.54021e-01,2.80900e-02,-1.40705e-01,3.72668e-01,-2.88530e-01,-3.31739e-01,2.62498e-01,4.10571e-02,2.61229e-01,3.18720e-01,4.29028e-02,-2.85865e-01,5.98113e-01,5.09542e-01,
1.79425e-01,-4.20790e-01,-2.20956e-02,5.38894e-01,-4.61396e-01,6.28102e-02,3.56995e-01,-4.32485e-02,-1.78780e-01,3.71787e-02,8.96830e-02,-4.89414e-01,-1.36510e-01,4.53172e-01,-8.78325e-02,
-5.35321e-01,1.19549e-01,1.47099e-01,-3.04655e-01,-2.19759e-01,-1.87749e-01,-4.09631e-01,3.34799e-02,1.10467e-01,-2.36872e-01,1.88392e-01,-8.70417e-02,-1.83284e-01,5.97763e-02,-3.50203e-01,
6.80313e-01,3.15191e-01,-1.54613e-01,-2.63624e-01,-1.88548e-01,9.20031e-03,3.75200e-01,-5.52893e-02,-2.22009e-01,-1.14901e-01,3.37544e-01,-5.10762e-02,-4.14690e-01,-3.08435e-01,-1.16308e-01,
-3.69942e-01,-4.39372e-01,-2.55513e-02,4.95101e-01,-2.71120e-01,-2.83741e-01,-1.24601e-01,-3.21200e-01,6.52493e-02,4.02001e-01,-1.98325e-01,-4.23597e-01,-7.43846e-02,-4.57486e-01,5.17736e-02,
-2.20631e-02,3.33574e-01,1.89445e-02,-3.28278e-01,-7.99074e-02,-1.95113e-01,-3.36118e-02,-1.06738e-01,8.78106e-02,-3.91304e-01,3.52704e-01,-4.34263e-01,-5.84596e-02,-1.65142e-01,4.10018e-01,
1.97034e-01,1.92124e-01,2.38879e-01,1.49603e-01,6.26408e-02,-1.88323e-01,9.31611e-02,-2.98946e-02,1.30064e-01,-3.56324e-01,-3.49662e-01,3.43908e-02,3.02608e-01,3.86972e-01,-5.60214e-02,
6.01105e-03,-3.28382e-01,1.53739e-02,-2.74145e-01,-1.25578e-01,-5.78279e-03,9.84987e-02,-4.07529e-01,-1.61267e-01,-8.44214e-02,-4.45581e-02,2.90879e-01,3.11534e-01,5.75878e-02,1.39511e-01,
3.79392e-01,1.09281e-01,1.24314e-01,-8.43513e-03,2.43136e-01,2.59090e-01,-3.23454e-01,-3.92179e-01,3.78151e-02,-3.86819e-02,-2.82475e-01,-3.67926e-01,-1.72167e-01,1.99794e-01,-2.33172e-01,
-4.63502e-01,3.36762e-01,-6.04965e-02,-2.54293e-01,-2.26828e-01,7.91430e-01,2.70391e-01,-2.64737e-01,1.89536e-01,2.74764e-01,2.28270e-01,-7.86868e-02,1.03408e-01,-9.15720e-02,3.25431e-02,
2.10939e-01,-1.98866e-01,-1.86435e-01,-4.59353e-01,1.01867e-01,-3.26418e-01,8.65345e-01,7.65273e-01,1.09193e-01,2.05149e-01,1.98312e-01,-8.16702e-02,3.66945e-01,-2.58673e-01,-6.42759e-01,
4.01325e-01,5.11544e-01,1.54494e-01,-2.57995e-01,-1.16539e-01,2.08597e-01,2.66464e-01,4.59201e-01,3.93693e-01,-8.56659e-02,-2.27318e-01,1.04051e-01,-1.06690e-01,-4.68430e-01,1.15368e-01,
2.50420e-02,-1.67369e-01,4.62172e-01,-4.31055e-01,8.21253e-02,7.83772e-02,-4.17157e-01,3.81346e-01,8.31305e-02,2.53132e-01,1.34242e-01,-1.40535e-01,-4.16854e-01,1.27834e-01,-2.10450e-01,
7.14570e-03,3.86320e-01,3.44240e-01,5.62636e-01,3.78176e-01,5.44362e-01,5.70817e-01,3.30040e-01,-1.69192e-01,-2.41408e-01,-4.03953e-01,1.27247e-01,-2.38639e-01,-2.83078e-01,2.80659e-01,
-3.28885e-01,8.86230e-02,-3.01879e-01,1.27303e-01,2.94874e-01,1.20615e-01,4.76075e-01,2.25137e-01,1.25327e-01,-5.59201e-02,-1.29444e-01,-3.90924e-01,4.65568e-02,-1.72734e-01,4.44992e-01,
3.74081e-01,3.47233e-01,-2.13080e-01,-1.45760e-01,-1.38564e-01,-3.28350e-01,-8.89120e-02,-1.34542e-01,-2.55391e-01,7.39121e-02,1.85742e-01,-3.73905e-01,-4.26231e-01,-3.88020e-01,-2.20302e-01,
5.56227e-02,-4.94727e-01,-3.02796e-02,1.50574e-01,3.12512e-01,3.19896e-02,-4.71326e-01,2.29710e-01,-2.23344e-01,-1.89151e-01,6.55680e-02,4.47933e-01,-4.45963e-01,5.75799e-03,-4.17120e-01,
4.49992e-01,4.31343e-01,2.99769e-01,2.31733e-01,-6.32151e-02,-3.71511e-02,-3.15975e-01,-3.51847e-02,-1.78000e-01,-5.74809e-02,7.85196e-02,1.51812e-01,-2.40289e-01,2.72214e-02,-7.24923e-02,
3.43855e-01,1.05840e-01,2.71023e-01,6.20309e-02,9.39375e-02,-2.33650e-01,2.73839e-01,-3.46569e-01,2.37599e-01,-6.08453e-02,3.92540e-02,3.10865e-01,-3.54687e-01,4.23967e-02,4.39273e-01,
-1.13437e-01,-1.20814e-03,-4.77613e-01,-2.88705e-01,-1.54293e-01,5.39863e-02,-3.76390e-01,1.26952e-01,-8.42594e-02,1.69648e-01,-4.97242e-02,-2.34639e-01,2.62656e-01,-3.38539e-01,4.93294e-01,
1.65006e-02,4.42365e-01,1.68407e-02,-1.22312e-01,3.51106e-01,-3.01004e-01,-3.80378e-01,1.82390e-01,2.49902e-01,3.74111e-01,1.47437e-01,-4.39870e-02,-7.51407e-02,2.08436e-01,-1.24390e-01,
-4.00974e-01,3.16555e-01,4.27152e-01,-6.58481e-02,3.59605e-01,-4.64407e-01,-4.46454e-01,-9.68578e-02,1.14274e-01,1.06271e-01,2.22010e-01,-2.32109e-01,9.11033e-02,-1.41557e-01,-2.95443e-01,
4.35337e-01,4.84348e-01,2.56950e-01,-4.92250e-03,-2.22513e-01,-3.39585e-01,-7.00115e-02,-1.27789e-01,-2.68311e-01,2.91433e-01,-5.52648e-02,-5.22092e-02,1.55699e-01,-1.08509e-01,2.32588e-01,
9.72990e-02,5.44731e-01,8.92218e-04,4.08995e-01,-1.69184e-01,-2.11854e-01,1.13259e-02,3.93681e-01,-9.07585e-02,4.96192e-01,3.48441e-01,2.32485e-01,9.32117e-02,4.33567e-01,-1.90201e-01,
-3.42787e-01,-1.62116e-03,-1.88721e-01,2.56997e-02,-2.89509e-01,-1.77822e-01,-5.00328e-01,-3.05656e-01,3.59390e-02,1.06862e-01,2.15855e-01,1.21520e-01,-6.17826e-02,-2.04847e-01,-2.30413e-01,
-7.24538e-02,2.69983e-01,-3.41571e-01,-1.37335e-01,-2.20578e-03,1.92550e-01,4.53699e-01,3.56400e-01,-9.92993e-02,3.51616e-02,-5.96948e-02,-5.55298e-02,5.49257e-02,-4.69728e-01,1.07479e-01,
-7.11461e-02,-1.53923e-01,-1.06263e-01,2.72200e-01,4.68016e-01,-3.94491e-01,3.72640e-01,-5.41853e-02,2.60794e-03,6.12975e-02,-3.29216e-01,-2.32893e-02,1.19508e-01,6.84265e-01,6.26589e-01,
1.38467e-03,-1.23523e-01,4.62167e-01,4.52563e-02,3.80979e-01,-1.07181e-02,-1.11053e-01,1.04587e-01,-2.57330e-02,-1.25414e-01,-3.89782e-01,1.27400e-01,2.68694e-01,3.24971e-01,3.09488e-01,
3.11623e-01,2.22729e-01,1.77188e-01,1.71123e-01,3.84341e-01,-1.52819e-01,-2.18713e-01,4.36136e-01,-8.48801e-02,-2.45084e-01,-3.06214e-01,2.02814e-01,-3.34307e-01,-3.44642e-01,-2.10869e-01,
-1.42902e-01,9.63416e-02,-2.89145e-01,-2.99172e-01,9.13727e-02,-1.72295e-01,-1.51273e-01,-1.95576e-01,2.35640e-01,-4.97906e-01,-2.82377e-01,3.80783e-01,-5.34214e-02,-4.15110e-01,-1.54426e-01,
-1.18785e-01,3.09739e-01,2.45185e-02,-4.39462e-01,-1.31299e-01,-3.18760e-01,-1.41653e-01,-2.23809e-01,1.92146e-01,-2.85831e-01,-1.23224e-01,6.33687e-02,-2.87532e-02,-4.03964e-01,-3.40513e-02,
-3.44692e-01,2.64918e-01,-2.82928e-01,6.29970e-02,-2.62587e-01,7.20574e-02,5.89644e-02,-1.39480e-02,4.95464e-02,-4.42323e-01,2.91856e-01,2.26146e-01,1.00380e-01,-3.54786e-01,-2.00967e-01,
-2.81368e-01,-3.42704e-01,-1.57489e-01,-3.91866e-01,1.14374e-01,-1.01430e-01,-5.87452e-01,-1.23436e-02,8.34194e-02,-1.97115e-01,2.54928e-01,1.25939e-01,1.33333e-01,-1.74700e-01,4.40046e-01,
3.16518e-01,5.00459e-01,7.53816e-02,1.44849e-01,1.36287e-01,2.79712e-02,-6.39564e-02,3.52353e-01,-6.45317e-04,-2.80357e-01,1.86455e-01,2.21703e-01,8.05430e-02,6.28728e-01,9.90624e-02,
-1.75687e-01,-4.17256e-01,3.79648e-01,-1.13245e-01,3.68326e-01,-2.47470e-01,-4.52522e-01,1.42552e-01,2.57630e-01,1.64136e-01,-7.31316e-02,3.39175e-02,3.82954e-01,-8.28202e-02,-9.89776e-03,
1.56863e-01,2.40325e-01,2.89204e-01,3.40662e-02,-1.90208e-01,1.61719e-02,-4.26258e-01,1.41601e-01,1.04476e-01,-2.90733e-01,2.17931e-01,-8.28183e-01,-3.32010e-01,-1.76582e-01,3.12447e-01,
-4.01934e-01,3.00964e-01,3.37626e-01,-2.24308e-01,-1.62761e-01,1.14537e-01,3.46537e-01,-1.66834e-01,-8.19052e-02,-1.29813e-01,2.43206e-01,4.39620e-01,1.12038e-01,-3.62236e-02,-1.62977e-01,
1.36194e-01,8.47547e-02,1.67887e-01,2.15613e-02,-2.65245e-01,8.77784e-02,-3.42449e-01,-9.75485e-02,-1.93711e-01,-1.59665e-01,7.79743e-02,-7.06758e-02,-2.69881e-01,-3.04931e-01,4.24126e-01,
4.15977e-02,1.17045e-01,2.30687e-01,2.22672e-01,-4.66282e-02,6.88548e-01,2.86266e-01,1.82344e-01,2.48858e-01,4.43779e-01,1.37598e-01,-1.94546e-01,3.41591e-01,-3.10342e-02,2.01259e-01,
-2.87857e-01,-2.52044e-01,3.29760e-01,-5.28619e-02,2.41951e-01,3.70354e-01,-1.46667e-01,4.44908e-01,1.65883e-01,-1.34080e-01,1.35349e-01,-1.79200e-01,-2.97369e-01,4.53442e-01,1.75236e-01,
4.84364e-02,-1.95316e-01,4.41100e-01,2.10475e-01,3.32934e-01,-2.66849e-02,6.55253e-01,-3.06530e-01,3.41746e-02,-8.85302e-03,-1.94330e-01,8.23843e-02,3.73112e-01,-8.80150e-02,-4.09091e-01,
-2.55945e-01,-9.32915e-02,3.81262e-01,-2.00146e-02,-2.88904e-01,1.63930e-02,-1.00445e-01,-3.89982e-02,1.99554e-01,-5.22064e-01,3.06446e-01,2.06227e-01,3.25207e-01,6.73613e-03,-3.73209e-01,
-3.10540e-02,-1.03904e-01,8.27980e-03,-2.01947e-02,-1.82559e-01,-1.73025e-01,-2.29497e-01,1.16555e-01,-3.04693e-02,1.31292e-01,-1.55286e-01,-3.13032e-01,1.75129e-01,2.84300e-01,-2.04236e-01,
-1.94926e-01,3.77175e-01,-2.60761e-01,5.61386e-01,8.92861e-02,-2.55899e-01,-4.23332e-02,2.49658e-01,-7.17428e-02,4.28154e-01,2.68325e-02,-4.48482e-01,-3.03741e-01,2.44223e-01,2.25843e-01,
-8.87151e-02,-5.68821e-01,-4.37500e-01,1.51018e-02,1.71592e-01,3.71222e-01,1.26939e-01,2.18194e-01,-2.83400e-01,3.80159e-01,-1.52416e-01,2.07344e-01,-1.30273e-01,-5.18374e-01,-2.22131e-02,
-1.37221e-01,2.92095e-01,5.87053e-02,-1.73214e-01,-1.04959e-01,-3.63461e-01,-8.23223e-02,1.07275e-01,-3.22699e-01,-2.77166e-01,3.16447e-01,-1.24837e-01,-3.59788e-01,-1.68401e-01,-2.16994e-01,
-1.52516e-01,-5.35519e-01,-1.78853e-01,6.89714e-02,2.89328e-01,4.10198e-01,5.68784e-01,-3.74807e-01,-1.15362e-01,-3.86770e-01,-1.89065e-02,4.25627e-02,4.57652e-02,-1.09720e-01,-1.88383e-01,
-2.12861e-01,1.10786e-01,2.01793e-01,2.04835e-01,-3.14452e-01,-1.52064e-01,-1.69558e-01,-1.88265e-01,-7.64145e-02,5.56364e-02,-2.40778e-01,-4.54650e-01,2.87617e-01,-1.40815e-01,-9.46952e-02,
-1.92928e-01,1.86515e-01,9.63048e-02,-8.81232e-02,-3.11232e-02,2.83980e-01,-5.28801e-01,-6.00208e-01,-3.23106e-01,4.11062e-02,1.70428e-01,4.80816e-02,-8.11911e-02,2.26663e-01,6.75539e-01,
-4.42440e-01,-4.92216e-02,8.10687e-02,-1.88338e-01,1.27098e-01,3.58469e-01,1.34668e-01,1.31686e-01,1.70899e-01,-2.95762e-01,1.20647e-01,-4.13729e-01,-5.60917e-02,-7.04642e-02,-1.03161e-01,
6.41743e-03,2.92520e-01,1.99876e-01,3.32577e-01,1.32820e-01,1.98021e-01,2.78574e-01,4.93912e-01,4.45875e-02,1.73581e-01,-4.26258e-01,2.51972e-01,-2.57366e-01,-3.84091e-01,-6.00344e-02,
4.41761e-01,-3.07825e-01,-1.04342e-01,1.95951e-01,3.28450e-01,7.84668e-02,-3.17844e-01,5.61549e-01,-1.49420e-01,-8.87600e-03,3.51909e-01,1.73803e-01,1.20286e-01,-4.70509e-02,5.48258e-02,
5.94544e-01,-2.94711e-01,-4.72769e-01,-2.22815e-01,-2.25975e-01,3.41073e-01,-4.76539e-01,2.47774e-01,-1.51422e-01,-1.42971e-01,5.06305e-02,1.10868e-01,-6.30167e-02,-1.26910e-01,1.76028e-01,
-3.04595e-01,1.10331e-01,-5.98141e-02,3.67721e-01,2.20013e-01,6.49820e-02,-1.55536e-01,-6.12221e-02,-2.31259e-01,2.12462e-01,-2.88030e-02,1.34173e-02,2.04058e-01,-8.44289e-02,-9.45321e-02,
-1.29190e-01,-4.39825e-01,-3.24434e-01,-3.68616e-01,-3.75622e-01,2.90716e-02,1.58475e-01,-2.13841e-01,-1.45277e-01,-1.94890e-01,1.42146e-01,3.13481e-01,8.06585e-02,6.56639e-02,4.20117e-01,
-1.30047e-01,-3.35224e-01,2.38562e-01,-4.44097e-02,3.06651e-01,-6.64019e-02,-2.15602e-01,-8.57468e-02,2.38963e-01,1.78420e-01,-1.49470e-01,-1.96670e-01,-2.71364e-01,5.46213e-01,3.78788e-01,
-3.63852e-01,-3.84919e-02,-1.11237e-01,3.60666e-01,-1.10199e-01,8.46428e-02,-9.02588e-02,4.61229e-01,-2.04923e-01,3.42547e-01,-1.13588e-01,1.76140e-01,6.58468e-02,3.41433e-01,3.34952e-01,
-1.78339e-02,-5.64738e-01,-3.92756e-02,-2.59112e-01,2.24553e-01,-1.34616e-02,2.91346e-01,-1.12817e-01,1.90747e-02,4.18425e-02,-4.60799e-02,-6.88083e-02,-3.87125e-02,9.91309e-02,-2.18652e-01,
4.43932e-03,2.73185e-02,-5.26112e-01,2.16981e-03,-9.80710e-02,5.05203e-06,7.03108e-01,1.50498e-02,1.27379e-01,2.40519e-01,-1.01772e-01,-3.88254e-01,2.15880e-01,-4.98618e-02,5.10240e-01,
-3.82856e-01,-6.50216e-02,-6.05287e-02,4.04202e-01,4.73263e-01,-2.96472e-01,-1.61122e-01,1.81445e-01,-1.78188e-01,4.32774e-01,1.44902e-01,1.83737e-01,2.42682e-03,2.84283e-01,-2.04651e-01,
-1.57704e-01,5.25909e-01,5.21228e-01,1.79040e-01,3.85723e-01,5.82101e-02,2.63988e-01,-8.12722e-02,-1.51153e-01,2.98985e-01,-1.75217e-02,-1.05561e-01,-1.96428e-01,-1.98485e-01,-2.14167e-01,
-1.28274e-01,1.73238e-02,5.52953e-01,2.37411e-01,4.84842e-01,4.08621e-01,-1.27878e-01,2.44975e-01,-1.45155e-01,1.24423e-01,-3.47005e-01,1.87683e-01,2.15542e-01,-4.48101e-01,9.30378e-02,
-8.22187e-02,3.99254e-01,-2.91930e-01,1.18878e-01,-4.83775e-02,-3.17880e-01,2.06198e-01,-2.76564e-01,-1.93001e-01,2.86232e-02,1.89110e-01,-1.61578e-01,1.53706e-01,-3.47545e-01,-5.06040e-01,
3.99629e-02,-4.31374e-02,3.01429e-01,-4.39565e-01,2.40656e-03,-1.38825e-01,-5.72794e-01,-1.39715e-01,-2.36964e-01,-4.11332e-01,-1.63461e-01,-3.57332e-01,-1.62797e-01,-4.00144e-01,7.16126e-02,
3.81496e-01,5.23509e-01,3.24906e-01,7.57787e-02,6.29266e-01,-3.34891e-02,-4.25801e-02,1.49241e-01,6.22831e-02,-4.90628e-02,-4.83233e-02,-2.92957e-01,3.45124e-01,1.90388e-01,1.27482e-01,
-4.05154e-01,-6.26885e-02,2.98578e-01,5.15381e-01,2.46187e-01,2.87266e-01,1.15991e-02,-5.19470e-03,1.78298e-01,-1.71470e-02,-2.71341e-01,6.44021e-02,6.50081e-02,-2.45201e-01,2.25966e-02,
3.79445e-01,1.90320e-01,-1.12649e-01,4.35676e-01,2.94555e-01,-1.39953e-02,4.05460e-01,3.34254e-01,9.16905e-02,8.94772e-02,1.07378e-01,2.07315e-01,-6.19387e-02,5.00096e-01,1.33107e-01,
2.22443e-01,9.59295e-02,-6.75864e-02,2.76855e-01,-3.65955e-01,1.26168e-01,-1.36354e-01,2.01942e-01,-2.73788e-01,1.47658e-01,-2.71309e-01,1.50481e-01,2.24439e-01,4.24676e-01,2.78433e-02,
-2.27995e-01,-1.23576e-01,-3.61244e-01,-1.05884e-01,2.34524e-01,1.59983e-01,1.67462e-02,-3.50329e-01,-4.50321e-01,-5.78371e-01,-4.17437e-01,1.44057e-01,1.82553e-02,-7.29924e-01,-1.16360e-01,
-3.51016e-01,2.09214e-01,2.88631e-01,-2.79487e-01,-9.78950e-02,-5.30692e-02,1.93418e-01,1.54202e-02,9.39503e-02,1.84316e-02,1.79663e-02,-4.50462e-01,1.27385e-01,5.42500e-01,-3.98755e-01,
4.76212e-01,1.01908e-01,1.30589e-01,-6.35332e-02,2.45027e-01,5.34647e-02,1.72007e-01,4.20259e-01,-7.86702e-02,7.16791e-02,3.41344e-01,-7.85388e-02,-1.57502e-01,-9.35102e-02,2.18940e-01,
6.86549e-02,3.87344e-02,-4.72843e-01,1.92582e-01,-9.54518e-02,-8.09207e-02,3.54492e-01,-8.74035e-02,-1.11957e-01,1.74306e-01,1.10083e-01,-2.03803e-01,1.81028e-01,-1.77985e-01,4.28301e-01,
-2.57071e-01,3.71856e-01,2.52946e-01,-3.74302e-01,-4.71603e-01,-6.31296e-02,-5.56502e-01,-2.17204e-01,-4.31132e-01,-2.61978e-01,-3.21318e-01,8.50083e-02,-2.43483e-01,2.38239e-01,4.24696e-01,
-1.87530e-01,4.16422e-01,-3.65703e-01,4.32411e-01,5.72833e-01,-3.65700e-01,-2.41955e-01,1.94058e-01,1.64081e-01,1.47935e-01,6.58432e-02,3.55511e-01,-1.34661e-01,-9.23887e-02,-2.61591e-01,
-2.63433e-01,1.46319e-01,-3.80997e-01,-1.78906e-01,-1.81438e-01,-1.95628e-01,-2.03119e-01,-3.68604e-02,-2.61494e-01,-1.07751e-01,3.26880e-01,-9.63378e-02,-5.81583e-01,1.92453e-01,-3.02742e-01,
1.81852e-02,4.20456e-01,4.60146e-01,-1.78223e-01,5.35130e-01,1.31227e-01,3.07650e-01,1.53437e-03,2.70772e-01,-2.69465e-01,2.73472e-01,-1.42517e-02,-4.41785e-01,4.51372e-01,-1.97294e-01,
-1.14314e-01,-4.26831e-01,-2.09682e-01,1.56583e-01,-2.40903e-01,-3.47395e-01,3.61683e-01,-2.19090e-01,-2.58927e-01,-2.61315e-02,1.15255e-01,-8.05701e-02,-1.67285e-01,2.73513e-01,-1.66600e-01,
1.26713e-01,6.48718e-01,-5.55874e-01,-2.93537e-01,-9.38133e-02,1.07111e-01,1.48687e-02,3.64586e-01,-1.03993e-01,-1.13538e-01,3.07895e-01,-1.93456e-01,2.77980e-02,-1.65174e-02,2.09657e-02,
5.53667e-02,-7.35661e-02,7.67866e-02,-4.50282e-02,3.10179e-01,1.98711e-01,-2.19238e-01,-1.49538e-01,-7.28438e-02,1.10825e-01,-1.98266e-01,1.84851e-01,1.79874e-01,1.70311e-01,-8.92863e-02,
1.13868e-01,-6.09939e-01,-4.40398e-01,-1.95324e-01,1.95744e-01,3.21055e-02,6.79574e-01,3.50632e-01,-1.70086e-01,2.01317e-01,3.11304e-02,2.77931e-01,1.22319e-01,2.10365e-01,-2.45822e-01,
-9.08012e-02,8.26540e-02,-1.71851e-04,1.72837e-01,1.75947e-01,-2.81428e-01,1.53299e-01,-1.49583e-01,2.23358e-01,3.27042e-01,-1.77707e-01,-1.48919e-01,4.51004e-01,5.14267e-01,4.85420e-01,
-4.43540e-01,-1.27395e-01,-1.33649e-01,4.68535e-01,1.47807e-01,2.44865e-01,9.06177e-02,1.02348e-01,-1.44339e-01,1.70358e-01,1.31864e-01,-5.01807e-01,1.48006e-01,-2.03660e-01,4.87412e-02,
-6.84788e-02,
-1.54353e-01,
2.28641e-01,
-1.73304e-01,
2.00640e-01,
1.97816e-01,
-7.81460e-02,
-2.44508e-01,
2.61063e-01,
-1.55537e-02,
-2.60038e-01,
2.70880e-02,
-1.62556e-01,
9.10125e-02,
6.54904e-03,
-1.25081e-01,
-5.65001e-02,
-1.02168e-01,
2.87951e-02,
1.69597e-01,
-1.45400e-01,
1.41746e-02,
3.80971e-02,
-2.54093e-01,
-2.51963e-01,
1.54405e-01,
-3.29553e-02,
3.18896e-01,
2.41732e-01,
-1.56318e-01,
2.89797e-01,
-1.83196e-01,
-6.52910e-02,
-1.04473e-01,
2.36801e-01,
2.94927e-02,
5.85640e-02,
2.65217e-01,
2.16027e-01,
2.16286e-01,
1.79231e-02,
-4.30385e-02,
1.34011e-01,
3.79937e-02,
-3.17806e-02,
-2.10398e-01,
2.03664e-01,
2.97744e-01,
1.65750e-01,
2.22805e-01,
2.83276e-01,
1.89202e-01,
1.10176e-01,
5.29442e-01,
1.21499e-01,
1.13968e-02,
2.09245e-01,
3.51287e-02,
2.90490e-01,
-5.27671e-02,
-1.19724e-01,
1.78390e-01,
1.37733e-01,
7.05129e-02,
3.76882e-01,
-1.17740e-01,
1.80714e-01,
-1.64612e-02,
8.14715e-02,
-3.22827e-02,
-3.41826e-02,
1.14085e-01,
-1.22698e-01,
1.31279e-01,
-1.92626e-01,
-5.14629e-02,
-1.01002e-01,
1.47333e-01,
1.87189e-01,
5.20013e-01,
1.43608e-01,
1.99817e-01,
-1.34248e-01,
2.86648e-01,
3.78421e-01,
1.90855e-02,
-1.51590e-01,
2.82714e-01,
1.52741e-01,
4.23765e-01,
9.53000e-02,
1.36739e-01,
1.52941e-01,
3.01358e-01,
4.41022e-01,
1.79474e-01,
-2.62637e-01,
-3.03664e-01,
-1.38846e-01,
1.09297e-01,
-3.81309e-01,
2.99776e-01,
4.12364e-02,
1.49021e-01,
1.92310e-02,
-1.32462e-01,
-2.22062e-01,
-1.87024e-01,
4.77550e-03,
3.79124e-02,
-1.30983e-01,
-1.96358e-01,
5.15068e-03,
2.61230e-01,
2.38373e-01,
-7.10353e-04,
-1.48647e-01,
-2.40511e-02,
4.16201e-02,
-1.16801e-01,
3.40192e-01,
-3.84097e-02,
-1.91934e-01,
-1.21508e-01,
2.94552e-01,
-6.96802e-02,
6.82609e-02,
-1.30070e-01,
5.34879e-02,
-1.55302e-01,
-2.21755e-01,
4.62021e-02,
2.49999e-01,
-8.96291e-02,
1.24336e-01,
4.02796e-01,
-2.95300e-01,
4.62130e-01,
2.14100e-01,
2.46294e-01,
3.83364e-01,
1.37818e-01,
3.85521e-01,
2.90854e-01,
-1.04256e-01,
3.48881e-01,
1.97083e-01,
1.88411e-01,
-4.27787e-02,
4.08147e-01,
-1.04139e-01,
1.27372e-01,
-2.71156e-01,
-4.10755e-01,
8.36076e-02,
-1.45948e-03,
2.78213e-01,
2.41931e-02,
-1.07797e-01,
-2.46579e-01,
3.47330e-01,
-1.31542e-01,
-2.67928e-02,
2.39496e-01,
6.94416e-02,
-3.46339e-03,
3.43070e-02,
7.58020e-02,
2.79704e-01,
1.03083e-01,
1.45165e-01,
3.44927e-01,
2.56998e-01,
1.87114e-01,
2.01292e-01,
1.81951e-01,
-1.29081e-01,
1.05003e-01,
-6.88256e-03,
-4.89783e-02,
3.48940e-03,
-1.54760e-01,
1.38233e-01,
2.50508e-01,
3.04650e-01,
2.88064e-01,
2.29565e-01,
-1.29937e-01,
3.16164e-02,
-1.03948e-01,
8.00483e-02,
1.66796e-01,
1.55189e-01,
-3.63158e-01,
2.62191e-01,
-3.19974e-01,
1.80917e-01,
3.91729e-01,
-1.92702e-01,
-9.45755e-02,
8.28285e-02,3.98489e-02,-1.16152e-01,1.88880e-02,-7.82480e-02,1.81042e-01,-8.56637e-02,3.57082e-01,-1.91844e-01,1.95215e-01,-3.37333e-02,-3.38591e-01,-5.00084e-01,-3.39455e-02,2.52777e-01,3.08819e-02,2.11184e-01,-3.24487e-01,-3.11026e-01,-5.82713e-01,1.53467e-01,4.61068e-02,2.87157e-01,-4.66142e-01,1.25088e-01,6.42676e-02,-3.49360e-01,-1.69273e-01,4.70167e-02,-5.86593e-01,-3.24862e-01,-6.12805e-01,-8.64453e-02,5.31042e-02,2.00787e-01,-3.38444e-01,9.50789e-02,2.76786e-02,-1.54030e-01,2.29592e-01,-5.21362e-01,2.72165e-01,-3.37428e-01,-3.69253e-02,4.26948e-03,3.21583e-01,1.02237e-01,-7.68029e-02,-2.88526e-01,-6.41324e-01,-7.39043e-01,-1.15829e-01,-2.02812e-01,1.44157e-01,3.12583e-02,-5.91053e-02,-5.89976e-01,4.40698e-02,1.39373e-01,1.81646e-01,-4.05010e-02,6.87378e-02,-1.61214e-01,-9.39506e-02,1.21910e-01,3.69094e-01,-3.97662e-01,-3.34001e-01,1.65043e-01,-3.43958e-01,3.79773e-02,3.45637e-02,1.98684e-01,1.62123e-01,-5.25999e-02,1.59783e-02,3.68369e-01,-2.17540e-01,5.59150e-02,-1.42419e-01,-8.65814e-01,3.71813e-01,-1.34012e-01,-3.25788e-01,2.25197e-01,9.61754e-02,1.42257e-01,1.60622e-01,-7.99715e-02,1.84401e-02,2.58720e-01,-2.61392e-02,-2.85603e-02,1.29253e-01,-1.96982e-01,4.63103e-03,-2.79390e-01,2.16770e-01,-3.09387e-01,-3.82842e-02,-1.30537e-02,9.69716e-03,-1.25761e-01,1.69357e-02,2.70979e-01,6.42094e-02,-1.23757e-01,-3.29222e-01,-6.38348e-02,-6.01498e-02,1.02904e-02,2.58667e-01,6.78837e-02,-6.70219e-01,7.44217e-02,2.23950e-02,-3.37298e-01,3.35599e-01,-6.10779e-02,1.20501e-01,1.61488e-01,-1.88081e-01,-6.33441e-01,-6.14191e-02,1.20224e-01,1.85098e-01,1.86118e-01,1.46803e-01,1.69892e-01,-5.33346e-01,-1.24165e-01,-1.51861e-01,-1.28673e-01,-1.49065e-01,-3.91786e-01,-3.22184e-01,-3.51111e-01,1.69924e-01,-2.42649e-01,3.43722e-02,-3.16713e-01,2.21428e-01,1.52807e-01,4.27146e-02,-4.14072e-02,4.33754e-02,-1.68182e-01,1.49484e-01,1.24770e-01,9.63744e-02,2.55164e-01,-1.56729e-01,3.32693e-01,-7.48625e-01,2.09202e-01,-2.54583e-01,-5.31527e-02,-3.20567e-01,1.67389e-01,8.63206e-02,-4.04109e-02,1.80750e-01,2.25476e-02,-2.64292e-02,1.28516e-02,-1.68761e-01,2.32818e-01,-7.28585e-02,-9.45149e-02,3.73146e-02,-3.61794e-02,-3.62563e-02,1.23289e-01,-9.13997e-03,-2.45643e-02,1.27076e-01,-1.86842e-01,4.93538e-02,1.17944e-01,-2.92453e-01,-2.82959e-01,2.68642e-01,-5.21614e-02,-1.52226e-01,2.92229e-01,3.55458e-02,4.39673e-02,-2.88586e-01,-5.48321e-02,-9.53208e-02,3.68326e-01,-6.26957e-01,8.36422e-03,3.74765e-01,-9.64953e-02,2.43208e-02,1.45904e-01,8.37643e-02,-1.92945e-01,-5.18089e-01,
-2.01466e-02,4.77812e-02,3.38575e-02,2.12140e-01,4.93367e-02,-1.30301e-01,-2.03070e-01,3.35767e-02,1.09493e-02,-9.60808e-03,4.56186e-01,1.77958e-02,1.04593e-01,2.33231e-02,4.21225e-02,5.16586e-02,7.79112e-02,-3.06155e-02,1.04488e-01,-1.26627e-02,-1.17135e-01,6.12261e-02,3.87582e-02,4.20640e-02,1.36762e-01,-9.97923e-02,-3.18801e-01,-1.97821e-02,1.26783e-01,-3.48285e-03,6.15327e-02,-1.70610e-01,1.78661e-01,-1.33605e-01,-1.07486e-01,1.12135e-01,2.12333e-01,8.07563e-03,-7.65528e-02,-2.13810e-01,2.52165e-01,-5.70683e-03,1.42026e-01,2.90964e-01,-1.61214e-01,2.00484e-03,-1.89986e-01,-4.22564e-01,3.06384e-01,2.10353e-01,-8.65030e-02,3.26352e-01,-6.07769e-02,-2.32737e-02,3.20155e-01,2.84408e-01,-3.31366e-02,1.61410e-01,-1.67589e-01,-2.73826e-01,-1.72761e-01,-2.55127e-01,-7.97070e-03,3.76219e-02,-1.73171e-01,-5.67482e-02,-5.56423e-02,6.54242e-02,8.24052e-02,1.34862e-02,1.16853e-01,1.34677e-01,1.66066e-02,1.77977e-01,-8.15561e-03,-9.38283e-02,-3.95977e-02,-2.77510e-01,-5.61600e-02,8.49477e-02,3.37633e-02,-5.49034e-01,4.11550e-01,9.12613e-02,-2.64555e-01,1.01521e-01,1.36196e-01,-2.04177e-01,8.48919e-02,-1.20792e-01,-4.45402e-02,1.60720e-01,1.21046e-01,1.45042e-01,-1.35735e-01,1.48482e-01,1.52120e-01,-2.06167e-01,2.22469e-01,-2.19067e-02,2.93884e-01,-7.19417e-01,-4.35543e-02,6.45710e-02,-2.77868e-02,-2.71646e-01,2.83739e-01,1.64725e-01,1.52841e-01,3.05474e-01,2.92845e-01,-1.66486e-02,-6.52094e-02,1.22157e-01,2.87289e-01,-2.86246e-01,2.87413e-01,5.11521e-02,1.05081e-01,4.13492e-03,-1.35711e-01,-8.80344e-02,-3.16278e-02,-6.04849e-02,-1.47285e-02,8.57246e-02,4.32998e-02,1.92752e-02,3.78032e-01,6.95719e-02,3.40643e-01,-7.95280e-01,-9.97749e-02,-2.38732e-01,8.07510e-02,-9.11024e-02,2.41731e-01,-6.84471e-02,-3.76903e-02,-1.00633e-01,8.12003e-02,1.33544e-01,-2.24720e-01,-2.89148e-02,-2.12304e-01,-2.75289e-01,-1.33237e-01,1.88229e-01,4.62058e-03,-3.27136e-02,-2.15510e-02,-3.57181e-03,-2.86689e-01,4.12152e-01,-4.17268e-02,2.22310e-01,8.69480e-02,2.37847e-01,-4.50438e-02,-1.24000e-01,4.94165e-02,2.45926e-01,-1.04667e-01,-2.56037e-01,1.75819e-01,-1.59483e-01,1.53938e-01,1.15224e-01,-3.65537e-01,-6.65504e-02,-2.74008e-01,-1.40343e-01,5.57076e-02,6.64676e-02,1.10785e-01,7.94311e-02,1.35617e-01,5.37120e-02,-7.39879e-01,-4.67207e-01,6.92215e-02,8.27006e-02,-4.84802e-01,-2.89314e-01,-2.00025e-01,-2.68800e-02,1.81035e-01,1.94910e-01,2.72808e-03,3.08662e-02,3.18132e-02,9.91128e-02,-1.47637e-01,-2.32798e-01,9.15000e-02,-4.51229e-01,-1.40877e-01,1.51237e-01,-2.63004e-01,2.05602e-01,
-4.40868e-01,-3.53051e-01,4.32196e-02,-5.42467e-01,4.20197e-01,3.35015e-02,5.02830e-02,-4.54648e-01,-7.23860e-02,2.96486e-01,3.43606e-01,6.59901e-02,1.73948e-01,-1.08153e-01,1.15546e-01,-6.17887e-01,1.37806e-01,-3.27029e-01,-1.78282e-01,1.96262e-01,-3.23856e-01,-3.69383e-01,-4.30873e-01,-1.33070e-01,6.01947e-02,-1.88543e-01,5.90141e-02,1.50758e-01,2.88994e-01,1.38043e-01,7.04723e-02,1.68222e-01,-6.76855e-01,-2.02839e-01,-1.56581e-01,-3.17736e-01,-2.73387e-01,-4.03009e-01,6.54890e-02,2.03349e-02,3.11069e-01,7.17134e-02,-3.52419e-02,1.35317e-01,-1.68066e-01,-4.01807e-01,-2.04963e-01,5.69958e-03,-2.95176e-01,6.19573e-02,7.49898e-02,-2.78230e-01,1.34476e-01,1.10382e-01,8.37152e-02,-5.66634e-01,1.91866e-01,9.45351e-03,3.94648e-02,6.66436e-02,3.57522e-01,-2.56182e-01,-3.07937e-02,5.08718e-01,1.39934e-01,8.73387e-02,2.71659e-02,-3.36391e-01,-2.77920e-01,2.72732e-01,-2.30776e-01,2.72213e-02,-1.53440e-01,-4.92908e-01,-9.95388e-02,2.38362e-01,-8.80955e-01,2.24410e-01,1.91063e-01,4.45170e-02,2.24237e-02,-7.88274e-02,3.50751e-01,-1.91766e-01,3.74730e-02,-4.95372e-03,-2.52133e-01,-6.32347e-02,-1.28758e-01,1.70574e-01,2.31735e-01,-1.86979e-01,1.26088e-01,-1.12421e-01,1.54402e-01,-1.20429e-02,1.86410e-01,2.38410e-01,7.25736e-02,-1.94279e-01,-8.07320e-01,1.08344e-01,2.45349e-01,1.34574e-01,-1.37730e-01,3.09536e-01,-2.17700e-02,1.49624e-01,9.02198e-02,6.57932e-02,-2.19789e-01,-8.86335e-02,2.29401e-01,2.06218e-01,2.09501e-01,1.72303e-01,-2.94607e-01,-3.00918e-01,3.06562e-01,4.01938e-01,-7.98099e-02,2.90893e-01,2.54237e-01,1.56457e-01,-1.52590e-01,-3.05667e-01,-1.24097e-01,-4.31588e-01,-2.18558e-01,1.65505e-01,-1.34148e-01,6.23978e-02,-1.96164e-02,2.45176e-01,-1.75880e-01,1.27350e-02,-6.61985e-02,-3.59448e-01,1.59111e-01,6.35346e-02,1.00736e-01,7.13105e-02,1.26874e-01,-1.96394e-01,1.19970e-01,1.22289e-01,-1.54352e-01,1.94985e-01,2.84098e-01,2.73886e-01,9.16976e-02,1.90789e-01,1.90641e-01,-3.38847e-01,6.07630e-02,-2.33131e-01,-8.07077e-02,-6.61269e-03,-2.38454e-01,7.61315e-02,8.48343e-02,2.76907e-01,-2.77791e-01,-2.08145e-02,6.81432e-02,-2.58960e-04,-4.35121e-01,-1.52044e-01,-9.63664e-02,-9.02843e-02,-3.53658e-01,-6.40648e-02,-1.43077e-01,2.03578e-01,2.00614e-01,1.47253e-02,-4.70383e-01,1.50333e-01,-7.26218e-02,7.79486e-02,1.08386e-01,-7.21131e-02,1.02203e-01,7.82906e-03,9.86801e-02,2.20115e-01,1.44334e-01,-4.05475e-01,1.42064e-01,-3.91436e-01,-7.25063e-01,4.26618e-02,-1.17080e-01,-2.36450e-03,2.03240e-01,7.04989e-02,1.04504e-01,-7.02855e-02,8.91812e-02,-1.24177e-01,
-2.21533e-01,-1.98253e-01,-1.02588e-01,2.88318e-01,-3.75083e-01,4.73565e-02,5.13833e-02,-3.99750e-01,9.93237e-02,-9.39718e-02,-1.00257e-01,2.01024e-01,-2.63691e-01,1.46577e-01,-5.03411e-01,5.35731e-01,-7.50184e-01,4.14955e-01,3.48910e-01,1.73673e-01,-2.52916e-01,3.27458e-01,-1.58682e-01,2.74121e-01,-1.95801e-02,-4.99209e-01,2.39995e-01,-6.04076e-01,-2.15275e-01,9.49849e-02,-5.37221e-02,-8.06697e-01,2.72469e-01,-1.48207e-01,6.23819e-02,1.41526e-01,-1.68291e-01,-1.72689e-02,-2.22287e-01,-1.83303e-01,-9.35056e-02,-2.60155e-02,7.04204e-03,-3.02400e-01,-1.63876e-01,2.83727e-01,-1.94375e-02,1.69997e-01,1.56727e-01,2.29374e-01,3.30473e-02,1.20267e-01,1.99326e-01,-7.47963e-01,-2.24535e-01,2.19411e-01,1.53875e-01,-2.77380e-02,1.59666e-01,-1.49117e-01,-3.84988e-01,4.28734e-02,-3.05230e-01,-3.71057e-01,-2.18589e-01,6.49172e-02,1.11038e-01,3.38630e-02,-1.03560e-01,-1.22893e-01,-3.01295e-01,-2.50912e-01,-2.39165e-01,1.02120e-01,2.15870e-01,-3.45451e-02,-2.12893e-02,-5.32351e-01,-3.12460e-02,-3.92180e-02,2.30138e-01,1.46919e-01,-3.14056e-01,2.97717e-01,1.28172e-01,-3.04338e-01,-1.03432e-01,-5.38766e-01,3.33672e-01,-4.58806e-01,-1.98370e-01,3.51602e-01,1.25475e-01,-6.11647e-01,1.74900e-01,-4.60523e-01,-4.48323e-01,-7.09179e-01,-3.47121e-01,1.94969e-01,-5.55131e-01,5.86496e-02,-6.10964e-01,-1.45777e-01,-3.98312e-01,-2.18571e-01,-5.98320e-01,4.50577e-02,-6.58718e-02,-2.72606e-02,2.13725e-01,4.61492e-02,-2.28113e-01,1.02309e-01,-4.65622e-02,1.61904e-01,1.53261e-01,-2.99172e-01,-4.95326e-01,-7.71763e-02,-1.34954e-01,7.59239e-02,-3.82884e-01,-4.94458e-01,1.63436e-01,-1.42903e-01,1.11158e-01,-1.82135e-01,4.21106e-02,2.25027e-01,-3.65679e-01,1.75346e-01,-4.28024e-01,2.93216e-02,-7.98427e-02,1.48563e-01,2.98663e-01,-6.88148e-02,-1.30439e-01,-2.86740e-01,1.68749e-01,2.67586e-02,-2.67959e-01,-7.17089e-03,4.33248e-02,1.83484e-01,1.12680e-01,5.92023e-02,-1.49691e-01,-8.25672e-02,6.04375e-02,6.68158e-02,-2.17202e-01,-3.35549e-01,-2.49901e-01,-2.08130e-02,1.50687e-01,1.68338e-01,-1.05623e-01,-8.93422e-02,5.32386e-02,-5.63163e-01,-6.94011e-01,-9.47105e-02,-4.25274e-01,1.26312e-01,1.26460e-01,-3.45826e-01,1.57463e-01,3.91797e-02,7.61319e-02,1.48411e-02,-1.83663e-01,6.02613e-02,-2.36317e-01,-4.36432e-01,-3.42517e-01,-4.93921e-01,1.09982e-01,-4.73279e-02,-7.03350e-02,-6.86928e-01,1.71079e-01,-4.66394e-02,1.26503e-01,1.16469e-01,-8.29318e-01,8.02752e-02,8.28887e-02,-2.27822e-01,-3.00359e-01,5.44119e-02,-1.09043e-01,-1.35538e-02,-1.58120e-01,1.03588e-01,-1.93753e-02,-6.46351e-01,5.73334e-02,-9.70349e-02,
-4.35100e-01,-2.38178e-01,-3.88252e-01,-6.77649e-02,-3.63972e-01,2.40788e-01,-5.20303e-01,1.85668e-01,-2.77699e-01,-5.31272e-01,-6.71393e-02,1.28954e-01,-5.03628e-01,1.15777e-01,-5.30530e-01,-2.93691e-01,4.68054e-02,-1.65702e-01,2.64566e-02,-2.93642e-01,2.62147e-01,-5.15411e-02,-2.01968e-01,-1.48594e-01,-1.26207e-01,1.95060e-01,-3.80920e-01,1.51452e-01,5.02868e-02,4.12874e-02,2.03096e-01,2.26355e-01,-2.34617e-01,2.71736e-01,-3.49971e-01,1.30949e-02,7.45776e-02,2.44317e-01,1.75968e-01,-1.14235e-01,-6.67798e-02,2.69067e-02,1.41864e-01,-2.87365e-01,-2.10633e-01,-3.58282e-01,1.89742e-01,-5.11962e-01,-1.36671e-01,5.49488e-02,-3.51746e-01,2.66172e-02,-4.53747e-01,1.86625e-01,-2.44375e-01,2.75420e-01,-3.16474e-01,-2.28840e-01,-8.14726e-02,-2.04470e-01,-1.68567e-02,-1.31785e-01,-3.66657e-02,-4.21559e-02,7.07324e-02,1.87974e-01,-3.80193e-01,-4.53978e-01,-2.79535e-01,-6.87930e-02,2.86771e-01,-2.05098e-01,3.71040e-01,5.26035e-02,-9.60189e-02,-2.55096e-01,-4.13082e-01,2.23284e-01,-4.65604e-01,-5.25290e-01,-4.77741e-02,-1.50659e-01,-8.28407e-02,2.03471e-01,-2.00363e-01,-5.30926e-01,1.09705e-02,7.00635e-02,1.24166e-01,1.46977e-01,-2.82299e-01,3.66630e-02,-3.60381e-01,-8.58950e-02,-4.08066e-01,-3.27555e-01,-1.01935e-01,8.72522e-02,-1.99151e-01,-1.45166e-01,-1.29233e-01,-1.14077e-01,1.94949e-01,1.24341e-01,-3.87607e-01,3.06460e-01,-1.64320e-01,5.39266e-02,8.60442e-02,-2.40179e-01,9.33178e-03,-1.36425e-02,1.70427e-01,1.83300e-01,-6.64333e-02,-1.83322e-01,-5.33966e-02,-2.32845e-01,-3.09258e-01,-4.80433e-01,-3.29233e-01,-4.20212e-01,-3.57379e-01,-5.16663e-02,-1.11616e-01,5.47440e-02,-1.38662e-01,2.65739e-01,-5.15628e-01,-6.64409e-01,-2.84831e-01,2.87736e-01,2.17115e-01,-2.62872e-01,-3.84490e-01,-2.31768e-01,-5.18365e-02,6.77169e-02,-2.72604e-01,-4.55859e-01,-2.95416e-01,-3.44050e-01,-2.65267e-01,1.83950e-01,-7.18614e-01,-1.86389e-02,-5.05995e-01,-2.05086e-01,-1.46043e-01,7.45120e-02,-2.70394e-01,-2.39262e-01,7.52621e-02,-1.06885e-01,8.88414e-02,-1.68840e-01,2.81248e-01,7.83010e-02,1.08256e-01,-1.54199e-01,-3.57383e-01,7.29269e-02,1.47545e-01,-2.06389e-01,1.53981e-01,-2.44122e-01,-8.11160e-02,1.24289e-01,-1.50158e-02,-2.92676e-01,-2.43393e-01,1.36688e-01,-1.89569e-01,-1.21049e-01,3.78474e-02,-1.53281e-01,8.07542e-02,-1.79647e-01,5.40136e-02,2.05642e-01,-2.72064e-01,-3.71957e-01,-3.36665e-01,2.37682e-01,-4.33790e-01,-2.03425e-01,4.10426e-02,-4.05200e-01,-4.42506e-01,-3.95549e-02,-3.70922e-01,-3.73163e-01,-2.48697e-01,-3.31026e-01,-4.90196e-01,1.13855e-01,9.29364e-02,-1.87852e-01,-6.13926e-01,3.14988e-01,
1.16694e-01,2.51395e-01,1.78388e-01,1.42030e-01,-2.79005e-01,-1.60335e-01,3.12390e-01,2.98657e-03,1.07501e-01,1.22225e-03,-3.32654e-01,2.17910e-02,-9.68675e-02,-2.64419e-01,-1.86742e-01,2.34464e-02,-2.12090e-01,1.44591e-01,3.65066e-01,-5.39390e-01,-4.29478e-01,-1.46689e-01,-4.97926e-02,-3.44958e-02,-1.92075e-01,-1.19235e-01,-8.05149e-02,5.11926e-02,-1.33157e-01,-4.60865e-01,-1.68496e-03,4.21513e-01,-2.29969e-02,-7.71670e-02,7.88550e-02,1.45695e-01,-3.81861e-01,2.29734e-01,9.45540e-02,-1.18474e-01,-2.38314e-01,-1.10081e+00,-1.71685e-01,-2.08332e-01,1.83509e-01,1.43026e-01,-3.90349e-02,1.17011e-01,-9.25868e-02,1.91200e-01,3.13786e-02,-1.47291e-01,1.34344e-01,-2.60246e-01,-2.50852e-02,3.81053e-02,-3.89500e-01,-1.31004e-01,3.03642e-02,2.16574e-01,1.80203e-01,3.90623e-01,7.55759e-02,4.24934e-02,6.17542e-02,-1.33269e-01,1.03769e-01,3.55506e-01,-2.25949e-01,-2.45073e-01,-4.11853e-01,2.26037e-02,-2.14795e-01,-1.63208e-02,3.58786e-01,4.92164e-02,1.78214e-01,-1.69285e-01,6.79566e-02,2.67344e-02,-7.68740e-02,4.11038e-02,-4.32111e-01,1.04010e-01,1.62197e-01,-3.01606e-01,-3.01427e-01,2.62868e-01,2.15380e-01,2.21401e-01,-1.29466e-01,1.15491e-01,-5.32081e-01,-2.96080e-01,-3.46764e-02,7.76027e-02,2.45644e-01,-3.30783e-02,-6.15763e-02,1.71198e-01,-4.41990e-02,-2.78592e-03,-2.27022e-01,-3.07211e-01,1.79594e-01,-7.62265e-02,1.01535e-01,-1.63602e-02,-3.28645e-01,-1.23701e-01,6.90766e-02,1.25578e-01,2.95848e-02,-1.40520e-02,1.25811e-02,1.23624e-01,1.45645e-01,1.09944e-01,2.26871e-01,-5.60085e-01,2.87562e-01,-6.95456e-02,-1.53215e-01,4.18897e-02,-1.63053e-02,-1.75214e-01,-3.54248e-01,1.02087e-01,1.16586e-01,1.24564e-02,-1.05778e-01,4.55200e-02,2.61042e-02,-6.72107e-03,4.14629e-01,-3.67103e-02,1.02832e-01,1.92012e-01,-1.33340e-01,-1.05867e-02,-7.49310e-03,-2.10662e-01,6.98284e-02,2.11931e-01,2.27838e-01,-6.59567e-02,1.66607e-01,-1.45356e-01,-2.01736e-02,9.14107e-02,1.37541e-01,-5.25430e-01,6.36757e-02,-2.98253e-01,-1.48433e-02,4.59289e-04,-5.22937e-02,7.26218e-03,1.69432e-01,2.13149e-01,1.16737e-02,-4.66280e-01,-2.35403e-02,2.82155e-01,-3.72479e-01,5.56353e-03,1.80510e-02,4.74901e-02,1.11348e-01,2.49334e-01,1.23587e-01,-9.76508e-02,-1.38400e-01,8.82112e-02,-2.21491e-01,-1.20673e-01,3.12956e-01,-1.06024e-01,-2.71874e-01,-1.17056e-02,1.86768e-01,-1.76966e-01,-1.25431e-01,8.17898e-02,-6.78765e-02,-3.33792e-01,-1.85453e-01,1.28823e-01,1.24924e-01,1.58582e-01,1.64289e-01,-2.06980e-01,2.96983e-01,-2.79932e-01,-2.60338e-02,3.24589e-01,-1.20709e-01,-6.93791e-02,1.98321e-01,7.25664e-02,
4.07900e-01,1.19930e-01,1.19071e-01,-3.40281e-01,1.01713e-01,9.37648e-02,-7.72538e-02,2.90613e-02,4.39736e-02,-3.61076e-01,-7.47984e-01,-1.41572e-01,1.59103e-01,1.20800e-01,1.98966e-01,2.62420e-01,6.40484e-02,8.20035e-02,-2.85412e-01,1.59700e-01,3.72726e-01,6.59530e-02,2.30785e-01,1.84842e-01,-5.12813e-01,4.30676e-01,1.17410e-02,1.98009e-02,-2.56836e-01,2.79880e-01,-1.01874e-01,1.41331e-01,1.23721e-01,2.50339e-01,-4.69774e-02,1.32475e-01,1.67028e-01,-2.44509e-01,8.44564e-02,1.72599e-01,-1.32100e-01,7.84319e-02,1.90149e-01,-1.26177e-01,1.28575e-01,-4.05487e-01,1.93544e-01,1.41715e-01,1.56061e-01,-3.65092e-01,2.63297e-01,8.98796e-02,-9.75368e-02,2.26095e-01,-3.51553e-01,-1.87847e-01,1.83491e-01,-1.82684e-01,-1.03318e-01,-6.23890e-02,-2.99440e-01,-6.75811e-02,1.66756e-01,-7.48114e-01,-6.81783e-02,-3.72437e-01,-2.06089e-02,1.20374e-01,1.50990e-01,1.35998e-01,2.59503e-01,-8.15369e-02,-3.59200e-01,-2.31252e-01,-5.61291e-01,-2.58342e-01,1.84923e-01,1.92775e-01,-2.16027e-01,1.40075e-01,8.10266e-02,2.89972e-02,-1.08216e-01,-6.82214e-02,-1.34703e-01,3.01595e-01,-8.36184e-03,-8.85085e-02,-3.38738e-01,-2.31105e-03,-5.61563e-02,-5.81358e-01,1.35220e-01,2.14161e-01,4.37855e-02,1.72481e-01,-4.08042e-02,-1.00818e-01,2.07132e-01,-1.41446e-01,3.73568e-01,1.21628e-01,3.40610e-03,1.19356e-01,-3.95160e-01,-1.39705e-01,3.91653e-02,-4.09048e-01,-4.12964e-02,-3.60247e-01,-4.43180e-01,-4.02409e-01,-4.82552e-01,-6.04390e-02,-5.80023e-01,-8.99076e-02,-1.15034e-02,-4.51203e-02,-3.50470e-01,3.79638e-02,-9.12094e-02,-1.31904e-01,2.34817e-01,2.50556e-01,2.15947e-01,5.50756e-02,1.65351e-01,-2.57111e-01,-3.96622e-01,-2.05465e-01,1.49278e-01,-3.18885e-02,-6.35996e-02,9.55840e-02,7.78700e-02,9.80005e-02,-4.07280e-01,1.37836e-01,1.38245e-01,3.38161e-01,5.92025e-02,1.19796e-02,3.64758e-02,-1.99910e-01,-9.77649e-02,-1.11753e-01,1.62686e-01,-4.22989e-01,-7.44062e-02,-3.93758e-01,-7.17600e-01,1.79334e-01,-1.67184e-01,4.34939e-01,-2.09547e-01,1.23283e-01,-3.34762e-01,-4.12383e-01,-2.27389e-01,-4.54322e-01,1.04803e-01,-9.67709e-02,2.98957e-01,2.95097e-02,-1.11353e-01,2.23377e-01,-4.23207e-01,-3.34901e-02,-3.63169e-02,-1.72498e-01,2.94954e-01,1.81842e-01,2.55156e-01,-3.01723e-01,-6.53092e-03,-6.45252e-02,1.56370e-01,1.66063e-01,2.32523e-01,1.12529e-01,2.37708e-02,3.45377e-01,1.04509e-01,1.03610e-01,3.39075e-02,7.58248e-02,-3.58494e-01,2.66897e-01,-1.33464e-01,2.51500e-01,8.05618e-02,1.36394e-01,-1.23667e-01,3.50431e-01,-5.34087e-02,-2.46760e-01,-1.77164e-02,1.89988e-01,8.27240e-03,1.12648e-01,
-1.24407e-02,
-1.48010e-01,
-1.60257e-02,
5.48508e-02,
-2.01497e-02,
6.02536e-02,
-2.43676e-02,
