// Neural Network File Format by Kyle Julian, Stanford 2016
4,15,7,50,
15,50,50,50,7,
0,
-1.0,-1.38,-2.62,-2.07,-2.54,-2.63,-2.19,-3.87,-0.14,-1.66,-0.24,-1.16,-1.08,-2.46,-1.98,
1.0,4.16,2.45,0.49,0.4,1.12,1.71,2.39,7.6,1.63,4.31,2.27,2.15,1.46,1.31,
0,0,0,0,0,0,0,0,0,0,0,0,0,0,0,0,
1,1,1,1,1,1,1,1,1,1,1,1,1,1,1,1,
-3.43194e-01,3.34734e-02,-3.28651e-01,1.73713e-01,-4.48647e-02,8.77444e-02,-6.72120e-02,4.93903e-01,-3.00222e-01,-1.48161e-01,2.46390e-01,3.57690e-01,-1.87406e-02,-1.69128e-01,-1.26332e-02,
-5.25527e-02,-1.71499e-01,-3.65171e-01,-6.76239e-02,-1.16706e-01,1.67364e-01,-1.80086e-01,4.18192e-01,-9.87884e-02,-3.95678e-01,2.46205e-01,-4.86772e-02,-4.27718e-01,1.01231e-01,-2.28324e-01,
-2.17742e-02,-5.82446e-02,-2.36676e-01,-1.41741e-01,-2.80907e-01,-1.97884e-01,-3.87634e-01,-1.94249e-01,1.30912e-01,2.86486e-01,-2.22236e-01,1.20532e-01,-3.15620e-01,1.21551e-01,2.86939e-01,
7.15902e-02,-9.77514e-02,-3.42438e-01,3.05301e-01,4.34690e-01,-1.75694e-01,3.15222e-01,-5.01912e-02,1.12727e-01,-2.96152e-01,-1.31881e-01,2.41173e-01,2.10810e-01,4.19898e-01,-2.61149e-01,
-2.72560e-01,-3.65234e-03,-5.62228e-02,-6.96421e-02,1.87277e-02,4.71656e-01,1.66036e-01,-4.08567e-01,-2.04434e-01,-9.98347e-02,-1.28313e-01,5.06689e-01,3.74949e-02,-3.13908e-01,-3.14273e-01,
-2.01451e-01,4.20925e-02,-2.35274e-01,-2.87434e-01,-1.99631e-01,-2.22370e-01,2.30059e-01,-1.77764e-01,4.24481e-02,-5.49507e-01,-2.94728e-01,4.43231e-02,-3.15442e-01,-3.13925e-01,2.40053e-01,
1.37957e-01,6.66675e-02,1.52303e-02,-5.66564e-01,-1.08502e-01,1.14555e-01,-3.97511e-02,1.67720e-01,-7.68514e-02,3.66937e-01,2.22208e-01,1.29117e-01,2.29099e-01,-2.08815e-01,-6.37432e-02,
-1.49863e-01,-1.31878e-02,3.01756e-01,3.17215e-01,1.77172e-01,-4.07832e-01,6.19581e-01,3.80616e-01,5.46744e-02,3.03882e-01,2.68341e-02,-2.04740e-01,1.97693e-01,-2.00897e-01,-1.32800e-01,
3.99129e-01,3.67832e-01,-2.55983e-02,7.76525e-02,1.84996e-01,-1.53480e-01,3.92318e-01,1.13958e-01,-5.57433e-03,1.68889e-01,3.17294e-02,7.15853e-02,-2.18373e-01,-4.04176e-02,1.49441e-01,
-4.58906e-02,2.21001e-01,3.69242e-01,1.78762e-01,1.91428e-01,-3.05877e-01,-2.78806e-01,1.53849e-01,-4.16499e-02,4.49335e-02,3.04602e-01,-1.86006e-01,-1.57132e-01,-9.44726e-02,1.48994e-01,
3.95900e-02,-4.00122e-01,-2.45054e-01,-2.74125e-01,1.11465e-01,-4.01264e-01,-2.09973e-02,-3.70388e-02,-3.05013e-01,-4.56246e-03,-1.88957e-01,-8.04472e-02,3.47676e-01,-4.06007e-01,2.26311e-01,
2.66743e-02,2.92939e-01,1.84287e-01,3.13984e-01,-4.00101e-02,-5.09937e-01,-3.13863e-01,-3.01462e-01,4.44456e-03,3.23651e-01,-2.61268e-01,-2.52827e-01,-9.94052e-02,-2.02128e-01,-6.94045e-02,
3.64232e-01,-5.55182e-02,3.01574e-01,-7.18925e-04,-5.29162e-02,-1.09220e-01,7.45870e-01,-2.78156e-01,9.29153e-02,1.81943e-01,-2.18789e-01,2.88644e-01,-1.27467e-01,-1.49166e-01,4.82371e-03,
3.15024e-01,-6.63683e-02,3.55303e-01,-1.50860e-01,3.96334e-03,-2.28221e-01,-4.19516e-01,-2.73616e-01,2.29962e-01,-1.67079e-01,-2.01683e-01,4.51657e-01,-4.85298e-01,-3.13822e-02,8.58034e-02,
-4.12132e-01,-5.65510e-01,-3.84223e-01,2.62668e-01,4.27431e-01,1.58030e-02,4.42229e-01,8.90655e-02,-2.66265e-01,1.12436e-01,-1.70290e-01,-2.94039e-01,-1.40529e-01,-2.84446e-01,6.20941e-02,
4.28974e-01,3.22525e-01,-1.33566e-01,-1.55454e-01,-2.56959e-01,6.94235e-02,-1.49741e-01,6.32599e-02,2.26239e-03,-4.97579e-02,1.64580e-01,3.28943e-01,-2.87246e-02,3.21142e-02,2.61371e-01,
-3.77554e-01,3.12688e-01,1.95568e-01,-3.78209e-01,-3.89575e-01,-1.32464e-01,2.79165e-01,4.57929e-01,3.45604e-03,-2.95258e-01,3.39337e-01,-8.07416e-02,1.25567e-01,-3.23785e-01,2.96884e-01,
-3.89009e-01,-1.23847e-01,-8.42745e-02,1.11113e-02,1.41216e-01,4.07301e-01,2.76546e-01,-4.31446e-01,3.97779e-02,2.06632e-01,1.28633e-01,-8.40819e-02,3.21724e-01,6.39473e-02,-2.40851e-01,
5.01947e-01,2.17291e-02,1.38599e-01,4.29518e-01,7.23344e-02,-1.08861e-01,4.57766e-01,2.40141e-01,1.81829e-01,4.28503e-02,1.14016e-01,-1.36311e-01,-2.68507e-02,1.87331e-01,1.36053e-01,
2.63804e-01,2.66187e-01,1.46327e-01,-2.43639e-01,1.83856e-01,-1.33670e-01,-2.99310e-01,4.18256e-01,7.25393e-02,2.50625e-01,-3.34192e-01,7.88413e-02,-5.05722e-02,3.59193e-01,2.85218e-01,
1.22185e-01,2.43022e-01,-2.73385e-01,-8.45303e-02,-2.03959e-01,1.94292e-01,-3.47806e-01,-2.15226e-03,1.02456e-01,2.31204e-01,5.37230e-02,-2.95221e-01,4.73863e-01,-2.13752e-01,-3.25085e-01,
1.52741e-01,-4.07152e-01,-7.87579e-02,-3.38447e-01,-8.64978e-02,7.96566e-02,-3.44640e-02,2.08378e-01,2.07107e-01,-6.31900e-02,3.57021e-01,1.06330e-01,1.04373e-01,-1.70644e-01,3.04398e-01,
5.67900e-01,3.51733e-01,-8.11815e-02,-5.55127e-02,-1.90958e-01,3.07719e-02,4.48459e-02,-1.18609e-01,1.64351e-01,-2.14939e-01,-2.60417e-01,4.58758e-01,-1.09034e-01,-2.98388e-01,-3.52737e-01,
-8.05159e-02,5.08748e-01,6.06121e-02,-2.61861e-01,2.20762e-01,1.81947e-01,-4.97656e-01,-5.94925e-02,1.62316e-02,-9.19908e-02,2.64071e-01,1.36866e-01,-3.54457e-01,2.08254e-01,-3.63188e-01,
6.50448e-02,-4.92653e-01,-3.69995e-01,-5.85895e-02,4.14413e-01,-2.57153e-01,2.92720e-01,-8.85490e-02,-2.10006e-01,-2.09268e-01,4.60074e-02,1.31371e-01,3.29866e-01,1.42254e-02,-4.74968e-01,
1.57183e-01,2.79097e-01,3.62223e-01,5.47223e-02,2.74612e-01,2.87846e-01,-1.44424e-01,-1.14952e-01,2.37193e-01,1.88806e-01,-1.60807e-01,1.42493e-01,2.28457e-01,-5.17517e-01,-2.63776e-02,
3.38154e-01,4.84163e-02,2.82799e-01,3.67915e-01,2.18017e-02,2.77393e-01,-1.90554e-01,3.81903e-01,1.68618e-01,2.00414e-01,-4.37487e-01,-8.49470e-02,-6.44976e-02,2.93665e-03,1.67611e-01,
7.29873e-03,7.51838e-02,1.84780e-01,-1.35729e-01,1.79281e-01,5.41905e-01,1.56766e-01,-3.93555e-01,-5.22457e-02,-4.15404e-01,7.50335e-02,2.26950e-01,4.11374e-02,2.65895e-01,-4.82882e-02,
-1.20230e-02,-4.03856e-03,-1.36684e-01,1.25593e-01,7.16849e-03,-3.65294e-02,8.12599e-02,4.37836e-01,-1.17953e-01,6.79580e-01,1.28874e-01,2.82663e-01,1.91702e-01,4.93059e-01,-1.24827e-01,
4.21786e-01,1.89770e-01,2.23625e-01,-8.07369e-02,1.83516e-01,3.16171e-01,6.16754e-02,2.61251e-01,9.86254e-03,-6.95402e-02,2.18822e-01,-1.06219e-01,1.19870e-02,2.29854e-01,1.91226e-01,
-3.83565e-01,-1.32322e-01,-1.58176e-01,3.58218e-01,4.76593e-01,-3.29806e-01,-4.54354e-02,-2.29693e-01,1.16561e-01,-2.46013e-01,-2.06982e-01,8.17730e-02,-4.27946e-02,4.51667e-01,9.78741e-02,
-4.08728e-01,8.65553e-02,1.81515e-01,2.58316e-01,-3.10577e-01,4.04774e-01,-8.62035e-02,7.03711e-01,-1.35523e-01,-6.38839e-02,9.81291e-02,-6.69636e-01,-8.59200e-02,-3.35714e-02,-3.12674e-03,
-2.06325e-01,-3.85318e-02,-1.22125e-01,-2.58203e-01,-1.02049e-01,2.51208e-01,-3.45245e-01,-3.72509e-01,2.65211e-02,3.78292e-02,-1.49174e-01,-1.70957e-01,-2.90474e-01,-1.86709e-01,1.06188e-01,
2.27976e-01,-4.14566e-01,-1.31970e-02,-2.24946e-01,-5.07217e-01,1.23738e-01,6.69183e-03,-2.97262e-01,1.44225e-02,-6.18680e-02,-3.74859e-03,-3.44060e-01,-1.77278e-01,-1.91658e-01,3.61613e-01,
-2.43096e-01,-9.55025e-02,-1.40315e-01,8.39065e-02,-2.11383e-01,3.59397e-01,-1.80634e-02,-3.97121e-01,1.85445e-01,-1.39332e-01,1.50268e-01,-1.46876e-01,7.83642e-03,5.25715e-01,-1.21601e-01,
2.37853e-01,3.49312e-01,-3.37446e-02,1.64105e-01,2.51431e-01,-1.57609e-01,5.39938e-02,-2.42905e-02,2.55945e-01,-2.68169e-01,-1.40229e-01,3.76095e-01,-1.06062e-01,-3.43248e-01,8.26516e-02,
1.58848e-01,-2.18048e-01,-1.51270e-01,-1.62067e-01,9.87672e-02,4.90368e-02,-1.16709e-02,5.34180e-01,-2.04717e-01,2.11989e-02,-1.89411e-01,3.90394e-01,-1.42993e-01,-3.99027e-01,-4.02042e-01,
2.57765e-01,-1.27489e-02,-3.27222e-01,2.30729e-01,2.54346e-01,-1.23922e-01,2.97399e-01,1.39490e-01,2.79907e-01,-2.59676e-01,-2.20750e-01,-2.68097e-01,2.50485e-01,-3.89220e-01,-9.40685e-02,
2.86545e-01,3.89906e-01,1.18485e-03,3.96486e-01,-9.14371e-02,-2.32931e-01,-4.67668e-01,-4.19567e-02,1.90845e-01,4.93848e-01,-4.45682e-02,-3.13236e-01,2.56895e-02,1.56083e-02,-1.10558e-01,
2.33762e-01,3.71507e-01,-6.32019e-01,-4.20819e-01,-3.43770e-01,-3.79348e-02,-4.53636e-02,-2.59791e-01,-7.91886e-02,3.35469e-01,3.08824e-01,-1.32472e-01,-3.11108e-01,7.17273e-02,-1.93760e-01,
-2.23414e-01,9.40226e-02,-2.02903e-01,2.61468e-01,-5.97026e-02,2.13229e-01,2.25847e-01,-3.12190e-01,2.86934e-02,-1.65432e-01,-2.49693e-01,-3.99393e-01,1.38618e-01,-3.81568e-01,4.59297e-01,
1.72430e-01,2.08545e-01,-6.56532e-02,-9.20929e-02,3.50958e-01,-2.49482e-01,-3.57704e-01,-2.42628e-02,-2.41376e-01,1.71010e-01,-1.06364e-01,7.79745e-02,4.36149e-02,5.04597e-01,3.55099e-01,
-3.81386e-01,-1.14451e-01,1.53376e-01,4.32644e-02,3.95270e-01,-1.03772e-01,-1.42684e-02,3.68762e-01,-2.31849e-01,2.89011e-01,8.79597e-02,1.56827e-01,1.35859e-01,4.31624e-01,3.68633e-01,
-2.57782e-01,-3.23146e-02,-9.24904e-02,2.34569e-01,-3.29942e-01,-2.87121e-01,6.95761e-02,-4.20266e-01,1.57404e-01,2.98854e-01,-9.12996e-02,-2.42171e-01,2.92449e-01,-1.73880e-01,1.69163e-01,
4.61268e-01,-1.24795e-01,-2.48986e-01,-3.07368e-01,-4.07021e-01,7.26191e-03,-3.55285e-01,-1.28059e-01,-3.89512e-02,-5.68806e-01,-2.38829e-01,-1.24736e-02,-1.29283e-01,1.41196e-01,2.17995e-01,
3.10973e-01,5.03452e-01,1.15117e-01,-1.85728e-01,2.14098e-01,1.00252e-01,2.13046e-01,2.00276e-01,-7.91077e-02,1.16457e-01,6.75261e-03,2.73531e-01,-2.92758e-02,-5.99714e-02,-8.53987e-02,
2.14914e-02,-3.80837e-01,2.17890e-01,1.03206e-01,-2.44420e-01,-2.50162e-01,-2.38316e-01,-1.54633e-01,1.63389e-01,-1.24264e-01,1.40746e-01,-4.73314e-01,-1.09023e-01,-1.62178e-01,-2.96057e-01,
2.72143e-01,-2.72379e-01,-4.44565e-01,1.40903e-01,-2.51810e-01,-2.05199e-01,4.06759e-01,-1.68435e-01,-1.31121e-01,2.94074e-01,-8.97125e-02,1.35985e-01,3.04970e-01,-6.91714e-02,5.21441e-01,
-6.69975e-02,-3.64758e-01,6.59773e-03,8.81395e-02,3.12734e-01,1.73502e-02,-9.80538e-02,-2.13012e-02,5.20658e-02,-1.28349e-01,8.45789e-02,-1.60859e-01,-5.56531e-01,3.58530e-01,3.94614e-01,
-4.28648e-01,-1.18838e-02,-3.51035e-04,-3.11105e-01,9.44083e-02,-2.04268e-01,-5.24787e-02,2.10171e-01,-4.58146e-01,-3.95840e-01,2.07748e-01,-1.94948e-01,-2.32795e-01,1.75360e-01,-6.40920e-02,
3.30512e-01,
1.32086e-01,
1.71514e-01,
2.09353e-01,
8.86057e-02,
-5.73885e-02,
-1.80517e-01,
8.12980e-02,
1.36098e-01,
2.91143e-01,
-1.39844e-01,
1.95186e-01,
-3.56995e-02,
-7.88299e-03,
2.09481e-01,
2.84610e-01,
-1.78688e-01,
2.46245e-01,
1.53368e-01,
3.86882e-01,
-8.05839e-02,
4.10882e-02,
1.35160e-01,
1.38534e-01,
-1.89970e-01,
-5.40311e-02,
2.63687e-01,
-1.46577e-01,
1.42058e-01,
3.42236e-01,
1.35560e-01,
2.56457e-01,
-1.42261e-01,
-8.26344e-02,
-1.46192e-01,
8.22716e-02,
7.56312e-02,
7.71214e-03,
3.32776e-02,
-1.77821e-01,
3.39279e-01,
2.99103e-01,
-2.23652e-01,
-2.84578e-01,
1.66467e-01,
-1.28154e-01,
9.41831e-02,
-2.87522e-03,
-1.22874e-01,
3.90354e-01,
1.74739e-01,1.91512e-01,8.49158e-02,7.61091e-02,1.55615e-01,7.92427e-02,1.29934e-01,3.10801e-01,3.09530e-01,1.66758e-01,1.72656e-01,-2.14826e-01,1.27529e-01,4.91548e-02,1.66178e-01,1.06316e-01,2.91228e-01,1.55717e-01,3.07527e-02,1.47308e-01,-5.74784e-02,3.11411e-01,-1.64706e-01,-1.18070e-01,-2.00372e-01,1.08183e-01,1.12474e-01,-1.15542e-01,-1.43192e-01,1.27572e-03,-5.50824e-02,7.70139e-02,-1.29876e-01,-3.39038e-01,1.08980e-01,5.68380e-02,3.23514e-02,2.51774e-01,-3.53719e-01,5.07241e-02,3.58344e-01,7.34065e-02,4.71203e-02,6.07355e-02,-1.06335e-01,-1.23832e-01,-1.58355e-01,2.31894e-01,-9.39117e-02,8.71236e-02,
-1.81135e-01,1.49553e-01,-9.06345e-02,2.17047e-01,3.77927e-01,1.42379e-01,7.34185e-02,-2.34838e-01,-9.97226e-03,-3.46522e-01,-4.16636e-02,-3.28105e-01,2.23794e-01,2.49799e-01,2.55565e-01,2.91697e-02,-1.98295e-01,1.20240e-01,-7.82992e-02,-1.63030e-01,-1.03765e-01,-1.79417e-02,4.55304e-01,-1.72406e-01,4.34380e-01,1.36681e-01,-7.12614e-02,3.03481e-01,-1.89789e-01,1.23731e-01,-9.06919e-02,1.08958e-02,1.07101e-01,1.88147e-01,1.09254e-02,3.72120e-01,2.79132e-02,3.33629e-01,-3.24064e-01,8.63662e-02,8.86145e-02,-8.30588e-01,1.45533e-01,9.92478e-02,-1.76998e-01,2.60128e-01,4.10744e-01,-1.42859e-01,3.69652e-01,-1.08555e-01,
6.10825e-02,1.71798e-01,1.77103e-01,8.68414e-02,-1.07473e-01,4.26396e-02,2.45862e-01,4.28544e-01,2.76833e-01,-6.81842e-02,1.44934e-01,-2.11667e-01,6.62665e-02,2.24500e-04,-4.16670e-01,1.43921e-01,9.50580e-02,-9.79028e-03,3.03237e-01,1.55598e-01,1.84587e-01,2.93573e-01,-4.49294e-02,5.76483e-02,-1.93076e-01,3.79817e-02,2.18591e-01,5.28471e-02,-5.41365e-02,9.49059e-02,8.22381e-02,1.13295e-01,1.53511e-01,-6.79096e-02,1.65109e-01,1.22288e-01,2.53587e-01,5.73311e-02,-1.21560e-01,3.21450e-01,6.48042e-02,1.33948e-01,-3.35980e-01,-2.50173e-01,1.17607e-01,4.19370e-03,-1.88713e-01,-1.78951e-01,1.62757e-01,5.58724e-02,
8.41490e-02,-6.85957e-02,-1.06276e-01,6.45707e-02,-1.68979e-03,-2.37416e-01,-5.73023e-02,1.25227e-01,3.33312e-01,2.26058e-01,-2.39791e-01,1.69033e-01,-2.53757e-02,7.61738e-02,1.44969e-01,1.42703e-01,3.59770e-02,-5.25792e-02,-9.50768e-02,1.51165e-02,1.57140e-01,1.19925e-01,1.80165e-01,5.65462e-02,-1.16471e-01,-8.53205e-02,-3.83930e-02,-2.31660e-01,-2.24790e-01,-7.93183e-02,5.05009e-02,9.90300e-02,-3.20830e-01,1.34504e-01,7.64743e-02,1.02176e-02,2.04824e-01,-4.27448e-02,-7.03260e-02,-3.87083e-02,-2.11381e-02,1.30354e-01,1.00158e-01,9.37777e-02,-4.54114e-02,5.51059e-02,-1.88297e-03,1.08818e-01,-3.74955e-01,1.02302e-01,
-8.06042e-02,-2.43569e-01,4.84845e-01,-2.11794e-01,4.33238e-01,1.85361e-02,-2.57964e-02,-5.37292e-02,-1.17043e-01,-6.80581e-02,-2.42997e-01,1.20811e-01,-1.39349e-02,-6.41618e-02,1.76390e-01,-3.95635e-03,1.72579e-01,2.32832e-01,8.96380e-02,-8.75990e-02,-3.71249e-01,9.00652e-02,-9.44878e-02,-2.76120e-01,-8.66821e-02,-6.94315e-02,9.45862e-02,5.52520e-01,1.76923e-01,3.28500e-01,-2.27213e-01,2.53082e-01,1.77177e-01,4.57297e-01,-1.64671e-02,4.67635e-02,1.00513e-01,5.85776e-02,1.26307e-02,-2.09004e-01,2.28798e-01,-2.39797e-01,2.96639e-02,-2.24715e-01,3.99643e-01,-9.03325e-02,2.57260e-02,6.58315e-03,-4.37266e-02,-2.05261e-01,
-2.84802e-01,-7.86121e-02,1.96938e-01,2.99847e-01,-1.95660e-02,1.97136e-02,1.31247e-01,8.69293e-02,3.03985e-02,-1.62461e-01,3.00597e-01,-8.66194e-02,4.34930e-01,2.10769e-01,-1.84756e-01,-2.38223e-03,7.05683e-02,2.84927e-01,1.37528e-01,-3.28606e-01,2.19797e-01,1.37235e-01,2.17909e-01,7.65309e-02,2.77863e-01,-3.69338e-02,-2.01516e-01,2.59362e-01,-2.93476e-01,-1.88155e-01,1.82769e-01,-5.11950e-01,2.41287e-01,-1.86326e-01,2.80086e-01,7.11982e-02,2.72158e-01,2.95944e-01,-1.28491e-01,2.73844e-02,1.10782e-01,5.50517e-02,-1.99958e-01,3.67106e-02,8.95576e-02,-1.73491e-02,2.84809e-02,6.58319e-02,2.46119e-01,-5.07431e-02,
-9.46057e-02,-1.66319e-01,1.63980e-01,5.92698e-03,3.10158e-01,2.91963e-01,1.20999e-01,-7.33322e-02,1.24936e-01,3.86851e-02,9.29522e-02,-3.82516e-02,7.66901e-02,-4.52582e-01,2.43032e-01,-1.68410e-01,-9.98258e-02,-2.06692e-01,1.15825e-01,1.54431e-01,1.56026e-01,-1.37389e-01,-4.47942e-02,6.84020e-02,4.68053e-02,-4.36903e-01,-1.36330e-01,1.41923e-01,2.04847e-01,-6.56673e-03,1.77939e-01,-3.96716e-01,1.37057e-01,1.20517e-01,-1.46810e-01,-9.08550e-02,-3.20702e-01,1.68672e-01,1.67604e-01,2.76715e-01,6.27519e-02,3.70370e-02,3.53852e-01,-4.09990e-02,-2.22866e-01,-1.76685e-02,9.45529e-02,-1.87966e-01,2.45308e-01,2.14316e-01,
-2.69543e-02,-7.96149e-03,3.42963e-01,-1.58244e-01,-1.35274e-01,-1.40084e-01,2.25455e-01,8.04017e-02,1.10566e-01,6.61857e-02,-1.17957e-01,-1.04436e-01,-2.48667e-02,-8.62198e-02,-2.40614e-01,3.15870e-02,5.39708e-01,-1.44998e-01,2.07237e-01,2.73889e-01,1.39885e-02,-1.31433e-02,-2.89135e-01,-7.19130e-02,-2.16787e-01,-1.50888e-02,2.37488e-01,-8.18588e-02,1.32921e-01,6.60349e-02,1.44324e-01,-1.95125e-01,-2.48999e-03,-1.17563e-01,-2.93328e-01,-2.58687e-01,-4.74929e-01,-2.64576e-01,3.05379e-01,-1.83496e-01,-2.37731e-01,4.43600e-02,3.82475e-01,-4.45872e-02,-2.42091e-01,-2.21816e-01,1.50261e-01,6.43818e-02,2.53493e-01,1.73493e-01,
4.38776e-02,2.67885e-02,1.69407e-01,-1.11789e-01,2.39104e-01,2.47102e-01,5.47735e-01,7.38794e-02,-6.33761e-02,2.00310e-02,1.31973e-01,-9.63663e-02,1.39515e-01,1.99042e-01,-3.84729e-02,1.27259e-01,4.14591e-01,2.10556e-01,3.46026e-02,-1.90852e-02,3.43510e-02,6.61621e-02,3.07635e-02,7.44656e-02,2.71611e-01,-9.97672e-02,-6.34312e-02,-8.25619e-02,2.42270e-01,-5.30264e-02,-2.01339e-01,-1.79389e-01,2.81906e-01,-2.19318e-01,-2.18235e-02,-1.33057e-01,2.80689e-01,1.40995e-01,-1.52898e-02,9.88989e-02,-9.25417e-02,3.48249e-03,1.75083e-02,-5.80280e-02,9.78305e-02,-1.43092e-01,7.11799e-02,5.26881e-03,2.97286e-01,2.25871e-01,
2.20972e-01,6.00225e-02,9.64491e-02,-8.25347e-02,4.07290e-01,-3.25312e-03,1.51074e-01,6.08354e-02,4.90809e-02,-1.29125e-01,5.20024e-02,-1.42288e-01,4.30311e-02,-4.38052e-02,2.77177e-01,1.02994e-01,2.76721e-01,2.48439e-01,1.18156e-01,-5.23942e-02,-1.50693e-01,2.05479e-01,2.87765e-02,-1.54106e-01,-5.98616e-02,1.22835e-01,1.45070e-01,2.75188e-01,1.74746e-01,7.20435e-02,9.74821e-02,-9.92110e-02,7.78836e-02,5.58826e-02,3.93491e-02,-3.60161e-02,2.04456e-01,4.49548e-02,-1.11445e-01,2.32754e-01,2.37103e-01,6.92660e-02,4.15724e-01,-5.25161e-02,-9.47501e-02,-3.35474e-02,1.05691e-01,5.98706e-02,1.81525e-01,5.60856e-02,
-6.11582e-02,1.62663e-01,2.89973e-02,5.61931e-02,7.65669e-02,1.06128e-01,-1.93074e-01,6.21611e-02,1.46488e-01,1.51196e-01,-1.43185e-02,2.10182e-01,-6.06309e-02,-1.96417e-01,2.42891e-01,-1.11726e-01,-1.63797e-01,-2.47733e-01,9.41060e-02,2.26650e-01,5.51465e-02,4.58587e-02,2.55887e-01,-2.37863e-03,-2.58759e-01,2.40676e-01,-1.15000e-01,-9.99282e-02,1.58697e-01,2.15175e-01,9.86891e-02,-1.94126e-01,-2.68536e-01,3.06846e-01,-9.84472e-03,2.26450e-01,5.39679e-02,1.71952e-02,1.06447e-01,2.40980e-02,-1.09188e-01,-2.63115e-02,2.69819e-01,2.74035e-01,-4.87826e-02,1.80616e-01,1.06680e-01,7.81878e-02,-6.74020e-02,2.85325e-02,
-1.68331e-01,-1.14901e-01,5.24753e-02,3.20125e-01,-2.91272e-01,-3.13374e-01,-3.80563e-01,3.22999e-01,5.05590e-02,-3.30350e-02,1.45270e-01,-4.14364e-03,2.72615e-01,-1.94907e-03,6.87923e-03,7.02440e-02,-6.98427e-01,2.12646e-01,3.09181e-01,-9.65261e-02,2.02413e-02,-5.56028e-02,-1.10680e-01,7.42454e-02,-3.47620e-02,1.15869e-01,1.26144e-01,4.48622e-02,-6.67854e-02,2.16114e-01,3.20304e-01,-1.05292e-01,-2.32117e-01,8.86872e-03,1.61305e-01,8.86718e-02,8.59762e-02,6.32814e-02,-1.19990e-01,-1.40979e-01,2.84747e-02,1.74846e-01,-4.89664e-02,2.14049e-01,7.28817e-02,1.32439e-01,-4.22273e-01,2.11096e-01,-2.45279e-01,-3.54082e-01,
-8.61217e-03,2.67972e-01,-9.62162e-02,1.70750e-01,-1.88993e-01,1.31976e-01,-1.74512e-01,3.02057e-02,1.05755e-01,6.01331e-02,-1.15381e-01,2.72835e-01,-1.78305e-01,-8.29600e-02,-2.74521e-02,1.21625e-01,-3.41850e-01,-3.18134e-01,7.05974e-02,2.22287e-01,1.70244e-01,-5.18849e-03,1.83905e-01,7.55453e-02,-4.43916e-01,3.12518e-01,-5.55600e-02,6.09584e-02,3.31114e-02,3.99075e-02,1.24903e-01,4.94570e-02,-3.89688e-02,6.02429e-02,-8.44031e-02,2.07423e-01,-3.67983e-02,-1.03365e-02,1.81286e-01,7.73522e-02,-1.80738e-01,8.49383e-02,1.07679e-01,-2.00878e-01,2.66016e-01,1.21585e-01,-1.26879e-01,2.77539e-02,-2.11159e-01,-1.95570e-02,
3.48844e-02,-1.25969e-01,-4.78942e-02,1.50691e-01,-4.59242e-02,1.44466e-01,-1.13019e-01,-6.68246e-02,1.59556e-01,-2.21308e-03,-5.02945e-02,1.12860e-01,-1.48804e-01,-3.73948e-01,1.41567e-01,7.59532e-02,-1.40026e-01,-6.16409e-02,1.99589e-01,2.46188e-01,3.45799e-02,-2.91130e-02,1.63893e-01,1.10987e-01,-3.15188e-02,1.79729e-01,1.28221e-01,1.22852e-01,2.74529e-01,3.34142e-01,2.53034e-01,-1.72397e-01,-1.26472e-01,3.62554e-01,1.61395e-02,-1.23570e-01,-1.00144e-02,-1.74202e-01,1.24962e-01,1.13319e-01,-2.28974e-01,1.75681e-01,1.49253e-01,1.77802e-01,-4.08834e-02,4.48786e-01,-1.40451e-02,1.93461e-01,4.99636e-02,8.66039e-02,
-1.07328e-01,1.30933e-01,-1.28867e-01,1.06564e-01,-1.15501e-01,-1.09291e-01,-6.02985e-03,-1.42618e-02,2.08713e-01,2.95227e-01,1.62987e-01,1.24179e-01,-6.93541e-03,1.10134e-01,1.35894e-01,2.93410e-01,-7.88871e-02,-1.84543e-01,8.69939e-02,2.47181e-01,6.18297e-02,4.99408e-02,2.33259e-01,2.40540e-01,2.75889e-01,1.73351e-01,-2.21200e-01,-7.15622e-02,1.93135e-02,2.28526e-01,2.58878e-01,-1.75867e-01,7.14303e-02,1.75746e-01,-4.31804e-02,3.07374e-01,-5.67282e-02,1.06373e-02,9.20988e-02,-4.35129e-02,2.17189e-02,-4.11492e-02,5.95039e-02,3.73141e-01,-5.80143e-02,5.35700e-02,2.51170e-03,3.56078e-01,3.19193e-01,-8.79695e-03,
-1.55315e-02,-1.65270e-01,2.40776e-01,2.40936e-04,6.71812e-02,1.10703e-02,1.17059e-01,-2.84096e-02,-1.35103e-01,-6.76642e-02,1.66199e-03,-2.93896e-02,9.82891e-02,2.82207e-01,1.16467e-01,2.01890e-01,-1.19440e-02,-2.16617e-02,-2.31524e-01,2.07978e-01,-7.90226e-02,-1.21164e-01,5.28218e-02,1.88587e-01,3.44823e-01,9.44793e-02,-1.05629e-01,1.50039e-01,1.71612e-01,-1.79526e-01,-1.87574e-01,1.61482e-01,3.47701e-01,2.12585e-01,-1.26095e-02,-1.18826e-01,1.02352e-01,1.15719e-01,2.17448e-01,-1.12348e-01,-3.97249e-02,-4.35790e-02,-2.36934e-01,-5.17492e-02,2.27199e-01,-1.19359e-01,1.61239e-01,1.44288e-01,2.17820e-01,-1.57557e-01,
2.29317e-01,2.37270e-02,-1.59426e-02,8.99815e-02,-9.63459e-02,-1.68804e-01,-4.80625e-02,2.04889e-01,1.42287e-01,-8.18373e-02,7.36574e-02,1.12748e-01,4.18718e-01,1.46558e-01,-2.33249e-01,1.62739e-01,-3.11707e-01,3.39955e-01,2.45901e-01,6.95945e-02,3.84729e-01,-1.89240e-01,1.56442e-01,-1.62866e-01,1.92515e-02,1.47275e-03,1.51096e-02,-2.65916e-02,-3.47001e-01,4.27662e-02,4.38162e-01,-2.37623e-02,-3.50547e-01,8.26215e-02,1.99618e-01,1.04415e-01,-3.71444e-02,1.49218e-01,5.09792e-02,4.30354e-01,-1.36948e-01,-1.20954e-01,1.76048e-01,2.56926e-01,1.18640e-01,-2.51536e-03,-3.20992e-02,4.35108e-02,4.56300e-01,-3.33864e-01,
-1.31652e-01,-2.26806e-01,3.60268e-01,1.88244e-02,1.44789e-01,9.40917e-03,1.34613e-01,7.45971e-02,-8.99035e-02,-8.35573e-02,2.53317e-03,1.55209e-01,-1.16736e-01,1.12085e-02,9.39099e-02,5.77823e-02,5.38809e-02,-2.58057e-01,1.04750e-02,-1.86360e-02,2.50162e-01,1.24780e-01,-3.65272e-01,-1.09756e-01,1.88937e-02,-1.20048e-01,2.47071e-02,-8.54810e-02,-4.01011e-01,-3.95607e-01,6.80744e-02,-3.00159e-01,2.41617e-01,7.20532e-02,1.62036e-01,-2.50836e-01,1.43459e-01,-1.22705e-01,1.89413e-01,1.20286e-01,-4.80231e-02,4.34664e-01,-1.49875e-01,-2.27251e-01,2.88092e-01,-1.49272e-01,9.14359e-02,-4.21096e-01,1.94934e-01,9.29097e-02,
4.09704e-02,-2.51016e-01,1.21963e-01,-7.89039e-02,3.23195e-01,2.58743e-01,-1.76924e-01,1.46277e-01,1.55381e-01,3.30076e-01,1.97800e-01,5.24378e-02,-5.53281e-02,-1.78029e-01,4.87994e-01,1.51954e-01,4.02902e-01,5.29468e-02,6.27688e-02,6.65822e-02,-4.45613e-01,1.95229e-01,-3.83400e-02,1.37435e-01,9.83196e-02,-6.33905e-02,1.90237e-01,1.48006e-01,4.92356e-02,3.71317e-02,-4.70294e-02,1.26244e-01,-1.09737e-01,-8.61766e-02,1.32434e-01,-4.49883e-03,2.48242e-01,5.23118e-02,-1.18647e-01,-7.92425e-02,3.09493e-01,4.10837e-02,5.13315e-02,8.55097e-02,1.18864e-01,-1.19292e-01,4.30237e-02,2.16220e-01,-2.56111e-01,2.05542e-01,
3.01062e-01,1.09714e-01,1.25956e-01,1.16214e-01,4.76073e-01,-2.12849e-01,-1.12895e-01,-5.07363e-02,-1.75108e-01,5.18890e-02,-1.85305e-01,1.45150e-01,-1.19279e-02,-6.10786e-02,2.73711e-01,9.07267e-02,-2.05396e-01,2.43863e-01,-6.70465e-02,2.24486e-02,-2.91055e-01,2.28654e-03,-2.48353e-01,-4.47895e-03,1.51273e-01,1.78894e-01,-7.68910e-02,1.61641e-01,1.84313e-01,-7.22731e-04,-2.49912e-01,2.59229e-01,3.28034e-01,-8.94646e-02,6.58012e-02,1.53263e-01,3.26899e-01,2.78005e-01,4.52672e-02,-2.72233e-01,3.09984e-01,-1.87621e-01,9.92317e-02,6.81978e-02,2.07152e-01,-6.45501e-01,-6.68088e-02,3.62258e-01,-5.29554e-01,1.07092e-01,
-1.45411e-01,9.65464e-02,-4.30215e-02,-7.84106e-02,2.38374e-01,1.48625e-01,3.10106e-01,1.40024e-01,1.82896e-02,1.17429e-02,-6.83567e-02,-2.26960e-01,4.67503e-02,2.18313e-01,3.11542e-01,7.45196e-02,3.72315e-01,-2.73561e-02,8.09376e-02,1.20143e-01,-1.98704e-01,-8.74775e-02,5.45093e-02,-1.46605e-01,-3.09849e-02,4.20025e-02,2.19947e-01,1.50295e-01,1.01164e-01,1.82148e-02,-2.25515e-01,-7.14638e-02,1.38588e-01,-2.08027e-01,-2.38264e-01,1.71181e-02,-2.75275e-02,1.33532e-01,-3.98980e-02,4.35922e-02,4.56168e-01,-1.46389e-01,-6.42329e-02,5.01081e-02,-2.85962e-01,-2.37999e-01,2.97731e-01,-2.31175e-02,1.65418e-01,1.79474e-01,
1.17598e-01,-5.38781e-02,2.21420e-01,1.31645e-01,2.89250e-01,-8.54695e-02,1.32127e-02,2.93247e-01,-1.06521e-02,-1.45248e-01,6.29149e-02,-5.42031e-02,2.27426e-01,1.10616e-01,-2.48059e-02,-1.02529e-01,3.50783e-01,3.93063e-01,9.21986e-03,-2.55082e-01,-3.18805e-01,2.13850e-01,-1.62086e-01,8.99811e-02,1.01171e-01,1.23434e-01,-9.66416e-02,2.26856e-01,2.17383e-01,-2.85243e-02,-5.56088e-02,3.03825e-01,9.04229e-02,-3.49955e-01,1.36288e-01,2.38610e-02,3.99059e-01,3.46054e-01,-1.45442e-01,-9.95053e-02,2.81303e-01,-6.52074e-02,1.41111e-03,-1.88838e-01,8.95905e-02,-2.53168e-01,-1.39444e-01,6.26260e-02,-2.60939e-01,1.13958e-01,
-8.49325e-02,-2.12988e-02,-3.85218e-02,2.65345e-01,-3.53472e-02,9.05260e-03,2.72224e-01,-5.05504e-02,-2.40271e-01,-1.86643e-01,2.75672e-01,-1.57718e-01,1.55823e-01,2.14715e-01,2.50333e-01,3.50878e-02,4.70876e-04,6.08127e-03,3.93039e-02,-2.42665e-01,-5.76086e-02,-1.20054e-02,-1.00403e-01,-1.00068e-01,3.73050e-01,-3.32124e-01,-4.91473e-01,1.62627e-01,1.25788e-01,3.49171e-02,8.64123e-02,7.43034e-02,2.44337e-01,1.32947e-01,2.01484e-01,-1.58655e-01,2.20750e-01,1.31615e-01,-1.60138e-01,-1.33563e-01,-6.64917e-02,-1.50370e-01,5.44726e-02,-9.75837e-02,1.91311e-01,-1.13275e-01,2.74971e-01,2.54304e-01,4.80077e-02,-5.90517e-02,
7.23954e-02,-1.97677e-01,3.47380e-01,5.78184e-02,-1.48874e-01,1.48529e-01,7.36610e-03,-4.41781e-02,1.85794e-01,2.38799e-01,2.68124e-02,3.92525e-02,-1.61529e-01,4.19432e-02,1.20415e-01,1.82095e-01,3.94083e-01,-5.90128e-02,6.06864e-02,1.47298e-01,-1.50614e-01,2.56007e-01,-1.20164e-01,7.71163e-02,3.97507e-01,-1.07580e-01,-1.79692e-01,-1.35723e-01,3.72347e-01,3.18524e-02,-1.29614e-01,-2.01382e-01,3.52408e-03,2.74914e-01,2.34760e-01,-9.96424e-02,1.59442e-01,1.71087e-01,3.81332e-02,-2.10228e-01,1.07237e-01,7.31985e-02,4.28962e-02,-8.37680e-03,2.82834e-01,-1.63659e-01,-1.90039e-01,2.73023e-01,-8.56294e-02,-1.58998e-02,
-3.37432e-02,-2.85457e-01,3.17354e-01,-3.44957e-01,3.32501e-01,2.42080e-01,3.11668e-01,6.50175e-02,-9.18866e-02,5.60936e-02,2.40105e-01,1.72793e-01,-1.13965e-01,3.82604e-01,2.35674e-01,4.51247e-02,2.34494e-01,1.72142e-03,-3.47557e-01,9.31096e-02,1.10465e-01,4.83944e-02,6.66049e-02,2.45944e-01,1.44457e-01,7.15132e-02,2.67331e-02,-7.69007e-02,8.83464e-02,-1.10229e-01,-1.00542e-01,-1.87457e-01,2.71168e-01,2.16951e-01,1.31189e-01,-1.22725e-01,2.50046e-01,-9.27701e-02,1.14501e-01,-3.10681e-01,-9.99397e-02,-7.36095e-02,-5.61264e-02,5.55142e-02,3.24004e-02,-9.46490e-02,2.00242e-01,1.50700e-01,7.60734e-02,-6.66672e-02,
4.22916e-02,1.66227e-01,-1.53363e-01,4.12671e-02,1.77129e-01,1.88674e-01,5.75818e-03,-1.77461e-01,1.93916e-02,2.36160e-01,-9.93517e-02,2.48770e-01,-1.46145e-02,-1.37424e-01,2.90581e-01,-3.38557e-02,-1.42997e-01,-2.20479e-01,-1.84230e-01,2.79129e-01,4.34441e-02,-1.06285e-01,2.74120e-01,4.57378e-02,9.43530e-02,1.55340e-01,-6.71619e-02,-8.22242e-02,1.49119e-01,1.87624e-02,1.50061e-01,-2.86714e-01,5.39074e-02,6.33770e-02,-2.49711e-02,1.74920e-01,-1.06913e-01,7.89682e-02,3.40767e-02,-8.83282e-02,1.05938e-01,-4.79767e-02,3.01372e-01,3.55315e-01,-2.27748e-01,-2.04712e-03,1.02945e-01,1.86702e-01,3.13461e-01,9.89672e-02,
-7.35672e-02,-2.47852e-02,9.15249e-02,-2.10699e-02,4.99329e-03,2.33346e-01,2.13071e-01,1.19910e-02,-6.60275e-02,6.35079e-02,2.50019e-01,1.13247e-01,-1.93484e-01,-1.47464e-02,2.19289e-01,3.18693e-02,4.04378e-01,-1.08915e-01,-7.90618e-03,2.25543e-01,7.82628e-02,2.01085e-01,1.42574e-01,2.52310e-01,2.92945e-01,1.09469e-02,-2.08819e-02,-1.49271e-01,1.19021e-01,8.61579e-03,1.31286e-01,-3.17585e-01,8.83337e-02,3.19318e-01,1.23486e-01,1.17788e-01,3.19250e-01,-8.11455e-02,1.43921e-01,3.05355e-02,3.72770e-02,1.28784e-01,3.55187e-01,2.41751e-01,-1.77487e-02,-3.77540e-02,1.43541e-01,2.63520e-01,2.08378e-01,2.33168e-01,
-1.00590e-01,-1.60508e-01,2.16905e-01,-5.76353e-02,2.32576e-01,2.54410e-01,4.64878e-01,-5.40784e-02,4.89269e-02,-9.83138e-02,4.08717e-01,6.21456e-04,-1.90129e-01,-1.21115e-01,-6.66368e-02,1.84362e-02,4.64267e-01,5.03443e-02,1.27986e-01,-4.55891e-02,3.82960e-02,2.11127e-01,2.94005e-02,1.89572e-02,1.55691e-01,-1.65872e-01,9.37150e-02,-1.18522e-02,3.42890e-01,4.99527e-03,-6.71606e-02,-1.85454e-01,-2.67820e-02,-7.30494e-02,1.26130e-01,9.11989e-03,2.03251e-01,4.85517e-02,-2.26908e-01,3.18487e-01,-1.84516e-02,2.13781e-01,7.07064e-02,-1.20236e-01,-1.81568e-01,-8.27174e-02,-2.98146e-02,6.29440e-02,3.60923e-01,3.38119e-01,
9.27880e-02,2.45693e-01,-1.47130e-01,-4.91378e-02,-2.04239e-02,5.01786e-02,-9.16470e-02,-8.29721e-02,1.79836e-01,-3.01835e-03,-1.32533e-01,6.42484e-03,9.22408e-02,-6.42201e-02,2.00892e-01,9.29987e-02,-2.67740e-01,-1.48162e-01,-1.08357e-01,1.61939e-01,2.23954e-01,-1.33216e-01,2.45815e-01,-4.44596e-02,-2.11721e-01,1.82530e-01,4.19826e-02,6.47969e-03,-1.87157e-01,2.28871e-01,2.53065e-01,9.82190e-03,-2.31864e-01,3.36653e-01,-2.61583e-01,2.85853e-01,-1.14151e-01,7.71503e-02,2.21747e-01,1.75361e-01,-5.62642e-02,-9.32861e-02,3.20009e-01,-1.81804e-02,-7.05161e-02,2.62769e-01,2.92259e-01,-1.44106e-01,2.12015e-01,1.36804e-01,
1.34667e-01,7.18957e-02,1.98124e-01,1.23304e-02,1.57732e-01,-1.61715e-01,-4.77928e-02,2.54034e-01,6.98283e-02,5.22270e-02,6.34826e-02,-9.63733e-03,1.05161e-01,1.05325e-01,-1.45601e-01,1.15576e-01,-3.87568e-02,2.23807e-01,4.79667e-02,-5.24092e-02,-1.26496e-01,6.85189e-02,-4.36197e-02,9.13008e-02,6.84344e-02,1.45578e-02,4.34477e-02,1.58452e-01,6.72245e-02,1.16232e-01,-1.80061e-01,2.50606e-01,1.65597e-01,-8.59942e-02,4.38066e-03,-9.09649e-02,7.70825e-02,5.00955e-02,-1.19524e-01,-1.77623e-01,2.70376e-01,1.25112e-01,-2.39806e-01,-1.71600e-01,4.84179e-01,-2.46249e-01,-1.01412e-01,5.38910e-02,-3.04932e-01,-5.69260e-02,
-4.99932e-02,1.35899e-01,-1.48442e-01,1.62673e-01,-7.47569e-02,2.03352e-01,-2.76313e-01,2.01256e-02,2.89068e-01,1.44703e-01,-4.77436e-03,1.75118e-01,-1.57322e-01,-2.61280e-01,1.21383e-01,6.11646e-02,-2.08994e-01,-3.48908e-01,1.41084e-01,1.30250e-01,6.77450e-02,-1.25165e-01,3.05025e-02,-2.08073e-01,-3.06689e-01,2.67620e-01,-1.77372e-03,2.00568e-01,1.51856e-02,1.51974e-01,-1.60991e-02,-3.58377e-02,-2.24857e-01,3.10348e-01,-9.51311e-02,2.18337e-01,-3.33236e-01,-1.10393e-01,2.49464e-01,-7.39248e-02,-1.01507e-01,1.70600e-01,1.22855e-01,-3.90202e-02,1.35733e-01,2.55384e-01,1.81865e-01,4.11002e-02,-2.15705e-01,4.89025e-02,
1.52470e-01,-1.72843e-01,1.56085e-01,-7.57385e-02,1.00395e-02,-7.16619e-02,-6.14624e-02,-3.84788e-01,-9.14475e-02,1.20337e-01,7.53765e-02,3.46910e-01,1.79553e-01,-3.61298e-02,-1.21683e-01,2.51696e-01,1.51629e-01,-3.77632e-02,-2.71086e-01,5.55301e-02,1.40822e-01,-6.62652e-02,2.01736e-01,-1.90426e-01,-4.89989e-02,1.74750e-01,-7.83493e-02,1.77649e-01,-5.00954e-02,1.86210e-01,-1.47181e-01,2.03506e-01,-4.97368e-02,2.61275e-01,4.29056e-02,2.79853e-01,4.57900e-03,-1.85034e-01,1.99323e-01,-1.40503e-01,1.72352e-02,-1.99080e-02,-4.19042e-01,3.55452e-01,9.41305e-02,6.54197e-02,1.86196e-01,3.45369e-01,-4.11599e-01,-3.10444e-01,
-8.74748e-02,1.27222e-01,-1.59482e-01,1.45925e-01,-1.23221e-01,-5.77151e-02,-1.63257e-01,-2.92007e-01,-1.13324e-02,3.32449e-01,-8.47383e-02,3.47556e-01,-7.25371e-02,5.33178e-02,3.07803e-01,7.19181e-02,-9.99591e-02,-1.27185e-01,-8.44276e-02,1.89373e-01,4.95716e-02,2.20630e-02,1.02548e-01,3.44384e-01,5.92316e-02,1.80594e-01,-1.61056e-01,-3.28253e-03,3.04924e-02,2.42544e-01,1.64795e-01,1.59151e-01,1.41886e-03,2.69323e-01,4.22885e-02,1.95776e-01,1.28037e-01,-6.34700e-02,2.57422e-01,-2.24284e-01,-1.75180e-02,-1.29576e-02,-6.05260e-03,2.42948e-01,1.43456e-01,3.07775e-02,6.07100e-02,3.37296e-01,-3.67917e-02,2.07243e-01,
2.56909e-01,2.39998e-01,-2.11616e-02,-1.97317e-01,-3.39796e-02,-5.00342e-02,1.98762e-01,1.42411e-01,8.75850e-02,2.63834e-01,-7.05842e-02,-3.33219e-02,2.22135e-01,3.46173e-01,-1.31579e-01,1.41433e-01,3.55757e-01,2.10965e-01,-1.32054e-01,-1.66140e-02,6.55578e-02,1.59894e-01,1.54334e-01,2.97750e-02,1.71881e-01,-2.39265e-01,1.53621e-01,-5.24893e-01,-1.46430e-01,-1.36760e-01,-1.16079e-01,8.30447e-02,1.35529e-01,-1.92962e-01,7.16812e-02,-5.69778e-02,2.47471e-01,-1.37113e-02,-2.80891e-01,2.70815e-01,-1.39906e-01,3.07551e-01,-2.17351e-02,-3.24886e-01,8.91045e-02,-9.08377e-02,-7.18837e-02,-2.71900e-01,-5.67963e-02,2.51832e-01,
-8.48503e-02,7.62267e-02,-2.79706e-03,9.23702e-02,-6.55125e-02,1.49017e-01,6.69850e-02,1.69029e-01,9.10291e-02,-9.78061e-02,2.26113e-01,-1.20428e-01,3.36340e-01,2.69130e-01,2.15872e-01,-1.16916e-01,2.93588e-01,2.59927e-01,1.19179e-01,-2.56539e-01,-5.09604e-02,1.26962e-01,2.13013e-02,-9.74597e-02,2.22770e-01,-2.91206e-01,-1.45826e-01,1.68524e-01,2.05083e-01,-5.23817e-02,-5.81804e-02,6.62453e-02,1.87725e-01,-7.98598e-02,9.64591e-02,-1.69045e-01,2.66341e-01,2.70665e-01,-1.34971e-01,-5.73922e-02,2.07511e-01,-3.02773e-01,-1.10142e-01,-1.18973e-02,1.34455e-01,-3.68360e-01,2.08621e-02,7.32504e-02,2.26660e-02,8.15158e-02,
-7.90147e-02,8.59993e-02,-1.02477e-01,1.96842e-01,-2.33008e-01,-4.39366e-02,1.26893e-01,1.17177e-01,9.65962e-02,1.55492e-01,1.52457e-01,2.46921e-01,-1.00024e-01,2.48749e-01,-8.81948e-02,3.92791e-01,2.20420e-01,1.30192e-01,-4.06153e-02,9.87756e-02,2.58566e-01,1.15093e-01,2.34418e-01,4.07413e-01,1.30449e-01,-6.47820e-02,7.03309e-02,-1.57472e-01,8.54385e-02,1.59042e-01,-4.40787e-03,4.85253e-02,2.49871e-01,1.95426e-01,2.54218e-01,2.08091e-01,1.38047e-01,3.18644e-01,3.27447e-01,-9.64841e-02,1.07135e-02,1.77083e-02,-1.37576e-01,3.66428e-02,2.56283e-01,3.38836e-02,9.16173e-02,1.63239e-01,1.45697e-02,-5.30808e-02,
6.10886e-02,4.44620e-03,-2.15076e-02,1.04103e-01,7.56026e-02,2.11735e-01,-2.66368e-01,8.55414e-03,3.89086e-02,1.83818e-02,1.59022e-01,9.02446e-02,-9.08828e-02,-3.95844e-01,1.95983e-01,3.26402e-02,-2.43165e-01,-3.35515e-01,1.68457e-01,1.74542e-01,-2.84543e-01,-3.40272e-02,-1.89723e-01,7.87408e-02,1.74581e-01,-1.15340e-01,-1.63772e-01,1.87419e-01,3.23205e-01,-7.83788e-03,1.81362e-01,-4.36928e-02,-5.25860e-02,5.75386e-01,1.21990e-01,-2.83487e-01,-2.08449e-01,-1.62035e-03,9.89212e-02,1.58868e-01,-1.66254e-01,-1.59866e-01,2.17235e-01,1.22970e-01,-1.28058e-01,6.29500e-02,-1.06817e-02,7.89271e-02,1.11967e-01,1.86308e-01,
-1.02604e-02,1.03110e-01,1.92336e-02,1.64168e-01,4.48571e-02,-3.98071e-01,1.40515e-01,9.72446e-03,3.01560e-02,1.13807e-01,-1.85870e-01,-1.36486e-01,5.23850e-02,-4.33157e-01,5.06779e-04,-2.35979e-01,-5.10802e-02,-2.91706e-01,1.74327e-01,1.83675e-01,5.36108e-02,-3.97765e-02,-3.43604e-01,-2.66382e-01,-3.16645e-02,1.30253e-01,1.30870e-01,1.51937e-01,1.80305e-01,7.82351e-02,-7.89181e-03,-1.74063e-01,-1.27018e-01,-1.56152e-02,-1.77590e-01,-4.41792e-01,-6.71054e-01,-1.86427e-01,2.14321e-01,-2.73157e-01,-1.76210e-01,1.86250e-01,3.82047e-01,-1.52872e-01,-3.20006e-01,2.72020e-02,1.16373e-01,-1.36777e-01,3.34549e-01,2.33528e-01,
2.60083e-02,3.24407e-01,-1.64584e-01,7.30984e-02,-4.14367e-01,1.13638e-01,-1.45195e-01,8.38393e-02,2.49829e-01,-6.78280e-02,-2.71720e-01,2.77051e-01,1.52238e-01,-1.29578e-02,-3.85394e-01,2.35557e-01,-4.00884e-01,-3.89270e-01,2.34818e-01,1.04936e-01,1.96791e-01,5.82403e-02,1.64203e-01,-9.53443e-03,-4.29553e-01,1.72883e-01,1.12548e-01,5.08537e-02,-3.63022e-01,2.87068e-01,6.07372e-02,-4.49893e-02,8.84001e-02,2.94599e-01,-1.20180e-01,1.72719e-01,-5.88729e-02,3.39027e-02,9.03761e-02,1.66480e-01,-2.13608e-01,-8.38334e-02,-1.95310e-01,-1.21489e-01,2.81944e-01,2.80264e-01,8.71841e-03,-1.57756e-02,-3.98007e-01,1.42013e-01,
-4.62513e-02,-4.55973e-02,3.14682e-01,2.71674e-01,1.86629e-02,-3.27067e-02,1.52608e-01,2.19645e-02,-1.60388e-01,-2.15260e-01,1.37389e-01,2.99195e-02,-6.18982e-02,4.52608e-02,-2.65209e-01,1.57544e-01,2.24484e-01,7.90613e-02,1.89894e-01,-4.06590e-02,-2.13653e-02,2.81704e-01,-1.25954e-01,1.69934e-01,-1.51274e-02,-1.75932e-01,9.75866e-02,2.00472e-01,2.17974e-01,-5.76330e-02,8.91899e-02,5.43904e-02,2.06920e-01,1.86128e-02,2.10455e-01,-2.44028e-01,1.39081e-01,-1.10338e-01,-3.34856e-02,4.64469e-02,1.78154e-01,3.24488e-01,-1.95982e-01,-1.81427e-01,4.02023e-01,-8.21739e-02,-9.07218e-02,8.81610e-02,3.54251e-02,-4.50010e-02,
5.88976e-02,2.07300e-02,2.67598e-01,6.26919e-02,4.84481e-02,1.29534e-01,-4.88516e-02,-9.91054e-02,-1.21853e-01,1.28944e-01,1.56213e-01,2.77434e-01,-2.17617e-01,7.03539e-02,7.42294e-02,1.64958e-01,1.74919e-01,-1.31402e-01,-3.09570e-03,1.29243e-01,-1.96267e-01,3.93422e-02,-1.56046e-01,1.85098e-01,2.29364e-01,1.26037e-02,-1.59164e-01,9.15942e-02,3.43713e-01,7.62133e-02,3.14519e-03,5.21924e-03,3.85863e-01,1.74343e-01,1.31544e-01,6.84778e-02,2.47997e-01,1.47229e-02,2.27858e-01,-4.29231e-01,1.03573e-02,6.15660e-02,5.87151e-02,1.14417e-01,3.21265e-01,-7.32059e-02,1.44212e-01,1.32750e-01,-1.99657e-01,5.55479e-02,
1.11685e-01,1.14209e-01,5.12717e-02,-6.16298e-02,4.03601e-01,2.76398e-01,3.82849e-01,-8.70945e-02,2.63023e-02,5.51544e-02,1.93698e-01,-1.23239e-01,7.64150e-02,-3.51436e-01,3.06842e-01,-8.49930e-03,3.78527e-01,6.17099e-02,5.11244e-02,1.36913e-01,5.24449e-02,1.27990e-01,-8.80013e-02,-1.83208e-02,5.32336e-02,-1.48008e-01,1.76975e-01,-1.65357e-01,1.82986e-01,1.66294e-02,-3.38484e-02,-1.64015e-01,-7.94367e-02,-7.24765e-02,-1.97647e-01,1.85369e-02,-3.82128e-02,-8.36411e-02,1.56695e-02,4.40669e-01,1.23570e-01,2.02621e-02,3.88481e-01,-2.51997e-03,-2.77627e-01,-5.76268e-03,-3.03328e-02,-6.12777e-02,4.33378e-01,1.98357e-01,
1.10109e-01,2.90094e-01,-1.24020e-01,8.39010e-02,-6.22314e-02,-1.14522e-01,-1.88641e-01,-1.01941e-01,1.10630e-01,1.27480e-01,-2.15512e-01,5.51561e-02,-9.87191e-03,1.64728e-01,2.30032e-01,1.05103e-01,-5.50773e-02,9.43744e-02,3.13405e-02,-6.25225e-03,2.68059e-01,1.72813e-01,3.03888e-01,-9.56220e-02,-1.55549e-01,2.16810e-01,-9.13367e-02,-9.94655e-02,-2.34695e-01,9.59030e-02,1.26666e-01,-4.84386e-02,-5.52354e-02,1.14000e-01,-4.36030e-02,3.14850e-01,3.40506e-02,-5.98315e-02,1.52073e-01,-5.26956e-02,-7.47692e-02,-7.45353e-02,4.29079e-02,-2.16662e-02,-9.39544e-03,7.01101e-02,2.10870e-01,3.10417e-02,6.86593e-02,4.00990e-02,
1.77172e-07,2.18557e-07,-1.47530e-06,3.48720e-04,7.32669e-08,-1.05684e-04,-6.26455e-19,-6.04333e-05,-6.05211e-07,-8.35390e-06,-1.74115e-04,-3.35702e-05,-7.04026e-08,-2.25719e-07,4.87102e-04,7.34455e-19,-2.00279e-05,-5.92100e-07,-1.72620e-06,-2.29836e-06,3.17196e-20,-4.54108e-05,-4.75513e-07,1.13733e-10,-4.49405e-04,-5.87930e-10,-1.22990e-17,-2.28917e-07,-1.25920e-11,-1.39491e-06,-2.12011e-03,-5.35676e-07,4.24945e-09,-6.01003e-12,-1.58696e-06,-1.72139e-07,-1.67826e-06,-9.71705e-07,-2.52328e-05,6.07098e-09,-3.17845e-05,-4.94968e-06,-1.32050e-05,-3.05081e-05,-6.57626e-07,9.11431e-19,-1.99437e-07,-5.77669e-05,-4.20152e-06,-2.22660e-04,
1.43270e-01,3.42001e-01,-5.33318e-02,9.03213e-02,-1.84990e-01,-1.02153e-01,6.38366e-02,-3.58452e-01,6.82447e-02,2.67825e-01,-8.24945e-02,1.51720e-01,-3.46300e-01,1.20507e-01,1.99566e-02,1.67678e-01,-3.99806e-02,-9.75633e-02,-9.87502e-02,1.70045e-01,4.51456e-01,-1.01689e-01,2.31269e-01,3.37207e-01,-5.32744e-03,3.78072e-01,2.67951e-02,-8.22381e-02,9.78613e-02,1.14747e-01,2.31035e-01,7.94467e-02,1.65483e-02,2.12890e-02,-1.79999e-01,1.58565e-01,-6.29262e-02,5.76465e-02,3.58524e-01,-7.46468e-02,-1.46149e-01,8.12747e-02,7.06325e-02,-1.89327e-01,1.47345e-01,2.06810e-01,5.07859e-02,2.09270e-02,1.16474e-01,1.98971e-01,
8.38981e-02,-2.43039e-01,2.44741e-01,-6.57770e-02,4.47854e-01,1.85509e-01,2.47138e-02,7.85970e-03,-1.76633e-02,-1.77041e-02,-1.64967e-01,-1.00232e-01,7.72226e-02,-1.44105e-01,1.56026e-01,3.73620e-02,3.83825e-02,8.35752e-02,4.85970e-02,-1.00049e-01,-6.80070e-01,1.13585e-01,-1.88002e-01,-4.75891e-01,1.39711e-01,-1.75433e-01,1.04156e-02,3.03886e-01,2.73844e-01,1.66890e-01,-1.71128e-01,8.50578e-02,-7.53432e-02,3.38832e-01,-8.86823e-02,-2.19771e-02,3.02117e-01,7.85532e-02,-8.83759e-02,-2.28924e-01,2.25451e-01,2.01080e-02,2.79924e-01,-9.95685e-02,3.29171e-01,-6.38753e-02,-1.65714e-01,2.37599e-01,-4.37775e-01,-7.35517e-03,
1.37842e-01,-2.56600e-02,-7.48169e-02,-9.10188e-02,2.61583e-01,1.37001e-01,2.64071e-02,-1.28946e-01,9.42434e-02,4.68753e-02,2.13232e-01,-5.21416e-02,-2.16849e-02,1.23988e-01,2.35583e-01,-3.53555e-02,3.86852e-01,1.08492e-01,-1.40396e-01,1.23192e-01,1.58713e-01,2.28482e-01,-5.87800e-02,1.48369e-01,1.20845e-01,-1.49710e-01,6.72569e-02,-3.04930e-01,-1.24330e-01,-1.90757e-02,-9.73414e-02,-4.87883e-02,1.18131e-02,-2.38162e-01,-5.93014e-02,7.77216e-02,1.23795e-02,1.65064e-01,-7.72955e-02,2.59278e-01,3.62613e-01,-5.10675e-02,1.46409e-01,9.02990e-02,-3.08047e-01,-1.51475e-01,1.64434e-01,4.20706e-02,2.26041e-01,3.49549e-01,
8.71327e-02,5.26758e-02,8.51890e-02,-1.53521e-01,1.63418e-01,2.64959e-01,4.28658e-01,-1.24920e-01,-1.09576e-01,-4.95107e-02,2.60572e-01,-1.35098e-01,8.95471e-02,1.61290e-01,9.19034e-02,3.90024e-02,2.98072e-01,-1.40970e-01,6.36469e-02,1.46974e-01,1.07064e-01,2.01135e-01,1.15989e-01,2.33537e-02,3.42833e-01,-1.22276e-01,-6.65866e-02,-2.08401e-01,1.50767e-02,-1.20580e-01,4.97704e-02,-7.44587e-02,9.75199e-02,-1.19309e-01,1.11772e-01,6.00108e-02,2.10410e-01,1.45842e-01,-1.96322e-01,2.65984e-01,-3.44514e-02,1.22873e-01,3.00836e-01,7.05726e-02,-2.25273e-01,1.20574e-01,1.68719e-01,4.12548e-02,4.78909e-01,1.11769e-01,
-2.11970e-01,1.15825e-01,4.62766e-02,2.49598e-01,-6.47803e-01,-2.16860e-01,-9.22584e-02,1.28695e-01,2.05420e-01,6.17846e-02,5.60469e-02,1.74364e-01,3.18518e-01,4.36398e-01,-1.52876e-01,2.26682e-01,-1.88143e-01,2.16391e-01,4.92226e-02,-1.08153e-01,5.07150e-02,1.49156e-01,-5.50223e-02,-7.75183e-02,1.08328e-01,-1.80312e-03,9.11661e-02,-6.10610e-02,-1.82611e-01,1.77459e-01,-1.43596e-01,3.96282e-01,-6.42785e-02,1.02974e-01,4.49078e-01,1.11278e-01,-2.11540e-01,3.40439e-02,-1.28880e-01,3.64351e-02,-6.34418e-02,1.47414e-01,-2.66906e-01,-6.59205e-02,2.71226e-01,-1.42946e-01,-1.05681e-01,3.40073e-02,1.01211e-01,2.75322e-02,
1.00072e-01,2.04117e-01,-1.23442e-01,-8.25575e-03,3.09903e-01,6.01676e-02,5.87490e-02,-2.41961e-01,7.10971e-02,1.90285e-01,9.15313e-02,2.30664e-01,-4.04892e-01,-3.64815e-01,2.93632e-01,-5.62191e-02,1.33579e-01,-1.36855e-01,-9.97707e-02,-2.14359e-03,1.99507e-02,8.73080e-02,2.23897e-01,1.23487e-01,-2.95393e-02,2.15066e-01,7.65192e-02,-2.30749e-01,-4.58104e-02,-1.26159e-01,2.04725e-01,-7.05815e-02,-2.03984e-01,-4.05686e-02,5.85395e-02,1.51022e-01,1.22972e-01,-1.17477e-01,-9.37791e-02,2.42278e-01,2.37464e-01,-1.14636e-02,1.82246e-01,3.53369e-01,-3.47201e-01,8.59794e-02,1.52753e-01,3.25041e-02,1.85556e-01,2.23611e-01,
3.05548e-01,
1.03461e-01,
5.35294e-02,
1.26143e-01,
-3.73095e-02,
5.05871e-02,
3.81621e-02,
-1.22166e-01,
2.18926e-02,
1.84040e-01,
4.57300e-02,
1.03512e-01,
1.98553e-01,
2.40930e-02,
8.61609e-02,
-1.47512e-01,
1.58309e-01,
4.91904e-02,
1.71367e-01,
-4.63832e-03,
1.74305e-01,
8.36072e-02,
-5.37614e-02,
-8.68069e-02,
-1.36662e-01,
-5.13471e-02,
-4.73620e-02,
1.47268e-01,
2.05423e-01,
1.96550e-01,
2.82149e-02,
-1.03471e-01,
2.69417e-02,
5.79321e-02,
1.25634e-01,
-9.82783e-02,
1.62762e-01,
1.48262e-01,
2.79178e-02,
-5.63766e-03,
-2.15976e-02,
-5.80106e-03,
1.81535e-01,
-8.31315e-04,
4.18917e-02,
5.37387e-02,
2.18270e-01,
7.66959e-02,
7.71080e-02,
1.18268e-01,
-1.99628e-01,2.30603e-01,-9.65763e-02,-6.40120e-02,1.37240e-01,-1.62028e-01,9.33159e-02,4.36009e-01,-4.19733e-02,4.10980e-02,2.75427e-01,-4.54766e-01,4.22755e-03,2.27799e-01,2.13756e-01,1.13649e-01,3.88497e-02,-5.09655e-01,-7.69453e-02,7.49108e-02,-1.21834e-01,-1.35261e-01,1.27699e-01,1.16799e-01,1.34155e-01,3.77601e-01,1.68395e-01,-1.24180e-01,2.81550e-01,-2.18037e-02,1.60036e-01,3.94285e-01,1.81410e-01,-1.72242e-01,-4.60193e-02,4.43150e-02,3.59587e-01,4.48735e-01,2.73558e-01,-2.60374e-01,1.28300e-01,6.06413e-02,2.25487e-01,-1.69059e-08,1.34835e-01,5.21950e-02,5.48620e-02,8.59357e-02,-2.48476e-01,7.04124e-02,
3.79850e-02,1.09760e-01,1.68706e-01,7.87024e-02,-4.93881e-02,1.78465e-01,-2.42070e-01,-2.64526e-01,-2.18958e-01,7.21227e-02,1.21885e-01,3.36102e-01,1.88328e-01,3.43551e-02,-7.12682e-02,-1.41261e-01,3.06205e-01,3.93103e-01,-4.50299e-02,1.58483e-02,-3.48494e-01,1.49210e-01,-8.64375e-02,-2.07964e-01,-5.15646e-01,-1.35909e-01,-1.12811e-01,-1.30896e-01,1.76936e-01,9.79232e-02,9.58535e-03,-3.61639e-02,1.02446e-01,1.18333e-01,-7.60011e-02,3.93258e-02,-2.73318e-01,-3.34578e-01,2.37997e-01,3.60585e-01,-1.26798e-01,-5.03069e-01,6.08861e-02,4.95930e-38,7.78179e-02,-1.38340e-01,-2.49526e-01,-3.34357e-01,2.58541e-01,-1.62593e-01,
1.73378e-01,1.71833e-01,-1.70276e-01,-1.47348e-01,6.60850e-02,-8.90681e-02,-5.15186e-02,3.39867e-01,2.47558e-01,2.59352e-01,-2.28182e-01,-2.66413e-01,-3.67716e-02,-2.39015e-01,1.76602e-02,2.26166e-01,-1.59132e-01,-7.17589e-02,2.81814e-01,2.55487e-01,3.29134e-01,3.89853e-01,6.22464e-02,1.45523e-01,-1.65852e-02,1.57858e-01,2.05699e-02,6.99959e-02,-8.61950e-02,2.44508e-01,-1.97021e-01,-1.05977e-02,3.48511e-02,1.82045e-01,1.12938e-01,1.22081e-01,-5.23351e-02,-2.58685e-01,-2.44419e-01,-1.58187e-01,1.39821e-01,2.41774e-01,-1.66210e-02,4.54815e-09,8.40638e-02,2.31779e-01,3.37635e-01,-4.49679e-03,8.68812e-02,6.88307e-02,
2.08182e-01,-2.10586e-01,2.90139e-01,-3.59620e-02,-8.45263e-02,3.15384e-01,-7.35106e-02,-5.01428e-01,2.58318e-01,2.69427e-02,7.16773e-02,4.90098e-01,-2.32941e-02,-2.32834e-02,1.49567e-01,-8.09427e-02,-3.04099e-02,3.37917e-01,4.15906e-02,-2.55973e-02,-1.08867e-01,1.97354e-01,-2.99199e-02,2.78508e-01,7.72774e-02,-2.60081e-01,2.19272e-01,2.25509e-01,-1.20853e-01,1.01035e-01,-2.11345e-01,-3.77986e-01,-1.49721e-01,1.95561e-01,-5.80365e-02,4.17530e-02,1.34124e-01,-6.73750e-01,-3.04451e-01,2.79155e-01,1.97954e-01,-4.64775e-02,-1.41153e-01,-4.79922e-08,-2.36773e-01,1.11108e-01,3.49826e-02,1.01011e-01,8.14814e-02,2.47333e-02,
3.69656e-01,2.53790e-01,-1.79007e-01,-8.94462e-02,4.27258e-01,-7.18373e-02,-8.20585e-02,-5.00494e-02,7.63342e-03,2.13451e-01,1.49355e-02,-2.07090e-01,-1.70856e-01,-3.23196e-01,8.32770e-03,1.03186e-01,-6.85569e-02,-2.06575e-01,2.74129e-01,5.03933e-01,2.94100e-01,2.67533e-01,-1.24413e-01,2.40420e-03,3.98403e-02,2.62595e-01,-1.37294e-01,-6.59979e-02,2.48027e-01,1.55422e-01,-6.70684e-02,2.65209e-02,2.08396e-01,-1.85173e-01,2.75489e-01,-1.60406e-01,-2.19087e-02,-8.34843e-02,-1.94910e-01,-2.53833e-01,7.32293e-03,4.45586e-02,1.18296e-02,-1.05392e-19,-4.21822e-02,3.52907e-01,1.90096e-01,8.95803e-02,-5.28353e-02,3.86263e-01,
-8.78025e-02,2.17067e-01,2.54578e-01,-1.02601e-01,2.81782e-01,-6.03149e-02,8.48202e-02,4.21735e-01,6.59581e-02,2.04665e-01,1.15036e-02,1.35705e-01,1.85519e-01,1.58554e-01,6.71193e-02,-2.89038e-01,1.83663e-01,-1.51400e-01,-4.77806e-02,-1.69663e-01,-7.86557e-03,2.82451e-02,-3.24939e-02,-1.30524e-01,-3.59860e-01,6.38779e-02,-1.56532e-01,-1.28301e-01,1.18754e-01,-1.38040e-02,3.05846e-02,-9.24753e-02,-1.31950e-01,4.47135e-02,-1.37630e-01,-6.70034e-03,1.12410e-01,3.41485e-01,2.03554e-01,1.41524e-01,-1.28642e-01,1.87181e-01,1.50095e-01,-5.79053e-10,3.19035e-02,-1.91054e-02,-8.82859e-02,-1.20373e-01,1.46512e-01,6.76815e-02,
2.41668e-01,-2.60553e-01,1.81677e-01,2.14639e-01,-3.30367e-01,1.40893e-01,-1.69258e-01,-4.84421e-01,-3.56631e-01,-2.25031e-02,1.16587e-01,4.72311e-01,5.77465e-02,9.44397e-02,2.06744e-01,-3.88814e-01,1.49071e-01,-1.34416e-01,2.22577e-01,1.39919e-01,1.35294e-02,1.20815e-01,-2.60324e-02,1.68705e-01,-2.33901e-01,1.28664e-01,8.15538e-02,-4.22087e-02,-1.29179e-01,-1.72531e-02,2.67211e-01,-2.50712e-01,1.40204e-01,-8.95481e-02,-3.70044e-02,-3.47135e-02,9.81333e-03,-2.33980e-01,7.96182e-02,2.60402e-01,-7.57499e-02,-2.97184e-01,1.16243e-01,1.43073e-19,-1.86030e-01,1.23675e-01,-1.39653e-01,-1.56630e-01,3.68776e-02,7.47591e-03,
1.47052e-01,-3.71032e-01,1.68029e-01,2.91460e-02,-1.69150e-01,5.10502e-02,-9.87506e-02,-3.99611e-01,-4.23719e-02,2.40891e-02,1.65910e-01,5.13165e-01,-1.42987e-02,1.30153e-01,1.66166e-01,-3.08222e-01,1.66354e-01,2.60565e-01,1.41003e-01,-6.05830e-02,-6.56660e-02,-9.46718e-02,-2.04485e-01,-9.78964e-02,1.13185e-02,-1.13592e-01,2.62705e-02,-4.00291e-02,2.10854e-02,1.04247e-01,1.69789e-01,-2.07940e-01,6.28367e-02,2.38089e-01,-5.36177e-02,1.13320e-01,2.73342e-02,-3.69702e-01,1.12353e-01,4.96566e-02,-1.00015e-01,-4.98510e-02,2.29001e-01,-1.25531e-10,8.68804e-02,-1.83609e-01,1.58763e-01,1.35120e-01,6.09460e-02,6.47476e-03,
3.40042e-01,-1.69231e-01,2.98594e-02,2.04303e-01,-3.92035e-01,-5.92074e-02,-4.05857e-01,-2.39426e-01,-1.59465e-01,1.17976e-01,7.64958e-02,2.91161e-01,1.29449e-01,-7.51274e-02,2.18417e-02,-3.11985e-01,1.61100e-01,-1.19928e-01,1.14819e-01,1.70739e-01,1.42701e-01,2.35589e-01,-4.89002e-01,-1.31279e-02,-2.87027e-01,-4.60420e-03,7.12437e-02,-1.26696e-01,-1.89151e-02,2.38230e-01,5.20250e-02,-1.16716e-01,-1.88334e-02,2.58929e-01,7.99790e-02,-1.06661e-02,-3.04472e-01,-3.23945e-01,2.05463e-01,-1.12766e-01,-1.08895e-01,-5.22466e-02,1.56161e-01,1.76063e-19,3.67546e-02,-1.12772e-01,2.19011e-01,-9.78434e-02,6.81879e-02,1.65927e-01,
1.97467e-01,-1.88896e-01,3.25923e-01,-5.36789e-04,-8.73191e-02,8.70023e-02,1.25842e-01,-1.51494e-02,2.51312e-01,1.38896e-01,-1.28869e-01,2.50410e-01,-7.14410e-02,-1.41354e-01,4.56499e-02,-1.25919e-01,1.37240e-01,4.84075e-01,2.67731e-02,-1.83201e-01,3.81786e-02,1.40145e-01,-1.01172e-01,8.89847e-02,9.60867e-02,-5.51573e-02,1.55794e-01,3.03806e-01,-2.02817e-01,6.04483e-02,-2.99027e-01,-5.05792e-01,-9.36704e-02,4.45052e-01,3.32987e-02,6.82072e-02,-1.39788e-01,-3.96072e-01,-2.11374e-01,5.97670e-02,-1.07138e-01,5.50132e-02,-1.83019e-01,2.95018e-11,-9.83861e-03,-2.05780e-01,1.27250e-01,2.29721e-01,8.83666e-02,4.88997e-02,
-6.76588e-03,3.57704e-01,-2.64368e-02,1.41132e-01,-2.84918e-01,3.68695e-02,2.67589e-01,3.57364e-01,2.40029e-02,1.45181e-01,6.14065e-02,-2.25315e-01,-1.09756e-01,1.61237e-01,3.46109e-02,-3.82937e-01,3.31660e-03,-8.84449e-02,1.17921e-01,-3.45857e-01,2.68939e-01,-2.99200e-01,-2.39339e-01,4.79870e-02,8.53893e-02,2.24517e-01,1.52231e-01,2.05539e-01,2.50470e-02,-3.35699e-01,1.29046e-01,-2.20421e-01,-3.08140e-02,1.98875e-01,5.29454e-02,-1.77733e-01,2.09380e-02,4.07220e-01,-5.46206e-02,-1.27415e-01,1.16472e-02,4.04525e-01,4.31089e-02,-1.99964e-09,-1.86927e-02,-3.07117e-01,1.58531e-01,2.36033e-01,-1.26913e-01,3.69081e-01,
-1.14830e-01,5.52340e-01,-1.05858e-02,-5.05553e-03,8.75281e-02,-8.83416e-03,3.38080e-01,7.50247e-01,1.54713e-01,-2.02289e-02,1.97550e-01,-3.45644e-01,-1.41758e-01,1.63620e-01,1.65234e-01,2.07583e-01,1.74044e-01,-3.82196e-01,-7.68716e-02,-1.66259e-01,6.99222e-02,-2.23836e-01,2.49223e-01,-1.49897e-01,6.76572e-02,1.24935e-01,1.38330e-01,-2.19084e-02,2.30259e-01,-2.52844e-01,1.13686e-01,2.64281e-01,2.31529e-02,-1.33767e-01,1.54021e-01,-3.46476e-02,-2.98945e-02,6.19212e-01,-8.66374e-02,-2.73553e-01,1.03978e-01,-4.12793e-02,1.36362e-01,-8.64684e-10,8.07824e-02,-1.10543e-01,-6.88026e-02,1.09897e-01,-2.26987e-01,1.99524e-02,
3.76762e-02,4.54453e-01,1.85850e-01,7.54138e-02,-5.49690e-02,1.88412e-01,3.02559e-01,4.58599e-01,1.81643e-01,2.14039e-01,5.23690e-02,-4.93121e-02,5.24293e-02,5.75010e-02,-4.22690e-02,5.91343e-02,3.10558e-01,-2.42466e-01,-3.45171e-02,-2.12942e-01,-9.98740e-02,-2.60894e-01,3.50625e-01,6.39257e-03,-1.12539e-01,1.26611e-01,1.83970e-01,1.57055e-01,1.57030e-01,-9.28837e-02,-9.51696e-04,-1.64162e-01,-8.17832e-02,-7.83078e-02,-8.83553e-03,1.17662e-01,2.57505e-01,5.70113e-01,1.03518e-01,1.66736e-01,2.74958e-03,1.63635e-01,-5.20523e-02,-2.22626e-13,-1.22664e-01,5.59594e-02,-6.85597e-02,8.33308e-02,6.85202e-02,4.11908e-02,
-7.94624e-02,6.95568e-01,2.45008e-02,4.45733e-02,-1.47186e-01,1.12919e-01,2.93993e-01,7.10474e-01,2.88602e-01,1.48964e-01,-8.26593e-02,-3.42120e-01,-4.88883e-02,-6.33222e-02,1.61688e-01,-6.82940e-02,2.26933e-01,-2.88105e-01,-2.53102e-02,-2.10077e-01,3.56463e-01,-1.55630e-01,7.74400e-02,-3.59018e-02,2.00567e-01,2.30965e-02,1.04558e-01,9.66243e-02,6.31131e-02,-2.30293e-01,-9.54449e-02,-1.18623e-01,2.99939e-04,1.64158e-02,1.73157e-01,1.38491e-01,-1.87175e-01,3.56762e-01,9.60053e-04,-1.70601e-01,-1.72855e-02,2.89010e-01,-6.73531e-02,3.07733e-12,-1.06708e-02,-2.63080e-01,2.19786e-01,3.59728e-01,-2.08124e-01,-2.83307e-03,
4.06431e-01,1.92866e-01,1.88542e-01,7.32521e-02,-1.69432e-01,2.98905e-01,-4.43487e-01,1.68233e-01,-8.21012e-03,1.54106e-01,6.44737e-02,1.74561e-01,-9.72455e-02,-1.17019e-01,1.45677e-01,-7.86060e-02,3.35722e-01,7.51343e-02,2.45000e-02,1.68511e-03,2.39611e-01,2.36844e-01,-4.20567e-01,-2.23713e-01,-2.54922e-01,-2.76784e-01,-2.10269e-01,-1.47382e-01,-2.05723e-02,2.89312e-01,-8.65604e-02,-3.15459e-01,-1.47078e-01,4.84749e-01,2.28528e-01,1.25992e-02,-4.81492e-01,-2.33336e-01,-7.41509e-02,9.20304e-02,-2.62870e-01,-1.20342e-01,2.23454e-01,2.67127e-14,-2.14633e-02,-3.34083e-01,2.11527e-01,1.07278e-01,4.00587e-01,-1.42671e-01,
-9.70103e-02,7.71336e-02,-1.98987e-01,-6.94386e-02,6.33259e-02,-3.45010e-01,2.56226e-01,2.33838e-01,9.72668e-02,4.41151e-02,-1.57419e-02,-4.31382e-01,1.29537e-01,1.92355e-01,2.26885e-01,1.12908e-01,-2.75235e-02,-3.10872e-01,1.81292e-01,2.43196e-02,8.25514e-02,-1.44539e-01,2.60181e-01,2.26853e-01,2.97338e-01,3.95957e-01,2.98164e-01,1.88572e-01,3.15557e-02,-9.19069e-02,-1.74631e-02,2.84803e-01,1.29958e-01,-2.22896e-01,-8.52289e-02,1.31135e-01,4.82064e-01,4.06826e-01,-1.56512e-01,-2.47388e-01,1.62645e-01,1.14878e-01,5.42561e-02,-1.89243e-12,4.41869e-02,8.72929e-02,7.36046e-02,2.65625e-02,-7.33881e-02,2.16913e-01,
9.61803e-02,-2.74427e-01,-4.69004e-02,1.92329e-01,-2.04766e-01,-1.35311e-03,-2.68490e-01,-2.98496e-01,1.85491e-01,-1.03151e-01,1.02639e-01,-1.07816e-01,1.07602e-01,-3.19934e-02,1.75810e-01,2.95939e-01,-1.42307e-01,1.14774e-03,1.32772e-01,3.18549e-01,-1.43365e-01,1.16984e-01,2.44894e-02,4.37354e-01,2.87017e-01,8.83545e-02,2.20744e-01,1.46171e-01,-1.29285e-01,7.66756e-03,2.15866e-02,1.42103e-01,3.16261e-01,2.22920e-01,2.07805e-01,1.80709e-01,-3.79441e-02,-3.79691e-01,-1.51386e-01,1.37453e-01,2.96588e-01,-3.69277e-02,-1.13739e-01,-1.81776e-08,7.12167e-02,-1.03781e-01,1.21657e-01,1.64654e-02,2.02928e-01,1.10118e-01,
7.61890e-02,4.53864e-01,2.27899e-01,-6.65232e-02,-1.82739e-01,4.21554e-01,8.75589e-02,4.40476e-01,2.83287e-01,1.37725e-01,2.31120e-02,-2.83996e-01,-1.60344e-01,-9.41210e-02,9.60971e-02,8.94950e-03,-3.63387e-02,1.73182e-01,4.54180e-02,-1.37671e-01,2.31876e-01,-5.04468e-02,1.01225e-01,1.34069e-02,1.35115e-01,1.04681e-01,1.32071e-01,3.75718e-01,9.41932e-02,-1.61492e-01,-2.65491e-01,-3.11708e-01,3.65464e-02,3.92476e-01,1.43521e-01,1.29746e-02,8.18615e-02,-3.55245e-02,-1.15224e-01,1.39835e-01,6.92595e-02,4.00198e-01,-1.58660e-02,-1.00773e-17,3.23521e-02,-2.41555e-01,2.90060e-01,4.00491e-01,-1.08636e-01,-2.01984e-02,
8.97830e-02,-5.90448e-02,-7.78769e-02,5.08257e-02,2.13212e-01,-1.04956e-01,-1.44155e-01,-1.59160e-01,-1.58024e-01,-7.31643e-03,1.68841e-01,-3.71335e-02,3.01466e-01,1.54794e-01,1.78688e-01,1.19116e-01,1.58499e-01,-3.53375e-01,9.88328e-02,1.47727e-01,-1.66730e-01,-1.54474e-01,9.07941e-02,1.06914e-01,1.69777e-01,2.05396e-01,1.43879e-01,-2.04626e-01,2.79699e-01,-8.66736e-02,1.88591e-01,5.51707e-01,2.27977e-01,-1.56906e-01,3.76027e-03,2.48948e-01,3.68849e-02,8.25910e-02,4.44390e-01,6.13965e-02,2.68554e-01,-1.18349e-01,3.39513e-01,-3.10890e-10,3.63737e-01,7.46245e-02,-1.10761e-01,-1.31885e-01,2.92220e-01,4.60609e-03,
-1.57100e-01,-3.16098e-01,2.93269e-01,-4.01762e-02,3.78290e-01,-2.45753e-01,-1.17082e-01,-9.43374e-02,-3.83751e-01,-1.79992e-01,6.18936e-02,2.39297e-01,3.53317e-01,3.51009e-01,1.85217e-01,1.10366e-01,8.00867e-04,4.34619e-01,1.23983e-01,-2.33655e-01,-1.99290e-01,-4.64365e-01,-8.15280e-02,1.88236e-02,-1.25761e-01,-3.03043e-02,1.88443e-02,-3.93099e-02,2.10435e-01,1.17906e-01,4.60881e-01,2.30510e-01,2.50332e-01,-1.67728e-01,-4.58714e-01,1.13442e-01,1.28703e-02,1.31267e-01,2.48111e-01,2.11243e-01,3.22111e-02,-3.07961e-01,1.19984e-01,5.27739e-20,2.94390e-01,-1.17720e-01,-3.00438e-01,-2.78562e-01,1.19441e-01,-1.71199e-01,
3.04585e-01,1.09642e-01,8.10958e-02,4.65814e-02,-6.24972e-02,-1.06868e-01,3.48651e-01,3.09155e-01,1.55485e-01,9.99963e-02,3.70796e-02,1.36616e-01,8.03355e-02,1.63110e-01,-1.17815e-03,-3.20714e-01,6.98389e-02,3.15891e-01,2.05150e-01,-2.19185e-01,3.42706e-01,1.20578e-01,-2.12804e-01,-3.58449e-02,-3.44182e-02,1.12026e-01,-9.54372e-02,2.71102e-01,1.30420e-01,-3.54020e-02,-6.01498e-03,-3.27004e-01,-2.88845e-01,3.99685e-02,2.57372e-02,-1.48460e-01,4.87972e-02,3.25270e-01,-2.74456e-02,6.07321e-02,-2.46030e-01,3.56069e-01,-1.59843e-01,3.57917e-08,-2.25586e-01,9.25552e-02,2.12630e-01,7.21461e-02,-2.42953e-01,3.13302e-01,
-2.28399e-01,5.36979e-01,-5.93121e-02,-1.41929e-01,4.51087e-02,3.25907e-01,1.23382e-01,7.94950e-01,3.58082e-02,-5.95728e-02,-3.24687e-02,-5.19672e-01,-5.77135e-02,4.35444e-02,-1.34926e-02,2.34786e-01,2.01131e-01,-1.57525e-01,-9.22289e-02,-2.10866e-01,1.91448e-01,-2.53824e-03,3.76492e-01,6.20300e-02,1.17309e-01,1.86284e-01,1.80175e-01,1.46113e-01,3.09213e-02,-1.70144e-01,-1.22260e-01,-7.51378e-02,5.46125e-02,5.45221e-03,1.80891e-01,1.56813e-01,4.78019e-02,4.12624e-01,-2.14135e-01,1.49888e-02,-1.47055e-03,3.10006e-02,1.08575e-01,-1.22076e-09,1.88290e-01,-5.43052e-02,5.23493e-02,3.85374e-02,6.05175e-02,1.08329e-01,
4.74805e-02,-3.01818e-01,-2.36113e-01,5.23050e-02,4.88587e-01,-6.27001e-01,1.85963e-01,-3.11126e-01,-3.67355e-02,4.77317e-02,2.30642e-01,-5.16620e-02,7.40383e-02,1.09655e-01,-2.53866e-02,4.12542e-02,-2.68724e-01,-3.30018e-01,1.74492e-01,4.70472e-01,2.07504e-01,2.37209e-01,-6.61535e-02,2.55821e-01,1.85859e-01,2.52674e-01,-2.48023e-02,1.11090e-02,-3.21651e-02,1.06899e-01,1.57935e-01,3.59311e-01,2.65164e-01,-3.20178e-01,-1.82067e-01,9.09894e-02,2.22051e-01,-1.70749e-02,1.33777e-01,-7.01171e-02,2.78756e-01,9.49142e-02,2.90083e-02,-4.76484e-20,2.61747e-02,6.09730e-01,-5.20568e-02,-1.67287e-01,-1.84134e-01,2.35577e-01,
8.62191e-08,1.65984e-14,-2.38322e-07,-4.94263e-09,-4.39551e-12,2.37466e-39,-1.90796e-39,-3.80625e-38,-3.67890e-09,-1.52823e-08,5.30809e-08,3.14695e-11,-6.16796e-15,-1.19099e-08,-2.33829e-15,-5.37352e-29,-1.43242e-06,-6.88331e-39,-5.07338e-06,-2.41766e-10,-3.42994e-39,6.40117e-06,-2.73583e-39,-1.18990e-37,-4.17184e-39,6.36141e-39,-6.26862e-39,-4.68647e-17,-1.29969e-05,-2.06473e-09,3.66994e-39,-6.60063e-39,-1.56951e-39,-1.52475e-12,-9.54935e-14,-9.92134e-08,-5.50676e-39,3.77289e-39,-7.11532e-07,5.84172e-39,-3.74044e-39,-3.25196e-12,-1.15722e-08,-2.20427e-39,-1.70986e-12,1.67886e-39,4.71927e-39,-1.41848e-16,4.59011e-07,3.82430e-39,
-5.14937e-02,3.35692e-01,1.90969e-02,1.47260e-01,-8.96260e-02,1.07290e-01,-2.01887e-01,5.72530e-01,-6.70719e-02,-2.00656e-02,1.04773e-01,-1.75759e-01,1.54959e-02,3.55011e-02,2.68350e-01,1.75925e-01,3.57079e-01,-4.61788e-01,9.80768e-02,-1.32824e-01,-1.92541e-01,-4.04948e-03,3.62781e-02,1.63863e-02,7.74269e-03,2.83257e-01,1.03035e-01,-1.51386e-02,1.54455e-01,-1.51860e-02,1.12202e-01,2.65136e-01,8.20516e-02,-3.99980e-02,7.60823e-03,8.26903e-02,-9.06760e-02,3.62414e-01,2.07909e-01,1.13978e-03,-9.92519e-02,-1.70169e-01,3.15961e-01,-1.38382e-09,1.31883e-01,-3.55494e-02,-2.26833e-02,1.66432e-01,3.32968e-01,-7.07480e-03,
-6.84363e-02,4.29231e-01,-2.34991e-01,-2.19093e-01,4.06792e-01,1.16840e-01,1.76003e-02,1.77494e-01,1.15793e-01,9.17324e-02,-3.10832e-01,-2.38796e-01,-2.57514e-01,-2.11998e-01,7.57046e-02,1.95135e-01,-3.55220e-02,-1.99745e-01,2.15456e-01,3.68669e-01,3.01202e-01,2.98404e-01,9.81610e-02,-2.62235e-02,5.52742e-02,-6.39212e-02,-6.72283e-02,5.33046e-02,-1.81356e-01,2.90819e-01,-4.25944e-01,-1.87777e-02,-7.92913e-02,-8.44748e-02,1.51888e-01,7.20670e-02,-1.69792e-03,-6.32505e-02,-2.51214e-01,-4.75314e-02,-2.52341e-02,-3.99912e-02,4.24638e-02,1.40166e-07,-1.84700e-01,2.27664e-01,1.41856e-01,3.67535e-03,2.00879e-01,-1.65443e-01,
-9.32637e-02,-1.03617e-01,7.16681e-02,-2.16683e-02,-4.60243e-02,9.30353e-02,4.14961e-01,2.22492e-01,1.30276e-01,1.58831e-01,1.46704e-01,1.03292e-01,1.10531e-01,2.67876e-01,1.48350e-01,9.64477e-02,-1.04271e-01,2.23205e-01,1.76779e-01,2.80379e-03,-5.64232e-02,-8.44144e-02,6.91968e-02,2.69160e-01,1.68210e-01,5.32191e-02,2.43038e-01,4.36897e-01,-1.56550e-01,-1.65348e-01,6.22732e-02,-1.47579e-01,-6.85272e-02,1.46539e-01,1.26985e-02,6.56010e-02,4.81754e-01,2.31904e-01,-1.08229e-01,2.51173e-01,1.65574e-01,3.28325e-01,-4.63588e-02,-9.53285e-19,-8.80105e-02,9.84055e-02,8.83949e-02,1.63410e-01,-1.52347e-01,7.09124e-02,
4.21157e-02,9.96604e-02,3.64874e-01,-1.32825e-01,-2.25600e-01,3.48989e-01,-1.42064e-01,5.18409e-02,2.92198e-01,1.56837e-01,-4.69985e-02,3.23513e-01,1.14917e-02,8.22151e-02,-9.39787e-02,-5.32406e-02,1.52222e-01,4.79744e-01,1.25410e-01,-2.37279e-01,-1.55795e-01,1.19579e-01,8.11816e-02,1.97163e-01,-1.82872e-01,-1.77493e-01,-1.83327e-02,1.59033e-01,-3.16981e-02,1.65632e-01,-1.92341e-01,-3.19418e-01,-1.95619e-01,3.08336e-01,8.37848e-02,2.32131e-01,-2.44491e-01,-4.82174e-01,-6.82835e-02,3.81016e-01,1.54127e-02,5.82951e-02,-2.00053e-02,9.87035e-17,-1.06561e-02,-1.45340e-01,2.21581e-02,1.16536e-02,2.53808e-01,-1.43194e-01,
-4.23861e-02,-4.42239e-02,-1.65182e-01,-6.68700e-02,6.25855e-01,1.44287e-01,-5.65011e-02,-1.21558e-01,1.90125e-01,1.50761e-01,-1.29990e-01,4.24643e-02,-1.80497e-01,-1.60125e-01,6.01126e-02,2.83511e-01,7.53022e-03,1.17009e-01,1.14802e-01,3.03375e-01,-2.67912e-02,3.45812e-01,3.18172e-01,3.18020e-01,-3.66855e-02,-2.02726e-01,5.28709e-02,-4.85714e-02,-2.84658e-01,2.77590e-01,-2.84964e-02,1.21733e-01,-9.23583e-02,-5.01853e-02,2.20483e-01,-4.06319e-02,8.26382e-03,-1.50417e-01,-2.61274e-01,2.83457e-01,1.98698e-01,-1.45901e-01,-7.97837e-02,-1.08328e-07,-2.09363e-01,7.17171e-01,-2.66472e-01,5.09372e-03,-8.72137e-02,-3.69621e-01,
1.84378e-01,-7.10249e-02,2.84579e-01,-1.36201e-01,-1.64949e-01,1.73192e-01,1.63604e-01,-7.54967e-02,-1.03231e-01,7.34601e-02,1.31155e-01,4.60331e-01,-6.85303e-02,2.13819e-01,1.05830e-01,-2.71101e-01,1.71300e-01,3.33311e-01,-2.08835e-02,1.43145e-02,2.35243e-02,8.65478e-02,5.04217e-03,7.26881e-02,-2.69402e-01,4.51437e-02,-1.07764e-01,7.60165e-02,-6.75094e-02,1.26354e-01,-8.23208e-03,-3.33982e-01,-1.09214e-01,1.96695e-03,7.02845e-02,-6.68018e-02,4.96001e-02,-9.76486e-02,1.72053e-02,1.09253e-01,-1.15522e-01,-1.56878e-01,1.04236e-01,4.95639e-16,-1.50620e-01,-1.00742e-01,-2.71134e-01,-3.36750e-02,2.00043e-01,-1.87373e-01,
-1.73795e-03,3.69725e-03,5.85771e-03,-7.46043e-06,9.01799e-05,-8.65842e-04,-2.03550e-06,-2.48124e-40,-3.41885e-03,-2.63741e-02,-7.00178e-06,4.45963e-07,-3.05512e-03,-3.37369e-04,9.19696e-03,-3.78262e-06,-6.68194e-04,-2.35094e-39,-8.06280e-03,1.10732e-02,-2.36988e-03,-2.91003e-03,-4.37772e-05,-8.47750e-04,-2.78604e-03,2.01298e-03,-1.13546e-02,6.67407e-03,-5.54939e-03,-1.77221e-03,1.28739e-04,-4.97790e-07,-1.13595e-03,-2.09521e-03,1.08963e-02,1.69464e-03,-8.98172e-07,-1.17840e-39,-3.87589e-05,-2.45643e-04,1.64995e-04,-5.27414e-04,1.41967e-04,3.71687e-39,-1.18490e-05,-3.70411e-05,1.27581e-04,3.37679e-03,-2.76188e-03,-5.43310e-04,
1.20267e-01,-1.91354e-01,-8.66488e-02,3.31031e-01,-1.98825e-01,-3.53005e-01,-4.85245e-02,-4.09523e-01,-1.49719e-01,-5.17347e-03,2.24007e-01,2.75883e-02,3.09615e-01,1.91502e-01,1.11261e-01,1.35114e-01,1.97330e-01,-1.85625e-01,1.01834e-01,5.41669e-02,-6.17959e-02,-2.12160e-01,-1.98254e-01,-1.68306e-02,1.12552e-01,1.65944e-01,7.81540e-02,-4.83129e-02,3.02815e-01,-6.50317e-02,2.72765e-01,4.32098e-01,3.65378e-01,1.98202e-03,-1.51216e-01,1.62646e-01,1.24164e-01,-4.34662e-02,5.06510e-01,-6.01846e-02,1.62798e-01,5.08087e-03,4.06295e-01,-6.41561e-09,1.94133e-01,4.28122e-02,1.38101e-01,5.46634e-03,1.52803e-01,3.46077e-01,
5.96257e-02,1.02507e-01,-5.08634e-02,2.58045e-01,-2.72591e-01,-1.79661e-01,4.20194e-02,-5.58052e-02,1.88826e-02,-7.37133e-03,2.82679e-01,-9.96771e-02,2.19129e-01,2.20286e-02,1.88731e-01,-6.16681e-02,1.66689e-02,-2.48500e-01,1.40451e-01,-1.41986e-01,9.80772e-02,-4.23084e-02,3.10940e-02,1.47060e-01,-2.37139e-03,2.60026e-01,2.10343e-01,-7.88179e-02,5.90975e-02,-2.26842e-01,1.69717e-01,1.58248e-01,1.75729e-01,-4.60572e-02,7.99847e-02,1.09841e-01,5.16245e-02,1.83092e-01,2.94320e-01,-1.16473e-01,2.06101e-02,1.45530e-01,2.96086e-01,-4.37202e-08,1.84679e-01,-2.27364e-01,3.67745e-02,1.02703e-01,-1.43140e-01,4.40006e-01,
4.61880e-02,-2.15538e-02,5.31202e-02,-5.07153e-04,4.51572e-01,-1.30565e-01,1.14692e-02,-1.93688e-01,-5.55848e-02,2.67468e-01,6.17359e-03,2.82140e-01,-1.74812e-02,6.63476e-02,-2.11080e-01,1.97707e-01,-1.17288e-01,3.55614e-01,2.10191e-01,3.00864e-01,5.44647e-02,1.58870e-01,-6.68358e-03,6.63645e-02,2.58533e-01,-2.73352e-01,-9.20153e-02,2.32683e-03,-1.39362e-01,2.28970e-01,-1.08083e-01,-2.61023e-01,-2.04760e-01,-2.14055e-01,2.53519e-01,-1.78892e-01,7.96754e-02,-1.63720e-01,-1.58204e-01,1.90875e-01,2.51051e-01,7.19453e-02,-2.64939e-01,2.33749e-08,-3.00764e-01,4.58940e-01,-6.47008e-02,-1.53574e-02,-7.06104e-02,-2.06307e-01,
1.54273e-01,2.53823e-01,-1.35577e-01,-3.83718e-02,2.47831e-01,6.38673e-02,4.47937e-01,5.10601e-01,1.58980e-01,1.23823e-01,1.88591e-01,-2.56472e-01,-1.34562e-01,1.89443e-01,5.72980e-02,-2.49060e-03,-1.25398e-01,-3.47231e-01,1.04290e-01,8.29475e-02,3.36498e-01,7.21197e-02,2.05705e-01,-3.19223e-02,3.15773e-01,1.51892e-01,1.71532e-01,4.42600e-01,4.82312e-02,-9.39389e-02,1.10423e-01,-1.33458e-01,1.50301e-01,-2.77487e-01,8.61232e-02,-6.17534e-02,2.86690e-01,4.42162e-01,-1.63525e-01,-2.26423e-01,-7.03690e-03,3.81305e-01,8.48818e-06,6.91028e-18,2.42924e-02,4.34949e-01,2.83565e-01,2.47906e-01,-2.02328e-01,3.57318e-01,
6.08569e-02,-2.41987e-01,-1.96559e-02,2.78112e-01,8.42474e-02,-4.46358e-01,4.15653e-02,-2.92989e-01,-1.93929e-01,-9.23076e-02,2.05637e-01,1.48431e-01,3.29675e-01,1.50861e-01,2.25249e-01,-9.25769e-02,1.23288e-01,-4.55039e-02,4.85979e-02,1.66840e-01,-1.91677e-01,-6.70241e-02,-1.67836e-01,7.87124e-02,-1.52222e-01,1.89623e-01,-8.12304e-02,-2.24493e-01,2.71368e-01,1.68894e-01,2.53197e-01,3.31307e-01,1.66542e-01,-1.13529e-01,-3.32783e-01,1.84266e-01,2.64508e-02,-4.02880e-02,2.36251e-01,4.06261e-02,5.64972e-02,-2.85099e-01,2.06265e-01,-2.41852e-19,1.19520e-01,2.04458e-01,-2.23335e-01,-2.47062e-01,1.18202e-01,-9.86288e-02,
1.24990e-01,-1.82588e-01,1.56962e-02,3.89592e-01,-1.91879e-01,-3.20179e-01,-1.05248e-02,-3.31483e-01,-9.04674e-02,9.61600e-02,2.25986e-01,9.55102e-02,3.21911e-01,2.60341e-01,1.90938e-01,-6.89440e-02,1.93797e-01,-3.04029e-01,1.77876e-02,-5.63697e-02,-2.07620e-01,-1.82334e-01,-1.13575e-01,7.38828e-02,2.63947e-02,1.26946e-01,1.80149e-01,-1.66695e-01,1.04525e-01,-1.56176e-01,3.42481e-01,2.07260e-01,2.78161e-01,1.24188e-02,-1.62582e-01,1.34481e-01,2.74586e-01,8.74419e-02,4.44494e-01,6.66268e-03,1.60602e-01,-2.77500e-02,2.77169e-01,-3.42849e-08,1.94159e-01,1.49355e-02,9.63231e-02,-7.58663e-02,-1.11519e-01,3.23635e-01,
1.23370e-01,2.02987e-01,-2.20499e-02,-1.15824e-01,-6.06736e-02,2.43156e-01,-3.73649e-02,-1.78245e-01,-1.48722e-01,3.15042e-02,1.49638e-01,-1.18932e-02,5.18088e-02,1.74992e-02,6.41865e-02,6.60731e-02,2.46552e-01,-3.45700e-01,-1.86789e-01,1.30001e-01,1.09129e-01,1.14450e-01,-3.18103e-01,-3.00285e-01,2.29021e-03,1.68346e-01,-9.95576e-02,-1.80977e-01,-6.37897e-02,-2.04929e-01,5.77219e-03,2.12777e-01,-9.13987e-02,-2.27622e-01,7.32398e-02,1.42760e-01,-1.88335e-01,-6.37268e-02,-1.43588e-02,-2.83498e-01,-9.03895e-02,8.55435e-02,1.13443e-01,-2.57410e-19,-5.21711e-02,-5.34619e-02,1.62901e-01,4.37088e-02,8.56221e-04,1.83616e-01,
3.97651e-01,-1.12345e-01,3.05763e-01,1.13413e-01,-2.48434e-02,3.02799e-02,-9.66344e-02,-3.39089e-01,8.76735e-02,5.46100e-02,5.44417e-02,4.89734e-01,1.59574e-02,-2.32176e-01,-7.31657e-02,-2.68784e-02,-5.29253e-02,4.13371e-01,3.82788e-02,2.77541e-01,3.66142e-01,2.90985e-01,-3.41342e-01,5.98580e-02,-7.14124e-02,-1.98820e-01,-9.68113e-02,4.38411e-02,4.69714e-03,2.58156e-01,-2.95321e-01,-4.45954e-01,-1.32892e-01,4.06000e-01,2.07179e-02,-2.76943e-02,-3.02164e-01,-4.74764e-01,-3.83176e-01,1.52784e-02,-3.44814e-02,2.70600e-01,-1.47975e-02,9.43686e-10,-8.51704e-02,1.83452e-02,2.25503e-01,-5.09332e-02,-7.42937e-02,1.74091e-01,
-1.00948e-01,1.13876e-01,1.62890e-02,-1.14574e-01,3.76790e-01,2.50833e-01,-7.70357e-02,1.86438e-01,3.19975e-02,1.76491e-02,-1.90264e-01,1.51714e-01,-3.84929e-01,8.57370e-02,-1.72758e-01,2.33185e-01,-1.02393e-01,2.12333e-03,1.07571e-01,2.15832e-01,1.85359e-02,3.39626e-01,2.69616e-01,8.30282e-02,1.35426e-01,-2.33878e-01,1.27420e-01,5.37894e-02,-2.77820e-01,3.10917e-01,9.80311e-02,3.35043e-02,-7.35484e-02,-3.73062e-02,2.34239e-01,1.50382e-01,-4.71806e-02,-2.73887e-02,-2.47291e-01,2.32786e-01,1.11892e-01,-9.43991e-02,-2.15028e-01,9.02402e-14,-3.07471e-01,3.80554e-01,-5.98804e-02,-7.69029e-02,1.44412e-02,-1.73908e-01,
1.32809e-01,-1.00552e-01,1.67847e-01,1.10063e-01,-4.65604e-01,9.90248e-02,-1.83956e-01,7.44889e-02,2.23408e-01,5.03198e-02,-2.42997e-02,-1.30508e-01,-7.00869e-02,9.38214e-02,5.51489e-03,8.85379e-02,-1.16204e-01,1.76481e-01,5.81495e-02,-1.13233e-01,5.68165e-02,-1.12011e-02,-1.38567e-01,2.31401e-02,6.82688e-02,-9.35142e-02,2.02091e-01,3.33698e-01,-7.06267e-02,6.97028e-02,-1.45564e-01,-1.69091e-01,3.95486e-02,3.79833e-01,2.29979e-01,1.62543e-01,4.65385e-02,-3.69747e-01,-1.84151e-01,2.22393e-02,1.79342e-02,5.12560e-02,-3.41230e-02,-3.04158e-10,-4.50086e-02,-3.17847e-01,2.27978e-01,2.57011e-01,1.71120e-01,2.12294e-01,
1.31766e-01,1.76956e-01,5.92158e-02,-6.27613e-03,2.56520e-01,1.52941e-01,3.71501e-01,3.79874e-01,1.12623e-01,5.66229e-02,4.70387e-02,1.19503e-01,7.05789e-03,1.45470e-01,6.39270e-02,2.11458e-02,-1.65447e-01,1.55830e-01,1.93041e-01,-1.54543e-01,2.40867e-01,1.42592e-01,3.05972e-02,-6.70451e-02,2.01704e-01,-1.79078e-01,1.32900e-01,2.00969e-01,-1.27948e-01,-6.93513e-02,5.80887e-02,-4.19779e-01,-1.73703e-01,-1.90644e-01,9.23563e-02,8.83032e-02,2.00059e-01,2.39136e-01,-1.00647e-02,6.01263e-02,1.50207e-01,1.79317e-01,-2.64335e-01,8.30664e-14,-1.41688e-01,1.18565e-01,1.02605e-01,1.10784e-01,-1.98175e-01,1.11160e-01,
-9.18416e-03,-1.19314e-01,3.26830e-01,-7.52503e-02,3.52020e-02,3.04541e-01,3.20949e-02,2.26286e-01,2.66306e-01,-9.77085e-02,-1.26884e-01,-4.06586e-02,-1.24004e-01,2.18091e-01,1.61576e-01,3.65126e-01,-4.94456e-02,3.86808e-01,-4.07879e-02,-9.04530e-03,8.62749e-03,1.75903e-01,3.58846e-01,3.62006e-01,1.49217e-01,-1.07712e-01,1.91889e-01,8.39675e-02,-2.62967e-01,1.67745e-01,-1.27469e-01,2.54681e-02,-4.21521e-02,1.72436e-01,2.68067e-01,3.10962e-01,3.85809e-02,-2.56135e-01,-3.06103e-01,3.57722e-01,2.32078e-01,-3.61262e-03,-2.56133e-01,-2.30167e-08,1.84715e-01,6.23316e-02,-5.20361e-02,1.99779e-01,2.77830e-01,-2.84077e-01,
1.55759e-01,-2.09990e-01,4.14252e-01,3.94409e-02,-1.38917e-01,3.38195e-01,-9.60791e-02,-3.65979e-01,1.98962e-01,7.40420e-02,-1.04021e-01,4.76122e-01,-1.24512e-01,1.09566e-01,-1.40338e-01,8.49497e-02,1.50380e-01,6.44640e-01,6.77800e-02,-8.29501e-02,-6.76425e-02,1.80640e-01,-1.91148e-02,1.02731e-01,1.78149e-01,-2.43961e-01,1.60045e-01,2.42369e-01,-2.39059e-01,1.31419e-01,-2.11989e-01,-2.46097e-01,-1.04572e-01,3.16562e-01,1.90032e-02,8.81968e-02,-1.68827e-01,-5.75352e-01,-1.77305e-01,3.66881e-01,1.28063e-01,3.00948e-02,-3.64279e-02,-5.62747e-08,6.90108e-02,-1.69819e-01,-4.60549e-02,6.71332e-02,2.07233e-01,-1.21272e-01,
-3.85074e-02,1.22461e-01,7.68404e-02,1.17477e-01,-7.10230e-02,3.51300e-02,-6.95605e-02,-2.03677e-03,-1.78991e-02,2.13849e-02,2.11391e-01,-9.54973e-02,1.25031e-01,-2.49321e-02,2.57596e-01,-1.32972e-04,3.52570e-01,-3.38504e-01,1.59277e-02,1.07173e-01,1.99116e-02,-1.93616e-01,8.60815e-02,1.32657e-01,7.32231e-02,2.62091e-01,9.63276e-02,-7.46482e-02,1.96855e-01,-1.15273e-01,2.13099e-02,3.39539e-01,1.65952e-01,1.17849e-01,-6.79112e-02,5.39095e-02,6.56792e-02,3.15261e-01,3.88849e-01,-3.49618e-02,-7.26085e-02,1.11397e-02,2.81495e-01,-2.52825e-10,1.89159e-01,-2.44073e-01,5.55223e-02,6.87886e-02,1.19800e-01,2.49025e-01,
8.71503e-02,-3.17916e-01,-6.20876e-02,7.06495e-02,-2.95943e-02,9.85366e-02,-3.93718e-01,-1.60739e-01,2.51762e-01,3.47017e-02,-1.03584e-01,-2.66810e-02,-1.00677e-01,-8.74276e-02,-3.30890e-02,1.77238e-01,1.01243e-02,2.62675e-01,4.99550e-02,5.26908e-01,8.21631e-02,3.35797e-01,1.75469e-01,2.52247e-01,1.80235e-01,-9.49278e-02,-9.78250e-02,8.55488e-02,-1.41043e-01,4.05958e-01,-1.78177e-01,1.85038e-02,1.60975e-01,1.93956e-01,2.24603e-01,-9.76823e-02,-1.14731e-01,-1.73737e-01,-2.15812e-01,1.16968e-01,2.66535e-01,-1.34382e-01,6.48804e-02,3.19561e-10,1.07032e-01,1.48698e-01,-7.78844e-02,5.56141e-02,1.62978e-01,2.96636e-02,
2.43362e-01,2.33440e-01,1.03010e-01,1.58935e-02,-1.08893e-01,2.52386e-03,3.51314e-01,3.25423e-01,-3.24222e-02,1.43319e-01,-9.79474e-02,-8.35780e-02,-6.09145e-02,-5.91847e-02,-9.15885e-02,-1.54108e-01,-2.22255e-02,-2.24916e-01,2.31259e-01,-1.12102e-01,3.71736e-01,4.81231e-02,-4.11946e-01,-1.20991e-01,3.67691e-03,2.55743e-01,1.97079e-01,2.84134e-01,1.89687e-01,-1.67078e-01,-1.18589e-01,-2.44655e-01,-8.85642e-02,1.08498e-01,-3.76190e-02,-1.73561e-01,1.35594e-01,3.53792e-01,-1.91178e-02,-1.38317e-01,-4.78121e-02,3.96349e-01,1.50565e-01,1.21046e-09,2.09181e-02,-2.21225e-01,2.53416e-01,1.27010e-01,-2.28024e-01,3.49773e-01,
1.39114e-01,1.32958e-01,7.74529e-02,4.37884e-02,-1.31445e-01,2.50128e-01,-2.45869e-01,-8.48574e-02,2.67587e-02,-1.31038e-01,-1.63599e-01,1.80432e-01,8.26389e-02,-2.64420e-02,2.36208e-01,2.14971e-01,1.77633e-01,8.60942e-02,-1.98109e-02,1.61410e-02,-2.85267e-01,2.40403e-01,3.71495e-01,1.92244e-01,1.55730e-02,-6.11456e-02,-7.16632e-02,-1.27721e-01,1.90700e-02,3.45578e-01,-1.14900e-01,5.87024e-02,1.71069e-01,1.03024e-01,1.97586e-01,2.50932e-01,-3.13036e-02,-1.90703e-01,-6.78258e-02,3.22389e-01,2.39119e-01,-2.81015e-01,-3.00933e-02,-3.53357e-09,-6.98895e-03,-6.46447e-02,1.66472e-02,-4.37918e-02,4.14846e-01,-2.33312e-01,
-3.70860e-02,2.36716e-01,4.56616e-02,-1.41926e-02,3.71603e-01,-3.79308e-01,3.44704e-01,2.62462e-01,-2.07645e-01,1.63841e-01,3.59200e-01,-1.33066e-01,1.99489e-01,1.48816e-01,2.00984e-01,-1.79680e-01,6.70776e-03,-4.74165e-01,-1.25704e-01,-1.45558e-01,-5.92828e-02,-3.40178e-01,2.08359e-02,1.63783e-02,-2.78765e-02,1.09705e-01,1.83612e-01,8.52494e-02,3.65751e-01,-2.16753e-01,4.31504e-01,2.23521e-01,1.24456e-01,-3.57704e-01,-2.61601e-01,-2.74373e-02,1.60784e-01,5.46511e-01,3.20306e-01,-3.67527e-01,-6.05745e-02,6.00647e-02,2.47794e-01,-3.00288e-11,1.69317e-01,2.92030e-01,6.67458e-02,8.39555e-02,-7.65063e-02,2.06770e-01,
2.39407e-01,-3.19204e-02,4.04341e-02,1.99571e-01,-5.23714e-01,3.13708e-02,-3.98230e-01,-2.30993e-01,-8.80955e-02,-2.95700e-02,-7.31414e-02,2.87544e-01,3.90865e-02,-4.90850e-02,-4.60101e-02,-3.55193e-02,2.14378e-01,-8.96858e-02,1.59381e-01,-6.23361e-02,1.74620e-02,1.89986e-01,-3.77054e-01,-8.05172e-02,-1.27767e-01,-6.31983e-02,-2.51306e-02,-1.76140e-02,6.75074e-02,8.36501e-02,-5.38805e-02,-1.08276e-01,-7.46411e-03,3.82947e-01,1.02739e-01,6.61188e-02,-2.06415e-01,-4.68343e-01,1.10739e-01,4.93537e-02,-1.01181e-01,-3.01210e-02,1.26090e-01,1.26391e-19,2.79522e-02,-3.81052e-01,1.73726e-01,-1.85604e-02,1.85429e-01,-8.41625e-02,
-1.18362e-03,
4.39086e-02,
1.32086e-01,
4.49712e-03,
6.85160e-02,
7.87771e-02,
1.64910e-01,
4.26870e-02,
3.83598e-02,
-7.72274e-02,
1.07002e-01,
2.08519e-02,
-6.61142e-02,
1.37003e-02,
3.06455e-01,
-1.12586e-01,
-9.15431e-02,
-1.42632e-01,
-9.36469e-02,
1.33082e-01,
1.40245e-01,
-3.91271e-02,
-4.65300e-02,
-5.00303e-05,
-3.46849e-02,
1.10369e-01,
-5.26395e-02,
-5.98804e-02,
-3.09954e-02,
-3.77142e-02,
-2.44560e-02,
7.99227e-02,
9.14210e-02,
2.43254e-01,
8.00883e-02,
1.54795e-01,
1.01787e-01,
-1.56059e-01,
3.09654e-01,
3.45604e-02,
-8.82998e-02,
7.84118e-02,
-1.07849e-01,
5.18588e-03,
-4.36279e-02,
5.67805e-02,
1.14585e-01,
-6.46674e-02,
1.67281e-01,
6.91797e-02,
-4.02402e-01,7.59134e-02,-3.04565e-02,3.55412e-01,-1.36720e-01,1.66251e-01,1.96068e-01,6.97511e-02,-1.54630e-01,2.84680e-01,-1.15813e-01,-3.07143e-01,8.36254e-02,-6.28588e-02,-7.24521e-02,-1.75461e-01,-4.97243e-02,6.35952e-02,-5.02068e-01,-5.10941e-01,1.70476e-01,-5.77742e-02,-1.12239e-01,-1.58535e-17,-5.13145e-01,-7.27879e-02,2.18893e-01,2.69483e-01,1.67660e-01,3.89000e-01,-1.02607e-04,-5.48885e-01,-3.82151e-01,3.10573e-01,6.38171e-02,-4.54333e-01,-3.48910e-01,-6.96553e-01,1.83311e-01,1.59196e-01,-6.13743e-04,1.87433e-01,2.16483e-01,3.50018e-01,-5.05533e-01,-2.16585e-02,-9.06021e-02,-6.13080e-03,-5.80426e-01,-3.20807e-01,
6.02126e-02,-6.12072e-01,1.61295e-01,-1.34751e-01,7.25150e-03,-2.92960e-02,-4.90768e-01,-1.88509e-01,-9.20958e-01,-1.16236e-01,-9.14811e-02,2.27768e-01,9.10606e-02,2.36872e-01,-1.81283e-01,1.35433e-01,1.51184e-01,8.57682e-02,1.14169e-01,1.45330e-02,-3.15137e-01,3.30428e-01,-9.03299e-02,6.38198e-39,2.19491e-01,1.47507e-01,5.14941e-02,9.25935e-02,1.77490e-01,-4.09435e-01,-2.65787e-03,-1.41831e-01,-4.62893e-02,-2.11254e-01,8.28292e-02,-2.70886e-01,-1.76708e-01,-3.69443e-01,-2.90138e-01,1.36099e-02,2.29111e-02,-6.95168e-02,2.43436e-01,-3.53002e-02,3.97069e-03,1.22527e-01,-1.59174e-01,2.34561e-01,-1.20948e-01,-2.07178e-01,
2.96396e-01,-3.04432e-01,-1.45526e-01,-5.96262e-01,2.55097e-02,2.58814e-01,-2.48533e-01,-6.65912e-02,-2.05988e-01,-3.45550e-01,3.09705e-01,3.57117e-01,2.54713e-01,3.17792e-01,-3.39833e-01,2.45506e-01,-2.99232e-01,-2.02170e-02,4.94165e-02,-5.07130e-02,3.10919e-01,2.34702e-01,1.00412e-01,4.40490e-39,9.38851e-02,-2.35773e-01,1.00624e-01,-2.62773e-01,-3.70828e-01,-1.22718e-01,-2.03838e-07,5.40519e-02,1.90615e-01,-2.84596e-01,2.74520e-01,1.02928e-02,7.64066e-02,3.14504e-01,-4.51559e-01,-8.72297e-01,-2.50682e-01,-8.77599e-03,-2.56509e-01,-6.35076e-01,9.89509e-02,-6.19939e-01,2.85363e-01,-3.24266e-01,3.06919e-01,-2.90909e-01,
-1.00142e-01,3.79511e-01,-6.49577e-01,-9.77030e-02,-5.98830e-01,2.28870e-01,2.66078e-01,1.89119e-01,1.56763e-01,-2.77481e-01,-3.33215e-01,-1.22318e-01,1.42815e-01,-3.56017e-01,2.59916e-01,-5.02366e-01,-3.40345e-01,-4.15102e-01,2.22470e-01,2.78312e-01,-3.64569e-01,-1.35379e-01,-4.93296e-01,-2.91738e-40,1.99144e-01,-3.59487e-01,-2.93499e-01,2.36829e-01,-1.09656e-01,2.12697e-01,-3.50513e-05,1.52794e-01,-1.29463e-02,-4.19449e-01,-6.52764e-01,2.27390e-01,9.56129e-02,2.48257e-01,-1.78035e-01,-1.07437e-01,-4.03606e-01,-6.20730e-01,-1.17787e-01,1.76278e-01,1.37311e-01,2.50060e-02,-4.80784e-01,2.30945e-01,5.06436e-02,1.77814e-01,
-3.81837e-01,-7.06456e-02,3.13633e-01,-4.31750e-01,4.66862e-01,-1.31506e-01,-4.26706e-01,-4.52194e-01,2.41393e-01,-2.50739e-01,-3.51153e-01,-1.13400e-01,-5.30921e-01,6.49692e-02,4.17051e-01,-4.59888e-01,-3.37717e-01,-1.13811e-01,-2.35802e-01,-5.66679e-02,2.33497e-01,-2.74850e-01,2.58391e-01,5.61824e-39,-3.60329e-01,4.25728e-01,-6.46970e-01,-3.51446e-01,1.61672e-01,-2.80883e-01,5.82711e-06,-3.54833e-01,-4.59863e-01,4.14028e-01,1.57953e-01,-3.76217e-01,-5.48545e-01,3.42820e-01,3.63574e-01,-5.95958e-02,-3.48309e-01,-4.94757e-02,-4.30910e-01,-3.60313e-01,-4.64332e-01,9.22025e-02,2.40490e-01,-3.28884e-01,-2.08634e-01,-3.90228e-01,
-2.20826e-01,-1.58117e-01,6.09088e-02,1.47510e-01,-6.22122e-02,-2.80544e-01,3.16391e-01,2.06412e-01,3.60731e-01,3.20553e-01,1.96533e-01,-2.90991e-01,-6.56791e-02,7.44966e-02,3.47833e-01,-7.03359e-02,1.24481e-01,7.10787e-02,-1.93409e-01,-8.48738e-01,1.65837e-01,-1.22856e-01,-3.13951e-01,3.60062e-39,-9.30723e-02,-3.57650e-01,7.36853e-02,1.33408e-01,-4.01880e-01,6.97000e-02,1.36203e-05,3.71800e-02,1.36465e-01,-5.90869e-01,-4.31961e-02,-2.90769e-01,3.00701e-02,2.74517e-01,2.34936e-01,-9.67931e-01,2.31377e-01,-1.71501e-01,-3.47456e-02,2.49452e-01,6.96912e-02,-7.18511e-03,2.54942e-01,-5.95399e-02,-2.39372e-01,3.50941e-01,
1.03578e-01,-1.00040e-01,1.48306e-02,2.74611e-02,9.40240e-02,-1.95491e-01,2.57588e-01,9.34589e-02,-2.22578e-02,-4.07692e-01,-2.37385e-01,-2.43991e-01,-1.41822e-01,-5.43726e-01,-5.54690e-01,1.94924e-01,2.33688e-01,-3.44433e-01,2.46471e-01,2.31466e-01,-2.04681e-01,-2.70696e-01,5.33255e-01,6.80941e-39,-7.56689e-02,-1.52288e-01,6.18592e-02,-1.94873e-01,2.39440e-01,-2.00501e-01,1.96830e-07,1.74532e-01,9.04645e-02,2.77584e-01,-5.58499e-02,1.71331e-01,1.74145e-01,-9.28005e-02,-1.09212e-01,-5.41556e-02,-2.28889e-01,-2.25945e-01,-4.24457e-02,-1.07200e-01,3.34125e-02,1.96933e-01,-2.60674e-01,1.25851e-03,9.02401e-02,-1.22156e-01,
5.10184e-02,
-1.57205e-01,
7.08965e-02,
-7.52146e-02,
3.59038e-02,
-9.37836e-02,
5.44463e-02,
