// Neural Network File Format by Kyle Julian, Stanford 2016
2,100,10,200,
100,200,10,
0,
0,0,0,0,0,0,0,0,0,0,0,0,0,0,0,0,0,0,0,0,0,0,0,0,0,0,0,0,0,0,0,0,0,0,0,0,0,0,0,0,0,0,0,0,0,0,0,0,0,0,0,0,0,0,0,0,0,0,0,0,0,0,0,0,0,0,0,0,0,0,0,0,0,0,0,0,0,0,0,0,0,0,0,0,0,0,0,0,0,0,0,0,0,0,0,0,0,0,0,0,
255,255,255,255,255,255,255,255,255,255,255,255,255,255,255,255,255,255,255,255,255,255,255,255,255,255,255,255,255,255,255,255,255,255,255,255,255,255,255,255,255,255,255,255,255,255,255,255,255,255,255,255,255,255,255,255,255,255,255,255,255,255,255,255,255,255,255,255,255,255,255,255,255,255,255,255,255,255,255,255,255,255,255,255,255,255,255,255,255,255,255,255,255,255,255,255,255,255,255,255,
0,0,0,0,0,0,0,0,0,0,0,0,0,0,0,0,0,0,0,0,0,0,0,0,0,0,0,0,0,0,0,0,0,0,0,0,0,0,0,0,0,0,0,0,0,0,0,0,0,0,0,0,0,0,0,0,0,0,0,0,0,0,0,0,0,0,0,0,0,0,0,0,0,0,0,0,0,0,0,0,0,0,0,0,0,0,0,0,0,0,0,0,0,0,0,0,0,0,0,0,0,
1,1,1,1,1,1,1,1,1,1,1,1,1,1,1,1,1,1,1,1,1,1,1,1,1,1,1,1,1,1,1,1,1,1,1,1,1,1,1,1,1,1,1,1,1,1,1,1,1,1,1,1,1,1,1,1,1,1,1,1,1,1,1,1,1,1,1,1,1,1,1,1,1,1,1,1,1,1,1,1,1,1,1,1,1,1,1,1,1,1,1,1,1,1,1,1,1,1,1,1,1,
2.18085e-02,-1.36654e-02,-1.72818e-02,-5.27549e-02,-6.25522e-02,-8.28453e-02,1.95475e-02,1.49997e-02,8.21664e-02,-4.48480e-03,-9.89393e-02,8.03727e-02,-4.92067e-02,-7.05934e-02,4.60874e-02,4.10270e-02,-2.41069e-02,-5.14840e-02,3.16549e-02,-4.61524e-02,7.51455e-03,1.48969e-04,-6.12616e-02,-6.21819e-02,-8.92209e-02,-4.07101e-02,-3.50861e-02,-3.07638e-02,-4.93381e-02,-8.09188e-02,-3.57530e-02,5.00779e-02,-5.54748e-02,-6.18549e-02,5.05610e-02,3.70413e-02,-6.78096e-02,-4.24437e-02,-4.34683e-02,1.27401e-02,-6.08947e-02,3.07955e-02,8.54271e-02,-2.73703e-02,-4.02805e-02,5.02323e-03,4.46155e-02,1.62672e-02,-2.80895e-02,-9.24384e-02,-6.35458e-02,-9.53663e-02,7.83260e-02,-9.25494e-02,-6.45654e-02,1.57468e-02,-9.41106e-02,-9.65363e-02,5.54288e-02,-7.74350e-02,7.01988e-02,9.79434e-02,1.32771e-02,-8.73589e-02,4.62056e-02,-7.68675e-02,-6.73358e-02,-5.52912e-02,-3.73379e-02,-9.39826e-02,-7.35534e-02,5.87241e-02,5.87945e-02,-9.39281e-02,6.28910e-03,6.63444e-02,8.42187e-02,7.31898e-02,-3.26569e-02,-2.71629e-02,6.17785e-02,-5.79304e-03,-1.13892e-02,-9.00358e-02,2.04401e-02,-6.50157e-02,-7.73860e-02,-4.83937e-02,-4.82726e-02,-1.06412e-02,-4.44435e-02,1.42296e-02,1.78533e-02,7.09779e-02,-2.24765e-02,4.53859e-03,-8.59135e-02,-8.18741e-02,2.53793e-02,9.30325e-02,
-4.63180e-02,-2.35003e-02,-8.06895e-02,4.97118e-02,-8.86894e-02,8.55036e-02,-3.50678e-02,-6.70240e-02,-9.36092e-02,-2.91708e-03,8.02738e-02,-3.33896e-03,-6.48015e-03,-9.05836e-02,-9.50312e-02,2.62902e-02,9.39500e-03,9.24809e-02,3.81001e-02,-8.86682e-02,-1.70237e-03,-1.97777e-02,5.74330e-02,9.80111e-03,-7.82293e-02,6.71550e-02,3.60833e-02,-6.01048e-02,2.71489e-02,4.60437e-02,1.19705e-02,-3.01875e-02,4.81149e-02,7.87805e-02,4.77541e-02,4.16181e-03,-7.30914e-02,-3.46299e-02,-5.90380e-02,5.37652e-02,3.43858e-02,-1.02093e-01,5.64882e-02,4.27151e-02,-4.70604e-02,4.42128e-02,-9.34806e-02,-7.73176e-02,-5.92140e-02,2.87937e-02,6.66886e-02,-8.03356e-02,1.91294e-02,-6.60014e-02,4.71119e-02,-1.83197e-02,4.47120e-02,1.76343e-03,-2.77079e-02,4.33514e-02,-5.10327e-03,-7.14354e-02,7.43702e-02,-6.98240e-02,-3.42545e-02,3.77843e-02,-2.83239e-02,6.51108e-02,-1.61582e-03,-7.56866e-02,2.95009e-02,3.19161e-02,-3.11853e-02,2.46729e-02,6.54693e-02,5.58787e-02,7.84490e-02,-6.39761e-02,2.75502e-02,2.12433e-02,8.86009e-02,-7.36060e-03,-9.84396e-02,-3.79650e-02,-3.79925e-02,-2.97513e-02,-8.38949e-02,6.99148e-02,-8.14619e-02,-1.80739e-02,7.61941e-02,-1.16632e-02,8.36243e-02,1.63701e-02,-8.74606e-02,5.77342e-02,-1.45943e-02,-7.48252e-02,6.71731e-02,2.36295e-02,
-9.50003e-02,-5.38336e-02,9.72510e-03,1.46399e-02,4.99360e-02,-4.26804e-02,-2.57054e-02,-7.88073e-02,7.79240e-02,-2.51615e-02,-9.32440e-02,-3.87230e-03,7.53611e-02,-5.53114e-02,5.76112e-02,-5.55817e-02,8.57310e-02,1.12158e-03,7.39630e-02,-9.93122e-02,-5.96173e-02,-2.11372e-02,-4.95867e-02,-6.49889e-02,-8.84515e-02,6.27879e-02,4.67608e-02,-8.47836e-02,7.66517e-02,5.91783e-03,-9.37958e-03,-1.03349e-02,9.15294e-02,-8.44692e-02,-4.84422e-02,-3.44938e-02,-7.13098e-02,-2.36256e-02,-1.30116e-02,-3.83342e-02,2.47548e-02,-6.48204e-02,-7.60915e-02,-9.48143e-02,-1.01503e-01,1.30318e-03,-7.77613e-02,7.98179e-02,5.97533e-02,9.79571e-02,-9.89585e-02,6.07366e-02,4.97100e-02,7.84828e-02,-7.28843e-02,-4.05981e-02,5.78252e-02,3.61820e-02,1.35675e-02,5.24743e-03,1.07915e-02,4.72050e-02,-3.26112e-02,5.64720e-03,5.06523e-02,-9.12277e-02,-2.73209e-02,-9.13104e-02,6.43148e-02,1.12869e-02,9.17225e-02,8.70059e-02,-4.25497e-02,7.42499e-02,-2.56497e-02,-3.98353e-02,-2.25788e-02,-2.27369e-02,-7.56048e-02,8.28875e-02,-1.91208e-02,-1.99872e-02,3.99995e-02,4.77303e-02,-6.87300e-02,-3.08784e-03,2.94461e-02,1.72373e-02,8.74970e-02,-2.99412e-02,3.60913e-02,5.85223e-02,-4.23531e-02,-9.67830e-03,-8.78587e-02,-9.73420e-02,4.31272e-02,7.20342e-03,7.26585e-02,2.02308e-02,
-9.71250e-02,-6.31759e-02,5.32774e-02,-7.05950e-02,-3.84156e-02,-4.58885e-03,9.91804e-02,4.25760e-02,-7.98314e-02,1.50791e-02,5.60067e-02,-6.00614e-02,-4.04813e-02,-7.33722e-02,1.82270e-02,-6.07211e-02,-6.76904e-02,-9.08137e-02,-5.09926e-02,-2.59834e-02,-6.07451e-02,2.73709e-02,8.75395e-02,1.93007e-02,-2.59426e-03,2.92400e-02,4.36659e-02,6.26289e-02,8.36012e-02,1.46773e-02,2.83121e-02,4.86695e-02,9.13980e-02,-2.68956e-02,3.41464e-02,-6.56044e-02,6.08925e-02,-6.90480e-02,5.42233e-03,-6.00229e-02,9.20361e-02,-4.60279e-02,-4.20375e-02,1.39012e-02,2.09843e-02,1.74409e-02,-9.49527e-02,-4.01321e-02,-1.71705e-02,6.90271e-02,-2.90754e-02,1.14228e-02,-3.00419e-02,-2.91014e-02,1.15060e-01,-7.45626e-02,5.09160e-02,-5.53540e-02,-4.37382e-02,-7.29153e-02,-2.23467e-02,6.28172e-02,-2.56852e-02,-1.25683e-01,-1.00280e-01,-5.22181e-02,6.73244e-02,4.03099e-04,9.48456e-02,-1.55485e-02,-7.11790e-02,-5.35170e-02,-2.08021e-02,-4.72970e-02,3.59956e-02,-3.64435e-02,1.24556e-02,-2.70048e-02,-1.86861e-02,5.89292e-02,8.34408e-02,-8.54745e-02,8.69436e-02,1.03631e-01,-4.98339e-03,-2.08227e-02,-5.55186e-02,7.89674e-04,-6.98941e-02,3.55343e-02,-9.31345e-02,-1.17045e-02,-5.18895e-02,-8.09960e-02,7.10908e-02,8.64908e-02,2.73683e-02,7.84360e-02,2.15982e-02,9.44885e-02,
-4.92421e-02,3.66553e-02,-6.95727e-02,-5.89277e-03,-3.98020e-02,-2.47403e-02,3.12525e-02,-8.69562e-02,-8.02266e-02,-4.69715e-02,7.23874e-05,6.24039e-02,9.32315e-02,5.62484e-02,-2.73061e-02,3.27960e-02,4.61235e-02,-5.69354e-02,6.49439e-02,6.06198e-02,-5.27682e-02,8.17243e-02,3.14847e-02,3.36029e-03,2.93065e-02,-8.59015e-03,-8.01204e-02,-4.42591e-02,-8.76126e-02,8.46184e-02,-5.09291e-02,-9.55409e-02,-6.41875e-02,-7.13283e-03,-7.56907e-02,-6.69381e-02,-4.46437e-02,-4.06491e-02,5.70768e-03,5.22305e-02,3.83778e-02,-9.33379e-02,5.44648e-02,1.86370e-02,-1.01523e-02,-2.99893e-02,-7.70369e-02,9.25696e-02,2.43592e-02,-8.38840e-02,-9.67499e-02,7.91981e-02,-9.41823e-02,-2.84184e-02,-5.71872e-02,-8.37876e-03,5.95749e-02,-4.56658e-02,8.58183e-02,7.58811e-02,1.06773e-02,-7.83447e-02,-2.28751e-02,7.59609e-02,-1.04619e-01,1.68736e-02,-4.66557e-02,-9.25924e-02,8.30665e-02,5.54915e-02,-4.03176e-02,-8.88209e-02,4.25869e-02,9.00229e-02,5.55692e-02,-2.74140e-02,6.21514e-02,7.01051e-02,2.11864e-02,9.05296e-02,4.24773e-02,8.59041e-02,-2.94939e-03,8.58291e-03,-5.13078e-02,8.24339e-02,-6.75205e-02,7.97828e-02,-6.12381e-02,-2.20450e-02,8.70506e-02,-4.88839e-02,4.12264e-02,8.09162e-02,5.89023e-03,-1.01522e-02,-6.57681e-02,-1.70998e-02,8.42765e-02,7.35417e-02,
-8.21909e-02,3.23982e-02,-2.09490e-02,8.60273e-02,-2.08341e-02,-7.14075e-02,2.69879e-02,-4.22604e-02,3.40481e-02,-6.78332e-02,3.07867e-03,-2.08099e-02,-3.72736e-02,-9.12686e-02,1.61674e-02,-1.11160e-01,1.47260e-02,5.41519e-02,5.07291e-02,-9.08946e-02,4.23107e-03,5.89868e-02,-2.44065e-02,-2.93483e-02,-9.23156e-04,5.03464e-02,6.32948e-02,8.07715e-02,3.80587e-03,6.61184e-02,-8.86944e-02,-1.55983e-02,-1.12698e-02,3.78636e-02,4.62591e-02,-3.84937e-02,-3.49414e-02,4.48308e-02,1.07626e-01,6.80321e-02,3.71479e-02,-5.71409e-02,1.22164e-03,2.16204e-02,8.11418e-02,-9.53241e-02,-2.96051e-02,4.25109e-02,5.61474e-02,2.95163e-02,-7.95242e-02,-3.46593e-02,-2.57943e-02,2.80351e-02,7.18182e-02,-3.84988e-03,-3.06689e-02,3.57252e-02,-4.16493e-02,7.69086e-02,2.51395e-02,-8.68787e-02,-9.80581e-02,5.26870e-03,-3.50982e-02,3.58815e-02,2.46079e-02,2.22710e-02,2.05574e-02,4.95722e-02,3.91420e-02,-9.73145e-02,-4.72706e-02,9.77282e-03,-2.90705e-02,-9.95216e-02,-1.92486e-02,-2.95473e-02,-2.89198e-02,-8.70737e-03,7.34932e-02,-3.12056e-02,-5.09012e-02,5.70815e-02,-9.23078e-03,-1.27502e-02,-1.01483e-01,5.76137e-02,1.85665e-03,8.68889e-02,-7.14818e-02,-6.30176e-02,-6.98358e-02,9.92089e-02,8.44682e-02,1.95914e-02,-3.38822e-02,-7.00704e-02,4.82854e-02,-2.43727e-02,
5.36340e-02,-9.64574e-02,2.34889e-02,9.01383e-02,-9.91700e-02,6.90941e-02,-8.31456e-02,6.72130e-02,3.98429e-02,-5.61429e-02,-7.31269e-02,-5.87639e-02,6.11503e-02,-1.30461e-02,-9.32496e-02,1.16524e-02,6.74554e-03,9.05297e-02,-5.22841e-02,7.35698e-02,-3.81493e-02,-5.05159e-03,-8.51590e-02,3.21205e-02,9.03790e-02,6.39254e-02,-6.42170e-02,-9.56288e-02,9.61824e-02,3.99848e-02,-2.86149e-02,-3.34438e-03,-3.33171e-02,8.76852e-02,-7.42717e-02,3.96490e-03,-1.02944e-03,3.64994e-02,-6.37991e-02,-9.27314e-02,7.11148e-02,5.26753e-02,7.78601e-03,-5.02119e-02,-1.54371e-02,-5.44623e-02,2.41294e-02,-8.00811e-02,-2.98247e-02,7.55570e-02,-9.89701e-02,3.76865e-02,-1.17126e-02,4.15505e-02,4.01878e-02,2.93634e-02,-5.01089e-02,8.83932e-02,-7.87273e-02,8.50543e-02,-2.53940e-02,4.29025e-02,-2.74506e-02,-8.05749e-03,2.77694e-02,1.25152e-02,-1.33781e-02,-5.23344e-02,5.49767e-02,1.62617e-02,8.58336e-02,-7.83791e-02,-3.74243e-02,-7.37802e-02,-1.62590e-02,-1.09032e-01,1.96038e-02,7.89694e-02,7.25070e-02,9.10113e-02,9.41559e-02,2.85060e-02,5.23968e-02,-2.86744e-02,-8.75500e-02,-3.16977e-03,-7.95762e-03,-4.12581e-02,6.84685e-02,-4.72710e-03,3.90511e-02,-6.21898e-02,4.80474e-02,7.23547e-03,6.86794e-02,8.84529e-03,1.19582e-02,6.20652e-02,2.05430e-02,-5.86307e-02,
-6.09661e-02,8.57825e-02,-8.20541e-02,6.02175e-02,4.89550e-02,5.01269e-02,3.63992e-02,-9.88087e-02,-6.14790e-02,9.02042e-02,-4.09514e-02,-4.56132e-02,-5.25374e-02,8.90123e-02,4.77509e-02,6.42149e-02,9.70219e-02,3.48508e-02,3.12996e-02,2.08586e-02,-5.76399e-02,-6.93961e-02,-4.25406e-03,-4.40258e-02,-3.59195e-02,6.46517e-02,5.52080e-03,-3.50473e-02,3.07944e-02,-1.93018e-02,6.83000e-02,3.54504e-03,7.06986e-02,2.54877e-02,-2.26890e-02,4.07079e-02,5.79054e-02,-6.90860e-03,-9.48854e-03,-5.05166e-03,8.14014e-02,3.08342e-02,1.24778e-02,-1.41175e-02,7.68182e-03,1.04397e-01,3.58390e-02,1.01017e-01,-1.90462e-02,-5.91070e-02,-8.51655e-02,-7.30298e-02,4.97181e-02,-4.86335e-02,2.98077e-02,-4.59561e-02,-9.95983e-02,1.13825e-02,-9.46645e-02,-1.12932e-02,-8.95301e-02,-3.68372e-02,-6.85175e-02,3.58634e-02,2.43834e-02,-4.15200e-03,5.41699e-03,-7.69470e-02,-9.12035e-02,2.20333e-02,-1.66450e-02,-7.71617e-02,-1.53245e-02,1.48392e-02,3.34057e-02,-4.27972e-02,5.30928e-02,-2.39296e-02,-9.70570e-02,-2.84806e-02,-3.78604e-02,7.19835e-02,-1.42242e-02,2.87412e-02,-2.12104e-02,6.90125e-02,2.59720e-02,-1.60957e-02,-4.11913e-02,-2.83609e-02,3.07266e-02,-6.30525e-02,8.12481e-03,-3.87289e-02,6.06732e-02,1.26237e-03,-5.42678e-02,-9.03270e-02,8.00086e-02,-2.86415e-02,
-1.14216e-02,-8.18435e-03,9.13051e-02,-6.90903e-02,8.76553e-03,-4.84506e-02,6.62202e-02,-9.03101e-02,6.79047e-02,-7.20880e-02,5.84555e-02,-9.52838e-02,-2.11428e-02,4.45747e-02,2.07071e-02,4.13610e-03,5.24683e-02,4.73154e-02,-5.65173e-02,-8.77732e-02,5.74232e-02,4.58555e-02,-3.62072e-02,-1.72854e-02,-5.68345e-02,1.76849e-02,-5.46892e-02,-3.92177e-03,-7.64940e-02,-4.90662e-02,6.78975e-02,8.10133e-02,1.16116e-02,-5.93540e-02,3.15880e-02,-5.09259e-02,-5.80909e-02,5.84242e-02,-1.89410e-02,-7.04614e-02,-3.79303e-02,-8.24937e-02,-3.82060e-02,2.65219e-02,-9.77380e-02,-5.38279e-02,-1.66514e-02,4.62944e-03,3.86436e-02,1.58689e-02,-8.46338e-02,-6.95468e-02,6.00205e-02,3.07598e-02,3.20256e-02,8.19607e-02,3.51967e-02,-4.45808e-02,4.94152e-02,7.61402e-02,-3.02365e-02,-7.96772e-02,-8.93687e-02,-2.21301e-02,8.56753e-02,2.88673e-02,-9.57652e-02,4.49544e-02,-4.39044e-02,7.28730e-02,3.09464e-02,-3.85668e-02,-6.47699e-02,-5.01501e-02,-1.59094e-02,6.67121e-02,-3.82058e-02,-4.38516e-02,8.10919e-02,-6.60664e-03,5.93993e-02,-9.28374e-02,-9.09630e-02,9.22209e-03,5.18803e-02,3.76493e-02,-1.63815e-02,5.39267e-02,-4.99776e-02,-8.42536e-03,2.90141e-02,-2.08496e-02,-7.14870e-02,-4.01869e-02,-6.60427e-02,-3.08644e-02,-7.38602e-03,1.00906e-01,8.27663e-02,4.89968e-02,
9.22172e-02,-7.91958e-02,6.31208e-03,-6.99184e-02,2.90005e-02,1.85323e-02,3.78895e-02,-6.65349e-02,-6.51590e-02,2.71506e-02,-9.30970e-02,-9.50310e-02,-9.18079e-02,7.15516e-02,1.61115e-02,6.51886e-02,-7.67977e-03,-4.93005e-02,9.14118e-02,-7.77021e-02,-7.12401e-02,6.26478e-03,-1.15766e-02,6.31498e-02,3.65283e-02,6.86464e-02,-6.99167e-03,5.36466e-03,5.93942e-02,-3.02899e-02,-5.18703e-02,6.77842e-02,-7.27603e-02,-3.85968e-02,-5.53070e-02,1.37009e-02,-2.95775e-02,4.47346e-02,-9.03668e-04,5.69592e-02,-7.20314e-02,-2.70423e-02,-1.51083e-02,7.13043e-02,-3.95892e-02,7.50763e-02,1.02006e-02,-4.03406e-04,-3.99271e-03,-5.38398e-02,-7.79418e-02,7.67625e-02,-4.42382e-02,-4.39482e-02,-2.27887e-02,1.54342e-02,6.28923e-02,7.35988e-02,4.08058e-02,-1.82644e-02,-2.21534e-02,6.70528e-02,-8.49670e-02,7.32776e-02,1.24523e-02,3.34088e-02,-6.50701e-04,4.17297e-02,-3.56480e-02,-8.68403e-02,-3.28583e-02,-5.47559e-02,-8.05446e-02,3.59569e-02,-6.85597e-02,-5.25441e-02,2.39433e-02,1.54198e-02,7.43382e-02,8.62382e-02,2.35657e-02,7.71274e-02,-7.52876e-02,-2.40016e-02,3.75264e-02,-3.27675e-02,1.72331e-02,-1.34238e-02,-5.90941e-02,6.61370e-03,2.73386e-02,-3.60107e-03,6.87133e-02,-3.90136e-02,-6.58239e-02,-4.56572e-02,-1.02773e-01,4.73618e-03,5.86377e-02,-9.01417e-02,
-5.82305e-02,7.06514e-02,1.05513e-02,-6.68121e-02,-5.31354e-02,2.94469e-02,-5.32272e-02,2.37951e-02,-9.18631e-02,-9.51171e-02,7.54898e-02,-8.51091e-02,-3.88323e-02,7.50289e-02,9.23730e-02,-1.93380e-02,3.15117e-02,1.95155e-02,5.12763e-02,-1.22397e-02,8.04052e-02,2.73633e-02,1.77965e-02,2.71504e-02,-1.34544e-02,7.40581e-02,-6.70042e-02,1.51606e-02,-2.31068e-02,-4.99268e-02,-5.27545e-02,6.29197e-02,7.30520e-02,-4.10702e-02,6.88020e-03,-1.77925e-02,-3.32412e-02,-5.67655e-04,-9.69013e-02,1.70775e-02,3.13926e-02,-3.66485e-02,-6.50076e-02,-4.70929e-02,-1.48541e-02,1.19060e-02,6.33499e-03,-2.30002e-02,5.41862e-02,5.94190e-02,5.94348e-02,-2.58513e-02,9.04596e-02,-5.55268e-02,-2.68916e-02,-7.58949e-02,7.75766e-02,9.10877e-02,-3.11123e-02,-2.00438e-02,-5.11043e-02,8.30881e-02,4.76157e-02,5.33828e-02,4.33764e-02,-4.00269e-02,6.77990e-02,-2.68345e-02,-8.42508e-02,3.88523e-02,3.92192e-02,-8.84138e-02,2.55884e-02,-7.47619e-02,1.78739e-02,7.76378e-02,9.51315e-02,-1.79115e-02,8.89657e-02,3.50081e-02,2.92253e-02,4.66177e-02,-5.43835e-02,6.21427e-02,-1.06797e-02,-5.43625e-03,8.49397e-02,-6.17810e-02,6.44905e-02,9.75904e-03,-8.25090e-02,1.37184e-02,-1.15259e-02,8.78196e-03,2.19871e-02,-4.88978e-02,-3.09218e-02,4.91572e-03,9.68970e-02,-8.14381e-02,
-3.92108e-02,8.65574e-02,3.76928e-02,-9.83428e-02,7.34850e-02,-2.17601e-02,-5.79770e-02,5.97360e-02,-6.28546e-02,-7.85753e-03,1.10802e-02,-6.23603e-02,9.12941e-02,2.51483e-02,9.40202e-02,6.33019e-02,-1.50852e-02,-3.70748e-02,7.49096e-02,2.52770e-02,-1.57164e-02,4.05799e-02,-6.80338e-02,-4.33574e-02,-3.18875e-02,2.83785e-02,-4.14413e-03,2.26901e-02,-4.49627e-02,8.02478e-03,1.61898e-02,-7.97565e-02,8.37881e-02,-7.23835e-03,3.70568e-02,6.49999e-02,-6.68182e-02,-6.31745e-02,-1.98093e-02,3.71312e-03,7.38735e-02,-3.01274e-02,5.29710e-02,-5.89026e-02,3.55795e-02,-8.51411e-02,4.99160e-02,5.10089e-02,-4.20475e-02,3.76848e-02,8.87113e-02,-7.73822e-02,9.98199e-02,-7.25117e-02,-9.00246e-02,-9.05924e-02,-1.32123e-02,6.34525e-02,-9.87948e-03,-4.11091e-02,-5.14104e-02,4.54493e-02,7.58877e-02,6.25418e-02,5.57322e-02,8.26851e-02,2.50525e-02,-5.68044e-02,7.84207e-02,6.20507e-03,3.64959e-02,-1.29161e-02,-6.51881e-02,3.80186e-02,-4.72168e-02,-8.22840e-02,-2.08050e-03,1.91068e-02,5.25002e-02,-6.00061e-02,5.60820e-02,-3.08887e-02,-4.20375e-02,1.13577e-03,-6.43786e-02,-1.55488e-03,-4.12863e-02,-8.47219e-02,6.10999e-02,7.93284e-02,5.73674e-02,4.23431e-02,1.14122e-03,2.22872e-02,-2.44676e-02,9.39752e-02,-4.54563e-02,4.43488e-02,8.78012e-03,-7.92224e-02,
-6.05344e-02,9.39792e-02,9.59482e-02,6.47928e-02,-4.72538e-04,-8.10615e-02,-6.64506e-03,-4.83385e-02,4.70396e-02,2.10143e-02,-2.70647e-02,1.96572e-02,-2.38207e-03,-5.25191e-02,-5.90907e-02,-8.78137e-02,6.23737e-02,8.17004e-02,6.67313e-02,-1.00094e-01,4.83882e-02,3.19846e-02,2.97674e-02,2.24371e-03,-1.00791e-01,-1.88154e-02,3.13983e-02,4.15167e-02,-5.24839e-02,9.03430e-02,8.98436e-02,-2.19691e-02,3.73477e-02,-2.06213e-02,-8.74700e-03,1.89871e-02,3.96260e-02,2.66232e-02,-7.61737e-02,4.49752e-02,9.39672e-02,-4.62355e-02,-7.67739e-02,-2.93123e-02,1.24497e-02,-1.72364e-02,-3.43799e-02,-6.07871e-02,2.24269e-02,6.51569e-02,1.02693e-02,-3.16410e-03,4.59486e-02,-1.98087e-02,-9.09185e-02,-2.66467e-02,-2.24729e-02,-3.31077e-03,4.90402e-02,-6.72171e-02,1.07213e-02,-2.66088e-02,4.40309e-02,3.65740e-02,3.98271e-02,-1.32666e-02,6.86165e-02,-9.04178e-02,-3.12513e-03,1.63697e-03,9.71390e-02,-1.29884e-02,-3.81633e-03,9.60549e-02,-4.95232e-02,5.65731e-02,7.43763e-02,6.89429e-02,-2.55865e-03,-4.20659e-02,1.43981e-02,-4.87012e-03,4.04005e-02,9.13627e-02,2.14255e-02,-2.74174e-02,7.01316e-02,-6.03551e-02,5.28685e-02,3.91833e-02,9.75204e-02,-2.43420e-03,-6.58853e-02,-8.57781e-03,-1.00807e-01,-3.28601e-02,-9.89473e-02,-1.78495e-02,-8.57714e-02,-5.51324e-02,
9.85198e-02,1.60986e-02,-4.01196e-03,9.08381e-02,8.30240e-02,-1.10968e-02,-4.33364e-02,5.45246e-03,-7.29154e-02,-4.70431e-02,-3.62244e-02,-5.44496e-02,8.18250e-02,3.49067e-02,-8.10304e-03,5.00713e-02,-8.98070e-02,-8.82219e-02,2.91839e-02,2.55832e-03,-6.10886e-02,7.21083e-02,5.55899e-02,3.91018e-02,-3.18827e-02,1.01913e-02,2.93576e-02,-2.06525e-03,4.78730e-02,-6.57095e-02,-8.33895e-03,7.12014e-02,4.32344e-02,8.74052e-02,-9.29789e-02,3.43652e-02,7.08116e-02,8.70941e-02,-6.43775e-02,-8.88890e-02,-6.74453e-02,9.21600e-02,-8.30247e-03,3.27113e-02,-1.02100e-01,-5.46895e-02,6.53687e-02,-7.02574e-02,8.47503e-03,-5.75997e-02,9.44672e-02,1.21164e-02,2.91837e-02,-5.27899e-02,-8.84987e-02,-8.06397e-02,-3.41511e-02,3.59722e-02,-1.82757e-02,-8.63115e-02,-1.32108e-02,8.37420e-02,2.23500e-02,6.05738e-02,3.90758e-02,-1.08476e-01,-5.10532e-02,1.10224e-01,-4.38555e-02,5.31778e-03,1.19976e-02,6.34672e-02,-8.02761e-02,-6.49062e-02,2.10040e-02,-2.78325e-02,3.15001e-02,-2.03123e-02,8.02411e-03,7.62362e-02,-1.88863e-02,2.67031e-02,-3.89479e-02,1.49033e-03,2.27366e-03,4.80749e-02,3.40410e-03,-1.95953e-02,-7.27078e-02,-6.95850e-02,1.17499e-02,3.83715e-02,4.51047e-02,-6.61323e-02,2.09624e-02,3.94910e-02,-6.53971e-02,8.94741e-02,-2.03744e-02,7.70535e-02,
-2.84916e-03,6.84618e-02,-6.12467e-02,-6.29724e-02,-8.88686e-03,-4.61305e-02,1.76882e-02,5.07782e-02,4.47279e-02,-4.07340e-02,1.59942e-02,1.34602e-02,-4.25737e-02,-6.83778e-02,4.66329e-02,-4.34775e-02,1.20906e-02,-4.18359e-02,-4.16715e-02,4.01491e-02,7.97027e-02,7.37134e-02,-6.59305e-03,-3.97621e-02,2.59225e-03,1.50247e-02,5.75476e-02,3.03049e-02,5.91870e-02,-6.85921e-02,-9.47968e-02,-7.34530e-03,-7.47618e-02,-5.97159e-02,4.04922e-02,4.24182e-02,-3.93568e-02,8.34935e-02,-4.40175e-02,-2.87582e-02,2.98490e-02,-2.49952e-02,-1.15668e-02,6.24174e-02,8.51126e-02,-6.11731e-02,-3.64836e-03,-1.90937e-02,8.45618e-03,8.66770e-02,1.24238e-02,6.55878e-02,2.13515e-02,1.03303e-01,-2.44589e-02,-7.25052e-02,-3.59365e-02,3.94891e-02,-1.01862e-01,-6.11956e-02,1.69772e-02,6.68403e-03,-7.86380e-02,7.09548e-02,-7.22208e-02,9.45898e-02,6.76882e-02,3.56205e-02,6.87972e-02,-8.77519e-02,7.01330e-02,6.73444e-02,-1.01122e-02,-2.42469e-02,2.83315e-03,-4.07879e-02,-9.86616e-02,9.83174e-03,5.55122e-02,9.34990e-02,-8.71290e-02,2.12538e-02,-8.04781e-02,-2.33507e-02,-5.50902e-02,1.86059e-02,3.02300e-02,4.51068e-02,6.32247e-02,-3.99393e-03,-7.38317e-02,6.80463e-02,5.95923e-02,-3.41298e-02,-9.96808e-02,5.05982e-02,5.41325e-02,1.34734e-02,-7.12655e-02,-5.32127e-02,
-5.90807e-02,5.21114e-03,-6.05839e-02,2.51335e-02,-1.99252e-02,3.67478e-02,1.78103e-02,-4.53670e-02,-6.50532e-02,-5.57772e-02,2.79928e-02,-9.72258e-02,-8.50781e-02,-6.18115e-02,1.46017e-02,1.40924e-02,-3.04033e-02,-8.25523e-02,-6.00340e-02,3.92029e-02,4.17293e-03,-5.76780e-02,9.63329e-02,2.20584e-02,-6.86205e-02,1.15972e-02,1.95604e-02,-1.14428e-02,-5.10952e-02,5.63120e-02,-7.88026e-02,5.62197e-02,-9.67354e-02,4.41063e-02,4.45845e-03,-3.75079e-02,8.64384e-02,9.09033e-02,1.00302e-01,-9.52343e-03,-6.45562e-02,8.27249e-02,6.02935e-02,-3.51564e-02,6.68427e-02,6.83383e-02,1.59426e-02,4.15710e-02,-7.31627e-02,6.16252e-02,-6.17723e-03,-6.25712e-02,-2.57799e-03,-4.28711e-02,-7.02145e-02,3.85911e-02,-4.31732e-02,6.74813e-02,-7.45881e-02,-9.83018e-02,-5.05109e-02,-2.15883e-02,-3.26881e-02,-5.81963e-02,7.83307e-02,7.47446e-03,-1.03305e-02,-6.43278e-02,-2.07696e-02,9.76792e-02,-5.77567e-02,-1.04782e-01,1.64028e-02,-8.78708e-02,2.72050e-02,-1.02752e-01,-1.11197e-01,-3.75511e-02,5.98089e-02,8.54175e-03,-9.58918e-02,6.38790e-02,-4.40906e-02,4.15821e-02,-2.29164e-02,-4.82311e-02,-9.78256e-02,-4.59476e-02,-7.62644e-02,6.65122e-02,-8.88114e-02,6.96904e-02,1.21609e-02,3.99811e-02,9.91622e-02,-4.24024e-02,5.26931e-02,6.26005e-02,5.18813e-02,-8.48117e-02,
1.75381e-02,-6.66258e-02,5.96120e-02,7.91823e-02,8.78947e-02,-5.58039e-03,5.40182e-02,8.90356e-03,-8.65828e-02,-1.91706e-02,7.79466e-02,-4.40122e-02,-7.16847e-03,-8.67821e-02,7.98274e-02,8.44726e-02,-4.12254e-02,2.58593e-02,8.54314e-02,-8.10501e-02,-3.73893e-02,4.57471e-02,-4.15582e-02,6.05196e-02,5.99288e-02,-7.57494e-02,-2.91511e-02,-2.14630e-02,1.02295e-01,1.41786e-02,-5.98125e-02,6.67008e-02,-1.44140e-02,-8.27069e-02,7.82856e-02,-9.12376e-03,-3.22271e-02,-1.01328e-01,6.91388e-02,-4.92991e-02,1.70417e-02,6.57612e-02,-9.22267e-02,-2.31651e-02,-5.68635e-02,-7.18647e-02,6.28622e-02,-8.48976e-02,1.73396e-02,-2.25938e-03,4.66337e-02,7.05807e-02,-3.60761e-02,-7.42548e-02,-3.45179e-02,4.92820e-02,3.81438e-02,-8.49458e-02,-9.60303e-02,6.23528e-02,7.36483e-02,8.10069e-02,4.07603e-02,2.54062e-02,2.32354e-02,8.59234e-02,-5.77553e-02,2.50601e-02,3.93062e-02,7.84586e-02,-5.78253e-02,-6.90325e-02,-6.90555e-02,-3.28416e-02,-3.13573e-02,3.45538e-03,1.72957e-02,7.92550e-02,-6.23250e-02,-8.14096e-02,-2.59885e-02,2.72434e-02,-9.85486e-02,3.06596e-02,-9.07074e-02,-6.83290e-02,-5.47231e-02,-7.78834e-02,-1.41121e-02,-8.92640e-02,-2.65605e-02,4.79620e-02,1.30356e-02,-1.03728e-02,4.73695e-02,3.68293e-02,7.92935e-02,-9.83578e-02,-1.83666e-02,-7.54322e-03,
-4.56911e-02,-6.95492e-02,-6.70869e-02,-4.92238e-02,2.97930e-02,-4.65337e-02,8.07547e-02,-6.67152e-02,-3.62846e-03,-7.69628e-02,-2.50575e-02,-1.90477e-02,9.17544e-02,-7.57773e-02,9.20311e-02,1.34035e-02,1.01624e-01,8.08035e-02,3.39018e-02,-1.28546e-02,7.77544e-02,8.36603e-02,9.20017e-02,-3.42731e-02,-7.29524e-02,3.54814e-02,-6.16690e-02,-8.35928e-02,-1.02388e-02,8.19219e-02,-2.83722e-02,6.07238e-02,-8.40520e-02,4.33487e-02,7.55156e-03,-1.86862e-02,1.89599e-02,1.00444e-01,4.79067e-02,6.90606e-02,-7.89477e-02,-4.05189e-02,-7.83951e-02,-7.32021e-02,-1.43246e-02,2.75520e-02,5.44472e-02,-9.82861e-02,-7.61677e-02,9.15042e-02,-3.11365e-02,4.99374e-02,-7.14987e-02,-7.13262e-02,-7.36339e-02,-1.17706e-01,3.47127e-02,-2.39122e-02,-4.60756e-03,7.84566e-02,2.57854e-02,8.83085e-02,8.70066e-02,1.12638e-01,8.55452e-02,3.76172e-02,-4.75835e-02,8.76657e-02,-8.29312e-02,6.66698e-02,-4.45866e-02,4.96037e-02,-7.66741e-02,7.50887e-02,-7.43501e-02,5.63655e-02,-4.28867e-02,-3.88305e-02,3.64299e-02,6.29215e-02,-7.04153e-02,-3.65107e-02,-4.10837e-02,-7.22400e-02,-4.77526e-02,-4.87538e-02,8.37356e-02,-5.18702e-02,7.84442e-02,-4.00721e-02,-1.51745e-02,-4.61679e-02,4.19780e-02,7.02703e-02,-8.93688e-02,-8.11096e-02,-5.15672e-02,-3.15252e-02,3.77596e-02,2.03176e-03,
-3.15118e-04,-1.62942e-02,7.24881e-02,-6.80534e-02,-5.30005e-02,-3.23971e-02,-1.98204e-02,-5.37699e-02,7.81310e-02,3.04992e-02,8.73601e-04,-5.39098e-03,-2.53933e-02,5.72631e-02,1.55145e-02,-5.72731e-02,-8.92917e-02,-3.08589e-02,-7.56150e-02,9.55450e-02,-1.37090e-02,-4.52288e-02,3.95585e-02,-8.04942e-02,1.73118e-02,3.17100e-02,-6.36407e-02,-8.47409e-02,-8.29368e-02,6.30558e-02,-3.63344e-02,8.06499e-02,8.06064e-02,3.71350e-02,-2.89553e-02,-8.07718e-03,-5.66344e-02,-3.81118e-02,-4.52901e-02,6.85766e-02,-1.93092e-02,-3.93348e-03,-1.04563e-01,7.21088e-02,-1.00872e-01,2.48053e-02,2.91187e-02,2.59729e-02,1.46319e-03,-9.83469e-02,-4.11663e-02,-9.50921e-02,-3.08973e-02,-1.67596e-02,-8.33568e-02,-1.81529e-02,-6.01754e-02,2.34148e-02,6.71382e-02,6.67308e-02,3.46004e-02,5.71180e-02,1.89095e-02,-2.20316e-02,-5.73649e-02,3.04344e-02,5.72602e-02,7.25100e-02,1.07643e-01,-4.50909e-02,-2.37338e-02,-6.77580e-02,7.54294e-02,3.98288e-02,-5.06045e-02,-1.55935e-02,5.24868e-03,-4.59515e-02,7.52038e-02,-3.85267e-02,-2.50156e-03,-3.43584e-02,-4.92174e-02,-4.94957e-02,-1.00815e-01,-6.43954e-02,-1.54820e-03,-9.03383e-03,-5.87162e-02,7.69316e-03,-6.41293e-02,-7.01058e-02,7.89897e-02,2.17586e-02,-9.21023e-02,-4.90004e-02,8.67214e-02,-2.60828e-02,7.90483e-03,-5.31113e-03,
3.26327e-02,5.38310e-02,8.74928e-02,9.59994e-02,-6.17380e-02,6.17588e-02,1.76281e-03,-7.16972e-02,1.92419e-02,-3.80644e-02,1.65069e-02,-3.59517e-02,9.78033e-02,-8.47029e-03,-9.15902e-02,6.02110e-03,-1.57895e-02,9.07054e-02,3.29629e-02,8.57857e-02,4.58994e-03,6.75555e-02,-2.57969e-05,-6.06870e-02,-6.73379e-02,-7.57728e-03,-1.07484e-01,5.11363e-02,8.29779e-02,8.65010e-02,1.44515e-02,5.15913e-02,1.69343e-02,7.91418e-04,4.02697e-02,-3.48282e-02,-4.76669e-02,-1.92328e-02,5.96892e-02,-1.90960e-04,8.40185e-02,-4.63882e-02,-7.38424e-02,1.82073e-02,7.21183e-02,3.23060e-02,5.17915e-02,4.44652e-03,-6.81981e-02,-8.17138e-02,7.54382e-02,2.26089e-02,-3.73559e-03,-7.21226e-02,-1.54124e-03,5.76616e-02,5.37676e-02,3.28470e-02,-3.60135e-02,4.33877e-02,-4.61847e-02,-3.48307e-02,1.35222e-02,-8.73126e-03,-7.49598e-02,-9.42739e-02,6.04433e-02,-1.03380e-01,-8.04767e-02,2.24360e-02,3.97253e-02,-6.89642e-02,-9.02657e-02,6.42745e-02,-7.05165e-02,-1.09683e-01,6.37435e-02,7.57415e-02,-5.27521e-02,3.08233e-02,-1.97640e-02,-8.53452e-02,-4.99909e-04,4.00609e-02,5.50527e-02,-1.28318e-02,5.70949e-02,9.08272e-02,-3.50750e-02,-7.27939e-02,8.90093e-02,-4.61640e-02,-6.03966e-02,5.59106e-02,-3.84173e-02,-3.24215e-02,3.28505e-02,-6.16957e-02,-1.35137e-02,8.94847e-02,
-2.85510e-02,-2.73741e-02,4.52523e-02,3.91279e-02,3.47626e-02,1.77194e-02,2.33303e-02,-6.04994e-02,-3.26186e-02,-8.37017e-02,-9.50000e-02,-6.31900e-02,8.90782e-02,-6.96087e-03,-1.08487e-01,3.75262e-02,-3.58610e-02,7.46704e-02,3.77550e-02,2.23815e-02,-6.88822e-02,4.39251e-02,6.14943e-02,1.85759e-02,1.67004e-02,-4.94289e-02,-8.29903e-02,1.94107e-02,9.20906e-02,-8.35925e-02,6.61312e-02,-3.07722e-02,6.82893e-02,-5.74507e-02,2.58235e-02,-1.06228e-01,3.88040e-02,1.00892e-01,-3.19686e-02,-3.69049e-02,8.42744e-02,-8.53032e-02,-2.53469e-02,-3.28305e-02,-1.17042e-02,2.92804e-02,4.11506e-02,1.15487e-01,6.13064e-04,-6.94131e-02,7.57199e-02,5.40635e-02,-7.74474e-02,-1.19317e-02,4.16261e-02,-7.42519e-03,6.83221e-02,-7.32534e-03,-5.51626e-02,-9.93079e-02,3.17262e-02,-7.24270e-02,-3.07643e-02,-1.27099e-02,-5.12917e-02,-4.25050e-02,-3.84441e-02,-1.06542e-02,-1.03202e-01,-7.69318e-02,-5.80087e-02,-4.21991e-02,-5.70097e-02,3.56622e-02,2.38453e-02,-6.89655e-02,-1.64809e-02,-3.87682e-02,-8.17024e-03,-3.37497e-02,9.23388e-03,7.25616e-02,-2.72120e-03,7.63798e-02,2.21413e-02,8.02589e-02,5.36804e-02,3.66062e-02,-8.53479e-03,-3.87750e-02,7.25107e-02,-5.22110e-02,-3.67981e-02,-9.29688e-02,-1.69224e-02,-2.88008e-02,4.27009e-02,-3.74224e-02,-4.39248e-02,6.81567e-02,
9.70439e-02,7.99187e-03,2.30169e-02,-9.08086e-02,-4.46948e-02,-5.22302e-02,-8.53244e-02,7.57324e-02,-8.87935e-02,-5.00432e-02,2.58003e-02,-5.10025e-02,-4.56255e-02,9.21118e-02,9.72622e-03,5.29411e-02,-4.71917e-02,-1.00551e-01,6.75224e-02,-7.45688e-02,4.99621e-02,9.37156e-02,9.40053e-02,-3.47452e-02,6.22344e-02,-3.50398e-02,5.26762e-02,3.71376e-03,7.47477e-02,-2.49728e-02,-4.72759e-02,-1.86535e-02,2.38261e-02,-2.02950e-02,4.77607e-02,7.76528e-02,4.74406e-02,-6.53712e-02,6.41589e-02,1.30902e-02,6.55776e-02,-5.15287e-02,-9.72563e-02,-3.89072e-02,-3.11207e-02,6.95074e-02,2.97263e-02,5.33509e-02,-1.01283e-01,5.28005e-02,9.56739e-02,6.61768e-02,-1.42322e-02,-5.65348e-02,6.96660e-02,3.62259e-02,8.66092e-02,3.25992e-02,-5.17244e-02,5.22608e-02,7.76469e-02,3.75260e-02,-8.53643e-02,3.45844e-02,-1.12911e-02,7.42607e-02,-3.24993e-02,1.61613e-02,-4.73207e-02,3.84529e-02,2.14532e-02,-3.06634e-02,1.21621e-02,-5.71676e-02,-4.03932e-02,-1.06641e-01,3.30603e-02,-2.24044e-02,4.63071e-02,8.75948e-02,-4.60071e-02,2.52367e-02,-8.01727e-02,-3.95966e-02,-1.67423e-02,-2.89367e-02,-3.90803e-02,-4.36921e-02,-8.81933e-02,-1.74663e-02,1.79699e-02,-5.06510e-02,8.00555e-02,2.20833e-02,1.92691e-02,4.78941e-02,-5.46307e-02,-2.25133e-02,-3.94513e-02,1.83799e-02,
-3.10448e-02,-6.77800e-02,-9.45871e-02,6.91709e-03,1.68575e-03,5.18633e-02,6.56983e-02,-4.98105e-04,-7.70194e-02,-2.88590e-02,8.79433e-02,5.76984e-02,7.60401e-02,-5.87860e-02,-8.59888e-02,5.38603e-02,8.03542e-02,2.08273e-03,-7.02589e-02,-7.09380e-02,4.53719e-03,-6.82675e-02,-2.40043e-02,1.63241e-02,6.91399e-02,3.48814e-02,-7.57517e-02,-4.74317e-02,6.00673e-02,-3.33374e-02,-3.46206e-02,2.66863e-02,2.21636e-02,-7.77555e-02,3.64711e-03,-7.03940e-02,4.99224e-02,6.81885e-02,1.04259e-01,1.08968e-01,9.37075e-02,4.99529e-02,7.92720e-02,-7.01781e-03,-7.58128e-03,-7.91248e-02,-7.92123e-02,-3.43531e-02,1.48374e-02,3.31554e-02,6.79850e-02,-7.49772e-02,-6.91643e-02,3.98403e-02,9.69317e-02,8.61413e-02,-3.14358e-03,-6.51252e-02,-3.57655e-03,-6.59500e-02,1.29437e-02,-1.83607e-02,5.15486e-02,-5.94672e-02,-3.09117e-02,-1.53685e-02,6.50652e-02,-8.75119e-02,3.56332e-02,4.49531e-02,3.21048e-02,-1.55958e-02,-6.34213e-02,9.26999e-02,5.03310e-02,1.01983e-03,-6.86145e-02,-6.42649e-03,-5.62172e-02,1.27470e-02,5.56051e-02,4.07501e-03,-1.83997e-02,-3.92883e-02,-3.76269e-02,1.02626e-01,1.76294e-02,2.60129e-02,8.94137e-02,-8.48036e-02,-7.44522e-02,3.29081e-02,-7.12117e-02,5.87975e-02,9.47834e-02,-6.29877e-02,8.86151e-03,1.56553e-04,4.55391e-02,4.85102e-03,
4.69506e-03,8.11714e-02,-4.45442e-02,6.73717e-02,9.04428e-03,-9.40571e-02,9.55736e-02,-1.90433e-02,-4.10314e-02,-2.19401e-02,-1.91191e-02,5.42903e-02,1.01591e-01,-5.97617e-02,-2.97659e-02,8.30756e-02,-9.16886e-02,2.50002e-02,-8.57820e-02,1.52204e-02,-7.75889e-03,8.66828e-02,-1.30098e-02,-9.77679e-03,7.28820e-02,-3.73906e-02,8.18728e-02,-7.05793e-02,-6.63505e-02,-4.11610e-02,1.58739e-02,2.97783e-02,-6.28611e-02,-2.99962e-03,-6.84347e-03,3.43052e-02,3.72885e-03,-3.72173e-02,-6.20690e-02,-1.13670e-02,4.81211e-02,-2.01803e-02,-5.31084e-02,1.00655e-02,7.52824e-02,-2.30602e-02,1.01596e-02,-3.41573e-03,-4.83298e-02,8.86203e-03,-5.45184e-02,-9.08795e-02,3.98420e-02,-4.72870e-02,-1.84991e-02,-1.04423e-01,-2.10572e-02,6.70327e-02,3.44814e-02,8.05331e-02,3.48578e-02,9.38037e-02,4.57470e-02,2.40519e-02,4.97321e-02,-3.01587e-02,-1.12637e-02,3.11360e-02,4.55117e-02,6.00349e-02,-1.10959e-02,-1.20368e-02,-4.51739e-02,-1.89072e-02,-2.98101e-02,-1.03153e-01,-3.00725e-03,4.91464e-02,1.05140e-01,1.67929e-02,-2.23785e-02,-7.88312e-02,5.63782e-02,6.87659e-03,3.92801e-03,-8.46312e-02,-1.49326e-02,-7.12438e-04,-3.51803e-02,1.25724e-02,2.51732e-02,-1.46744e-02,7.84774e-02,1.87944e-02,-9.86144e-02,3.19352e-02,-9.44669e-02,-3.70188e-02,7.86624e-02,7.48132e-02,
9.29033e-02,-7.31323e-02,-8.74745e-02,-6.21002e-02,6.53968e-02,8.74785e-03,-1.78648e-02,-9.46193e-03,6.94867e-02,3.09255e-02,-9.75759e-02,9.15745e-02,1.68306e-02,-1.03834e-01,3.04561e-02,-4.60266e-02,4.03272e-02,1.47181e-02,-1.99578e-02,-3.62592e-02,4.99212e-02,-4.30851e-02,-5.12440e-02,-6.43940e-02,2.84656e-02,-2.41992e-02,-7.01999e-02,-4.38989e-02,6.36834e-02,-6.38111e-03,-1.92211e-02,1.02289e-01,2.17936e-02,-6.70612e-02,2.06910e-02,-9.56188e-02,4.57927e-02,-2.32854e-02,5.76678e-02,2.88507e-02,-7.32529e-02,-2.27567e-02,8.34821e-02,3.18771e-02,7.74745e-02,-1.18589e-03,2.05269e-02,1.08447e-02,-3.57482e-02,-4.05076e-02,7.28819e-02,-6.75099e-02,-3.21487e-02,-6.67795e-02,6.63015e-02,7.42630e-02,9.66238e-02,-5.41822e-02,-1.59749e-02,5.15316e-02,1.42199e-02,-7.07182e-02,3.63467e-03,-4.84627e-02,-3.22797e-02,8.96041e-02,7.88916e-02,6.20299e-02,4.58714e-02,1.74759e-02,-6.40711e-02,-9.77680e-02,3.43209e-03,8.13576e-02,-5.28669e-02,3.72677e-03,3.97480e-02,-2.79340e-02,7.52077e-02,-8.11436e-03,-5.49509e-02,-1.94030e-03,-1.22577e-02,-5.83872e-02,-4.79501e-02,3.71866e-02,-4.94032e-02,-3.84896e-02,1.18668e-02,-1.70913e-03,1.04873e-02,-1.63786e-02,-1.60393e-02,-9.35144e-02,8.31384e-02,2.89330e-02,1.88046e-02,-3.72003e-02,-3.84114e-03,-9.07227e-02,
-5.94005e-02,-7.85249e-02,-3.04327e-02,-8.17083e-02,7.56980e-03,2.03017e-02,-5.27670e-03,7.22329e-02,5.11083e-02,9.33934e-02,7.60641e-02,8.71185e-03,4.33116e-02,-3.90174e-02,-4.66651e-02,-9.32309e-02,5.71049e-02,1.56673e-02,-7.73435e-02,-4.82288e-02,2.50457e-02,-9.67313e-02,-7.03998e-02,-8.39607e-02,4.15621e-02,-3.71174e-02,4.02269e-02,4.23047e-02,8.65364e-02,-4.27194e-02,4.32972e-02,3.71698e-02,6.55377e-02,-7.10858e-02,4.44191e-02,8.13829e-02,7.49814e-02,-6.55711e-02,5.88003e-02,-5.94036e-02,-6.70753e-02,-9.69270e-02,7.86973e-02,4.92984e-03,-7.66511e-02,-1.09139e-03,-9.56225e-02,-9.84359e-02,-3.91676e-02,-2.70252e-02,1.30506e-03,5.30295e-03,4.48104e-02,1.89683e-02,6.99390e-02,4.48346e-02,-7.09683e-02,5.18465e-02,-9.60098e-02,-4.98459e-02,-3.74147e-02,5.66206e-04,-4.64847e-02,-3.73317e-03,-1.21506e-02,6.16928e-02,-1.16344e-01,2.62532e-02,-8.84408e-02,3.67465e-02,-8.99137e-02,-9.93125e-02,-7.25610e-03,7.05241e-02,-4.01945e-02,2.67252e-02,-1.02995e-01,9.02491e-02,6.21993e-02,9.20705e-02,-2.04980e-02,6.39220e-02,1.70346e-02,-5.89120e-02,-2.55838e-02,-1.48251e-02,-7.74568e-02,-4.20238e-02,-6.65516e-02,-2.97304e-02,1.72438e-02,-6.12874e-02,-1.83096e-02,6.18041e-02,9.26242e-02,-7.55875e-02,2.07696e-02,-3.81913e-02,-2.71549e-03,-9.97932e-02,
1.40967e-02,2.20189e-02,-3.99203e-02,-6.66509e-03,6.64653e-02,6.71204e-02,4.80526e-02,8.29301e-02,-4.59540e-02,-3.73484e-02,5.64035e-02,-9.07567e-02,1.02304e-01,6.97577e-02,8.80991e-02,-7.77334e-02,1.05255e-02,4.35945e-02,6.80211e-02,3.35571e-02,-3.08456e-02,8.40085e-02,6.27566e-02,-7.94742e-02,-7.60167e-02,-5.98775e-02,-4.51341e-02,5.32119e-02,-1.18830e-02,6.30602e-02,4.33440e-02,-3.62904e-02,-9.97029e-02,-7.00379e-02,2.52424e-03,4.38689e-02,3.65529e-02,4.78291e-02,6.77659e-02,8.22740e-02,-4.97905e-03,5.22115e-02,8.44240e-02,8.96642e-02,6.70087e-02,6.62010e-02,-5.64513e-02,-3.16516e-02,7.17814e-02,-9.32134e-02,-4.43676e-02,-2.21227e-02,4.41638e-02,-6.66218e-02,-1.11194e-01,-5.31719e-02,6.33427e-02,3.18329e-02,1.54687e-02,9.94031e-02,-4.48993e-02,-7.81697e-02,-7.88261e-03,-7.25193e-02,3.48950e-02,-1.45164e-02,4.70947e-02,5.21716e-02,-3.72795e-02,-3.56727e-02,-6.60338e-02,1.00504e-01,-7.60783e-02,1.00584e-01,7.72886e-02,3.34353e-02,-2.52707e-02,-3.46523e-02,2.29196e-02,3.73761e-02,-8.35250e-02,-4.55344e-02,-8.69554e-02,-6.56990e-02,-7.48512e-02,-8.71995e-02,7.08497e-02,-6.24411e-02,-7.74731e-02,-6.03583e-02,8.99245e-02,7.76185e-02,-7.33705e-03,-7.73324e-02,-9.18210e-02,5.41087e-02,-1.64193e-02,6.33638e-02,1.99619e-02,-1.33151e-02,
-2.22279e-02,3.13918e-02,8.19343e-02,7.39685e-02,-9.34520e-02,-7.79072e-03,2.22181e-02,-1.93533e-02,5.83599e-02,9.03119e-02,-9.38088e-02,8.19165e-04,-2.72607e-03,1.14030e-02,6.46182e-02,1.23547e-03,-5.15728e-02,-5.36559e-02,8.26730e-02,-3.87115e-02,2.98161e-02,-2.31220e-02,4.93363e-02,1.05488e-01,8.53448e-02,-6.42347e-02,-8.55383e-02,-7.96266e-02,-4.43038e-02,-8.39680e-02,1.67192e-04,-5.71688e-02,5.52249e-02,4.29200e-03,-2.85909e-02,-1.31294e-02,-6.94139e-02,-2.75903e-02,2.75229e-02,9.75433e-02,-2.03338e-02,6.02113e-02,1.20907e-02,-7.50458e-02,7.38610e-02,3.71743e-02,7.24491e-03,2.29612e-02,-8.33867e-02,-1.40323e-02,7.80799e-02,8.83366e-02,-4.75801e-02,-1.99028e-02,2.16945e-02,2.41910e-02,7.28845e-02,3.41838e-02,4.16670e-02,-1.54060e-03,-8.15009e-02,-3.76815e-02,3.71009e-02,2.83360e-02,2.28883e-03,-8.67551e-02,4.50656e-02,2.22131e-02,-8.78748e-02,-1.14708e-02,4.37659e-02,-8.64973e-02,-2.47795e-02,-1.38131e-02,2.16973e-02,-6.42955e-02,-2.19306e-02,5.15984e-02,3.88740e-02,9.90389e-02,6.47866e-02,8.08382e-04,-4.53305e-02,-3.65245e-02,5.77007e-02,5.08611e-02,7.50827e-02,8.40933e-02,-3.62568e-02,4.21141e-02,2.01024e-02,5.82236e-02,4.43074e-02,-8.38916e-02,2.23721e-02,-3.71401e-02,-1.68374e-02,-3.12489e-02,-8.88879e-02,5.01237e-02,
9.90865e-02,-6.56975e-02,-8.20600e-02,8.96052e-02,3.96565e-03,8.61501e-02,9.31301e-02,6.82584e-02,-2.07532e-02,-5.19206e-02,-9.82341e-02,-1.87161e-02,-6.41156e-02,-8.11058e-03,-1.26877e-02,-3.17125e-02,-3.59826e-02,-1.90822e-02,3.24335e-02,-1.20758e-02,-9.03160e-02,-6.12346e-02,-4.62137e-02,-2.71168e-02,8.70692e-02,5.12268e-02,5.68604e-02,6.84075e-02,-9.53177e-02,-2.35322e-02,3.65678e-02,7.33006e-02,2.16989e-02,2.62802e-02,-1.08936e-02,9.25157e-02,5.06433e-02,8.04074e-03,4.55827e-02,-9.01932e-02,1.23614e-02,-5.52304e-02,-2.22580e-02,3.28591e-03,-1.97692e-02,-3.98437e-02,8.58925e-02,-6.03365e-03,-8.73543e-02,2.74089e-02,-6.00214e-02,6.46691e-02,2.92522e-02,3.72828e-02,1.95919e-02,-3.22831e-02,6.80116e-03,4.39143e-02,2.55399e-04,5.35721e-02,6.78521e-02,4.94599e-02,-3.70553e-02,2.51921e-02,-5.94839e-02,5.81185e-02,3.83257e-02,-6.76692e-02,-4.31514e-02,8.46423e-02,5.95356e-02,-8.39113e-02,4.87821e-02,-3.67421e-02,-8.79275e-03,-1.11364e-01,-6.44663e-02,2.06826e-02,-3.87084e-03,-6.34290e-02,6.01152e-02,8.58865e-05,3.85858e-02,-9.00928e-02,2.99599e-02,7.23731e-02,-9.83284e-03,9.06492e-02,-3.80787e-02,2.54656e-02,-7.91192e-02,3.57339e-02,5.21828e-02,-5.50126e-02,-9.66985e-02,-7.08824e-02,-6.76146e-02,-7.83169e-02,-8.56789e-02,4.60517e-02,
7.17125e-02,2.71530e-02,4.37760e-02,-6.11403e-02,-2.41803e-03,-4.04348e-02,-5.67370e-02,-7.78302e-02,-5.70203e-03,-1.12963e-02,-6.19908e-02,9.70265e-02,7.79553e-02,4.18150e-02,-2.03333e-02,6.94780e-03,5.83978e-02,3.75767e-02,8.16351e-02,-1.77299e-02,7.08911e-02,2.19298e-02,-7.17587e-02,-7.87927e-02,1.44940e-02,-6.54875e-02,3.77242e-02,-1.80643e-02,3.01314e-02,-4.08607e-02,4.74868e-02,-3.34471e-02,7.94757e-02,-2.57291e-02,-2.91660e-02,1.32422e-02,3.00721e-03,1.25848e-02,-2.70503e-02,-3.53666e-02,8.66778e-02,-8.61403e-02,8.43198e-02,9.69365e-03,-9.46367e-03,5.70763e-02,-3.93713e-02,1.93598e-02,-1.22658e-02,-5.65489e-02,2.04458e-02,9.13969e-02,9.51535e-02,-3.10061e-02,1.71380e-02,-2.17091e-02,-5.00855e-02,7.66479e-02,2.06207e-02,-2.71950e-02,-5.47491e-03,4.13119e-02,-6.56629e-02,3.31559e-02,-1.01098e-01,-8.34476e-02,-3.33421e-02,-7.67423e-02,8.06270e-03,4.91461e-02,3.27757e-02,2.35208e-02,-3.91424e-02,-2.58615e-02,-2.17493e-02,-2.06862e-02,-7.96586e-02,-5.52711e-02,-1.00887e-01,-2.71340e-02,-4.99653e-02,-2.38138e-02,-6.25256e-02,-3.72632e-02,3.68786e-02,6.51447e-02,-5.22892e-02,-3.66202e-02,-9.44128e-02,-7.92009e-02,9.44841e-03,6.19639e-02,5.57621e-02,-8.73409e-03,2.43787e-02,5.12338e-02,2.57793e-02,-6.87481e-02,-2.11643e-03,-9.69392e-02,
-2.87405e-02,-5.43261e-02,1.20290e-02,6.36522e-02,-5.92666e-02,4.98407e-02,8.93802e-03,9.04261e-02,-3.77360e-03,4.00929e-02,-5.05895e-02,7.13090e-02,4.99091e-02,2.65758e-02,8.49952e-02,4.32389e-02,-1.12935e-01,-1.93346e-02,7.75256e-02,-5.55762e-02,9.94173e-02,1.90152e-02,4.69297e-02,-1.01164e-02,6.12070e-02,-9.84419e-02,-9.10056e-02,7.69916e-02,2.34059e-02,3.86827e-02,8.48072e-02,-5.80601e-02,-2.25542e-02,-5.90935e-02,-7.43324e-02,4.75180e-02,4.15452e-02,8.56507e-02,3.86906e-02,1.08732e-02,5.67153e-02,-7.87815e-02,-8.69365e-02,-8.85373e-02,-7.49667e-03,2.01065e-02,4.40267e-02,-6.18360e-02,4.16674e-02,8.82115e-02,-1.89394e-02,-8.41170e-03,-6.60212e-02,-3.19089e-02,6.11779e-02,-5.86899e-04,2.83153e-03,3.48996e-02,3.34508e-02,-7.02050e-04,3.62596e-02,2.61962e-02,-9.27171e-03,-6.11006e-02,8.13408e-02,7.69842e-03,7.43733e-02,-6.90457e-03,4.55585e-02,-2.39709e-02,4.52682e-03,-6.64284e-02,7.17605e-02,3.24821e-02,-1.38924e-02,7.97702e-02,6.27257e-02,6.21872e-02,-2.19372e-02,8.56906e-02,6.67894e-02,-1.54246e-02,7.70390e-02,-7.91475e-03,4.84095e-02,-3.27081e-02,7.04642e-02,9.42619e-03,-1.23259e-02,-7.73028e-02,-8.25928e-02,5.69374e-02,-1.08653e-03,-3.32543e-02,7.51799e-02,-5.61897e-02,8.85897e-02,-5.88652e-02,8.53088e-02,-3.50671e-02,
-4.19004e-02,-6.04478e-03,-9.94058e-02,-8.57291e-02,3.28050e-02,9.30110e-02,9.72289e-02,-7.15968e-03,2.36034e-03,-4.54803e-03,-8.60839e-02,7.64925e-02,-1.19166e-02,-8.00248e-02,1.92465e-02,9.25967e-03,4.89444e-02,5.89412e-03,6.81258e-02,-6.40361e-02,-2.84135e-02,6.22139e-02,-8.96325e-03,-6.13726e-02,-4.17962e-02,-9.37157e-02,6.57979e-02,8.01171e-02,7.63643e-02,1.02289e-02,-3.75171e-02,-8.23413e-02,-2.46061e-02,3.42701e-02,6.90988e-02,2.45926e-02,4.77528e-02,-1.98718e-02,-2.61354e-02,-2.07323e-02,-1.86668e-02,-2.06304e-02,-2.92454e-02,-7.96436e-03,-8.52170e-02,-1.13812e-01,5.79682e-02,4.70428e-02,6.77437e-02,9.38096e-02,1.70215e-02,7.93543e-02,-6.63915e-02,-8.98201e-02,-1.01479e-01,-3.73668e-03,5.97544e-02,-5.93005e-02,8.27240e-02,-4.15792e-02,-3.90110e-02,1.94275e-02,-7.01723e-02,-3.34489e-02,-9.20361e-02,1.33549e-02,2.78118e-03,5.37495e-02,-9.72747e-02,-7.17285e-02,-2.54835e-02,2.97856e-02,-9.97687e-02,7.76308e-02,2.48966e-02,-2.36186e-02,5.65158e-02,-2.80413e-02,-7.37903e-02,8.19548e-03,1.48520e-02,8.28682e-02,3.43190e-02,-2.15009e-02,-1.57502e-02,6.76427e-02,1.44141e-02,-4.27988e-02,1.81423e-02,9.38482e-02,5.65022e-02,-1.49192e-02,2.36919e-02,5.25585e-02,7.34253e-02,-5.01677e-02,3.02570e-02,5.29240e-02,-9.51198e-02,6.66193e-02,
-1.94114e-02,5.40714e-02,-5.07940e-02,-9.14498e-02,-1.63921e-02,-1.51412e-02,1.00061e-01,7.06356e-02,6.43293e-02,9.28611e-02,9.46723e-02,-7.13463e-02,4.33143e-02,-5.91415e-02,9.18918e-03,-1.93452e-02,-4.08211e-02,6.66006e-02,-9.31151e-02,-7.92329e-02,2.42949e-02,-7.17747e-02,7.80809e-02,6.38972e-03,-1.10839e-02,-1.63714e-02,-1.02144e-01,-1.74518e-02,-3.94478e-02,-5.78764e-02,1.45592e-03,8.07312e-02,1.00180e-01,2.51811e-02,6.59683e-02,3.95894e-03,-5.95898e-02,-8.74027e-02,1.22644e-02,-5.93498e-02,-5.32008e-02,5.31406e-02,-7.91924e-02,-3.10904e-02,-2.14036e-02,1.90018e-02,1.10303e-01,-1.43838e-02,2.59747e-02,3.86920e-02,9.41169e-03,8.60030e-02,-2.81306e-02,6.41435e-02,-8.21775e-02,9.59848e-03,1.47708e-02,5.21500e-02,-2.23821e-02,3.50314e-02,-3.56418e-02,-9.91480e-02,-4.21142e-02,-2.75202e-02,5.17207e-02,-3.08533e-02,2.86801e-02,-4.87774e-02,1.60303e-02,-4.50613e-02,1.20400e-04,-7.79998e-02,3.45551e-02,5.51163e-02,4.23806e-02,-4.84749e-02,4.74555e-03,-4.46750e-02,-6.98475e-04,-6.22141e-02,-4.50644e-02,-2.16055e-02,-5.20357e-03,-1.08721e-01,-6.03014e-02,4.85208e-02,-4.98134e-02,-5.92676e-02,-5.72602e-02,-4.74621e-03,2.05529e-02,9.48674e-02,-5.48096e-02,4.14580e-02,8.34543e-02,-9.48695e-03,1.89652e-02,2.46738e-02,4.48340e-02,3.77297e-02,
-4.48261e-02,6.82986e-02,6.18996e-02,8.77285e-03,-9.77611e-02,-7.47764e-02,-7.42342e-02,-6.16343e-02,8.90764e-02,8.61500e-02,3.33491e-02,-1.36388e-02,-3.62357e-02,3.51098e-02,-9.44251e-02,3.26606e-02,-6.90429e-02,-5.84210e-02,-4.81172e-02,8.38051e-02,4.10552e-02,9.38815e-02,8.80363e-02,8.18035e-02,1.31111e-02,-1.11602e-01,-5.36946e-03,3.86795e-02,-5.69383e-02,6.49830e-02,9.62656e-02,4.11680e-04,1.20099e-02,6.55743e-02,8.09718e-02,-2.31415e-02,3.84690e-02,1.09748e-01,7.76197e-02,9.43360e-02,-7.71959e-02,3.87956e-04,-5.57006e-02,-8.09191e-02,-1.32931e-03,-2.71716e-02,-7.08719e-02,2.33571e-02,-8.07435e-02,-8.23318e-02,-5.54872e-02,-8.68808e-02,1.06863e-01,3.72580e-02,6.15796e-02,6.98808e-03,1.13714e-02,-7.80539e-02,6.05615e-02,-1.91099e-02,-5.97200e-02,1.13685e-03,3.31510e-02,-2.31947e-02,-6.50354e-02,-8.24437e-03,-1.01286e-03,-7.22804e-02,5.06331e-04,1.09465e-03,6.70373e-02,-1.01914e-01,-2.59021e-02,-6.15241e-02,-9.28942e-04,-5.05263e-02,6.42325e-02,-6.73757e-02,-2.82105e-02,-1.73308e-02,-3.40465e-02,-9.08410e-02,-9.68958e-02,2.34263e-02,-7.41766e-02,7.22052e-02,-9.49849e-02,3.11036e-02,2.46593e-04,3.08612e-02,-1.00847e-03,8.11373e-02,-9.57606e-02,-1.46235e-02,3.58662e-02,8.35905e-02,-1.95437e-02,-4.18061e-02,3.59433e-02,9.78044e-02,
1.44920e-02,9.13475e-02,-4.19562e-02,6.66352e-02,-8.17415e-02,3.82351e-02,3.09620e-02,-4.41209e-02,-7.73470e-02,-8.06294e-02,6.56837e-02,1.11268e-03,2.19804e-02,-1.19392e-02,4.51704e-02,4.54020e-02,-6.26106e-02,1.34332e-02,-2.62835e-02,-2.97359e-02,7.30961e-02,-3.67093e-02,-5.27106e-02,5.63817e-02,7.49337e-02,1.71799e-02,1.47100e-02,-1.13793e-01,6.54071e-02,6.10317e-02,3.02206e-02,2.11560e-02,5.40668e-02,-5.11576e-02,-5.68965e-02,-6.43735e-02,2.20724e-02,1.01359e-01,-9.43250e-02,-8.92283e-02,-2.84014e-03,4.28344e-02,-2.63240e-02,7.04863e-02,1.90497e-02,-3.03144e-02,5.14893e-02,2.15451e-03,1.02521e-01,-2.52730e-02,7.37913e-02,-5.71430e-02,7.12414e-02,-7.24368e-02,-1.67107e-02,4.63035e-02,-4.16502e-02,4.49405e-02,-2.85175e-03,-9.70811e-03,8.26166e-03,6.40878e-02,-5.03668e-02,4.09205e-02,-4.44268e-02,6.18610e-03,-7.32053e-02,9.59277e-02,9.04291e-02,2.98215e-02,-3.78800e-02,4.51765e-02,-9.94863e-02,6.33186e-03,-8.68415e-02,3.15875e-02,1.29035e-02,-2.87682e-03,-3.94156e-02,-9.24949e-02,-6.82999e-02,-5.05572e-02,-6.32661e-03,8.08249e-02,-8.41090e-02,-9.93694e-02,4.54453e-02,4.60477e-02,-8.96274e-02,-8.94443e-02,-6.45015e-02,-4.94194e-02,-1.30460e-02,-7.31766e-02,1.96589e-02,-6.41917e-02,2.11157e-03,5.31424e-02,-3.49014e-02,7.89103e-02,
5.76372e-02,-3.78845e-02,7.01885e-02,3.38674e-02,4.70971e-02,-8.10690e-02,1.83249e-02,-1.53865e-02,1.20314e-02,-4.35916e-02,1.71062e-02,2.95757e-02,7.47418e-02,-8.19952e-02,-1.25934e-04,-7.58770e-02,1.33882e-02,6.40743e-02,3.00992e-02,-1.86338e-02,-7.08670e-02,-4.22918e-02,-2.20969e-02,5.65366e-02,-4.89937e-02,-4.23503e-02,5.01080e-02,-3.19028e-02,-2.05064e-02,2.46513e-02,9.31547e-02,-1.71384e-02,-4.75076e-02,5.67490e-05,4.56329e-02,7.98799e-02,1.46339e-02,3.18849e-02,-6.19931e-02,5.37342e-02,-4.31267e-02,-5.40480e-02,3.56642e-02,3.83157e-02,-8.14115e-02,1.06665e-02,-1.01614e-01,-5.18724e-02,2.58170e-02,-8.43255e-02,1.01622e-03,1.53848e-02,-4.06111e-02,-1.02535e-01,4.84058e-04,-2.83884e-02,4.25835e-02,1.00640e-02,-6.23011e-02,-4.86496e-02,2.57088e-02,-6.88772e-02,2.43753e-02,-1.30689e-02,-3.06521e-02,4.70533e-02,-4.85298e-02,6.00036e-02,1.61706e-02,2.38277e-02,-2.64206e-02,3.51498e-02,-8.01360e-02,-4.58212e-02,-1.44316e-02,4.01154e-02,4.08746e-02,-3.54037e-02,-4.10933e-02,-7.02809e-02,-1.91057e-02,-2.98043e-02,-7.30980e-02,4.74581e-02,-7.29253e-02,9.26237e-03,-9.45441e-02,8.37556e-02,2.22224e-02,-7.13316e-02,-6.72174e-02,-3.75448e-02,-7.90680e-02,1.97226e-02,-3.62720e-02,-9.18681e-02,-1.65898e-02,-7.24415e-03,2.11584e-02,-5.22553e-02,
-5.32719e-02,1.97885e-02,1.37977e-02,-8.47258e-02,-3.71385e-02,-8.82944e-02,6.51353e-02,-5.61005e-02,8.02276e-02,-4.41796e-02,-4.37255e-02,3.47394e-02,-7.34854e-02,5.80629e-02,-5.96653e-02,6.41095e-03,8.53424e-02,2.41352e-02,-6.64388e-02,-1.45231e-02,2.00780e-02,5.17170e-02,-4.58116e-03,7.88125e-02,-4.39963e-02,-7.09941e-03,-5.99908e-03,-5.81742e-02,4.68918e-02,9.43963e-02,1.24498e-02,-4.35100e-02,9.82586e-02,-9.54468e-02,8.63477e-03,-9.99491e-02,7.68106e-02,-6.95899e-03,1.55405e-02,8.17825e-02,5.52904e-02,-5.87740e-03,8.97557e-02,4.61063e-02,-6.53605e-02,-1.65481e-02,5.32641e-02,-7.27711e-02,-2.59263e-02,9.00556e-02,-8.71123e-03,-1.37229e-04,-6.98505e-02,6.71937e-02,-6.59113e-02,-9.08246e-02,-8.53379e-02,7.21719e-03,3.83112e-02,-8.64293e-02,-2.08754e-03,8.72748e-03,-6.99996e-02,-4.13069e-02,-7.97145e-02,3.13874e-02,-3.32342e-02,-3.11863e-03,-7.44898e-02,-4.66944e-02,-4.56412e-02,8.06524e-02,-7.46819e-02,-7.90625e-02,5.76065e-03,1.54302e-02,-8.24111e-02,3.99289e-02,-8.47820e-02,4.74553e-02,8.23374e-02,-7.37950e-02,7.41077e-02,5.97823e-02,9.43711e-02,7.50687e-02,9.96146e-02,9.22026e-02,-5.30062e-02,-1.47546e-02,6.17851e-02,4.14886e-04,-2.85500e-03,-6.71791e-02,8.81452e-02,-5.89486e-03,8.65727e-02,-7.34744e-02,2.20485e-02,-7.15546e-02,
-6.94332e-02,1.48526e-03,6.95296e-02,1.07403e-02,-7.53767e-02,2.16174e-02,8.75560e-02,7.11107e-02,-5.35233e-03,-1.61927e-02,-5.64252e-02,-1.63068e-02,3.49742e-02,9.41994e-02,-4.37570e-02,7.46088e-02,-2.24178e-02,2.50537e-02,-4.85594e-02,4.98783e-03,-7.66959e-02,1.86702e-02,-6.34256e-02,3.15129e-02,-4.92684e-02,6.60526e-02,5.41201e-03,-6.23927e-02,6.74492e-02,-1.37376e-02,-5.01772e-03,-9.31557e-02,4.09589e-05,-1.12956e-01,-8.06789e-02,1.02498e-02,-7.32175e-02,-7.83859e-02,-3.12626e-02,5.19835e-02,6.21923e-02,5.25239e-02,-6.99018e-03,3.82108e-02,-2.58300e-02,-6.88011e-02,3.04141e-02,5.57228e-02,8.61458e-02,-7.19647e-03,-9.38905e-02,-7.61759e-03,7.66080e-02,1.35396e-02,-4.35895e-02,-4.85175e-02,1.11662e-02,5.25712e-02,-1.94146e-02,-8.38397e-02,-7.05514e-02,-3.06116e-02,-6.10396e-02,5.36734e-02,-6.33604e-02,1.13753e-02,3.47571e-02,2.49381e-02,-1.53075e-02,-4.49218e-02,4.79268e-02,-2.93764e-02,-1.53775e-02,1.51243e-02,1.30377e-02,-6.64293e-02,4.57051e-02,-2.63491e-02,4.66083e-02,-5.67079e-03,-2.89914e-02,8.59014e-02,5.66594e-02,-7.06355e-02,2.58376e-03,1.94759e-02,-4.61776e-02,8.78573e-02,8.29019e-02,9.93813e-02,-4.22511e-02,4.87088e-02,3.71407e-02,-5.55888e-02,-3.34721e-02,9.12044e-02,-7.53663e-02,-9.10226e-02,-8.07495e-02,7.36028e-02,
2.56517e-02,-5.21886e-02,-6.10967e-02,9.81417e-02,2.10402e-02,-9.36898e-02,8.89389e-02,3.58529e-02,-1.85041e-02,-3.33239e-02,-6.11136e-02,-4.21160e-02,-7.56824e-02,-7.63140e-03,-7.90557e-02,2.72107e-02,6.94892e-02,3.35805e-02,5.22673e-02,-1.30277e-02,7.76976e-02,8.81996e-02,-1.12418e-01,5.25296e-02,-4.42600e-02,-8.26430e-02,-3.63145e-02,-2.50052e-02,7.65353e-02,3.60957e-02,7.53229e-02,1.06519e-02,6.77563e-03,-7.29464e-03,-1.01612e-02,-3.25393e-02,7.23930e-02,1.09755e-02,-8.55168e-02,-6.93623e-02,5.41649e-02,-7.30595e-02,7.46200e-02,-9.71776e-02,3.04090e-02,-7.63495e-02,4.95413e-02,-5.93399e-02,-6.68984e-02,-2.49710e-02,4.59667e-02,-7.30307e-02,-6.13936e-02,-4.56974e-02,1.01031e-01,-1.63289e-02,2.30042e-02,1.84071e-04,-5.49153e-02,-1.07330e-02,8.99004e-02,-8.28209e-02,-8.34047e-02,5.63047e-02,8.61684e-02,5.85944e-02,7.08006e-02,4.44443e-02,9.17188e-02,3.44436e-02,-5.65262e-02,-9.83757e-02,-4.94189e-02,4.06454e-03,1.49722e-02,5.79751e-02,2.43354e-02,1.10476e-02,-1.09421e-01,4.38456e-02,-7.61755e-02,7.00713e-02,-5.67530e-02,6.62995e-02,-7.11740e-02,-6.77895e-02,-9.63160e-02,-9.41714e-02,-3.87018e-02,-4.34048e-02,4.18665e-03,-2.01454e-02,-6.69094e-02,-8.14807e-02,1.95275e-02,-9.04618e-02,-3.26379e-02,-5.49906e-02,8.59247e-02,1.74255e-03,
-9.92798e-02,5.21620e-02,5.37637e-02,6.09309e-02,-5.35288e-02,4.93724e-02,-4.41129e-02,3.13618e-02,9.89361e-02,-2.68681e-02,-7.80960e-02,8.09633e-02,2.72983e-02,7.37558e-02,1.22879e-02,-5.11490e-02,3.33049e-02,3.75940e-02,1.74141e-02,-2.11636e-02,2.34308e-02,4.20253e-02,-6.37246e-02,5.83366e-02,-4.24035e-02,3.74056e-02,-1.03999e-01,2.04691e-02,9.51637e-02,-3.51251e-02,-8.02675e-02,1.08118e-02,7.39689e-02,-4.04405e-02,-4.54176e-03,-6.08525e-02,5.54335e-02,-6.68208e-02,-2.72636e-02,5.11700e-02,9.72735e-02,6.47292e-02,3.61060e-03,-6.49523e-02,-1.00054e-01,-4.87270e-02,-6.36166e-02,-2.93239e-02,-8.92904e-03,8.03346e-02,5.14910e-03,-7.25702e-02,-8.22480e-02,9.55037e-02,7.06346e-02,-8.74074e-02,8.25548e-02,4.25498e-02,8.97269e-02,-7.77090e-02,9.68931e-03,-4.51679e-03,-2.77363e-02,-7.64090e-02,-6.11450e-02,-4.61860e-02,8.66294e-02,-6.55720e-02,-6.66922e-02,-3.62796e-02,2.35280e-02,2.72426e-02,-8.69475e-02,-5.06777e-02,-9.74690e-03,2.12596e-02,6.19173e-02,-6.56775e-02,5.49581e-02,6.72629e-02,3.15353e-02,-6.71770e-02,-6.22065e-03,2.10026e-02,2.62597e-02,-7.09476e-02,4.54206e-02,-3.92045e-02,6.45097e-03,-5.83706e-02,-9.12423e-02,-2.02183e-02,4.84774e-02,-7.69930e-02,2.41951e-02,2.70789e-02,6.43913e-02,7.29085e-03,9.61807e-02,-7.15269e-02,
9.66161e-02,4.54661e-02,6.05678e-02,-3.54205e-02,-8.88045e-02,6.76993e-02,-3.04549e-02,6.93852e-02,3.26625e-02,-5.22729e-02,6.00489e-02,-2.52419e-02,5.49332e-02,4.46307e-02,-3.63576e-02,3.87328e-02,-6.09714e-02,-6.52340e-02,-6.81484e-02,-7.12739e-02,9.45622e-02,-9.23405e-02,-4.13489e-02,-2.74079e-02,9.03885e-02,1.55011e-02,-1.10983e-02,-1.50477e-02,5.86902e-03,-7.13699e-02,-1.20527e-02,9.53508e-03,-5.38399e-02,1.00100e-02,-8.54934e-02,2.51395e-02,5.51716e-02,-1.98587e-02,2.65081e-02,6.10582e-02,-1.76811e-02,2.88248e-02,-4.70002e-02,-6.58102e-02,-4.61031e-02,-8.33437e-02,-7.71841e-02,5.87171e-02,4.12008e-02,3.71787e-02,-6.85651e-02,-7.78493e-02,5.11218e-02,8.61500e-02,3.85715e-02,-6.98693e-02,-4.94136e-02,-2.84847e-02,-7.89242e-02,-5.65556e-02,-4.47439e-02,4.67927e-02,6.83964e-02,-8.90900e-02,6.51052e-02,6.97528e-02,-3.19604e-02,-4.04116e-02,-7.58128e-03,4.58852e-02,9.94947e-02,-2.52644e-02,-1.02807e-01,3.73820e-02,-2.44627e-02,-7.57680e-03,2.91592e-02,-1.59177e-02,-7.75672e-02,-2.05240e-02,1.27815e-02,-4.95674e-02,8.21578e-02,1.15095e-02,8.09508e-02,-1.81256e-02,-8.44069e-03,2.16246e-02,-7.96012e-03,1.66867e-02,4.18737e-02,-6.78741e-02,-6.15651e-02,-2.45607e-02,4.25184e-02,-1.79164e-02,9.21982e-02,-4.80532e-02,-4.23512e-02,-6.30995e-02,
-4.27623e-02,4.68413e-02,-9.13722e-02,-9.26021e-02,1.03535e-02,-1.11302e-02,2.75830e-02,4.85633e-02,9.21576e-02,-4.32299e-02,-4.17172e-02,8.03497e-02,-9.58020e-03,-6.24854e-02,-4.17195e-02,6.67611e-02,-8.27135e-02,-2.09544e-02,-2.19603e-02,8.89472e-03,-1.53233e-02,-7.36688e-02,-2.93636e-02,-2.10938e-02,4.90835e-02,-2.32942e-02,8.57384e-02,-3.98500e-02,-7.92936e-02,8.00342e-02,-4.50914e-02,-5.29775e-02,-7.16538e-02,-6.78826e-02,-3.72940e-03,5.51891e-02,9.40938e-02,-9.32148e-03,-7.33171e-02,8.26198e-02,-6.16409e-02,1.27834e-02,3.64759e-02,-7.98346e-02,4.07838e-02,7.43660e-02,8.13898e-02,4.23292e-02,4.60853e-02,-7.65437e-03,-2.20005e-03,-5.58555e-02,4.92065e-02,-8.34062e-02,-8.67082e-02,-8.78382e-02,-6.95203e-02,4.25795e-02,-3.32586e-02,3.69593e-02,6.40316e-02,9.11055e-02,-2.33152e-02,7.10493e-02,8.66264e-02,-1.59773e-02,7.56536e-02,1.06130e-01,6.29414e-02,7.17640e-02,-9.85056e-02,-9.33279e-02,-1.09905e-01,2.61360e-02,-3.47930e-02,-1.24499e-02,-5.07171e-02,5.29018e-02,3.94229e-02,-5.68119e-02,7.62178e-02,3.52683e-02,8.03264e-02,4.34346e-02,3.46301e-03,-3.83947e-02,2.96185e-02,2.84045e-02,1.09124e-02,-6.69869e-02,3.37528e-02,-4.82079e-02,5.36346e-02,1.94912e-02,-5.24037e-02,-6.46663e-02,-7.06545e-02,4.88880e-02,-7.28052e-02,-5.50848e-02,
5.02740e-02,4.14400e-02,-3.09419e-02,-2.37301e-03,6.20120e-02,4.22611e-02,3.90062e-02,-2.54063e-02,-2.18226e-02,3.11753e-02,9.84659e-02,-7.67610e-02,-5.05106e-03,3.41391e-02,-4.46733e-02,-3.99163e-02,1.97469e-02,-9.72631e-02,-9.36150e-04,-1.75822e-02,1.85065e-02,-1.36120e-02,-1.04386e-03,5.78368e-02,-8.97386e-03,1.48978e-03,-5.80770e-02,-7.52409e-02,-5.90127e-02,-1.55745e-02,1.54454e-02,-1.97304e-02,3.75731e-02,-7.79498e-02,5.08176e-02,5.94215e-02,-4.93759e-02,7.52689e-02,-2.30256e-02,1.11177e-02,-3.78487e-02,-5.46038e-03,6.98811e-02,-7.84425e-02,-1.79077e-02,-9.14984e-02,-9.36334e-02,1.31153e-02,3.90774e-02,-2.36400e-02,8.93392e-02,-8.19175e-02,2.28218e-02,5.49347e-02,-9.79747e-02,8.44041e-02,-3.24933e-02,-4.84893e-02,-2.90822e-02,2.84530e-02,2.78234e-02,7.15757e-02,3.63913e-02,-3.42760e-02,-3.06831e-02,-7.67645e-02,-8.98560e-02,-4.67338e-02,3.34093e-02,-2.10386e-02,-9.43624e-02,-4.78383e-02,-5.62689e-02,3.12189e-04,-4.10899e-02,3.94954e-02,-4.78884e-02,2.66845e-02,-6.97701e-02,8.28683e-02,5.28996e-02,9.60942e-02,8.31107e-02,-5.31538e-02,-4.15898e-02,-2.25617e-02,3.72486e-02,-9.25454e-02,6.12170e-02,8.92662e-03,2.33591e-02,3.47394e-02,5.78915e-02,4.97669e-02,-4.45455e-02,2.54919e-02,3.36718e-02,-3.53671e-02,-1.95457e-02,-7.93495e-02,
-1.15147e-03,9.71811e-02,-9.01918e-02,7.60032e-02,9.00311e-02,6.98134e-02,-8.12124e-02,9.16602e-02,-4.73692e-02,5.28993e-03,-9.12832e-02,6.65694e-02,5.82556e-02,-1.15553e-02,-5.97185e-03,3.51119e-02,-7.97710e-02,-9.21507e-02,-1.05454e-02,5.17387e-02,9.13068e-02,3.20788e-02,2.26146e-02,-7.69104e-03,4.78210e-02,1.08271e-01,6.17325e-02,-1.08216e-01,-2.79931e-02,-6.04014e-02,-7.89031e-02,1.10934e-02,-3.32332e-02,8.27960e-02,-1.04894e-01,-6.33796e-02,8.63268e-02,-5.55253e-02,-5.90879e-03,-4.81528e-02,-7.64259e-02,7.06816e-02,-4.29801e-02,-9.77964e-02,1.70730e-02,-4.51068e-02,4.68873e-02,3.50134e-02,-2.38198e-02,4.76247e-02,-5.51020e-02,-4.46465e-02,2.63318e-02,-3.02073e-03,2.51377e-02,-2.63293e-02,7.19561e-02,-6.71874e-02,8.99392e-02,-1.65011e-02,6.96139e-02,5.49211e-02,-9.36208e-02,3.53667e-03,-2.96566e-02,1.06472e-01,-2.13275e-02,4.09321e-02,-1.22200e-02,8.08585e-02,-8.76945e-02,-5.97407e-02,2.39060e-02,7.58933e-02,3.34652e-03,-2.64460e-02,-6.34795e-02,5.11437e-02,-6.86076e-02,5.03985e-02,4.04589e-02,1.25066e-02,-2.69699e-02,-4.24700e-02,-3.60824e-03,-7.36972e-02,-6.46523e-02,3.17797e-02,-6.67038e-02,8.49970e-05,6.77493e-02,2.73321e-02,-2.99793e-02,5.98705e-02,6.34379e-02,1.81560e-02,-4.75828e-02,8.08205e-04,-9.92994e-04,4.60909e-02,
-4.25850e-02,-6.20710e-02,-3.74536e-02,-6.77568e-02,1.33154e-02,-2.19229e-02,3.36535e-02,7.20538e-02,-6.71808e-02,3.33849e-02,5.31870e-02,-1.95502e-02,-8.46334e-02,7.32626e-02,-8.53779e-02,-1.52450e-03,-3.09199e-02,5.54010e-02,-6.35993e-02,-9.87496e-02,-4.40923e-02,4.09720e-02,8.13699e-02,7.10568e-02,-1.28716e-02,2.78291e-02,4.83680e-02,8.78558e-02,1.33307e-02,-7.81325e-02,-2.63983e-02,-3.75764e-02,-1.57303e-04,-8.88887e-02,7.75172e-02,2.28405e-02,1.80083e-02,2.21297e-02,-5.98829e-02,-4.82460e-02,7.07826e-02,6.47287e-03,6.10517e-02,-1.00471e-01,5.81902e-02,1.54332e-02,-8.83775e-02,7.39972e-03,-6.35121e-03,7.32407e-02,-1.21996e-02,-3.47585e-03,8.58158e-02,-8.70633e-02,-4.47363e-02,-6.02108e-02,-3.10412e-02,-1.22925e-02,-2.76476e-02,3.71847e-02,7.75260e-03,-9.80360e-03,8.01526e-02,-7.59658e-02,4.85231e-02,2.82633e-02,-8.72256e-02,-6.68028e-02,9.06732e-02,7.09272e-02,-8.10596e-02,7.27668e-02,-8.63627e-02,6.66621e-02,4.36486e-02,6.68604e-02,6.20283e-02,-4.74152e-02,1.24412e-02,7.07310e-03,-9.88239e-02,7.40994e-02,-4.32308e-03,2.28683e-02,-7.19428e-02,1.45469e-02,6.58972e-02,-4.06331e-02,7.62084e-02,3.48523e-02,-4.59780e-02,1.89917e-02,-2.06123e-02,-9.56805e-02,-6.58138e-02,9.95951e-02,3.33751e-03,9.51535e-02,2.69488e-04,4.09861e-02,
1.75086e-02,-5.21968e-02,-9.70019e-02,-7.57351e-02,7.10669e-02,-2.22275e-02,-9.50703e-02,-9.48976e-02,2.92348e-02,-8.75703e-02,-7.42966e-02,-3.11063e-02,-5.78897e-02,5.86793e-02,1.45086e-02,3.07393e-02,-7.52816e-02,-3.36001e-04,8.25389e-03,5.54817e-02,-6.33635e-02,-7.44966e-02,8.58568e-02,8.61943e-02,7.84292e-03,9.16270e-02,-1.12589e-02,2.37361e-02,1.65098e-02,-7.70747e-03,-6.91147e-02,-2.70716e-02,-3.40887e-02,3.69890e-04,-2.46599e-02,-4.19358e-02,1.14595e-03,4.33173e-03,-9.29493e-02,6.90977e-02,3.66055e-02,-9.96920e-02,-8.22416e-02,-6.67645e-02,-7.08643e-02,4.62554e-02,-2.13587e-02,1.92587e-02,3.22128e-02,-7.61254e-02,8.09546e-02,-4.95552e-02,2.45404e-03,1.01526e-01,8.13426e-02,4.65178e-02,-9.93935e-02,-4.32190e-02,-1.77054e-02,8.17630e-02,4.90046e-02,-1.94494e-03,-3.72449e-02,-2.27906e-02,1.01828e-01,-9.67593e-02,-6.92869e-02,4.33783e-02,8.46951e-02,-5.02564e-02,7.36806e-02,5.28946e-02,-9.33161e-03,6.11651e-02,-5.31375e-02,-8.14796e-02,-4.09062e-03,-2.28819e-02,-4.92332e-02,6.85410e-03,7.56468e-03,5.98184e-02,5.15992e-02,-5.86580e-03,-9.92702e-02,-5.01836e-02,-5.48577e-02,7.75430e-02,-1.36288e-02,9.19651e-02,4.25204e-02,4.22613e-02,-6.26649e-02,1.53223e-02,-4.84720e-02,6.34951e-02,7.87932e-02,-6.19835e-03,1.54952e-02,-6.76860e-02,
4.15142e-02,6.21272e-02,-5.18429e-02,-1.88850e-02,7.79346e-03,-6.37354e-02,8.80028e-03,3.43814e-02,-6.91558e-02,-9.39678e-02,1.82791e-02,9.68726e-02,4.10783e-02,3.92008e-02,-9.06721e-02,8.49340e-03,3.99425e-02,-8.01645e-02,3.18544e-02,-8.19033e-02,3.49460e-02,-6.09266e-02,2.29017e-02,-6.91246e-02,2.37228e-02,-6.87988e-02,-1.84745e-02,4.59279e-02,-6.93687e-02,-6.54653e-02,-7.70867e-02,-6.17372e-02,4.92550e-02,-5.04135e-02,-7.64652e-02,2.22832e-02,-9.08499e-02,3.18591e-02,-2.54366e-02,-7.94430e-02,5.47363e-02,8.44545e-02,6.87228e-02,1.97782e-02,-1.91393e-02,6.95042e-02,8.25833e-02,9.35259e-02,8.49423e-02,1.90054e-02,-2.27944e-02,6.66086e-02,-2.58584e-02,-2.70329e-02,-6.03916e-03,-2.44023e-02,-6.88780e-02,-6.61253e-02,3.52211e-02,4.55267e-02,-2.67590e-02,4.05851e-02,2.80554e-02,1.11840e-01,2.02732e-02,-3.55237e-02,-7.06820e-02,-1.91868e-02,9.12700e-02,-6.90681e-02,-5.85235e-02,2.68032e-02,3.66747e-02,3.09862e-02,-7.97474e-02,-3.65301e-02,-5.68453e-02,1.90935e-02,9.45575e-02,8.90262e-02,-4.41891e-02,3.27014e-02,6.32762e-02,-2.42543e-02,3.39984e-02,-4.60783e-02,-6.18290e-02,-1.43108e-02,7.27010e-02,-1.23909e-02,1.38394e-02,5.34656e-02,-7.01996e-02,3.28019e-02,-7.55614e-02,1.00834e-01,5.90942e-02,-6.63616e-04,-8.00426e-02,6.02295e-02,
-4.65712e-02,-8.97578e-02,-5.50607e-02,-4.57861e-02,-7.80552e-02,2.08336e-02,-8.22179e-02,3.03643e-02,7.47658e-02,3.18469e-02,2.94281e-02,1.05276e-02,-2.07375e-02,8.68200e-02,-2.13013e-02,-5.19279e-03,1.74870e-02,3.98212e-02,-8.11817e-02,6.29981e-02,-9.16893e-02,-4.15270e-02,-5.77986e-02,1.42510e-03,8.32632e-02,-9.78789e-02,-5.73258e-02,-3.83678e-02,4.05087e-02,-4.11665e-02,-4.59033e-02,6.04730e-02,-8.82479e-02,6.15934e-02,-5.43108e-03,1.24805e-02,1.84322e-02,5.50813e-02,8.18443e-03,4.96521e-04,-5.75873e-02,-4.50154e-02,9.37202e-02,-1.05959e-01,5.58246e-02,-8.04249e-02,-9.07521e-02,-1.42476e-02,-2.68966e-02,-4.07979e-02,-2.61826e-02,-1.63734e-02,-6.81218e-02,-3.80294e-02,-1.15293e-02,2.34739e-02,-9.98974e-02,-5.03479e-02,4.96777e-02,5.89813e-02,-1.74918e-02,1.06450e-02,-6.27098e-02,6.24175e-02,-9.50792e-02,8.77874e-02,-9.32359e-02,-2.52942e-03,7.49765e-02,-4.18360e-02,-6.16434e-02,-2.40293e-02,-3.70891e-02,8.43099e-02,-8.52432e-02,7.13511e-02,-3.33413e-03,1.09732e-02,5.24139e-03,-9.62709e-02,2.65408e-02,9.96815e-02,7.72615e-02,3.40985e-02,-4.13227e-02,1.85030e-02,-4.42888e-02,2.84652e-02,-5.36095e-02,3.56784e-02,4.38621e-02,7.56472e-02,2.36076e-03,9.10565e-02,6.59527e-02,-8.17275e-02,-4.21528e-02,4.30556e-02,-5.15482e-03,2.63247e-02,
-1.64368e-02,8.04808e-02,-8.56536e-02,-8.88614e-02,9.72157e-02,-3.91989e-02,-5.16863e-02,-1.97448e-02,-9.45106e-02,-4.10405e-02,-9.02202e-02,8.20915e-02,3.25910e-02,6.54228e-02,4.33704e-02,-6.89172e-02,-6.31974e-02,6.51158e-03,4.19567e-02,9.11070e-02,9.11109e-02,-2.92217e-02,-1.06271e-01,2.49032e-02,-4.48901e-02,7.72025e-02,-8.01659e-02,6.39915e-02,-1.36550e-02,6.48629e-02,6.62743e-02,1.50978e-02,-5.42530e-02,6.48353e-02,6.08547e-02,6.62830e-02,-6.67480e-02,-5.10157e-02,-3.80257e-02,-9.93938e-02,5.72301e-02,5.32187e-02,-1.63241e-02,4.05879e-02,4.96213e-02,2.52888e-02,1.56526e-02,3.38701e-02,6.95060e-04,2.04704e-02,-3.97604e-04,-1.25920e-02,4.81526e-02,4.82777e-02,5.68100e-02,-9.29226e-02,-1.62784e-02,7.35282e-02,-4.18679e-02,-8.85353e-03,-8.55613e-02,6.07356e-02,-1.39199e-02,-7.47693e-03,-2.56468e-02,-2.01462e-02,-4.19745e-02,6.22428e-02,2.79046e-02,4.99760e-03,1.25250e-02,-9.77367e-02,5.13892e-02,8.41996e-02,8.38181e-02,7.32700e-02,-3.68179e-02,1.65038e-02,6.17899e-02,-1.51437e-02,3.96430e-02,9.70295e-02,-4.24161e-02,-8.90028e-02,-2.03937e-02,-5.62037e-02,-5.60716e-02,-9.35569e-02,5.23742e-02,-7.89806e-02,-9.07428e-02,-7.64335e-02,7.27076e-03,8.85651e-02,8.42261e-02,6.29853e-02,-1.96598e-02,-8.81765e-02,7.71418e-02,5.22540e-02,
-6.52672e-02,-4.29737e-02,-1.19925e-02,-2.85669e-02,-9.85653e-02,-4.48084e-02,-3.08701e-02,-7.42384e-02,-8.90460e-02,-3.94941e-02,1.31258e-02,-1.02452e-02,4.99359e-02,-1.26355e-02,1.47485e-02,2.82878e-02,4.13325e-03,6.67117e-02,7.51366e-02,2.07073e-02,-4.08346e-02,-4.66721e-02,-7.42070e-02,-3.90833e-02,1.58849e-02,3.16690e-04,-7.96955e-02,-4.49511e-02,-1.01164e-02,2.22204e-02,7.76574e-02,-4.77211e-03,-1.96688e-02,5.96319e-02,8.88427e-02,-8.37294e-02,1.08360e-01,4.07831e-02,-4.56694e-02,4.09176e-02,3.76435e-02,6.84482e-02,5.20623e-02,2.31276e-02,-1.91849e-02,-8.06492e-02,-1.21048e-02,8.22767e-03,-7.30890e-02,-4.16719e-02,8.81540e-02,1.94023e-02,5.10205e-02,9.56140e-03,8.36716e-03,-3.66765e-02,-4.03163e-02,9.89225e-02,8.17768e-02,-5.58322e-02,-6.97030e-02,-5.43834e-02,7.16931e-02,-4.92172e-02,-5.32586e-02,5.22930e-02,-1.94107e-02,-1.95649e-03,-1.92520e-02,-6.17027e-02,-6.45210e-02,-2.17284e-02,-6.45011e-02,2.85281e-02,4.26600e-02,-1.82427e-02,-1.50110e-02,4.74104e-02,-1.88387e-02,3.47761e-02,4.63611e-02,5.01713e-03,5.33089e-02,6.68363e-02,2.55461e-02,-6.48475e-02,6.68392e-03,5.94833e-02,2.65894e-02,8.73433e-02,3.15084e-02,2.62414e-02,-4.04552e-02,2.39349e-02,-1.24260e-03,-5.12613e-02,-4.77814e-02,3.81393e-02,3.17512e-02,-5.92688e-02,
-6.48954e-02,-9.17111e-02,-5.51984e-02,-4.26637e-02,1.97501e-02,5.00776e-02,-8.33144e-02,-4.92247e-02,-6.02916e-02,-7.79865e-02,8.50856e-02,-1.52406e-03,8.77380e-02,-3.34150e-02,5.80688e-02,-4.97243e-02,9.51232e-02,1.71088e-02,3.92270e-02,4.17493e-02,-2.54828e-02,1.77382e-02,-4.17564e-02,4.19423e-02,-8.08010e-03,1.98575e-02,2.33003e-02,-2.83901e-02,-2.00893e-02,-7.64880e-02,4.12371e-02,6.51757e-02,4.31148e-02,4.20702e-02,-9.40872e-02,5.59010e-02,-5.26715e-02,6.27040e-02,6.26581e-02,-7.53447e-02,8.72127e-02,5.39200e-02,3.41615e-02,9.12638e-02,-7.95013e-02,2.63486e-02,9.50302e-03,-1.73929e-03,7.73822e-02,-1.86977e-02,-2.02023e-02,1.95314e-02,-3.16268e-02,-2.61088e-02,9.10705e-02,-8.38864e-02,-2.86438e-02,2.42737e-02,1.93136e-02,2.14979e-02,-5.24928e-02,-5.81403e-04,8.73753e-02,-1.06638e-02,-2.11918e-02,1.03023e-01,-7.35134e-03,4.96613e-02,9.33006e-02,-1.46793e-02,4.74992e-02,9.22984e-02,4.80547e-02,-5.38286e-02,-1.18150e-02,-6.73023e-02,-4.90769e-02,5.03756e-02,1.14762e-02,9.71812e-02,8.78105e-02,8.77964e-02,-9.08716e-04,5.16543e-02,-1.59736e-02,-6.03652e-02,1.61538e-02,-4.36129e-02,-5.23093e-02,-9.01016e-02,-8.85762e-02,7.13906e-02,-3.76843e-03,-8.63013e-02,3.59212e-02,8.65728e-02,4.58526e-02,8.65931e-03,1.50876e-02,-5.04000e-02,
-6.37603e-02,-7.85374e-02,-4.61934e-03,-2.39602e-02,-4.62203e-02,8.73888e-02,-3.02760e-02,-7.22560e-02,-6.65101e-02,3.17529e-02,-1.40157e-02,1.92011e-03,-5.02776e-02,-3.39118e-02,-4.54905e-02,-8.91725e-03,6.90922e-02,1.49458e-02,-2.12017e-02,4.33156e-03,6.24211e-02,-8.86215e-02,-8.67444e-02,-7.24042e-03,2.03275e-02,3.56857e-02,-7.67983e-02,-6.44187e-02,-6.08391e-02,5.68047e-02,-5.10723e-03,8.10455e-02,-5.45665e-03,6.40268e-02,-3.80749e-02,-5.31354e-02,3.92524e-02,-3.23769e-02,-7.69183e-02,-2.45824e-02,-2.64851e-03,7.27198e-03,1.12291e-02,6.83531e-02,2.24603e-02,3.45948e-02,-4.97905e-02,2.06527e-02,1.13282e-02,5.83172e-02,-7.35354e-02,-5.51809e-02,8.10923e-02,-8.01019e-02,-2.83309e-02,-6.57219e-02,6.20173e-02,-7.47572e-02,-6.15322e-02,-1.26544e-02,-7.31281e-02,2.99274e-02,-2.29149e-03,-1.12539e-01,2.74335e-03,-1.13013e-02,8.31274e-02,3.46509e-02,-3.94005e-02,-8.73951e-02,-8.63422e-02,7.42687e-02,5.44544e-02,8.82158e-02,2.18703e-02,3.82592e-02,-9.46761e-02,-5.52751e-02,4.05241e-02,9.36370e-02,4.18577e-03,5.54892e-02,7.63268e-02,7.49679e-03,-9.41429e-03,-2.42792e-02,4.47694e-02,-8.04237e-02,8.50981e-02,2.98002e-02,-4.77367e-02,-6.35862e-02,2.02314e-02,-3.03687e-02,6.31596e-03,-9.68831e-02,-6.26243e-02,-2.42298e-02,9.88739e-02,6.17231e-02,
1.29921e-03,-3.45309e-02,8.97257e-02,1.19922e-03,8.50170e-03,9.70173e-02,5.57473e-02,9.16743e-03,-6.68707e-02,-4.01425e-02,4.98378e-02,1.84680e-02,8.20716e-02,6.96733e-02,-4.16080e-02,-2.88651e-02,-9.00930e-03,-3.21715e-03,-1.06186e-02,-4.63656e-02,-5.10804e-03,2.31555e-02,7.51639e-02,-2.17742e-02,7.29513e-02,-7.32985e-04,2.92180e-02,-8.06513e-02,-8.28160e-02,1.72597e-02,2.97695e-02,7.50154e-02,-5.94045e-02,3.68135e-02,-6.34447e-02,5.18983e-02,-4.58646e-02,-3.10667e-02,-2.14598e-02,-2.12034e-02,8.08513e-03,-5.87904e-02,8.54102e-02,7.13593e-02,-9.40858e-02,-7.90039e-02,6.19978e-02,7.57200e-02,-4.33726e-02,5.47689e-02,9.65183e-02,-2.41627e-02,5.24368e-02,-1.20943e-01,-1.78052e-02,8.60379e-03,-5.57441e-02,-8.15710e-02,1.88051e-02,1.07053e-02,-4.65389e-02,7.71596e-02,-3.47321e-02,-8.24899e-02,-2.57808e-02,1.56154e-02,-1.02207e-01,-5.81131e-02,-3.19089e-02,5.83515e-02,3.93063e-02,3.29009e-02,-1.62102e-03,1.28980e-02,-9.50692e-04,-3.07076e-02,-1.44545e-02,2.86641e-02,8.99116e-03,-6.97984e-02,7.75403e-02,-5.46421e-02,-4.90697e-02,7.68227e-02,5.41904e-02,7.29814e-02,-6.84374e-02,6.90035e-02,9.75219e-02,-3.97195e-02,9.91157e-02,1.25839e-02,-3.24923e-02,3.46089e-02,3.43357e-02,-5.92170e-02,3.54622e-02,4.86340e-02,-9.95652e-02,-1.80661e-03,
-1.65539e-02,3.63503e-02,8.76869e-02,2.34224e-02,4.82289e-02,-6.43520e-02,3.58455e-03,-8.50450e-02,6.01964e-02,6.08518e-02,9.61703e-02,-6.32283e-02,-3.77849e-02,1.09812e-02,-1.42816e-02,1.62331e-02,-8.82454e-02,4.10454e-02,6.47245e-02,1.32704e-02,-3.33032e-02,-7.39742e-02,9.12006e-02,-9.56218e-02,-2.43363e-03,-1.71248e-02,-1.29479e-02,-6.74953e-02,7.32934e-02,-7.34463e-02,3.25736e-02,-3.50923e-03,2.49063e-02,-1.65595e-02,4.48070e-02,3.32156e-02,-1.53675e-02,-7.55542e-02,-6.50365e-02,-7.03251e-02,6.99805e-02,-8.38983e-02,-5.80774e-02,6.08441e-02,4.04884e-02,-3.65032e-02,3.22045e-02,1.73886e-02,-5.95781e-02,-7.01182e-02,6.84084e-02,-2.56229e-02,-1.36961e-02,-2.67933e-02,-8.30280e-02,5.53604e-02,6.87708e-02,9.33952e-02,-2.21265e-02,-8.30579e-02,6.19869e-02,1.45486e-02,5.47906e-02,-1.00211e-01,-8.94798e-02,3.57109e-02,4.29363e-02,2.11007e-02,3.33312e-02,6.31992e-02,-9.98629e-02,7.02740e-02,-4.39172e-03,1.01131e-01,-8.93160e-02,1.43344e-02,-7.85126e-02,-4.96831e-02,-2.01930e-02,-3.99795e-02,-6.60391e-02,5.90104e-03,4.14565e-02,5.97157e-02,-7.60771e-02,7.62897e-02,1.18463e-02,7.20377e-02,9.54180e-02,-3.49447e-02,3.09987e-02,-2.30571e-02,1.81760e-03,1.92594e-02,5.46798e-02,2.21348e-02,1.78642e-02,3.28132e-02,1.66820e-02,-1.19831e-02,
-2.27095e-02,-3.71158e-02,4.07084e-02,9.16371e-02,-9.33073e-03,-7.08988e-02,5.21162e-02,5.26050e-03,-1.61554e-02,-8.82946e-02,-7.07596e-03,8.60251e-02,7.56081e-02,5.37999e-02,1.69951e-02,-2.67687e-02,8.92405e-02,7.20241e-02,-7.55699e-02,1.49481e-02,8.12520e-02,-4.14890e-02,4.75181e-02,-7.64495e-02,5.56687e-02,-2.28827e-02,6.53417e-02,1.44580e-02,-4.29954e-02,-8.76487e-02,5.96465e-02,4.91249e-02,6.49219e-02,2.97539e-02,4.70597e-02,8.33968e-02,2.86511e-02,-5.11042e-02,5.16191e-03,-2.22985e-02,5.53421e-02,-3.21598e-02,2.43101e-02,-2.03216e-02,-6.07013e-02,6.35403e-03,2.56459e-02,-1.14764e-02,-1.80942e-02,-6.42478e-02,6.32721e-02,-2.27168e-02,6.31598e-02,6.35294e-02,-6.41904e-02,-3.15389e-02,-9.28843e-03,-6.21314e-02,-9.74256e-02,3.17081e-02,-8.11047e-02,-1.51689e-02,-3.89130e-03,7.58414e-02,-5.26854e-02,2.55803e-02,3.62570e-02,-4.12558e-02,6.28016e-02,5.57889e-02,-3.02277e-02,-1.33115e-02,-1.53963e-02,7.97762e-02,3.87277e-03,-1.09533e-02,-6.47081e-02,4.13304e-02,-5.19523e-02,6.15296e-02,3.51884e-03,-2.68201e-06,5.95224e-02,7.35412e-03,2.03413e-02,-4.95947e-02,8.77884e-02,-4.02611e-02,5.72290e-02,1.37652e-02,-9.88454e-04,1.96830e-02,7.92630e-02,4.98883e-02,-7.94203e-02,1.14045e-01,8.47964e-02,2.02200e-02,-2.70125e-02,-4.37977e-02,
3.12700e-02,-3.39950e-02,-2.94004e-02,-5.32827e-03,1.53535e-03,6.45619e-02,3.43261e-02,-5.54646e-02,-4.44971e-02,8.88886e-03,8.98122e-03,-2.86452e-02,1.99837e-02,3.98961e-02,5.97423e-03,-4.63374e-02,4.74879e-02,7.44129e-02,7.84481e-03,3.82155e-02,-1.02020e-02,-9.42110e-04,-4.06081e-02,-4.03136e-02,8.46222e-02,-4.92868e-02,-1.92479e-02,6.75130e-02,3.48018e-02,-4.17839e-02,2.15907e-02,-1.27018e-02,-4.56775e-02,-7.73392e-02,-1.02416e-01,-3.15390e-03,4.96807e-02,7.00273e-02,-1.15230e-01,9.35168e-02,-3.08998e-02,9.14182e-02,-1.51796e-02,-8.52888e-02,6.57927e-02,-3.98306e-02,8.55176e-02,-8.18543e-02,-9.79012e-02,-8.64080e-02,1.30658e-02,-2.31134e-02,6.24970e-02,-5.25507e-02,7.92317e-02,-5.33408e-02,-1.12963e-01,-6.28367e-02,-2.54361e-02,9.55484e-04,9.90778e-02,-7.68141e-02,7.41235e-03,6.62662e-02,3.92993e-02,4.44828e-02,3.39837e-02,4.50579e-02,8.67715e-02,9.47744e-02,6.49353e-02,-6.02868e-02,5.32961e-02,3.20922e-02,2.83446e-02,-6.01114e-02,-1.49051e-02,8.19862e-02,-8.96808e-02,3.72164e-02,-1.02467e-02,-4.20429e-02,-1.55747e-02,-3.69644e-02,4.93416e-02,9.52148e-02,1.63178e-03,-3.60953e-02,-3.04860e-02,8.23570e-02,-7.56266e-02,-7.59101e-02,-7.53474e-02,-2.20672e-02,8.86081e-02,8.93808e-02,2.57068e-03,8.99034e-02,3.12642e-02,-2.28561e-02,
2.49568e-02,6.61309e-02,-2.53203e-02,-4.55749e-02,-6.42144e-03,1.52655e-02,-7.78773e-02,3.38189e-02,1.47884e-03,3.77160e-02,5.02229e-02,-3.25144e-02,-3.09637e-02,-6.90008e-03,2.39802e-02,-7.21756e-03,2.53120e-03,-1.42669e-03,6.30612e-02,-3.51907e-02,-3.74258e-03,9.79252e-02,6.70713e-02,-7.56423e-03,-5.29094e-02,2.36110e-02,-4.10473e-02,3.29779e-02,6.48221e-02,2.58881e-02,-6.25810e-02,1.81878e-02,4.39219e-02,-1.84879e-02,1.40127e-02,-2.31298e-03,-2.37277e-02,5.20723e-02,4.28295e-02,9.32361e-02,-6.57549e-02,7.31685e-02,4.30351e-02,-3.57909e-03,-7.07797e-02,6.09440e-02,1.03994e-02,-3.74909e-02,-7.48597e-02,7.95229e-02,-6.55233e-02,-1.90908e-02,1.88328e-03,4.34079e-02,3.18879e-02,2.95820e-02,5.51720e-02,1.24643e-04,-5.29427e-04,4.18382e-02,6.32288e-04,7.87751e-02,3.07725e-02,-8.10523e-02,-2.74967e-02,-9.36109e-02,7.05494e-02,8.26589e-02,-6.75525e-02,2.87132e-04,3.07376e-02,9.56651e-02,9.23534e-03,3.82685e-02,2.10778e-02,1.38877e-02,6.67128e-03,2.92038e-04,1.84261e-02,3.69518e-02,5.86180e-02,9.40743e-02,-2.86096e-02,5.09782e-02,8.62771e-02,-4.65530e-02,-3.80927e-02,2.52410e-02,-4.32964e-02,-4.99024e-03,3.80826e-02,-6.43160e-02,4.46119e-02,5.31344e-02,9.07588e-02,-3.59342e-02,8.89463e-02,-3.38808e-02,8.13860e-02,-8.84137e-03,
-5.92870e-03,-9.40995e-02,-8.60894e-02,1.80041e-02,-7.36436e-02,5.65615e-02,3.04848e-02,-3.43051e-03,-8.31956e-03,4.64455e-02,-1.44282e-02,-2.09507e-02,4.77725e-02,-1.79379e-03,-1.84084e-02,-8.84758e-02,-8.43391e-02,-3.40667e-03,-2.36084e-02,-1.01901e-02,-4.70158e-02,-1.30494e-02,9.41854e-02,4.62462e-02,-6.06478e-02,-1.51069e-02,-7.75066e-03,2.61481e-02,1.86710e-02,-1.95005e-02,5.32712e-02,1.09449e-01,-1.69067e-03,1.01482e-01,-5.53326e-02,9.84604e-02,2.14808e-02,-5.55716e-02,3.12390e-02,-1.14194e-04,3.11176e-02,3.25876e-02,-7.07171e-02,6.03050e-02,4.66613e-02,1.89379e-02,3.31620e-02,-8.99048e-02,1.50685e-02,1.26018e-02,3.38657e-02,2.76826e-03,-1.44230e-02,-7.52279e-04,4.80967e-02,2.18105e-02,9.62678e-02,-6.07694e-02,5.10296e-03,3.51644e-02,-8.54445e-02,-6.44381e-02,-2.17599e-02,-1.15629e-01,1.05207e-02,-7.20597e-02,-1.03774e-01,-8.41776e-02,-3.15199e-02,-1.15234e-02,-1.09975e-02,2.34819e-02,2.18876e-02,4.10989e-02,-6.36638e-02,-1.40455e-03,-9.10408e-02,-7.83661e-02,-6.13891e-02,-1.05737e-02,1.14014e-02,-9.38381e-02,-7.89834e-02,6.07467e-02,-4.87932e-02,-5.10190e-02,7.67264e-02,-3.95242e-02,8.52695e-02,8.76446e-02,-8.75784e-02,7.73554e-02,-6.65266e-02,8.19010e-02,-8.93551e-02,-3.89430e-02,6.71190e-02,-7.64514e-02,8.95874e-02,-6.04624e-02,
-6.87740e-02,8.24025e-02,-7.29370e-02,3.77595e-02,5.50235e-02,8.63485e-02,6.60360e-02,9.60957e-02,4.51703e-02,8.40231e-02,1.85083e-02,-3.41317e-02,-6.54224e-02,-6.77629e-04,-8.60461e-02,-3.14141e-02,-8.27180e-02,-3.87958e-02,7.08671e-02,-5.50544e-02,8.88712e-03,-9.83068e-02,-2.40257e-03,6.39861e-03,-4.70338e-02,-9.34527e-03,-7.42176e-02,3.98979e-02,5.99953e-03,8.41979e-02,8.64246e-02,-4.09828e-02,7.59337e-02,-6.57368e-02,6.47716e-02,-6.69776e-02,-1.80752e-02,8.55636e-02,2.27820e-02,-3.26907e-02,5.54630e-02,-8.15720e-02,1.87603e-02,3.06731e-02,-9.59897e-02,-3.12021e-02,6.63707e-02,2.25589e-02,2.52912e-02,8.76191e-02,-2.48988e-02,-6.70046e-02,-7.77039e-02,8.59806e-02,-8.95509e-02,-1.16354e-01,1.34756e-03,-3.30768e-02,1.22108e-02,-7.94115e-02,9.93651e-02,9.52511e-02,-3.76258e-02,-7.71176e-02,3.76185e-02,-7.11317e-03,-4.72750e-02,9.10698e-02,7.18111e-02,4.21138e-02,-6.91343e-02,2.77965e-02,4.30960e-02,-8.52648e-02,-1.02836e-01,4.83250e-02,3.64644e-03,-5.23157e-02,-9.00167e-02,-9.71898e-02,5.71526e-02,1.37025e-02,2.98828e-03,-4.46853e-02,-7.98469e-02,3.51445e-02,9.19887e-02,5.65357e-02,4.01662e-02,2.31006e-02,-2.82757e-02,1.86228e-02,5.95052e-02,-5.70043e-02,1.12989e-02,9.01172e-02,-6.38429e-02,-7.58664e-02,4.72293e-02,-7.19848e-02,
3.09052e-02,3.74235e-02,-2.00454e-02,-8.75240e-02,8.15089e-02,7.96521e-02,6.07708e-02,-7.81386e-02,4.73724e-02,5.95811e-02,6.24743e-02,4.26562e-02,-7.62538e-02,-2.94598e-02,-6.50849e-02,-5.49065e-02,8.34879e-02,6.70863e-02,8.57072e-02,-7.22206e-02,-9.10204e-02,-3.53494e-02,7.05268e-02,3.25013e-02,9.31175e-02,-7.40854e-02,-3.27517e-02,-2.79252e-02,-6.84002e-02,-1.65108e-02,-3.93710e-02,3.69698e-02,-6.91246e-02,7.85741e-02,-4.15771e-02,4.72310e-02,2.84252e-02,5.92501e-02,1.66875e-02,-8.12505e-02,-2.50834e-02,-8.79330e-03,-1.09728e-01,2.26872e-02,-7.39008e-02,5.36889e-02,-3.56999e-02,7.62194e-02,-9.37977e-02,-5.18675e-03,1.28668e-02,-4.15341e-02,-2.98184e-02,-4.78558e-03,1.86120e-02,1.23546e-02,-7.78198e-04,7.92848e-02,4.00765e-02,-5.56278e-02,-9.62496e-02,1.18676e-02,6.30223e-02,2.31459e-02,8.46805e-02,-1.05629e-02,-8.57685e-02,4.85333e-02,-3.98455e-03,9.60725e-02,-1.96261e-02,6.71555e-02,5.94760e-02,-5.57488e-02,-3.38635e-02,6.69894e-02,-5.37407e-02,3.75706e-02,-7.25077e-02,5.68828e-02,-7.44197e-02,-8.47538e-02,-5.04588e-02,1.33629e-02,4.25287e-03,3.95751e-02,-3.36590e-02,3.39604e-02,-2.10845e-02,1.15742e-03,3.10094e-02,6.40642e-02,-7.08427e-02,-3.08379e-02,1.24872e-02,5.66543e-02,5.84602e-02,-1.08849e-02,4.63052e-02,6.03549e-03,
8.66188e-02,-2.21402e-02,5.07713e-02,4.46371e-02,7.42167e-02,3.78493e-02,8.69846e-02,2.51143e-02,5.66544e-02,8.80263e-02,-1.19494e-02,6.02305e-02,7.99559e-02,3.65222e-02,4.94125e-02,6.24408e-02,-8.13213e-02,-9.80250e-02,-5.20347e-03,2.37321e-02,2.00768e-02,5.80590e-02,3.67977e-02,3.09352e-02,-3.87448e-02,-6.43287e-02,2.16679e-03,-1.06708e-01,-2.57990e-04,-6.13156e-02,-4.61804e-02,-1.64379e-02,-1.01055e-01,-1.57857e-02,8.09103e-03,2.36408e-02,-3.72411e-02,-3.65449e-02,2.86186e-02,-1.00251e-02,6.91269e-02,-9.89373e-02,7.44251e-02,3.93527e-02,5.91175e-02,-6.84792e-02,5.60003e-02,-9.17278e-02,4.43583e-03,7.84181e-02,8.93177e-03,9.82866e-03,8.67809e-02,2.85159e-02,1.65329e-02,4.16284e-02,-6.78190e-02,7.08467e-02,-3.00259e-02,-3.00943e-02,-7.57862e-02,7.04669e-02,-2.09390e-02,-7.73789e-02,8.94396e-02,-3.05879e-02,6.10750e-02,4.53545e-02,3.90413e-02,-8.62503e-02,-4.66075e-02,-4.73340e-02,-7.22012e-02,-1.17810e-03,7.68977e-02,2.93556e-02,5.06456e-02,-8.20636e-02,-9.54082e-02,-1.57488e-02,6.25395e-02,-9.74990e-02,3.21153e-02,-8.80783e-03,3.21116e-02,-1.00203e-02,-6.77918e-02,-6.61499e-02,-2.48832e-02,-7.95148e-02,-4.65939e-02,2.45732e-02,-4.85402e-02,-3.89186e-02,1.72438e-02,-2.00461e-05,6.30087e-02,8.45691e-02,8.39751e-02,3.47703e-02,
-6.64249e-02,-7.67412e-02,-7.29292e-02,6.63709e-02,-6.81447e-03,1.10375e-02,-3.76653e-02,5.43493e-02,3.23850e-02,1.35247e-02,5.17931e-02,1.07599e-02,5.70776e-02,-3.69608e-02,5.08635e-02,-7.97090e-02,8.32615e-02,-9.11818e-02,8.38499e-02,-1.97043e-02,6.63112e-02,-5.21624e-02,-3.91902e-02,1.22801e-02,7.21792e-02,-7.23737e-02,2.56833e-02,5.04617e-02,-7.82431e-02,-3.84928e-02,5.03425e-02,8.68433e-03,-3.85497e-02,5.70029e-02,-3.09166e-02,-2.73557e-02,5.96643e-03,-3.90364e-03,-8.56433e-03,6.05313e-02,-1.13028e-03,-6.06518e-03,8.47998e-02,-2.05137e-02,-8.85528e-02,-7.05718e-02,-1.60409e-03,-8.74253e-03,-7.38957e-02,2.94026e-02,1.60614e-03,2.42521e-02,-6.67910e-02,-5.02707e-02,4.56139e-02,-2.62020e-02,-8.31137e-02,-4.99393e-02,-3.78176e-02,-5.77464e-02,3.46620e-03,7.30634e-02,-3.98941e-02,2.56486e-02,3.06803e-02,-1.25331e-01,-1.04412e-02,3.48506e-02,8.38408e-02,-9.14062e-02,4.54042e-02,-2.58529e-02,-1.17334e-02,7.62257e-02,5.42198e-02,3.16589e-02,3.04918e-02,4.38060e-02,8.51520e-02,-6.06165e-02,-2.87507e-02,-4.32512e-02,-5.64940e-02,-3.59638e-02,8.46085e-02,3.23349e-02,-3.06086e-02,4.92278e-02,-7.99334e-02,-5.85528e-02,1.31708e-02,-3.85031e-02,-6.36482e-02,6.80381e-03,2.71732e-02,6.98223e-02,-5.77707e-02,7.26612e-02,7.56676e-02,-5.25885e-02,
-7.23940e-02,-9.44379e-02,-3.66480e-02,8.39483e-02,5.89172e-02,5.79926e-02,1.57882e-02,2.37146e-02,8.50675e-02,5.68440e-02,3.10953e-02,6.53966e-02,-3.80602e-02,-3.82739e-02,5.99883e-02,2.62149e-02,5.42327e-02,2.99910e-02,9.48940e-03,7.60912e-02,-6.55471e-02,2.44317e-02,-7.93304e-03,1.91699e-02,-8.04176e-02,-6.52709e-02,-8.44870e-02,2.87645e-02,-4.94344e-02,1.76542e-02,5.34452e-02,4.99429e-02,9.41273e-02,-1.85815e-02,-6.85065e-02,-5.68806e-02,-3.72871e-02,-5.73385e-02,2.22609e-02,5.85011e-02,2.73864e-02,3.94848e-02,6.20394e-02,-1.26029e-02,8.79634e-02,-3.27306e-02,-4.55141e-02,-3.28919e-02,7.32970e-03,-5.91518e-02,8.89513e-02,-6.99177e-02,-7.15387e-02,7.41336e-02,-1.98937e-02,-8.47939e-02,7.94628e-03,4.01552e-02,-8.52484e-02,-7.21159e-02,2.43819e-02,5.71862e-02,-6.71432e-02,-8.18897e-02,4.62703e-02,-3.88024e-02,-7.23638e-02,-3.76796e-03,-2.05061e-02,6.25007e-02,-8.60572e-02,1.39144e-02,-6.83224e-02,2.89189e-02,-4.85327e-02,-8.04720e-02,-9.55957e-03,-9.95922e-02,8.75811e-02,9.66733e-02,7.09578e-02,5.49548e-02,1.21591e-02,-6.93752e-03,3.91311e-02,4.68055e-02,-6.76878e-02,-4.83878e-02,6.38654e-02,8.44042e-02,-6.47186e-02,-8.30540e-02,2.52136e-02,9.74936e-02,-7.98987e-02,-1.42985e-02,7.80462e-02,-3.44628e-03,-8.32859e-02,-8.94703e-02,
-4.05380e-02,7.39870e-02,-3.67647e-02,4.40000e-02,-3.26769e-02,3.67360e-02,9.85602e-02,-4.76755e-02,-9.66592e-02,7.38457e-02,1.84056e-02,-5.12897e-02,1.67487e-02,-7.26684e-02,-7.63488e-02,2.62806e-02,9.49217e-03,4.61653e-02,-6.81738e-02,1.00207e-02,1.02572e-02,-7.99209e-02,-8.64416e-02,2.55302e-02,6.83208e-02,-9.03882e-02,7.82212e-03,-4.07984e-02,-1.91253e-02,1.25225e-03,5.51826e-02,3.53090e-02,6.87463e-02,-1.64534e-02,-5.01815e-02,1.12958e-02,-7.81874e-02,-9.33248e-02,7.79412e-02,1.87011e-02,5.32422e-02,6.00590e-02,-8.76901e-02,-5.39195e-02,8.39248e-02,6.26254e-02,3.80369e-02,8.80230e-02,-2.50431e-02,-6.27749e-02,4.91820e-02,-6.06813e-02,1.34086e-03,6.99691e-03,-6.05340e-02,5.66854e-02,6.83329e-02,7.02949e-02,7.56107e-02,-8.85552e-02,-7.95052e-02,3.62662e-02,-4.19419e-02,6.23653e-02,-9.49271e-02,-6.61644e-02,-7.20844e-02,-5.25276e-02,8.14863e-02,3.03751e-02,9.27334e-02,-3.14325e-02,-7.86123e-02,-8.16193e-02,-2.40487e-02,4.44348e-02,-3.82838e-02,8.00351e-02,7.62163e-02,-5.73362e-02,-1.10396e-02,1.55665e-02,6.94477e-02,8.35688e-02,-5.17832e-02,-3.14684e-02,-2.66133e-02,9.32171e-02,-7.75546e-04,-6.37339e-02,7.15846e-02,9.28614e-02,8.48297e-02,2.71177e-02,-5.86133e-03,-5.16709e-02,7.46124e-02,-9.79819e-02,-7.70364e-02,3.47877e-03,
1.14574e-02,-7.07950e-02,-1.00023e-01,-1.13982e-02,-4.49044e-03,-4.29870e-02,6.49527e-02,8.93899e-02,5.86714e-02,-4.41044e-02,-9.04978e-02,-8.10342e-02,3.59017e-02,-1.24151e-02,7.94411e-02,1.79268e-02,2.40138e-02,1.40501e-03,4.99178e-02,-9.83087e-03,-3.04254e-03,-9.18662e-02,-6.41547e-02,6.06456e-03,1.97457e-02,6.43103e-02,3.96727e-02,7.22897e-02,9.88657e-03,-8.86403e-02,3.36291e-02,8.30083e-04,4.04285e-02,1.07267e-03,5.32204e-02,-7.66158e-02,3.67240e-03,7.95429e-02,-4.78739e-02,-1.00354e-01,-7.14432e-02,6.51724e-02,4.06295e-02,6.59398e-02,-6.33538e-02,9.03849e-02,3.95089e-02,2.58761e-03,-3.23142e-02,2.25565e-02,4.31503e-02,-2.17371e-02,-6.45400e-02,-3.92617e-02,4.39058e-02,9.47876e-02,1.56402e-02,3.80651e-02,-6.66600e-02,4.12077e-02,-2.91727e-02,1.37394e-02,1.36396e-02,-1.02450e-01,-9.35847e-02,-8.70546e-02,3.49339e-02,-4.29676e-02,4.11293e-02,-6.05928e-02,3.87057e-02,8.66980e-02,-3.97179e-02,9.23520e-03,-4.19355e-02,7.92724e-02,-1.03754e-03,6.96189e-02,-6.26948e-02,-5.60434e-03,9.78609e-03,3.09974e-02,1.88348e-02,-5.08231e-02,-7.91220e-02,-9.40016e-02,-4.84322e-02,-3.05405e-02,7.54350e-02,5.14108e-02,4.08698e-02,-5.97813e-02,-6.65809e-02,7.56658e-02,-2.02724e-02,-8.54970e-02,-5.10369e-02,2.29234e-02,4.51104e-02,-7.42832e-02,
5.14536e-02,4.02894e-02,-1.55735e-02,2.18803e-02,-4.16403e-02,8.27089e-02,6.09248e-02,3.85885e-03,-5.57767e-02,-1.78356e-02,-1.68571e-02,1.73783e-02,-2.56620e-03,5.54234e-02,5.90879e-02,-2.60587e-02,1.61320e-02,-9.20020e-02,-1.63296e-02,-5.63860e-02,-3.84450e-02,-9.40622e-02,8.52256e-02,-8.11409e-02,-9.11288e-02,-1.12546e-01,3.28681e-03,6.28058e-03,-2.76301e-02,-7.03009e-04,7.42698e-02,-7.14206e-02,5.27949e-02,-4.26246e-02,4.75585e-02,-4.66559e-03,-7.55563e-02,2.26309e-02,-9.19901e-02,5.50557e-02,-6.77440e-02,-3.36844e-02,7.52538e-02,-5.78649e-02,-7.26803e-02,-7.91336e-02,-7.68776e-02,-7.66015e-02,7.35004e-02,-7.12987e-02,-9.73951e-02,6.35358e-02,2.48934e-03,-2.65623e-02,-3.10546e-02,4.47067e-02,3.60837e-02,7.39483e-02,6.91854e-02,-6.98245e-02,8.86110e-02,-8.62828e-02,7.11657e-02,-8.24078e-02,2.45424e-02,5.33155e-02,2.72894e-02,-8.48232e-02,4.03125e-02,2.83638e-02,8.40425e-02,-9.80045e-02,7.34130e-02,1.47378e-02,3.10592e-02,-3.25555e-02,-2.38515e-02,3.95668e-02,6.03490e-02,-8.91744e-03,-9.24826e-03,3.02888e-02,-6.69378e-02,-8.31540e-02,3.77943e-02,2.61405e-02,5.05240e-02,3.07267e-03,7.03380e-02,-1.02995e-03,1.09102e-02,3.34867e-02,1.27624e-02,-7.28313e-02,-5.28158e-02,-4.04740e-02,-1.74662e-02,9.01477e-02,-2.40463e-02,-2.64735e-02,
-8.09481e-02,2.96810e-02,2.87237e-02,-9.88123e-02,3.15413e-02,-1.08334e-02,1.35317e-03,9.23884e-02,1.87267e-02,-3.81402e-02,8.22933e-02,6.06245e-02,-9.61017e-02,-1.71134e-02,1.94194e-02,-3.66524e-02,3.15790e-02,4.07985e-02,-7.31689e-02,1.62691e-02,1.31479e-02,-1.73082e-03,1.21798e-02,4.67495e-02,6.09907e-02,9.98787e-02,-4.38797e-02,2.31166e-02,9.19168e-02,3.57215e-02,-9.11885e-02,6.76334e-02,-3.16441e-02,-4.25364e-02,3.24428e-02,-1.77193e-02,1.93666e-02,-9.62351e-02,4.06636e-02,2.61773e-02,-4.61078e-02,-9.69828e-02,-5.95536e-03,-7.56486e-02,4.70214e-02,-8.86195e-02,-4.16558e-02,6.73444e-02,-4.28163e-02,-4.75694e-02,8.22806e-02,9.84279e-02,-3.32781e-02,-6.56569e-02,4.40112e-02,9.24254e-03,-2.80660e-02,-7.24305e-02,-6.09989e-02,-9.85257e-02,6.42916e-02,9.30452e-02,-2.72248e-02,7.11361e-02,8.57570e-02,-1.21578e-01,-4.55216e-02,-7.74660e-02,4.02947e-02,-4.96059e-02,-1.91336e-02,3.01482e-02,7.66598e-02,-8.04266e-02,1.32139e-02,-1.03813e-01,-8.31866e-02,-1.86497e-02,-1.32845e-02,7.32308e-03,-9.40972e-02,-8.85538e-02,3.45882e-03,-7.02551e-04,7.17598e-02,-2.27562e-02,1.01868e-02,-2.70831e-02,6.26114e-02,3.74789e-02,6.95079e-02,7.31073e-02,-2.46161e-02,-5.17070e-02,1.17174e-03,-3.08324e-02,3.07587e-02,-2.38190e-02,3.01880e-02,2.65771e-02,
-7.01690e-03,2.60611e-02,7.76124e-03,-9.95707e-02,7.22039e-02,1.12560e-02,1.71187e-02,3.53930e-02,-9.04395e-02,-1.33649e-02,-2.61251e-02,-3.91479e-02,-9.51719e-02,-6.02482e-02,8.29841e-02,1.01849e-01,7.24379e-02,2.34047e-02,2.62276e-02,-2.90740e-02,5.36109e-02,1.01464e-01,-2.74596e-02,9.36623e-02,-6.38381e-02,-3.88416e-02,5.76272e-02,-4.72903e-02,-3.91697e-02,-8.32856e-02,-2.41834e-02,1.54302e-02,-7.35890e-02,-4.34215e-02,-1.65968e-02,5.15091e-02,4.92618e-02,2.99677e-02,-1.83473e-02,-3.29632e-02,9.86795e-02,1.16394e-02,-4.13223e-02,-2.45836e-02,-2.96605e-02,3.42876e-02,-4.92016e-02,7.62699e-02,-7.59484e-02,-1.37171e-02,-9.09425e-02,-9.60882e-02,-2.39328e-02,-4.17209e-02,-7.20155e-02,-6.67294e-02,-3.74715e-02,-7.50160e-02,4.66036e-02,8.64098e-02,-6.34731e-03,3.67296e-02,5.10280e-02,6.00322e-02,-9.22317e-02,3.84264e-02,5.13072e-02,5.62234e-02,6.17462e-02,-3.84234e-02,2.64257e-02,-8.53001e-02,7.05169e-02,3.56847e-02,4.94538e-02,6.74376e-02,3.25958e-02,-8.65242e-02,3.28185e-02,-2.37781e-02,1.06373e-02,1.46640e-02,-6.82565e-02,9.29875e-02,1.35822e-02,7.85338e-02,1.76634e-02,5.94893e-02,-1.17943e-02,-5.19238e-02,-9.74065e-02,-8.93093e-02,3.84027e-02,-1.87793e-02,1.35921e-03,-4.26050e-02,-1.46668e-02,-3.51298e-02,5.85546e-02,4.84785e-02,
3.34353e-02,3.14777e-02,2.41756e-02,8.40070e-02,5.16791e-02,-6.90670e-02,7.58214e-02,2.74844e-02,4.45499e-02,1.48852e-02,3.47879e-02,7.22854e-02,1.26792e-02,-8.90193e-02,-1.53285e-02,8.37301e-02,-6.11688e-02,-4.87394e-02,2.20575e-02,-3.43495e-02,9.79744e-02,-1.65574e-02,-7.37815e-02,-4.47055e-02,5.94445e-03,-1.10037e-01,-1.08811e-03,-8.86299e-02,-2.91807e-02,-3.57403e-02,5.50111e-02,-1.37995e-03,-3.02052e-02,-9.98920e-03,6.18610e-02,3.25622e-02,5.61935e-02,5.34143e-02,2.08591e-02,3.60454e-02,-1.54283e-02,6.75914e-02,1.63010e-02,1.08814e-02,6.93890e-04,7.37580e-02,-4.95300e-02,8.15217e-02,3.48668e-02,-2.69228e-02,4.19609e-02,-2.65709e-02,4.30622e-03,2.37985e-02,-1.79152e-02,3.75197e-02,4.00292e-02,-1.95808e-03,-3.00900e-02,-2.75499e-02,-7.83894e-02,7.90846e-02,1.14149e-03,6.74142e-02,-2.13830e-02,8.96114e-03,1.90812e-02,5.26232e-02,-7.65554e-02,-8.33455e-02,9.34931e-02,-4.16180e-02,-5.25928e-02,-6.89880e-02,6.56713e-02,-3.02567e-03,-8.23040e-02,-8.30162e-02,7.79413e-02,8.95213e-02,-1.66317e-02,7.30572e-02,1.04872e-02,7.38043e-02,8.33663e-02,3.48014e-02,1.30041e-02,6.01323e-02,-2.72393e-02,7.90294e-02,-2.26388e-02,-1.17145e-02,-4.66246e-02,1.81839e-02,8.73084e-02,8.68737e-02,2.66564e-03,-5.49739e-02,-1.98735e-02,-4.66053e-03,
6.91761e-03,-2.52918e-02,3.91649e-02,3.62393e-02,8.85670e-02,-4.43533e-02,-4.82407e-02,-3.10361e-02,-3.88082e-02,9.12367e-02,-6.79372e-02,-5.91408e-02,-9.88962e-02,2.72338e-03,-3.54010e-02,5.47664e-02,5.76871e-02,-5.89705e-02,8.08482e-04,4.29695e-02,-5.46859e-02,2.79964e-02,-1.57868e-02,4.91347e-02,4.82305e-02,-5.41281e-03,-9.56666e-02,6.41332e-02,2.14895e-02,-6.19367e-02,1.04956e-02,1.08255e-02,5.62526e-02,6.81541e-02,3.61144e-03,2.16575e-02,5.46518e-02,-3.17805e-02,-6.36968e-02,5.48599e-02,-9.41059e-02,-2.01190e-02,-3.49076e-02,9.74098e-02,-1.67371e-03,1.06498e-01,3.95104e-02,-4.87459e-02,-3.76161e-02,3.00228e-02,4.48880e-02,7.39904e-02,-3.82581e-02,-5.53288e-02,-3.79902e-02,2.50312e-02,-9.92874e-02,-5.44671e-02,5.05684e-02,-9.85671e-02,-2.94887e-02,-8.46366e-02,-8.97352e-02,4.18910e-02,-9.60621e-02,-9.26119e-02,-9.70969e-02,-7.50845e-02,-1.80274e-03,-4.23966e-03,-6.84356e-02,6.32609e-03,-1.89293e-02,-3.05660e-02,4.69497e-02,-1.62163e-02,-3.10068e-02,-3.77253e-02,-5.97116e-02,-9.43926e-02,-7.54362e-02,-8.42817e-02,-1.31411e-02,4.05749e-02,1.34736e-03,5.82346e-02,7.19019e-03,4.85777e-02,1.30760e-02,-1.28831e-02,-3.78820e-02,9.72171e-02,-1.01983e-01,-8.34893e-02,-5.41798e-02,-2.54155e-02,9.35614e-02,-3.18573e-02,5.19545e-02,6.64325e-02,
-5.85938e-02,4.32859e-02,1.08322e-02,-2.57007e-03,-8.36748e-02,-2.71938e-02,1.78537e-02,-2.72013e-02,2.47127e-02,1.63259e-02,-7.39919e-03,2.30203e-02,5.45312e-03,-6.96167e-03,8.34556e-02,6.92914e-02,9.92936e-02,-4.18154e-02,-1.34101e-02,-1.32564e-02,-4.10826e-02,-7.23468e-02,7.73502e-02,-9.01542e-02,-6.47656e-02,7.81120e-02,6.96016e-02,9.13907e-02,4.56167e-02,8.62604e-03,-6.44681e-02,3.44906e-02,5.45888e-02,-7.04120e-02,-1.42768e-02,-2.16219e-02,-8.91479e-02,-2.87812e-03,4.13585e-02,5.34840e-02,8.98014e-02,-5.99124e-02,-1.09807e-02,-6.44695e-02,3.07716e-02,-5.10721e-02,-2.47297e-02,-1.58911e-02,-1.14308e-02,-2.06572e-03,5.55243e-02,2.68533e-02,4.60765e-02,-2.21917e-02,9.10583e-03,6.74498e-02,3.15887e-02,2.61028e-02,3.39983e-02,-9.37052e-02,5.76901e-02,-4.65349e-02,2.13519e-02,-4.71813e-02,2.33395e-02,-5.10570e-02,-2.25309e-02,-5.53246e-02,3.24550e-02,7.02088e-02,2.16102e-02,-2.74050e-02,6.02766e-02,3.87752e-02,1.61032e-02,-5.88747e-02,1.71382e-02,-7.58890e-02,2.91156e-02,-1.18775e-02,6.60193e-02,-5.20161e-02,-1.99085e-02,7.02965e-02,6.40386e-02,2.85589e-02,3.29034e-02,-8.18549e-03,-8.06757e-02,4.08291e-02,2.37978e-02,-8.91851e-03,-5.74676e-02,-9.45349e-02,4.98849e-03,4.43178e-02,6.69245e-02,3.86101e-02,6.38696e-02,5.92739e-02,
3.65559e-02,9.31696e-02,-5.62705e-02,8.10018e-02,-3.92224e-02,9.01116e-02,-9.19427e-02,-8.29110e-02,1.54777e-02,-9.50924e-02,7.00818e-02,4.28681e-02,8.73427e-02,9.24890e-02,-2.08499e-03,-5.86032e-02,-7.87895e-02,4.51450e-02,-2.33246e-02,1.81520e-02,-1.82096e-03,-1.02467e-02,7.53339e-02,2.79226e-02,-2.35169e-02,-2.01513e-02,2.93420e-02,2.32509e-02,-9.38563e-02,1.05941e-02,-9.92628e-02,-7.17651e-02,-3.90964e-02,-6.35274e-02,4.45198e-02,-2.03871e-02,-6.56431e-02,-1.03233e-02,5.25845e-02,4.42203e-02,-8.32968e-02,-4.32481e-02,8.27548e-02,-5.07987e-02,6.09135e-02,-7.12036e-02,3.56945e-02,2.91401e-02,-8.02454e-02,-6.60747e-02,6.72098e-02,-3.07203e-02,4.60506e-02,-6.47984e-02,3.69064e-02,-6.18454e-02,-4.72817e-02,-3.51105e-02,-6.02288e-02,-9.63031e-02,-8.75826e-02,-4.35841e-02,-3.04317e-02,5.20313e-02,1.65956e-02,-8.92622e-02,4.39958e-03,-5.48110e-02,2.02676e-02,6.73688e-02,-9.34775e-02,-7.71759e-02,6.32963e-02,4.24540e-03,8.41275e-02,7.61536e-02,-5.49449e-02,-8.32873e-02,3.85725e-02,-6.06907e-02,9.60330e-02,8.62727e-02,7.08885e-02,4.17985e-02,-6.50704e-02,1.18609e-01,2.95946e-02,3.23562e-02,1.25392e-02,1.81994e-02,-2.90830e-02,7.25497e-02,-5.71406e-02,6.64089e-02,-7.12536e-02,-4.98445e-02,-8.73832e-02,-1.34935e-02,7.13078e-02,-5.48751e-03,
-7.46020e-02,8.66427e-02,6.10759e-02,9.17453e-02,-7.14476e-05,-4.88340e-02,-6.27574e-02,-3.17030e-02,-7.73146e-02,-3.03059e-02,3.64499e-02,-4.16489e-02,-7.59348e-03,-7.36842e-02,-8.64512e-02,-1.11063e-01,-8.58338e-03,-1.05170e-01,5.01837e-02,3.11981e-02,1.05339e-02,-5.27721e-02,-4.91276e-02,-7.70399e-02,3.87571e-02,-6.76161e-02,1.73484e-02,-5.12208e-02,2.33226e-03,-8.12544e-02,-7.95368e-02,-5.14174e-02,-4.83597e-02,2.07477e-03,3.48654e-02,-4.94251e-02,3.47776e-02,-4.90675e-02,6.69917e-02,2.93827e-02,-7.94048e-02,-4.63220e-02,-5.48920e-02,5.97596e-02,3.88644e-02,1.42154e-02,1.53486e-02,-1.84261e-02,8.69288e-02,-5.49758e-02,-7.92295e-02,-3.61369e-02,2.07292e-02,5.02811e-02,-2.89398e-02,2.01966e-02,6.47505e-02,-1.10883e-01,-3.36957e-02,9.08961e-02,3.99185e-02,-8.42436e-02,2.30051e-02,-1.02868e-01,7.88620e-02,1.72152e-02,-8.45911e-02,-8.43075e-02,2.10307e-02,-5.97613e-02,5.20216e-02,3.60814e-02,-3.12684e-02,4.22310e-02,3.93062e-02,-6.55084e-03,3.34252e-02,9.38948e-02,-8.89479e-02,-6.33583e-02,-9.08398e-02,-1.00617e-01,-8.72640e-02,5.39874e-03,5.03915e-03,-6.22436e-02,-1.80388e-03,1.01185e-01,-7.26069e-03,1.06939e-02,-3.02979e-02,5.76919e-02,9.74047e-02,4.07472e-02,-8.41717e-02,8.65569e-02,-6.01489e-02,6.46627e-02,-4.37020e-02,-5.47590e-02,
-7.89640e-02,-1.11816e-02,8.17973e-02,-1.46207e-02,-2.88332e-02,7.07588e-02,-1.32496e-02,-6.29740e-02,-3.36257e-02,-1.33377e-02,-5.62857e-02,5.38833e-02,5.46952e-02,-4.92279e-02,-5.52485e-02,-7.01896e-02,9.37013e-02,5.61260e-02,-5.88953e-02,-2.37060e-02,-1.32310e-02,2.25757e-02,5.17247e-02,2.36378e-02,-6.94333e-02,2.67990e-02,-7.46473e-02,5.93130e-02,4.63103e-02,-4.90605e-02,8.10621e-02,-6.19470e-03,6.87540e-02,7.75416e-02,4.44462e-02,2.85338e-02,-3.59322e-02,-6.96277e-02,-7.50483e-02,7.74086e-02,-2.18007e-02,-6.07087e-02,-4.65924e-02,4.57815e-02,8.24639e-02,-4.24549e-02,1.28061e-02,8.84146e-02,2.69878e-02,4.90063e-02,-9.24264e-02,8.15818e-02,7.98197e-02,-6.99795e-02,-3.23275e-02,5.80923e-02,-4.80944e-03,-1.21781e-02,-5.20821e-02,8.80355e-02,9.60446e-02,-3.91400e-02,-9.60770e-03,-7.81272e-02,1.30896e-02,2.87474e-02,-1.14033e-03,-5.38546e-02,2.37578e-02,-7.15646e-02,2.17281e-02,2.20262e-02,8.34703e-02,-6.00428e-02,-8.45233e-03,-5.91856e-02,8.65868e-02,1.80879e-02,-9.70209e-03,9.02038e-02,2.92528e-02,-3.44683e-02,-2.01219e-03,8.90323e-02,-4.50655e-04,1.71656e-02,-7.78789e-02,-7.07619e-03,-9.36017e-02,-5.60512e-02,4.12235e-02,8.71433e-02,2.51840e-02,-1.35258e-02,4.86347e-02,-2.58960e-04,-7.09917e-02,-4.85466e-02,5.78238e-02,8.15167e-02,
4.96125e-02,-3.79453e-02,-2.19169e-02,-3.84150e-02,7.56837e-02,-4.64068e-02,7.68565e-02,1.96647e-02,7.73418e-03,-9.06946e-02,-5.94296e-02,5.24430e-02,-3.82046e-02,1.18720e-03,-9.31022e-02,5.62925e-02,8.70311e-02,-8.32126e-02,3.89530e-02,8.16491e-02,-6.21579e-02,-9.30923e-02,8.26480e-03,-7.43724e-02,1.32191e-02,-5.96502e-02,4.55853e-02,-3.31249e-02,-9.77026e-02,3.52091e-02,7.13663e-02,-7.66035e-03,4.26752e-02,-1.12521e-02,-8.89221e-02,-9.57439e-03,-3.77120e-02,1.20033e-04,-3.91790e-02,3.93736e-02,-1.43695e-02,1.92765e-02,-6.08571e-02,-2.42523e-04,-3.07801e-02,2.12584e-02,-6.96550e-02,7.13369e-02,9.90660e-02,-4.57159e-02,9.57185e-02,7.97912e-02,-7.09049e-02,6.78953e-02,-7.29609e-02,4.14155e-02,-5.22838e-02,7.06992e-03,-3.37888e-02,-9.85943e-03,-9.88090e-02,-8.03040e-03,6.15781e-02,5.30278e-02,-2.83159e-02,6.23190e-02,-8.72714e-02,-6.25064e-02,-5.90843e-03,-4.04978e-02,-4.95698e-03,8.15390e-02,-2.76488e-02,7.18968e-02,-1.49754e-02,5.71745e-02,2.59145e-03,-3.18370e-02,6.80312e-03,-2.49623e-04,8.33167e-02,4.13250e-02,5.33955e-02,-8.48371e-03,-1.07038e-02,6.45662e-02,-7.30768e-02,-9.46315e-02,-8.92178e-02,5.99748e-02,-2.12547e-02,-1.71245e-02,-1.93340e-02,-5.60344e-02,-3.43217e-02,2.53123e-02,6.57439e-02,-3.63054e-02,5.75959e-02,2.30352e-02,
-9.71362e-02,8.07186e-02,-2.40944e-02,9.37640e-02,-1.44381e-02,-6.60992e-02,3.21781e-02,2.81020e-03,6.83739e-02,8.64897e-02,-5.28394e-02,-2.04073e-02,-2.71655e-02,-2.89447e-02,-3.56115e-02,4.84771e-02,2.81970e-02,6.28440e-03,-5.44451e-02,4.09667e-02,4.00886e-02,-2.58012e-02,-4.26380e-02,5.00871e-02,1.22696e-02,7.31820e-02,7.51778e-02,1.48969e-02,4.26260e-02,-9.81294e-02,-1.49280e-03,6.47036e-02,-4.59989e-02,-9.35032e-02,5.10050e-02,6.44685e-02,-2.78675e-03,5.03015e-02,4.35937e-02,-1.44210e-02,-2.29197e-02,3.68340e-03,-8.62494e-02,-4.67301e-02,-1.00721e-01,4.23151e-02,6.82835e-02,-1.59476e-02,-8.61634e-02,5.39897e-02,7.44949e-02,-8.00331e-02,4.65565e-02,-5.35672e-03,-1.06624e-01,-6.74525e-02,5.78272e-02,1.28114e-02,-1.44941e-02,-9.61539e-02,-3.23878e-03,3.11224e-03,-8.12941e-02,-3.42127e-02,-8.83556e-02,-5.36070e-02,-8.14809e-02,-4.84224e-02,-1.67299e-02,9.32478e-03,-3.71440e-02,7.15480e-02,-8.73160e-02,-3.31231e-02,9.16113e-02,-2.43979e-02,-7.78834e-03,-5.27521e-02,4.89139e-03,-7.32662e-02,-4.50149e-02,-6.20581e-02,1.49346e-02,6.07712e-02,-9.42501e-02,5.08049e-02,-6.39872e-02,-9.01948e-02,9.31196e-02,9.56722e-02,9.51424e-02,3.44713e-02,-1.30390e-02,4.49605e-02,7.21029e-02,-7.69851e-02,-5.58173e-02,8.23096e-02,3.92727e-02,2.82163e-02,
-6.79445e-02,-9.81577e-02,-9.46099e-02,4.39582e-02,8.56375e-02,4.98959e-02,-5.69764e-02,3.15248e-02,5.75124e-02,1.89861e-02,-7.02636e-02,-7.85829e-02,-7.11779e-02,9.04818e-02,-8.09401e-02,1.76890e-02,-5.06232e-02,-1.04702e-02,9.69723e-02,4.55299e-02,-3.31817e-02,1.25542e-02,-4.73867e-02,4.70100e-02,7.66663e-02,-2.97353e-02,-3.48455e-02,6.64283e-02,9.26675e-03,-9.33830e-02,-7.03879e-02,6.14938e-02,-7.94404e-02,-2.37393e-02,-9.86134e-02,6.28898e-02,-5.10533e-02,4.12994e-02,6.50570e-02,-1.00724e-01,-9.25925e-02,2.36468e-02,9.27675e-03,-7.50173e-02,-3.16337e-02,-3.69772e-02,-5.07008e-02,-4.63546e-02,-8.89446e-02,-8.72510e-02,8.43339e-02,-4.82947e-02,-6.21360e-02,-2.92080e-02,6.76932e-02,5.18196e-02,7.07574e-02,3.84508e-02,8.90549e-02,-3.87243e-02,-5.10383e-02,-1.59593e-02,6.94276e-03,-9.46886e-03,-6.20468e-02,-4.44779e-02,6.99007e-02,5.95978e-03,7.38987e-02,-8.04194e-02,-9.33167e-02,9.60296e-02,-9.73486e-02,-5.41224e-02,7.01065e-02,4.67489e-02,-3.48834e-02,8.33936e-02,-5.68125e-02,3.54687e-02,4.31893e-02,1.72488e-02,6.78383e-02,2.99445e-02,-1.10391e-02,-7.63359e-02,-3.28989e-02,2.05490e-04,6.58878e-02,-4.98426e-02,-8.74787e-02,4.40583e-02,-8.73511e-02,-8.83255e-03,-8.30462e-02,-6.82394e-02,-5.74047e-02,-9.89891e-02,3.39559e-02,-1.65505e-03,
3.63609e-02,-3.90077e-03,-1.45881e-02,1.22790e-02,-4.26752e-02,4.34840e-02,-9.75164e-02,3.43447e-02,1.79739e-02,-4.07205e-04,-8.18381e-04,-3.84343e-02,-3.92860e-02,-9.49573e-02,-7.48891e-02,-4.84215e-02,5.73052e-02,-1.41629e-02,-4.27039e-02,-6.52056e-03,-1.48309e-02,4.65204e-02,4.60001e-02,-7.43803e-02,4.80743e-02,-7.44768e-02,-7.97965e-02,-2.64385e-02,-2.82023e-02,5.88582e-02,9.79168e-02,-1.39484e-02,-5.77186e-02,-9.23126e-02,-5.22829e-02,-1.42852e-02,3.28314e-02,-3.01605e-02,4.80835e-02,-3.73385e-02,-2.31216e-02,-4.19177e-02,-6.71449e-02,-9.19370e-02,1.05296e-01,2.44945e-02,4.34825e-02,-1.05447e-01,3.18005e-02,2.85588e-03,5.36322e-02,-6.68261e-02,2.16238e-02,-6.11374e-02,6.60186e-02,-5.19173e-02,9.03013e-02,-8.34436e-02,-2.12115e-03,-3.86472e-02,8.85527e-02,7.36908e-02,-8.37750e-02,4.64910e-02,2.12010e-02,4.09252e-02,1.30801e-03,4.48670e-02,-2.90832e-02,-4.56191e-02,9.12658e-02,8.20466e-03,-6.70427e-02,1.00971e-02,-6.29724e-02,5.69155e-02,-4.14891e-02,-2.03152e-02,1.27833e-02,-4.03551e-02,-6.77542e-02,6.19075e-02,8.04293e-02,9.44902e-02,-5.13089e-02,-1.00968e-02,-4.25718e-02,-8.47160e-03,2.84639e-02,-6.65048e-02,2.02450e-02,-1.62169e-02,-9.53256e-02,-2.04254e-03,2.39774e-03,3.63178e-03,8.52987e-02,7.03964e-02,-9.81980e-03,9.99863e-03,
-2.44255e-02,5.52733e-02,9.89338e-02,-3.37784e-02,7.43702e-02,5.69143e-03,-3.97172e-02,4.94856e-02,5.55435e-02,-6.53603e-02,-4.65985e-03,-9.11097e-02,-7.87570e-02,1.92100e-02,-3.77411e-02,6.85126e-03,-3.50196e-02,-1.10542e-02,-5.01046e-02,-6.24295e-02,6.70190e-02,-1.67885e-03,5.83207e-02,7.36654e-02,1.65684e-02,-3.54641e-02,3.53532e-02,7.39809e-02,5.17249e-02,-3.44719e-02,4.55807e-02,2.37841e-02,5.54251e-02,5.74322e-02,-6.37057e-02,-2.62297e-02,-7.83628e-02,1.14616e-02,5.76693e-02,-4.02275e-02,6.61106e-02,4.78385e-02,7.58415e-02,-5.83537e-02,7.07360e-02,4.34448e-02,7.74369e-02,-8.65741e-02,-6.88476e-02,5.77717e-02,-8.31561e-02,1.97262e-02,4.26995e-02,2.57785e-03,-2.19563e-02,-2.21912e-02,-8.11736e-02,1.47294e-02,7.42938e-03,1.12784e-03,3.01155e-02,-2.98691e-02,-9.95024e-02,-8.00717e-02,8.06920e-03,-8.25455e-02,7.25472e-02,-8.80945e-02,1.09259e-02,-8.46688e-02,-3.27111e-02,7.68259e-02,6.52316e-02,-1.28416e-03,1.65378e-02,-4.17071e-02,8.12972e-02,4.36570e-02,-1.40136e-02,3.47730e-02,-1.51449e-02,2.80541e-02,6.75255e-02,-6.76246e-03,8.37757e-02,1.53288e-02,-3.64734e-02,8.31434e-02,-4.54879e-02,-8.39846e-02,7.09382e-02,-1.19756e-02,-3.07950e-02,-7.41439e-02,6.46500e-02,3.53431e-02,1.02175e-01,3.10416e-02,-9.67099e-03,8.60731e-02,
